nep4 2 O H 
cutoff 6 4 373 117
n_max 8 8
basis_size 8 8
l_max 4 2 0
ANN 80 0
 -8.3952320e-01
  2.4868827e+00
  2.3500401e-01
  5.0704920e-01
 -1.2525252e-02
 -1.1919709e+00
  2.5536678e+00
 -2.0045884e+00
 -6.9367313e-01
  7.3169154e-01
 -1.3731943e+00
 -6.2226409e-01
 -1.6772678e+00
  2.4731646e-01
  6.5791839e-01
  1.2975093e+00
 -5.3491521e-01
 -6.7987239e-01
  2.1800611e-02
 -7.6510555e-01
 -2.2368388e-01
  5.8466863e-02
  8.8504285e-01
 -2.5083044e+00
  2.5295541e-01
 -1.5804636e+00
  9.1203330e-03
 -6.2274969e-01
  9.3353873e-01
  1.5552092e-01
 -5.5197150e-01
 -1.9611791e-01
 -9.9690014e-01
  8.2117331e-01
 -2.2647262e+00
 -5.6737799e-02
 -1.5523431e+00
 -9.1314328e-01
  1.1562047e+00
 -1.0806763e+00
  3.1311989e+00
 -6.4854932e-01
  8.9403772e-01
  6.7923450e-01
 -9.0701021e-02
 -5.4716223e-01
 -2.1889060e+00
  8.9939648e-01
 -1.5510286e+00
  4.8505482e-01
 -7.6584756e-02
 -1.8614898e+00
 -1.2616657e+00
  1.9301087e+00
 -1.0921177e-01
  1.4056731e+00
  7.4640357e-01
 -1.0692103e+00
  7.8528416e-01
 -3.9023510e-01
  2.8084341e-01
  1.6854587e-01
  4.0435752e-01
  9.9938518e-01
 -1.3776406e+00
  3.7302735e-01
  8.4968704e-01
  4.8614192e+00
  9.4607413e-01
 -6.9244313e-01
  1.8120521e-01
 -8.7397248e-01
  1.0191970e+00
 -1.4133217e+00
  7.3012012e-01
 -2.4162702e-01
  5.9387749e-01
 -8.2541889e-01
  1.2780560e+00
 -8.6985064e-01
 -1.9821146e-01
 -2.9495934e-01
 -1.1799667e+00
 -3.9378795e-01
 -5.5769330e-01
  1.4674746e-01
  5.5314463e-01
  7.4488193e-02
 -8.3271486e-01
 -1.1795863e+00
  1.3206137e+00
 -8.3916730e-01
 -3.4029004e-01
 -1.0795481e+00
 -1.4008963e+00
 -1.6606160e+00
 -4.8861384e-02
  2.0250576e+00
 -9.4091490e-02
 -9.0110254e-01
 -1.7880656e+00
 -8.1920511e-01
  1.3048728e+00
 -8.0958629e-01
  2.7302313e+00
 -1.5747498e+00
 -9.8298657e-01
  9.8594040e-02
  8.0854398e-01
 -3.2255766e+00
  1.3178328e+00
  5.7852143e-01
  6.1827838e-01
 -2.1273851e-02
  1.8577878e-01
 -3.5346848e-01
  8.2709216e-02
 -6.7114867e-02
 -1.4080518e+00
  8.8205278e-01
 -6.8697792e-01
 -3.8334286e-01
  1.5655109e+00
 -2.0828419e+00
  1.1379452e+00
  1.5528280e-01
 -4.3153416e-02
  4.6037164e-01
 -8.0236501e-01
 -2.5202313e-01
  8.1068462e-01
 -1.7629845e-01
  6.3886893e-01
  1.3261471e+00
 -2.4926124e+00
  8.2813919e-01
 -8.1005096e-01
 -1.3939365e+00
  9.1206484e-02
  1.1461879e+00
  5.6101894e-01
  1.2581557e+00
  2.0931127e+00
 -1.1452106e+00
  1.2561746e+00
 -3.1967435e+00
  1.6869026e-01
  1.2776748e+00
 -1.5339024e-01
 -5.3158051e-01
  5.1756573e-01
  1.8467193e+00
 -1.0394516e+00
 -9.3884653e-01
 -4.5524308e-01
 -7.8193212e-01
  1.8792353e+00
 -7.1209520e-01
  3.1856611e-01
  7.0840323e-01
 -1.5233929e+00
 -5.6188536e-01
  4.0823150e-01
  6.0315069e-02
 -1.2327088e+00
 -4.7091465e+00
  8.2992733e-01
 -5.3257900e-01
 -2.2256508e-01
  1.3139142e+00
 -8.0945903e-01
 -1.0641502e+00
 -1.7957040e+00
 -8.7161750e-01
  1.2351309e+00
 -3.1607476e-01
  9.8234135e-01
 -2.6234311e-01
  1.1939049e+00
 -1.4012250e-01
  5.5159658e-01
 -7.8690732e-01
 -1.8597572e+00
 -1.8019472e+00
  5.4443002e-01
 -5.3011358e-01
 -9.5273769e-01
 -1.2045646e-01
  2.0515648e-01
  2.3822801e-01
  2.4519728e-01
  1.1058611e+00
 -5.8414298e-01
  1.4747016e+00
  5.4132426e-01
  5.0734276e-01
 -6.0023732e-02
  6.7098075e-01
 -4.5406133e-01
  6.4916414e-01
 -4.2066398e-01
  4.7194299e-01
 -2.7241477e-01
 -9.9931669e-01
  8.6669463e-01
  9.8246199e-01
  4.1626188e-01
  4.7457227e-01
  1.3578370e+00
  3.0389220e-01
 -7.6767737e-01
 -4.3455935e-01
  3.9008835e-01
  2.5932118e-01
  7.3989964e-01
 -1.4743861e+00
 -1.1728992e+00
  1.8431995e+00
 -1.0610852e+00
 -1.3879569e-01
 -1.7514018e+00
  7.7938408e-01
 -2.6529562e-01
  7.3897475e-01
 -7.8536242e-01
 -9.0223655e-02
  5.0334346e-01
 -2.4058224e-01
 -1.5253209e+00
 -2.3306251e+00
  1.4642835e-01
 -1.1493911e+00
 -1.5349638e+00
  1.3018477e+00
 -1.6177214e+00
  1.0386840e-01
 -1.3005852e+00
 -6.2946719e-01
  5.5598092e-01
 -1.4874613e+00
 -1.9788563e-01
 -3.3786118e-01
 -1.7534915e-01
 -6.2677525e-02
 -6.8773663e-01
  6.4730883e-01
 -3.6302373e-01
 -1.5760834e+00
 -4.1092694e-01
 -7.1548214e+00
  4.0385431e-01
 -1.0443347e+00
 -6.7809120e-02
 -4.6159196e-01
  8.2882082e-01
  1.5300206e+00
  2.3335350e+00
 -1.3278193e+00
 -1.6114800e+00
  9.1725361e-01
 -6.8862313e-01
  2.4084693e-01
 -1.1378831e+00
 -2.4868721e-01
  1.0458379e+00
 -3.8812974e-01
 -1.1409250e+00
  8.7754518e-01
 -2.8180322e-01
 -5.1549876e-01
  1.2503402e+00
 -3.0217966e-01
  1.7421459e+00
  3.7293582e+00
 -2.7618473e-02
 -1.6972782e-01
 -4.0813386e-01
 -1.0078992e+00
 -7.5155085e-01
 -1.5433923e+00
 -1.5428957e+00
 -1.3584220e+00
 -7.0913255e-02
  1.1313816e+00
  1.3378409e+00
  2.0589292e+00
 -2.2956023e+00
 -1.4124290e+00
 -1.0148324e+00
 -1.4385716e+00
 -1.8642848e+00
  1.1450799e+00
  1.6947086e+00
 -1.3421541e+00
  1.9095460e+00
  1.2632815e+00
 -9.5879394e-01
  6.0624427e-01
 -5.8048266e-01
 -1.6231495e-01
  6.3393849e-01
 -1.5653087e+00
  9.1335773e-01
  7.9418093e-01
  1.7768793e+00
 -2.6089135e-01
  5.2424252e-01
  1.3268538e-01
  1.8637127e+00
 -6.3802570e-02
  3.9609951e-01
 -4.7461936e-01
 -1.9818146e+00
 -1.1355014e+00
 -1.4307210e-02
  1.7988377e+00
 -1.2470294e-01
  7.0198274e-01
 -1.6953152e+00
  1.1826696e+00
 -4.2904073e-01
 -1.4539299e+00
  1.9735336e-01
  1.1279023e+00
  5.7875127e-01
  1.5935103e+00
 -2.6526663e+00
 -1.5328559e-01
  7.4254411e-01
  7.7875376e-01
  5.7991993e-01
 -1.7680027e-02
 -2.4895501e+00
 -3.5792056e-01
  1.9792094e+00
  1.1677216e+00
  3.1693146e+00
  1.6764584e-01
 -4.4219837e-01
 -6.9026178e-01
 -7.1899939e-01
  1.2889264e+00
 -2.7892509e-01
  4.3224698e-01
 -7.1661687e-01
 -6.6981858e-01
  5.4478651e-01
  7.6398581e-01
 -2.3869242e-01
 -7.0458442e-01
 -1.9295762e+00
 -7.3701650e-01
  3.3281155e+00
  5.3590333e-01
 -1.0102438e+00
  1.8647400e+00
  1.0094143e+00
  1.8210466e-01
 -1.9390161e+00
  1.0003844e-01
  6.7135024e-01
  1.7493261e+00
  3.7962496e-01
 -1.8115305e+00
 -4.6611601e-01
 -7.7412409e-01
  9.2291224e-01
 -1.9989381e+00
 -1.4027210e+00
  1.9489622e-02
 -9.4771340e-02
 -4.9439323e-01
  2.8920782e+00
 -2.6846603e-01
 -7.1082078e-02
 -2.8710420e+00
  7.1161634e-01
 -1.8453414e+00
 -1.2894440e+00
  1.8180799e-01
 -2.7774854e-02
  6.9118477e-02
 -1.7880763e+00
 -7.1989477e-02
 -3.4582013e-01
  1.2153223e+00
 -9.4000143e-01
 -2.4288187e+00
  3.6794934e-02
  4.7609946e-01
 -1.3299867e+00
  1.9545369e+00
  1.1672322e+00
  8.5573591e-02
  1.0286882e+00
  1.5068940e+00
 -2.0255156e+00
  7.5466764e-01
  2.6483357e-01
 -2.2947016e+00
 -2.4094477e+00
 -4.3685517e-01
  1.0405998e+00
 -8.9485955e-01
  4.0529128e-02
 -1.5839995e-01
 -1.3085551e+00
 -1.1083096e+00
 -6.7896402e-01
  1.6951259e+00
 -8.4235686e-01
  1.0073559e+00
 -3.7250274e-01
  7.9085350e-01
 -8.5529149e-02
 -2.0703550e-01
  1.7264711e+00
  1.2146933e+00
  2.1549010e-01
 -9.9953812e-01
 -3.6189130e-01
 -1.7075055e+00
  1.5853399e+00
 -1.0895387e+00
 -4.0349784e-01
 -1.6036652e-01
 -8.2822829e-01
 -2.4599159e+00
 -1.0183585e+00
  8.1696457e-01
 -1.0807726e+00
 -3.1886187e-01
 -1.0396892e+00
 -5.4506087e+00
 -1.1289281e+00
 -2.9483941e-01
 -1.0765853e+00
  9.7036266e-01
  1.3704337e+00
  2.7593055e+00
  2.9727180e+00
 -3.3786103e-01
  1.5982373e+00
  9.0146482e-02
  3.1782490e-01
 -9.5100617e-01
  1.2560625e+00
  1.0434658e-01
  3.1633022e-01
 -1.4031732e-02
  1.3866507e+00
  6.3349432e-01
  1.3159809e+00
 -2.4099057e+00
  4.6157993e-02
  1.4347397e+00
 -8.2797140e-01
 -9.3501800e-01
 -1.2639806e+00
  1.0492985e+00
 -4.6797675e-01
 -2.5040913e-01
 -1.9019434e-01
  2.5682275e+00
 -1.6949388e-01
 -2.9098172e+00
  1.4309739e+00
 -1.3761920e+00
 -1.0556260e-01
  1.1125220e+00
  1.5757468e+00
  8.5092433e-02
  2.3478313e-01
  4.5576328e-01
 -4.0470484e-01
  3.6366773e-01
 -1.2490160e+00
  6.4472109e-01
 -9.5201713e-01
  1.7215377e-01
  6.5022308e-01
  1.6849949e+00
 -1.5167588e+00
  4.6319658e-01
  1.9274329e+00
 -3.5148659e-01
 -2.1810646e+00
 -2.8806418e-01
  8.5142159e-01
 -4.1641998e-01
 -1.2299384e+00
  2.0670068e+00
  1.0028268e-01
 -1.7416541e-01
 -1.3515527e+00
 -5.4553607e-03
 -5.2863991e-01
  3.4898514e-01
  7.8822434e-01
 -6.8497962e-01
  1.5232003e-01
 -1.8185693e-01
  5.2005613e-01
  2.5002801e-01
 -5.3256273e+00
  5.3011602e-01
 -4.0735453e-01
  9.9939907e-01
  2.0026617e+00
 -8.4526861e-01
  1.0773487e+00
 -1.9504923e+00
 -7.0810610e-01
  5.7331449e-01
 -1.5167128e+00
 -5.5122769e-01
  7.5528109e-01
  3.6750826e-01
 -8.6342943e-01
  7.6140141e-01
 -1.3144078e+00
  3.4696655e+00
  7.8199321e-01
  1.1619059e+00
 -1.3172028e+00
 -4.2802013e-02
  9.5252085e-01
 -1.1902311e+00
  4.8978323e-01
 -8.0301821e-01
 -1.4150779e+00
  8.8514753e-02
 -3.7026911e+00
 -1.5868326e+00
  1.6512926e+00
 -4.4445825e-01
  1.5924774e+00
 -3.7602005e+00
 -7.2417659e-01
 -9.5160007e-01
 -5.9670404e-02
 -4.3357807e-01
  8.5132241e-01
 -3.4511662e+00
  2.3543623e-01
  3.8843586e+00
 -2.4298460e+00
 -1.1328397e+00
 -4.3636785e+00
 -3.8219327e-01
 -2.6198511e+00
  7.4796790e-01
 -2.0513663e+00
  3.9484303e+00
  4.6064436e-01
  1.7213584e+00
 -4.2103133e-01
  2.0869453e+00
 -1.8393894e-01
 -1.8730890e+00
 -1.1264819e+00
  7.6164627e-01
  3.6168942e+00
 -1.2222276e+00
  2.3081787e+00
 -6.5038157e-01
  7.1205968e-01
 -2.0972114e-02
 -5.4112524e-01
 -1.1333253e+00
 -1.7854540e+00
  7.0408454e+00
  9.4806367e-01
 -2.3191571e+00
 -6.3506699e-01
  3.7653100e-01
 -4.6402919e-01
  1.3159480e+00
 -1.0085207e+00
 -6.1197388e-01
  3.3411572e+00
 -5.8439744e-01
 -2.6193351e-01
 -4.9059778e-01
 -8.7345695e-01
 -1.6588311e+00
 -4.9346676e-01
  6.7519552e-01
  6.8456358e-01
 -1.2915152e+00
 -7.7024862e-02
  6.3780534e-01
 -6.6208959e-01
 -9.0497591e-02
  2.1225746e+00
  2.4506007e-01
 -1.1414735e+00
 -5.7233655e-01
 -2.8503816e+00
 -2.2792514e-01
 -1.0157250e-01
 -1.0142553e+00
  2.3956678e+00
  2.7689433e-01
  1.1067455e-01
  1.0743880e-01
  1.3752230e-01
 -1.7848134e+00
  4.3673331e-01
 -4.3417492e+00
 -2.3561521e+00
  7.6517844e-01
  5.4232252e-01
  2.1819932e+00
  7.8465039e-01
 -4.2953908e-02
 -3.5180766e-02
  2.5315440e+00
 -4.0428523e-02
  1.1393575e-01
  3.1366332e+00
 -2.2207412e-01
 -2.9258642e+00
  1.5064627e+00
  7.9507694e-02
 -1.6991705e-01
  2.4159248e+00
 -2.8555408e+00
  1.5012636e+00
 -1.4348705e+00
  3.8760598e+00
  5.7980722e-01
  8.7274146e-01
 -1.0949118e+00
 -1.9274194e+00
  3.5804689e+00
  7.9072624e-01
 -2.1918340e+00
  1.9517809e+00
 -9.4564033e-01
 -6.8244207e-01
 -8.0821782e-01
 -6.2310803e-01
 -3.0851576e-01
 -4.2502052e-01
 -7.5238645e-02
  4.5850199e-01
 -1.0283370e+00
 -1.2781551e+00
 -1.1198540e+00
 -9.1442794e-01
  1.8925312e+00
 -4.6666782e-02
  6.0832515e+00
 -3.7885165e+00
 -4.2676330e+00
 -5.1918321e+00
  3.9658577e+00
  1.1723191e+00
  2.1375437e-01
 -1.0211115e-01
 -8.6313361e-01
 -1.1643085e+00
  9.4632041e-01
  9.3515348e-01
 -7.6743847e-01
 -1.8111479e-01
 -2.2093828e+00
  1.4644709e+00
 -3.6504570e-01
 -7.7459019e-01
  1.1717908e+00
 -4.9006167e-01
 -4.5603403e-01
 -5.8591706e-01
  4.5782405e-01
 -7.7831316e-01
  1.4541434e+00
 -1.2170259e+00
  1.7734751e-01
 -1.3202430e+00
 -8.6221159e-01
  9.6230584e-01
 -4.3099678e-01
 -1.0970497e+00
 -4.5556298e-01
 -1.5419481e-02
 -2.9739928e+00
  8.0530363e-01
  6.2631768e-01
 -1.4831251e+00
  2.4695897e+00
  1.1993628e-02
 -1.0001264e+00
  6.0556638e-01
 -1.7892255e+00
 -3.4794930e-01
 -1.2912412e-01
 -7.5329542e-01
  1.2343916e+00
  1.3696344e+00
 -1.2377491e+00
  2.4857432e-01
  1.5022855e+00
  4.1622815e-01
  4.4106320e-01
  5.6116265e-01
  8.5393868e-02
  9.8584175e-01
  6.5264660e-01
  1.6104879e+00
  1.5702014e-01
  3.2394540e-01
 -1.6080880e-01
 -1.5601979e+00
 -7.6210797e-01
 -1.1378473e+00
  1.7989167e+00
 -2.5806653e-01
 -2.0542356e-01
 -4.1625294e-01
 -1.5918237e-01
  5.1614726e-01
 -6.0535634e-01
 -1.3933856e+00
  4.5932469e-01
 -2.2803098e-01
 -8.7263989e-01
  1.5826644e+00
  5.1299107e-01
  2.8573537e-01
  8.5679084e-01
  8.7027824e-01
 -7.6303625e-01
  1.8406068e-01
  4.1460609e-01
 -4.5188236e-01
  1.7496139e+00
 -2.6459408e+00
  1.1561373e+00
  8.4187108e-01
 -5.4583392e+00
 -6.3961965e-01
  2.4379826e+00
  9.2405939e-01
  2.5245833e+00
  8.2837403e-01
  4.5393139e-01
 -4.8420981e-01
  1.3510597e+00
  1.4876384e-01
  3.2753744e+00
 -8.2085484e-01
  1.1268570e-01
 -1.9333492e-01
 -1.6466333e-01
  5.3946417e-02
  2.0068139e-01
  3.2733245e+00
  2.1284313e+00
  4.9917737e-01
  1.0183382e+00
 -4.8026341e-01
 -2.6038554e+00
  3.2531402e-01
 -5.1683992e-01
 -2.6839358e-01
  8.7075514e-01
 -6.3027734e-01
 -9.7677630e-01
 -2.0647416e+00
  1.1905960e+00
  9.1345960e-01
  9.0751374e-01
  1.7671353e+00
  7.1910495e-01
  5.3667533e-01
 -6.1399591e-01
  1.2035385e+00
  1.8364568e+00
  8.8010526e-01
  4.4968408e-01
  6.3331211e-01
  3.5054588e-01
  2.4911009e-01
 -1.0631732e+00
  1.2797734e+00
  1.0959991e+00
  5.5635220e-01
  1.6014099e+00
 -6.1524135e-01
 -1.1028244e-01
  1.4284043e+00
 -2.5923440e+00
 -5.9713638e-01
  9.1518009e-01
 -2.7029779e+00
  3.6627460e-01
 -3.6590987e-01
  1.7567040e+00
  1.5422134e-01
 -2.2360587e+00
 -4.1118813e-01
 -1.1530802e+00
 -4.5617394e+00
 -1.8177863e+00
  5.3925103e-01
 -5.4850262e-01
 -8.8408697e-01
 -9.1229916e-02
  2.4245067e+00
  2.2634432e+00
 -1.3887302e+00
  3.4618061e-02
  8.3127671e-01
 -4.0512395e-01
 -1.2095076e-01
 -1.7885391e+00
  1.1797508e+00
  1.0161239e+00
 -3.4576407e-01
  4.2845985e-01
 -1.0972837e+00
 -8.6134201e-01
 -3.0420821e-02
 -2.2820451e+00
  5.0309145e-01
  3.1414789e-01
 -2.7165377e-01
  1.3767633e+00
 -1.0552214e-01
  4.3968260e-01
 -1.1315606e+00
  1.5521115e+00
 -5.0734401e-01
 -7.0579046e-01
  1.2436332e+00
 -5.6393230e-01
  2.5471660e-01
 -3.6618407e+00
  5.7412487e-01
 -3.9793912e-01
 -1.7625046e-01
 -6.8200922e-01
 -2.6094258e-01
  1.3839644e+00
 -6.6083884e-01
 -3.1053174e+00
  2.0717610e-01
  9.5135152e-02
 -8.1780982e-01
  4.8956499e-01
  1.7089261e+00
 -6.7932212e-01
  1.3275710e-01
  2.7367905e-01
  2.4800342e-01
  1.0669104e+00
 -1.4591273e+00
  4.7202194e-01
  1.5741677e+00
  2.3000007e+00
 -6.5707272e-01
 -1.5734217e+00
  7.4525273e-01
 -2.0881395e+00
  3.5166936e+00
  2.3617473e+00
  1.1625930e+00
  1.3767527e+00
  3.3490546e+00
  7.4161023e-01
 -2.6956591e-01
 -7.4973190e-01
  1.5040581e+00
 -1.1992488e+00
 -2.3179541e+00
 -6.0244739e-01
  1.5590280e+00
  4.9859199e-01
 -5.1498361e-02
 -4.0917554e+00
 -1.7956910e+00
 -2.7241395e+00
 -9.0322208e-01
  1.0835271e+00
 -1.2192627e+00
 -8.8436025e-01
 -1.1630367e+00
  6.2693316e-01
  2.3609824e+00
  1.1420341e+00
  9.0320885e-01
  1.4078480e+00
 -2.1334932e+00
  1.8117716e+00
  2.0938268e+00
 -8.7538701e-01
  2.8880765e+00
 -1.2238634e+00
  2.3816819e+00
  7.7267611e-01
 -7.1339838e-02
  2.8081366e-01
  1.3543233e-01
  7.5679600e-02
  4.1153762e-01
  1.2410358e+00
 -2.3080151e-01
 -5.7739311e-01
  1.8017122e-01
  3.1015151e+00
 -2.3440799e-01
 -1.6335183e+00
  7.0855272e-01
 -7.5559735e-01
 -1.0480866e-01
  1.1691729e+00
 -9.7651297e-01
  2.8608814e-01
 -4.1743669e-01
 -1.2045808e+00
  7.1317858e-01
  1.2970794e-02
  2.6391437e+00
 -3.0696270e-01
 -4.7082335e-01
 -5.4295745e-02
 -9.3220150e-01
  1.7520845e+00
  9.3920660e-01
 -6.0337275e-01
 -5.5818558e+00
 -7.9370821e-01
 -8.4280199e-01
  2.4281087e+00
  5.6008309e-01
  1.8688406e+00
  2.9644790e-01
 -9.6620882e-01
 -2.1042080e+00
 -2.7657390e+00
 -7.2835392e-01
  2.5891249e+00
  1.3171368e+00
  4.8626611e-01
  1.1002694e+00
 -9.5089352e-01
  7.3080100e-02
  1.3630629e+00
 -1.5927759e+00
 -8.3516222e-01
 -2.3612158e+00
  2.0228479e+00
 -1.4565921e+00
 -1.4341260e+00
  3.6209588e+00
 -8.9339989e-01
  3.1172996e+00
 -2.7106650e+00
  6.9465913e-02
  3.5923553e+00
  6.5139979e-01
  1.0633272e+00
  1.9980696e-01
 -2.1609085e+00
 -1.1142704e+00
 -7.0513386e-01
 -6.8598175e-01
 -8.7293762e-01
 -3.3269286e-01
  1.1322225e+00
 -3.2290098e-01
 -3.1404481e+00
  1.8842623e+00
  3.2358115e+00
 -1.9091773e+00
 -1.9013690e+00
 -8.2950056e-01
 -1.4889609e+00
 -3.8421434e-01
 -5.8816570e-01
 -1.2700672e+00
  2.9559667e+00
 -2.3459490e-01
  5.3412204e+00
 -8.7172002e-01
 -3.1302752e+00
  7.4855620e-01
 -1.0566258e-01
  1.2080106e-02
  8.9099628e-01
 -3.9425364e-01
  4.2482531e-03
  5.5081409e-01
 -7.2014177e-01
 -1.6517736e+00
  1.4564586e+00
 -3.0515781e-01
  1.4767523e+00
  2.1158471e+00
  3.4133366e-01
 -1.5209627e-01
 -4.4597390e-01
  1.9185529e+00
  1.9062738e-01
 -3.3872318e-01
 -2.3883390e+00
 -2.1804848e+00
  9.9870050e-01
  1.0738344e+00
 -1.4380772e-01
  4.1573730e-01
 -2.0874343e+00
 -8.8800597e-01
 -5.2079701e-01
 -1.3601646e-01
  2.2427411e+00
  2.4920440e+00
  6.9311136e-01
 -1.2131084e-01
  2.9629615e-01
 -2.0788957e-01
  1.0030179e+00
  5.0199687e-01
  2.5058478e-01
  9.0860891e-01
  1.6375911e+00
  3.7140784e-01
 -4.1074225e-01
 -2.2629688e+00
 -2.0199273e+00
  2.5205749e-01
  1.5132819e+00
  1.0741001e+00
  2.0798755e+00
  9.0000492e-01
  9.7982293e-01
 -8.8286856e-03
  1.1659076e+00
  1.2058986e+00
 -7.1876448e-01
  5.9553385e-01
 -1.8508321e+00
  2.3167594e-01
 -1.0281527e+00
  1.9240017e+00
 -2.2932127e+00
  2.0226314e+00
  1.4259776e-01
  1.2885973e+00
 -1.6170014e+00
  5.4121095e-01
 -1.3822518e-01
  2.2518983e+00
 -4.1380388e-01
  6.3700527e-01
  7.3423773e-01
  9.0789157e-01
 -1.0469156e-01
  3.6972809e-01
 -4.4037706e-01
 -1.7693223e+00
 -2.6231250e-02
 -1.1204234e+00
 -2.4536653e+00
  4.8703653e-01
  1.6593413e+00
  1.3176875e+00
  1.2777566e+00
 -5.7964258e-02
  4.7495257e-02
  5.8740318e-01
  7.4090302e-01
 -1.1065139e+00
  4.4637501e-02
  2.2087810e+00
  1.9503903e+00
  1.1305792e+00
  1.3305007e+00
 -1.9399065e+00
 -1.3153969e-01
 -1.4339186e+00
  1.0843790e+00
  1.6033663e+00
 -1.9865170e+00
  1.3295408e+00
  9.7793913e-01
  2.0976040e+00
 -1.0123574e+00
 -2.0261819e+00
 -5.0042689e-02
  1.6537743e+00
 -2.4779651e+00
 -2.5170388e+00
  7.0738113e-01
  8.7317711e-01
 -3.5537538e-01
 -1.0067703e+00
 -1.7481012e+00
 -1.4995071e+00
  6.0283184e-01
  8.4680647e-01
 -9.8763418e-01
 -4.7797400e-01
  6.9716740e+00
 -9.6625793e-01
  2.0128885e-01
  1.3871708e+00
 -1.4858001e+00
 -2.0694952e-01
 -1.3786670e-02
 -1.0390399e+00
 -1.0191170e+00
  4.9348980e-01
 -1.6208292e+00
  8.5445613e-01
 -2.7747589e-01
 -1.8474432e+00
  8.1094372e-01
 -2.6662974e-02
 -1.4505371e+00
 -4.4653866e-01
 -5.6411409e-01
  7.8716052e-01
 -1.5922266e+00
  1.5232776e+00
  9.0992880e-01
 -4.4143435e-01
  1.6954631e-01
 -1.5811307e+00
 -6.8329704e-01
  4.2177126e-01
 -1.1010003e+00
  2.6449740e+00
 -1.1577624e+00
 -5.0081342e-01
 -8.0002725e-01
  7.1640074e-01
  1.7972494e+00
  5.2168900e-01
  1.4889817e-01
  6.1514342e-01
 -7.3538053e-01
  1.1868486e+00
 -9.4812882e-01
 -1.3920802e+00
 -3.4491083e-01
 -3.5968152e-01
 -2.0422015e-02
 -7.6524466e-01
  1.2491616e+00
  2.2272811e+00
  1.7631354e+00
  5.7923371e-01
  9.3875259e-01
  1.3887240e-01
  1.6106248e+00
 -1.3583065e+00
 -1.0257530e+00
  1.1960570e+00
  6.6248626e-01
 -1.2597493e+00
  1.1415669e+00
 -2.3323090e-01
  2.1068437e-01
  1.5351821e+00
 -1.3269869e+00
 -6.4521515e-01
  7.7779375e-02
  1.5868925e-01
  2.3679085e+00
  5.0213528e-01
 -2.6179996e-01
 -9.0845782e-01
 -2.7036924e+00
  5.4002148e-01
  4.6411637e-02
 -6.6357046e-01
 -7.8690761e-01
  3.7591818e-01
 -2.0358351e-01
  7.6848924e-02
  1.4365480e+00
  2.3936056e-01
 -4.2202187e+00
  5.1416653e-01
 -6.8013901e-01
  2.0154750e+00
  2.1788306e+00
  2.6892507e+00
  2.9144624e-01
 -9.8890647e-02
  1.1840450e+00
  3.4162378e-01
  4.1495073e-01
  8.5517931e-01
 -7.1996528e-01
  4.3800446e-01
  2.1933796e+00
  1.2085774e+00
 -8.1872272e-01
  6.5479040e-01
  3.2015568e-01
 -8.9952648e-01
  3.7989495e+00
 -1.0772792e+00
  4.3445089e-01
  4.4414046e-01
 -4.9553853e-01
  2.1852417e+00
  8.2534933e-01
  1.6682696e+00
  9.0234321e-01
 -8.7362897e-01
 -2.4593387e+00
  5.3863537e-01
  1.7406913e+00
 -1.2795949e+00
  4.4269401e-01
 -4.4335026e-01
  3.6890930e-01
 -4.5300412e+00
  4.9057555e+00
 -2.2580578e+00
 -9.7372037e-01
 -4.1352862e-01
  1.6930898e-01
 -3.5588729e-01
  4.8115587e-01
 -4.2314696e-01
  2.4760222e+00
  2.2457142e+00
  8.2044363e-01
  1.2188673e+00
 -5.0016469e-01
  4.7547385e-01
 -1.4503032e+00
  5.6494397e-01
 -1.4780327e+00
 -2.9931113e-01
  7.0787698e-01
  3.7830466e-01
 -3.5726137e-02
  1.1262655e+00
 -5.6368446e-01
  8.5508853e-01
 -4.0127805e-01
  2.6609445e-01
  7.0150077e-01
 -1.7707418e+00
  1.7498673e-01
  1.9694911e-02
 -2.7952902e+00
 -9.2731917e-01
  3.0647957e+00
  1.7934410e-01
 -1.7910424e+00
 -1.0547771e+00
  3.4439185e-01
 -9.5390111e-01
  5.0008070e-01
  6.4226218e-02
 -1.4386388e-02
  4.7813764e-01
 -9.3999073e-02
  7.7941912e-01
  2.5419242e+00
 -1.8502510e+00
  2.6773190e-01
 -7.6328427e-01
  4.8899031e-01
  1.3480139e+00
  8.4492918e-03
 -1.2463481e+00
  1.4852086e-01
 -1.2089165e-01
 -1.3143148e+00
 -1.0099117e+00
  5.0245178e-01
  2.3206444e+00
  9.3565613e-01
 -3.6516920e-02
  7.8671221e-03
 -1.1729655e+00
 -2.9060011e+00
  7.0393378e-01
 -1.1833165e-01
 -1.0562063e+00
 -6.5176278e-01
  2.3105453e-01
  2.3595152e+00
  5.6886929e-01
 -2.4216242e+00
 -1.4729623e+00
 -1.2095838e+00
  2.8990483e+00
  4.2795345e-01
 -1.4922818e+00
 -1.1258281e+00
 -2.7400666e-01
  1.9550487e+00
  1.8938618e+00
 -1.4218801e+00
 -3.1349699e+00
 -3.5515302e-01
 -2.9486161e-01
  4.6080789e-01
 -2.2278063e+00
 -8.4616601e-01
 -6.5598570e-02
 -1.4317009e-01
  2.0396642e-01
 -1.6024070e+00
  1.2044545e+00
 -8.3945978e-01
 -1.9522202e-01
  2.3899844e+00
 -8.8729382e-01
  6.3464069e-01
  3.0966327e-01
  4.7550550e-01
  4.5808959e-01
 -4.4498450e-01
  1.7274009e+00
 -1.8428011e+00
  2.3927230e-01
 -1.0051291e+00
 -2.6867769e+00
  7.5579143e-01
 -6.3482916e-01
  6.7583269e-01
  1.8092574e-01
  1.5037752e+00
  3.2943839e-01
  2.2977066e+00
 -3.0272457e-01
  1.0777836e+00
  1.1353433e+00
  3.3045909e-01
 -1.1265305e+00
  8.6885929e-02
  1.2358820e+00
  7.3209381e-01
 -9.5070195e-01
 -7.3559098e-02
 -1.2022763e+00
  8.5029882e-01
  2.1207114e-01
  2.4270251e+00
 -1.1594722e+00
  1.5589918e+00
 -2.4463487e+00
  1.0417109e+00
  8.5658818e-01
  2.0535786e+00
  8.6160535e-01
  1.2338345e+00
  7.1665144e-01
 -1.4004675e+00
 -1.9701998e-01
 -1.1433597e-01
  3.2786256e-01
 -9.0481728e-02
 -1.7974579e+00
  1.9528637e-02
 -1.8073930e+00
 -3.0657692e+00
  4.0842378e-01
  3.7533622e+00
 -1.1486446e+00
 -3.2344016e-01
 -3.8660112e-01
 -1.0679395e+00
 -1.7781941e+00
  9.8650223e-03
  2.0923560e+00
  3.0649412e-02
 -1.9837250e-01
 -9.9717540e-01
 -4.9396741e-01
 -2.6645205e+00
 -6.1409885e-01
  1.0879076e+00
 -1.3945838e+00
 -1.7920898e-01
 -2.3074276e+00
 -1.3266351e+00
 -9.2132246e-01
 -5.2347714e-01
 -2.2715623e+00
 -1.5898124e+00
 -6.5683407e-01
  1.2795823e+00
 -6.6560435e-01
 -8.6138147e-01
  5.7480133e-01
 -1.0029807e+00
 -6.5369886e-01
  1.6311827e+00
  4.3687117e-01
  2.0501100e-01
  3.6675948e-01
 -1.3967426e-01
  2.2065680e+00
 -1.0484884e+00
  2.2049704e+00
 -3.2892415e-01
  3.4424520e+00
  7.0077319e+00
 -4.2406268e+00
 -1.8356034e+00
 -4.9797177e+00
 -3.3124694e-01
 -2.3474007e+00
 -2.5064476e+00
 -5.2593899e-01
  7.2054899e-01
 -1.6064925e-01
 -5.8334100e-01
  1.9700236e+00
  4.5543289e+00
 -5.0013742e+00
 -1.9952638e+00
 -9.2610508e-01
 -3.1892493e+00
  1.9110477e+00
 -2.9608939e+00
  3.9831713e-01
  2.9462969e+00
 -4.5086579e+00
 -2.1680541e+00
 -2.3638272e+00
 -2.1605933e+00
 -9.6047348e-01
  8.4992617e-01
 -3.3365133e+00
  4.3756390e+00
  2.0348558e+00
  3.9466791e+00
 -2.7542760e+00
 -1.8985758e+00
  2.4764282e-01
 -1.5162770e+00
  1.9649422e+00
 -3.0468848e+00
  8.7679183e-01
  1.7165873e+00
  3.5287160e-01
  6.0081661e-01
  2.0706849e+00
 -1.1575249e-01
 -2.5828655e+00
 -5.8059132e-01
  8.2811099e-01
  1.5246843e+00
  4.1766328e-01
  1.5422804e+00
  2.8320324e-01
 -9.5888966e-01
 -9.0253222e-01
  4.2402610e-01
  1.2234032e+00
 -1.4264047e+00
 -1.2989267e+00
  4.5536816e-02
  4.9635023e-01
 -6.4152408e-01
  4.0821320e-01
 -3.6908326e-01
  3.9289222e+00
 -9.5712870e-01
 -6.4790584e-03
  2.8017414e-01
 -1.5500103e-01
 -3.4680456e-01
 -1.0741336e+00
 -8.7102777e-01
  9.8742914e-01
 -1.2246827e+00
  9.1827488e-01
 -1.1137366e+00
  1.1045400e+00
 -1.9238343e+00
 -5.3293537e-03
  8.2585114e-01
  7.0236391e-01
  1.0437243e+00
  7.5451368e-01
  2.0667164e-01
  2.1565217e-01
  9.1869968e-01
  1.2771162e+00
  2.4499483e-01
 -1.3945678e-01
  1.5629169e-01
  1.2919496e+00
  3.0815656e+00
  2.8253278e-01
  3.5065588e-01
  1.9843984e-01
 -9.3972933e-01
  1.1439145e+00
  5.9929913e-01
 -2.7075131e+00
  1.0657929e+00
 -7.8424424e-02
  7.6599789e-01
  1.9467468e+00
 -7.6430368e-01
 -2.9260826e-01
  2.4216697e-01
  1.4298662e+00
  1.1150425e-01
 -4.5159388e-01
  9.8697776e-01
  1.0632479e+00
  1.2098135e-01
  4.7433689e-01
 -5.9669834e-01
 -4.4665331e-01
  1.2689738e+00
  1.6312848e+00
  1.0812600e-01
  3.5223749e-02
  4.9243850e-01
  2.4831554e-01
 -7.8177169e-02
  1.1564940e+00
 -1.1913974e-01
  1.3646487e+00
 -1.0639115e-01
 -1.1947573e+00
 -8.5215175e-01
  1.5808029e+00
 -7.9455417e-01
 -4.9458304e-01
 -2.7200726e-01
  4.3939054e-02
  5.0280884e-02
 -1.1871854e+00
  4.6382892e-01
  1.1006095e-01
 -8.8014078e-01
  2.7385691e-02
  2.9935527e-01
 -7.5183272e-02
  9.1807491e-01
 -2.5897133e+00
 -2.5613207e-01
 -2.6332161e-01
 -9.0110034e-04
 -8.0529046e-01
  1.5518277e+00
 -1.2909158e+00
  1.2147677e+00
 -6.1279815e-01
 -1.7834175e-01
  2.8786632e-01
 -1.3447317e+00
 -6.1878592e-01
 -1.1914455e+00
  4.9660009e-01
  1.6615136e+00
 -4.3443331e-01
 -1.2696145e+00
  2.7620161e+00
 -6.3568264e-01
  2.8815755e-01
  1.0938377e+00
 -9.7872072e-01
  8.2758981e-01
  1.3311843e+00
  3.6502203e-01
  9.0466326e-01
  4.6569911e-01
  1.1837312e-01
 -1.4132192e+00
 -2.3745637e-01
 -5.2395129e-01
  7.6253921e-01
  1.0592189e+00
 -2.2897189e+00
 -9.7230697e-01
 -1.2162590e+00
  6.6953427e-01
 -2.2704038e-01
  5.7118773e-01
  8.6109984e-01
 -4.5102596e-02
  5.6279808e-01
  9.3674123e-01
 -3.8514346e-01
  3.0632141e-01
 -4.4182634e-01
  1.0951488e+00
 -7.4779099e-01
 -7.9976922e-01
  1.9351068e-01
 -2.6383998e+00
  4.9891016e-01
  1.8173723e+00
  6.9951886e-01
  1.0481999e+00
 -6.4335948e-01
 -5.7147104e-01
 -1.1055287e+00
 -1.9042469e+00
  1.9271504e+00
  7.9632652e-01
  4.2733955e+00
  3.2168564e-01
 -5.6554955e-01
 -4.1088024e-01
 -1.4164367e+00
  1.9534944e+00
 -9.5645809e-01
 -2.5421542e-01
 -4.1982770e-01
  1.7602683e+00
 -1.3241887e+00
 -6.3004196e-01
  9.1781087e-02
  1.8234508e+00
 -3.9091709e-01
 -5.2026498e-01
  1.9366522e+00
  7.8896159e-01
  1.7848398e-01
  1.4307891e+00
  9.8391511e-02
 -4.6398968e-01
 -1.2144518e+00
 -2.3462167e-01
  1.3392715e+00
 -1.7682585e+00
  1.5187479e+00
 -1.3488160e+00
  1.3493976e-01
  1.0499129e+00
 -2.1140842e+00
  8.3587855e-01
 -2.4107125e+00
 -1.7318069e+00
  3.1515601e-01
 -7.1246541e-01
  1.7857512e+00
 -7.5082600e-01
  1.9471642e-01
 -1.1292312e+00
 -3.7271600e+00
 -7.3187220e-01
  2.7267883e+00
  5.4093200e-01
  6.9829470e-01
  1.4411455e-01
 -3.3761058e+00
 -1.5147145e+00
 -1.9672194e+00
  3.1123751e-01
 -6.9339532e-01
  5.0055593e-01
 -1.7894495e+00
 -9.5955712e-01
 -6.5131199e-01
  7.9194236e-01
 -1.7310861e+00
 -1.9595996e-01
 -1.5766916e+00
 -3.2427824e-01
  1.4507806e+00
  1.9440292e-01
 -2.0293095e+00
  1.2338964e+00
 -1.2063004e+00
  2.1307545e+00
  3.7238461e-01
 -8.5457727e-02
  6.0294193e-01
  6.8018562e-01
  1.2001530e+00
 -1.3825535e+00
  1.1149809e-01
  3.0321318e-01
 -8.0456614e-01
 -8.1687599e-01
 -5.1310354e-01
 -2.3685889e-01
  1.2314250e+00
 -2.0573027e+00
 -7.8394210e-01
  2.6158494e-01
  7.8725684e-01
 -1.3899121e-01
 -3.4916252e-01
 -8.8782811e-01
  3.4176123e-01
 -2.1310878e-01
  1.1738859e-01
  1.1081200e+00
 -5.6029910e-01
  9.6096879e-01
  9.0082742e-02
 -2.3518841e+00
 -7.6242805e-01
  4.8393521e-02
 -9.2980218e-01
  2.5112012e-01
 -2.7126784e+00
  5.3277326e-01
  8.9878494e-01
  5.6168485e-01
 -2.5453556e-01
 -3.8189015e-01
  2.8308108e-01
  4.2149290e-01
  9.0663485e-02
  1.8602861e+00
 -2.3811436e-01
 -1.1729286e+00
 -1.0593240e+00
  1.1345124e+00
  6.8893373e-01
 -5.5057895e-01
 -1.2493848e+00
  1.1405833e+00
 -1.0395588e+00
  1.3776042e+00
 -2.7106979e-01
 -4.3837600e+00
  8.4045821e-01
 -4.9925521e-01
 -1.4496436e+00
 -1.3263819e+00
  6.9774473e-01
  3.2963687e-01
 -1.2219552e+00
 -5.6487238e-01
 -1.6285620e+00
 -4.4699681e-01
 -1.1833091e-02
 -3.4642341e+00
  2.2484052e+00
 -3.6157644e-01
 -1.0397476e+00
  9.2159355e-01
  3.1900045e-01
 -5.8717889e-01
  6.4690821e-02
  1.6225629e+00
 -1.4314644e+00
  1.0598923e+00
  7.5100601e-01
  2.9367805e-01
  4.7149551e-01
 -9.0642041e-01
 -1.1554941e+00
  1.3975627e+00
  1.3076128e+00
 -8.7540227e-01
 -3.8248932e-01
  2.6705107e-01
  3.0280858e-01
 -1.2451304e+00
  1.5130258e-03
  1.9691883e+00
  1.0997050e-01
  1.8754659e+00
  9.3553507e-01
  5.0434053e-01
 -1.2111012e+00
 -2.1400781e+00
 -1.7919436e+00
  2.9535389e-01
  1.8020011e-01
 -1.0728071e+00
 -5.8381581e-01
  1.5348868e+00
  1.2051708e+00
  2.7112535e-03
 -1.6549095e+00
 -6.5261626e-01
 -2.1981862e+00
 -3.6007540e+00
  2.4673102e+00
  2.8824675e+00
 -6.4858371e-01
 -6.9992237e+00
 -7.8753984e-01
  2.9187379e+00
  1.7623539e+00
 -1.1491385e+00
 -2.6890330e+00
 -7.3198289e-01
  2.3627608e+00
  9.4882894e-01
 -1.6441269e+00
 -5.7233560e-01
 -1.9687980e+00
 -2.8154340e+00
 -1.1201236e+00
  5.7988584e-01
 -1.0229310e+00
 -9.9284202e-01
 -5.7984877e-01
  2.3613703e+00
  2.3992732e-01
 -6.1620063e-01
 -2.8789101e+00
  8.3229852e-01
  2.8284228e+00
 -1.0852340e+00
  2.5079506e-02
  1.6703652e+00
 -1.3901551e-01
 -7.1882474e-01
 -6.7332584e-01
 -1.0586298e+00
  5.1219258e-02
  1.0909890e+00
 -1.6770959e+00
 -7.4230224e-02
 -3.4255278e+00
  1.1802553e+00
  8.1280643e-01
 -2.2486903e-01
  4.4217971e-01
  8.0592923e-02
  1.5925607e-01
  1.6790286e+00
  6.4748043e-01
  1.9233118e+00
  6.6706979e-01
  2.0036960e+00
 -3.0522212e-01
  1.3593196e+00
  2.8577504e-01
 -1.1177264e+00
  1.6730019e+00
  2.1885381e+00
  4.6121225e-01
  3.7911662e-03
 -1.0547014e-01
 -1.5939740e+00
  1.1556062e+00
  6.3058630e-02
  6.8013746e-01
  1.7045323e-02
  4.9388883e-01
  2.6899993e+00
 -1.3074466e+00
  1.0829099e+00
  1.8079828e-01
  1.2502093e+00
 -1.0055925e+00
 -7.1256167e-01
  5.9232339e-02
 -1.3030566e+00
  2.0603259e+00
 -1.3552196e+00
  6.5210909e-01
 -1.2357497e-01
 -9.4859642e-01
  1.7209950e-01
 -8.0046523e-03
  2.2930010e-01
  4.6155959e-01
  6.0237724e-01
 -2.3603828e-01
  3.1841488e+00
 -3.5329025e+00
  3.4265998e-01
  5.9428209e-01
 -3.8152900e-01
 -3.9386487e-01
  1.3433371e+00
 -1.1370640e+00
 -1.6335664e+00
  5.2438360e-01
 -1.0696969e+00
  2.9962807e+00
 -3.4118539e-01
  1.4478176e+00
  2.6351943e+00
 -1.6326286e+00
 -1.2517710e-01
  1.4091418e+00
  1.2313265e-01
  1.7211648e+00
  1.4673470e+00
  5.8601117e-01
 -1.1824963e+00
 -9.8984373e-01
 -4.3820709e-01
  1.3837068e+00
 -1.4955558e+00
 -1.6996752e+00
  3.5217732e-01
  1.3978139e+00
 -3.0249152e-01
 -7.2912693e-01
 -6.4774448e-01
  1.0000192e+00
  8.5982686e-01
  1.3298180e+00
 -1.4999467e+00
  2.1543210e+00
  1.3592685e+00
  7.1199596e-01
 -1.0973626e+00
  1.8144873e+00
 -1.5905410e+00
  4.3813968e+00
  4.1711388e+00
 -8.9113855e-01
 -5.8992726e-01
 -8.0929118e-01
 -3.3286707e+00
  2.9264903e-01
 -4.2106587e-01
  3.9909610e-01
 -5.0967045e-02
  2.1565425e+00
  1.3043087e+00
  1.5303921e+00
 -1.7427545e+00
  2.3289387e+00
  1.3503586e+00
 -2.2069672e-02
 -1.3937116e+00
 -7.3374635e-01
  3.5205457e+00
 -3.7516186e-01
 -2.0713274e-01
 -6.6690654e-01
  7.0491594e-01
  4.8228480e-02
  1.7163175e+00
  3.6913383e-01
  2.8064194e+00
  9.0241417e-02
  4.2028415e-01
 -1.6774842e+00
 -4.3995789e-01
  1.5854549e-01
  1.3909383e-01
 -6.4865792e-01
 -1.0923952e+00
  5.6824273e-01
 -6.6623676e-01
 -4.7205326e-01
 -1.8563546e-01
 -3.6050808e-01
 -1.5819837e+00
  2.7537508e+00
 -3.9402005e-01
 -1.2158389e+00
 -2.8403556e-01
  1.0815033e+00
 -1.1117339e-01
 -8.2535714e-01
 -1.2667571e-01
 -5.6245548e-01
 -2.7448028e-01
 -3.7345558e-01
  1.5426813e+00
 -8.2166666e-01
  1.5729634e+00
  1.1566148e+00
  1.2119539e+00
 -6.9863486e-01
  5.9349686e-01
 -4.2074639e-01
 -5.3290325e-01
 -1.1077564e+00
 -3.3403963e-01
  9.6945000e-01
 -7.3365223e-01
 -1.8895342e+00
 -2.4084892e+00
  1.0982131e+00
 -4.5182568e-01
  9.2706925e-01
 -1.6407183e+00
 -4.9990413e-01
  7.2455662e-01
  7.7372462e-02
 -1.4844028e+00
 -5.3336304e-01
  1.3850455e-01
  8.5812342e-01
 -1.2717248e+00
 -5.8708239e-01
 -2.9030998e+00
 -1.8758548e+00
 -1.5532876e+00
  9.4224792e-03
  2.1521276e-01
  1.1526793e+00
  7.6240152e-01
 -1.6121099e+00
 -1.2995961e+00
 -1.7961470e+00
  1.0666094e+00
  2.5259480e-01
  1.0855241e+00
 -1.0907824e+00
  4.2407730e-01
 -1.8210026e+00
  2.4697504e+00
 -1.8736318e-01
 -2.0259872e-01
 -5.6844324e-01
 -1.0855025e+00
 -5.2299547e-01
 -1.1967096e+00
 -1.6217017e-01
 -5.9919286e-01
 -4.7881043e-01
 -1.0604063e+00
 -1.8923106e+00
 -6.0643923e-01
 -1.8893470e+00
  1.1182368e+00
 -3.2211533e-01
  3.6335275e+00
  1.9032315e+00
  5.3820568e-01
 -9.0353745e-01
  1.2595845e+00
  1.5097249e+00
  1.3236946e+00
 -3.0882361e+00
 -5.0534749e-01
  1.9497588e+00
 -5.4982239e-01
 -5.0601584e-01
 -2.1175480e-01
  1.6680673e+00
  1.9196000e-02
 -5.0706971e-01
  3.1368354e-01
  2.4555217e-01
  1.7482790e-01
  4.3223259e-01
  7.3382789e-01
  1.6762943e+00
  1.1305565e+00
 -5.4624224e-01
 -1.0516524e+00
 -7.6158065e-01
 -2.2751961e+00
  1.7269646e+00
 -1.5428890e+00
 -1.7797927e+00
 -2.7824220e-01
 -3.5647143e-02
  4.2382848e-01
 -3.3648205e-01
  6.6016746e-01
  4.7909975e-01
 -4.9102134e-01
  8.2141501e-01
  1.1793271e+00
  2.2250223e+00
 -1.3695234e-01
 -1.4741323e+00
  1.1395029e+00
 -1.2786924e+00
  9.2937618e-01
 -2.0303993e+00
 -1.2627183e+00
  6.6733104e-01
 -6.5445125e-01
  7.5767106e-01
 -1.6733906e-01
 -1.4738163e+00
  6.4907795e-01
 -2.0548952e+00
  7.4279058e-01
  3.9547187e-01
  1.3973112e+00
  5.9566319e-01
 -9.4946265e-01
 -9.9037021e-01
 -3.2824728e-01
 -5.4275310e-01
 -1.8791437e+00
 -1.1971648e+00
  2.9866540e+00
 -1.2477446e+00
  1.2498198e+00
 -1.1933289e+00
 -1.4446403e+00
  4.4147336e-01
 -2.0602252e+00
  5.7421976e-01
  7.2719145e-01
 -1.5321466e+00
  2.1243148e+00
  5.7347842e-02
  7.2652030e-01
  1.3867570e+00
  8.8246965e-01
 -7.2194874e-02
 -1.7744825e+00
 -2.0530989e+00
  4.5360211e-01
 -4.3770585e+00
 -3.1864705e+00
 -2.9381475e+00
 -1.3216281e+00
 -2.2639661e+00
  9.0124685e-01
  8.2090205e-01
 -2.0235799e-02
 -6.1509222e-01
 -9.7518688e-01
 -1.7086744e+00
 -1.5080817e+00
  2.3023250e+00
 -1.2488943e-01
  2.3211558e+00
  2.4937153e+00
  7.3637491e-01
 -2.9003940e+00
  2.1469319e+00
  6.5660685e-01
  4.3186361e-01
  1.0374995e+00
  7.0795923e-01
  4.5916224e+00
 -1.0854124e+00
  3.2549500e+00
 -2.2763271e+00
  2.6711514e+00
 -4.1453141e-01
 -1.5191690e+00
  3.5732448e-01
 -2.3640248e-01
  1.9911329e+00
  1.5325960e+00
  6.1574721e-01
 -2.7856104e+00
 -5.9447360e-01
 -7.3493040e-01
 -3.4068593e-01
  7.0770991e-01
 -1.3299688e+00
  9.2354262e-01
 -2.2385554e-01
 -2.0269763e+00
  1.2640129e+00
  2.9747174e+00
 -2.4638417e+00
  1.2579685e+00
  4.6351439e-01
  4.1193011e-01
  1.2872972e+00
  9.0634900e-01
  1.4943762e+00
 -1.3572094e+00
  2.4724619e+00
  6.4912695e-01
  2.2294521e+00
 -1.2261497e+00
 -1.2634982e+00
 -1.8156087e-01
 -2.4255548e+00
 -7.7942634e-01
  1.7222035e+00
 -3.4472844e-01
  2.1678767e+00
 -1.1584957e+00
 -5.1619893e-01
 -5.3868484e-01
 -3.9532080e-01
 -5.0268549e-01
  1.4685558e-01
  2.3253162e+00
  4.0095493e-01
 -2.5679455e+00
  4.4798410e-01
 -1.7022647e-01
  1.3126230e+00
 -7.7984743e-02
 -1.1327165e+00
 -7.1144992e-01
 -1.2039162e+00
  1.5254045e+00
 -2.7538890e-01
  2.1566265e+00
 -6.1636025e-01
 -1.3344569e+00
  9.3218559e-01
  2.0144815e+00
 -9.8274040e-01
 -4.3923250e-01
  8.4453833e-01
 -8.4733915e-01
 -1.1882319e+00
 -1.6542308e+00
  5.6920588e-01
 -2.7196571e-01
 -2.0788984e+00
  1.0237536e+00
  2.1173418e+00
 -2.7719307e-01
  6.3136154e-01
  3.8143662e-01
  4.3666273e-01
  3.7142179e+00
  8.6469948e-01
  1.0168428e+00
  2.1798761e+00
 -3.0667120e-01
  1.3031982e-01
  8.4814864e-01
 -1.4756458e-01
 -2.0813937e-01
  1.5284786e+00
 -4.9267128e-01
  6.2579161e-01
 -8.1478536e-02
 -2.4214096e+00
 -1.0281385e+00
 -1.8721296e+00
  1.2645247e+00
  4.5775145e-01
  1.4933785e+00
  1.0517412e+00
 -9.9391890e-01
 -1.1786538e+00
  1.8827601e-01
  1.9496022e-01
 -8.9811015e-01
 -1.1713284e+00
  1.6079494e-01
  9.5063543e-01
 -8.7432581e-01
 -2.1233561e+00
 -5.0976491e-01
 -5.9008646e-01
  6.2675494e-01
  6.3413554e-01
 -5.6380904e-01
 -1.0363547e+00
  1.9927628e+00
  9.0885973e-01
  2.5429690e-01
 -4.1238490e-01
 -3.2614300e+00
 -7.3591107e-01
 -1.1769048e+00
  1.4688314e+00
  7.4305820e-01
 -1.6103818e+00
 -6.5882909e-01
 -1.2094271e+00
 -1.3846014e+00
 -7.2961859e-02
  1.3468673e+00
 -1.8230855e-01
 -6.2673795e-01
  2.5314596e-01
  1.1401076e+00
  8.7399203e-01
 -1.7876157e+00
 -1.7796561e+00
  4.9650651e-01
  4.5383296e+00
 -2.5096765e+00
  1.7531606e+00
 -2.8027041e+00
 -9.7484803e-01
  8.2936269e-01
 -1.6632067e+00
 -1.2413539e-01
 -4.1154489e-01
 -1.0549147e+00
  5.3279912e-01
  1.0042596e+00
 -5.9959924e-01
 -9.8642445e-01
 -8.1364429e-01
  1.9017081e+00
  5.1314437e-01
  3.4792695e+00
 -7.5336987e-01
 -6.9396995e-02
  7.4814707e-01
 -3.0848345e-01
  1.8959578e+00
 -2.3684399e-01
 -2.1787033e+00
 -4.0303439e-01
  2.0713678e-01
 -4.2761111e-01
  8.3354121e-01
  2.9967502e-01
 -8.2733762e-01
 -9.6669269e-01
 -3.4179366e-01
 -5.4334211e-01
 -1.4052304e+00
  2.3481808e+00
 -1.0654031e-01
  7.9915744e-01
  1.0536913e+00
 -1.9296924e+00
  8.4727418e-01
 -8.4723413e-01
  1.9635293e-01
 -2.7208808e-01
 -3.9300163e+00
  1.2719399e+00
  1.1906914e+00
  1.4509283e-01
 -1.2604316e+00
  1.7750429e-01
 -6.4216661e-01
 -1.5482268e+00
  6.8391299e-01
 -5.8265889e-01
  1.0458329e-01
  6.2969971e-01
  4.4664121e-01
 -2.0954466e+00
  1.4439864e+00
  5.9183615e-01
 -1.4330806e-01
 -1.4159762e+00
  7.8153718e-01
 -1.6811259e-01
  4.5154318e-01
 -1.2299221e-01
  2.2990017e+00
  4.1225037e-01
  7.1432906e-01
  1.1343002e+00
  2.4136115e-02
 -9.6804518e-01
 -4.2622247e-01
  2.5971168e-01
 -5.6391793e-01
 -8.5421443e-01
  1.6315722e-01
 -8.4387010e-01
  1.8935562e+00
 -1.9582000e+00
 -7.8615439e-01
  7.6004988e-01
  2.3244235e-01
 -1.7925249e+00
  6.1663771e-01
 -3.8062224e+00
 -7.3091698e-01
 -9.0758896e-01
  1.4624506e+00
  2.0909748e+00
  8.4215455e-02
 -1.9928188e+00
  1.9350359e+00
  1.0256972e+00
  7.3055512e-01
  1.4986163e+00
 -1.0532824e-01
  1.0386788e+00
 -9.1406101e-01
  1.9011446e+00
 -1.3990138e+00
  1.1544881e+00
  2.8212714e-01
  2.4397607e+00
  3.9702067e-01
 -1.2168090e+00
  2.0543973e+00
 -1.1068766e+00
  2.5888808e+00
  1.4264137e+00
 -1.4402069e+00
  1.9227773e+00
 -1.3597647e+00
  1.5334369e+00
 -1.9553419e+00
 -1.4835916e+00
  1.0560319e-01
  1.4452149e+00
 -1.1151613e+00
  1.2650383e+00
  2.8857467e-01
 -2.6371861e+00
 -1.8066567e-01
 -2.9359262e+00
 -6.5025526e-01
 -8.9850420e-01
 -6.2661213e-01
  8.0110949e-01
  7.1843070e-01
 -4.1140136e-03
  8.6885220e-01
  2.1945457e-01
 -1.0239897e+00
 -3.6019382e+00
  7.0032668e-01
  1.4068383e+00
 -2.6560882e-01
 -1.5716234e+00
 -2.0051091e+00
  9.6581501e-01
 -4.1186023e-01
  3.5206616e-01
  1.1098765e+00
 -1.1049466e+00
  7.9362071e-01
  1.9899333e+00
 -3.8927102e-01
 -6.0745770e-01
 -1.5233544e+00
 -2.3705262e-01
 -1.7603134e+00
 -2.4978681e-01
  1.3231601e+00
  2.6763251e+00
  1.0460747e+00
  5.4861270e-02
  1.3320078e+00
 -2.2526573e-01
  2.3460589e-01
 -2.0839818e+00
 -2.7963111e+00
  8.4669667e-01
  3.3478425e+00
  1.6867418e+00
  1.8138098e+00
 -9.2202220e-03
 -2.0538759e+00
 -1.0151930e+00
 -1.7656981e+00
 -1.7881544e-01
  2.0059924e-01
 -1.4205521e+00
 -1.2336669e-02
 -2.1415730e-01
  3.8849149e+00
 -2.5457343e-01
  1.6302472e+00
 -4.8399949e+00
 -1.7715826e+00
 -1.9050062e-01
 -2.6789720e+00
  1.1640939e+00
  6.8407238e-01
 -3.3512527e-01
 -2.1042461e+00
  7.9698980e-01
  2.6114974e+00
  7.6005697e-01
  1.3811454e+00
  1.8723577e+00
  1.0386114e+00
 -1.8869835e+00
  3.0785422e+00
 -3.1913471e-01
 -1.0505038e+00
 -4.1930060e+00
 -1.1351012e+00
 -4.6528322e-01
 -5.5145049e-01
  1.5811658e+00
  1.0481704e+00
  4.6715376e-01
 -1.1693853e-02
  1.1442897e+00
  5.2098894e-01
  6.6575593e-01
  1.2967625e+00
 -2.9205185e-01
 -3.2697913e-01
 -2.8155154e-01
 -2.4705717e-01
 -4.3193585e-01
  9.6184391e-01
  2.0960371e+00
 -2.9384503e+00
  3.5545951e-01
  1.0818121e-01
 -1.8578076e+00
 -7.5503893e-02
 -5.8398932e-01
  5.2038062e-01
 -1.6871643e+00
 -1.5138305e+00
  1.6558472e+00
  9.0182889e-01
 -1.2685755e-01
  5.6549573e-01
  7.2478044e-01
 -5.4379702e-01
 -1.4618234e-01
  7.0487309e-01
 -6.6988117e-01
  1.5249303e-01
 -1.2041959e+00
  2.1243778e-01
  1.6453521e+00
  2.0627015e+00
 -1.1543618e+00
 -2.1950595e+00
 -2.5572231e+00
 -6.1540329e-01
  4.7046253e-01
  1.4738690e+00
 -5.0521183e-01
  1.5414535e+00
 -2.6464937e-03
 -1.9083344e+00
  4.1651651e-01
 -1.0804175e+00
 -5.0406796e-01
  2.4892786e+00
  1.2141483e+00
  8.7401491e-01
 -1.5324184e+00
 -7.8406775e-01
  1.2794355e+00
  5.0272810e-01
 -2.5580504e+00
  5.5695776e-02
  1.4969120e+00
 -2.4304447e+00
 -1.7972368e+00
  7.6535976e-01
 -2.1694142e-01
  5.7823277e-01
 -1.0121343e+00
 -1.7863994e+00
  2.9679509e-02
 -2.4239033e-01
  2.0783288e+00
  9.6965563e-01
 -1.4455187e+00
  3.7471268e-02
  1.9842515e+00
 -4.9858299e-01
 -1.2300926e+00
 -1.7005162e+00
 -1.3441601e-01
 -7.5674695e-01
 -9.3515128e-01
 -1.7917395e+00
 -9.9000130e-03
 -3.6264915e+00
 -2.9717522e+00
 -9.6897316e-01
 -1.2348694e+00
  7.0492345e-01
  7.2493285e-01
  2.1050005e+00
  6.4032757e-01
  1.4663477e-01
  2.3469806e-01
 -5.1803082e-02
 -1.6236328e+00
  1.5332972e+00
  3.1058199e+00
 -1.0178258e+00
 -9.6741849e-01
 -1.0902294e-01
  1.0002629e+00
 -1.2168491e+00
 -5.5076814e-01
 -1.1095175e+00
  7.3378545e-01
  2.1786520e+00
 -2.0934615e-01
 -5.7548946e-01
 -2.0058229e+00
 -5.8261639e-01
 -9.5520931e-01
  7.5849736e-01
  8.8495243e-01
 -5.2211684e-01
  7.0172298e-01
  7.6747701e-02
 -1.6099834e-01
 -2.5359401e-01
 -3.6565104e-01
 -2.6461165e+00
 -2.3188031e+00
  2.7452621e+00
 -3.9219481e-01
 -1.5051507e+00
  2.1990423e+00
  4.5871952e-01
  4.2286506e+00
 -2.6783295e+00
  1.8187292e-01
  4.9782062e+00
 -4.9469290e+00
  7.3120874e-01
 -2.2024910e+00
 -1.1017201e+00
  1.9020782e-01
  1.0092006e+00
  2.0138866e-01
 -4.6058435e-02
 -3.2964063e-01
  1.0249566e+00
 -2.6136980e+00
  1.7252197e+00
 -1.4385744e+00
 -1.1302019e+00
 -9.4905764e-01
 -5.6397891e+00
 -1.0587252e+00
 -1.9026468e+00
 -2.0230854e+00
 -1.6961648e+00
  8.4299254e-01
 -4.0002823e-02
 -6.9127433e-02
 -5.0627774e-01
 -2.3689830e+00
 -9.4044328e-01
 -2.5732667e+00
  1.5027868e+00
 -2.3582492e+00
 -3.0245104e+00
  8.3250046e-01
 -2.7112165e-01
 -1.8588990e+00
 -1.0752361e+00
 -2.0297511e+00
 -2.2949312e+00
  1.3752253e+00
 -6.1795078e-02
 -9.5814592e-01
  1.0939643e+00
 -2.1405013e-01
 -1.2974833e-01
  2.2474763e+00
 -1.4362273e-01
 -2.9048559e-01
  5.3302699e-01
 -1.2048968e-01
 -1.7191457e+00
 -4.3517449e-01
 -3.5174170e+00
 -1.5586412e-01
 -6.7343378e-01
  8.4531826e-01
  2.4875017e-01
 -3.4834008e+00
  4.7946244e-01
 -3.2515147e+00
 -4.5455340e-02
 -7.1068868e-02
  1.1540047e+00
  6.7439526e-01
 -1.5047244e+00
 -5.6434352e-02
 -1.0608760e+00
  1.0337950e+00
 -1.5891260e-01
 -6.2418646e-01
 -3.0983868e+00
  2.5560424e-01
  6.8161207e-01
  2.3705997e+00
  1.6517859e+00
 -3.4854561e-01
 -2.4679646e+00
  4.4962102e-01
  1.9810370e+00
 -2.2003374e+00
  2.1513228e-01
 -1.3427889e+00
 -4.7445589e-01
  1.0624772e+00
 -3.2599020e-01
  9.5401192e-01
  2.4591732e+00
 -1.2115396e+00
 -9.2491120e-01
  1.7730310e+00
 -6.7299169e-01
 -1.2986472e+00
  4.5257103e-01
 -2.8810099e-01
 -1.6660105e+00
 -3.1463454e+00
 -1.2860993e-01
 -7.4297512e-01
  2.8948605e-01
  1.0427465e-01
 -2.6956618e+00
 -1.3255131e+00
 -6.6403395e-01
 -1.4053956e-02
  9.5029429e-02
 -1.0980754e+00
  1.8620194e+00
  7.5891393e-01
  1.3519744e+00
  1.3592218e+00
 -5.4296112e+00
 -1.9872066e+00
 -3.3391731e+00
  3.6675930e-01
  2.8687912e-01
  2.1290086e-01
  2.8958459e+00
  2.1407716e+00
  9.9599189e-01
  1.6248441e-01
  1.6598830e+00
 -2.7207096e+00
  1.0099597e+00
  1.1445048e+00
 -1.3661857e-01
  2.0278585e+00
  1.7642096e+00
 -4.7013059e-02
 -2.1061549e+00
  2.2991006e+00
  2.3085129e+00
  8.7535894e-01
  2.5143909e+00
  1.0092432e+00
  2.6695585e+00
 -1.3556814e+00
  2.6269631e+00
  3.0790193e+00
  3.8497996e-01
 -1.5072924e+00
 -6.8225771e-01
  2.7665174e+00
 -1.5832118e+00
 -2.7398747e-01
 -4.2571563e-01
 -9.1103399e-01
  7.2418541e-01
  2.9898486e+00
  4.8639071e-01
  3.4083086e-01
  2.8025060e+00
 -5.3243005e-01
 -1.2646849e+00
 -1.3877325e+00
  1.9919649e+00
 -7.1802348e-01
 -1.5357016e-01
  2.5314341e+00
 -7.0282239e-01
 -3.7942624e+00
 -2.9912548e+00
 -3.0708055e+00
  7.1446276e-01
  2.0954506e+00
  8.1177622e-01
 -4.5532498e+00
 -3.0008385e+00
 -8.4327030e-01
  1.0686638e+00
 -2.4482584e-01
 -1.2247536e-02
  5.6041181e-01
  1.5587543e-01
 -2.9905925e+00
  2.2653911e-01
 -6.3242066e-01
  1.9765943e+00
  7.6208681e-01
 -3.8801925e+00
 -1.7408479e+00
 -1.1400501e+00
 -6.4262134e-01
  2.4945803e-01
 -7.2515255e-01
  6.3022870e-01
  1.2717006e+00
  3.5564461e-01
  1.6895747e-01
  4.2195350e-01
 -7.2745275e-01
  2.2162972e-01
 -1.0549356e-01
 -6.3766295e-01
 -2.3141985e+00
  2.9968777e-01
 -1.0536937e+00
  1.2069337e+00
  1.1430552e+00
  1.7567778e+00
  3.3164221e-01
 -1.1567719e+00
 -2.4805644e+00
  3.7926614e-01
  1.3518695e+00
 -1.1314422e+00
  2.3361312e-01
  9.5681369e-01
  5.6702393e-01
 -1.2745614e+00
 -2.7933655e+00
 -6.2990922e-01
 -1.6038598e+00
 -6.4672641e-02
  6.3376480e-01
 -5.1523042e-01
 -1.2110493e+00
 -3.4962091e+00
  2.9392665e-02
  7.9897034e-01
  1.3054378e+00
 -8.2730770e-01
  3.9066458e-01
  1.0905949e+00
 -3.2451892e-01
  5.9933567e-01
 -5.1809794e-01
  3.8121074e-01
 -1.0604913e+00
  4.3985245e-01
 -1.9237676e-01
  5.7592791e-02
 -2.3798048e-01
  4.4663495e-01
 -5.9378690e-01
  1.1442657e+00
  1.6395405e-01
  6.9495666e-01
 -7.7066827e-01
 -2.3565331e+00
  1.0227129e+00
  8.6892688e-01
 -9.6586263e-01
  3.1584866e+00
  7.7777547e-01
 -1.1440541e+00
  1.8172636e+00
  1.4031631e+00
 -7.0609248e-01
 -7.3530358e-01
  2.1547999e+00
 -7.1308267e-01
  7.5405484e-01
 -5.3059328e-01
  1.1793841e+00
 -7.3997271e-01
  7.5513810e-01
  6.4854050e-01
  3.0693400e+00
  2.9504070e-01
  1.7850279e+00
 -1.0496022e+00
 -5.3029543e-01
  3.8833135e-01
 -1.4631165e+00
  4.8501375e-01
  1.3343421e+00
  3.4023029e-01
 -1.1152918e+00
  2.3668170e+00
  6.7985201e-01
  6.3131791e-01
  6.9611204e-01
 -1.6745032e-01
  1.6321284e+00
 -3.9081699e-01
 -6.8973684e-01
 -4.6615291e-01
  1.3605473e+00
  8.1454986e-01
  1.7705984e+00
 -1.5811656e+00
 -3.7385193e-01
  2.5759528e+00
 -1.2741050e+00
 -1.1137966e+00
  6.2812507e-01
 -9.2552602e-02
  3.6968950e-02
 -2.1406636e+00
  1.4048251e+00
 -1.4147304e+00
  5.4897890e+00
 -1.0210333e+00
 -3.4075710e-01
 -5.7260317e-01
 -7.1569645e-01
  9.4129401e-01
  8.0547094e-01
 -1.0423666e+00
 -9.1304749e-01
  2.2239108e+00
  7.2489321e-01
 -9.4804823e-01
 -1.5536377e+00
  4.0742120e-01
  5.8370388e-01
  5.2124810e-01
 -2.6895159e-03
  2.2237507e-01
 -4.9401891e-01
  1.4147474e-01
  4.4306469e-01
 -8.1940258e-01
 -3.3749917e-01
 -2.1002982e+00
 -3.5657963e-01
  1.6708079e-01
  4.7243565e-01
 -1.0512856e+00
  1.4531623e-01
  2.4892888e-03
  2.6005530e+00
  5.5890697e-01
  2.0722911e+00
 -5.1041145e+00
 -4.6086683e+00
  1.0376633e+01
  2.0163908e+00
  4.9084129e+00
  2.4602964e+00
  2.4152195e+00
 -6.7696160e-01
 -3.2087824e+00
 -1.9392031e+00
  1.2102590e+00
 -9.9319100e-01
 -3.4248018e+00
 -2.2776128e-01
 -2.0193546e+00
  8.6079717e-01
  4.7157285e-01
  2.7531251e-01
 -2.4739246e+00
  3.4063156e+00
 -1.7037506e+00
 -2.9918976e+00
 -1.8469162e+00
 -2.4283817e+00
  8.8925964e-01
 -4.1300586e-01
  1.9248298e+00
 -3.4473081e+00
  1.2995256e+00
  1.2025199e+00
 -5.6647811e+00
  2.5703936e+00
 -2.6387475e+00
 -1.1988258e+00
 -8.7789130e-01
  1.9438509e+00
 -1.3546560e+00
  2.2722640e+00
  3.9077754e+00
 -4.9682713e+00
  2.5685520e+00
 -9.6260422e-01
  9.8940814e-01
 -2.8031325e+00
  1.3449390e+00
  2.0282947e-01
  1.0201434e+00
  1.3041070e+00
 -5.8572716e-01
  2.3415041e+00
  7.4496701e-02
 -5.0435048e-01
 -5.8503467e-01
 -1.5360405e+00
 -2.3145232e+00
  1.1774162e+00
  1.2978213e+00
  2.3192542e+00
 -2.4388487e+00
  3.3178174e-01
  1.4568762e+00
  8.6936283e-01
 -1.7038484e+00
  4.6662956e-01
  1.1881335e+00
 -1.7190252e-01
  2.5485161e-01
  8.4494971e-02
  8.9796722e-01
  3.7002647e+00
 -5.2677214e-01
 -2.0800984e+00
 -3.9139223e+00
  9.0875572e-01
  2.7836890e+00
 -1.1769208e+00
  4.0931532e-01
 -9.6255243e-01
 -3.4663431e-02
 -2.0786874e+00
 -5.5828625e-01
  4.4570205e-01
 -2.0667109e+00
 -5.2503741e-01
  4.3661822e-02
 -2.4790432e-01
 -2.2346517e-01
 -2.0434897e+00
 -2.9677353e+00
  5.4008782e-01
 -1.5976670e-01
  1.2821709e+00
  1.3528841e+00
 -1.7432414e-01
  2.1316199e+00
 -1.4697865e+00
  6.0165769e-01
 -1.0471476e+00
 -9.2721564e-01
  9.8952782e-01
  7.1010679e-02
  1.0637009e+00
  5.7990599e-01
 -1.5609878e+00
  1.1943665e+00
  3.3664415e+00
 -1.3219604e+00
 -2.5377908e+00
  2.9009144e+00
  1.2964669e+00
  3.1382482e-02
  2.5678074e+00
  1.5272694e+00
  1.2072060e+00
 -1.9040604e+00
  3.9408752e-01
 -1.9484315e+00
  1.1466001e-01
 -6.1526138e-01
 -5.0779104e-01
 -6.6368431e-01
 -1.9004071e+00
 -4.7227991e-01
  1.1803393e+00
 -1.7560549e+00
 -6.9044180e-02
 -1.5181717e+00
 -4.5284593e-01
 -1.1470674e+00
  7.1911317e-01
 -1.4263359e+00
  1.4428423e-01
 -2.9387326e+00
  9.3068725e-01
  7.3314495e-02
  4.2920411e-02
 -1.2986193e+00
  3.5883121e+00
 -7.0453340e-01
  9.9626744e-01
 -5.9603965e-01
  8.9734566e-01
 -1.3045419e+00
 -5.7192934e-01
  9.4787508e-01
 -1.0986427e+00
 -6.8760288e-01
  1.7616779e-02
 -6.4505625e-01
  1.2951504e+00
  8.1963515e-01
  2.4669105e-02
  9.9359852e-01
 -8.8447046e-01
 -1.1570214e+00
 -2.7532303e-01
 -8.7731659e-02
  1.9444746e-01
  1.9353575e-01
 -8.7774098e-02
 -1.9953375e+00
 -3.3439016e-01
 -2.3748456e-01
  1.7379510e+00
  1.0539221e+00
 -1.1645750e+00
  3.4991479e-01
 -2.0977494e-01
 -2.0439242e-01
 -5.5831450e-01
  8.8396484e-01
  1.1450956e+00
 -8.1128061e-02
  1.5600255e+00
 -3.6753228e-01
 -2.0020549e+00
 -3.3264834e-01
 -1.6448469e-01
 -3.6152032e-01
 -1.9101134e-01
 -7.9527593e-01
 -7.0016509e-01
  4.7023031e-01
  1.5782993e+00
 -3.3434442e-01
  1.8865442e+00
 -1.2168809e+00
  6.8196553e-01
  6.3028254e-02
 -6.6422397e-01
  2.3782803e-01
 -1.0122102e-01
 -8.6636168e-01
  1.0088571e+00
  1.3379277e+00
  3.6493577e-02
 -1.2893327e-01
  1.1314625e+00
  1.0634179e+00
 -1.5445234e-01
 -1.4695427e+00
 -4.4512948e-01
  5.7362612e-02
 -1.1157451e+00
 -9.6570140e-01
 -9.7762533e-02
  5.5063391e-01
 -2.2964254e-01
 -2.3661628e+00
  1.4557672e-01
  1.0500787e+00
  1.0195396e+00
 -3.5105820e+00
  2.5711472e+00
 -1.3983580e+00
  9.6164501e-01
 -1.1340986e-01
 -1.8816198e+00
  1.0505685e+01
  1.2136462e+00
  5.0029078e+00
 -1.0145574e+00
  2.0230322e+00
  1.6901106e-01
 -4.7112799e+00
 -1.4501050e+00
 -3.2910246e-01
  1.5562385e-01
 -2.5340788e+00
 -1.0119458e+00
 -1.2508841e+00
  3.5796928e+00
 -2.7479928e+00
 -2.0144134e+00
  3.1315567e+00
 -1.8834143e+00
 -2.3669908e+00
 -3.4545684e+00
 -3.6775920e+00
  9.0085065e-01
  4.1852899e+00
 -2.2130508e+00
 -3.8015866e+00
 -1.8568171e+00
  1.5630082e+00
  6.6846591e-01
 -1.9187415e+00
 -1.4753002e-01
 -1.8417096e+00
  3.7368649e-01
 -1.1912073e+00
 -9.4881487e-01
 -1.3942671e-01
 -5.9767586e-01
 -8.9539009e-01
 -9.2055482e-01
  1.5570635e-02
 -5.9239382e-01
 -6.7178023e-01
  1.1035523e+00
  2.1705043e+00
 -1.0389585e+00
 -9.5175070e-01
  1.1741071e+00
 -2.9941652e+00
  2.8974123e+00
  3.8257378e-01
 -3.5661691e-01
  1.5258204e+00
  4.5016232e-01
 -6.4570725e-01
 -2.8473258e-01
  1.2824627e+00
  4.8906517e-01
 -4.3967173e-01
 -8.1315267e-01
 -7.8269583e-01
  5.0592667e-01
 -4.0321273e-01
  3.7582019e-01
 -5.8918774e-01
 -6.6749251e-01
  3.8963798e-01
  3.7594116e-01
  1.3011159e+00
  2.5898302e-01
 -1.1203738e+00
 -1.6644830e+00
 -1.0366536e+00
 -3.6767651e-03
  1.8717535e+00
 -7.0843250e-01
  9.5459789e-02
 -1.3910720e+00
 -4.0239000e-01
 -1.6810849e+00
  1.6664755e+00
  1.2176336e+00
 -1.3409702e-01
 -8.8010228e-01
 -1.0513906e+00
  4.0397531e-01
 -1.6069837e+00
  4.7269097e-01
  2.0603259e+00
 -1.9133985e-01
 -1.5688151e+00
 -2.4882910e-01
 -1.0688004e+00
  3.0476642e-01
  5.2454746e-01
 -1.8668282e+00
  4.1582122e-01
  1.3681878e+00
  1.0098108e+00
 -2.0598128e+00
  8.7793165e-01
  6.5083855e-01
 -6.3387704e-01
 -1.3528107e+00
  2.4427128e+00
 -1.2605103e+00
  9.4909960e-01
 -4.6367967e-01
  2.4142249e+00
 -5.1318413e-01
  5.7578987e-01
  2.1934633e+00
  1.3871752e+00
  1.5911969e+00
  1.8832238e+00
 -2.7704344e+00
 -4.7730637e-01
  2.3779261e+00
 -2.0551994e+00
  7.4399054e-01
  3.6641619e+00
 -1.3804428e-01
  2.1341023e+00
 -1.7584868e-01
 -8.8177808e-02
  2.8898907e-01
 -1.0741556e+00
 -8.8890105e-01
 -4.1938874e-01
  1.5365812e+00
 -1.4665250e+00
  6.0630685e-01
 -2.3916380e+00
  2.9305500e-01
 -4.8284084e-01
 -3.3282429e-01
  3.7275743e-02
 -9.1827220e-01
  1.7665879e-01
  7.7453047e-01
  1.3999757e+00
  3.8496864e-01
 -4.0336585e-01
  9.5636880e-01
 -1.2011907e-01
 -1.4299212e+00
 -2.3215134e-02
  3.0721677e-03
 -3.3627842e-02
  1.5236261e+00
 -2.2795063e-01
 -1.4645932e+00
 -1.3802975e-01
  1.6825582e+00
 -2.0632799e+00
 -8.2518089e-01
 -5.3925174e-01
 -1.5292150e+00
 -2.6726246e+00
  1.3389419e-01
  1.1011213e-01
  2.2095464e-01
 -1.0709294e+00
 -8.5915124e-01
 -1.1835384e+00
 -1.3443112e+00
 -9.2470342e-01
 -2.4139891e+00
 -1.9044075e+00
  7.4483192e-01
  1.4253411e+00
  1.9486004e-01
  6.6983920e-01
  3.0424016e+00
 -1.6617149e+00
  3.6919692e-01
 -1.4712822e+00
 -1.0130702e+00
  9.2518687e-01
 -3.7768951e-01
 -1.8664559e+00
  7.7256314e-02
 -2.5827093e+00
  3.7890375e-01
  4.8231807e-01
 -4.7204227e+00
  2.7870980e-01
  3.8553399e-01
  9.6258521e-01
 -1.0389950e+00
  5.8646917e-01
 -7.7866083e-01
  1.7645379e+00
  2.3060547e-01
  4.8026282e-01
  5.8085805e-01
  3.8356766e-01
 -3.7758285e-01
 -1.6705853e-01
 -1.2679465e+00
 -1.2750456e+00
 -1.8817815e+00
  3.5958507e+00
 -1.9306631e-01
 -2.0043621e+00
  1.8559241e-01
  1.6678371e+00
  1.8669616e+00
  4.7775836e+00
 -2.3561628e+00
 -4.7171414e-02
 -9.2958909e-01
  1.9455333e+00
  1.1243721e+00
 -3.4899328e+00
  4.3594670e-01
 -3.9686334e-01
 -2.0303943e+00
  2.4371009e+00
 -3.2126442e-01
  1.0608840e+00
  9.0100759e-01
  1.0930392e+00
 -7.8897573e-02
 -8.3379048e-01
 -1.7129365e-01
  1.3938615e+00
  4.0496007e-01
  2.1725398e-01
 -9.3423533e-01
  2.8483336e+00
  5.9809379e-02
  4.7720486e-01
  1.5638086e+00
  9.5431870e-01
 -1.8306652e+00
  1.2107689e+00
 -7.0729721e-01
 -8.7270863e-02
  5.5447799e-01
 -9.9319106e-01
 -2.9207957e+00
  1.2133509e+00
 -1.2555727e-01
 -7.6026893e-01
  1.6403615e+00
  1.2295821e+00
  1.5487983e+00
 -1.8316548e+00
 -1.3229069e+00
  1.5017856e+00
  3.0792597e-01
 -3.8795993e-01
 -5.6688184e-01
  4.6761709e-01
  5.2362669e-01
 -9.9438858e-01
  7.8322393e-01
 -8.0160755e-01
  1.3874912e+00
 -1.3053918e+00
  1.6445208e+00
  1.5967970e-01
 -2.3706073e-01
  2.3337879e+00
  6.2049615e-01
 -5.4928583e-01
  8.2369167e-01
 -6.3566488e-01
  3.0071031e-02
  3.4116435e-01
  5.0891083e-01
 -5.7604104e-01
  9.3841040e-01
 -4.1044426e-01
  1.9556770e-02
 -3.3617222e-01
  3.1657404e-01
 -5.8247644e-01
 -5.6682742e-01
  7.6759827e-01
  2.0176032e+00
  1.7086252e+00
 -9.1726494e-01
 -4.4276814e+00
  3.8752317e-01
 -1.1508539e+00
  3.9817462e+00
  6.2204200e-01
  9.5970839e-01
  3.3861068e-01
  2.0786433e+00
  1.2277821e+00
  2.6956260e+00
  5.6022834e-02
  4.1916168e-01
 -5.2764690e-01
 -5.7349312e-01
  5.4944789e-01
 -1.2861425e+00
 -7.0526010e-01
  1.7307860e+00
  2.4723561e-01
  8.8631266e-01
  2.0053911e-01
  2.4205991e-03
 -2.0924454e+00
  1.0461037e+00
 -3.0908670e-02
 -2.1714976e+00
 -7.1689320e-01
  1.2417851e-01
  2.4149896e-01
 -1.3659102e+00
 -7.4474400e-01
 -1.3300279e+00
  1.3720138e-01
  4.9043328e-01
  6.1329907e-01
  3.0983642e-01
  5.8386445e-01
  2.3380059e-01
  2.7831070e+00
 -2.1126611e+00
  1.4316201e+00
  2.5754278e+00
  3.7847620e-01
  2.8635373e+00
  1.2162256e+00
  3.1759143e-01
 -2.0056212e-01
  1.5014671e-01
  9.3273602e-02
  3.1235489e-01
  2.0968759e+00
 -8.6987799e-01
  1.6701487e+00
 -6.4933419e-01
 -1.1908591e+00
 -9.7262335e-01
 -1.8731490e-01
 -1.9598305e+00
 -2.6602187e+00
  3.4527912e+00
  4.9619156e-01
 -2.2770569e+00
  1.6505191e-01
  1.4897567e-01
 -2.7246749e-01
  2.4083284e-01
  4.1252011e-01
  9.1243607e-01
  5.1331174e-01
  9.6530282e-01
  9.7992502e-02
  1.3676196e+00
  1.5173028e-03
 -1.9621084e+00
 -7.4876148e-01
 -1.0323837e+00
  3.2602966e+00
 -6.0395914e-01
 -6.0389775e-01
  3.4969604e-01
  9.7072583e-01
 -6.1059433e-01
 -1.3432105e+00
  6.3785177e-01
 -7.5573850e-01
 -1.0627662e+00
 -7.2306824e-01
  2.1702683e+00
 -1.3185500e+00
 -9.4338495e-01
 -2.2461314e+00
  3.0236576e+00
 -3.7161248e+00
  1.0747364e+00
  1.3978386e+00
 -2.6085037e-01
  1.1970627e+00
 -3.6351892e-01
  1.6245456e+00
 -2.2113807e+00
  4.1868338e-01
 -8.5961241e-01
  1.6428882e+00
  5.8908498e-01
  1.0536480e-01
  4.8706478e-01
  1.7180910e+00
 -8.1496680e-01
  4.0660353e+00
  7.7909821e-01
  1.9402523e-01
 -1.7805831e+00
  2.0100951e+00
  9.9253672e-01
  2.3665998e+00
  2.8175798e-01
 -1.1616631e+00
  1.0640748e+00
 -9.0433925e-01
 -3.4077783e+00
  1.0113298e+00
 -4.0579948e-01
  1.6419225e+00
  6.1099368e-01
  3.1734977e+00
 -9.8428118e-01
  2.7995473e-01
  1.6354426e+00
 -1.7796385e+00
  9.9260902e-01
  6.6526353e-01
 -4.5531538e-01
  1.5096477e+00
  1.5825760e+00
 -6.5621883e-01
 -2.6335173e+00
 -9.2108285e-01
  3.8558692e-01
  1.2436950e-01
  3.0856090e-02
 -6.8652523e-01
  1.2660521e+00
 -1.5436344e+00
  1.3703231e+00
 -1.4820412e+00
  1.3188181e+00
 -1.1001031e+00
  1.4904798e+00
 -6.9999206e-01
  5.1139730e-01
  1.2929908e+00
  3.4102520e-01
  1.1414441e+00
 -1.4994442e+00
  1.5404168e-01
  2.3822067e+00
 -3.8971779e-01
 -1.8158487e+00
 -7.4119967e-01
 -5.0439936e-01
  6.9165103e-02
  1.4350275e+00
 -4.6641362e-01
  5.6294464e-02
 -1.0794017e+00
  2.1502253e-01
 -2.4170818e+00
  4.1735402e-01
  6.3424684e-02
  6.2821662e-01
  5.7937443e-01
 -8.0716985e-01
 -8.6819607e-01
 -1.8318626e+00
 -3.9137310e-01
  3.3189535e-01
 -7.1746212e-01
 -1.4952639e+00
 -6.0388583e-01
  3.7366571e+00
 -1.4179114e+00
 -3.3946392e-01
  3.7318081e-02
 -6.2192726e-01
  2.7020020e+00
 -1.0384909e+00
  1.8097342e+00
  6.1406806e-02
 -1.6272010e+00
 -1.3881952e-01
 -2.5473067e-01
 -1.2011960e+00
  4.8070440e-01
 -4.7477296e-01
  1.0199813e+00
  8.0001575e-01
  9.6121514e-01
  3.0727786e-01
 -1.2261086e-01
 -1.6520374e+00
  1.4304185e+00
  5.6725182e-03
  2.2819681e+00
  4.9630159e-01
 -3.1269743e+00
  9.7560203e-01
 -2.1999133e+00
 -5.1922078e+00
  4.5149672e-01
  4.6811533e+00
 -2.1076207e+00
  1.2275195e+00
 -1.1931365e-01
 -1.1432447e+00
 -6.3799679e-01
 -5.7729745e-01
 -2.1920540e+00
 -2.8806646e+00
 -3.5528572e+00
 -8.0037105e-01
  6.6577625e+00
  3.3989844e+00
  1.8099885e+00
  3.7570113e-01
 -3.3405983e+00
 -7.1876341e-01
  1.5927182e+00
 -6.0299557e-01
 -4.1366520e+00
  2.8946123e+00
 -4.4681317e-01
  4.1346512e+00
 -5.2809125e-01
  1.9893833e+00
  2.0200825e+00
  6.3796443e-01
  2.9510579e-01
 -1.3310637e+00
  1.8042754e+00
 -2.1508505e+00
  1.1484834e+00
  1.4749813e+00
 -9.2967480e-01
  1.2010955e+00
  2.3256907e+00
  8.4728324e-01
  2.9060388e+00
 -1.5449240e+00
  2.1865101e-01
  3.0670195e+00
  5.0770509e-01
  1.7398331e-01
 -7.9508328e-01
 -2.0134537e+00
 -6.0408741e-01
  2.9293556e+00
  3.5472903e+00
  1.4913019e+00
  5.3067861e+00
  2.9050583e-01
  8.6849505e-01
  2.1275899e+00
  3.2066000e+00
 -1.6439887e+00
 -2.4204440e+00
 -3.7056234e+00
  5.3799868e-01
  2.3723333e-01
 -1.4440337e+00
 -1.5781631e+00
 -1.4531922e+00
 -1.3689390e+00
 -1.7514523e+00
  1.7053733e+00
 -6.6684550e-01
 -3.5906756e+00
  6.2736320e-01
  8.2228363e-01
  2.1117377e+00
 -9.1457260e-01
 -1.2387933e+00
 -2.1780307e+00
  6.1509871e-01
 -8.1678188e-01
 -1.5162266e+00
 -1.6036697e-01
 -2.0857017e+00
  2.2820768e+00
  4.9804874e-02
 -4.2600617e-01
 -1.5455893e+00
 -5.0436014e-01
 -2.5335011e-01
 -2.1323752e+00
  1.2035638e+00
 -4.7338437e-03
  3.3466465e+00
 -9.8300737e-01
 -4.0659064e-01
  3.6939859e-01
 -1.3963833e+00
 -7.9835542e-02
  4.7775006e-01
  8.4500782e-02
  6.9344491e-01
  8.4999543e-01
  2.0761690e+00
  1.1787329e+00
  3.6328071e-01
 -1.1092248e+00
  4.9216038e-01
 -1.1145539e+00
  2.8376255e+00
  9.9051851e-01
  5.1403618e-01
 -3.6694995e-01
 -1.5194736e-01
  1.2782195e+00
 -3.7821785e-01
  1.6494519e+00
 -1.0466399e+00
 -1.9421792e+00
 -6.7371482e-01
  5.9661096e-01
 -1.1091050e+00
 -1.8714056e+00
 -1.9121307e+00
 -1.3897638e+00
 -3.1678489e-01
  9.0858549e-01
 -5.8072621e-01
  2.4315113e-01
  7.0250028e-01
  8.0894250e-01
 -1.2512476e+00
 -5.2873468e-01
 -2.2712462e+00
 -1.3227245e+00
  2.2713585e+00
 -1.5609417e+00
  3.1299752e-01
  1.1338851e+00
  1.9597431e-01
 -5.6819457e-01
 -1.0545272e-02
 -9.3828142e-01
  1.1627792e-01
  8.8255119e-01
 -3.0894789e-01
 -2.5541809e-01
 -1.5103323e+00
 -1.7991513e+00
  1.6025220e+00
 -2.2147813e+00
 -1.1841393e+00
  7.6282877e-01
 -8.5698688e-01
  1.8852800e+00
 -3.4359932e-02
 -1.1140866e-01
 -1.1452742e+00
 -4.2678943e-01
  1.8555213e+00
  2.7700138e+00
  2.4725394e+00
  8.6994684e-01
 -1.3321146e+00
 -1.8591531e-01
  5.2359426e-01
  1.1917533e+00
  3.3029294e+00
  5.4547822e-01
  6.0716540e-01
  2.7512375e-01
  8.3404422e-01
 -1.0396203e+00
  2.2926629e+00
  1.9323130e+00
  6.7748445e-01
  5.6960851e-01
  2.1678894e+00
  1.0646964e+00
 -2.3510659e+00
  8.2558669e-02
 -6.3954192e-01
 -1.1162778e+00
 -2.3656154e+00
  3.7060409e+00
 -5.0442469e-01
 -1.0402354e+00
  5.3278450e-02
 -7.3764652e-01
 -1.0572107e+00
 -1.2787538e+00
  9.6641141e-01
 -1.7935081e-01
  5.7708454e-01
  6.0345829e-02
  1.5181128e+00
 -1.3879815e+00
 -2.0926503e-02
 -3.0159032e+00
 -3.3120599e-01
  4.0038619e+00
  5.6227702e-01
 -4.7544846e-01
  3.2971063e-01
 -2.4869149e+00
 -2.4691334e-01
  1.3832507e+00
  4.0499133e-01
 -8.1984711e-01
 -2.9883540e-01
 -8.5846931e-02
 -1.0831994e+00
 -1.3976555e+00
  1.3692706e+00
  8.4994483e-01
 -1.2538403e+00
 -1.0712042e-01
 -1.6117954e+00
 -7.5243577e-02
 -2.4910095e+00
 -7.3171592e-01
  1.2240810e+00
  1.4300048e+00
 -5.4521072e-01
  1.9972557e+00
  1.1201872e+00
  2.1868324e+00
  5.7661921e-01
 -1.0178131e+00
 -1.8126024e+00
 -1.0710639e+00
 -6.1656135e-01
  8.3512360e-01
  5.6980580e-01
 -4.8567501e-01
  1.1275337e+00
 -4.5132688e-01
  2.9043561e-01
  1.6940933e+00
  2.8692409e-01
  7.3903215e-01
 -4.7921687e-01
  8.4136827e-03
  4.9436532e-02
 -1.1150327e-01
  5.0484866e-01
  3.0140705e+00
  1.4816869e+00
  8.1182498e-01
  4.0844012e-02
  1.2797565e+00
  1.4538507e+00
 -8.7643874e-01
 -1.5840427e+00
 -1.8741407e+00
  4.2371306e-01
 -1.5223837e+00
  1.6979897e-01
  4.9141607e-01
 -1.9170802e+00
  1.0059440e+00
 -9.2249078e-01
 -6.4407903e-01
 -9.0177072e-04
 -9.6458745e-01
 -8.3751774e-01
  1.9340787e+00
  2.1082785e-02
  7.0347083e-01
 -1.0325956e+00
 -6.9739354e-01
 -4.2684540e-01
 -4.1139746e-01
  3.1762357e+00
  5.8966225e-01
 -3.7582526e-01
  1.3256869e+00
 -9.5496196e-01
 -1.4995499e+00
  1.5481687e-01
 -6.5505505e-01
  9.9304754e-01
 -3.4770548e-01
 -3.2656154e-01
 -4.0330189e-01
  1.8786128e+00
  7.6512313e-01
 -1.7091612e+00
  1.0115862e+00
  5.0225967e-01
  3.0061977e+00
 -1.0912583e+00
 -6.5331054e-01
 -1.0272596e+00
  6.2407899e-01
 -2.9324716e-01
 -1.2352157e+00
 -2.6439924e+00
  1.7135952e-01
  2.6487777e-01
  2.4058899e-01
  1.4859483e+00
 -1.7926288e+00
  1.0038183e+00
 -1.2203126e+00
  8.3784670e-01
  3.6171269e-01
 -9.1191542e-01
  1.8456744e+00
  7.8053319e-01
  3.8617879e-01
 -1.7017943e+00
  3.6229306e-01
  1.3779854e+00
 -9.9302202e-01
  1.0044062e+00
 -1.0772026e+00
 -3.2686889e-01
 -1.5081325e-01
  8.4487891e-01
  1.4028941e+00
 -4.1059060e+00
  6.6235036e-02
  4.6236355e-02
  1.9775140e+00
  5.1888478e-01
 -6.9446218e-01
 -2.5798327e-01
 -6.5224332e-01
  4.4347832e-01
  7.8562953e-02
  1.1114513e+00
 -2.1626048e+00
  8.8196176e-01
 -1.5837430e+00
  6.3889515e-01
  2.2792156e+00
 -8.8161087e-01
 -1.7855342e-01
 -7.6060110e-01
  9.2947817e-01
 -1.7967178e+00
  8.3655782e-02
  4.8214123e-01
  7.7877444e-01
 -4.6283028e-01
 -8.7836581e-01
  3.6526623e-01
  1.9473587e-01
 -6.6122377e-01
  6.4826202e-01
 -8.2182571e-02
  8.0047768e-01
  5.9122807e-01
 -3.2567625e+00
 -9.3199062e-01
 -3.2169765e-01
  2.7286906e+00
 -7.2734278e-01
  3.5255432e-01
 -4.8324287e-01
 -2.0444980e+00
  2.7138181e+00
  3.2649245e+00
 -8.4037226e-01
 -1.2462826e+00
 -1.7908460e-01
  8.6505026e-02
  4.1207665e-01
  1.1866674e+00
  9.9827021e-01
 -9.9185419e-01
 -8.9038628e-01
 -3.2255825e-01
  2.8968942e+00
 -3.1140313e-01
  7.7851397e-01
  2.6004389e-01
  3.6507182e+00
 -1.9479418e+00
 -1.3186604e+00
 -1.5526878e+00
 -2.5473349e+00
 -3.9195657e-01
 -8.0609518e-01
 -2.0033255e+00
 -2.2940371e+00
  1.5676103e+00
 -1.7607243e+00
 -1.5546476e+00
  6.2074751e-01
 -2.5116436e+00
  4.4560981e-01
 -2.2912085e+00
 -3.7151461e+00
  7.3839080e-01
  1.0669515e-02
  9.0052050e-01
 -2.6054084e+00
 -2.2181633e+00
  3.2830901e-02
 -7.2774160e-01
 -1.5689839e+00
  6.4222318e-01
  1.3108271e+00
 -2.0354867e+00
 -9.8046571e-02
 -1.4053191e+00
 -2.3988018e+00
 -4.5403162e-01
  5.1370573e-01
 -2.6253787e-01
 -1.7559150e+00
  2.9612327e-01
 -2.3704767e+00
 -1.0107071e-01
 -1.1368726e-01
  4.9160335e-02
 -3.7549642e-01
 -1.2207553e+00
  7.9387999e-01
 -1.9261880e-01
 -2.7242875e+00
  1.5654564e+00
  1.4824498e+00
 -1.0405742e+00
 -6.7898738e-01
  2.4882011e-01
  4.8588634e-01
 -6.0022211e-01
  1.3606894e+00
 -1.4800255e+00
 -3.3844388e-01
 -7.4436212e-01
 -8.0680901e-01
 -3.9719198e-02
 -2.3695853e-01
  4.9471241e-01
 -1.9462022e+00
 -3.3817741e-01
  4.5432326e-01
  3.4212184e+00
  1.3070328e+00
  1.0335522e+00
 -3.1931295e+00
 -1.1351626e+00
  1.0299817e+00
  1.5076882e+00
  1.2955536e-01
  3.8603947e+00
  1.0376973e+00
  3.7651730e-01
 -3.3028549e-01
 -3.9181820e-01
 -5.5042160e-01
  1.4077576e+00
 -7.2960246e-01
 -1.4037778e+00
 -9.6140218e-01
  4.1314119e-01
 -2.4958609e-01
 -1.8762923e+00
 -3.5079756e-01
  1.6967679e+00
  1.5014124e+00
  7.6975220e-01
 -1.6419823e+00
  1.0600464e+00
  3.8283634e+00
  2.9552695e-01
  8.2913685e-01
  4.9299559e-01
 -1.4517800e+00
  2.3386003e-01
  2.6061721e+00
 -2.2940950e+00
  2.6459897e-01
  1.9664229e+00
  8.7239093e-01
 -2.3843198e-01
 -7.7077806e-01
 -1.2704986e+00
  3.8990363e-01
  2.0712001e+00
  3.7692235e+00
  3.1182935e+00
  2.3884612e-01
 -2.0929475e+00
  2.9606885e-01
 -1.7708513e+00
 -6.6554397e-01
  7.7669293e-01
  5.9346068e-01
  3.5482165e-01
 -1.8282353e+00
 -4.3891639e-01
  1.4817942e+00
 -4.5373169e-01
  2.9823356e+00
 -2.7490995e+00
 -8.4347334e-03
 -3.9291990e+00
 -2.4839549e+00
  1.2450042e+00
 -1.8422079e+00
 -9.9406809e-01
 -1.6831126e+00
 -6.2827163e+00
  2.9595089e-01
 -5.8959514e-01
 -5.2654433e-01
  1.8964891e+00
 -2.6198108e+00
 -1.1880662e+00
 -7.7530688e-01
  9.0673673e-01
  5.1622897e-01
  3.7895533e-01
  2.4083943e+00
  2.3485565e-01
 -3.2870276e+00
 -4.2950857e-01
 -1.4537801e+00
  7.0943457e-01
  8.2259133e-02
 -1.3583614e+00
  2.0462990e+00
 -4.3004066e-01
 -3.0534928e+00
 -5.9120750e-01
  1.1079403e+00
 -7.1170747e-01
 -2.1890104e+00
  5.1810092e-01
  1.6410640e+00
  2.9598372e+00
  2.8967936e+00
  2.3007135e+00
 -4.3027587e+00
 -1.0431731e+00
  1.7168524e+00
  1.4318434e+00
  1.2279307e+00
 -7.6175278e-01
 -3.7262988e-01
 -3.7134297e+00
  9.6476036e-01
  1.0526904e+00
  6.0805243e-01
 -1.2974632e+00
  1.6550746e+00
 -1.8246531e+00
 -4.5550901e-01
 -6.1528766e-01
 -8.4084672e-01
 -1.4094137e-01
 -1.9916146e+00
  1.5257972e-01
 -8.1910759e-01
 -5.6052184e-01
 -1.0802832e+00
  3.0699715e-01
  1.0571344e+00
  9.6373178e-02
  2.8867826e+00
  1.8180691e-01
 -1.9905891e+00
  4.5911390e-01
  1.6325900e-01
 -3.0601251e+00
 -2.0764441e+00
 -6.3709414e-01
 -1.0055745e+00
 -2.1224797e+00
  5.7654577e-01
 -2.8685956e+00
  1.6712356e-02
  9.8353498e-02
  1.2958326e+00
 -1.8718390e+00
 -1.9433363e-01
  8.8357311e-01
 -7.3060000e-01
  1.2413181e+00
 -2.1954052e+00
  2.8920695e-01
  1.7692589e+00
  6.5156311e-01
  1.5626937e+00
  7.8301376e-01
  8.0044374e-02
  6.9247389e-01
 -1.1369711e+00
  9.2388660e-01
  3.3338504e+00
 -4.0277414e+00
 -4.9424985e-01
 -2.8421228e+00
  1.0362916e+00
 -3.0442224e+00
 -6.5826148e-01
 -1.3300966e+00
  3.0850189e+00
  1.4598750e-01
  6.1767429e-01
  6.2757295e-01
  1.8439041e+00
  2.0559442e+00
 -2.0242004e+00
  1.8358058e-01
 -2.0508442e+00
  9.6936387e-01
 -1.4044438e-01
  1.7784414e+00
  1.5743235e+00
  3.3753753e+00
 -1.2865992e+00
 -1.6700203e+00
  1.0296463e+00
 -3.5728831e+00
  1.7322356e+00
  1.8988496e+00
 -1.1202725e+00
  2.6189079e+00
  3.7475541e+00
 -2.3654974e+00
 -2.9598219e+00
  1.7160741e+00
 -1.8736410e+00
  1.3567073e+00
 -6.8292916e-01
  5.4702538e-01
  2.1437597e+00
  2.5343418e+00
  1.2693806e+00
 -3.7874901e-01
 -4.0493530e-01
 -1.1456997e+00
  3.5977575e-01
 -6.7247003e-01
 -2.5721152e+00
 -6.4389932e-01
 -2.5686932e-01
  1.9298586e+00
 -1.1447803e+00
 -1.4180619e+00
  6.0269380e-01
 -3.8986087e+00
 -1.8123722e-01
 -1.8466182e+00
  1.3486899e+00
 -4.0346780e-01
 -7.6584613e-01
  2.6600814e+00
 -1.6090754e+00
 -2.5889167e-01
 -5.3085130e-02
 -1.3174079e-01
  7.9159409e-01
 -9.1192335e-01
  9.1754097e-01
  5.0071377e-02
 -1.7078753e+00
  1.1911820e+00
  1.3319880e+00
  9.9777132e-01
 -3.0373781e+00
 -8.2403088e-01
  1.5746562e+00
 -3.7147433e-01
 -9.4516784e-02
  3.1609175e-01
  1.0834013e+00
  1.2494068e-01
  1.9618150e+00
  3.6884461e-02
  8.4276015e-01
  7.8917521e-01
 -2.1107247e+00
 -1.0079141e+00
  1.1406240e+00
  4.0284839e+00
 -1.6445609e+00
  1.8440485e+00
 -2.2561073e+00
  1.6265328e+00
 -5.1451021e-01
  2.3147348e-01
  3.6344125e+00
 -1.8287621e-01
  2.4969999e-01
  1.5909233e+00
  2.0855346e-01
  1.7608532e-01
 -4.7422864e-02
 -6.6579920e-01
  1.5881523e-01
  2.3848920e-01
 -2.4916048e+00
  9.2696428e-02
  2.6761246e-01
  1.4256690e+00
  1.7251663e+00
  2.7775569e-02
  3.1840992e-01
  1.4213794e+00
  2.1265020e+00
  3.8862076e+00
 -1.8743696e+00
  1.8752358e+00
 -1.8101801e+00
  4.8352423e-01
  2.7227161e+00
 -1.0529293e+00
  1.9711947e-01
  1.7594157e+00
 -1.4302531e+00
  2.1572484e-01
  2.5134196e+00
  2.2910144e+00
 -1.6654440e+00
  6.3809508e-01
  1.8258003e+00
  1.5040710e+00
  1.2668154e+00
 -1.9274887e+00
  2.8406608e+00
 -2.4411492e+00
  2.6624324e+00
 -1.5083417e+00
  1.8406837e+00
 -1.6613659e+00
  1.1173762e-01
 -2.6680379e+00
 -2.0076694e+00
  5.2589446e-01
  2.1575145e-01
  2.7334118e+00
 -1.9523102e+00
  2.5987790e+00
  2.5315325e+00
 -1.9636811e+00
  2.6445413e+00
 -1.9821737e+00
 -2.5198815e-02
 -3.7621963e-01
 -2.8634627e+00
  1.7659047e+00
 -1.7643226e+00
  2.1612005e+00
 -1.9350302e-01
 -1.7130340e+00
  2.6311798e+00
  9.5578593e-01
  2.2383766e+00
 -3.9496002e-01
 -1.0971943e+00
 -7.5813818e-01
 -3.3812201e+00
  1.8542584e+00
  1.8228967e+00
  5.3306818e+00
 -3.1594846e-01
 -1.4816952e+00
  6.5083849e-01
 -1.4478930e+00
 -1.7187529e+00
 -1.2714003e+00
 -3.3970847e+00
  2.3257596e+00
  1.7461309e+00
  4.0092123e-01
  1.4275426e+00
 -4.5472762e-01
  2.3699331e+00
  2.2583294e+00
 -2.7869880e+00
 -1.5760247e-01
  5.4835242e-01
  4.5361394e-01
  3.5296078e-03
  5.7269943e-01
  6.8099278e-01
 -7.6148927e-02
 -6.7127965e-02
  7.2279012e-01
 -1.1387011e+00
  1.8938957e+00
  8.3274829e-01
  2.0936241e+00
 -2.7386921e-02
  2.4343431e-01
 -9.9997833e-02
 -1.9352256e+00
 -7.7101398e-01
  5.7813156e-01
  7.0773137e-01
  2.8486615e-01
 -2.8965116e+00
  5.3073478e-01
  3.0865204e-01
 -4.4735867e-01
  4.0121012e+00
 -1.2313013e+00
 -1.0323494e-02
 -2.6094967e-02
 -1.1751269e+00
 -6.1725610e-01
 -1.4197312e-02
  8.7131172e-01
  6.1506712e-01
  4.0194809e-01
  5.3886944e-01
 -7.4336851e-01
 -1.7052668e-01
 -4.9038443e-01
  7.8756511e-01
 -2.7795947e-01
  1.8139392e-01
 -6.5848246e-02
 -5.3133470e-01
  2.3612080e+00
  8.9901298e-01
 -3.0044265e+00
 -3.1783172e-01
 -1.0270215e+00
 -1.0094198e+00
  1.9367125e+00
 -9.8741949e-01
 -5.4433936e-01
  3.6624584e-01
  1.7002584e+00
 -7.8518265e-01
 -8.5106045e-01
  1.2579864e+00
  4.0411978e+00
  9.1732763e-02
  4.4888070e-01
 -5.5855989e-01
  3.4547612e-01
  5.7093445e-02
  6.7772472e-01
  6.1953706e-01
 -1.5511489e-01
  1.4181662e+00
 -7.1151274e-01
  1.2233099e+00
  3.2508075e+00
 -7.5810395e-02
  2.9884636e+00
  2.6425655e+00
 -1.4057267e+00
  3.0990338e-01
  4.3555531e-01
 -1.2877874e+00
  2.7154012e+00
 -1.0541439e+00
 -2.4305262e-01
  3.5437182e-01
  2.6569726e+00
 -1.1092446e+00
  5.4545999e-01
 -5.4716349e-01
 -1.9439923e+00
 -1.7537125e+00
 -5.5626197e+00
 -1.6541225e-01
 -3.9405322e-01
  2.1258340e+00
 -7.3678005e-01
  8.7343365e-01
  6.8668015e-02
  2.7126792e-01
  8.5579824e-01
  7.5426333e-02
 -7.6704484e-01
  1.2040328e+00
 -1.0486350e+00
 -4.9889815e-01
  2.4290028e-01
 -1.3084407e+00
 -1.1549861e+00
 -4.5236951e-01
  2.7737060e-01
 -3.3718738e-01
 -1.7861784e-01
  6.9142258e-01
  8.6602688e-01
  6.7997950e-01
  1.7655617e+00
 -6.8929619e-01
 -1.5735120e+00
  1.8380630e+00
  8.5876599e-02
 -7.8086209e-01
  1.1676747e+00
  1.5884194e+00
  7.3332363e-01
  2.5520811e+00
 -1.1923456e+00
  1.9983093e-01
 -1.1280166e+00
  4.5910877e-01
  3.1271234e-01
 -4.7398865e-01
  1.1853175e+00
 -1.2013738e+00
 -5.1369536e-01
  2.8297734e-01
 -3.4016582e-01
  2.5575173e-01
  6.3865489e-01
  4.7417685e-01
  1.0541031e-01
 -1.9164790e-01
 -7.4373841e-01
  1.3972344e+00
  1.5860449e-01
  9.5278680e-01
  2.2118831e+00
 -1.0211838e+00
  4.7698941e+00
 -2.0917867e-01
 -3.9081591e-01
  2.6190734e-01
  9.3628573e-01
 -1.0847828e+00
 -1.7786009e+00
  1.6485370e+00
  8.9132172e-01
 -1.8003547e+00
 -6.4207256e-01
 -4.2347676e-01
 -3.7500641e+00
  2.0833884e-01
 -2.5066844e-01
 -9.2478937e-01
 -1.2921038e+00
 -1.0729716e+00
 -6.6474891e-01
  3.8442576e-01
 -1.0629717e-01
 -1.2484941e+00
  9.8685092e-01
  6.4038110e-01
  5.2756053e-01
 -1.7077218e+00
  1.7666755e+00
  1.7949769e+00
  1.3989264e-01
 -1.4502385e+00
  3.9960647e-01
 -2.1699837e-01
 -2.3987348e+00
  1.6347272e+00
  5.5075210e-01
  3.9981037e-01
  1.2906528e+00
 -1.1386093e+00
 -1.0130483e+00
 -1.7779545e+00
  2.4383074e-01
 -3.5453308e+00
  2.2936013e-01
 -7.3733377e-01
 -4.4948104e-01
 -1.0418746e+00
 -4.9663562e-01
  8.4979331e-01
  1.1215876e+00
 -1.8514155e-01
 -5.1938663e-03
 -1.3740987e+00
 -2.5718868e-01
 -1.3752985e+00
  2.9837352e-01
 -1.7540039e+00
 -4.4313961e-01
 -1.5729079e-01
  4.9314398e-01
 -3.7726751e-01
  1.3021185e-01
  9.2644256e-01
  1.4459369e+00
 -3.7818238e-01
 -1.0599737e+00
  4.4125775e-01
 -3.7203461e-01
  7.6042539e-01
 -1.6650796e+00
 -1.5293959e+00
 -1.5255083e+00
 -1.8086698e+00
  1.0594320e-01
 -5.1453751e-01
  5.5997330e-01
  2.2635927e+00
  4.7970372e-01
  4.8295331e-01
  1.1743066e+00
  6.0945475e-01
 -1.0126095e+00
 -5.3684586e-01
 -5.1638430e-01
 -1.3359822e-01
 -7.8435838e-01
 -4.3622673e-02
  2.1770360e-01
  1.0976826e+00
  3.8800371e-01
 -3.2615836e+00
 -5.2270585e-01
 -6.5802187e-01
 -1.8463236e+00
 -2.7696867e+00
  2.7614325e-01
  9.2005664e-01
  1.5365580e+00
  3.2668173e-01
 -5.7511377e-01
 -2.5716865e-01
 -1.2103802e+00
  3.6240819e+00
 -2.3898375e+00
 -8.5877866e-01
 -5.4213557e+00
  3.0036781e+00
  2.1566727e+00
  6.7726791e-01
  4.4031227e-01
 -1.0620677e+00
  2.5602368e-01
 -9.0684777e-01
 -1.5407899e-01
 -2.4070528e+00
  2.0579058e-01
  8.1873937e-03
  1.5526406e+00
  1.2245061e+00
  5.2887517e-01
  4.2859036e-01
 -1.7708167e+00
 -1.3624928e+00
 -2.9237778e+00
  7.6280773e-01
 -4.9091730e-01
 -4.5116532e-01
  8.8127065e-01
  2.1497571e+00
  1.7988248e-01
 -6.9009316e-01
 -2.4960692e+00
 -3.5286698e+00
  1.1962116e+00
 -1.7216914e+00
 -8.9249218e-01
 -8.0119081e-02
  1.3389649e+00
 -7.2076833e-01
 -6.7717510e-01
 -4.8722081e+00
  2.8181460e-01
  8.8965642e-01
 -2.5026586e+00
  4.4059575e-01
  2.0296402e+00
 -1.1177461e+00
 -4.9170077e-01
 -3.1748500e-01
 -2.1130497e+00
  1.8209759e+00
 -1.8128003e+00
  9.0648860e-01
 -9.1190451e-01
 -4.8668023e-02
  5.2006382e-01
 -1.9993049e-01
  1.4721762e+00
  4.5383418e-01
  6.9216764e-01
  7.1240532e-01
  1.3254108e+00
 -7.5636160e-01
  6.9163406e-01
 -6.3274525e-02
  2.2142673e+00
  1.2785196e-01
 -6.8687880e-01
  4.1178808e-01
  1.4694327e+00
  1.1791529e-02
 -4.7364178e-01
  6.4976770e-01
  1.3785703e-02
 -1.0219219e-01
 -7.3717654e-01
 -1.1549088e+00
 -3.4806702e-01
  1.1357736e-01
 -6.3669807e-01
  4.7613871e-01
  9.1533639e-02
  2.5151148e+00
  3.1886272e+00
 -1.4329647e+00
 -3.4102242e-02
 -2.0836452e-01
  4.7154471e-01
 -2.8280741e-01
  1.5443056e+00
  1.1934911e-01
 -2.3888533e+00
  1.4071593e+00
  4.9561360e-01
 -1.8728790e+00
  9.8052055e-02
 -1.2999421e-01
 -6.2036055e-01
 -8.1242524e-02
  4.2288026e-01
 -9.2741942e-01
  2.9424364e-03
 -2.6645961e-01
  8.3301932e-01
  1.3105353e+00
 -4.6588466e-01
 -2.0611238e+00
 -3.7973464e-01
  1.4986502e+00
 -8.3362293e-01
 -3.3673498e-01
  6.0035121e-01
  6.7006364e+00
  5.5012542e-01
  1.7163923e+00
 -1.0932175e+00
  5.0432384e-01
 -8.9766249e-02
  7.6592839e-01
 -1.0485384e+00
  8.1222579e-02
 -1.0105383e+00
  1.4368778e+00
 -2.6093599e-01
 -2.0594716e-01
 -1.0930521e-01
 -1.7393412e-01
 -3.4529117e-01
 -1.0021417e+00
  1.1695886e+00
 -2.4780462e+00
  1.1123112e-02
  1.0339346e+00
  5.7836896e-01
  1.1310100e-01
 -1.2365664e+00
  8.6446017e-01
 -8.9774616e-02
 -6.6613197e-01
 -1.1258847e+00
 -2.6813641e+00
 -1.1018796e+00
 -1.0086831e+00
 -9.2391562e-01
  2.8119147e-01
  3.2187378e-01
 -8.6402863e-01
  5.8170915e-01
  5.9222370e-01
 -1.6032405e+00
 -5.8605266e-01
 -2.2814298e+00
 -1.6565716e+00
  1.4895731e+00
 -1.9992225e-01
  1.3020384e-01
 -2.1471098e-01
  8.3989650e-01
  3.4601384e-01
 -1.2390500e+00
  1.1553291e+00
 -2.7856801e+00
  4.2181692e-01
 -9.9280792e-01
 -9.7170758e-01
  2.8093698e+00
  2.5273862e+00
 -1.9760320e+00
  4.0517564e+00
  2.8497443e+00
  6.9842786e-01
 -5.8794552e-01
  1.0694728e+00
  8.5835767e-01
 -7.4940908e-01
  5.5131251e-01
 -7.9148513e-01
  9.6966624e-02
 -1.4216794e+00
  1.6555093e-02
 -2.3519082e+00
  1.2121302e+00
  1.7508140e+00
 -9.3114585e-01
 -1.2262115e+00
 -6.5363592e-01
  2.7930999e+00
  5.2371961e-01
 -8.0951315e-01
 -3.9795378e-01
 -6.2764150e-01
 -6.6554147e-01
  1.0958319e-01
  1.9684510e+00
 -3.0700988e-01
  1.5853682e-01
  2.1096277e+00
 -2.2151449e+00
  6.7575675e-01
 -3.6933985e-01
 -2.5770211e+00
  1.1975890e+00
  7.8442216e-01
 -7.4977225e-01
 -5.5047297e-01
  4.3920834e-02
  2.2314107e-01
 -5.0360930e-01
  3.0244568e-01
 -1.9248886e+00
 -8.4539481e-02
  2.0997316e-01
  1.9964311e+00
 -7.5770056e-01
  5.5356395e-01
  7.3013800e-01
  1.9280996e+00
 -8.9985567e-01
 -1.4782715e+00
 -1.0070804e+00
 -1.2132205e+00
  1.1615756e+00
 -1.2451577e-01
 -1.4386530e+00
  1.7799884e+00
 -5.7442236e-01
 -9.3046737e-01
 -9.0042865e-01
 -1.1810274e-01
 -2.4531817e-01
  3.1587544e-01
  1.6504444e+00
  1.1706793e+00
 -8.3376788e-02
  7.2634834e-01
  7.7620077e-01
 -1.5044041e+00
  3.1308451e-01
  2.6163414e+00
  7.7456290e-01
 -1.5857947e+00
 -1.9105858e+00
  2.6105824e-01
 -1.5985590e+00
 -9.5862883e-01
  5.4152787e-01
  1.6174850e+00
 -2.3015518e-01
  6.4305645e-01
 -1.6498368e+00
 -1.0385286e+00
  5.0681651e-01
 -6.0047328e-01
 -1.4820960e+00
  5.9737498e-01
  9.3807089e-01
 -5.1816815e-01
 -8.9207917e-02
  1.1450994e-01
 -1.6795138e+00
  1.1962265e+00
 -1.1465638e+00
 -3.8806629e-01
  2.5946832e+00
  9.6438766e-01
  1.5022810e-01
 -2.4768043e-01
  9.2762518e-01
 -1.5627329e+00
  3.2779163e-01
  1.2569267e+00
 -3.8641986e-01
 -3.9937019e-01
  5.6416625e-01
 -9.5698517e-03
 -7.3691303e-01
  1.1035951e+00
  1.1242647e+00
 -3.2786894e+00
  1.2371020e+00
  4.5532364e-01
 -1.4273942e+00
 -4.3389714e-01
  4.0850553e-01
  8.9925420e-01
  1.2417810e-01
 -7.7416497e-01
  8.6971086e-01
 -5.6871510e-01
 -1.2714210e+00
 -1.3018749e+00
  3.7729761e-01
 -4.5484227e-01
  3.3744090e+00
 -3.5783205e+00
 -2.9324669e-01
 -4.8095468e-01
 -9.6783854e-02
  4.6927819e+00
 -2.6476750e+00
 -2.7598727e-01
 -1.8600617e-01
 -1.7689624e-01
  1.1603343e+00
  1.7218800e+00
 -6.6736251e-01
  8.5736442e-01
 -4.0194991e-01
 -1.3008922e+00
  1.6267788e+00
  1.8440971e-01
  1.3682266e-02
 -4.1249463e-01
  1.4646641e+00
  5.2994561e-01
 -8.8999230e-01
 -4.5322466e-01
 -7.3951715e-01
 -4.2155358e-01
  9.0171832e-01
 -4.3402052e-01
 -1.7555386e+00
 -2.4755949e-01
 -2.1751807e+00
  5.4054532e+00
  2.6853001e+00
  4.7408881e+00
 -4.6668658e+00
  2.2088723e+00
 -7.2575383e+00
  3.4892406e+00
  1.4536338e+00
 -2.8280148e-01
 -6.0954290e-03
 -5.3797412e+00
 -4.8361379e-01
  3.6523156e+00
 -7.1457118e-01
 -3.9572732e+00
  7.6928324e-01
 -1.2806741e+00
 -1.9833257e+00
  5.7025534e-01
  3.5263834e+00
  1.8107174e-01
 -1.4483539e+00
  3.2965508e+00
 -3.2581997e+00
  4.8622026e+00
  1.0591883e-01
 -1.8865972e+00
 -1.0761480e+00
  2.8618982e+00
 -1.2515950e+00
 -1.5913372e+00
  1.0828481e+00
 -1.7316804e+00
  4.9156089e+00
  1.7191471e+00
 -2.0673864e+00
 -3.7223127e-01
  2.7661657e+00
 -3.2123783e+00
  3.2436830e-01
  2.6107466e-01
 -1.3763855e+00
  2.3868468e+00
  9.2758554e-01
  2.6487360e+00
 -1.1629539e+00
 -5.9033398e-02
 -4.8470575e-02
 -2.5918683e-01
  5.2242124e-01
 -1.3519611e+00
 -9.9419904e-01
  7.5855732e-02
 -9.2087418e-01
  6.3038814e-01
  5.7493519e-02
  1.1520941e+00
 -1.3196639e+00
 -4.2506263e-01
  1.2323890e+00
  4.3747509e-03
  2.9550095e+00
  1.2707534e+00
  2.0532101e-01
  2.3879941e-01
 -1.4779127e+00
  1.3076236e+00
 -1.7982528e+00
  1.4233260e+00
 -6.1370438e-01
  2.8077321e+00
  1.0835484e+00
 -1.4171224e+00
  2.5347645e+00
  1.4032312e-01
 -2.8336306e+00
 -1.4468981e+00
  1.0180055e-01
  9.9573833e-01
 -9.9670500e-01
  3.5493526e-01
 -5.3317028e-01
  2.1339483e+00
 -2.4347749e+00
 -1.2863785e+00
 -2.5818148e-01
  2.0743756e+00
  9.9968755e-01
  1.0251613e+00
 -3.8541788e-01
  8.0817074e-02
 -7.9512912e-01
 -2.9905066e-01
 -6.8086010e-01
 -8.3216101e-01
  7.4435049e-01
 -4.3924806e-01
 -8.7587219e-01
 -2.8707892e-01
 -1.0986298e+00
  1.7461969e-01
  7.7702808e-01
 -1.8071923e+00
  2.3104198e+00
 -7.4046713e-01
  9.5911071e-02
  1.8646315e-02
 -1.4776338e+00
  3.3292514e-01
  1.8800680e-01
 -8.0171257e-02
  1.9536602e-01
  3.3855784e+00
 -2.2500105e+00
 -2.2968431e+00
 -3.9695552e-01
 -5.5516946e-01
  7.8085786e-01
  5.5838737e+00
  1.8510026e-01
  3.9379969e+00
 -1.1607761e+00
  6.9158369e-01
 -7.5047004e-01
 -4.4571476e+00
 -1.9870555e+00
 -8.1440914e-01
  6.7646497e-01
 -1.6635385e+00
 -1.8783083e+00
 -3.7631228e+00
 -1.8586697e-01
  5.8739328e-01
 -6.0993397e-01
 -2.7971256e+00
  1.0520893e+00
  1.9953421e+00
 -1.5487985e-01
 -3.3390632e+00
 -2.4177179e+00
  1.2773412e+00
 -4.2081647e+00
 -9.7351569e-01
 -2.7493880e+00
 -1.1755922e+00
  1.3076221e+00
  6.0036981e-01
 -6.7414069e-01
  7.0443958e-01
  4.5355555e-01
 -2.6516714e+00
 -1.4990058e+00
 -8.2959586e-01
 -2.9078141e-02
  8.6961037e-01
 -7.7209838e-02
  3.2184771e-01
 -6.0832834e-01
 -1.6362299e+00
  4.6171379e+00
  1.8489064e+00
  5.3668582e-01
  8.5749310e-01
 -2.1782906e-01
 -2.6169592e-01
  1.3677814e+00
  1.8395599e+00
 -1.7852910e+00
 -7.0207107e-01
 -4.9477819e-01
 -1.2062550e-01
  4.8229957e-01
  2.1408007e+00
 -1.0632780e+00
 -1.8019396e+00
  3.1733203e-01
  5.6410068e-01
 -1.2928282e+00
 -4.5521542e-01
  1.7071365e+00
 -3.3437544e-01
 -6.2783122e-02
  1.8612440e+00
 -1.8948658e+00
  2.4228566e+00
  6.5314001e-01
  6.6152811e-01
 -1.2294599e+00
  5.7924366e-01
  1.4030576e+00
  2.4597642e+00
  1.8477329e+00
  2.0489002e-02
 -1.5492138e+00
  9.1015053e-01
 -6.4860278e-01
  1.2046165e+00
 -4.0922567e-01
  4.0763273e+00
  1.5582169e+00
 -5.3271782e-01
 -7.2786427e-01
  3.7202325e+00
 -6.3712722e-01
 -1.8354687e-01
 -7.5489825e-01
  1.3695307e-01
 -1.7717794e+00
 -5.5914378e-01
  1.8539021e+00
 -8.5384798e-01
  1.5769637e+00
 -2.5371125e-01
  1.0779545e+00
 -9.5441401e-01
 -2.4410129e+00
 -1.9686186e+00
 -2.3127921e+00
 -2.6231520e+00
  5.9606254e-02
 -4.8008695e+00
  8.8202333e-01
 -1.1997137e+00
 -3.7694077e+00
  1.5084163e+00
  2.0727663e-01
  3.0385942e+00
 -1.7086972e-01
  1.5397444e+00
 -7.6519895e-01
 -1.7470782e+00
 -2.8357806e+00
 -9.0030688e-01
  3.4971032e+00
  4.2124546e-01
 -3.5521276e-02
  2.3246084e-01
 -1.0269092e+00
 -4.3248385e-01
  1.2803148e-01
 -2.1078155e+00
  3.2915196e+00
  3.3395484e-02
  1.6159743e+00
  1.2077731e+00
 -1.9390927e-01
  4.4378525e-01
 -2.0225401e+00
  7.6592386e-02
 -2.8531446e+00
  3.6950350e-01
  4.6240434e-01
 -8.3597952e-01
 -5.5122297e-02
  3.2342939e+00
 -7.6015204e-01
 -1.9233456e+00
 -7.8437850e-02
 -1.1965024e+00
 -4.4683820e-01
 -6.5242842e-02
 -9.0563554e-01
 -4.9608117e-01
 -4.2524037e-01
  7.5637060e-01
 -5.8743930e-01
  1.6272918e+00
  6.2512553e-01
  4.7367477e-01
 -1.5528606e+00
 -7.5256157e-01
 -1.2696596e+00
 -5.5421573e-01
  7.9845005e-01
 -1.4103398e+00
  9.4004130e-01
  9.6281952e-01
 -2.2728083e+00
  8.8756436e-01
  1.1405309e-01
 -1.0623853e+00
 -2.2479479e+00
  6.4338964e-01
 -8.2710636e-01
 -1.0129231e+00
  2.2683091e+00
 -4.2967904e-01
  1.1070830e+00
  1.3721742e-01
  4.5814544e-02
 -4.4375589e-01
 -1.3069966e-01
  2.3211539e+00
 -1.1316576e+00
  2.4032748e+00
  2.0633061e+00
  5.9510911e-01
 -8.4680176e-01
  6.5544492e-01
 -2.6715055e+00
 -6.5298373e-01
  6.8085456e-01
 -1.0833873e-01
 -1.2940298e-01
  1.0235094e+00
 -1.3239245e+00
 -5.8723325e-01
 -2.0121417e+00
 -1.0887038e+00
 -5.1399475e-01
  4.5343742e-01
  4.1985899e-01
  1.7384505e-02
 -1.6474774e-01
 -5.1297939e-01
  7.1496969e-01
  3.8517547e-01
 -7.1304166e-01
 -1.4525912e+00
  1.2699127e-01
  5.8640385e-01
 -5.2318299e-01
 -5.2917546e-01
  3.3607633e+00
  6.2893057e-01
  4.2332802e-02
 -1.7295295e-01
  1.4995272e-01
 -2.4428918e+00
  5.7077509e-01
  8.0073822e-01
 -1.1082184e+00
 -3.9561504e-01
 -1.2985582e+00
 -8.2825786e-01
  4.9190074e-01
  1.0528275e-01
  1.1974922e+00
  2.9271111e+00
 -1.1325266e+00
 -1.0182316e+00
  1.3270373e+00
 -2.0322683e+00
  1.0400773e+00
  4.6726981e-01
  2.9270875e-01
 -2.6378059e-01
 -6.1015904e-01
  9.3050964e-02
  3.3320740e-01
 -5.6272978e-01
  9.6839148e-01
 -2.5895166e-01
 -1.3508475e+00
  1.0104601e+00
  1.2965273e+00
  4.2618349e-01
 -1.3823150e+00
  6.4202845e-01
  4.6814471e-01
 -5.1241809e-01
 -1.7557753e+00
  2.3565273e-01
 -7.4826306e-01
 -1.1932052e+00
 -2.8209549e-01
 -5.7781458e-01
 -9.2451799e-01
 -7.2894067e-01
 -1.0696799e+00
  4.1327134e-01
  2.3609090e+00
 -3.9974317e-02
 -3.8407642e-01
  1.1061051e-01
  8.8448054e-01
 -1.3989141e+00
  5.6651402e-01
 -8.7757117e-01
 -8.8657600e-01
 -1.6395530e+00
 -6.1859065e-01
 -3.4983337e+00
 -5.8047092e-01
 -2.4343176e+00
 -3.4034014e-01
  3.4663391e-01
  1.1416726e+00
 -2.3404688e-01
  1.9584851e+00
 -9.5260727e-01
 -1.2488254e+00
  2.8373585e+00
  2.5399557e-01
 -4.1813222e-01
  2.3070176e+00
 -1.3947284e+00
  9.3765831e-01
  2.2441843e+00
 -1.1155779e+00
  2.2385676e-01
  1.9506495e+00
  7.8329217e-01
  6.8946475e-01
  1.0027003e-01
  1.5845464e+00
  4.8243034e-01
  1.0605642e+00
  1.0374531e+00
 -5.4566729e-01
  1.2972889e+00
 -2.7705081e+00
  5.4734912e-02
 -6.9321406e-01
  1.4086106e+00
  1.1674291e+00
  5.5563945e-01
 -6.0243666e-01
  1.5464652e+00
  1.3255625e+00
 -6.1015880e-01
 -1.4017936e+00
 -2.7230728e-01
 -1.2902285e+00
  6.2552077e-01
 -1.5496867e+00
 -7.5708610e-01
 -9.5751309e-01
 -1.6703395e+00
 -1.1874728e-01
  1.0288271e+00
  1.5709063e-01
 -5.2573103e-01
 -4.6822098e-01
 -9.7547972e-01
 -2.8285992e+00
 -3.9265895e-01
 -4.7689378e-01
 -1.2718309e+00
 -8.1614089e-01
  8.5064486e-02
 -2.0413229e+00
 -2.4441281e-01
 -9.3365508e-01
 -2.3022255e-01
 -5.0698675e-02
 -6.4535052e-01
  8.6441791e-01
 -8.1603605e-01
 -5.3677416e-01
 -9.7726959e-01
 -1.6220573e-01
 -1.6316520e+00
 -3.5215161e+00
  3.8940549e+00
 -6.3986194e-01
 -3.3798334e-01
  1.3303828e+00
  5.7845187e-01
 -1.6377199e+00
 -1.9923586e-01
  9.6432346e-01
  1.6631845e-01
  2.3005071e+00
  9.9542427e-01
  4.5128444e-01
 -3.2506892e-01
 -3.2758039e-01
 -9.9508750e-01
 -1.8336345e+00
  1.2696080e+00
 -2.7957997e-01
  1.2817521e+00
 -7.4447012e-01
 -5.3843325e-01
 -5.1219362e-01
 -1.5446314e+00
 -1.1495603e+00
 -1.6777974e+00
  3.3101192e-01
  8.1258202e-01
  1.3881973e+00
  3.4454724e-01
 -2.9731327e-01
  3.3359303e+00
  1.0472935e+00
  4.0636113e-01
  2.0906571e-01
 -4.2859566e-01
  9.2765522e-01
  1.5369719e+00
 -9.0743136e-01
  2.2245102e+00
  5.6941533e-01
 -1.0407817e+00
  1.2391201e+00
 -1.7471471e+00
  9.0420359e-01
  1.4467413e+00
 -7.9493843e-02
 -2.3543154e-01
 -1.7670710e+00
  1.2717222e+00
  1.1054944e+00
  1.2385720e+00
 -4.2178273e-01
 -3.1745009e+00
  9.6119303e-01
  8.2748681e-01
 -6.5135640e-01
 -7.1921337e-01
  6.9361329e-01
 -1.4903888e-01
  1.6050189e+00
 -6.5514243e-01
 -1.0088193e+00
  1.1724455e+00
  9.3401474e-01
  3.5281110e-01
 -1.5777553e+00
  1.6629968e+00
  5.6579328e-01
  6.5836191e-01
 -1.8231829e+00
  8.0933315e-01
  9.2850786e-01
 -4.6167651e-01
 -5.6430244e-01
 -1.4511307e+00
 -1.6206506e+00
 -1.2283574e+00
  2.8599983e-01
 -3.4926590e-01
  2.6520617e+00
  1.1850936e+00
 -7.8945279e-02
 -1.0651913e+00
  9.5357984e-01
  2.1435611e-01
 -6.7260414e-01
  3.6221674e-01
 -1.9147745e+00
 -2.4314499e-01
 -1.8488336e-01
 -3.9738996e+00
 -1.1320047e+00
 -3.3766606e+00
 -3.6189637e-01
  2.3609714e-01
 -6.5166754e-01
 -2.0773184e+00
  1.6541257e+00
 -2.6460488e+00
  1.1088773e+00
 -1.8057101e+00
 -2.2738862e+00
 -4.6267247e-01
  9.6744537e-01
  1.0696179e+00
  8.2595760e-01
  3.0839589e+00
 -4.7345343e-01
  5.3571218e-01
 -2.4464774e+00
 -3.2437236e+00
  2.5047255e+00
 -2.9956651e-01
 -7.2939527e-01
 -1.8076491e+00
  3.9635980e-01
  3.3183720e+00
 -1.6069937e-02
 -3.9311907e+00
 -4.8993450e-01
  1.9272996e+00
  1.9357516e+00
 -1.2433273e+00
  1.6299148e+00
  3.6127463e-01
 -6.9238245e-01
 -6.5007672e-02
  1.1784982e-02
 -1.2722706e+00
  1.3989197e+00
  9.7404933e-01
  2.6686445e-01
  1.3460534e+00
 -1.5608017e+00
 -1.0893099e-01
  4.2305288e-01
  1.1581975e+00
 -7.1052921e-01
  1.0500735e+00
 -2.5153549e+00
 -2.2943911e-01
 -1.4989121e+00
 -1.7303383e+00
  8.6556727e-01
  6.0014325e-01
 -1.1629626e+00
  4.9820080e-01
 -5.0705612e-01
 -1.7300099e-02
 -1.4186867e+00
 -2.1313584e+00
 -3.8804331e-01
  6.6868454e-01
 -4.9143997e-01
  4.0887797e-01
  1.8893831e+00
 -5.3886539e-01
  8.6677158e-01
 -1.1284361e+00
  1.0070734e+00
  2.0915103e-01
  2.7697301e-01
 -3.5550758e-01
  1.2051647e+00
  2.7537486e-01
  6.2798935e-01
 -9.7065187e-01
  2.5592058e+00
 -2.2592876e+00
 -2.0105101e-01
 -9.7707611e-01
 -6.8125790e-01
  5.9352487e-01
 -5.4274052e-02
  5.3702277e-01
  1.4898566e+00
 -3.4030712e-01
  9.3413180e-01
  3.5284138e-01
 -7.3402703e-01
 -5.7480311e-01
 -1.1903936e+00
  2.0356965e-01
  4.6815410e-01
 -1.0656205e+00
 -1.9480253e-02
 -5.1228568e-02
 -2.6958552e-01
 -2.7791801e-01
 -1.9265300e+00
  1.0697194e+00
 -5.0619280e-01
 -1.1529446e+00
 -9.4915670e-01
 -1.4769403e+00
  1.7997203e+00
  7.7799577e-01
  1.0511967e+00
 -1.3683381e+00
  5.8063370e-01
 -2.7646165e+00
  5.9722245e-01
  9.7834939e-01
 -1.0528293e-01
 -8.0050749e-01
 -1.1292696e+00
  1.2470276e+00
 -1.3492683e+00
  1.5273826e-01
  1.3044137e+00
 -1.4156448e+00
 -1.0985121e+00
  2.8952895e-02
  6.2123859e-01
  3.4314394e-01
 -5.3005570e-01
  9.4598547e-02
 -4.2363366e-01
  2.4195080e+00
  5.4716915e-01
 -1.4335521e+00
 -1.1985634e-01
 -1.8160671e-01
 -6.1111175e-02
 -7.9612070e-01
 -2.0789018e+00
 -1.3231716e+00
  1.1083909e+00
  3.3839738e-01
 -1.2670538e+00
  7.4245304e-01
 -6.6695195e-01
 -1.1089309e+00
  8.4780312e-01
  5.4009217e-01
  3.5925004e-01
 -5.0714082e-01
 -1.4118973e+00
  1.3326994e+00
 -3.8686681e-01
  4.1092215e+00
 -8.9099312e-01
  1.5387995e+00
 -3.7063915e-01
 -2.0731571e+00
  2.0096716e-01
  5.8965992e-02
  2.6718946e+00
 -5.7762533e-01
 -1.8072771e+00
 -5.7537651e-01
 -3.0248302e-01
  2.0402553e+00
  1.7990066e+00
  5.6834735e-02
  2.6477661e+00
  7.1572191e-01
 -6.5250719e-01
  2.5158055e+00
  1.1050305e+00
 -1.3984793e+00
 -9.8042637e-02
 -1.4677522e+00
 -1.7654541e+00
 -5.0760567e-01
  3.3071578e-01
 -5.4999137e-01
 -9.0029776e-01
 -3.8807362e-01
  1.3858256e+00
  1.1305496e+00
 -1.4384750e+00
 -1.6998720e+00
 -1.0212086e+00
  1.3311782e+00
 -1.2802265e+00
 -4.3829301e-01
  1.1526330e+00
  2.6797071e+00
  2.0916288e+00
  1.8393612e+00
 -6.8979454e-01
  1.0560054e+00
  9.0955210e-01
 -1.3567148e+00
 -8.7655658e-01
 -1.5585295e+00
 -9.7251445e-02
  1.8213220e+00
  4.5827588e-01
 -8.2823598e-01
 -6.3285157e-02
 -8.6229467e-01
  5.2135330e-01
  2.8503993e-01
 -2.7409341e+00
  1.6539142e-01
 -3.0131290e+00
 -2.5103023e+00
 -6.0724026e-01
 -1.1208537e+00
 -3.2195570e+00
  2.9083428e-01
  7.2338247e-01
 -1.5893010e+00
 -2.7497533e-01
  1.9647658e+00
 -1.3848292e+00
 -9.4195807e-01
  1.0368286e+00
 -2.8848279e-01
 -8.5799140e-01
 -1.5443134e+00
 -5.2457297e-01
  5.9065670e-02
  3.6600938e+00
 -2.5588471e-01
  1.7394110e+00
  9.1751623e-01
 -2.3812776e+00
  1.2047614e+00
  4.3234968e+00
  1.0283989e-01
  2.9864430e-01
 -1.6520967e+00
  1.2010731e+00
 -2.1627077e-01
  2.2334955e+00
 -1.3083030e+00
 -2.6240110e+00
 -8.2160747e-01
  2.1836537e-01
  5.0196248e-01
  1.2691813e+00
  1.2774087e+00
 -1.4165664e+00
 -1.5530385e+00
 -9.4101351e-01
  7.1477842e-01
 -7.7746540e-01
  1.6618510e+00
  1.7003965e+00
 -1.2167631e+00
 -2.3822956e+00
 -1.0270357e+00
 -2.0396763e-02
 -8.3811748e-01
 -1.1011267e+00
 -1.4898927e+00
 -1.0275270e+00
  1.6769496e+00
 -7.0784777e-01
  2.2429134e-01
  2.4254550e-01
 -6.4640158e-01
 -2.3506982e+00
 -3.5825798e-01
 -8.0694729e-01
  3.6252312e-02
  5.6380630e-01
 -1.2414522e+00
  1.2719461e-01
  2.9221207e-02
 -5.4058212e-01
 -2.7727144e+00
 -2.8996890e+00
 -2.2125490e+00
  1.2230014e+00
 -2.3959990e+00
 -1.1176045e+00
  5.6704025e+00
  4.6417141e+00
  1.3742545e+00
 -7.5411570e-01
 -1.3286216e+00
 -5.5980974e-01
 -9.9547976e-01
  2.5986187e+00
 -5.7767147e-01
  4.7324362e+00
  4.1744447e+00
  2.4927990e+00
 -4.7826789e-02
 -1.9351872e+00
  3.0327845e-01
  5.1998067e-01
  4.3880715e+00
 -1.3979529e+00
  3.8557069e+00
  3.6531990e+00
  4.0755634e+00
 -6.0639036e-01
 -9.0366399e-01
 -1.5115451e+00
  2.2496746e+00
  3.4032066e+00
 -1.0129617e+00
  6.5448719e-01
  1.8892623e+00
  4.2804699e+00
  1.5225517e+00
  1.6083193e+00
 -1.3731110e+00
  1.5423313e+00
 -2.2489789e-01
 -1.7946954e+00
  9.7459579e-01
 -1.0245092e+00
 -7.2130233e-02
 -1.3520846e+00
  2.6354463e+00
  1.7478663e+00
  1.0134412e+00
  1.6079522e+00
  6.3031036e-01
  1.6437467e+00
  3.3252949e-01
  1.1784221e+00
 -1.3046533e+00
  6.6211087e-01
 -3.6725542e-01
 -5.7774878e-01
  5.2429824e+00
 -2.0427678e+00
 -1.9788905e+00
 -3.8728950e+00
  6.7385566e-01
 -1.6578139e+00
  3.4274061e+00
  2.5350943e+00
 -8.4237224e-01
  6.7811811e-01
 -2.0893631e+00
 -1.0094007e+00
 -1.0596864e+00
  5.9819043e-01
 -1.2159746e+00
  8.4038973e-01
  1.9039928e+00
  2.9807549e+00
 -1.6913962e+00
 -2.7702096e+00
 -1.1645862e+00
 -5.3828239e-01
  8.2401529e-02
 -8.9565086e-01
  1.4715295e+00
  2.1927474e+00
 -2.4029860e-01
 -1.3569824e+00
 -3.7113285e-01
 -1.7167486e+00
 -5.4649478e-01
 -3.3682603e-01
 -1.0279344e+00
  9.5035963e-02
 -5.8055907e-01
  1.4268280e+00
 -9.5517415e-01
 -1.3771856e+00
 -1.6528054e+00
  1.2632463e+00
 -6.4068383e-01
  4.1000552e+00
 -3.0127511e+00
 -1.5724756e+00
 -3.5217447e+00
  4.6393967e+00
 -7.6509684e-01
  8.6514721e+00
 -3.7441924e+00
  1.2825511e+00
  1.3768409e+00
  5.4310799e-01
  2.1208599e+00
 -3.4665096e+00
 -2.2858243e-01
  7.5576836e-01
  1.9935977e+00
 -5.0539179e+00
  4.7201267e-01
  1.0686415e+00
  1.6536108e+00
 -3.3350701e+00
 -2.3242731e+00
  8.3305746e-01
  7.7841438e-02
  1.3085951e+00
 -6.0343266e+00
 -3.6907053e+00
  2.0041544e+00
  1.3241909e+00
 -3.2685745e+00
 -1.0492867e+00
  2.1613178e-01
 -8.5840728e-03
  2.5932136e+00
 -4.3575668e+00
 -5.9570131e+00
  2.2600038e+00
 -1.1563112e+00
 -1.6476938e+00
  1.2485883e+00
 -1.2408009e-01
 -6.3066512e-01
  3.8532920e+00
 -8.6056060e-01
 -5.0715356e+00
 -9.1458350e-01
  4.0150342e+00
 -1.2998129e+00
  4.0002328e-01
  2.7277508e-01
 -7.9030806e-01
  1.1819645e-01
  2.2727983e+00
  8.4374768e-01
 -7.0633775e-01
 -8.7743014e-01
  3.1599531e+00
  2.2516551e+00
 -9.5879841e-01
  1.9699349e+00
  1.0648137e+00
  4.9770263e-01
 -4.2742021e-02
  4.4122186e-01
  6.8894279e-01
 -5.0220251e-01
  6.9245130e-01
  1.3866042e-01
  4.9036136e-01
  1.4546610e-01
 -2.1838086e-02
  3.1835407e-01
 -1.0223522e+00
 -1.0720602e-01
  6.6929603e-01
 -2.0327383e-01
 -5.0066853e-01
  1.2563158e+00
  1.4666765e+00
  2.6855159e+00
 -1.0290257e+00
  1.1530818e+00
 -4.5744598e-01
 -8.6645699e-01
 -2.5073004e+00
 -1.7743235e+00
  1.4486639e+00
  6.8837124e-01
 -7.0383799e-01
  1.5799908e-01
  6.5177590e-01
  2.4044099e+00
 -8.1182748e-01
 -6.2637401e-01
 -2.1523185e-01
  1.7821534e-01
 -1.3454477e+00
  7.3434824e-01
  7.5173378e-01
 -3.5655224e-01
  1.0406766e+00
 -2.4189036e+00
 -1.1812681e+00
  7.4371666e-01
  1.1881402e+00
 -1.8771877e+00
  6.4710689e-01
 -3.3591649e-01
  2.3116436e+00
  1.9373761e+00
  1.5097865e+00
 -1.2597520e+00
 -1.3392447e+00
  1.9774878e+00
  3.4354717e-01
 -2.0304458e+00
 -3.1403666e+00
  1.6726631e-01
  2.2141128e+00
  8.1156552e-01
 -2.4936745e+00
  9.8899955e-01
  2.5800726e-01
  2.0562615e+00
 -2.0940044e+00
 -2.3862507e+00
  1.3874042e+00
 -1.2173389e+00
  5.0684321e-01
 -4.1671023e-01
 -1.9953023e+00
 -2.5749340e+00
  6.6278599e-02
 -2.3802461e-01
  6.6830516e-01
 -4.9665913e-02
 -9.6610802e-01
  6.6572440e-01
 -8.7886441e-01
  6.0203898e-01
  3.1828983e+00
 -1.4718453e+00
 -1.1177865e+00
 -5.9851795e-01
 -2.2985248e-01
 -9.2362070e-01
 -3.6373588e-01
 -9.4190247e-02
  3.0625710e+00
  1.5457931e+00
  6.8537164e-01
 -1.6111933e+00
  4.0442899e-01
 -2.6363273e+00
  1.2922333e+00
 -4.1437232e-01
  1.4919889e-01
  1.7111149e+00
  1.2837762e-01
 -2.3901074e+00
  2.7276394e+00
 -4.4206583e-01
 -1.0595920e+00
  2.7536273e-01
 -9.8877317e-01
  4.0882800e-02
  4.7852881e-02
  1.5009693e+00
  1.1259613e+00
  1.8378643e+00
  1.0407977e+00
  7.7624989e-01
  1.0956175e+00
  6.1113077e-01
 -4.1748014e-01
 -1.7545822e-01
  7.1335249e-02
  1.0236645e+00
 -4.8925582e-01
  1.8755926e+00
  4.0989229e-01
 -9.3337841e-02
  1.9281846e+00
  1.0673357e+00
 -1.2758714e+00
  4.4905344e-01
 -4.0947071e-01
  6.9651765e-01
 -2.7776977e-01
 -1.8911725e+00
  5.4339713e-01
  1.0778959e+00
  8.2285780e-01
  3.1909087e-01
 -9.6856034e-01
  1.7357621e+00
 -1.0291981e-01
 -1.5804304e+00
  1.2526903e-01
 -5.5381912e-01
  3.8610435e-01
 -3.5377297e-01
 -4.0141636e-01
  6.0906464e-01
 -1.2623812e+00
  4.9616003e-01
 -2.3386943e+00
 -2.1429894e+00
 -4.4245148e-01
 -2.9744434e-01
 -1.9635577e+00
  1.1313350e+00
  1.3650618e+00
  1.2440377e+00
  1.8402545e-01
 -6.6611242e-01
 -1.2515661e+00
  3.0018401e+00
  1.9710656e+00
  3.3115103e+00
 -4.1917758e+00
 -6.3962698e-01
 -1.6315091e+00
 -1.1869897e+00
  1.8865917e+00
 -1.8374161e+00
 -2.0388298e+00
 -2.7293785e+00
  3.3754623e-01
 -3.7180487e-02
  5.6657916e-01
 -4.0123310e+00
 -1.5821183e+00
 -3.1274831e+00
 -1.9808376e-01
  1.1502935e+00
  7.3056906e-01
  3.8229093e-01
  6.2845290e-01
  7.8851217e-01
  4.6351594e-01
 -9.3413794e-01
 -2.5003448e-01
 -1.3439947e+00
  1.0445378e+00
  3.3799236e+00
 -2.0682478e+00
 -3.6372077e-01
  2.3135832e-01
 -1.2057186e+00
  3.3500570e-01
 -7.8422260e-01
 -2.5280216e+00
  4.6354283e-02
  4.1140056e+00
  2.3290946e-01
 -2.0584118e+00
  1.0048867e+00
 -4.2757303e-01
 -2.8015637e-01
 -4.7703689e-01
 -4.7541514e-01
 -6.2614858e-01
 -1.4459946e+00
 -7.3335624e-01
 -6.1524069e-01
  2.0409076e+00
  3.4913223e-02
 -2.0758085e+00
  6.1448181e-01
 -1.1852145e+00
 -1.2996635e-01
 -2.5104100e-01
  1.9877851e-01
 -9.1726559e-01
  2.3221478e-02
 -1.5776306e+00
  1.5170137e+00
 -1.4531763e-01
 -1.2118236e+00
 -9.2193615e-01
  1.0375334e+00
 -6.2240231e-01
 -7.0147556e-01
 -1.1246769e+00
  9.7056603e-01
  9.4968969e-01
 -1.5233481e+00
 -9.3259716e-01
  2.7946641e+00
 -2.3806186e+00
 -1.8458114e+00
 -2.1944903e-01
  7.1908730e-01
 -9.0806413e-01
 -6.9880289e-01
 -2.4736865e-01
 -6.4652896e-01
 -4.2111546e-01
  9.1899687e-01
 -2.6643045e-02
 -1.4924359e+00
  7.6807791e-01
  1.0206546e+00
 -2.8633934e-01
  6.6773003e-01
  3.8175935e-01
  1.1943585e+00
 -5.3299338e-01
  1.6502984e+00
  2.0988779e+00
 -2.3257639e+00
  4.2696106e-01
  6.8516657e-02
 -4.7953328e-01
 -8.1792098e-01
  4.5483601e-01
 -1.5664055e+00
 -9.2974859e-01
  1.4455162e+00
  6.8743724e-01
 -5.8674306e-01
  6.5349758e-01
 -1.4762784e+00
 -2.0507306e-01
 -3.1944630e-01
 -3.8494045e-01
 -8.9121169e-01
  6.3836575e-01
 -3.8016888e-01
  7.6271629e-01
  5.4544616e-01
 -2.1729632e-01
 -1.5800938e-01
  2.8739154e-01
  2.7414880e+00
 -2.6611037e+00
 -2.8087425e-01
  3.8040754e-01
 -1.2232761e+00
  2.3324189e-01
  8.3694649e-01
  5.7170713e-01
  1.2141005e+00
  1.0212581e+00
 -5.6386548e-01
 -1.0524659e+00
  4.6822473e-01
  6.2367302e-01
  1.9967762e+00
 -1.2345457e+00
 -5.8432847e-01
 -1.0989542e+00
  8.9506388e-01
  1.8228595e+00
  1.2043954e-01
  6.4366603e-01
  1.1338017e+00
  2.8400794e-01
 -7.6042272e-02
  1.0141326e+00
