nep4 3 Ca Si O 
cutoff 7 5 219 86
n_max 4 4
basis_size 12 12
l_max 4 2 0
ANN 50 0
  5.0946844e-01
  1.0928620e+00
  9.8228115e-01
  7.4638826e-01
  7.9677498e-01
 -6.6013318e-01
 -1.2056792e+00
 -1.8613522e-01
  1.0156267e+00
  4.9385327e-01
 -1.3108575e-01
 -1.3407960e+00
  9.0490389e-01
  1.0187837e-01
  2.7728125e-01
 -5.0234431e-01
  1.7742570e-01
  6.8530619e-01
 -1.6038690e-02
  1.2574369e-01
 -3.9888199e-02
  2.3900263e-02
  3.2024616e-01
  2.2159579e+00
  2.4980819e-01
 -9.4722480e-02
  7.4448995e-02
  3.7221994e-02
 -1.4949223e+00
  1.6791276e-03
 -5.1572907e-01
  4.8698362e-02
  4.3830565e-01
  3.5520792e-01
  8.9870226e-01
  2.7600007e-02
 -3.7943959e-01
  1.1017789e+00
 -2.9887551e-01
 -4.0052029e-01
 -1.2691900e-01
 -4.8402426e-01
 -3.7926473e-02
 -6.9651395e-02
 -6.1087310e-01
 -5.3550452e-01
 -1.6620908e-02
  1.9550693e-01
 -7.3862895e-02
 -7.4401915e-02
 -4.2105106e-01
 -1.3047059e-03
  5.9118108e-03
  6.5482855e-02
  1.0883234e-01
 -3.6265075e-02
 -6.5779693e-02
 -2.6218556e-02
 -7.5539671e-02
 -2.4568889e-02
 -1.4333570e-01
 -1.6377311e-02
 -1.5511002e-01
  3.4507155e-01
 -2.8603708e-02
  2.7711319e-03
 -1.5118450e-02
  6.8530634e-02
 -5.7262469e-02
 -1.1813921e-01
  1.0536149e-02
  2.5662042e-02
  4.3353599e-02
  2.1082503e-01
 -4.9402110e-02
  1.4059164e-02
  6.8152323e-02
 -3.8673905e-01
 -2.1018776e-01
 -1.0477869e-01
 -2.0491622e-02
 -2.0518679e-02
  1.3034323e-02
  1.5646406e-02
  4.6135418e-02
  1.5839732e-01
  1.0367201e-01
  1.8921015e-01
  2.9953372e-02
 -4.9898464e-02
 -1.7327662e+00
  3.3175409e-02
  2.4751237e-01
 -1.1071022e+00
 -1.5691255e+00
  8.4950602e-01
  6.3370264e-01
 -8.2475102e-01
 -1.6727571e-01
 -7.3823661e-02
  4.1192523e-01
  2.9926538e-01
 -2.6847002e-01
 -5.8573365e-01
 -7.4449070e-02
  2.6640996e-01
 -3.4239821e-02
 -1.5169397e-01
  3.3862546e-02
  9.6554112e-01
  1.4886737e-01
 -3.9151166e-02
 -3.0283126e-01
 -2.7559258e-02
 -1.8372850e-01
 -3.1463497e+00
  2.0933989e-02
 -1.2269088e-01
 -4.4874731e-02
  4.7706994e-01
  6.9000512e-01
 -1.1104383e-03
  1.4907402e-01
  8.1891768e-02
  7.3025212e-02
  1.0885929e-01
  3.8966238e-02
  6.1056161e-01
 -5.7920629e-01
 -3.1203734e-02
  7.5865784e-03
 -1.4106512e-02
 -1.2357106e-02
 -1.7954147e-01
  4.6765506e-01
 -1.0723630e-02
  4.8147496e-02
  3.4393795e-02
  3.7674367e-02
  3.5595022e-02
  5.5698001e-01
  7.6544754e-02
 -1.4922936e-01
 -3.1476114e-02
  1.2283900e-01
 -7.7218227e-03
 -3.3790465e-02
 -1.9480007e-02
  2.6229275e-02
 -5.6589223e-02
  7.2295710e-02
 -2.0917917e-02
 -4.8093898e-03
 -9.0562832e-03
 -7.2860792e-02
 -4.9895905e-02
  8.5948817e-02
 -2.0738889e-02
  1.8600197e-01
  2.3438411e-02
 -6.7180499e-02
  9.4945475e-02
 -3.9871544e-02
 -4.7814470e-02
 -1.9025788e-02
  7.1591325e-02
 -2.0036578e-02
 -5.8874384e-02
  1.2488939e-02
  1.0838737e-02
  4.7146726e-02
 -3.6060253e-01
 -2.1367967e-02
  2.8997757e-02
  1.1606672e-01
 -1.1000073e-02
 -2.5374830e-02
 -3.9235643e-01
  1.1013550e-01
 -2.4609182e-02
  3.9354905e-02
 -2.9029951e+00
  2.3964474e-01
  1.9136940e+00
  1.4389801e+00
  8.8822514e-02
  1.5633529e+00
 -1.2701381e+00
  8.6554348e-02
  1.3175050e+00
 -1.2747592e-02
  2.3954935e-01
  1.2525505e-01
  2.9852992e-01
  1.0620158e+00
 -1.3097680e+00
 -1.3271102e-01
 -9.1924900e-03
 -2.0445874e-02
  1.0696545e-02
 -9.5214918e-02
  5.4234332e-01
  2.0501995e-02
 -1.4082174e-01
  1.0888964e+00
 -2.4923194e-02
  5.7935741e-02
 -1.2252988e-01
 -6.0866579e-02
 -1.1088282e-01
 -1.0311955e+00
  1.3437153e-02
  7.1766027e-03
  8.0821350e-02
 -3.0906118e-02
 -3.4504910e+00
 -5.8206245e-03
  9.1912389e-02
 -1.3825563e-01
  5.1548649e-02
  7.5650187e-03
 -4.1961219e-02
  2.6523566e-02
 -1.1386091e-01
 -2.0605734e-01
  2.5631625e-03
 -3.9766084e-02
  1.9125834e-02
  7.4492447e-02
  2.4192738e-03
 -1.3995606e-01
  2.0654921e-01
  5.9408903e-02
 -1.0157592e-01
 -3.2172162e-02
  7.5485565e-02
 -5.8684263e-02
  1.3833054e-02
  1.3691154e-01
  7.6478504e-02
  1.7349878e-01
  7.4290693e-02
  4.4950265e-02
 -2.4192205e-01
  8.9130305e-02
 -1.4633375e-01
  8.8825859e-03
  2.4442140e-02
 -2.0356277e-02
  6.7160599e-02
  4.8539594e-02
 -4.4628650e-02
 -2.5285227e-02
 -2.1522444e-01
  2.5968097e-02
 -2.4527065e-02
 -1.1919908e-02
  4.7000099e-02
 -2.5994942e-01
 -5.2140303e-02
  4.5528892e-02
 -1.6102353e-01
 -1.8315461e-01
 -5.0442761e-01
  7.7629223e-02
  4.6311188e-03
  4.5735080e-02
  7.1066283e-02
 -7.4807055e-02
  3.6100596e-02
 -8.1114489e-01
 -5.1501378e-02
 -7.7896460e-05
 -7.9150937e-02
 -2.2253621e-02
  1.9171342e-02
  2.1238577e-01
  4.7850952e-02
  4.3284697e-03
  4.2513855e-02
  1.3651222e-01
  3.6979936e-02
 -1.7647117e-01
  1.2224665e-02
 -3.8450740e-02
 -3.2228474e-02
 -9.7553268e-02
  2.6075654e-03
 -3.1854633e-02
  1.1527240e-02
  2.3180826e-01
 -4.1405909e-02
 -7.6047868e-02
 -4.0379986e-03
 -4.7017824e-02
  9.9977106e-02
 -1.1087842e-03
  1.4563150e+00
 -1.8260719e-02
  3.4565687e-02
  4.3531591e-01
  3.9878222e-01
 -4.3339473e-01
  8.7563068e-01
 -1.6133036e-02
 -4.1784607e-02
 -1.3727667e-03
 -5.8227126e-02
 -9.3873911e-02
 -9.0889648e-02
 -2.6848045e-01
 -1.7438208e-01
 -1.6273583e-01
  2.1425730e-02
  2.6894334e-01
  6.4001881e-02
 -1.1243616e-01
  2.5961263e-02
 -1.9000867e-02
  4.9818975e-01
  4.6677473e-01
  3.7384465e-02
 -2.0404994e-03
 -2.3832893e-02
 -1.0584953e-01
 -8.4500890e-03
  3.0684870e-01
 -4.8146211e-02
  1.4176048e-01
 -4.0149257e-02
 -2.6883894e-01
  1.3416621e-02
  6.0521370e-01
 -2.4073296e-03
  6.0874042e-03
 -5.7418413e-02
 -2.4589159e-01
  1.3706131e-01
  2.0190130e-04
 -4.3212991e-02
  3.9745781e-01
 -1.1865158e-01
  3.5766453e-02
 -3.3492991e-01
  8.8140801e-02
  6.1962407e-02
 -2.2631291e-01
  4.1659717e-02
 -4.1331064e-02
  4.4674268e-01
  2.5932136e-01
 -3.9834753e-02
  7.7521485e-01
  4.4287881e-01
  7.8226171e-02
  3.4696028e-01
 -1.8938634e-01
  1.3648187e-01
 -1.1941847e+00
 -4.3897977e-01
  3.5972053e-01
  9.1536291e-02
  2.1696160e-02
  2.0020004e-01
 -1.2151507e-01
  2.4466702e-01
  1.2876160e-01
 -8.3245516e-02
  1.9258270e-01
  5.0051358e-02
  7.4032262e-02
  2.3331106e-01
 -2.0203486e-02
 -8.1406701e-03
  2.1974564e-02
  4.3429714e-02
 -3.9992125e+00
  2.7506337e+00
 -2.9526286e-02
 -4.3333277e-02
  3.6656402e-02
 -3.1718552e-02
  1.0578463e-02
  4.0200189e-02
 -6.9065504e-02
  5.4863226e-01
  1.9989660e-02
 -7.6622762e-02
 -1.9946718e-01
 -2.7946813e-02
  2.6962307e-01
  9.4373887e-03
  3.6050451e-03
  1.3800001e-02
 -5.1830467e-02
  2.1637799e-02
 -3.6353789e-02
  5.0659142e-02
 -4.9420968e-02
  3.1134246e-03
 -2.0576304e-01
 -2.3831839e-02
  1.2384725e-02
  3.1560872e-02
 -1.4016895e-01
 -2.9275948e-02
 -7.6548330e-02
  3.6930493e-01
 -3.1626441e-02
 -2.8068250e-01
 -4.1844029e-02
 -1.2405882e-01
 -1.6311833e-01
 -3.6528704e-01
 -4.9860306e-02
  8.6197384e-02
  1.5843036e-02
 -9.4808087e-02
 -1.3055894e-01
 -2.6606146e-02
  1.2850583e-01
 -3.3639543e-02
  6.7238912e-02
 -4.2234257e-02
  4.8810652e-01
 -1.7840784e-02
 -1.5541313e-02
 -1.0307419e-01
  1.3524881e-01
 -1.2381697e-02
 -3.4236439e-02
 -1.2394438e-02
  5.0965384e-02
 -8.4055960e-02
  2.5161792e-02
 -1.4417749e-02
 -7.1359654e-03
  2.3215806e-02
  3.7298225e-02
  7.4878097e-02
  3.0436870e-02
 -7.4333005e-02
 -1.0130950e-01
  1.0534244e-01
 -2.3803281e-02
  1.4857700e-01
 -8.5688338e-02
  2.5722548e-02
  1.0705058e-02
 -5.1374875e-02
 -4.4316031e-02
 -1.5469792e-01
 -5.1148549e-02
 -4.6737026e-02
  3.9533123e-02
 -2.2735739e-02
 -5.0961000e-01
 -2.0513465e-01
 -1.1048462e-02
 -5.9720613e-02
  1.4742357e-01
  7.0004165e-02
 -2.1293236e-02
 -4.0704399e-02
 -1.1841854e-01
  6.6579610e-02
  3.8895309e-03
  4.2377226e-03
  3.5828397e-02
 -1.1527054e-02
 -4.6035174e-02
  6.3880816e-02
  4.4801012e-02
  1.6085830e-01
 -1.4209881e-02
  3.1363413e-02
  1.7965851e-02
  1.9027440e-02
  2.6826214e-02
  9.0055671e-03
 -1.4862483e+00
 -8.5489564e-02
 -9.9508578e-01
  8.0846027e-02
  3.5762486e-01
  1.3626534e-01
  5.7681674e-01
  8.5428320e-02
  2.3274351e-02
  9.9473493e-03
  4.7451517e-01
  3.6430115e-01
 -1.2949696e-01
 -5.0682373e-02
 -1.5682025e-01
  1.2864231e-02
  3.3670658e-01
 -1.6309127e+00
  4.6211369e-02
 -5.1394564e-01
  1.1408597e-01
 -1.7705118e-02
 -3.6020666e-01
  3.3680454e-02
  9.4489474e-03
  3.8820758e-02
  3.6264937e-03
  4.5157585e-02
  7.6855775e-03
  2.4926209e-01
 -5.7664371e-01
  1.9785998e-02
  2.9374036e-01
 -2.0226104e-02
 -1.4141914e-01
  2.2673916e-02
  3.3345867e-02
 -5.8176033e-02
 -2.5776300e-01
  6.2254552e-02
  4.1998502e-02
  2.5343872e-04
  7.6341994e-02
  1.7359748e-01
  1.9079233e-03
 -6.4613655e-02
  8.2565797e-03
 -7.9899207e-03
  3.8069803e-02
 -1.6959730e-01
  5.1882874e-02
  2.6978520e-01
  5.8773085e-02
  5.3232901e-02
 -5.3039912e-02
 -8.8140648e-04
  5.4587565e-02
 -4.2626668e-02
 -8.3048008e-02
  2.5905106e-02
 -7.0739307e-02
 -2.1599181e+00
  4.1401777e-01
 -5.8217049e-02
  5.2236277e-01
 -7.1379572e-02
  2.3025619e-02
  4.1922086e-01
  3.4932980e-01
  3.1069109e-02
  3.2200117e-02
  6.9843833e-03
  2.4501288e-02
  4.2831920e-02
  4.8535064e-02
  9.0853788e-02
  1.7513573e-01
 -4.8939508e-01
 -1.7903775e-01
 -5.3551935e-02
  9.0166914e-01
 -7.0306472e-03
  1.0415264e-01
  2.3447147e-02
  6.1006952e-02
  2.3151826e-02
 -3.4707750e-04
  1.8311681e-01
  2.5471799e-02
 -9.2895692e-03
 -1.7073099e-02
  4.2232335e-02
 -6.0881965e-02
 -1.2334720e-01
  4.7581371e-02
 -4.2957865e-02
  7.0996277e-02
 -1.5134487e-01
 -1.0838032e-01
 -7.0413072e-03
 -6.7816158e-03
  3.6606354e-01
 -5.6133515e-01
  2.3325693e-02
  3.2830555e-02
 -5.5479147e-02
  1.2486629e-02
 -1.9729184e-02
 -1.1043931e-02
 -1.4514598e-01
 -1.8303810e-02
 -9.8869659e-02
  2.9720593e-02
  4.9156975e-02
  2.4069337e-02
  9.3456417e-02
 -4.5125353e-01
 -4.7972556e-02
  2.7073276e-01
  8.9447744e-02
 -3.4475771e-01
  2.4943721e+00
  8.2659674e-01
 -8.9497082e-02
 -2.9174140e-01
 -9.7519815e-02
  4.1699383e-01
 -8.4586424e-01
 -1.7682327e-01
  1.1457752e-01
  9.5234871e-02
 -8.8506922e-02
 -4.0391120e-01
  9.3647065e-03
  3.3938980e-01
  6.0955048e-01
 -1.3562879e-01
 -4.0834585e-01
  4.7087923e-02
 -1.1525681e+00
 -1.7987408e-01
  8.7472297e-02
 -3.8760152e-02
  5.5457823e-02
 -1.0076095e+00
 -1.1660440e-02
  1.3740981e-01
 -7.2874874e-03
 -8.7373987e-02
  6.4064607e-02
  2.2544719e-01
 -1.4655776e-02
 -3.0460237e-02
 -1.7735802e-01
  1.1905955e+00
 -9.1697156e-02
  6.6765094e-01
  2.7908510e-01
  4.1801572e-02
  1.2802976e+00
  4.0908817e-02
 -9.4282359e-02
 -2.6760072e-01
  1.0366144e-01
 -3.1365592e-02
  8.6297970e-03
 -3.2830592e-02
  4.6121370e-02
 -6.7457683e-02
  1.5965886e-02
 -2.7975979e-01
  1.6683400e-02
 -9.3924832e-03
 -9.6497767e-02
 -6.2562637e-02
  7.5304523e-02
  4.1882738e-01
 -1.3281122e-01
 -1.3267204e-01
  4.5846212e-03
 -9.7935843e-01
  9.8054692e-02
  6.8375659e-01
  5.5056643e-01
 -1.9489324e+00
 -1.4290115e-01
  1.1167936e+00
 -8.1073576e-01
 -1.4004468e+00
  1.1334535e+00
  3.6313215e-01
 -5.0697708e-01
  1.0333419e+00
 -5.4137337e-01
  6.2034643e-01
  2.0925643e+00
  5.4399019e-01
 -5.6865054e-01
 -8.5739166e-02
  4.1389041e-02
  1.1993269e+00
 -9.0042524e-02
  2.9239159e+00
  2.3551433e+00
  3.1980512e-01
  2.3381965e-02
 -7.2939150e-02
  7.0164226e-02
 -1.5611612e-02
 -2.7537489e-01
  1.6912498e-02
 -9.3184315e-02
  1.1470732e-01
 -1.7701097e-02
  6.5643996e-02
 -2.9377282e-02
 -3.0526882e-03
 -2.5617076e-02
  2.1064481e-01
 -1.3381718e-01
 -5.3308725e-02
  6.9436312e-02
 -1.1992130e-01
  1.6095193e-02
  1.4386806e-02
  3.2359090e-02
 -4.5783740e-02
  6.3047186e-02
  2.0642474e-02
 -9.2011742e-02
  1.6837211e-02
  7.7961989e-02
  7.0541039e-02
 -5.1524336e-03
  5.6615733e-03
 -3.0528873e-01
  1.5108125e-02
  7.1507283e-02
 -1.3208264e-01
  1.2921680e-02
 -1.4907672e-02
  2.5044581e-02
  8.8090077e-02
  5.4478142e-02
 -4.2085025e-01
  2.6974110e-02
  3.5749745e-01
 -6.7637295e-02
 -2.9656497e-01
 -1.0330395e-01
 -1.2313063e-01
  1.1965623e-01
  1.2455603e-02
 -5.1360514e-02
  3.0976871e-02
 -4.0781878e-02
 -1.0221048e-01
  1.8580627e-02
 -2.5575507e-01
  1.3842891e-01
 -4.7654431e-02
 -1.0626864e-01
 -4.5595545e-02
 -1.0181843e-01
 -5.5349052e-02
 -2.2872555e-01
  1.0213848e-02
 -3.1902216e-02
  4.9929780e-01
 -5.0469033e-02
  3.5152227e-01
 -2.8440568e+00
  4.8699536e+00
 -1.2955298e+00
  1.8409194e+00
  8.1024513e-02
  2.1620430e-01
 -8.7577564e-01
 -1.9939430e-01
  2.4455974e-01
  9.4121449e-02
 -2.1066731e-02
 -3.4637418e-01
  4.5000061e-01
  6.6622011e-02
  1.3970019e-01
 -2.2944641e-01
 -5.7002967e-03
 -2.8162064e-02
 -2.1877499e-01
 -9.7532266e-01
  5.1242143e-02
 -1.5762785e-02
  1.9125204e-01
 -7.9783544e-02
 -1.3618763e-01
 -7.5804703e-03
  6.6508330e-02
  3.4992490e-02
  2.9229891e-02
 -1.1208274e+00
 -8.8505572e-01
  1.6245178e+00
 -5.1033014e-01
 -2.3233840e+00
  4.4463858e-02
  4.5082727e-01
 -1.1812268e+00
  4.8281601e-01
  5.8916283e-01
  4.7364312e-01
 -4.2612467e-02
 -9.8441643e-01
 -1.1895224e-02
  1.1660146e+00
  4.2759717e-01
 -3.2048234e-01
 -8.6356074e-01
  2.5000879e-01
  1.8672639e-01
  6.2059402e-01
  7.8900874e-02
  4.8981974e-01
  1.3491437e+00
  4.9775964e-01
  2.0178705e-02
 -6.1776519e-02
 -1.1669101e-01
  1.4024112e-02
  1.3110347e-01
 -2.6029798e-01
  1.4700636e-01
  1.5383123e-01
 -3.9551787e-02
 -3.1861877e-03
  1.1221359e-02
  5.3688549e-03
  9.1431670e-02
 -7.5914912e-02
 -4.4273895e-01
  1.9779617e-01
 -2.7380329e-01
 -2.2500802e-02
 -2.6665272e-02
  1.0398702e-01
 -8.4530145e-02
  1.1240712e-01
  4.9940672e-02
  1.0381038e-01
  2.8334525e-01
 -1.2002455e-01
  5.0166100e-02
  4.9630386e-01
  1.2179244e-01
  5.6589325e-04
  4.0356174e-01
 -4.2440954e-01
  8.7230533e-02
 -8.0212340e-02
  3.3294026e-02
 -3.4446630e-01
 -3.3629781e-01
 -7.8273499e-01
  2.4394150e-01
 -1.1309234e+00
 -9.0907782e-01
  4.6692672e-04
 -1.1382227e+00
  5.8210284e-01
  4.7829357e-01
 -3.1427687e-01
 -1.0197256e+00
 -8.5512233e-01
 -2.9412749e-01
  1.5603346e-01
 -8.4029309e-02
 -3.2699028e-01
 -7.4714893e-01
 -2.3998468e-01
 -3.5539109e-01
  6.8105173e-01
 -5.6995794e-02
 -1.3461907e+00
 -7.6196450e-01
 -1.2462167e+00
 -2.3919065e-01
  4.9221122e-01
 -1.0219824e-01
  1.9355036e-01
  4.6175774e-02
  2.0209362e-01
 -4.6862906e-01
  1.3304292e+00
  1.7871760e+00
  1.4444108e+00
  9.1312766e-02
 -8.5990623e-02
 -3.6541191e-01
 -7.2181475e-01
 -9.0772408e-01
 -1.2892304e-03
 -3.5729180e-03
 -3.4807347e-02
 -1.7932099e-01
 -6.1992798e-02
 -1.0910744e-02
 -9.0580247e-02
 -5.6770211e-01
 -6.3899741e-02
 -1.0350816e+00
  1.9512849e-01
 -7.5174786e-02
 -1.5776161e+00
 -6.6597784e-01
  3.7919458e-02
  3.5979528e-02
 -7.5856380e-02
 -5.4787029e-02
  1.0445239e-02
  1.3652664e-01
  2.1819265e-01
 -2.3993689e-01
 -1.3912046e+00
  4.8032722e-01
 -1.3334254e+00
 -3.3002937e-01
 -2.3171563e-01
  6.6458964e-01
 -2.5058126e-01
  1.9766338e+00
  4.0777750e-02
 -5.6847651e-03
  4.8390335e-01
 -1.2950898e-02
  1.6158712e-01
 -1.6064616e-01
  9.6154638e-02
  2.7555788e+00
 -3.1857771e-01
  4.0383798e-01
 -2.8091561e-02
 -3.9241484e-01
 -1.5179202e-01
  7.4993432e-02
  3.4651410e-02
 -3.5869300e-02
  1.9457564e-01
 -4.0401060e-02
  3.8675446e-02
  1.5282264e-02
  9.5480718e-02
 -1.0803995e-01
 -6.5588884e-02
  5.9522189e-02
  2.3881118e-01
 -8.9144908e-02
  4.7905687e-02
  2.8460714e-01
 -9.5264111e-03
  2.7339932e-01
  3.0966213e-01
  6.5542525e-03
 -1.2224527e-01
  1.0042082e-01
 -7.4630799e-03
  1.7835347e-01
 -1.2917599e-01
  8.7687045e-02
  4.5078512e-02
  6.7257166e-02
 -2.8157584e-02
  1.5729871e-02
  1.1337440e-01
  1.8861628e-01
  6.8756649e-03
  5.7646409e-02
 -1.3511346e-01
  2.2972757e-02
  4.2722229e-02
 -1.2508803e-02
  1.1018744e+00
  3.7027135e-01
  1.0522979e-01
 -3.1472406e-01
  5.8765531e-01
 -3.8715138e-03
  9.6066371e-02
 -2.9163977e-02
  1.5537818e-01
 -1.6415198e+00
 -7.2352283e-02
 -1.0280816e-02
 -1.4596783e-01
  1.6116396e-02
  1.9274704e-02
 -1.1910775e+00
  3.7454393e-02
 -4.4866470e-01
 -2.8597819e-02
 -3.1627110e-01
 -5.9564584e-01
 -9.2073664e-02
  8.8570482e-01
 -1.5250440e-01
  5.6064013e-02
 -1.3422562e-01
  1.8717025e-01
 -8.0838494e-02
 -2.2109749e+00
 -7.1651354e-02
  5.3369039e-01
 -4.5120727e-02
  5.3538337e-02
  4.5897216e-02
 -2.8126253e-02
  7.9815216e-02
 -1.0056864e-01
 -1.3873108e-01
 -1.1769074e-01
 -7.3638208e-02
  9.9567249e-02
 -7.4434251e-02
  1.5645670e-02
  1.3884986e-02
 -7.3228933e-02
  9.2224635e-02
  2.8053863e-02
  7.0001513e-02
  3.7662741e-03
  1.0495608e-01
  4.6281923e-02
 -4.0899711e-03
 -1.6285512e-01
 -4.2784829e-02
  4.8759393e-05
 -4.3564653e-03
  1.8932849e-02
 -7.9200819e-02
 -2.2456422e-04
  6.1235803e-01
  1.2494725e-01
 -3.3914614e-03
 -2.0190404e-01
 -5.1824111e-02
  9.2045262e-02
 -4.6638511e-03
  5.9710767e-02
 -2.2865126e-02
  1.4630266e-01
  1.6726187e-01
 -5.1551342e-02
 -9.9531300e-02
  5.7637811e-02
 -2.9186523e-01
  1.4101470e-01
  2.6531432e-02
 -9.2211962e-03
  1.9544980e-02
 -5.0545666e-02
 -1.4853492e-02
 -6.0929570e-02
  8.6904585e-02
  3.1601183e-02
  7.5540558e-02
  1.6846871e-01
  2.0120928e-01
  2.3697661e-03
 -1.9108325e-02
  5.7219729e-02
  1.2300900e-01
 -5.3688347e-02
  2.6383715e-02
 -1.3970739e-02
  1.8152755e-01
  3.4442034e-02
 -3.9340157e-02
  4.2760469e-02
  1.1714366e-02
  4.8154496e-02
  1.6705979e-01
  8.0799639e-02
  5.9499890e-02
  1.5541883e-01
 -6.0853478e-02
 -1.0090583e-01
 -1.2341428e-01
 -5.1481791e-02
 -3.0246045e-02
 -1.8395643e-01
 -3.0925578e-01
 -9.6065380e-02
  2.5815122e-02
  7.1380049e-02
 -1.9329114e-02
 -6.1076659e-01
  3.5486972e-01
 -1.1799106e-01
  5.4524414e-02
 -9.7701192e-02
 -6.9676578e-02
 -3.9878756e-01
  2.5635830e-01
 -6.9617219e-02
 -2.7361885e-02
 -7.0125289e-02
  3.9520957e-02
 -7.3885962e-02
 -5.8719343e-01
 -1.6910709e+00
 -1.1581443e-01
  5.6054335e-02
 -5.8825810e-02
  2.5275496e-01
  3.1674216e-03
  2.3193118e-01
 -5.3179141e-02
 -1.0041454e-01
  2.8689917e-02
  9.8080956e-04
 -1.6742453e-02
  1.7820809e-02
  1.6001441e-01
  4.8889703e-01
 -1.5352654e-01
  2.7191449e-02
 -1.6085831e-02
 -3.5891153e-02
 -8.7616451e-02
 -2.2928862e-02
  5.0063238e-02
  5.3109694e-01
 -5.4398447e-01
  4.1663632e-01
 -3.2573938e-01
  1.7176260e-01
 -9.7504419e-01
 -6.1638574e-03
 -3.2102570e-01
  4.3010864e-01
  3.1447986e-03
  6.1477518e-01
  8.3561502e-02
  7.3132582e-02
 -2.9831621e-01
  6.5641388e-02
  4.5579782e-01
  1.7550662e-01
  3.5840118e-01
  2.3543587e-01
 -9.2727935e-01
  1.4807310e+00
 -2.3927832e-01
 -4.5474324e-01
  9.7791888e-02
 -4.4390252e-01
 -1.0740972e-02
 -7.3675588e-03
  1.6986768e-01
  8.8933133e-02
  1.8581914e-02
 -3.7373203e-01
 -1.4292274e-01
 -8.8234313e-02
  8.1760716e-03
 -1.3704901e+00
  1.9726451e-01
 -1.4640866e-01
 -1.4452366e-02
 -1.8245897e-01
 -4.3130219e-01
  3.1460723e-01
 -1.1216713e-01
  1.7119618e-01
  8.4415257e-02
 -2.7605450e-01
  2.7023518e-02
  6.3593306e-02
 -6.3285723e-02
  3.4391800e-01
  1.8545678e-02
 -5.2311040e-02
 -8.4338710e-03
  4.9272373e-02
 -3.3093640e-03
  2.9468296e-02
  8.9656785e-02
 -5.1865842e-02
  6.6510662e-02
 -1.7743906e-01
 -3.2072943e-02
 -1.2627184e-01
  1.0752263e-01
  4.2082578e-01
 -1.5013658e-02
  1.5007336e+00
 -3.7793621e-01
 -1.1576684e+00
  3.8641762e-02
 -3.0167374e-01
  3.4257433e-01
 -3.5973808e-01
  2.2543393e-02
 -6.4891735e-03
  4.6296427e-03
 -4.4387522e-01
 -2.9556644e-01
 -2.9919061e-01
  2.8488200e-02
 -4.1634437e-01
 -1.6703480e+00
  6.2288660e-01
  7.6139513e-03
 -3.2633752e-01
 -2.0209825e-02
  3.1208396e-01
 -3.3982641e-03
  3.0190026e-02
  4.2315762e-02
 -1.5095532e-02
 -9.5389985e-02
  4.1256556e-01
  4.2125952e-01
 -9.3499079e-02
  3.0342543e-01
  2.2098944e+00
 -9.4428331e-02
  6.7061990e-01
 -1.2775245e-01
  3.2122883e-01
  9.6120901e-02
 -5.6673199e-01
 -1.1031091e-01
 -3.5926270e-01
 -1.7868090e-02
 -1.0686022e+00
 -1.4810322e-04
 -1.1533484e-01
 -5.2343436e-02
 -9.6972331e-02
 -2.8639508e-02
 -4.7177165e-03
  7.1491361e-02
 -5.4118019e-01
 -2.7122602e-01
 -3.3470672e-02
 -3.9111018e-01
  3.8623763e-04
  1.3925782e-01
  2.6475614e-02
  1.0916814e-01
  4.3507211e-02
  7.5835064e-02
  2.6355392e-01
  1.0255709e+00
  6.5356377e-03
 -4.9459346e-02
  1.3292731e-01
  9.3964506e-03
  7.5083452e-01
  4.2832434e-02
 -6.1430920e-02
  1.9325469e-02
 -8.0326200e-04
  3.7150705e-01
 -1.0791697e-02
  1.3928887e-01
  3.6006954e-02
  4.6406034e-04
 -6.8334222e-02
 -1.2122299e-02
  2.0919515e-01
 -8.8733742e-03
 -7.7847298e-03
 -1.1307165e-01
  3.1661771e-02
 -6.2540360e-02
  2.8070847e-02
 -8.8689469e-02
 -1.6738066e-01
 -8.9704290e-02
  6.4191371e-01
  2.2159815e-02
 -3.2484941e-02
  3.0996820e-01
  5.7403493e-01
  1.3156509e-01
 -2.4846755e-02
 -3.0603269e-01
  1.0336039e+00
  8.0644384e-02
  1.9830495e-01
 -3.7383962e-02
  9.4749480e-03
  4.0617868e-02
  1.0349532e-02
 -4.4279817e-02
 -4.3148577e-02
 -4.4852104e-02
 -3.6758684e-02
 -5.2652638e-02
 -1.1102706e-03
 -3.3283386e-02
 -7.3695555e-06
 -1.6174085e-01
 -1.0989475e-01
 -1.3312118e-02
 -2.5200762e-02
  8.0190577e-02
 -1.5165291e-02
 -1.7388356e-01
 -1.7956389e+00
  1.9737471e+00
  1.8744119e-01
 -1.1104970e-01
 -1.0733154e+00
 -7.2143734e-02
 -2.8033647e-01
  8.1258380e-01
 -1.9101053e-01
 -1.1512840e+00
  3.8477826e-01
  4.0826011e-03
 -9.7459257e-03
  1.9636877e-01
 -2.6382497e-01
  9.3301311e-03
 -9.4206452e-02
 -1.4892380e-02
 -3.3533726e-02
  1.1044650e-01
 -1.5046291e-01
 -4.3458257e-02
 -4.1245025e-02
  2.2149459e-03
  3.3635926e-03
  1.4671348e-02
 -6.3884705e-02
  2.0954128e-01
 -7.7360526e-02
  2.9720709e-02
 -1.3609737e-01
 -5.3275082e-02
  5.7897653e-02
 -4.3454237e-02
  6.0272431e-01
 -7.3856972e-03
  5.0742075e-02
  2.5164263e-02
 -5.6763083e-02
  5.3840645e-02
 -2.4404712e-03
  8.8729791e-02
 -2.6637280e-02
  2.4175970e-03
 -1.9026982e-02
 -7.1160138e-01
 -6.5189399e-02
  4.2558226e-01
  1.3764551e-02
 -8.2413405e-02
  3.7881780e-02
  1.9309845e-02
  7.8128248e-02
  1.1016949e-01
  7.3730826e-02
  2.8548973e-02
  3.8708083e-02
  1.7917257e-02
  2.7178732e-01
  8.1258649e-03
 -6.1164665e-01
 -1.4665524e-02
  3.3708870e-02
 -3.2346632e-02
 -1.2356512e-01
  1.7527649e-01
 -8.0139071e-02
 -2.6778292e-02
  2.4351450e-02
 -1.5782690e-01
 -1.5650772e-02
 -1.6119266e-02
  4.3880410e-02
  1.9468725e-01
  1.5488536e-02
  7.2482228e-02
  6.0152131e-01
 -2.2878088e-03
  5.6406544e-03
 -2.5534180e-01
 -5.4290421e-02
 -4.6677131e-02
  7.9365581e-02
 -1.0556706e-01
  5.4111399e-02
 -5.4993320e-02
  3.3975695e-03
  1.3231197e-01
  6.6379547e-02
 -3.6465205e-02
  2.9002935e-02
  2.2695262e+00
  2.5962561e-01
 -1.1736723e+00
 -8.4500784e-01
 -9.3242019e-01
  3.0355629e-02
 -7.7506095e-02
 -1.1431901e+00
  1.0531212e+00
  8.7386314e-03
  6.7881286e-01
  6.5976181e-03
  1.9399366e-01
  2.9492328e-01
  4.3717581e-01
  1.1672301e+00
  4.8839293e-02
  1.0812611e-01
  6.8218595e-01
  3.0641019e-01
  2.8601682e-02
  9.3259913e-01
  1.5745942e-01
  1.2705843e+00
  1.6123476e-02
  1.6472076e-01
  1.4199428e-01
 -2.1299282e-01
  9.4015375e-03
  1.8578624e+00
  1.2700915e-01
 -9.9709630e-03
 -7.4686266e-02
 -5.6825649e-02
  2.8039532e-02
  4.4619474e-03
  1.1344147e-01
  1.5585253e-02
  6.8127061e-03
  5.4208227e-02
 -1.4663168e+00
 -1.9530973e-01
  1.0987500e-01
  8.8381648e-02
 -3.7490990e-02
  7.2094209e-02
 -2.5589707e-01
  1.4998963e-01
 -7.2609871e-03
 -4.4491976e-02
  8.7483153e-02
 -4.5451626e-02
  3.1899411e-02
  1.3430241e-02
 -1.2474675e-01
  4.4349506e-02
  6.7209117e-02
  6.4182617e-02
 -5.7477567e-02
  4.2999402e-01
  2.2956213e-02
 -3.7999484e-01
 -1.1162901e-02
 -5.3185731e-01
 -4.0568620e-02
  1.3878656e-02
 -3.7939712e-01
  2.2972694e-02
  4.4234461e-01
 -7.5617945e-03
 -4.1775595e-02
  2.7564012e-02
 -1.2170728e-01
  6.2698713e-03
  4.1608816e-01
  3.2826143e-03
 -2.0395523e-01
  7.1454525e-02
  4.3326646e-02
  7.0775002e-02
 -3.2076053e-03
  2.0537155e-02
 -1.8347281e-01
 -3.5744774e-01
  1.5797155e-02
  2.7487043e-02
 -1.1402823e-02
  3.1693984e-02
 -3.9806046e-02
  2.2127199e-01
 -5.4708436e-02
  2.0073268e-01
 -2.3018738e-02
 -1.3775899e-01
  1.1612379e-01
  4.5552570e-02
 -7.3748161e-03
  1.0699140e-01
  5.1736936e-02
  4.3433622e-02
  4.4760901e-02
  6.0508091e-02
 -1.7009718e-02
 -1.1037056e-01
  3.8081046e-02
  9.6048735e-02
 -2.4290198e-02
  5.1714119e-02
  1.6031910e-02
  2.6385821e-02
 -7.7934206e-02
  1.8214203e-01
  3.4185439e-02
 -2.9193568e-03
  3.9696272e-02
  3.6099486e-02
  4.2970646e-03
  9.3800239e-02
 -2.5646869e-02
  2.2527476e-01
  2.2624399e-01
  3.0848558e+00
 -2.8265458e-01
  8.7337995e-01
 -4.4841070e-02
 -1.6968638e+00
  5.8061443e-03
 -1.4982821e-02
 -2.0892929e-01
 -4.1450713e-02
  5.2055037e-01
 -3.6991709e-01
 -1.5717119e-01
 -3.9055243e-02
 -3.7319250e-02
 -1.9069917e+00
 -5.1101953e-02
 -3.5797115e-02
  7.2119176e-02
 -1.0299202e+00
 -2.4007464e-02
  1.4605411e+00
  2.7531445e-01
  3.6459351e-01
 -6.2920101e-02
  3.1512527e+00
 -4.7166902e-01
 -1.4041899e+00
 -7.7284425e-01
  5.4060727e-01
 -1.2443053e-01
 -3.1608907e-03
 -4.1285500e-02
  2.5347674e-02
 -8.3151296e-02
 -1.5134811e-03
 -5.7641681e-02
 -2.7152354e-01
 -1.7183487e-01
  2.7328493e-02
 -1.1109661e-01
  1.0952684e-01
 -7.7572602e-01
  4.7953092e-02
  2.7000986e-02
  2.6510358e+00
  1.1377723e-01
 -2.2689204e-01
 -8.2946550e-03
 -1.2891855e+00
 -1.6108798e+00
  6.7865193e-02
  8.1473947e-01
  6.9276072e-02
 -8.4861450e-02
  2.4383849e-01
 -1.7145024e-01
  1.2908031e-02
  2.5089356e-01
 -4.2182007e-01
  8.8676476e-01
  4.7255728e-02
 -4.0400991e-01
 -2.9498290e-02
 -2.7932851e-03
  1.0154980e+00
 -4.3768633e-02
  4.8427123e-01
  7.0921399e-02
 -1.1820642e+00
 -1.7281552e-01
  3.8298866e-01
 -2.9062001e-02
 -1.8460555e-01
 -7.5338179e-01
  2.4283128e+00
  2.9014257e-01
 -1.2640774e+00
  5.9469801e-01
  1.5229948e-01
  1.5743130e-01
 -4.2636210e-01
  9.7632259e-02
  2.3089817e-01
  8.3877640e-03
  1.4013031e-01
  9.3007129e-01
  1.6126227e-01
 -4.7623667e-01
 -1.0777520e+00
 -1.0290358e-01
  2.2967491e-01
 -1.5493065e-01
 -1.4743952e-02
 -6.6736095e-02
  6.2219852e-01
 -3.1840652e-02
  4.4662970e-01
  1.2328876e-01
  7.0484287e-01
  4.6483777e-02
 -4.8171267e-02
  4.7059946e-02
  2.4577592e-02
  3.0392732e-02
 -7.4478239e-04
 -9.8880872e-02
 -1.2412337e-01
 -2.3818206e-02
 -6.1740642e-03
  4.0565200e-02
 -2.1029563e-01
 -2.5925931e-02
 -2.1823877e-03
 -1.0482956e-01
  2.3505971e-02
  5.0629351e-02
  4.6335958e-02
 -2.3097465e-02
  8.3982609e-02
  8.1009910e-02
 -1.3160124e-02
  8.9104719e-02
 -1.1645234e-01
  2.0444484e-02
  1.1109825e-01
 -1.2042879e-01
  3.8757823e-02
 -5.5963185e-02
  2.2310336e+00
  1.2101537e-02
  8.5237049e-02
 -4.2015651e-01
 -6.9618952e-01
 -5.7298946e-01
 -1.9417460e-01
 -1.1679915e-01
  6.0768241e-01
 -6.0133469e-01
  4.6282569e-01
 -1.4095865e-01
  2.0895498e-02
  5.6055978e-02
 -6.6694623e-01
  6.8250276e-02
  3.5544440e-02
 -1.2312752e-01
  6.3340950e-01
  4.2136833e-02
 -1.1855976e-02
 -1.2508503e-01
  6.8644816e-01
  2.2306175e+00
 -1.5450935e-01
  2.6936730e-02
  2.1689071e-01
 -8.3383925e-02
 -1.3545573e-02
 -6.7829803e-02
 -2.2906464e-02
 -2.3129750e-03
 -3.6211040e-02
  4.6386287e-02
  1.6148841e-01
 -1.3713982e-02
  2.0092629e-02
 -1.5321581e-02
 -3.1988788e-02
  3.2208288e-01
  8.9531224e-03
 -1.6503349e-03
 -2.1356589e-01
 -8.7116170e-01
  2.2332339e-02
  3.8437191e-02
 -1.6518104e-01
  3.9570026e-02
  1.1391217e-02
  1.3541678e-01
  1.0572629e-02
  3.0015262e-02
  1.7888251e-01
 -3.2044947e-02
 -6.9871217e-02
  5.5873927e-02
  3.4775725e-03
  3.9434284e-02
  1.6730350e-01
 -3.2296561e-02
 -1.6158364e+00
 -3.8020822e-01
 -1.8916717e+00
 -5.3066138e-02
  3.4946033e-01
  4.5887470e-01
 -1.9517278e-02
 -1.5599830e-01
  7.3409235e-01
 -2.6312259e-01
  3.8971138e-01
  1.9690497e-01
 -3.9159450e-01
  6.3491482e-01
 -2.5341541e-01
 -5.1887488e-01
 -1.2570354e-01
 -3.2097307e-01
  2.2225226e-01
  4.3992260e-01
 -1.4757166e+00
  1.6040289e+00
  5.1548576e-01
  1.1379213e-02
 -6.5747323e-03
 -1.2234872e-01
 -1.0529084e-02
  3.1593010e-01
 -3.6092731e-01
  2.1512695e-02
  3.2189479e-01
  4.9224898e-02
  1.0667323e-01
 -9.2246763e-02
  6.5317452e-01
  2.0267576e-01
 -7.6160654e-03
  1.5457656e-02
 -4.0444072e-02
  3.2231009e-01
 -2.3761136e-02
  5.0371662e-02
 -1.8031377e-02
  3.5771210e-02
  8.0484552e-03
 -6.3747905e-02
  6.5212832e-03
  7.7837892e-02
 -7.2459437e-02
 -3.2514159e-02
 -9.1749579e-02
 -4.9970061e-02
  4.0106915e-02
  4.9934436e-02
  1.2243543e-01
 -2.4489246e-02
 -4.3391738e-02
  7.3367395e-02
  3.0858114e-02
 -9.0000845e-02
  9.4149873e-02
 -4.9601817e-01
 -2.4651960e-03
 -8.7120079e-02
  4.4002739e-01
  6.7860432e-02
 -9.6905932e-02
 -4.1361857e-02
 -8.5991621e-02
  1.0192449e-01
 -1.4955904e-01
 -1.4906716e-02
  9.4437383e-02
 -1.0955294e-01
  3.5957273e-02
  9.7627342e-03
  8.0911517e-02
 -1.0908372e-01
  8.9644685e-02
  8.7165743e-02
  3.4677364e-02
  1.0465949e-01
 -1.6127666e-02
  2.4902387e-01
  1.0360541e-03
 -2.4955126e-02
 -1.6164342e-02
 -1.5185526e-01
  2.7772188e-02
  3.4320755e-03
  6.2821162e-01
 -2.3669726e-01
 -1.1818893e+00
 -8.9829758e-02
 -6.9288337e-01
  3.5355309e-01
  5.0490069e-01
  9.8313046e-01
 -4.3137237e-01
 -4.3755484e-01
  5.5416059e-01
 -1.4168687e-01
 -4.4428459e-01
 -6.5423852e-01
  2.2226555e-02
  1.3104895e-01
 -6.1920840e-01
 -8.2695395e-02
 -6.8152303e-01
 -1.9907115e-01
 -1.0687790e-01
 -1.4266245e+00
  6.1928773e-01
  8.9567766e-02
 -2.6365796e-01
  1.2726007e-01
 -3.3017436e-01
  5.4522526e-01
 -6.0748947e-01
 -2.8495448e-02
  1.0130217e-01
  1.0076708e-01
  6.3894171e-01
  4.5084368e-02
  9.5828496e-02
  8.8442072e-02
 -1.8300263e+00
  5.2153550e-02
  1.4719455e-01
  1.5762024e-01
  3.1797651e-02
  1.3424049e-02
  1.6349629e-01
 -2.2357874e-02
 -3.6806069e-02
  8.4255815e-02
 -1.9390686e-01
 -4.6366621e-02
  1.0170019e-01
  5.6748454e-02
 -3.2290768e-02
 -6.3030139e-02
  4.8511885e-02
 -8.0805738e-05
 -2.8053392e-02
  4.3836357e-03
  1.2917073e-02
  2.2592353e-02
 -1.1986977e-02
  1.4444858e-01
 -4.2237908e-02
  7.1872689e-02
  3.1643271e-01
  1.9700061e-01
  2.8444329e-01
  2.1144634e-01
  1.2828656e+00
  7.0399076e-02
  1.2986355e-02
 -2.4675114e-02
 -4.4461355e-02
 -1.1210100e-01
 -1.0924701e-02
 -4.2333398e-03
  8.6399810e-03
 -6.3782662e-02
 -3.6691200e-02
  1.1723545e-01
 -1.5026073e-01
  1.4094007e-02
 -3.5520814e-02
  7.0284596e-03
 -3.3364847e-02
  8.8261977e-02
  6.7785814e-02
 -1.9603165e-02
 -8.1311606e-02
  9.4655883e-03
  1.2507990e-01
  1.8451843e-02
 -3.0234139e+00
  7.9709399e-01
  3.6934027e-01
  4.6395276e-02
  8.5220504e-01
 -9.5239609e-01
  1.5017630e+00
  8.6632654e-02
  7.8115642e-01
 -3.4845948e-01
 -3.5069469e-01
  8.4165581e-02
 -2.7701789e-01
  3.2117603e+00
  1.9126030e-02
  3.6322448e-01
  6.4856946e-02
  6.4856879e-02
 -1.2479512e-02
 -1.6277939e+00
  4.3403085e-02
  6.7357972e-02
 -1.0202364e+00
  2.1108247e-01
 -4.1277230e-01
 -2.9932741e-02
  1.9401997e-02
 -5.3233337e-02
  1.7212473e-01
 -2.0889726e-02
  1.0560860e-01
 -6.3790105e-02
 -1.5458843e-02
  2.0156961e-02
  1.7258613e-01
 -5.2501746e-02
  1.7268060e-02
  1.2731764e-02
 -2.3182528e-02
  3.9518073e-02
  1.5356007e-02
  1.2204676e-01
 -3.6558934e-02
  1.8948558e-01
  9.4314195e-02
  1.7402612e-02
  2.9012010e-02
  1.5120748e-03
  8.7648332e-02
 -1.0535003e-01
  2.2816833e-02
 -4.0988713e-03
 -4.1649500e-03
 -3.7850149e-02
 -1.6270977e-02
  1.5477514e-01
  6.1772674e-02
  9.9947065e-02
 -9.2200622e-02
 -7.9401381e-02
 -1.2986244e-01
  1.1939605e-01
 -1.7713546e+00
 -1.3371573e-01
 -4.9751207e-02
 -1.3370369e-02
 -9.1021404e-02
 -3.2623641e-02
  1.5782123e-02
  2.2378879e+00
 -9.2737842e-05
 -1.4931048e-01
 -1.3447770e-02
  3.5702612e-02
  2.3976596e-02
 -2.0136507e-02
  6.5409370e-02
 -2.6683543e-02
  4.8771843e-02
 -5.5417798e-02
 -2.1154042e-02
 -1.0050973e-01
 -7.6361731e-02
  1.2777162e+00
  1.0742751e-01
  5.4575939e-02
  1.0340846e-02
 -6.0981199e-02
  2.5108073e-02
 -6.9080450e-02
 -5.3917783e-01
  1.2447730e-01
  4.0317243e-01
 -8.2903415e-01
 -3.2603526e-01
 -1.2787013e+00
  1.1338742e-01
 -4.4670355e-01
 -7.7347851e-01
  8.5843396e-01
 -1.3598685e-01
  1.7753631e-02
  1.0549716e-01
  3.6162215e-01
 -1.5377611e-01
 -1.1803975e+00
 -4.4132531e-01
 -9.8472559e-01
 -5.8546764e-01
 -1.7960981e-02
  1.4653125e-01
  1.2181604e-02
  9.1933572e-01
  1.5307049e+00
  8.9504904e-01
 -3.2385021e-02
 -7.4928224e-02
  1.8580830e-01
  5.4874107e-02
 -3.4139013e-01
 -2.1918800e-02
 -3.3974919e-02
 -1.1969696e+00
  7.6471165e-02
  3.4069628e-01
 -2.6956255e-02
 -1.1083186e-01
  1.6165731e-02
 -4.8024967e-02
  6.2252991e-02
  1.0615167e-02
  9.0385647e-03
  1.1585351e-02
 -9.4205722e-02
  6.6325769e-02
 -1.6839585e-01
  4.1470788e-02
 -2.4396371e-02
 -1.5343195e-01
  1.0229823e-02
 -2.2398923e-02
  2.5977373e-02
 -2.7961332e-02
  1.0614743e-01
  8.7692127e-02
  5.0059855e-03
  4.0329829e-02
 -1.1256164e-02
  1.1609847e-01
 -7.5709283e-02
  2.8252847e-02
  1.4955092e-02
 -3.2953534e-02
 -1.1789016e-02
  1.9739321e-01
  8.2529247e-02
 -6.7109875e-03
 -2.9566094e-01
  5.7973258e-02
 -1.0957833e-02
 -1.1254749e-01
  8.1712157e-03
  2.4567463e-02
 -3.3386946e-02
  3.1514418e-01
  7.4115820e-02
  5.9238184e-02
  8.9674123e-02
  1.5376829e-02
 -3.2676719e-02
  1.9037997e-02
  1.2600878e-01
  8.1390120e-02
 -2.7541321e-02
 -9.1607846e-02
 -1.2777509e-02
  2.7865827e-02
  1.9554760e-02
 -4.6704933e-02
  2.7642148e-02
  4.9707763e-02
 -1.5803269e+00
  6.7994720e-01
  1.3951972e-01
 -4.6062878e-01
 -4.3657613e-01
 -1.4438319e-01
 -4.7615003e-02
 -1.8493740e-02
  1.4118768e-01
  5.5940572e-02
 -2.1829601e-02
 -7.1399856e-01
 -2.3796844e-01
 -1.3017887e-01
  6.4812362e-01
  5.9676595e-02
 -2.8009365e+00
  5.1989532e-01
  2.0311547e-03
 -1.0965234e+00
 -4.5348734e-02
  7.4062771e-01
  7.0903085e-02
  1.5640273e+00
  6.2570006e-02
 -5.9181821e-02
 -6.2850282e-02
  1.9235142e-02
  1.5367791e-03
  1.7579906e+00
 -4.9245808e-02
 -2.3959696e+00
 -1.6429119e-02
 -1.8634810e+00
 -1.8563764e-01
 -4.2489283e-02
  3.8784683e-01
 -7.0418827e-02
  1.0034322e+00
  5.1631916e-02
 -1.8993132e-02
  8.5723706e-02
 -2.6679078e-01
  4.2836800e-02
 -1.0705799e-02
 -1.4779510e-01
  8.2999751e-02
  1.3105719e-01
  1.5299910e-01
  9.7375996e-02
  9.1501912e-03
  7.9900026e-02
  2.9832866e-02
  1.6119609e-02
 -3.5567034e-02
 -2.9521251e-02
 -1.9604941e-01
 -5.2741207e-02
 -1.4520536e-02
  1.0184432e-02
 -2.8337441e-02
 -1.0858069e-01
 -4.4294916e-02
 -9.8798797e-02
 -1.5111755e-01
 -8.1786931e-02
  9.3255574e-03
 -2.2988054e-01
  6.8889745e-02
  1.0050444e-02
 -8.7729496e-01
  1.6914478e-02
  7.3496081e-02
 -6.6328901e-03
  7.5459015e-04
 -9.2675127e-02
  1.0607011e-01
  6.3228919e-03
 -4.7909833e-02
  7.3180221e-02
  9.9351794e-02
 -5.4639569e-03
  7.5725585e-02
  3.7287619e-02
 -2.5083765e-02
 -1.9355613e-01
  3.6352646e-02
 -6.1719120e-04
  1.8660424e-02
 -2.1150990e-01
  4.8548244e-03
 -1.4007235e-01
  5.6126611e-03
  7.1905506e-01
  9.9059097e-02
 -2.1450073e-02
 -1.3347715e-03
  4.1177034e-02
 -3.0164707e-01
  1.3214523e-01
 -2.9595089e-01
  1.0754425e-02
 -1.6382124e-01
 -4.2122528e-03
 -2.9178971e-02
 -1.2995161e-01
  3.8432200e-03
  1.3587707e-01
  1.5770692e-02
  3.2038800e-02
 -4.5496829e-02
 -7.7903889e-02
 -1.6507360e-01
  2.7079076e-01
 -2.2166731e-02
 -3.3501029e-02
 -1.1976324e-02
 -1.3814224e-01
  3.8717784e-02
  4.7167100e-02
 -2.2818668e-02
  1.2091039e-02
  2.4347867e-01
 -5.8942753e-01
  1.8670436e-02
  9.6247785e-02
  8.3963387e-02
  5.4338861e-02
  9.6348032e-02
  1.8290372e-04
  1.3611500e-01
  5.4570574e-01
 -5.0824210e-03
 -1.0688357e-02
  1.9054310e-01
  1.5665811e-01
 -1.4050212e+00
  1.3493647e-01
 -2.5486257e-02
 -1.1963687e-01
 -3.4361929e-03
 -5.6311432e-02
  6.7161163e-03
 -1.8255037e-01
  2.7231887e-02
 -1.0927303e-02
  7.9486482e-03
 -7.3238552e-02
  1.0989250e-02
  2.0452754e-01
 -5.5587858e-02
 -1.5591203e-02
 -1.6885032e-03
  3.0264512e-02
  1.9544758e-02
 -1.0630324e-01
  2.4094086e+00
 -2.8349778e-01
  1.9866707e-02
  1.0039157e-02
  2.6754701e-01
  1.3786678e-01
 -8.7913282e-02
  4.0507022e-02
 -4.9066607e-02
 -2.6387939e-01
  7.8279385e-03
 -5.8858103e-01
  1.1026075e-01
 -8.4274374e-02
 -1.1787605e-02
  2.0454104e-01
  1.3073376e-01
  5.1611120e-01
 -7.3645213e-03
 -3.6720997e-03
  7.2096460e-02
  5.3948285e-03
 -9.5133938e-02
  1.1875228e-01
 -1.2275988e-01
 -6.7325249e-02
  1.0148652e-01
 -1.3350730e+00
 -2.1256506e-01
 -1.8732417e-02
 -2.9418660e-02
  9.3941823e-02
 -7.3254265e-02
  5.0074566e-02
  1.0737573e-01
 -5.9885755e-02
 -1.5751347e-01
 -5.8438731e-03
 -3.1278551e-02
  2.3764493e-02
  6.9203593e-02
  5.1998321e-02
 -5.5743754e-03
  4.3187793e-03
  3.9431427e-02
  1.5145466e-01
  1.9166932e-01
  7.8142487e-02
 -8.3888052e-03
  6.8044883e-01
  1.1321319e-02
 -1.6708702e-01
  6.3127160e-02
 -7.2506197e-02
  1.0906903e-01
 -1.6756659e-02
 -4.9625221e-03
  1.4706944e-01
 -2.2549355e-02
  2.0076230e-02
 -9.2550032e-02
 -4.1246563e-02
  8.4338598e-02
  3.8090337e-02
  2.5475089e-02
  2.1936644e-02
 -2.0849334e-02
  9.0371385e-02
  4.6609707e-02
  1.3704164e-02
  5.4122038e-02
  8.6951949e-02
  2.2368751e-02
  3.0154554e-02
 -2.4798820e-02
  6.3238911e-02
 -7.2444901e-03
 -5.7927333e-04
  2.5992114e-02
 -7.0311045e-03
  2.3712099e-02
 -1.0729836e-01
  7.3380232e-02
 -1.3205686e-01
 -4.1063839e-01
 -2.3141283e-01
 -4.5139857e-02
  1.1473906e-01
 -2.4278620e-02
 -6.9962938e-05
  2.7069985e-03
 -5.7634292e-03
  8.0817804e-02
 -5.1409546e-03
  7.5544029e-02
  2.6040137e-01
  2.2921035e-02
  5.2093957e-02
 -2.4598684e-02
 -9.6608907e-02
  5.4899387e-02
  1.2346368e-02
 -2.0078437e-02
 -3.1420939e-02
  2.0788467e-01
 -1.6824793e-02
 -4.3742612e-02
  3.5122413e-02
  7.9921760e-02
  5.4195337e-03
  2.8855208e-02
  5.7297301e-02
 -1.1968437e-01
 -8.6620188e-01
  2.0220193e-01
 -5.0860488e-01
  7.7133769e-01
 -1.8238746e+00
  7.8199697e-01
  4.3829337e-01
 -6.9636691e-01
 -6.9588667e-01
  5.4712910e-02
  3.4665504e-01
  7.1856506e-02
 -6.9080263e-01
 -3.6649641e-01
 -6.6154921e-01
 -2.5877559e-01
 -3.5654354e-01
 -6.7651510e-01
 -1.2077810e+00
  1.1823337e+00
 -2.4174125e+00
  9.5045817e-01
 -3.9412346e-01
 -4.2084007e+00
  4.0572861e-01
  2.2377211e-03
  8.3493061e-02
  7.5988010e-02
  5.2114520e-03
 -3.1841582e-01
  1.6632558e+00
  9.1050617e-02
 -2.8779039e-01
 -8.9918356e-03
  1.3556902e-01
 -3.8056232e-02
  1.0746249e-02
 -1.5630051e-01
  1.7245691e-01
  7.6959699e-02
  4.3637376e-02
  7.6567288e-04
 -6.5459959e-02
 -3.4471150e-02
 -1.3323128e-01
  1.4263348e-01
 -1.7915942e-02
  5.1396579e-02
 -6.1356485e-02
 -1.7383692e-01
  2.6955120e-03
 -1.8255222e-01
 -4.5648884e-02
 -8.8098414e-02
 -1.5995391e-02
 -1.2239425e-01
 -4.4131450e-02
 -8.3263747e-02
  6.0998410e-02
 -3.3542663e-02
  2.6815435e-01
  1.4076009e-03
 -3.9540854e-01
 -7.3039025e-02
 -1.3334413e-01
 -1.0161254e-01
  1.2045675e-02
  3.3083133e-02
 -2.4939727e-02
  6.2500656e-04
 -1.2087879e-01
  2.2193651e-01
 -3.8445406e-02
 -1.5676911e-01
 -6.2946223e-02
  2.0445732e-02
  9.5469773e-02
  8.5409820e-02
 -3.5983133e-01
 -1.7079905e-02
 -1.5881265e-02
  4.1054230e-02
  3.5228524e-01
 -2.0827432e-01
  2.3648376e-03
 -2.9790082e-03
  2.1901444e-02
  3.0502510e-01
 -1.6621809e-01
 -3.0411237e-01
  2.8413373e-01
  2.3236668e-01
  5.5433941e-01
  3.1446600e-01
  1.5370123e-01
 -6.1180666e-02
 -8.6931713e-02
  2.3741683e-02
  1.0582148e-01
  5.5010727e-04
 -2.3648826e-02
 -2.3377381e-01
 -2.2587919e-01
  1.3780028e-01
  4.7801308e-02
  6.7859434e-02
  9.0916343e-02
 -2.1386544e-01
 -1.3038169e-01
 -2.4647847e-01
  9.8727919e-02
 -5.1634353e-01
  1.9896981e-01
 -3.4587196e-01
 -1.6908281e-01
  9.2474502e-03
  5.6120761e-02
 -1.3994481e-02
 -4.5126919e-03
  1.9399349e-03
  9.7972110e-02
 -2.1213344e-01
 -7.6910126e-01
  1.8944712e-01
 -8.3737797e-01
 -2.3946851e-02
 -3.8807815e-01
 -4.5686615e-01
 -1.1202593e-02
  1.6012952e-01
  1.9153737e-02
 -1.0742787e-02
 -9.2007197e-02
 -2.4053864e+00
 -2.0347011e-01
  6.4617895e-02
 -3.8321640e-02
  2.6050441e-02
 -2.1698315e-01
  1.2721601e-02
  9.1749221e-02
 -3.2490082e-02
  1.6830988e-01
 -1.1109371e-01
  9.3077916e-01
  2.4732808e-02
 -1.4180270e-01
  1.6316850e-02
 -3.1828120e-02
  2.8921440e-03
  8.5679561e-02
  7.3901061e-03
  5.3520106e-02
  6.0693558e-02
  1.4758193e-01
 -6.1762102e-02
  1.9854028e-02
 -8.2749523e-02
 -6.7030951e-02
  2.7452959e-02
  1.4679816e-01
 -2.3774294e-02
  5.3228054e-02
  1.4630736e-02
  1.8317163e-02
  2.9115058e-02
 -2.2860646e-02
  8.5409917e-02
 -4.7914095e-02
  4.2899027e-02
 -4.5874007e-02
 -6.2582523e-02
  1.3130750e-02
  4.2005859e-02
 -6.2746746e-03
  3.2774128e-02
 -2.7380385e-02
  9.1401085e-02
 -2.7530663e-02
 -1.5484507e-01
 -7.5064152e-02
 -1.5474937e-02
  6.5784426e-03
  3.0641797e-01
  1.9242218e+00
 -6.2537519e-03
  4.7867950e-02
 -1.1812718e-02
  9.6897677e-02
 -3.7830476e-02
  3.1407475e-02
  3.2203078e-02
  2.0637883e-01
  1.7271314e-02
  1.2159012e-01
  2.0122519e-03
 -2.4871873e-02
 -1.8820409e-02
 -4.7558179e-01
  1.2930351e-02
  2.0585280e-02
 -4.1020170e-02
 -9.6511334e-02
 -1.0612604e-01
 -9.5415443e-02
  1.0447770e-01
  5.9227340e-02
  2.0335980e-01
 -1.6650324e-01
  5.4524064e-02
 -1.3091315e-01
  2.6614287e-01
  3.5705498e-01
  7.3827796e-02
  6.3802510e-02
  1.1951561e-01
 -2.5497973e-01
 -2.4030157e-03
  4.6628866e-02
  3.4590551e-01
  4.9401313e-02
 -6.1604030e-02
 -2.0349979e-01
  1.8324819e-01
  3.8828213e-02
  2.4061956e-02
  4.1490611e-01
 -8.7071300e-02
 -6.4164156e-04
 -6.8729922e-02
  3.7164769e-01
 -9.1099270e-02
 -6.1648358e-02
 -2.4298151e-01
 -5.3972849e-03
 -1.4158268e-02
 -1.6126629e-02
  4.2989854e-02
  2.3469042e-02
  6.2274937e-02
  1.0112448e+00
 -6.3896978e-01
  6.2861460e-01
 -1.0067675e+00
  6.4353800e-01
 -2.0400783e-01
  6.2806356e-01
  1.6511218e-01
 -2.1417946e-02
  1.4089973e-01
  2.3949780e-01
  1.9060108e-01
  3.6017683e-01
 -3.5523745e-01
 -2.3735173e-02
 -2.6717165e-01
 -8.5521078e-01
 -7.5791323e-01
  5.5749500e-01
  5.7819284e-02
 -3.7187919e-02
  3.9427307e-02
  5.3121579e-01
  1.4023684e-01
 -3.6112938e-02
 -8.0085173e-03
  8.3297901e-03
  8.2753271e-02
 -2.7144748e-01
 -4.8793145e-03
  7.2961748e-02
 -5.1230390e-02
  4.6300753e-03
  2.4161963e-02
 -4.1295746e-01
  3.1564564e-02
 -1.7591886e-01
  2.2667356e-02
  1.2804498e-01
 -9.9249268e-03
 -3.4283955e-02
 -7.4195974e-03
  2.0813350e-02
 -1.0097753e-01
  2.4725491e-02
  2.8807634e-02
  6.9014437e-02
 -2.7684499e-02
  1.2610945e-02
 -2.6033962e-02
 -3.7309553e-02
  1.0679378e-01
  6.7778885e-02
  2.6324965e-02
  3.1952631e-02
 -2.5997680e-01
  6.2373284e-02
  1.6083842e-02
  2.6224309e-01
 -2.8759101e-03
 -3.3653620e-01
  1.3489813e-01
  4.9180186e-01
 -7.9890245e-01
 -9.8316140e-02
 -6.5084010e-01
 -1.0948663e-03
  9.4346231e-01
  5.6108579e-02
 -3.0343267e-01
 -1.5534926e-02
  1.6381240e+00
  2.1613400e-02
  1.4167582e+00
 -1.6925032e-01
  3.1643584e-01
  5.2275896e-01
  3.0480240e-02
  1.6368096e+00
  2.1375149e-01
  1.2998860e-01
  3.4315877e-02
  1.3560861e-02
 -9.6118265e-01
  3.9251104e-01
  2.3966748e-02
 -1.1139927e-01
 -1.1869533e-01
 -2.3086073e-01
 -4.1246507e-02
 -5.1565014e-02
  2.1435820e-01
  5.4618734e-01
 -1.2871923e-01
 -4.8241600e-01
 -1.0586754e-02
 -6.7329720e-02
 -6.1237019e-02
  1.0751222e-01
 -1.0149817e+00
 -2.2689290e-01
  4.6034336e-02
 -2.7351132e-02
  2.4123026e-02
 -8.6965889e-02
  4.8733294e-02
  4.9640793e-02
 -3.3433836e-02
 -7.0189387e-01
 -1.3185154e-01
  4.3791425e-01
 -4.6659142e-02
 -3.8371524e-01
 -3.9712399e-01
 -1.6330527e-01
  2.8025962e-02
 -1.2146311e-01
 -2.1979103e-02
  6.2007997e-03
 -1.1452878e-01
  7.3636287e-01
  1.4741553e+00
  1.2209404e+00
  1.4460480e+00
  2.1168203e+00
 -5.7579166e-01
 -1.5009055e-04
  6.3706136e-01
 -9.2380035e-01
  5.4730918e-02
 -2.0279708e+00
  1.8973749e-02
  2.3009102e+00
 -2.3892382e-01
  2.8576523e-03
  7.0914352e-01
  6.3956650e-03
  1.2263596e-01
 -1.7260106e+00
 -1.7231613e-01
  1.1068906e+00
 -8.3969921e-02
 -4.0174532e-01
 -8.0047071e-01
 -2.9810352e+00
 -1.1456344e-01
 -8.3598569e-03
 -4.5349900e-02
 -2.6463223e-01
 -3.3990320e-02
  3.3955911e-01
  2.7844319e-03
 -1.2657601e+00
  1.4861665e-02
 -1.4706343e+00
 -3.5441390e-01
  5.6128330e-03
 -2.3018855e-01
  2.9757011e-01
 -1.1721212e+00
 -4.4898558e-02
  3.3942427e-02
 -7.3558941e-02
  9.3046185e-03
 -1.0732785e-03
 -2.8808609e-01
  4.6582080e-02
  1.2257145e-01
 -5.5892622e-01
 -4.7272205e-02
  8.0343269e-02
 -2.1582422e-01
 -2.4165778e-04
 -3.1020471e-01
  4.4437654e-02
 -4.5927595e-03
  6.2653418e-03
 -1.2222866e-02
 -3.1925600e-02
 -1.0717798e-01
 -8.0768816e-02
 -1.6026613e+00
 -1.0606447e+00
  6.4716345e-01
  8.9314669e-01
 -3.3982706e-01
  5.8613583e-02
  2.5217522e-02
  8.0274725e-01
  6.8922229e-02
  2.3348777e-01
 -1.6465950e+00
 -2.8747085e-01
  4.3835729e-01
 -1.1440227e-01
 -6.4665782e-01
 -1.9630307e-01
  3.2657668e-01
  2.7851281e-01
  2.4548437e-01
  6.8300003e-03
 -4.2956308e-01
  5.3779218e-02
 -8.8264906e-01
 -3.9671686e-02
  1.8258777e-01
  3.5585198e-01
 -1.0745422e-01
  3.7133846e-01
  8.6806692e-02
  3.4521420e-02
  3.1853944e-02
  1.6221109e-01
 -2.9064795e-02
 -4.8436409e-01
 -4.6137939e-03
  9.3613163e-02
  4.5223176e-01
 -7.5573139e-02
  7.2897963e-02
 -4.3947562e-03
  3.8735416e-02
 -4.8525032e-01
 -1.6314453e-01
 -9.5377617e-02
 -1.1838995e-01
  1.4414665e-01
  4.4118665e-02
 -3.1535842e-02
  3.2507084e-02
  1.3812855e-01
 -1.2659926e-02
  1.4819205e-04
  2.6357127e-03
  7.3512457e-02
  2.0958774e+00
 -1.5196924e-02
  2.5865696e-02
 -3.1564094e-02
  8.4994525e-02
 -1.8282501e-01
 -4.1487426e-02
  1.4063494e+00
  1.9773969e-01
  9.0894729e-01
 -1.9005018e-01
  1.1982936e+00
 -4.7920793e-03
 -4.2157632e-01
 -9.7298369e-02
 -3.0882671e-01
  2.1878337e-03
 -4.4689158e-01
  8.0818705e-02
 -3.0186248e-01
 -4.3447962e-01
  6.9658764e-02
 -3.1266421e-02
 -1.8377039e-01
 -2.2959897e-01
 -1.4438643e-02
  3.9891325e-02
 -1.5929326e-02
  4.7022802e-01
  5.3668857e-01
 -1.5010735e-01
  2.8800029e-02
 -1.9475836e-01
  7.0111394e-02
 -2.9323858e-01
  1.5336870e-01
  1.1838753e+00
  1.8727690e+00
  1.0482112e-01
 -2.0096457e-01
 -4.4519031e-01
  1.3685281e+00
  4.1738954e-01
  1.0728691e+00
  3.3610082e-01
 -1.6344415e-01
  5.7933581e-01
 -3.2374710e-01
 -1.2358456e+00
  4.7629997e-01
  9.6151173e-02
  4.0407917e-01
 -1.6991181e+00
 -1.8272597e+00
  9.4756991e-01
  1.1736294e-01
  4.9057102e-01
 -1.2719799e+00
  1.8737946e-01
 -4.4790078e-02
 -1.8195182e-01
 -6.5215833e-02
 -4.5295041e-03
 -4.8023313e-01
 -3.4574620e-02
 -9.1587916e-02
  2.8966906e-02
  5.7233572e-02
 -5.1054578e-02
 -2.1779254e-02
  1.8159684e-02
 -4.1333083e-02
  5.1447079e-02
 -3.6581092e-02
  1.0916347e-02
 -5.7356011e-02
 -2.9802820e-02
 -8.8517228e-03
 -1.1753891e-02
  4.1719496e-02
 -1.6900711e-02
  1.9286426e-02
 -5.6412488e-01
 -2.8156897e-02
  9.2085544e-04
  2.0799775e-02
 -1.5948806e-03
  1.5031332e-01
  3.1306427e-02
  2.2249565e-02
  9.0602063e-02
  4.3727197e-02
 -2.7993988e-02
  1.2176819e-03
 -4.0456145e-03
 -6.5410972e-02
 -2.5757968e-01
 -2.1963367e-02
 -4.3318633e-02
  2.3479296e-01
  1.9816842e-03
  1.8448033e-03
 -4.8933517e-02
  1.6229331e-01
 -1.8313125e-01
  2.4841018e-02
 -1.6269734e-02
  9.0925463e-02
 -3.0940396e-01
  7.4151471e-02
 -1.0330296e-02
 -3.5017431e-01
 -2.0469792e-02
 -3.4516450e-02
  1.2374845e-02
 -7.0257716e-02
  2.1621596e-02
 -1.9800344e-02
  2.5944348e-02
  1.9223662e-01
  4.0590279e-02
  7.2861239e-03
  3.4677592e-01
 -1.0249455e-01
 -6.8651617e-02
  9.4106898e-02
  5.3846620e-02
 -6.3049334e-01
  1.4832167e-01
  7.7049214e-01
  7.9784669e-02
 -1.4640291e-01
 -1.0588240e-02
 -1.6756769e-02
 -8.8190347e-02
 -1.3096807e-02
 -3.3337317e-02
 -1.2849024e-01
  4.9775491e+00
 -2.8261669e-02
 -1.0711484e-01
 -2.6212158e-02
  1.0741432e-01
  1.9584163e-03
 -1.3809592e-02
 -5.7978909e-03
 -1.2619296e-02
  2.2586547e-02
 -5.3033561e-02
 -3.4616083e-02
  1.3475277e+00
  5.9749253e-02
 -1.1715008e-01
 -2.0286064e-03
  3.9748959e-02
  7.8657269e-04
 -1.2730084e-02
 -8.7926686e-03
 -3.5186317e-02
 -2.4371567e-01
 -1.3885669e-02
 -3.3008620e-02
  3.2203789e-03
  6.5630246e-03
  4.7064942e-01
  4.6869069e-02
  8.4231514e-04
  1.8555189e-02
 -5.8412816e-02
 -2.3996016e-01
  8.8815605e-03
  1.5773463e-01
  4.6400660e-01
  5.9094653e-04
 -1.1379416e-01
  1.2506114e-01
 -7.8324094e-02
  3.2837797e-02
  2.0728868e-01
 -1.0877991e-01
  1.4344883e-01
  1.5435095e-01
 -4.7487751e-02
 -1.9533327e-01
 -2.3332218e-02
  7.0398852e-02
 -1.0581515e-02
 -6.3222086e-01
 -1.2645665e-01
  1.5481457e-01
  2.4590772e-02
 -5.0112884e-03
  2.7425442e-02
 -1.7714365e-01
 -1.3346386e-01
  9.2828944e-02
 -3.5109622e-03
  2.0484155e-01
  7.6621450e-02
  4.9747273e-02
  1.5833899e-02
 -6.7766115e-02
 -5.5002266e-01
 -2.8288090e-01
 -6.7862351e-03
  2.2623026e-01
  1.7695399e-02
 -4.5356527e-02
 -1.9911122e-01
 -2.6114329e-03
  5.0313445e-03
  4.5609731e-02
  4.5098379e-02
  1.0331861e-01
 -1.6591376e-01
  2.2981739e+00
 -1.1497722e+00
 -3.1691015e+00
 -2.3851821e+00
 -3.8972147e+00
  2.0753640e-01
 -3.5989881e-01
 -9.8196501e-01
 -4.7179204e-01
  7.2385161e-04
 -4.3232974e-01
 -3.5698491e-01
 -1.5270078e+00
  2.3644179e-02
  8.9586639e-01
 -4.8494390e-01
  2.9193735e-01
 -9.0881813e-01
  7.9058714e-02
  1.9031700e-01
 -2.0813022e+00
 -2.1995507e-01
 -1.6736411e+00
  1.6527299e+00
  8.6403990e-01
 -1.2142089e-01
  1.2735659e-03
  3.9280665e-01
  4.4367250e-02
 -1.2112995e-02
  1.4013498e+00
  1.0951596e+00
 -9.1004783e-01
  3.9327726e-01
 -1.6874509e+00
 -4.6848804e-01
 -2.4245784e-01
 -1.1438523e-01
  6.0688388e-02
  2.0393582e-01
 -1.4009181e-01
 -2.4081869e-03
  2.4561826e-03
  8.1521466e-02
  5.7212688e-02
  1.1965616e-01
 -1.3976778e-01
  8.7049436e-03
  4.8268652e-01
 -2.1361999e-01
  1.1413646e+00
 -9.4558727e-03
  8.0547923e-01
  1.0199817e+00
  2.0051131e-01
  3.6427643e-02
  1.4029652e-02
 -3.1165220e-02
  1.2623394e-01
 -2.7147878e-02
  2.4827167e-01
 -6.2160147e-03
 -3.1328122e-03
 -2.6246585e-02
 -6.7115881e-02
 -8.5731588e-02
 -5.2729040e-02
  6.0681306e-02
  1.0939839e-01
  5.3959016e-02
 -5.7567579e-01
 -1.0280818e-02
 -3.1912986e-02
 -2.7532020e-01
  1.4290915e-01
 -5.5389725e-02
 -9.9019013e-02
  4.0909819e-02
  7.2780158e-03
 -9.9316137e-03
  8.8762352e-04
  4.7833398e-02
 -2.6923022e+00
  1.3821699e-01
  1.7619181e-02
 -2.1228449e-02
  1.0361844e-01
  1.5056574e-01
 -1.9807641e-01
 -1.2122074e-03
 -5.8441646e-02
  1.1580744e-01
  6.4676166e-02
 -2.7124619e-01
  1.0832084e-01
 -3.3939291e-02
 -2.2065049e-01
 -5.0234389e-01
  3.8966659e-02
 -1.6094275e-01
 -1.0766248e-01
  4.5923766e-02
  1.9381093e+00
 -2.4719974e-03
 -2.4683084e-02
  8.1350315e-01
 -9.8365265e-01
  3.9402954e-03
  6.5363079e-02
  5.3169656e-01
 -8.1356031e-01
  9.2509106e-02
 -1.4760504e-02
  5.9361570e-05
  3.4836733e-01
 -2.0540275e-02
 -5.4897016e-01
  4.4519037e-02
  1.2641849e-01
 -9.0925410e-02
 -2.3226568e-03
  4.2541954e-01
  2.5456727e-01
 -8.5257463e-02
 -1.2845266e-01
  1.8829631e+00
 -2.6882999e+00
 -1.5216218e-02
 -1.3631095e+00
  1.9899745e-01
 -1.0376713e+00
  1.0245647e+00
 -3.3062287e-03
 -6.0922738e-02
  8.9001727e-01
 -3.9458122e-02
 -3.6829883e-01
  1.2106271e+00
  3.7709826e-01
  4.6159346e-02
  4.6444904e-02
 -3.6201143e-01
 -5.7197679e-02
  4.9978456e+00
  4.6316129e-01
 -1.1555263e-01
 -1.1591614e+00
  1.3598038e-01
 -3.5184208e-02
  2.9169422e-01
  2.3169816e-02
 -1.0446399e-01
 -1.9320768e-01
  2.3196246e-01
  1.0452677e-02
 -4.2645881e-01
 -9.8330796e-02
 -1.4950442e-01
 -3.8830546e-01
  9.9333666e-02
 -2.5725186e-01
 -1.4134134e-01
  2.6628063e-03
 -9.1197379e-02
 -8.5789555e-01
  6.0055434e-04
 -1.4507841e-01
  2.2330682e-01
 -1.5988544e-01
 -2.5746141e-02
 -3.8253017e-02
  2.4092443e-01
 -3.9019942e-01
 -4.9998209e-02
  9.7309023e-01
  1.5513940e-01
  4.3161228e-01
  1.7665057e-01
 -1.0955507e+00
  1.4389409e-01
  2.8113015e+00
  5.3963310e-01
  1.4879053e-02
 -2.9453972e-01
  8.1710827e-01
  3.7920594e-02
 -2.5294968e-01
 -2.0078075e+00
 -4.6500120e-01
  2.3669781e-02
 -8.5560817e-01
  5.4907143e-02
  1.1993314e+00
 -5.5563245e-02
 -4.8999052e-02
  7.2509743e-02
 -1.2780085e-01
 -1.3411487e-02
 -8.4905438e-02
  1.4198970e-02
 -5.7299539e-02
  2.9717254e-02
  5.2847981e-02
 -6.4523660e-02
 -1.2850663e-02
 -1.2729542e-01
  1.8196840e-02
  8.0268428e-02
  2.4868542e-02
  6.0990620e-02
  2.9033752e-02
  1.3362080e-01
  1.0677046e-01
  1.8154386e-02
  1.6475366e-01
  5.2778415e-02
 -9.1916360e-02
  5.6336345e-03
  1.8606393e-02
 -4.9629927e-02
 -4.8534464e-02
 -3.1776685e-02
 -7.0914030e-02
 -3.4068782e-02
  6.9697060e-02
 -1.0875080e-01
 -3.3788744e-02
  4.1737109e-02
 -5.2379996e-02
 -1.5990794e-02
 -1.0079660e-01
  1.8641019e-03
 -2.8630141e-02
 -4.0780310e-02
  5.6128673e-02
  8.9918688e-02
  4.7107246e-02
  2.2556676e-02
 -6.4984754e-02
 -8.7124491e-03
 -3.8750554e-03
  1.1636637e-02
 -1.2910062e-02
  8.2268700e-02
  2.1411404e-02
  8.5783459e-02
 -3.6378533e-02
  3.2676954e-02
 -3.1693630e-02
  6.9114313e-02
 -5.3535932e-01
 -4.3278179e-01
 -1.2945151e-01
  2.1880873e-01
 -6.2971480e-02
 -6.4603135e-02
  1.1481047e+00
 -9.7194798e-02
 -3.7725173e-02
 -1.6312608e-02
 -2.6155036e-02
 -7.5034099e-05
 -4.2277940e-02
 -1.4419396e-01
  1.0962886e-01
 -8.1107363e-02
 -5.4925170e-02
  2.0602729e-02
  1.2953783e-03
  2.9023238e-02
 -2.7205637e-01
  1.0611425e-01
  4.6698593e-02
 -5.2044336e-02
  8.5139228e-03
  8.3434564e-01
  2.0097116e-02
 -2.4390979e-01
 -5.3385243e-02
  3.7010945e-04
  1.0659881e-02
  3.1108005e+00
  7.0153877e-02
 -4.7845739e-01
  2.3573600e-01
 -3.7765782e-02
 -5.6432430e-02
 -8.6815143e-01
 -7.3082820e-02
 -2.5539348e-02
 -5.1022186e-03
 -4.8205093e-02
  3.4781493e-02
 -2.2276158e-02
 -1.9024219e-02
  1.6160160e-02
 -1.6822521e-01
 -3.9804220e-02
  8.3722115e-01
  6.7088669e-03
 -2.0775045e-03
 -3.0426826e+00
 -9.1739617e-02
  4.3599144e-02
 -2.9019728e-02
  7.4009895e-02
 -4.5757014e-03
 -6.9390729e-02
  1.9092331e-02
 -7.7596381e-02
  3.7465487e-02
  7.4640073e-02
  9.3418896e-02
 -1.3765579e-01
  7.2348222e-02
  3.4374136e-02
  1.9953152e+00
  3.0514650e-02
 -1.0192333e-01
 -1.0864856e-02
 -8.6321637e-02
 -4.6645664e-02
 -1.6133735e-01
  5.4782718e-02
  2.6694197e-02
 -6.5901391e-02
  6.5816924e-02
 -5.9208319e-02
  3.5181943e-02
 -1.1260810e-01
 -4.3354154e-02
  5.5577882e-02
  6.2429301e-02
 -3.3350959e-02
  2.2361150e-01
  7.8151330e-02
 -3.3981227e-03
  9.5235683e-02
 -7.2485447e-02
 -4.7873408e-02
 -5.6551646e-02
  4.9730808e-01
  2.3412228e+00
  1.1400119e+00
  8.6131364e-02
 -1.6577664e-01
  2.4776964e+00
  1.8439523e+00
 -4.0841226e-02
 -1.3597909e-01
  2.0967801e-03
  6.2577671e-01
  2.5323060e-01
 -4.4890636e-01
 -1.6741707e+00
 -1.2835683e+00
  1.5426191e+00
  5.4528099e-03
 -1.1344697e-01
  2.4285614e+00
 -1.2450451e-01
 -1.1318692e+00
  6.7720823e-02
  7.4972875e-02
  3.6371771e-02
  1.8393241e-02
  8.8833384e-02
  1.6022348e-01
  1.6139152e-02
  3.0866649e-02
  6.7491221e-01
 -4.7776410e-01
  6.5763491e-01
 -9.7100317e-02
 -6.6940838e-01
 -9.6120727e-01
 -8.3318847e-01
  3.0233854e-02
  2.0914567e-01
  1.3819656e-01
 -5.8452380e-01
  2.5621783e-02
  1.2573339e+00
  1.2565601e-02
  9.9234216e-02
 -1.1022296e+00
  1.1867422e-01
 -7.3042703e-01
  9.3971714e-02
  6.6514611e-02
 -4.7289690e-01
  5.8041584e-01
 -1.6290933e-02
 -1.5667155e-02
  2.5182191e-02
  4.1572053e-02
  1.0266862e-01
  9.3537427e-02
  3.7921911e-01
 -4.5794678e-01
 -6.6784716e-01
 -1.8262465e-01
 -5.6557995e-03
  4.1378651e-02
 -2.5035046e-02
 -5.9316941e-02
 -9.3635079e-04
 -1.6472465e-01
 -7.3282346e-02
  1.1759461e+00
 -4.7502749e-02
  7.1385033e-02
 -7.6572105e-02
  4.3931708e-01
 -3.9947096e-02
 -1.1350898e-01
 -2.2759113e-01
  4.2185470e-02
 -1.6636381e-02
 -4.8793657e-03
 -1.4200366e-01
  4.2585870e-03
 -4.6449006e-03
 -6.2300943e-02
 -1.9047980e-01
  5.1626749e-02
  1.6372410e+00
  7.1021125e-02
  1.3151589e-01
  4.2047631e-02
  3.4108803e-01
 -7.2693855e-01
 -2.8364956e+00
  7.5668007e-01
  1.1077929e+00
  2.5611587e+00
 -8.0405223e-01
  7.6006967e-01
 -3.0406770e-01
  2.5242846e+00
 -7.6675065e-02
  7.7608474e-02
  5.5750877e-01
  9.6540797e-01
  2.7284654e-02
 -7.4254596e-01
 -7.7664447e-01
 -2.7680126e-01
 -4.0374076e-01
  5.7749474e-01
  2.0656796e+00
 -2.1859846e+00
 -7.3936331e-01
  3.1415860e-03
  1.6087087e+00
  2.2860540e-02
  1.9273052e-01
  2.4511781e-01
  2.9987186e-01
 -1.5000899e+00
  1.6220275e-01
  8.7643909e-01
  7.8883892e-01
  2.2175705e+00
  2.4207003e+00
 -2.3721813e-01
  2.2868712e+00
 -2.7306230e+00
  1.9038470e+00
  5.5093628e-01
 -2.3358290e+00
  6.3409269e-01
  6.2419224e-01
 -6.2115047e-02
 -1.7964946e+00
  5.4569883e+00
 -1.3052484e+00
 -5.2425772e-01
 -8.5475832e-01
 -1.8274975e-01
 -4.1832709e-01
  1.7677778e+00
 -1.0528731e-01
 -1.2026196e-02
 -2.4781680e-01
  2.9908875e-01
 -1.6267166e-01
  1.4803496e-01
  3.9966695e-02
  1.8466967e-01
 -1.6054373e-02
  1.5320250e-01
 -1.0710354e-01
  2.8680736e-01
  5.8073577e-02
  3.4612048e-02
 -2.7607062e-01
  6.1055630e-01
 -4.8220269e-02
 -1.7750977e-02
 -1.0279973e-01
 -1.1565565e-01
 -1.1990098e-01
  1.2494367e-01
 -8.0691196e-02
 -6.6234589e-01
  1.6457774e-03
 -4.3196481e-02
  4.6355650e-05
  3.9535582e-02
 -8.6115909e-01
  3.9798548e-03
  3.9875310e-02
 -1.9050005e-01
  3.3936247e-02
  2.0876892e-01
  4.5657977e-02
  1.0567374e-01
  4.2638347e-02
  3.0027695e-02
  1.0806539e-01
 -5.4973114e-01
 -2.1254413e-01
 -1.4732342e+00
  1.9608666e-01
  1.4480110e-01
 -2.6241863e+00
  8.1489563e-01
  1.0997193e-01
  7.4502923e-02
 -5.0189406e-01
  8.9028847e-01
  1.1812999e-01
  1.3710979e-01
 -1.7610613e-01
  2.6841035e-01
  1.0045384e+00
 -1.5262361e-01
  2.5209183e-02
  1.4693764e-02
 -5.6001610e-01
 -2.7580279e-01
 -2.2340001e-01
  1.5746601e-02
 -1.6447723e-02
 -2.6861446e-03
 -2.0429863e-01
  7.6416135e-02
 -1.0514641e-01
  2.9772776e-01
  5.3153789e-01
  9.6748933e-02
 -4.0193805e-01
 -2.2043992e-02
 -3.4013070e-02
  9.5290080e-02
 -6.0980298e-02
 -4.5083217e-02
 -3.5840355e-02
  7.4896296e-03
 -4.4712298e-02
  1.2210211e-02
  6.6959834e-01
  7.4501514e-02
  3.8507104e-02
  2.3094801e-02
  2.2037730e-02
 -6.1503258e-03
 -1.0253885e-01
 -6.9856778e-02
 -5.9534926e-02
  1.8672712e-01
 -1.4329264e-02
  1.0182299e-01
 -3.6922328e-02
  2.1040676e-02
  5.5685550e-02
  1.1861560e-01
 -4.3429937e-02
  2.0666279e-02
  7.5639701e-01
 -2.6355416e-01
  4.8469815e-01
 -4.8260350e-02
  3.5998014e-01
  9.0310001e-01
  2.1241672e-01
 -2.0630446e-01
  1.4637977e-01
 -1.3478034e+00
  5.1403850e-01
 -1.4900513e+00
 -1.1501902e-01
  2.5635402e+00
 -2.6472456e+00
 -4.3499485e-01
 -7.5190826e-03
 -9.1245580e-01
  8.8495426e-02
 -3.0561390e+00
  1.0222851e+00
 -1.4493436e+00
 -2.8052983e-01
 -1.1200351e-01
 -3.1081154e+00
 -1.9089520e-01
 -1.5250881e-01
  5.6625581e-01
 -2.6313069e-01
  1.8271904e+00
 -3.1109731e+00
  3.6201608e-01
 -1.9871883e-01
 -1.4895755e+00
 -8.5877009e-02
  3.8300240e-01
  3.8948074e-01
  1.5159914e-01
 -5.6774175e-01
  1.4338076e+00
  4.5461416e-01
 -1.1348267e+00
  2.0389134e-01
 -3.8828362e-02
  1.5172359e+00
  2.6311340e+00
 -5.1003808e-01
 -3.5323143e+00
  5.5029327e-01
  1.2343974e+00
  5.4224205e-01
  1.1283333e+00
 -2.9686312e-03
  1.2322252e-01
  8.5258329e-01
  1.4833736e+00
 -1.8474118e-01
  4.4692597e-01
 -7.1030937e-02
 -2.2147945e-01
 -1.4236118e+00
  1.4542971e+00
 -1.9145534e+00
  1.6665723e+00
 -3.7694904e-01
  7.8578871e-03
 -1.9631732e+00
  2.3213124e-01
  8.0606872e-01
  1.2064816e+00
 -7.5488603e-01
 -2.4401473e-01
 -1.4093130e+00
  3.2141201e-02
 -9.9293774e-01
 -1.1495528e-01
 -1.4242452e+00
 -1.4258713e-02
 -2.8912023e-02
 -2.5492501e+00
  1.5056362e+00
 -1.4170600e+00
 -1.3344722e+00
  7.1801551e-02
 -2.6843398e+00
 -4.8250325e-02
  2.5301624e-02
  1.8617440e-02
 -4.1131806e-01
  2.8924575e-01
 -5.6848156e-01
  1.0357231e+00
 -1.2718465e+00
  1.4557754e-01
 -5.6487370e-01
  1.3724512e+00
 -8.2355624e-01
 -1.8535947e-02
 -7.8916687e-01
 -8.6778104e-01
  1.1926978e+00
  4.2096364e-01
 -1.5202858e+00
  1.0903659e-01
 -1.5033154e-01
  2.4237623e+00
  2.5092772e-01
 -6.6700891e-02
 -4.7190409e-02
  5.0957929e-02
  4.0725598e-01
  9.6619874e-02
 -1.5799206e-02
 -1.4173076e-01
  2.5389314e-01
 -2.4707019e-01
 -2.5225902e-01
 -4.6968140e-02
 -4.9684099e-03
  4.5131981e-01
  6.4474322e-02
 -6.0529608e-02
 -1.5237400e-01
  4.8045728e-01
 -1.0722493e-01
 -2.3045814e-01
  3.7511200e-02
  2.3768467e-01
  6.3750744e-02
 -4.8043700e-03
  5.6505118e-02
 -3.5021061e-01
 -6.3265511e-04
  1.7738684e-01
  1.7949630e-02
  6.6867143e-02
  1.4304210e-01
  1.0642263e-01
  1.2885770e-01
 -2.9569861e-02
 -2.7417368e-01
 -2.1557983e-02
 -6.4134806e-02
 -5.4321978e-02
 -1.0541756e-01
  2.7193001e-01
  6.1507511e-01
  5.0764196e-03
 -8.8779218e-03
  2.3699647e-02
  3.2970719e+00
  7.1506083e-01
 -4.4940781e-02
  2.9058557e+00
 -1.8217446e+00
  6.1501628e-01
  1.0110285e+00
 -2.6278904e-01
 -6.9272923e-01
  1.9068897e-01
 -7.9036288e-02
 -2.0009062e+00
 -3.7197769e-02
  6.3405895e-01
  1.3196501e-01
 -2.4262226e-01
  2.4365957e-01
  7.5313467e-01
 -1.8105922e-02
  6.7161250e-01
 -1.5452398e+00
  5.4799116e-01
  7.8429721e-02
 -4.4673458e-02
 -9.6732295e-01
  1.9809055e-01
  4.1129332e-02
 -5.9955418e-02
  4.9073076e-01
  9.6992785e-01
  3.5092831e-01
  2.7277019e+00
  3.4326670e-01
 -4.2316893e-01
 -2.1810176e+00
 -7.5319052e-02
  6.7568116e-02
 -1.4313222e-01
 -5.4749485e-02
  5.8466834e-01
 -2.4737641e-03
  3.4782376e-02
  5.7721809e-03
  4.4905967e-03
 -1.0530376e-01
  5.2440631e-01
  5.4727882e-01
  4.7164545e-03
  1.5683751e-01
 -1.6776765e-03
 -3.5180107e-02
 -2.6980938e-02
 -1.1401581e-01
  8.1728995e-03
 -9.3053097e-01
  1.9307144e-01
 -1.5888417e-02
  1.3359242e-02
  7.6096389e-03
 -1.1461470e-02
 -2.1018560e-01
 -3.0159752e+00
 -4.2293675e-02
 -3.2642260e-02
  1.1341500e-01
 -1.3702057e-01
 -2.6901609e-03
  5.2281521e-02
 -9.3522832e-02
 -2.7838029e-02
 -8.4404252e-04
  9.2583239e-01
 -6.2154148e-02
  3.2604831e-01
  7.4138135e-02
 -1.2186049e-02
 -5.6130308e-01
  7.4273640e-01
 -4.4750504e-02
  1.2404880e-02
  2.3347642e-01
  2.8542390e-01
  4.5519698e-02
 -5.0382700e-02
  1.5614685e-01
 -1.8067108e-01
 -2.1409998e-02
  8.2977759e-03
  1.3997994e-01
 -7.7619241e-04
 -4.5779771e-01
  2.3364019e+00
 -9.6848555e-02
  9.3423121e-02
 -2.2184422e-02
 -5.0262427e-01
 -4.5353360e-04
 -1.1027461e+00
 -1.1366174e-01
 -1.9587760e-01
  1.6563255e+00
  1.1686442e-01
 -6.7368710e-01
 -9.5418185e-01
 -3.3646479e-01
 -3.0070553e+00
 -1.5602955e-01
  3.0203283e-01
 -7.8949928e-01
  5.1691432e-02
 -1.2885261e-01
 -2.9489881e-01
  2.9401717e-01
  2.5030637e-01
 -5.0203737e-02
  2.6086485e-01
 -1.4972949e-02
  3.7586510e-01
  5.0151944e-01
 -2.1857476e-02
 -2.6893225e-01
 -2.6395869e+00
  2.1788315e-03
 -1.9004215e+00
 -5.5033427e-01
  6.6987477e-02
 -5.4400746e-02
  5.4595079e-02
  5.7085627e-01
  5.1891357e-01
  1.6347060e-02
  6.5956935e-02
  3.3226479e-02
 -1.0778553e-01
 -5.1455301e-01
  8.9749657e-02
 -3.2471561e-01
 -3.6811015e-01
 -6.2398065e-02
 -3.5333198e-02
  1.9865428e-01
 -6.2773794e-01
  2.0838637e-02
  4.5243740e-02
 -4.1200232e-02
 -4.5102980e-02
  7.5445175e-02
 -7.7021122e-03
  5.0759584e-02
 -3.7806183e-02
  2.1234465e+00
  3.5233846e-01
  7.6864749e-01
 -2.4851978e+00
  2.0680185e-01
 -1.3317516e+00
  1.9637796e+00
  2.6836812e-01
 -2.5236231e-01
  1.4689142e+00
 -9.3355393e-01
  1.0013134e+00
  8.4290582e-01
  1.2818402e-01
  1.1920441e+00
 -4.6749976e-01
  2.3514470e-02
  2.1051013e+00
 -2.3143861e-02
  1.5142804e+00
 -2.8426406e+00
  2.0108273e+00
 -3.2779872e-02
  8.8717961e-01
  7.5235718e-01
  3.9303243e-01
 -1.3506740e-01
  3.5543218e-03
 -2.1279499e-01
 -2.1896298e+00
 -6.1941391e-01
 -3.4510701e+00
 -1.7798111e+00
 -8.3407015e-01
 -5.0295830e-01
  9.4852298e-01
 -2.5492830e+00
  8.5625505e-01
 -9.5588610e-02
  2.5901967e-01
  2.9353867e+00
 -2.6656127e-01
 -6.4998245e-01
  1.7315019e+00
  1.8694228e-01
 -1.9294395e+00
  8.2139099e-01
 -1.8948886e-01
  9.7399348e-01
  1.7303234e+00
  8.5614920e-01
  1.4571369e+00
  1.2151014e-01
  2.5693959e-01
  8.0866718e-01
  5.3055305e-02
 -2.9574936e-02
  2.0121261e-03
 -3.2444486e-01
  8.9301288e-02
 -7.8458279e-02
  2.4047981e-01
  1.0620365e+00
  1.7776853e-01
  5.5943644e-01
 -2.9175064e-02
  7.9437293e-02
  1.5344614e-01
 -9.6933886e-02
 -7.3142059e-02
  8.6232033e-03
 -1.4768438e-01
  9.3079373e-02
  3.5344511e-02
  9.6659614e-03
  5.6742001e-01
  3.5279202e-01
  5.1097536e-01
  1.5736319e-02
  6.3217318e-01
  4.9226990e-01
 -4.5188764e-01
  9.0044916e-02
 -1.5816581e-01
  2.6300237e-02
  4.5286953e-02
 -3.8007632e-02
  4.5517411e-02
  1.9158714e-01
 -2.3618548e+00
 -2.6477908e-03
 -8.2787849e-02
  5.6715207e-03
 -1.2089980e+00
  3.2165185e-02
 -2.5501577e-02
 -3.3836324e-02
 -5.8584311e-03
  5.0085492e-02
 -1.4398439e-01
  4.9497005e-02
  2.7392557e-02
  5.1086389e-02
  7.8018151e-02
  1.8312117e-02
  1.5107782e+00
 -3.0691703e-03
 -2.1074703e-01
  2.4631405e-03
 -8.0311276e-02
 -1.8787336e-01
  7.7118117e-01
 -5.0514329e-02
  5.7867378e-02
 -2.9233759e-03
 -1.0447623e-03
 -9.8747164e-03
  1.8249437e-02
 -9.4358243e-02
  1.0044122e-01
 -1.8778872e+00
 -1.1279740e+00
 -3.5236406e-01
 -1.0593390e-01
 -1.7781556e+00
 -1.9833542e-01
  1.5761878e+00
  2.7859576e-02
 -1.0174930e+00
 -6.3861561e-01
 -1.0717201e+00
 -7.6184201e-01
  9.5159638e-01
 -4.1377410e-01
 -7.1866459e-01
  1.4342841e+00
  1.1039071e+00
  2.6093459e-01
  1.3702922e+00
 -1.9033123e+00
 -1.7338281e+00
  3.9077827e-01
  3.3030298e-01
 -1.9137146e-01
 -1.5256804e+00
  1.7411182e+00
 -1.5514003e-02
  5.4708391e-01
  1.4843069e-01
  1.0090453e-01
 -1.2865773e+00
  6.4661914e-01
 -2.0876155e+00
  1.8047634e+00
 -2.0695632e+00
 -1.9567049e+00
  9.8513663e-01
 -2.6255363e-01
 -8.8354880e-03
 -1.5616588e-01
  1.1027685e+00
  3.6367638e+00
  3.6615592e-01
  1.8553320e-01
  1.0875462e+00
  4.8370537e-01
  3.2136914e-01
 -2.2977316e-01
 -1.6950062e-01
 -1.6130228e-01
 -8.1059468e-01
  3.5367286e-01
 -3.1253878e-02
  4.7571152e-01
 -7.9937649e-01
 -6.9818759e-01
  7.2987372e-01
  7.3358649e-04
  2.8935575e-01
  5.5290067e-01
  9.1010636e-01
  8.3359873e-01
  7.4868000e-01
 -2.4284120e-01
 -1.3855251e-02
  5.2558690e-01
  1.7435934e-01
  3.5424489e-01
  2.1264173e-02
 -9.0130895e-02
  3.0735588e-02
  4.5052919e-01
 -4.5825709e-02
 -5.0294679e-01
 -2.0994034e-02
 -8.0490410e-02
  6.5173060e-01
 -6.1067868e-02
 -5.1060879e-01
 -2.1906412e-01
  4.7695976e-01
 -2.1982805e-01
 -4.8832331e-02
  4.0569559e-02
 -2.0727035e-02
 -1.0270115e-01
  1.8418972e-01
  4.1159883e-02
 -2.4504211e-02
 -4.9331030e-03
 -6.4456649e-02
  8.4150356e-01
 -4.7481722e-01
  3.3520105e-01
  1.8274963e-01
  5.5151618e-01
  2.1582395e-01
 -4.8210484e-01
  5.3812325e-01
  3.5813935e-02
 -2.9604885e-01
  2.9521194e+00
 -1.2933679e-01
  8.7099366e-02
 -1.2050984e+00
  1.7445612e+00
 -2.0102195e-01
 -5.9601444e-01
 -3.4090224e-01
  1.8623863e+00
  9.0579003e-02
 -1.4429932e-02
 -1.4287750e-01
  1.6722710e-01
 -4.2042360e-01
 -9.3356064e-03
 -9.4616723e-01
 -2.3122481e-04
  6.7603163e-02
  8.6720741e-01
 -4.4351086e-02
 -3.9061014e-02
  1.6175019e-02
  5.1229242e-03
 -8.1160637e-03
  6.9530956e-02
  1.2715422e-01
 -1.1868680e-01
  1.3982736e-01
 -5.5519503e-02
  8.1894370e-03
 -1.0576306e-01
  6.9825649e-02
 -2.9511830e-02
 -4.4686530e-02
 -3.9056513e-02
  1.4417742e-01
  2.1897893e-02
 -3.7396476e-02
  7.1281895e-02
  1.3503735e-01
  6.1343931e-02
 -7.6555476e-02
 -1.1849353e-01
 -4.5081094e-02
  2.8095189e-02
 -1.3404330e-02
 -4.7702320e-02
  1.1390478e-02
  8.0023920e-03
 -1.0892586e-01
 -1.0966710e-02
  7.4575499e-02
  3.6819977e-01
 -1.9123591e-01
  8.0111906e-02
 -3.1849243e-02
  1.3918318e-01
 -4.3452825e-02
  8.3622289e-01
  5.3840015e-02
  1.0564530e-01
 -6.0653295e-02
 -7.1055695e-02
 -1.2694442e-01
 -1.5279084e-02
  1.6983027e-02
 -7.3131407e-03
 -2.6945986e-02
  4.7406543e-02
  1.4002813e-01
 -1.9632144e-02
  1.8994842e-01
  1.3110211e-02
 -8.9293569e-02
  3.4596834e-02
  1.5627325e-01
  2.4002891e-02
  7.0888609e-02
  1.1104676e-01
 -2.5450950e-03
 -6.6498327e+00
  2.4221586e-01
 -1.8282253e-01
 -2.7824814e-02
  8.6545989e-02
  3.1533852e-02
  2.1415787e-02
  2.1306343e-02
 -3.6577454e-01
  1.2895024e-02
  4.4445693e-03
  1.4684241e-01
 -1.3170142e-02
  3.9327660e+00
 -9.5640644e-03
  4.0118895e-02
 -3.0653032e-02
  4.9623828e-02
 -1.1256272e-01
 -9.7479649e-02
  1.1328665e-01
 -4.0885251e-02
  9.2051774e-02
 -8.7929681e-02
  1.4325688e-02
  8.8773653e-02
  8.1697160e-01
  1.3668397e-01
 -1.1905445e-02
  3.2085357e+00
 -9.2867047e-01
  2.2227876e+00
  1.7431030e+00
  6.0428560e-01
  1.1078869e-01
  1.8289064e+00
 -6.5386736e-01
 -1.8474466e-01
  2.5494236e-01
  1.0748601e-01
  3.6957657e-03
 -7.0891219e-01
  1.6923991e+00
 -3.4701329e-01
  3.4485769e+00
 -3.2085460e-01
 -1.3378717e+00
  7.1859068e-01
  4.2843652e-01
  2.1233103e+00
  6.7037845e-01
 -3.4519625e-01
 -2.4650714e-01
 -1.1241474e+00
 -7.0598620e-01
  8.1249237e-02
 -1.8482959e-01
 -1.1232553e+00
 -3.7532696e-01
  1.2726514e+00
  6.9114929e-01
  1.1282196e+00
 -1.7906305e+00
 -1.1101604e-02
 -1.0760925e+00
  1.0813874e+00
 -5.4992110e-01
  8.8706082e-01
 -7.5043654e-01
  1.5974766e+00
  2.2131412e+00
  7.4489868e-01
 -2.0703787e-01
  1.2741127e+00
 -9.3215197e-02
  1.6726638e+00
  1.4835262e+00
 -7.3375612e-01
  1.4360026e+00
 -1.1167923e+00
  1.5754850e+00
  2.3619964e+00
 -1.7736528e+00
  3.2130542e+00
  6.0080402e-02
  7.8142083e-01
  1.6483667e-01
 -7.4057341e-01
  1.2698556e+00
 -4.1322538e-01
  4.4772720e-01
 -4.2977676e-02
 -1.2368854e+00
  1.7036448e+00
  8.8296151e-01
 -7.6627828e-02
  7.7633655e-01
 -5.3066581e-01
  1.2928108e+00
 -1.1422956e+00
 -7.8148264e-01
  9.5583171e-01
  3.0522263e+00
 -1.7791685e-01
  2.1367502e+00
  3.0361611e-01
  5.4840499e-01
  8.6938724e-02
  3.9703494e-01
  3.5574096e-01
 -5.7969218e-01
 -1.2535761e-01
  4.1256525e-02
  1.9500762e+00
  5.4521751e-01
 -1.0953885e-01
  4.7598153e-02
 -1.4032547e-02
 -2.7274489e-01
  6.6607907e-02
 -1.3942282e-01
 -2.2585785e-02
  2.6550662e-02
 -1.6151616e-01
  4.9830023e-03
  3.8860932e-03
 -1.3427316e-02
  1.3632643e-01
  4.0991798e-02
  5.1797852e-02
  1.1578627e-01
  7.7915117e-03
 -4.5320387e-03
  2.0490563e-02
  3.8834475e-04
  1.7661546e-01
  1.3196291e-01
  4.2708836e-02
  8.7855104e-03
  1.1191915e+00
  1.5683714e-02
 -4.2926781e-02
  2.4883870e-02
  6.9058314e-02
 -5.2247951e-03
  5.4978039e-02
  9.7310673e-03
 -1.8291585e-02
  3.1689618e-02
 -1.0210649e-01
 -1.7221097e+00
  1.8387030e+00
 -3.2982361e+00
 -2.9537482e-02
 -1.2575367e-02
  1.2889494e+00
 -1.3670306e+00
  6.9755268e-01
  3.8003471e-02
  8.9440867e-02
  1.6452377e+00
 -1.9887216e-01
  3.0219105e-01
 -1.6934554e-01
 -4.7797602e-01
  9.9448925e-01
 -2.2328842e-02
  1.1713916e-02
 -2.2846769e-01
 -2.0020008e-01
 -1.5312418e+00
 -6.4729089e-01
 -1.5585745e-02
 -3.0803531e-01
 -3.1149501e-01
  6.4438684e-03
 -1.2460333e-02
 -6.1709982e-01
  2.0308457e-03
 -3.4327039e-01
  3.6788553e-01
  3.8025087e-01
  1.5401556e-01
 -1.1103784e+00
 -1.3790394e-01
  1.1511809e-01
  4.4418207e-01
  1.0082114e-01
  1.6591948e-01
  6.3900217e-02
 -1.3957791e-03
  3.3068216e-01
 -2.1061565e-01
 -1.2000713e-01
  2.4731666e-01
 -6.7982122e-02
  6.3431478e-01
  7.5324886e-02
 -4.5405403e-02
  2.9293275e-01
  8.1513159e-02
 -5.3746268e-02
 -1.5248334e-02
  3.7429217e-01
  6.3381437e-03
  5.2987599e-01
  1.4189188e-01
  1.2691629e-01
  6.2618013e-03
  3.7710321e-01
 -5.9955001e-02
  4.3761674e-02
 -5.8658224e-01
  1.7594847e-01
 -6.2385954e-02
  1.7164610e-01
 -1.6820994e-01
 -1.0016497e+00
 -8.9480348e-02
 -1.0085843e-01
  1.7777939e-01
 -4.9405634e-01
 -1.4519700e-02
 -1.0722949e-01
  7.3736981e-02
  2.3514879e-01
 -2.2138664e-03
 -4.6636250e-02
 -1.1213005e-01
  4.4562060e-02
  7.1462050e-02
  6.4428002e-02
  7.2638400e-02
 -8.1531182e-02
  2.9956177e-02
  3.0863080e-02
  8.4379159e-02
 -1.1221325e-01
  1.9067459e-02
 -4.5567021e+00
 -1.1033777e+00
 -1.6675742e+00
  2.9197434e-01
  7.6762062e-01
 -1.3871129e+00
 -1.5044603e+00
  1.0397200e-01
 -6.4340280e-04
  1.2177128e+00
 -8.5242221e-04
 -1.1508472e+00
 -4.2839864e-01
 -1.2989671e+00
  1.3847380e+00
  4.1699046e-01
 -2.0322394e+00
  2.5223210e-01
  2.1689322e-02
  1.8516208e+00
 -1.1125128e+00
 -1.6085675e+00
  5.7395101e-01
 -4.0395472e-02
 -2.9136288e-01
  5.4348640e-02
 -4.8393318e-01
  5.2126873e-01
 -8.9283012e-02
 -2.8325546e-01
  6.1385244e-01
 -8.6608306e-02
 -8.7520592e-02
  3.9016220e-01
 -1.1228271e-01
  3.0519240e-02
 -7.2068296e-02
  2.3209582e-01
  1.4548613e-01
 -5.1842850e-01
 -6.2782802e-02
 -1.7247809e-01
  4.2359818e-02
  7.7165455e-02
 -4.0179473e-01
  1.1617512e-01
  2.5690511e-01
 -3.2172561e-02
 -4.6538040e-02
 -2.4207611e-02
  1.3429172e-02
 -3.2130265e-01
  2.8350782e-01
  5.1308479e-02
 -4.4733405e-02
  4.5177225e-02
  1.9078632e-01
 -2.1203442e-02
  4.1773733e-02
 -1.4691174e-01
 -4.3388733e-01
  1.8838933e-01
 -4.8339331e-01
 -1.2304819e+00
 -1.3167252e-02
 -9.9308103e-02
  1.0862283e-01
  3.5899162e-01
 -3.0389993e-02
 -2.3987288e-02
  1.7617540e-01
 -7.1232036e-02
 -6.5802735e-01
 -2.4085129e-02
  7.5106852e-02
  5.1705278e-03
 -5.8766946e-02
  6.8370864e-02
  1.0584909e-02
  9.5783874e-02
  2.8627956e-01
  6.9837600e-01
  9.5187671e-02
 -1.3115464e-01
 -1.5754584e-02
 -9.9098064e-02
 -1.2651470e-02
 -2.3573067e-02
  1.3323136e-01
 -1.4228263e-01
  3.1984713e+00
 -2.4872217e+00
  8.5137820e-01
 -4.8311210e+00
  8.8615501e-01
 -1.9304175e+00
 -3.4136674e-01
  6.3229799e-01
 -1.7964209e+00
 -5.2741486e-01
 -2.3842282e+00
  5.8036560e-01
  1.9724436e+00
 -3.3467911e-02
 -4.2067891e-01
 -1.8340268e+00
  1.0742781e+00
  1.2198932e+00
  2.1006055e+00
 -1.5819921e+00
 -3.9837542e-01
  1.2660716e+00
  2.6133525e+00
  4.2143896e-01
 -6.1233730e+00
 -1.1696396e-02
 -4.5830581e-01
  1.4067425e-01
 -1.8406861e+00
 -8.6911544e-02
  1.1230688e-01
  2.9367334e-01
 -2.8392106e-01
  9.1546434e-01
  2.7014539e-01
 -4.2723510e-01
 -2.0768971e+00
 -8.6562775e-02
 -1.6436870e+00
 -2.7315571e+00
  1.8223418e+00
  1.3820705e-01
  7.5347021e-02
  5.4457849e-01
 -2.8102902e-01
 -5.2142835e-01
  8.0881733e-01
 -1.5414429e+00
 -1.7722157e-01
 -2.1158869e+00
  7.2375607e-01
  3.1230110e-01
 -1.6358304e+00
 -6.8273507e-02
  3.0219708e-02
  6.9352221e-03
 -8.4948568e-03
 -3.4101376e-01
 -2.6710382e-01
 -4.1876152e-01
  3.7781519e-01
  5.8011271e-02
 -2.8342120e-02
  3.6662224e-01
  1.7801388e-01
 -1.1578987e-01
 -3.0623622e-02
 -7.9601490e-01
 -6.8627670e-02
 -4.2701710e-02
  1.5243490e-03
 -1.7478380e-02
  2.7534708e-02
 -1.1868152e-01
  2.4114268e-01
 -6.5470004e-01
  3.5245800e-01
  3.6834281e-02
 -4.0640160e-02
 -4.1322749e-02
 -2.7722386e-01
  6.0514039e-01
  7.1104661e-02
  9.6789517e-02
 -6.1290301e-03
  6.3477731e-01
  8.5960001e-02
 -3.0634349e-02
 -1.7395321e-01
  2.2991098e-02
  1.5336795e-01
 -6.3752550e-01
 -4.2586291e-01
  1.9562252e-02
  1.3803254e+00
 -4.7044924e-01
 -1.6442876e-02
 -3.1947309e-01
 -3.4245256e-01
 -2.0693691e+00
 -3.8272575e-01
  2.6813731e-01
 -3.6672875e-02
  2.3695658e-01
 -3.1673488e-01
  9.0825760e-01
  4.0691662e-01
 -3.0713518e+00
  2.5637636e+00
  6.1371036e-02
  1.6422786e+00
  2.0912712e+00
  1.7378289e-02
  6.7352998e-01
 -2.3158336e+00
  7.5412855e-02
  6.1920293e-02
  3.8471512e-02
 -1.4716159e-01
  1.1390823e+00
 -1.0814968e-01
 -1.0933034e+00
  3.6684415e-01
 -2.7708313e+00
 -1.0794150e-01
  2.4904771e-01
  1.5449877e+00
  5.4810286e-01
  6.0434055e-01
  2.7405643e-01
  6.1174071e-01
 -6.5283161e-01
  2.2695017e+00
 -1.5210882e+00
 -4.1539111e+00
 -9.8245436e-01
 -1.8673662e+00
 -1.3580453e-01
  3.2510129e-01
 -1.0847617e+00
  4.1520083e-01
 -2.3771816e-01
  9.0239853e-01
 -1.4796799e-01
 -9.4748303e-02
  8.6898074e-02
  7.0364163e-03
  1.3939705e-02
  2.6371424e+00
 -3.8565323e-01
 -7.5491838e-02
 -5.8487964e-01
 -2.9086413e+00
 -3.8284695e-01
  1.5106113e+00
  2.3569534e-02
  5.1949817e-01
  8.1217162e-02
  9.0194672e-02
  1.7281840e+00
 -1.0420916e-01
  4.8084032e-02
  1.6292896e+00
  2.8081480e-01
 -1.6271738e+00
  4.7811446e-01
  3.5862732e-01
  1.3747938e-01
 -2.7950227e-01
  9.6537191e-01
  5.9305571e-02
  1.4007220e+00
  5.6536170e-03
  1.0739678e-02
 -4.7257282e-02
 -5.6671791e-02
 -2.5288752e-01
 -1.8628670e-02
 -1.6500326e-01
  8.2870221e-01
 -4.6460259e-01
 -7.4396336e-01
 -1.1301404e-01
 -6.6921192e-01
 -3.4677134e+00
 -1.0896964e+00
  7.9859316e-01
  2.8169721e-01
  8.7644589e-01
  3.3991122e-01
 -2.0469694e+00
 -2.6143637e-01
 -1.1294631e+00
 -2.7245080e+00
  2.5422671e+00
  5.9648681e-01
 -7.7123575e-02
  1.3828212e+00
 -1.3468900e+00
  2.0366659e+00
  6.6583902e-01
 -5.4933709e-01
  1.7134814e-01
  1.3565706e+00
  5.9462529e-01
 -1.8949341e-04
 -1.5013209e-01
  1.5414803e+00
  1.9059730e+00
 -8.4789491e-01
  1.9144328e+00
 -1.5225176e+00
 -5.6001735e-01
 -6.2922156e-01
 -2.5318112e+00
  6.1784583e-01
  1.7072045e+00
 -7.6923437e-02
 -6.1331964e-01
 -3.8074967e-01
  3.0252132e-01
 -8.8139600e-01
 -7.7184999e-01
  1.3797857e-01
  2.3181172e-01
  4.4619980e-01
 -9.6950883e-01
 -3.1157464e-01
  1.0719467e+00
  2.4161623e+00
 -4.1366391e-02
 -1.6266775e-01
 -1.0698880e-01
  1.5521203e-01
 -8.9787349e-02
  2.6682335e-01
  1.0053669e+00
 -9.9078901e-02
  8.9367545e-01
 -2.5996038e-01
 -5.6613928e-01
 -2.5004566e-01
  1.4296399e-02
 -4.6670117e+00
  6.3992780e-01
 -4.3737206e-01
 -5.7815343e-01
 -7.1327537e-01
 -2.2506008e-01
 -1.2886898e-01
  5.5683988e-01
 -1.4362336e+00
  2.2413151e-01
  4.7373253e-01
 -3.0059874e-01
  1.5454285e-01
 -6.7928702e-02
 -1.4444711e+00
  9.2716891e-01
  4.8180592e-01
 -1.1575186e+00
  2.0286586e-02
  1.5013947e-01
 -2.3736307e-01
 -5.4231811e-01
  2.1320026e+00
  3.6239374e-01
 -3.5400737e-02
 -3.2451841e-01
  3.3642119e-01
 -1.0426947e-01
  8.7227756e-01
  1.1468597e-01
  2.5567654e-01
  1.2026855e+00
 -3.6873597e-01
 -3.6812511e-01
 -3.9055681e-01
  4.2898911e-01
 -1.9586328e+00
  1.5594367e+00
  9.7000990e-03
 -2.4405335e-01
  5.1601853e+00
  5.3545993e-02
  3.4390703e-01
 -2.8628969e-01
 -1.8346329e-01
 -1.2724070e-01
 -1.2993761e+00
 -1.1245990e-02
 -1.1823705e-01
  9.7071874e-01
  2.3204064e-02
 -1.7269436e-02
  9.3927187e-01
 -1.3798060e-01
 -2.9842746e-01
  3.3139191e+00
  6.9125764e-02
 -3.2552272e-02
 -1.0235813e-01
  1.2016689e-01
 -8.8710971e-02
 -2.8271964e+00
  6.4101619e-01
  1.2534348e+00
 -1.1131681e+00
 -7.2645491e-01
  1.4852116e-01
  9.6962668e-02
 -3.7089846e-01
 -4.0877274e-01
 -1.5793748e+00
 -2.7565844e+00
  2.4963751e+00
  5.3243917e-01
 -4.0924081e-01
 -1.5895138e+00
  9.9379301e-01
  4.7203887e-01
  4.3152735e-02
 -9.3609679e-01
 -4.4553175e+00
 -3.1226000e-01
  1.2599669e+00
  8.2844160e-02
 -5.5841971e-03
 -1.5402647e+00
 -1.6198017e-01
 -5.0615418e-01
  1.8604000e+00
 -3.9537480e+00
 -2.6568813e+00
  2.6110034e+00
  1.8692067e-02
 -2.3768935e-01
 -8.5413888e-02
  1.8699425e-01
 -1.4067206e+00
 -3.0495623e-02
 -1.7221000e+00
 -3.4596014e+00
 -3.3853850e-01
 -7.2232431e-01
 -6.4726275e-01
  1.3251448e+00
  1.1677194e+00
  4.7079165e-02
  1.5293148e-01
  3.4787118e-01
 -1.3233482e+00
  1.9467990e+00
  9.0736844e-02
  1.8318175e-01
  3.0572872e+00
 -1.4717980e-01
 -1.2803152e+00
  3.2818705e-01
 -7.8250808e-01
 -2.8377788e+00
  2.1567395e+00
 -1.7129397e-01
 -5.2362196e-03
  2.2367058e+00
 -2.3976795e-01
  8.8153726e-01
 -2.8048577e+00
 -2.3551795e+00
 -2.6596119e+00
  1.8839431e+00
 -1.5789648e+00
 -9.2027599e-01
  3.9841339e-01
  4.9926618e-01
  7.9417610e-01
  1.1592491e+00
 -1.8891975e+00
 -2.6508722e+00
 -2.0860648e-01
  6.7232460e-01
  4.0213212e-02
  3.3493242e+00
  1.8415143e-01
 -1.8355112e+00
  1.7766089e+00
 -2.3741050e+00
 -1.1984624e+00
  7.5188482e-01
 -1.4761411e-01
  1.1268677e-03
  4.6425650e-01
 -3.0424495e+00
  1.9319062e-01
 -2.9026446e-01
 -1.1229570e+00
 -1.3569658e+00
  8.4026974e-01
 -2.3952122e+00
 -2.3120027e+00
 -6.2372214e-01
  6.6259384e-02
 -4.4095665e-01
 -4.2945451e-01
  3.1501679e+00
  1.0262029e+00
  7.2477120e-01
 -1.7631975e-01
 -2.5872457e-01
  7.4996120e-01
  2.9524907e-01
 -3.2346874e-02
 -1.5702609e+00
  4.6792169e+00
  3.1181843e+00
  1.6705283e+00
  5.0712657e-01
  6.7503415e-03
 -1.7820790e-02
 -2.8700015e-01
  1.5382983e-01
  2.0502248e+00
 -1.0131665e+00
 -3.8139586e+00
  8.3532071e-01
  6.5438390e-01
 -2.9548690e-01
 -2.7359791e+00
  3.0734083e-01
  2.0081957e-01
 -1.7712239e+00
  8.3909619e-01
  1.4100366e+00
  3.5712361e-01
 -5.1107090e-02
 -1.2407022e+00
  2.0342486e+00
  1.4854171e+00
  1.1134218e-01
 -2.6526350e-01
  6.6418195e+00
  4.0638394e+00
 -1.8364035e+00
  1.3013102e-01
  9.5496774e-01
 -1.0888036e-01
  1.2077472e-01
  5.2744476e-03
 -2.0059359e+00
  1.3021332e+00
  3.7700946e+00
  6.8341178e-01
  1.8154863e-01
 -8.2362801e-01
 -8.3568978e-01
 -4.6956447e-01
  5.5987054e-01
 -1.1312770e+00
 -7.3924637e-01
  1.3789152e+00
 -1.3298125e+00
 -1.9070688e-01
  4.0916929e+00
  1.6956381e+00
  1.8461062e+00
  4.8206025e-01
  1.2712432e+00
 -6.3230169e-01
  3.3049340e+00
 -2.6036530e+00
 -2.4846433e-01
 -1.5025600e+00
 -1.5188668e+00
  8.5550141e-01
 -7.8521550e-02
 -6.3623512e-01
  2.0202003e+00
  1.1905288e+00
 -4.2366955e-01
  4.7068842e-02
  1.0298648e+00
  9.4807935e-01
  1.5201281e-01
  3.3735755e-01
 -3.0828726e-01
  1.3799503e+00
  4.0838323e+00
  5.3228203e-02
 -1.3680544e-01
  3.6891580e-01
  3.2277715e+00
  5.1396586e-02
  3.5859592e+00
 -7.6345176e-01
 -4.2164424e-01
  2.5444658e+00
 -2.2764134e+00
 -2.9493564e-01
 -1.1450396e+00
  2.2932129e+00
 -5.8320388e-02
 -9.4959959e-03
 -5.5805677e-01
 -1.3079743e+00
  2.2116382e+00
 -2.2731752e+00
  1.3700871e+00
 -1.1136296e-02
  1.8508759e+00
 -8.4128335e-02
  3.6601864e-02
  4.6488214e-01
 -4.2521945e-01
 -1.1695591e-02
 -1.9456499e+00
 -1.7682728e-01
  9.9198842e-01
  1.7397660e+00
  2.5714381e+00
  2.4670897e-01
  1.0261134e+00
  9.9291676e-01
  5.0004411e+00
 -2.5691841e+00
 -1.7905019e-01
  1.1074347e-01
  7.8347111e-01
  5.2734762e-01
  1.9407781e-02
 -1.9325484e+00
 -3.6338750e-02
 -4.2231588e+00
  1.2832110e-01
 -1.3732471e+00
 -3.7307301e-01
  8.9249931e-02
 -2.0923750e+00
 -5.1456368e-01
  2.4377856e+00
 -2.1871409e+00
 -2.0007088e+00
 -2.2908640e+00
  2.3786563e-01
 -3.8305464e-01
  2.9921898e-01
  1.7644460e-01
  1.9717434e-01
  7.1933192e-01
  9.7962260e-01
  5.1286429e-01
 -7.3922527e-01
 -3.9870447e-01
  5.8157772e-01
 -2.1982796e+00
  2.6032841e+00
  5.5125839e-01
 -5.2124101e-01
 -2.0174734e-01
 -2.0193658e+00
  2.4252810e+00
  5.1708329e-02
 -6.1279356e-01
  2.4019866e+00
 -1.3907655e+00
 -1.2867315e-01
 -7.7141172e-01
  1.3330890e+00
 -2.5540030e+00
 -1.1873587e+00
  2.9804590e-01
 -1.5072854e-01
  3.4631500e+00
  8.7050974e-02
  2.0995426e+00
  3.0682116e+00
  6.8133339e-02
 -3.1615412e+00
 -1.8491377e+00
 -9.4422382e-01
 -9.0468600e-02
  9.8970056e-01
 -3.1587768e-01
  7.5967759e-01
  2.9976826e+00
  1.8074226e+00
  9.1620171e-01
 -9.7638732e-01
 -2.1504959e-02
  5.6850314e-01
  5.1801533e-01
  1.4178772e+00
 -2.2250389e-01
  1.6280438e+00
  1.3078997e-01
  7.1391326e-01
  2.5609655e+00
  1.3020680e+00
  9.5656626e-02
  7.2358263e-01
  2.0006469e-01
 -4.9714002e-01
  4.8109701e-01
  1.3328003e+00
 -1.8420882e+00
 -1.3292329e-01
 -8.5755265e-01
 -9.9764311e-01
  3.5064402e-01
  9.0842310e-04
  6.2489696e-02
  2.8312023e+00
  5.7282484e-01
 -1.4098890e+00
  7.0206302e-01
 -6.5764475e-01
  2.3999022e-01
  1.7530851e+00
  4.2244792e-01
  5.1493466e-01
  1.1948375e+00
  1.5495408e+00
  2.0409203e+00
 -1.0188762e+00
 -6.7656946e-01
 -2.6990624e-02
 -1.0858282e+00
 -4.4026393e-01
  9.9568588e-01
 -1.0605946e+00
  2.5240324e+00
  3.6264164e+00
  5.3030771e-01
 -6.2658593e-02
  5.7593149e-01
  6.7688876e-01
  2.3451048e-01
  1.2605108e-01
 -1.7503340e+00
  1.4577785e-01
  2.3283668e+00
 -7.2045219e-01
 -7.4379663e-03
 -6.0706586e-02
  2.6899014e+00
  1.5754245e-01
 -2.4912829e-02
 -1.5658892e+00
  4.1256089e+00
  2.3923943e+00
 -1.5200236e+00
  1.2325043e-02
 -5.5564929e-02
 -2.8865165e-01
  2.5758711e-01
 -9.0649173e-02
 -1.1641895e+00
 -4.1236696e+00
  5.8787382e-01
 -5.4733944e-01
  3.0006844e-01
  2.7402825e+00
  1.8260114e+00
 -1.0041870e+00
  7.6189047e-01
  7.2589791e-01
  1.2119480e+00
  1.1993328e+00
 -9.5917678e-01
  6.4467520e-02
  6.5943617e-01
  2.7138944e+00
  1.3911535e+00
  2.5685668e-01
 -1.4238654e+00
  1.8744611e+00
 -5.4666984e-01
  7.2891837e-01
  2.3296723e-01
 -3.2077227e-02
 -2.4731834e+00
 -6.3868156e-03
  3.8885176e+00
 -6.2675053e-01
  1.3480715e+00
  2.2424955e+00
 -2.5214760e+00
 -6.3114363e-01
  1.2917317e-02
 -1.2955561e+00
  1.8502124e-02
  1.4336270e+00
 -4.7793254e-02
 -1.4964101e+00
 -4.7352535e-01
 -6.9764966e-01
 -5.6372359e-02
 -1.7777479e-01
  5.6196821e-01
  1.5677083e-02
 -5.6933403e-01
  1.0492665e+00
  4.6323430e-02
 -8.8142782e-01
  1.1613479e+00
 -5.3036898e-02
  5.0288558e-02
  1.3344164e+00
  3.9173388e-01
  1.2871898e+00
  1.7357700e+00
 -2.9569423e-01
  2.2374611e+00
 -6.4561081e-01
  4.7617987e-02
  8.0802870e-01
 -2.3564763e+00
 -5.6275618e-01
  1.1853898e+00
 -1.1722826e+00
 -1.8512340e+00
  1.9568720e+00
 -3.5063112e+00
 -1.4369944e-01
  1.3037142e-01
 -4.2844969e-01
 -9.9097364e-02
  7.0230871e-02
 -1.2300347e+00
 -9.1533607e-01
  2.0119837e-01
 -1.7771339e+00
 -5.1557798e-02
 -2.8788027e-01
 -1.0656633e+00
 -4.4193298e-01
 -2.2488261e-02
 -1.1278106e+00
  5.7747811e-01
 -1.0005044e+00
 -3.3632796e-02
  7.6966755e-02
 -2.4455029e-01
  4.7375324e-01
 -5.1820558e-01
  4.5281678e-02
  1.1057696e+00
  8.9731258e-01
 -4.1277742e-01
  9.2901564e-01
 -9.0999109e-01
 -2.4389219e-01
 -2.1379280e+00
  9.3994832e-01
  5.0824189e-01
 -1.6191628e+00
  1.5188768e+00
  4.7278438e-02
 -2.1057349e-01
 -4.0787750e-01
 -6.4787155e-01
 -4.5327505e-01
  2.3838236e+00
  7.9512000e-01
 -8.8475031e-01
 -4.8876578e-01
 -1.5766228e+00
  9.7962749e-01
  6.7386448e-01
  7.3764104e-01
  2.0715256e-01
 -1.2562635e+00
  2.9331180e-01
  8.6151361e-01
  4.6906459e-01
  1.9639556e+00
 -7.5251406e-01
 -1.8011497e+00
 -8.8020319e-01
  1.3118091e+00
 -1.7911620e-01
  1.7144234e+00
 -1.1027576e+00
 -1.9959913e-01
  1.9789729e-01
  3.2653430e+00
 -1.4430127e+00
 -7.8072113e-01
  5.4699528e-01
  3.0279967e-01
  2.4494210e-01
 -2.9808362e+00
 -3.4397497e+00
 -5.2355194e+00
  2.8010547e-01
  7.9594994e-01
  5.9431881e-01
 -6.9062400e-01
 -7.6816803e-01
  1.0580392e+00
 -1.0191857e+00
  7.4066210e-01
  1.5330645e+00
 -3.3452322e+00
 -1.1226932e+00
 -4.7914067e-01
 -7.5384468e-01
 -8.5890055e-01
  2.0338991e+00
  6.5615004e-01
 -6.0198516e-01
  9.5005995e-01
  5.1004314e-01
 -3.5618657e-01
 -3.2853253e+00
 -1.8208867e+00
  2.3530777e+00
  5.0673313e-02
 -8.7157583e-01
 -1.8889323e+00
 -7.8801244e-01
  1.9247532e-01
 -8.5226542e-01
 -2.4487929e+00
 -3.2196683e-01
 -3.3583829e-01
 -1.6617665e+00
 -1.6722511e+00
  1.7807761e+00
 -1.1489347e+00
  9.0101397e-01
  5.2023160e-01
  1.2830495e+00
 -1.6740950e+00
 -8.3949852e-01
  4.8839366e-01
 -5.1096859e+00
 -6.9963712e-01
 -4.5569810e-01
 -3.6350267e+00
 -3.6867759e-01
 -3.1231338e-02
 -2.6312337e+00
  5.2458781e-01
 -1.3867277e-01
 -4.4754572e+00
 -2.3865573e+00
  1.9468980e+00
 -1.3900298e+00
  3.3085787e-01
 -2.0559397e+00
  1.9526444e-01
  4.1705203e-01
 -3.5253558e-01
 -2.1963582e+00
  2.9213706e-01
  1.8693049e-01
  9.6825665e-01
  1.4630425e-01
  8.6998403e-01
  1.9970921e+00
  9.7512239e-01
  4.9729431e-01
 -1.4977266e+00
  3.8936654e-01
  8.8292950e-01
  1.4181170e-01
 -1.3808941e-02
 -2.4313691e+00
 -3.1666512e+00
 -2.2277601e-01
  2.1346233e+00
 -1.4325168e+00
  9.8975694e-01
  5.2197218e-01
  6.3023275e-01
  4.0579081e-01
 -9.8376495e-01
 -3.6023551e-01
 -4.0755519e-01
  1.4724344e-02
  1.3553281e-01
  7.2821617e-01
 -3.9315668e-01
 -6.9486552e-01
 -1.2198752e-02
 -1.3254680e-01
  2.3053324e+00
  4.0705528e-02
  1.5362917e+00
 -2.2700601e+00
  6.9199944e-01
 -2.1237178e+00
  1.7995205e+00
  3.2093005e+00
 -8.1403381e-01
 -3.6975545e-01
 -6.9780523e-01
  1.9657952e+00
  1.3741837e+00
  9.0056872e-01
  1.5698154e+00
 -3.4150875e-01
 -6.1502282e-02
 -1.9544712e+00
  8.4528267e-01
 -6.4170778e-01
 -1.1178216e-01
 -5.9735960e-01
 -3.9091237e-02
  2.9064953e+00
 -3.4329939e+00
 -1.9192722e+00
  3.6630970e-01
  1.5436205e-01
 -4.8467726e-01
  2.2447693e+00
  1.2857468e+00
 -1.0883571e+00
  9.3072915e-01
 -6.5476936e-01
  1.3337333e+00
 -1.6961917e+00
 -2.7323067e+00
 -1.2973794e-01
 -1.2355260e-01
  2.3255243e+00
 -1.3842034e+00
 -5.7453597e-01
  1.6321915e-01
  4.1113466e-01
 -1.1066797e+00
  1.1943863e-01
 -8.2616699e-01
  8.8919991e-01
  9.5658362e-01
 -5.8918244e-01
 -1.0010875e+00
  4.5817935e-01
 -4.5516992e-01
 -1.9367084e-01
  8.6350226e-01
 -4.3018845e-01
  2.1600530e+00
 -8.4407598e-01
  7.8267717e-01
 -8.6246961e-01
 -5.1013917e-01
  2.3628360e-01
 -3.1453454e-01
  2.0364382e+00
 -1.6233265e+00
  3.6836132e-01
 -1.5078278e-01
  1.3133944e+00
  2.3722707e-01
 -7.2041100e-01
  4.3920857e-01
 -6.4955622e-01
  1.1158644e+00
 -9.8386854e-02
 -4.3083170e-01
  1.9008105e-01
  1.9420773e-01
  8.3277363e-01
 -6.8231410e-01
 -1.7970735e-01
 -1.3149644e-01
  1.6605581e-01
  1.0316397e+00
  5.8799565e-01
  5.9514183e-01
 -5.2363998e-01
  7.6273507e-01
 -2.1951550e-01
 -9.3133405e-02
 -3.5557875e-03
 -4.2583298e-02
  1.2171472e+00
  1.0276542e+00
  5.8164042e-01
 -6.9292158e-01
  2.8611138e-01
 -2.2117354e-01
  1.9942434e-01
  3.0868342e-03
 -5.7682672e+00
  1.7111464e+00
  1.8924694e+00
 -1.8078477e+00
 -1.9840369e-01
 -2.3241073e-01
  9.3581891e-01
  1.7054008e-02
 -2.1669043e-03
 -7.6382309e-02
 -2.0406984e-02
  2.4886373e-01
 -8.7623471e-01
  3.9868262e+00
 -1.9593849e+00
  2.5501459e+00
  9.7874708e-02
  2.8332871e-01
  6.5371877e-01
 -4.6627689e-02
 -1.2018267e-01
 -3.0030382e-01
 -2.5643609e+00
 -3.5213952e+00
  3.6066791e-01
  3.9482829e-01
  4.2663569e+00
  2.1073196e+00
 -3.8818095e-02
  6.3729048e-02
  2.7904654e-01
 -6.3383275e-01
 -1.7032152e+00
 -3.1615776e-01
  5.6566656e-01
  1.5691751e-01
 -5.8021116e-01
  3.9609224e-01
 -7.2816497e-01
  4.1992803e+00
  4.8055664e-01
 -1.0411250e-01
  1.2771696e+00
 -2.4516806e-01
  5.3571904e-01
 -1.4744216e+00
 -7.1074599e-01
  6.5469950e-02
  1.1269695e+00
  2.3236670e-01
 -8.7738150e-01
  3.2397322e-02
 -4.9524764e-03
  6.6777125e-02
 -2.6419921e+00
  5.1904476e-01
  7.6318181e-01
  8.3687228e-01
 -1.2771643e+00
 -2.5642574e+00
  9.6861559e-01
 -3.0886647e-01
  3.9314044e-01
  6.9815654e-01
  1.1854765e+00
 -2.2456396e-01
 -7.9730058e-01
 -2.8895167e-01
  1.5529694e-01
 -2.2256257e-01
 -2.0031670e-01
 -1.6317286e+00
 -2.3125716e-01
  4.5324403e-01
 -6.5616584e-01
 -7.8920734e-01
 -2.0492338e-01
  6.1121982e-01
  6.0676485e-02
 -2.0269766e-02
  9.8107420e-03
  6.6651797e-01
  1.9300606e+00
 -1.0707788e+00
 -3.0780036e+00
  2.4190009e-01
 -1.3236007e-01
 -1.5099964e-01
  3.2978114e-01
  2.4541411e+00
 -3.0931491e-02
  6.3370866e-01
  2.4731967e+00
 -1.7093120e+00
 -8.6540329e-01
 -7.8043038e-01
  6.6248810e-01
  1.3775425e-01
  2.6797559e+00
  2.9337862e-01
 -4.3104503e-01
  3.7596128e+00
 -2.0723293e+00
 -4.6525899e-01
 -1.1083167e+00
  5.5997390e-01
 -6.5093875e-02
  1.3222371e+00
 -3.6167148e-01
 -9.8005939e-01
  2.0746918e+00
 -2.6279145e-01
 -2.4412259e-01
 -6.2169296e-01
  3.3919287e-01
  1.1464584e+00
  1.7842144e+00
 -5.9839683e-03
 -9.8178011e-01
 -2.0925460e+00
 -1.3007787e+00
  3.4275732e+00
  2.1440024e+00
 -4.4969261e-01
  1.6529612e-02
  1.5133533e-01
 -3.6710167e+00
 -1.3875176e-01
 -1.2771556e-01
 -3.1049950e+00
  6.9675034e-01
 -2.8962889e+00
  2.4164171e+00
  2.9141757e-01
 -9.8828185e-01
 -1.1961744e-01
 -2.5233760e-01
 -8.8581628e-01
  4.9562025e+00
 -1.3485136e+00
 -8.8409513e-01
 -6.9416571e-01
  2.1448700e-02
 -2.6332271e-01
 -5.1660979e-01
 -2.9948348e-02
 -2.1291461e+00
 -1.0911931e+00
 -1.0954294e+00
  5.7080626e-01
  5.6039894e-01
  1.0792162e-01
  1.9807842e-01
  4.9845797e-01
 -1.2028271e+00
  1.6618839e-01
 -1.7853767e-01
 -5.1202482e-01
 -2.1041477e+00
  3.2012385e-01
 -4.8995191e-01
  9.1030103e-01
  3.7406175e+00
 -5.2502394e-01
 -1.6596358e+00
  5.9478444e-01
 -7.8773618e-01
 -3.0918276e+00
 -1.7673283e+00
  2.5480303e-01
  2.3953909e-02
  1.1117711e+00
 -2.2895968e-02
 -1.1062896e+00
 -4.2346796e-01
 -9.7548687e-01
 -1.4736568e+00
 -8.3613700e-01
 -7.4437760e-02
  2.9272506e-01
 -1.7426651e+00
 -8.2086056e-02
 -7.1441537e-01
 -9.7447032e-01
  7.6677376e-01
  3.3307350e-01
  2.1477041e+00
  1.3770297e+00
  1.4565064e-01
 -1.6090835e+00
  5.7257593e-01
  2.9712299e-01
  8.2864177e-01
  1.9144430e+00
  5.9396303e-01
  3.1178131e+00
  9.3373984e-01
 -1.5490829e+00
  2.8148592e-01
 -4.9577445e-02
 -9.3128973e-01
  3.1960076e-01
  9.1088122e-01
  6.8470150e-02
  1.4523029e+00
 -6.1177158e-01
 -5.7306105e-01
 -1.0797948e+00
 -6.8311566e-01
 -3.9045423e-01
  4.7219333e-01
 -1.2151133e+00
  9.2116642e-01
  1.4524608e-02
 -1.3823907e+00
  2.0789346e-01
 -1.3940314e+00
 -9.1598225e-01
 -7.3981184e-01
  4.0286180e-02
 -1.7269185e+00
  5.8314842e-01
  6.9410168e-02
 -7.0189244e-01
  1.1229439e+00
 -1.0480201e+00
 -4.3003529e-01
 -9.0924293e-01
 -9.6806116e-02
 -9.3794596e-01
  4.9348354e-01
  8.9512706e-02
  2.7325103e-01
  1.2936097e-01
  9.2977893e-01
  9.7633493e-01
 -8.3417302e-01
 -5.4023367e-01
 -5.1962829e-01
  8.8791913e-01
  1.3897240e+00
 -6.6548176e-03
  6.7703001e-02
  1.1155951e+00
  6.1425488e-02
  1.1258458e-01
 -4.0058887e-01
 -3.2276218e+00
 -9.3211633e-01
  9.0892047e-01
  3.2568651e-01
 -6.8477035e-01
 -6.6927874e-01
 -4.3127644e-01
  8.3679304e-02
  2.5597703e+00
  1.8213575e+00
  2.5709102e+00
  2.9476044e-01
 -3.3954522e-01
  1.7405617e+00
 -1.4470351e-01
  7.5521648e-01
 -9.5324606e-02
 -3.1296521e-01
  2.9021623e+00
  9.6173525e-01
  1.6525620e+00
 -6.9645960e-03
 -2.5047848e-01
  1.1585759e+00
  3.9302148e-02
  1.5508469e+00
 -3.6525846e+00
  1.6485504e+00
 -2.0383010e+00
 -4.6795722e-02
  1.1614455e+00
 -4.1090287e-02
 -1.3706945e+00
 -1.2108277e+00
 -6.8733865e-01
 -8.7142664e-01
 -5.5678374e-01
 -4.1915688e-01
  5.2783018e-01
 -5.6895822e-01
 -8.8639200e-01
 -2.6664016e+00
 -6.6797560e-01
  4.9236184e-01
  2.1703520e+00
 -1.1723346e-02
  1.4262640e+00
  1.0544263e+00
  1.8974183e-01
 -1.9096451e-01
  1.9035574e+00
 -9.9925524e-01
 -1.2841707e+00
  2.7889552e+00
  7.0471060e-01
  8.6521611e-02
  1.2744232e+00
 -5.7919878e-01
  2.9968519e+00
 -5.1276380e-01
 -1.4416837e+00
  7.5481695e-01
  1.3292102e+00
 -2.5693938e-01
  7.8773141e-01
 -1.1904000e+00
 -1.9631408e+00
 -5.1905525e-01
 -8.2001120e-01
  1.0548931e+00
  1.9691049e-01
 -5.0462361e-02
 -1.3656360e+00
  8.4072214e-01
 -2.1653018e+00
 -1.7106181e+00
 -3.3281372e+00
 -1.5287946e+00
  1.9352579e+00
  3.2224858e-01
 -8.7862444e-01
 -1.3572628e+00
  3.3036467e-01
 -2.0310183e+00
 -1.1430756e+00
 -3.8176374e+00
 -6.8688452e-02
  1.1231607e+00
 -1.3615271e+00
 -1.1797116e+00
 -3.4704328e-01
  7.0624387e-01
 -5.8223522e-01
  1.3714103e-02
 -1.2226948e+00
  2.6930258e-01
 -1.9824338e-01
 -4.8865026e-01
 -9.2079425e-01
  2.1445447e-01
  8.0589515e-01
  4.7643021e-02
 -1.3712975e+00
 -7.5893039e-01
 -1.7927879e+00
 -1.6356863e-01
 -3.0069211e-01
 -1.0934385e+00
  9.7826982e-01
  1.6324298e+00
  3.4769267e-02
  4.6079308e-01
 -3.4431532e-01
 -5.3364148e+00
 -4.5799866e-02
 -5.9298340e-02
  1.6356687e-01
  3.7030301e+00
  2.0581203e+00
  5.3355417e+00
 -1.2764154e-01
  1.0595217e+00
  2.2446516e+00
 -2.1588533e-01
 -4.5826888e-01
  2.8620431e-01
 -2.1163268e+00
 -3.6586399e+00
  1.4014853e+00
  1.8894025e+00
 -3.2431948e+00
  1.8054608e+00
 -8.6149764e-01
 -1.2674884e-01
  1.6341573e+00
 -5.9675914e-01
 -6.4360332e-01
 -5.6210196e-01
 -6.2537175e-01
 -5.1403546e+00
  4.5912477e-01
  2.9239578e-02
 -2.5235477e-01
 -3.3574742e-01
  9.3462908e-01
  1.5275525e-01
  1.9023801e+00
 -2.8793323e+00
 -1.8844935e+00
  2.8375411e-01
 -5.1914942e-01
 -3.2347637e-01
 -8.1221038e-01
 -1.1378651e+00
  2.2448263e+00
  6.5503937e-01
 -1.2377365e+00
 -9.8544914e-01
 -1.4583796e+00
 -2.2805598e-01
 -1.6160393e-02
  2.1425741e+00
 -1.6955968e+00
 -1.7290958e+00
  5.6696966e-02
 -2.2107773e-01
 -1.6779202e+00
 -3.3237207e+00
 -7.2625130e-03
  1.4778545e-01
  2.5892541e-01
  1.1127294e+00
 -6.1921662e-01
 -1.8121798e-01
 -2.2983093e+00
  1.1246555e+00
  1.2321959e-01
 -6.1187059e-02
 -4.2309397e-01
 -2.6983368e-01
  2.5706394e+00
  6.3783807e-01
  5.9072256e-01
 -2.1152146e+00
  4.6751335e-02
  2.1836805e+00
  6.0105908e-01
 -5.8898294e-01
  1.1547837e-01
  7.9070270e-01
  2.1563284e+00
 -7.9030097e-01
  9.8749691e-01
 -2.2699485e+00
  2.7209620e+00
  4.9924366e-03
  7.4800903e-01
  1.6320845e+00
 -3.1745702e-01
  4.4206676e-01
 -1.3101580e+00
  2.5385230e+00
 -2.5573540e+00
  6.5742826e-01
 -1.8504763e-01
 -1.3114802e+00
  2.4214072e+00
 -2.5512978e-02
 -5.6126702e-01
 -9.2248327e-01
  8.8634866e-01
 -6.5750539e-01
  3.4850836e-02
 -7.6959264e-01
  2.7602706e-03
  8.0315745e-01
  4.0493092e-01
 -1.2953608e+00
 -1.5199617e-01
  8.7704957e-03
  8.7704957e-03
  8.7704957e-03
  8.7704957e-03
  8.7704957e-03
  5.4161865e-02
  5.4161865e-02
  5.4161865e-02
  5.4161865e-02
  5.4161865e-02
  1.6302733e-02
  1.6302733e-02
  1.6302733e-02
  1.6302733e-02
  1.6302733e-02
  8.6065130e-03
  8.6065130e-03
  8.6065130e-03
  8.6065130e-03
  8.6065130e-03
  1.9958322e-03
  1.9958322e-03
  1.9958322e-03
  1.9958322e-03
  1.9958322e-03
  6.6889306e-03
  6.6889306e-03
  6.6889306e-03
  6.6889306e-03
  6.6889306e-03
