nep4 3 Ca Si O 
cutoff 7 5 219 86
n_max 4 4
basis_size 12 12
l_max 4 2 0
ANN 50 0
  5.4322213e-01
  1.5023351e+00
  9.8488754e-01
  3.2347307e-01
  8.2957935e-01
 -3.4808204e-01
 -1.1105871e+00
  1.4416473e-01
 -2.5340293e-02
  8.7152553e-01
 -1.2574886e+00
 -2.1517556e+00
  1.0370585e+00
  1.0258977e-01
 -1.1168572e-01
 -4.1673958e-01
  3.5040954e-01
  3.2319424e-01
  1.0383528e-01
  2.4343593e-01
  1.9486584e-03
  1.3094591e+00
  2.6594961e-01
  2.1691670e+00
  1.8955319e-01
 -4.1576630e-01
 -4.6893457e-01
  3.1308770e-02
 -1.5132904e+00
 -1.9807976e-01
 -6.0035706e-01
 -7.4107546e-01
  3.2035613e-01
  4.5055154e-01
  8.6625838e-01
 -5.3141487e-01
 -5.0042033e-01
  1.1173950e+00
 -5.4277903e-01
 -5.4724431e-01
 -1.6957313e-01
 -4.5169044e-01
  2.6444241e-02
 -1.4175937e-02
 -1.2264285e+00
  2.4365474e-01
 -1.9135037e-01
 -1.3625741e-02
  1.9751880e-01
  2.7402077e-02
 -3.6744198e-01
  1.2605304e-01
 -5.2361494e-01
  1.0515709e+00
 -2.0116833e-01
 -4.2420229e-01
 -4.3070823e-01
 -1.5844104e-01
  3.7035206e-01
  1.8252987e-01
 -9.0231404e-02
  2.9518489e-02
 -7.8351569e-01
  1.2521698e+00
 -3.0145836e-01
 -5.3022802e-02
 -1.6393578e-01
  4.3404824e-01
 -4.8088586e-01
  2.9300195e-01
  8.3432734e-02
 -4.3311235e-01
  6.5289997e-02
  8.0513036e-01
  4.2735003e-02
  5.2631551e-01
 -2.7578324e-01
  1.4533149e-01
 -1.0073727e-01
  1.1613017e+00
 -3.2849669e-01
 -3.2733351e-01
 -6.8259895e-02
  5.8392715e-01
 -3.1089410e-01
  2.4152417e-01
 -3.8344920e-01
 -4.8059031e-01
  2.2567812e-01
 -1.6331273e-01
 -1.5096228e+00
  5.6238532e-01
 -6.0250241e-01
 -6.6795170e-01
 -1.2350260e+00
 -4.3008280e-01
  1.5905374e+00
  1.8138725e-01
 -9.7089130e-01
 -5.6308913e-01
  1.3679324e-01
  1.4578512e-01
  3.3916733e-01
  2.7887605e-02
  6.8402654e-01
 -1.3944901e+00
 -6.3455540e-01
 -6.4084107e-01
  1.3333930e-01
  1.4922301e+00
 -1.1836782e-02
 -5.1142055e-01
  1.2484450e+00
  2.5336045e-01
  5.0949085e-01
 -4.6764932e+00
 -4.9164739e-01
  6.8257415e-01
 -1.5435284e-02
  7.9214774e-02
  1.2126828e+00
  5.0242901e-01
 -1.1978879e+00
  8.9483604e-02
  4.1398153e-01
 -2.1560358e-01
 -3.0088940e-01
  7.6855648e-01
 -2.7396894e-01
  1.0896654e-01
  1.5481588e-01
 -9.4005808e-02
  4.7461253e-01
 -2.9375598e-01
  7.9332745e-01
 -1.5466341e-01
  2.6199805e-02
  7.1204372e-02
  5.1283920e-01
  1.0335234e+00
  5.0893831e-01
 -7.6456088e-01
 -9.8362550e-02
  4.7635117e-01
  1.0497624e+00
  2.8372526e-01
  6.1010873e-01
  7.1388644e-01
 -2.1754745e-01
  9.9868059e-01
  3.5347807e-01
  8.0421120e-01
 -5.8006804e-02
  8.3327049e-01
  1.0584377e-01
 -9.9000823e-01
  7.5276560e-01
  1.8276781e-01
 -8.0387664e-01
 -4.0500653e-01
 -2.9958969e-01
 -1.6510355e-01
  4.4427514e-01
  4.1883159e-02
 -1.9664776e-02
  6.7476398e-01
 -1.4092796e+00
 -4.9554637e-01
 -5.1256824e-01
  5.8355790e-02
  8.8386780e-01
 -4.7057968e-01
  3.3464670e-01
 -1.2130328e-01
 -4.2566195e-01
 -5.3532559e-01
 -3.1060407e-01
  2.4190186e-01
 -3.5919446e-01
  5.5329311e-01
 -2.4221167e-02
 -2.9220178e+00
  2.2950986e-01
  2.0409904e+00
  1.4216419e+00
  2.5408673e-01
  1.8666500e+00
 -1.4598527e+00
 -3.4601432e-01
  1.6387864e+00
  5.7857431e-02
  9.0168709e-01
  2.1963583e-01
 -3.9213437e-01
  1.5253484e+00
 -1.8878268e+00
  3.4742817e-01
  1.2099369e+00
  5.0311852e-01
  7.4871278e-01
  3.8162166e-01
  2.7451718e-01
  6.6301638e-01
  9.0278727e-01
  1.7601573e+00
 -4.2648934e-02
  3.4594417e-01
  9.9706173e-02
  1.0346745e-01
 -4.0167589e-02
 -1.1314168e+00
 -1.6211218e+00
  6.1055893e-01
 -2.5221759e-01
  8.4622145e-02
 -3.5351491e+00
  5.8290231e-01
 -2.1174422e-01
 -1.5362118e-01
  4.4615731e-01
 -7.2099942e-01
  2.0262957e-02
 -6.4323626e-02
 -4.0801901e-01
  4.4801918e-01
  7.1069950e-01
 -4.6184021e-01
  2.5053298e-01
  6.4591914e-01
  3.0519336e-02
  1.7331706e-01
  4.6126360e-01
  5.9801447e-01
 -2.5347865e-01
  1.5546873e-01
 -1.8434781e-01
  6.0242689e-01
 -1.1672438e+00
  6.0719001e-01
 -4.5610994e-01
 -1.0922144e-01
  1.2048090e-01
 -1.0019184e+00
 -9.8964846e-01
 -5.9424717e-02
  4.6159634e-01
 -3.0191219e-01
 -1.7148945e-01
 -5.3174084e-01
 -1.9204496e-01
 -8.6316186e-01
  2.2382486e-01
  5.4749858e-01
  1.8752152e-03
  6.8147518e-02
 -2.3969945e-02
 -1.5361637e-01
  6.5583760e-01
  7.1090955e-01
 -2.4172181e-01
 -4.5982841e-01
 -1.6509877e-01
  5.0940984e-01
 -7.3175788e-01
  1.0360479e+00
  3.9611331e-01
 -1.3563582e+00
 -8.0689245e-01
 -2.8253296e-01
 -2.3029917e-01
 -1.4252332e+00
 -1.0720975e+00
 -5.2032512e-01
  8.2917625e-01
  1.7392825e+00
  1.0009448e-01
 -5.0284898e-01
  3.4633762e-01
  1.2725277e+00
  4.7544393e-01
 -8.0245189e-02
  3.1758982e-01
 -3.7348270e-01
 -8.1146020e-01
  1.8903574e-01
  1.4771113e-01
 -1.2075213e+00
  1.4341433e-01
 -1.0577866e+00
  2.4588661e+00
  1.5504658e-01
  2.0871559e-01
 -1.2566806e+00
 -1.1085441e+00
 -2.7692723e-01
 -3.2104656e-01
 -7.6835304e-01
  1.4326540e+00
 -2.9344941e-02
 -1.3736822e-01
  4.9277997e-01
  3.7213752e-01
  5.2873170e-01
  1.3243103e+00
  2.5874171e-01
 -6.4220655e-01
  2.1901956e-01
 -3.2780352e-01
  7.9985923e-01
 -3.2128036e-01
  3.4381050e-01
  3.8666517e-01
 -2.1249655e-01
 -7.2336473e-02
  1.1239581e-01
 -6.6809756e-01
  2.0723066e-01
  7.5700015e-01
 -7.9468262e-01
  1.6514378e+00
  1.3676243e+00
 -4.6622801e-01
 -1.5348788e+00
  1.6955352e-01
 -3.0511668e-01
  1.2440834e+00
 -5.9324241e-01
  5.8312088e-01
  3.5544938e-01
 -4.3992188e-02
 -2.4971184e-01
  4.9665594e-01
 -2.4518242e-01
 -6.0173269e-02
  1.2065316e-01
 -7.1336728e-01
 -1.2464081e-02
 -4.7061637e-01
  1.7749815e-01
 -5.8519322e-01
  6.4654815e-01
  6.1581083e-02
  8.4417480e-01
  5.1184803e-01
 -5.5176353e-01
 -4.0182671e-01
 -1.7715199e-02
 -6.1492962e-01
  2.1442552e-01
  1.2898958e+00
  2.2322552e-01
 -1.6312771e-01
 -4.6468180e-01
 -2.6076698e-01
 -2.3075932e-01
  3.3071062e-01
  2.5203842e-01
 -2.9702789e-01
 -1.1133009e+00
 -1.0202411e+00
  4.6923211e-01
 -5.3246599e-01
 -3.8652873e-01
 -1.3995950e-01
  5.3532559e-01
  7.2589673e-02
 -1.1006546e+00
 -3.2198751e-01
 -2.2850206e-01
 -4.6334335e-01
  4.3098271e-01
  5.6781638e-01
 -2.1102881e-01
 -2.4679692e-01
  9.2107713e-02
  5.9993339e-01
 -4.0555177e+00
  2.8161356e+00
 -1.9842020e-01
  5.3377318e-01
 -4.2666376e-01
 -3.0726379e-01
  9.1698086e-01
 -4.9404043e-01
 -2.4912086e-01
 -3.9145175e-01
 -1.5645790e+00
  6.8685538e-01
  4.8549813e-01
  4.1633344e-01
  1.4671018e+00
  1.6309424e-01
  1.2523232e-01
  2.4595761e-01
 -1.4048109e+00
  5.6937277e-02
 -9.0275340e-02
 -2.1111293e-01
 -6.0094804e-01
 -3.2299533e-01
  2.9724711e-01
  2.8317088e-01
 -1.0023075e-01
 -8.0533512e-02
  5.2863574e-01
  7.3393422e-01
 -9.7570091e-01
 -8.8114029e-01
 -1.3904299e+00
 -3.6132029e-01
 -7.9355276e-01
 -2.2290444e-01
  4.0439111e-01
  5.4353642e-01
 -6.4202058e-03
  1.2740481e+00
  5.8416075e-01
 -1.4059851e+00
  2.3833725e-01
  2.7786562e-01
  2.2474755e-01
  4.1472766e-01
 -8.0033284e-01
  1.9786730e-03
  8.5654569e-01
 -1.6010550e-01
  2.0771247e-01
 -5.4299098e-01
 -3.2409996e-01
 -1.5877607e+00
  5.9390604e-01
 -4.0350610e-01
 -2.0180147e+00
  1.1694795e-01
 -3.8265014e-01
  9.0448624e-01
  3.6171144e-01
  1.0586097e-01
 -7.5565264e-02
  1.7476252e-01
  5.3778842e-02
  1.9865650e-01
  3.4187293e-01
  5.5368322e-01
 -3.3927101e-01
 -4.6590370e-01
  4.5884410e-01
  4.6504259e-01
  4.2892992e-04
  7.7522111e-01
 -1.5725131e+00
 -3.8610086e-01
  5.3765714e-01
 -3.7228170e-01
 -5.6345421e-01
  2.8477034e-01
 -3.6866167e-01
 -6.2590539e-01
 -5.5586761e-01
  1.5234816e-01
 -2.6755834e-01
 -1.6761553e+00
 -1.5043296e-01
  1.8559122e-01
 -7.6567727e-01
  1.1141318e-01
  6.1581284e-01
 -1.0622610e+00
 -5.9830600e-01
 -2.8894731e-01
 -1.3336103e+00
 -6.9808674e-01
 -4.2873037e-01
 -3.6522070e-01
 -7.1947533e-01
  1.2526856e-01
 -5.0129022e-02
 -6.2237149e-01
 -4.9841937e-01
  2.1086302e-01
 -1.5098896e+00
 -3.3719757e-01
 -1.0433785e+00
  9.1753787e-01
  5.8426684e-01
  1.0896921e+00
  7.7982384e-01
 -4.1735598e-01
 -1.1567534e+00
 -1.7455620e-01
  1.1288548e+00
 -3.4855518e-01
  1.2698059e-01
 -9.2602536e-02
  8.8683181e-02
  6.9189626e-01
 -5.3093761e-01
 -5.7976633e-01
 -3.4338129e-01
  4.2162091e-03
  1.0971260e+00
 -1.5876225e-01
  4.3426514e-01
  3.2711893e-01
 -7.6027644e-01
 -4.2446330e-02
 -6.0075562e-02
 -7.3722225e-01
 -1.1942042e-01
  6.1585277e-01
 -5.1503432e-01
  5.1032263e-01
  1.2837633e+00
  5.9947723e-01
  3.8370837e-02
  4.3010673e-01
  3.6214945e-01
  9.0815037e-02
  5.5112344e-01
  9.2839056e-01
 -1.0540681e+00
 -5.1486619e-02
  2.1912333e-01
  2.1120116e-01
 -3.8251749e-01
 -9.7557373e-02
 -7.9293298e-03
  1.4075481e+00
 -5.2632314e-01
 -8.2334772e-02
 -7.6240784e-01
 -4.3631673e-01
  6.4662224e-01
  1.0170021e-01
  7.3884737e-01
 -2.2933388e-01
  4.7140381e-01
 -5.8450842e-01
 -5.9211630e-01
 -5.6267005e-01
 -2.3218817e-01
 -2.1917560e+00
 -7.6625299e-01
 -6.5308444e-02
  7.2560143e-01
 -1.3457141e+00
  3.3730683e-01
 -1.3292750e+00
 -5.7031763e-01
 -1.0379640e-02
  7.5786883e-01
  2.8170007e-01
 -5.0517875e-01
  1.0265731e+00
 -3.6225310e-01
  3.3335906e-02
 -1.2066736e+00
 -1.4168838e-01
 -1.0920305e+00
 -1.1528218e-01
  1.1849983e+00
 -3.0859578e-01
 -3.1359109e-01
  5.4773557e-01
 -2.7961296e-01
  5.7584620e-01
  1.1901120e-03
  4.0919885e-02
 -3.7227467e-01
 -5.3335633e-02
 -2.6922563e-01
 -3.7210494e-01
 -6.3790429e-01
  5.1958925e-01
  1.5697786e+00
 -2.8923684e-01
  2.5793579e-01
  1.4375958e+00
 -1.3144510e+00
  7.0676011e-01
 -5.0424725e-01
  1.0625873e+00
  1.1683796e-01
 -6.7909682e-01
  7.0035559e-01
  4.2929226e-01
 -3.2156378e-01
  6.2302887e-01
 -2.7698052e-01
 -6.4107925e-01
  4.1480982e-01
 -9.1970694e-01
 -8.9758635e-02
  2.3823059e+00
 -1.2604024e-01
 -7.6877856e-01
 -5.0439280e-01
  7.6307958e-01
 -6.8764412e-01
  3.3881970e-02
 -3.5256672e-01
  2.5683455e+00
  8.3638924e-01
 -5.4190576e-01
 -2.2301000e-01
 -7.0257880e-02
  4.2382601e-01
 -6.3648403e-01
  2.8651088e-01
  1.7008309e-01
  4.3791988e-01
 -1.0471255e+00
 -8.6194271e-01
  1.5197061e-01
  1.4230722e-01
  7.1351093e-01
 -2.0476149e-01
  4.0294491e-02
  1.8988329e-01
 -1.3146721e+00
  9.7554606e-01
  2.0028596e-01
 -1.1295770e+00
 -1.9530683e+00
 -1.5455576e+00
 -4.8759300e-01
  5.5709612e-01
 -5.9500450e-01
  1.7375277e+00
  3.5978967e-01
 -1.2648553e-01
 -8.1848902e-01
 -1.1501601e-01
 -5.3371817e-01
  1.4850899e+00
 -2.3188095e-01
  4.6147686e-01
  1.0267745e+00
 -6.6162121e-01
 -3.8639951e-01
 -8.8192666e-01
  9.9957287e-01
 -2.5819039e-01
 -1.0905176e-01
 -1.8221908e+00
 -1.7183821e-01
 -8.2587600e-01
  3.2589115e-02
  1.8156084e-01
 -7.9459086e-02
 -3.1104735e-01
 -2.6000634e-01
 -9.0938103e-01
  1.3040749e+00
 -7.3310006e-03
 -1.6469001e+00
 -1.1743816e+00
 -3.2616901e-01
 -3.8231707e-01
  1.7122908e-01
 -9.8901021e-01
 -6.6108847e-01
  6.8168020e-01
  5.7963252e-01
 -2.1156566e+00
 -5.3052026e-01
  1.3235065e+00
 -7.1130621e-01
 -1.5401870e+00
  1.2734709e+00
  1.9096091e+00
 -5.2840918e-01
  1.6402769e+00
 -9.9787855e-01
  8.5603517e-01
  2.7840679e+00
  8.5612386e-01
 -6.7612648e-01
  3.0405083e-01
  2.6681113e-01
  3.3779981e+00
 -5.8969319e-01
  5.4478149e+00
  2.0665228e+00
  3.4494802e-01
  1.4048175e+00
 -1.1809136e+00
 -1.0478701e-01
 -1.3399644e+00
 -1.0557475e+00
 -4.7675490e-01
  1.1964431e+00
  1.2024198e-01
 -7.5818104e-01
 -5.3097975e-01
  3.9497048e-01
 -8.9671272e-01
  3.4330302e-01
 -2.7646416e-01
 -3.1413175e-02
 -1.3848087e+00
 -3.4121975e-02
  5.4719526e-02
 -3.7728798e-01
  1.4900866e-01
 -1.0603240e+00
 -4.0103868e-03
  1.0672447e-01
 -5.3390819e-01
 -4.0818942e-01
  1.6690487e-01
  8.1528462e-03
 -2.1571338e-01
 -2.7796766e-01
 -1.4521989e-01
 -2.8618670e-01
 -7.1150917e-01
  9.8732555e-01
 -1.6411849e+00
  8.6444706e-01
 -5.5699128e-01
  2.1162307e-01
  1.1044880e+00
  3.9552310e+00
 -4.5712242e-01
 -6.2120986e-01
  9.8547190e-03
  1.9648921e-01
  4.7624063e-02
 -1.5647028e-01
 -7.0754272e-01
  1.1400151e+00
  1.1666052e+00
 -1.0258570e-01
  5.1946133e-02
 -2.6469454e-01
  7.5130817e-03
  8.7542862e-01
 -2.6445279e-01
  1.2060416e+00
 -4.7697651e-01
 -1.7213819e+00
 -4.5192534e-01
 -1.0280601e+00
 -2.0481366e-01
 -1.5544155e-01
  1.5279269e-01
  3.9443694e-02
  1.5873517e-01
 -1.2185214e+00
  3.6796805e-01
 -3.3549490e+00
  4.9632115e+00
 -1.2942251e+00
  1.7116083e+00
  6.3462192e-01
  6.7497663e-02
 -5.0025851e-01
 -9.7500253e-01
  3.1558421e-01
 -6.5198475e-01
  9.6376881e-02
 -1.1619264e+00
  7.0236319e-01
 -3.8060181e-02
  6.8742847e-01
 -2.7841416e-01
 -1.9170973e+00
  1.2640968e-01
  6.6899133e-01
 -2.8894520e-01
  9.4505966e-02
  1.2522230e-01
 -2.5560224e-01
 -8.6545593e-01
 -3.1737018e-01
 -3.7875921e-01
  1.1772578e+00
  8.9974031e-03
  3.6205292e-02
 -1.1408299e+00
 -6.0984838e-01
  1.6464090e+00
 -4.1345364e-01
 -2.2622254e+00
 -1.2314714e-01
  5.8594531e-01
 -1.2308087e+00
  5.3564119e-01
  5.5014944e-01
  8.8988441e-01
 -3.5254872e-01
 -4.0162349e-01
 -8.9799173e-02
  8.9042431e-01
  4.7514784e-01
 -1.9833115e-01
 -9.2793709e-01
 -1.3623767e-01
  1.4948190e-02
  6.5957558e-01
  1.8816146e-01
  7.1832609e-01
  1.6383117e+00
 -1.7835721e-01
 -2.6576933e-01
  5.3522974e-01
 -5.2272126e-02
 -4.6415305e-01
  1.9584422e-01
 -4.6204895e-01
 -1.5242857e+00
 -5.6014407e-01
 -1.0709602e+00
 -4.7978306e-01
  7.2247070e-01
 -7.3312408e-01
  5.7095599e-01
  3.8095045e-01
  5.0092623e-02
  2.8468105e-01
  4.8024607e-01
 -6.3028842e-01
 -4.0006298e-01
 -8.1973165e-01
 -6.1782822e-02
 -8.5230701e-02
  3.8065442e-01
 -2.0943332e+00
  3.5856083e-01
  1.6708791e-01
 -8.1301987e-01
  2.6006001e-01
  1.7335415e+00
  1.8013236e-01
  8.9499187e-01
  2.5457770e-02
 -9.5083988e-01
  2.6667613e-01
 -5.7478499e-01
 -3.0923110e-01
  7.1602143e-02
 -6.9827557e-01
  4.4354603e-01
 -1.1092736e+00
 -7.1478391e-01
 -2.5362092e-01
 -1.4392716e+00
  4.8963264e-01
  6.0423964e-01
 -3.2721502e-01
 -7.7260649e-01
 -3.2518643e-01
 -9.7878940e-02
 -2.6698050e-01
  2.1394329e-02
  6.5523289e-02
  3.7251800e-01
 -6.4130497e-01
 -4.2780599e-01
  2.3897821e-01
 -4.3732378e-01
 -9.8394901e-02
  5.5606220e-02
 -1.0514692e+00
 -1.2458946e-01
  5.1730007e-02
 -6.4550775e-01
  8.1213766e-01
 -4.6738914e-01
  2.0177580e-01
  3.7732205e-01
  1.3018079e+00
  2.0229053e+00
  1.5594252e+00
  3.1887349e-01
 -1.5716834e-01
 -5.4787278e-01
 -4.2655233e-01
 -7.7498102e-01
  3.5235798e-01
  2.9789409e-01
  6.7197245e-01
 -1.0046309e+00
 -1.6634560e+00
  1.2437334e+00
 -8.6287087e-01
 -1.5265505e+00
  4.7495835e-02
 -8.4178597e-01
  8.2117096e-02
  3.2695538e-01
 -2.7018464e-01
 -5.7270676e-01
 -2.9237413e-01
 -9.1215357e-02
 -2.9358104e-01
 -3.6730334e-01
  1.6399260e-01
 -3.8627144e-02
  1.7534129e-01
 -6.5885186e-02
 -1.6487405e+00
  5.4364091e-01
 -1.6353178e+00
  4.2908317e-01
 -4.3236336e-01
  7.0170176e-01
 -6.7597544e-01
  2.2154984e+00
 -2.4990657e-01
  1.2020776e+00
  4.2160600e-01
  7.2927475e-02
  5.8938557e-01
 -2.6121482e-02
 -3.3305213e-02
  3.2276719e+00
  1.4316574e-01
  1.0823859e+00
 -1.0312989e+00
  6.3687778e-01
 -3.1855008e-01
 -6.1449111e-01
 -5.7084340e-01
  4.0277186e-01
 -1.4858925e-01
  9.8528415e-01
  9.9619496e-01
  7.2252190e-01
 -5.9614968e-01
 -1.2595992e-01
 -3.6599645e-01
  7.2746438e-01
  2.9672267e+00
 -4.6843809e-01
  7.6621217e-01
 -1.1453282e+00
  1.2220324e-01
  7.2517467e-01
  1.5061008e+00
 -9.1310596e-01
 -9.2496073e-01
  7.1126133e-02
 -4.7347534e-01
 -2.4303703e+00
  8.1952728e-02
  3.0899048e-02
  3.8377935e-01
  1.8226219e+00
 -4.3166932e-01
  1.8124963e-01
  1.3641220e-01
 -3.6161584e-01
 -2.4390560e-02
  9.8358877e-02
 -7.5694591e-02
  2.0955639e-01
 -3.9466362e-02
  1.1071478e+00
  1.1478053e+00
  7.0240304e-02
  4.1813380e-01
 -2.3154283e-01
  7.5293517e-01
 -5.9371129e-02
 -3.8976397e-02
 -8.5765548e-02
  5.3831893e-01
 -1.7649024e+00
 -2.2472408e-02
 -6.5188959e-02
 -1.6729364e-01
  5.9891981e-01
 -1.0580628e-01
 -2.5275087e-01
  6.4058018e-01
 -3.1925762e-01
  4.9397767e-01
 -4.6223325e-01
 -5.6153625e-01
 -5.1669830e-01
  5.8361340e-01
  1.5988575e-01
  4.4965491e-01
 -1.1247051e+00
  4.4280061e-01
  1.7415781e-01
 -2.4435961e+00
 -5.4380029e-01
  6.5861201e-01
 -9.7473371e-01
  1.3617065e+00
 -1.6819407e-01
  1.1285997e-01
 -1.1235327e-01
 -4.5863417e-01
  7.6632357e-01
  3.7725914e-01
 -4.8020315e-01
  2.4964401e-01
  1.5072424e+00
 -9.5911652e-01
  1.0588028e-01
 -4.7800100e-01
 -7.3469944e-02
  1.3730490e-01
  7.1129286e-01
 -5.6317016e-02
  3.0688009e-01
 -1.8300354e-02
 -1.7053959e-01
  1.2883841e+00
 -1.0784854e+00
  1.3842592e-01
 -1.2337054e+00
 -2.5674775e+00
 -2.7446768e-01
  1.8553659e-03
  1.2313678e+00
  1.8846080e+00
 -4.8359498e-02
  4.3147629e-01
 -1.2334543e-01
  1.3684289e-01
  2.2631478e-01
  6.0828604e-02
  1.0380401e-01
  1.1649978e-01
 -1.3699764e-01
 -2.8031921e-01
  4.5085722e-01
  1.2069930e-01
 -3.2530341e-01
  7.8888953e-01
 -9.9048585e-01
 -3.5420987e-01
  2.7434295e-01
  5.9187913e-01
 -1.3748109e-02
  7.8697968e-01
  7.0945507e-01
  6.1019398e-02
  2.0495765e+00
  1.5892968e-01
  4.6487859e-01
 -1.8095951e+00
 -5.2284676e-01
  5.6632478e-02
  1.1824145e-01
 -2.6376832e+00
  1.1151850e+00
 -2.6429138e-01
  3.0522126e-01
  5.5164725e-01
 -8.6169168e-02
  9.9347311e-01
  1.1577276e-01
  6.9539642e-01
 -4.1193667e-01
 -8.1104383e-02
  2.7766514e-01
  1.6517318e+00
  2.8161511e+00
  5.2199197e-01
 -1.9652434e-01
 -9.2960499e-02
  6.5085173e-01
 -6.5779030e-01
 -2.8857952e-01
  2.2407651e-02
  3.9406192e-01
  3.7932748e-01
 -5.3819109e-02
 -1.4228865e+00
  1.7506540e-01
 -3.8972843e-01
 -8.4390733e-03
  1.0295160e+00
  8.6504519e-01
 -1.2001952e+00
 -4.1552725e-01
 -1.7000853e-01
  3.3746472e-01
  2.9145405e-02
  1.1562083e+00
  5.9832364e-02
 -4.8961520e-02
 -1.6610161e+00
  1.2554082e+00
 -2.3607220e-01
 -1.0103064e+00
  8.7768006e-01
 -5.1632577e-01
  1.4536951e+00
  1.1199973e+00
  3.2023343e-01
  2.5773963e-01
 -1.0094513e-01
  1.3497281e-01
  2.1775103e-01
  1.5633175e-01
  2.4292594e-01
 -3.5973644e-01
  3.9528134e-01
 -2.8000730e-01
 -3.9473709e-01
  3.4792632e-01
  2.2979881e-01
 -9.9537331e-01
  4.7363323e-01
 -6.6389757e-01
  4.1926014e-01
  1.1811839e+00
  1.5129268e-01
 -3.4333438e-01
  7.3410118e-01
  1.5513644e-01
  3.3423021e-01
 -2.6114258e-01
 -2.6471949e-01
  7.6088481e-02
 -4.6842363e-01
  4.7568269e-02
  2.9862973e-01
  4.6748620e-01
  8.1182969e-01
  7.7673066e-01
  6.5374619e-01
 -1.0014517e+00
  8.0552213e-03
 -7.0701677e-01
 -1.0685347e+00
  4.4090208e-01
 -8.6974420e-02
 -2.0083210e-01
 -7.8562772e-01
  1.2947167e+00
 -9.2288777e-03
  6.6461527e-01
 -4.4749415e-01
 -6.9603866e-01
 -1.2575887e-01
 -4.2568609e-01
 -2.1885295e+00
  1.8182468e-01
 -2.8362727e-01
  4.2695272e-01
 -3.0888045e-01
 -1.0484079e+00
  6.0184574e-01
 -1.9954023e-01
  8.0970490e-01
  8.1246889e-01
  1.3361995e+00
  4.4809374e-01
  2.4677074e-01
 -7.2102010e-01
 -4.6342489e-01
  2.1402100e-01
 -1.1740249e+00
  4.4401146e-02
 -2.0926669e-01
 -4.5002848e-01
  5.3466570e-01
  1.3500418e-01
 -2.5606194e-01
 -6.8671930e-01
  7.4915332e-01
  5.7411486e-01
 -4.9249195e-02
  1.5381688e+00
 -2.8324220e-01
  3.9507765e-01
  1.9661919e+00
  2.1423078e-01
 -1.4404196e+00
  1.9072153e-01
 -5.3345058e-02
  2.6775146e-01
  1.5250283e+00
  2.3491102e-01
  3.5770956e-01
 -2.1031533e-01
  1.4519586e-01
 -1.0544184e-01
 -3.6886287e-01
  6.6770822e-01
 -4.9565509e-01
 -1.7943276e+00
  7.5032181e-01
 -3.9228210e-01
  1.8442422e-01
  2.4825253e-02
  2.9667467e-01
  1.3036335e-01
  2.7358031e-01
 -4.9617460e-01
 -3.4484828e-01
 -2.7316839e-01
 -1.9022353e-01
 -4.1438930e-02
 -4.6441448e-01
 -7.7768528e-01
  2.2917869e+00
  4.0436620e-01
 -1.8853909e-01
  6.7623067e-01
  5.6970336e-02
 -5.0420761e-01
 -5.2732074e-01
  2.6990911e-01
  8.1957757e-01
 -3.6396766e-01
 -1.2943896e+00
 -6.7808384e-01
 -3.7556410e-02
  9.7271249e-02
 -4.5188603e-01
  2.8903246e-01
 -1.9999719e-01
  3.3247005e-04
 -4.7204527e-01
  4.5970482e-01
  6.2586021e-01
 -3.2126949e+00
 -3.1322765e-01
 -9.1100410e-02
 -1.5138938e-01
  8.5723215e-01
 -7.9772905e-02
  2.1878265e-01
 -3.1684762e-01
  6.0113519e-01
  7.3787898e-01
 -4.9478900e-01
 -1.0561999e+00
  1.0366477e+00
 -2.3767415e-02
 -5.8172405e-01
 -4.4817945e-01
  5.3086859e-01
  5.3645933e-01
 -1.0137855e-01
  4.5782536e-01
 -3.1332463e-01
  1.6455072e-01
  2.1899018e-01
 -2.9322016e+00
 -3.5667682e-01
  7.9276645e-01
  9.1848359e-02
 -2.4881303e-02
 -1.2099981e-02
 -6.0243782e-02
  9.7145066e-02
 -2.1115155e+00
  9.2320308e-02
 -2.1774974e+00
 -7.4278027e-01
  4.9079871e-01
 -4.8187208e-01
  5.8961880e-01
  1.0020044e+00
 -9.0716308e-01
  3.0938643e-01
 -1.6345610e-01
 -5.2440178e-01
  9.5880228e-01
 -3.1452125e-01
 -2.5110883e-01
  1.5608643e+00
  7.3096201e-02
 -3.7195420e-01
 -9.3866158e-01
 -3.2545885e-01
 -4.6783468e-01
  6.2121725e-01
 -9.3927437e-01
 -3.8320997e-01
 -1.0495260e+00
  1.5182559e-01
 -4.7656372e-01
 -3.4349710e-01
  4.9186695e-02
 -1.3277115e+00
 -2.6350155e-01
 -3.7590888e-01
 -1.2866139e-01
  9.2734024e-03
 -1.7016362e+00
  1.8491913e+00
  6.9097954e-01
 -8.2779611e-03
 -1.0777779e+00
  7.2183236e-02
  1.1608752e-03
  8.8780212e-01
 -6.0140866e-01
 -1.2598060e+00
  4.1622767e-01
 -8.4471583e-01
  1.9179723e-01
  1.0996019e+00
 -7.2068107e-01
 -1.3949467e+00
  7.9392135e-02
 -3.3747444e-01
  2.1380764e-01
 -7.1216384e-03
  3.9271748e-01
 -8.5241133e-01
  7.9722852e-01
  2.5214080e-02
  2.7844200e-01
  4.7212633e-01
  9.1080970e-01
  2.8011116e-01
 -2.9454559e-01
  4.5436949e-01
 -4.7267991e-01
 -9.7507870e-01
  1.8189284e-01
  1.8195717e-01
 -4.9518950e-02
  6.6913150e-02
  3.5623336e-01
  2.5750868e-02
 -5.9494072e-01
  1.2522070e+00
 -5.1454389e-01
  2.4611309e-01
  7.0710897e-02
  4.9187014e-01
  6.6397077e-01
 -1.9490889e+00
 -2.0874482e-01
  8.0656606e-01
  1.4997421e-01
  1.5792680e-01
  3.7123114e-01
  7.6572299e-01
 -5.3048539e-01
  2.3637319e-01
 -7.2733432e-02
 -1.3929924e-01
  7.9144992e-02
 -1.0509943e-01
 -3.4708658e-01
  1.3631878e+00
 -9.1325474e-01
 -3.9833629e-01
  1.5706906e-01
 -2.8859613e+00
  6.8615013e-01
  3.1830186e-01
 -4.9354565e-01
 -6.5089393e-01
 -1.0621045e+00
  4.3924052e-01
  3.6556473e-01
 -2.8694525e-01
 -5.6110728e-01
  2.4482754e-01
  2.1246402e-01
  3.3580703e-01
  1.1577179e+00
  2.8284284e-01
 -7.0761716e-01
 -5.5448562e-01
  1.3705805e-01
 -2.8986424e-01
 -1.5602511e-01
 -5.2670503e-01
  7.3430628e-01
 -7.5933033e-01
 -3.0943736e-01
 -7.0014322e-01
 -4.1964969e-01
  3.6255684e-01
  1.4152142e-02
  2.2088766e+00
  1.9853988e-01
 -1.1477408e+00
 -8.5031968e-01
 -7.9086328e-01
  2.0660517e-01
 -2.3352577e-01
 -1.4237034e+00
  1.2422113e+00
  8.9443314e-01
  7.9683453e-01
 -3.7437576e-01
  1.7717265e-01
  1.1812050e+00
  1.2206327e+00
  1.2134812e+00
  2.3066054e-01
  1.5134637e+00
  4.8538011e-01
  9.7132868e-01
  3.7931329e-01
  1.6708442e+00
  1.6929342e+00
  1.5722286e+00
 -3.8142808e-02
 -1.1883047e+00
 -1.4036803e-01
 -3.7297806e-01
 -1.0145087e+00
  3.1708307e+00
 -2.5719556e-01
  4.1105740e-02
 -1.1330826e+00
  2.1445484e-01
 -1.2317578e-01
  4.4281182e-01
 -2.2109276e-01
 -5.6825823e-01
  5.9761513e-02
 -2.4845839e-01
 -2.4471128e+00
 -5.4391921e-01
 -4.2670828e-01
  4.1516110e-02
 -3.0706483e-01
  1.1840173e-01
 -1.5477473e+00
 -1.2608331e+00
 -8.1222057e-01
 -1.2289128e+00
  1.2793213e-02
  2.7900605e+00
  3.3064502e-01
 -6.2649393e-01
  1.0776541e-01
  2.4861693e-01
  1.2090448e+00
  9.2859477e-02
  1.4481296e-01
  1.3895494e+00
  1.0591857e-01
  3.6481223e-01
  4.2996627e-01
 -5.2494621e-01
 -3.1909025e-01
 -4.1300842e-01
 -4.9984372e-01
  2.5916645e-01
 -9.5136869e-01
 -1.4245009e-01
 -9.5079847e-02
 -9.8383501e-02
  6.3151014e-01
 -1.8979673e-01
  6.9003600e-01
  3.5024858e-01
  1.5817013e+00
 -4.4815144e-01
  1.9687971e-02
  4.7711709e-01
  4.3672922e-01
 -2.4030256e-01
  3.5225376e-02
 -4.9735278e-01
 -7.9800701e-01
  1.9033486e-01
 -1.3306774e-01
 -3.3099204e-01
  2.0938748e-01
 -5.7559079e-01
 -3.1890839e-01
  1.7472111e+00
 -7.8309143e-01
  9.6679874e-02
  7.0922029e-01
  5.9997454e-02
 -6.5876447e-02
  4.8679281e-02
 -4.9107978e-01
  7.8196043e-01
  2.1239311e-01
 -1.2927480e+00
 -3.1586388e-01
  4.0833971e-01
  2.1976845e+00
 -4.9937135e-01
  3.9112300e-01
  6.0440537e-02
  5.6403667e-01
  1.2828960e-01
  3.7862256e-01
 -3.3097243e-01
  8.7243855e-01
  1.1905093e+00
  6.2663174e-01
  1.2619405e+00
 -1.4978868e-01
 -1.1551160e+00
 -6.6131353e-01
  1.8866695e-01
  3.6644605e-01
  2.8540087e+00
  5.9731521e-02
  9.2679185e-01
 -6.1723426e-02
 -1.3903992e+00
  6.3578707e-01
  8.2856345e-01
 -4.0142274e-01
 -8.2638681e-02
  1.8442310e+00
  1.0415712e-01
  5.9061997e-02
 -1.4073026e+00
  2.6499370e-01
 -1.9678658e+00
  1.4812306e+00
 -1.8857290e-01
  3.4587447e-02
 -1.0686604e+00
 -1.4751458e-01
  1.5174354e+00
  5.1409543e-01
 -5.0876653e-01
 -1.4403675e-01
  3.1393549e+00
  1.2937917e-01
 -1.6018904e+00
 -7.1546662e-01
  5.8029020e-01
 -9.2077667e-01
  9.5472559e-03
 -1.0745816e+00
 -2.3196682e-01
  1.5779749e-02
 -6.1767250e-01
  1.1121351e-02
 -5.9744281e-01
  1.0016757e-01
 -1.0663513e-02
 -6.7828631e-01
 -8.5258567e-01
 -3.9182511e-01
  6.8972677e-01
  1.0155091e-01
  2.6530285e+00
 -1.9468299e-01
 -9.2199439e-01
 -3.6828050e-01
 -1.1465992e+00
 -2.1365626e+00
  1.7446861e-01
  4.3641007e-01
  5.2945778e-02
 -4.2691801e-02
  1.9229268e-01
 -4.7461748e-02
 -2.9020140e-01
 -9.4890004e-01
 -2.7968103e-01
  1.1486418e+00
  2.7316082e-02
 -4.8286405e-01
 -3.2136887e-02
  7.5953835e-01
  1.4851387e+00
 -1.4592016e-02
 -2.1295917e-01
  2.9550269e-01
 -1.9802884e+00
 -8.7329292e-01
  3.7341899e-01
 -7.2537579e-02
  1.3372117e-01
 -1.1367373e+00
  2.6718051e+00
  3.8853511e-01
 -1.2007380e+00
  7.4836934e-01
  1.6324809e-01
 -2.4501623e-01
 -6.0229993e-01
 -5.0854123e-01
  5.2263260e-01
  1.6082758e-01
  4.7156435e-02
  8.6936951e-01
  3.0582932e-01
 -2.4002342e-01
  9.8688215e-01
 -2.2352295e-02
  2.8831610e-01
 -1.5333036e-01
  1.3561830e-02
  5.4287934e-01
  6.1580646e-01
  5.4111952e-01
  1.8722405e-01
  3.5587512e-02
  6.4054346e-01
  8.3402500e-02
  1.3393980e-01
 -1.9697382e+00
  2.0415187e+00
  6.1509150e-01
 -1.0653591e+00
  2.8694957e-01
 -1.0108680e+00
 -9.9546723e-03
  1.0757483e+00
  1.0228633e-01
 -6.3670170e-01
  2.0840529e-01
  3.8212547e-01
  5.2621514e-01
 -4.6021175e-01
 -3.2701865e-01
 -3.5048303e-01
 -7.0286453e-01
 -6.0808116e-01
  1.2622914e+00
  8.9919418e-01
  3.3648083e-01
 -3.2950193e-04
 -3.3378515e-01
  9.8801869e-01
  4.1991839e-01
  4.8950654e-01
  1.1958402e-01
  2.2645695e+00
  2.4350755e-01
 -1.7536391e-01
 -5.7038057e-01
 -8.1856573e-01
 -1.6026747e+00
  8.2247034e-03
  4.4506031e-01
  2.6923060e-01
  4.5286945e-01
  1.3461186e-01
  1.7681172e-01
  2.6176700e-01
  2.0733482e-01
  5.8723497e-01
  3.1855518e-01
  7.5474381e-05
 -3.9632794e-01
  6.1133349e-01
 -2.2985251e-01
  2.0696385e+00
  1.2768650e+00
  2.4774304e-02
  5.3607243e-01
 -8.7765080e-01
  8.9669514e-01
  6.2395327e-02
  3.0617389e-01
  1.4111879e+00
 -1.1596769e-01
  7.5775862e-01
  8.1217414e-01
  5.8534575e-01
 -6.1023075e-02
  1.3774424e+00
 -1.8535961e-01
  8.3676499e-01
 -3.3378753e-01
  5.2737832e-01
 -1.3839492e-01
  2.6920921e-01
  4.0548930e-01
 -2.4368471e-01
 -1.1450160e+00
 -1.1747144e-02
 -4.5735085e-01
 -2.4928039e-01
  5.9558463e-01
  1.1247963e+00
 -4.2681748e-01
 -3.6187798e-01
 -4.2250425e-01
  9.4395018e-01
 -3.9401916e-01
  2.0957333e-01
  1.2941280e-01
  3.2934922e-01
 -8.6838675e-01
  7.1527712e-02
 -1.4908942e+00
 -2.0154631e+00
 -3.1774586e-01
 -1.9451182e+00
 -3.4354519e-02
  4.0409729e-01
  6.5662968e-01
 -2.6141873e-01
 -7.3271585e-01
  7.0420456e-01
 -1.7100263e-01
  3.2619712e-01
 -1.1006584e+00
 -9.4887257e-01
  4.7140592e-01
  6.0511881e-01
 -8.5831743e-01
 -5.0738764e-01
 -2.0505124e-01
 -8.5432965e-01
  6.1357546e-01
 -2.5962715e+00
  1.1527547e+00
  1.0509999e+00
  2.1000928e-01
  1.8484531e-01
 -2.4870504e-01
 -1.0816648e-01
  1.4737362e-01
 -6.6625822e-01
  2.6738074e-02
 -1.1235932e+00
 -4.2535970e-01
 -6.1229599e-01
  9.7242959e-02
  9.4034958e-01
 -4.8916805e-01
  3.0536410e-01
 -4.5197959e+00
  6.5760344e-01
  6.9082476e-02
 -1.2976265e-01
 -5.9205222e-01
 -1.3793275e+00
  4.7617584e-01
  6.8796134e-01
 -1.8776035e-01
 -4.7199744e-01
 -5.6616396e-01
 -4.5911378e-01
  2.9509151e-01
  1.4448835e-01
 -1.0072798e-01
 -1.5406674e-01
 -9.3471688e-01
 -4.5990789e-01
 -7.0288813e-01
 -7.8783399e-01
 -1.6562290e-01
  4.8757052e-01
 -1.8487465e-01
  5.9719741e-01
 -7.6852536e-01
 -2.5238913e-01
 -4.0733346e-01
  2.5696912e-01
  1.8322065e-01
 -1.0414152e+00
 -3.6871278e-01
 -1.4435465e+00
  1.3124596e-01
 -4.6174559e-01
 -2.7634135e-01
  4.4496298e-01
  5.3278911e-01
 -7.5066024e-01
 -4.3743905e-01
 -4.2327516e-02
  6.5977353e-01
  4.9307421e-01
 -4.1850913e-01
  1.0229121e+00
  3.2123247e-01
 -1.7691202e-01
  2.5381804e-01
 -2.7160668e-01
 -6.2348312e-01
 -6.0372990e-01
  2.0772448e-01
  2.7277261e-01
  7.6859832e-01
  5.7405519e-01
 -2.1715425e-02
 -1.2185413e+00
  1.3395871e-02
 -6.7712396e-01
  5.2585560e-01
  5.2182937e-01
  9.7191805e-01
 -3.8460585e-01
 -4.3753594e-01
  5.1471931e-01
  2.8457047e-02
 -5.6561649e-01
 -4.8185489e-01
 -1.8244678e-01
  1.2794156e-01
 -9.4432950e-01
 -2.0963350e-01
 -5.8284467e-01
 -2.8880581e-01
 -4.4420831e-02
 -1.7438332e+00
  6.9140023e-01
  2.5073725e-01
 -3.0999005e-01
 -3.4789515e-01
  2.1983556e-02
  1.4116228e+00
 -1.1630141e+00
  3.4572381e-01
 -3.0008996e-01
  2.4913414e-01
  8.0267769e-01
 -5.7779574e-01
  3.5716593e-02
  2.1280389e+00
 -4.5803146e+00
  1.4921233e-01
 -1.2468630e-01
 -5.1031637e-01
 -2.6811990e-01
 -5.1800411e-02
  2.1603249e-01
  1.7175519e-01
 -1.3630068e-01
 -1.3622566e+00
 -4.8221448e-01
  1.6834065e-01
  2.1751460e-01
 -1.5961802e+00
 -2.5389311e-01
  4.3636087e-01
 -1.6098817e-01
 -1.0686313e-01
 -1.8756048e-01
 -1.4964509e+00
  4.0140361e-01
  1.7665103e-01
 -1.8621683e-01
 -9.9466443e-01
  2.5323445e-01
  9.7052738e-02
  3.6319476e-01
  1.7958666e-01
  6.0570514e-01
 -2.8916925e-02
  1.4062170e+00
  8.6579114e-01
  6.0808196e+00
  3.0401435e-01
  1.3105614e+00
 -2.3942761e-01
  1.0168626e+00
 -4.4748947e-01
  4.5965555e-01
  1.2845759e+00
 -8.8710445e-01
 -2.6105815e-01
 -2.0275025e+00
 -1.5347655e+00
  5.6649323e+00
  1.9864151e-01
  2.2667602e-01
 -2.0467648e-01
 -2.2656229e-01
  2.6630349e+00
  3.6564538e-01
  2.4062920e-01
  2.5648302e-01
  2.3777387e-01
 -2.8132100e+00
  6.0211301e-01
  4.2657024e-01
  2.0482287e-01
  8.6788851e-01
 -1.3793883e+00
  1.8991004e+00
  1.4379907e-01
  1.1701399e+00
 -3.0677938e-01
 -2.6097873e-01
 -8.6882941e-02
  1.2554312e+00
  3.6335757e+00
 -1.2409251e+00
  4.6504769e-01
  2.2162637e-01
  4.1795537e-01
  1.9030051e-01
 -1.4933999e+00
 -4.4250780e-01
 -3.0006799e-01
 -1.0423858e+00
  3.2794350e-01
  8.9537866e-02
 -4.7506362e-01
  8.8363004e-01
  6.1721134e-01
 -3.5146028e-01
  8.3557978e-02
  6.5126961e-01
 -5.5372095e-01
  9.0997553e-01
  1.0397138e-01
 -2.5698516e-01
  7.2895056e-01
  1.6324894e-01
  5.8841783e-01
  8.1123906e-01
  1.6078213e-01
 -5.5551182e-02
  2.2783082e+00
  6.4269620e-01
 -8.1763661e-01
  7.5976247e-01
 -1.0605190e+00
 -3.7705258e-01
 -5.7782155e-01
  5.5817902e-01
 -9.3866551e-01
  9.6202987e-01
 -3.1837494e+00
  7.9835838e-01
 -2.4358384e-01
  9.1937587e-02
  7.1195942e-01
  1.6056246e+00
  1.3670393e+00
 -3.8514301e-01
  9.5578152e-01
  3.0974600e-01
  8.5165612e-02
 -9.0241319e-01
  5.5073351e-03
  8.6891854e-01
  5.1832086e-01
  1.8317996e-01
  7.5191014e-02
 -6.1368001e-01
  2.9367967e+00
  1.0358622e-01
  1.3903284e+00
 -3.2644115e-02
 -2.2401732e-01
  1.3478196e+00
  7.1584088e-01
  3.2540765e-01
 -3.5781625e-01
  6.0579973e-01
  1.0952903e-01
 -3.4119508e-01
  1.6083649e-01
 -7.8955990e-01
  1.3017347e+00
 -5.0965470e-01
  4.4905394e-04
 -6.2562943e-01
 -6.5224487e-01
 -1.7507009e-01
 -2.4599287e-01
 -5.1656574e-01
  1.7945908e-01
  5.7267904e-01
 -1.0288384e+00
 -2.9559824e-01
 -1.4228848e+00
 -5.2959770e-01
  4.6034077e-01
 -8.3484393e-01
  1.3861830e+00
  1.1973957e+00
 -1.4685240e+00
  4.3165028e-01
  3.3423465e-02
 -3.8688460e-01
 -1.1737928e+00
 -5.0105435e-01
 -5.7891977e-01
 -1.0229800e+00
 -4.8457853e-02
  5.5027765e-01
 -5.0842488e-01
  4.1302949e-01
  1.3403188e+00
  1.1439413e+00
  9.8602122e-01
  2.1005107e-01
 -5.3628389e-02
 -7.0618939e-01
 -4.4809258e-01
  4.5325360e-01
 -1.4952082e-02
 -3.4288186e-01
  2.2473837e-01
  1.0994029e+00
 -6.2365073e-01
 -8.4624934e-01
 -8.2746208e-01
 -7.0042415e-03
  4.1451305e-01
 -6.8446887e-01
  3.3732501e-01
 -4.6069130e-01
 -1.5562859e-01
 -6.3721739e-02
 -5.3071916e-01
 -2.3170370e-01
  7.4979752e-01
 -5.5811024e-01
  8.8354164e-01
 -2.1619648e-01
  3.0424589e-01
  3.0759418e-01
  6.1193548e-02
 -1.6254621e+00
 -5.2067029e-01
 -1.6709152e-01
  2.1016595e-01
  1.3750106e-01
 -6.4268649e-01
  1.9038254e-01
 -1.9476369e-01
 -2.5122938e-01
  4.3691000e-01
  5.4666293e-01
 -2.7440539e-01
  3.0529284e-01
 -1.2186980e+00
 -1.4050980e+00
 -6.3797116e-02
 -8.6878413e-01
  3.1743103e-01
  3.9597726e-01
  2.2523656e-01
  3.2044333e-01
  3.6501601e-01
  2.5031820e-01
 -2.6826676e-02
  1.2627643e-01
 -4.5081064e-01
  6.0505021e-01
 -2.0831445e-01
  3.7176788e-01
  4.9223056e-01
  5.2769941e-01
  1.8884510e-01
  1.6271091e+00
  6.1939257e-01
 -6.5540427e-01
  1.1449173e-02
  7.0683992e-01
 -2.0505791e+00
  6.7331594e-01
  3.5106596e-01
 -4.7845560e-01
 -3.3131209e-01
 -8.3308071e-01
  1.0874512e+00
 -1.3171259e-01
  4.0433359e-01
  1.0854232e+00
 -5.4346263e-01
  1.0842219e-01
 -7.7386355e-01
  9.7693503e-01
 -7.4242592e-02
  1.3731147e-01
 -2.6783054e+00
  3.3485574e-01
 -5.9240442e-03
 -1.8955600e+00
 -1.8467119e-01
  1.0789920e+00
  1.1024589e-02
  1.3789545e+00
 -3.7125465e-01
  7.2668523e-01
 -5.5265967e-02
 -3.9840415e-01
  1.1710213e+00
  1.6772819e+00
  2.2527006e-02
 -2.4738309e+00
  3.0170950e-01
 -2.0629673e+00
 -8.1088549e-01
  1.9038241e-02
  1.7291003e+00
  6.4739102e-01
 -7.1838930e-02
  4.5316064e-01
 -1.3088411e+00
 -6.3160676e-01
  3.5700852e-01
  2.5677863e-01
 -1.2441182e+00
 -1.4030178e-01
  4.1489601e-03
  1.3865049e+00
 -9.2751518e-02
  6.4075720e-01
  2.4371931e-01
 -5.4536861e-01
 -2.0249292e-02
 -2.8086275e-01
 -9.5085227e-01
  1.3713368e+00
  3.1654489e-01
  8.2149148e-01
  4.0920800e-01
 -3.3615398e-01
  9.5517558e-01
  5.8852762e-01
 -9.8335743e-01
  1.9968096e+00
  1.2697924e+00
 -3.7023199e-01
 -5.7455176e-01
  3.3514076e-01
 -4.4005811e-02
  1.4707729e-01
 -1.7413771e+00
  3.1619754e-01
 -3.0442856e-02
 -9.6654646e-02
 -7.5002837e-01
 -5.9723300e-01
  8.7852961e-01
  6.0307026e-01
  9.5172137e-02
 -2.9966152e-01
 -4.2940015e-01
 -1.2824416e-01
  1.1106051e+00
  1.0718058e+00
 -4.4526923e-01
 -4.3254519e-01
  7.6308686e-01
  4.7265562e-01
 -9.4291866e-02
  2.8269237e-01
 -9.9151962e-02
 -8.1012100e-01
 -4.4226056e-01
  1.0851454e+00
 -2.6196101e-01
  6.0324764e-01
  4.8404753e-01
  2.5473753e-01
  5.1703572e-02
  5.4642320e-02
  8.2007182e-01
  1.2745120e-01
  1.2334555e-01
 -6.6175811e-02
  3.8919680e-02
 -1.2983245e-01
 -1.1527978e+00
 -3.5907811e-01
  6.3430995e-02
  8.4698260e-01
 -7.0407456e-01
 -5.8971167e-01
  3.6069253e-01
  9.8558050e-01
  5.1552713e-01
 -7.3000622e-01
 -1.9101084e+00
  1.9021350e-01
 -1.2545844e+00
 -3.8426632e-01
 -2.2299123e-01
  1.1880442e+00
  4.0051061e-01
 -1.0686061e+00
 -3.0934754e-01
  1.8189885e-02
  1.1829275e-01
 -1.5320878e-01
 -4.9939284e-01
  3.7388182e-01
  1.7760409e-01
  1.0033227e+00
  1.0415877e+00
  1.3068701e-01
 -8.9449453e-01
  6.1145800e-01
 -1.6743928e+00
 -2.5330290e-01
  4.9483401e-01
 -7.6445425e-01
  2.2231687e-02
  1.7377013e-01
  7.4812889e-01
 -1.0405008e+00
  5.0413311e-01
 -1.9384372e-01
  8.8886434e-01
 -4.9163011e-01
  2.6278877e-01
 -1.1803381e-02
  1.2494004e-01
 -7.6130971e-02
 -3.5243696e-01
 -4.2704427e-01
  5.4692000e-01
 -6.3515455e-01
  4.0090919e+00
  6.0782367e-01
  8.4833885e-03
 -1.4295451e-02
  1.2275769e-01
  2.4858330e-01
 -1.1774635e-01
 -2.3490112e-01
  7.1387327e-01
 -8.2171124e-01
 -2.2399199e-01
 -9.1019571e-01
 -6.3666767e-01
  1.9684646e-01
 -3.9222711e-01
  2.1230462e-01
 -1.1931697e-01
  1.5030650e+00
 -3.0095783e-01
 -1.6676231e-01
 -3.1390839e+00
 -1.9855544e-01
 -8.8042438e-01
  2.9477075e-02
  5.8220148e-01
 -2.8123009e-01
 -5.6980467e-01
 -1.7701715e+00
 -1.9843192e+00
 -5.7331473e-01
 -1.0340697e+00
  1.2228300e-01
  9.9168497e-01
 -3.6507219e-01
 -1.0736266e+00
 -8.2748485e-01
  4.8826545e-01
 -1.4635901e+00
  2.6232260e-03
  3.6413080e-01
 -1.1331590e-01
 -1.5862483e-01
 -2.6931572e-01
 -2.9698513e-02
  6.1830348e-01
 -1.0215292e+00
 -2.5361985e-01
 -4.9023142e-01
  2.1319066e-01
  7.0294216e-02
 -9.9731803e-02
  8.5402834e-01
 -2.2312650e-01
 -1.5315812e+00
  5.1724690e-01
  4.0465921e-01
 -5.9274644e-02
 -2.5824261e-01
 -1.4424287e-01
  3.8843548e-01
 -7.4223506e-01
 -2.1277153e-01
 -3.8647619e-01
  3.3208072e-02
  3.7452823e-01
 -2.3214275e-02
 -2.9640436e-01
 -1.6233423e-01
 -5.3773087e-02
 -1.6912645e-01
 -9.0368229e-01
 -3.5316318e-01
  9.9585164e-01
 -7.8941984e-03
 -6.3334107e-01
 -5.8841860e-01
  5.7016748e-01
  1.6326039e+00
  6.6892010e-01
  2.6578431e+00
 -3.5822499e-01
 -5.4904974e-01
  1.6512518e-01
  3.1191051e-01
  1.1180170e+00
 -2.8575829e-01
  1.3275756e+00
 -3.9255142e-02
  7.1071219e-01
 -1.1634649e+00
  4.2232138e-01
  3.6511499e-01
  9.0564817e-02
 -1.1439617e-01
  1.0113683e+00
  1.0216581e+00
  5.6678331e-01
 -3.4808981e-01
 -1.0680424e+00
 -7.7567726e-02
  3.5714235e-02
  2.9789078e-01
  1.0859090e-01
 -3.4494199e-02
  6.8194693e-01
  5.7267404e-01
  1.3383641e+00
 -1.2100461e-01
 -2.8567508e-01
 -3.5261720e-01
 -1.3302957e-01
 -9.4440214e-02
 -1.5032481e-01
 -1.3261309e+00
  3.8645965e-01
 -4.7632650e-01
  6.2792891e-01
 -1.9352394e+00
  1.0436391e+00
  7.3405290e-01
 -1.0424824e+00
 -5.4304326e-01
 -9.8685145e-02
  1.4011486e-01
  9.1050172e-01
 -4.6677184e-01
 -7.0000458e-01
 -1.3337374e+00
  5.0958924e-02
 -1.2139019e+00
 -2.1465410e-01
 -1.1475456e+00
  1.6634363e+00
 -2.3297031e+00
  1.9674811e-01
  2.9311219e-01
 -5.1452065e+00
  1.8196342e+00
 -1.8900439e-01
 -1.4724077e-01
  1.5014240e-01
  3.8483655e-01
 -8.2425433e-01
  1.9527584e+00
 -3.4625444e-01
 -8.7995666e-01
  1.8118244e-01
  7.4595052e-01
  1.7770299e-01
 -1.4594210e+00
  2.2814527e-02
  2.6265371e-01
  7.8811133e-01
  1.7559292e+00
 -1.2337536e-01
 -1.0196477e+00
  3.3209345e+00
  1.1165484e+00
  1.1187258e+00
 -1.4490777e-01
 -5.6276065e-01
  2.5308710e-03
  6.3497281e-01
  6.2593341e-01
 -1.4098992e+00
  1.7497881e-01
 -5.0770819e-01
 -3.2714614e-01
  1.2207370e-01
 -2.0281576e-01
  2.4063091e-01
  6.8962991e-01
 -8.8936470e-02
  9.7226655e-01
 -9.5045999e-02
 -1.7354485e-02
 -3.7681827e-01
  3.9612427e-01
  6.4665753e-01
 -2.9911268e-01
 -6.7764592e-01
  3.3501130e-01
 -1.3597098e-01
 -7.7883624e-02
  1.9775156e-02
  1.8792397e+00
  2.1984357e-01
 -9.6672350e-01
  5.8424777e-01
 -1.6426879e+00
 -2.1304418e-01
 -3.1385273e-01
 -3.9226240e-01
  4.9157324e-01
  8.8482988e-01
  6.0096252e-01
  4.2915374e-01
 -1.7035949e-01
  8.8773447e-01
 -1.2638950e-01
 -2.6290858e-01
  5.5197847e-01
  2.1432154e-02
 -3.3246490e-01
  5.8468342e-01
  1.9935238e+00
  1.1308957e+00
  2.4038792e-01
 -1.1293690e-01
  4.7454846e-01
  5.7884455e-02
  4.1578317e-01
  7.5595212e-01
 -2.3030150e+00
 -1.1959555e+00
 -2.0703113e-01
  2.9912037e-01
 -5.1208653e-02
 -9.0237999e-01
 -2.3868619e-01
 -1.4867759e-01
 -5.2084181e-02
 -1.7484422e-01
 -1.1869296e+00
 -1.3023611e+00
 -1.1469787e-01
 -5.4906672e-01
 -4.6119818e-01
 -1.3862703e+00
  1.8001625e-01
 -4.4114068e-01
  3.9361507e-02
 -3.8583961e-01
 -6.8842620e-03
  4.5913711e-02
  1.4628737e-01
 -8.3434843e-02
 -1.4884659e+00
  3.8612023e-01
 -8.8443983e-01
 -8.8169813e-02
  1.3462748e-01
  1.0488930e+00
  1.6229168e-01
  7.7954882e-01
  1.1610274e-01
 -2.8616405e+00
 -6.8344235e-01
  2.7835646e-01
 -3.3366549e-01
 -1.5217924e-01
  4.9598485e-01
  2.8140862e-03
  6.8440664e-01
  3.2856125e-01
 -1.3971227e-01
  5.8266111e-02
 -3.3085632e-01
  5.2357161e-01
 -8.7951082e-01
  3.6424133e-01
  3.9522225e-01
 -1.4055969e+00
  3.9044559e-01
  1.2076215e+00
  2.1266872e-01
 -2.1121567e-01
 -1.0042561e+00
 -1.2669530e+00
 -1.2038898e+00
 -2.1097690e-01
 -3.6148947e-01
  1.4238365e-01
 -1.0944272e+00
 -4.9201944e-01
 -3.2671735e-01
  3.7625648e-02
 -2.5354356e-01
 -1.5086193e-02
 -9.9500042e-01
  4.3938023e-01
 -5.3693879e-01
 -1.2322726e+00
  3.7122145e-02
  4.9428517e-01
  1.1874769e-01
 -3.9765021e-01
 -1.4668870e-01
  3.9758974e-01
 -1.0836990e-01
  4.1531119e-01
  6.2056679e-01
  5.2955449e-01
 -8.1306940e-01
  7.2385776e-01
 -8.9571518e-01
  1.0430364e-01
  2.1605954e+00
  3.5159001e-01
  7.0695572e-02
  1.3100829e+00
  9.3436271e-02
 -3.2829434e-01
 -2.8011200e-01
 -2.5456965e-01
  1.7450474e-01
  1.8112978e-01
 -2.5854307e-01
  1.6437352e-02
 -7.7849174e-01
 -6.1000639e-01
 -2.4964304e+00
 -1.5876484e-01
 -1.3363981e+00
  1.7360915e+00
 -3.8805574e-01
 -1.6171238e-01
  1.7248240e+00
 -9.9561399e-01
  7.3705280e-01
  3.4477368e-01
  1.6835813e-01
 -1.3591027e+00
 -1.3806517e+00
  4.2958885e-02
  2.2050023e-01
  5.0080955e-01
  2.5632647e-01
  3.0535216e-02
 -3.4187868e-02
  1.0690633e+00
 -4.7205737e-01
 -3.1994879e-01
 -3.9268509e-01
  4.0765592e-01
 -6.1324316e-01
 -3.6321798e-01
 -1.4631796e-01
  4.5758538e-02
  8.3585650e-01
 -4.2624304e-01
 -4.9218339e-01
 -1.2129593e-01
  4.5970827e-03
 -8.6921644e-01
  2.8048061e-02
 -1.8312269e+00
 -7.4624801e-01
  8.3170868e-02
 -2.9936640e+00
 -1.5829231e-01
 -2.9728362e-01
 -1.6738753e-01
  9.4637072e-01
 -6.4588613e-03
  1.2252033e+00
  1.7959911e-01
  1.8307623e+00
  2.2327825e-01
 -2.8816855e-01
 -1.3606592e+00
  4.9560583e-01
 -1.6560394e-01
 -1.0679129e+00
 -7.5401717e-01
  3.6525980e-01
  6.4212215e-01
  1.3741395e+00
 -1.1491060e-01
 -4.0973750e-01
 -1.7358161e+00
  3.1061703e-01
 -2.1299563e-01
 -1.3668890e-01
 -5.6960130e-01
  4.9310777e-02
 -3.3164039e-01
  2.4506682e-01
  9.5318571e-02
 -7.7685213e-01
  1.4171144e+00
  1.0097779e-01
  2.4452090e-01
 -7.1751904e-01
 -5.7085836e-01
  6.8008763e-01
  4.5163453e-01
 -4.0477407e-01
 -9.4290066e-01
  9.1573876e-01
 -2.8687162e-02
  1.4884009e+00
 -6.1085343e-01
 -7.4563259e-01
 -6.3072234e-01
  2.2723258e-02
 -2.2126554e-01
  2.6760072e-01
 -9.5125055e-01
  9.6677840e-01
 -4.3763053e-01
 -8.1537831e-01
 -1.4390495e-01
 -8.4762311e-01
 -1.0356217e-01
 -3.4133473e-01
  2.9211961e-02
  1.4343531e+00
 -5.5388980e-02
  4.9612567e-01
 -7.9906803e-01
  4.9377680e-02
 -9.5472753e-02
 -4.5157027e-01
  8.2097687e-03
  4.2848381e-01
 -8.5069716e-01
 -9.0330318e-02
 -6.8820244e-01
  3.6187810e-01
  8.5126519e-01
 -1.0210938e-01
 -6.6405758e-02
  3.1138030e-01
  2.0316615e+00
 -2.9373431e-01
  2.4846089e+00
 -1.0393202e+00
  1.2648126e-01
  2.0654045e-01
  1.0952797e-01
  1.8847429e+00
 -2.6135170e-01
 -1.1947074e-01
 -2.5800860e-01
 -6.8849482e-02
 -1.5785234e-01
  3.0614522e-01
 -3.9517722e-01
  3.2157847e-01
 -5.1298231e-01
  1.4397587e-01
  5.3740615e-01
 -5.6809619e-02
  1.4812516e-01
  6.6157949e-01
  5.7324532e-02
 -4.9391070e-01
  7.1005207e-01
  1.8307573e-01
  1.3724297e-01
  8.4072453e-01
 -1.7136735e+00
 -7.6915884e-01
  1.7725660e-01
 -6.6178495e-01
  1.8995330e-01
 -6.8001580e-01
  2.8058511e-01
  2.9985696e-01
  1.5001543e-01
 -1.3786231e+00
 -2.2017338e+00
  7.2098231e-01
  1.0007159e+00
 -3.1044239e-01
  2.9424730e-01
 -2.2778252e-01
 -7.3280677e-02
  2.4983510e-01
 -4.0684038e-01
  9.0574577e-02
  1.0147258e-01
  1.2721756e+00
  1.3081703e+00
  1.2212300e+00
  1.8818609e+00
  2.0753689e+00
 -2.1788457e-01
 -8.8354059e-02
  2.0969100e+00
 -4.9600309e-01
  3.9353567e-01
 -2.7778380e+00
  3.4432507e-01
  3.2435756e+00
 -7.9814821e-02
 -4.4492173e-01
  8.1436932e-01
 -5.1860012e-02
  2.8982982e-02
 -2.0899816e+00
 -6.0539347e-01
  1.4243125e+00
  1.0138292e+00
 -3.5477334e-01
 -1.6093625e+00
 -2.9378393e+00
 -7.7729046e-01
  3.2878551e-01
 -5.9844565e-01
 -4.6466437e-01
 -2.4226318e-01
 -7.5689071e-01
 -9.6101567e-02
 -1.5348119e+00
  1.0835640e-02
 -1.7610289e+00
  1.7505175e-01
  4.0301046e-01
 -7.5987047e-01
  1.5979855e-01
 -1.2414205e+00
 -1.5962309e-01
 -3.7974119e-03
  4.1081795e-01
  5.5602467e-01
 -1.1671539e-02
  6.8577051e-01
  5.8697122e-01
  5.8483225e-01
 -1.3698703e+00
  1.4459828e-01
  3.8081446e-01
  1.4074492e+00
 -3.2459587e-01
 -1.9975466e+00
  1.2583256e-01
  1.1916865e-01
  2.2400565e-02
 -1.1666700e-01
  5.5115104e-01
  1.9282663e-01
  3.2641998e-01
 -1.6249561e+00
 -1.2391276e+00
 -4.9410928e-02
  9.9661028e-01
 -7.0049393e-01
 -7.3508495e-01
 -1.8119863e-01
  9.0688503e-01
  1.2417029e-01
  3.9905033e-01
 -3.0008180e+00
  1.2975663e-01
  4.4564098e-01
 -3.9676309e-02
 -1.3754186e-01
 -5.0702192e-02
  5.3562754e-01
  3.0151236e-01
  1.6853707e-01
  4.6778119e-01
 -1.2690388e+00
  9.6615091e-02
 -1.6815025e+00
 -1.7463323e-01
 -1.1812021e-01
  4.9530807e-01
  1.6558439e-01
  4.3709326e-01
 -6.4731890e-01
  2.5922718e+00
 -3.1113702e-01
  2.9159775e-01
 -1.2617069e-01
 -1.6785694e+00
 -2.1118173e-01
  1.4278093e-01
 -3.2116207e-01
  4.7422701e-01
  6.4729679e-01
 -4.3005028e-01
 -5.0477338e-01
 -2.2457553e-01
  1.4260779e-01
  8.6138219e-01
 -1.0223886e+00
 -1.9090146e+00
 -3.1452727e-01
 -2.5685359e-02
 -1.2560245e-01
  3.7296221e-01
 -5.9345973e-01
 -3.1513777e-02
 -1.8647619e-01
 -1.5214512e-01
  3.2186847e+00
  3.7813559e-02
 -4.2002416e-01
 -1.0566186e+00
  1.9819596e-01
 -8.2267672e-02
  9.2166293e-01
  2.4775398e+00
  3.6349571e-01
  9.5527905e-01
  5.3743161e-02
  1.6193253e+00
 -1.2222779e-01
  2.8043181e-01
 -1.7987250e-01
 -3.5452294e-01
 -1.1214568e-01
 -7.2801554e-01
  1.9115716e-02
 -9.7395942e-02
 -4.0061280e-02
  2.6311144e-01
  5.1356918e-01
  3.4877092e-01
  9.4389236e-01
 -2.9445186e-01
 -6.8255150e-01
 -2.2755709e-02
  1.3690844e+00
  7.8973871e-01
 -9.4967592e-01
 -7.2343424e-03
 -5.6907254e-01
 -6.5463059e-02
 -1.1222299e+00
  6.8119578e-02
  1.3503011e+00
  1.9150257e+00
  3.8902169e-01
 -1.9394040e-01
 -2.6995260e-01
  1.3586159e+00
  5.1419085e-01
  1.0444984e+00
  3.3650523e-01
  9.4731584e-02
  2.2224169e+00
 -2.7736267e-01
 -3.4221858e-01
  8.8504988e-01
  1.8348944e-01
  1.1939362e-01
 -2.1637611e+00
 -1.8840097e+00
  7.1724880e-01
 -6.0580090e-02
  6.4207709e-01
 -1.2269574e+00
 -1.0981208e-02
 -9.2014812e-02
 -7.7370852e-02
 -6.2077701e-01
  1.1937268e-01
 -8.6923206e-01
  4.2560565e-01
 -1.9258025e-01
  2.5415790e-01
 -8.5944462e-01
 -1.8535401e-01
  1.7312007e+00
 -1.6842765e-01
  1.0434450e+00
 -1.1171422e+00
 -4.5564762e-01
 -1.0215189e+00
  3.9887655e-01
 -5.0674886e-01
  3.1320533e-01
 -1.8494478e-01
  4.8897091e-01
  4.7659230e-01
 -3.3237344e-01
 -8.6034620e-01
  3.8212937e-01
  1.0428330e-01
  2.4990429e-01
 -1.3850925e+00
  1.5106800e-01
  1.4197599e+00
  8.8930964e-02
 -6.0841954e-01
 -1.5010749e-01
  7.1580434e-01
 -1.3262914e+00
  1.3077675e-01
 -1.4012814e+00
 -4.4249588e-01
 -3.6267895e-01
 -2.9018512e-01
 -5.4248862e-02
 -1.7935854e-01
 -3.6479563e-01
  1.1619392e-01
  1.8263909e-01
  6.5714404e-02
  6.0443580e-01
  2.3975907e-02
  6.2091029e-01
 -2.9749843e-01
  4.8161667e-02
  2.3289951e-02
 -1.0199143e+00
 -3.0072281e-01
  1.4327835e-01
  2.3501702e-02
  1.4847408e-01
 -3.8383983e-02
  5.2761751e-01
 -8.1804281e-01
  5.8173906e-02
  4.5360392e-01
  2.9889166e-02
  7.5846916e-01
  1.1465785e-01
  6.2182391e-01
 -1.1794591e-01
 -1.1702929e+00
 -3.7735760e-01
 -1.5664311e-01
  2.0651860e+00
 -2.0215299e+00
  1.4358765e+00
 -5.3187525e-01
  2.2096102e-01
 -2.6813933e-01
  2.3577737e-02
 -6.9295353e-01
 -4.1285634e-02
  4.9635453e+00
 -1.0045686e-01
  4.3508000e+00
 -5.3153598e-01
  9.5291108e-01
 -5.0984740e-01
  4.8749346e-01
  4.8699152e-01
 -9.2557544e-01
  1.1296505e-01
  1.1684656e-01
  2.6492584e-02
  3.1885724e+00
 -1.0449231e-01
 -9.8802918e-01
 -1.5228298e+00
  2.6198104e-01
 -7.4738872e-01
  1.5842162e+00
  3.4762812e-01
 -2.8042343e-01
 -5.8459127e-01
 -7.4895829e-01
  4.1969356e-01
 -2.1299013e-01
 -4.3892086e-01
  7.3496681e-01
  1.8278942e-01
 -7.2093683e-01
 -7.1337461e-03
 -4.8596084e-01
 -2.9201267e+00
  9.7542101e-01
 -4.9546638e-01
  1.8050411e+00
 -3.9479169e-01
  2.1050901e+00
  1.3091244e+00
  4.5107394e-03
  1.2165421e-01
  1.2223949e-01
 -2.4927911e-01
 -4.8974761e-01
 -2.6557726e-01
 -3.6499757e-01
  6.7499387e-01
  3.0298057e-01
 -1.3544632e+00
 -8.4071767e-01
 -2.3230617e+00
 -5.2020449e-02
  5.1513094e-01
  8.5715359e-01
 -1.0488674e-02
  1.5736585e+00
  8.7454461e-02
  2.3815387e-01
  2.4549484e-01
 -9.1912109e-01
 -3.2158679e-01
  1.0260260e+00
 -3.3663923e-01
 -5.1481110e-01
  2.6678547e-01
 -8.4131062e-01
 -3.4274897e-01
 -2.2682472e-01
  8.1581712e-02
  1.3148084e+00
  7.0485437e-01
 -1.7297298e-01
  7.1616542e-01
  3.5955392e-02
 -5.2460819e-01
 -6.3647050e-01
 -4.4271451e-01
  1.2832749e+00
  2.4700487e+00
 -1.2158558e+00
 -3.1483099e+00
 -2.3913064e+00
 -3.8786082e+00
  5.5178648e-01
 -4.4814807e-01
 -1.1696690e+00
 -5.4813534e-01
 -1.9362709e-01
 -8.4629351e-01
 -4.2174354e-01
 -1.4531451e+00
 -7.3135898e-02
  5.6983888e-01
 -7.4518141e-03
  7.9063378e-02
 -9.8208636e-01
 -1.9568996e-01
  1.1619506e-01
 -2.1084282e+00
 -2.3589428e-01
 -1.5707440e+00
  1.6732713e+00
  6.1980373e-01
 -5.2915567e-01
 -7.7221745e-01
  4.9302468e-01
  4.6959858e-02
 -4.2090610e-02
  8.8729131e-01
  1.7487452e+00
 -8.7359363e-01
  2.0661991e+00
 -2.2217157e+00
  2.9253027e-01
  3.0919173e-01
  7.6133031e-03
 -5.3476977e-01
  3.8263828e-01
  1.0751110e+00
  4.7833386e-01
  6.9667161e-01
  3.2232901e-01
 -7.2775745e-01
 -1.4556253e+00
 -1.0641543e+00
 -4.3670416e-02
  2.5633126e-01
 -4.0033612e-01
  2.6713791e+00
  2.1703708e-01
  9.3585646e-01
 -3.6367756e-01
 -1.9895883e+00
 -6.3045573e-01
 -7.9482242e-02
 -1.1733944e+00
  9.0949786e-01
  1.9446393e+00
 -5.9637392e-01
  9.3123376e-02
 -2.9290502e+00
 -3.4363231e-01
 -6.6929722e-01
  3.1044480e-01
  7.1781564e-01
  2.8371620e-01
  6.2167835e-01
 -1.4533341e+00
 -9.5582217e-02
 -2.2021987e+00
 -5.5996054e-01
 -2.9178485e-01
 -4.4476718e-01
 -1.7498852e+00
 -5.5688441e-01
 -5.3163141e-01
 -1.9002715e-01
 -8.1094480e-01
 -1.2724708e-01
  1.0649201e-01
 -2.6983330e+00
 -2.0215498e-01
  3.2311749e-01
  1.0592937e-01
 -1.3589850e-01
  9.2397052e-01
  6.7564285e-01
 -4.6502751e-01
 -4.0391225e-02
  2.5809771e-01
  2.9474385e+00
 -2.4859817e-01
  7.0023641e-02
  1.1936793e+00
  1.9653061e-02
 -9.2661977e-01
  2.7096337e-01
 -4.2847630e-01
  3.7494734e-01
  2.4940166e-01
  1.8822122e+00
 -5.0290859e-01
  1.1582689e+00
  8.5952026e-01
 -1.3413088e+00
 -4.4540362e-03
  1.6864434e-02
  4.0385115e-01
 -6.4463043e-01
 -1.1585727e-01
 -1.8187066e+00
  2.5278192e+00
  4.1842335e-01
 -7.4695367e-01
 -1.0129198e+00
 -6.9941139e-01
 -3.2657894e-01
 -1.3127422e-01
 -2.5560746e-01
  1.8685669e-01
  2.6060832e-01
 -5.6548584e-01
 -1.4259277e-01
  2.5208480e+00
 -2.6815670e+00
  1.2832527e-01
 -1.3739038e+00
  3.0486354e-01
 -1.2561067e+00
  1.0583296e+00
 -1.2212682e+00
 -1.8997906e-01
  9.9785990e-01
 -7.5173214e-02
 -6.3570589e-01
  1.2702813e+00
  3.6979339e-01
 -2.1346560e-02
 -3.9917010e-01
 -1.4796686e-01
 -2.9519144e-01
  6.2419810e+00
  4.0268937e-01
 -1.0166822e-01
 -9.6979493e-01
  3.3545375e-01
 -3.5839122e-02
  2.3206274e-01
 -7.8188002e-02
 -1.4351048e-01
 -1.7407955e-01
  2.7923656e-01
 -2.5066352e-01
 -3.0590811e-01
 -1.0260428e-01
  7.4775167e-02
  1.5689568e-01
  3.9699233e-01
 -1.1032700e-01
 -9.7171031e-02
  5.0597396e-02
  3.0944994e-01
 -9.7187334e-01
 -1.9149433e-01
 -5.1143050e-02
  3.7597397e-01
 -1.8540719e-01
  4.3062833e-03
 -1.7110536e+00
  8.1301354e-02
  2.2397060e-03
 -3.2344356e-02
  8.7702131e-01
  1.4709814e-01
  4.0483961e-01
  1.4941217e-01
 -1.0547934e+00
  1.2129968e-01
  2.8382211e+00
  5.2518237e-01
  4.1239392e-02
 -6.6074207e-02
  9.8998040e-01
  5.5092309e-02
  2.1533152e-01
 -1.8074948e+00
 -2.8172982e-01
  6.3752681e-01
 -1.0444382e+00
  1.9245662e-01
  1.4868921e+00
  2.3752721e-01
  3.7370797e-02
  1.9269179e-01
  6.7293286e-01
 -1.0567510e+00
  3.4971398e-01
  1.8205285e+00
 -3.1792289e-03
  1.2669536e-01
  2.1550708e+00
 -7.2720265e-01
 -6.3863277e-01
 -9.1569370e-01
  2.3936229e-02
  3.1124097e-01
 -7.5466591e-01
  3.0479282e-01
  2.7380106e-01
  8.0654198e-01
  4.2002672e-01
  3.0276915e-01
 -3.7881392e-01
  2.6893291e-01
 -3.5340139e-01
  3.3521527e-01
  2.3962295e-01
  3.7966281e-01
  1.7187507e-01
  5.6400454e-01
 -4.1034907e-01
 -6.2868518e-01
  1.8263069e-01
 -2.5900531e-01
  3.6437094e-01
  2.2309287e+00
  8.3141220e-01
  9.0956226e-02
 -4.3745136e-01
 -3.4150547e-01
  3.4611160e-01
  8.5716623e-01
 -1.1097194e+00
 -5.3250015e-01
 -3.8466105e-01
  1.4736331e-01
  2.0056085e-01
 -2.3728567e-01
  5.2234161e-01
  3.4744632e-01
 -1.8200146e-01
 -2.5213772e-01
  5.6515080e-01
  9.0528929e-01
 -9.1550046e-01
  4.3369499e-01
  2.3957171e-02
 -6.5448320e-01
 -8.9677650e-01
 -4.6264830e-01
  5.2596641e-01
 -2.8971809e-01
  1.5461498e+00
 -2.0694697e-01
  1.4433191e+00
  2.2345710e-01
 -3.8719445e-01
  3.4804425e-01
  3.1545717e-01
  6.6345461e-02
  4.4944037e-02
 -4.0402979e-01
  4.2391889e-02
 -3.4106016e-02
  1.8188879e-01
 -1.9709167e-01
  1.2261559e-01
 -3.1939286e-01
 -4.2333779e-01
  1.1462601e-01
 -1.1025696e-01
  9.9179173e-01
 -1.2122134e+00
  1.4886374e+00
 -1.5402027e+00
  2.8710845e-01
 -3.2690641e-01
 -3.9116970e-01
  1.9195452e+00
  3.1534398e+00
  1.1804696e+00
 -3.0338809e-01
  1.2410963e-02
 -6.1719723e-02
 -1.1039821e+00
 -1.8041294e+00
 -1.8042403e-01
 -1.3194535e+00
  6.7842883e-01
  6.9612449e-01
  8.0758774e-01
  6.4800215e-01
 -5.7166445e-01
  2.0841545e-01
  1.2488306e-01
 -2.5345877e-01
  8.2305914e-01
  1.4997133e+00
  4.1260740e-01
 -3.5096464e+00
 -8.0681711e-02
 -2.1557780e-01
 -7.4756688e-01
 -1.7021356e+00
 -1.5168183e-01
 -1.3112627e+00
  7.3412061e-01
  7.2127096e-02
 -3.2685021e-01
  1.9445638e-01
 -2.0855990e-01
 -2.1607134e-02
  2.0631643e-01
  1.2451886e+00
  1.4963651e+00
  9.8965891e-02
  1.5884336e+00
 -1.3119124e-01
 -1.2766719e+00
 -7.8591818e-01
 -3.1809545e-01
 -1.9147331e-01
  2.9989269e-01
  7.1654588e-01
 -3.2570422e-01
  6.5886629e-01
  7.0709586e-03
  1.0800959e+00
 -4.2511523e-01
  6.1904877e-01
 -1.1206400e-01
  4.7076261e-01
  4.8516560e-01
 -1.8224076e+00
  5.2496570e-01
  9.0301543e-02
  9.1757908e-02
  3.9493102e-01
 -3.1461927e-01
  4.3815342e-01
  2.5112383e+00
  1.2153007e+00
  3.0647054e-01
 -8.1942427e-01
  2.4576008e+00
  2.5217836e+00
  1.8611279e+00
  2.5740087e-02
 -7.3598969e-01
  6.4810574e-01
  1.5177585e+00
 -1.0735904e-01
 -2.8223348e+00
 -1.7270488e+00
  1.7552012e+00
 -3.2762330e-02
 -8.9502975e-02
  3.7426641e+00
 -1.6246526e-01
 -1.0319513e+00
  1.4252478e-01
  1.0486821e+00
  3.0245230e-01
  1.5999272e-01
 -5.7934827e-01
  7.7368841e-03
 -1.8111315e-01
 -7.0304179e-01
  1.3762532e+00
 -1.0962321e+00
  9.6835119e-01
  2.6835825e-03
 -1.1809322e-02
 -1.5140060e+00
 -6.7817569e-01
  3.1361306e-01
  7.8331180e-02
 -4.1063038e-01
  5.0829476e-01
  6.4763761e-01
  3.2408395e-01
  5.4460108e-01
 -2.4648187e-01
 -3.0597112e+00
  9.5436949e-01
 -6.3111192e-01
  7.0947075e-01
 -3.6499131e-01
 -6.3309813e-01
  2.7827621e-01
 -5.2499688e-01
 -7.5566925e-02
  2.1881367e-01
  2.8478369e-02
  2.9964155e-01
 -8.0655269e-02
  8.3954644e-01
  1.0661113e+00
 -8.8519961e-01
  3.8837299e-02
  5.8506328e-01
  7.3903185e-01
  4.5274156e-01
 -5.8181450e-02
  1.1392522e+00
  4.1824758e-01
  2.5971529e-01
  1.2081602e+00
 -9.1156259e-02
 -1.5559386e-01
 -2.1041475e-02
  2.2503915e-01
 -2.3520570e+00
 -6.5130317e-01
 -4.5564216e-01
 -4.2180705e-01
  6.7758195e-02
  1.4697678e+00
 -3.3791429e-01
  7.7972144e-01
  1.5405065e+00
  3.0097929e-01
  6.4693165e-01
 -1.3174689e-01
  3.0130775e+00
  1.5484500e-01
  3.3671609e-01
 -5.4207212e-01
  4.0151724e-01
 -7.2684604e-01
 -2.8236122e+00
  8.6018479e-01
  1.2339530e+00
  3.4866302e+00
 -5.5352354e-01
  1.3896077e+00
  4.4580653e-01
  2.5220029e+00
 -5.7762897e-01
 -5.8220375e-01
  2.9325941e-01
  1.1979151e+00
  2.7673271e-01
 -3.4395781e-01
 -8.2951421e-01
  7.9072058e-02
 -6.9050103e-01
 -8.0797687e-02
  9.9719405e-01
 -2.3143611e+00
  7.4638557e-01
  1.3952117e-01
  2.8632557e+00
 -2.1130724e-01
 -3.7309191e-01
 -9.8346055e-01
  2.1022147e-01
 -1.3094196e-02
 -8.2393087e-02
  1.0806394e+00
  7.3675352e-01
  2.0899334e+00
  3.4500723e+00
  2.9822981e-01
  2.3292642e+00
 -3.3822930e+00
  3.9200720e-01
  1.1992694e+00
 -2.5762677e+00
  3.5124283e-02
 -4.2884389e-01
 -8.5459018e-01
 -3.3156209e+00
  5.4439020e+00
 -1.8680425e+00
 -3.5586450e-01
 -2.8268180e+00
 -2.5391325e-01
 -5.4037291e-01
  1.7867554e+00
  6.0145650e-02
 -6.5855682e-01
 -1.2005159e+00
 -4.5751303e-02
 -9.1304225e-01
 -7.5174429e-02
  1.1285156e+00
  1.0601486e+00
 -2.5948834e-01
  3.7633058e-01
  2.4475497e-01
  1.4191942e+00
 -2.0877768e-01
 -7.1193415e-01
  2.5869182e-01
  5.1127832e-02
 -5.3012502e-01
 -9.0879321e-01
  4.4726458e-01
  1.0565121e+00
 -8.8252562e-01
  2.8613288e+00
 -3.0729166e-01
 -8.6678386e-01
  3.1082645e-01
  5.2410847e-01
  1.0243884e+00
  6.0068834e-01
 -9.2870605e-01
  1.7303128e+00
 -4.4161031e-01
  1.3193098e-01
 -8.6656648e-01
  3.6420874e-02
  1.9840075e-01
  3.0671614e-01
 -1.5903042e-01
  3.4334469e-01
  1.7420825e-01
 -3.5308215e-01
 -7.9775482e-02
 -1.4867938e+00
  3.7839058e-01
  7.7650565e-01
 -2.5207965e+00
  8.1284928e-01
  6.6969019e-01
  9.3363844e-02
 -8.0279589e-01
  7.8230566e-01
  4.2771599e-01
  9.6002328e-01
  1.1793695e-01
  6.3476723e-01
  3.7153801e-01
 -7.8780001e-01
  7.9028763e-02
 -1.3722198e-01
 -1.5850201e-01
  3.6809906e-01
 -8.5376137e-01
 -1.5099426e-01
 -4.9431026e-01
 -8.3330441e-01
 -3.0953932e-01
  5.1639207e-02
  1.0423763e+00
  3.0135229e-01
  6.7424989e-01
  1.5659933e-01
 -7.2382867e-01
 -7.4516630e-01
  2.5600237e-01
  8.8763869e-01
  9.8722231e-01
 -3.4210944e-01
 -4.0534103e-01
 -7.2811037e-02
 -6.1909467e-01
 -5.2284914e-01
 -3.2805447e-02
 -1.1974358e-01
 -3.4957179e-01
 -1.5724942e-01
 -1.7294896e-01
  4.1545130e-02
 -1.3284464e-01
 -5.0708449e-01
  3.0358136e-01
 -3.4434479e-01
  5.4565281e-01
  6.5527928e-01
  7.0331544e-02
  7.9541755e-01
  3.5599399e+00
  8.6459947e-01
 -1.2831916e-01
  8.3959484e-01
  7.8665608e-01
 -1.7677671e-01
  4.4985354e-01
 -7.5812079e-02
  4.9523577e-01
  1.0930638e+00
  3.3384550e-01
 -2.6622105e-01
 -2.3602137e-01
 -1.0948906e+00
  4.7901401e-01
 -1.9184409e+00
 -2.6025031e-02
  2.8738182e+00
 -2.6586628e+00
 -4.0396670e-01
 -2.8028202e-01
 -8.8783687e-01
  2.2236256e-01
 -2.8884251e+00
  9.8151809e-01
 -1.4767623e+00
 -7.4873644e-01
  3.7360546e-01
 -5.0170736e+00
 -3.4539440e-01
 -3.9904761e-01
  1.1727064e+00
 -5.2972823e-01
  1.8539203e+00
 -3.1777563e+00
  3.6110765e-01
 -2.3111381e-01
 -1.5934999e+00
 -2.0037761e-02
  1.2697098e-01
  5.7663119e-01
  2.4705049e-01
 -1.3043129e+00
  1.5206354e+00
  5.9009790e-01
 -5.5667806e-01
  2.8591301e-02
 -1.3786845e+00
  1.5971000e+00
  2.7486429e+00
 -7.8572750e-01
 -3.3866961e+00
  2.6295039e-01
  1.2396780e+00
  4.3512419e-01
  1.2441823e+00
 -1.0740814e+00
 -4.1500649e-01
  9.4427472e-01
  1.7273670e+00
  8.9406973e-01
  3.2894182e-01
  2.0513237e-01
 -1.9831879e-01
 -1.3779215e+00
  1.4324273e+00
 -2.0648444e+00
  1.8713117e+00
 -8.4900135e-01
  8.0259487e-02
 -1.9069208e+00
 -1.7848009e-01
  1.2125185e+00
  1.1008863e+00
 -1.3175845e+00
 -1.3964829e-01
 -5.5574048e-01
 -7.0355850e-01
 -8.5287380e-01
  5.6352681e-03
 -1.3573838e+00
  9.7700477e-01
  2.4585122e-01
 -2.7722328e+00
  1.4494416e+00
 -1.9267315e+00
 -2.2055712e-01
  8.4388721e-01
 -2.8005979e+00
  1.2345207e-01
  1.5880993e-01
 -1.7047189e+00
 -6.0940540e-01
  6.9686860e-02
 -5.6228381e-01
  1.1377919e+00
 -1.3660417e+00
  1.8347520e-01
 -6.8011236e-01
  3.1328678e+00
 -8.9831680e-01
 -1.4444368e-01
  9.3128048e-02
 -1.3191067e+00
  1.3311899e+00
  1.4488734e-01
 -1.8175102e+00
  5.5257493e-01
 -3.0557454e-01
  2.6660509e+00
  3.3908701e-01
  2.4626741e-01
  2.0721895e-01
  9.8837698e-01
  2.2034085e-01
  2.5636274e-01
 -9.9147344e-01
 -5.5045545e-01
 -3.7290013e-01
 -5.2849627e-01
 -1.0403453e+00
 -3.0389166e-01
  9.5525998e-01
  1.2436117e-01
 -1.1126131e-01
 -1.2706858e+00
  3.9396259e-01
  2.3488095e+00
 -5.4272795e-01
  1.6732578e+00
 -5.3582456e-02
 -5.8104396e-03
  1.3843123e+00
  1.4779371e-01
  7.2024956e-02
 -4.5463204e-01
 -3.1711534e-03
  1.2427536e+00
 -7.5163704e-01
  6.0791779e-01
 -3.9017642e-01
 -7.5287133e-02
  1.5234180e-01
  3.8547093e-01
  7.4731481e-01
  4.3823662e-01
  4.8714957e-01
  5.7313108e-01
  4.3881735e-01
  9.0267605e-01
  7.8640509e-01
  1.4971100e+00
  1.2490337e+00
  1.6128294e-01
  2.8389649e+00
  8.6612260e-01
 -8.6312354e-01
  3.4063206e+00
 -1.9145762e+00
  9.6445251e-01
  8.6631173e-01
 -8.2146591e-01
 -2.1149638e+00
  1.9688508e-01
 -1.5939410e-01
 -1.9110457e+00
 -1.0882876e+00
  6.0271937e-01
  1.0985019e+00
 -2.7381787e-01
  7.4689132e-01
  6.8706632e-01
 -9.5740414e-01
  1.7984957e+00
 -4.7045127e-01
  7.0317107e-01
 -1.6907372e+00
 -4.6845853e-01
  8.8900977e-01
 -2.7055374e-01
  1.0908140e+00
 -5.8615053e-01
  4.2666078e-01
  1.6778293e+00
  9.7680801e-01
  2.8937168e+00
  5.7828206e-01
 -3.6016148e-01
 -2.5640564e+00
  3.2960477e-01
  5.3397179e-02
 -6.6452587e-01
  6.4689642e-01
  8.6079645e-01
 -1.6204814e+00
  4.0258163e-01
 -2.4886078e-01
 -1.9460571e-01
 -1.5662719e+00
  2.1004786e+00
  8.7839317e-01
  4.5311731e-01
 -2.4586995e-01
 -3.5110366e-01
 -7.2133817e-02
 -1.1529413e-01
  5.5807054e-01
  6.8087924e-01
  2.4002753e-01
 -4.3929255e-01
  4.7200084e-01
 -1.1658154e+00
  3.9308506e-01
  4.2194626e-01
 -6.1427158e-01
 -2.7127185e+00
 -6.0790023e-03
  1.7557965e-01
 -2.3244569e-01
 -2.0964208e-01
 -4.4868940e-01
 -7.9863101e-02
 -1.0591173e+00
 -2.0359543e-01
 -1.7932721e+00
  3.8801804e+00
 -6.1958021e-01
  4.0156153e-01
  5.7281262e-01
  1.1941607e+00
 -9.4431657e-01
  8.2049620e-01
  1.5619417e+00
 -4.6812811e-01
  2.5209692e-01
  5.9762585e-01
  6.0426340e-02
  6.9094729e-01
 -1.2255160e+00
  3.7721303e-01
  1.2458173e+00
 -2.9942024e-01
 -2.7937615e-01
 -1.8012929e-01
 -6.2472802e-01
  3.0209394e+00
 -2.5482607e-01
 -4.4594973e-01
  1.1094667e-02
 -1.3321463e+00
  4.9266306e-01
 -1.2512463e+00
  7.2442852e-02
 -7.0195210e-01
  1.3510847e+00
  4.2729172e-01
  1.6537282e-01
 -1.2271985e+00
  1.4536179e+00
 -3.0944102e+00
 -3.6632574e-01
  1.3534595e+00
 -8.8210410e-01
 -1.6245940e-01
  2.0857187e-01
  1.8687704e-01
  4.3737221e-01
 -4.3979874e-01
 -1.3475607e-01
 -2.2530898e-01
  1.5068176e+00
  3.3561081e-01
  1.0979916e+00
  2.5337499e-01
 -4.5729133e-01
 -2.7408590e+00
  3.4861988e-01
 -1.4919187e+00
 -6.0004473e-01
  4.5591640e-01
  5.4373538e-01
  3.4751353e-01
  2.0537598e+00
  1.2682288e+00
 -6.8214707e-02
  3.7362689e-01
  7.3580891e-02
 -5.1548149e-02
  2.7017432e-01
  1.4780295e+00
 -5.2475876e-01
  1.9528157e-01
 -1.3670125e+00
 -9.8464161e-02
 -3.6839142e-02
 -2.7604983e+00
 -1.1191269e+00
 -7.6170212e-01
  1.5261447e-01
  4.1716972e-01
 -1.5277305e-01
 -3.6466551e-01
 -4.7549522e-01
  2.3507017e-01
  2.2223322e+00
  3.7402552e-01
  7.6483524e-01
 -2.3539233e+00
  1.8376720e-01
 -1.3790308e+00
  2.0272970e+00
  1.1081520e+00
 -6.5172249e-01
  1.5818722e+00
 -1.1874847e+00
  1.2865860e+00
  1.0296212e+00
  7.0482391e-01
  7.9486616e-02
 -9.3102551e-01
 -3.3238927e-01
  2.5618052e+00
  8.3498937e-01
  3.0679302e+00
 -3.0794497e+00
  2.0605943e+00
  3.3697861e-01
  1.6908808e+00
  5.4218233e-01
  1.3788334e-01
 -9.7263098e-01
 -1.5311966e-02
 -2.1370870e-01
 -3.6199405e+00
 -4.3719611e-01
 -3.4665062e+00
 -1.5905339e+00
 -1.6780268e-01
 -8.7544270e-02
 -1.5968843e-01
 -3.4787261e+00
 -2.5167111e-01
 -1.6978157e-01
 -1.0445666e+00
  3.4395809e+00
  3.7830797e-01
 -5.3963184e-01
  2.1318433e+00
 -4.4969667e-02
 -2.1528988e+00
  2.4358459e+00
 -1.4602345e-01
  1.0912784e+00
  2.6379361e+00
  1.1940458e+00
  1.5466858e+00
  8.2254440e-01
 -2.2373320e-01
  1.3090003e+00
  4.1919798e-01
 -9.5541275e-01
  1.2156503e-01
  4.5518008e-01
  3.5695308e-01
 -2.9554862e-01
  4.2816749e-01
  1.0808396e+00
  2.5034839e-01
  4.0172088e-01
  2.5854230e-01
  2.0172675e-01
  4.5447496e-01
 -1.0269527e-01
 -2.2798577e-01
  2.5251213e-01
 -2.2546711e+00
 -1.8055373e-01
 -3.1502461e-01
  8.6638111e-01
  1.3022894e+00
 -2.3407181e-01
  4.0778384e-02
 -5.9489566e-01
  2.9376149e-02
  1.1504070e+00
 -2.5668269e-01
  4.3736431e-01
 -3.5827184e-01
  6.3313216e-01
  1.4890919e+00
 -4.0415010e-01
 -2.1290779e-04
 -1.1536827e-01
 -2.9141426e+00
 -1.9029189e-02
 -1.1639864e+00
 -1.5249938e-02
 -1.9042803e+00
  8.5263953e-02
  9.3895376e-02
  4.9987504e-01
 -1.1051949e-01
 -3.2513745e-02
 -8.5469627e-01
  3.1517461e-01
 -5.3149784e-01
 -2.9904526e-01
 -1.8069109e-01
 -5.0013405e-01
  1.7350346e+00
 -9.8224247e-01
  2.1339417e-01
  1.1146066e-01
  2.0589285e-01
  4.8756668e-01
  9.3231124e-01
 -6.1774397e-01
 -2.2742356e-01
  2.1703495e-01
  4.7808239e-01
  5.9127498e-01
  7.3487461e-02
  8.1300750e-02
 -9.1178918e-01
 -1.9377525e+00
 -1.1804168e+00
 -1.4092173e-01
 -9.9963963e-02
 -1.8510163e+00
 -4.0517697e-01
  1.8100356e+00
 -8.9307773e-01
 -1.3929740e+00
 -7.2014534e-01
 -1.2310008e+00
 -8.1020695e-01
  1.5867748e+00
 -8.0151927e-01
 -1.1848019e+00
  1.7772555e+00
  3.6854705e-01
 -1.3333480e-01
  1.1631640e+00
 -2.5138512e+00
 -2.1931884e+00
  4.6411335e-01
  1.2398490e+00
 -4.4679366e-02
 -1.7256104e+00
  2.0682237e+00
 -3.8009202e-01
 -7.1578455e-01
  2.8321522e-01
 -5.9846991e-01
 -1.0602040e+00
  6.7882472e-01
 -2.2723899e+00
  1.7969525e+00
 -2.1889203e+00
 -1.9284265e+00
  8.2170033e-01
 -3.7235782e-01
  4.1866934e-01
 -1.8759374e-01
  1.4153366e+00
  4.2539687e+00
  8.3815658e-01
 -3.2239646e-02
  6.6419059e-01
  8.7532490e-01
  5.4004955e-01
 -1.0806909e+00
 -8.3377981e-01
 -1.6778083e-01
 -8.3613437e-01
  6.8495965e-01
  3.4533191e-01
 -4.2774029e-02
 -8.3018941e-01
 -1.5404338e+00
  1.6687649e+00
 -4.6858466e-01
  1.0254903e-01
  8.6589700e-01
  5.3637469e-01
  1.4903985e+00
  6.4897972e-01
 -9.8555487e-01
 -1.3201533e-01
  2.3158258e-01
  3.1401914e-01
 -1.2883878e-01
 -1.4393272e-01
  7.1357507e-01
  1.4944133e+00
 -2.7074319e-01
 -5.8405674e-01
  1.1866922e+00
 -3.8611916e-01
  7.9058969e-01
  8.7138593e-02
 -3.2329789e-01
 -8.4320849e-01
  1.0750326e+00
  1.0525329e-01
  4.1594627e-01
 -7.1514559e-01
 -2.6255473e-01
 -8.8910389e-01
  1.0600071e+00
  5.2181041e-01
 -3.6914322e-01
 -8.1815100e-01
 -2.6641455e-01
  7.1217306e-02
  5.5532336e-01
 -1.7028816e-01
  4.1464376e-01
  3.3999157e-01
  5.7400531e-01
  2.9583359e-01
 -1.0726691e+00
  9.3169957e-02
  2.7162826e-01
 -1.5547921e-01
  3.4797666e+00
 -8.9853399e-02
  3.5240576e-01
 -6.7249787e-01
  1.8755537e+00
  8.8195980e-02
 -7.5624622e-02
 -1.1080480e+00
  1.7499682e+00
  1.0213527e-01
  2.4290089e-01
 -1.3396145e-01
  1.3533179e-01
  2.0833687e-01
  5.5062018e-02
 -1.7156795e+00
 -1.7622048e-01
  2.1429497e-01
  2.1059039e-01
 -6.1776477e-01
  1.6328868e-01
  4.2105865e-02
  2.8319836e-01
 -3.8382956e-01
  7.4631876e-01
  2.8838545e-01
  3.3875294e-02
 -3.7418757e-02
 -3.0816337e-01
  1.0877943e-01
  1.6014143e+00
 -1.5995795e-01
 -1.4202462e-01
 -3.1518722e-01
 -3.7240991e-01
  3.6204401e-02
  6.4814329e-01
  9.0431169e-02
  1.4021995e+00
  1.0866864e+00
 -1.5018834e+00
  1.7106834e-01
  5.8683908e-01
  2.1108624e-01
 -1.9040386e-01
  3.2147334e+00
 -7.5270098e-01
  2.6008123e-01
 -7.7040416e-01
 -1.2867962e-01
  6.3933805e-02
  5.7896078e-01
 -7.8435922e-01
  7.7315998e-01
 -6.7241299e-01
  1.0027485e+00
  6.1022955e-01
  5.6209165e-01
 -1.2310046e-01
 -8.4559821e-02
  2.0992869e-01
 -1.1073283e+00
  9.8947033e-02
  5.4966247e-01
  8.2042493e-02
 -1.0882183e+00
 -1.5777898e-01
  1.0479549e-01
 -1.0206755e-01
  6.2290505e-03
  1.5960978e-01
  1.4932403e-01
  7.6452322e-02
 -3.2454467e-01
 -1.3886751e-01
  2.0374915e-01
 -6.3620836e-02
  8.3764866e-02
  3.8578179e-01
  9.3160987e-01
 -7.6076479e+00
 -6.5286779e-01
  1.0677330e+00
 -1.1572138e+00
 -6.0612273e-01
 -3.8169825e-01
  2.3323537e-01
 -1.0218147e+00
 -3.0795333e-01
 -2.3213457e-02
 -1.6471402e-01
  1.2751853e+00
  9.2673016e-01
  4.4320703e+00
  1.8707395e-01
 -1.5056436e+00
  2.4786229e-01
 -4.9696244e-02
 -9.3077272e-03
 -9.5881045e-01
 -2.2815403e-01
 -2.3552175e-01
  6.5871036e-01
  2.5322163e-01
  6.5248239e-01
  9.4943225e-02
  9.9574745e-01
 -2.4583310e-01
  1.2389855e+00
  3.6849706e+00
 -9.6542680e-01
  2.3852658e+00
  1.7550461e+00
  6.3732803e-01
  3.0468516e-02
  1.8554165e+00
 -8.8446331e-01
 -9.0586647e-02
  3.5884091e-01
  2.5947261e-01
 -2.9744074e-01
 -5.6305462e-01
  1.2024781e+00
 -5.6613618e-01
  4.0457335e+00
 -6.0729641e-01
 -1.4853275e+00
  1.3551878e+00
  6.0096109e-01
  2.1977410e+00
  6.9621629e-01
  5.5279356e-01
 -1.4999467e+00
 -1.0465007e+00
  8.6222380e-02
 -5.6130640e-02
  4.5113854e-02
 -7.4201161e-01
 -6.6347480e-01
  1.3239743e+00
  7.0014966e-01
  1.1286918e+00
 -1.8023545e+00
  2.1698816e-02
 -1.0916485e+00
  1.1685596e+00
 -5.4817694e-01
  9.5724124e-01
 -6.9049984e-01
  1.8197175e+00
  2.2166312e+00
  7.5973707e-01
 -4.0720516e-01
  1.3361247e+00
 -8.6763196e-02
  1.7542397e+00
  1.5680676e+00
 -7.3299176e-01
  1.4408334e+00
 -1.1150868e+00
  1.5784357e+00
  2.6917303e+00
 -2.0694757e+00
  3.3050241e+00
  9.9024689e-03
  4.3550667e-01
  7.2585976e-01
 -2.9805133e-01
  1.3744458e+00
 -4.8322204e-01
  4.7551706e-01
 -1.7346436e-01
 -1.3305565e+00
  1.7569270e+00
  7.9782885e-01
  1.7435458e-01
  3.6651930e-01
 -9.2118162e-01
  1.5258309e+00
 -1.6425296e+00
 -1.5816171e+00
  1.1482705e+00
  3.1636252e+00
  4.5137507e-01
  2.7594948e+00
  1.9937029e-01
  2.8247949e-01
  1.4868987e-01
  2.4693327e-01
  7.6248318e-01
 -4.6786493e-01
  1.3584926e+00
 -5.9301788e-01
  1.6286339e+00
  1.4195642e-01
 -2.3254544e-01
 -5.5082506e-01
 -1.0550832e+00
 -3.4693587e+00
  6.3212496e-01
  5.8307582e-01
 -2.2944279e-01
  1.2655154e-01
  4.6355692e-01
 -5.5702668e-01
 -5.6687868e-01
  1.1452459e-02
 -1.9284602e-01
  5.1292789e-01
 -1.0667689e+00
  6.9592732e-01
  2.6853487e-01
  7.1796179e-02
 -5.0912917e-01
 -5.2294999e-02
 -6.2968843e-02
 -1.4811398e+00
 -7.9859483e-01
  1.8669307e+00
  1.4949809e+00
 -4.6231595e-01
  1.0316058e-01
 -1.6331583e-01
 -1.0914207e+00
 -2.1598959e+00
  6.8306166e-01
  1.8895252e+00
  4.4255248e-01
 -1.4335397e-01
 -1.2302330e-01
 -1.6961962e+00
  1.9437926e+00
 -3.4240975e+00
  3.9554635e-01
  1.6205558e-01
  9.6674418e-01
 -5.3889591e-01
  1.3940207e+00
 -6.3597083e-02
 -1.4159892e+00
  2.0357676e+00
 -2.0847788e-01
  1.9777247e-01
 -2.6232117e-01
 -6.7470604e-01
  9.0763777e-01
 -1.5983072e-01
  1.7260484e-01
 -4.7073707e-01
 -3.3234239e-02
 -1.6353728e+00
 -6.9933301e-01
 -1.1524707e-01
 -2.7277893e-01
 -1.4707552e-01
 -2.0841742e-01
  2.7460706e-01
 -1.4980021e+00
 -9.7489677e-02
 -1.0004034e+00
  2.8975490e-01
  6.0847729e-01
 -1.5083704e+00
 -1.8750635e-01
  7.1558106e-01
 -6.7991126e-01
 -7.2046518e-01
  3.6163051e-02
 -5.2305079e-01
 -1.6460410e-01
  4.2283803e-02
 -1.2336162e+00
 -7.3923367e-01
  8.4428036e-01
 -2.3525316e-01
  4.6353735e-02
  5.4536772e-01
  1.1478391e-02
  1.4341694e-01
  5.8563572e-01
  2.5662639e+00
 -1.0089537e-01
  4.7722816e-01
  8.8362002e-01
 -1.1922506e+00
  5.6724048e-01
 -7.3276234e-01
  1.6633046e-01
 -1.1377981e+00
  1.5226931e-02
 -2.6992593e-02
  9.8786026e-02
  5.9427488e-01
  3.6018801e-01
 -1.8920285e-01
 -4.7117165e-01
 -3.2170463e-01
 -3.0548966e+00
 -1.3882214e+00
  3.0181894e-01
 -2.0182922e-01
 -1.8680003e-01
 -3.2053635e-01
 -6.5349686e-01
  5.2217257e-01
  8.4385949e-01
 -4.1473666e-01
 -5.5267833e-02
 -2.6108533e-01
  4.0539771e-01
  1.3685554e+00
  5.0833333e-01
 -1.4817582e-01
 -1.2538531e+00
 -4.6531208e-02
  2.9375738e-01
  2.2225678e-02
  5.5696076e-01
 -1.3303493e-01
 -4.4970994e+00
 -1.1579444e+00
 -1.7397624e+00
  3.2469493e-01
  3.9863706e-01
 -1.9494739e+00
 -1.5442867e+00
  4.8673689e-01
  2.3955506e-01
  1.2961329e+00
 -1.4939624e-01
 -1.2748224e+00
 -7.2598600e-01
 -6.5901780e-01
  1.0539035e+00
  2.9871535e-01
 -2.5542812e+00
  1.9082899e-01
  1.3027097e-01
  2.1757257e+00
 -1.0329243e+00
 -1.8863665e+00
  1.9917854e+00
 -2.0877281e-01
  1.3580064e+00
 -5.7012916e-02
 -5.3818327e-01
  2.6568741e-01
  4.8715642e-01
 -3.5058397e-01
  1.3339274e+00
  5.2411741e-01
  2.2295941e-02
  6.9702500e-01
 -1.2550397e-01
  1.1082456e-01
 -1.5777806e+00
  3.9898756e-01
 -1.1694843e-01
 -1.2118762e+00
  2.4540810e-01
 -7.8806832e-02
  8.4452170e-01
 -5.7325625e-01
  2.7181077e-01
 -6.9968992e-01
 -1.0047398e+00
  4.6894315e-01
 -9.4415590e-02
  1.8625417e+00
  2.6361816e-02
 -4.2681494e-01
 -2.4485333e-01
 -1.0988552e-01
  2.3002572e-01
 -8.4319368e-02
 -1.2457741e+00
  3.2567245e-01
  7.1064353e-01
 -6.7900127e-01
  1.6113080e-02
  4.7165385e-01
 -9.4900566e-01
 -1.6850965e+00
  2.4418435e-01
  2.4268217e-04
 -1.2822540e-01
  3.7457919e-01
  8.1719601e-01
  1.4795499e+00
  2.7034187e-01
 -1.4772998e-01
 -6.3464475e-01
  1.0462077e+00
  1.1454909e+00
  3.8408220e-01
  4.6721718e-01
 -3.7945366e-01
 -5.1149052e-01
  5.8466226e-01
  2.2591472e-01
  3.3883162e+00
 -6.6791767e-01
 -9.0942758e-01
 -3.1436020e-01
 -1.9222048e-01
  5.6102329e-01
  2.6784503e-01
 -7.9633892e-03
 -1.3151701e-01
  3.3784385e+00
 -2.5234897e+00
  5.7861412e-01
 -4.9731107e+00
  7.5362432e-01
 -2.2225296e+00
 -3.5605073e-01
  2.4932767e-01
 -1.9408309e+00
 -5.3647554e-01
 -2.6080723e+00
  4.0145525e-01
  2.6540196e+00
 -5.4403162e-01
  3.8102180e-02
 -1.5958387e+00
  1.1204747e+00
  1.5090631e+00
  1.8620994e+00
 -1.3310466e+00
 -2.2377999e-01
  1.1545053e+00
  2.4707968e+00
  5.0708073e-01
 -6.4514747e+00
 -2.0802423e-02
  1.6177134e-01
 -8.1771106e-02
 -2.2968187e+00
  3.1270996e-02
 -6.8157944e-03
  3.7366420e-01
 -1.5196891e-01
  1.0658550e+00
  4.0646639e-01
 -6.5399057e-01
 -2.1703327e+00
 -6.3314997e-02
 -2.2689123e+00
 -2.6889296e+00
  2.1213748e+00
  4.6277735e-01
  4.5421356e-01
  1.2397261e+00
  2.1815655e-01
  4.4911620e-01
  1.0628242e+00
 -1.7373468e+00
  2.2656964e-02
 -2.1477904e+00
  7.2475028e-01
  3.2336047e-01
 -2.3654077e+00
 -9.7256035e-02
  1.2758591e+00
  5.9735231e-02
 -1.7842768e-01
 -3.0768180e-01
  2.9785553e-01
 -1.0047985e+00
 -4.7221267e-01
  2.4476032e+00
  1.1462611e-01
  8.4628749e-01
 -1.8719803e-01
  4.1392893e-01
 -7.6404087e-02
 -2.5166774e-02
 -3.8694775e-01
  2.3851165e-01
  3.6120579e-01
  7.4275218e-02
  1.8044925e-01
  2.3026389e-01
  3.7922272e-01
 -5.1426274e-01
 -1.8480071e-01
  8.7903565e-01
  2.9011637e-01
  4.3258297e-01
  1.9530261e-01
 -6.1461234e-01
 -6.9318101e-02
  3.1386769e-01
  8.2190484e-01
  7.3063475e-01
  7.3216319e-01
  3.2746023e-01
 -6.1147857e-01
 -1.0382797e-01
  1.3665935e-01
 -5.5670631e-01
 -2.8858384e-01
  7.4533145e-03
  1.3585653e+00
 -8.3008599e-01
  3.6414627e-02
  7.2585247e-02
  1.8283875e-01
 -2.1974552e+00
 -1.1306130e+00
 -5.8994627e-01
  9.0255909e-02
 -3.9296004e-01
 -1.7043573e-01
  9.4244128e-01
  2.6415586e-01
 -3.8161767e+00
  3.2789707e+00
  8.0784410e-02
  2.0953434e+00
  1.7772901e+00
  2.0429382e-01
  7.7527779e-01
 -2.5472820e+00
 -5.6140922e-02
 -1.8260700e-01
  2.0497847e+00
 -1.0372800e+00
  9.8232180e-01
 -6.8427965e-02
 -1.1173631e+00
  4.3272692e-01
 -2.8645086e+00
 -5.2631218e-02
  5.5158222e-01
  1.5625566e+00
  3.2175919e-01
  1.4308724e+00
  7.0500857e-01
  6.0980409e-01
 -1.4373279e+00
  2.5966692e+00
 -1.0097562e+00
 -4.4040923e+00
 -9.0782833e-01
 -2.4478734e+00
 -8.1890780e-01
  6.8960696e-01
 -2.0122492e+00
  3.8924232e-01
 -5.4270588e-02
  3.9111847e-01
 -1.1000726e+00
 -4.4098631e-01
 -1.0643957e+00
 -5.2657264e-01
 -3.3435392e-01
  3.0476234e+00
 -1.5098330e-01
  2.0342749e-01
 -8.6593956e-01
 -3.4198222e+00
 -3.7393013e-01
  1.5065532e+00
  1.1494853e-01
  6.1967832e-01
 -1.6149618e-01
 -1.4630188e-01
  2.1025724e+00
  8.4455901e-01
 -2.1347450e-01
  1.7766693e+00
  9.2907116e-02
 -2.4261520e+00
  1.3076627e+00
  1.2818058e+00
  1.9432358e-01
 -8.1652784e-01
  9.5834714e-01
  2.8600344e-01
  1.5566210e+00
 -1.1350963e+00
 -6.4750361e-01
 -1.2848979e-01
  3.1822494e-01
 -2.7524639e-02
  2.8332120e-01
 -9.8865074e-01
  1.3300465e+00
 -9.9521577e-01
 -1.3509749e+00
  1.3142223e+00
 -1.4761046e+00
 -3.6316128e+00
 -1.0601590e+00
  1.0504676e+00
  1.1593971e+00
  8.9125615e-01
  3.2386994e-01
 -2.1322117e+00
 -1.6098285e-01
 -2.2307754e+00
 -2.7362480e+00
  2.5546074e+00
  4.9311426e-01
 -1.6790684e-01
  1.2878689e+00
 -1.4201983e+00
  2.0727649e+00
  6.8127066e-01
 -5.9932214e-01
  1.1821969e-01
  1.3934510e+00
  5.9541291e-01
  1.2301590e-01
 -4.4416520e-01
  1.6071223e+00
  1.9672148e+00
 -1.0667101e+00
  2.0341837e+00
 -2.0737426e+00
 -9.2865628e-01
  2.8693506e-01
 -2.5610669e+00
  6.1896741e-01
  1.6981021e+00
 -6.0289912e-04
 -5.8984464e-01
 -2.5909722e-01
  1.3411996e+00
 -9.6233994e-01
 -1.1343843e+00
  6.3050404e-02
  2.2993101e-01
  4.3104127e-01
 -1.1351484e+00
 -3.4704965e-01
  1.1212786e+00
  2.5405922e+00
 -8.1449956e-02
 -2.5246617e-01
 -8.0206849e-02
  1.7874217e-01
 -2.2918254e-01
  2.5897121e-01
  8.2445794e-01
 -1.1027069e-01
  8.2274383e-01
 -2.2967570e-01
 -6.2230915e-01
 -1.9002262e-01
 -8.2929529e-02
 -4.8019953e+00
  6.7611873e-01
 -4.0068853e-01
 -5.4598469e-01
 -5.7435519e-01
 -2.2647062e-01
 -1.2156884e-01
  5.8903700e-01
 -1.3586262e+00
  2.1119812e-01
  4.7798401e-01
 -3.1452498e-01
  1.3628916e-01
 -1.0838147e-01
 -1.4653016e+00
  9.4156188e-01
  6.9098103e-01
 -1.0905569e+00
  6.3881420e-02
 -5.1559795e-02
 -2.5027156e-01
 -5.4123217e-01
  2.1368940e+00
  3.4957108e-01
 -4.6942413e-02
 -2.3892671e-01
  2.1743749e-01
 -4.2475730e-02
  7.9492390e-01
  9.2991613e-02
  2.2430578e-01
  1.2050629e+00
 -3.6523795e-01
 -2.7105823e-01
 -3.8665232e-01
  3.6570460e-01
 -2.0703881e+00
  1.0902970e+00
 -1.4372425e-01
  1.1683495e+00
  5.2958527e+00
  5.6657904e-01
  3.9201617e-01
 -3.2704535e-01
 -1.1103364e-01
 -1.7898980e-01
 -1.2832732e+00
  5.4164732e-01
 -3.9954844e-01
  1.4741042e+00
  9.2354393e-01
  2.0736349e+00
  1.0869533e+00
 -3.8110700e-02
  7.6906376e-02
  3.3000343e+00
 -1.0841987e+00
  1.4446024e+00
  5.0414097e-01
  7.0717216e-01
  1.3341073e-02
 -2.7705796e+00
  5.4518741e-01
  5.8554089e-01
 -9.7983634e-01
 -9.8202783e-01
 -1.0257380e-01
  1.2772538e-01
 -5.4747498e-01
 -8.9599729e-01
 -1.5360863e+00
 -2.8251441e+00
  2.3927999e+00
  5.4527128e-01
 -6.1186028e-01
 -5.1451302e-01
  8.7077552e-01
  3.8385952e-01
 -5.1377553e-01
 -9.5207149e-01
 -4.4517283e+00
 -1.1941479e-01
  1.2368309e+00
  1.9942348e-01
 -1.1665300e-01
 -2.0687447e+00
 -5.4887272e-02
 -1.0147583e-01
  1.7988920e+00
 -3.9394879e+00
 -2.6539681e+00
  2.7473352e+00
  1.4142514e+00
 -5.1034904e-01
  6.3045877e-01
  2.2870374e-01
 -1.9352044e-01
  1.0273693e-01
 -1.7067899e+00
 -3.7914748e+00
 -4.3807855e-01
 -6.6662723e-01
  1.5708914e-01
  1.1368381e+00
  5.7775670e-01
  7.7966288e-02
  6.6480011e-01
  2.8762940e-01
 -1.3751696e+00
  1.9469166e+00
  4.6187362e-01
 -2.7215293e-01
  3.1702430e+00
 -4.1017270e-01
 -1.3381454e-01
  3.0921778e-01
 -8.2289791e-01
 -3.0256844e+00
  2.1506684e+00
  8.6298779e-02
  3.6668605e-01
  2.5829587e+00
 -2.0647667e-01
  9.9314100e-01
 -2.9743989e+00
 -2.3860521e+00
 -2.6734991e+00
  1.7612387e+00
 -1.6836759e+00
 -1.9845054e-01
  1.2543643e-01
  4.9194098e-01
  1.2048191e+00
  1.4860059e+00
 -1.8284738e+00
 -2.7697310e+00
 -2.1014912e-01
  7.5818849e-01
  9.6172795e-02
  4.2965503e+00
  4.2149061e-01
 -2.3382239e+00
  1.9213693e+00
 -2.3964860e+00
 -1.2752608e+00
  7.9047108e-01
  1.9471392e-01
 -8.0584228e-01
  6.9486558e-01
 -3.0971954e+00
  1.9375546e-01
 -1.6506630e-01
 -1.0227579e+00
 -1.1383353e+00
  8.5876971e-01
 -4.2046599e+00
 -2.2928252e+00
 -6.0150540e-01
 -1.0626683e-01
 -1.1573371e-01
 -4.0869498e-01
  3.0938280e+00
  1.0698777e+00
  6.9459850e-01
  4.4537207e-01
  4.9015045e-01
  1.4727731e+00
  7.5178844e-01
  5.2486449e-01
 -1.9058086e+00
  5.1987500e+00
  2.6671216e+00
  1.8309513e+00
  1.3177738e+00
 -4.1127425e-01
 -2.3398662e-01
  1.4243332e+00
  6.1705954e-02
  1.7139379e+00
 -5.2407497e-01
 -4.0264115e+00
  6.9975424e-01
  6.7936254e-01
 -6.4431548e-01
 -3.0275898e+00
  2.8298339e-01
  6.5778667e-01
 -1.9456575e+00
  8.5914052e-01
  1.7182266e+00
  3.7589505e-01
  2.0948802e-01
 -2.4834697e+00
  1.8762195e+00
  1.1426250e+00
  2.3076270e-02
 -2.0362820e-01
  6.2440071e+00
  4.0839396e+00
 -1.8034146e+00
 -4.0007472e-02
  4.9321240e-01
 -3.4218609e-02
  1.0713003e+00
  7.1681815e-01
 -1.9984703e+00
  8.6708492e-01
  3.6740670e+00
  7.1950537e-01
 -3.1458950e-01
 -7.1712536e-01
  1.7528054e-01
 -4.3921819e-01
  5.0140566e-01
 -1.4694951e+00
 -4.1724569e-01
  1.5824053e+00
 -1.3428440e+00
 -1.3035794e-01
  6.3191361e+00
  1.8968636e+00
  2.2454340e+00
 -9.9402830e-02
  1.2770773e+00
 -6.5659773e-01
  3.5760057e+00
 -2.8720632e+00
 -1.4628440e+00
 -8.7423742e-01
 -1.7336155e+00
  1.3219519e+00
 -6.9306612e-02
 -4.0380394e-01
  1.8836544e+00
  1.1149869e+00
 -4.6177775e-01
 -3.2979101e-02
  1.3252789e+00
  9.7185618e-01
  2.9350945e-01
 -2.5415704e-01
 -4.3255031e-01
  1.3371241e+00
  4.1830249e+00
  8.7591931e-02
 -3.3909127e-01
  4.8669088e-01
  3.2968824e+00
  3.3044022e-01
  4.3025374e+00
 -5.4265046e-01
 -1.4245394e-01
  2.8905687e+00
 -2.4653757e+00
 -5.8954245e-01
 -3.1032727e+00
  2.2698479e+00
 -1.7618740e-01
  3.3016136e-01
 -5.3495508e-01
 -1.3618226e+00
  2.4131000e+00
 -2.2809615e+00
  1.1817468e+00
 -7.4403208e-01
  2.3225060e+00
  1.8388553e-01
  1.5575266e-01
  5.8078903e-01
 -5.8750808e-01
 -1.6966957e-01
 -2.0099204e+00
 -4.4255379e-01
  9.2613053e-01
  1.7541416e+00
  2.6915553e+00
  3.2929319e-01
  1.0786984e+00
  9.9040282e-01
  5.3310618e+00
 -2.4805298e+00
  1.0186595e+00
  3.8691908e-01
  9.7276473e-01
  2.3899566e-01
 -3.5765743e-01
 -2.1376040e+00
  7.6736915e-01
 -4.3979893e+00
 -2.4620242e-01
 -1.6684189e+00
  1.4496453e-01
  3.9132949e-02
 -8.3178377e-01
 -1.0718849e+00
  2.2437384e+00
 -2.2007313e+00
 -2.9740446e+00
 -1.9206549e+00
  8.5071325e-01
 -8.5478306e-01
  2.8318858e-01
  2.8006461e-02
  1.7370732e-01
  6.6066003e-01
  1.1074769e+00
  3.8192883e-01
 -7.8451484e-01
 -4.8714611e-01
  5.1037961e-01
 -2.3237598e+00
  2.6223836e+00
 -4.4251893e-02
 -4.6913299e-01
 -1.3819331e-01
 -2.2682409e+00
  2.4756598e+00
 -3.2301208e-01
 -8.2534623e-01
  2.8479252e+00
 -1.0693047e+00
 -7.5701043e-02
 -8.9060241e-01
  1.4854482e+00
 -2.5784705e+00
 -1.1838292e+00
  1.8493223e-01
  1.5441120e-01
  3.9506810e+00
 -1.2579012e-01
  2.2704649e+00
  3.4893327e+00
 -2.0498155e-02
 -3.4998550e+00
 -1.8382093e+00
 -6.8488747e-01
  1.3001615e-01
  7.7682620e-01
  6.2291201e-02
  6.9737703e-01
  3.1297433e+00
  2.2196531e+00
  7.6819569e-01
 -9.8040152e-01
 -1.1828900e-01
  8.7210149e-01
  9.2329890e-01
  1.3490400e+00
 -5.3662956e-01
  1.6716816e+00
  3.8017148e-01
  6.7147899e-01
  2.6629393e+00
  9.6235168e-01
  9.7492778e-01
  1.0951909e+00
  9.7911917e-02
 -3.5591984e-01
  4.6782991e-01
  2.0513005e+00
 -1.8873854e+00
 -2.3353280e-01
 -1.7655382e-01
 -1.2728181e+00
  1.0908821e-01
 -1.1252762e-01
 -4.0824015e-02
  2.9813330e+00
  7.3659712e-01
 -1.4398091e+00
  7.2495478e-01
 -3.5482815e-01
  1.7355838e-01
  1.9605806e+00
  4.0367562e-01
  3.8098541e-01
  1.1028774e+00
  1.4223303e+00
  2.0451829e+00
 -1.0602790e+00
 -6.6550463e-01
  8.8264503e-02
 -1.5389833e+00
 -1.5847446e-01
  1.2044591e+00
 -1.4472059e+00
  2.5344920e+00
  3.6308615e+00
  6.4854330e-01
  1.3579937e+00
  4.6972638e-01
  6.7750931e-01
  2.5802448e-01
  7.0522320e-01
 -1.8173752e+00
  1.4845617e-01
  2.3782630e+00
 -7.1159494e-01
 -3.1106070e-02
 -3.8361278e-01
  3.4831157e+00
  1.0397407e+00
 -2.0112534e-01
 -1.2416648e+00
  4.1663795e+00
  2.3723743e+00
 -1.4902142e+00
  1.0687398e-01
 -1.5896484e-02
 -2.4451124e-02
  1.9560279e-01
 -1.6673499e-01
 -1.3707496e+00
 -4.1745009e+00
  6.0173601e-01
 -5.5914730e-01
  8.9803636e-01
  2.7945950e+00
  1.9866482e+00
 -1.3405577e+00
  1.1329408e-01
  9.0778393e-01
  1.1555747e+00
  1.2055733e+00
 -9.6637571e-01
  1.9232742e-03
  1.3685328e+00
  2.3859742e+00
  2.0631528e+00
  8.1416440e-01
 -6.5508616e-01
  1.7657620e+00
 -7.6968056e-01
  7.3830152e-01
  4.3500751e-01
 -1.3261956e-01
 -3.3211453e+00
 -1.4737114e-01
  3.8825889e+00
 -9.0747344e-01
  1.4516619e+00
  2.3056726e+00
 -2.5284281e+00
 -1.4786078e+00
  1.8520619e-01
 -1.6151419e-01
 -8.2897651e-01
  1.5368981e+00
  2.6822877e-01
 -1.5337188e+00
 -4.0362933e-01
 -6.7150676e-01
  1.1755275e+00
  2.2040643e-03
  3.5519394e-01
  5.0926764e-02
  4.0755075e-01
  1.1148325e+00
  7.6037228e-02
 -5.8272088e-01
  1.1768943e+00
 -8.4910728e-03
 -8.7019348e-01
  1.4947704e+00
  2.1482305e-01
  2.0759356e+00
  1.6910568e+00
 -2.9395205e-01
  2.2511306e+00
 -6.5055394e-01
 -1.5168227e-01
  1.2012975e+00
 -2.4855108e+00
 -6.6046804e-01
  7.9722351e-01
 -1.2480218e+00
 -1.8469031e+00
  1.9605118e+00
 -3.4902143e+00
  4.7594056e-01
 -4.3273963e-02
 -1.1060190e+00
  2.2578081e-03
  2.9272574e-01
 -1.2778399e+00
 -8.9892089e-01
  1.6273579e-01
 -1.7840495e+00
 -2.0761430e+00
 -6.4551091e-01
 -1.0462512e+00
  3.3623349e-02
  6.9708908e-01
 -1.3298289e+00
  6.3453954e-01
 -9.6163410e-01
 -2.4322236e-02
  3.8784266e-01
 -1.2271041e+00
  1.0946749e+00
 -3.6591691e-01
  3.2643822e-01
  1.0785687e+00
  9.5709956e-01
 -3.4929711e-01
  9.0431523e-01
 -1.1179962e+00
 -2.8402507e-01
 -2.4527559e+00
  9.7874868e-01
  7.0879775e-01
 -1.5608902e+00
  1.5907501e+00
 -1.5371291e-01
 -2.0214051e-01
 -1.0356429e+00
 -2.6345234e+00
 -1.2674508e+00
  2.2666185e+00
  1.0225320e+00
 -9.2267019e-01
  1.3423945e-01
 -2.5913637e+00
  1.3804541e+00
  1.9620030e+00
  3.8839874e-01
 -1.6545264e-01
 -1.3191460e+00
  1.2388276e+00
  7.3932499e-01
 -1.1042669e-01
  1.9743805e+00
 -7.2661114e-01
 -1.4029046e+00
 -1.1201241e+00
  1.2725370e+00
 -5.6415476e-02
  1.7622398e+00
 -1.3511416e+00
 -2.0199582e-01
  1.6189075e-01
  3.4543588e+00
 -4.1819623e-01
 -9.1026950e-01
  5.0610971e-01
 -1.6453144e-01
 -2.8002599e-01
 -3.0457823e+00
 -3.5824819e+00
 -4.7519364e+00
  1.8231104e-01
  7.9764199e-01
  4.7587642e-01
 -5.1803309e-01
 -3.2662433e-01
  1.2918409e+00
 -1.2391647e+00
  1.1875887e+00
  2.3291306e+00
 -3.2482655e+00
 -3.1617364e-01
 -7.4633938e-01
 -1.3115569e+00
 -7.7788579e-01
  1.4429507e+00
  8.6717570e-01
 -3.4892398e-01
 -3.9365566e-01
  6.2101221e-01
 -6.0688293e-01
 -3.4437368e+00
 -1.8028235e+00
  2.3876569e+00
  2.4467285e-01
 -8.3456981e-01
 -1.6131184e+00
 -3.5114524e-01
  1.2416021e-01
 -8.7611276e-01
 -2.4293787e+00
 -6.2976605e-01
 -9.7691864e-01
 -1.4056858e+00
 -1.6731874e+00
  1.6277446e+00
 -1.5933027e+00
  1.0643184e+00
  3.7404826e-01
  1.1533586e+00
 -1.4092449e+00
 -1.3665005e+00
  1.4728688e-01
 -5.1260023e+00
 -1.0519191e+00
 -1.0362306e+00
 -3.4903901e+00
 -2.5805253e-01
  5.3139937e-01
 -2.6489081e+00
  1.6566853e-01
 -4.4133991e-01
 -4.5529485e+00
 -2.4476278e+00
  6.2422734e-01
 -1.5013224e+00
 -4.0793490e-01
 -1.8967956e+00
  2.7564093e-01
  6.2291671e-02
 -4.6930766e-01
 -2.3996465e+00
  4.6901703e-01
  6.7517740e-01
  9.7375792e-01
  2.2242475e-01
  8.4961540e-01
  2.4912603e+00
  1.0648671e+00
  3.1828743e-01
 -1.6180196e+00
  2.1486953e-01
  1.2567151e+00
  1.9430074e-01
 -1.0633093e+00
 -2.5749297e+00
 -3.1290951e+00
  1.8815786e-01
  2.7012346e+00
 -1.5101091e+00
  9.8498803e-01
  5.0887531e-01
  7.1381032e-01
  1.9024990e+00
 -1.6363592e+00
 -1.5093057e+00
 -3.9101312e-01
 -8.9034423e-02
  3.0901149e-01
  7.3114818e-01
 -4.5984748e-01
 -6.3202465e-01
 -3.2227588e-01
 -6.9292510e-01
  1.3894849e+00
  1.1656927e-01
  2.1661799e+00
 -1.6748282e+00
  3.3325908e-01
 -2.3725784e+00
  1.7056303e+00
  3.4826775e+00
 -6.4702010e-01
 -5.8581567e-01
 -5.4139024e-01
  2.8504667e+00
  1.2285458e+00
  8.0411726e-01
  1.5696521e+00
 -3.4810787e-01
  1.0125425e+00
 -1.6223472e-01
  1.1985735e+00
  2.4362543e-01
  2.1150188e-01
 -6.3756216e-01
 -7.8263925e-05
  2.8049111e+00
 -3.3576028e+00
 -2.9776011e+00
  1.0528547e+00
  5.1152581e-01
 -8.0463070e-01
  2.3420007e+00
  1.1022819e+00
 -9.1934514e-01
  1.0951059e+00
 -8.5332286e-01
  1.4241457e+00
 -1.1514995e+00
 -2.8713250e+00
  6.1847143e-02
 -2.8693670e-01
  2.3173890e+00
 -1.4320284e+00
 -6.0683733e-01
  1.6023102e-01
  5.1304978e-01
 -7.8856510e-01
  3.4740087e-01
 -1.0639396e+00
  1.4083278e+00
  1.0181638e+00
 -5.7240498e-01
 -9.8610145e-01
  5.4196876e-01
 -2.6469517e-01
  1.7653181e-01
  6.2450415e-01
 -7.7411002e-01
  2.3894262e+00
 -9.7624999e-01
  7.9447150e-01
 -9.5847571e-01
 -4.7205397e-01
 -6.7370959e-02
 -2.9263785e-01
  1.9459015e+00
 -1.6142421e+00
 -1.3160677e-01
 -2.1266687e-01
  1.4375436e+00
  2.8722396e-01
 -7.5426000e-01
  5.6108773e-01
 -5.6110352e-01
  1.2319406e+00
  4.7459814e-01
 -9.0902013e-01
  1.2762637e-01
  1.8952419e-01
  8.7799197e-01
 -6.9098431e-01
 -4.5124763e-01
 -6.9788657e-02
  2.8699774e-01
  1.5782261e+00
  6.3918960e-01
  8.3694738e-01
 -5.1694983e-01
  7.6306999e-01
 -1.6877674e-01
 -7.2800666e-02
  9.6096411e-02
  3.5349679e-01
  1.2381020e+00
  1.5851130e+00
  7.3129082e-01
 -7.2857928e-01
  2.5797418e-01
 -1.7795333e-01
 -7.6806951e-01
  1.6349161e-01
 -6.1870408e+00
  1.8414289e+00
  2.2735403e+00
 -1.6240792e+00
 -2.2549991e-01
 -2.4177203e-01
  9.6682858e-01
  5.3889477e-01
 -4.6878982e-01
  4.8739460e-01
 -1.2871768e-01
  1.2106816e+00
 -3.8592121e-01
  4.0048490e+00
 -2.0749161e+00
  2.4770336e+00
  7.0032114e-01
 -5.9350389e-01
  4.1738054e-01
 -1.7900825e-02
  3.0390802e-01
 -1.1928482e+00
 -2.5643523e+00
 -3.6810408e+00
  4.0415344e-01
  1.1405339e+00
  4.2638645e+00
  2.7598562e+00
  2.2080383e-01
 -1.3367429e+00
  3.6455819e-01
 -7.0339221e-01
 -1.6453829e+00
 -3.5442266e-01
  1.6618986e+00
  1.1610787e+00
 -1.0621501e+00
  4.3951571e-01
 -1.0929644e-02
  4.3647876e+00
  4.1034430e-01
 -1.1163048e-01
  1.2731806e+00
  1.9063836e-02
  5.3678662e-01
 -1.5315144e+00
 -9.1763884e-01
  4.5958847e-01
  8.1138647e-01
  2.0666149e-01
 -9.5309842e-01
  6.3616291e-02
 -5.9097994e-02
  4.4659579e-01
 -2.6396346e+00
  1.0738478e+00
  1.6737655e+00
  8.8290155e-01
 -1.3644552e+00
 -2.4427433e+00
  9.5135754e-01
 -1.1539844e+00
  1.1764762e-01
  7.3445433e-01
  1.3277771e+00
  1.0647157e+00
 -3.6576942e-01
 -2.6274502e-01
  1.4911321e-01
 -2.2888815e-01
 -3.4936535e-01
 -1.7428458e+00
 -2.2922425e-01
  7.2107303e-01
 -7.7520055e-01
 -9.4322360e-01
 -2.3815091e-01
  7.2765845e-01
  9.7051106e-02
  8.2497135e-02
 -5.2206844e-01
  7.2446781e-01
  2.1394644e+00
 -2.7195957e-01
 -3.2841213e+00
  2.3700649e-01
 -2.4805970e-01
 -1.3650671e-01
  7.1505952e-01
  2.8258085e+00
  1.4251988e-01
  8.6643702e-01
  2.2791386e+00
 -1.7091455e+00
 -9.1249532e-01
 -7.8289980e-01
  6.5629280e-01
  1.3709575e-01
  3.1272371e+00
  3.4204477e-01
 -7.8355974e-01
  3.9056654e+00
 -1.9663841e+00
 -5.4646128e-01
 -1.1038380e+00
  5.8897960e-01
 -6.0521998e-02
  1.4384105e+00
 -3.1037134e-01
 -8.7099618e-01
  1.5101461e+00
 -1.5558380e-01
 -2.3643740e-01
 -5.7488316e-01
  3.4332281e-01
  1.3620054e+00
  2.4123039e+00
  6.2056571e-02
 -1.3644385e+00
 -2.0803401e+00
 -1.1963488e+00
  3.5534501e+00
  2.1606688e+00
 -4.7989035e-01
  1.4058198e-01
 -6.2646449e-02
 -4.0252934e+00
  1.4140253e+00
 -6.3941318e-01
 -3.3305607e+00
  1.1179661e+00
 -2.9111495e+00
  1.9857759e+00
  2.6087220e+00
 -1.7402509e+00
 -6.2248033e-01
  4.0643880e-01
 -1.2416053e+00
  3.8055499e+00
 -1.3487784e+00
 -9.9831074e-01
 -7.1146268e-01
  8.0380219e-01
 -1.8431765e-01
 -5.6600440e-01
  4.4989455e-02
 -2.0675547e+00
 -1.1477015e+00
 -1.0988950e+00
  5.6677461e-01
  6.0093451e-01
  1.2867448e+00
 -7.2724126e-02
  7.7003294e-01
 -1.5031245e+00
 -3.7233603e-01
 -2.0745982e-01
 -4.5727432e-01
 -2.1462109e+00
  1.8927665e-01
 -5.6195372e-01
  5.4663587e-01
  4.0959711e+00
 -1.4570704e+00
 -1.4696896e+00
  1.5397605e-01
 -7.7004290e-01
 -3.2892511e+00
 -1.6838682e+00
  4.1520363e-01
 -1.5515997e-02
  9.7257376e-01
 -5.9835470e-01
 -1.3730364e+00
 -7.5323242e-01
 -9.7387719e-01
 -1.4096435e+00
 -8.9945632e-01
 -4.5649201e-01
  6.1956811e-01
 -1.7707362e+00
 -3.3063330e-02
 -9.7868496e-01
 -8.9324534e-01
  6.6935360e-01
  3.4686926e-01
  2.1654987e+00
  1.5520377e+00
  3.1777743e-01
 -1.3739514e+00
  5.0656104e-01
  1.3000728e+00
  9.8115820e-01
  2.0401750e+00
  5.9563607e-01
  2.9238372e+00
 -8.6938683e-04
 -2.0151689e+00
  4.4660512e-01
 -5.1498525e-02
 -5.5663097e-01
  1.0460159e-01
  8.5822916e-01
  6.0268443e-02
  1.3649426e+00
 -2.4748456e+00
 -7.2611016e-01
 -1.0527161e+00
 -7.1694022e-01
 -8.0841953e-01
  6.0046822e-01
 -1.2268597e+00
  9.4579262e-01
 -3.3620063e-03
 -2.9972434e+00
  1.0032926e-01
 -1.5463392e+00
 -8.2173926e-01
 -3.1642535e-01
 -7.4099794e-02
 -1.7294996e+00
  5.8386648e-01
  1.0557518e-01
 -1.1957382e+00
  1.1752267e+00
 -9.1179037e-01
 -4.5886415e-01
 -3.1302938e-01
 -1.7456566e-01
 -9.0854073e-01
  5.4332793e-01
  1.2001955e-01
  7.9823792e-01
  7.7493501e-01
  8.1212544e-01
  1.3402764e+00
 -1.5557284e+00
 -5.9239632e-01
 -4.6642607e-01
  9.1958094e-01
  1.4065100e+00
  8.0846511e-02
  4.9048215e-02
  7.9031843e-01
 -9.3394250e-02
 -4.0269457e-04
 -1.0751146e-01
 -3.5046003e+00
 -9.9190867e-01
  6.9497377e-01
  1.8904030e-01
 -8.2337543e-02
 -1.5133896e+00
 -8.4568560e-01
  5.0323802e-01
  2.5145400e+00
  1.8423814e+00
  1.9776698e+00
  4.5721760e-01
 -2.0131369e-01
  2.1723573e+00
  9.8974623e-02
  8.3635718e-01
  1.6954623e-01
 -4.8642370e-01
  3.1342227e+00
  8.9104611e-01
  1.2900652e+00
  1.2724756e+00
  1.5744121e+00
  9.3271273e-01
 -2.2121023e-01
  1.9055902e+00
 -3.5891373e+00
  1.6512017e+00
 -1.7875160e+00
 -3.9280947e-02
  1.3861386e+00
  1.9460675e-01
 -1.6938235e+00
 -1.0605112e+00
 -5.4330790e-01
 -9.2331064e-01
 -2.5931418e-01
 -3.6256239e-01
  2.9055834e-01
 -4.7243491e-01
 -1.1523495e+00
 -2.4970348e+00
 -7.5306708e-01
  3.3774611e-02
  2.2667761e+00
  9.6233934e-03
  1.4650632e+00
  1.0862708e+00
  4.6594638e-02
 -4.6990395e-01
  1.8296314e+00
 -6.6922182e-01
 -1.9762634e+00
  2.7334766e+00
  7.7720934e-01
  3.8085215e-02
  1.1213599e+00
 -9.3355757e-01
  2.9624705e+00
 -4.5191631e-01
 -1.5118237e+00
  1.3355744e+00
  1.4622312e+00
 -4.0939853e-01
  9.3922591e-01
 -9.9167591e-01
 -3.2049201e+00
 -1.0964428e+00
 -8.2660973e-01
  1.5370274e+00
  4.9828374e-01
 -1.9171670e-02
 -1.4430846e+00
  7.7447587e-01
 -2.1822162e+00
 -2.0052142e+00
 -3.4636261e+00
 -1.5198969e+00
  2.2241020e+00
  4.8298451e-01
 -8.5016257e-01
 -1.3330681e+00
  5.4580081e-01
 -2.0606406e+00
 -1.0157503e+00
 -3.8223724e+00
 -3.2571863e-02
  1.2835114e+00
 -1.5571656e+00
 -1.1820347e+00
 -3.4783980e-01
  7.6007140e-01
 -7.2556370e-01
 -1.0622210e-01
 -1.1998837e+00
  4.4548047e-01
 -2.0658125e-01
 -2.6089025e-01
 -9.2232263e-01
  2.1859777e-01
  8.8777632e-01
  3.4083746e-02
 -1.0054626e+00
 -8.5077095e-01
 -1.5242560e+00
 -7.5916004e-01
 -3.5759908e-01
 -1.4725697e+00
  9.7133547e-01
  1.6089845e+00
 -6.1082616e-02
  6.2597466e-01
 -7.5052357e-01
 -5.3090014e+00
 -2.7873382e-01
  1.4473286e+00
 -4.3511820e-01
  3.6450145e+00
  2.0329902e+00
  5.1729851e+00
 -1.9340917e-01
  4.4940242e-01
  2.3874240e+00
 -8.8061851e-01
  1.9712132e-01
  5.4728501e-02
 -1.9909017e+00
 -3.7963450e+00
  1.5659667e+00
  2.0138586e+00
 -3.2690349e+00
  1.8660190e+00
 -7.8244627e-01
 -1.5689771e-01
  1.9090837e+00
 -5.0620550e-01
 -5.2719826e-01
 -4.9329624e-01
 -1.0362577e+00
 -5.1323857e+00
  5.9647083e-01
  5.9079760e-01
 -3.2801342e-01
 -3.9973304e-01
  9.2115641e-01
  1.3388222e-01
  1.9089658e+00
 -3.2767842e+00
 -2.2844052e+00
  3.2549468e-01
 -1.7195258e-01
 -9.4671184e-01
 -2.5947744e-01
 -1.1980928e+00
  2.3078852e+00
  5.3545773e-01
 -1.7761770e+00
 -1.0022733e+00
 -1.7688034e+00
  2.8805889e-02
 -1.0807848e+00
  1.9143237e+00
 -1.6184552e+00
 -1.7188867e+00
  2.8123654e-02
 -5.9623367e-01
 -2.2786686e+00
 -3.3027461e+00
 -2.6072490e-01
 -1.2938749e+00
 -4.1275892e-01
  1.0888205e+00
 -5.0129879e-01
 -1.9611032e-01
 -2.7640932e+00
  1.2085445e+00
  1.3546869e-01
 -1.2507692e-01
 -1.3151966e+00
  3.6702287e-01
  2.6591723e+00
  6.2179768e-01
  5.8950853e-01
 -2.5157244e+00
 -7.6367691e-02
  2.0769112e+00
  8.0481905e-01
 -1.8623912e-01
  2.2156115e-01
  6.3850445e-01
  2.1582150e+00
 -8.3591217e-01
  1.0125396e+00
 -2.1213541e+00
  2.7411540e+00
  8.3882615e-02
  1.0255013e+00
  1.7493771e+00
 -2.7022687e-01
  4.5831618e-01
 -1.2610755e+00
  2.7719841e+00
 -2.7370820e+00
  6.1984044e-01
 -6.0984671e-01
 -1.6348267e+00
  2.8284793e+00
 -4.8296273e-02
 -5.5521107e-01
 -7.7360314e-01
  1.2045738e+00
 -6.3400334e-01
  4.9387734e-02
 -7.7637124e-01
  4.2894691e-01
  6.9950259e-01
  4.0421423e-01
 -1.2875149e+00
 -7.0338294e-02
  8.7704957e-03
  8.7704957e-03
  8.7704957e-03
  8.7704957e-03
  8.7704957e-03
  5.4161865e-02
  5.4161865e-02
  5.4161865e-02
  5.4161865e-02
  5.4161865e-02
  1.6302733e-02
  1.6302733e-02
  1.6302733e-02
  1.6302733e-02
  1.6302733e-02
  8.6065130e-03
  8.6065130e-03
  8.6065130e-03
  8.6065130e-03
  8.6065130e-03
  1.9958322e-03
  1.9958322e-03
  1.9958322e-03
  1.9958322e-03
  1.9958322e-03
  6.6889306e-03
  6.6889306e-03
  6.6889306e-03
  6.6889306e-03
  6.6889306e-03
