nep4 3 Sc C F 
cutoff 6 4 63 26
n_max 4 4
basis_size 8 8
l_max 4 2 0
ANN 50 0
  8.4433573e-01
 -1.0362172e+00
 -3.9312413e-01
 -2.0158567e+00
  1.0397885e-02
  2.6636622e+00
 -9.6141440e-01
  1.3500707e+00
  2.8972676e+00
  5.5995911e-01
  7.2021502e-01
  1.5104228e+00
  1.0483400e+00
  5.6470060e-01
  2.8031725e-03
  4.4002917e-01
 -1.1019696e+00
  5.6851942e-02
 -7.2791263e-02
 -3.0610664e+00
 -1.2019939e+00
  8.3724523e-01
  1.9232230e+00
  1.6420188e+00
  9.0251458e-01
  2.8424802e-01
  1.7518616e+00
 -3.4829518e-01
 -2.2171490e-01
  2.2934622e-01
 -1.2634516e-01
 -3.2566226e-01
 -4.9747512e-01
 -4.5157513e-01
  1.2690923e-02
 -5.6750196e-01
 -1.4667074e-01
  4.7336063e-01
 -2.1274249e-01
  7.5795656e-01
  3.7407038e-01
  1.1239688e+00
 -1.8762703e-01
 -1.7451924e-01
 -1.7173094e-01
  2.3759250e-01
  3.4194756e-01
 -1.1989947e-01
 -2.7232915e-01
  4.7259547e-02
 -2.6847285e-01
 -2.2500269e-01
 -4.1633636e-02
 -4.0120789e-01
 -5.9621698e-01
  9.6600018e-02
 -5.0270116e-01
  1.1100244e-01
  1.4165746e-02
  4.3382210e-01
 -4.0820667e-01
 -1.7835170e-01
 -2.0754545e+00
 -3.7053668e-01
 -8.7479234e-01
  3.5128543e+00
  4.7254470e-01
  7.7852793e-02
 -4.3301418e-01
  1.7614830e-01
 -4.2309245e-01
  9.5495355e-01
  6.3169140e-01
  1.1336001e-01
 -4.0844110e-01
  2.1871689e-01
  4.4775704e-01
 -2.1088390e-01
  4.7493896e-01
 -1.3366836e-01
  4.7551745e-01
 -2.0336826e-01
  3.9078727e-02
  2.5036344e-01
 -2.5776425e-01
 -8.0980934e-02
 -2.9995912e-01
  2.2101851e+00
  2.0317435e-02
 -1.1768430e-01
  6.0575652e-01
  3.5270572e+00
 -1.3757483e+00
  1.0234526e+00
 -7.9826355e-01
 -1.0531418e+00
 -3.6995208e-01
 -3.7371017e-02
 -3.3410933e+00
  8.1867382e-02
  2.2514381e+00
 -5.6264818e-01
  1.5522974e+00
  1.1611780e-01
 -1.8537380e+00
  4.3604095e-02
 -2.0466433e-01
 -5.1609385e-01
 -1.8839330e-03
  1.0727074e+00
 -4.5313692e-01
 -1.2005739e+00
 -5.6405807e-01
  5.0261334e-02
 -2.7768725e-01
 -7.2351462e-01
  1.2303694e-01
 -5.1219809e-01
  1.4065777e+00
 -3.2755259e-01
 -3.0071461e-01
  1.2715180e+00
  6.8339878e-01
  2.7633956e-01
  5.7154119e-01
  1.8481946e-01
  2.3633449e-01
  8.5847624e-02
 -2.2382265e-02
  1.7161462e-01
  3.9233319e-02
  1.1191329e+00
  3.2316193e-01
 -5.6628849e-02
  2.6781383e-01
 -3.6701053e-01
 -2.3314273e-01
 -1.0529139e+00
 -1.6087927e-01
  1.3318864e-01
  9.1576040e-02
 -3.8273141e-01
 -6.4788300e-01
  2.6858079e-01
  1.3422165e+00
 -1.3293245e-01
 -1.0613941e-01
 -2.2424124e-01
 -4.5017138e-01
  3.4999752e-01
 -1.0148371e+00
 -1.0346484e-01
  4.7120732e-01
  2.7551976e-01
 -2.4885414e+00
  9.9401075e-01
  5.1742220e-01
  2.6708350e+00
 -5.0813168e-01
 -1.2259962e-01
  3.6621654e-01
  1.0806682e+00
 -8.1384130e-02
  6.1623389e-01
  3.5768053e-01
  3.0022064e-01
  3.6162350e-01
  1.4336659e+00
 -1.9761442e-01
 -2.1364524e+00
  3.4491718e-01
  3.6146623e-01
  6.5522736e-01
  2.6801994e-01
  1.1748633e+00
  1.0862497e+00
 -3.8473862e-01
  1.4182842e+00
  2.0313232e-01
 -1.0905268e+00
  5.4779708e-01
  1.7879892e-02
  1.0705290e+00
 -2.3546723e-01
 -1.1971505e-01
 -4.5052871e-02
 -7.2213674e-01
  2.1339161e-02
  6.5153935e-03
 -8.4510580e-02
 -7.1073711e-01
 -5.0797337e-01
  1.3416238e-01
 -1.0244806e-01
 -1.5943688e-01
 -3.9517665e-03
 -2.7537318e-02
 -7.8416489e-02
 -1.0605574e-01
  2.3673078e-01
  1.4972454e-02
  6.8439111e-02
 -1.6785835e-01
  1.7013969e-01
 -2.7430052e-01
 -8.5576028e-01
  1.4580457e-01
  2.0019829e-02
 -4.3777555e-01
 -2.1412542e+00
  3.8810294e-02
  6.5040872e-02
  3.3791569e-01
  8.6151916e-01
 -6.8508786e-01
  4.0954697e-01
  6.5337157e-01
 -2.1187879e-02
  9.3764089e-02
 -1.0828162e-01
  2.4523817e-01
  1.9059069e+00
 -9.0069465e-02
 -1.2969012e+00
  3.3734912e-01
 -3.9646268e-02
  1.7809029e-01
  1.1507392e-01
 -2.7256155e-01
 -2.3287487e-01
  4.8318931e-01
 -1.5806817e-01
  1.3192359e-01
  1.0374954e-01
 -3.3371411e-02
 -7.4617669e-02
  1.2209054e-01
 -5.4826438e-01
  9.3707401e-01
  2.6731396e-01
 -7.6609993e-01
  5.2641258e+00
 -1.0326606e+00
  1.2200218e+00
  5.8327594e+00
  2.3439845e-01
 -1.2336298e+00
  4.7509578e-01
 -7.5591333e-02
 -9.8459709e-01
  1.2714438e-01
  3.2161260e-01
 -1.2607979e+00
  2.4146709e-01
  1.0714502e+00
  1.7490754e+00
 -9.8278415e-01
  1.0848600e-01
  2.7453867e-01
  4.6516654e-01
  2.9215124e-01
  1.7251578e-01
 -9.5252693e-02
 -4.2305148e-01
  1.2319212e+00
  2.6335642e-01
  4.7702375e-01
 -3.9412102e-01
  5.1305467e-01
 -5.5872655e-01
  8.3390814e-01
  1.1558058e+00
 -1.7299701e+00
  1.3419013e+00
 -2.8278032e-01
  2.3895432e-01
  1.9120339e-02
  8.7782300e-01
  7.1500129e-01
  4.2975087e-02
  8.7398529e-01
  1.6885258e+00
  1.5358506e+00
  1.3387052e-02
  1.0625028e-01
 -9.0077507e-01
  7.3273915e-01
  1.0521451e+00
 -1.4504640e+00
 -1.8855973e+00
  3.5753778e-01
  9.9432223e-02
  1.1741785e+00
  4.0583059e-01
  9.9724704e-01
  9.3497586e-01
  9.6559592e-02
 -3.9833105e-01
  2.1248887e-01
 -1.2790253e+00
 -7.9506499e-01
 -1.5876101e+00
  2.5505194e-01
  9.3670928e-01
 -2.5890644e+00
 -4.4317190e-02
  3.0058885e-01
  5.4537630e-01
  9.2410606e-01
  1.0722651e+00
  1.7403815e+00
 -7.9207379e-01
  1.0332297e+00
  1.2803328e-01
 -2.9953259e-01
  1.7378595e+00
  5.3833008e-01
  2.1964912e+00
  7.4644738e-01
  1.5611541e+00
  1.1255235e-01
  1.5214065e-01
  3.6414424e-01
 -1.8562896e+00
 -1.2348585e+00
 -1.7856805e+00
 -2.5510979e+00
  2.1449889e-01
  1.6590992e+00
  3.5138482e-01
 -8.3746719e-01
 -2.3990367e-01
  7.6287901e-01
 -5.4234535e-01
  7.5951926e-02
  7.5098179e-02
 -2.5088939e-01
  1.0171442e-01
  1.6527083e+00
  5.2574950e-01
 -6.4290041e-01
  7.6003277e-01
  1.4963073e-01
  1.5680532e+00
 -1.9554621e-02
  3.8717499e-01
 -4.1137245e-01
 -4.6281829e-02
  5.5728728e-01
  1.0313903e-01
  1.3714507e-01
  7.4774258e-02
 -2.5533900e-01
  2.8099644e-01
 -5.1594216e-01
  5.9883807e-02
  4.8046321e-02
 -3.1343526e-01
  5.1807201e-01
  8.2972085e-01
 -1.1705539e-01
  4.9661633e-02
  5.1109463e-01
  9.5001906e-01
  6.3092673e-01
  8.0738954e-02
 -4.4327000e-01
 -1.6562577e-01
 -4.0188146e-01
 -2.8997931e-01
  4.5967320e-01
 -1.2127762e-01
 -6.4531380e-01
  3.2745782e-01
 -2.0924811e-01
 -6.1216670e-01
  2.7678061e+00
  1.2851846e-01
  5.4886509e-02
  2.0672996e-01
 -4.8916280e-01
 -8.4714377e-03
 -2.7172033e-02
  4.2135185e-01
 -1.5009799e+00
 -6.0666716e-01
  9.0045595e-01
  2.3225357e-01
  3.0702740e-01
  4.4881564e-02
  1.5275519e+00
 -5.3421098e-01
 -1.6002170e+00
 -8.3697677e-02
 -1.9821113e-02
 -1.4013092e-02
  5.6065917e-01
  1.4210050e-01
  3.5702057e-02
 -6.1308116e-02
 -3.7129709e-01
  3.3776587e-01
  4.3968847e-01
  1.5958261e-02
 -1.2121083e-01
 -4.0138963e-01
 -8.7947212e-02
 -2.6963413e-01
  4.7107542e-01
 -9.9686635e-01
 -7.4060386e-01
  5.1115918e-01
  4.4107246e-01
  3.6449829e-01
 -1.0872617e+00
 -3.9980193e-03
  1.7954661e-01
  9.3080437e-01
 -2.4873829e+00
  7.0280664e-02
  3.7670454e-01
 -1.3531134e-01
  3.3154786e-01
 -5.3626871e-01
  4.6804553e-01
 -3.1391582e-01
 -1.0977517e-01
 -5.0207818e-01
 -4.6932337e-01
 -3.5638239e-02
  1.3189413e-01
  2.4489624e-02
  3.0315620e-01
 -1.6265960e-02
 -6.5979719e-02
  4.0685728e-02
  1.5720932e-02
 -1.4921407e-01
  3.8859969e-01
 -1.6060973e+00
  1.8714105e-01
 -3.0872719e-02
  3.7192658e-01
 -4.4827357e-01
 -3.4174776e-01
 -1.4690144e-01
  4.0579194e-01
 -7.1341651e-03
 -5.4258634e-03
 -1.4613097e-02
  9.3184665e-02
  3.8899198e-01
  6.4686644e-01
  1.1921742e-01
  1.8780379e-01
  7.9274543e-02
 -3.2402554e-01
  5.2784395e-01
  5.0616968e-01
  6.8089418e-02
 -6.2617457e-01
  1.1155573e-01
  5.9945374e-03
 -9.3655384e-01
  7.2775114e-01
  2.5322604e-01
  2.8545934e-01
  5.7023957e-02
 -1.8486518e-01
 -1.5444828e+00
  3.8094881e-01
 -2.2614869e-01
 -2.9863492e-01
 -4.9881369e-01
 -6.3255143e-01
 -7.0318119e-03
 -6.8500869e-02
 -8.0689073e-02
  9.5892125e-01
 -2.7417997e-01
  5.3193509e-03
  1.8503863e+00
 -1.9587556e+00
  3.1466420e+00
 -1.0501833e-01
 -3.0586691e+00
 -4.2892516e-02
 -4.7748938e-01
  8.2620203e-02
  1.1513960e-01
 -1.9739655e-01
  2.1491483e-01
  3.4816724e-01
  2.4999361e-01
 -1.9589293e-01
  3.5261577e-01
 -8.8985330e-01
 -5.6570864e-01
  2.9820991e-01
 -1.8693584e+00
 -8.0540895e-01
 -2.8221858e+00
 -2.5623690e-04
 -2.3523456e-01
 -2.8983669e+00
 -1.1706471e-01
  4.0867534e-01
  8.5693924e-03
  4.6902773e-01
 -1.7282659e-01
  1.0111888e-03
 -1.2151393e+00
 -5.3239006e-01
  1.6354403e-01
  6.9674850e-01
 -6.2747127e-01
 -7.7378291e-01
  1.2005398e+00
 -2.7091470e-01
 -4.5745447e-02
  1.0988376e+00
  5.2087945e-01
 -4.4984990e-01
 -3.4137219e-01
  4.0075207e-01
  3.1697188e-02
 -5.3338945e-01
 -4.5478117e-01
  8.5689984e-02
 -7.0271081e-01
 -9.1733664e-02
 -5.7164395e-01
 -5.0246161e-01
  2.9861203e-01
  2.5474373e-02
  4.4919050e-01
  2.7676353e-02
 -5.4714751e-01
  4.3386516e-01
  3.0075517e-01
  2.1854100e+00
 -1.8729568e+00
  7.8455305e-01
 -5.3064823e-01
  1.2822033e+00
  1.3437376e+00
  7.2196335e-01
  2.0727119e+00
  1.0931987e+00
 -1.3780482e+00
 -1.6106118e+00
  1.1135875e+00
 -7.1857375e-01
 -1.3425312e+00
 -1.8525038e+00
 -6.8080688e-01
  1.5010434e+00
 -5.0022674e-01
  1.7781169e+00
  5.4815798e+00
  1.0713091e+00
  1.1665056e+00
  9.1392034e-01
  1.2950633e+00
 -1.8399154e-01
 -1.5926568e-01
  9.8817962e-01
 -5.9873354e-01
 -1.3234696e+00
  1.5050650e-01
  1.8081416e-01
  5.2054811e-01
 -8.0214709e-02
  3.1259510e-01
  2.4850556e-01
 -3.3792791e-01
 -3.6909267e-01
  9.3303800e-01
 -6.0221088e-01
  2.1354609e+00
  5.2363664e-01
  4.2498419e-01
 -2.9323012e-01
  2.9070920e-01
 -3.4433314e-01
 -1.2656466e+00
  3.2355183e-01
 -3.9763760e-02
 -6.5770306e-02
  1.9517526e-01
 -1.3333979e-01
  6.5386340e-02
  1.1701643e-01
 -3.0606732e-01
 -6.7080957e-01
  4.2331395e-01
  6.6900069e-01
  4.8604053e-01
  1.8787654e-01
 -2.7318078e-01
 -1.5392418e-01
  2.9446736e-01
  2.4227030e+00
  1.0519582e+00
  3.2924235e-01
  1.3136552e-01
  3.0397359e-01
 -2.0352970e-01
 -1.5477048e-01
 -3.7171614e-01
 -5.8359373e-01
 -1.1145449e-01
  2.6157835e-01
 -6.4938790e-01
 -3.3370733e-01
 -6.7374900e-02
 -5.8402076e-02
  1.0149289e-01
 -4.4898251e-01
 -7.1912885e-01
  1.0354120e-01
 -6.5381837e-01
  6.2299949e-01
  5.9696430e-01
  5.5241567e-01
 -1.3082968e-01
 -1.1209570e+00
  7.1417236e-01
  1.0193927e-01
  8.6104804e-01
  2.1370845e-01
  1.6145363e+00
  1.8336827e-02
  5.1156174e-02
 -1.7480606e-01
  1.4008161e-01
  5.8137530e-01
  1.2966055e-01
  3.5987291e-01
  2.9506001e-01
  5.4718155e-01
  1.7521684e-01
 -2.3942329e-01
 -2.4723400e-01
 -1.8510324e-01
  1.6836125e-01
 -5.1659349e-02
  5.3883237e-01
 -2.0454015e-01
 -1.0683331e+00
  3.4514159e-02
 -1.8948902e-01
  3.1976777e-01
  5.0226681e-02
  2.8295755e-01
 -8.2376219e-02
  5.2858388e-01
 -3.4155467e-01
 -4.4882578e-01
  5.5983584e-02
  8.6778283e-02
  4.4362047e-01
  9.5615327e-02
  6.5775365e-01
  3.0076560e-01
  4.1914906e-02
 -1.0888858e+00
 -9.7042793e-01
 -7.1173497e-02
  5.0059803e-02
  9.4972521e-01
  3.6237386e-01
  6.5064347e-01
 -2.2862309e-01
  8.8447675e-02
  1.1845496e-01
 -6.0212427e-01
  1.2774142e+00
  6.4084661e-01
  3.3928487e-01
  3.0605334e-01
  6.9582999e-02
  2.7944973e-01
  1.4525823e-02
 -5.4079962e-01
  1.4341129e-01
 -3.5341865e-01
 -5.0742574e-02
 -7.4636452e-02
  2.0194992e-01
  5.5946864e-02
  6.2286733e-03
 -2.7563350e-02
  1.5862718e-01
 -3.8639003e-01
  4.4427994e-03
 -5.0372499e-01
 -3.4067801e-01
 -5.7913738e-01
 -1.8378238e-01
  2.8249243e-01
  2.1699615e-01
  5.8011162e-01
 -2.9530990e-01
 -6.9833216e-03
  9.8089561e-02
 -3.2777360e-01
  2.5623029e-01
 -8.3827734e-02
  3.8755891e-01
  1.7337486e-01
 -6.3230306e-02
 -5.2463645e-01
  4.1801316e-01
 -1.7510815e-01
  5.0204813e-01
 -2.9178429e-01
  1.3341536e-01
 -1.2692449e+00
 -7.4904788e-01
  1.6521372e-01
  7.9076308e-01
  8.1835842e-01
  2.3611815e-01
 -1.1644416e-01
 -3.4917924e-01
 -2.4122609e-01
  7.9270142e-01
  2.3889974e-01
  1.9985533e-01
  5.8038443e-02
 -6.5292585e-01
 -1.8773347e-01
  1.0391104e+00
  3.3922207e-01
 -9.7452152e-01
  1.4185171e-01
  4.9962003e-02
 -1.4923725e-01
  1.1527070e-01
 -5.1719451e-01
 -3.8486004e-01
  1.6359721e-01
 -1.6344067e-01
  3.5862219e-01
 -4.0167385e-01
  8.1303930e-01
  3.0911479e-02
 -2.5984862e-01
  2.0423765e-01
  2.2276899e-02
  7.8902203e-01
  2.2371270e-01
  5.1010005e-02
  7.9769686e-02
 -2.6582530e-01
  6.4092124e-01
  9.5698106e-01
 -9.6539393e-02
 -2.0093252e-01
  1.2439688e-01
 -1.2818365e+00
  1.8801544e-02
 -8.1286699e-01
  2.0485108e-01
 -9.0455800e-02
  1.4872032e-01
  3.5028151e-01
  8.1964546e-01
 -8.8935566e-01
 -5.0568807e-01
 -7.6572299e-02
 -6.9201130e-01
 -1.9548001e-02
  2.0806555e-01
 -9.9586159e-02
 -1.2705500e-01
  1.9652347e-01
 -6.4170253e-01
  3.8125515e-01
  9.1186738e-01
  2.6689939e+00
  3.1288326e-02
  4.2524625e-02
  3.5901970e-01
  1.9997376e-01
  1.8812411e-02
  2.0894849e-01
 -7.0564795e-01
  2.0489790e-01
 -4.2237547e-01
  1.7917264e-01
 -1.4865886e-01
 -5.2765948e-01
 -1.6388074e-01
  6.9240618e-01
  4.9617255e-01
 -1.4471148e-01
  3.0935428e-01
 -5.4833579e-01
 -1.6641445e-02
  2.7875319e-01
  3.5560033e-01
  1.7158100e-01
 -1.3826166e-01
  9.2645921e-02
 -1.0887802e+00
 -1.0125242e-01
  2.0646641e-01
  2.8836636e-02
 -6.0625571e-01
 -7.2459066e-01
 -4.1931683e-01
  2.9797781e-01
 -5.9054661e-01
  2.5177473e-01
 -4.5295727e-02
 -6.5824264e-01
 -4.1886572e-02
  1.4518246e-01
  8.2831722e-01
  9.4273351e-02
 -1.9208811e-01
 -2.3203866e-01
  1.8905775e-01
 -8.4463829e-01
 -1.0412334e-01
 -1.6316755e-01
  9.8162031e-01
  9.5439382e-02
  1.5820323e-01
  1.2896221e+00
  2.3940997e-01
  3.1104431e-02
 -4.4693851e-01
  1.2282863e-01
 -8.7963142e-02
  1.2422177e+00
  2.6134491e-01
  6.4102012e-01
  2.3055816e+00
 -1.9898641e+00
  1.3719649e+00
 -1.8918509e+00
  1.5989739e+00
 -7.9146363e-02
  7.6015753e-01
 -1.4096469e+00
 -1.2519693e-01
 -3.3660766e-01
 -2.6505825e-01
  2.4430234e-02
 -2.9015931e-01
 -9.5784247e-01
  1.9465312e+00
  2.6345024e+00
 -1.8058144e+00
 -2.4462519e+00
 -7.6219392e-01
  1.1727316e+00
 -3.6451316e+00
 -1.1578379e+00
  5.7306147e-01
  2.0344663e+00
 -3.6525062e-01
  5.5657530e-01
  1.7197843e-01
  2.5386524e-01
  8.2995015e-01
  5.9407890e-01
  1.2426413e+00
 -9.6560675e-01
  1.1678481e+00
 -5.2026820e-01
  8.5791981e-01
 -2.6823606e+00
  1.2968695e-01
 -4.4494164e-03
  1.2920536e-02
  2.8035054e-01
 -1.3820748e-01
  1.3266140e-01
 -3.2681309e-02
 -4.2930895e-01
 -6.5881741e-01
 -5.5651695e-01
 -8.3819187e-01
 -3.2398823e-01
 -2.4626289e-02
 -9.8138553e-01
 -4.7321248e-01
  1.4261608e-01
  2.1229908e-01
 -8.1090260e-01
  6.6106960e-02
  3.0384567e-01
 -1.2170665e+00
  1.2567903e-01
 -2.6530892e-01
 -7.3315954e-01
 -5.7177538e-01
  4.9180303e-02
 -5.9402082e-02
 -2.5382510e-01
 -5.7562834e-01
  6.3196051e-01
 -3.2923121e-02
  1.9722292e-01
  1.3502769e-02
 -3.4949467e-01
 -1.4342840e-01
 -6.9195127e-01
  7.0530629e-01
  1.6387284e-02
  5.4922175e-01
  1.0649500e+00
  7.6057456e-02
 -4.7108728e-02
 -3.2352760e-01
  2.8566632e-01
 -3.0791840e-01
  4.5969683e-01
 -2.8098528e+00
 -3.2323548e-01
  5.2900636e-01
 -1.2754959e-01
  5.1354885e-01
 -2.6240897e-01
  3.0437371e-01
 -7.8477103e-01
 -2.4423191e-01
  2.3863409e-02
 -1.2359222e+00
 -5.6100464e-01
 -2.6862743e-01
 -2.1420135e-01
 -6.2170858e-03
 -2.1904740e-01
 -1.2591487e-01
 -2.7941689e-01
  3.5562590e-01
 -5.1682275e-02
 -3.4653403e-02
  1.8495740e-01
 -1.8521194e-01
 -2.3579791e-02
  4.0677753e-01
 -1.7953148e-01
 -2.4705435e-01
 -1.5845865e-01
 -6.3142228e-01
 -2.0712885e-01
 -1.3072921e-01
  1.2555826e+00
 -7.3910162e-02
 -1.0861740e-01
 -9.4669729e-01
  4.1315871e-01
  2.6053756e-01
 -3.9158944e-02
  2.0768297e-01
  5.1338744e-01
 -2.5244775e-01
  1.5666963e+00
 -1.3631336e-01
  3.6038300e-01
  3.8913786e-02
  2.3909283e+00
  3.5848957e-01
  1.1303592e-01
  3.2826424e-01
 -3.5581332e-01
 -1.5942259e+00
  3.2641992e-01
 -3.5287732e-01
  1.2646934e-01
 -4.0297267e-01
  9.9116540e-01
 -2.7478966e-01
  2.7624789e-01
 -9.3188144e-02
  3.6672553e-01
 -3.1704217e-02
  3.6578304e-01
  2.5304992e-02
 -2.0182195e-01
  2.2173695e-01
  1.7105209e-02
  2.3064481e-01
 -3.4902584e-02
  1.5386112e-01
  1.5970143e-02
  4.9097124e-01
 -4.5693678e-01
  1.1382844e-01
 -6.3063878e-01
 -2.3369734e-01
 -1.2156545e-02
 -2.3521614e-01
 -3.6545363e-01
  7.9197836e-01
 -9.9819142e-01
 -8.7249219e-02
  3.3599406e-01
 -1.1166572e-01
 -4.2797316e-02
 -2.9475299e-01
 -1.5623726e+00
  3.2254028e-01
 -3.3398405e-01
 -1.0140188e+00
  5.3035426e-01
  1.8656918e+00
  4.3360806e-01
 -3.8315991e-01
  7.1419044e-03
 -1.8390825e+00
 -9.7969599e-02
 -1.8217245e-01
  4.8949245e-01
  1.0615640e-01
  2.2215431e+00
 -1.1171407e-02
 -3.7537867e-01
 -7.0714301e-01
  1.1611501e-02
  4.3254668e-01
  2.8952065e-01
 -1.8610351e-02
  1.0195785e+00
  5.0919342e-01
  1.4347935e+00
 -3.5761663e-01
 -2.7771929e-01
 -1.9081825e-01
  5.2623183e-01
 -1.7700772e-01
 -1.8452893e-01
  6.9524997e-01
 -2.3974624e-02
 -2.5831990e+00
  1.2436061e-02
  1.3072922e-02
  2.4361877e-01
  5.1068687e-01
 -4.3067764e-03
  2.1868756e-01
 -2.1939819e-01
  1.3119853e-01
  7.3122621e-01
  5.1442116e-01
 -2.0609893e-01
  1.3636988e+00
 -4.2434224e-01
 -2.2214437e-01
 -4.6713337e-01
 -1.9126520e-01
  7.0138916e-02
  4.8317158e-01
  4.6190578e-01
  3.9114523e-01
 -3.0036870e-01
  2.0335332e-01
 -3.6769371e-02
 -2.4023867e-01
  4.6596467e-01
 -8.4007883e-01
  2.6820425e-02
 -2.7673230e-01
 -6.3203353e-01
  1.2481673e-01
  4.8615795e-01
  6.3193852e-01
 -1.4284961e+00
  2.8168669e-01
 -1.0048035e-01
 -1.5486959e-01
  1.3814975e-01
 -3.8740474e-01
  5.3080672e-01
  2.6503399e-01
  3.7244970e-01
 -3.0734152e-01
  9.6452951e-01
 -4.0533277e-01
 -6.1214668e-01
  2.3473313e-02
 -1.7992565e-01
 -2.3437296e-01
 -3.7183247e+00
  3.7667373e-01
 -2.6371762e-01
  6.0560530e-01
 -1.2496285e-01
  5.9280217e-01
  7.1831450e-02
 -5.3995061e-01
  1.3661864e-01
 -2.0471479e-01
  1.1558976e+00
  8.2801387e-02
 -4.2285860e-01
  3.8847956e-01
  2.6733270e-01
 -4.6570364e-01
  8.9952879e-02
  1.6069421e-01
  5.0391519e-01
 -1.7693216e-01
  1.7445977e-01
  7.3605426e-02
  7.6614738e-02
  1.3169822e+00
  2.8951623e-02
 -3.3055272e-02
  3.0861354e-01
  6.6633427e-01
 -3.7951928e-01
 -5.3286105e-01
  1.0775456e+00
 -7.1229279e-02
  8.3814293e-02
  9.4218647e-01
  2.3913045e-01
  1.6174679e-01
  5.6081127e-02
 -6.1463717e-02
  3.8014045e-01
  4.9508449e-02
 -5.8758599e-01
  1.9725490e-01
  8.1238884e-01
  5.4780197e-01
 -7.6438874e-02
  1.9695733e-01
  2.1362542e-01
 -7.8705209e-01
 -1.7765978e-01
  2.5806770e-02
  3.5093836e-02
 -3.3590719e-01
 -3.2742104e-01
 -1.0383401e+00
 -1.2295369e+00
 -6.6540402e-01
 -2.2594084e-01
  2.2413774e+00
  2.3086461e-01
  3.3423561e-01
 -2.6177369e-02
 -8.5256112e-01
  1.3505356e-02
 -2.8010949e-01
 -6.5845346e-01
 -4.0636885e-01
  6.1635512e-01
  5.9764379e-01
  1.1303970e-01
 -9.2916030e-01
 -1.9106170e+00
  1.8910836e-02
  1.1108307e-01
  4.6152177e-01
 -2.4191159e-01
 -2.5703576e-01
 -4.9037870e-02
  3.1352985e+00
  2.3089084e-01
  7.0324284e-01
 -8.8134503e-01
  1.5320309e-01
  6.7064725e-02
  2.4432323e+00
  1.4187466e-01
 -1.9807157e-01
 -6.4785057e-03
 -3.6289055e-02
 -6.6270210e-02
  1.0497918e-01
  2.6322094e-01
 -5.1008962e-02
  4.0645286e-01
 -2.1819388e-02
 -5.7670716e-02
 -4.3801954e-01
 -4.7680742e-01
  7.9626542e-01
 -1.6897653e-01
  1.3225000e-01
  1.8139973e-02
  1.2266343e-01
  6.5930760e-01
  3.5403788e-01
  3.2362601e-01
  1.5866514e-01
 -1.7246264e-01
 -1.9734863e+00
  1.2431417e-01
  3.7612441e-01
  4.2545751e-01
 -1.5768804e-01
  4.8720041e-01
  1.4331514e-01
 -6.0460914e-02
 -3.0811307e-01
  3.3421394e-01
  4.3917251e-01
 -6.1363477e-01
  7.4705905e-01
 -9.6940535e-01
 -1.0797261e+00
 -6.5803838e-01
  1.8513134e-01
  1.9861770e+00
  2.5678661e-01
  6.4947975e-01
 -2.9442313e-01
  9.0861365e-02
 -6.7306705e-02
  2.7079555e-01
  1.6610485e-01
 -2.8754261e-01
  9.4007194e-01
  2.8236181e-01
  1.5578456e-01
  2.3244591e-02
 -3.7570614e-01
 -1.6947024e-01
 -4.4666320e-01
 -6.3271418e-02
 -2.7111542e-01
  3.5636735e-01
 -7.2195150e-02
 -8.5930884e-02
  6.9693528e-02
  3.2170530e-02
 -2.4285653e-01
  1.3819244e+00
 -7.6013106e-01
  7.2211671e-01
  3.6556235e-01
  9.4916523e-01
  1.1388384e+00
 -2.1067882e-01
  4.0321541e-01
 -1.1901420e-01
  7.8002676e-02
 -3.1857121e-01
  9.3646601e-02
 -3.2173878e-01
  7.0331216e-02
 -1.9581955e-02
  2.9600985e-02
 -2.1551035e-01
 -4.3890160e-01
 -2.8684768e-01
  1.2840821e-01
 -7.9595101e-01
  9.3580419e-01
 -8.6902827e-01
 -8.1306535e-01
 -4.1200514e+00
  2.3903813e-02
  2.3991157e-01
  6.7716366e-01
 -5.5634540e-01
 -1.5727622e-03
  1.9677034e-01
  1.3521583e-03
 -4.5099583e-01
  3.1295964e-01
 -2.7572352e-01
 -6.1973959e-02
 -7.4184418e-01
  1.7807880e-01
  8.0538057e-02
  1.4977127e-01
  1.9487462e+00
 -3.6674505e-01
  6.4045650e-01
  3.3350858e-01
 -1.7606705e-01
  1.5824185e-01
  1.2711917e-01
  5.2345479e-01
  3.2170136e-02
 -1.0587575e+00
  4.0571120e-01
 -4.4802204e-01
 -9.0354703e-02
  4.5555612e-01
  1.5966764e-01
 -1.2669215e-01
 -1.0613016e-01
  8.0761427e-01
  7.3871982e-01
 -7.0587292e-02
 -1.2472461e+00
  6.1398911e-01
  4.8677176e-02
 -6.9191143e-02
  3.2929271e-01
  2.1307343e-01
  1.3816194e-01
 -5.7247233e-01
 -1.5297391e-01
  2.9595953e-01
  9.8547697e-02
  1.2007350e-01
  4.0227380e-01
  1.2854246e+00
 -5.2579284e-01
 -6.9942459e-02
  9.4908349e-02
  3.4601587e-01
 -6.8696636e-01
  1.3911653e-01
  1.5731242e-01
  3.9611928e-02
  2.9036006e-01
  1.8559860e-01
  1.7990260e+00
  6.9729805e-01
  5.4316521e-01
  7.5497198e-01
 -8.4267906e-04
  4.6927527e-02
 -1.8665616e-01
  1.2838310e-01
 -5.1662773e-02
 -1.9720664e+00
  1.0305128e+00
 -7.6215965e-01
 -4.2645016e-01
 -4.5096880e-01
 -4.2685169e-01
  5.4612088e-01
  4.5516807e-01
  3.9850363e-01
  9.6271366e-02
  1.0709994e-01
 -1.7200018e-01
 -8.8997573e-02
  1.6327216e-01
 -6.2632704e-01
  1.0605701e+00
  2.5647384e-01
  4.1117749e-01
  3.1709391e-01
  2.5213358e-01
 -1.9282475e-02
  6.7917073e-01
 -1.4638177e-01
 -2.8088051e-01
 -2.2456537e-01
 -5.2820468e-01
 -5.9606161e-02
  1.0030881e+00
 -4.9793822e-01
  4.7479275e-01
  8.7924197e-02
  8.7392917e-03
 -6.9729686e-01
 -3.3552982e-02
  4.2462736e-02
  1.2494235e-01
 -1.9365647e-01
 -9.0629357e-01
  4.3329251e-01
  1.2708679e+00
 -6.6255707e-01
  3.4448862e-01
  1.4073017e-01
  1.0319104e-01
 -1.2974066e-01
 -2.1399280e-01
  2.3825626e-01
  3.8725784e-01
  6.3700891e-01
 -1.1995577e-01
  4.6715078e-01
 -1.1053658e-02
 -1.8931240e+00
 -1.2329045e-01
  4.7676530e-02
 -8.6875632e-03
 -1.1335891e-01
 -4.4680136e-01
  3.4588590e-02
  6.0052228e-01
  7.1246582e-01
  2.2287061e-02
  5.5601978e-01
 -4.8301622e-01
  1.7893091e-01
  6.1713081e-02
  5.6248271e-01
 -1.3307299e-01
  1.7174298e-01
 -2.4468850e-01
 -1.8110126e-01
  4.2215872e+00
  4.3668282e-01
 -5.3383201e-01
  2.1995526e-02
 -5.3455496e-01
  3.2862671e-02
  9.9749219e-01
 -5.4089242e-01
 -1.8316314e+00
  1.9563021e-01
  1.3599256e-01
 -4.6094528e-01
  9.3442261e-02
  5.0069720e-01
 -9.9179542e-01
  5.4416078e-01
  1.9077544e-01
  2.3812417e-02
 -1.8250404e-01
 -4.1387936e-01
  2.1706235e-01
  4.3069097e-01
 -1.0353968e-01
 -5.2094538e-02
  2.0342694e-01
  3.4406963e-01
 -3.9138589e+00
 -8.4519520e-02
 -2.2584152e-01
  1.1563040e-02
  6.8137568e-01
  3.1784805e-03
 -1.4462260e+00
 -6.0111421e-01
 -1.3422132e-01
 -4.8045784e-01
 -8.6236483e-01
 -1.4978102e-01
  2.9861322e-01
  2.6613769e-01
  5.8291382e-01
  6.6253406e-01
  8.7199502e-02
 -1.1372090e-01
  8.0951613e-01
 -1.9534905e-01
  1.5804073e-01
  2.8075641e-01
 -1.3468763e-01
 -2.6442292e-03
  2.2728440e-01
 -5.0032217e-02
 -8.3806300e-01
 -2.8145760e-01
 -4.0913153e-01
 -7.7538960e-02
 -2.4429493e-01
  5.9360355e-01
  4.8775736e-02
  4.6504477e-01
  2.3886013e+00
 -1.0944301e-01
 -2.3502302e-01
 -2.2616556e-01
  9.4404095e-01
  1.0827855e-01
  1.8071780e-01
  2.9181749e-01
  8.4546685e-02
 -1.6328752e-01
 -3.4763628e-01
  1.5811312e+00
 -5.6260049e-01
  1.5129127e-03
  2.4850638e-01
  1.1249799e+00
  9.1800168e-02
 -3.6092123e-01
 -1.4106965e-01
  1.7658798e-01
 -2.9370788e-01
  8.9079237e-01
 -2.5857434e-01
 -1.3533334e+00
  9.8644719e-02
  1.3495381e-01
 -1.6912408e-01
 -5.5455629e-02
  9.2761195e-01
 -7.0980549e-01
 -4.6385521e-01
  2.1647517e-01
 -1.7921245e-01
 -3.1244746e-01
  1.2798378e-01
 -1.6901912e-01
  4.1527095e-01
  3.9406519e-02
  8.6768967e-01
 -2.4155419e+00
 -4.0183726e-01
 -1.9123782e+00
  1.9307096e+00
 -4.3723006e-02
  3.1683519e+00
 -7.3165548e-01
 -1.5910268e-01
  3.3964331e+00
  1.1328657e+00
  6.9790292e-01
 -3.3919091e+00
  2.1843147e+00
 -1.1315027e+00
  1.1987484e+00
 -3.7110019e-01
 -7.3658288e-01
  1.6197836e-01
  4.0798970e-02
 -1.0187349e+00
 -4.4505885e-01
 -1.2967043e-01
 -1.7674075e+00
 -1.7324159e-01
  1.9174080e-01
 -2.4090841e-02
  1.7934716e-01
 -2.7774528e-01
  2.2124615e-01
  1.5667799e+00
  4.8629925e-02
 -4.2866388e-01
 -1.5222617e+00
 -1.7439768e+00
  8.7138359e-03
 -3.2484397e-01
 -8.6685228e-01
 -2.5271466e-01
 -4.3205726e-01
 -8.9817248e-02
  4.0691435e-01
  1.0016751e+00
 -1.7088884e+00
  1.5699233e+00
  8.6022568e-01
 -6.5883821e-01
 -4.1554794e-01
 -5.2434492e-01
  5.1752798e-02
 -7.1022314e-01
  6.1556828e-01
 -8.8766385e-03
  1.9608656e-01
 -2.7655950e-01
 -1.2159233e+00
  1.2954580e+00
  2.8448286e-02
  6.2488355e-02
 -1.3668216e+00
  8.0744416e-01
  5.3515744e-01
  4.7533670e-01
  8.6600117e-02
  3.6646780e-01
 -8.2202598e-02
  1.2112459e-01
 -3.7876475e-01
 -1.9911323e+00
  4.1291121e-01
 -1.9308947e-01
 -2.0308396e-02
  9.6193574e-02
 -9.3600810e-01
  4.3141976e-02
  1.1307131e-02
 -1.4998280e-01
  3.1461950e-02
  1.3039725e-02
  1.0319703e+00
  4.5929637e-02
 -5.4742526e-02
 -3.1542116e-01
 -9.4014305e-01
  4.3998164e-01
  5.4523265e-01
  1.4780958e-01
  4.6179879e-02
  2.0783190e-01
  1.0182189e+00
 -5.3648829e-01
  2.2790333e-02
  9.8898076e-02
 -6.5789247e-01
  4.4537115e-01
 -1.9347489e-01
  1.3172860e-02
  7.2521150e-01
 -1.2665789e-01
  3.7306541e-01
  1.5110503e-01
  9.8756832e-01
 -1.3853458e-02
 -1.8959805e-01
  5.2334541e-01
  3.9408222e-01
 -4.3788441e-02
  2.9386321e-01
 -3.3902490e-01
  9.4291054e-02
 -6.1532658e-01
 -3.4543432e-02
  3.9087200e-01
 -2.2381584e-01
 -1.1128560e-01
  3.5239753e-01
 -3.2588574e-01
 -1.5990807e-02
  2.3592423e-01
 -3.5674018e-01
  8.9960843e-01
 -6.5110928e-01
 -1.8896475e-02
 -3.3740966e+00
  3.0382448e-01
 -3.1468576e-01
  3.7098300e-02
  1.0281840e-01
 -2.9826599e-01
  3.2425469e-01
 -5.5572510e-01
 -3.0113226e-01
 -3.8390455e+00
  1.5768251e+00
  3.4010825e-01
 -6.2836367e-01
  1.2410288e+00
  4.0745693e-01
  1.7311798e-01
  1.6596062e-01
 -2.0112692e-01
 -1.9924572e-01
 -7.5090718e-01
 -1.2176783e-01
 -5.4764956e-01
 -1.2030398e-01
  5.6300312e-01
  1.1162070e-01
 -1.2719969e+00
  5.3913975e-01
 -8.4633094e-01
 -1.0999609e+00
  3.9254147e-01
 -3.8654652e-01
  3.9943597e-01
 -5.8641046e-01
  4.2215112e-01
 -1.4143981e+00
 -1.1295076e-01
  3.7294191e-03
 -1.6476132e-01
 -7.7958316e-02
 -4.1619420e-01
 -6.8959749e-01
  1.5181948e+00
  3.7184265e-01
 -9.0987399e-02
  3.5187247e-01
  3.6537799e-01
 -1.6066428e-01
 -2.9044899e-01
  2.9961160e-01
 -6.7256451e-01
  9.9056417e-01
 -4.3943104e-01
  7.0134169e-01
 -1.9575199e-01
 -4.7117049e-01
 -1.4280227e-01
  5.8705485e-01
  6.1355734e-01
 -2.3033313e-01
 -8.9176342e-02
 -8.8334970e-02
  3.1686974e-01
  7.9156131e-02
  3.5774797e-01
  5.4288095e-01
 -1.1234915e+00
 -2.1263313e-01
  5.8372217e-01
  9.2857146e-01
  1.3720828e-01
  1.2572367e-01
 -6.5848756e-01
  3.9839178e-01
  2.6575071e-01
  5.9669703e-02
  7.3384106e-01
  1.5270860e-01
 -2.1460399e-01
 -1.7186245e-01
  1.0811820e+00
 -6.0959107e-01
 -2.3693174e-01
  4.3888766e-01
 -1.2333031e-01
 -7.2439325e-01
  5.2761620e-01
  6.9531888e-01
  4.2611828e-01
 -5.4744518e-01
  9.8346353e-02
  1.2363306e-01
  5.8878976e-01
 -3.0103707e-01
 -2.8673071e-01
  7.2889477e-01
 -9.7365314e-01
 -2.0960408e-01
  6.0625202e-03
 -1.9403424e+00
 -1.5506397e+00
  1.8663622e+00
  3.5041323e+00
  4.5897579e+00
 -6.0185504e-01
 -5.5613947e-01
  7.0367527e-01
 -4.8241677e+00
 -8.6498016e-01
 -2.3064885e-01
  1.1346547e-01
 -3.2288834e-02
 -6.5941447e-01
  1.5038092e-01
  5.1208919e-01
  3.8064429e-01
  1.2924708e+00
 -2.4393035e-02
  2.0875926e-01
  2.6595530e-01
  7.7947456e-01
  1.9344546e+00
  2.4156816e+00
  1.1920797e+00
  8.0527149e-02
 -6.5377653e-01
  1.3074778e-01
 -6.1706901e-01
 -1.0981029e-01
 -1.3896101e+00
 -2.1698959e-02
  3.0978248e-01
 -1.6501005e-01
  2.7875748e-01
  1.0421886e+00
 -2.5912538e-02
 -1.1649003e-01
 -8.2238704e-01
  6.7653798e-02
  1.0624535e-01
 -1.1997441e-01
 -1.3116235e-01
 -1.2210249e-01
  2.4639485e-02
  1.5345758e-02
  1.2780187e-01
  3.0095482e-01
  1.2604017e+00
  9.3003190e-01
  9.1362125e-01
 -6.5428734e-01
 -5.5230504e-01
 -3.7915108e-01
  5.2494031e-01
  9.8999918e-02
 -1.0847147e-02
 -5.9836891e-02
 -2.7915263e-01
 -9.4819903e-01
  2.7141571e+00
  1.0447874e-01
 -2.1381669e-01
 -2.1875227e-02
 -1.5756376e-01
 -8.2109161e-02
  3.2423517e-01
  1.2279198e+00
  6.3803606e-02
  3.7353674e-01
  7.5580722e-01
  3.6754003e-01
 -1.9154952e-01
 -4.0100690e-02
 -6.4523734e-02
 -2.6851134e-02
 -5.0118512e-01
 -4.1017169e-01
 -1.0534914e+00
 -5.8513537e-02
  4.4445628e-01
 -5.2088720e-01
  8.5290767e-02
  6.2544274e-01
 -2.5084698e-01
  3.2137793e-01
  3.9207384e-02
  7.0727581e-01
 -1.3998307e-01
 -1.1783249e-01
  9.7161442e-01
 -6.5697171e-02
  3.2197334e-02
  3.5783194e-02
 -1.9715478e-01
  6.1383046e-02
  6.9059551e-01
 -4.2198008e-01
  2.2333275e-01
  9.2933752e-02
 -2.9513013e-01
 -2.2531820e-02
 -1.2165664e+00
 -8.0444396e-02
 -2.0551437e-01
 -3.2306585e-02
 -1.7926840e-02
  7.3483127e-01
  1.7614074e+00
  1.1388756e-01
  1.5978484e-01
  1.5285838e+00
  1.5419108e-01
 -1.7894034e-01
  4.9018791e-01
 -6.0087991e-01
  3.0024877e-02
  1.5915225e-01
  2.5450566e-01
  2.0375626e+00
 -9.3381763e-01
 -2.4767837e-01
 -3.3722680e-02
  2.4095806e-01
 -2.1027935e-01
 -2.2287132e-01
  4.7070049e-02
  3.3955669e-01
  2.4677165e-01
  1.9070168e+00
 -2.0086665e-01
  9.8839051e-01
  5.8492196e-01
  2.3650104e-01
 -2.2599444e-01
  7.9707962e-01
  1.5041062e-01
  2.4506320e-01
 -3.1340984e-01
 -3.5769641e-01
 -1.0720394e-01
  6.3999034e-02
 -1.0453066e+00
  4.6505576e-01
  7.3411655e-01
  2.8837222e-01
  6.8645996e-01
  1.6479334e-01
 -5.7473718e-03
 -2.2384594e-01
 -1.3103534e-01
 -1.3100958e-01
  4.4359347e-01
 -1.6886006e-01
  2.0349380e-02
 -5.8389097e-01
 -3.1071883e-01
 -2.0209095e-02
  5.7810223e-01
 -6.8295914e-01
 -3.6136007e-01
  7.7442683e-02
  1.6770093e-01
 -7.6562512e-01
 -2.3730643e-01
 -4.0608215e-01
 -4.0059611e-01
 -3.9392287e-01
  7.1899831e-02
 -7.2555609e-02
  3.7809813e-01
 -2.6715317e+00
  2.0164384e-01
  9.9509734e-01
 -4.4627926e-01
 -2.0660242e-01
  3.3596906e-01
  4.0448684e-01
  1.5475950e+00
 -1.3931042e-01
  1.6400641e+00
  5.2466565e-01
 -8.6116183e-01
  6.3377714e-01
 -5.5120188e-01
 -2.1153582e-02
  1.0676523e+00
 -2.8129399e-01
  3.1081280e-01
  3.0238852e-01
 -1.0756381e-01
  5.3136446e-02
  2.5658840e-01
  3.6310554e-01
  5.8345525e-03
  6.8630427e-01
 -3.0412875e-02
 -5.3578891e-02
  4.8444885e-01
 -4.5874226e-01
  2.6333389e-01
 -1.5269643e+00
 -2.9872732e-02
  6.5490387e-02
 -1.1662016e+00
 -6.4226687e-01
  1.6754651e-02
 -1.6312158e-01
 -1.6584238e-01
  3.7607947e-01
 -3.1822056e-01
  7.2177894e-02
 -1.1856808e-01
  3.7793826e-02
  4.2595583e-01
  4.2491734e-01
 -2.3827036e-01
 -7.3684806e-01
 -1.5231062e+00
 -9.4855690e-01
  3.9422360e-01
  7.3166901e-01
 -4.2646474e-01
  2.8912181e-01
 -2.0364621e-01
  2.1802925e-01
  1.3388416e-01
 -3.9951408e-01
  4.5230833e-01
 -6.5135725e-02
 -4.2671749e-01
  1.4480618e+00
  3.6370489e-01
 -2.4613486e-01
  6.2324351e-01
 -5.9646122e-02
 -6.8768062e-02
 -4.3112355e-01
  1.2384030e-01
 -3.0053544e-01
  2.8893772e-01
 -1.6916649e-01
  1.1904327e+00
  1.0955450e-01
 -3.3277738e-01
 -4.6690851e-01
 -4.2221311e-01
 -2.8088942e-01
  1.6496307e-01
  9.1549325e-01
  4.3443069e-02
 -7.3091638e-01
 -8.9959282e-01
 -9.7694141e-01
  5.5561751e-01
  6.0303694e-01
 -1.8312970e-01
 -5.9276801e-01
 -2.6728919e-01
  3.5398197e-01
  7.4878472e-01
  8.9266831e-01
  8.9639974e-01
 -1.1254612e-01
 -7.4949461e-01
  2.5407897e-02
  3.3604619e-01
  7.5874561e-01
 -7.9379994e-01
  2.2215983e-01
 -8.2068229e-01
  5.6231260e-01
 -5.0858670e-01
 -3.7897967e-02
  1.6065054e-02
  7.4417681e-02
 -4.1580319e-01
 -1.7277053e-02
  9.8299317e-02
  8.3099049e-01
 -4.3425831e-01
  2.1139767e+00
 -1.3272694e-01
 -6.1403894e-01
  1.9882217e-01
  5.4237999e-02
  4.6550554e-01
  4.2846596e-01
 -1.9719447e-01
  4.6735382e-01
 -8.1393766e-01
  6.6367912e-01
 -2.3097684e+00
  2.4437538e-01
 -5.7673031e-01
 -5.0255489e-02
  8.8438317e-02
 -3.2780822e-02
  4.2083749e-01
  2.4049014e-01
  5.8475047e-01
  2.2937968e+00
  1.1183310e+00
 -5.3658562e+00
 -1.0153956e+00
  1.0719390e+00
  8.8871706e-01
 -1.0307950e+00
  1.5579881e-01
 -9.5777452e-02
  1.5973589e+00
 -3.8810086e-01
 -1.5069934e+00
 -4.6407637e-01
  2.3671225e-01
  6.6276121e-01
  5.2793205e-02
  4.9101132e-01
  1.5526528e+00
 -1.4072330e-01
  1.9434091e-01
 -7.4608588e-01
  3.8042927e-01
 -1.4653680e+00
 -5.3293717e-01
  1.3464741e-01
 -5.5484694e-01
  7.8321084e-02
 -1.9496815e-01
 -6.8852238e-02
 -7.0098603e-01
 -1.6572189e-01
  1.4265596e+00
  1.3790703e-01
 -2.2830246e-02
 -3.0958527e-01
  3.9126351e-01
 -1.2531964e-01
 -1.3843364e-01
 -1.0542177e-01
 -2.0532909e-01
  3.2452542e-02
 -3.7999594e-01
 -1.2782762e+00
  5.2147985e-01
  3.2094860e-01
  1.0738118e-01
 -1.6257998e+00
  8.6349845e-02
  5.4781187e-02
 -4.3356365e-01
 -6.2316072e-01
  5.6910433e-02
  1.4892058e-01
 -7.1276218e-01
  2.8888080e-01
  9.7280197e-02
  1.0830587e+00
 -2.6440337e-01
  1.2090327e-01
 -7.9879153e-01
  1.2842603e-02
  5.8017993e-01
 -2.6716700e-01
  1.5121887e+00
  3.9484382e-01
  9.1004767e-02
 -3.3917031e-01
  6.8040557e-02
  7.6682186e-01
 -5.8097681e-03
 -9.3370341e-03
 -4.6437609e-01
 -1.0544029e+00
  9.7714043e-01
 -1.1540347e-01
 -1.2507646e-01
 -2.3289870e-01
  4.3030572e-01
 -1.9760100e-02
 -7.6297724e-01
  2.3248563e+00
 -1.9499874e-01
 -1.0472550e-01
  5.1549900e-01
 -8.2958585e-01
 -3.7799072e-02
  1.5718481e-01
  1.2667392e-01
 -7.4717529e-02
 -1.0701973e+00
 -2.7871722e-01
 -3.4973392e-01
  2.3976599e-01
  1.7230543e-01
 -5.9424336e-03
  3.2862283e-02
 -2.5136828e-01
  2.8252307e-01
  3.4784439e-01
 -1.0317219e+00
 -2.7840141e-02
  9.9777937e-02
 -1.9184031e-01
 -1.0733156e-01
 -2.5305399e-01
 -1.8590322e-01
  9.4584095e-01
 -3.0929741e-02
  1.1812561e+00
 -3.5663506e-01
  1.3501330e-01
 -5.6985271e-01
  7.6251298e-02
  1.2901177e-01
 -2.3245803e-01
  1.5652169e-01
 -2.1120307e-01
  5.2809322e-01
 -1.7496873e-01
 -3.9183718e-01
  8.7251388e-02
  3.7283983e-02
  1.7521181e+00
  2.9353204e-01
 -1.0777554e-02
 -3.2901742e-02
 -6.8452485e-02
 -7.3322773e-01
  1.4943814e-01
 -1.6041523e-01
 -4.2114598e-01
  3.4583119e-01
 -5.0801081e-03
 -3.1341112e-01
  3.5554317e-01
  4.7390395e-01
  7.5060463e+00
  2.3115404e-02
  7.5545985e-01
  1.0323563e+00
  1.6650511e+00
 -5.0576758e-01
 -5.7367247e-01
 -7.4758422e-01
  5.7816092e-02
 -7.7205831e-03
  4.8484701e-01
 -7.7005339e-01
 -3.8391584e-01
 -9.4732183e-01
 -3.3365710e+00
 -2.1668198e+00
  3.8635901e-01
  1.3073093e+00
  7.2154576e-01
 -7.3215806e-01
  4.8102224e-01
  1.2874202e-01
  2.9357347e-01
  8.9652801e-01
  1.5617120e-01
  5.7065778e+00
 -1.5138629e-01
  4.9863696e-01
 -3.7205049e-01
 -1.9247793e-01
  7.4603045e-01
 -1.9982490e-01
  7.6539350e-01
  7.6236618e-01
  1.2780182e-01
  1.0964405e-01
  4.6137261e-01
 -7.2797698e-01
  8.2203215e-01
  1.8620989e-01
 -1.7644080e+00
  6.1729085e-01
  1.4723766e+00
  2.3426557e-01
 -2.5532084e+00
 -1.3018088e-01
 -7.3215708e-02
  7.9656965e-01
  2.9024240e-01
  9.3199486e-01
 -5.3109777e-01
 -6.1339724e-01
 -2.3732691e-01
 -6.7789996e-01
  4.2878476e-01
  7.8598768e-01
 -1.0027829e-01
  1.7929024e-01
  4.6131694e-01
 -7.2587770e-01
  1.8072987e-01
  1.0349916e+00
 -6.1447874e-02
 -1.0270019e+00
 -5.0514650e-02
  4.0822113e-01
 -3.5304198e-01
  8.4308600e-01
 -3.1809241e-02
  3.4631100e-01
  8.9509630e-01
 -5.5430382e-01
  1.6405678e-01
 -2.3446631e+00
 -2.4301550e-01
  8.1452680e-01
  7.1992314e-01
  1.4992692e-01
 -3.9855767e-02
 -7.8871858e-01
 -2.4863300e+00
  1.1728751e-01
  1.9548704e-01
  1.1578729e-01
 -1.0939674e-01
  1.1301651e+00
  8.8832371e-02
 -2.0070554e-01
  5.1723540e-01
 -3.4087855e-01
 -1.9880028e+00
  2.5762916e-01
  1.0559003e+00
  3.2342929e-01
  7.9722017e-01
  1.1987685e-03
  3.4618616e-01
 -6.7943132e-01
  2.6683134e-01
 -6.9443011e-01
 -8.4085941e-01
 -6.6355544e-01
  2.2229919e-01
  3.2997217e+00
 -2.6349148e-01
  2.8000447e-01
 -5.3135753e-01
  1.8277261e-01
 -6.3820845e-01
  7.4476439e-01
 -4.5785141e-01
 -6.4858496e-02
 -2.0518962e-01
 -1.2001308e+00
  9.7815149e-02
 -2.5759777e-01
  6.6145998e-01
 -4.6400409e-02
  2.5692835e-01
 -2.2346604e-01
 -9.5415562e-01
 -5.0027323e-01
 -8.2834685e-01
  2.1816097e-01
  5.5213583e-01
  3.8302857e-01
  1.0193210e+00
 -1.1219998e-01
  1.2238019e-01
  6.7361850e-01
  6.0039359e-01
 -4.0430695e-01
  7.7211320e-02
  6.6580749e-01
 -1.3533658e+00
  4.2311996e-01
 -4.6814564e-01
 -7.9781741e-01
  6.6693133e-01
  9.5463991e-01
 -1.9055264e-01
 -9.2878431e-01
 -2.6986012e-01
 -5.9318787e-01
 -7.3910117e-01
  1.0729915e+00
 -1.3505337e+00
 -8.5924745e-01
 -4.8713932e+00
  6.5916491e-01
  1.3428404e+00
  1.0527064e+00
 -5.8428186e-01
 -2.6251988e+00
 -1.0442337e-01
 -1.0409989e+00
  5.5187799e-02
 -1.1158150e-01
 -9.8208584e-02
 -1.8468679e-01
 -1.9063532e-02
  1.5274341e-01
 -3.1422240e-01
  1.4538929e+00
 -1.7740305e-01
  4.6467999e-01
  2.5276771e-01
 -2.6898643e-01
 -1.5874264e+00
  2.4085033e-01
 -8.1257397e-01
  4.8224006e-02
  2.2130504e-01
 -5.3171253e-01
 -8.3696440e-02
  7.2809142e-01
 -9.9083923e-02
 -1.1842394e-01
 -1.6566201e-01
  2.5427437e-01
 -7.5425506e-02
  6.0973424e-02
 -2.0499320e-01
  7.7320409e-01
 -6.7752361e-01
  1.8938251e-01
 -4.7088069e-01
 -4.7786504e-02
  5.2480215e-01
 -3.6117867e-01
  4.0448755e-02
  4.1797602e-01
 -3.8269818e-01
 -5.1843500e-01
  3.1081149e-02
 -4.7576723e-01
 -5.7089216e-01
 -3.8683960e-01
  2.1992862e-01
 -1.0059802e-02
  7.6059413e-01
  9.7598231e-01
  2.7286738e-01
  9.5882103e-02
  1.4852475e+00
 -2.6246327e-01
 -1.2962715e-02
  5.0799555e-01
 -3.6348766e-01
  1.6621123e-01
 -9.3237633e-01
 -4.9082145e-01
 -1.8716374e-01
  6.4881343e-01
  5.5270624e-01
  3.8523695e-01
 -6.6406572e-01
 -4.3357398e-02
 -1.9283883e-01
  7.8391790e-02
  1.4365096e+00
  3.7853736e-01
  8.5843009e-01
  2.7724996e-01
 -3.9497444e-01
 -2.7717263e-01
 -2.0779429e-02
 -6.5310353e-01
 -6.0205106e-02
  9.3633276e-01
 -5.0047928e-01
  1.0755303e-02
 -4.5657013e-02
 -2.6900586e-01
 -3.2384139e-01
 -2.2006918e-01
 -4.3539658e+00
  2.3514757e-01
 -1.6533341e+00
  1.0855718e-02
  9.1899976e-02
  1.0224637e+00
 -1.0476896e-02
  3.3914316e-02
  3.4816980e-01
  2.9319489e-01
  2.0830046e-01
 -2.3487143e-01
 -4.1317961e-01
 -1.5245847e-01
  6.9470990e-01
 -2.3817950e-01
 -1.9553271e-01
 -2.1848445e+00
  6.2614119e-01
  1.5371539e-01
 -2.9846513e-01
  4.9906760e-01
 -3.4573001e-01
  9.9296078e-02
  3.4289044e-01
 -1.3554039e+00
  4.7388086e-01
  3.3205873e-01
  7.5027639e-01
  4.3466440e-01
 -4.0371585e-01
  6.9529217e-01
 -2.9140657e-01
 -3.7269694e-01
  1.5682797e-01
 -5.3481311e-01
 -3.5571843e-01
 -1.5390033e-01
  1.6077840e-01
 -5.1053071e-01
 -3.9301494e-01
 -1.1008772e-01
  4.8085681e-01
 -4.7808599e-02
  2.2024584e-01
 -6.4063489e-01
  1.5109408e+00
 -7.9126067e-02
 -1.1135745e+00
 -1.6639212e-01
  1.4273466e-01
 -4.4779146e-01
  3.6742422e-01
 -3.7873459e-01
  2.6563334e-01
 -3.4924275e-01
 -8.1714928e-02
  1.2118011e+00
  1.8193392e-01
  1.0905193e+00
  4.0833354e-02
  6.5305494e-02
  1.1070710e+00
  2.1087877e-01
 -1.3688564e-01
  5.3393473e-03
 -2.9832032e-01
 -6.3641703e-01
 -5.9668537e-02
  1.1085071e-01
  5.6625336e-01
 -5.5819876e-03
 -4.4581052e-02
 -2.9694355e-01
  3.8268140e-01
  3.5030374e-01
  1.9357651e+00
 -1.6244305e+00
 -7.4808049e-01
  9.8142701e-01
  7.3749982e-02
 -6.7298189e-02
  7.9100347e-01
 -3.0772856e-01
 -1.1520820e+00
  6.7053640e-01
  1.8563719e-01
  1.9339483e+00
 -4.5861888e-01
 -4.2130873e-01
 -3.5681120e-01
  5.4118548e-02
 -7.3056841e-01
 -5.8794993e-01
 -2.6627862e-01
  2.0098329e-01
 -4.5727614e-01
 -1.0168055e-01
  1.0259895e-01
 -1.9481315e-01
 -1.3467926e+00
  6.1054194e-01
 -1.2273146e-01
 -4.5707628e-01
 -3.7438247e-02
 -5.9031707e-01
 -1.0083178e+00
  5.4796867e-02
  4.8477101e-01
  9.0649360e-01
 -3.7906989e-02
 -4.7309116e-02
 -8.0434245e-01
 -2.6730543e-01
 -1.2644001e+00
  4.5562655e-02
  7.4078478e-02
  1.5406996e+00
 -4.2165816e-02
 -3.2207808e-01
  3.7346220e-01
  1.5437604e-01
  1.3701214e-02
  1.6149275e-01
  1.7384821e-01
  5.6225216e-01
  1.4377142e-02
  9.2227340e-02
  1.0946241e-01
  1.2826760e-01
  2.2812985e-01
 -7.8727454e-02
  1.4544374e-01
 -7.9628788e-02
 -8.1242269e-01
  5.0747573e-01
  1.5295862e+00
 -2.7194071e-01
 -1.5140960e+00
  1.1904408e+00
  2.3006056e-01
  1.3197994e-01
 -3.5148790e-01
  2.6468027e-01
 -6.1688447e-01
  4.6154776e-01
  2.6424381e-01
  5.7131308e-01
 -2.6441473e-01
  8.0566108e-02
  6.4938754e-01
 -1.2563545e+00
 -4.7763270e-01
 -1.7607814e-01
 -2.5381386e-01
  3.2864293e-01
 -1.6244946e-01
  2.8266472e-01
  5.5418443e-02
 -7.3447652e-02
 -1.8638042e-01
  2.6993780e+00
  1.8112125e-01
  1.0391733e-01
 -7.4689549e-01
 -4.7131014e-01
  6.5578178e-02
  1.3573639e+00
 -2.8840622e-01
  1.5896983e-01
  2.6009220e-01
  5.7940888e-01
 -2.8163898e-01
  1.4587263e-02
  5.3135502e-01
 -5.4233581e-01
  1.0437615e+00
 -3.2291718e+00
 -3.9244232e-01
  2.9466233e+00
 -3.7468833e-01
  3.6911067e-02
  5.4776508e-02
  1.6184714e-01
  2.1425013e-01
 -3.8857794e-01
  4.0064582e-01
  7.7474517e-01
  1.2829313e-01
 -2.4927102e-01
 -7.9600602e-01
 -8.7394871e-02
 -4.5756888e-01
 -5.8151226e-02
 -1.3782261e-01
 -6.3264638e-01
 -2.3307145e-01
  7.8623980e-02
 -3.9302090e-01
  5.4849815e-01
  9.1036355e-01
 -3.0190721e-01
 -2.4947606e-01
 -8.4784679e-02
 -2.3751321e-01
 -3.7892675e-01
 -3.7991583e-01
 -8.2174771e-02
  9.4134569e-02
  1.8302530e-02
 -3.0726148e-02
 -3.2976285e-01
  2.5363843e+00
  1.4037685e-01
 -7.6537699e-02
  8.9587039e-01
  1.5009376e+00
 -3.0445647e-01
 -2.2007123e-01
 -9.6119571e-01
  6.6312182e-01
 -1.2065129e-01
 -6.2098235e-02
  2.4535644e-01
  2.4027207e-01
  4.4526789e-01
 -7.7446625e-02
 -5.0361198e-01
 -3.7283832e-01
 -2.4211171e+00
  1.4274584e-01
  4.7733635e-02
  3.9253626e-03
 -6.4177685e-03
 -2.8203182e-02
 -3.9519823e-01
 -2.3796190e-01
  2.2048722e-01
 -2.2580600e+00
  6.3539946e-01
  1.3160540e-02
 -1.0390660e-02
 -1.8814383e-02
 -3.2667321e-01
 -4.2908393e-02
  6.1980125e-02
 -1.4716215e-01
 -4.2318902e+00
  1.2904238e+00
 -1.5647037e-01
 -7.2283566e-01
 -2.0117687e-01
  1.2101451e-02
  2.3666535e-01
 -6.9480431e-01
 -7.5290728e-01
 -6.4470816e-01
  7.2098419e-02
 -1.2523850e+00
 -2.9732490e-02
  2.6907605e-01
 -1.3106988e-01
  7.8483921e-01
  4.3373027e-01
  4.4505826e-01
  5.2065057e-01
  6.9962132e-01
  4.1964224e-01
  2.0716123e-01
 -4.8515204e-02
 -1.7801075e-01
 -1.3354130e-01
  3.1263503e-01
  3.3114812e-01
 -1.2677546e-01
  1.2348636e-01
 -1.0309494e+00
  4.0259492e-01
 -1.1651314e-02
  6.8305773e-01
  3.0484198e-02
 -5.7985061e-01
 -4.3753624e-01
  1.5181734e-01
  1.2043305e-02
 -8.9652395e-01
 -1.0867409e+00
 -6.1916534e-02
 -6.5387481e-01
 -6.9128048e-01
 -3.5072720e-01
  3.3209148e-01
  1.3084419e+00
  6.8004858e-03
  5.7242292e-01
  2.8779688e-01
  6.1646529e-02
 -1.6631691e+00
  1.1607503e+00
  6.1303329e-01
 -1.5186074e+00
 -8.2472749e-03
  7.4931376e-02
  1.5608053e-01
  2.1012069e-01
  5.8952564e-01
  5.3634558e-02
  1.5857000e+00
 -7.7576536e-01
  1.4243336e-01
 -1.1055053e+00
  6.2911987e-01
 -5.5664045e-01
 -2.2705556e-01
  3.0613723e-01
 -8.6746067e-01
 -4.6406192e-01
 -1.5295997e+00
 -1.4985630e-01
  1.0329504e-01
  7.6230961e-01
  8.3862138e-01
  5.6396419e-01
 -1.3746187e-01
 -2.1853182e-01
 -3.0779493e-01
 -6.0586724e-02
  3.0192217e-01
  2.2936100e-01
  1.6226318e+00
  5.0390726e-01
  1.5892173e-01
 -1.9408993e-01
 -1.0770383e+00
 -9.3140602e-02
  6.6255045e-01
  3.6738437e-01
 -3.2860053e-01
 -9.6897759e-02
  6.5750368e-02
 -1.5169281e+00
  5.7918930e-01
  2.8873849e-01
 -7.1122319e-02
 -1.4364022e-01
 -1.1144661e+00
  3.4811482e-01
  2.3862296e-01
  4.9114111e-01
 -1.9920297e-01
 -2.6238322e-01
  1.2694525e+00
  1.1818671e-01
  5.2860570e-01
 -3.0230826e-01
 -4.1105682e-01
  7.1032599e-02
 -1.0240071e-01
  4.1649967e-02
 -2.4429783e-01
 -1.7547210e-01
  4.0381750e-01
 -2.0695877e+00
  6.1297614e-02
 -7.3874170e-01
 -1.9114779e-01
  3.3919680e-01
  7.1233237e-01
 -3.0316006e-02
 -8.1431156e-01
  2.7397296e-01
  4.7180691e-01
 -4.5961952e-01
  1.1059013e-01
 -2.8050143e-01
 -8.2243776e-01
 -8.5083075e-02
  7.3601937e-01
 -1.0545502e+00
 -1.6178600e-01
  9.0477848e-01
 -3.3300716e-02
  1.9721363e-01
 -1.2184005e-01
 -1.1699960e-01
 -2.2217442e-01
 -1.3753256e-01
  7.1815991e-01
  3.9049831e-01
  4.6507818e-01
  9.9154793e-02
 -1.2155015e+00
  4.9756870e-01
 -9.1058499e-01
 -2.2376026e-01
 -4.7179807e-02
 -1.7358331e-01
 -3.4325190e+00
  1.1350212e+00
  9.4855487e-02
 -1.8227500e-01
  7.2097218e-01
  1.6380644e+00
  3.9500797e-01
  3.7531281e-01
 -1.2133472e-01
 -1.2117238e-01
 -1.1018313e+00
 -2.0648964e-01
  1.0553930e+00
 -9.0275146e-02
 -4.7184178e-01
 -7.3999447e-01
 -4.6075481e-01
 -1.9841349e-01
  4.3218743e-02
  9.6404976e-01
 -8.7756850e-02
 -4.9038649e-01
  2.8475893e-01
 -4.3529190e-02
 -1.0022820e+00
  2.9216895e-01
 -6.8689145e-02
 -9.5517647e-01
 -5.2374530e-01
 -7.6290593e-02
 -3.3781666e-01
 -1.0661122e-01
  5.2550739e-01
 -4.1551825e-02
 -3.2228297e-01
  9.6569544e-01
 -8.3502337e-02
 -2.6014274e-01
  3.7458882e-01
  4.2151883e-01
 -1.4491651e+00
  9.6542478e-01
  5.1189727e-01
  1.2082183e-01
 -4.3820396e-01
  3.6721545e-01
  9.6273977e-01
  7.9236828e-02
 -9.3602806e-01
 -6.2397379e-01
  4.1172069e-02
  2.6155209e-02
 -5.1561838e-01
 -3.5247308e-01
 -4.9885958e-01
  8.3514132e-02
  9.1718376e-01
  1.7214671e-02
 -3.1113258e-01
  2.4977162e-01
 -1.5488487e-01
 -3.4688714e-01
 -7.7826393e-01
  5.1790470e-01
  4.3966029e-02
  3.4958562e-01
 -2.6911113e-02
  4.0439653e-01
 -1.1524795e-01
 -8.8073045e-02
  1.3021223e-01
 -2.3735051e-01
 -6.1435920e-01
 -4.2606932e-01
  8.9956746e-02
  3.2394028e-01
  2.7928174e-02
  5.6565785e-01
 -1.9442579e-01
  5.8573884e-01
 -4.0737223e-02
 -6.1744046e-01
 -1.1398494e-02
  8.0485266e-01
 -6.3865083e-01
  2.8117785e-01
 -1.2242919e-01
 -9.1659582e-01
 -2.5923604e-01
 -1.6563484e-01
 -4.2969999e-01
  6.1354265e-02
 -1.5722524e+00
 -2.0999227e-01
  7.1468003e-02
 -6.6005921e-01
  6.6724055e-02
  9.5365636e-02
  3.8828176e-01
  9.0444267e-01
 -2.5856594e-02
 -3.1350079e-01
 -2.1198729e-01
 -4.6671486e-01
  8.0772907e-01
  1.2927008e+00
  6.6992003e-01
 -1.4844412e-01
 -1.7809622e+00
 -9.0477449e-01
  4.0637128e-02
 -7.5708918e-02
 -2.8563311e-02
  6.4058840e-02
 -2.7594504e-01
 -1.5652367e-01
 -2.5158298e-01
  1.0076946e+00
  1.9764927e-01
  9.9534646e-02
  1.8951280e+00
 -1.0946305e-01
  1.0907822e-02
 -3.0714872e-01
  1.1672119e+00
  5.1325351e-01
  8.7469429e-02
  1.3523167e-01
  2.9250604e-01
 -2.3997770e-01
 -9.2810953e-01
 -3.1805125e-01
 -1.0786788e-01
  1.0411192e+00
 -1.6988324e-01
 -6.8727237e-01
 -4.0703204e-01
 -3.2759604e-01
  9.3022984e-01
  3.9924753e-01
 -2.1123460e-01
  5.8612692e-01
 -1.7176131e-02
 -7.3820782e-01
  8.1492907e-01
  5.9215505e-02
  7.5713255e-02
  7.9159193e-02
 -1.1665807e-01
  2.2605641e+00
 -4.0303949e-01
 -1.3165406e+00
  7.8832902e-02
 -8.6516440e-02
 -2.2851783e-01
 -2.1670422e-02
 -7.2128467e-02
 -3.8644403e-02
  9.2306250e-01
 -8.4211081e-02
  3.4242209e-02
 -6.0633767e-01
  4.9354497e-01
  5.9094834e-01
 -8.9460844e-01
 -3.8005251e-01
  1.0588942e-01
  4.4896361e-01
  3.2113105e-01
  1.3437204e+00
  2.1334524e-01
 -2.7489517e-02
  1.5980786e-01
  3.5565662e-01
  2.3854232e-01
  2.4504289e-01
 -5.0883895e-01
  2.4901740e-02
 -3.1872612e-01
 -7.8673881e-01
 -2.8998614e-03
 -2.1022484e+00
  4.5443702e-01
  6.7014539e-01
  4.6935183e-01
 -2.0149300e-01
  3.4805530e-01
 -2.1950915e-01
  5.1080090e-01
 -2.1211547e-01
  7.1702605e-01
 -1.2489247e-01
  1.1301003e-01
  1.3299401e+00
 -1.1062450e-01
  3.9620119e-01
  1.0488142e-01
 -1.2510988e-01
 -4.3250895e-03
 -9.6244253e-02
 -4.5902830e-01
  1.3733424e+00
  3.6080119e-01
 -1.9518474e-01
 -4.9600653e-02
  4.6193343e-01
  9.4453269e-01
 -8.7394439e-02
 -2.7071002e-01
  6.1737970e-02
 -4.7385582e-01
  1.0428094e+00
 -1.6487442e-01
  6.8063140e-01
  2.1809474e-01
 -2.0727243e-01
  1.2899864e-01
  4.3110111e-01
  1.0488769e-01
  7.4147248e-01
 -8.5248210e-02
 -5.1524353e-01
  6.8401836e-02
 -7.3081255e+00
 -3.3630207e-01
  5.1891267e-01
  9.5827997e-01
  6.0890146e-02
 -3.4573001e-01
 -3.7981081e-01
  1.0174103e-01
 -1.9232717e-01
 -5.1957798e-01
 -1.9333918e+00
 -8.8928735e-01
 -8.4800035e-01
  1.2916157e+00
  9.4447029e-01
  4.9556300e-01
 -1.1486546e+00
  2.7402180e-01
 -3.3942461e-01
 -1.6004333e-01
 -1.7347799e-01
 -3.4341313e-02
 -4.3521985e-01
 -3.6667073e-01
 -4.4512796e-01
  1.4938848e+00
 -1.6536134e-01
 -8.8958710e-01
 -1.5932555e-01
  3.5154495e-01
  3.2604739e-01
  1.9264199e-01
 -9.8410267e-01
  6.5449581e-02
  4.4295874e-01
 -2.1328384e-01
 -2.9118496e-01
  2.3767078e-01
 -3.3107644e-01
  6.5677887e-01
 -1.1108438e+00
 -2.6836407e-01
  1.3485769e-02
 -3.5666561e-01
  2.6237329e-02
 -1.0924297e-01
  3.4015832e+00
  3.3612797e-01
 -1.9305256e-01
 -2.0258099e-01
  6.0089028e-01
  5.1766489e-02
 -8.1683058e-01
  4.7455367e-01
  1.0385800e-01
  8.3330117e-02
 -6.0772377e-01
  4.1069427e-01
 -3.5369632e+00
 -1.1319611e+00
 -9.8679328e-01
  8.2226723e-01
 -1.4281097e-02
  6.7358774e-01
  1.6433242e-01
 -5.5775499e-01
 -5.5260688e-01
 -7.1356505e-01
 -9.4183129e-01
  1.5045296e+00
  1.5055425e-01
 -4.7265077e-01
 -2.3388270e-01
 -6.7101496e-01
  9.3929760e-02
  1.8066417e-01
  5.3608981e-03
 -1.2124540e-01
  1.5903814e-01
 -3.4900230e-01
 -1.1008250e-01
  7.3474830e-01
  2.1310224e-01
 -7.9733491e-02
 -7.7567858e-01
 -2.5943100e-01
  1.7714150e-01
  3.1312549e+00
  9.7285712e-01
 -1.2716616e+00
  1.1296514e+00
  1.9385666e+00
  5.6893545e-01
 -1.1585640e-01
 -9.6684569e-01
  1.0566828e-01
  1.6983557e+00
 -2.6817777e+00
 -4.4612345e-01
 -1.0716412e-01
  1.1616378e-01
 -6.8869561e-01
  1.3869507e+00
 -2.8731239e+00
 -1.5117539e-01
 -8.4035349e-01
 -1.1151636e+00
  8.0195934e-02
 -1.4570172e-01
  6.0877267e-02
  1.0528306e+00
 -1.4277612e-01
 -1.8648213e+00
  1.0612930e+00
 -4.5846164e-01
 -4.1654980e-01
  4.7679615e-01
 -1.2188045e+00
 -2.8597453e-01
  1.1462229e-01
 -3.4750444e-01
 -1.9276031e+00
  2.0524387e-01
  4.0419739e-01
 -3.3958843e-01
  8.0481660e-01
  2.7000103e+00
  3.1663474e-01
  8.5115492e-01
  1.7106850e+00
  1.5047491e+00
 -2.4507563e-01
 -4.1098926e-02
  2.0669788e-01
 -3.9343423e-01
  2.1784575e-01
 -4.1766328e-01
 -5.5654490e-01
 -6.0808074e-01
 -1.3178389e+00
 -2.8153524e-02
  5.5653876e-01
  1.7120783e-01
  7.5300947e-02
 -7.4139279e-01
 -3.3129314e-01
  1.8780485e-01
 -1.4723915e+00
 -7.8536347e-02
  6.4995751e-02
  1.1519536e+00
 -2.5807536e+00
  8.4590375e-02
 -5.9722316e-01
  2.1462451e-01
  7.6568991e-02
 -1.3726881e-01
 -4.4163671e-01
  1.7330402e+00
 -2.7929375e-01
 -4.2636955e-01
  1.2862868e+00
  5.7193894e-02
 -4.0890339e-01
  1.1823778e+00
  2.5788900e-02
  3.8598177e-01
  8.1042349e-02
 -8.7308541e-02
 -5.5467125e-02
  4.6170857e-02
  2.1274705e-01
 -6.7006081e-02
 -4.4756836e-01
 -2.6100841e-01
 -3.8559485e-02
 -2.9799652e-01
  1.8316190e-01
 -2.7960315e-02
 -5.6608516e-01
 -1.1213036e+00
 -2.2103027e-02
  1.7479450e-01
 -3.0994035e-02
 -3.7661377e-01
  3.1187001e-01
 -2.5767252e+00
 -4.3265209e-01
  1.5964304e-01
 -1.2455913e-01
  4.9431375e-01
  6.5223581e-01
 -2.8336306e+00
 -2.5910482e-02
  5.7171434e-01
 -2.5350649e+00
 -4.5004907e-01
  8.0912536e-01
 -3.2630897e-01
  2.7371436e-02
  8.4204340e-01
 -4.1590299e-02
 -7.8457630e-01
  1.0607704e-01
 -5.1731843e-01
  5.0030386e-01
 -6.1856639e-01
 -1.2600945e+00
 -2.8044981e-01
  1.4313704e-01
 -2.7560091e-01
  7.9716963e-01
  5.7513672e-01
  7.8618294e-01
  3.0715528e-01
 -6.5392053e-01
  7.9589516e-01
  3.6065388e-01
  5.8857429e-01
 -7.3935622e-01
  1.6390109e+00
  1.1689413e-03
  3.3034626e-01
  9.5813042e-01
  1.9498898e-01
  2.5347750e+00
  9.7661048e-02
 -4.9400125e-02
 -5.9303761e-01
 -6.4784735e-01
  7.4662763e-01
  5.7130915e-01
  8.9618611e-01
 -1.4040376e-02
  4.5287883e-01
  3.6224119e-02
  2.9680467e-01
 -4.7446805e-01
 -6.5560395e-01
 -4.9773544e-01
 -3.6366228e-02
 -1.4090879e-01
  3.3940490e-02
 -3.5366243e-01
  3.2903227e-01
  4.3635017e-01
 -9.8174918e-01
  2.1940772e-01
 -7.3831528e-02
  3.7268105e-01
 -7.1033263e-01
  5.0733507e-01
  1.4818916e-01
 -3.3034027e-02
 -3.4777218e-01
 -1.0309082e-01
  6.2732339e-01
 -2.7337921e-01
 -2.8872266e-01
 -1.8550040e-01
 -5.4757738e-01
 -5.3828585e-01
 -6.1708176e-01
 -4.0552223e-01
 -3.1603700e-01
  3.4595272e-01
  1.5177062e-01
 -6.1355829e-01
 -6.9670027e-01
  1.1433730e-01
 -1.8137006e-01
 -1.9365890e-01
 -4.6813524e-01
 -1.1815466e-01
  7.1703754e-02
  3.7525731e-01
 -2.4832951e-01
 -1.7227522e-01
 -7.5580782e-01
 -8.3220857e-01
  2.6057354e-01
 -1.3169624e+00
 -4.3983933e-01
 -7.0721442e-01
 -7.2030807e-01
 -2.4409299e-01
  1.6728561e-02
 -4.9618980e-01
  2.6894203e-01
  1.1410593e-01
 -3.3408746e-01
  3.7822083e-01
  3.5713798e-01
  4.7956286e-03
 -1.9744285e+00
 -2.5986955e-01
  3.0805841e-01
  6.6107845e-01
 -2.6487258e-01
  2.3989666e-01
  5.3760207e-01
  2.9521155e-01
 -6.1855859e-01
  5.4440790e-01
 -4.5205939e-01
  9.0370998e-02
  1.0058800e-01
 -2.7578819e-01
  1.0507958e-01
 -2.7757064e-01
 -2.6955750e-02
 -1.5090340e+00
  2.6341790e-01
 -2.2104532e-01
  3.8603672e-01
 -6.6267490e-01
  7.5751269e-01
  1.1095999e+00
 -9.0610705e-02
  1.2247559e+00
 -2.0956242e-01
  5.7180058e-02
  6.1325510e-03
  1.2062937e+00
  2.5173494e-01
 -2.5240856e-01
 -2.4848161e+00
  3.2707801e+00
  4.3528265e-01
 -1.2526551e+00
 -2.6955789e-01
 -3.8174388e-01
  5.7029480e-05
  2.2267815e-01
 -2.3394397e-01
  6.4233661e-02
  1.1623248e+00
  2.6066229e-01
 -9.6434724e-01
 -2.6931500e-01
 -3.5437903e-01
 -7.8751940e-01
  2.0740347e-01
  1.7277105e-01
  1.9667742e-01
  2.8605992e-01
 -6.8345165e-01
  1.6189750e-01
 -2.5521563e-02
 -4.2584175e-01
  7.2229820e-01
  3.1820950e-01
 -2.8459029e-02
 -1.6624401e+00
  2.6296474e-02
 -6.2095087e-02
 -3.3275819e+00
  5.5365503e-01
  1.0703009e-01
 -2.1151712e+00
 -6.5917426e-01
 -5.9584719e-01
 -3.5225755e-01
 -2.7942643e-01
  1.0775006e+00
  4.3593284e-02
 -1.6771407e-01
 -2.6293061e+00
 -3.5018411e-01
  4.2466447e-01
 -5.0015617e-02
 -3.0233657e-01
  5.7690710e-01
 -2.1569700e+00
  9.2680633e-02
 -1.4364883e+00
  4.0956743e-02
  2.5997895e-01
  3.3407247e-01
 -1.5831052e+00
 -8.1186342e-01
  1.2139680e+00
 -1.1938269e+00
 -1.3840513e-01
 -1.3108120e+00
  6.4116251e-01
 -6.5823710e-01
 -3.4816757e-01
 -3.5733783e-01
 -3.8253236e-01
 -2.4009068e+00
  4.5723662e-01
 -6.9314891e-01
 -1.0922975e-01
  3.9023858e-01
 -2.5041172e-01
 -1.5880102e-02
  2.1676385e+00
  4.0779307e-01
  1.6276759e+00
 -1.0624006e-01
  5.4862928e-01
 -6.9739729e-01
  1.1062732e-01
 -2.8408727e-01
 -2.1159174e-02
 -1.3644395e+00
 -7.4214965e-01
 -2.0233886e+00
  4.4880933e-01
 -1.9094101e-01
 -1.0488228e+00
  2.9250538e-01
 -8.6436182e-02
  2.2382648e-01
 -1.6710726e+00
  3.2246895e-03
 -6.5991467e-01
 -9.6295603e-02
 -7.6408756e-01
 -1.7450515e-02
  1.4161374e-01
 -2.2908056e-01
  1.9742039e-01
  3.0925170e-01
 -1.1353392e-01
  3.8964458e-02
 -2.2474954e-01
  3.1480294e-02
  8.7394530e-01
 -1.1336506e-01
  1.0201057e-01
 -4.0592027e-01
 -1.8741584e-03
 -2.3772459e-02
  6.4430684e-01
 -6.4429545e-01
 -3.1333432e-02
 -9.3436551e-01
 -3.3971736e-01
 -7.8433979e-01
 -2.6779553e-01
  1.0644337e+00
 -2.0696598e-01
  3.8486683e-01
 -8.9532524e-01
  3.0941956e-02
  4.3598354e-01
  2.0936215e-01
  1.8013224e-01
 -5.3226143e-01
 -1.3069617e+00
 -5.9608048e-01
  8.3114475e-01
 -1.3086622e+00
 -2.8642085e-01
 -8.6547352e-02
 -6.2189376e-01
  1.4127562e+00
  1.9168549e+00
  1.6126784e+00
  2.1064107e+00
 -5.6669241e-01
 -1.8107257e+00
 -3.4116358e-01
 -2.0310989e-01
  4.0789261e-01
  7.5315434e-01
 -3.4399614e-01
  1.2466171e-01
 -5.6995547e-01
 -8.1461079e-02
 -1.7661557e-01
 -9.4477332e-01
 -6.4792299e-01
  1.4544604e+00
  5.6980771e-01
  5.8933705e-01
  2.4585265e-01
 -5.3431809e-01
  1.3044008e+00
  5.4143590e-01
  2.3593879e-01
  3.0217832e-02
  1.9819264e-01
  3.4694104e-03
 -2.7734962e-01
 -1.2076434e-01
  1.1171763e-01
 -2.7024660e-01
  1.7265639e-01
  9.5301621e-02
  3.7213560e-02
 -1.0118007e-01
 -1.9184902e-02
 -1.7241077e+00
  9.6845049e-01
 -3.2423827e-01
 -5.5500108e-01
 -5.1599467e-01
 -3.0910790e-01
 -4.2776179e-02
 -2.2087218e-01
 -4.0241042e-01
 -3.0756155e-01
  2.5029561e-02
  1.8465869e-01
 -9.0109265e-01
 -5.0171459e-01
 -1.6474678e-01
 -1.0388656e-01
  2.0267986e-01
  7.4865884e-01
  3.0842865e-02
 -5.8929795e-01
  7.3496503e-01
 -2.5367007e-01
 -8.4027845e-01
  4.1826060e-01
  7.1137297e-01
 -2.5205028e-01
  1.9638455e+00
 -6.1142992e-02
  2.2325501e-01
 -1.2927464e-01
 -2.1857462e+00
 -3.1181965e-02
  2.1418756e-02
  2.5506932e-02
  2.8172114e-01
  6.1750226e-02
  3.6375076e-01
 -1.0523184e-01
  2.3182284e-02
 -4.9563912e-01
  1.9664735e-01
  4.3839437e-01
  3.7514257e-01
 -1.0715681e+00
  7.0441991e-01
  1.1117452e-01
 -5.1412970e-01
  6.2269665e-02
 -2.4327415e-01
  1.5088150e-01
 -1.3647354e-01
  3.4614170e-01
 -1.0885580e-01
  4.0578860e-01
  6.7572200e-01
 -1.0391796e+00
  1.7250544e-01
 -2.4460512e-01
 -3.8417721e-01
  8.3535600e-01
  6.3249734e-03
  7.5464375e-02
  6.2879974e-01
 -1.3544899e-01
 -4.1943800e-02
 -4.9674284e-01
  1.5797323e+00
 -2.5559139e-01
  1.1972514e+00
 -3.8907573e-01
 -4.0236375e-01
  8.0531651e-01
 -8.5399663e-03
  3.8050909e-02
 -1.3956067e-01
  8.7394947e-01
  4.2635593e-01
 -2.7289239e-01
 -3.2812610e-02
 -7.0821124e-01
  1.4467038e-01
 -4.4329917e-01
 -7.3475137e-02
 -2.8817579e-01
  1.4344548e+00
  3.2080676e-02
  1.0505782e-01
 -4.7814989e-01
 -3.5736382e-01
 -1.4833428e-01
 -1.0974111e-01
  6.6274375e-01
 -4.4254932e-01
 -4.6455294e-01
  1.7187518e-01
 -6.1062825e-01
  6.7792647e-02
 -3.8299686e-01
  2.0346548e-01
  2.1723390e-02
 -4.1465786e-01
 -9.6543115e-01
  2.4132919e+00
  3.1158745e-01
  2.2766541e-01
  1.9401783e-01
  6.8791546e-02
 -1.3415669e-01
 -3.4064841e-01
  3.7157348e-01
 -3.0738458e-01
  7.3903489e-01
 -1.4177880e-01
 -1.0991256e+00
 -8.1924655e-02
  8.8267398e-01
  3.0194647e+00
  4.6880445e-01
 -7.3862910e-02
  2.5080884e-01
 -3.5676133e-02
 -1.4448026e-01
 -3.4508684e-01
  6.7046171e-01
  7.4980938e-01
  2.3372255e-01
  3.1657830e-01
 -2.4325987e-03
 -7.8583664e-01
  5.6848139e-02
 -1.0576502e-02
  2.0068743e+00
 -1.6615452e-01
 -5.9605432e-01
 -2.5376534e-01
  2.9795006e-01
 -8.7832177e-01
  2.0313199e-01
  8.4806435e-02
  1.3728045e-01
  3.5168675e-01
 -3.6289373e-01
 -2.0920543e-01
 -1.9134823e-02
  5.8597821e-01
  1.2073507e-01
 -2.9707227e-03
  2.9568503e-02
 -1.1278376e-01
  2.9894787e-01
  6.9472037e-02
  4.0637285e-01
  1.5953410e-05
 -2.5375503e-01
  7.9583156e-01
 -1.5106723e-01
  4.0146236e+00
  3.7284479e-02
  1.8115026e-01
  4.4072896e-02
  3.8078010e-01
 -1.7690109e-01
  1.1391764e-01
  7.5556493e-01
  8.0011696e-01
 -4.7722709e-01
 -1.4676353e-01
 -3.9794868e-01
  5.7156563e-01
  3.9468947e-01
  9.0632543e-02
  7.2377801e-02
 -7.5167596e-01
 -1.3079144e+00
  1.2936437e-02
  1.7188117e-02
  1.1270649e+00
  6.2039334e-01
  8.3344150e-01
 -1.7774697e-01
  8.9616999e-02
  1.8882063e-01
 -1.8362430e-01
  2.7823845e-01
 -1.0044666e-01
 -6.3740578e-03
  5.2845109e-01
  1.7602958e-03
 -9.5370042e-01
  1.8781214e-03
  2.8442508e-01
  1.8223526e+00
  6.1192244e-01
  1.3115945e-01
 -2.9166628e-02
  6.6473687e-01
 -8.0351841e-01
 -1.0044793e+00
  3.8623917e-01
  1.4157340e-01
  1.3508157e+00
  4.0113994e-01
  2.1688035e-01
  1.0815372e-01
 -2.3789778e-01
  1.2192872e+00
  5.2234709e-01
  2.3153788e-01
 -9.0200506e-02
 -6.1432880e-01
 -4.5324782e-01
  1.1679893e+00
  2.6009446e-01
 -7.5494432e-01
 -4.2238748e-01
  4.8505062e-01
  6.4580917e-01
  4.1847238e-01
 -1.0188320e+00
 -2.6821434e-01
  5.4022886e-02
 -4.7575340e-01
  7.9349883e-02
  1.7222272e-01
  2.1408865e-01
  1.0256766e-02
  4.0880248e-01
 -9.5286179e-01
 -6.8619169e-02
  6.7534432e-02
  7.9247469e-01
  6.5758163e-01
 -1.6439191e-01
 -2.7625316e-01
  6.9369084e-01
  2.7196947e-01
 -2.1835508e+00
 -4.3775195e-01
 -5.1821357e-01
  3.4006551e-01
 -4.3612242e-01
  2.1699317e-01
  2.4371050e-01
  1.1158849e+00
  2.3496044e+00
 -5.0004536e-01
 -1.6346817e-01
 -3.2051571e-02
 -5.7656783e-01
  1.8313521e-01
  3.2307687e+00
 -3.6939105e-01
 -1.2164827e-01
 -5.7159621e-01
 -2.2238849e-01
  7.8540228e-02
  2.1789557e-01
 -4.0594557e-01
 -1.7823258e-01
 -4.7274254e-02
  6.5028690e-02
  1.6846067e-01
 -2.8449315e-01
  2.0299599e-01
 -1.6282175e-01
 -1.3047945e+00
 -7.4771750e-01
  9.7420767e-02
  8.1858873e-02
 -4.7102433e-01
 -1.6854401e-01
 -4.0532666e-01
  8.0119438e-02
 -8.3608784e-02
  1.8019241e-01
  6.4481884e-01
  1.0042132e+00
  1.1423040e-01
 -2.6076412e-01
 -6.4762199e-01
  3.7523121e-01
  1.8799652e-01
  6.2448595e-04
 -4.1135797e-01
  2.1210746e-01
  3.5475716e-01
 -5.0786760e-02
 -3.1092399e-01
  1.1136259e-01
 -1.3129136e-01
 -6.9189703e-01
  7.4519120e-02
 -1.1216151e+00
  1.6112283e-01
  1.0668196e-02
  2.0310789e-01
 -8.2314461e-01
 -4.0309086e-01
 -2.6819521e-01
 -2.5241283e-01
  2.0058578e-01
 -2.2100347e-01
  1.9397035e-01
  1.3867262e-01
  4.6313956e-01
  7.1128732e-01
  1.7219140e-01
  1.0031089e+00
 -2.3296611e-02
  2.8760847e-01
 -1.9551560e-01
 -5.7829488e-02
 -6.1421210e-01
 -2.0141025e-01
  5.0523704e-01
  3.5204011e-01
  3.2035226e-01
 -1.6131599e-01
  9.0067260e-02
  2.1020821e-01
 -7.4503666e-01
  1.2765244e+00
 -1.4155784e-01
  4.4608474e-01
  3.0404024e-02
  6.7499593e-02
 -1.3965686e-01
  3.6957625e-01
  4.6206841e-01
  6.2391555e-01
 -5.8082265e-01
  5.2211839e-01
  1.9259992e-01
 -1.4719409e-01
  4.5565519e-02
 -4.2549595e-01
 -2.0162070e-02
 -2.4320528e-01
  6.7037529e-01
  7.5710601e-01
 -2.4069588e-01
 -2.6379478e-01
 -4.6412989e-01
 -2.6952555e-02
  8.2476443e-01
  4.7531072e-02
  3.7796831e-01
  2.8003883e-01
  1.6767198e-01
 -1.2517032e-01
  1.5718827e-02
 -2.6899386e-02
 -3.8768256e-01
  1.5697819e-01
 -1.1371365e+00
  1.1681966e-01
 -1.0906235e+00
 -1.3072690e+00
 -1.6647530e+00
 -1.8979339e-02
 -9.3437836e-02
 -1.7005055e-01
 -2.0806539e-01
 -7.3384142e-01
 -6.3325636e-02
  2.5049311e-01
  1.3810313e+00
 -3.5457474e-01
 -2.2687857e-01
  2.2949269e-01
 -3.2226793e-03
  9.7412765e-02
 -3.4065378e-01
 -7.6705344e-02
  9.1430038e-02
 -8.3060205e-01
 -1.2002160e-02
  6.6835845e-01
 -2.4763934e-01
 -1.6324713e+00
 -4.2582670e-01
 -2.2633331e-01
  1.4474120e-02
  5.4176879e-01
 -4.9477479e-01
 -6.9658026e-02
 -1.2071491e+00
  5.2716440e-01
 -5.5122340e-01
 -1.2079901e-01
  1.4634268e-01
  4.9130651e-01
  4.5171800e-01
 -2.9063528e+00
 -1.1568980e-02
 -7.5139201e-01
  4.2376441e-01
 -2.6273686e-01
  8.1294049e-03
 -1.2768488e-01
  2.2129637e-01
 -2.3346460e-01
  9.5734686e-02
  1.2737797e-01
  2.7869752e-01
 -1.5191902e-01
  5.6171584e-01
  6.8494064e-01
 -3.7195730e-01
  2.7192739e-01
  7.0491329e-02
  5.1071519e-01
  1.7444254e-01
 -2.1400243e-01
 -4.4825718e-01
 -3.6974722e-01
 -4.3050379e-01
  1.0686751e-01
 -1.5373087e-02
 -4.5974165e-01
 -2.9748648e-01
  1.0503204e+00
  7.9173617e-02
  5.0559312e-02
 -4.7752085e-01
 -5.4999995e-01
 -3.8519701e-01
 -4.1814375e-01
 -3.7031889e-02
 -1.4291888e-01
 -6.6902705e-02
 -1.7627586e+00
 -4.2827591e-01
  4.5168421e-01
  4.6781987e-01
 -4.9355975e-01
 -8.0855751e-01
 -4.8896649e-01
 -1.1015414e-01
  6.6306435e-02
 -1.6352206e-02
  1.3330628e+00
 -2.2506528e-01
  5.2103215e-01
  2.4140798e-01
 -2.4342360e-01
  1.6140658e-01
 -1.0836916e-01
 -4.1538236e-01
  8.8569182e-01
  4.1025095e-02
  2.6679626e-01
  6.6106766e-01
  8.2609850e-01
 -2.8985518e-01
 -4.8048547e-01
 -9.7662367e-02
  8.4614289e-01
  3.2887471e-01
  1.4395962e+00
  2.3777078e-01
 -1.1756276e-01
  6.8297130e-01
 -5.9457067e-03
  3.4979659e-01
 -8.9543217e-01
 -2.5230819e-01
 -4.6298783e-02
  8.9322701e-02
 -1.0616069e-01
 -6.3781953e-01
 -9.3523405e-02
 -9.3040812e-01
 -4.6957247e-02
 -3.6550111e-01
  1.5886316e-01
 -7.6291102e-01
 -4.8208954e-03
 -9.2592292e-02
 -8.1716281e-01
 -4.6618843e-01
 -2.8324740e+00
 -1.1502445e-01
 -1.0868416e+00
 -1.0050713e-01
 -4.7687759e+00
  7.5951546e-01
 -3.2124624e-01
  1.6363138e-01
 -5.2781177e-01
 -8.8607001e-01
  1.7203686e-01
  3.4771106e-01
 -2.2555727e-01
  6.9092798e-01
 -7.4253589e-01
  2.0188403e-01
 -2.1216211e-01
  3.4484249e-01
  6.4651722e-01
  1.0021388e-01
  1.0837393e-01
  1.9275559e+00
  1.2504562e+00
 -1.7905033e+00
 -1.8908318e+00
 -9.8421693e-02
  8.0867356e-01
  3.5600683e-01
  3.3301786e-01
  4.2946346e-02
 -4.4581681e-01
  4.4226689e+00
  2.3936588e-01
  1.5280974e-01
 -8.9504808e-01
 -9.3284018e-02
 -3.0316976e-01
 -1.0978149e-01
 -2.1982023e-01
 -8.8937338e-03
 -2.5720997e+00
  1.0441241e-01
  7.4518949e-01
  2.6020840e-01
  2.1049683e-01
 -3.1690148e-01
  8.3092086e-02
 -4.3608047e-02
  5.3293917e-02
  2.3234470e-01
  3.5298500e-02
  4.3053091e-01
 -1.3114539e+00
 -2.0243881e+00
 -5.1192474e-01
 -1.8049082e+00
  9.2308295e-01
  1.5224197e+00
  7.7368334e-02
  1.7610531e+00
 -3.4555417e-01
 -1.2257309e+00
  4.8362173e-02
  1.8276151e+00
 -3.1526789e-01
  4.2401230e-01
 -3.6427605e-01
 -1.5798645e-01
 -1.5688053e-01
  4.0755180e-01
  6.7076005e-02
  1.0423120e-02
  2.0649172e-01
  1.1937561e-01
 -2.9433662e-01
 -2.3724276e-01
 -8.1282288e-01
  7.5323379e-01
 -5.5505621e-01
 -1.5757056e+00
 -1.9444651e-03
 -1.0935559e-01
  9.4594729e-01
 -2.3593307e+00
 -4.9315114e+00
 -1.5670916e+00
 -2.0605215e-01
  2.3520043e+00
  6.6219699e-01
  3.4595582e-01
 -9.7417426e-01
  2.6079330e-01
  1.3627038e+00
  5.5980271e-01
 -3.7318666e-02
 -1.3006806e+00
 -4.2353103e-01
  1.9480743e+00
  4.6323616e-02
  1.4673993e-01
 -2.4075885e+00
  1.8399307e-01
  8.7378687e-01
 -3.8860090e-02
  2.2504089e-02
  1.0323837e+00
  5.0294247e-02
  2.5021952e-01
  1.6734935e-01
 -7.6813668e-01
  1.3324678e-01
  2.9836714e-01
  8.4230608e-01
  3.3138871e-01
  5.2019715e-01
 -5.9030002e-01
  5.9623331e-01
 -4.3432694e-02
  5.3657031e-01
  3.4191903e-01
  5.2104440e-02
  9.1014886e-01
  5.0887936e-01
 -4.8255142e-02
 -1.2896324e+00
 -2.8387052e-01
 -8.6470060e-02
  1.4863452e-02
 -2.5539637e-01
  5.4572892e-01
 -1.7706090e-01
 -1.5165846e-01
  5.3873605e-01
 -4.3750086e-01
 -1.2934785e+00
 -3.4393600e-01
 -3.5955384e-01
 -2.3978834e+00
  5.7235831e-01
 -1.9402128e-02
  2.2849356e-01
  3.2671109e-01
 -2.2284806e-02
 -3.2923543e+00
 -4.1831946e+00
 -8.8501436e-01
  4.9998393e+00
 -2.6321030e+00
 -2.2999620e-02
 -1.7802347e+00
 -3.0457668e+00
  6.9429435e-02
 -7.3426324e-01
  2.3466113e+00
 -9.0228587e-01
 -1.5885962e+00
  1.1546026e-01
  1.0442106e+00
 -7.5188863e-01
  5.9872603e-01
 -2.4728229e+00
 -4.2215772e-02
  1.3541380e+00
 -8.9290106e-01
 -3.0749559e+00
 -2.1983121e-01
  2.3254927e-01
 -1.4060184e-01
  1.9547918e-01
  4.4592121e-01
  8.8183442e-03
  1.1287659e-01
  6.7983669e-01
 -2.3445575e+00
  1.8072416e+00
 -3.0144123e-02
  4.1011113e-01
  2.0658257e-03
 -1.2078856e+00
 -6.5609944e-01
  2.5360703e-02
  3.4745876e-02
  8.9643109e-01
 -1.1208836e+00
  1.4406376e-01
 -3.5170549e-01
 -1.5530829e-01
  4.5022264e-01
 -6.6177845e-01
  2.5096270e-01
  9.1415954e-01
  1.4730769e-01
  2.1267211e-01
  9.5440574e-02
  3.5154819e-01
  1.5326396e-01
 -1.6543619e-01
 -1.0739487e+00
 -7.0355088e-02
 -2.0294793e-01
 -2.0049292e-01
 -5.3565152e-02
 -1.1609386e+00
  2.8391018e+00
  5.8629179e-01
  1.1188680e+00
  5.4304916e-02
  3.2607564e-01
 -1.8820545e-01
  7.4736655e-02
  1.1221437e-01
 -3.7121448e-01
  9.8655798e-02
 -1.1850048e+00
  7.2128111e-01
 -6.7448670e-01
  1.3269114e-01
  1.1400239e+00
  1.1691459e-01
 -2.9762270e-02
  1.1855581e+00
  3.5437420e-01
  1.3876566e-01
  3.4159279e-01
  1.1782462e-01
  1.4146234e-01
  2.8402352e-01
 -1.0724341e-01
  3.4879163e-01
 -1.8732893e-01
 -1.1129696e-01
  4.7779110e-01
  3.0846858e-02
 -1.5815556e-01
 -1.2614988e-01
 -1.0672417e-01
  5.9060478e-01
  5.9084076e-01
 -5.5545546e-02
 -3.9370963e-01
 -6.2286681e-01
  4.9902940e-01
 -5.9677709e-02
 -2.8477296e-01
 -1.6334607e-01
  3.3402115e-01
  4.4020832e-02
  2.4478598e-01
 -5.5849689e-01
  5.2319586e-01
  1.5602131e-02
 -8.8744807e-01
  3.4591514e-01
  1.1368669e-01
  1.5768412e+00
  2.5476319e-01
 -4.7875497e-01
  2.8330259e+00
  9.4573796e-03
  3.8653478e-02
  7.0479161e-01
 -5.7770205e-01
  1.6694804e+00
 -5.7013077e-01
  4.8287103e-01
 -3.7854254e-01
 -4.7484228e-01
  1.9578084e-01
  4.1356575e-01
 -2.0859422e-01
  7.2299436e-02
 -7.5158566e-01
 -6.5927738e-01
 -2.4478519e-02
 -1.0330313e-01
 -1.7054839e-01
  1.7102613e-01
  4.7783393e-01
  1.1159346e-01
  1.5738516e-01
 -6.9598824e-01
 -2.7720708e-01
 -3.3607572e-01
  5.9851146e-01
 -1.5717448e-01
  2.9616773e-01
  1.6749352e+00
  4.1294450e-01
  7.1450347e-01
 -2.6181817e-01
  3.6830567e-02
  9.3265899e-02
 -8.3018476e-01
 -1.4832509e-01
  6.5429717e-01
 -1.1947425e-01
  4.0557510e-01
 -1.1931067e-02
  4.3455286e+00
 -1.5362996e-01
  1.7442325e-01
 -6.9060862e-01
  2.8094064e-02
 -2.4163241e+00
  1.7903639e-01
  7.1283937e-02
  1.3815929e-01
  4.3992132e-01
 -1.9451399e-01
 -1.5789239e-01
  4.1624823e-01
 -1.6249706e-01
 -1.1025512e+00
  2.9739341e-01
  6.3683295e-01
  4.4378668e-01
 -6.4750916e-01
  5.4390937e-01
 -7.9935962e-01
  7.2994016e-02
 -3.2180917e-01
 -1.2539408e-01
  3.9355466e-01
  1.4058754e-01
 -2.5210977e-01
  1.3206276e-02
  2.0265212e+00
  9.9937823e-03
  5.2787680e-03
  2.7420118e-01
  8.5777831e-01
  5.7763612e-01
 -5.7973996e-02
  4.9795297e-01
 -1.9813959e-01
  3.8497207e-01
  2.7071324e-01
  3.1668279e-01
  2.5184277e-01
 -2.7442667e-01
  9.8170899e-02
  3.0728057e-01
  6.3033122e-01
 -8.3440311e-02
  1.7903425e-01
  2.6884019e+00
 -5.8444107e-01
 -1.6472027e-01
 -6.5894228e-01
 -6.6864677e-03
  5.9338343e-01
 -2.5469859e+00
 -2.1339867e-02
  2.3314219e+00
 -1.9412748e+00
 -8.8044131e-01
 -5.2846903e-01
  1.9486440e+00
 -6.0724837e-01
 -4.4284475e-01
  4.0831250e-01
  2.2721751e-01
  1.5305985e+00
  7.2503525e-01
  8.6339700e-01
  9.9001557e-01
  3.7239856e-01
  1.2917356e+00
 -4.8447374e-02
 -6.1277896e-02
 -1.7326094e-02
  1.7751090e-01
 -1.0522510e+00
 -9.6155977e-01
 -2.6446167e-01
 -8.3334148e-03
 -1.8756801e-03
 -7.9572864e-02
 -3.4106088e-01
 -1.4201109e-01
 -1.0708569e+00
 -1.3635716e-01
 -8.1765294e-01
  7.0068561e-02
  2.9062441e-01
 -2.2692521e+00
  3.8095322e-01
  1.0578473e-01
  4.4102961e-01
 -1.4257531e-01
 -3.8481906e-01
  6.3275498e-01
  4.2772174e-01
  3.4650198e-01
  3.7194183e+00
 -2.5895081e-02
 -5.0252581e-01
  8.5452926e-01
 -6.6241629e-02
 -3.6318455e-02
 -1.3522878e-01
 -2.0847204e-03
 -4.2480177e-01
 -2.1935175e-01
 -1.6054026e+00
  2.7626303e-01
  6.5937638e-02
 -1.8396312e-01
  4.2686793e-01
  5.9818238e-01
 -6.1080229e-01
  1.4440209e-01
 -8.7223366e-02
  1.6905766e+00
 -2.4773058e-01
  1.1065836e+00
  1.6241395e-01
  8.4112972e-01
 -2.5571415e+00
 -4.1755942e-01
  8.6950707e-01
 -1.1631496e-01
  8.1728391e-02
 -4.6266317e-01
  3.5789832e-01
  2.0029686e-01
  1.0080047e-01
 -4.8582575e-01
 -1.5547425e-01
  1.0381982e-01
  4.2940599e-01
  1.7442062e-01
  8.2446232e-02
 -5.2597219e-01
  1.0890293e+00
 -3.0899915e-01
 -5.3425658e-01
  5.7856584e-01
  9.2020191e-02
  1.4069061e-01
 -1.7871331e-01
  7.4732557e-02
 -3.7950349e-01
  2.6121446e-01
 -1.6965710e-01
 -3.7842149e-01
 -2.4246703e-01
 -3.8281420e-01
 -2.3515511e-01
  8.0030881e-02
 -2.6318983e-03
  1.0841829e-01
 -1.1726676e+00
 -2.7298984e-01
 -6.3230053e-02
 -2.2521698e-01
  6.9948636e-02
  1.7948090e-03
 -3.2562561e-02
 -6.6675860e-01
 -1.2148851e+00
 -9.4239958e-02
 -3.6763778e-01
 -5.5468123e-02
  6.0044326e-02
 -1.5974234e+00
 -1.7197089e-01
 -8.1773239e-01
  2.8327078e-02
  4.7420427e-01
 -6.4069885e-01
  1.5010814e-01
  5.4062051e-01
  5.0380296e-01
 -9.6653074e-01
 -1.1013056e+00
 -3.2134542e-01
 -8.4078908e-01
 -1.6546550e-01
 -4.7489915e-02
  1.6529632e-01
  7.3109215e-01
  1.6283356e+00
 -5.4905951e-01
  1.4416896e+00
 -6.3687861e-01
  1.8828057e-01
 -1.5881009e-01
 -4.5030248e-01
 -2.1905184e+00
 -2.1830855e-01
  8.1384188e-01
  3.4497857e-01
 -2.8230888e-01
  7.1992379e-01
  1.6280624e-01
 -7.0182854e-01
  9.6890002e-02
 -3.2881889e-02
 -1.2026037e-01
 -3.4816885e-01
  9.7431196e-03
 -2.0557329e-01
  7.8872222e-01
 -2.9957833e-02
 -4.9252948e-01
  8.4993631e-02
  6.4172693e-02
 -3.2990023e-01
 -5.8536656e-02
 -5.1567298e-01
 -4.1850150e-02
  3.4861467e-03
  5.9820616e-01
  5.7930249e-01
  2.1310824e-01
  7.6367277e-01
  8.7908113e-01
 -3.0807045e-01
 -7.8896350e-01
  2.2544876e-01
  4.4395727e-01
  1.9509682e-01
 -6.2250602e-01
  1.4825727e-01
  2.4697371e-01
  2.8924215e-01
  1.8783951e-01
  6.2659758e-01
  2.2661161e-01
  1.5510069e-01
  9.2109054e-01
  4.2514223e-01
 -3.9970241e+00
 -1.1980523e+00
 -3.0664164e-01
  6.1145830e-01
  4.9846527e-01
 -6.4589769e-02
  4.6049970e-01
 -7.8822840e-03
 -2.0007329e-01
  1.2543964e+00
 -6.6667837e-01
  8.0933556e-02
  6.4464696e-02
 -2.4583986e-01
  9.6459258e-01
  6.2836248e-01
  4.2455429e-01
 -2.0674598e-01
  6.6901451e-01
 -5.1311225e-01
 -3.7441587e-01
  2.3188436e-01
  1.1094564e+00
  1.3126586e-01
  1.6080393e-01
 -5.3510357e-02
  1.2503922e+00
 -1.5934679e-01
  1.3511323e+00
  5.4551676e-02
 -4.2647487e-01
  1.7339845e+00
 -8.9488655e-02
  1.0762502e-01
  6.7554194e-01
 -8.3243512e-02
  2.0699759e-01
 -3.2958648e-01
 -5.7402098e-01
 -5.3242654e-01
 -1.7371561e-01
  2.0385575e+00
 -1.5371250e-01
 -5.3167075e-01
  4.1073871e-01
 -3.1579973e-03
  1.0080758e+00
  1.0321797e-01
 -1.7984642e-01
 -2.8242239e-01
 -2.3508197e-01
  6.2655136e-02
  2.0011881e-02
 -1.0536925e+00
 -4.0433958e-02
 -3.4859952e-01
  5.5710014e-02
 -1.1000081e-02
 -6.2778759e-01
 -3.2274523e-01
 -1.0903757e+00
  8.0108047e-03
  2.3832564e+00
  3.3574399e-01
 -8.2762679e-03
  1.0338924e+00
 -8.8749722e-02
  5.6327868e-01
  6.7734975e-01
 -3.6775306e-01
  3.5087717e-01
 -2.7422974e-01
 -3.4468431e-02
  3.0219856e-01
 -2.0298667e+00
  1.5405278e-01
  7.8161031e-02
 -5.4713506e-02
  1.5577363e-02
 -4.7393557e-01
  3.1374905e-01
 -6.9489349e-03
  2.7300689e-01
 -3.7940887e-01
 -2.4031223e-01
  1.0921898e+00
  6.8130618e-01
 -3.1064013e-01
  3.5252485e-01
  6.7562157e-01
 -2.8557053e-01
  4.1416541e-01
 -1.2527158e+00
  5.4302663e-01
  9.4068348e-01
  1.8513143e-01
 -4.1466787e-01
 -1.0110520e+00
 -6.7159766e-03
 -1.7690594e-01
  6.7604005e-02
  2.0352466e-01
  1.2579221e-02
  1.4390324e-01
 -3.2545584e-01
 -2.3832700e+00
  4.4057328e-01
 -1.6522564e-02
  1.7318889e-01
  8.8382345e-01
 -1.5000485e-01
  9.8761415e-01
 -4.2746702e-01
  5.8229977e-01
 -6.0024884e-02
  3.2772318e-01
  3.7468863e-01
  5.4184550e-01
  1.0554107e-01
 -2.1330872e+00
  1.0591588e+00
 -1.1558598e-01
  3.3977318e-01
 -4.2748547e-01
  1.4418837e-01
  1.8354639e-01
  1.6167277e-01
  6.2265038e-01
 -4.9776572e-01
 -3.3848569e-01
  7.1227515e-01
 -9.6502912e-01
  3.6369374e-01
 -1.4231457e-01
 -1.8387184e+00
  4.4738919e-02
 -6.8157130e-01
 -5.4099602e-01
 -1.8026492e-01
  4.8321912e-01
 -4.2909417e-01
  1.9998720e+00
  1.6315593e-01
  6.8457991e-02
  9.6168035e-01
  4.7509283e-02
 -2.8070506e-01
 -2.1580791e-02
  8.2351364e-02
 -5.6412451e-02
  7.2038427e-02
 -1.9442229e+00
 -2.6444238e-01
  7.4413544e-01
  7.8244466e-01
  3.5040602e-01
 -2.1891734e-02
  2.5088105e-01
  3.0279914e-02
  1.0365224e+00
 -5.2480843e-02
 -4.6638665e-01
 -1.2823451e-02
  1.6430263e-01
  1.2215670e-01
  6.2483454e-01
  2.9037049e-01
  4.1822430e-01
  3.3538118e-01
 -1.3644458e-02
 -1.1917306e-01
  7.3986620e-01
  3.6870039e-01
  3.3545680e-02
  4.5089743e-01
 -2.8170148e-01
  5.0292671e-01
 -3.7028220e+00
  8.7990212e-01
  7.9756519e-03
  1.4850562e+00
  1.8133971e-01
  2.4889059e+00
 -1.8268667e+00
 -1.3623446e+00
  3.4958810e-01
  1.5862405e+00
  3.1506851e-02
  2.6357818e-01
 -1.3535234e-01
  4.6620786e-01
  1.9792627e+00
 -3.8515127e-01
  3.5042470e+00
 -8.7785161e-01
  3.8368478e-01
 -5.0029230e-01
  2.2759674e+00
 -1.4319938e-01
  4.8415381e-01
  2.3280208e+00
  2.3572879e-01
 -3.9514630e+00
  1.1681806e+00
 -7.7425832e-01
 -1.9936593e+00
  5.3789324e-01
 -9.1083556e-01
 -8.4294781e-02
 -7.2618258e-01
  3.9216361e+00
 -1.4146829e-01
  8.5097156e-02
  6.4960521e-01
  2.3013177e+00
  1.6634978e+00
 -6.5984571e-01
 -3.8478099e-02
  4.5317054e-01
 -1.4751136e+00
 -3.8964108e-01
  3.5223129e-01
 -3.9296356e-01
 -1.2928051e-01
  1.8510497e-01
 -5.9751886e-01
 -2.9288661e-01
 -3.3423111e-01
  6.2973343e-02
  3.1239569e-01
 -3.3975806e+00
 -7.6949289e-03
  8.2930237e-02
 -2.7394900e-01
 -4.3315506e-01
 -4.3009911e-02
 -2.4678171e+00
  1.3603969e+00
  4.5269108e-03
 -1.6058698e+00
  1.0643647e-01
  9.0172911e-01
  3.1867701e-01
  5.8634126e-01
 -5.7152346e-02
 -1.9759988e-02
 -5.2357424e-02
  7.8705341e-02
 -8.7830490e-03
 -2.7999183e-02
 -2.2365284e-01
  2.7912738e-02
  1.0819771e-01
  8.4604949e-01
 -1.3131756e-01
 -1.0541265e-01
 -6.9406199e-01
 -7.1768481e-01
  1.6064197e-01
 -2.6069844e-01
 -2.1862942e-01
 -7.3936343e-02
 -2.4448143e-02
  2.9278731e-01
 -6.5818596e-01
  5.3038371e-01
  1.5402515e-01
 -4.0865717e-03
 -8.3800429e-01
  9.3873784e-02
  1.2786762e-01
  5.7344814e-03
 -1.0749668e+00
  4.7438654e-01
  5.4560071e-01
  7.0452750e-01
  2.7505988e-01
  3.0112460e-02
  5.3896189e+00
  1.1773791e+00
  7.0309556e-01
  3.6211410e+00
  1.3330498e+00
 -7.5139606e-01
  6.5138191e-01
 -1.2098458e+00
  1.7955726e+00
  1.7066373e+00
  8.5405588e-01
 -1.3928576e+00
  1.9768588e-01
  2.5271969e+00
 -4.0740037e-01
  1.3193769e+00
 -4.2121075e-02
 -4.0660996e+00
 -1.1005423e+00
  9.5278688e-02
  1.0567770e+00
  2.3743584e+00
 -2.9647601e-01
 -1.5870031e+00
  1.2233614e+00
  9.6283239e-01
 -1.7343503e+00
 -1.4181188e-01
  7.8503978e-01
  2.0612153e-01
 -1.1459281e-01
 -3.4349501e-01
  1.8795400e+00
  1.0817944e+00
 -6.8366561e+00
 -1.5498514e-01
 -2.7220866e-01
  6.2377977e-01
 -3.0145695e+00
 -2.4276786e+00
  4.2042246e+00
  1.6346382e-01
  1.3430002e+00
  6.4946103e+00
  6.6293097e-01
  4.5842332e-01
  2.5690596e+00
 -1.3019813e+00
 -1.2263144e+00
 -1.6257244e-01
 -8.2340533e-01
 -5.7857823e-01
 -2.1851726e-02
  1.9103396e-01
 -4.6719059e-01
 -1.7664188e+00
  1.1705841e+00
  1.6047655e-01
  4.2246194e+00
 -5.9169847e-01
 -1.4104465e-01
 -2.7037363e+00
 -2.0708592e+00
  2.2772040e+00
  1.9429094e+00
 -4.7110515e+00
  6.9134191e-02
  6.9922028e+00
  1.0587607e-01
 -2.1084499e+00
  4.6687990e-02
 -8.5813242e-01
  1.3406411e+00
  1.8463727e+00
  3.9572364e-01
  2.1502399e-01
 -3.7048101e-01
 -6.3758455e-02
  1.4324869e+00
  2.2540960e-01
 -6.3105804e-01
  4.2724109e-01
 -1.5887280e-01
  2.5153267e+00
  6.8346649e-01
  1.8660289e-01
  2.8216684e+00
 -4.1276675e-02
  1.5234846e+00
  1.0081739e+00
  1.0561631e+00
 -2.2308292e+00
  8.7321895e-01
  1.4004630e+00
 -5.1546249e+00
  5.8514011e-01
 -2.3816776e+00
  1.5007781e-03
 -2.1885671e-01
  2.2524485e-01
  7.2886519e+00
 -3.5934746e+00
  1.5639365e+00
  1.0865026e+00
 -2.0998752e+00
 -2.7803228e+00
  4.1888899e-01
  2.2703101e-01
 -1.8052490e-01
 -2.1704578e+00
  1.1950127e+00
  4.3463585e-01
  2.5542309e+00
  3.0416694e-01
 -1.9239416e+00
  1.1748999e+00
  1.2944552e+00
  2.7600770e+00
 -1.7227885e+00
  1.5293590e+00
  4.5291722e-01
 -3.4249389e-01
 -5.4867250e-01
  7.1223676e-01
  3.6197713e-01
 -4.0899786e-01
 -9.6066281e-02
  2.8003764e+00
 -1.5968629e+00
 -5.6565940e-01
  1.8434953e-02
 -1.5710663e+00
 -2.1456149e+00
 -6.4209121e-01
 -5.0917542e-01
  9.6727526e-01
  3.5258174e-01
 -6.0695946e-01
  2.9617841e+00
 -2.5408532e-02
 -1.1586364e-01
  3.8502964e-01
  7.9030460e-01
 -3.1448597e-01
 -3.5547473e+00
 -2.2632570e+00
 -4.3997824e-01
  2.0389404e+00
  6.1256653e-01
 -4.4059354e-01
 -4.1762716e-01
  7.6178601e-04
  5.8811784e-01
  8.8521473e-02
 -4.6248697e-02
  2.3071573e+00
  5.1603365e-01
  9.8416752e-01
 -1.4382551e+00
 -1.3323139e+00
 -5.2331811e-01
  8.3846718e-01
 -3.2413419e-02
  6.3332629e+00
 -2.6998833e-02
 -2.9001760e+00
 -2.6464632e-01
 -1.2228702e+00
  4.0505638e+00
 -1.6758288e+00
  2.0380826e+00
 -1.5805612e+00
  2.5942561e-01
  1.1384158e-01
 -2.1766798e+00
 -1.0330298e-01
  9.8797464e-01
  9.6995324e-01
 -2.5579576e+00
 -4.2048585e-01
 -7.1148747e-01
  8.1753954e-02
  5.4954004e-01
 -1.5605214e-01
  3.5970087e+00
 -2.9725881e-02
  1.8406270e+00
  6.1701894e-02
 -2.2986755e+00
 -3.8118212e+00
  1.6581156e+00
  2.4168489e+00
 -8.7805754e-01
 -1.9148905e+00
 -4.3765867e-01
 -1.7616617e-02
 -5.6298345e-01
  2.9044170e+00
 -3.3095595e-01
  6.8449479e-01
  1.3814530e-01
  2.6948664e+00
 -9.3109822e-01
 -2.9520833e-01
  5.8828163e-01
 -4.6314970e-01
 -2.0214455e-02
  2.6939487e+00
  2.3661618e+00
 -1.1575731e-01
 -1.0043193e-01
  9.3544558e-02
  1.0977722e+00
 -1.6592747e+00
 -1.1335967e+00
 -2.2118616e+00
 -5.0072765e-01
  1.3194299e+00
 -7.7444971e-01
 -2.5722638e-01
  2.6198113e+00
  3.7941071e-01
 -5.4187334e-01
  3.1969388e+00
  7.9747808e-01
  2.2517705e+00
  3.7994821e+00
 -1.0260836e-01
  2.1944060e+00
  1.5127461e+00
 -7.3180825e-01
 -6.5468401e-02
 -2.2514904e+00
  6.5824027e+00
 -1.0258808e+00
  3.7825022e+00
 -1.6378800e+00
  9.6323900e-02
  3.8603276e-01
  9.2074239e-01
  2.2949045e+00
 -2.9867451e+00
  1.2659137e+00
 -2.2087085e+00
  1.0402725e+00
  1.1826731e+00
 -2.9726551e+00
  7.7529234e-01
  8.6467946e-01
 -5.1904279e-01
  2.0688329e+00
 -2.5658696e+00
  2.1099172e+00
  6.2295967e-01
 -6.9007538e-02
 -2.6775545e-01
 -2.0256090e+00
  1.0731920e+00
  3.9906952e+00
 -4.2645884e+00
  5.8858556e-01
 -2.4945026e-02
  1.4776638e+00
 -1.2529920e+00
  9.0964097e-01
  5.3382468e+00
 -2.7865613e+00
 -1.4601897e+00
  2.0185628e+00
  1.5916963e-01
 -1.3846523e-01
 -2.1257682e+00
  3.4186118e+00
  1.1395757e+00
  1.3252889e+00
  3.1198087e+00
  7.5001937e-01
 -2.4274360e-01
  4.3387637e+00
  1.4023522e+00
 -2.3081422e+00
  2.2674110e+00
  2.4441185e+00
 -2.5570090e+00
  2.1470275e+00
  4.3192998e-01
 -1.6170382e+00
 -2.8699699e-01
  8.2338202e-01
  8.8159871e-01
  1.9612410e+00
  5.4946828e-01
 -2.4538436e+00
 -2.1656954e-01
 -3.0795453e+00
  3.4945077e-01
  2.8926241e-01
  4.6088262e+00
 -1.3394409e+00
  2.7621655e+00
 -4.7054952e-01
  3.1248033e-01
 -1.1654906e+00
 -3.4685057e-01
 -1.4042481e+00
  1.3361961e+00
  1.2219497e-01
  5.3569835e-02
  6.1423665e-01
  2.2260449e+00
 -1.2777911e+00
 -6.5644145e-02
  1.7287621e+00
  3.3787465e-01
  6.0004795e-01
  2.3199432e+00
 -9.3049884e-01
 -8.5435736e-01
  8.7933260e-01
 -1.0191928e+00
  1.2250002e-01
  2.9177444e+00
 -1.2573998e+00
  2.2313325e+00
  3.2179685e+00
  2.0149510e+00
 -8.4460354e-01
 -9.5939755e-01
 -3.4376606e-01
  2.2917466e+00
 -3.2063881e-01
 -2.1869080e+00
 -1.3111746e+00
  1.2863563e+00
 -8.6141521e-01
 -7.4915516e-01
 -3.8017261e-01
 -7.0436764e-01
  1.2447360e-02
  2.9861643e+00
 -1.7444633e+00
  2.6939726e-01
 -5.4658240e-01
 -8.7958425e-01
 -1.3899777e+00
 -2.7803762e+00
 -3.1563321e-01
 -1.4101204e-01
  3.6861088e+00
  9.6487608e-03
 -1.1735704e+00
 -1.0131720e+00
 -7.3627859e-01
 -1.0844708e-01
 -1.7508048e-01
  2.1961284e+00
  1.3322654e+00
  1.5334263e+00
 -1.7634884e+00
 -1.9690859e+00
 -2.1347563e+00
  5.2993707e-02
 -1.6299158e+00
 -1.2832369e-01
 -9.1438293e-01
 -1.2013323e-01
 -1.4999080e+00
 -1.2800062e+00
  2.7937260e-01
 -1.5084469e-01
  2.4165075e+00
 -1.5521324e+00
 -8.6126946e-02
 -4.3213797e+00
  2.5812617e-01
 -8.1454223e-01
  9.0776932e-01
  8.3014196e-01
 -4.3574667e+00
  1.7686136e+00
  1.4247169e-02
 -1.2957958e+00
 -3.4136624e+00
  2.4280255e+00
  2.1427968e+00
 -1.9962143e+00
  8.1028497e-01
  2.9713444e-02
  1.1895236e-01
 -9.9032682e-01
 -1.8864410e+00
  7.6132321e-01
  2.2280314e+00
  2.2319465e+00
 -1.6912329e+00
  7.1455009e-02
 -1.6014427e+00
  6.0555261e-02
 -1.6343855e+00
 -3.0386415e-01
 -2.8226271e-01
  2.4738643e-01
  1.4526111e+00
  2.1927673e-01
  1.6282502e-01
 -7.1316469e-01
 -1.5287524e+00
 -2.2969449e+00
 -7.8616071e-01
 -6.0745615e-01
 -1.1334156e+00
 -1.0598159e+00
 -2.9297653e-01
 -6.2284023e-01
 -6.5236771e-01
 -1.3548145e-01
  2.1570103e+00
  1.2794142e+00
 -1.2410560e+00
 -5.4372889e-01
 -9.8744400e-02
 -4.1771612e+00
 -5.0185442e-01
  3.4281352e-01
 -2.5301808e-01
 -5.0794959e-01
  1.8163605e+00
  3.6340082e+00
  2.3145802e-02
  4.6688074e-01
  1.3435680e+00
  2.0621657e+00
 -2.0052340e+00
  1.1532034e+00
  1.8925128e+00
  3.0952814e-01
 -2.5775647e-03
 -5.4604709e-02
  3.1500766e+00
  7.8427064e-01
 -9.8491907e-01
 -1.8154424e-01
 -9.2583579e-01
  1.4092385e+00
 -7.8273672e-01
  6.7405856e-01
  1.5439177e+00
  1.4233273e+00
 -1.4140293e-01
  1.7857252e-02
 -2.1551515e-01
  1.0862848e+00
 -2.4983940e-01
  1.4675280e+00
  4.9920845e-01
  8.6254054e-01
 -1.6354606e+00
 -9.0116012e-01
 -1.5990788e+00
  7.9830164e-01
 -2.1556747e+00
 -6.4890283e-01
 -7.6781166e-01
  1.4442630e+00
  6.9719857e-01
 -1.2429503e+00
 -4.7484311e-01
  1.6179051e-01
  4.0548399e-01
  2.5844240e-01
 -5.3617507e-01
 -1.8682430e+00
  1.2492139e+00
 -1.0126367e-02
 -6.6653989e-02
  9.1806881e-02
 -1.9288659e-02
  8.2619798e-01
 -1.2329240e+00
  1.7339589e-01
 -1.6031444e+00
  1.6861917e-01
 -6.8084902e-01
 -3.8886589e-01
 -2.3182330e-01
 -1.1864470e+00
  3.4250444e-01
 -4.6452236e-01
  1.2021033e-01
 -7.7796704e-01
  1.3529848e+00
 -1.1964007e-01
  2.0092025e+00
  1.9236769e-01
 -2.8982380e-01
 -2.5612741e+00
  3.2601032e-01
  3.3450563e+00
 -4.7769046e-01
 -4.7538016e-02
  3.0782719e-03
  1.1461216e-01
  3.1520155e-01
 -1.0048997e-01
 -3.0354580e-01
  2.2851906e+00
 -9.8597276e-01
 -8.5034028e-02
 -1.2300363e-01
  2.2922668e+00
  1.3574634e-01
  3.6993053e+00
 -7.3144525e-01
  2.4936371e+00
  1.6304042e+00
  1.2924229e+00
  2.0088723e+00
 -1.5222170e+00
 -3.7385517e-01
 -3.7300792e-02
  3.7410673e-01
  3.1740305e-01
  1.7332058e+00
 -6.8851247e-02
  1.0973554e+00
 -9.5298089e-02
 -1.1288304e+00
  3.2969940e-01
  1.2236950e+00
  8.2772858e-02
  3.0618772e-01
  5.9984422e-01
 -1.1887629e+00
  2.1736756e-01
 -2.1105543e-01
  8.0047971e-01
  6.0158205e-01
 -4.5106980e-01
  6.9690987e-02
 -3.1916574e-01
  1.2670925e+00
 -1.1092136e+00
 -4.9754360e-01
 -1.7606381e-01
  5.4694623e-01
 -3.0490702e-01
 -4.3256447e-02
  5.7541436e-01
  2.8164318e+00
  2.7567341e+00
 -8.8966668e-01
  1.0074767e+00
  5.2676493e-01
  9.4129992e-01
 -5.1707071e-01
  4.4850685e-02
  1.2383885e+00
  6.6023761e-01
 -1.8636111e-02
  4.2569536e-01
  8.3500367e-01
 -2.1663149e-01
  3.5384989e-01
  7.7733859e-02
 -2.9876921e-01
 -7.0471885e-03
  1.4827958e+00
 -6.3415366e-01
 -1.4636587e+00
  8.3328885e-01
 -2.4891500e+00
 -2.5052230e+00
  2.0027460e-01
 -2.5681295e+00
  2.2366230e+00
  1.2966102e+00
 -1.9928401e+00
 -4.8667952e-01
  3.5809663e-01
  2.2978837e+00
 -1.8947721e+00
 -2.8637028e-01
 -1.8840350e+00
  2.9146394e-01
  4.8865160e-01
 -6.8434083e-01
  1.3446012e-01
  1.2982397e+00
  2.3149612e+00
 -3.0121171e-01
 -1.5147429e+00
  2.3203905e+00
  1.1849877e+00
 -5.2681506e-01
 -2.5268835e-01
  7.5361103e-01
 -1.7283833e-01
  1.5717409e+00
  2.4683585e-02
  8.4002084e-01
 -9.3083662e-01
 -2.1422837e+00
  3.0104542e-01
  1.0529637e+00
  2.3057828e+00
 -8.6446124e-01
 -1.5761203e+00
  1.7473325e+00
  4.8418447e-02
  1.4472065e+00
 -3.2959330e-01
 -4.2652309e-01
  1.9642692e-02
 -4.4195250e-01
 -1.6996372e+00
  5.0104052e-01
  2.3865427e-01
  1.4661337e+00
  8.0178642e-01
  3.4725344e-01
  5.0981963e-01
 -4.6377814e-01
  8.7924987e-01
 -1.0098395e+00
 -3.8935345e-01
  9.6456736e-01
 -7.8899825e-01
  2.2571912e+00
 -1.2398723e+00
 -1.0165083e-01
  3.4959209e-01
  2.7660270e+00
  4.7552338e-01
  2.3736787e-01
 -5.7837749e-01
 -2.5025065e+00
  1.6559390e+00
 -1.0443764e+00
 -8.6715889e-01
  2.2842159e+00
  3.6946816e+00
  6.2085450e-01
 -3.9369828e-01
  1.9078780e-02
 -1.3881347e+00
  8.4342259e-01
 -1.4656475e-01
 -3.2928729e-01
  1.6736481e+00
 -5.2804083e-01
 -5.4714710e-01
 -6.6234803e-01
  4.6240789e-01
 -8.9480209e-01
  1.7029415e+00
  3.0426213e-01
  1.0761571e+00
 -3.3997661e-01
 -9.1105126e-02
 -2.4743314e+00
 -1.0534019e+00
 -3.3028707e-02
  1.9311596e-01
 -1.6363910e+00
 -4.0026927e+00
 -1.9831073e+00
 -3.6628202e-01
 -1.0118169e+00
 -1.2482464e-01
  7.5215179e-01
  2.1628377e+00
 -1.1808468e+00
 -2.0418699e+00
 -2.4794869e-01
 -4.3441978e+00
  1.1733793e-01
 -1.2996914e+00
  9.7034180e-01
  2.2125483e-01
 -1.0830311e+00
 -1.9153376e+00
 -1.1627773e+00
 -3.3413097e-01
  1.8811070e+00
 -1.0394574e+00
  9.5675215e-03
 -6.1649930e-01
  1.0529929e+00
 -1.6654719e+00
 -1.7791467e-02
  1.3757343e+00
  1.9872584e+00
 -1.0187768e-01
  1.3547608e+00
  9.8643327e-01
  1.7608112e+00
 -1.3655773e+00
  1.6558537e+00
  1.7368103e+00
  3.1089406e+00
  1.8979949e-01
 -2.1627259e+00
  3.7487271e-01
  5.0465804e-01
 -6.1278659e-01
  7.5669557e-01
  3.3709648e-01
  8.3940655e-01
  1.4206067e-01
  7.5696182e-01
 -1.2358319e+00
 -2.3313878e-01
  5.9800828e-01
 -7.6877475e-01
  1.0621239e+00
 -4.3675542e-01
 -8.9665681e-02
 -2.6855538e+00
 -3.0449874e+00
 -1.7466739e-02
 -1.2323022e+00
 -6.9351017e-01
 -1.1768754e-01
  1.2280812e+00
 -1.0469432e+00
 -2.0180261e-01
 -2.0749922e+00
 -3.3168539e-01
 -2.4416801e-01
  4.5500714e-01
 -2.4475130e-01
 -3.4660900e-01
  2.6499709e-01
  7.7937531e-01
 -1.6541680e+00
 -5.7450071e-02
 -3.8926968e-01
 -1.4311173e+00
 -2.1641777e+00
  2.0769420e-01
  2.3989477e+00
  1.4095031e+00
  8.1058145e-01
 -1.9936687e-01
 -5.4005995e-02
 -3.8935766e-01
  7.5821966e-01
 -9.5461652e-02
  4.0315771e-01
 -5.0099683e-01
  8.4524881e-03
 -2.1971877e+00
  4.0583906e-01
 -3.5029235e-01
 -7.5931787e-01
 -2.0015946e-02
  2.3591852e+00
 -3.2777648e+00
 -6.8497890e-01
  1.4080629e+00
 -7.2921395e-02
 -1.7023038e+00
  7.9767162e-01
 -1.8486873e+00
 -2.8077173e+00
 -3.2516699e+00
 -3.2024843e-01
 -1.0623733e+00
  2.9538199e-01
 -2.5449029e-01
  3.2181623e+00
  1.3552476e-01
  4.6411285e+00
 -8.3277190e-01
 -3.8311918e+00
  1.2192539e+00
  2.2368388e+00
  9.3562907e-01
 -7.2144675e-01
 -5.9677094e-01
 -1.0662551e+00
  2.1883018e+00
  9.9713331e-01
  3.3516204e+00
  3.2548923e+00
  8.3717352e-01
 -8.7090611e-01
 -1.2273495e-01
 -1.0235660e+00
 -3.9556605e-01
  1.0569085e+00
 -2.4527388e+00
  8.1615883e-01
  1.9362241e+00
  7.6589596e-01
  5.9431165e-01
 -4.6379578e-01
 -5.1423941e-02
  1.3161694e+00
  4.4565293e-01
 -7.9896873e-01
 -2.4951193e+00
  1.3142127e+00
 -1.0843040e+00
  6.4327174e-01
 -9.1179460e-02
  8.2504958e-01
 -9.8127949e-01
  1.5702031e+00
  1.2376114e+00
 -1.7136458e+00
  2.4720037e-02
  2.4720037e-02
  2.4720037e-02
  2.4720037e-02
  2.4720037e-02
  1.2203109e-01
  1.2203109e-01
  1.2203109e-01
  1.2203109e-01
  1.2203109e-01
  3.6700478e-01
  3.6700478e-01
  3.6700478e-01
  3.6700478e-01
  3.6700478e-01
  9.3993224e-02
  9.3993224e-02
  9.3993224e-02
  9.3993224e-02
  9.3993224e-02
  2.0272303e-02
  2.0272303e-02
  2.0272303e-02
  2.0272303e-02
  2.0272303e-02
  8.9135182e-01
  8.9135182e-01
  8.9135182e-01
  8.9135182e-01
  8.9135182e-01
