nep4 3 Sc C F 
cutoff 6 4 63 26
n_max 4 4
basis_size 8 8
l_max 4 2 0
ANN 50 0
  3.2747844e-01
 -1.2123786e+00
 -4.1427684e-01
 -1.6547455e+00
 -3.6945891e-02
  5.7262635e-01
  2.0285447e-07
  9.8267198e-01
  5.7213336e-01
 -1.3570781e-04
  1.3842639e-01
  1.1621557e+00
  6.4165062e-01
  2.1819413e-01
  2.0618816e-01
 -8.8681823e-05
 -9.3822652e-01
  1.6776393e-01
  1.8742521e-03
 -2.7280393e+00
 -2.6994430e-02
  4.4624132e-01
  6.7102075e-02
 -3.6685629e-05
 -4.8149948e-05
  2.2727824e-04
  1.1921621e-01
 -7.4501224e-03
 -1.3339221e-01
  5.4495191e-05
  2.2334340e-05
  1.5934485e-04
  3.2270371e-04
  9.9647637e-05
  4.9719954e-05
  5.9075704e-05
  5.8961185e-05
  1.2636527e-04
  3.1813459e-05
  2.2237953e-06
  2.1246175e-04
  5.1144234e-05
  2.7566591e-06
 -2.8176159e-05
  2.8860138e-04
 -6.2778687e-05
 -6.1291677e-05
  4.7195561e-05
  1.1360359e-04
  2.1205176e-04
 -7.2150775e-05
  1.1836890e-04
 -1.3479839e-04
  4.4534163e-04
  2.0725463e-05
 -5.1336050e-05
  1.8359584e-06
 -3.4064087e-05
  7.0852061e-06
 -2.6555578e-04
 -1.9327765e-04
 -1.2008657e-04
 -1.9906778e+00
  8.2518382e-06
 -2.6917977e-02
 -5.8477570e-05
 -1.2317362e-04
 -1.2537398e-04
 -5.6970199e-05
 -8.3722553e-05
  3.8356438e-06
 -2.1067771e-04
 -1.0858379e-04
 -2.9569577e-02
 -1.2267020e-04
 -3.0270638e-04
 -1.0984793e-03
 -3.9092713e-04
 -1.4326123e-04
 -4.8379115e-06
  9.2008901e-05
  3.2157070e-04
 -1.5906926e-05
  4.3723288e-05
  4.9974619e-06
  8.0237798e-05
  9.7970958e-05
  3.8818016e-05
 -1.3759447e-05
 -1.4111647e-04
  3.9105842e-01
  2.6688640e+00
 -9.9760115e-01
  8.8004321e-01
 -4.9673608e-01
  1.4468691e-04
 -6.4158914e-05
 -1.3293804e-03
 -6.4360158e-04
  2.5357545e-05
  1.3264114e+00
 -1.1801261e-04
  1.1106675e+00
 -1.8146848e-02
 -5.4391706e-01
  9.4598972e-06
 -4.1234571e-02
 -1.0408276e-04
 -5.9819002e-05
  4.5451003e-01
  2.0653075e-04
 -1.9485781e-06
 -1.0103168e-04
 -3.8683727e-05
 -2.2192336e-05
  2.6875801e-04
 -1.5158023e-04
  1.2125931e-04
 -1.4865707e-04
 -8.8745473e-05
  1.3013859e-01
  7.7154672e-01
  7.7522106e-02
 -2.7154735e-01
  6.3151878e-01
 -1.5205451e+00
 -1.1093900e-02
 -1.1456003e-01
 -9.9203330e-01
 -1.3900730e-01
 -6.2086515e-02
 -3.8971901e-01
  3.4150186e-01
 -1.3253930e-01
 -9.0115048e-02
 -7.9061881e-02
  3.8330811e-03
 -3.2640052e-01
 -1.8610111e-01
  1.4500627e-01
 -3.1684637e-01
 -7.7294007e-02
 -3.4644121e-01
  3.7221190e-02
  1.2356484e+00
  3.1814589e-03
 -9.3500153e-04
  1.5293831e-02
  4.2131055e-02
  1.8786516e-02
 -7.2453338e-01
  2.4134498e-03
  5.5789083e-01
  2.7046388e-01
 -2.1242225e+00
  6.0598314e-04
  4.1655138e-02
  2.8226488e-05
  1.8465678e-04
  6.9430251e-05
 -6.4319581e-02
  5.9906095e-01
  5.0585496e-01
  1.4071643e-01
 -5.2918291e-05
  1.2460674e-04
  6.9343477e-01
  4.3500549e-01
 -1.8990177e-06
 -3.3412376e-01
  2.1045265e-05
  1.8811777e-01
 -1.9458390e-04
  1.2005954e-04
  8.0928883e-05
 -9.5744443e-05
 -2.1138130e-01
 -3.2646272e-02
 -5.2734704e-06
 -6.6917017e-04
  4.1433472e-05
 -1.6121990e-04
 -1.8272703e-04
 -8.7335946e-05
 -4.2268981e-05
 -8.9146815e-06
  9.8022676e-05
  8.1289263e-06
  1.8211754e-04
  3.5968740e-05
 -7.0810805e-05
 -7.0307840e-05
 -3.5129498e-05
 -7.6868913e-05
  2.4145553e-05
  1.9489693e-04
  2.7030101e-06
  4.9397364e-05
 -1.8780390e-04
  2.1893159e-04
 -3.5502118e-05
  5.1094696e-04
  2.1321810e-04
  5.3591430e-06
  8.5153682e-05
 -1.0037262e-04
  2.9360593e-04
 -5.1172836e-05
 -6.3544525e-05
 -3.7345925e-04
 -1.4745479e-04
 -3.6893226e-04
  4.1897371e-04
 -2.0643656e-05
 -6.9864567e-05
 -6.6991946e-05
 -5.2701103e-05
 -1.4815418e-04
  3.3472017e-05
 -7.4897216e-06
 -1.2738089e-04
  2.8962344e-05
 -1.5332621e-04
  1.1058805e-04
  2.3942717e-04
 -1.8070338e-04
  5.0019338e-05
 -2.3324135e-05
 -1.2743734e-05
  8.5225729e-06
  1.6989112e-04
 -1.1390432e-04
  1.5069428e-04
 -8.9455016e-06
 -1.6539071e-04
 -4.9849368e-05
 -1.2040685e-04
 -4.7743491e-05
 -4.2632892e-05
 -1.7120347e-04
 -1.3378361e-01
  5.2270274e+00
 -1.0134741e+00
  1.2589351e+00
  4.6420455e+00
  5.9797720e-04
 -1.4988040e-04
  2.1603527e-04
 -3.1362876e-04
 -3.6559635e-01
  4.2401368e-04
  1.9054118e-04
 -8.9074749e-01
 -4.8476788e-01
  8.5491741e-01
 -5.8208557e-04
 -5.8717942e-01
  2.0787230e-02
 -1.4785657e-04
  4.7486877e-01
 -4.1566251e-04
 -1.4037808e-02
 -6.1585410e-03
  3.7678372e-04
  1.4952318e-04
  3.6410778e-04
 -8.4946966e-03
 -4.6007925e-01
  8.2051949e-05
  9.8940695e-04
  6.8800461e-01
  1.1716217e+00
 -1.7103390e+00
  1.2490883e+00
 -2.1206394e-01
  3.1579800e-02
 -2.6975570e-03
  1.1826035e-04
  6.3041423e-04
  1.3445809e-01
  6.9647307e-05
  6.5426266e-01
  3.6442903e-01
 -2.5540936e-01
 -4.3163180e-01
 -4.6883690e-01
  2.4114542e-01
  5.8804839e-05
 -1.9811525e-05
 -1.7113107e-01
  5.4103916e-04
 -4.1485243e-02
  4.4500113e-05
  1.0825852e-04
  1.0680890e-01
  8.0051640e-04
  4.7840133e-02
  2.0213407e-01
 -1.7270651e-04
 -7.0565526e-04
 -1.5470167e-01
 -1.4994746e+00
  2.1065141e-01
  8.1040555e-01
 -2.2901440e+00
  2.1087325e-01
  2.9692195e-05
  7.2449774e-01
  7.6305456e-02
  8.5278116e-02
  1.5779659e+00
 -6.2627381e-01
  8.5074979e-01
 -1.5939933e-01
 -1.7080074e-02
  2.6477560e-01
  6.4254862e-01
  9.0885770e-01
  6.5875187e-04
  8.3621472e-01
  6.9555705e-03
  2.2352898e-01
  1.9377097e-05
  2.2622111e-05
  2.1533016e-02
 -2.9081604e-01
  2.4879802e-04
 -4.2183613e-03
  4.0130207e-01
  8.2943108e-05
 -9.6552039e-06
  5.9893533e-05
  3.0605275e-05
 -2.0124768e-05
 -7.1235940e-05
 -1.1046493e-04
  8.2682716e-05
  1.0290243e-04
 -5.0799490e-06
 -2.0440781e-05
  9.0856149e-05
 -1.0892110e-06
 -3.9937927e-06
  1.7569841e-05
  1.4217832e-04
 -3.7581346e-04
  2.2250567e-04
  1.0364677e-05
 -4.2801359e-05
 -2.5469906e-04
  1.0123354e-05
  5.9942005e-05
  4.8504040e-05
  1.5762018e-05
 -1.6629352e-05
 -1.3751241e-04
  1.9310987e-04
 -1.1558273e-04
 -3.3702443e-05
 -3.4513532e-06
 -1.8847804e-04
 -9.2283233e-05
 -4.6643334e-05
 -3.6129186e-05
  7.8992074e-05
  2.4376066e-04
  3.4773606e-05
 -9.3213624e-05
 -2.2256394e-05
 -3.1618049e-04
  6.4480555e-06
 -1.7255590e-04
  1.1603858e-05
  6.9420421e-05
  5.3938766e-06
  2.3954954e-06
 -5.8215861e-05
 -8.2133098e-05
  9.6623393e-05
 -1.2843004e-04
 -4.4221350e-04
 -2.5316747e-05
 -8.1636470e-05
  1.1208685e-04
  4.2399330e-05
 -2.5811862e-05
 -9.1236594e-05
 -8.2321152e-05
 -5.6939694e-05
  9.0521164e-05
  7.7341491e-01
 -2.1428938e-01
 -1.6229757e+00
  1.5027736e-01
 -9.1353878e-02
  2.5841626e-04
 -2.4019508e-04
  5.3979177e-03
 -2.2120160e-04
  3.3243457e-05
 -4.7268185e-01
  2.1477784e-04
  1.0432109e-04
 -1.6636871e-01
  1.9961080e-05
  3.7463917e-03
 -1.3893261e-03
 -4.6094178e-04
  8.7317014e-05
 -3.9338768e-02
  4.6880596e-04
  1.4104937e-04
 -6.4089938e-05
  4.9545764e-05
  2.0089673e-04
  1.8348363e-04
  5.4078561e-04
  1.1800187e-07
  2.1100623e-05
 -6.8001820e-05
  1.1362453e-04
  7.5257296e-05
  1.0187703e-03
  1.4435721e-04
  4.9207585e-05
  1.4328852e-04
  1.7770319e-05
 -1.0113179e-04
  4.0129657e-05
 -7.1839109e-05
 -4.1610878e-05
 -1.4434146e-05
 -1.3398945e-04
 -7.4983132e-07
  6.4211250e-05
 -4.8737843e-06
  1.0416645e-04
 -8.3541145e-06
 -4.6150446e-05
 -6.6872373e-05
 -1.2965161e-04
 -5.1936669e-05
 -1.2161489e-04
 -2.8936064e-04
 -8.1194637e-05
  2.6221671e-05
  7.0712296e-05
  2.5039744e-05
  8.8936722e-05
  1.6400406e-04
  3.4631017e-04
 -1.6349331e-04
  4.0302327e-04
  1.8189341e-04
 -8.7245920e-05
  2.0002652e-04
 -3.8096030e-05
  2.3172743e-04
  1.3645194e-05
  1.0707364e-04
 -9.4183124e-05
  1.2817778e-05
 -2.9780376e-06
  1.4691913e-04
  1.5596744e-04
  1.7829060e-04
 -1.8040705e-04
 -2.4112389e-05
 -5.3076779e-05
  4.3565975e-04
 -7.4788455e-05
 -4.3848850e-05
  1.1572467e-04
 -2.9190849e-05
  4.3146632e-05
  1.6934572e-04
 -1.4835880e-04
  5.8367492e-05
  2.1893326e-04
  1.5605961e-04
  3.8342696e-02
  1.7928474e+00
 -1.9919358e+00
  2.6934278e+00
 -1.8824989e-01
 -1.3370170e-01
 -9.4400544e-05
 -1.6747683e-01
 -3.4669083e-01
 -7.6406272e-03
  5.6179665e-04
 -2.7693473e-02
 -3.9403468e-02
  8.7241465e-03
 -4.1558063e-01
  1.5038289e-06
 -6.9723564e-01
 -1.1390351e-02
 -9.5863715e-03
 -1.0384809e+00
 -7.1963470e-04
 -1.7524844e+00
 -4.1957130e-04
  1.2514366e-04
 -8.6669749e-01
  7.4652588e-04
 -2.7412241e-05
  3.0243668e-01
 -6.7566685e-02
 -7.9846986e-02
 -9.2707406e-04
 -8.9862651e-01
 -1.9725320e-01
  2.9372445e-01
  1.2575669e+00
 -8.4932879e-02
 -1.1380307e-01
 -1.0886993e-03
 -6.0962194e-01
 -2.4579352e-02
  9.9067815e-02
  3.4280694e-03
 -1.6340232e-01
 -7.9706535e-02
  4.3919620e-01
 -5.2895032e-02
  2.0600416e-02
 -5.2668755e-03
 -5.5138677e-01
  1.5659356e-01
  6.9195487e-02
 -4.3085997e-06
 -9.4991177e-01
  5.3928190e-01
 -3.4006372e-02
  9.0846069e-02
 -4.7730658e-02
 -2.5602221e-01
 -3.8447718e-03
 -8.1206075e-05
  1.8168465e+00
 -1.8576459e+00
  8.2729453e-01
 -3.4085757e-01
  8.7784958e-01
  1.4527704e-01
  1.0737787e-04
  9.3999577e-01
  4.9762413e-02
  7.5958641e-03
 -7.3562056e-01
  6.5656817e-01
  5.4509196e-02
 -9.2291391e-01
 -1.4807768e+00
  9.0127243e-03
  8.1033391e-01
  1.0063501e-01
  8.8408649e-01
  2.7145169e+00
  6.4183087e-03
  5.0655037e-01
  3.2362619e-01
 -1.5257209e-04
 -1.5772459e-04
  1.2769867e-04
  3.9366903e-04
  3.6729742e-07
 -5.7943463e-01
  1.3267199e-04
 -9.2791212e-05
  9.6182150e-05
  1.5277675e-04
  1.9628747e-05
 -1.7212081e-04
 -2.6101019e-05
 -7.0262163e-06
 -3.2573949e-05
  8.4107698e-05
  2.1871481e-04
 -3.3782606e-04
  2.3504914e-05
  1.4363816e-04
 -4.8226735e-05
  1.0338487e-04
 -3.4232944e-05
  1.2583678e-04
 -7.4574338e-05
 -1.0171873e-04
  5.9167298e-05
  4.1065359e-05
  4.8720543e-04
  1.5568343e-04
  1.1600943e-04
  6.5347151e-05
  7.7987148e-05
  2.3852852e-04
 -5.5045427e-07
 -3.0963009e-05
  1.2342511e-05
  5.9823826e-02
 -5.2454609e-01
  3.3858004e-01
 -2.7928259e-02
  1.5790276e-01
  1.0175161e+00
  1.5119597e-04
  2.7709797e-01
  7.1433550e-01
  1.3761507e-01
  1.1243818e-01
  6.3250966e-02
 -3.3861500e-01
  1.1790733e-02
  6.6049029e-03
  1.1294025e-01
  2.5633993e-04
  5.4448724e-02
  1.7536285e-03
  1.1075805e-01
  3.1531799e-01
  3.3499319e-02
  1.5427898e-01
 -4.0092935e-05
  2.8265473e-01
 -1.3439850e-03
 -1.8798672e-01
 -1.6311828e-02
  2.1636124e-04
 -4.7370736e-02
 -5.9265833e-05
  1.8317693e-04
 -1.4151117e-05
  1.2821658e-04
 -6.3753752e-05
  1.0577345e-05
  4.8642622e-05
  2.2007494e-04
  9.0934191e-05
 -1.7103505e-06
 -3.3895038e-05
  6.4401094e-05
 -2.3541134e-04
  2.1200890e-04
  5.6537439e-05
  6.0525374e-04
  1.8391178e-04
  4.0014736e-05
  4.7645095e-05
  1.1116136e-04
  1.0789012e-04
 -1.6248085e-05
  2.2142168e-04
  1.5333573e-05
 -2.8407072e-05
  2.1073135e-04
 -5.4409907e-06
 -8.5036096e-05
  6.4043306e-05
 -5.5318334e-05
 -7.8844905e-06
 -1.6605579e-04
  5.6821169e-05
 -2.0075448e-04
  3.3654034e-04
 -5.4837768e-05
 -2.2741851e-05
 -1.8351182e-04
  2.2946403e-04
 -7.4343472e-05
  3.0994992e-04
  7.1283612e-05
  3.9001705e-05
  4.4923468e-04
  6.1364826e-06
 -4.5353886e-06
  2.2758636e-06
  5.3604272e-05
 -7.3341830e-06
 -8.0930913e-05
 -4.1833271e-05
  4.0655483e-05
 -6.3565669e-05
  4.1632582e-05
 -1.8680101e-05
 -9.3394796e-05
  1.7160107e-04
  4.7910067e-05
 -4.5634966e-05
 -8.1066128e-06
 -8.9130423e-05
 -2.9620982e-05
 -2.1161896e-04
  5.9915328e-04
 -1.5122362e-04
 -2.6253898e-05
  1.0097802e-04
 -3.7227808e-05
 -6.4493338e-06
 -5.5863849e-05
  1.1174850e-04
 -1.8948672e-04
  3.7819002e-05
  9.4947805e-05
  1.1934117e-04
  2.4993322e-05
 -5.9233615e-05
 -4.2689047e-05
  1.7727147e-05
 -1.4614548e-04
  2.9033353e-07
 -1.8870822e-05
  1.0483014e-04
 -1.6665857e-04
  3.1660779e-04
 -3.6677255e-05
 -1.8259030e-04
  2.2990725e-04
  2.1857953e-05
  9.7978220e-05
  1.0593494e-04
  4.7369181e-07
  2.5772169e-05
  7.7024903e-05
 -2.6794449e-05
 -4.0995241e-05
  1.3977817e-04
  3.4397672e-05
 -1.1803959e-04
  2.2400169e-04
  4.6589197e-05
 -6.8592955e-05
  7.3438190e-05
 -4.7765701e-05
  1.1462763e-04
  1.7371889e-04
  7.0071983e-05
  1.9525277e-04
 -1.0176250e-05
 -6.6258566e-05
 -5.4823871e-05
  1.7586912e-05
  2.3392457e-05
 -1.8077280e-04
 -9.8513170e-05
  1.8806790e-05
 -4.2557854e-06
 -2.9082078e-04
 -2.0507550e-04
 -9.5108713e-05
  1.6537866e-04
  2.2251936e-02
 -5.1745702e-02
 -3.8087854e-04
  4.0012324e-05
 -5.0588988e-04
  1.4871630e-04
  1.5036968e-05
 -9.7576922e-06
 -2.0786545e-04
  3.6828033e-06
  1.5097058e-04
  7.4960997e-05
  1.1606907e-04
 -1.8084484e-05
 -3.7728591e-04
  5.7209978e-05
 -7.8619822e-05
  7.1566651e-04
  1.9485579e-04
  1.0774565e-04
  7.6743847e-05
  1.4009450e-04
  1.1530734e-04
 -2.3437362e-06
  1.4204878e-04
  1.9411320e-05
  5.5741093e-05
 -6.8495242e-06
 -1.5648638e-04
 -6.4054766e-05
  4.6073624e-06
  8.4558342e-05
  7.8197168e-05
 -6.5195949e-05
  1.2589202e-04
  1.5080605e-04
 -3.6458428e-06
  5.8763937e-05
  1.8787065e-04
 -8.4973595e-05
  2.2975193e-05
  8.1557504e-05
 -1.2915081e-04
 -1.0720267e-04
 -4.0670959e-05
 -1.2360653e-04
  1.2901478e-02
  1.0306979e-04
  3.0343295e-05
  3.6566555e-05
 -5.6612643e-04
 -1.2787647e-04
 -8.2540217e-05
  4.7064033e-05
  8.7550368e-05
  1.7624717e-04
  1.4660260e-04
  5.9216069e-05
  1.4351678e-04
 -6.3754014e-05
  1.3788840e-04
  1.3610179e-04
  5.1756790e-05
 -1.1647422e-04
  1.6365688e-04
  1.3373232e-05
  1.1530484e-05
  9.4421681e-05
 -3.3399006e-05
  5.0375133e-04
  7.6699480e-06
 -4.1154835e-05
 -5.7872043e-05
  2.2390190e-05
 -1.1255298e-04
  5.9601047e-05
  9.5380701e-06
  5.7881616e-06
 -6.7629495e-05
 -1.5749865e-05
  2.8288507e-05
  3.3373633e-04
  1.4400342e-05
 -3.9585197e-05
  1.0607237e-04
 -1.1255686e-05
  1.2746722e-04
  9.7482247e-05
  4.9515795e-05
  2.3031914e+00
 -1.9527401e+00
  1.3845950e+00
 -1.8506712e+00
  1.5818310e+00
  1.3846235e-01
  1.4615411e-04
 -1.4437475e+00
  2.2597320e-03
  1.0419639e-01
 -1.2415339e-01
 -6.3522435e-03
 -1.6526106e-01
 -9.9957442e-01
  1.5037690e+00
  1.2913351e+00
 -1.6578343e+00
 -9.7609150e-01
 -2.3289584e-01
  1.2274275e+00
 -1.5910444e+00
 -8.5480994e-01
  1.1030112e-04
 -1.3188030e-01
  4.9489170e-02
  1.2094775e-01
  1.5913887e-01
 -1.6649023e-03
  1.5337457e-01
  3.7118191e-01
  1.2913485e-05
 -3.1928059e-01
  8.2218152e-01
 -2.0710318e-04
  1.9509676e-04
 -8.8656867e-05
 -1.4843810e-05
  5.7719772e-05
 -3.7584994e-07
  5.3165255e-05
  9.1868606e-06
 -4.4752160e-05
 -6.6113949e-05
 -1.5903822e-04
 -4.6212081e-05
  2.5373805e-04
  1.6537253e-04
  1.0571117e-04
  1.7634362e-05
  4.7944247e-04
 -7.0998335e-06
 -3.2109805e-05
 -1.1800776e-03
 -3.3152412e-04
  1.6280406e-05
 -2.5181667e-04
  2.1450994e-04
 -1.8571466e-04
  4.0681956e-05
 -3.3732533e-05
  1.2671447e-04
 -2.2016383e-04
 -8.4156971e-05
  7.6847828e-05
  3.0405688e-04
  1.2414399e-04
  4.1221781e-05
 -8.1329512e-05
 -1.1324968e-05
 -6.2235747e-05
  9.7291566e-05
  9.9555546e-05
 -2.4713334e-04
 -1.1563791e-04
 -1.8459358e-04
  1.0009575e-04
 -2.2345330e-05
  3.3841447e-05
  2.1783540e-04
 -2.5416890e-05
  3.9585654e-04
  5.1390736e-05
 -8.1729295e-06
  8.7677792e-05
  2.4614422e-04
  4.1855834e-05
 -1.2498513e-04
 -8.7068991e-05
  2.0595286e-05
  1.6302041e-04
  3.0661795e-05
 -1.8341450e-01
 -1.1282644e+00
 -5.2010167e-01
  4.5314014e-01
 -6.4736587e-04
  1.1518058e-04
 -1.4811534e-02
 -9.1017471e-05
 -9.1546196e-03
  6.2000163e-02
  4.5800651e-04
 -2.8544971e-01
  1.0433785e-01
  2.3956113e-01
 -5.0326906e-02
 -8.9896291e-02
  2.1138240e-02
 -2.3422133e-05
  4.0928948e-01
 -3.1526748e-04
 -1.6125006e-03
 -3.6741566e-04
  6.9394322e-05
  4.4599048e-05
 -4.3056720e-05
 -7.4326221e-05
 -1.3508226e-01
  4.5422967e-05
  2.8074140e-04
 -4.0881696e-05
 -1.0283431e-04
  3.8156143e-04
 -1.2825664e-04
 -3.3955479e-05
  1.6520098e-05
 -1.1855938e-04
 -1.4752700e-04
  5.7548407e-04
 -2.0428157e-05
  6.8969333e-05
 -2.9600263e-04
  1.6865195e-04
 -8.9399815e-05
  2.8019986e-04
 -1.1075559e-04
 -2.5349605e-05
  1.6279670e-04
 -2.1382487e-04
  2.3646493e-04
 -1.0487218e-04
 -7.3776137e-05
  3.9877435e-05
 -1.0885239e-04
 -1.0837672e-05
  2.3725754e-04
 -4.9181170e-05
  4.9972572e-05
 -1.3851672e-05
  3.8834456e-05
  1.7369028e-04
 -2.1748600e-04
 -1.3730006e-05
 -2.2581626e-05
 -2.1554390e-05
 -5.0812941e-05
  3.5315607e-05
 -7.7162127e-05
  3.0665902e-05
 -2.5237228e-05
 -1.4392356e-04
 -3.5052901e-05
 -3.9891103e-05
 -3.1065865e-05
 -1.9671897e-05
  8.7305503e-05
 -2.7413058e-05
 -9.1126378e-05
  1.3655506e-04
 -5.0546103e-05
  1.0312415e-05
 -3.1978176e-05
 -4.7548788e-04
 -1.1809361e-05
 -2.6521306e-05
  8.9655523e-06
 -3.5578549e-05
  2.1294891e-04
  6.0756498e-05
 -8.4994899e-05
  7.7745943e-05
 -9.8769821e-02
  2.3130307e-01
 -5.8518672e-05
 -1.7504083e-02
  7.1379583e-04
  1.9190981e-04
  9.1371415e-03
  1.0016576e-04
  2.3910217e-04
 -5.9993372e-06
 -9.8209777e-05
  3.3219609e-01
  3.2636374e-02
 -5.9695500e-05
 -1.4056759e-04
  1.3742776e-04
  1.1340832e-07
  3.6216236e-06
  3.6939890e-03
  3.4556756e-04
  5.0490777e-05
  3.0985757e-05
  1.0246237e-05
  5.9775595e-04
 -2.4648173e-06
 -1.0826012e-04
 -2.5958590e-05
  4.1973923e-05
 -1.6729158e-04
 -6.0766051e-05
  2.9157635e-04
 -3.3133652e-05
 -3.3396285e-05
  3.5821358e-05
 -1.0432078e-05
 -1.2064231e-04
 -9.1738504e-05
 -8.0342274e-05
  2.1315092e-05
 -4.9114235e-05
  8.5966285e-06
  2.4128068e-04
  3.0124934e-06
  3.3393211e-05
  1.8905390e-06
 -2.3908028e-04
 -3.6074169e-05
  7.8424462e-05
 -1.4254891e-05
  7.2802235e-05
 -1.0763566e-04
 -9.9060817e-05
  4.0226791e-04
 -3.1107356e-04
 -1.9847877e-04
  8.5496235e-05
  2.4992359e-04
  3.7599658e-04
 -1.1026984e-04
 -7.0175171e-05
 -4.3440727e-05
 -7.0340728e-05
  4.3191301e-04
 -7.6974786e-05
  1.4950531e-05
  1.1796933e-04
  1.1151844e-04
  4.6764148e-06
 -4.9770348e-05
 -5.0679893e-05
  6.9783900e-06
 -1.6574736e-04
 -1.8511213e-05
  2.5170928e-04
  7.5428972e-05
 -1.1559144e-04
 -2.7172916e-04
 -7.3242925e-05
 -1.6284826e-05
 -3.4411609e-05
 -1.5311558e-05
 -4.3213648e-05
  3.8580189e-04
 -9.2209084e-05
  3.7768623e-05
 -4.6502719e-05
  9.8439952e-05
  2.0164262e-04
 -1.1765843e-04
 -1.2073034e-05
  5.9587717e-05
 -1.9210491e-04
  7.4385360e-05
 -1.2799735e-04
  2.0043657e-04
  9.6140291e-05
 -7.7813702e-06
  1.8512048e-05
  2.8269986e-05
 -2.5639263e-05
  5.7304856e-05
  1.0798763e-06
 -1.5745123e-04
  7.4239210e-06
  8.8120163e-05
  1.2604141e-05
  1.3462520e-05
 -6.1381538e-06
 -4.7680012e-05
 -1.1293182e-05
 -6.7004090e-05
 -1.1450667e-05
 -1.4000201e-04
  2.9777922e-04
  1.0276963e-04
 -7.1688621e-05
 -7.8320678e-05
 -8.2919014e-06
 -1.9382642e-05
 -3.3056337e-01
 -7.7549964e-02
 -1.0040866e+00
 -1.5790723e-01
 -1.5832503e-01
  6.1866801e-02
 -3.0434276e-05
  1.6111763e-02
  1.5175276e-03
 -7.6804288e-05
  3.9811188e-05
  6.7337520e-02
 -1.7642640e-03
 -1.0743469e-01
 -2.0840943e-04
  5.0174736e-04
  6.0227031e-01
  8.4117681e-02
  4.2832879e-04
 -1.3535474e-02
  6.3577194e-05
  2.7080885e-05
  1.2772401e-04
 -1.6201974e-04
  5.6685449e-04
 -2.8499511e-05
 -2.1557767e-05
  1.5711887e-01
  1.4799248e-04
  8.9268120e-05
  2.5894575e-05
 -2.5842738e-04
 -2.7594372e-04
 -2.5599868e-05
  5.5286106e-05
  1.5683305e-04
  5.9635549e-05
 -2.3235671e-05
 -1.5781191e-04
 -1.2410461e-04
 -2.7126566e-04
  9.8353332e-05
 -4.7782585e-05
 -2.6766083e-04
 -3.7974794e-04
  4.9058440e-06
 -8.6755163e-06
 -1.7426712e-05
 -4.4282417e-05
  6.4781838e-05
 -7.6077886e-05
 -6.7386834e-05
 -4.3921329e-05
  2.9728009e-04
  9.7212192e-05
  1.0862480e-04
  9.9751524e-05
 -6.1612169e-05
 -3.1080539e-04
  2.3056714e-04
  3.0622780e-07
  1.0886083e-04
 -1.8875979e-04
  4.7908208e-05
  1.0737260e-04
 -1.0926405e-04
 -4.0447820e-05
 -1.0062750e-05
 -1.3389742e-05
  3.4251594e-04
  4.2140240e-05
  1.3124963e-04
 -2.9188584e-05
  1.0672099e-04
  8.7524735e-05
  1.3407334e-04
  5.3275955e-05
 -7.3123214e-05
  1.2968885e-05
  1.7599215e-05
 -7.1791888e-05
 -5.9683978e-05
 -6.9544425e-05
 -1.5407258e-04
 -8.2538536e-05
 -8.8842735e-06
  1.4107364e-04
 -8.0567217e-05
 -1.0933966e-05
  9.6422751e-05
 -4.9319365e-06
 -7.7255128e-05
  1.9512619e-04
 -3.5483732e-05
  9.5659496e-05
 -1.1965052e-04
  1.8644157e-04
 -9.3369061e-05
  1.4919494e-05
 -4.3679147e-06
 -2.2602432e-04
  5.2940089e-07
 -1.1469019e-04
  1.4692976e-04
  4.7629386e-05
  2.4991046e-04
  1.7278499e-04
  3.0730480e-05
  2.4020740e-04
 -3.2994428e-01
  1.6719812e-05
 -5.8459325e-05
 -1.1103458e-06
  3.8746719e-05
 -7.2157441e-04
 -2.5936095e-05
  2.0289775e-05
  1.2678561e-05
 -5.5761837e-05
  2.6868671e-05
 -4.6806565e-01
 -3.0700169e+00
 -1.8413186e-02
  1.4728305e-02
  6.7327678e-01
  2.7043965e-05
 -2.1766113e-01
 -7.6248260e-05
 -5.9019052e-04
  7.8264704e-05
  1.2067941e-01
  1.8133081e-02
 -1.8459854e-01
 -4.9437937e-01
  1.9088488e-05
 -1.2721754e-04
 -3.2342132e-02
 -4.1335471e-02
 -2.5185698e-04
 -1.1748613e-03
  4.5132781e-03
 -1.2813414e-04
 -1.6498384e-01
  3.6986260e-04
 -5.5238167e-03
 -1.4158621e-04
 -2.9831806e-06
  1.9235187e-04
 -1.0861502e-02
 -2.6481858e-04
 -4.1099651e-05
 -3.0622203e-05
 -1.7217852e-04
 -5.1305105e-05
  1.5728485e-05
  1.1241678e-04
  1.0562984e-04
 -1.0538901e-04
  9.2579785e-06
  1.2852281e-04
  2.8709380e-04
 -1.3392362e-04
  5.5327240e-05
  1.0769540e-05
 -2.5902318e-06
 -4.5509572e-05
 -2.0435018e-05
 -1.1089535e-04
 -2.8138861e-04
  6.9476402e-05
 -1.2629834e-04
 -3.2851609e-04
  8.5487969e-05
  1.5690729e-04
  1.9760565e-04
  3.6524736e-05
  8.9060341e-05
  1.2872915e-04
  2.4212088e-04
 -6.4087973e-05
  1.1600384e-04
  4.9623382e-01
 -1.2790187e-03
  4.4974321e-04
  1.2339866e-03
 -4.1692650e-01
  2.8994307e-06
 -3.9037099e-01
 -1.8834028e-01
 -8.4801055e-02
 -7.3197082e-02
  3.2161981e-01
 -6.8621218e-02
  1.2427532e-01
 -1.0850375e-06
 -8.1421152e-02
  1.5813501e-01
 -4.0943768e-02
  5.5193137e-05
 -2.6536218e-03
 -2.0203454e-04
 -2.4310466e-02
 -2.1809264e-01
  4.4407346e-04
 -3.1244438e-03
  8.3885941e-05
 -1.6372698e-05
  4.5056581e-03
 -4.5846107e-05
  7.4861629e-05
 -1.7076595e-04
 -2.0946638e-04
  4.8147017e-06
  1.6387270e-05
  1.3651178e-04
 -2.3657763e-05
  1.7975840e-03
  5.4837008e-05
 -1.2549592e-04
 -9.6366421e-05
 -2.0547939e-05
 -2.6506230e-05
 -5.0736645e-07
  7.2122559e-05
 -4.3830767e-04
  6.2154031e-05
  7.4241310e-05
 -4.2197509e-05
  7.9814272e-05
 -1.6925622e-04
 -1.4649895e-04
 -1.0966978e-05
 -1.4673252e-04
 -8.4602907e-06
  9.4414390e-05
  1.0379476e-04
 -7.7355646e-05
  3.7781938e-05
 -3.8434423e-06
 -2.8513630e-05
  1.9166334e-01
  2.7592558e-02
 -1.8127476e+00
  5.1288389e-02
 -7.0882618e-01
  2.1731759e-04
 -4.8575687e-04
  1.5553024e-02
 -1.2820550e-04
  1.8912751e-02
  3.4911575e-04
  1.1979322e-05
 -6.6546530e-02
 -1.3914438e-01
 -6.3605487e-02
  1.0612234e-01
 -4.6939756e-05
 -1.0949526e-03
  1.4210599e-04
 -7.5518720e-02
  1.4254710e-03
 -3.3906141e-05
 -1.2626620e-04
  1.0708792e-04
  5.8523240e-04
  2.4252609e-04
 -7.1781840e-05
  2.5125174e-04
  1.0956364e-04
 -7.6711539e-04
  1.7711931e-04
 -1.3268588e-06
  1.0735994e-04
  1.5063914e-04
  1.8483026e-01
  8.4851825e-05
  6.1887433e-05
  3.2496413e-05
 -1.8504844e-04
 -3.1054695e-04
 -2.9747298e-05
  1.1242259e-01
 -1.1377995e-04
  1.6992094e-04
 -9.2595059e-05
 -7.3015333e-05
 -2.0325820e-04
  1.7415935e-06
 -1.3867726e-04
 -2.6650471e-04
  3.9326001e-06
 -2.5001875e-04
  1.5301708e-05
  2.8844411e-04
 -7.5262947e-06
  5.1770348e-05
  5.3753101e-06
  3.9892009e-05
  1.4257676e-05
  1.2853686e-04
  2.9314917e-05
 -2.9345601e-05
  2.1856213e-05
 -4.6667669e-04
  1.6985688e-04
  2.2859775e-04
  3.1872249e-05
  1.2287756e-05
  8.8747976e-05
 -1.1333796e-04
 -4.1853884e-05
  8.8067316e-02
 -1.2826521e-04
 -4.1021776e-04
  4.3949978e-05
 -1.2131027e-04
  1.1329520e-04
 -7.5248651e-02
  1.7205800e-04
  2.7060756e-04
  1.1617327e-05
  8.0553044e-05
  3.9249053e-06
 -3.5787729e-05
  1.2621307e-04
 -2.7844118e-05
  1.4198777e-04
  4.6365043e-05
  1.1720457e-04
  7.2769588e-05
  1.1858506e-04
  7.2211558e-05
 -7.1498318e-05
  7.6808465e-05
 -7.7016179e-05
  2.4352653e-04
 -9.1289709e-05
  5.4677177e-05
 -1.1840986e-04
  1.4231408e-04
  3.9098857e-05
 -1.4101961e-04
 -8.0446567e-05
 -2.3280019e-04
 -2.0355164e-04
 -7.1022005e-05
 -1.6408338e-05
 -2.0046549e-05
  2.4007852e-04
  5.1911156e-05
 -2.4163946e-05
 -1.1185687e-05
  4.5836619e-05
 -2.1142839e-06
  3.1525735e-05
  2.6862340e-06
 -1.6550464e-04
 -1.1618234e-04
 -1.3113342e-05
 -5.3519652e-05
 -1.9522214e+00
  6.5264663e-05
 -1.3248297e+00
  1.5011514e+00
  2.7948242e-01
  2.9289334e+00
 -1.5859729e-04
 -1.0426237e-04
  3.3258407e+00
  8.6448175e-01
  5.8375543e-01
  4.3075790e-05
 -8.7748522e-06
 -9.2036819e-01
 -2.9884410e-04
  5.1519484e-04
 -7.1980643e-01
 -5.3358585e-02
  1.6182986e-01
 -1.6579863e-04
 -3.9130115e-05
  2.6231053e-05
 -3.0519787e-04
 -1.1935550e-04
  5.2558647e-05
  4.7245456e-05
 -2.8247232e-04
 -2.8039309e-05
  2.6372135e-01
  3.5538623e-01
  2.6923907e-04
 -7.3688215e-01
  2.7729955e-05
  7.5820499e-05
 -1.7649065e-04
  7.5460222e-05
 -2.3828177e-05
 -9.6493895e-05
 -5.0119656e-01
  3.5564186e-05
 -2.3253106e-05
 -6.0559589e-05
 -1.6322792e+00
  7.6010299e-05
  1.4087114e-01
  9.3470626e-06
 -5.7558846e-01
  2.3390727e-05
 -3.4050030e-05
  1.2706919e-04
  6.3409865e-01
 -7.5260185e-05
  2.5234103e-01
 -2.8117096e-01
 -1.1576259e+00
  1.2949558e+00
 -3.5016305e-06
  2.7223598e-04
 -1.3003427e+00
  8.6707234e-01
  5.4872245e-01
 -5.7460427e-05
 -2.6306981e-04
  4.3574873e-01
 -4.0763613e-02
  1.0983375e-01
 -5.7719898e-01
 -1.6162318e+00
  4.4595945e-01
  9.4785340e-05
  9.8105156e-01
 -1.2557453e-05
  7.6110823e-06
 -7.4144256e-05
  8.6423643e-05
 -1.9957732e-04
 -3.6716148e-02
 -2.8106828e-05
  1.2815601e+00
  1.5082383e-01
 -1.1164616e-04
 -6.2558019e-01
 -3.2547547e-04
 -1.9341779e-04
  3.4643087e-01
  5.1876319e-05
  1.6186294e-05
  6.9647394e-05
  5.7775807e-01
  4.3775020e-05
 -6.4430465e-03
 -2.7431932e-03
 -5.4576522e-01
 -1.3590201e-04
 -5.9715825e-01
 -7.5950520e-04
  7.1710992e-01
 -7.0199512e-02
  1.9804150e-01
  2.8680988e-05
 -2.7679047e-04
 -3.2424698e-05
 -2.5786809e-04
  1.1574300e-04
 -1.0337139e-04
  3.3295135e-05
  1.8907174e-05
  5.3571024e-05
  3.0676340e-05
 -2.5669800e-05
  1.4549664e-05
 -3.7416485e-06
  2.3774921e-04
 -9.9820456e-05
  2.1083788e-04
  1.1059454e-04
  1.6322755e-04
  6.3528452e-05
  3.3292930e-05
 -1.6261383e-04
 -9.9029903e-06
 -2.3895892e-04
 -8.7112479e-05
 -1.5333695e-04
 -1.4637310e-04
 -1.3920562e-05
 -4.9641891e-05
 -1.2142660e-06
  5.3695330e-06
 -1.4830515e-04
 -1.3215776e-01
 -2.9999623e+00
  1.6433076e+00
 -6.9841361e-03
 -7.1510684e-01
  1.2749891e-01
  6.1646351e-05
 -3.9501829e-04
  5.8978503e-03
  1.4878367e-05
 -5.5109244e-02
 -1.1154057e-01
 -3.9081830e-03
 -4.2816100e-01
 -4.2320687e-05
 -8.7310806e-02
  1.3891788e-04
 -1.6270941e-01
  2.5877920e-05
 -6.3778341e-02
 -9.0126701e-02
 -1.6020097e-04
 -1.2719857e-03
 -1.8605328e-03
 -3.5823675e-04
  1.1620515e-04
  1.6005903e-04
  2.3479172e-04
 -8.9943979e-04
 -7.6726325e-02
 -6.7788139e-02
 -1.0247357e-02
 -7.3570168e-01
  2.1286915e-01
  1.7231119e-01
  2.4913959e-01
  6.9380221e-06
 -6.4765591e-05
 -2.5290701e-05
 -1.3822205e-04
  1.5510842e-01
 -8.3638439e-03
  7.2586745e-01
 -1.6237859e-01
 -8.2459381e-05
 -2.6563203e-02
 -1.1227204e-04
  1.3140909e-04
 -3.0513978e-04
  1.0126660e-04
  6.5788049e-03
  1.3243957e-01
 -1.0632844e-01
 -1.4219680e-03
  9.9246026e-05
 -6.7690708e-05
 -3.7561884e-05
 -8.9257443e-01
 -1.1232094e-01
 -6.7500837e-02
 -5.8557250e-04
 -5.7195310e-05
  1.0678958e-04
 -3.0900872e-05
 -1.3395859e-04
  8.2869774e-05
 -1.1510284e-05
 -1.6426915e-04
 -9.4148645e-06
  1.5923420e-04
  3.0276969e-05
 -1.0654173e-04
 -2.1737102e-05
 -4.8357168e-05
 -6.4272499e-05
  5.0600393e-06
  2.7864709e-04
 -2.5806021e-05
  3.9144485e-05
  9.7434335e-05
  1.9051722e-04
  3.8350470e-05
  1.8081855e-05
  8.6255990e-05
 -1.6198447e-04
 -1.2673196e-04
  4.0041141e-05
 -2.4057472e-04
  2.9796063e-05
  1.6465314e-05
 -1.9341736e+00
 -6.0591680e-01
  1.8743545e+00
  3.0898769e+00
  4.5374146e+00
 -8.2447710e-05
 -3.2042363e-04
  8.3096602e-05
 -5.7660037e-01
  2.8403971e-04
 -2.6132667e-01
 -1.2832906e-04
 -7.6059721e-02
 -3.6123106e-01
  3.3085269e-01
  2.1323955e-01
  3.1676490e-04
  6.5080941e-01
 -7.8230329e-02
  4.4255161e-05
  1.2232811e-01
  1.2744300e-02
  7.9366714e-01
  5.4579759e-01
  8.0038817e-04
 -2.9491728e-05
 -2.9509611e-04
  2.8218618e-01
 -4.4797797e-02
 -4.1269184e-05
 -9.5253155e-05
  1.2919547e-04
  2.5834277e-04
  2.3237801e-04
  1.4889297e-04
 -1.3975473e-04
 -1.4434344e-05
 -1.1762058e-04
  8.5572727e-05
 -4.7529087e-05
 -4.1755433e-05
  9.6675532e-05
  1.7987973e-05
  5.1229922e-06
  4.9179038e-05
  3.6150017e-05
  1.8421237e-04
 -6.9619600e-06
  1.2715175e-04
  2.5891984e-06
  4.6343081e-05
 -1.0733914e-05
  3.1372441e-05
  3.8594419e-05
  3.4292840e-05
  4.7333990e-05
 -9.6181029e-05
 -6.0968297e-05
 -2.5877112e-04
  3.4938505e-05
  5.2442408e-01
 -1.8988151e-02
 -6.6494590e-06
 -1.0396856e-03
 -7.9071042e-06
  2.2215156e-04
 -2.6970001e-05
 -1.2894823e-04
  6.0767208e-05
 -1.8840128e-03
 -9.1986276e-06
 -3.1967129e-04
 -2.2068599e-01
  7.3400173e-05
 -2.4592800e-05
 -1.3507137e-04
 -6.9758389e-05
  3.6295674e-05
 -6.5829052e-05
 -2.1446220e-04
 -1.9882758e-04
 -1.9877974e-04
  9.1133734e-05
 -5.5115350e-04
 -1.0098245e-04
  5.6192363e-05
 -2.9834503e-06
  7.8328844e-04
  1.3732450e-05
 -4.9965439e-04
  5.1617124e-05
  1.0940074e-04
 -1.5179006e-05
 -1.0561690e-04
 -4.1908803e-04
  5.9515642e-06
  3.7992413e-05
 -3.0981711e-05
  3.9796487e-05
  1.9207645e-04
  9.5049276e-05
  2.3728571e-04
 -2.1192334e-04
 -9.1152346e-05
  2.3793760e-05
 -8.4158964e-05
  1.9475201e-04
  4.1743224e-06
  1.6131114e-04
  3.6120462e-05
  1.4338573e-04
  1.3103678e+00
 -1.0707728e-04
 -2.3740975e-05
  7.4541081e-06
  3.6822166e-05
 -1.5375532e-04
 -6.4169632e-05
  6.4327098e-05
 -1.4181809e-04
 -7.0875257e-02
  2.3813115e-03
 -1.3168211e-04
  3.3233318e-04
 -5.4590236e-03
 -1.8216972e-04
 -1.0371856e-05
 -1.5266573e-04
  1.5765034e-04
  4.5110765e-04
 -1.1738308e-04
 -2.9787630e-05
  3.5902661e-01
 -3.5760517e-05
  3.6426380e-05
  4.4917877e-04
  2.3076028e-04
  3.4295866e-05
  3.7426555e-05
 -5.5604519e-06
  3.5492030e-05
  3.3706103e-05
 -7.2364155e-06
  1.9024509e-04
 -1.7634756e-04
 -2.9543686e-05
 -9.5845979e-05
 -5.5252807e-05
  6.7841254e-05
 -3.6438567e-05
  1.0548584e-04
  1.1871070e-04
 -1.0114325e-04
  3.5556364e-05
  2.6562842e-04
  1.3333725e-04
 -1.9106315e-04
  6.0482991e-05
  7.3511474e-05
 -3.5503451e-04
  1.3653768e-04
  2.2439097e-05
 -6.9808535e-05
  1.6314810e-04
  2.6748499e-05
 -4.9320975e-04
 -1.0495633e-04
 -1.2659189e-05
 -1.6922537e-04
  1.1896181e-05
  4.4022156e-05
  6.8504880e-05
  1.6361626e-04
  1.3770003e-04
 -1.9472485e-04
 -6.4454252e-05
  8.0286241e-05
  4.2479358e-05
  3.5433684e-05
 -1.8567327e-05
 -1.3288076e-04
  1.4625664e-04
  1.1201089e-04
  6.0996485e-05
  1.4902213e-04
  8.5467080e-05
  4.1361855e-05
  7.0613074e-05
 -6.4257670e-06
  6.8778449e-05
 -6.0125793e-05
 -8.2219834e-05
 -6.2265171e-05
 -3.1480617e-05
  1.1803611e-04
  1.0982947e-04
  2.1204311e-05
  8.7699736e-05
 -8.6524939e-05
 -5.4249086e-04
 -1.1005852e-05
 -9.2250426e-05
  1.7986223e-04
 -6.2796367e-05
  2.0821962e-04
 -1.2636033e-04
  1.7412208e-04
  1.0484084e-04
  1.1459921e-04
  1.4905972e-04
  3.9091152e-05
  2.8391962e-04
  1.2917188e-04
 -4.3596392e-05
  1.1887713e-05
  1.4400757e-04
 -1.6716356e-05
 -1.5170664e-05
 -3.4968508e-04
 -4.8960497e-05
  5.9996135e-05
  2.2036403e-04
 -5.1590294e-05
  3.3694992e-04
 -1.7645385e-04
 -2.5320484e-04
  3.2704305e-05
 -9.0495509e-05
 -5.4389420e-07
  1.4753398e-04
 -6.1309700e-05
  6.6283093e-05
 -1.0819721e-05
 -6.7769564e-05
 -2.4357443e-05
 -5.2484505e-05
  2.9350662e-05
 -1.7277841e-04
  3.6922697e-07
  9.5521369e-05
  1.1237550e-04
 -1.0044063e-04
 -7.1498966e-05
  1.3369626e-04
  6.6170222e-05
 -1.1034305e-04
 -3.7313115e-05
  7.2414128e-05
 -4.4056351e-04
  1.5536491e-04
  6.6144865e-05
 -8.3348596e-06
 -7.6949829e-05
  1.1237269e-04
 -4.9569186e-05
 -4.4081412e-04
 -1.1583303e-04
  1.1539598e-04
  5.6577631e-04
  1.2716254e-04
 -2.8665672e-05
  8.4701096e-05
 -2.5448508e-05
 -8.6853412e-05
 -3.0656793e-04
  1.3004741e-04
  1.3422407e-04
  1.1005536e-04
 -1.2254431e-05
  2.2819026e-04
  6.7577756e-05
  9.0094858e-05
  3.4493834e-05
 -1.0627422e-04
  3.7854764e-04
  1.9455992e-04
  2.8927747e-05
 -1.8995735e-04
 -3.9738963e-05
  3.5404701e-05
  2.0310557e-05
  5.5471412e-07
  4.5613713e-05
 -4.8211496e-05
  1.8369184e-04
 -2.3406319e-04
  1.3654649e-05
  7.1389593e-05
 -5.9190443e-05
  9.2237002e-05
 -1.1976503e-04
 -4.3298493e-05
 -2.4716463e-04
 -6.0444392e-05
  5.5599106e-05
  5.3972522e-05
 -6.5110464e-05
 -1.2447097e-04
 -1.1841144e-04
  2.3983636e-04
  5.7664138e-01
  2.2210011e+00
  1.0747582e+00
 -4.5946808e+00
 -1.0838912e+00
  7.0495558e-01
  5.1850315e-05
 -1.9763056e+00
  2.4291694e-01
 -4.2722099e-02
  1.0911185e+00
 -2.1776110e-01
 -1.4881210e+00
 -1.3202764e-01
 -1.0701559e-01
  3.8352814e-01
 -9.3824112e-01
  1.5498136e-01
  9.6370971e-01
 -2.1716595e-01
  4.1111827e-02
 -1.0639969e+00
  1.2232678e-01
 -1.2654738e+00
 -3.0439618e-01
  7.9257056e-02
 -1.3396844e-04
  1.3622177e-01
 -5.1218018e-02
 -2.9199436e-01
  7.0008129e-04
  6.6128734e-05
  1.5382728e-04
 -2.8992436e-05
 -6.3642970e-06
  2.1683538e-05
 -2.4063919e-04
  6.4562024e-05
  1.0407895e-05
  2.1773752e-05
 -8.8171153e-05
 -1.0696150e-04
  1.2585991e-04
  2.7745109e-04
  4.6822045e-04
 -7.6411793e-04
 -5.4260279e-05
  5.6707271e-05
  5.4919219e-05
  7.4109448e-05
 -1.3847288e-04
  1.5933509e-04
 -4.2129709e-06
 -1.1384887e-04
  2.3985186e-04
 -1.8994209e-04
  4.6732948e-05
  1.7782813e-04
 -8.2460661e-05
 -2.0400765e-04
 -1.0967047e+00
 -2.1073838e-01
  1.8121210e-03
  1.5716602e-01
  8.9462376e-01
  7.8212521e-05
  7.0473325e-05
  3.8492064e-05
  3.2419775e-04
 -5.0087972e-04
 -2.4929200e-01
 -1.4546109e-05
 -6.8687252e-03
 -4.7961745e-01
  3.2671283e-05
 -1.3314324e-04
 -8.8091532e-04
 -4.6636324e-04
 -4.9423170e-04
  7.1107556e-06
 -5.2016377e-01
  1.8366458e-05
  6.9128924e-05
  5.5798191e-05
  1.1346124e-04
  4.9719247e-03
 -1.0938246e-04
 -3.6544740e-02
  1.9742156e-04
 -3.5326896e-04
  1.2472880e-04
  1.2625929e-04
  9.8149821e-06
 -6.5760163e-05
  3.5708677e-04
  4.7759615e-05
 -7.3143051e-06
  1.8304947e-04
  1.3312907e-04
 -6.3734506e-06
 -1.0229235e-04
 -8.0081509e-06
  1.7216560e-05
 -1.6498945e-05
  2.1290110e-04
 -2.8384457e-04
  3.6370315e-04
 -1.5766182e-04
 -1.0306740e-04
 -3.0208449e-04
 -6.9723232e-05
 -1.8794935e-04
 -1.2048205e-05
  7.1008202e-05
  9.5159994e-06
 -3.6482892e-05
  6.9061243e-05
 -4.8952361e-06
  9.8017721e-05
 -1.1136531e-04
 -4.5383241e-04
  6.0396374e-05
  4.1683961e-05
 -1.8734200e-04
  5.5320270e-05
 -4.7659152e-04
  1.8506647e-04
  2.2924681e-04
 -6.0043545e-05
 -2.1379613e-04
  4.5007931e-05
 -1.3086284e-04
 -5.9920629e-05
  7.2820953e-06
 -4.5986340e-06
 -1.8886622e-05
  5.5821424e-06
  1.0081410e-04
  3.2423712e-05
  1.5036747e-04
  2.8024635e-06
  1.0257944e-04
  2.5785458e-04
  3.4976838e-04
 -3.8391168e-04
 -1.7562538e-04
 -1.3712351e-04
  1.3014134e-05
 -2.6053170e-04
  4.7805552e-05
 -4.6506998e-01
  1.0812627e-05
 -1.0181781e+00
  4.4225857e-05
  6.7111516e-01
 -1.7203053e-04
  1.1727638e-04
 -1.2432752e-04
  4.1698490e-06
  1.7163431e-06
 -2.1475270e-04
 -3.0832794e-05
  2.7496941e+00
 -6.4943706e-05
 -2.5556346e-05
 -1.6770678e-04
  7.4769596e-05
 -2.7607252e-06
  4.1477289e-02
 -2.8507377e-06
  2.2408247e-02
  2.2568724e-04
  3.1579530e-04
 -5.7979018e-05
  1.7706181e-05
  9.8675053e-05
  9.5504372e-05
 -3.2705216e-06
  2.3473242e-04
  2.7510938e-01
 -1.5963532e-01
 -9.6167421e-01
  3.4268303e-03
 -1.0639586e-03
  8.9287567e-01
  4.1035574e-04
  1.8023541e-04
 -2.1877485e-04
  9.9089951e-04
  3.8296661e-05
 -5.4503804e-01
 -2.2938500e-04
  5.0610167e-01
 -1.3110816e-02
  1.7624670e-05
  2.7433497e-01
 -3.5297489e-04
 -1.4501195e-04
  5.8869127e-04
  4.1604442e-05
 -1.0857077e+00
 -1.5833555e-05
  1.4719990e-03
 -9.6382983e-03
 -8.2358478e-05
 -1.3168900e-04
  3.7398597e-05
  6.0990107e-01
  6.9108246e-05
 -2.3006699e-04
 -2.5596735e-01
  1.1979893e-02
  5.8374299e-05
  1.7091411e-04
 -7.0220917e-03
 -2.0023387e-04
  2.6232377e-04
  4.4720131e-04
 -5.0883851e-04
  2.2040986e-04
  5.8664696e-04
  1.2300473e-04
  3.7923367e-03
 -1.1345932e-04
  1.1810621e-05
 -5.5351218e-05
  2.9748533e-04
 -6.0480197e-05
  1.0198732e-05
  9.5735159e-06
  1.8350290e-04
  9.2461443e-05
  1.1086126e-04
  2.6139125e-04
 -3.9044200e-05
 -1.2060999e-04
  4.8124126e-05
 -1.6816155e-04
  1.6578894e-04
  1.6016855e-05
  3.4107932e-05
  4.2366581e-05
 -6.4564651e-05
 -1.6798532e-04
  2.6245284e-04
 -8.1855527e-05
 -6.5424741e-05
  4.2868352e-05
  4.2339157e-06
  2.6268755e-05
 -1.2216135e-04
  1.1977564e-04
  6.3581385e-05
 -2.3189487e-04
  9.5677351e-06
  1.0646170e-04
  3.1886331e-05
  1.2062103e-05
  1.5500601e-04
  9.8259279e-06
  1.8398256e-04
 -4.0073024e-05
  4.0895902e-05
 -6.3954722e-05
  2.3020220e-04
 -7.5223492e-05
  2.5601874e-04
 -4.4354496e-05
 -3.2813849e-05
 -2.8747363e-06
  6.6092843e-01
 -7.0047826e-01
  4.5733386e-01
  2.6011407e-01
 -6.3487500e-01
  3.7061200e-05
 -7.9464546e-05
 -2.5447336e-04
  4.3488403e-06
 -2.4143042e-04
 -4.5969966e-01
  2.5719739e-04
  1.1468847e+00
 -4.5857459e-01
 -4.7461700e-02
 -1.8963736e+00
  8.1291699e-05
 -1.7127066e-04
 -1.5453134e-04
  1.1128875e-04
 -1.5986280e+00
 -2.0579508e-05
 -1.2154356e-01
  1.6474643e-05
 -4.5970439e-05
  6.3818388e-02
 -2.1435373e-05
 -3.5803735e-02
  1.7191286e-04
 -6.6998444e-05
  6.9896632e-01
  1.2746811e-01
 -5.4795456e-01
  4.2430878e-01
 -3.9292455e-02
 -1.6486742e-04
 -7.0819893e-05
  3.4880257e-04
 -1.9577041e-04
  3.0092621e-04
 -5.3409690e-01
  7.6237884e-03
  2.2387114e-01
 -9.5062196e-02
 -2.3978970e-04
 -7.0724018e-05
  3.9470349e-05
  1.4730704e-05
  1.2999579e-04
  1.1192617e-03
 -8.8136435e-02
 -2.8596329e-05
 -4.1887209e-02
  1.4798963e-03
  7.6168515e-05
  1.0727533e-01
 -1.6999131e-04
 -5.0347978e-01
 -3.7310965e-05
 -3.5750385e-05
  2.0195001e-05
 -1.7231902e-04
 -4.4663547e-04
 -9.9414152e-05
 -7.7901612e-05
  1.9663839e-05
 -9.7198295e-05
  9.9348843e-05
  1.6846096e-04
  1.4200235e-04
  1.6215299e-05
 -3.6247665e-04
 -6.5407286e-05
  4.9041089e-05
 -1.4217866e-04
  6.3885505e-05
  8.6388922e-05
  7.5321041e-05
  3.3200737e-05
 -1.1593584e-04
 -2.4415260e-05
  4.4494699e-04
  2.2279028e-05
 -8.0694168e-05
 -3.6964740e-04
 -1.7505114e-04
  9.8375829e-05
 -1.7768113e-04
  3.2385669e-05
 -1.1942885e-04
  4.2915940e-01
 -1.9626933e-01
  9.6900903e-02
 -6.6490946e-05
 -1.5331762e-01
  7.7090557e-03
 -3.2315304e-05
  1.0800221e-06
  2.8958882e-04
  1.9352565e-05
 -2.1227381e-01
 -2.9248220e-04
 -3.4750938e-01
 -1.1111858e+00
  4.8816095e-05
 -4.6725377e-02
 -2.6071140e-05
 -2.0146194e-04
  5.4187716e-05
 -1.9790034e-04
  6.6068591e-05
  3.1598167e-05
  6.1464918e-05
 -2.2761637e-05
 -1.6815258e-04
  4.3103483e-04
 -3.1601772e-05
  7.6247044e-02
 -1.7603910e-04
 -7.3384639e-05
 -1.5826852e-04
  3.0945941e-06
 -1.1464266e-04
  1.5948634e-04
 -3.6914869e-05
 -1.7870560e-04
 -3.8694558e-05
  1.2953240e-04
 -1.4857846e-04
  1.1464237e-05
  1.3771122e-04
  9.8932469e-05
  6.1650816e-02
  5.6652279e-05
 -1.6725493e-04
  1.1660124e-04
  4.8619989e-07
 -2.6247668e-04
  1.8193841e-05
 -1.2934205e-04
 -3.4693756e-05
 -2.2584738e-04
  3.3234544e-05
  2.5112170e-04
  1.0422288e-04
 -1.3775634e-06
 -1.3975898e-04
  2.5486828e-05
 -2.4124185e-04
 -2.2800543e-05
  5.8763573e-05
 -9.7472897e-05
  6.0721155e-05
 -1.8307604e-04
  6.5119602e-05
  1.6787279e-04
  9.5361625e-05
 -7.5449134e-05
  5.0950580e-04
 -1.0732525e-05
  4.0742838e-05
  5.3507047e-05
  6.4596787e-07
 -1.0121167e-04
  2.6606481e-06
 -2.2739405e-04
  1.8490285e-04
  1.9002978e-04
 -1.9582601e-05
 -1.5709281e-04
 -3.7268612e-05
 -4.1976749e-05
 -3.5541765e-05
  8.3318635e-05
 -1.5100029e-04
 -1.2539618e-06
  6.3497915e-05
  1.0229900e-04
 -8.4296415e-05
 -7.8780271e-05
  4.0001847e-05
  4.9068698e-05
  1.2313055e-04
  1.3143689e-04
  1.3904074e-04
  5.5736160e-05
 -4.0920015e-05
 -2.5299791e-04
  2.2693160e-04
  1.1375445e-04
  9.9406119e-05
  8.3562125e-05
  7.2630764e-06
  1.1252558e-05
 -7.3064089e-06
  2.2768055e-04
 -6.6999644e-05
  6.6365037e-06
 -1.5746788e-05
  3.1216085e-04
  3.5106834e-05
  1.9056955e-04
  1.2276366e-05
 -3.7412622e-04
  1.5030360e-04
  5.8321453e-05
 -2.7333022e-04
  2.8712780e-04
  3.3533459e-05
  8.6734261e-05
  1.8957398e-04
 -2.5697520e-05
 -1.4574087e-04
 -3.3065044e-05
 -1.5291169e-04
 -1.3841904e-04
  4.5911256e-05
 -1.6996710e-05
  1.2811052e-03
 -7.4223353e-05
 -6.4567226e-05
  2.2145109e-04
  2.6869480e-04
  5.9949627e-05
 -7.9450532e-05
 -1.0560857e-04
 -2.5140107e-04
  2.6103773e-04
 -2.9076700e-04
  7.7098166e-06
 -4.3356784e-05
 -4.0712090e-05
 -2.0908694e-04
 -4.4397038e-04
 -7.5446376e-05
 -1.9745412e-05
  5.3316464e-05
  5.7638848e-05
 -6.3188047e-05
  3.0892633e-04
  1.6025420e-04
  3.5114510e-05
 -1.7937356e-05
  3.1163894e-05
  2.4459296e-06
 -8.3735395e-06
  3.7612478e-04
  1.0597282e-04
  7.2009469e-05
 -3.7746642e-05
 -9.2832852e-05
 -9.0567746e-06
  1.9082210e-05
 -1.0886466e-05
  1.5044826e-04
  4.3169341e-05
  1.3406343e-04
 -7.2173883e-05
  8.2657920e-05
  8.3431551e-05
  7.4949101e-05
 -3.5611934e-06
 -3.1336040e-05
 -7.4945048e-05
 -1.8056492e-04
  2.4979416e-04
 -1.7008465e-04
 -5.9573216e-05
  6.6198404e-06
 -1.2849970e-04
 -1.4404119e-03
  8.2271760e-03
 -2.5771007e-05
 -1.4554781e-05
 -3.0209061e-02
 -5.0745180e-05
  6.3084804e-06
 -4.7978621e-05
  2.8794575e-05
  4.1258831e-05
  2.3842006e-04
 -1.6945038e-05
  3.0101618e-01
  2.5828677e-04
  9.0309411e-05
 -6.4771790e-05
 -3.6935013e-05
 -9.6401182e-06
  1.3056850e-06
 -8.5204367e-05
  3.2495052e-05
 -4.3393018e-05
 -9.6016374e-05
  4.7573244e-04
 -1.8108714e-05
  2.1987587e-04
  5.0000972e-06
  4.9610659e-05
 -2.8933905e-04
  8.5768865e-05
 -8.9013993e-06
 -2.7661360e-06
  1.5315854e-04
  1.5696806e-04
  3.5653787e-04
  1.7612886e-04
 -1.2490651e-04
 -6.7963221e-05
 -2.3405104e-04
 -1.0904756e-04
 -1.0187749e-04
  8.9117246e-05
  1.2191675e-05
  6.7093766e-05
 -1.8205208e-05
 -2.1314467e-04
 -8.2548810e-05
 -4.7231446e-05
  8.2568025e-05
  4.6033828e-04
  1.0261625e-04
 -1.9670717e-04
  3.9032024e-05
 -1.1704891e-04
 -1.1827070e-04
 -2.9229739e-07
 -1.9672098e-05
 -1.0119124e-05
  5.8164085e-05
  3.3471713e-04
 -8.0741930e-01
  3.7138653e-04
 -1.2954106e+00
  1.3558644e-02
 -4.1743652e-03
 -3.1918957e-04
 -1.6790548e-04
  1.3005891e-04
 -1.9025752e-04
  1.1443304e-04
  3.5151581e-05
  1.1390420e-04
  2.2042675e-01
 -2.7638730e-01
 -2.7839196e-04
  1.3186471e-04
  1.5202041e-04
  1.9713691e-04
 -3.6223595e-05
  8.3258034e-05
 -9.8673719e-01
 -7.1571965e-05
 -2.4182203e-01
  1.1739301e-03
 -2.1861915e-06
  1.6221571e-05
  3.8368788e-05
 -3.5147515e-01
 -2.5150683e-04
  5.7100591e-05
 -1.0577914e-05
 -7.7878947e-05
  4.7632320e-06
  1.4356129e-04
  4.3675705e-04
 -1.3149081e-04
 -1.7644715e-04
 -5.0178391e-05
  1.5043718e-04
 -2.9032881e-05
  5.0735915e-05
  3.5764453e-05
 -1.5009397e-05
 -5.1231543e-04
  1.0019646e-04
  1.4635995e-04
  1.1642757e-01
  4.4927746e-04
  4.8463960e-05
 -2.4376712e-04
  1.6516469e-04
  1.4418898e-05
  3.3620754e-04
 -9.2620940e-06
 -1.0981403e-04
  9.6094154e-05
  4.4286066e-05
  3.6657098e-04
 -4.0055307e-05
  7.1969016e-06
 -1.3565603e-02
 -1.3703848e-01
 -4.4105557e-01
 -1.1893947e-04
  1.6846505e-01
  1.0025538e-01
 -2.1804384e-05
  1.3694016e-04
 -1.9482135e-05
 -6.2570289e-02
 -1.4259797e+00
  5.8585440e-05
  1.7175038e-01
 -9.5088071e-01
 -5.7736434e-02
 -1.3552018e-02
 -2.1840516e-04
 -8.7048968e-05
 -9.4116062e-05
 -1.5537588e-04
  2.5939161e-01
  6.7191198e-05
  7.4978758e-05
 -1.6512119e-04
 -6.2390836e-04
  3.5655443e-04
  1.7613443e-04
  1.4473352e-01
 -4.0917408e-07
 -2.7675182e-04
 -8.9624572e-01
 -1.9903807e-02
 -5.0761708e-04
 -3.5455039e-01
  1.2731597e+00
  5.4501195e-04
  4.7530197e-05
 -1.1992526e-03
 -5.9545659e-05
 -2.0081605e-05
  7.3144220e-02
 -2.2594817e-02
  4.1076747e-01
  2.0996165e-02
 -2.1349995e-05
  2.1042346e-03
 -4.2137437e-04
 -5.7178917e-03
  3.8186728e-05
 -4.3834865e-05
  8.2651330e-03
 -4.4233710e-04
  5.7681046e-02
 -3.1539819e-01
  4.6565401e-05
 -8.9814536e-02
  1.3900184e-04
 -2.3503086e-02
  2.0305296e-02
 -1.2137628e-05
 -2.3776726e-04
 -5.4869386e-05
 -3.2750435e-05
  4.5983621e-04
  1.4130402e-04
  2.2748038e-05
  2.6716961e-04
 -9.3771829e-05
  2.2507944e-04
 -1.5393055e-04
 -1.8139864e-06
  3.7106412e-04
  3.0718831e-04
 -2.6555988e-04
  6.5132212e-05
 -2.8291519e-04
  2.1831194e-04
  1.1484274e-05
 -8.5902639e-06
  3.0033265e-05
  1.5182597e-04
 -3.8303351e-05
 -9.9439181e-05
  2.9085313e-05
 -1.4022207e-04
  8.9010755e-05
 -1.8649540e-04
 -9.4525290e-05
 -5.6003908e-05
  1.5547723e-05
  5.0266415e-01
 -6.3503352e-03
  1.4368088e-02
  1.5921964e-01
  4.0943690e-02
  3.6505761e-04
  8.9681613e-05
 -1.1652289e-04
  2.6997495e-06
 -1.0370038e-04
 -6.4092785e-02
  2.0841464e-04
  3.3724301e-02
 -1.1382132e-01
 -1.2103795e-01
 -1.0435867e-01
 -6.7555200e-05
 -2.6575064e-02
 -6.1385854e-06
 -9.3531836e-04
 -9.8062038e-01
 -2.6361330e-04
  1.3698408e-04
 -1.0590266e-04
 -5.5387634e-05
  3.2314560e-01
 -6.4088090e-05
 -6.3578719e-01
 -1.3550724e-05
 -7.2384923e-04
  5.8982010e-07
  1.1231859e-04
 -1.7330967e-05
 -1.6099217e-05
  4.0068389e-05
  8.5669126e-05
  8.4154308e-05
 -5.4783981e-05
 -7.3914944e-06
 -5.2159539e-05
 -1.1095269e-04
 -9.3719848e-07
  1.0476924e-04
  9.5953728e-05
 -1.3079390e-06
  1.0059653e-05
 -2.9682898e-05
 -2.1928015e-05
  2.8898657e-04
  5.8475493e-06
  8.4275765e-05
 -7.8565732e-05
 -1.4893278e-04
 -1.4939878e-04
 -1.9719933e-05
 -4.8170899e-05
  5.2367806e-05
 -1.1848558e-04
 -1.5647191e-05
 -1.0695342e-04
  6.7359615e-06
 -3.6343197e-05
  2.0078068e-04
  2.1759370e-05
  4.4818804e-05
  2.8230315e-05
 -7.1955874e-05
  5.6090365e-05
  3.0221697e-04
 -3.9300244e-06
 -1.2667208e-04
 -1.3424290e-04
  7.7802426e-05
 -2.3282557e-05
 -1.8010323e-04
  6.2535961e-05
 -1.3467563e-04
  4.6138015e-05
 -2.9600406e-04
 -6.1510806e-04
 -2.1738841e-05
 -1.6935107e-04
  9.5669457e-06
  4.4451363e-06
 -9.5461492e-06
 -2.9180350e-04
  5.3754184e-06
  1.4067389e-04
  2.2013024e-05
 -1.8855663e-04
  5.8737712e-04
 -1.4893825e-02
  2.6591608e-04
 -2.2266964e-04
  3.0381003e-01
  8.3608968e-05
 -6.5117471e-05
 -3.2514497e-04
  2.0073590e-04
 -1.0477057e-04
 -1.4132890e-04
 -1.3437661e-03
 -1.2453817e-02
 -9.4891760e-07
 -3.4526947e-05
 -1.1497112e-03
 -7.8695346e-05
  7.1155810e-05
  7.2498046e-06
  6.6113927e-05
 -2.2103181e-04
  9.7086331e-06
 -8.4361120e-05
 -1.1768107e-03
 -8.0942473e-06
  2.8554762e-06
  4.1299245e-05
  2.6766100e-05
  6.4141816e-05
 -1.9077832e-04
 -3.6575876e-02
 -3.0872315e-01
 -2.5642905e-01
 -6.7762315e-01
  1.0353125e+00
  1.1338203e+00
  1.2590842e-03
 -1.4641622e-01
 -1.2194418e+00
 -4.4248948e-01
  1.3788839e-01
 -6.6892809e-01
 -1.3030863e-01
 -2.6112748e-02
 -1.6169539e-01
 -1.8816121e-02
 -5.5993140e-01
  8.5255700e-01
  5.1084012e-01
 -2.8191912e-01
  1.7370780e+00
 -2.2962783e-02
  1.8393153e-01
 -1.2060280e+00
 -4.5406599e-02
 -1.6412668e-02
  1.4110208e-02
  4.4737086e-02
  7.4541341e-03
 -2.5007126e-03
  8.2185788e-06
  1.1761158e-04
 -7.0629736e-05
 -7.4905998e-05
 -4.9714359e-05
  6.6297085e-05
  1.5864147e-05
  3.4299996e-05
  6.4784490e-06
 -2.6308531e-05
 -4.4822777e-05
 -2.0067825e-04
 -2.9537075e-06
 -1.2783100e-06
 -1.5502922e-04
  1.7179783e-04
  7.9043486e-05
  3.2520300e-04
 -8.8657078e-05
  4.9354185e-05
  2.1977379e-05
  3.7835889e-05
 -1.7553984e-05
  1.9808691e-04
 -6.7417743e-05
 -4.5575965e-05
  1.4228684e-04
 -3.3728069e-05
 -4.6290901e-05
 -9.3413051e-05
  7.3053658e-02
  1.7020323e-04
  1.6154030e-04
 -1.2228082e-04
 -1.9562608e-06
  8.9853769e-05
  4.6101984e-05
  2.5914140e-05
  2.5673688e-04
  2.2120668e-04
 -2.4108685e-05
 -2.6993541e-04
 -2.1482459e-05
 -2.8473185e-04
  3.5976293e-05
  2.2500903e-05
  4.0138697e-05
 -1.7180189e-04
  4.7139361e-05
 -1.0730937e-04
  1.2019073e-04
 -1.9272681e+00
  6.8577261e-05
  1.2819505e-05
  7.6039905e-05
  1.2166318e-05
 -2.2135922e-05
  8.6790867e-05
 -2.4590711e-04
 -1.5138736e-05
  4.2999312e-04
  3.6743848e-05
  1.1153362e-05
 -2.0898458e-04
  1.7277208e-04
  2.9575289e-04
  4.5852303e-05
 -9.8782082e-05
  1.6232421e-05
  3.6336109e-04
 -1.8283248e-05
  1.7199274e-04
  2.3930725e-05
  6.9145070e-05
 -4.3235833e-04
  4.9264330e-05
  5.2086194e-05
 -6.5934779e-05
  8.6197666e-05
 -8.3841289e-05
 -1.2666556e-04
 -5.8121882e-06
  2.3871867e-04
  1.0910501e-04
  1.1323495e-04
 -1.1970464e-04
  1.3109903e-04
  1.5835048e-04
 -3.4128670e-06
  8.2978222e-06
 -8.9251168e-02
 -3.4918049e-01
 -1.2855592e-01
 -2.0767949e+00
 -6.5683551e-02
  1.5170278e-04
  4.6218018e-04
 -1.7127884e-04
  3.1613413e-04
 -1.0643754e-04
 -3.3685402e-04
  4.7885955e-05
 -6.5711099e-01
 -3.8096851e-01
 -2.3349686e-01
 -4.5306459e-01
 -2.2724831e-05
  7.1001850e-05
  2.1797934e-04
  1.7347307e-05
  3.5010111e-01
  1.4085211e-05
  4.7556631e-02
 -1.0680298e-03
  8.5029869e-06
  4.1836363e-04
  6.7986999e-05
 -9.4659172e-02
  2.8406553e-06
 -6.6799548e-04
 -7.2792339e-01
  2.4846601e-01
  5.5000246e-01
  3.1853458e-01
 -9.1742212e-03
 -1.5606043e-01
 -2.4287956e-05
  9.0989115e-04
 -1.9828105e-04
  1.9587223e-04
 -9.0829752e-02
  3.2653395e-02
 -8.0265842e-02
 -5.3536814e-02
 -9.1896880e-05
  7.8095560e-04
  2.8718121e-03
  7.9963766e-02
  7.6764198e-05
  5.3829163e-01
  9.2207149e-02
  2.3043943e-04
 -1.5732078e-01
  1.2992866e-01
  5.6605064e-04
  1.1643595e-01
 -4.7669149e-04
 -7.3482521e-02
 -2.6171893e-04
  2.6548084e-06
  2.8836143e-01
 -2.2908273e+00
 -1.1917999e+00
 -3.8063493e-01
  7.3701537e-01
  1.5694801e+00
  3.4301112e-05
 -1.6522841e-05
 -5.6048015e-05
 -1.6263106e-01
 -4.0913615e-01
 -1.0667869e-02
  1.0202631e+00
  5.3116601e-02
 -1.3963194e-01
 -2.9226673e-01
 -1.5016936e-03
  6.2260073e-02
 -3.7685990e-01
 -3.0919048e-01
 -4.2372864e-01
  2.0671873e-01
 -3.6026847e-01
 -9.8150901e-02
 -6.5448970e-02
 -4.8435457e-02
  5.2590288e-02
 -3.0950710e-01
 -2.7799726e-04
 -2.2055681e-01
 -5.1285446e-05
  7.9234767e-01
 -1.2201191e+00
  1.2109830e-04
  1.9309479e+00
 -1.3172007e-05
  1.9429406e-02
 -8.8215208e-01
 -1.4111148e-04
 -2.6189716e-04
  9.7163589e-05
  8.1002465e-05
 -3.0678543e-04
  3.7485039e-05
 -6.3895512e-01
 -5.7137644e-05
 -1.8109965e+00
  2.5125055e-04
 -7.6418903e-05
 -1.0029274e+00
 -1.8434411e-02
 -3.4147149e-04
  1.1156279e-04
  1.0444368e+00
 -1.5036204e-01
  7.0698698e-06
  7.5346732e-01
 -2.0534702e-04
 -1.5680269e-05
 -1.9685406e-06
 -2.0823001e-05
 -3.6146219e-05
 -1.0988733e-04
  3.0928054e-06
 -1.7898093e+00
  1.5355872e-05
  3.0906099e-01
 -3.4668379e-02
 -8.2457300e-05
  9.5464218e-01
 -4.5876106e-05
 -2.5364046e-04
  2.6717986e-04
  1.3831325e+00
 -6.4006417e-05
  1.6803034e-04
 -1.7438219e-04
 -9.1451863e-03
 -3.2013053e-01
 -3.6678767e-01
 -1.6288496e-04
 -8.3943117e-01
 -1.3840137e+00
 -2.5792302e-05
  6.2170446e-01
 -1.1433657e-04
 -4.9104589e-01
 -5.6648806e-02
  3.0706191e-01
  1.3440836e-04
 -1.5934790e-04
 -3.2156464e-08
 -1.1637738e-05
  3.4154815e-05
 -2.5601697e+00
  3.7928199e-04
 -7.1815735e-01
  7.9827085e-05
  6.1517116e-02
 -1.1645483e-01
 -5.4123461e-01
  3.7335649e-01
 -7.9669473e-05
 -6.4265221e-01
  8.9722657e-01
  4.5587018e-05
 -4.3870935e-01
 -2.6813846e-06
 -3.4147775e-05
  6.8029673e-03
  8.6028337e-02
  1.5333428e-05
  3.2292846e-01
 -1.9995177e-06
  4.0708512e-01
 -6.5473869e-02
 -4.4652787e-01
 -7.2015661e-01
 -2.6738094e-02
 -5.4795390e-01
  1.1412868e-04
  3.5074313e-06
 -3.6289459e-01
 -1.5222694e+00
 -1.5500902e-05
 -1.4164941e-04
  1.1077896e-05
 -4.2493752e-01
  8.2442647e-01
 -2.5956719e+00
 -4.2403964e-05
  1.4828621e-04
  5.3850810e-05
  8.0938720e-05
 -4.3098982e-02
 -2.8043454e-05
  1.1952749e-04
  9.1997140e-07
 -1.3218443e-04
  2.5334788e-05
  2.6519981e-05
  2.7875897e-01
 -7.3807481e-05
  5.5438741e-05
  2.0664229e-04
 -3.6338159e-05
  1.1120871e-01
  9.8226643e-05
 -4.0009036e-05
  2.7912689e-05
 -3.1282736e-05
 -3.3945550e-04
  2.7935997e-05
 -3.3171866e-05
  1.2309969e-04
  1.1444609e-04
 -5.0674786e-04
  1.2075252e-04
 -3.5582835e-04
 -2.4160348e-04
 -8.4702913e-03
  5.5990677e-02
 -3.5971522e-04
 -1.7218021e-04
  3.8638934e-02
  4.5172521e-05
  1.2285262e-01
 -5.6440414e-05
 -1.1220238e-05
 -7.5688600e-05
  1.7441694e-04
  7.5882073e-03
 -3.8745994e-04
  1.2858492e-02
  7.6958239e-02
 -1.7813689e-05
  9.5652789e-02
 -6.6227622e-06
 -2.7350278e-04
  1.3830524e-05
 -4.3391105e-06
 -3.5611770e-04
 -9.1067297e-05
 -5.4765807e-04
 -1.0346728e-04
  5.4481119e-05
 -2.0340569e-03
 -3.7351136e-05
 -1.1975701e-05
  1.9917014e-05
 -4.7106811e-01
 -5.1757816e-02
 -1.7904239e-03
  1.5794358e-01
  4.2351609e-01
  1.3490343e-01
 -1.1994514e-02
  6.4813800e-04
  1.9184608e-05
 -2.7806941e-02
 -1.9704526e-04
 -1.0519607e-01
  3.8837645e-02
 -2.0168895e-01
 -5.5041830e-03
 -1.4745579e-04
 -2.7165106e-01
 -4.3241587e-04
  5.4076542e-03
  1.2185250e-05
  3.4236116e-04
  1.1849432e-01
 -1.1083500e-04
  4.4417564e-02
  6.1616382e-05
  1.1876909e-05
  5.0456900e-05
 -2.7627585e-02
  8.5285775e-02
  4.1360945e-05
 -7.9676262e-05
  1.0693036e-05
  4.8294291e-02
  1.2290179e-04
 -1.2095156e+00
  1.1872724e-04
  1.4654736e-04
 -2.2535188e-04
  2.5782173e-02
 -7.5398378e-02
 -3.3150936e-05
 -3.0093479e-01
 -3.1673735e-05
  3.5050215e-04
  5.5440432e-06
 -1.0605987e-04
 -8.6909503e-02
  6.8947069e-05
 -1.8770252e-04
 -4.7311393e-04
  4.4715212e-05
 -1.1494401e-04
 -1.2596638e-04
 -2.3291004e-04
 -5.3366177e-05
 -1.6303484e-05
 -4.1806669e-04
 -6.2970175e-05
 -2.4999123e-05
  1.2971809e-04
 -2.1347882e-04
 -5.2538500e-05
 -5.7744008e-05
  1.7044955e-04
  7.3174146e-05
  2.9536322e-04
 -4.7207366e-05
  1.7615993e-04
 -9.0905116e-05
 -1.1820064e-04
 -9.1121416e-05
  4.2357813e-05
 -3.4705812e-05
 -3.1362358e-04
  1.3409559e-04
  3.5897703e-04
  2.5961705e-04
  2.7063868e-05
 -5.6430585e-05
 -1.2893970e-04
  9.3793686e-05
  6.4619984e-05
  5.9176880e-05
 -5.6228000e-05
  5.4357461e-05
 -1.1727797e-04
 -1.0908469e-04
 -2.3443321e-05
  1.0382788e-06
  1.2012805e-05
  4.8183785e-03
 -5.8861584e-03
  5.3133663e-05
  3.9215424e-06
  8.7134435e-04
  4.1247529e-07
  2.9300604e-04
  1.1154490e-04
 -1.8862628e-04
  1.1633151e-05
 -8.3953666e-05
  1.3429662e-05
  1.6750520e-03
 -1.0588053e-03
  2.1394664e-05
 -1.3729733e-04
 -5.1166701e-01
 -2.5923090e-04
 -2.4281253e-04
 -1.1210397e-04
  1.7524404e-04
  1.7485172e-04
 -3.1469510e-05
  5.9662259e-04
 -7.2005554e-05
  6.4577776e-05
  3.3868954e-04
  5.6083911e-05
  3.7605374e-04
  2.3136095e-05
 -1.7644343e+00
 -6.0910845e-01
  3.5895044e-01
 -2.3946490e-02
 -2.0560159e-01
  1.5773582e-01
 -1.8829976e+00
 -1.1592052e-03
 -1.1441187e+00
  1.2631193e-04
  5.0750667e-01
 -5.9893552e-02
 -8.5896099e-01
 -1.4617170e-01
  9.6788712e-02
  5.5527489e-05
 -1.0619156e-01
 -7.0494378e-01
 -1.3303487e-01
 -3.4440753e-01
 -3.4022829e-05
 -5.2166021e-01
 -2.0143380e-03
 -2.3968525e+00
 -2.0601794e-04
  1.8868204e-05
  6.8389930e-02
  2.8836005e-04
 -5.0793648e-01
 -2.1271679e-01
 -6.6576766e-05
 -2.0627253e-05
 -1.3543102e-05
 -3.5965763e-06
  3.4584102e-04
 -2.9099487e-05
  3.4027055e-04
  7.4380943e-05
 -3.3982229e-04
 -7.7762226e-05
  1.0739099e-04
  8.1969643e-05
  8.8881156e-05
  1.1507492e-06
 -5.8726124e-05
  5.9913632e-06
 -3.2840460e-05
 -8.8158253e-05
  2.9255205e-05
  4.1520613e-04
 -1.3364301e-04
 -1.3346672e-04
 -7.8226141e-05
  1.6991280e-04
  3.3171722e-04
  7.1583403e-05
  7.0710674e-05
 -2.0578854e-04
  2.5638710e-06
 -1.8290021e-04
  1.1453513e-04
  7.9119978e-05
  1.3403768e-04
  5.0345261e-05
 -9.3610442e-06
  4.9520215e-05
  1.1032489e-04
  7.1904666e-05
 -2.6411575e-04
 -1.1676783e-05
 -1.5499021e-04
 -6.6940121e-02
  4.9800874e-05
  6.3888561e-05
 -6.3999355e-06
  4.2625456e-05
  3.7649934e-06
 -1.1188543e-04
  2.3589144e-04
 -2.2232658e-05
 -8.2591405e-06
 -1.3438897e-05
  8.0703525e-05
 -5.4490909e-05
 -1.0920716e-04
  5.2427953e-05
 -5.7661021e-04
  2.5563768e-06
  2.6489522e-03
  1.2322482e-04
 -5.9101427e-01
  1.3482419e+00
  1.9170622e+00
  1.6442430e+00
  1.9788990e+00
 -7.5101638e-01
 -1.3630178e+00
 -7.1993476e-01
  1.2001556e-01
  1.4065985e-01
  1.8682310e-01
  8.9297973e-02
 -1.6042151e-01
 -5.1103532e-01
  1.0441378e-01
  1.2401830e-01
 -1.6512167e-01
 -1.6423932e-04
 -1.0574472e-04
  3.3258575e-01
 -3.7334030e-04
 -6.4237234e-03
 -7.6262382e-05
 -1.2446499e-01
  5.2001845e-04
 -9.9425903e-05
 -1.1346858e-01
  1.4816732e-04
 -9.0166770e-02
 -1.8234045e-03
 -1.6190657e-05
 -1.2169698e-04
 -6.8427296e-05
  1.7732168e-04
  5.7587553e-05
 -2.1336315e-04
  9.8381395e-05
  6.1574443e-05
  6.8212627e-05
 -6.8024317e-05
  2.2535938e-05
 -1.9013192e-04
 -6.1602536e-06
 -7.3612806e-05
 -1.6922268e-05
  5.7890400e-05
  4.7272337e-05
  2.6352940e-05
  6.0553528e-05
  8.7993329e-05
 -6.8275025e-05
  7.6058765e-05
 -4.5655714e-05
  1.2224512e-04
  6.3735628e-05
  1.1901619e-04
 -3.6602516e-05
 -5.7687680e-07
  2.2170586e-04
 -1.0801553e-04
  5.8927676e-03
 -3.0963451e-01
  6.9548398e-01
  1.3188826e-01
  9.1400248e-01
  3.2951826e-01
 -9.9798394e-03
  1.0688078e-01
 -2.6594579e-02
 -5.8967531e-01
 -2.4366402e-03
 -1.1726934e-01
  1.2282641e-03
 -6.1242428e-02
  1.8066201e-02
 -8.3481595e-02
  1.3305123e-01
 -2.4659490e-02
  2.0769567e-03
 -1.2028694e-01
  1.8415295e-03
  3.9979708e-03
  1.0815301e-04
  4.3653980e-02
 -1.3984413e-02
 -1.1418157e-02
  7.1063772e-02
  7.2984793e-03
  3.3310392e-01
 -9.2589129e-03
 -1.4543910e-04
 -3.6486992e-05
 -1.9662894e-04
 -3.8071754e-05
  1.2479634e-04
 -8.8280511e-05
 -3.3941891e-05
  4.0506144e-05
 -1.7003396e-05
  4.8456423e-05
 -1.2844942e-04
  1.9265601e-04
  6.0308193e-05
 -5.5738201e-05
  2.6942091e-04
 -4.7039037e-05
 -2.1637029e-04
  4.2250711e-05
  4.1389831e-06
  3.7433230e-05
  2.2103812e-05
 -5.1337760e-05
  1.7159160e-05
 -1.7698098e-05
 -5.6965659e-05
  3.1671225e-05
  1.2990060e-04
 -3.8869161e-04
 -1.4805578e-05
  3.8152735e-04
 -1.4746461e-04
  1.7210921e-04
  4.1399246e-05
  7.7526856e-05
 -2.1132178e-04
  2.3122429e-04
 -9.3838280e-05
  1.5097744e-04
  6.3671789e-05
 -1.5651417e-04
 -1.8844960e-04
  2.4310169e-05
 -3.0470379e-05
 -6.6368259e-05
 -6.8148394e-05
 -6.2171537e-05
  4.3399985e-05
 -3.9752347e-05
  1.8172101e-05
 -8.8205225e-06
 -2.2960237e-05
 -1.3735874e-04
  1.2427781e-04
 -4.6901838e-05
 -3.1629365e-04
  1.0804913e-04
 -2.5981652e-05
  1.7021170e-05
  8.5434440e-05
 -1.9607505e-04
 -4.8346908e-05
  5.6241895e-04
 -4.5687947e-04
  9.7589344e-02
  1.8122592e+00
 -7.6101592e-04
  9.3818791e-03
  2.0979892e-06
  3.9396138e-05
  6.5053915e-05
 -5.1356084e-04
 -1.6196938e-01
 -1.3823590e-05
  1.3325109e-01
 -4.1851570e-05
  1.9818274e-04
 -8.1417440e-03
  7.9074857e-04
 -1.5817354e-04
  4.6623059e-05
 -1.6285463e-04
  7.5095850e-05
  1.4570927e-06
  2.4134841e-05
  2.0765238e-04
 -5.8765261e-05
 -5.7715997e-02
  8.7980525e-06
  1.1778850e-05
  2.8222269e-06
 -4.8524431e-05
 -1.1592279e-03
  5.0777842e-05
 -2.6686031e-02
  3.3622134e-01
  1.0717919e-04
  1.1401818e-04
  9.6085496e-05
 -3.0556382e-04
 -1.1899788e-04
 -1.2100075e-04
 -1.0994565e-03
  1.0873013e-04
  6.2893465e-04
  1.9892714e+00
  6.7233545e-05
  2.8844663e-05
 -1.8508518e-04
 -9.9006713e-05
 -1.3464403e-04
  3.7707930e-05
 -1.5523888e-06
 -5.4015585e-05
 -8.0511048e-02
 -5.4983451e-05
  1.1378751e-04
  2.4324407e-04
 -1.8205812e-05
  4.4172972e-05
  9.5128999e-05
  1.3358767e-05
  1.3880985e-04
 -2.7615348e-05
  7.5946089e-05
 -7.0260867e-05
 -9.9865701e-06
 -1.9088130e-04
  1.1861364e-04
  1.1900180e-04
 -3.8299109e-05
  1.8003921e-05
 -2.0284603e-04
  1.2192752e-04
  1.8771460e-04
  3.0360528e-04
  9.8481847e-05
  1.1912877e-04
 -2.8689086e-04
 -1.8258250e-05
 -3.4110977e-05
 -1.0583016e-04
  8.5593572e-05
  2.1458125e-04
 -7.7674216e-05
 -7.1240756e-05
 -1.4574862e-04
 -5.3411575e-05
 -1.3086424e-04
 -1.3180085e-05
  8.8962943e-06
  5.6589037e-02
 -1.5191023e-01
 -1.7608015e-04
  6.1171478e-01
  4.2234775e-01
 -7.5882941e-05
 -3.9527693e-01
  5.5799243e-04
 -1.4871398e-01
 -6.7590964e-03
 -1.8236296e-02
 -1.5434397e-02
  2.2504092e-03
 -2.8538385e-02
 -7.9831327e-05
 -7.8544598e-03
 -4.5103263e-02
 -5.4623064e-04
  1.1753362e-04
  1.2468363e-05
  3.7994461e-05
  5.0939526e-02
  2.0128174e-04
  1.7027041e-02
 -1.3499352e-03
 -4.4004279e-05
 -2.0929173e-01
  1.7789948e-04
  1.5309374e-04
 -1.5489560e-03
  1.4778791e-03
 -1.6937148e-02
  2.4644989e-05
  4.5434598e-04
  4.9139018e-04
  2.2941435e-04
 -2.8942968e-03
  4.2372951e-05
  4.4577861e-05
 -3.4389214e-04
 -5.0708462e-05
  1.0413438e-01
  2.3906367e-04
 -5.9981630e-06
  2.4964120e-05
 -7.5706150e-05
 -6.0933586e-03
 -7.5187517e-04
 -3.3731234e-05
 -4.0493953e-05
 -6.5576292e-05
 -1.3375215e-04
 -2.3494536e-05
  2.9977676e-04
 -1.7161641e-05
  2.5021585e-04
  8.4367103e-04
  1.2484449e-03
  1.8493435e-04
 -2.6728216e-04
 -1.8301921e-02
  1.3379277e-04
  2.1844832e-04
 -2.3123825e-06
 -1.3265643e-05
 -1.0728365e-04
  1.6975944e-04
 -1.4185453e-04
 -3.0476399e-04
 -1.6129650e-04
 -7.6430748e-05
  1.1154322e-01
 -2.7129560e-04
  6.8432360e-04
  1.5666563e-05
 -9.8524179e-05
  2.3583094e-02
  9.8669102e-07
 -9.2048940e-05
 -5.6943238e-05
 -2.0651898e-04
 -1.8349648e-04
  1.4250144e-05
 -2.7990597e-04
  5.8090554e-05
 -1.0128193e-04
 -1.4201114e-04
 -1.4618266e-04
 -1.5394318e-04
  3.3596548e-04
  4.8967926e-05
  2.3374753e-04
  2.8138851e-05
 -7.0887647e-05
 -3.9814323e-01
 -9.0850866e-05
  8.7815417e-05
 -7.1710834e-05
  3.4447346e-04
 -3.3088299e-04
 -4.8268332e-05
 -1.6871594e-06
 -4.0016745e-05
  2.5027366e-05
 -1.3527714e-04
 -3.8455095e-05
  6.7807573e-06
 -7.1349327e-06
  7.6782244e-06
  8.6525943e-05
 -8.7088891e-05
 -6.2134862e-04
 -2.7153856e-04
 -3.3841501e-05
 -8.5140535e-05
 -8.2488485e-05
  1.4148501e-04
 -3.4493132e-05
 -2.1093238e-04
  2.2708364e-05
 -2.7959391e-05
 -9.8386306e-05
 -4.1652438e-05
 -5.0825918e-05
  1.5646321e-05
 -1.2643877e-04
  2.7358024e-05
 -8.2903076e-05
 -5.4271040e-05
  5.3336564e-05
 -4.1879579e-05
  5.6272340e-05
 -1.0432764e-04
  4.5405639e-05
  9.2005495e-05
  1.3269139e-05
 -8.5684289e-05
 -1.9995969e-05
  1.4836251e-04
  1.1948077e-04
 -8.0568934e-05
 -1.9858270e-04
  2.1106568e-04
 -4.1608611e-05
  1.2630186e-04
  1.8662642e-04
 -2.0777898e-04
  3.5697987e-05
  7.4805961e-05
 -1.1632356e-05
  8.2395558e-04
 -3.0732898e-03
 -6.4383554e-01
  3.4026673e-01
 -3.5967946e-01
  4.2014857e-05
 -1.8112141e-01
  5.2289764e-04
 -1.7437949e-04
 -2.4706875e-05
  2.6943495e-05
 -2.9366884e-01
  2.5386074e-01
 -3.7660109e-04
 -1.7794475e-03
 -3.0465018e-05
 -3.9317543e-04
 -1.6725405e-04
  5.3375257e-05
 -7.8854886e-05
  1.0653381e-04
  1.3213964e-04
  8.9505529e-06
  1.6586744e-03
 -9.5126132e-05
 -4.0022074e-04
  2.2347448e-02
  1.1067435e-05
  9.0068686e-05
 -3.2256723e-06
 -1.9030547e-05
 -4.1585942e-04
  2.3985578e-05
  8.4799845e-05
  2.3305283e-05
  3.3423563e-05
 -7.5652693e-05
  5.7074914e-05
 -5.0551071e-06
  2.3750725e-04
  6.1541847e-05
  4.5748144e-05
  2.8968303e-04
  4.3999259e-07
 -1.1031270e-04
  5.8962953e-05
 -2.0859767e-05
  1.8955168e-05
 -9.0812959e-05
 -5.0940940e-05
  3.3934870e-05
 -1.7589433e-04
  4.7372760e-05
  1.3465807e-04
 -1.7793289e-04
  8.9533969e-05
  8.5923944e-05
 -6.7083623e-05
 -3.2093030e-05
  2.5845933e-05
  2.6462681e-04
 -2.0294245e-05
 -6.5948101e-05
 -2.2115864e-04
 -4.6464065e-04
 -4.2805096e-04
  7.1419148e-05
 -1.0284042e-04
  9.8340615e-06
  1.6299219e-04
  7.7714307e-05
  4.3668184e-05
 -3.8751492e-05
  1.3189543e-04
  7.4525378e-06
 -6.6658953e-07
  1.7171238e-04
 -8.3338629e-05
 -1.2011640e-04
 -1.9295741e-05
 -7.2966228e-05
 -9.0964051e-05
  4.4587730e-05
  4.9624734e-05
 -1.2655783e-04
 -2.7117951e-04
  9.1636932e-05
  1.5078393e-04
 -1.9089570e-05
  1.0538213e-04
 -6.2112308e-01
  7.7321261e-01
  2.2584140e-01
 -9.8531991e-02
  1.1012454e-01
 -2.7674606e-01
  1.3725977e-01
 -2.6887831e-01
  1.0748117e-01
  3.3080074e-01
  3.0167803e-01
  8.4974182e-01
 -9.8133557e-02
  2.0712902e-01
  9.8490529e-04
  5.1719959e-05
  5.7630055e-02
  1.4020866e+00
  3.3572372e-02
  1.2338772e-01
 -2.3093284e-03
  2.0470986e-01
 -1.3240062e-01
 -1.8604456e-03
  2.1242987e-02
  1.5235075e-01
  7.4228771e-02
  1.8843436e-01
  5.6203872e-01
  8.3853593e-03
  9.2543167e-05
 -4.4501369e-04
 -1.0813733e-04
  8.7372325e-03
 -8.2128528e-05
 -3.5350543e-04
 -5.7525587e-05
 -3.3314238e-05
 -7.8637808e-05
 -2.6804064e-05
  1.1044216e-04
 -1.5080832e-01
  1.6618731e-05
 -5.6497151e-01
 -2.0193159e-04
  1.1132925e-05
 -2.5670126e-06
  3.8910806e-05
  7.9902502e-06
 -1.8033195e-04
  2.9469299e-04
 -2.7556266e-06
  5.7377019e-05
  1.6921323e-03
 -1.0532590e-04
  1.4059221e-04
  2.1329231e-03
  2.3087581e-04
  1.4875864e-04
  6.6799366e-05
 -1.5707687e-05
 -2.1453738e-05
  7.8753401e-05
 -7.0499113e-06
  1.9153881e-04
  2.4038192e-04
  7.3349140e-05
  1.7342878e-05
 -1.7932167e-05
  3.2610173e-05
  4.0581784e+00
 -9.9922123e-05
 -1.3664548e-04
 -1.6985674e-05
  1.8749939e-04
 -1.1683100e-04
 -1.7922293e-04
 -7.1190640e-05
 -6.5021544e-05
  1.8133686e-04
  7.7430614e-06
 -4.2097839e-05
 -1.1608666e-04
 -2.5420281e-04
  3.3578934e-05
 -7.3845126e-06
 -3.2576773e-07
  1.7198414e-05
 -2.2074684e-04
 -1.4797732e-04
  8.2999629e-01
 -4.2235401e-01
 -1.4846783e+00
 -5.9080160e-01
 -1.7190092e+00
  2.7157834e-01
  7.8289002e-01
  2.7995056e-01
  8.2746857e-01
 -1.6265093e-01
 -3.8544348e-01
 -1.6355818e-02
  1.9925235e-01
 -8.0093918e-03
  1.1403837e-02
 -1.6515811e-05
 -2.7472886e-01
  7.8039717e-05
  3.4835732e-03
 -2.2557231e-05
  3.0665740e-04
  5.7496496e-02
  2.3301948e-04
  5.0576208e-03
 -5.1420979e-04
  6.7826171e-05
 -2.4722293e-01
  4.2690671e-04
  2.8156233e-01
 -9.9363417e-05
 -1.3532458e-01
  9.9176353e-01
 -2.3829575e+00
 -4.8638849e+00
 -1.5737336e+00
  5.7376635e-01
  2.5107098e+00
  4.0295810e-01
  1.0647755e-01
 -7.3560596e-01
  5.3861029e-02
  8.2895637e-01
  6.9322175e-01
 -1.4653218e-04
 -6.1378431e-01
 -1.6261584e-01
  1.5056845e+00
 -2.2648146e-02
 -3.6492184e-04
 -1.0652292e-01
  1.7189841e-04
  6.1921079e-02
 -7.9201354e-04
  1.3797359e-01
  5.0320930e-04
  4.7121267e-03
  3.2895499e-01
 -1.3229696e-01
  2.0175090e-01
  2.9289728e-01
 -9.1059104e-05
  3.4655823e-04
  2.1853644e-05
 -1.4180058e-04
 -1.4893013e-05
 -1.1521537e-05
  7.0998525e-05
  4.1691565e-05
  6.8642963e-05
 -2.0130322e-04
  6.8476998e-06
  1.4276969e-01
 -2.8315248e-05
 -1.7646262e-04
 -2.6634274e-04
  3.6656830e-04
  1.3008335e-01
 -9.3206880e-05
 -1.5344984e-04
  2.8164479e-05
 -1.0466994e-04
 -4.0025458e-05
  8.4288040e-06
 -2.7249119e-04
  1.1152309e-04
  3.7039506e-05
 -7.4329369e-06
  2.0937970e-05
 -3.7399124e-04
 -5.3271924e-05
  1.0341171e-04
 -8.0602631e-02
 -2.8592160e+00
 -3.5353899e+00
 -6.0520667e-01
  3.6156622e-01
  1.1475508e-03
  1.4355461e-03
 -6.5982765e-01
 -3.0414999e-02
 -2.9802790e-03
 -7.9943395e-01
  1.2244660e+00
 -2.3144349e-01
 -9.8091537e-01
  4.0648915e-06
  7.6404440e-01
 -8.7241188e-02
  9.6576005e-05
 -5.4586951e-02
  5.5230141e-04
  1.1642261e+00
  3.2492371e-05
  2.3689243e-04
 -1.8968873e-04
  5.0679195e-05
  2.0272809e-01
  4.5055792e-01
  4.7247403e-04
  3.4092656e-05
 -1.5360188e-03
  5.7884181e-01
 -2.0841384e+00
  1.8083415e+00
 -1.5031615e-01
  4.8240218e-01
 -4.1033062e-01
  1.2034411e-04
  1.2153941e-04
  1.3900240e-04
  1.3273957e-04
  8.8142765e-01
  8.9115752e-03
 -4.4452804e-03
 -9.7906426e-02
  3.9899318e-05
  4.1813537e-01
  4.6106490e-01
 -1.0671675e-04
 -1.1932482e-04
 -3.0800958e-05
  3.9610934e-02
  2.7170677e-03
  1.0401346e-04
 -5.5106630e-04
  3.9514001e-05
 -1.2020219e-01
 -4.0973187e-03
 -6.8044191e-04
 -4.4085036e-04
  6.0980030e-05
  1.4081922e-04
 -4.3147775e-06
  8.6941409e-06
  3.7445399e-04
  8.8592613e-05
  1.0137288e-05
  1.7947091e-04
 -6.9179723e-06
 -2.9509971e-05
  3.4693796e-05
 -1.7569129e-05
 -4.6031790e-05
 -5.8892893e-04
 -5.4109703e-05
  1.8281570e-04
  3.3853335e-05
 -2.3614079e-05
  2.2998339e-04
 -2.9607775e-04
  4.8161292e-01
 -1.5300593e-05
  2.0761299e-06
  1.6523786e-04
  8.9698888e-06
 -1.1225250e-05
  6.1969709e-05
 -3.5733148e-04
 -1.4176522e-04
 -2.3331521e-04
  9.2318027e-05
  3.9218827e-05
  1.0885810e-04
 -2.0240509e-04
 -1.8397002e-05
 -1.4827189e-05
  2.5927828e-05
 -4.5503275e-05
 -1.4139465e-05
 -1.0667460e-04
 -5.2043501e-06
  5.2562612e-04
 -1.1741905e-04
 -8.5596275e-06
 -4.9384944e-05
 -7.7949138e-05
  2.9383891e-06
 -3.4797809e-05
  7.7440622e-05
  1.7038480e-04
 -9.4803509e-05
  1.3594468e-04
  1.0828312e-04
 -2.6760212e-05
  7.5938224e-05
 -2.1496457e-05
 -3.6120466e-05
  4.2545314e-05
 -2.3813345e-05
  2.8786297e-05
 -2.7501008e-01
  1.3622719e-01
  2.3978010e-04
 -3.4619488e-03
 -1.5692408e-01
 -8.9977766e-05
  1.4313020e-01
 -6.8256498e-04
  1.1805216e-02
  1.0398552e-04
  4.6173097e-03
 -2.9064047e-01
 -6.9855846e-04
  1.2958041e-01
  1.1886073e-04
 -1.3064595e-04
  4.5134765e-01
  1.1842526e-04
  5.6613248e-05
  1.5963595e-04
 -5.7500362e-04
  4.9954538e-06
 -3.2995647e-04
 -4.1328484e-04
 -4.8829377e-05
  1.0492092e-04
 -1.3421058e-03
  1.0615613e-04
 -2.2758303e-04
  6.1087293e-04
  1.3322490e-02
 -4.0065511e-03
 -7.2817326e-02
  1.0743942e-01
  2.4405485e-03
 -1.5655461e-04
 -3.6425151e-02
  7.1344191e-05
 -2.2183762e-05
 -2.3868794e-04
 -3.7225542e-04
 -2.6336967e-04
 -4.9652642e-01
 -1.0259846e-03
 -1.1106527e-04
 -7.1254425e-04
 -1.0711893e-02
 -3.5568042e-05
  5.0424068e-04
 -5.3463697e-05
  2.4081104e-05
  4.7713223e-05
 -1.1753140e-04
  1.4347857e-03
 -2.0300477e-05
 -3.0550070e-04
  1.6357594e-04
  1.4609165e-04
 -2.3978550e-04
 -1.5801526e-04
 -1.2910317e-04
  6.9698770e-05
  9.1341062e-05
 -1.4492463e-01
 -2.5789539e-05
  6.9269743e-05
 -6.3525003e-05
 -3.3246542e-05
  5.2451314e-06
  1.3111220e-04
  8.8213157e-05
  1.1474336e-02
  2.6793455e-04
  2.7685842e-06
 -1.1402292e-04
 -1.3767398e-04
  3.2166310e-02
 -6.3600404e-05
 -1.0480367e-05
  8.3938176e-05
 -9.5361589e-05
 -5.3475938e-05
  2.9897907e-05
 -4.0484589e-04
  9.9160738e-05
 -1.3167986e-04
 -3.0992460e-04
 -4.7556558e-05
 -9.1530974e-06
  4.9602779e-05
 -3.4958130e-01
  3.7368746e-03
  2.2575133e-01
 -8.4981495e-01
 -2.4478005e-01
  3.9397783e-04
  3.2173118e-01
  9.9404497e-05
 -6.2041290e-05
  1.0407411e-04
  1.8989509e-04
  8.0730134e-01
 -3.0592824e-03
  9.7172568e-05
  1.3233912e-06
  3.0020856e-05
  5.2169096e-01
 -1.3275619e-04
  1.1972849e-04
 -4.6430971e-05
  2.1342053e-04
 -1.5704184e-04
 -2.0954471e-04
 -3.0291485e-04
  5.8718313e-05
  3.0139725e-05
  1.4047927e-04
 -4.7611858e-04
  5.2496290e-07
 -6.7204375e-05
 -4.0748273e-05
  6.9560017e-05
 -8.4487801e-05
  7.4687810e-06
 -1.4414461e+00
  2.6592714e-04
 -3.9326998e-05
 -2.7494973e-05
  9.4387768e-05
 -3.1731539e-05
  6.1295206e-05
  2.8056074e-05
  1.9227831e-04
  9.2151422e-05
  7.5549047e-05
 -5.8522739e-05
 -1.5519922e-04
 -1.0582778e-04
 -1.7004788e-05
  5.4852437e-05
 -1.3528704e-05
 -5.2385742e-05
 -2.0369368e-06
  1.9284058e-05
 -6.0864324e-05
  3.2146731e-06
  1.1493615e-05
 -1.5241165e-05
  4.1897580e-05
 -5.9747279e-05
  2.9106712e-01
 -4.6723004e-02
  1.0992038e+00
  1.9823830e-01
  9.9363649e-01
  1.1346370e+00
 -1.0144358e-01
  4.7958158e-02
 -5.1844839e-02
 -2.0675905e-01
 -3.4652323e-02
  1.2449493e+00
 -1.6986742e-04
 -1.3966438e-01
  2.8282044e-02
 -6.7120607e-05
 -2.1382852e-03
  3.9999661e-04
 -3.9785174e-01
  2.8126962e-05
  7.5311822e-05
  5.5155985e-02
  3.1117754e-04
  3.8801274e-05
 -1.4712679e-04
  5.4736552e-06
 -1.0233872e-01
 -2.1676219e-01
  5.1862346e-05
 -1.1159245e-02
 -2.7869545e-02
  1.0975934e-02
  1.8703848e-01
 -6.0910086e-05
 -2.8387015e-03
  7.0222988e-05
  1.3300774e-01
  1.1667924e-04
 -4.0540926e-04
 -1.4419218e-04
  6.0229225e-04
 -7.9269357e-02
  2.0850202e-01
  3.2866449e-04
  2.7017741e-05
  3.3609709e-04
  2.4590001e-03
 -7.0019555e-06
  1.3473978e-04
 -2.5535445e-04
 -6.0641345e-05
  2.2094566e-05
 -8.4740004e-06
  1.8657276e-05
  1.4854978e-04
  8.6515531e-05
 -5.3359132e-02
 -2.0146277e-04
 -2.4072813e-04
 -3.8932365e-05
  6.1118291e-05
  2.9106734e-05
  2.3698965e-04
 -3.3726916e-04
 -2.7952995e-04
  6.4369240e-05
 -1.5183866e+00
 -1.4923682e-04
 -3.0589101e-05
 -2.5022417e-05
  3.6957019e-05
  1.8269313e-02
 -1.4583244e-04
 -2.1126880e-06
  8.7057080e-05
 -2.0773589e-04
  1.3973576e-01
  8.8059562e-05
 -1.5506227e-04
 -1.5464409e-04
  3.9850283e-06
  1.2282659e-04
 -6.7888330e-05
  2.5298644e-04
  1.3461544e-05
 -1.0470334e-04
  1.6982283e-04
 -2.4756943e-04
 -6.8579684e-05
  2.2163341e-04
 -4.9624000e-06
  1.1422886e-04
 -9.6535092e-05
  1.2089185e-04
 -9.3547118e-05
 -3.2721979e-05
 -1.1017294e-04
  4.5540197e-05
  1.8906804e-04
 -1.4403697e-05
 -2.2115927e-04
 -5.3062548e-05
  3.9712231e-05
 -9.3955525e-05
 -4.1296967e-06
  5.2018731e-05
  6.8829613e-05
  4.6853755e-05
  6.6473044e-06
  1.3970069e-05
 -1.1227106e-05
  1.4186079e-04
 -2.0289251e-04
 -5.3895910e-06
 -2.5302103e-05
  1.2422145e-04
  2.5349722e-04
 -1.7543320e-04
  4.7093050e-05
  1.7699900e-04
  4.5173743e-01
  3.8010481e-01
 -3.0482314e+00
 -1.1609333e+00
 -3.3152455e-01
  2.4124150e-01
  8.2128584e-01
  1.2147515e-01
  3.1632945e-01
 -5.9844559e-01
  2.8767423e-05
  4.9052569e-01
  3.1156889e-01
 -1.4548533e-01
  1.7438130e-04
 -1.7976154e-01
  4.1053453e-01
 -8.7695456e-01
 -2.5082584e-03
 -4.4010144e-01
  1.7440945e-04
 -3.6384902e-04
 -5.5265659e-04
  2.3880250e-04
 -4.8412829e-05
 -1.1413264e-04
  9.1434695e-02
  9.9027355e-05
  5.5574950e-05
  3.1974376e-04
 -2.3069147e-03
  6.0939681e-02
 -4.1010961e-04
 -1.6778675e-05
 -1.6242787e-04
  1.1751470e-04
  1.1909446e-04
 -1.2176089e-04
  2.6636003e-04
 -8.3206696e-06
  5.1928317e-05
  2.3437969e-03
 -8.2385127e-04
  2.1697940e-01
 -4.0581326e-05
  1.8253611e-05
  2.1775085e-01
  1.6712870e-04
  1.3772312e-04
 -1.0103447e-04
 -1.3082016e-04
 -9.9492172e-06
 -2.0993978e-04
 -7.2643386e-05
  1.8486439e-04
 -1.0670970e-04
 -5.4561100e-05
  7.6986253e-06
 -8.9751666e-07
  1.4982610e-04
 -2.3678735e-04
  1.2291859e-02
 -4.0704444e-01
 -2.5505438e-01
  6.1485475e-01
  4.9152834e-05
  3.3138940e-01
 -6.5758836e-04
  5.5855118e-05
  3.6085719e-05
  2.5745329e-01
 -1.8601207e-01
 -3.8689242e-03
  7.5212010e-04
  1.0217764e-04
  7.2982068e-05
  7.3266543e-02
  1.2804265e-04
 -7.7195215e-04
  7.3167888e-05
  6.8742243e-05
 -1.9445613e-05
 -1.4792300e-05
 -4.6750205e-04
  4.3536507e-04
  1.0385897e-05
 -1.7776017e-03
  2.5366673e-05
 -2.4066275e-04
  3.5817097e-06
 -3.9776557e-04
 -1.5138071e-04
  1.3229738e-04
  2.3918848e-04
  1.6725520e-04
  8.8511864e-05
 -2.1722093e-05
 -1.6912323e-04
  4.4271525e-05
 -1.4313868e-04
  1.4297124e-04
  1.2696879e-04
 -3.5823057e-05
 -5.7244568e-05
 -1.1994837e-04
  1.9898752e-04
 -2.7452913e-06
  6.5381726e-05
 -1.0601604e-04
  1.0626996e-05
 -5.2787920e-05
  4.7889138e-05
  8.6122825e-05
  2.9374895e-04
  1.1827597e-05
  3.5462661e-05
  3.0175030e-05
 -5.9836500e-05
 -7.2557727e-05
 -3.7330774e-05
 -1.8473552e-04
  5.9506256e-06
  6.7358080e-05
 -1.3354069e-04
 -5.5327309e-06
  1.8451022e-04
  5.6783739e-04
 -3.9351762e-05
  7.1038281e-05
 -2.5626878e-06
  2.9268523e-04
  1.6440533e-02
 -3.6771344e-05
  5.9195887e-04
 -1.3345564e-04
 -3.5746303e-05
  1.0331332e-04
  1.7626335e-04
 -1.6943183e-04
 -1.4735760e-04
  1.3928872e-05
  1.3778095e-05
 -6.1429513e-05
 -3.0537693e-05
  4.2355218e-04
  4.7684266e-04
 -3.3414131e-04
 -2.1137275e-06
 -8.4843625e-05
 -2.9638808e-04
  4.3338736e-05
 -2.6304851e-04
  1.2765187e-04
 -1.5720454e-05
 -7.8328667e-05
  9.1240181e-06
  6.1159568e-05
 -2.3157214e-05
 -4.9767579e-05
 -4.2217653e-05
  7.4123185e-05
 -1.8240757e-05
  1.9773314e-04
 -1.0609442e-04
 -2.1111233e-05
  3.6100930e-05
  3.8577596e-06
  1.5879258e-04
  2.6378166e-05
 -7.1344140e-05
 -8.4125997e-05
  5.8407179e-05
 -7.8574274e-05
 -7.3234180e-05
  1.3792860e-05
 -7.2428826e-05
 -6.8936999e-05
 -2.9380832e-05
  3.1493018e-05
 -3.2377103e-04
  1.5704754e-05
  3.0638845e-04
  1.0753037e+00
  4.1022024e-04
  1.8586195e-04
 -2.8551633e-05
 -1.1447614e+00
  2.3205503e-05
  2.6317028e-05
  8.5323518e-03
  2.1837639e-04
 -4.1791263e-01
  5.1719191e-05
  1.2484456e-04
 -3.9041591e-01
  7.2687075e-02
 -2.4916392e-06
 -5.7681027e-05
 -9.3120580e-05
 -5.0278741e-05
  9.1187416e-05
 -4.0051807e-05
  5.2095068e-01
  4.1870665e-02
 -1.2396410e-04
  1.0322758e+00
 -5.9210729e-02
 -1.3509626e-04
  4.8715702e-01
 -9.0999061e-01
  2.0020586e-04
 -7.7264148e-01
  3.5000074e+00
  1.0129915e-04
 -2.5519766e-05
 -9.4888237e-05
 -2.4756524e-05
  2.2702663e-05
  2.9404338e-03
 -1.7238312e-05
  7.3865667e-02
 -6.7448694e-01
 -2.2714717e-05
 -1.5090723e-05
 -2.7577847e-01
  1.2488903e-04
  2.5289094e-02
 -5.1466122e-02
 -1.6914938e-04
 -6.0128470e-05
  1.3089059e-01
  2.5951102e-01
 -1.4480891e+00
  2.2941186e-01
 -1.0719100e-04
 -2.2850718e-01
 -6.8920195e-01
 -3.7381239e-02
 -2.6151167e-05
  1.4284177e+00
 -8.7738561e-05
 -1.3487589e+00
  1.2979230e-02
  4.8330337e-05
  4.3676233e-01
 -1.3820623e-01
 -1.6205853e-05
 -5.1533228e-01
 -2.6541463e-01
  1.8175709e-01
  7.2200850e-02
  1.0017407e-04
 -3.1415153e-01
  2.1537749e-06
  7.9173781e-02
  8.6895275e-01
 -2.4511340e-01
  1.3606395e-03
 -7.5355208e-01
 -7.1984220e-01
  1.5186867e-01
 -3.0245695e-01
 -3.2705081e-01
 -9.1267930e-04
  1.2960164e-04
  3.6762762e-01
 -3.2129610e-01
  1.5442130e-01
  2.1312110e-01
  1.0394735e-03
 -7.9501647e-01
  3.8734061e-01
  8.9943394e-02
  7.8210200e-05
 -1.1604298e+00
  2.5175354e-01
  3.7521255e-01
  2.6804797e-02
  1.0371433e-01
 -4.6266898e-05
  5.5315323e+00
  7.8301823e-01
  3.3853441e-01
  3.2596223e+00
  1.1931205e+00
 -6.6070086e-01
  5.9975177e-01
 -7.3657221e-01
 -1.2325243e-02
  8.4148437e-02
  1.4453387e-04
 -2.6056027e-02
 -3.5278201e-01
  8.1149697e-01
  2.8900828e-05
 -4.9406732e-04
 -1.8636607e-05
 -6.8982708e-06
  9.1138390e-05
 -7.6040309e-03
  6.9829255e-01
  1.0272068e+00
 -2.5088474e-01
  7.3565039e-05
  3.9518914e-01
 -7.6250821e-02
  6.4393724e-05
  3.4299177e-05
  9.3367565e-01
 -1.7308640e-04
 -2.9242599e-01
 -4.6165463e-01
  9.0087807e-01
  2.7508047e-01
 -2.2973061e+00
 -1.9393647e-02
  1.5204933e-02
  4.6682215e-01
 -1.4549927e+00
 -2.1490211e+00
  2.8916814e+00
 -9.4272073e-05
  3.0590767e-01
  1.9213294e+00
 -2.9208844e-05
  2.8203952e-04
  2.1232481e+00
  6.8662735e-04
 -1.1415645e+00
 -1.0863189e-01
 -2.4855301e-05
 -8.7000579e-01
 -9.3020059e-02
 -4.6071094e-02
 -4.3972337e-01
 -1.5195204e+00
  9.0080339e-01
 -2.7326018e-02
  3.7006576e+00
 -3.9035699e-01
 -2.6371768e-01
 -6.6193038e-01
 -2.6370038e-03
  6.9547123e-01
  1.0863500e+00
 -3.9845150e+00
  5.3738821e-02
  5.9930902e+00
 -5.4423297e-05
 -1.4127229e+00
 -2.8038967e-01
 -8.1421556e-03
  7.1200889e-01
  1.8581787e+00
  3.9460433e-01
 -1.1226018e-01
 -1.6532789e-01
 -4.2060930e-02
  1.1526963e+00
 -1.1539260e-01
 -9.8423345e-04
 -5.3713197e-01
 -2.4178429e-01
  2.4593041e+00
  7.3839700e-01
  1.8692058e-01
  1.3893372e+00
 -1.7572594e-01
  9.8366153e-01
  2.0069472e-01
 -6.0582068e-05
 -1.0898829e+00
  8.6092669e-01
  8.7348258e-01
 -1.5691494e+00
 -1.1587164e-05
  1.7355066e-03
 -4.1903793e-05
 -2.0058891e-04
 -2.6107762e-05
  4.3578768e+00
 -1.8447497e+00
  1.2611473e+00
  6.5915239e-01
 -6.6931593e-01
 -2.6948905e+00
  7.1468122e-02
 -1.3523225e-03
  4.0612173e-05
 -2.1999743e+00
  1.2369267e+00
  4.5316729e-01
  2.3502059e+00
 -3.6965158e-02
 -1.7761273e+00
  5.3875786e-01
  1.0433666e-01
  6.7809689e-01
 -1.4700104e+00
  6.8025553e-01
  3.7822890e-01
 -1.3069125e-01
 -1.6678379e-01
  2.7544880e-01
  3.9497811e-01
  8.1294595e-05
 -1.8837328e-04
  2.3895624e+00
 -8.0699229e-01
 -4.8273450e-01
  1.0277504e-01
 -7.9783636e-01
 -2.0425539e+00
 -3.1668963e-04
 -1.7812322e-03
  1.0389355e-01
  3.3249387e-01
 -2.9575536e-01
  2.2286706e+00
  9.0936445e-02
 -1.9589800e-01
  4.6108410e-02
  2.1172650e-01
 -1.6643568e-04
 -1.5168593e+00
 -2.0043414e+00
 -6.3405639e-01
  1.8968509e+00
  5.2293390e-01
 -9.5824045e-01
  2.0353766e-01
  4.4814968e-01
  8.0073820e-03
  8.4264213e-03
 -2.3010659e-01
  2.1536286e+00
  4.7050929e-01
  7.3492992e-01
 -1.2458745e+00
 -1.5909501e+00
 -3.2940224e-01
 -5.7580420e-03
  3.5412064e-01
  5.5512147e+00
 -6.2960488e-01
 -2.4003639e+00
  2.0517610e-02
 -8.7714303e-01
  3.8126516e+00
 -1.6259892e+00
  1.8432146e+00
 -1.5875622e+00
  3.3097077e-02
  5.6594086e-05
  1.3728637e-01
 -1.6065944e-02
 -5.1305571e-04
  2.9670290e-04
 -2.3250842e+00
  1.4705671e-01
 -6.2508389e-02
  1.8060497e-04
 -4.5499655e-05
 -7.0432061e-01
  1.3083335e+00
  6.8726869e-05
  5.0469720e-01
  9.2260838e-02
 -1.6432281e+00
 -3.0395658e+00
  1.6103414e+00
  2.0563464e-01
 -3.4575939e-01
 -1.7231539e+00
 -1.6772072e-01
  1.4956042e-01
 -5.1542604e-01
  2.7785146e+00
 -3.9895776e-01
  8.1655151e-01
  5.9535924e-02
  1.8093944e+00
 -2.8138742e-01
  2.7691791e-05
 -3.7309918e-01
 -3.2067546e-01
 -1.4337921e-01
  2.0488331e+00
  7.9632133e-01
 -1.1608393e-01
 -1.1569397e-01
  3.5261653e-02
  7.5382418e-06
 -4.2652005e-01
 -9.3481004e-01
 -9.8039073e-01
 -4.2487311e-01
  1.2785314e+00
 -3.5202628e-01
 -1.5256064e-01
  2.7295718e+00
  6.1937898e-02
  4.5164782e-03
  3.0974507e+00
  8.7192976e-01
  1.7673612e+00
  2.5066833e+00
 -9.1706663e-02
  1.4867690e+00
  1.2885681e+00
 -6.2887714e-04
 -3.8261387e-02
 -2.1686375e+00
  4.5618367e+00
 -9.7269720e-01
  2.1140130e+00
 -1.0905603e+00
  1.0477207e+00
 -2.3994188e-01
  1.5404266e-01
  9.2346132e-01
 -2.0647478e+00
  6.7208415e-01
 -2.2269630e+00
  8.5642701e-01
  1.0678986e+00
 -1.5469832e+00
  7.2195089e-01
  8.0276859e-01
 -4.9001595e-01
  1.9612663e+00
 -2.4992604e+00
  2.0317547e+00
 -8.7675110e-02
  2.7940975e-04
  8.0125857e-05
 -2.0414095e+00
  9.5799875e-01
  3.7963266e+00
 -2.4677024e+00
  4.1541636e-01
 -8.7775663e-02
  6.5729213e-01
 -1.3797072e-04
  6.6180801e-01
  5.2652078e+00
 -2.1861334e+00
 -1.4984510e+00
  1.8846033e+00
  4.1894972e-02
 -4.4231272e-01
 -1.9051758e+00
  2.6271636e+00
  8.2324803e-01
  1.2432727e+00
  3.0821581e+00
  8.6461169e-01
 -4.1520622e-01
  4.3147116e+00
  1.3380750e+00
 -1.8132099e+00
  1.2165241e+00
  2.3750119e+00
 -2.5178385e+00
  2.0612116e+00
  4.4426194e-01
 -1.5861967e+00
 -7.4399672e-03
  4.7478110e-01
  2.6061010e-01
  1.0951769e+00
  8.6607844e-01
 -2.3293200e+00
 -2.9463354e-01
 -2.5121009e+00
  3.5914862e-01
  3.3567166e-01
  3.9856598e+00
 -1.1810980e+00
  2.0059514e+00
  6.4666927e-02
  2.5573066e-01
 -1.2014499e+00
 -1.9350423e-01
 -1.3581979e+00
  1.4733534e+00
 -6.4246602e-02
 -1.5404081e-01
  3.1633577e-01
  1.4345667e+00
 -1.2023147e+00
 -1.2265021e-01
  1.7193862e+00
  2.4879386e-01
  9.7825694e-01
  2.1131415e+00
 -6.2772274e-01
 -7.9523295e-01
  7.2202700e-01
 -1.0515935e+00
  1.3557160e-01
  2.4610391e+00
 -1.0147835e+00
  1.7598273e+00
  2.8299239e+00
  1.5863892e+00
 -1.1022962e+00
 -7.5555736e-01
 -3.5976678e-01
  2.2349107e+00
 -1.1371376e-01
 -2.0014200e+00
 -1.2069200e+00
  1.0054284e+00
 -4.7376120e-04
  9.5394338e-05
  1.1695026e-01
 -5.1108986e-01
  4.6535653e-05
  1.6775882e+00
 -1.2213752e+00
  1.8851350e-05
 -1.8405785e-04
  2.4175599e-02
 -1.2113142e+00
 -1.1941535e+00
 -6.1654650e-02
  1.8357947e-03
  2.7459049e+00
  9.5114499e-02
 -1.1772063e-02
 -4.1613573e-01
 -9.1627079e-01
  6.0353888e-04
 -1.2179617e-01
  2.1395118e+00
  1.3662808e+00
  1.5272967e+00
 -1.2359456e+00
 -1.3688685e+00
 -1.5836849e+00
  1.0858375e-04
 -1.5394471e+00
  5.6036822e-02
 -9.2687142e-01
  2.5343949e-01
 -6.2846780e-01
 -1.0650120e+00
 -5.5152868e-05
 -1.6329069e-04
  2.0120265e+00
 -1.9012918e+00
 -4.5202818e-02
 -3.8526866e+00
  1.1690146e-01
 -5.1794398e-01
  6.0254806e-01
  5.5377716e-01
 -3.3443019e+00
  1.4162301e+00
  4.1190994e-01
 -1.2243482e+00
 -3.2547081e+00
  2.4314070e+00
  2.1712151e+00
 -1.9940534e+00
  6.6052228e-01
 -3.4900188e-02
  3.3579522e-01
 -1.1963165e+00
 -1.5172719e+00
  7.4796307e-01
  5.0384331e-01
  1.6811864e+00
 -1.4740345e+00
  6.9207042e-02
 -6.7320281e-01
  8.6659089e-02
 -1.4206446e+00
 -1.1610352e-01
 -2.9819870e-01
 -1.6721418e-02
  1.0914552e+00
  5.8314759e-01
  2.1534836e-01
 -4.7789946e-01
 -6.9476652e-01
 -2.4108903e+00
 -8.8234240e-01
 -1.9791897e-01
 -6.0847592e-01
 -1.0030344e+00
 -3.3619982e-01
 -9.9904871e-01
 -1.1810147e-01
  9.3157825e-05
  7.1820658e-01
  8.1956506e-01
 -4.2751154e-01
 -1.6982935e-05
 -4.0264364e-05
 -1.7242337e+00
 -7.7077975e-06
  3.1666423e-04
 -1.2867491e-01
 -5.7417476e-01
  1.4385244e+00
  3.1319914e+00
  6.8330199e-02
  3.1670335e-01
  6.9866771e-01
  2.7967927e-01
 -9.8503065e-01
  8.1076980e-01
  1.8656904e+00
  3.0744770e-01
  1.2951285e-01
 -1.2414840e-01
  1.9089620e+00
  3.5563824e-01
 -3.7518054e-01
  3.7883836e-04
 -9.7184986e-01
  4.6434054e-01
 -8.5047537e-01
  6.5570533e-01
  1.4617033e+00
  4.6027476e-01
 -1.7424092e-02
 -2.8937471e-01
 -3.1062144e-01
  8.8510203e-01
 -4.4809276e-01
  1.1979848e+00
  8.1590587e-01
 -1.2288216e-01
 -1.3017190e+00
 -7.3726639e-02
 -1.6538836e+00
  4.7104061e-02
 -1.0357673e+00
 -6.0121965e-01
 -7.7207619e-01
  1.5018082e+00
 -2.3594605e-04
  8.7345368e-04
 -7.4741501e-01
 -7.5666018e-02
 -5.5285354e-06
  2.8489125e-01
 -4.4264925e-01
 -1.7821792e+00
  1.1570777e+00
 -1.3000934e-04
  3.2705951e-02
  6.0960636e-02
 -8.4440321e-01
 -1.0746504e-02
 -1.5015347e+00
  1.5506859e-01
 -1.5020627e+00
  9.0591528e-02
  2.3738807e-05
 -1.3569227e-01
 -1.0519956e-01
 -9.1611588e-01
 -5.7118090e-05
  1.4787515e-01
  1.6889273e-01
 -6.6811520e-01
  1.3142405e+00
  7.1169829e-01
  1.0630689e+00
  3.4436226e-01
 -4.5449489e-01
  6.2362425e-02
  2.5097706e-04
  3.1643918e+00
 -1.0684022e-01
 -8.0101844e-03
  1.4615356e-04
  6.4547596e-05
  6.2022680e-01
 -1.4033746e-04
 -1.4052114e-04
  5.9271276e-01
 -7.0876521e-01
 -2.0441847e-01
  1.1523761e+00
  1.5491388e+00
  2.9427439e-01
  3.5841596e+00
 -1.3849626e-01
  2.2412884e+00
  1.6853971e+00
  1.4088553e+00
  1.9028224e+00
 -1.3506906e+00
  4.1799474e-04
 -2.5587723e-02
  4.1030198e-01
  3.0339843e-01
 -4.3345773e-01
 -7.8156400e-01
  1.2334653e+00
  2.8144875e-01
  2.0881614e-03
  5.4461896e-01
  2.1053369e-01
  4.6735731e-01
  1.4155924e-02
  2.0565939e+00
 -4.5958710e-01
 -1.0604021e-02
 -6.7064494e-02
  1.0847797e+00
  4.4653729e-02
 -1.6929492e-01
  1.4592078e-01
 -3.6890218e-01
 -8.8378796e-03
 -6.3591450e-02
 -2.8754425e-01
 -1.8693803e-01
  5.5096734e-01
  4.2010182e-01
  3.0971083e-04
  6.8949693e-01
  6.7762558e-05
  1.4001137e+00
 -5.6176543e-01
  1.0833000e+00
  4.9118742e-01
  9.3660212e-01
 -1.4177367e-01
  1.8226464e-01
  1.4733176e+00
  3.7345499e-01
  6.6547105e-03
 -5.8605630e-02
  9.0333158e-01
 -2.6933467e-02
  2.0019607e-01
 -2.9119751e-01
 -9.8351948e-03
  1.4029542e-01
 -2.7933175e-04
  7.4599093e-01
 -4.4978315e-01
  3.5862821e-01
 -1.9242419e+00
 -2.4996526e+00
  2.3586527e-01
 -2.0185769e+00
  2.2065547e+00
  3.3316326e-01
 -1.7194903e-01
 -2.3221162e-05
  2.0480491e-04
  3.0167285e-01
 -6.6249955e-01
  8.9044930e-05
  1.3011064e-04
 -2.8147534e-01
  8.7364744e-05
  6.0151515e-06
  1.2930368e+00
  4.2492217e-01
  2.3009572e+00
 -2.7492943e-01
 -1.1264778e+00
  2.3441377e+00
  1.3362548e-01
 -7.0949922e-05
 -2.6606867e-02
  1.0725262e+00
 -3.1065324e-01
  1.4564888e+00
 -3.6517087e-02
  1.9328819e-01
 -7.7074081e-01
 -2.1326802e+00
  6.0579830e-01
 -6.9722861e-05
  1.8279665e+00
 -4.8417647e-04
 -1.4951695e+00
  9.7213441e-01
 -4.4803783e-02
  1.4198705e+00
 -6.4678353e-01
 -1.7397551e-05
 -4.3253942e-05
 -8.0240846e-02
 -7.8595221e-01
  4.7876143e-01
 -1.6661738e-01
  1.1534473e+00
  6.6912448e-01
 -1.2880599e-02
  1.5717065e-02
 -1.7526386e-02
  1.7696732e+00
 -6.1631060e-01
 -3.7452215e-01
  6.1871928e-01
 -6.0716677e-01
  1.0906782e+00
 -1.2807018e+00
  7.3752844e-01
  1.0690722e-02
  2.7196119e+00
  1.1589370e-02
  2.6515937e-01
 -6.2885517e-01
 -1.3707213e+00
  1.4484662e+00
 -1.1616105e+00
 -8.7362736e-02
  4.6213779e-01
  3.2432637e+00
  4.2437032e-01
 -2.0602384e-01
 -3.1477492e-02
 -8.9455050e-01
  8.3287311e-01
 -3.3884534e-01
  3.5490325e-01
  3.7098446e-01
 -2.1433257e-01
 -6.0021204e-01
 -6.7948413e-01
  2.9030934e-01
 -7.0440847e-01
  1.4815704e+00
  6.5381549e-02
 -2.0792504e-01
 -1.3733933e-05
 -3.4202775e-04
 -2.0130184e+00
 -5.0644207e-01
 -5.6307459e-01
 -9.0735499e-05
  1.7471959e-05
 -2.1325343e+00
 -2.6240858e-04
 -1.1952004e-04
 -4.7876534e-01
  5.9108481e-02
 -4.0432060e-01
  2.3190427e+00
 -7.9441005e-01
 -1.0487189e+00
 -1.3779080e-04
 -1.6403234e+00
  9.7046606e-03
 -7.2739542e-01
  4.0469649e-01
  1.7092213e-01
 -1.1854733e+00
 -8.6259979e-01
 -1.6780860e+00
 -6.7098647e-01
 -9.2439599e-02
 -3.4021989e-01
  5.2538514e-01
 -7.8465378e-01
  5.0273508e-01
 -1.5996052e+00
  3.1193870e-01
  1.0588830e+00
 -9.5333695e-02
 -1.9651024e-01
  6.4874685e-01
  1.9052522e-01
  1.8611244e+00
 -1.3340411e+00
  1.7912914e+00
  3.5722953e-01
  2.4693382e+00
  6.5407477e-02
 -1.3818128e+00
 -4.0825611e-01
  3.4361249e-01
 -7.0103675e-01
  7.4940890e-01
  2.6931211e-01
  5.6123156e-02
 -4.1924257e-05
  6.0118544e-01
 -1.0376393e+00
  4.8950362e-01
  4.9823540e-01
 -2.4821913e-01
  1.0988109e+00
 -3.2264814e-01
 -9.4023705e-02
 -2.4978888e+00
 -2.6583159e+00
 -4.1605828e-05
 -3.1464896e-01
 -4.0811458e-01
 -6.3084163e-02
  1.2259245e+00
 -9.0642488e-01
  3.7635066e-02
 -1.7706131e+00
 -4.7480553e-01
 -4.4616605e-05
  1.9913803e-01
  1.6494682e-01
 -2.8418911e-01
  3.0586356e-01
  5.8928925e-01
 -1.0097727e+00
 -2.8833915e-03
 -2.6008782e-01
 -9.5341466e-02
 -1.9397718e+00
  5.5559412e-05
  4.9087146e-05
  5.5286819e-01
  3.3856271e-04
 -4.9718525e-05
 -2.7941048e-04
  2.0048350e-05
 -2.6231039e-05
  1.3800556e-04
  5.1139760e-01
 -3.0551755e-01
  4.5892850e-01
 -3.0770090e-01
  5.3672738e-05
  1.6650853e-01
  4.3348186e-02
 -2.0820785e-03
  3.9248461e-01
 -4.4923752e-05
 -4.0614197e-01
  1.4175562e+00
  9.5924459e-02
 -5.5126172e-01
 -7.4755645e-01
 -1.8500625e+00
 -2.9334016e-04
 -7.9710013e-01
 -8.7625779e-02
 -1.5914979e-03
  2.0432253e-01
  1.6056952e-03
  1.7847846e-01
  1.6978803e-01
  2.3927987e+00
 -7.2492388e-05
 -5.3485507e-01
 -1.6038934e-02
  1.6662359e+00
  1.2073250e+00
 -4.9720854e-01
 -4.1134641e-01
 -4.6615949e-01
  2.1486907e+00
  2.5474194e-01
  2.6803992e+00
  1.0550082e+00
  8.0571848e-01
 -8.5172230e-01
  6.5176352e-03
 -6.6055130e-05
 -9.3563467e-01
  8.8312471e-01
  2.3995299e-04
 -8.5159415e-01
  7.4662489e-01
  5.0937897e-01
  5.7013577e-01
  1.6020955e-01
 -2.5283999e-03
  1.0823878e+00
  4.9943328e-01
  1.8529056e-05
 -2.2880166e+00
  4.9518374e-01
 -1.0814960e+00
  5.2116102e-01
 -5.1737782e-02
 -4.7935924e-01
 -1.9220598e-01
  1.3365589e+00
 -1.1371470e-01
 -1.5848345e+00
  2.4720037e-02
  2.4720037e-02
  2.4720037e-02
  2.4720037e-02
  2.4720037e-02
  1.2203109e-01
  1.2203109e-01
  1.2203109e-01
  1.2203109e-01
  1.2203109e-01
  3.6700478e-01
  3.6700478e-01
  3.6700478e-01
  3.6700478e-01
  3.6700478e-01
  9.3993224e-02
  9.3993224e-02
  9.3993224e-02
  9.3993224e-02
  9.3993224e-02
  2.0272303e-02
  2.0272303e-02
  2.0272303e-02
  2.0272303e-02
  2.0272303e-02
  8.9135182e-01
  8.9135182e-01
  8.9135182e-01
  8.9135182e-01
  8.9135182e-01
