nep4 3 Sc C F 
cutoff 6 4 63 26
n_max 4 4
basis_size 8 8
l_max 4 2 0
ANN 50 0
  7.7977353e-01
 -1.0590761e+00
 -4.1550815e-01
 -2.0103943e+00
  1.9635042e-02
  1.3142710e+00
 -5.0524488e-02
  1.2019757e+00
  1.1674938e+00
 -2.4994696e-02
  3.1454960e-01
  1.2153819e+00
  7.0474696e-01
  3.0749428e-01
  2.0021848e-01
  3.5202071e-02
 -9.9242216e-01
  1.3992561e-01
  1.0850974e-02
 -2.8856571e+00
 -4.0019330e-01
  4.5966431e-01
  1.3216736e+00
 -2.7467517e-02
  1.1294435e-01
  2.7808991e-01
  6.2637401e-01
  4.4166643e-02
 -1.5698159e-01
 -1.3242666e-02
 -1.6422376e-02
 -1.1089174e-01
  3.0729771e-02
  3.7841932e-03
  8.2694948e-02
  2.0588646e-02
 -2.3613317e-02
 -1.1166992e-02
 -7.9879761e-03
  8.4690683e-02
  1.3498130e-02
 -3.6392204e-05
  5.2463956e-02
 -2.0277796e-02
 -3.4854285e-02
  4.9867760e-02
 -3.7177671e-02
 -3.8962930e-02
 -4.2442586e-02
 -4.5816880e-02
 -2.2031434e-02
  2.9439002e-02
 -1.8551921e-02
 -2.5215782e-02
 -4.6366253e-03
 -3.2880522e-02
  4.6606981e-03
 -1.9293929e-02
  4.2577624e-02
  1.7778467e-01
  2.4116835e-02
 -9.1742344e-02
 -2.0740006e+00
  2.0806201e-02
 -5.0629818e-01
  2.1368707e-02
  1.1031121e-01
  2.2077888e-02
 -1.4507541e-01
  1.4316758e-02
  3.9182220e-02
  1.3937190e-01
 -6.3688853e-03
 -1.0527810e-01
 -2.5523638e-02
  1.0437151e-01
  1.2644218e-01
  4.8082591e-05
  2.2757614e-04
 -7.7106461e-02
 -1.7181100e-02
 -4.2220477e-02
 -5.6947488e-02
 -3.8784090e-02
  4.2362239e-02
 -7.9129031e-03
  1.4354659e-02
  1.0895619e+00
 -2.4365181e-02
 -2.6196018e-03
  6.1913460e-01
  3.3274884e+00
 -1.2010167e+00
  1.1132160e+00
 -7.1033496e-01
 -2.1278376e-02
 -1.2229940e-01
 -4.2726744e-02
 -3.0640717e+00
  1.9006805e-02
  2.2040403e+00
 -2.1232126e-02
  1.6476533e+00
 -6.4974576e-02
 -1.2173703e+00
 -2.6622636e-02
 -5.6594331e-02
  5.3193431e-02
 -1.1690070e-01
  1.0417385e+00
 -1.5503521e-01
 -5.2288795e-01
 -2.9627716e-02
 -4.9007084e-02
  2.7434275e-02
 -6.2662534e-02
  2.9499136e-02
 -3.2049753e-03
 -2.0089822e-02
  1.2440145e-02
  2.0179349e-01
  7.5049984e-01
  1.3719350e-01
 -2.9147965e-01
  6.1892235e-01
 -1.4052824e+00
 -9.9434853e-02
  3.1302541e-02
 -8.0160135e-01
  2.0087605e-02
 -3.6028150e-02
 -3.6865538e-01
  3.6331743e-01
 -1.3773592e-01
 -1.3555028e-01
 -2.5247002e-02
  5.1392991e-02
 -3.0719274e-01
 -1.3110922e-01
  2.3198475e-01
 -2.6536494e-01
  2.7611270e-03
 -2.1063480e-01
 -3.2061619e-01
  1.2861524e+00
  1.9555205e-01
  5.4772757e-03
 -8.1681453e-02
  1.3007163e-01
  2.5924540e-03
 -8.8605684e-01
 -4.0121684e-03
  5.2471638e-01
  2.8353968e-01
 -2.3289390e+00
  3.8766420e-01
  5.2414024e-01
  1.9442409e-01
  2.7825601e-02
 -8.0296412e-02
  5.6379849e-01
  7.4060559e-01
  3.1909654e-01
  9.6685387e-02
  4.3711722e-01
 -1.7849460e-01
  5.3184724e-01
  9.2727399e-01
 -8.5456129e-03
 -8.9705533e-01
  5.4151583e-01
  3.2262117e-01
 -6.1031811e-02
  3.4152835e-03
  6.2303726e-02
 -1.5718572e-02
 -1.3738254e-01
 -3.6925903e-01
 -2.5765471e-02
 -5.4389071e-01
 -1.1792487e-02
 -6.8094525e-03
  3.8774841e-02
 -5.9667557e-02
  2.6785970e-02
 -6.1971202e-02
 -5.2699172e-01
 -1.8738523e-02
  1.7477617e-02
 -1.1275681e-02
 -1.2814815e-01
 -2.1215358e-03
  1.4589168e-01
  2.2930799e-02
 -3.6393691e-02
  2.7665986e-02
 -3.0170826e-02
  4.0173545e-02
 -4.5295209e-02
 -1.2975055e-04
  7.9671629e-03
  1.8794723e-02
  8.5311448e-03
  7.8754447e-02
 -4.3565817e-02
 -1.9315742e-02
 -1.9832492e-02
  4.5931119e-02
  3.4295067e-02
  9.7692097e-03
  3.6134634e-02
 -3.3883244e-01
  1.6618206e-01
  2.5130142e-02
  3.9180860e-02
 -7.0090559e-03
  3.4431018e-02
 -1.3064438e-02
  1.3129763e-01
 -3.9118931e-02
  5.1106052e-03
  4.7392738e-01
 -1.0346729e-02
  5.9986897e-03
  5.2676413e-02
 -8.9673676e-02
 -1.7557722e-02
 -4.9704183e-02
  1.0947656e-02
  4.3372852e-03
  7.8321539e-02
 -3.2585111e-02
 -6.4607352e-02
 -8.3025247e-03
  1.7125610e-02
 -3.8464118e-02
 -1.8480550e-02
  6.3189478e-03
  3.4173902e-02
 -1.0972316e-03
 -3.8335305e-01
  5.2547145e+00
 -1.0182759e+00
  1.2678293e+00
  5.3608670e+00
  2.0303441e-02
 -2.4404830e-01
  7.9728305e-02
 -6.3880538e-03
 -6.2972140e-01
 -1.5357728e-02
  1.0675830e-01
 -9.4512546e-01
  3.8475625e-02
  7.6389283e-01
  2.3491977e-02
 -8.7069511e-01
  1.7239559e-04
 -2.5747495e-04
  4.3373105e-01
  1.6945811e-02
 -1.4303581e-01
  6.2561976e-03
  1.4587340e-01
 -1.6299012e-01
  6.1355371e-02
 -8.7453816e-03
 -2.5850356e-01
  6.1931857e-04
  1.1030804e-02
  7.8765786e-01
  1.2297838e+00
 -1.7228123e+00
  1.4184979e+00
 -2.4331062e-01
 -1.2900065e-01
 -1.0306674e-02
 -1.2734173e-01
  3.7900716e-02
  1.3442151e-01
 -3.4133852e-01
  1.1620265e+00
  5.9686440e-01
 -7.6073289e-02
 -7.1932554e-01
 -5.1931566e-01
  5.9983963e-01
 -3.7708595e-02
  2.0864340e-02
 -6.2906337e-01
 -6.2456569e-03
  6.9837786e-02
 -6.5789208e-02
 -2.7714323e-02
  2.2696204e-01
  2.9091883e-01
 -1.0424803e-02
  3.2721646e-02
 -2.1502769e-02
  5.1518735e-03
 -2.3390770e-01
 -1.5864416e+00
  2.0658691e-01
  8.4218860e-01
 -2.4860871e+00
  3.1860289e-01
  1.3180201e-01
  8.0484235e-01
  1.3751931e-01
  3.4368720e-03
  1.6640375e+00
 -8.0472964e-01
  9.4178444e-01
 -1.2626253e-01
 -2.4843465e-01
  1.5503836e+00
  8.3181077e-01
  9.6940267e-01
  2.4044891e-01
  9.6364927e-01
  1.2324469e-01
  2.8162289e-01
  2.2425942e-02
 -1.0121431e+00
 -9.2588854e-01
 -4.1018131e-01
 -4.7341755e-01
  1.1161434e-01
  1.2065989e+00
 -2.1794098e-03
  3.7135712e-03
  1.2032315e-03
  2.1143446e-02
  4.9574398e-03
 -1.5248851e-01
  9.3055747e-02
 -2.1619620e-02
  9.4224354e-03
 -8.3683114e-03
  5.5379556e-03
 -4.0763687e-02
  1.3919868e-01
  8.2904920e-02
  1.4274756e+00
  7.8542955e-02
 -1.2854323e-02
 -6.8170279e-02
  5.3842426e-03
 -2.2087939e-02
 -5.1438697e-03
  6.6011824e-02
 -1.1668405e-01
  2.3030916e-02
  2.7874270e-02
  4.1546490e-02
 -7.7395835e-03
  1.1620991e-02
 -1.3575299e-02
  2.8657452e-03
  2.3895770e-02
  1.8837048e-02
  4.6433468e-04
 -2.2080630e-02
 -1.0471561e-03
 -2.1098284e-02
  1.2873580e-02
  5.9793372e-02
  2.2657800e-02
  2.5779465e-02
  7.1469776e-02
  2.0623632e-02
 -1.8702981e-03
 -1.3009949e-01
  5.1210541e-02
  4.9386704e-03
  1.1428319e-01
  3.3404674e-02
  4.2963807e-02
  2.9880481e-02
 -1.0378843e-02
 -9.9371411e-02
  4.7495436e-02
  1.7537801e-02
 -2.7343405e-02
 -6.6301059e-03
 -3.2589223e-02
 -3.4865562e-02
 -2.0916972e-03
  6.1698161e-02
  8.1283398e-02
  1.4377911e+00
 -3.2347950e-01
 -1.6363770e+00
  2.4770561e-01
 -1.3979696e-01
  1.2810582e-01
  4.3446358e-02
  2.4062911e-01
 -3.6517385e-02
  2.2737740e-01
 -6.1201298e-01
  1.7877896e-01
  3.7457023e-02
 -1.0837230e-01
 -1.7766729e-01
 -5.7647135e-02
 -2.5816869e-03
  2.0712493e-02
  2.3202756e-03
 -5.6705111e-01
 -5.9673017e-01
 -7.2379798e-02
 -2.3822773e-02
 -3.2787476e-02
 -1.3719635e-02
 -8.2810469e-02
 -5.0395723e-02
  6.8441793e-02
 -1.6255264e+00
 -1.3350891e-02
 -7.0202418e-02
 -8.1485733e-03
  1.6707852e-02
 -1.1776232e-02
  1.6381048e-01
 -8.1189670e-02
 -1.2898567e-01
 -4.5129534e-02
 -8.5714282e-03
 -2.4038194e-02
 -2.7892567e-02
 -8.7399043e-02
  3.0792145e-02
  8.4963866e-02
 -8.3728269e-02
 -1.7738247e-02
  1.6435806e-02
 -2.1522120e-02
  4.1746095e-02
 -1.1689791e-02
 -4.1934364e-02
 -3.2510482e-02
 -1.5142339e-02
 -7.8365698e-02
 -1.6223917e-02
  2.7232679e-02
  3.0505886e-02
  2.0018134e-01
  2.8303990e-02
 -4.6028733e-02
 -3.4677553e-01
 -4.0852975e-02
  5.2742994e-01
 -1.4895407e-02
 -1.3706526e-01
  2.1479147e-02
 -4.8220702e-02
 -9.5285913e-03
  4.5132726e-02
  1.0523527e-02
  4.6216130e-02
 -1.2939570e-03
 -3.9606914e-03
 -9.2854224e-02
  1.3427687e-02
  1.0941471e-02
  1.2920780e-01
  1.2676679e-02
  1.6829903e-03
 -7.1834847e-02
  2.9790765e-02
  1.8885134e-02
 -1.2351213e-02
 -6.1046937e-03
  6.2880646e-03
 -9.7231239e-02
 -8.7232754e-02
  3.4740355e-03
 -5.6646664e-02
 -3.2776494e-03
 -1.3174845e-01
  1.7945151e+00
 -1.9461274e+00
  3.1989434e+00
 -1.6324554e-01
 -7.7157313e-01
  3.3538483e-02
 -3.0560389e-01
 -4.8150748e-01
 -9.8798349e-03
 -1.3678402e-01
  4.3800352e-03
  2.3720650e-02
 -1.4939237e-02
 -3.0557215e-01
 -5.8143404e-03
 -7.0041293e-01
 -1.3964225e-02
  4.0016506e-02
 -1.3100421e+00
  5.9477128e-02
 -1.9871306e+00
 -1.7560874e-01
 -1.4468998e-01
 -2.2455454e+00
  2.3712894e-02
  1.6187662e-02
  3.3797711e-01
 -5.9493901e-03
 -2.6459283e-01
  6.6878670e-04
 -1.0050950e+00
 -2.6520789e-01
  2.4661222e-01
  5.5688113e-01
 -2.3118122e-01
 -8.2568079e-02
 -2.2833498e-02
 -3.7361494e-01
 -1.2227152e-01
  2.8994054e-02
 -3.5171244e-02
 -1.2772201e-01
  8.1482213e-03
  4.6142870e-01
 -5.2106772e-02
 -6.1845849e-03
 -2.2489785e-01
 -4.7750583e-01
  1.7250784e-01
  4.6619065e-02
  4.8943836e-02
 -3.7564018e-01
  3.1101245e-02
 -2.9181175e-02
 -6.6072023e-03
  1.9659743e-02
 -1.1597870e-01
 -3.3520103e-02
 -4.0995823e-03
  1.8763205e+00
 -1.8586102e+00
  8.1529433e-01
 -4.8826572e-01
  1.2377717e+00
  9.3461502e-01
  9.8005995e-02
  1.1782336e+00
  2.6850948e-01
  4.1641690e-02
 -1.5948098e+00
  8.2997382e-01
 -8.3383873e-02
 -1.1526378e+00
 -1.6404756e+00
 -1.5327875e-01
  1.1965522e+00
  2.6635278e-02
  1.3464916e+00
  4.8766870e+00
  7.7339068e-02
  1.0559494e+00
  6.9382721e-01
 -2.5478121e-02
  4.7636673e-01
 -4.9577253e-03
 -6.7166053e-02
 -2.4205197e-02
 -8.1721932e-01
  7.7025667e-02
  8.9746881e-03
 -3.4129683e-02
 -2.4524571e-01
 -1.1950594e-03
 -1.9502485e-02
 -7.1788862e-02
 -1.3595976e-01
  1.8633613e-02
 -4.5145642e-02
 -1.6194787e-02
 -6.9998228e-04
  2.9561225e-02
 -2.3053551e-02
  6.0755336e-03
  8.7944068e-02
  2.4572525e-02
  3.1328674e-02
 -1.1518274e-02
 -6.3210323e-02
  5.8590155e-02
  4.2895209e-03
 -1.6536078e-01
 -7.2481185e-02
 -1.6960995e-02
 -1.1634002e-02
  1.0384718e-01
  4.6374623e-02
  9.1727991e-03
 -2.7303366e-02
  2.5562977e-02
  1.0671590e-01
 -3.1480020e-01
  3.2551059e-01
 -2.8702190e-02
  1.8257713e-01
  1.0356822e+00
  1.1116734e-01
  1.0568470e-02
  7.0336336e-01
  2.0864381e-02
  7.1082212e-02
 -1.1070949e-03
 -3.7092206e-01
  1.2512896e-02
 -4.4688120e-02
  8.8513017e-02
  2.5740378e-02
  8.3782040e-02
 -7.7017536e-03
  1.1235262e-01
  7.5274445e-02
  6.8041652e-02
  1.2076519e-01
  3.2369012e-01
  1.8877918e-01
  7.5526185e-02
 -4.1101333e-01
  5.5912469e-02
  6.6254232e-03
 -8.1043579e-02
  4.6057340e-02
  1.5639561e+00
  1.4704907e-01
  1.2412347e-01
 -1.2935375e-01
 -1.5273782e-02
 -1.3482946e-01
 -5.9610061e-02
  1.3919692e-02
  7.2103678e-03
  8.0265790e-02
  4.2418439e-02
  1.3500138e-02
  2.0742683e-02
 -4.5776479e-02
  2.0519207e-01
  2.9023373e-02
  9.6938107e-03
 -3.0882357e-02
 -6.6214190e-03
 -1.1150326e-03
 -1.0904180e-03
 -5.4100208e-02
  2.8587647e-02
  4.0315475e-02
  9.3805432e-02
 -1.9266641e-02
 -1.2346203e-02
  6.7056897e-03
 -5.6400672e-02
 -1.6337359e-01
  1.6855989e-02
 -6.5050805e-03
 -1.5008665e-02
 -8.6079828e-02
 -3.7924062e-02
 -9.6699230e-02
 -9.4995171e-02
  1.4711574e-01
  5.3284254e-02
 -1.0100306e-01
  7.1274168e-03
  4.5399588e-02
  6.2222373e-02
  9.3107596e-03
  7.4053787e-02
  1.9004370e-01
 -1.3716231e-02
  4.6425224e-03
  1.4008243e-01
 -5.9061553e-03
  9.3476251e-03
  5.6732643e-02
 -9.8619144e-03
  1.4661405e-02
 -3.3243220e-02
  3.2480609e-02
  9.0393484e-02
  9.9331513e-03
  2.5270300e-02
  2.9649768e-02
 -9.7864745e-03
 -3.5932157e-02
  1.5691323e-02
  5.1349528e-02
 -1.6850191e-01
  1.4277827e-05
 -2.0196609e-01
  3.1244711e-04
  1.3361261e-02
  4.7514927e-02
 -9.3287162e-02
 -2.4753029e-03
  1.8077018e-02
 -3.7235920e-03
  1.2566377e-02
 -1.5495314e-02
 -1.1007160e-01
 -5.7067856e-02
 -1.0197422e-01
  6.5909568e-03
  4.8084434e-02
  4.1004252e-02
 -3.5897855e-02
  3.8190335e-02
  6.6220388e-02
 -1.8801050e-02
 -9.8963507e-02
  1.8111398e-02
  1.1480475e-03
 -1.1459304e-02
 -2.8868206e-02
 -8.8738948e-02
 -9.0960367e-03
  3.9704595e-02
  1.6707783e-04
  4.6889018e-02
 -1.4646834e-02
  9.0619706e-02
 -7.7713035e-02
  5.7705611e-02
 -7.7846921e-03
  1.5621792e-01
  1.0721822e-01
  6.2729210e-02
 -1.6087201e-01
 -2.0084592e-02
  1.2800883e-01
  3.2299288e-02
 -1.5586116e-03
  2.1571591e-02
  2.3873765e-02
  6.2332180e-04
 -6.1082732e-02
  2.8423361e-02
  1.6829740e-02
 -5.7604006e-03
  1.8077558e-02
  8.5040137e-02
 -4.8530422e-02
 -3.9417114e-02
  1.8604313e-01
 -3.3717981e-01
 -5.6088511e-03
 -5.2200910e-02
 -7.9846000e-03
 -2.2471314e-02
  8.1027460e-01
 -6.3348480e-02
 -3.9463502e-01
 -3.5971025e-01
 -3.7705833e-01
  7.0279129e-02
 -3.2426330e-01
  1.0715041e-01
  7.7172333e-01
  1.8164878e-01
 -3.2822348e-02
  3.9341677e-02
 -7.2785713e-02
 -4.9425848e-02
 -4.8505221e-02
 -5.9490702e-03
  1.7196091e-02
  3.6934383e-02
 -4.0890188e-03
  6.9432549e-02
 -4.7833738e-03
 -3.6328267e-02
  5.6698546e-02
 -3.5142794e-03
  2.6034899e+00
 -1.8358323e-01
  5.3549455e-03
 -2.8377289e-02
 -8.0369990e-03
 -1.4125706e-02
 -3.3924207e-02
  4.2311639e-02
  5.7228941e-02
 -5.2737948e-03
 -4.5053922e-03
  4.9376417e-02
  1.0392413e-02
 -2.4413934e-02
  4.2511302e-01
  1.7985903e-01
  2.9804630e-02
 -1.0067651e-01
  5.8924805e-02
  2.9948812e-02
 -8.6832099e-02
 -1.0549722e-02
 -5.0425846e-02
 -1.1777372e-02
 -1.8637218e-02
 -4.7739819e-02
  1.0204158e-01
 -1.6311357e-02
  2.7606208e-02
 -2.5127327e-02
 -2.9444569e-03
 -9.4157778e-02
 -6.6821553e-02
 -5.0225873e-02
 -2.5378481e-02
 -4.9064185e-02
  5.8369809e-01
 -2.5107276e-03
  9.2748366e-03
 -1.6775263e-02
  3.5550881e-02
 -8.9162901e-02
 -5.9477508e-02
 -4.7660608e-02
  8.3149475e-04
 -7.3926456e-02
  1.3266218e-02
 -1.0551911e-02
 -4.8516903e-02
  2.2080512e-01
  2.4001719e-02
  1.9667566e-02
  9.2868200e-03
 -1.8649640e-02
  4.9833938e-02
 -2.2840966e-02
  1.3552594e-01
 -9.3118940e-03
 -2.6609143e-03
  2.2926285e+00
 -1.9666377e+00
  1.3726778e+00
 -1.8609003e+00
  1.5219243e+00
  3.8054970e-01
  2.8346387e-01
 -1.5527611e+00
  2.2636075e-02
  9.8019019e-02
 -2.2390521e-01
  1.1572877e-01
 -1.7199214e-01
 -1.1356201e+00
  1.8030889e+00
  1.7786294e+00
 -1.6637799e+00
 -1.1672280e+00
 -3.6709109e-01
  1.2399940e+00
 -2.3982911e+00
 -1.0808142e+00
 -2.2389190e-01
  2.3538963e-01
  6.6145021e-03
  1.3554272e-01
  3.0493501e-01
 -1.5661899e-02
  4.2852485e-01
  3.4293836e-01
 -3.5113518e-03
 -7.1369117e-01
  1.0865544e+00
  6.5512620e-02
  4.8076487e-01
  5.4324660e-02
 -1.8429272e-02
 -1.2382832e-02
 -1.6429404e-02
 -4.2582122e-03
  2.2970365e-01
 -8.6012684e-02
 -6.6886339e-03
 -9.9494336e-03
  9.9541782e-04
  5.8883514e-02
 -1.7563984e-02
 -2.1880988e-02
  3.7439667e-02
  3.0964369e-02
 -1.5012710e-03
  2.2084123e-02
  1.2658490e-01
  1.4278359e-02
  6.9727056e-02
 -6.3828953e-02
 -1.6987789e-02
  2.3549102e-02
 -6.2340766e-02
  3.3008557e-02
  1.9104190e-02
  6.3823625e-02
 -6.7914580e-03
 -1.8919574e-02
 -4.4406474e-01
  2.9729377e-02
  1.2874108e-02
  3.2505900e-02
 -2.1339756e-02
  7.4555196e-02
 -5.8728825e-02
 -1.4433177e-02
 -3.1872433e-02
 -4.2973086e-02
  2.3193480e-01
 -1.1915409e-01
  8.9787818e-02
  3.7188247e-02
 -7.3611945e-02
 -7.2443902e-02
  1.8734418e-02
  2.2497945e-02
 -7.5394902e-03
  5.6336746e-02
 -1.8677460e-02
 -2.3369141e-02
 -1.1648443e-01
 -2.2079493e-01
 -3.5109017e-02
 -1.4850285e-02
  1.1867145e-01
 -2.0139939e-01
 -1.2139360e+00
 -5.9559286e-01
  1.7466198e-01
 -5.9206735e-02
  1.9577573e-01
 -2.5230290e-02
 -1.0081200e-01
  2.5492501e-02
  7.5090230e-02
  7.1290314e-02
 -8.1540745e-01
  9.0252176e-02
  2.4968858e-01
  6.1996067e-03
 -1.8852504e-01
 -2.2072306e-01
  1.7906560e-02
  2.8665563e-01
 -8.9531010e-03
  4.7091010e-01
 -2.2124936e-01
  5.0546587e-01
 -5.2029002e-02
  2.4841268e-01
 -1.6725381e-01
 -5.7545692e-01
  1.6848864e-02
  2.8537458e-02
  1.6847027e-02
  7.2432138e-02
 -2.1375127e-02
  8.7835416e-02
  1.3979749e-03
 -6.5035917e-02
 -2.7565742e-01
  7.3529534e-02
  1.1676273e-01
 -2.6088574e-03
  1.5865985e-01
 -4.3927908e-02
 -4.2868644e-02
  2.2857144e-02
 -2.9451114e-01
  4.6761803e-02
 -5.4175816e-02
 -2.0497268e-02
 -3.6464226e-02
  2.5426432e-01
  8.7595992e-02
 -2.1453651e-02
  6.2706083e-02
 -8.7032106e-04
  1.4821727e-02
  3.4827039e-02
  1.9936670e-01
  4.4210753e-03
 -8.6010387e-03
  1.5635941e-02
 -3.1034652e-02
  6.2127065e-02
 -9.5658569e-04
  1.5321984e-02
  2.2375898e-02
 -3.7316114e-02
  2.4570867e-02
  4.3338160e-03
 -5.7835351e-03
  2.4851527e-02
  1.5658479e-02
 -1.3569070e-01
 -5.6673493e-03
 -1.0018769e-02
  7.6686554e-02
 -9.8215751e-03
 -2.5215684e-02
 -4.2978777e-03
  2.9319418e-03
 -1.3384025e-02
 -4.6866494e-03
  4.9486522e-02
  4.7786962e-03
 -1.9466707e-02
  2.0364411e-02
  8.1500590e-02
 -4.6365209e-02
  3.4530915e-02
  1.4815711e-02
  4.7782596e-02
  6.0196999e-02
  8.3728606e-01
  2.8766531e-01
  6.2817641e-02
 -2.1752995e-01
  1.1533462e-01
 -8.6326815e-02
  2.9413927e-02
  6.7555077e-02
  1.3860983e-01
 -2.0572606e-02
 -4.0713709e-02
  4.7041968e-01
  1.9551320e-01
  5.1647130e-02
 -8.3919009e-03
  1.5180341e-02
  4.4974621e-02
  8.4542900e-02
 -5.8662519e-03
 -2.2974086e+00
  2.8294053e-02
  1.5475063e-02
 -1.1776789e-01
  3.5527372e-04
 -9.1319226e-02
 -5.9928647e-03
  1.4995926e-02
 -2.4716891e-02
  3.0241728e-01
 -4.8132954e-04
 -3.0197583e-03
  1.4300602e-02
  4.4894712e-03
 -1.0434179e-02
 -1.6257739e-01
 -7.9764351e-03
 -4.9426753e-02
 -5.0854199e-02
  1.8447863e-02
 -5.3358801e-02
  4.2981617e-02
  7.6157331e-02
  1.1120681e-02
 -1.2919598e-02
  5.0856762e-02
 -7.1139694e-03
 -3.2851968e-02
  8.8448681e-02
 -4.0371439e-01
  1.6999420e-02
 -7.3053151e-02
  1.2636808e-02
  1.6895603e-02
  4.0922079e-02
 -7.5051606e-02
 -1.4227332e-01
  1.1200079e-01
  2.2783615e-03
  2.6101291e-02
 -6.8331152e-02
 -4.2633411e-02
 -3.1032419e-01
 -2.0598317e-03
  2.2651638e-01
 -2.5138685e-02
  5.1478110e-04
  8.9398278e-03
  1.9046549e-02
  4.4122767e-02
  1.2938923e-01
  7.7354811e-02
  3.1844035e-01
 -1.5781846e-02
 -3.9430842e-02
 -4.2185303e-02
 -1.5826093e-02
  2.6970247e-03
  7.3018610e-02
  3.6156684e-01
 -1.0292374e-02
 -4.5605805e-03
  9.6424744e-03
 -7.4317351e-02
  6.6848502e-02
  8.7970488e-02
  2.3957225e-02
 -1.9805226e-02
 -1.5576903e-02
 -2.9493891e-02
  9.1797441e-02
 -6.3238136e-02
  2.3455329e-02
 -1.0037285e-02
  1.7543618e-02
  6.9861867e-02
 -3.2916099e-02
 -4.2893648e-02
 -1.4800432e-01
  3.0306058e-02
 -1.2693614e-01
 -1.4769508e-03
  4.5044299e-02
 -1.1292735e-01
  3.4278393e-02
 -9.0703126e-03
 -9.4150007e-03
 -8.7459339e-03
  8.5506849e-02
  7.6588161e-02
 -1.0618004e-02
  5.2864533e-02
  2.4853202e-02
  1.5962251e-02
  2.0474032e-03
 -2.9125588e-02
  2.1843325e-02
 -8.3458591e-03
 -4.1917238e-02
  1.3467992e-02
 -4.8246640e-01
 -1.0373650e-01
 -9.4335878e-01
 -2.1221471e-01
 -1.6687521e-01
  1.1748680e-01
  3.1033222e-02
  2.2951856e-02
  1.8031728e-01
 -2.7656347e-02
 -1.4973293e-01
 -2.3992317e-02
 -4.9232277e-03
 -9.0733647e-02
 -2.0326003e-02
  4.2212065e-02
  8.2952952e-01
 -1.6084502e-02
  1.1253575e-01
  7.5274393e-02
  1.6197826e-03
 -1.6171509e-01
  2.5456405e-01
  1.0317521e-02
  1.1183824e-01
 -2.0758636e-02
  7.1073502e-01
  1.5318733e-01
 -1.7209623e-03
  6.0103562e-02
 -5.2629169e-02
 -5.0559822e-02
 -1.0176966e-02
  3.6103837e-02
 -1.2207807e-02
  4.1529663e-02
  1.1377516e-02
  9.7173959e-02
  1.7322837e-01
  4.7201249e-03
 -6.8157511e-03
  7.7196397e-02
  5.5046916e-02
  5.0457280e-02
 -7.1745396e-02
 -6.4327955e-02
  8.4940657e-02
 -8.8896118e-02
  7.1440652e-02
 -1.3371944e-01
 -2.4890903e-02
  3.5381317e-02
 -1.4558746e-02
  4.7371369e-02
  9.4128512e-03
 -3.9182492e-02
 -8.2516605e-01
 -2.6635977e-02
 -3.7886560e-02
 -2.8314505e-02
  4.7630712e-02
  3.4094381e-01
 -5.7331797e-02
  1.0604030e-02
 -1.9283891e-02
 -1.6524723e-01
  1.6524073e-01
 -8.4164500e-02
 -2.7358614e-02
 -6.0151204e-02
 -2.8411582e-01
 -1.5010476e-01
 -3.1969300e-03
  3.3281021e-02
 -5.4348418e-03
  6.3242304e-01
 -7.1286969e-02
  2.0573461e-02
  9.0327285e-02
  1.6494103e-02
 -7.2898758e-03
  2.4468385e-02
  2.7398887e-01
  2.6816988e-04
  6.1449595e-02
 -7.9907537e-02
 -5.9670117e-02
  4.9337398e-02
 -2.0114373e-02
  2.8077619e-02
 -3.9736029e-02
  2.0653164e-01
 -6.7742907e-02
 -3.6588307e-02
 -6.8853311e-02
  5.5175549e-03
  2.2581015e-03
 -3.8266210e-03
  3.2287501e-02
  7.4719921e-02
  5.1258866e-02
  8.6217560e-03
  2.2392334e-02
 -2.8710367e-02
 -4.2486400e-03
  9.3046360e-02
 -7.1011759e-02
 -3.4785267e-02
 -9.1270776e-03
 -3.8397917e-01
 -3.0572318e-02
  3.1189542e-02
 -1.8482424e-02
  3.1947378e-02
 -3.7779137e-02
  7.5155772e-02
  7.6186442e-04
  6.6509442e-03
  7.5507915e-04
  3.0759400e-02
 -5.7634109e-01
 -3.6646082e+00
  1.4071863e-02
  5.1404983e-02
  2.6132953e-01
 -3.2457292e-02
 -4.3140411e-02
 -8.8169903e-02
 -1.9863851e-02
  5.9750799e-02
 -2.7674155e-03
 -3.6447626e-01
  1.2009938e-01
 -3.9622924e-01
  1.7489199e-02
  6.9683148e-03
 -3.3990223e-02
  1.0392165e+00
 -1.2687831e-01
  1.9533232e-02
  4.1324507e-02
 -3.5812017e-01
 -7.5130694e-02
  8.5763328e-02
 -1.2169147e-01
  3.5611346e-02
  3.7849035e-02
 -1.1748771e-02
  1.1591579e-02
 -2.8081557e-01
 -2.0704921e-02
 -4.8016634e-02
  1.9112006e-01
  5.3467475e-02
 -2.2843189e-03
  1.0562123e-02
  6.1643843e-02
 -1.3062023e-01
 -1.7215783e-02
 -4.6196221e-03
 -2.0698670e-03
  1.0942064e-03
  3.2208108e-03
 -1.7228660e-01
 -2.3947485e-02
  3.5420399e-02
 -1.7768376e-02
  2.8351251e-02
  9.5332272e-02
 -6.1135650e-02
  1.4923419e-03
 -4.3164082e-03
  5.8516734e-03
  5.4584458e-02
  1.1911707e-01
  1.3987260e-02
  1.3081466e-01
  2.8656561e-02
 -4.0103056e-04
  1.2469476e-01
  1.9724865e-03
  5.4543173e-01
  5.1273063e-02
 -1.1670024e-01
 -1.5253535e-02
 -1.0792055e+00
  2.3574240e-03
 -4.2303565e-01
 -1.9745521e-01
 -6.3525863e-02
 -1.1905562e-01
  4.7292331e-01
 -8.9825898e-02
  1.6993879e-01
 -2.2978976e-02
  2.2593513e-02
  2.4115977e-01
 -7.2840527e-02
 -4.0202390e-02
  3.5447836e-02
 -6.3573599e-02
  3.5338551e-02
 -5.6856370e-01
 -1.6183098e-01
 -3.3209229e-01
  6.7586176e-02
  1.0188338e-02
 -2.1292565e-02
  8.7695912e-02
 -1.5986808e-02
  5.0221045e-02
 -6.4671151e-02
  3.0048627e-02
 -1.2226294e-02
 -9.8396614e-03
  6.2430039e-02
 -3.6623619e-02
 -2.6650034e-02
 -3.7972495e-02
 -4.0701110e-02
  9.2650943e-02
  5.7193916e-02
  2.9090896e-02
  6.0131997e-03
 -6.7638293e-02
  4.2229086e-02
 -2.3820682e-01
 -2.5053177e-02
  1.0626089e-02
  1.8061301e-01
  1.3217431e-02
  3.5048846e-02
  7.0671365e-02
 -2.2081144e-02
  5.6147933e-02
 -2.8312928e-03
 -4.6545144e-02
 -3.3422239e-02
 -1.1256451e-02
 -1.4546526e-02
  6.4433140e-01
 -3.9611068e-03
 -1.9036558e+00
 -1.4934054e-01
 -2.3538140e-03
  8.6822947e-03
 -1.9705533e-03
 -1.7777039e-02
 -3.2507099e-02
  3.7948545e-02
 -7.3564976e-02
  3.2566823e-02
  3.3844765e-02
 -5.2161399e-02
 -6.6118285e-02
 -3.0802138e-02
  4.6425268e-02
  4.6092905e-03
  2.2593463e-02
 -4.4917166e-01
 -1.9353361e-01
  3.4919457e+00
  9.7244382e-03
  4.7666933e-02
 -3.6589999e-02
 -1.2327655e-01
  3.3281397e-02
 -4.2153712e-02
 -1.3894078e-02
 -1.0855980e-01
  1.1746506e-02
  3.2492304e-01
 -3.9139223e-01
  2.1008283e-02
  2.8662172e-01
  4.2484839e-02
 -9.1327988e-02
 -3.6764998e-02
 -3.7769984e-02
 -8.7738544e-02
 -1.4010789e-01
  1.7171654e-01
  3.3803012e-02
 -2.6325810e-01
  1.9525131e-02
  1.3047485e-02
  1.0150695e-01
 -3.2771628e-02
  6.1826162e-02
  1.2464194e-01
  7.5075977e-02
 -1.2395463e-02
 -7.3485404e-02
 -1.4209696e+00
 -3.5777786e-03
 -7.7586615e-04
 -2.6722029e-02
  2.9652951e-02
 -8.1212958e-03
  4.6593221e-03
 -8.4592868e-03
  4.0697092e-01
  1.1412692e-01
  7.4214578e-02
  1.3813816e-02
 -2.7801080e-02
  1.2306913e-02
 -1.6175944e-02
 -1.1978473e-01
 -2.2363495e-02
 -6.6152448e-03
  3.0102385e-02
  7.2664887e-02
 -9.2702195e-02
  2.4326237e-02
 -1.7710226e-03
 -7.8295864e-02
 -3.3756477e-01
 -2.4529420e-02
  4.6248031e-03
  7.9219572e-02
  1.9710368e+00
 -4.5432147e-02
 -9.1861248e-02
  1.5473905e-01
 -4.6910036e-02
  2.0766392e-02
 -1.2803758e-02
 -7.4010216e-02
 -5.2542663e-03
  6.1570704e-02
  1.5996573e-02
  1.0809290e-01
 -2.7874878e-03
  2.1433313e-01
 -4.1251048e-01
  3.6981367e-02
 -2.0293680e-03
 -4.9969960e-02
 -3.8150098e-02
 -3.4982121e-01
 -2.3611043e-02
 -1.1570433e-02
 -8.8435002e-02
  4.0789274e-03
 -9.4817571e-02
  2.4693888e-02
  4.0849719e-02
  4.2179096e-03
 -5.1117703e-02
 -3.8579442e-02
  8.9608738e-03
 -4.9107326e-03
 -2.9548729e-02
 -7.4293930e-03
 -5.9941555e-03
 -6.1114084e-02
  1.0572422e-02
  5.9966579e-02
  5.3245708e-02
 -2.3473518e+00
 -7.2884299e-02
 -1.8693366e+00
  1.8904096e+00
  4.2137552e-02
  3.1177266e+00
 -2.5745144e-02
 -1.0741779e-01
  3.3979027e+00
  9.9042308e-01
  5.8479750e-01
 -3.0377836e+00
  1.7122595e+00
 -9.4748414e-01
  7.2201014e-01
  3.1780247e-02
 -7.2162944e-01
  3.8242035e-02
  1.6462767e-01
 -1.7303497e-02
  1.5840031e-01
  1.5027545e-01
 -4.3065440e-02
  1.9379142e-03
 -2.9772885e-02
 -1.2221573e-01
  1.1087065e-01
 -1.4794116e-01
  2.6360413e-01
  8.9619339e-01
 -1.5758492e-02
 -7.8538442e-01
 -2.1890646e-02
 -1.5446815e+00
  3.2695078e-03
 -5.0773390e-02
 -1.7550476e-01
  1.2040798e-01
 -6.2191987e-01
  3.9338928e-02
 -3.6740672e-02
 -4.4694219e-02
 -1.7805066e+00
  1.4945339e-01
  4.3860471e-01
 -2.8201476e-01
 -5.2227247e-01
 -1.8410522e-02
 -1.9909715e-02
  5.7017304e-02
  6.2992775e-01
  4.7902409e-03
  2.2792365e-01
 -2.6647836e-01
 -1.0418975e+00
  1.3538198e+00
 -7.5327918e-02
  6.2101956e-02
 -1.3760623e+00
  8.3304536e-01
  5.4129273e-01
  2.7156815e-02
  4.0163476e-02
  3.6551636e-01
 -1.3770410e-01
  1.2284219e-01
 -4.1170096e-01
 -1.5164526e+00
  4.1387200e-01
 -2.1936700e-02
  5.6603855e-01
  4.2009410e-02
 -2.7538285e-02
 -5.8288731e-02
 -2.5279792e-03
 -1.7804836e-01
 -1.7574316e-01
  2.1302707e-02
  1.0575055e+00
  1.4298166e-01
 -7.8740448e-02
 -6.1941648e-01
  2.4158148e-02
  1.2516213e-02
  3.8172770e-01
 -2.7871871e-02
  1.1363765e-01
 -9.2629679e-03
  5.5412239e-01
  7.9906307e-02
 -1.3250421e-02
  3.4704612e-04
 -5.2672803e-01
 -9.0970896e-02
 -4.9199021e-01
  1.9158305e-01
  6.3175887e-01
 -1.7075448e-01
  2.0187415e-01
 -1.1958940e-01
  8.4360492e-01
  1.6871016e-02
  5.4345035e-04
  3.0528007e-02
 -1.4690888e-01
  2.0628588e-01
 -6.5102190e-02
 -2.7152661e-02
  8.5296724e-03
  1.1887048e-02
 -4.2988472e-02
  3.9113898e-02
  5.5391502e-02
  4.8967779e-02
 -4.1011494e-02
  6.6158115e-03
 -7.1806803e-02
 -3.4939677e-02
 -1.3443641e-02
 -1.6846709e-02
  3.9132066e-02
  3.4406602e-02
 -3.5287523e-01
  1.9405354e-03
 -8.5598484e-02
  3.2126077e-02
  4.6947515e-03
 -5.0749812e-02
  1.3985753e-03
  1.1236768e-02
 -2.6845822e-01
 -3.5328498e+00
  1.6859982e+00
  1.1005628e-01
 -7.2600746e-01
  5.5966288e-01
  8.3013801e-03
 -7.2794653e-02
 -3.4152963e-03
 -3.9746866e-02
 -1.0322984e-01
  1.5414596e-01
 -4.6962807e-03
 -3.1501973e-01
  1.0278475e-01
 -2.8018247e-02
 -1.5067707e-01
 -5.6274861e-01
  1.4007403e-02
 -3.0442488e-01
 -6.5661120e-01
  9.0951085e-02
 -2.2990446e-01
 -5.6957025e-03
  9.4027855e-02
 -2.3513122e-02
 -2.1648172e-01
 -5.0837770e-02
 -1.5683904e-02
  3.9617404e-02
 -5.5036999e-02
  1.0439321e-01
 -7.4989355e-01
  9.8053539e-01
  2.4679603e-01
 -1.0742919e-02
 -1.3643370e-02
 -2.4523681e-02
  1.7832071e-02
 -4.3964401e-02
  2.9323128e-01
  2.4099159e-01
  1.0878469e+00
 -1.5602086e-01
  1.4346924e-01
 -1.7704739e-01
  1.9355811e-01
 -1.0077524e-02
 -2.3414429e-02
 -4.7754623e-02
  1.5630370e-01
  1.9341275e-01
 -2.6023504e-01
 -1.1828999e-02
 -3.8754594e-02
  1.4177202e-01
  2.0280659e-02
 -1.2102736e+00
 -1.0659444e-01
 -7.9730213e-02
 -1.4219172e-02
 -6.3560940e-02
  8.1142150e-02
  3.5968941e-02
  1.3186260e-01
  5.0493930e-02
 -3.7298948e-02
 -8.6767301e-02
  1.2697123e-03
  9.7057577e-03
  5.6422882e-02
  1.1307930e-01
  1.0018012e-01
 -8.5019447e-02
  7.8318343e-03
 -7.9368614e-03
 -5.2437270e-01
 -3.5797566e-02
 -1.9192124e-03
  6.8983546e-04
 -1.4126255e-01
  6.4259232e-03
  4.5087971e-02
 -8.6976634e-03
 -1.0395416e-01
  3.4714401e-02
  5.8846969e-02
 -7.7001885e-02
 -2.6796203e-02
 -2.5613351e-02
 -1.9437966e+00
 -1.5297855e+00
  1.8779709e+00
  3.4901018e+00
  4.6057582e+00
 -1.9624098e-01
 -3.7588838e-02
  7.9298615e-02
 -4.7164898e+00
 -1.0990538e-02
 -5.2718186e-01
  1.9246575e-01
 -2.4089238e-03
 -5.8772492e-01
  1.4944533e-01
  6.8469197e-01
  1.8855509e-01
  1.0705575e+00
 -1.6710350e-01
  2.9491261e-02
  1.3688253e-01
  3.0362710e-01
  1.3306231e+00
  1.9183513e+00
 -1.0619313e-02
  2.4103943e-02
 -8.0234908e-02
  1.6092281e-01
  4.5332555e-03
  9.6283898e-02
  4.8435539e-02
  5.7830852e-02
 -4.1876040e-02
 -2.5920514e-03
 -3.5174478e-02
 -1.0386758e-02
  4.3606158e-02
  2.7817160e-02
 -1.6839860e-01
 -4.0792879e-02
  1.4512151e-02
  4.3964975e-02
 -4.9231914e-03
 -6.6532157e-02
  1.7348959e-01
  1.0802031e-02
  7.8908488e-02
  6.7091654e-03
 -5.3627654e-03
  4.5202184e-01
  2.8152786e-02
  4.3247342e-02
 -5.7545610e-02
  3.4032706e-02
 -3.7296027e-02
  7.7083796e-02
 -6.0953744e-02
 -4.4406783e-03
 -4.3003270e-03
  6.1650928e-03
  5.2738231e-01
 -4.5489233e-02
 -6.0682584e-02
 -2.0108074e-02
  9.6791796e-03
  1.1052069e-01
  1.2770984e-02
 -7.3384464e-02
  6.5662093e-02
 -2.3068940e-04
 -1.3048330e-01
 -2.7963849e-02
 -2.3013514e-01
 -3.6937173e-02
 -2.1752714e-01
 -1.5825401e-01
  1.9030770e-02
  3.5383102e-02
  9.3383901e-03
 -2.2083420e-02
 -2.2261563e-01
  1.3899908e-02
  1.2911311e-02
  3.7714825e-03
  1.2171464e-01
 -3.8453484e-01
  6.0297316e-03
  2.3028726e-02
  3.3956777e-02
 -6.5451632e-03
  1.4933282e-01
  1.2421828e-01
  1.4598696e-01
  2.4275539e-02
 -4.9377275e-03
 -2.5850546e-02
  3.2869406e-02
  9.2030158e-03
  1.9364558e-02
 -3.4971502e-02
 -2.7917733e-02
  2.2550810e-03
 -4.7785717e-01
  4.8076138e-02
  1.2734859e-02
  7.7950977e-02
  3.0439062e-02
  1.3764331e-01
  1.6482447e+00
 -3.1922173e-03
  4.9461483e-04
  1.4027984e+00
  7.5005867e-02
  1.0251105e-02
 -8.9983664e-02
 -8.0423214e-02
 -8.4859654e-02
  6.6878563e-03
  4.9039330e-02
  6.0350201e-03
 -9.2770296e-01
  1.7268270e-01
 -2.6385393e-02
 -3.9941344e-02
 -6.0308743e-03
  7.0287883e-02
 -6.7477025e-02
  2.1973914e-02
 -2.6482243e-02
  5.1745687e-02
 -3.4127869e-03
  3.1423405e-01
  5.2041465e-01
  1.9736601e-02
  2.7056590e-02
  3.1394809e-02
 -9.7020632e-03
  1.1651067e-01
  4.6610814e-03
  4.8462741e-02
  4.9857702e-02
 -2.8421059e-02
 -5.1152253e-01
  4.1351584e-01
  7.7815220e-02
  2.4749778e-02
 -1.7545629e-02
  1.3015888e-02
  2.3882307e-02
  4.9821246e-02
  1.3244188e-01
  7.9771867e-03
  2.2642566e-01
 -6.8504035e-02
 -8.2008615e-02
  6.5116890e-02
  8.1163183e-02
 -6.6656440e-02
 -4.2868529e-02
 -3.7537009e-01
  8.6351989e-05
  4.3548960e-03
  4.8098054e-02
  1.7220156e-02
 -1.0414907e-01
  2.3983529e-02
 -5.7361767e-02
 -1.5455164e-02
  2.7787175e-02
  5.3700883e-02
 -5.4437265e-02
 -5.8866012e-01
  4.1297302e-03
 -4.3607857e-02
 -6.4684220e-02
 -9.0440869e-02
 -1.5160630e-02
 -2.3515251e-02
  1.4914284e-02
  2.5792688e-02
  3.4387458e-02
  1.6601796e-03
 -3.3966769e-02
  6.0305350e-02
 -4.6203444e-03
 -2.7407924e-02
  9.4101699e-03
 -8.4132247e-02
 -1.0061050e-02
  5.4042380e-02
 -1.6713025e-02
  9.7524159e-02
 -7.1791954e-02
 -2.6667334e-02
 -3.9691959e-02
  3.9688688e-02
  3.9031949e-02
 -3.3857923e-02
 -7.0364490e-02
  2.5346380e-02
  9.9371541e-03
 -9.5290266e-02
 -2.9475629e-02
  1.8277140e-02
  3.6699977e-02
  1.5466497e-03
 -1.5822150e-02
  3.4196172e-03
 -3.0517134e-01
  1.1531304e-02
  6.6503219e-02
  5.2801482e-02
 -3.1802479e-02
  4.6928622e-02
 -3.9194323e-02
  2.7915498e-02
 -1.7629670e-02
 -6.3314289e-02
 -5.4744143e-02
 -2.1897430e-02
 -1.0805516e-02
 -5.8112692e-02
  9.0132594e-02
  1.6417449e-02
  2.9717887e-02
  1.7047340e-02
  2.6479047e-02
  1.0146037e-01
  2.5001308e-02
 -5.0955601e-02
  4.3718286e-02
 -1.3694136e-02
 -4.3385576e-02
  6.0647011e-02
 -1.0036966e-02
 -3.9255186e-03
 -2.0673919e-02
  9.0494882e-03
 -4.2234775e-02
  2.3964897e-02
 -1.2046996e-02
  5.5653095e-02
 -3.9931003e-02
  4.1396350e-02
 -5.8312207e-02
 -7.7278763e-02
 -3.7706241e-03
  1.0147221e-01
  2.8854772e-02
  2.4990650e-02
 -8.9974731e-02
  1.5272775e-02
 -4.8833999e-01
  1.3449119e-02
 -6.8148568e-02
 -2.6316928e-02
  5.2445056e-03
  1.7287664e-02
 -2.4362920e-02
  8.3402276e-02
  5.4088399e-02
  5.2208109e-03
 -2.1262873e-02
 -6.1116475e-03
  1.1747560e-02
 -1.0886344e-02
  1.3292615e-01
 -8.2104938e-04
 -1.7172584e-02
  1.8793282e-01
  1.1580146e-02
 -1.8331768e-02
  1.8789906e-02
  3.5355404e-02
 -2.5371948e-04
  2.1178324e-02
 -1.0445211e-01
 -5.4714014e-03
 -2.5568077e-02
 -3.1984329e-02
 -2.3003104e-01
  8.2264435e-01
  4.2868111e-02
  1.3696319e-02
  9.1598235e-04
 -1.3347290e-01
  2.9327394e-02
 -8.6603547e-03
  4.4237250e-03
 -3.5168115e-02
 -1.6543809e-02
 -9.2276856e-03
  1.6166788e-02
  5.8037629e-03
  6.5235704e-02
 -1.6060214e-01
 -2.2007162e-03
 -1.4838420e-02
 -9.1604434e-02
 -1.9441885e-03
  5.8319062e-01
  2.4046412e+00
  1.1071070e+00
 -4.8122029e+00
 -1.0433116e+00
  6.5803838e-01
  1.7213280e-01
 -1.7591214e+00
  6.0035340e-03
 -3.5829876e-02
  1.3839897e+00
 -4.0913392e-02
 -1.4938256e+00
 -1.6744153e-01
  9.3374245e-02
  4.4312495e-01
 -5.2501327e-01
  2.9348448e-01
  1.1360055e+00
 -1.6429615e-01
  6.2547363e-02
 -8.7083435e-01
  2.1254933e-01
 -1.3863478e+00
 -3.1794378e-01
  2.0881902e-01
 -1.1594702e-01
  1.6959095e-01
 -2.4396287e-01
 -2.8431705e-01
 -7.1259506e-02
 -8.9499895e-03
 -1.8113963e-02
 -2.6760371e-02
  2.4081895e-02
 -4.0294579e-03
 -6.1379676e-03
 -3.6732346e-02
  1.0356882e-02
  4.8916671e-02
 -4.6789679e-03
  2.9633839e-03
  1.5195525e-01
 -4.5924712e-02
  3.4734689e-02
 -7.2791971e-02
 -5.2165682e-03
 -5.5313045e-01
  1.9223709e-02
  1.3854618e-02
 -1.0818859e-01
 -1.8404644e-02
 -3.3614750e-03
  3.2670673e-02
  6.6014603e-03
  2.9453199e-02
 -4.2348936e-02
  9.4928995e-02
  1.5881827e-02
  2.2140945e-01
 -1.0428636e+00
 -5.3805305e-04
 -1.4090064e-01
  3.4080851e-01
  1.0313447e+00
 -4.1095191e-03
  8.0255851e-02
  1.1478467e-02
  1.4684984e-02
 -4.4838400e-03
 -4.3618292e-01
  1.7876707e-03
 -2.9419243e-02
 -3.2940239e-01
 -5.4891579e-02
 -8.9870378e-02
  4.4298362e-02
 -2.6402362e-02
  1.3030694e-01
  5.2702252e-02
 -5.3873146e-01
  1.1538257e-02
 -9.9106304e-02
 -2.5654884e-02
  1.3608876e-02
  7.1120873e-02
  1.1967346e-02
 -7.7679262e-02
  1.9860379e-03
 -1.9147813e-02
 -5.5667948e-02
 -1.7367577e-02
 -3.2815438e-02
 -5.4268453e-02
 -5.0072264e-02
 -2.9020235e-02
 -1.2428160e-02
 -5.9524436e-02
  2.3465805e-02
  1.8924486e-02
  1.7344080e-02
 -9.2124738e-02
 -1.9493373e-04
 -3.9456312e-02
 -5.7636020e-03
 -8.3196416e-02
  1.8310717e-03
 -7.9870168e-03
 -4.6079930e-02
  2.1259459e-03
 -6.1932201e-03
  2.2875477e-02
  4.4871725e-02
  4.7136568e-02
  9.9249855e-02
 -2.8782947e-02
 -2.7191781e-02
 -1.3298661e-01
  6.3561112e-02
 -3.2893855e-02
 -2.7820325e-01
  6.0334302e-02
 -5.5881798e-02
  2.1706501e-02
 -6.5322511e-04
 -8.1646577e-02
  7.8001544e-02
 -7.6837665e-03
  1.7065883e-02
  4.6123032e-02
 -2.8585970e-02
  3.5914689e-02
  6.2643401e-02
  6.2132630e-02
  1.6442348e-01
  1.6429415e-02
 -8.9902896e-04
  7.4933891e+00
 -1.5792156e-02
  6.1367586e-02
  2.7810467e-02
  1.2895776e-02
  9.0677224e-02
  3.8492080e-02
 -5.1755756e-03
 -5.6266632e-02
  4.5876857e-03
  1.4757207e-02
 -1.7417313e-01
  4.1380562e-02
 -8.9225149e-01
 -9.2918831e-01
 -1.2013692e+00
 -8.7344602e-02
  1.2193848e+00
  4.9546469e-02
  6.5486063e-03
  3.6295997e-03
  1.3934819e-02
  3.4606870e-02
 -3.4141010e-01
  1.8206393e-02
  2.7856295e+00
 -2.2511718e-01
  6.1793592e-02
 -7.3019266e-02
 -1.7515427e-02
  2.7286023e-02
  5.0236240e-02
  1.0886577e-02
  3.7005544e-02
  6.7018449e-02
  4.2226706e-02
 -1.7586147e-02
  7.5541146e-02
 -1.1969512e-02
  2.0886073e-02
 -1.7750114e-02
 -5.0103888e-02
  4.5237771e-01
 -2.4794151e-01
 -2.5960095e+00
  1.1288121e-02
 -9.7325724e-03
  9.2054039e-01
  4.9072403e-01
 -2.0034805e-02
  7.0391014e-02
 -3.2922903e-01
 -5.3451266e-02
 -8.0309480e-01
 -6.6765599e-02
  6.0007536e-01
 -3.7506331e-02
  8.9177517e-03
  5.9615862e-01
 -7.8288391e-02
 -1.2371857e-01
  2.6381906e-02
 -3.8855389e-02
 -1.3054546e+00
  2.7829843e-02
 -3.5219826e-02
 -2.5892562e-01
 -4.1069727e-02
 -6.7961611e-02
 -9.1598101e-02
  6.7719626e-01
 -2.9824674e-02
  2.6007012e-02
 -5.9601629e-01
  3.1771514e-01
 -2.8532563e-02
 -6.5805144e-03
 -1.6530080e-02
 -9.3090124e-02
  1.2934072e-02
  1.4818733e-02
  4.1449029e-02
  1.2161387e-02
  3.8503338e-02
 -1.2091500e-01
  5.4867905e-02
 -1.2881491e-01
 -3.4442972e-02
  1.6119389e-02
  1.3039603e-02
 -2.1348004e+00
 -7.3143780e-02
 -3.6766271e-03
 -1.2375003e-02
 -5.2027583e-02
 -9.6606173e-02
 -2.4180368e-02
 -1.3634753e-03
  2.4387110e-03
 -1.4025157e-02
 -4.6953291e-02
  7.4759062e-04
  1.9005975e-02
 -9.5382575e-03
  1.1020528e-02
  7.9896815e-02
  3.0058383e-03
 -9.7208740e-03
  2.3852697e-02
 -1.1498042e-02
  3.8339820e-02
  2.1443928e-02
 -2.1978857e-02
 -6.5146252e-03
 -5.6031514e-02
 -1.6811411e-01
 -2.0106852e-03
 -3.5191026e-02
  2.9315073e-02
  7.3412254e-02
 -4.4735312e-01
 -5.7866651e-01
 -1.0870414e-02
 -1.2830676e-02
  6.9558211e-02
 -1.0234106e-01
 -2.1350022e-02
  8.6453676e-02
  7.6915607e-02
 -1.3893937e-01
  4.0466342e-02
  2.1025453e-02
  5.7526920e-03
  6.5816867e-01
 -1.1482140e+00
  4.0510693e-01
 -2.5774451e-02
 -7.0143962e-01
 -2.7533613e-02
  9.3478382e-02
 -1.9992392e-01
 -3.3597831e-02
  4.0443833e-03
 -4.7988850e-01
 -8.3066523e-01
  1.2279918e+00
 -5.4347807e-01
 -1.3497533e-01
 -2.5388327e+00
 -3.5929490e-02
 -9.6872188e-02
 -2.5463505e-02
 -6.3756900e-03
 -1.6629555e+00
  3.0410552e-02
 -4.5410368e-01
 -8.6898627e-03
  8.5576937e-02
 -2.5339141e-03
 -4.6319615e-02
  5.1290253e-03
 -5.1038794e-02
 -2.8653061e-01
  9.7473997e-01
  1.3833483e-01
 -9.3869972e-01
  3.5022849e-01
 -2.1349538e-02
  3.4180451e-02
 -6.4365916e-02
  1.2335828e-01
 -2.2558156e-02
  5.4559451e-02
 -5.2838826e-01
 -1.4459487e-02
  3.0982763e-01
  3.2835016e-03
  7.0569678e-03
  2.8000325e-01
  1.9071260e-01
 -3.7379704e-02
  1.4023863e-02
  3.0182181e-02
  6.3051139e-03
 -4.6634530e-03
  6.0134776e-02
  4.3686356e-02
 -4.0460445e-02
  1.8932809e-01
  1.6878651e-02
 -6.5516728e-01
  2.4675610e-03
  3.6590565e-02
 -1.0318232e-01
  1.1387745e-02
  3.2553323e-02
 -3.3768129e-02
 -1.9712320e-01
  5.1171519e-02
  4.4056430e-02
 -6.8275011e-03
  5.3019583e-02
  1.2829729e-02
 -1.6086893e-02
 -6.6149071e-02
 -1.7305045e-01
 -6.1608914e-02
  1.4549538e-02
  4.0278450e-02
 -1.1972587e-01
 -9.3842274e-01
 -3.3863939e-03
  3.4732550e-02
  2.4343269e-02
  1.3432273e-02
  1.0526597e-01
 -1.4469161e-02
 -3.8633358e-03
  1.3822675e-02
 -5.0304161e-04
 -2.9179598e-03
  2.8976285e-01
  7.0883118e-02
  4.3380755e-01
 -2.5672632e-01
  3.1320192e-02
  5.8622438e-02
 -4.5918524e-01
  1.9676542e-02
  4.9844824e-02
 -8.7517053e-02
  2.2795560e-02
 -3.2139149e-02
 -1.7359141e-01
 -2.6917148e-01
 -4.7716618e-01
 -4.0643473e+00
  3.6859405e-01
 -4.9972409e-01
 -1.1344504e-01
  4.0588427e-02
  3.3547703e-02
 -2.0930085e-01
 -1.3036714e-02
  1.0613152e-01
  6.0845476e-02
  1.5090645e-02
  1.0068760e-02
 -7.9007854e-04
  6.0171224e-02
  4.5605063e-01
  1.6281737e-02
 -4.4294707e-02
 -1.9333152e+00
  4.5207687e-02
 -4.0619794e-02
  8.1312194e-02
  2.4892382e-02
 -9.5969774e-02
  6.9040291e-02
 -2.8427878e-02
 -5.1420880e-03
 -2.2148741e-02
  8.5613921e-02
  4.2591454e-03
  5.4854676e-02
 -1.1442026e-01
  1.0498952e-02
  3.3845041e-02
  2.8704973e-02
 -1.1678893e-02
 -4.8394527e-02
 -4.3186788e-02
 -1.9301383e-02
  1.6754791e-02
 -6.6296817e-03
  3.3136442e-02
 -1.9962719e-02
 -9.4345815e-02
  2.2601362e-03
  1.0263909e-03
 -1.5675090e-02
 -6.1080813e-02
 -2.5109938e-01
 -7.7638000e-01
 -2.2473790e-02
  3.3676691e-02
  4.4466700e-02
  2.3819966e-02
 -1.0461246e-01
  7.6744817e-02
  4.5020610e-02
 -2.4211664e-02
  4.3329343e-02
  1.8509345e-02
 -2.4850069e-02
  1.0312034e-02
 -5.1324391e-03
  1.3016807e-01
  2.4883801e-02
  2.3014264e-01
 -2.1883311e-02
 -4.9748439e-02
 -6.6173621e-02
 -3.2384824e-02
  2.0846711e-02
  2.1143934e-02
 -8.4169671e-02
  1.7636728e-03
 -2.7424518e-02
 -5.6762740e-02
 -3.7169844e-02
  2.0877732e-01
 -1.2027395e+00
  4.2740935e-03
  3.2220320e-03
 -3.5457265e-02
 -4.3608308e-02
 -5.4379418e-03
 -1.7395172e-02
 -8.7877637e-01
 -3.2678209e-02
 -3.5206514e-04
  9.8836595e-01
  1.1154874e-01
 -7.7089377e-02
  1.8705395e-03
  1.2532430e-02
  1.2985897e-03
  1.0245048e-01
 -3.5354413e-02
  2.9130429e-02
  5.6768474e-03
 -1.5194884e-02
  4.4459002e-03
  1.0361290e-02
  3.3146668e-02
  2.0995473e-02
  5.9521038e-02
 -1.4730084e-02
 -2.2852980e-02
 -5.6224361e-02
 -1.5996742e-01
 -5.3630091e-02
 -3.9068978e-02
  3.5474765e-01
  1.7035184e-02
 -1.8075477e-02
  9.3790619e-03
 -7.5928628e-02
  7.2037883e-02
  8.6822785e-02
 -2.1210488e-02
  7.3789668e-01
 -7.5384273e-06
  4.3931394e-03
  7.7817351e-02
 -7.7122841e-03
 -1.2355563e-01
 -3.3781361e-02
  3.5556830e-02
 -1.4999788e-02
  2.0661194e-02
 -2.1586470e-02
 -2.6079707e-02
 -8.9829750e-02
  1.0044813e-01
 -7.7595390e-02
  1.7053524e-01
 -5.7628114e-02
 -3.8677998e-02
  1.5254745e-02
 -7.2718255e-02
 -3.2671284e-02
  5.6333593e-03
  5.9149754e-01
 -4.3684065e-02
 -4.1148074e-02
  3.9607413e-02
 -1.6482055e-02
 -5.2042171e-02
  4.9365307e-03
 -6.4107701e-03
 -2.7277691e-02
 -6.3865796e-02
  1.4409594e-02
  3.1805813e-02
 -7.0674986e-02
 -3.1045980e-03
  1.5529165e-02
 -5.2802622e-02
 -9.4675701e-03
  1.1548988e-01
 -3.6628097e-02
  9.5362421e-03
  1.2217935e-02
 -1.5623047e-02
 -2.2422608e-02
 -2.8443737e-02
  3.9491355e-02
  3.6066286e-02
  6.3189389e-03
 -4.0450346e-02
  2.0853037e-01
  1.4484736e-01
  2.3828972e-02
  8.2259648e-02
  5.4210350e-02
 -2.5432562e-02
  3.1013735e-02
 -3.1260274e-02
  6.3857101e-02
  2.5650149e-03
 -2.7572697e-02
  1.6149853e-01
  7.5489724e-01
  7.3936239e-02
  1.3170809e-02
 -3.0403623e-01
  1.9743100e-03
 -3.6203265e-02
 -2.9560955e-02
 -6.9252715e-02
 -1.0521252e-01
 -2.2338742e-02
  7.6004206e-03
  1.1971389e-02
 -4.6810880e-02
  2.1162825e-02
  6.8462798e-03
 -1.1331525e-01
  1.1222164e-02
  2.1407347e-02
 -5.6028154e-02
 -2.1214940e-02
  7.5028874e-02
  1.9704204e-02
  9.8464992e-03
  3.5665069e-02
  7.2772452e-03
 -8.5812155e-03
  2.1683462e-02
  8.5257880e-02
  3.6553062e-02
 -3.8621150e-02
  1.6602999e-02
  2.2621978e-02
  1.7181877e-02
  1.0313967e+00
  5.5624049e-02
  3.1898037e-02
 -6.7588262e-02
  1.4804692e+00
  1.5308806e-01
  2.0842168e-02
 -9.5626362e-02
 -1.0165225e-01
 -1.7762307e-02
 -4.0380741e-03
 -3.0133493e-02
 -1.4492408e-02
  3.0286057e-02
 -2.0206643e-02
 -6.7267460e-01
 -2.6617938e-01
 -1.8021706e+00
 -1.3419282e-01
  1.4753833e-02
 -9.8647876e-03
 -5.1840551e-02
 -1.4973002e-02
  1.0944006e-01
  2.8020075e-02
 -1.7643689e-01
 -1.2254546e+00
  2.8294036e-01
 -6.4929986e-01
 -7.7848397e-02
  3.7993170e-02
  1.3210449e-01
 -9.6057989e-02
  8.4507637e-02
 -2.6753101e-02
 -4.0174642e+00
  3.1955693e-02
  3.8361616e-02
 -3.4233721e-03
 -4.2578675e-02
  9.5860347e-02
  1.1280531e-03
 -3.9071304e-01
 -3.6433628e-01
  3.2055400e-02
 -1.5033133e-01
 -9.8189540e-02
  1.8332973e-01
  5.6633923e-02
 -2.6479607e-02
  6.6108182e-02
  1.0740423e-01
  1.3609168e-02
  1.0947506e-02
  7.2203195e-03
  2.1320144e-02
 -3.8128600e-02
 -2.2290096e-01
  1.6762044e-02
  1.0848764e-01
  4.9812486e-03
  1.8413253e-01
 -1.4799152e-02
  5.1156290e-02
  7.8034298e-03
  1.2721672e-02
  8.4288500e-02
  1.3373677e-01
 -1.4059032e-02
  2.8346781e-02
 -6.3026045e-04
 -2.1007279e-02
  4.5355417e-02
 -3.3220671e-02
 -3.4025870e-02
 -6.4093389e-02
 -6.8015093e-01
 -6.8314880e-01
 -3.0089164e-01
  4.2679328e-01
  3.0486202e-01
  1.5194224e-01
 -4.4876099e-02
 -2.6383078e-02
 -2.2989631e-02
 -1.6983641e+00
  4.1827798e-01
  4.9021488e-01
 -1.1014031e+00
 -7.6720387e-02
 -6.0547914e-02
  1.7542496e-02
  5.1038388e-02
  1.0512462e-01
  4.1733134e-01
  8.1265682e-01
 -5.8473453e-02
  1.4162453e-01
 -3.5557788e-02
  9.1362810e-03
 -8.5486913e-01
  9.9647921e-03
  1.9670245e-01
 -5.4580861e-01
 -1.3926496e-01
 -9.6266872e-01
 -9.7770551e-03
  6.3256189e-02
 -2.6437780e-01
  1.1916171e+00
  2.7620651e-02
  5.0828416e-02
 -7.9522334e-02
  1.6941212e-02
 -1.8979751e-01
  4.8959449e-02
 -1.0287086e-01
  3.9681527e-01
  1.6242741e-02
  1.2933098e-01
 -5.7367548e-02
 -8.1857431e-01
  3.7379231e-02
  1.7737091e-02
 -4.1840792e-02
 -5.4405507e-02
  3.3112024e-03
  7.5894572e-02
 -1.2997614e+00
 -2.0524777e-02
  3.4757901e-02
  5.0332467e-04
 -1.0188466e-01
  8.2122773e-02
 -1.4038349e-02
  3.4139043e-01
  3.3356588e-02
 -2.9924831e-03
 -2.8688427e-02
 -2.3047229e-02
  4.7163423e-02
 -1.8972198e-02
  3.8651962e-02
  8.0975201e-03
  4.1113973e-02
 -1.3806875e-02
 -2.8494094e-02
 -1.4966825e-01
 -8.2400218e-02
  7.3565878e-02
 -2.6656857e-02
 -5.2325908e-02
  1.2960000e-01
 -4.4858582e-02
 -7.0972922e-03
  2.4087766e-02
 -4.2980582e-02
  6.0572635e-02
 -1.4215471e-01
 -1.5361061e-02
  3.9494388e-02
  1.1783188e-02
 -3.1908397e-03
  2.5834039e-02
  1.1414602e-01
  5.2221650e-01
  2.4854373e-02
  8.8394746e-02
  5.8380973e-01
  2.3398533e-02
  1.7079744e-01
  1.5169818e-02
 -9.2542164e-02
  3.2887712e-02
  2.7878091e-02
 -2.7287228e-02
  1.0992139e-02
  1.1594724e-01
 -1.9068065e-01
 -8.1153011e-01
 -1.3079372e-01
  1.2371216e-02
  4.8439290e-02
  4.3348696e-02
 -1.0437146e-02
 -1.5367392e+00
  1.7707638e-02
 -1.8454785e-02
 -2.9415442e-02
 -6.0010061e-02
  1.1904893e+00
 -8.3884895e-03
 -7.1386456e-01
  3.4581777e-02
  8.9552268e-02
 -5.5046189e-01
 -4.1005630e-03
  2.0228921e-02
 -2.1535620e-02
 -9.1470115e-02
  2.5965247e-02
  3.4605827e-02
 -8.4251225e-02
  1.0114443e-02
  8.5952021e-02
 -5.0922022e-03
  4.8247617e-02
 -6.6618575e-03
 -6.4066365e-02
 -7.4998632e-02
 -9.8469732e-03
 -9.1369590e-03
 -8.6505972e-03
  5.6668598e-02
  3.2378030e-03
 -2.0706400e-02
  3.3775657e-02
  3.6954425e-02
 -7.3423311e-02
  3.4243081e-02
  1.9254988e-02
 -4.9808840e-03
  6.9862502e-03
  1.3338325e-02
  2.0939287e-02
 -1.1370962e+00
 -3.6144811e-03
 -1.4811761e-02
  1.0876773e-01
  1.4314289e-01
  2.9663788e-02
 -1.0296354e-01
 -5.5367254e-02
  5.7088500e-03
  4.9304005e-02
  1.5551900e-04
 -4.7941064e-03
 -6.8371780e-02
  4.0227775e-03
  5.5053458e-02
  1.2758984e-01
 -6.7761220e-02
 -4.9321782e-03
 -4.2835791e-02
  3.9852943e-02
 -1.3067148e-02
 -1.1617229e-01
  5.7066020e-02
  8.9977421e-02
 -1.6036071e-02
 -1.3690245e-02
  1.0787530e-01
 -6.0408753e-03
  2.0833319e-02
 -7.3057614e-02
  8.6209871e-02
 -9.7296543e-02
  8.1299134e-02
  9.8596841e-02
  6.5983111e-01
  1.4201458e-01
  4.6776146e-02
 -1.8251000e-02
 -2.1922246e-02
 -1.2665497e-01
 -2.8264323e-01
  4.4145510e-02
  6.6887336e-03
  4.2502582e-03
  5.7977550e-02
 -4.7650501e-02
  3.8669726e-03
  9.5118675e-03
  1.2932270e-02
 -1.1726526e-02
 -1.4514001e-01
 -2.8776215e-02
 -2.2347830e-01
  4.6073381e-02
  9.7246114e-03
  9.7315386e-02
  3.1716660e-02
 -4.9300317e-02
  5.2989792e-02
  6.5366309e-03
 -2.2602485e-02
 -5.1178862e-03
 -2.0141199e-01
 -6.7142022e-01
  1.0250396e+00
  1.4819279e+00
  4.2543331e-01
 -1.2537912e-02
 -1.6003213e+00
 -3.0326539e-01
  1.0032995e-01
 -7.8112274e-01
 -1.2385170e-01
  9.2185624e-03
 -1.6823107e-01
 -8.7160833e-02
 -1.2674721e-01
  9.0750539e-01
  6.0216665e-01
  1.3151401e-02
  1.7785628e+00
 -4.8638526e-02
  1.8558863e-01
 -8.5784560e-01
  5.3554345e-02
  5.5976525e-02
  3.8920308e-03
  4.9526028e-02
  2.3612654e-01
 -4.2557694e-02
 -3.1066906e-01
 -4.5028009e-02
  4.7101926e-02
 -1.2162216e-01
 -4.0596858e-02
 -1.0091745e-03
  3.8866658e-02
 -1.3526150e-02
 -1.3214780e-01
  1.1209724e-01
  1.6638996e-02
 -1.0011735e-01
  3.3815917e-02
 -3.0748362e-02
  8.5195430e-02
 -2.9824557e-02
  3.8314678e-03
 -1.4232826e-02
  1.7773874e-02
  3.6353171e-02
  6.6308722e-02
  2.0896999e-02
  1.2275468e-02
 -7.7323034e-02
 -1.1733720e-01
 -7.0354110e-04
  2.9299449e-02
 -4.3237645e-02
 -3.0126013e-02
  6.3154297e-03
  1.4838028e-01
  2.1922214e-02
  2.1660190e-02
  1.0789976e-02
  6.1445221e-02
 -3.7381213e-02
  1.5323084e-02
 -1.3848014e-02
 -1.1975659e-01
  1.3494054e+00
  3.1556573e-02
 -2.1585600e-02
 -7.9753278e-03
  3.5237814e-03
 -2.5369427e-01
 -6.4352870e-02
  6.7517035e-02
  1.2951459e-02
  2.9058900e-02
  1.2239130e-01
 -3.5527286e-03
 -1.9308603e+00
 -1.8501565e-02
  5.2134953e-02
 -6.1655890e-02
 -2.0238560e-02
 -4.7097481e-03
  4.4371828e-02
  9.0574399e-03
  9.4960749e-02
 -2.3627256e-03
  5.2644515e-05
 -3.2971919e-02
  4.4813216e-02
  5.6084488e-03
 -9.2428461e-02
 -3.0549129e-02
  3.2781303e-02
 -3.6812086e-02
 -8.9283787e-02
 -1.5852785e-02
 -6.2696137e-02
 -2.2729013e-02
  3.6952082e-02
  8.5098013e-02
  1.1893878e-02
 -4.1167095e-02
  7.1384840e-02
  4.2213458e-03
 -1.1859837e-02
 -3.6533073e-02
 -4.2737348e-04
  2.5558805e-03
 -3.6777619e-02
 -3.5341527e-02
  2.8560024e-02
 -4.1880768e-02
 -4.4718847e-02
 -6.3719392e-02
 -3.9613754e-03
 -8.7553866e-02
 -4.3418825e-01
 -9.5371276e-02
 -4.7652936e+00
 -2.1347287e-01
  1.7590876e-01
 -1.7460691e-02
 -1.3520582e-02
 -3.4591146e-02
  3.1012606e-02
  1.8174825e-02
 -1.9177599e-01
 -6.0212767e-01
 -7.2867256e-01
 -7.7229732e-01
 -9.0218914e-01
  2.1663392e-01
  1.4454453e-01
  2.4183314e-01
  5.5385917e-02
  3.7579936e-01
  5.4697044e-02
  2.1907821e-01
 -2.0217890e-01
  5.5397678e-02
  2.0083380e-01
 -1.0337301e-02
 -3.5498270e-01
  7.1742423e-02
  1.2555157e-01
 -7.5925672e-01
 -6.3400462e-02
  7.7255839e-01
  3.6781672e-01
  5.7362061e-02
 -8.1288218e-01
 -1.0354459e-01
  9.2229061e-04
  2.6512304e-01
 -2.2420323e-02
 -2.3409009e-01
 -2.4112042e-02
 -1.4104471e-01
 -9.9103153e-02
  6.0803466e-02
 -4.9983105e-03
 -9.8675548e-04
  4.2840715e-02
 -1.8863231e-01
  1.8767786e+00
  4.6163559e-01
 -1.3676877e-02
 -5.7808340e-02
 -2.1460354e-03
 -1.8078791e-03
  3.0309397e-01
 -1.6873052e-02
 -6.0314033e-02
 -7.1798344e-03
  9.3703300e-02
  3.1900671e-01
 -3.3297639e+00
 -1.1735687e+00
 -4.5425752e-01
  7.3876196e-01
  8.5786033e-01
  2.0145457e-02
  1.2626396e-01
 -1.0465582e-01
 -1.6775335e-01
 -3.8536626e-01
  1.0452055e-02
  1.1008430e+00
  4.6124761e-03
  1.5602178e-03
 -3.2763693e-01
  1.1650797e-01
  2.9145315e-01
 -3.5234293e-01
  2.7615654e-01
 -4.2274126e-01
  4.0520334e-01
 -3.6207128e-01
 -3.9857376e-02
  1.7956095e-02
 -1.6017174e-02
  6.2236425e-02
 -6.8934935e-01
 -2.5226748e-01
 -1.4753006e-02
  2.6154559e+00
  8.5360670e-01
 -1.2281214e+00
  5.7053068e-03
  1.9416990e+00
  4.6223789e-02
 -2.9699937e-02
 -9.6263415e-01
 -1.7870344e-02
  2.0976678e-02
 -2.4337571e+00
 -4.3030418e-02
  3.9639201e-02
  4.1454777e-02
 -6.9852006e-01
 -7.9284022e-03
 -2.0822451e+00
 -1.2326163e-01
 -1.4304259e-01
 -1.1253051e+00
  5.6475885e-02
  1.4674617e-01
 -1.3962147e-03
  1.0464996e+00
 -1.8296261e-01
 -1.0089440e-01
  1.0903561e+00
 -3.0842355e-02
  2.7647933e-02
 -5.9528854e-03
 -8.5228875e-02
  7.5301006e-02
 -2.8242540e-01
 -1.5677296e-02
 -1.8578972e+00
  3.0053079e-02
  2.2960436e-01
 -7.1725197e-02
  2.2921037e-02
  9.9159771e-01
 -1.5634928e-02
 -1.4100054e-02
  4.6425143e-01
  1.3856742e+00
 -6.5106857e-03
  3.0338539e-02
  1.9294381e-02
 -1.2391677e-01
 -3.2408413e-01
 -3.9844525e-01
  2.9435983e-01
 -7.9829001e-01
 -1.4259925e+00
 -4.1806653e-02
  5.7374108e-01
  4.8218388e-02
 -5.7299459e-01
 -6.3578928e-01
  4.1096874e-02
 -9.7511917e-02
  7.9796836e-02
  3.9162267e-02
  9.0679191e-02
 -3.7934188e-02
 -2.4999776e+00
 -4.0400971e-02
 -6.0941929e-01
 -3.4610985e-03
  6.1897740e-02
 -1.4150344e-01
 -4.3453410e-01
  4.1608113e-01
  7.5741261e-02
 -5.0108755e-01
  1.0351752e+00
  1.0451040e-01
 -3.9753905e-01
 -1.9395048e-02
  2.5963774e-02
  3.7000495e-01
  8.9145571e-02
  6.5556169e-02
  3.2259780e-01
  6.8574332e-02
  3.5629755e-01
 -8.4701024e-02
 -4.4933712e-01
 -5.9602863e-01
 -2.7414588e-02
 -4.7835338e-01
  1.2331060e-01
 -9.7144386e-03
 -3.8993722e-01
 -1.3694817e+00
  8.6076539e-03
  5.9828863e-02
 -2.9331341e-02
 -3.7645426e-01
  7.9635143e-01
 -2.7304280e+00
  1.0109826e-04
  1.5012954e-02
  5.1356323e-02
 -2.7761839e-02
 -1.6834946e-01
 -3.8394586e-03
 -4.6036737e-03
 -1.2213263e-02
  5.6824526e-03
  1.0671970e-02
  5.9642304e-02
  3.1752726e-01
 -2.1249013e-02
  1.0203771e-01
 -9.1858044e-02
 -1.1309261e-02
  3.3923209e-01
 -5.4759085e-02
  3.5529814e-03
  3.5271466e-02
  1.5233260e-02
 -4.5124892e-02
  1.5036056e-02
  1.5970284e-02
  8.5423859e-03
 -2.1742769e-02
  4.2346783e-02
 -5.8716275e-02
  4.9123997e-03
 -6.1497338e-02
  3.5031366e-01
  4.0877704e-02
 -4.6165112e-02
  1.1878928e+00
  6.5648735e-02
 -7.7427481e-03
  1.3997485e-03
  3.6633573e-02
  9.6014488e-01
  1.3966423e-01
  1.4252372e-02
  8.5158937e-02
 -1.7892916e-03
  6.8091351e-01
  3.6852285e-01
  1.0096738e-02
  1.9381510e-01
  8.2173057e-02
  7.3326647e-02
 -4.0894538e-02
  6.7773037e-02
 -7.4132010e-02
  1.2544345e-02
 -7.3845528e-02
  1.3427012e-02
 -7.4518517e-02
  4.1810116e-03
 -3.4290545e-02
 -1.2120388e-02
 -6.4625315e-02
 -9.2351192e-01
  3.0548951e-01
  1.3164507e-01
  8.2975194e-02
  5.9605503e-01
  8.5640080e-02
  3.8523233e-01
  7.1847260e-02
  1.3386437e-01
 -4.0449151e-03
  3.6453966e-02
 -1.6110437e-01
  2.4992475e-02
 -1.8240260e-01
  7.9569910e-03
 -1.7111804e-01
 -3.2946420e-01
 -1.5743214e-01
  2.8840525e-02
 -1.9785637e-02
 -9.1393758e-03
 -7.0952345e-03
  7.9822717e-03
  5.6117725e-02
 -1.4601381e-02
 -9.9888816e-03
 -1.7026827e-02
 -7.2135282e-01
  3.2728413e-01
  9.7853966e-02
 -1.3384607e-01
  3.8809404e-02
  2.6950482e-01
 -5.5375189e-01
 -1.2755259e+00
 -1.1583910e-01
  3.5857301e-02
 -6.1503355e-04
  1.2151568e-01
 -3.9559555e-01
 -5.6773834e-02
 -4.3207207e-01
  1.8713890e-02
  1.2366443e-02
 -3.0750057e-02
  8.3876416e-02
 -2.4522483e-01
 -6.6525094e-02
  2.4674382e-02
 -1.6681762e-02
  1.5347192e-02
 -1.1285711e-01
  1.1048665e-02
 -7.9639308e-02
  1.1189266e-01
  1.3948339e-01
  1.3888684e-02
  7.3214509e-02
 -1.7824738e-03
 -8.4328197e-02
  1.2493948e-02
  3.7978593e-02
 -3.0217502e-01
  3.4541421e-02
 -1.3743080e+00
  2.6788127e-02
 -5.3648492e-03
 -2.2237157e-02
  2.9752668e-02
  7.8064108e-01
  2.3062769e-02
 -1.3987026e-01
  9.2922562e-01
  6.6140018e-02
 -2.4103938e-02
 -7.4545140e-03
  4.8155952e-02
 -6.6340096e-02
 -2.1895077e-02
 -2.4256928e+00
  2.3842869e+00
 -3.2035578e-02
 -3.6807933e-01
  3.4144491e-02
  2.4721755e-03
  1.8700853e-02
  2.2606002e-01
 -6.2649488e-02
 -6.3475892e-02
 -2.0213507e-02
 -2.1928651e-02
 -2.0352453e-02
  5.1062047e-03
 -4.2972736e-02
 -7.0135504e-01
  6.2139019e-02
  5.3840645e-02
  1.4915176e-01
  8.5508469e-03
 -4.3960836e-02
 -1.3966534e-01
 -2.5108784e-02
  2.7225069e-03
 -2.1765634e-01
  2.2900213e-02
 -8.9157056e-03
 -1.2226130e+00
 -2.8715167e-02
 -9.7622380e-02
 -2.4763770e+00
  1.6134657e-02
 -3.4691785e-02
  4.7633417e-02
 -7.6320954e-03
  6.1111618e-02
 -2.3194876e-02
 -6.1100986e-02
 -8.5216947e-03
 -9.3417196e-03
 -5.0045606e-02
 -1.9437509e+00
 -6.2414873e-01
  2.8894541e-01
 -6.4559095e-02
 -2.5646940e-01
  4.5784965e-01
 -2.1516058e+00
 -5.8328561e-03
 -1.1609485e+00
 -4.2121303e-01
  1.9388369e-01
  8.0202453e-02
 -1.4138571e+00
  9.5776077e-03
  4.0272230e-01
 -3.2746005e-01
 -8.3204418e-02
 -6.1937785e-01
 -3.2238770e-02
 -6.2311965e-01
  6.0854056e-03
 -5.0579834e-01
 -1.5975812e-01
 -2.4466012e+00
 -5.9823804e-02
 -4.5313202e-02
  2.1156973e-01
  1.1848802e-01
  3.2193746e-02
 -3.9590310e-02
  2.4691178e-03
  3.3965375e-02
  8.9405960e-01
  1.7038999e-02
  1.3413330e-02
  1.8949239e-01
 -3.9606955e-02
  2.6192594e-02
 -1.7138101e-02
 -6.3187252e-03
  1.6282994e-02
  1.1795094e-02
  4.1853286e-02
  2.2904040e-02
 -8.1773736e-03
  1.1592183e-01
 -1.0042950e-02
 -8.8580869e-02
 -3.5767365e-02
  3.8923718e-02
 -9.3257511e-03
  1.0323605e-02
 -5.5841338e-02
 -1.8150188e-02
  8.6497106e-03
  1.9877508e-02
 -4.2359993e-02
  2.9017806e-01
 -1.3142166e-01
  1.5825260e-02
 -4.9309582e-01
  3.3718497e-01
  6.1621803e-01
  5.3855948e-02
  1.0640976e-01
  2.3908395e-02
  2.4387219e-03
 -4.7966642e-03
 -4.8561404e-03
 -1.1536875e-01
  6.0692854e-02
 -1.7114805e-01
  7.7634389e-03
 -1.3248079e-01
 -1.5459530e-02
  6.5526017e-04
 -5.8275419e-01
 -1.1982122e-01
  1.9620912e-02
  9.3812503e-02
 -2.5876082e-02
  2.0183457e-01
  1.0173509e-02
 -4.9162844e-01
 -3.6195029e-02
  3.9993981e-03
 -5.2383061e-02
 -1.4057662e-02
 -3.0499605e-02
  2.0377163e-02
 -5.0899595e-01
  1.3795701e+00
  1.9584080e+00
  1.6374289e+00
  2.0508299e+00
 -5.3126353e-01
 -1.5726740e+00
 -4.9824843e-01
  3.3413967e-01
  1.3736299e-01
  1.4535861e-01
  1.1285883e-01
 -1.0887103e-01
 -7.4872190e-01
  5.4435451e-02
  2.3630971e-01
 -4.4699392e-01
  3.5574332e-02
  2.9643700e-01
  7.1198159e-01
  1.4614752e-02
  1.5631582e-01
  2.0041157e-02
 -1.6814436e-01
  2.5633022e-01
 -6.6861673e-03
 -2.2586083e-01
 -1.1605176e-03
 -8.8974737e-02
 -1.4669481e-01
 -3.4930009e-02
  1.7572820e-02
  2.2032153e-02
 -3.0760949e-02
  5.8932203e-01
  5.6168532e-01
  3.2432530e-02
 -3.9270040e-02
  2.6500845e-02
  2.8223079e-01
  4.4439733e-02
 -5.8735009e-02
  3.2758042e-02
 -1.8022332e-02
 -3.1506874e-02
  2.9366598e-02
  4.1085377e-02
  3.6882237e-02
 -4.4202898e-02
  1.3567174e-05
 -3.4207024e-02
 -4.5564145e-02
  3.3198617e-02
 -1.1949847e-02
  4.1480684e-03
  2.8665429e-03
 -3.6097751e-03
 -7.9806022e-02
  1.3279057e-02
  1.0962334e-02
  1.9889442e-02
  5.7595342e-02
  7.7032685e-01
  1.8743824e-02
  1.9282937e+00
  3.1923819e-01
  3.2367028e-02
  1.2067977e-01
  8.0399923e-03
 -5.7248849e-01
  1.1028170e-01
 -2.1508199e-01
 -5.4262847e-02
 -2.2492581e-03
  1.1921497e-01
  1.1794661e-01
  1.8279158e-01
 -3.0432481e-02
 -1.0812765e-03
 -1.9269237e-01
  1.2398178e-02
  1.0755416e-02
  5.5803236e-02
 -1.1302954e-01
  1.0301419e-01
 -8.5561432e-02
  6.4889364e-02
 -5.5718765e-02
  7.8544760e-01
  9.7813159e-02
  1.2086910e-03
  4.8604768e-02
  3.8872033e-02
  8.9581721e-02
 -3.7143748e-02
 -6.5113306e-03
 -1.9849835e-02
  5.0420851e-02
  2.6927339e-02
 -3.7734855e-02
  3.1695493e-02
  1.0485899e-02
 -1.2617141e-01
  9.0895638e-02
 -2.9669488e-02
  3.7950236e-02
  9.1490829e-01
  4.8228052e-02
 -6.3801453e-02
  1.8198760e-02
 -7.3330417e-02
  3.5698000e-02
 -8.8183917e-02
 -6.6116937e-03
 -8.0300942e-03
  3.0366918e-03
 -1.2960325e-02
 -1.3755623e-01
  6.3616857e-02
 -9.3548417e-02
 -5.5039474e-03
  3.1067193e-01
  1.1952599e+00
  1.0667402e-01
 -5.7318192e-02
 -2.8768506e-02
 -3.3878591e-02
  1.3405210e-03
  5.5063073e-02
 -9.5327459e-03
  1.4612380e-02
  1.1160434e-02
  1.3880487e-02
 -5.8121268e-02
  6.6419165e-03
  1.6424399e-02
 -1.1568417e-02
  5.1958773e-02
 -3.5364609e-02
 -3.2195929e-02
  2.2728796e+00
 -8.6387470e-02
 -4.0157050e-02
 -3.4408163e-02
  3.8756419e-02
 -5.8033797e-03
  3.2429863e-02
  7.4662897e-03
 -3.5350307e-04
  1.1907483e-01
 -1.3752243e-02
  2.4610974e-02
  6.2024854e-02
  1.9872811e-01
  2.2245371e+00
 -7.8921497e-02
  1.2918250e-02
 -4.2912386e-02
  3.7053508e-01
  2.2436729e-02
 -3.1517532e-03
  1.7185587e-02
 -1.4840220e-01
  1.7695715e-01
 -1.3396436e-01
 -6.6567995e-02
 -1.6509707e-01
 -1.7646801e-01
  4.4674177e-02
  1.2903427e+00
 -5.9973616e-03
  1.9934494e-02
 -1.3539546e-04
  1.0284168e-01
 -1.1968578e-03
 -2.9533874e-02
 -7.5926699e-02
 -3.1395764e-03
 -8.3776318e-02
  9.4542943e-02
  1.8197567e-03
 -8.9859173e-02
  1.7022356e-02
 -4.1685667e-02
  1.3938309e-03
 -4.6024499e-03
  4.7421053e-02
 -8.2315855e-02
 -7.5128436e-02
  2.0665493e-02
 -1.1513834e-02
 -1.2638445e-01
 -9.0575911e-02
 -2.1486634e-01
  2.0970840e+00
 -1.5731131e-03
 -3.0636704e-01
 -1.5147628e-02
 -1.5771718e-01
 -4.4331845e-02
  5.8952039e-03
 -1.6071411e-02
  6.6078639e-01
 -1.5079345e-01
 -2.1620095e-02
 -1.6928926e-02
  2.9834412e-02
 -3.5737395e-02
  1.0830946e-01
 -2.2090105e-02
 -3.9728428e-03
 -1.4079622e+00
 -6.6478193e-02
 -1.6986692e-01
 -2.4930036e-02
  8.4105633e-02
  4.6916913e-02
  8.7872433e-04
 -4.1626342e-02
 -2.6996687e-02
  3.4753364e-02
 -8.5915346e-03
  5.6145016e-02
 -1.7888382e-02
 -6.8841390e-02
 -2.4405310e-02
 -1.2090069e-02
  4.5243565e-02
  1.6172247e-01
  8.7728822e-01
  4.9461946e-02
  4.9120127e-03
 -3.7967972e-02
 -5.3070677e-03
 -6.4331427e-02
 -2.0776603e-02
  3.0951550e-02
 -4.8378562e-03
 -5.6947071e-02
  2.5653237e-02
 -7.9302298e-04
 -6.7150794e-02
 -5.7835497e-02
  8.4165132e-01
  4.3089336e-01
 -5.2064177e-02
 -1.1607767e-02
 -2.5944819e-03
 -5.4589652e-02
 -1.3238072e-02
 -1.4202235e-02
  2.0909956e-02
 -8.6254463e-02
 -1.9058187e-02
 -1.5623081e-03
 -4.7534347e-02
  4.0668476e-02
 -6.2131111e-02
  1.6276542e-02
  9.7928517e-02
  2.9556733e-04
 -6.0265930e-03
  7.8514636e-02
 -1.8313799e-02
  5.5173203e-02
  3.3405274e-02
 -3.0319375e-01
 -2.1479860e-02
 -2.9271895e-02
 -7.1026129e-03
  2.3987671e-02
  3.5669934e-02
  8.3599100e-03
 -2.8261641e-01
 -1.8490134e+00
 -2.0796929e-02
  9.0451731e-04
 -8.1482017e-03
  3.8154580e-02
  5.8144554e-03
  2.4405381e-02
  1.4012697e-01
 -7.5728144e-03
 -2.9998802e-02
  1.4579146e-01
  3.5173532e-02
  4.4478020e-03
 -1.9140244e-02
  1.4371865e+00
 -4.4251032e-02
 -3.5447225e-01
 -2.5709439e-02
  7.4260913e-02
 -2.6884614e-02
 -2.4685252e-02
 -2.5001919e-01
 -6.2234741e-02
 -1.4032233e-02
  2.4323103e-03
 -1.9460581e-02
 -8.6473495e-02
  7.0260271e-02
 -2.5373214e-01
 -4.9699372e-01
 -9.3726672e-02
 -3.9354391e-02
  4.8253346e-02
  1.7508894e-02
  3.0732207e-02
 -1.9786846e-02
 -4.2958550e-02
  1.5833394e-01
 -1.0303187e-01
  6.1572127e-02
 -7.2054401e-02
  7.7682860e-02
  1.4416194e-01
 -3.0229485e-02
 -2.1658715e-02
  1.9857484e-01
 -1.1990943e-02
 -1.5622792e-02
 -4.3806266e-02
 -9.0389505e-02
  8.0971964e-02
 -1.9810375e-02
  2.3801195e-02
  3.2751560e-02
 -1.1359101e-01
 -4.9188264e-02
  1.9487934e-02
 -2.0513963e-03
  4.5067389e-02
 -1.4330667e-02
 -4.1708347e-01
  2.0868199e-02
 -1.8621293e-03
  3.3223640e-02
 -6.7027085e-02
  3.0549657e-02
 -6.5812320e-03
  1.3122000e-01
 -5.3789395e-01
  9.8781459e-02
 -9.3256133e-03
  3.0384174e-02
  4.8748422e-02
 -2.3267038e-02
 -2.9576892e-02
 -2.4028856e-01
 -3.8551044e-02
  1.3296487e-02
 -1.4096821e-02
  7.4609226e-05
 -1.0889034e-02
 -4.3298379e-02
  2.2119120e-01
  9.8790102e-02
  2.2856001e-02
  4.8527338e-02
  2.8682590e-02
  6.0975529e-02
 -5.6289937e-02
  3.3361724e-01
  8.6971670e-03
 -1.3976603e-02
  3.8116664e-02
  1.8395143e-02
 -1.5145898e-02
 -4.4550471e-02
  2.9028328e-02
  3.8575422e-02
 -2.2475859e-02
  1.9149287e-04
 -8.0178231e-03
  4.0456317e-02
 -4.2338762e-03
  8.2820702e-01
  2.1606306e-02
  1.0526105e-02
  3.3021811e-02
 -1.2214803e-03
  8.6033903e-02
 -2.2791820e-02
 -1.6254025e-02
 -6.5700196e-02
  1.5526494e-02
 -3.8648445e-02
 -8.4140517e-02
 -5.1051095e-02
  6.2063880e-02
  1.2129384e-01
 -1.3111939e+00
  4.1167763e-01
 -9.1645712e-01
  2.4314962e-02
 -2.8880247e-01
  7.4099019e-02
 -7.9646975e-02
  3.5894252e-02
 -2.2235556e-02
 -4.3383271e-01
  3.3970594e-01
 -2.3977312e-01
  5.3362787e-04
  5.3600717e-02
 -6.6957395e-03
  1.1166871e-01
 -1.2105078e-02
 -2.8681045e-02
  1.0295554e-02
  7.0655778e-02
 -2.7821462e-03
  2.5152639e-02
 -9.2757188e-02
 -4.6305493e-02
  5.7435885e-02
  2.3732134e-03
 -9.2891157e-03
  1.9034961e-02
  2.9588545e-02
 -1.2527833e-02
  9.3376257e-02
 -8.5012481e-02
 -1.1722683e+00
  1.2781110e-01
  4.0888291e-02
 -3.6730181e-02
 -4.5625187e-02
 -1.7977355e-02
 -6.2617168e-02
 -8.4465884e-02
 -5.6505706e-02
  7.8900881e-02
  7.6572890e-03
  2.1117615e-02
 -2.4440828e-01
  4.4182558e-02
  7.5573539e-03
 -1.3306649e-02
  2.9030416e-02
 -2.0441215e-02
 -2.1492543e-02
  1.3349133e-02
 -1.2453616e-02
  9.1153249e-02
 -2.2083284e-02
 -1.4135560e-03
 -2.9510066e-03
  3.5922948e-02
  3.2467753e-02
 -1.4274481e-02
  1.7760947e-02
  4.6490263e-02
  5.4748088e-02
 -2.2712313e-02
 -1.0291046e-02
  7.4343071e-03
  5.6358124e-03
 -3.0496815e-02
  1.8699392e-03
  5.4849428e-03
 -6.5419257e-02
 -7.5206333e-03
 -5.8960669e-02
  3.3562806e-02
  1.7132239e-01
  7.0660062e-02
  1.5038478e-03
 -1.1677127e+00
  2.2349413e-02
  7.9775034e-03
 -7.6976091e-02
  6.5570064e-02
  8.3772108e-02
  3.0399645e-02
  3.6392000e-03
  2.1211243e-04
 -1.8836276e-01
 -1.5522846e-02
 -5.8066535e-01
  7.5161701e-01
  2.2374006e-01
 -1.0066091e-01
  1.3444370e-01
 -2.3310396e-01
  6.7586645e-02
  1.8264920e-02
  5.7931304e-02
  9.4312996e-01
  4.3110579e-01
  8.5312998e-01
 -1.0653091e-01
  9.1429666e-02
  4.5657482e-02
  1.7881487e-01
  6.8103254e-02
  1.4998144e+00
  1.5955657e-01
  1.7767387e-02
 -1.8308409e-02
  4.1478220e-01
 -3.9380502e-02
  8.9434469e-03
  1.5628722e-01
  2.6545929e-02
  1.0134356e-01
  2.5069484e-01
  6.8396084e-02
 -2.6623514e-02
  2.3138052e-02
  1.0282703e-02
 -8.0075666e-02
  1.3985316e-01
 -5.2944863e-01
  3.3992346e-02
  3.4832802e-02
 -4.1222066e-02
 -1.8726932e-02
 -2.8165851e+00
  5.6984518e-02
 -1.7532991e-01
  7.4641476e-03
 -3.6475008e+00
  4.9900930e-02
  2.1787068e-02
  3.8936172e-02
  6.2215058e-03
 -7.0900968e-03
 -4.1421494e-01
  1.1040746e-01
  2.9280646e-02
  9.3966369e-03
  2.0835632e-02
 -3.9505031e-02
 -4.8526775e-02
  1.0433339e-02
 -1.3699052e-02
 -1.2352813e-02
  2.5465488e-02
  1.3319629e+00
  2.9151018e-03
 -9.7790629e-01
 -6.7400813e-01
 -6.3268535e-02
  2.7422810e-02
 -3.0993393e-01
 -1.2091087e-02
 -1.4942103e-02
  4.6800129e-02
  4.4034042e+00
  2.5698373e-02
  1.1792351e-01
  3.0335667e-02
  1.3440588e-02
 -1.2095490e-02
 -4.5457683e-03
 -5.2246910e-02
 -1.4955343e-01
 -9.7809780e-01
 -2.1593407e-02
  8.7060442e-04
 -3.3601560e-02
 -1.2408288e-01
  2.3935650e-02
 -4.7373050e-03
 -2.9498652e-02
 -2.9690292e-02
  5.6995057e-02
  1.3890395e-02
  4.6339470e-01
 -9.2259520e-01
 -1.8185067e+00
 -5.2285165e-01
 -1.8924881e+00
  6.3888627e-01
  1.2436213e+00
  7.2519742e-02
  1.6265594e+00
 -3.4177139e-01
 -7.2220856e-01
 -1.1035948e-01
  6.3955289e-01
 -1.0580638e-03
  1.6201812e-01
 -2.2947406e-02
 -2.1710621e-01
  1.2436414e-01
  2.5621168e-02
 -1.8459925e-01
  4.5740172e-02
 -9.8565193e-03
  3.2350395e-02
 -5.3606700e-02
  6.9001378e-03
 -7.2695911e-02
  1.5069905e-01
  1.5864569e-01
 -1.4828975e+00
 -3.0161597e-02
 -1.3947570e-01
  9.8253399e-01
 -2.3359654e+00
 -4.8943686e+00
 -1.5630283e+00
  2.2919382e-01
  2.4952695e+00
  4.8455375e-01
  1.2854098e-01
 -9.7979975e-01
 -5.3561181e-02
  8.4293890e-01
  7.0967972e-01
  4.4285610e-01
 -1.2532570e+00
  2.0175574e-04
  1.6377549e+00
  4.5596042e-01
  1.6048221e-01
 -4.9133185e-01
  5.3972330e-02
  1.8581806e-01
 -8.7795006e-03
  1.9350853e-02
  1.7445656e-02
  7.9611182e-02
  3.3334082e-01
 -4.0355112e-02
  1.1841715e-02
 -5.1148519e-02
 -2.8235771e-02
  4.5116555e-02
  7.8840703e-02
  5.1696461e-01
  3.5904676e-02
 -9.8763909e-03
  3.2144329e-01
 -1.0878953e-01
  1.0566736e-01
  1.6928095e-02
 -9.5156893e-02
  4.6597311e-01
  3.0663127e-02
 -5.8308131e-01
  1.5775681e-02
 -2.6386511e-04
  2.2218908e-01
  1.0242907e-02
 -1.2485418e-01
  3.0493686e-02
  1.1368637e-01
 -6.3389398e-02
  1.7847840e-02
  4.7589313e-02
  5.1839236e-02
  3.7435930e-02
  4.9273800e-03
 -1.9470733e-02
  3.5202276e-02
 -2.6980529e-03
 -4.5876101e-02
 -3.0621526e-01
 -3.1958225e+00
 -4.1043959e+00
 -8.4847897e-01
  2.9837134e+00
 -1.4775800e+00
  9.9015564e-02
 -8.8240701e-01
 -3.2461902e-01
 -5.3812329e-02
 -8.2507819e-01
  2.1585042e+00
 -2.6266345e-01
 -1.3057734e+00
 -2.2793882e-01
  9.1404092e-01
 -1.6076148e-01
 -7.3764971e-03
 -2.0245087e+00
  1.7563296e-02
  1.2205906e+00
  4.0851951e-02
 -4.3213791e-03
 -5.5233255e-02
 -4.9181625e-02
  2.0493761e-01
  6.1547101e-01
 -2.5877291e-02
 -1.5733421e-02
 -5.0789278e-02
  7.3015845e-01
 -2.1661859e+00
  1.7534534e+00
 -1.4064923e-01
  4.2842737e-01
 -2.4251439e-01
  5.6496613e-02
  1.1631175e-01
 -1.8639488e-02
  1.1279782e-01
  1.0411633e+00
  3.2751608e-01
 -4.4115648e-02
 -4.3288884e-03
 -1.8074153e-02
  3.9340827e-01
 -2.6782694e-01
 -2.9191563e-03
  3.2094076e-01
  4.3142214e-03
  1.3312906e-02
  3.9235571e-01
  3.1171869e-03
  4.1143067e-02
  5.1928420e-02
 -1.7884991e-01
 -7.8995861e-02
 -1.1543406e-04
  4.4925295e-02
  9.8299002e-03
 -9.0307575e-01
  3.8487679e-01
 -9.9184036e-02
 -7.0335731e-02
 -4.2786277e-03
 -2.1298913e-02
 -9.4995573e-02
 -2.6227027e-02
  1.6196649e-01
 -2.6682643e-02
  4.6953123e-02
  3.3708386e-02
  1.0951228e-01
 -2.0750793e-02
 -4.9482971e-02
  4.1778095e-02
  6.6837710e-03
 -2.5880383e-02
 -6.3966565e-02
  4.8499951e-01
 -1.2503905e-02
  2.8639935e-02
  1.9193896e-03
  1.7006824e-02
  3.0095298e-02
 -1.4671709e-01
 -5.6342743e-03
 -1.7797720e-01
  4.5849249e-02
  2.4079180e-01
 -6.3394196e-02
  6.5974216e-03
 -3.8437650e-02
  5.0839391e-02
  7.0875846e-02
  2.7859670e-03
 -3.5429489e-02
 -4.2894732e-02
  2.6072379e-02
  1.3792380e-02
  3.2452609e-02
 -2.2908954e-01
 -1.1477353e-01
 -3.6674470e-02
 -2.9625110e-02
 -5.5330335e-03
  1.2445270e-02
  1.3594209e-02
 -7.8579420e-03
 -1.1637411e-01
  6.6707164e-02
 -3.8671631e-02
  6.8906476e-05
 -4.2828538e-02
 -8.0347722e-03
 -5.3388029e-03
 -1.1543111e-02
 -2.4842957e-02
 -2.3133527e-03
 -2.3604070e-01
  5.3781337e-01
 -9.1560923e-02
  5.0956947e-01
 -2.4191064e-01
 -1.2529257e-01
  7.8230038e-02
 -7.7712275e-02
  4.5276355e-02
  1.5786890e-02
  4.5366213e-02
 -5.3979743e-01
  1.6345499e-03
  2.3924021e-01
 -3.5705277e-01
  6.7015341e-03
  4.8875919e-01
 -1.0820206e-02
  3.5826322e-02
 -6.1349925e-02
  2.6141312e-03
 -5.9399355e-02
 -4.1595247e-02
  6.7127272e-03
  1.5187517e-01
 -5.4722019e-02
  5.4875914e-02
 -1.2862445e-03
 -1.7883837e-02
 -2.4642715e-02
  8.0255911e-02
  3.6743436e-02
 -6.1482210e-02
  6.4574182e-01
 -2.6138451e-02
  5.1399443e-02
  4.8281413e-02
  3.3902657e+00
 -1.6227713e-01
  1.3078080e-03
  7.5782314e-02
 -7.3076703e-02
 -2.0362093e+00
  5.1021691e-02
 -2.7928199e-03
 -2.6900623e-02
 -3.1774301e-02
 -1.0025257e-02
  8.6293422e-02
 -3.3355303e-02
  1.4514962e-03
 -8.3206433e-01
 -9.4813621e-03
 -2.6598446e-02
 -1.6047455e-02
  9.4669789e-02
  4.4355768e-01
  3.2712787e-02
  7.6701164e-02
  4.2522926e-02
 -4.0478028e-02
  2.3855070e-02
  1.0158654e-02
 -1.7687158e-01
 -3.6626816e-02
 -8.9419540e-03
  1.3052697e-02
  7.0555918e-02
  6.3670878e-03
  1.1596941e-01
 -6.0717151e-02
  2.6917242e-02
 -4.9912542e-02
 -1.6739555e-02
  8.1012867e-02
 -1.2263045e-02
  6.5050490e-02
  1.3123336e-01
  1.3246747e-02
  1.0149247e-02
  1.0286011e-02
  8.7982699e-02
 -2.6219653e-02
  3.6401421e-02
  2.6218283e+00
 -7.2489113e-02
  4.5450687e-02
  2.5683219e-02
 -3.6650691e-02
 -3.3978089e-03
 -2.5798776e+00
  1.0839609e-01
  1.6564888e+00
 -1.5773284e+00
 -7.3275208e-01
 -1.8135940e-01
  1.8921807e+00
 -7.1480172e-03
 -1.0347840e-01
  1.8793004e-02
 -1.1567404e-02
  1.2632755e+00
  3.8768372e-01
  1.8919110e-01
  8.1622571e-01
  5.0874189e-02
  9.2838794e-01
 -2.4821753e-02
  6.6475999e-03
  2.9683109e-02
  8.1176244e-02
 -1.2059017e-02
 -6.6641577e-02
 -2.0530846e-02
  1.5807582e-02
 -4.4820096e-02
  7.9385735e-02
 -2.5071837e-02
  1.4765251e-02
  2.2097036e-02
  4.2293230e-03
  6.7442708e-02
  3.0802771e-02
  2.0905617e-03
 -1.8863144e+00
 -2.7636666e-02
 -2.7834913e-01
  1.4194706e-01
  9.9884411e-03
  3.1852078e-02
 -2.4176301e-02
  6.5427315e-03
  4.4224247e-02
 -2.9442141e-02
 -1.7433425e-02
  1.7798694e-02
 -9.8864324e-03
  5.3089075e-02
 -1.9582984e-01
 -3.3161171e-02
 -5.9454642e-02
  7.9051413e-02
  1.9050017e-02
  9.0064276e-03
 -1.2090690e-01
 -2.5810122e-02
 -2.8342877e-03
  1.5306210e-02
  5.8603201e-02
  1.4491043e-02
  1.5524045e-01
  3.4350586e-01
  1.1743474e+00
  2.1127228e-01
  1.0122586e+00
  1.3031954e+00
 -6.8398274e-02
  9.6316114e-02
 -8.9893974e-02
 -4.2157254e-01
  4.2883944e-02
  1.2869787e+00
  5.2482452e-02
 -1.2177692e-01
  4.1744363e-02
 -1.2286758e-01
  3.9132035e-04
  1.7035154e-01
 -3.3642265e-01
  2.6223419e-02
  6.0735803e-02
 -1.5896561e-02
  1.0853614e-01
  1.0833310e+00
 -1.1062128e-01
 -7.7558026e-02
 -1.9197166e-01
  7.9278564e-03
  1.1717649e-02
 -1.8700254e-03
  1.1094105e-02
  2.2002065e-01
  5.1766223e-01
  1.4746322e-02
  8.5678048e-02
 -4.5903515e-02
  1.8558569e-01
  7.9004288e-02
  2.5049490e-03
  6.4646736e-02
 -1.1821243e-01
 -1.1505647e-01
  4.9998367e-01
  6.0789549e-04
 -1.4797118e-02
  1.5370676e-02
  7.2102785e-02
  1.5519275e-01
 -2.4633387e-02
 -1.0617231e+00
  1.3394506e-02
 -8.7574661e-02
 -2.0999495e-02
 -2.0045536e-02
  9.9197226e-03
 -3.7384398e-02
 -9.1735020e-02
  7.7830657e-02
  4.4559982e-02
 -5.5186930e-03
  1.8377690e-01
 -6.3606523e-02
  5.2725524e-03
 -3.0595325e-02
 -7.7306598e-01
  9.1481671e-02
 -1.5143391e+00
  8.5992180e-03
  2.7535895e-02
  4.8288368e-02
 -2.3675088e-02
  5.0553635e-02
 -2.7247572e-03
  5.2645242e-01
  1.9730063e-02
  2.1902910e-02
  8.0361374e-02
  9.3591243e-02
 -1.3708552e-02
 -2.1910688e-02
 -4.0655099e-02
  1.3695495e-02
 -2.1779288e-02
  2.1562185e-03
  1.0430362e-02
 -1.0827449e-02
 -2.7841939e-02
 -1.7117510e-02
 -1.0408244e-01
  5.1463451e-03
 -1.6391022e-02
  1.0194016e-02
 -1.3380233e-02
  5.0236084e-02
 -1.2577286e-02
 -1.0452119e-02
 -3.2715976e-02
 -1.0002731e-02
  1.2099097e-02
 -3.7073359e-02
  9.8023981e-02
  2.4692875e-03
  5.3162191e-02
  7.4517764e-02
  1.3716735e-02
  9.0692319e-02
  6.1791681e-02
  6.4180722e-03
 -2.0952240e-02
  3.6003079e-02
  1.3761058e-02
 -1.0235144e-02
  8.1325918e-02
  5.8976868e-03
 -1.1150557e-01
  6.0408590e-03
  5.8690584e-03
  6.8238787e-02
  5.8624584e-02
  4.0933743e-02
  3.9371455e-01
  5.3038913e-01
 -3.1892056e+00
 -1.1635011e+00
 -3.4211475e-01
  6.6214405e-02
  4.8556131e-01
  1.7957866e-01
  5.1815748e-01
 -2.9448894e-01
  3.7411563e-02
  9.4978243e-01
  1.1526248e-01
 -4.6521905e-03
 -5.6166396e-02
 -8.9711629e-02
  9.6791923e-01
 -4.4895816e-01
  2.5193689e-02
 -6.9819152e-01
 -1.8082291e-02
  1.2240048e-03
 -1.7482258e-02
  4.1794907e-02
  4.6504526e-03
 -1.8212143e-02
  1.7312084e-01
  1.6355930e-02
  1.1869415e-02
  3.9587445e-03
  7.5017273e-02
  1.5900418e-02
 -1.5961181e-02
  1.1379253e+00
 -3.4698904e-02
  1.0752936e-01
  6.7554682e-02
 -7.2328337e-03
  1.0718189e-01
  2.3110228e-02
 -1.4532883e-01
  6.4761713e-02
  1.6867213e-02
  1.0289185e+00
 -3.9643157e-02
  7.9272408e-03
  2.2412997e-01
  1.7781917e-02
 -5.9488505e-02
 -9.6763991e-02
  1.6352054e-02
  3.9637048e-02
 -8.5500523e-04
  9.4069377e-02
  1.2278317e-01
 -6.5722950e-03
  9.7294882e-02
  1.5389564e-02
 -1.5127835e-01
 -2.8826525e-02
 -4.2972410e-01
  3.4206774e-02
 -9.3204522e-01
 -3.2274875e-01
  1.5991507e+00
 -5.5086233e-02
  5.7858471e-02
  1.5785376e-02
 -2.8256577e-02
  3.3930413e-02
  4.6816528e-01
 -2.2474195e-01
 -1.0951206e-01
 -3.1922758e-02
 -7.8755587e-02
  3.2966018e-02
  1.7644168e-01
 -7.9529159e-02
 -3.5695229e-02
 -1.8731552e-01
  1.5045512e-02
 -8.4024854e-02
  5.1224556e-02
 -2.9110467e-02
  2.9485373e-02
 -1.2632519e-02
  1.7786607e-01
  1.6773328e-04
 -3.7396003e-02
  5.1860195e-02
  2.3148198e-02
 -1.6611964e-02
 -2.9721482e-02
  7.5315520e-02
 -4.3142167e-01
 -2.7832337e-02
  1.0639387e-01
 -1.1607836e-01
  1.4825513e-02
  3.7523828e-02
  1.2616195e-01
  4.4604376e-02
  7.1139522e-02
  4.0414438e-02
  3.7612829e-02
 -1.4730025e-03
  8.0500320e-03
 -8.3931386e-03
 -3.1148739e-02
 -4.8486218e-02
  7.0889858e-03
 -6.0473792e-02
  1.6742773e-02
  7.2524673e-03
  9.4404183e-03
  4.5772307e-04
  3.7004907e-02
 -2.2158609e-03
 -8.4048189e-02
 -2.6509254e-03
 -4.9195793e-02
 -1.4588253e-01
  7.3268957e-02
 -2.6880860e-01
 -4.7950700e-02
 -4.7197249e-02
  1.5995525e-01
 -8.5226610e-02
 -4.8025548e-02
  5.0515793e-02
 -1.9626152e-04
  6.0690369e-02
  8.2281703e-01
  3.6320153e-03
  3.3374462e-02
 -2.0972772e-02
 -2.5210518e-01
 -1.0766360e-02
  4.6264410e-02
  3.5098270e-03
 -2.0439839e-03
  3.7727144e-02
  1.9809050e-02
  7.4508661e-01
  2.0717528e-02
 -5.6047387e-02
  1.4087795e-02
  3.9669732e-03
 -2.3325950e-02
 -1.0066467e-01
 -6.2813438e-02
  1.6944079e-02
 -4.3223765e-02
 -1.6771132e-02
 -9.0218097e-02
 -3.1858448e-02
  2.3209661e-02
  1.8264988e-02
  4.8619661e-02
  2.0980961e-03
 -2.8937045e-03
 -2.5433657e-01
  2.2057442e-02
  2.8406700e-01
  1.5838083e-02
 -1.4677605e-02
  2.5044004e-02
 -3.2128122e-02
  2.2670871e-03
 -3.2193355e-02
 -1.0336338e-02
  1.1221726e-02
 -1.1305580e-01
 -6.6039421e-02
  1.1355722e-02
  8.8319495e-02
 -1.0052009e-02
 -7.4399929e-03
 -2.5697125e-02
  6.9733225e-03
  4.7010351e-02
 -1.6872533e-01
  1.2083946e+00
  5.2128686e-04
  2.6096064e-01
 -1.3054359e+00
 -1.2012800e+00
 -7.6632872e-02
  1.2644314e+00
  2.0441426e-02
 -3.6203194e-02
 -3.3317935e-01
 -4.4684302e-02
  1.8484958e+00
 -5.1389354e-01
  3.6652628e-01
  1.8856168e-02
 -5.4836839e-02
 -1.4782938e-02
  2.0446718e-02
  9.0669394e-03
 -6.5373424e-03
  2.3041623e+00
  2.6299691e-01
  9.2425626e-03
  1.0666207e+00
 -5.9953171e-01
 -1.7862504e+00
  4.9859777e-01
 -9.0780592e-01
  1.4560992e-01
 -7.1386594e-01
  3.6866992e+00
  7.8837253e-02
 -4.7355253e-02
  3.4517312e-01
  2.0582757e+00
  1.6236784e+00
 -1.0769509e-01
 -2.5201267e-02
  8.2656614e-02
 -1.3285027e+00
 -3.2329042e-03
 -3.2735392e-02
 -2.8584722e-01
  9.7495995e-02
 -1.7805757e-02
 -1.7980406e-01
  6.8419032e-02
 -1.5311188e-01
  1.2676889e-01
  2.5370270e-01
 -1.8098409e+00
  2.3311639e-01
  5.5904139e-02
 -2.6362318e-01
 -4.8790663e-01
 -3.8512748e-02
 -8.8259548e-01
  1.3959289e+00
  6.0468469e-02
 -1.4140385e+00
  9.4836161e-02
  5.9592998e-01
  4.7220397e-01
 -1.1137442e-01
 -5.2744810e-02
 -1.6408414e-01
 -3.0188549e-01
  1.6361128e-01
  2.0667301e-02
  1.6864110e-02
 -2.8008702e-01
  3.9835919e-02
  6.2947005e-02
  8.4872341e-01
 -1.7248316e-01
  3.5942063e-02
 -7.2710800e-01
 -7.1385986e-01
  1.5700579e-01
 -2.6713344e-01
 -2.6636550e-01
  1.3680863e-02
 -9.0842880e-03
  2.7786228e-01
 -4.7953686e-01
  1.5948315e-01
  1.7089662e-01
 -1.2008666e-01
 -7.7934271e-01
  4.0225551e-01
  1.6872728e-01
  4.7392506e-02
 -1.1894655e+00
  1.8755859e-01
  3.9853090e-01
  8.1199624e-02
  1.6342036e-01
  2.7206769e-02
  5.8357534e+00
  9.8525423e-01
  5.4587662e-01
  3.5159485e+00
  1.2126673e+00
 -7.8444433e-01
  7.1167773e-01
 -8.1937706e-01
 -1.3095626e-01
  1.6728812e+00
 -4.8911005e-02
 -7.0771527e-01
 -1.3025452e-01
  1.5897341e+00
 -3.3674367e-02
 -2.4579799e-01
 -2.8706150e-02
 -1.4363966e+00
  7.1061932e-02
  3.1157531e-02
  8.6072969e-01
  2.0030003e+00
 -4.8152414e-01
 -1.2810463e+00
  5.1425308e-01
 -2.1590495e-01
 -6.3879110e-02
 -1.8313003e-01
  9.3648231e-01
  3.6778614e-02
 -2.6668641e-01
 -5.1283550e-01
  1.7726876e+00
  6.2382579e-01
 -6.8145180e+00
 -1.7030159e-01
 -2.3441324e-01
  6.4457899e-01
 -2.2034950e+00
 -2.3647497e+00
  3.3368344e+00
  1.7423257e-03
  3.4619308e-01
  6.4120541e+00
  1.9583778e-02
  7.7203251e-02
  2.3000770e+00
 -1.2566987e+00
 -1.2647771e+00
 -4.6629426e-01
 -2.6225311e-01
 -1.0240149e+00
  1.5046583e-02
 -1.0875226e-01
 -5.8168787e-01
 -1.6826371e+00
  9.0884984e-01
  1.0711404e-01
  4.2135634e+00
 -5.6500429e-01
 -2.1058856e-01
 -2.6070507e+00
 -2.3883676e-02
  1.7208669e+00
  1.6909490e+00
 -4.2874379e+00
  7.2265968e-02
  6.8032422e+00
 -1.0920811e-01
 -1.6536033e+00
 -1.4623073e-01
  9.0309922e-03
  7.0956922e-01
  1.8626378e+00
  3.0894589e-01
  6.4407513e-02
 -2.8416887e-01
 -6.2285829e-02
  1.1986716e+00
  1.2423133e-02
 -1.8300425e-01
 -2.1412221e-01
 -2.1270284e-01
  2.4745979e+00
  7.0882928e-01
  1.9451423e-01
  2.3961051e+00
 -6.9328919e-02
  1.2280761e+00
  7.2390401e-01
  3.5222080e-01
 -1.4543502e+00
  1.4228586e+00
  1.1497142e+00
 -5.0346198e+00
 -3.1391971e-02
  1.6483672e-01
  1.4393871e-01
 -3.5879787e-03
  6.6084698e-02
  6.4701033e+00
 -2.9587946e+00
  1.4489893e+00
  6.2845874e-01
 -1.7460772e+00
 -2.9061739e+00
  3.5157925e-01
  3.5548019e-03
  2.9655410e-02
 -2.1889277e+00
  1.1201642e+00
  3.8841653e-01
  2.4458003e+00
  3.5806680e-01
 -1.9057279e+00
  7.3321462e-01
  2.0467286e-01
  2.3736567e+00
 -1.5296850e+00
  8.3200502e-01
  3.9021391e-01
 -2.2136472e-01
 -1.0057925e-01
  6.2056106e-01
  4.1351706e-01
 -3.1039992e-01
 -5.3559396e-02
  2.6989954e+00
 -1.0156627e+00
 -5.4337150e-01
  2.0998128e-01
 -9.3395954e-01
 -2.0490284e+00
  2.2913335e-02
  1.7757581e-01
  1.7322052e-01
  3.4491333e-01
 -6.2207484e-01
  2.4962642e+00
  5.1767617e-02
 -1.6117579e-01
  1.1583740e-01
  4.6694544e-01
 -2.7326497e-01
 -2.0985730e+00
 -2.1409962e+00
 -6.2265736e-01
  1.9625158e+00
  5.3458011e-01
 -9.0661108e-01
 -4.1323744e-02
  1.6264430e-01
  2.7163154e-01
 -1.4601614e-01
 -2.0793083e-01
  2.2502987e+00
  4.8482001e-01
  9.2826706e-01
 -1.5926282e+00
 -1.4441345e+00
 -3.7919363e-01
 -7.7144288e-02
 -9.8851956e-03
  6.0450392e+00
 -6.2455434e-01
 -2.7152567e+00
 -1.0346279e-01
 -1.0270789e+00
  4.0052333e+00
 -1.6364359e+00
  1.9401199e+00
 -1.5904348e+00
  1.1577557e-03
 -4.2800937e-02
 -6.1218828e-01
 -1.5425535e-01
  2.2308154e-01
  2.4433944e-02
 -2.7179139e+00
 -1.3619063e-02
 -4.8443606e-01
  2.5480881e-02
  3.9927443e-03
 -3.8924694e-01
  2.0858064e+00
 -1.3439837e-01
  1.4568728e+00
  1.2810014e-01
 -2.3037562e+00
 -3.5657072e+00
  1.5887625e+00
  2.2349138e+00
 -8.2902229e-01
 -1.8343618e+00
 -4.0952563e-01
  3.9703245e-05
 -5.3586888e-01
  2.8397939e+00
 -3.4859076e-01
  1.1732454e+00
  1.7806311e-01
  2.6050711e+00
 -5.1815307e-01
  9.1770299e-02
 -3.2449293e-01
 -3.0883351e-01
 -3.2531270e-01
  2.3688512e+00
  1.8857074e+00
  1.4958198e-02
 -1.1143538e-01
 -1.1391954e-02
  2.5301388e-01
 -1.6246194e+00
 -9.6615714e-01
 -1.4545966e+00
 -4.4641688e-01
  1.3237698e+00
 -8.7489057e-01
 -3.4060273e-01
  2.7411740e+00
  2.1941099e-01
  1.2387112e-01
  3.1611776e+00
  9.2244619e-01
  1.8826898e+00
  3.5856581e+00
  2.5972014e-02
  1.9645793e+00
  1.4116806e+00
 -9.3856201e-02
 -7.9968669e-02
 -2.1699936e+00
  5.9933548e+00
 -1.0454776e+00
  3.7515965e+00
 -1.5010747e+00
  3.4512594e-01
 -2.5182161e-01
  4.5320615e-01
  1.4721725e+00
 -2.5678365e+00
  9.6123463e-01
 -2.2488148e+00
  9.5139521e-01
  1.2840755e+00
 -2.7852376e+00
  7.5417936e-01
  7.8872818e-01
 -5.1678061e-01
  1.9788198e+00
 -2.5752742e+00
  2.0801001e+00
  1.8318276e-01
  5.8268625e-02
  6.0635008e-02
 -2.0157397e+00
  1.0076998e+00
  3.9347470e+00
 -2.9904954e+00
  4.2804718e-01
 -9.8017864e-02
  1.1407542e+00
 -8.9085037e-01
  6.1963981e-01
  5.4036832e+00
 -2.8523254e+00
 -1.5514119e+00
  2.0004172e+00
  1.4519386e-01
 -4.1637325e-01
 -1.9648993e+00
  3.3309834e+00
  1.0978702e+00
  1.2789904e+00
  3.1064932e+00
  7.9040062e-01
 -4.0316251e-01
  4.3577857e+00
  1.3927952e+00
 -2.2826037e+00
  2.1608875e+00
  2.4600809e+00
 -2.5605156e+00
  2.1692734e+00
  4.4916055e-01
 -1.5874091e+00
 -7.6936275e-02
  6.4462894e-01
  9.3786281e-01
  1.7003572e+00
  6.3841832e-01
 -2.4457159e+00
 -3.2998091e-01
 -2.9844043e+00
  2.7879801e-01
  3.2015431e-01
  4.5837059e+00
 -1.3060470e+00
  2.5757723e+00
 -4.1221133e-01
  2.8097105e-01
 -1.2114439e+00
 -2.2670345e-01
 -1.3333045e+00
  1.4091340e+00
 -2.6520609e-03
 -5.3245306e-02
  4.1018608e-01
  2.1895182e+00
 -1.2669752e+00
 -1.4631166e-01
  1.6959468e+00
  3.0297458e-01
  9.4378453e-01
  2.2662745e+00
 -7.6726943e-01
 -7.8847635e-01
  8.9747101e-01
 -1.0396966e+00
  1.2666366e-01
  2.6276283e+00
 -1.0250479e+00
  1.9535786e+00
  2.9117761e+00
  1.8511060e+00
 -1.1014289e+00
 -8.7021977e-01
 -3.5738248e-01
  2.2391911e+00
 -2.0872471e-01
 -2.1038895e+00
 -1.3061742e+00
  1.2634804e+00
 -1.5837522e-01
 -9.6888721e-02
 -1.7760685e-01
 -6.3807756e-01
  1.5852123e-01
  2.1078303e+00
 -1.7227998e+00
  1.3040535e-01
 -4.9947957e-03
 -4.6125624e-01
 -1.3727235e+00
 -1.2848221e+00
  1.2399325e-02
  1.2141816e-01
  3.4804680e+00
  1.0731106e-01
 -4.6484223e-01
 -8.1114507e-01
 -9.0307361e-01
 -1.6628513e-02
 -2.3425093e-01
  2.1936231e+00
  1.3707314e+00
  1.5225899e+00
 -1.3578739e+00
 -1.8002709e+00
 -1.7483444e+00
 -1.4276710e-01
 -1.8459641e+00
 -5.7796266e-02
 -9.2563856e-01
 -1.4802469e-03
 -1.1376132e+00
 -1.1306225e+00
 -6.5940418e-03
  2.6835512e-02
  2.2568793e+00
 -1.9822298e+00
 -1.1555583e-01
 -4.2140417e+00
  4.5763370e-01
 -8.0098820e-01
  9.2270887e-01
  8.4365755e-01
 -4.1847544e+00
  1.6537679e+00
  5.6407813e-02
 -1.3722440e+00
 -3.4088070e+00
  2.4624569e+00
  2.1662695e+00
 -2.0710676e+00
  7.1111858e-01
 -5.7171676e-02
  7.9688868e-03
 -1.0558285e+00
 -1.6803253e+00
  7.7061021e-01
  1.4995773e+00
  2.1742277e+00
 -1.6028205e+00
 -5.6337319e-02
 -1.2462062e+00
  9.1992922e-02
 -1.4816513e+00
 -1.7288835e-01
 -3.5286435e-01
  5.5690844e-02
  1.3264445e+00
  4.9135652e-01
  1.8714146e-01
 -5.9371930e-01
 -1.1776015e+00
 -2.4053583e+00
 -7.9261434e-01
 -4.9214974e-01
 -8.3334666e-01
 -1.1855366e+00
 -3.3060613e-01
 -9.5484722e-01
 -5.8415818e-01
  3.6054846e-02
  1.7930137e+00
  1.2096120e+00
 -9.4111305e-01
 -4.0704411e-02
 -2.7295917e-03
 -3.2261822e+00
  2.1528477e-02
 -5.8155239e-02
 -4.8282377e-02
 -4.6678114e-01
  1.6343611e+00
  3.5118277e+00
  2.2044320e-01
  3.1047773e-01
  9.4038481e-01
  1.3308589e+00
 -1.3556390e+00
  1.1706942e+00
  1.8886030e+00
  3.1364495e-01
  7.3331468e-02
 -3.0195764e-01
  2.9738617e+00
  7.0355940e-01
 -4.0269241e-01
  2.3556314e-03
 -1.0327687e+00
  1.1663244e+00
 -8.0648082e-01
  6.8899465e-01
  1.4766737e+00
  1.5528334e+00
 -1.7667750e-01
 -2.9138911e-01
  1.1504166e-01
  8.9793879e-01
 -2.1466976e-01
  1.4545623e+00
  5.3309602e-01
  1.5027490e-02
 -1.5038012e+00
 -6.5023023e-01
 -1.6752812e+00
  3.5242212e-01
 -1.4047112e+00
 -5.9562731e-01
 -7.6333874e-01
  1.4867685e+00
  4.6155861e-01
 -6.6023278e-01
 -6.4857090e-01
  4.8084270e-02
  7.3801965e-02
  2.1034127e-01
 -4.8934668e-01
 -1.8293554e+00
  1.1809714e+00
  4.8542139e-01
 -1.9666858e-02
  6.5252639e-02
 -9.5585048e-01
  4.5879066e-01
 -1.4448838e+00
  2.3269325e-01
 -1.5948199e+00
  1.1847164e-01
 -5.5641152e-02
 -1.9525433e-01
 -1.6278210e-01
 -9.4833243e-01
  4.0191123e-01
 -4.2251889e-03
  1.0774196e-01
 -7.1069849e-01
  1.3714312e+00
  5.8515781e-01
  1.3097291e+00
  2.8208339e-01
 -5.5314821e-01
 -1.1263354e+00
  3.5612728e-02
  3.5373626e+00
 -2.4488623e-01
 -5.3162649e-03
 -7.4962743e-02
  2.0809978e-02
  6.0637319e-01
 -1.9648679e-01
  1.0169768e-02
  1.9112923e+00
 -9.6229756e-01
 -1.7787944e-01
  5.2587628e-01
  1.8749963e+00
  2.7146333e-01
  3.5856698e+00
 -3.9600676e-01
  2.6116807e+00
  1.5507146e+00
  1.3941911e+00
  1.9427809e+00
 -1.5309204e+00
  6.9858931e-02
  2.7309633e-03
  3.7935299e-01
  3.0926594e-01
  8.4519756e-01
 -4.3017653e-01
  1.1003451e+00
  1.4556797e-01
 -2.7535576e-01
  2.2886701e-01
  2.6775688e-01
  2.5017920e-01
 -5.2711656e-03
  1.0618607e+00
 -1.2320625e+00
  1.6567473e-01
 -7.0361808e-02
  1.1220797e+00
  2.7772629e-01
 -2.5610384e-01
  1.0944612e-01
 -3.1092063e-01
  3.0865312e-01
 -9.3370897e-01
 -3.8221911e-01
 -1.6560230e-01
  5.3690207e-01
  1.8626723e-02
 -5.6032371e-03
  6.2238729e-01
  8.3316237e-01
  2.4910977e+00
 -7.7105558e-01
  1.0840759e+00
  4.4514143e-01
  9.6298259e-01
 -2.9809850e-01
  1.6329233e-01
  1.2975061e+00
  7.2111076e-01
  1.6614310e-01
  4.9463221e-01
  8.8305575e-01
 -1.3278392e-01
  3.0782878e-01
 -5.5274391e-01
 -1.2945834e-01
  1.1396529e-01
  3.3400950e-01
  4.0654156e-02
 -1.1873997e+00
  6.1789280e-01
 -2.3129492e+00
 -2.5076652e+00
  2.7278334e-01
 -2.4775846e+00
  2.2109196e+00
  3.6425707e-01
 -1.9592035e+00
  4.3148089e-02
 -1.2958723e-01
  1.9576195e+00
 -1.8093599e+00
  3.9561265e-03
  4.2039160e-02
 -2.2723609e-01
  1.5821075e-01
  7.1629405e-04
  8.6020374e-01
  7.3782206e-01
  2.4506400e+00
 -3.1648365e-01
 -1.3590301e+00
  2.3783040e+00
  4.7457263e-01
  8.3141727e-03
  4.2286000e-01
  1.1635162e+00
 -3.6645716e-01
  1.4906286e+00
  1.3050614e-03
  6.0155588e-01
 -8.9711142e-01
 -2.1409659e+00
  3.8698596e-01
  9.2487949e-01
  2.5308995e+00
 -4.1955497e-02
 -1.5693008e+00
  1.5753438e+00
 -1.2175590e-01
  1.5439097e+00
 -6.0150731e-01
 -5.7878267e-02
  1.3521357e-01
 -3.2019100e-01
 -1.4652586e+00
  4.2744613e-01
  1.2708721e-01
  1.4123219e+00
  7.5632852e-01
  3.7163187e-02
  2.1309386e-01
  2.9035082e-02
  1.3531599e+00
 -8.5046780e-01
 -4.4630140e-01
  8.7188041e-01
 -8.8849491e-01
  1.3548270e+00
 -1.3074385e+00
  4.6107069e-01
  2.2702719e-01
  2.8978832e+00
  1.9596499e-01
  2.2455288e-01
 -6.4946753e-01
 -2.2726996e+00
  1.5783113e+00
 -1.0825369e+00
 -1.0974818e-01
  1.2090482e+00
  3.6955533e+00
  6.7562979e-01
 -2.1693753e-01
 -6.0577062e-03
 -1.1505425e+00
  8.6544257e-01
 -3.4686443e-01
  3.4219471e-01
  7.7606016e-01
 -2.4934223e-01
 -5.6839383e-01
 -6.5449673e-01
  3.7739348e-01
 -9.4560903e-01
  1.7104527e+00
  1.7317352e-01
  7.7549750e-01
 -1.8441194e-01
  3.4325502e-03
 -2.6883819e+00
 -8.9145863e-01
 -4.0928769e-01
  8.1206761e-02
 -1.5609746e+00
 -3.4541371e+00
 -5.2075779e-01
 -3.3058196e-02
 -7.0408803e-01
  5.4641161e-02
  7.0958375e-03
  2.2611001e+00
 -1.1468415e+00
 -1.7956024e+00
  1.4150680e-02
 -4.1826720e+00
  1.5950855e-02
 -1.1691146e+00
  7.8171659e-01
  2.0582415e-01
 -1.1037685e+00
 -1.3035170e+00
 -1.7003393e+00
 -6.3219523e-01
  1.2670175e+00
 -7.8110045e-01
  2.3827745e-02
 -8.1021750e-01
  7.2624296e-01
 -1.6817071e+00
  3.3206883e-01
  1.4539860e+00
  8.6148512e-01
 -8.6979065e-03
  9.6693003e-01
  6.8618029e-01
  1.7991282e+00
 -1.3756646e+00
  1.7629696e+00
  1.3114696e+00
  3.1151385e+00
  1.7047021e-01
 -2.0361512e+00
 -1.4397669e-01
  5.7496506e-01
 -5.9446776e-01
  7.7207404e-01
  3.3372262e-01
  8.0537260e-01
  1.3918917e-01
  7.3012108e-01
 -1.6253543e+00
  2.0903529e-01
  5.5888277e-01
 -4.3164364e-01
  1.0808752e+00
 -3.0814609e-01
 -2.9663522e-02
 -2.6633024e+00
 -2.6966159e+00
  8.3870262e-02
 -4.3386841e-01
 -6.6450012e-01
 -8.6561769e-02
  1.2283441e+00
 -1.0113776e+00
 -1.7790665e-01
 -1.8057160e+00
 -2.3370178e-01
 -1.3093069e-01
  5.2678603e-01
 -2.1750154e-01
 -3.1740078e-01
  2.1021429e-01
  8.0006671e-01
 -1.1744374e+00
  6.7123532e-02
 -3.7279624e-01
 -6.5218186e-01
 -1.9542904e+00
  7.3220581e-02
  1.3730470e+00
  1.0539647e+00
  1.4585647e-01
 -6.2406329e-03
 -2.9580392e-02
  7.5246513e-02
  5.0058268e-02
  1.9748921e-02
  2.3192691e-02
 -2.4038070e-01
  2.7356330e-01
 -1.8113105e+00
 -6.2400695e-02
 -3.8801163e-02
 -7.8526831e-01
  4.3470426e-03
  2.1712048e+00
 -1.1004372e+00
 -5.4553211e-01
  1.4060839e+00
  8.6323425e-02
 -8.8189179e-01
 -4.0728495e-01
 -1.8497212e+00
 -1.4625436e+00
 -2.8649375e+00
 -1.3484585e-01
 -9.3790829e-01
  2.4196164e-01
  5.6095399e-02
  2.5748459e-01
  1.7245287e-01
  4.2631211e+00
 -1.2092958e-01
 -2.6487248e+00
  6.4543295e-01
  1.8669367e+00
  9.4041908e-01
 -5.9103656e-01
 -2.9159865e-01
 -9.1025507e-01
  2.1575878e+00
  9.6861184e-01
  3.2827132e+00
  3.2957015e+00
  8.6995018e-01
 -9.2919856e-01
 -1.5271026e-01
 -2.7812013e-02
 -1.0647548e+00
  9.8435348e-01
 -8.8178980e-01
  3.2978731e-01
  1.9202604e+00
  7.3999643e-01
  5.5806386e-01
 -7.6758005e-02
  3.9045520e-02
  1.1807985e+00
  4.5074245e-01
 -4.1578585e-01
 -2.4545929e+00
  1.0371696e+00
 -1.0785339e+00
  6.9048131e-01
  9.5075630e-02
 -5.6459540e-01
 -4.6177694e-01
  1.4781194e+00
  6.1036956e-02
 -1.6428354e+00
  2.4720037e-02
  2.4720037e-02
  2.4720037e-02
  2.4720037e-02
  2.4720037e-02
  1.2203109e-01
  1.2203109e-01
  1.2203109e-01
  1.2203109e-01
  1.2203109e-01
  3.6700478e-01
  3.6700478e-01
  3.6700478e-01
  3.6700478e-01
  3.6700478e-01
  9.3993224e-02
  9.3993224e-02
  9.3993224e-02
  9.3993224e-02
  9.3993224e-02
  2.0272303e-02
  2.0272303e-02
  2.0272303e-02
  2.0272303e-02
  2.0272303e-02
  8.9135182e-01
  8.9135182e-01
  8.9135182e-01
  8.9135182e-01
  8.9135182e-01
