nep4 3 Sc C F 
cutoff 6 4 63 26
n_max 4 4
basis_size 8 8
l_max 4 2 0
ANN 50 0
  5.9809375e-01
 -1.1987050e+00
 -4.2038727e-01
 -1.8410572e+00
 -1.4509979e-02
  5.8743840e-01
 -1.2528225e-03
  9.9397457e-01
  6.0658544e-01
  1.3768233e-03
  2.0447345e-01
  1.1993290e+00
  6.8659729e-01
  2.7864107e-01
  2.0184471e-01
  6.0571748e-04
 -9.6337575e-01
  1.5317194e-01
  2.0443860e-03
 -2.7397530e+00
 -1.4968562e-01
  4.4162518e-01
  3.0635938e-01
 -2.0939363e-03
  1.6291844e-02
 -3.7401554e-03
  3.2522261e-01
 -2.8114284e-03
 -2.2321269e-01
 -4.1984685e-02
 -2.6422276e-04
  1.0771161e-03
  3.7331996e-04
  1.4823362e-04
 -8.5103989e-04
 -1.1150993e-03
  9.8017836e-04
  3.1298609e-04
  4.8759257e-04
  6.5741123e-04
 -1.6050274e-04
 -1.2111106e-03
 -4.0360808e-04
  1.0322944e-04
  1.0111311e-03
 -1.2586530e-03
 -2.4249789e-03
 -5.5825196e-05
 -4.2917777e-04
 -3.4906808e-03
  2.5495600e-03
  1.3463255e-03
  1.1017367e-03
  1.3864564e-03
 -1.7015262e-03
 -7.1372709e-04
  2.5255248e-04
 -3.8107959e-04
 -9.2981255e-04
 -1.7780320e-03
  6.3322490e-04
 -3.2694589e-03
 -2.0488224e+00
  1.7284426e-03
 -2.0604925e-01
  9.8390272e-04
  5.8156857e-04
  7.9562416e-04
 -1.5984944e-05
  1.8762057e-03
 -6.4341668e-03
  9.7732747e-04
 -5.1324811e-02
 -3.4611247e-02
 -1.1711194e-02
  1.1254098e-03
  1.0713288e-01
 -2.1667891e-04
 -8.7680720e-04
 -1.9997017e-02
 -2.2859720e-04
 -3.9291100e-04
  1.8916525e-03
 -3.6147241e-05
  1.9494911e-04
  4.2903362e-04
  2.0003140e-03
  3.5815428e-03
  7.3525892e-04
 -9.0203052e-05
  5.9284270e-01
  3.1642890e+00
 -1.1593401e+00
  1.0591335e+00
 -6.6648668e-01
 -1.1038309e-03
 -4.8173550e-03
 -2.2787971e-03
 -1.1815479e-02
 -3.0881778e-04
  1.3601342e+00
 -2.5165450e-02
  1.2168026e+00
 -2.7407594e-02
 -7.8309447e-01
  6.8087666e-04
 -6.8181403e-02
 -3.5681447e-04
 -3.9131392e-04
  5.5765826e-01
  1.7434107e-04
 -1.4640816e-01
 -1.3139278e-03
  1.6482169e-04
 -3.3399597e-04
 -2.3347190e-04
  2.8607843e-03
  1.2973334e-03
  6.6033506e-04
  3.2719196e-04
  1.3230042e-01
  7.5575238e-01
  7.9800382e-02
 -2.7335048e-01
  6.3739735e-01
 -1.6324275e+00
  1.0390182e-03
 -9.9514477e-02
 -9.8583317e-01
 -8.0172017e-02
 -6.7463823e-02
 -3.8788310e-01
  3.5156268e-01
 -1.3700601e-01
 -9.4031133e-02
 -6.2632240e-02
  1.0674913e-02
 -3.1293514e-01
 -1.8610989e-01
  1.6328001e-01
 -3.2836190e-01
 -2.6906280e-02
 -3.1161863e-01
  4.7153212e-02
  1.2392569e+00
  3.6630571e-02
  1.6566068e-04
  7.9815174e-03
  1.2449782e-01
  4.0769450e-02
 -7.4013573e-01
 -2.2940339e-04
  5.5024844e-01
  2.7755314e-01
 -2.2795205e+00
  1.8019077e-01
  4.8774618e-01
 -1.2602345e-03
  2.7908410e-03
  8.7380158e-03
  2.2864850e-01
  6.5836096e-01
  4.2281282e-01
  1.4159532e-01
 -4.0538239e-04
 -3.6015769e-03
  5.5702847e-01
  6.1258376e-01
  4.6923655e-04
 -5.8623469e-01
  1.0147583e-02
  2.1750420e-01
 -1.2053242e-03
  9.4951225e-05
  1.7899612e-03
 -1.6100523e-04
 -3.2785568e-01
 -7.8011893e-02
  1.5815656e-03
 -5.1823044e-03
 -1.5542335e-05
 -6.6497654e-05
  2.8171731e-04
 -3.2576761e-04
  2.1138268e-03
 -5.5286562e-04
  7.7702751e-04
  2.5627951e-04
 -5.0629134e-04
  1.0531656e-03
 -7.9416268e-04
  1.7290104e-04
  2.8304229e-03
 -5.8556773e-04
  1.7539320e-04
 -3.7143385e-04
  9.6293027e-04
  7.6537348e-05
  5.8506022e-04
  5.4614694e-04
 -1.0202016e-03
 -1.0184877e-03
  7.4996910e-04
 -1.3699965e-03
  4.2491141e-05
 -4.8085331e-04
 -2.0069543e-03
 -6.9988624e-04
  1.0740255e-03
 -9.8871347e-04
 -2.1601339e-04
 -4.0642656e-03
  9.6697273e-05
  1.7428979e-03
 -5.8998249e-04
  1.0627251e-03
 -1.5566907e-04
  1.5428435e-03
 -1.5196803e-03
  1.0691559e-03
 -1.5153161e-04
  2.3621052e-04
  7.2634936e-04
 -9.9226448e-04
  2.3967725e-04
 -2.8393060e-04
  2.9889311e-04
  1.6759726e-03
  3.2099799e-04
  1.0222989e-03
 -1.8220061e-03
  2.3011449e-03
 -1.3594357e-03
  2.8878119e-04
 -1.2624844e-03
 -5.3369353e-04
  1.2362281e-04
  6.7768671e-04
 -1.6236289e-04
 -1.0005660e-04
 -2.1431024e-01
  5.2489223e+00
 -1.0192597e+00
  1.2514862e+00
  5.1959033e+00
  5.3117308e-04
 -1.5304402e-04
  1.7571838e-01
 -1.4900224e-03
 -5.2616721e-01
 -4.2309199e-04
  6.4754523e-02
 -9.1477340e-01
 -3.3308685e-01
  8.8731229e-01
 -8.9387335e-03
 -7.8805435e-01
  2.2396994e-01
 -5.5356947e-04
  4.3371016e-01
  1.3886922e-03
 -6.7373827e-02
 -1.4537846e-03
  1.7505613e-01
 -6.2340510e-04
  7.3599769e-04
 -1.3964469e-02
 -4.8435849e-01
  2.3259826e-02
  3.4992310e-04
  7.4831468e-01
  1.2115030e+00
 -1.6968044e+00
  1.2935197e+00
 -2.2681461e-01
  6.5600644e-03
  3.1546089e-05
  1.9798772e-03
  2.8107960e-03
  5.5710487e-02
  2.6309260e-03
  7.1670955e-01
  4.3459055e-01
 -2.2473028e-01
 -6.3158864e-01
 -4.7228646e-01
  2.7061856e-01
  1.1595693e-02
 -1.5324445e-02
 -1.9390433e-01
  3.5092971e-04
 -8.6754430e-05
 -3.3651192e-03
 -1.5888681e-03
  1.2597558e-01
  4.7024680e-04
  4.0169125e-03
  1.7817429e-01
 -7.8484207e-02
 -1.3698040e-01
 -2.2951865e-01
 -1.5766349e+00
  2.0079504e-01
  8.3494788e-01
 -2.3997934e+00
  2.3866108e-01
 -2.7672629e-04
  7.2571015e-01
  1.7414591e-01
  1.6716208e-03
  1.6217558e+00
 -6.8578333e-01
  8.9084828e-01
 -1.6106200e-01
 -7.7729307e-02
  7.2809452e-01
  6.8902808e-01
  9.4542134e-01
  1.1066310e-02
  8.7472975e-01
  1.6564433e-02
  2.2179313e-01
  8.7578380e-03
 -7.5351750e-04
  2.7702111e-03
 -3.4718978e-01
 -3.0117603e-02
 -1.7096687e-04
  9.1300219e-01
 -3.9918441e-02
  3.6671868e-04
  1.0101487e-03
  1.9769392e-04
 -1.0369715e-03
  1.7063781e-03
  6.3814572e-04
 -1.0988787e-04
  1.6324589e-03
  3.1935849e-04
  3.9890848e-04
  6.0832517e-05
 -3.0632169e-04
 -2.3521176e-03
 -9.1226341e-04
 -1.2630728e-03
  7.4886961e-04
 -9.2046213e-04
  4.6309960e-04
 -1.8924697e-03
 -2.9513217e-04
 -9.9762669e-04
  3.0881306e-04
  1.2609396e-04
 -1.3869491e-03
 -4.7629231e-04
 -2.9757344e-03
 -4.5094482e-04
 -6.5464748e-04
 -1.0942902e-03
  2.8569665e-04
 -7.5350911e-04
  7.0201393e-05
  9.6845481e-04
  1.0956508e-03
 -3.8098916e-04
  4.8959389e-04
 -4.1813884e-05
 -1.5586657e-03
  4.5379368e-04
 -5.5662898e-04
  8.1492955e-04
  1.0461732e-03
 -4.3220077e-02
  1.5267837e-03
  1.2728479e-04
 -5.4946839e-05
 -7.5329788e-04
 -5.1660063e-03
  5.2828749e-04
  9.1698574e-04
 -4.1642197e-05
  8.4938176e-05
 -1.4613789e-04
 -7.9575479e-03
 -2.4289076e-04
 -1.6036841e-04
 -1.7028740e-04
 -4.9975124e-04
  3.1660853e-05
 -9.3095323e-06
  1.0961176e+00
 -2.1384615e-01
 -1.6268288e+00
  1.8034221e-01
 -1.8853360e-01
 -1.8187034e-03
  3.7192047e-04
  2.0781919e-04
  4.1016584e-04
  1.8610888e-03
 -5.9356856e-01
  1.4085263e-02
 -1.5619675e-02
 -1.5741247e-01
 -2.5620104e-03
 -5.8797176e-04
  3.0237192e-05
 -4.0273968e-04
 -3.9049162e-04
 -9.1562249e-02
 -2.2008820e-03
 -1.8582768e-03
  2.5619057e-03
 -1.1639188e-03
  5.0017796e-04
 -4.3169935e-03
 -8.6043518e-05
  2.1407441e-05
 -3.7224026e-04
  3.6353993e-04
 -4.9663405e-04
  1.0246073e-03
  3.6326114e-02
  4.2009592e-04
 -1.0337690e-03
  1.8679962e-04
 -1.7352671e-04
 -1.2430872e-03
 -1.5596185e-03
  3.6905047e-05
 -8.9560123e-04
 -8.1638107e-03
 -1.4225894e-03
 -9.1236230e-05
  7.3877448e-04
 -9.1229880e-04
  1.6066163e-04
  9.8146766e-04
  2.3264038e-04
  7.5147976e-04
  5.9437478e-04
  8.0979581e-04
  1.8138902e-03
  1.1558504e-03
  1.3656857e-03
  1.2790828e-03
  2.7450922e-04
  9.5219043e-04
 -8.2702865e-04
 -2.2659451e-03
 -4.4911103e-03
  6.3460117e-04
  3.6941621e-01
  4.5896453e-05
 -9.0872357e-04
  4.9143797e-04
  7.1237178e-04
 -8.2256587e-04
  5.3002289e-04
  4.2863894e-04
  3.3487903e-04
  7.7451573e-04
 -1.8921032e-03
  1.1011993e-03
 -1.2841744e-03
  1.1868842e-03
 -5.6471961e-04
  6.3477887e-04
  1.9267300e-03
 -4.2318123e-05
  3.1009337e-04
  4.2386816e-04
  2.7360345e-04
 -3.8272166e-04
 -3.3647803e-04
 -2.9964044e-03
  1.2131038e-03
  9.7837637e-04
  3.2859901e-04
 -3.8728709e-04
  3.5437517e-02
  1.8000044e+00
 -1.9696186e+00
  2.7818258e+00
 -1.8548736e-01
 -2.1210581e-01
 -3.4466994e-03
 -2.2575404e-01
 -4.5894298e-01
 -9.3275023e-04
 -4.5210574e-02
 -3.5060652e-02
 -4.7318093e-03
  2.2962768e-02
 -4.2360514e-01
 -1.4784035e-03
 -6.9605613e-01
 -2.6538383e-02
 -3.1533167e-03
 -1.0902222e+00
 -1.0823162e-03
 -1.8391967e+00
 -1.2564771e-02
 -1.7887462e-03
 -1.4216125e+00
  7.9828600e-04
  3.4467630e-02
  3.2607892e-01
 -3.5609477e-03
 -2.3223847e-01
  1.0517584e-03
 -9.1361690e-01
 -2.0512529e-01
  2.8355673e-01
  9.4471151e-01
 -8.9311399e-02
 -4.6042737e-02
 -2.6317366e-04
 -7.4103951e-01
 -1.7663540e-02
  4.4973407e-02
 -4.7357678e-03
 -1.5386845e-01
 -7.0909187e-02
  4.5177981e-01
 -4.6756577e-02
  1.1358695e-03
  4.5115914e-04
 -5.6641835e-01
  1.6936418e-01
  1.2509812e-02
 -5.1377807e-03
 -7.4065733e-01
  4.4710281e-01
 -7.3754139e-02
  8.2326390e-02
 -3.0544105e-03
 -2.9814056e-01
  1.8635576e-03
  2.0747974e-03
  1.8523799e+00
 -1.8587214e+00
  8.2708347e-01
 -4.4518524e-01
  1.0681062e+00
  3.9159760e-01
  5.5417529e-04
  1.0405560e+00
  1.3352977e-01
 -6.6568720e-04
 -1.2372000e+00
  7.1722728e-01
 -2.7692774e-02
 -9.7750288e-01
 -1.5475036e+00
 -3.2694910e-02
  8.8373214e-01
  7.2845452e-02
  9.3055522e-01
  3.4521570e+00
  5.2784603e-02
  5.9449714e-01
  3.2799351e-01
 -1.5124660e-04
  4.2863199e-01
  2.1683659e-04
 -1.4330017e-03
 -4.3599127e-04
 -6.0757697e-01
  9.4290648e-04
 -3.6007020e-04
  1.9483815e-03
 -6.0719678e-05
  1.4598876e-03
 -3.2979911e-04
 -1.7347514e-04
 -1.1465856e-01
 -6.6568039e-04
 -8.7192334e-04
 -5.3772586e-04
 -8.7126304e-04
  3.3468512e-04
 -7.2273513e-04
  7.8065082e-04
  4.5388038e-03
  5.5952929e-04
 -2.8867212e-06
  4.4466383e-04
  9.2265639e-04
  8.6658128e-04
  3.9036651e-04
 -4.6734810e-03
 -2.1460294e-03
 -1.9962112e-03
  4.7730275e-05
 -4.3261903e-03
  3.4406621e-05
  2.2564854e-03
 -4.0316620e-04
 -1.9188256e-03
  7.2207354e-02
 -4.7103849e-01
  3.3450320e-01
 -1.7142439e-02
  1.5858980e-01
  1.0793632e+00
  7.7903806e-04
  2.2618479e-01
  6.9947672e-01
  4.2557776e-02
  1.2084746e-01
  4.1225545e-02
 -3.4777862e-01
  1.2238597e-02
  2.8797768e-03
  9.2193231e-02
  4.7475766e-04
  3.4710012e-02
  1.3319141e-02
  1.1137255e-01
  3.0896741e-01
  1.6862838e-02
  1.2105164e-01
 -3.9672405e-03
  2.3707049e-01
  9.0310510e-05
 -2.1226381e-01
 -2.1160552e-03
 -3.1469848e-02
 -4.9288623e-02
 -4.4940235e-04
 -8.2785758e-04
  3.9035769e-04
 -4.4518427e-05
 -1.1356596e-03
  6.1536703e-04
  3.3138017e-04
 -4.2639865e-04
  1.3791112e-03
  6.0648174e-04
 -1.6283034e-03
 -4.9619819e-04
 -5.6041845e-05
  3.7678130e-04
 -3.9034704e-04
  7.4458607e-05
 -7.1244099e-04
  3.7782366e-04
  2.8353806e-03
  5.1519938e-04
  1.3031904e-03
  3.5856786e-04
  1.3012883e-03
  1.4718852e-03
 -3.3043045e-06
 -1.9988790e-04
  5.3251693e-05
 -5.1447406e-04
  4.7430280e-04
  6.6863242e-05
  4.1834090e-04
 -1.6783219e-04
  1.1694443e-03
  1.3810574e-03
 -4.0679678e-04
  1.3660559e-04
  8.8393269e-04
 -3.5975836e-04
 -1.6298002e-04
  5.4477144e-04
  1.2983788e-04
 -2.3830315e-04
  9.7538999e-05
  8.5688115e-04
  1.1432150e-03
  1.9429404e-04
 -6.3282991e-04
  8.5388927e-04
 -1.7497641e-03
 -1.2490338e-03
 -2.1980405e-03
 -2.1633215e-03
 -4.0796422e-04
 -5.4676121e-04
 -1.0264131e-03
  4.0462572e-04
  2.7678254e-05
 -4.6147159e-03
 -2.8534443e-04
 -1.3944452e-03
  1.5758355e-04
  6.4075011e-04
  3.2651814e-04
 -2.2903353e-04
 -2.1418634e-04
 -2.8941849e-05
  7.1288890e-04
 -5.2080781e-04
  4.1590113e-04
  3.9391726e-04
 -1.6397201e-04
 -5.5809447e-04
 -1.0130531e-03
 -2.0409478e-03
 -7.1660121e-04
  7.4727455e-04
  5.5231965e-05
  3.8122121e-04
 -3.8824233e-04
  8.1045239e-04
  9.7089319e-04
 -6.3334889e-04
 -6.5375533e-04
 -1.1776916e-03
 -8.2632975e-04
 -7.5118511e-04
 -4.0782114e-05
  2.0185194e-04
  5.2382651e-04
  4.1607372e-04
  2.0933420e-04
 -4.3859106e-04
  9.2423084e-04
 -4.5689661e-04
  1.8694770e-04
  2.2758495e-03
  4.6321034e-04
 -1.5672928e-03
 -9.9358731e-05
  5.0485349e-04
 -2.4511197e-03
  6.3353154e-04
 -4.6031288e-04
  8.3465222e-04
 -9.9675800e-04
  8.9878897e-04
 -3.3785967e-04
  3.9487949e-04
  1.7542507e-03
  6.3153094e-04
  1.6881332e-03
 -1.0318366e-03
 -1.3298055e-04
 -9.9227740e-04
  8.5075217e-04
  3.0081827e-04
 -1.3462671e-03
 -9.0826658e-04
 -3.1106491e-04
  6.9321098e-04
  3.2791783e-04
  1.1492476e-01
 -9.7058579e-02
  7.2795607e-05
 -1.1953962e-04
 -7.7684315e-05
 -5.5069435e-05
  5.5306971e-01
  6.7847793e-04
 -4.5860282e-04
 -1.4396716e-03
 -1.7376249e-01
 -1.8571495e-04
  8.1303308e-04
 -8.8340911e-04
 -3.0024145e-03
  5.7063051e-05
 -3.6110963e-05
 -3.4515520e-03
  1.9935965e-04
 -3.5580018e-04
 -1.0211071e-03
  8.1876654e-04
 -1.1665919e-03
 -2.5499940e-03
 -6.9177122e-04
  3.0977518e-04
  7.2597672e-04
 -1.0463300e-03
  2.9955150e-03
  1.1631974e-04
  5.2393657e-01
 -1.3019425e-03
 -1.9704786e-04
 -1.5253122e-03
 -1.0303805e-03
  1.3683847e-03
  8.7785587e-04
 -1.1108931e-03
  1.6210132e-03
  1.4209394e-04
 -1.4207283e-03
  1.4382686e-03
 -1.7801104e-03
 -4.6801355e-04
  2.3704495e-04
  9.6499093e-02
  1.2690995e-02
  8.3894643e-05
 -1.1848831e-03
  6.9596648e-04
 -8.9866444e-05
 -1.3051159e-03
 -4.7098228e-04
 -5.9709081e-04
 -8.6851575e-04
 -2.5076530e-04
 -2.7866950e-04
 -6.8417040e-04
  5.4764165e-05
  1.0792618e-03
 -1.3786854e-03
  2.5434181e-04
  4.9897440e-04
 -1.0054254e-03
 -1.7429629e-03
  7.7161047e-04
  1.1789771e-03
 -2.5674461e-03
 -2.6274027e-04
 -1.0625054e-03
 -4.4502009e-04
 -1.3086901e-03
 -4.2591823e-04
 -3.4982048e-04
  1.4461937e-03
  1.3187811e-03
  5.5096811e-04
  4.3782225e-04
  1.3801107e-03
 -5.8547838e-04
 -8.2473870e-04
 -7.2689872e-04
  1.1128116e-03
  8.0341892e-04
  1.8373714e-03
  3.4390048e-03
  5.7751051e-04
  3.1407166e-04
 -1.1648058e-04
  2.2898915e+00
 -1.9628991e+00
  1.3774111e+00
 -1.8608346e+00
  1.5627440e+00
  2.8125891e-01
  1.8821584e-01
 -1.6362361e+00
  5.3398654e-02
  1.2637639e-01
 -1.8360333e-01
  1.1287466e-02
 -1.9277583e-01
 -1.0607591e+00
  1.6704928e+00
  1.4267945e+00
 -1.6579964e+00
 -1.0224620e+00
 -2.3466296e-01
  1.2302173e+00
 -1.7895503e+00
 -9.1493791e-01
 -2.6546393e-02
 -1.1866598e-02
  8.8167433e-03
  1.6496493e-01
  1.2525727e-01
 -1.5350386e-02
  1.5571627e-01
  3.6733729e-01
 -1.1016298e-03
 -6.1906874e-01
  1.0275427e+00
  6.7956210e-04
  1.5047918e-01
  6.6132532e-05
  1.1229122e-03
 -3.6715806e-05
  1.3458912e-03
  5.6796655e-04
 -9.8154487e-05
  1.2588497e-03
 -5.8781330e-05
  1.5747317e-04
 -9.9363737e-05
  2.7077134e-05
 -7.3728123e-05
  3.4305104e-04
 -6.6858833e-04
 -8.1526079e-05
  6.3839670e-06
  1.6300491e-04
  1.7750300e-03
 -3.0917630e-03
  1.1503610e-05
  6.7102665e-04
  2.1502625e-03
  1.4114842e-03
 -7.9954015e-03
 -5.9241464e-04
 -1.4148776e-03
  8.3487690e-04
  1.7131117e-05
  3.6394704e-05
 -4.7042221e-02
 -2.0337684e-04
  2.3789761e-04
 -7.8003861e-05
 -3.7483140e-04
 -1.3315449e-03
  1.3673300e-03
  2.0856448e-03
 -8.5763558e-04
 -6.0884422e-04
  1.6701245e-04
  5.4054264e-05
 -1.7132769e-04
  6.0258730e-04
 -4.0907005e-04
 -3.1928954e-04
 -1.8245495e-03
  1.0528875e-03
  1.7630163e-03
  1.4096717e-03
  8.2821411e-04
  2.4632993e-04
 -3.6314392e-04
 -7.2162016e-04
 -5.2260840e-04
  5.7945790e-04
  2.2162711e-03
 -1.9588979e-01
 -1.1506779e+00
 -5.5824625e-01
  2.8210106e-01
 -2.6080720e-03
  1.7021874e-03
 -5.3577744e-03
 -3.2860745e-04
  8.0986466e-04
  1.2815003e-01
  4.7021150e-03
 -4.6747896e-01
  1.0311498e-01
  2.6566148e-01
 -4.6002228e-02
 -1.9049625e-01
  1.4090482e-03
 -9.5982025e-05
  4.0719339e-01
 -1.5071029e-04
  2.5151521e-02
 -1.2896847e-03
 -8.0227728e-05
  2.6359854e-04
  3.2031251e-04
 -3.5422543e-04
 -2.5183192e-01
  1.4520345e-03
 -1.0124060e-03
 -1.2796385e-03
  3.9060391e-04
  7.8913283e-05
  4.4954338e-04
  2.9674036e-04
  2.4835940e-04
 -5.1325732e-03
 -1.9509626e-03
  2.2366148e-04
  3.6619937e-03
  5.6499057e-04
  2.4340984e-03
 -7.9140160e-04
  1.5283510e-04
 -1.4569110e-04
  1.6318983e-03
  9.9374063e-04
  1.2261375e-03
  2.5925125e-04
  2.5479832e-01
 -5.6983379e-04
  1.7898435e-03
  4.6880808e-04
 -1.0683149e-03
  3.5892217e-04
 -2.0509768e-04
  1.9275374e-04
  1.1098697e-03
 -1.2790608e-03
  6.7246333e-06
  1.0316222e-03
 -2.8645084e-04
 -1.3812211e-04
  8.2873891e-04
  5.1866821e-04
  4.2221269e-05
  6.5418525e-04
  1.1076771e-04
  1.2129323e-04
 -2.6861278e-04
  7.5756147e-04
  1.4395859e-04
 -2.2710167e-04
  7.4505828e-05
  8.2824998e-05
 -7.0516439e-04
 -1.0525952e-03
 -1.8422550e-04
 -1.2040661e-04
 -1.1134014e-04
  5.0126179e-04
 -5.9560436e-04
 -3.2807027e-03
 -1.7479320e-04
  1.2685780e-03
  7.8101852e-04
 -1.4816497e-04
  7.0399273e-04
  8.2415965e-05
 -9.8167360e-04
  1.1390618e-05
  2.6521054e-01
  2.5778791e-01
 -1.4068233e-04
 -1.3703695e-01
  3.7282575e-03
 -1.2971709e-03
  6.3852593e-04
  2.1658927e-04
  1.8816690e-04
 -5.7199516e-04
  2.2796181e-03
  3.8303360e-01
  7.3542133e-02
  3.8915570e-04
  8.9023839e-04
 -1.2098246e-03
  1.1157743e-03
  1.1150542e-03
  6.1942852e-04
 -8.5944675e-02
  5.3713360e-04
  2.6980718e-03
 -9.1754069e-04
  1.6878872e-03
  1.4763103e-04
 -3.7024729e-04
  3.9200392e-04
  4.1812644e-04
  8.3451334e-05
  9.1965274e-05
  1.3799217e-03
  1.3072802e-04
 -8.6469232e-04
 -6.2095380e-04
 -1.0284157e-03
 -4.2886627e-04
  9.7234268e-04
 -9.8856073e-04
 -2.1812529e-03
  1.6202704e-03
 -7.1846915e-04
  1.1989750e-03
 -3.0340501e-03
 -3.8458154e-04
  7.4612873e-04
 -4.1592098e-04
 -3.2961200e-04
 -1.1520260e-03
 -2.4985054e-01
  1.6803037e-03
  1.0039728e-03
 -1.9198922e-05
 -3.0773629e-03
  6.3298110e-05
 -1.8956760e-04
 -1.3087540e-03
 -5.7902728e-04
  1.2916835e-03
  5.7654234e-04
  1.0841828e-03
  1.0942329e-03
  2.5110685e-05
  7.1105029e-04
  5.5903394e-04
  6.2180457e-06
  8.4028172e-04
 -2.7125643e-04
 -2.3393099e-04
  9.9048729e-04
  3.5412602e-05
 -6.2028994e-05
 -1.1932139e-03
  1.3817323e-04
  1.2566581e-03
 -2.2127943e-03
 -3.7742977e-04
  4.6742326e-03
 -1.0027508e-03
  1.6845367e-03
  3.9320279e-04
 -1.3373206e-04
 -8.8212942e-04
  4.3678589e-05
 -3.1565188e-04
 -4.9076520e-04
 -2.8794975e-04
 -2.7109403e-03
  9.3944120e-04
  5.7621591e-04
  3.9418176e-04
 -1.6442795e-03
 -9.8983466e-04
  1.8131998e-04
  1.3796458e-03
 -3.0732807e-03
  8.4899022e-04
  8.4519372e-05
 -2.2652373e-03
  1.3828166e-03
 -2.5171865e-04
  1.0693335e-03
 -1.2009998e-04
 -3.1147748e-03
  5.1362702e-04
  1.6823158e-04
  4.9261085e-04
  2.7617474e-05
  5.3185824e-04
 -5.9245847e-04
 -4.3526725e-04
 -2.6480819e-04
  4.0098242e-04
 -5.8845722e-04
 -1.9956936e-04
 -1.4693247e-03
 -7.9802441e-04
  3.7835081e-04
  3.2792834e-04
  2.4691916e-03
 -3.6318982e-01
 -3.5264183e-02
 -9.8811179e-01
 -1.4057001e-01
 -2.3268233e-01
  6.8290293e-02
 -1.3241887e-03
  1.0875765e-02
  2.4338238e-02
 -2.1242930e-04
 -6.6256785e-04
  6.6717833e-02
 -1.0442474e-02
 -9.1605470e-02
 -8.8850153e-04
  1.9486466e-02
  7.1879452e-01
  1.0482038e-01
  3.5536671e-03
 -2.7165040e-03
  3.2279058e-04
  1.6360364e-03
  7.6284427e-03
  1.1131489e-03
 -1.3160597e-05
  2.4339395e-04
  9.4558229e-04
  1.6275762e-01
 -2.3985755e-04
 -2.1196918e-03
  1.1434169e-04
 -4.9560447e-04
  2.3011719e-04
  1.6961711e-03
  7.6376827e-04
  3.4604969e-03
 -4.4169257e-04
 -1.0845308e-03
  5.4651173e-04
  3.8576059e-03
  9.6265844e-04
 -1.8322632e-03
 -3.2985437e-04
  6.4501417e-04
 -1.1222719e-03
  2.0976488e-03
 -7.0135767e-04
  2.3566463e-03
  8.4974139e-04
 -5.8432436e-04
 -4.3407164e-04
  2.1184766e-04
  9.7250864e-05
  2.4924770e-03
  1.9322846e-04
 -1.9299183e-05
 -2.0943844e-04
 -1.1513850e-03
 -1.0181083e-03
 -1.0239059e-03
 -2.3052424e-04
 -1.0917510e-03
  5.3261081e-04
 -7.2391180e-04
  7.1585597e-04
 -1.0406411e-03
  4.1898396e-02
 -1.1085133e-03
 -1.8000328e-03
 -2.4554478e-03
  1.1000843e-03
 -7.1709376e-04
 -1.4154564e-03
 -3.3358741e-04
 -1.7108680e-03
  4.5334238e-01
  5.4192316e-04
  1.3404476e-04
  6.4109474e-05
 -2.0601029e-04
  6.0813682e-04
  2.6498011e-03
  9.4348419e-05
  2.7865669e-04
  2.6456586e-03
  9.4138418e-04
  1.0472337e-03
 -2.2816071e-03
  6.5523968e-04
 -7.9611351e-04
  1.7276269e-03
 -1.7061085e-04
 -8.7775587e-04
  1.3481740e-04
 -1.2641805e-03
 -6.4736312e-05
 -9.3769369e-04
  5.6113895e-05
  8.4352551e-04
 -1.1098793e-03
 -1.3757838e-03
  3.2818711e-03
 -1.5995532e-03
 -2.8831771e-04
  9.2524447e-04
 -1.1770576e-04
  3.6886770e-05
 -1.4826539e-03
  5.7144155e-04
 -3.4327635e-01
 -1.0195150e-03
 -1.0170104e-03
 -2.3023454e-04
 -1.1003636e-03
 -2.1862923e-04
 -3.6994420e-04
  2.8401311e-04
 -1.8324947e-04
 -1.3452813e-04
 -2.7512846e-04
 -4.5708340e-01
 -3.4282887e+00
 -1.4429603e-03
  3.7358183e-02
  4.6849442e-01
  1.6587831e-04
 -2.2747619e-02
 -1.2129546e-03
 -2.1929909e-03
  7.2139403e-05
  1.7964799e-02
  3.0511181e-04
 -1.5399532e-01
 -4.8990881e-01
  2.3056290e-04
 -3.4374991e-04
 -2.1877045e-02
 -2.6562391e-02
 -3.7089770e-03
  5.4814150e-03
  8.1387637e-03
 -2.5465933e-03
 -1.8631525e-01
  1.0829190e-03
 -3.7794311e-03
 -1.8709974e-03
 -5.9851987e-04
 -9.0482885e-05
  7.9240528e-04
 -2.3984951e-01
  6.7134690e-04
  2.8780135e-04
  2.4971197e-04
 -3.9788746e-04
 -3.2521304e-05
  5.7872647e-04
  8.5845985e-04
 -1.1613126e-03
 -8.6340931e-04
  1.2722987e-04
  2.3138506e-04
  1.1988140e-03
 -3.2426196e-04
  3.5077657e-05
  6.7415758e-04
  3.6937717e-04
 -1.4503108e-04
 -2.8619121e-05
  1.0547498e-03
  2.9817311e-04
 -9.2579477e-04
 -2.4341237e-04
 -9.9777375e-05
 -1.7756671e-03
  6.6311343e-04
  2.8224676e-04
  2.0408321e-03
  3.7451717e-04
 -1.0602440e-03
 -2.3940807e-04
  4.3000844e-03
  4.9610886e-01
  3.5361052e-02
  9.8498938e-05
  2.6324712e-04
 -6.9017869e-01
 -1.1472603e-03
 -4.0595686e-01
 -1.7868148e-01
 -4.7127500e-02
 -8.8607930e-02
  3.5820839e-01
 -6.3738815e-02
  1.4356823e-01
  3.4198125e-05
 -5.0247699e-02
  1.7590082e-01
 -1.5627600e-02
 -1.3088854e-02
 -1.9752812e-04
 -4.6305660e-02
 -3.3876941e-02
 -3.3638033e-01
  3.8183693e-04
 -2.1108104e-02
 -1.8120413e-03
  4.2448395e-05
  5.6935581e-03
 -1.4450921e-03
  1.6875090e-03
 -2.7944567e-04
 -1.2491969e-02
 -3.0421649e-04
  1.6032087e-04
 -2.5525081e-04
 -1.1275165e-03
 -6.6465029e-04
  1.2284968e-02
  2.6099288e-04
  1.0286272e-04
 -1.2889068e-03
  8.2192943e-02
  2.1061137e-02
  1.0346515e-05
  8.2866591e-04
  7.6077394e-03
  3.4979021e-04
  9.7136404e-03
  1.0264312e-02
 -1.1275297e-03
  1.2057353e-04
 -1.3282336e-04
  5.0666009e-04
 -1.7344284e-04
  8.3948072e-04
  6.1849342e-04
  7.7297864e-04
  1.9713627e-04
 -8.9236820e-04
 -7.6919899e-04
  3.2676035e-01
  2.4428865e-02
 -1.8273979e+00
  4.9844265e-02
 -5.3411555e-01
  2.2264180e-04
 -1.7318922e-03
  1.0656765e-04
  9.5935760e-04
  1.4831772e-02
 -2.5275312e-03
 -2.0726645e-04
 -2.2587905e-02
 -8.3727479e-02
 -9.5806874e-02
  2.4497232e-03
  3.9827178e-04
 -1.7236524e-04
 -1.9195773e-04
 -1.4480206e-01
 -3.7890553e-04
 -2.3533282e-04
 -1.3650378e-03
  1.5583256e-03
  2.5137856e-03
 -1.5621930e-03
  1.4252259e-03
  8.6714939e-04
 -1.4019306e-03
  7.1026798e-04
 -5.4977479e-04
  8.1670366e-04
 -1.1994518e-01
 -3.7308142e-04
  2.1815884e-01
 -5.5828941e-04
 -4.0561205e-05
  3.0422973e-04
  1.5606593e-04
 -2.0730956e-03
 -3.7530679e-04
  1.4739217e-01
  3.1146585e-04
 -6.5810561e-02
  4.0598858e-05
 -2.0271682e-03
 -4.5835340e-04
  9.4692805e-05
  2.1532014e-05
  2.5431652e-04
 -2.1449935e-04
 -1.4627893e-03
 -1.4657975e-03
  1.4047617e-04
 -5.6529831e-04
 -1.4393721e-03
 -1.4305211e-03
  1.6500111e-03
  1.0767327e-04
  2.1969753e-03
 -6.3286767e-05
 -6.3976827e-03
  6.4440328e-04
  2.9552515e-04
  4.3072103e-04
  1.1801048e-03
  4.6352122e-04
 -2.8052594e-04
  2.8371634e-03
  9.7646646e-04
  2.1753515e-04
  1.3459921e-01
  2.6125042e-03
 -3.6473729e-02
  3.3232404e-04
  4.3188324e-04
 -3.4151988e-05
 -2.2079045e-01
 -1.0684379e-04
 -9.4084820e-04
  3.8142875e-03
  1.6623377e+00
 -2.3179764e-05
 -2.8304493e-03
 -7.8331551e-04
  2.6361778e-04
  5.6399999e-04
  1.7095411e-03
 -1.5479701e-03
  1.8571322e-04
  1.3064117e-04
  6.0326903e-04
  9.5494289e-04
 -1.2996919e-03
 -2.2552223e-03
 -7.4242707e-04
  5.9031666e-04
 -3.8146690e-04
  1.0609782e-04
  8.9441059e-04
 -6.7994848e-04
 -2.3746668e-04
  9.1229065e-04
 -4.1473971e-04
  2.1308509e-03
  3.9530470e-04
 -4.4120220e-04
 -1.2168166e-03
 -3.8754469e-04
 -1.7178034e-04
 -1.5613074e-04
 -1.4880707e-03
  1.3574490e-03
  2.7917444e-03
  2.2866708e-04
  1.9004695e-04
 -1.0512538e-03
  8.9219357e-05
  6.9787994e-02
  2.0947689e-03
 -2.2135322e+00
 -1.5372051e-03
 -1.5271995e+00
  1.7325288e+00
  3.0658889e-01
  3.1113155e+00
  4.0618796e-04
 -1.0216481e-03
  3.3587360e+00
  8.9705890e-01
  5.8974797e-01
 -2.9352515e+00
  5.3653534e-04
 -9.4929850e-01
  3.4741629e-04
  2.5214627e-03
 -7.2190982e-01
 -4.3269373e-02
  1.7869774e-01
 -1.9205267e-04
  3.6949288e-02
 -1.3678789e-03
  4.1549536e-04
  5.8628543e-04
 -2.5848055e-04
 -3.4554652e-04
  1.0156543e-03
  1.0762821e-03
  2.6429939e-01
  5.8171439e-01
  5.1138160e-04
 -7.5429457e-01
 -1.2069268e-03
 -1.2346166e-03
 -1.3514133e-03
  1.1350400e-03
  8.5789227e-04
 -8.1974016e-05
 -5.4460222e-01
 -1.0638316e-03
  1.2478108e-03
 -3.0362315e-05
 -1.7187133e+00
  5.0338112e-05
  1.5581226e-01
 -5.4178631e-04
 -5.4066396e-01
 -1.3246693e-03
  1.2043375e-04
 -1.6929947e-03
  6.3258582e-01
  2.8890456e-04
  2.4053413e-01
 -2.7652451e-01
 -1.1403749e+00
  1.3144566e+00
  3.2872247e-04
  7.2669335e-02
 -1.2953378e+00
  8.5910553e-01
  5.4022372e-01
  5.2618323e-04
 -2.0288108e-03
  4.3222797e-01
 -8.7675154e-02
  1.1302792e-01
 -4.7521624e-01
 -1.5717841e+00
  4.2551246e-01
  1.9435501e-07
  8.4919322e-01
  2.9561765e-04
 -1.1059245e-03
 -6.9990766e-04
  1.2458173e-03
 -1.6372578e-01
 -1.0260676e-01
 -1.7214587e-04
  1.1559570e+00
  1.4054386e-01
 -6.7856327e-02
 -6.1830032e-01
 -1.1488797e-04
 -2.2489902e-04
  3.5457975e-01
  7.4480753e-04
  5.7219762e-02
 -9.4347034e-04
  5.7810831e-01
  7.6096840e-02
 -1.1764309e-02
 -1.4035053e-02
 -5.4329389e-01
 -3.0919697e-04
 -5.7238448e-01
  7.9220928e-02
  6.5186280e-01
 -1.6470335e-01
  1.9959633e-01
 -1.8244967e-03
  1.1846244e-03
 -3.9803548e-04
  3.5529357e-04
 -3.5827172e-05
 -9.7919244e-04
  1.5068833e-04
  5.8575632e-04
 -6.0753526e-05
  1.0108590e-04
 -1.0047774e-04
  2.2064497e-04
  3.4549140e-04
  1.7529195e-03
 -9.3058666e-04
  1.1794192e-04
  1.8485594e-05
 -7.6894292e-05
 -4.4840193e-04
  2.6988614e-04
  8.9955050e-05
  1.0752965e-04
 -1.5266109e-04
  3.0382886e-04
  1.2343890e-03
 -1.0822087e-03
 -2.9665760e-03
  2.6282447e-03
  2.3712739e-04
 -1.4585818e-03
 -8.2496466e-05
 -2.3753724e-01
 -3.3542850e+00
  1.6575799e+00
 -1.2258506e-02
 -7.2324651e-01
  2.0333533e-01
  3.5411308e-03
 -7.3778192e-03
  7.1625644e-04
 -3.0428409e-03
 -6.5738268e-02
 -1.0275173e-03
  6.6728974e-03
 -3.9089853e-01
  2.6136544e-04
 -9.6225530e-02
 -3.0808331e-02
 -3.8722324e-01
  1.2458600e-03
 -2.8641698e-01
 -3.9546949e-01
  9.7142207e-04
 -4.2515114e-02
 -1.2074354e-03
 -4.8167020e-04
 -1.1681452e-03
 -6.3557141e-02
 -1.1306478e-03
 -1.0994659e-03
 -8.4620260e-02
 -6.7765482e-02
 -9.5239496e-03
 -7.4977541e-01
  3.4521937e-01
  1.8875264e-01
  3.8800204e-01
  1.5159728e-03
 -9.2495648e-05
 -2.6721980e-03
  1.6316373e-04
  1.8614033e-01
 -2.5435148e-03
  8.3073455e-01
 -1.8992221e-01
  3.0249331e-04
 -5.2576963e-02
 -1.4341310e-04
 -5.3501804e-04
 -2.4527380e-02
 -7.8206860e-02
 -1.3765155e-03
  1.8526582e-01
 -1.3011906e-01
  2.9907965e-03
 -4.4122917e-04
 -1.0252378e-02
 -5.3191183e-05
 -9.9010623e-01
 -9.4819754e-02
 -6.9356799e-02
 -1.1452177e-03
 -8.8124402e-04
  3.2181648e-04
 -7.0447719e-04
 -3.5625082e-05
  6.9579849e-04
 -9.0746372e-04
  2.6516168e-04
 -3.8850168e-04
  1.8630813e-05
 -5.2120205e-04
 -1.5010536e-03
 -6.2104990e-04
 -7.4924226e-04
  3.7601506e-04
 -6.5682070e-05
  1.5288948e-04
 -1.4602480e-03
 -7.1273098e-04
  5.8521423e-04
 -3.2756841e-04
  5.4404972e-04
 -1.0334235e-03
  3.5996130e-04
 -1.5301753e-03
 -3.1703536e-04
 -3.7483918e-04
 -6.6493888e-04
 -6.8935991e-04
  2.4668546e-04
 -1.9331053e+00
 -9.7060716e-01
  1.8744228e+00
  3.1942296e+00
  4.5776300e+00
 -1.0012962e-03
  7.8759820e-04
  4.0201992e-03
 -1.5916039e+00
 -1.2850909e-03
 -2.8478637e-01
  2.9413968e-03
 -2.7399657e-02
 -3.9441273e-01
  2.3025569e-01
  4.3638590e-01
  3.6865829e-03
  8.7856603e-01
  4.0317755e-04
 -2.8759193e-06
  1.2965505e-01
  1.6906999e-01
  1.0561820e+00
  1.1346570e+00
  1.4338074e-03
 -2.1025909e-03
  2.2395677e-03
  2.7188617e-01
 -6.2108640e-02
 -3.8666543e-04
  2.5792434e-04
  6.0835172e-04
  3.1864706e-06
 -3.5999608e-04
  1.4821248e-04
 -1.0633124e-04
  6.9312722e-04
 -2.3805372e-04
  6.2423880e-04
  4.2201037e-04
 -6.8979006e-04
  4.7864733e-04
  1.3017583e-04
  3.3642727e-04
  5.2976375e-04
  3.6635494e-05
  1.2740429e-04
 -2.5785138e-04
 -1.4284902e-03
 -9.7841467e-04
  3.7301634e-05
  7.5413531e-04
 -1.6472501e-03
 -2.5514315e-03
  8.1330480e-04
 -3.7382450e-04
 -6.4592867e-04
  2.4032524e-04
  4.9288053e-04
 -8.7898879e-06
  5.2594757e-01
 -9.3365827e-04
  5.7016048e-05
 -6.4102042e-04
  5.2434079e-02
  5.9999935e-03
 -6.5673317e-04
 -2.1150270e-03
  1.1249274e-03
 -2.7781251e-05
  8.6746272e-04
  9.3266106e-05
 -1.9716997e-01
  9.2605618e-04
 -8.2713639e-04
  8.7353203e-04
 -1.9833492e-03
  6.6905917e-04
 -4.5866650e-03
 -1.8529999e-03
 -7.2653115e-02
  3.0697524e-04
  1.2623543e-03
 -5.5532256e-04
  1.7774537e-04
  1.7343856e-04
 -1.8164949e-04
  2.9894125e-03
  1.1364683e-03
 -4.6080644e-03
 -2.9132719e-04
 -3.4196590e-04
 -1.6157860e-03
 -1.5944268e-03
  3.7837733e-04
  2.2673598e-04
 -7.4930792e-04
  1.7308876e-03
  5.0724897e-04
  2.2568670e-03
  2.1587336e-02
  2.5020976e-04
 -3.1077841e-01
  1.4599734e-03
 -1.4449017e-04
 -8.0509495e-04
  7.9281302e-04
 -9.8919705e-04
 -1.1014993e-03
  1.3222324e-03
  2.9442075e-04
  1.3393170e+00
  5.0655345e-04
 -1.7169976e-03
 -1.6998497e-04
  8.6479582e-04
 -1.6096396e-03
  1.5511544e-03
 -2.3499696e-04
 -9.6744850e-05
 -8.7530798e-01
 -5.2812055e-04
  2.6497925e-03
  1.0838606e-03
  8.9990848e-04
 -1.5295715e-04
 -1.6592901e-04
  1.5086631e-03
 -7.3018449e-04
  1.2444466e-04
 -7.0014794e-04
  6.9953699e-04
  4.6227524e-01
 -1.5353336e-03
  1.6044485e-03
  1.8079457e-03
  4.0620397e-04
  2.4361939e-04
 -1.6494199e-03
  2.9741684e-03
  5.5974949e-04
  9.9314610e-04
 -4.8724969e-04
  1.0318949e-04
 -1.0615762e-03
  2.0364545e-04
  9.1517701e-05
 -1.8955891e-04
  7.8135301e-05
  1.3121106e-03
 -5.4173835e-04
  1.2451648e-03
  1.3808056e-04
  5.3548603e-05
 -1.3040385e-03
 -7.1206701e-04
 -1.4354790e-03
 -1.1005631e-03
  4.0319230e-04
 -2.2162501e-04
  2.3738698e-03
 -3.6968489e-03
  1.0249799e-04
  9.2228240e-04
 -5.5345899e-04
  5.9585861e-04
 -8.9016312e-04
 -1.5036268e-03
  9.6140859e-05
  2.4802133e-04
 -3.4134273e-04
 -2.0577613e-04
  8.5795537e-04
  2.5344556e-03
  1.1871320e-03
  2.9254187e-04
  4.1985061e-04
  9.1799512e-04
  1.7005923e-04
 -1.1550887e-03
  8.3816740e-05
 -2.4856909e-04
 -5.6820724e-04
 -1.1137889e-03
  2.2962694e-04
  5.4150718e-05
  4.5943217e-04
 -8.1892242e-04
 -2.3028008e-03
  2.2892009e-04
  8.8545194e-06
  7.3648233e-04
 -5.7481026e-04
 -5.8172533e-04
 -8.4235152e-04
 -3.4849931e-04
 -1.4055935e-04
  2.3767144e-04
  9.2591997e-04
  1.1244775e-03
  1.2316888e-04
 -4.9506000e-04
 -1.6729658e-03
 -9.8345146e-05
 -4.3272829e-04
  5.1103742e-04
 -1.1027787e-03
 -8.9305438e-05
  9.5649471e-04
  5.7000277e-04
  2.1198900e-04
  8.0402155e-04
  7.2140107e-04
  2.3374648e-04
 -7.1781647e-04
 -1.0204430e-04
  4.9481570e-04
  7.7722879e-04
  4.7455169e-04
 -6.9424859e-04
 -1.4453221e-04
 -1.1353886e-03
  1.8486939e-04
  3.7415381e-04
 -2.4342020e-04
 -9.4413967e-04
 -2.2990078e-04
 -1.2393369e-04
 -6.5905278e-06
  1.6439293e-05
  3.7298872e-04
 -9.7034039e-04
 -7.5033790e-04
  5.0430297e-04
 -9.7279344e-04
 -4.3235588e-04
  3.7637967e-04
  1.7015359e-03
  8.1844801e-06
 -1.3804472e-03
  6.4987841e-04
  1.7275542e-04
 -1.0585968e-03
 -7.1076193e-04
 -9.7057648e-04
  2.2101323e-03
 -1.4136771e-05
 -1.8887520e-04
 -1.4904232e-03
 -1.1854150e-03
 -4.0586389e-04
  1.7091440e-03
 -6.6916196e-05
  7.5733848e-04
  2.7667925e-02
 -9.3507068e-04
  7.1392296e-04
  3.1026051e-04
  9.0489228e-04
 -1.7692313e-04
  2.4796417e-03
 -1.0319846e-03
  2.7803739e-04
 -1.7995493e-03
 -1.0928184e-03
  6.0680526e-04
 -1.5291190e-04
 -3.9144870e-04
 -1.4086384e-03
  3.5883184e-04
 -1.3232961e-05
  6.7372253e-04
  7.1965967e-04
 -3.7796510e-04
  6.9739891e-04
  5.2813994e-04
 -3.3984205e-04
 -2.6364462e-04
  5.0399103e-04
  2.7411963e-05
  1.5196027e-03
 -2.1393332e-04
  4.1158541e-04
  8.4539829e-04
  4.7878880e-04
  5.6173943e-04
 -7.0025299e-06
 -4.1802850e-04
 -1.6506123e-03
  1.0919126e-03
  9.4162897e-05
  2.6374564e-03
 -1.7816677e-05
 -5.7535165e-04
 -4.8063160e-04
  9.6788502e-04
  6.8326265e-04
  7.9655356e-04
 -2.5765852e-03
  1.5092277e-04
  5.8193880e-01
  2.3715656e+00
  1.0874678e+00
 -4.6683745e+00
 -1.0777979e+00
  7.0800775e-01
  5.3861354e-02
 -1.9712055e+00
  2.2013773e-01
 -1.3593717e-02
  1.1303574e+00
 -6.7645080e-02
 -1.4833112e+00
 -1.5956788e-01
  1.1949835e-02
  4.0830672e-01
 -9.0055895e-01
  2.1104978e-01
  9.5617962e-01
 -2.0018281e-01
  6.1258893e-02
 -9.9653429e-01
  1.3219254e-01
 -1.4267883e+00
 -9.7882189e-02
  7.3441274e-02
 -4.7813769e-04
  1.4565916e-01
 -1.9960852e-01
 -3.0316317e-01
 -9.9617441e-04
 -2.1749786e-03
 -1.8047686e-03
  1.0104122e-03
 -1.3356718e-03
 -7.0000387e-04
 -7.4808573e-04
  2.2343008e-03
 -7.7445511e-05
 -6.1415223e-04
 -6.4860983e-04
 -8.6203468e-04
 -8.2942157e-04
 -3.0029996e-04
  1.2007525e-04
  9.5600879e-04
  1.1058487e-03
 -3.9774110e-04
  2.3467588e-04
 -6.3409534e-05
  1.8252291e-05
  2.7120297e-04
  2.2712822e-05
  2.4702435e-03
  3.4996256e-04
 -4.3332257e-04
  6.4928806e-04
 -3.7490868e-04
 -7.5122440e-04
  1.1592996e-03
 -1.0885822e+00
 -1.1820875e-01
  1.2394573e-03
  1.9185467e-01
  9.0648538e-01
  5.7398896e-03
  1.2507041e-04
  1.2749809e-04
  5.8036932e-04
 -7.0394756e-04
 -3.4178317e-01
  1.7989775e-03
 -1.4762010e-04
 -4.5941946e-01
 -3.7113419e-03
 -9.8436465e-04
 -4.4029910e-04
  1.7576294e-05
 -1.2895145e-03
 -8.5897911e-03
 -5.0566959e-01
 -2.8662663e-03
 -1.0133173e-03
 -9.0580080e-03
  3.6477926e-04
  5.8570260e-04
 -2.4602964e-04
 -5.5401165e-02
  3.0022414e-04
  5.3345307e-04
  1.1582416e-04
 -1.3819577e-04
  1.8517165e-03
  1.1662378e-03
  9.4080373e-04
  1.3237657e-03
  3.5740662e-04
 -9.1609015e-04
  1.9149519e-04
 -2.4782401e-04
 -6.4209936e-04
  6.4438710e-04
 -4.3045401e-04
  8.2287646e-04
  4.1936920e-04
 -1.3739237e-04
 -6.4689972e-05
 -3.4028551e-04
 -4.4915415e-04
  1.7400498e-04
  4.1016624e-03
 -2.9694154e-03
  4.6840167e-04
 -1.0478296e-04
 -7.1783003e-04
  2.7179005e-04
  5.9325557e-05
  3.3519251e-04
 -3.3207401e-05
 -9.1600558e-04
 -3.2190170e-02
  6.3155597e-04
 -8.4447936e-04
 -3.8889603e-04
 -9.6455729e-04
 -6.5624574e-04
 -3.3358327e-04
 -3.5708546e-04
 -1.3265860e-03
 -4.2503630e-04
  6.3885306e-04
  8.0424931e-04
  6.1301522e-05
 -1.5954983e-04
 -1.9788608e-04
 -1.2933358e-04
  3.9254152e-03
  7.4192719e+00
  5.6855363e-04
  1.2955180e-03
  1.8149774e-06
 -7.8916847e-04
  4.8768462e-04
  4.8861484e-04
  1.0974996e-03
 -5.1764736e-04
  2.0205563e-04
 -1.4715547e-03
 -5.3704606e-04
 -8.7314897e-04
 -7.9621160e-01
 -3.9832342e-02
 -1.0279671e+00
  6.5937306e-04
  1.2196112e+00
  1.2600339e-04
  7.1811381e-05
  8.3191949e-04
 -1.7310773e-03
 -1.1911212e-03
  8.7757403e-04
 -7.6038406e-05
  2.7647758e+00
 -1.8781138e-04
  4.6523620e-04
 -1.0597702e-03
 -8.5892662e-04
 -7.8371391e-05
  4.7686834e-02
 -9.6357829e-04
  3.5822015e-02
  7.2685449e-05
 -1.4830614e-04
 -1.9722710e-04
  1.6621248e-03
  9.2358864e-04
  1.1213636e-03
 -1.4431746e-04
 -1.2051193e-03
  3.6910281e-01
 -2.2310394e-01
 -2.5414295e+00
 -1.0653154e-04
 -1.1956241e-03
  8.8590729e-01
  7.9538740e-02
  3.6033077e-04
 -2.0759229e-03
  2.4291161e-04
 -8.3585298e-03
 -5.8457381e-01
 -6.0134080e-05
  5.7492739e-01
 -5.3521741e-02
 -1.8668134e-04
  3.6798391e-01
 -1.3987252e-03
 -8.3060814e-03
  9.5337193e-04
  9.3080348e-04
 -1.1582655e+00
  2.2494949e-04
 -3.7792965e-04
 -1.4658758e-02
 -3.7850689e-03
 -1.9429653e-04
  1.7689975e-03
  6.5046096e-01
  6.7621708e-04
  4.5515594e-04
 -4.0075776e-01
  1.5640697e-03
  3.4318620e-04
  2.6334468e-03
 -5.2000798e-04
 -2.7346348e-03
 -5.5985403e-04
 -9.7858929e-04
  8.0759212e-04
  1.2889345e-03
 -1.1027165e-03
  1.3682197e-04
  8.0649037e-04
 -6.8807276e-04
 -2.0756731e-03
 -1.7986235e-03
 -1.2506165e-03
 -1.7910268e+00
  5.6099292e-04
  7.0306729e-04
 -8.3084631e-04
 -8.2504004e-04
 -9.7040279e-04
  1.8054160e-04
  7.0899900e-04
 -1.7038760e-04
 -1.8685586e-04
  3.6256225e-04
 -1.2556202e-04
  1.1802629e-03
  1.5015353e-04
  1.3028586e-04
  1.4694261e-03
  7.3759514e-04
  4.4328667e-04
 -1.2713203e-03
 -1.5539767e-03
  2.2520906e-04
  6.3300808e-04
 -5.0290453e-04
 -7.8863034e-04
 -5.3502992e-04
  3.1951384e-03
  2.9753728e-04
  3.3503235e-04
  3.8394716e-04
  1.3637496e-03
 -7.5187818e-05
 -6.0713466e-04
 -4.7360366e-04
  2.0370629e-04
  3.9127178e-04
  6.5786517e-05
 -3.9492446e-04
  9.5009489e-04
 -7.9494261e-05
 -6.4967538e-04
  1.3030093e-03
  1.1336051e-03
 -1.5279364e-04
  6.5841466e-01
 -8.7534833e-01
  4.1562659e-01
  1.0495795e-01
 -6.6717434e-01
  2.7659780e-03
 -6.9526861e-05
  8.4662804e-04
  2.9352028e-04
  4.7209352e-05
 -4.5806319e-01
 -7.7986175e-01
  1.1809939e+00
 -4.5403713e-01
 -1.4996119e-01
 -2.1244559e+00
 -1.9429980e-02
  8.7924593e-04
  3.9784401e-03
 -1.7218603e-03
 -1.6691937e+00
  2.1171570e-03
 -2.7118474e-01
  8.3588266e-06
 -3.0149613e-03
  7.0290072e-03
  2.6858595e-04
 -2.7953349e-02
 -3.5566333e-04
  4.5244710e-04
  8.8698834e-01
  1.2906337e-01
 -6.5900797e-01
  2.1706201e-01
 -1.1874372e-02
 -1.4777927e-03
 -4.4448753e-03
 -7.1773155e-07
 -2.3846448e-04
  1.9570368e-03
 -6.1658370e-01
  8.0790353e-04
  1.7554659e-01
 -1.3620298e-01
 -2.0156300e-03
 -3.0288927e-03
  1.9203177e-04
 -2.3268745e-03
 -4.0602521e-04
 -3.6820967e-04
 -2.0949299e-02
 -1.4693311e-03
 -3.5832796e-02
  4.4495044e-03
 -6.3315107e-05
  2.7527133e-01
 -2.7414173e-04
 -5.1680177e-01
 -7.3316703e-03
 -3.9383187e-04
  4.9073336e-04
 -1.1236298e-04
  2.4381421e-04
  4.0407972e-06
  4.8295641e-04
  2.5244706e-04
  1.1713492e-03
  2.4722834e-04
 -5.7056220e-04
  4.1303915e-04
 -2.2289042e-04
 -4.3164534e-04
  1.6310930e-03
 -3.4805437e-04
 -7.1064773e-04
  4.4565130e-04
  8.2160335e-04
 -1.7727571e-04
 -9.3514338e-04
  1.3864308e-04
  8.3604088e-04
 -7.5074699e-04
 -7.3825191e-05
  2.3053228e-03
 -6.3199876e-04
 -2.3916710e-04
  3.4017416e-03
  8.9273753e-04
 -5.1603594e-04
 -1.0638456e-03
  4.3144238e-01
 -2.2130086e-01
  8.8199891e-02
  1.3357141e-03
 -1.7800871e-01
  1.2888474e-02
  7.8041019e-04
 -7.9801329e-04
 -1.2565556e-04
 -1.1321851e-03
 -2.6074752e-01
  3.9349571e-03
 -3.5722592e-01
 -1.4352124e+00
 -1.3785089e-04
 -1.6638450e-01
  6.0080283e-04
  1.2764033e-03
  1.4825648e-04
 -1.9709294e-04
  8.4427954e-04
  2.1063150e-03
  7.2218722e-04
  3.0064170e-04
  4.9400044e-04
  1.0005438e-03
 -2.2409966e-05
  1.9183668e-01
 -5.5504809e-03
 -2.1553091e-03
 -1.6614500e+00
  7.0187839e-04
 -9.3775411e-04
  4.9402361e-04
  1.4314930e-03
  1.6817357e-05
  3.8509734e-04
 -5.6224037e-04
 -1.6767171e-03
 -3.9745383e-03
  7.6837663e-04
  2.2825703e-04
  6.6467881e-02
 -6.0423728e-05
  4.9752354e-05
 -3.3652777e-04
 -4.5618933e-04
 -1.1702934e-03
 -9.5992879e-04
  1.5835075e-03
  2.4415599e-04
 -1.5359526e-03
 -4.7813033e-04
  1.9983928e-04
 -1.4169635e-04
 -3.3021980e-04
  8.2348415e-04
 -1.4927655e-05
  8.5999520e-04
  7.4069691e-04
 -4.6885823e-04
 -1.3491437e-01
 -6.8368499e-05
  1.0128432e-03
 -1.6695823e-03
 -6.1286270e-04
  4.3318942e-04
  1.9951332e-04
 -7.9584242e-06
  8.2426349e-04
  1.4879926e-03
  2.9811234e-04
  1.1766127e-03
  2.2874660e-04
 -1.8416273e-03
  2.3387821e-04
  6.5846543e-04
 -4.3682361e-04
  3.3513462e-04
  2.8660096e-04
 -8.0390222e-04
  7.6237565e-04
 -6.1472901e-04
  3.4331908e-05
  1.3861137e-03
  1.0576121e-05
 -1.4769851e-03
  1.7726400e-03
 -4.0385188e-04
 -2.5530201e-03
 -7.4406075e-01
  1.4648050e-04
  2.5501518e-04
 -9.6962834e-04
  1.5152710e-03
  5.4223894e-04
 -7.0625113e-04
 -9.8173814e-06
  6.8744022e-04
 -1.9164865e-03
 -3.7715610e-04
  6.5817853e-04
  1.0540604e-03
 -7.1178409e-05
 -1.6651799e-03
  1.2119982e-03
 -1.0217907e-03
  7.1634346e-04
 -2.9005257e-03
 -5.5350485e-04
 -4.8854330e-04
 -7.1270164e-04
  6.5279746e-04
 -5.7361432e-04
 -1.8720388e-04
  3.2429253e-03
 -9.4010524e-05
 -2.5893326e-04
  6.5080816e-04
 -4.1962438e-04
 -1.1543374e-03
  9.3086308e-04
  5.2045035e-04
  3.0955928e-04
  7.8043091e-04
  1.3558034e-04
  4.3352181e-04
 -9.0266214e-05
 -4.6484216e-04
  7.3364266e-04
  6.3441094e-04
 -8.3669950e-04
  1.6553169e-04
  1.0475821e-04
  8.2603050e-04
 -8.4235129e-04
 -7.9595915e-04
 -1.2846290e-04
 -9.1228000e-04
  2.1945841e-04
 -7.8779249e-04
 -8.8197303e-05
 -6.2497449e-04
  9.0989075e-04
  6.2333897e-04
 -4.3983226e-05
  1.7984963e-03
 -6.9927286e-05
 -5.4115540e-04
 -2.6482451e-04
 -2.1828592e-04
  3.1931124e-06
 -3.1509745e-04
  3.0360336e-04
 -1.1375723e-04
 -1.1733339e-04
 -3.3887129e-04
 -2.3527649e-04
 -2.5516788e-03
 -6.0967129e-04
 -8.8891847e-04
  6.5962848e-04
  2.7106874e-04
 -4.2271835e-04
  3.9379683e-04
 -5.1805156e-04
 -8.6515828e-04
 -2.9228732e-04
  1.9267685e-04
  4.9299176e-04
 -2.1773600e-03
  2.1478883e-03
  9.8525058e-04
  1.9946904e-03
 -1.9267897e-04
  1.3383169e-03
 -4.0543902e-05
 -4.9497845e-04
  1.3429094e-03
  1.4072964e-04
  5.9949104e-02
  2.6134292e-03
  1.3653336e-04
  1.2324592e-03
 -9.8824492e-03
  3.7016286e-04
  1.2315948e-04
 -1.0603471e-03
  2.7202460e-04
  4.3387907e-03
 -1.7980240e-04
  6.6208054e-04
  3.1363973e-01
  6.5465318e-04
  4.5052424e-04
  3.0954109e-04
 -1.4292853e-03
 -2.3359356e-03
  9.1771610e-05
 -1.0726748e-04
 -1.2546048e-03
  1.5424397e-04
  7.7724614e-04
 -2.6136133e-04
  8.0639031e-04
 -5.9235387e-04
 -8.2884071e-05
  9.9710538e-05
 -3.4836771e-06
  5.5826257e-04
 -9.6879812e-04
 -3.9756397e-04
 -4.1018086e-04
  7.3508668e-04
 -9.7944716e-04
  2.3010110e-04
  5.9562863e-04
  1.1412459e-03
  1.7433031e-04
  4.3254381e-04
 -2.8621647e-04
 -2.4502195e-04
 -2.6363013e-03
 -4.7573601e-04
  5.3606601e-04
  9.7970305e-06
  1.0321221e-03
 -2.7839976e-04
 -2.1293359e-04
  1.3223941e-04
 -5.0093950e-04
  1.7729996e-03
  1.2595478e-03
  1.9019361e-03
 -1.0354311e-03
 -4.0690845e-04
  1.9939496e-04
  9.4096358e-05
 -2.8919752e-04
 -6.6057505e-04
 -6.5748703e-01
  5.4848986e-04
 -1.5129005e+00
  1.4606264e-04
 -8.8771101e-04
 -1.3272535e-03
 -8.8842254e-04
  1.0303971e-03
 -5.5484171e-04
  3.8710900e-03
  1.2288163e-03
  9.8863314e-04
  1.9867878e-01
 -1.6778290e-01
  5.1404134e-04
  2.9969058e-04
  8.3844119e-04
  3.8616758e-04
 -1.0417206e-03
  4.2198976e-03
 -3.1466565e+00
  1.1150149e-03
  1.1041266e-04
  2.8356042e-04
 -4.0492695e-04
  4.0239841e-02
  4.1358278e-04
 -4.2483073e-01
 -6.8627467e-04
  9.3924225e-04
 -3.1526087e-04
 -1.9197862e-03
  3.6971481e-04
  5.6044786e-04
 -8.1170531e-04
  1.8718080e-03
 -1.8114438e-03
  2.4440655e-04
 -1.5580793e-03
  3.2415026e-04
 -5.2220648e-04
  1.2482218e-03
 -1.1161414e-03
 -2.1836869e-04
  3.8915383e-05
 -7.0675253e-04
  1.5421775e-01
  5.2500010e-04
 -1.2868431e-03
 -1.1670166e-03
 -2.5425636e-04
  5.1981898e-04
  2.3972979e-04
 -4.6640635e-04
 -2.7018960e-04
 -3.2232106e-03
  3.5141192e-03
  3.6448828e-04
 -2.6023714e-04
 -5.8653695e-04
 -2.1241665e-02
 -4.7879282e-01
 -5.0038207e-01
 -2.8881331e-03
  2.1836574e-01
  1.4656129e-01
  4.6845903e-03
 -2.2541913e-03
 -1.0287786e-03
 -1.1912661e-01
 -1.5297593e+00
  8.7738437e-05
  2.8718045e-01
 -1.0638793e+00
 -7.1166068e-02
 -1.6869675e-02
 -4.5927186e-03
  3.5480570e-04
 -2.4971110e-04
  1.0876397e-03
  4.8429599e-01
 -1.6635080e-04
  1.7610305e-03
 -1.4510152e-03
 -2.5350318e-04
 -1.3255163e-01
  1.6498093e-04
  1.7743330e-01
 -1.5645484e-03
 -8.0781849e-04
 -9.0050030e-01
 -5.7981694e-03
 -1.0340796e-03
 -2.8160465e-01
  1.2634604e+00
  7.7744715e-02
  6.4210041e-04
 -3.7165765e-02
 -8.3333300e-04
 -3.3430714e-04
  7.0635267e-02
 -6.6495512e-04
  4.3751788e-01
  3.1264979e-02
  4.9903902e-04
 -1.4452969e-04
 -1.2001472e-01
 -5.1666782e-03
  8.0136285e-04
  6.0479873e-04
  2.3959130e-03
  1.0093524e-04
  4.9985338e-02
 -4.4664317e-01
  2.6219539e-04
 -1.2015942e-01
 -5.7278381e-04
 -6.5199457e-02
  2.4619561e-03
 -1.2270662e-03
  2.7779758e-04
  2.2894870e-04
  1.0575010e-03
 -1.3856646e-03
  7.8709115e-04
 -1.9764795e-05
 -1.0673980e-04
 -7.6573220e-04
  1.4789170e-04
 -3.3234057e-03
  5.3784397e-04
 -1.1343694e-04
  3.4600343e-05
  2.9930583e-04
 -6.3812529e-04
 -1.6948127e-04
  2.1390348e-04
  2.6279982e-04
 -1.9618890e-03
  4.3336197e-04
  1.9386351e-04
  1.9519092e-03
  3.4737505e-03
 -5.9589214e-04
 -3.2900134e-04
  8.8055269e-04
 -2.9438661e-04
 -3.5057703e-04
 -3.7740741e-03
 -1.5662864e-04
  5.1698518e-01
 -5.1958351e-03
  7.3304303e-02
  3.6083284e-01
  3.3117950e-02
  5.4505756e-03
  1.2948051e-03
 -4.0838588e-03
 -1.4950418e-03
 -4.7475315e-04
 -9.4252832e-02
  1.6399156e-04
  7.9556331e-02
 -1.2327167e-01
 -3.3552733e-01
 -1.0752147e-01
  6.8699650e-04
  3.7218837e-04
  7.7113981e-04
 -1.5262235e-02
 -1.0864527e+00
  8.7513981e-05
  1.0952909e-04
 -3.6419235e-04
 -4.0745430e-04
  7.4910146e-01
  2.5619633e-04
 -6.6833043e-01
  1.3079253e-03
 -5.1013026e-03
  5.3971808e-04
  8.2539878e-04
 -2.2103202e-03
  9.3864603e-04
 -2.1574186e-04
 -4.1411107e-04
 -6.0840236e-04
  1.1382840e-03
 -2.5560599e-04
  1.1983921e-03
 -6.9662608e-04
  1.3736406e-05
 -2.7595140e-04
 -1.3117031e-03
  1.6193760e-03
 -2.5871741e-03
 -6.8902789e-04
 -9.2377199e-04
 -7.7989063e-04
 -2.5611388e-04
 -8.1366516e-04
 -1.0869533e-04
  1.7070491e-04
  1.4143165e-04
 -8.9809560e-04
 -4.5939675e-04
 -3.0881586e-04
 -2.3459434e-04
  3.2438977e-05
  3.9969149e-04
 -1.0534278e-03
 -1.2531518e-05
  5.7794963e-04
 -9.1605420e-05
 -6.6357461e-05
  6.1385374e-04
  1.4258291e-03
 -1.3093157e-03
 -1.4073549e-04
  2.0356011e-04
 -9.8480587e-04
 -3.6944207e-04
  9.7953517e-04
 -2.6124180e-04
  1.5980107e-03
  5.4427836e-04
  1.6272118e-04
  3.1184801e-04
  9.1193899e-05
 -3.0489214e-04
 -3.8634057e-04
 -7.2785164e-04
 -2.5676069e-04
 -6.8193366e-04
 -1.6082377e-04
  5.7147793e-04
  2.4638276e-03
 -5.3138915e-04
  6.5455539e-04
 -6.3863292e-04
  6.4513972e-04
 -2.1799115e-02
 -5.0777179e-04
 -1.8742454e-03
  3.8000706e-01
 -6.5905217e-04
  3.4003942e-03
 -4.3222122e-04
 -2.5870090e-03
 -3.2810525e-03
 -2.2732606e-02
  1.5600199e-04
 -4.1494695e-03
 -4.3885713e-03
  5.1047875e-05
 -2.8356392e-04
 -3.7151352e-05
  9.5549483e-05
  2.7920094e-03
 -3.2623084e-03
 -8.2205348e-03
 -3.3092995e-03
  7.8443071e-04
 -1.9608790e-03
 -3.8785889e-04
 -8.8082114e-04
 -3.2639358e-04
  1.9451113e-03
  1.3871331e-03
 -4.8034402e-04
 -2.4226440e-02
 -7.4739650e-02
 -2.3346844e-01
 -6.6004813e-01
  1.0306512e+00
  1.2997860e+00
  2.4786097e-01
 -1.8142377e-01
 -1.5109032e+00
 -4.9430257e-01
  1.3106826e-01
 -7.1519208e-01
 -1.2851635e-01
 -1.6627217e-02
 -1.6416079e-01
 -3.5502303e-02
 -4.8918289e-01
  8.9404684e-01
  6.0051507e-01
 -3.1062138e-01
  1.7526147e+00
 -4.5817049e-04
  1.9384679e-01
 -9.3189484e-01
 -1.3576798e-02
 -1.6292732e-02
 -3.2245691e-04
  4.7842786e-02
  9.2923246e-02
 -5.5713955e-02
 -7.6885778e-04
 -1.6418677e-04
  1.1092470e-03
 -4.0406894e-04
 -1.0156492e-04
  1.4613594e-03
 -3.8782510e-04
  1.8592238e-04
 -6.7130706e-05
 -4.8089249e-04
  2.7145923e-04
 -9.0342481e-04
  3.7698841e-04
 -4.7822145e-06
 -1.0299737e-03
 -4.6520610e-04
 -4.3254709e-04
  1.3735156e-03
  7.2219851e-04
  2.2189300e-04
 -7.8767753e-04
  3.3339334e-04
 -9.3240337e-04
 -4.3789844e-04
 -9.4867521e-04
 -8.1641908e-04
  1.2597519e-03
 -1.7713249e-03
  3.1654898e-04
 -2.0945361e-05
  1.2703882e-01
  9.7905903e-04
 -3.9490382e-03
 -3.5500264e-04
 -1.1546888e-03
  5.5666314e-04
 -1.3706919e-03
 -3.2022136e-04
  1.0412439e-03
 -3.1242584e-04
 -1.7698731e-03
  7.6153206e-05
  8.6659228e-04
 -1.8483704e-04
  1.2527882e-03
 -1.5486511e-03
 -5.1633018e-04
 -2.4165048e-03
 -6.3846220e-04
 -9.5403619e-04
 -6.8968657e-04
 -1.9306929e+00
 -3.8217712e-04
  3.5110703e-03
 -2.7587824e-04
 -3.3636712e-03
 -5.1802269e-04
  9.4811624e-04
  5.9735852e-05
 -3.7527250e-04
 -3.1197316e-04
  2.1853752e-03
 -2.3431618e-04
  3.5605117e-04
 -4.1139469e-04
  3.8831891e-04
  1.0231921e-03
  1.3637278e-04
 -1.2399876e-03
 -8.5373358e-05
 -7.3621003e-04
 -4.8768701e-04
  1.3627528e-05
  7.5092225e-04
  2.5571394e-03
  5.6040753e-04
 -4.2550606e-04
 -1.2216939e-03
 -1.7762672e-04
 -2.7605533e-03
  1.2249973e-03
 -7.2267407e-04
 -6.4022816e-04
  7.9675985e-04
 -2.4207528e-03
  1.2196809e-04
 -2.7479537e-04
 -3.1320676e-02
  9.9652784e-04
 -1.6217181e-04
 -8.7991968e-02
 -4.7313491e-01
 -1.0890234e-01
 -2.6020794e+00
 -1.5832591e-01
  1.5870091e-02
  1.1042020e-04
  3.0625609e-04
 -3.8550328e-03
  5.0579262e-04
 -1.6578152e-03
 -1.1192660e-03
 -6.3568860e-01
 -4.4098333e-01
 -6.2076223e-01
 -6.3516963e-01
 -2.7970129e-03
  4.4026907e-04
 -1.1995743e-03
 -2.0150692e-04
  3.6702946e-01
  6.0055451e-04
  1.1055289e-01
 -2.5006265e-03
 -1.4347056e-03
  5.6470077e-02
  2.1686087e-06
 -1.9108394e-01
  3.5728128e-05
 -8.6344877e-04
 -7.5176704e-01
  1.1149435e-01
  5.9095031e-01
  3.1161225e-01
 -6.9328714e-03
 -6.0729635e-01
 -2.8228988e-05
  1.7283820e-03
 -4.8923993e-04
  1.3365068e-02
 -1.1406998e-01
  2.5812344e-04
 -8.4364682e-02
 -7.1209602e-02
  4.3744221e-02
  6.9912872e-04
  2.3355944e-02
  6.0235495e-03
 -1.3349764e-01
  6.0474503e-01
  3.5702676e-01
 -7.1471854e-04
 -7.3448211e-02
  1.3321327e-01
  1.3491645e-04
  1.8798041e-01
 -1.5539076e-03
 -7.5117931e-02
 -1.5146717e-04
  7.1466528e-04
  3.0288908e-01
 -2.8117466e+00
 -1.1889752e+00
 -3.7305549e-01
  7.3997575e-01
  1.3371245e+00
 -6.1726227e-05
  3.9974559e-04
 -1.1982650e-02
 -1.3010533e-02
 -4.1483852e-01
  7.3986039e-03
  1.0591074e+00
  4.6983607e-02
 -7.9172917e-02
 -2.8261527e-01
 -1.5957051e-04
  1.0949451e-01
 -3.6988053e-01
 -2.2763118e-01
 -3.9703065e-01
  2.5926408e-01
 -3.8222787e-01
 -1.3032998e-02
  9.4568037e-04
 -4.7120087e-02
  3.7963504e-03
 -3.5091990e-01
  1.0392348e-03
 -2.1951459e-01
  1.7032361e+00
  8.0688566e-01
 -1.2267178e+00
  4.4082251e-04
  1.9330931e+00
  1.0770599e-03
  4.2556252e-02
 -9.1483223e-01
 -5.9389495e-03
  1.8031668e-03
 -2.3665617e+00
  1.7469528e-03
  2.3573884e-03
  1.5963647e-04
 -6.7754805e-01
 -3.3308359e-04
 -1.8955837e+00
  1.1753581e-03
 -4.0103256e-04
 -1.1108011e+00
  1.1147457e-01
 -1.8519858e-03
 -4.3485838e-04
  1.0584853e+00
 -1.6140151e-01
  6.9447742e-05
  1.0471455e+00
 -4.4821171e-04
  2.2501487e-03
  1.3859986e-04
 -2.3121918e-04
  2.5876763e-04
 -2.5166389e-02
 -1.0262611e-04
 -1.8222617e+00
  2.8043622e-04
  3.2605872e-01
 -4.7013223e-02
 -1.1484816e-04
  1.0086933e+00
 -1.3300442e-03
 -2.9917101e-05
  3.0217579e-04
  1.3830707e+00
  1.0046269e-03
  2.1578046e-03
 -1.4265014e-03
 -2.8704349e-02
 -3.7218571e-01
 -3.8697082e-01
 -2.7380916e-05
 -8.1119573e-01
 -1.4185990e+00
  5.3903513e-04
  6.0056907e-01
 -3.2375572e-04
 -5.1070529e-01
 -6.7197107e-02
  2.2899692e-01
 -1.1014142e-04
  7.9116563e-04
 -3.2140731e-04
  5.0675906e-02
  6.2349229e-04
 -2.5234249e+00
  6.9902055e-03
 -6.5487617e-01
 -2.8721371e-04
  6.5021709e-02
 -1.2142932e-01
 -5.3161490e-01
  3.7601358e-01
  2.5310705e-04
 -5.9657133e-01
  9.1050202e-01
 -2.1167476e-04
 -3.9703515e-01
 -3.4285430e-04
  1.7874888e-03
  1.1419936e-01
  9.1883428e-02
  1.3548458e-02
  3.2486495e-01
  2.7339855e-02
  3.6598435e-01
 -7.3738374e-02
 -4.4573075e-01
 -7.0877367e-01
 -2.7634310e-02
 -5.4649961e-01
 -2.6974152e-04
 -1.7252112e-04
 -3.7828156e-01
 -1.4632955e+00
 -1.7088654e-03
 -2.6693122e-04
 -4.9093121e-04
 -4.1104993e-01
  8.2462347e-01
 -2.6218622e+00
  5.4106535e-05
 -2.9578450e-04
  3.6710835e-04
 -4.3944134e-03
 -1.4045545e-01
 -1.5001397e-03
  6.8280712e-04
 -2.1356180e-04
  2.1104154e-03
 -1.2228714e-03
 -1.9083925e-02
  2.9971746e-01
 -1.4969600e-04
 -7.4330153e-04
 -1.0614299e-03
  6.5168855e-04
  1.6416521e-01
  6.0966995e-04
 -5.1052944e-04
 -7.6349796e-04
  1.4369136e-04
  3.3811363e-04
 -8.1401740e-05
 -8.5033901e-04
 -1.4674043e-03
  4.5968976e-04
 -1.2307368e-03
  4.2978014e-04
 -1.8534751e-03
  2.3453129e-03
 -3.2629333e-03
  2.5770837e-03
 -1.9730730e-02
  6.2003219e-01
  3.9845109e-02
  2.8637939e-03
  2.1165141e-01
  7.6667714e-04
  3.6633469e-02
  2.4867171e-04
  1.5656729e-03
 -5.5779354e-04
  9.0334174e-04
  2.3427150e-01
  1.4946848e-01
  1.6414416e-03
  1.0210635e-01
  3.0061810e-03
 -2.3649102e-04
  5.1320367e-04
  1.9360162e-04
 -2.0122123e-03
 -1.4381659e-04
  1.2504702e-04
 -9.0978912e-04
 -2.3679817e-04
  8.8056159e-04
 -3.5816978e-04
  5.2220572e-04
  1.8801833e-04
 -6.7230690e-01
  9.9670753e-02
 -3.3937211e-04
  1.4444123e-01
  4.8473614e-01
  1.7156915e-01
 -1.2336143e-02
  8.5530624e-02
 -3.4656315e-04
 -1.9708419e-01
  2.3499362e-02
 -1.0461169e-01
  3.9837088e-02
 -2.2325420e-01
 -1.4396523e-03
 -3.5940975e-02
 -2.7460638e-01
 -2.3072539e-04
  6.7084730e-03
 -4.7101439e-03
  1.0239357e-03
  1.5971057e-01
  1.3816733e-03
  1.5959157e-02
  1.8044052e-03
 -9.0728368e-04
  5.9424539e-04
 -3.8547736e-02
  8.8068195e-02
  3.4521738e-04
  4.4815795e-05
  7.5311720e-04
  1.7869622e-01
 -3.5083827e-02
 -1.2548040e+00
  1.6235333e-04
  1.6674733e-02
  9.8711252e-04
  5.5823911e-02
 -2.4989143e-01
 -8.9293253e-04
 -3.9102626e-01
 -2.1580536e-05
  4.9794959e-03
 -9.5552945e-04
  1.9418931e-03
 -1.8532640e-01
  6.5624382e-04
 -1.4120097e-04
 -4.5678075e-04
  2.8116740e-03
  1.8898021e-05
 -7.6892058e-04
 -9.3826459e-04
 -2.8786808e-04
 -4.7776749e-04
 -3.2546109e-04
  2.4679948e-03
  7.1339236e-05
  9.5378906e-05
  9.8128328e-07
  8.1859739e-04
  1.3451079e-03
  5.7743187e-04
 -3.9708722e-01
  7.4203621e-04
  2.3155338e-03
 -6.0990400e-04
  4.2632382e-04
  6.1980468e-01
 -2.0058322e-04
  6.6856347e-04
 -3.5222787e-05
  2.2506316e-03
  1.2293236e-03
  1.4719582e-03
  1.1503224e-03
  2.6490467e-04
  3.9324525e-04
 -1.3635677e-03
  1.3720025e+00
 -3.2677115e-03
  2.5472667e-03
  8.3258426e-05
  6.1105355e-05
  2.0479037e-04
  5.2752024e-05
  9.5715042e-04
  2.8016124e-04
 -2.8812609e-04
  2.7952738e-05
 -2.8733693e-03
  3.7119750e-04
 -1.1877296e-04
 -2.5708999e-02
 -1.7402594e-03
 -5.0086010e-02
  2.3998888e-03
 -9.9983811e-03
  1.0486928e-05
 -7.5166114e-04
  4.1094096e-03
 -6.1599573e-04
 -1.9072270e-04
 -2.9363574e-03
  9.8608364e-04
 -5.7912683e-01
 -1.5113001e-03
 -1.9490690e-03
 -2.0389992e-03
  6.0665206e-04
  1.6134422e-03
 -5.3083518e-04
  4.1736217e-04
 -7.6786702e-04
 -3.0253344e-04
  1.6958208e-03
 -7.2034821e-04
  5.4724282e-04
 -1.0972166e-03
 -1.7785137e+00
 -6.3198304e-01
  3.3953258e-01
 -8.8096157e-02
 -2.1306175e-01
  1.6806604e-01
 -2.0479600e+00
 -3.9570441e-04
 -1.1661495e+00
 -4.6211351e-03
  4.5198309e-01
 -4.0168736e-02
 -1.2116086e+00
 -7.3175140e-02
  2.8260806e-01
  2.1206327e-04
 -1.1476904e-01
 -6.8856663e-01
 -3.9409686e-02
 -6.3637221e-01
  1.1685012e-03
 -4.8493621e-01
 -4.7824517e-04
 -2.4394584e+00
  8.5236374e-05
 -2.2363069e-03
  8.0195226e-02
 -2.3027038e-04
 -3.7644801e-01
 -1.6235342e-02
 -1.9218487e-04
 -1.9642105e-03
  1.1990350e-03
  9.5155090e-04
  1.6420428e-03
 -2.2690804e-03
  3.7430658e-04
  2.1752724e-03
  3.1255204e-05
 -4.8160442e-04
 -1.0778105e-03
 -1.7119625e-04
 -3.2954069e-03
 -1.0112636e-03
  5.4990256e-04
  1.0685838e-03
  4.2285706e-04
 -1.8883341e-04
  1.3559123e-03
 -7.8458263e-04
 -1.2645620e-03
  2.4901882e-03
  2.2599718e-04
 -1.3656552e-04
 -3.2145414e-04
 -2.1714608e-03
 -7.5538352e-04
  2.5129993e-05
 -3.0319078e-04
  1.4514468e-03
 -3.6133301e-01
  1.9091354e-01
  2.9855981e-01
  1.6081877e-03
  7.9980694e-02
 -9.8124045e-05
 -3.6074585e-04
  3.1400908e-04
 -1.9056107e-04
 -2.5302118e-03
 -1.7218031e-03
 -8.1723414e-02
  5.1099400e-04
 -6.2252380e-05
  1.9878578e-04
  5.2867207e-04
 -3.9802853e-02
 -1.3328542e-01
 -2.2296618e-04
 -5.0712996e-03
 -1.8805033e-04
 -2.5688164e-04
  7.2400691e-04
  1.9200930e-03
 -1.2527462e-04
 -3.8135337e-04
 -7.5792259e-04
  7.1395094e-05
  4.8927083e-03
  7.8257610e-04
 -5.2627432e-01
  1.3555633e+00
  1.9574316e+00
  1.6248070e+00
  2.0181460e+00
 -7.7829605e-01
 -1.4808068e+00
 -5.5345845e-01
  2.7293968e-01
  1.4056082e-01
  1.8354249e-01
  9.4912052e-02
 -1.4291069e-01
 -6.8373847e-01
  1.0811319e-01
  1.2675418e-01
 -2.3100023e-01
  2.8125313e-04
  2.2738725e-02
  4.3771201e-01
 -4.9262992e-03
  1.6268672e-01
 -9.7967044e-04
 -2.6909018e-02
  2.4044029e-04
 -1.1513420e-04
 -1.6803998e-01
 -1.8812477e-04
 -6.5445788e-02
  9.6814410e-04
  1.1263884e-03
 -2.0916120e-04
  3.6308484e-03
 -4.9206021e-04
  6.9581793e-04
 -1.2040490e-03
 -2.0808892e-03
  1.2918985e-04
  1.6395729e-04
  1.1305118e-03
 -4.4714801e-05
  1.6146062e-03
  3.8145250e-04
  4.2731073e-04
 -7.4580265e-04
  1.2593871e-03
  1.1895981e-03
 -6.8294094e-04
 -4.6690053e-04
 -8.8820065e-04
  6.7643464e-06
 -1.1280761e-03
 -1.0012795e-04
 -9.7035116e-04
 -6.2535907e-04
 -5.1627465e-04
  8.1440835e-04
  1.3434371e-03
 -1.9321763e-03
  1.9171524e-04
  2.2356832e-04
 -1.8763370e-03
  7.0170337e-01
  4.0236797e-02
  1.4039757e+00
  3.8840592e-01
 -1.4932988e-04
  1.0639001e-02
 -1.3529012e-02
 -4.9697396e-01
  3.7783578e-02
 -1.2810382e-01
 -1.9104418e-03
 -4.1237924e-02
  4.5649368e-02
 -3.3882437e-03
  1.3395138e-01
 -1.3744958e-02
 -4.0749703e-03
 -2.4713887e-02
  8.7412365e-04
  2.0670982e-03
  1.5513702e-04
  1.0324297e-03
 -1.3985881e-04
 -2.5347329e-03
  6.9016457e-02
 -2.6442725e-04
  3.7629822e-01
 -4.3275498e-04
  2.8590628e-04
  1.4542331e-03
  6.6025055e-04
  1.6374830e-03
 -5.8229855e-04
 -6.4661581e-04
  2.1007815e-03
  2.6334164e-04
  7.0655416e-04
 -9.6380332e-04
  1.5105963e-03
 -4.9131463e-04
  1.0338655e-03
  6.5219624e-04
  4.4113275e-04
 -5.9083042e-05
  2.0963660e-01
 -1.7682697e-04
  7.6366635e-04
  1.0012380e-03
  7.0892082e-04
  1.9789400e-04
 -4.3757809e-06
 -7.2694798e-05
 -9.0629072e-04
 -1.4128802e-04
 -7.2305318e-04
  6.6498265e-04
 -5.0337613e-04
  1.7565548e-04
  9.2586939e-04
 -3.9747986e-04
  9.3472630e-02
  4.6180500e-04
  5.7781063e-04
 -1.7260610e-03
 -9.1007393e-04
  1.0044846e-03
  7.1548787e-04
 -1.4276272e-03
  1.7870204e-04
  1.3022604e-03
  2.4070281e-03
  4.2611326e-04
  1.2784140e-04
 -6.5969239e-04
  1.8775370e-03
 -2.4212329e-04
 -5.5455760e-04
  6.3880696e-05
  2.0121946e-03
  6.7171681e-04
  2.2976550e-04
  7.3285203e-04
  6.9298927e-04
  1.7745312e-03
  5.0587446e-04
 -3.6643565e-04
  2.6228528e-03
  2.7677353e-04
 -6.2755221e-03
  1.6413596e-04
  2.0167343e-03
  1.7497168e-01
  1.9071449e+00
 -9.2800136e-04
  7.7976607e-02
 -4.1648460e-04
  6.1451532e-02
  3.8959756e-03
 -3.3155510e-03
 -1.2029946e-01
 -2.0599762e-05
  1.7548670e-01
 -4.1047946e-04
 -1.6490492e-04
 -3.6155876e-02
  5.5692587e-03
  9.8510856e-05
  5.4357064e-01
  2.9722304e-04
  2.2366192e-05
 -5.1430729e-04
  4.2046972e-06
 -2.4142818e-04
  3.4963083e-05
 -6.4731441e-02
  1.1219367e-04
  3.3863157e-04
 -5.9444620e-04
 -2.7983985e-04
 -7.2110328e-03
  2.0191984e-03
 -4.1722879e-02
  4.2753097e-01
 -1.6264184e-03
 -2.2321660e-02
  2.8603822e-03
 -5.5100268e-04
 -1.7712149e-03
  4.1580009e-03
 -3.2285654e-05
 -1.2897764e-03
 -1.8589680e-04
  2.0250835e+00
 -2.3286664e-03
 -1.6109025e-02
 -9.3618357e-05
 -8.9718387e-06
  3.1689247e-05
  6.8729016e-04
  3.0743459e-04
  5.0022936e-01
 -9.5895857e-02
 -8.6125295e-04
 -1.6241778e-04
 -1.5292983e-04
 -1.4958254e-03
  2.5184211e-04
 -1.1157711e-03
  1.3511615e-03
 -3.3557150e-01
  2.1374697e-04
 -6.2162150e-04
 -1.3590041e-03
  1.0600097e-05
 -8.1148391e-05
 -3.1823202e-04
  3.6945345e-04
 -3.9139629e-04
 -6.3033664e-04
 -1.5627207e-03
  9.5569604e-04
 -5.3500799e-03
  2.0775129e-04
  3.8717414e-04
 -4.5472378e-04
  8.7142311e-04
  1.1551704e-04
 -2.2748549e-04
 -9.7204308e-04
  7.8109629e-04
  9.6723292e-04
  1.2184030e-04
 -2.9784255e-04
  1.9847463e-04
 -5.5136153e-04
  1.8981318e-03
  1.1587881e-04
 -1.4440145e-04
  1.9568844e-02
 -7.3486012e-03
  4.3957392e-03
  6.2281376e-01
  4.3026513e-01
 -1.0282120e-03
 -3.9351594e-01
  5.9944746e-04
 -1.3526362e-01
 -3.0513000e-02
 -2.7693033e-03
 -1.3424768e-02
 -3.6773621e-03
 -3.7630212e-02
 -7.2158489e-04
 -2.3733296e-02
 -4.0610377e-02
 -1.4363198e-03
 -1.4921557e-03
 -1.6154059e-03
 -9.6674892e-04
  5.5093743e-02
  4.9318623e-05
 -5.2775926e-04
 -8.3845702e-04
  1.0073021e-03
 -2.2804317e-01
 -1.6182620e-04
  6.4053654e-04
 -6.1369635e-04
  7.3231559e-04
 -1.8651638e-04
 -3.2721651e-03
  1.5066284e-03
 -1.3239000e+00
 -1.1118186e-03
  1.7137009e-03
 -7.4935128e-04
 -2.7579503e-05
 -5.8874965e-04
 -6.0653145e-04
  1.5852343e-01
  8.0410775e-04
 -5.1598711e-04
  7.6352834e-04
 -1.5241597e-04
 -1.1785502e-03
  5.5391958e-04
  2.7211048e-03
 -5.6278805e-04
  6.1413646e-04
  9.6120079e-05
 -1.7366967e-03
  1.4284103e-04
 -2.5816057e-03
 -3.1888526e-04
  5.7674223e-04
 -4.1108782e-04
  1.1957185e-04
 -1.4524279e-03
 -7.9164408e-02
  8.7114552e-04
  5.1955972e-04
 -2.2012496e-04
 -3.6058663e-03
  8.2414254e-04
  3.4529019e-02
  2.9819068e-06
  1.5434260e-04
 -8.5396034e-04
  5.6318694e-04
  1.3911651e-01
 -6.1660458e-04
  1.0811951e-03
 -3.6241705e-04
 -1.7871012e-04
  7.5886309e-02
 -3.0710254e-04
  1.5727319e-03
  1.7954823e-01
 -5.8250042e-04
  7.0092716e-04
 -2.9774408e-03
  2.3541428e-04
 -3.3029349e-04
  4.9969689e-03
  8.1026612e-04
 -6.6307164e-04
  5.6764303e-04
 -1.2760934e-04
  1.4675310e-03
 -3.0883661e-04
  5.4069318e-05
 -9.7631541e-04
 -4.1824934e-01
  3.5582672e-04
 -2.3264466e-03
  1.9595467e-03
 -4.1840511e-04
  1.5093554e-03
 -8.7406814e-05
 -7.3676155e-04
  9.8633242e-04
 -1.0643360e-03
 -2.2005901e-04
 -5.0487800e-04
 -5.8373174e-04
  1.6994401e-03
 -8.2250993e-04
  1.6389518e-04
  5.6334567e-04
 -4.1264822e-04
  4.6610623e-04
  1.9809933e-04
 -4.9841381e-04
 -1.4169859e-03
  2.4603715e-04
  3.3926978e-04
  3.7761114e-04
  5.4049399e-04
  7.7403826e-04
  1.0592162e-03
 -7.7675347e-04
 -2.5285955e-03
  6.7432888e-04
 -2.1572791e-03
  1.5737121e-03
  6.6739996e-04
 -7.7462167e-04
 -5.2349997e-04
  1.7666612e-04
  1.3127547e-03
 -1.6978889e-03
  8.4934384e-04
  3.7597466e-04
  7.6869363e-04
  1.5361396e-03
  1.1585045e-03
 -5.5225252e-04
 -1.4325482e-03
  1.4373752e-04
 -9.2145684e-04
  5.4869935e-04
 -1.4570597e-04
  9.4668110e-05
  1.0560921e-03
 -6.1971885e-05
 -3.9468997e-04
  2.3822655e-05
  1.8164965e-04
  6.7036808e-04
  7.9876177e-02
 -7.2313726e-01
  4.5013002e-01
 -7.3391455e-01
  2.5594837e-03
 -2.8856736e-01
  1.8402885e-03
 -4.7173779e-03
  2.7997710e-05
  1.3665618e-06
 -2.9604450e-01
  2.6415375e-01
 -6.4102332e-03
 -2.6280268e-03
  2.8508087e-03
  3.7212666e-02
  2.4545993e-04
  7.9283351e-04
 -5.2839336e-03
  3.7494954e-04
  3.4644580e-03
  4.1358551e-04
  4.3392302e-03
  3.2679280e-04
  7.6784892e-04
  3.1238969e-02
  8.7517634e-05
  2.1107726e-04
 -3.7530673e-04
  4.1577572e-04
  1.2058653e-03
  2.0951407e-03
 -4.0350345e-04
 -1.6007698e-04
 -5.0982359e-05
 -5.7625456e-04
 -6.5959129e-04
  6.8941765e-04
  3.5635420e-04
 -1.2664900e-03
 -2.9853088e-04
 -8.3748944e-04
  7.9863872e-05
  9.9684438e-04
  1.0621399e-03
  2.4837285e-04
 -6.0571195e-04
  1.7153146e-03
 -7.0824305e-04
  2.4611612e-05
  3.3082170e-04
  1.8024591e-03
 -9.6427771e-04
  5.2892853e-04
 -5.2975275e-04
 -2.0980394e-04
 -1.2550682e-03
 -3.7681553e-04
 -5.6664805e-05
 -1.1816025e-03
  1.5604922e-03
  2.0149090e-04
  1.5041648e-03
 -2.1698284e-03
  2.6544527e-04
  1.4932076e-03
  1.1411783e-03
  1.6123906e-04
  9.9295075e-06
  9.4319915e-04
  1.2488473e-04
  1.2593156e-05
 -4.1383563e-04
 -1.8866463e-03
 -7.5495662e-04
  9.1247080e-04
  1.3345672e-04
 -2.7251217e-04
 -8.9899637e-04
 -5.8175100e-04
 -1.0123480e-03
  8.7677028e-05
 -1.2248228e-03
 -3.8825561e-05
 -5.3075061e-04
 -4.6599357e-04
 -5.1459059e-04
  1.2739350e-03
 -3.6677334e-04
 -5.8431613e-01
  7.5940663e-01
  2.2578347e-01
 -9.9873647e-02
  1.1485873e-01
 -2.8758192e-01
  7.8245707e-02
 -3.1325161e-01
  1.0703862e-01
  7.3654836e-01
  2.9216912e-01
  8.4926885e-01
 -9.4797984e-02
  1.5153354e-01
 -2.7229413e-03
  1.0575224e-01
  5.7476230e-02
  1.4392523e+00
  4.6965513e-02
  9.4589904e-02
 -6.3444804e-03
  3.0420271e-01
 -1.6650909e-01
 -1.7222558e-03
  2.1282819e-03
  1.5403813e-01
  1.0172967e-01
  2.0556864e-01
  1.6094758e-01
  1.3086828e-02
  8.1561250e-04
  2.7136967e-04
 -5.4825470e-03
  1.7529437e-03
 -2.5826672e-01
  3.3094801e-04
 -3.0588985e-03
  7.0372195e-04
 -5.1325068e-02
 -2.0698814e-04
  5.2619056e-04
 -1.5355709e-01
  3.5404362e-04
 -1.1516850e+00
  3.6851040e-04
  4.0686893e-04
  3.2609547e-04
  1.7144156e-04
 -2.5793286e-03
 -1.0239967e-02
 -6.7921268e-05
  1.5914772e-03
  1.5321410e-05
 -7.8907958e-04
 -6.8732566e-04
 -6.8069948e-04
  7.5753586e-04
 -3.7412017e-03
 -1.0425255e-04
  4.9926114e-04
  1.1265050e-03
 -5.2099972e-04
 -2.7434447e-01
 -1.5598326e-03
 -3.6453331e-04
  1.5183041e-04
  3.0230021e-04
 -2.3254730e-04
 -1.5457260e-03
  1.3551797e-03
  4.0818143e+00
  1.3752573e-04
 -3.3334396e-05
  6.2230451e-05
 -5.8829936e-04
  9.5746153e-05
 -6.3067542e-05
 -2.7534834e-03
 -1.4598796e-01
  6.5591815e-04
 -9.5867837e-04
 -2.0224333e-03
  3.5711637e-05
  1.2488702e-04
 -1.2678619e-03
 -7.5289112e-04
  2.5487668e-04
  1.2253504e-03
 -7.0992028e-05
 -6.0752989e-04
  6.0007834e-01
 -4.1992453e-01
 -1.6865957e+00
 -5.8412749e-01
 -1.8230383e+00
  3.9322451e-01
  1.0858126e+00
  1.4359510e-01
  1.5933497e+00
 -6.2857553e-02
 -4.3092522e-01
 -5.4000374e-02
  2.1394208e-01
 -3.6703341e-02
 -8.1904560e-05
 -6.4765714e-04
 -3.0316973e-01
 -6.9171336e-04
  3.2317801e-04
 -1.1335486e-03
  2.2273555e-03
  7.1628064e-02
  2.6382862e-03
  3.1327924e-03
 -3.9686714e-04
  5.0787156e-04
 -2.6642072e-01
 -9.0428686e-04
  1.7616762e-01
 -1.3722703e-04
 -1.3964407e-01
  9.9096394e-01
 -2.3586855e+00
 -4.8914180e+00
 -1.5667006e+00
  4.8744410e-01
  2.5048833e+00
  4.3284500e-01
  1.1610382e-01
 -7.5577527e-01
  3.4612127e-02
  8.6547399e-01
  7.2709084e-01
  3.2063681e-01
 -7.4778438e-01
 -1.6905339e-01
  1.5206403e+00
 -1.3080510e-02
 -6.7274748e-05
 -1.0549209e-01
  1.4797222e-03
  1.4632631e-02
 -6.7922869e-04
  1.4319573e-02
  3.1466745e-02
  1.0070303e-03
  3.7161347e-01
 -1.8240350e-01
  2.7237746e-01
  3.3234903e-01
  2.7327467e-04
 -2.0931820e-05
  1.9199703e-03
  3.1242874e-01
  4.2527594e-05
  6.0440629e-04
  1.9833934e-02
  1.4043585e-04
 -7.1130530e-04
  1.8303433e-03
 -6.7481749e-05
  1.9986245e-01
  1.6428714e-03
  4.2377627e-03
  5.4315047e-04
  9.1553095e-04
  1.6063051e-01
 -3.6196221e-04
 -9.8603580e-04
  3.3585977e-05
  7.0313754e-04
  1.8979616e-04
 -2.9992920e-04
 -1.6705582e-03
  9.8211668e-04
  1.7103094e-04
 -8.5514714e-04
  2.2584195e-03
  1.9020874e-04
 -2.4327614e-04
  1.2098473e-02
 -2.4650097e-01
 -3.0549431e+00
 -3.6475124e+00
 -6.4846367e-01
  7.3370492e-01
 -6.8792140e-01
  5.7124798e-03
 -7.4104440e-01
 -3.7077886e-01
 -1.1663267e-03
 -8.0830419e-01
  1.5221921e+00
 -3.2911235e-01
 -1.1513975e+00
  1.0319454e-04
  7.8262562e-01
 -1.1273494e-01
  8.1834430e-04
 -3.9742023e-01
  7.3235293e-05
  1.1853281e+00
  9.5598967e-05
  1.0540016e-04
  5.3932931e-04
 -1.1656390e-03
  2.1537298e-01
  5.8680725e-01
  4.4390484e-04
 -1.6733598e-03
 -3.3369667e-03
  6.9993681e-01
 -2.0843766e+00
  1.8001959e+00
 -1.2984574e-01
  5.6782001e-01
 -4.2486897e-01
  4.5095472e-05
  2.2976763e-04
  6.2271167e-04
  5.4091931e-04
  9.6004474e-01
  1.3973129e-01
 -4.9657107e-04
 -6.5635622e-04
  2.8072575e-03
  4.1194275e-01
  3.2443997e-01
 -2.3247572e-03
 -2.7184503e-04
  1.1639238e-03
  5.5380319e-03
  4.1288598e-03
 -8.8738633e-04
 -3.6710833e-04
  1.6503262e-04
 -1.3133849e-01
 -9.0071530e-04
 -3.9229728e-02
 -6.4462889e-05
  7.1826827e-05
 -1.2221810e-03
 -9.2598092e-04
  1.4500215e-03
  3.6591775e-04
 -7.7657308e-04
 -6.0609618e-05
 -1.1637285e-03
  2.3169970e-04
  6.1560731e-04
  4.3276377e-04
 -2.1274397e-03
 -7.8176422e-04
 -2.2457473e-03
 -1.6210016e-04
  8.5518393e-04
 -2.4672218e-03
 -1.8881054e-03
 -6.8727357e-04
 -5.9385155e-04
  4.8281106e-01
 -1.0787793e-03
 -7.2208478e-04
 -3.0412039e-04
  2.0040215e-04
 -8.8725000e-04
 -7.3705747e-04
 -1.2243220e-03
 -2.2370317e-04
  5.4609822e-04
  9.3096803e-04
 -2.1349620e-04
 -4.4856145e-04
 -1.5173701e-03
  1.7461593e-03
 -8.5788761e-04
 -3.1622036e-05
 -7.5524496e-03
 -4.5644827e-04
 -1.4949853e-04
 -1.8643647e-03
  6.3293194e-04
 -1.4746661e-03
  4.5386585e-04
 -3.9165618e-04
 -1.5946258e-04
 -2.3074345e-04
 -2.4912867e-03
 -2.9507175e-04
  3.2114759e-04
 -2.2158066e-04
  2.8762090e-04
 -1.9965750e-04
  2.3169605e-04
  2.3131792e-03
  4.2020768e-04
  2.1610460e-03
 -1.5567568e-04
 -4.6319375e-04
  1.3847055e-04
 -2.6814008e-01
  4.4024835e-04
  2.7485194e-03
  2.5077176e-01
 -2.6806751e-01
  3.5585772e-04
  1.3743891e-01
 -1.2141730e-03
  3.4837831e-02
  3.1409219e-03
 -1.2694228e-03
 -3.1074876e-01
  7.0535671e-03
  1.6209079e-01
 -1.7063100e-04
  3.1384432e-03
  4.6648207e-01
  2.2756642e-04
  2.1706657e-03
  1.6356808e-04
  2.7117805e-05
 -1.4533788e-02
 -1.2788238e-03
 -1.7772826e-03
  1.8982526e-03
  5.6658854e-04
 -4.8329202e-03
  2.5195775e-03
 -7.7017263e-04
  8.9791144e-04
  5.9627248e-03
  9.4229059e-04
 -1.0988565e-01
  2.6331425e-01
 -7.8464614e-04
 -9.3723269e-04
 -1.4635478e-02
  8.8361953e-04
 -1.6201814e-03
 -4.3099932e-03
 -5.0892198e-04
  3.5468140e-04
 -6.1366767e-01
 -9.7308436e-04
 -6.5768295e-04
  1.0756623e-04
  3.2990114e-04
 -2.0359298e-03
 -7.0874236e-04
 -2.8787111e-04
  2.6785361e-05
  1.9891346e-03
 -3.2496444e-04
  1.5436201e-03
 -5.3650601e-04
 -2.3756508e-04
  6.6925762e-03
  2.9195956e-04
  1.5277677e-03
  3.7121546e-04
 -8.6090788e-03
  3.1343272e-03
  2.4313263e-03
 -1.7139886e-01
 -7.8995489e-02
  6.8894820e-05
  2.1824364e-02
 -6.9224788e-04
  2.6203873e-02
 -7.6651922e-04
 -1.4010300e-04
  1.2158640e-02
  2.5521006e-02
  7.3327473e-03
  1.6063973e-04
  3.1370274e-04
  3.0554090e-02
  4.3334721e-06
 -6.2160991e-04
 -1.2451745e-04
 -1.0229539e-04
 -6.5749935e-03
  6.7256100e-04
 -1.3806518e-03
  2.5722814e+00
  7.4396620e-04
 -3.7527175e-04
  4.7761880e-04
  6.9764361e-04
  4.5787750e-04
 -2.4785428e+00
  4.7064829e-04
  9.3653864e-01
 -1.0554652e+00
 -3.0745402e-01
  7.5359462e-04
  4.8719981e-01
 -3.8592896e-04
  5.0328643e-04
  1.3545279e-03
 -3.6954391e-04
  8.8846093e-01
  1.0702271e-01
 -1.1738996e-04
 -5.7292235e-04
  1.7497997e-03
  5.5784994e-01
  9.1643730e-04
  1.7475622e-03
  8.4950961e-04
 -5.5855862e-04
 -1.3418007e-03
  1.6379722e-03
 -4.4308929e-04
 -6.3723368e-05
 -1.0010763e-03
 -1.4650589e-05
 -8.0033549e-04
 -7.5253112e-05
  7.3704321e-04
 -1.6837496e-03
 -1.0266049e-03
  3.1072483e-04
  8.2646194e-04
 -1.6055475e+00
  2.9917848e-03
 -2.7406041e-04
  3.0945969e-04
 -5.8222702e-04
  7.9068751e-04
 -1.1315686e-03
 -2.2031192e-04
  1.5276422e-03
  4.4721024e-04
  1.0834346e-03
 -9.3198550e-04
  7.8207854e-04
  3.8728295e-04
 -9.8000579e-02
  1.2959188e-03
  1.1582145e-03
 -5.2514137e-05
 -6.8593846e-04
  7.6412823e-04
 -4.7219437e-04
 -4.2007463e-03
 -1.7682395e-03
 -2.2226200e-04
 -5.4380071e-04
  7.0078060e-04
  2.3792154e-01
  2.5710097e-01
  1.1295733e+00
  2.0709716e-01
  9.9422359e-01
  1.1985786e+00
 -1.3593295e-01
  7.4415781e-02
 -5.3384941e-02
 -3.6434153e-01
 -2.0256877e-02
  1.2680063e+00
  3.3248726e-02
 -1.4011955e-01
  2.5516327e-02
 -6.2495474e-02
 -1.2785151e-03
  2.1412097e-02
 -4.1526183e-01
 -1.0539953e-03
  7.1645854e-04
  6.0009439e-02
  8.8813808e-04
  7.5728589e-01
 -6.5788772e-04
 -4.9242713e-02
 -1.1482698e-01
 -2.7447328e-01
 -9.9910215e-02
  2.6805612e-04
  6.7657506e-04
  5.2559339e-05
  2.8119272e-01
 -1.3211980e-01
 -1.0677271e-03
 -4.2688940e-04
  2.2718246e-01
 -1.5850495e-05
  1.2709331e-03
  9.9641725e-04
  7.5129018e-04
 -1.1219615e-01
  2.4472126e-01
  4.1470854e-03
  1.5140822e-03
  9.5473166e-04
  2.3299332e-03
  2.8718845e-03
  1.0606548e-03
 -1.5670303e-03
 -3.6387176e-03
 -2.2279636e-03
  1.8874191e-04
  3.9611277e-05
 -3.3724098e-04
 -1.1839950e-03
 -5.1161449e-02
 -2.0871554e-04
  6.6604407e-04
 -3.0008226e-04
 -2.0483440e-04
  2.8699830e-03
 -9.4981177e-04
  1.1748825e-03
 -1.4821787e-01
  6.7766773e-04
 -1.5185299e+00
 -4.9245358e-03
  1.9762317e-04
  5.0206267e-04
 -2.8444678e-04
  4.3459177e-02
 -8.3775158e-05
  8.5961163e-02
 -2.9036528e-03
 -2.0185860e-03
  2.0514603e-01
 -8.3922008e-05
  7.3964322e-05
  4.2172228e-03
  1.6469777e-03
 -2.9759633e-03
  3.1092254e-04
  1.0932721e-03
  4.0560504e-04
 -3.2022304e-04
  8.9308865e-05
  4.2117984e-04
 -1.2004094e-03
  1.4011059e-03
  2.7505076e-04
 -2.6938185e-04
  1.1073748e-03
 -1.8049530e-03
  1.1026673e-03
  9.2090027e-05
  3.3883841e-04
  2.5409376e-03
 -1.1118021e-03
  2.1697076e-04
 -7.0616475e-04
  2.5256540e-04
 -5.4714805e-04
  1.8310608e-04
  5.3807080e-04
 -2.2852625e-04
 -3.5026280e-04
  2.5349972e-04
 -1.4229612e-04
 -3.2305872e-04
  3.6805510e-04
  1.3663518e-03
  2.6168418e-04
 -1.2042819e-04
 -7.3419500e-04
 -4.8625738e-05
  5.8603811e-04
 -2.2219126e-04
 -3.0263989e-05
 -1.6684663e-04
  3.5173440e-01
  4.6422884e-01
 -3.1270380e+00
 -1.1552401e+00
 -3.3982614e-01
  1.7199486e-01
  7.3547804e-01
  8.6840972e-02
  3.5199755e-01
 -4.4284523e-01
  2.5145032e-03
  5.3152496e-01
  2.7902994e-01
 -1.8651104e-01
 -6.5229053e-04
 -1.6459446e-01
  7.3921388e-01
 -7.3558205e-01
 -2.0328649e-04
 -4.4827187e-01
  2.8848089e-04
  1.0493709e-03
 -2.9447051e-03
  6.5790741e-03
  7.7013085e-03
  1.7975709e-04
  1.3002080e-01
  8.7517919e-06
  5.6301680e-04
  2.8022313e-03
 -7.0298295e-03
  4.1123386e-03
 -2.3354363e-04
 -1.9395275e-03
 -1.8718783e-02
  8.6552574e-04
  1.3306043e-01
 -1.0969868e-03
  1.3022788e-03
  1.7149493e-03
 -6.1862404e-04
  9.7947032e-04
 -6.6845759e-04
  2.6828596e-01
 -7.4167753e-04
  7.0248829e-04
  2.1923478e-01
  2.0772897e-05
  1.7386227e-03
 -8.1217079e-04
  2.5809619e-03
 -6.1726077e-03
  1.5817415e-04
 -4.2255619e-05
 -1.6983999e-04
 -6.6168257e-04
 -7.5244252e-04
  3.2973191e-04
  4.1948271e-05
  4.1372329e-04
  5.6077132e-04
  2.2032452e-04
 -8.5810149e-01
 -2.4746950e-01
  1.1610714e+00
  3.0964910e-04
  4.7508281e-01
  2.4598293e-04
  2.3212235e-03
  2.6768835e-03
  3.6107311e-01
 -2.0653298e-01
  5.8383186e-04
 -1.3775652e-03
 -5.6027301e-04
  1.3888823e-03
  9.2742510e-02
  7.9302350e-04
 -3.3422746e-04
  1.2433926e-03
 -1.2500129e-04
 -1.5458491e-03
  3.3241705e-04
 -1.0172317e-03
  4.1729142e-04
 -8.9046179e-04
 -4.1125016e-04
  7.5611414e-04
 -1.7545443e-02
  1.3826037e-02
  4.1975710e-04
 -6.1592768e-04
  7.6692195e-05
 -4.8105590e-04
  3.9343527e-04
 -2.7659655e-05
  3.5304442e-04
  1.4155223e-04
 -9.0824894e-04
  2.1568853e-03
 -8.4220781e-04
  1.7061168e-03
  1.4787506e-04
 -3.7873536e-04
 -1.0928933e-03
  2.7729068e-03
 -6.5496046e-04
 -3.8159994e-04
 -3.1056764e-04
  6.4536132e-04
 -1.0897974e-03
 -1.0740808e-03
 -9.6434023e-04
 -6.5240276e-04
  3.6384104e-04
 -6.6991104e-04
  4.0320976e-04
 -1.7740570e-04
 -9.3799254e-06
  6.1153434e-04
  5.0924660e-05
  4.1396231e-03
  5.3503335e-04
 -1.1408513e-03
 -4.4062044e-03
 -4.2713201e-04
  5.4808417e-03
 -4.7604929e-04
  5.8652519e-04
  2.6822471e-04
 -2.4444968e-03
  3.1615008e-02
  2.6122081e-01
  2.1010546e-03
  4.0577960e-04
 -8.6605141e-04
  4.9354560e-03
  1.5342520e-03
  1.1985401e-03
 -1.2156392e-03
  2.9597903e-04
  3.7684767e-05
 -2.7326180e-04
 -1.2525757e-03
  6.9037918e-04
  6.7085132e-04
  2.0455799e-04
 -6.4028334e-04
 -1.1143388e-03
 -7.9724472e-05
  4.8159363e-04
 -1.6082007e-05
 -5.2173453e-04
  8.0091081e-04
  5.4323062e-04
 -2.4276504e-03
  1.1076124e-03
 -2.0027659e-03
 -1.8931669e-04
 -6.0486502e-04
 -7.0467260e-04
 -6.3156459e-04
 -7.3481607e-04
  9.1559859e-04
  7.4403382e-05
 -5.9107369e-05
  2.0548797e-03
 -3.8417953e-04
 -5.5926012e-05
  1.2863358e-03
  7.3417346e-04
  8.5527438e-04
 -1.1489670e-03
  6.4534928e-05
 -6.6282472e-04
  5.4960581e-04
  1.4255370e-03
  2.7283456e-04
  7.6413149e-04
 -7.6445990e-04
 -3.4312474e-05
 -2.8000565e-04
  1.1252576e+00
  3.5091616e-02
 -4.6693382e-04
 -4.9248928e-01
 -1.1512464e+00
  1.0964100e-03
  1.2457665e+00
  1.6617423e-02
  2.2126545e-04
 -3.4587929e-01
  8.3559949e-04
  1.5706136e+00
 -4.3135634e-01
  1.3054736e-01
 -3.2504071e-05
  5.8006408e-04
 -7.7218906e-04
 -1.8231329e-07
 -1.0958950e-03
  4.8027796e-04
  1.7860256e+00
  1.9959296e-01
 -3.2313727e-04
  1.0408294e+00
 -2.7199876e-01
 -1.1974285e+00
  4.9449480e-01
 -9.0381610e-01
  1.9526872e-03
 -7.4003863e-01
  3.5395455e+00
 -3.1768423e-04
 -4.3204617e-02
  1.6165183e-01
  1.0239969e+00
 -8.4664591e-04
  1.6593389e-01
  1.4351685e-04
  8.0912448e-02
 -1.0563483e+00
 -3.7179072e-03
  1.6886375e-03
 -2.7889419e-01
 -9.2891132e-04
  7.4270512e-03
 -1.0444104e-01
 -4.4890514e-04
 -2.4026025e-03
  1.3134377e-01
  2.6254347e-01
 -1.5840745e+00
  2.2482231e-01
  5.3912394e-02
 -2.2483689e-01
 -5.9275454e-01
 -3.7366465e-02
 -5.6978470e-01
  1.4240429e+00
  1.4952386e-02
 -1.2878911e+00
  8.8345461e-02
 -1.5442232e-03
  4.5401421e-01
 -1.4383931e-01
 -4.8784479e-02
 -3.8096061e-01
 -2.7568308e-01
  1.8799764e-01
  5.3866673e-02
 -4.1818948e-04
 -3.1190455e-01
  3.4228574e-02
  8.4105678e-02
  8.6735761e-01
 -2.3899700e-01
 -5.0513702e-04
 -7.5456679e-01
 -7.1356899e-01
  1.5189415e-01
 -2.9283857e-01
 -2.8943536e-01
 -3.8817986e-03
  5.6658429e-04
  3.3709878e-01
 -4.3531692e-01
  2.1429048e-01
  2.0545942e-01
  4.9830452e-03
 -7.9523361e-01
  3.8712916e-01
  1.3862839e-01
  5.9148739e-04
 -1.1575465e+00
  2.4575713e-01
  3.7685645e-01
  7.5858310e-02
  1.6416441e-01
 -4.2311614e-04
  5.9660959e+00
  8.5068482e-01
  3.8261411e-01
  3.3218343e+00
  1.2054335e+00
 -7.3996955e-01
  6.7200214e-01
 -8.2889728e-02
  2.6114834e-03
  9.8615211e-01
  4.1545299e-03
 -1.8255942e-01
 -3.5829517e-01
  1.0736939e+00
 -8.3215261e-04
 -8.9793289e-03
  1.8145707e-02
 -1.0200104e+00
  6.1081949e-04
 -3.4775756e-02
  7.1418422e-01
  1.8517060e+00
 -3.8077790e-01
 -2.5289685e-01
  4.2193273e-01
  5.0864083e-04
  4.2271655e-04
  1.5197441e-04
  9.2174709e-01
 -4.1747624e-03
 -2.8979909e-01
 -4.9015504e-01
  1.0300779e+00
  3.1553656e-01
 -6.8085074e+00
 -7.0224976e-04
  1.2664942e-02
  6.4256454e-01
 -1.5556062e+00
 -2.1926262e+00
  2.9849949e+00
 -9.4837154e-04
  3.2169357e-01
  2.0612345e+00
  8.6396735e-04
  2.6922602e-02
  2.2054424e+00
 -6.4456755e-01
 -1.1492281e+00
 -2.2733837e-01
 -6.9941446e-02
 -8.9215505e-01
  4.6885179e-04
 -1.0357493e-03
 -5.1914948e-01
 -1.5486816e+00
  9.0041101e-01
 -1.3977213e-02
  3.9634790e+00
 -4.1520286e-01
 -2.5689495e-01
 -7.1566653e-01
  1.1492064e-03
  1.3645322e+00
  1.4445275e+00
 -4.1402469e+00
  4.1680925e-02
  6.6572385e+00
 -5.2888487e-02
 -1.5078838e+00
 -9.5989510e-02
 -1.0722374e-04
  7.1409070e-01
  1.8597493e+00
  3.8300160e-01
 -3.4530308e-02
 -2.0718914e-01
 -5.1160313e-02
  1.1966044e+00
  8.9703009e-02
  1.1480283e-03
 -2.5584608e-01
 -2.3978177e-01
  2.4680781e+00
  7.3218346e-01
  1.8347271e-01
  2.1436527e+00
 -1.2484954e-01
  1.0683979e+00
  4.5434478e-01
  1.0405052e-03
 -1.1353076e+00
  1.2224983e+00
  9.2620468e-01
 -4.0940900e+00
 -6.8383641e-05
  1.4400372e-02
  1.5701528e-03
 -2.6690759e-04
 -3.0156088e-04
  5.3118997e+00
 -2.5314662e+00
  1.3435000e+00
  6.0135531e-01
 -9.0406102e-01
 -2.7727158e+00
  2.7833146e-01
  5.4341677e-04
  2.3421980e-04
 -2.1792421e+00
  1.1979871e+00
  4.2741436e-01
  2.4128816e+00
  2.5576979e-01
 -1.8553051e+00
  5.4564613e-01
  2.0784932e-01
  1.3525918e+00
 -1.5098662e+00
  7.1258891e-01
  3.7935951e-01
 -1.4046884e-01
 -1.6417047e-01
  3.0623013e-01
  4.2106491e-01
 -2.5412950e-01
  1.9473323e-03
  2.5743179e+00
 -8.4504479e-01
 -4.9071872e-01
  1.8322790e-01
 -8.7548220e-01
 -2.0268173e+00
 -5.1189965e-04
  1.8842058e-04
  1.2278382e-01
  3.4125823e-01
 -5.6394917e-01
  2.2786584e+00
  5.0170314e-02
 -1.6644764e-01
  5.8873136e-02
  3.3242813e-01
  1.6192164e-03
 -1.5574887e+00
 -2.0676916e+00
 -6.3840574e-01
  1.9158216e+00
  5.2149558e-01
 -8.6883986e-01
  7.9380348e-02
  3.1331173e-01
  3.5120644e-02
  3.0739112e-02
 -2.2729816e-01
  2.1947548e+00
  5.0266618e-01
  7.5398755e-01
 -1.4182876e+00
 -1.5840216e+00
 -3.5238180e-01
 -1.5290837e-02
  3.2295693e-02
  5.6121550e+00
 -6.2736213e-01
 -2.5768573e+00
 -3.7749175e-02
 -8.8166118e-01
  3.9215670e+00
 -1.6346310e+00
  1.8618431e+00
 -1.5863514e+00
  2.6316873e-03
 -1.5981108e-03
  4.3410953e-02
 -1.1579436e-01
  1.5186028e-01
 -7.4842115e-05
 -2.5833564e+00
  1.1552434e-01
 -5.6416981e-02
 -1.3629111e-03
 -3.1409739e-04
 -6.9781941e-01
  1.4605590e+00
  4.2385650e-03
  1.2264818e+00
  5.7409111e-02
 -1.9314007e+00
 -3.3517141e+00
  1.5953084e+00
  1.6881397e+00
 -7.0024937e-01
 -1.7433914e+00
 -1.8713877e-01
  7.5051539e-02
 -5.2440393e-01
  2.8169296e+00
 -3.7098634e-01
  1.1603866e+00
  1.1026229e-01
  1.9819951e+00
 -3.1520188e-01
 -3.4957862e-05
 -3.7194434e-01
 -3.2033822e-01
 -2.4491793e-01
  2.1183844e+00
  8.0389965e-01
 -4.8451271e-02
 -1.1596523e-01
  3.3123389e-02
  1.3224306e-04
 -1.2016103e+00
 -9.5581245e-01
 -1.0909375e+00
 -4.2310417e-01
  1.2888496e+00
 -7.7964342e-01
 -2.5568035e-01
  2.7465575e+00
  8.5148267e-02
  2.2749284e-03
  3.1120842e+00
  9.1060072e-01
  1.8163114e+00
  3.5255520e+00
 -7.4331246e-02
  1.7306051e+00
  1.2940134e+00
  1.6945237e-03
 -2.7392034e-03
 -2.1790164e+00
  5.4958596e+00
 -1.0108844e+00
  3.7441282e+00
 -1.1348692e+00
  8.3277893e-01
 -2.2800103e-01
  2.2182429e-01
  1.2043043e+00
 -2.2872777e+00
  7.2932631e-01
 -2.2508268e+00
  9.1819161e-01
  1.2470269e+00
 -2.4929571e+00
  7.3240620e-01
  7.9612076e-01
 -5.1611847e-01
  1.9678301e+00
 -2.5558360e+00
  2.0665641e+00
 -5.3076763e-02
  8.5270748e-02
 -3.2982181e-04
 -2.0534794e+00
  1.0015312e+00
  3.8471484e+00
 -2.6165500e+00
  4.9363878e-01
 -8.0722786e-02
  8.0973136e-01
 -2.1108030e-01
  7.7876329e-01
  5.3264713e+00
 -2.4657521e+00
 -1.5206215e+00
  1.9344665e+00
  7.5260036e-02
 -4.2932743e-01
 -1.9020634e+00
  2.9663596e+00
  1.0700300e+00
  1.2649080e+00
  3.0970359e+00
  8.3932811e-01
 -4.1474029e-01
  4.3415532e+00
  1.3635446e+00
 -1.9196252e+00
  2.0960755e+00
  2.4317889e+00
 -2.5215573e+00
  2.0899520e+00
  4.3912590e-01
 -1.5795662e+00
 -4.2615298e-02
  5.8463019e-01
  9.2706949e-01
  1.1889482e+00
  8.3434695e-01
 -2.3945251e+00
 -2.9856545e-01
 -2.7209303e+00
  3.1016773e-01
  3.2142717e-01
  4.2898984e+00
 -1.2093024e+00
  2.2925384e+00
  8.2115605e-03
  2.7736166e-01
 -1.2076714e+00
 -2.1259713e-01
 -1.3359820e+00
  1.4830556e+00
 -3.8865015e-02
 -1.2938915e-01
  3.9529833e-01
  1.7676228e+00
 -1.2369928e+00
 -1.3351884e-01
  1.6982473e+00
  2.6080731e-01
  8.9678454e-01
  2.2338684e+00
 -6.7484289e-01
 -8.0183506e-01
  7.7695090e-01
 -1.0718939e+00
  1.3131978e-01
  2.5267303e+00
 -1.0198486e+00
  1.8323838e+00
  2.8941901e+00
  1.7159630e+00
 -1.0992794e+00
 -7.9720211e-01
 -3.5591301e-01
  2.2396393e+00
 -1.3475884e-01
 -2.0481081e+00
 -1.2446288e+00
  1.1363449e+00
 -9.9513372e-03
  6.5670800e-05
  5.0322652e-02
 -5.2186763e-01
  1.6115899e-01
  1.8431684e+00
 -1.5079845e+00
  7.3862338e-04
 -2.1185423e-04
 -1.4054168e-03
 -1.3446825e+00
 -1.2297909e+00
 -1.1571014e-02
  2.6444769e-02
  3.1683943e+00
  9.7424217e-02
 -8.8395983e-02
 -4.7818020e-01
 -9.1141438e-01
 -1.6681725e-03
 -1.4882225e-01
  2.1493998e+00
  1.3702840e+00
  1.5362914e+00
 -1.2681754e+00
 -1.7015278e+00
 -1.5986981e+00
 -3.3804327e-02
 -1.7767320e+00
  4.7904529e-02
 -9.2735457e-01
  5.6399012e-01
 -8.4713215e-01
 -1.0612686e+00
  1.3435786e-04
 -1.2066060e-03
  2.0848565e+00
 -1.9371426e+00
 -8.6741857e-02
 -4.0057054e+00
  2.4621499e-01
 -6.6463947e-01
  6.2483257e-01
  6.3013011e-01
 -3.7875905e+00
  1.5229722e+00
  3.9653519e-01
 -1.3290613e+00
 -3.3717337e+00
  2.4688563e+00
  2.1811044e+00
 -1.9961367e+00
  7.6294541e-01
 -1.2553479e-03
  2.8150642e-01
 -1.1442441e+00
 -1.6197416e+00
  7.7208716e-01
  6.4555323e-01
  1.7416497e+00
 -1.5280659e+00
  1.4164596e-03
 -9.7970688e-01
  9.1328837e-02
 -1.4071662e+00
 -1.4257810e-01
 -3.2971719e-01
 -1.8006828e-02
  1.1325301e+00
  6.0930926e-01
  1.7343839e-01
 -4.7775587e-01
 -8.2063323e-01
 -2.4111009e+00
 -8.4874505e-01
 -2.9589105e-01
 -6.7993075e-01
 -1.1218203e+00
 -3.3682305e-01
 -9.9876601e-01
 -2.5422198e-01
  2.0171757e-04
  1.2019910e+00
  1.0769196e+00
 -6.8736231e-01
  2.7818314e-04
 -3.6474818e-04
 -2.3625612e+00
 -1.5608296e-03
  1.6191689e-03
 -1.5025829e-01
 -5.5648082e-01
  1.5059141e+00
  3.1955950e+00
  1.2731533e-01
  2.9200736e-01
  7.7370089e-01
  6.9247752e-01
 -1.3089253e+00
  8.7787217e-01
  1.8739048e+00
  3.0816463e-01
  1.1415117e-01
 -2.2859666e-01
  2.4163399e+00
  4.0880594e-01
 -4.2973965e-01
  6.4877607e-02
 -9.9690735e-01
  4.8609447e-01
 -8.4700018e-01
  6.5712190e-01
  1.4753784e+00
  8.3119148e-01
  4.7971989e-04
 -2.6153874e-01
 -5.8331960e-03
  9.3451118e-01
 -2.9284483e-01
  1.3743682e+00
  6.7468691e-01
 -1.4927593e-01
 -1.4046319e+00
 -3.1743252e-01
 -1.7073787e+00
  3.0045751e-01
 -1.0356106e+00
 -6.0125363e-01
 -7.6910806e-01
  1.5022422e+00
  1.1604716e-02
 -1.7623603e-02
 -7.2917444e-01
 -4.1146267e-02
 -4.7164827e-05
  2.3433265e-01
 -3.7598702e-01
 -1.8303512e+00
  1.1738102e+00
  3.1132227e-01
  2.9600125e-02
  7.3862702e-02
 -1.0051332e+00
  9.5344432e-02
 -1.4763840e+00
  1.7038232e-01
 -1.5788347e+00
  9.4721563e-02
  7.2152335e-03
 -2.2277042e-01
 -1.0896268e-01
 -9.1399592e-01
  9.1403067e-02
  1.3941206e-01
  1.5913016e-01
 -6.7552918e-01
  1.3489910e+00
  6.9452292e-01
  1.1291206e+00
  3.2101038e-01
 -5.6516773e-01
 -1.7879440e-01
 -2.8893069e-04
  3.3948903e+00
 -1.9346881e-01
 -3.8843316e-03
  7.9139805e-04
  1.4408544e-04
  6.1716926e-01
  4.1716863e-04
  2.5459321e-04
  1.0022519e+00
 -8.7811041e-01
 -2.0511900e-01
  8.3976763e-01
  1.5892686e+00
  2.9101464e-01
  3.5909617e+00
 -1.5908745e-01
  2.3777149e+00
  1.7324333e+00
  1.4066901e+00
  1.9124075e+00
 -1.4307832e+00
  1.5411210e-03
 -1.3395521e-02
  3.8777986e-01
  3.0420214e-01
 -4.4091445e-01
 -6.0371047e-01
  1.1080022e+00
  2.2756299e-01
 -1.7104599e-01
  5.5106300e-01
  1.0210720e-01
  4.2948604e-01
  1.4121521e-02
  1.7668201e+00
 -8.2650644e-01
  2.4615875e-02
 -6.0231287e-02
  1.0724802e+00
  1.1257324e-01
 -2.0406061e-01
  1.3562089e-01
 -3.2979769e-01
  1.3092627e-01
 -3.6223304e-01
 -3.0539674e-01
 -1.8570267e-01
  5.9356314e-01
  2.1113960e-01
 -9.1831636e-04
  6.7305732e-01
  8.4252149e-02
  1.6963979e+00
 -6.1926991e-01
  1.0826762e+00
  4.8312688e-01
  1.0058701e+00
 -2.2386561e-01
  1.7518038e-01
  1.3780857e+00
  5.9769225e-01
  2.6835747e-02
  1.2444823e-01
  9.0075237e-01
 -5.4777820e-02
  2.9397896e-01
 -3.3770338e-01
 -4.4135246e-02
  1.3849598e-01
  9.3273193e-02
  7.5849527e-01
 -8.2216489e-01
  5.5358773e-01
 -2.0967038e+00
 -2.4993391e+00
  2.6561978e-01
 -2.2181060e+00
  2.2109532e+00
  3.0728453e-01
 -6.5120912e-01
  6.0328402e-05
 -1.2177658e-01
  7.9586309e-01
 -1.0552684e+00
 -3.6790319e-05
 -2.4706020e-04
 -2.6973209e-01
  2.0033240e-03
 -3.8436716e-04
  1.1165580e+00
  6.1939442e-01
  2.3590808e+00
 -2.8125951e-01
 -1.1426243e+00
  2.3559363e+00
  2.3663388e-01
 -2.0836331e-03
  2.6004043e-01
  1.0833944e+00
 -3.2576796e-01
  1.4832250e+00
 -1.3667091e-02
  3.0841947e-01
 -7.8918457e-01
 -2.1313612e+00
  5.9623891e-01
  2.1659537e-01
  1.9488456e+00
  8.1170372e-05
 -1.5284698e+00
  1.2577213e+00
 -5.0647233e-02
  1.5482070e+00
 -6.4606857e-01
  1.1293313e-03
 -7.5890543e-04
 -1.1851546e-01
 -9.2907917e-01
  4.6486148e-01
 -3.8885787e-02
  1.2309648e+00
  6.7887729e-01
 -4.0706482e-02
  1.3395455e-01
  9.8612286e-02
  1.4107429e+00
 -7.4511325e-01
 -3.9471516e-01
  7.2483575e-01
 -8.3787262e-01
  1.1097494e+00
 -1.2892940e+00
  6.0461307e-01
  1.6370241e-03
  2.7659805e+00
  1.2912375e-01
  2.0590571e-01
 -6.1224693e-01
 -1.8728145e+00
  1.5119878e+00
 -1.1074320e+00
 -1.3425161e-01
  4.7426993e-01
  3.5985248e+00
  4.7371101e-01
 -1.5922675e-01
 -2.9564003e-02
 -9.8383158e-01
  9.0727133e-01
 -3.5786593e-01
  3.7775004e-01
  4.1116554e-01
 -2.4309199e-01
 -5.9514779e-01
 -6.7199159e-01
  3.0201894e-01
 -8.0725211e-01
  1.5956696e+00
  1.2322495e-01
  2.5857839e-01
  1.1254702e-03
  6.0940447e-04
 -2.6749504e+00
 -5.6355757e-01
 -5.1485777e-01
  4.8156120e-04
  8.7192428e-05
 -3.0507920e+00
  1.5807668e-04
 -5.1868439e-04
 -6.3772357e-01
  5.8511514e-02
 -2.6950717e-01
  2.3129618e+00
 -9.0844774e-01
 -1.5217146e+00
  1.1807831e-01
 -2.2239101e+00
  5.6462749e-03
 -1.1335458e+00
  5.6246698e-01
  1.8822141e-01
 -1.1325023e+00
 -1.1246301e+00
 -1.8982458e+00
 -6.5164411e-01
  9.9321648e-02
 -3.7714967e-01
  4.3717104e-01
 -8.1126159e-01
  5.6550914e-01
 -1.6319584e+00
  3.3633971e-01
  1.3722161e+00
  5.3294194e-01
 -5.2484930e-01
  5.2798069e-01
  6.5701711e-01
  1.8309704e+00
 -1.3757224e+00
  1.7938205e+00
  7.2753179e-01
  2.9175944e+00
  1.1765963e-01
 -1.9978575e+00
 -3.3496299e-01
  5.8283222e-01
 -6.5907860e-01
  7.5088704e-01
  2.9158211e-01
  3.3878189e-01
 -1.3511007e-03
  6.6041428e-01
 -1.4754368e+00
  3.2994363e-01
  5.0868154e-01
 -3.3490646e-01
  1.0810051e+00
 -3.0211794e-01
 -6.4556800e-02
 -2.6279831e+00
 -2.6732440e+00
  3.4698892e-02
 -4.5475239e-01
 -4.5767257e-01
 -7.2946206e-02
  1.2279007e+00
 -9.3444932e-01
  3.3656454e-03
 -1.7830081e+00
 -3.5842937e-01
 -4.4966198e-04
  1.9179252e-01
  5.4394258e-03
 -2.7265963e-01
  2.6663753e-01
  6.5634871e-01
 -1.0809735e+00
 -4.7653299e-04
 -3.5311836e-01
 -5.5810541e-01
 -1.9607353e+00
 -6.6022965e-04
  5.0280631e-01
  6.5550464e-01
  2.5643702e-03
 -5.9179845e-04
 -8.9301809e-04
  8.6110616e-03
  7.9425127e-04
  1.2333399e-04
  1.4041971e-02
 -2.4246854e-01
  3.3330455e-01
 -6.4202046e-01
  1.1714635e-03
  1.9763009e-01
 -2.4248478e-01
  5.3531500e-03
  2.0459530e+00
  3.8480344e-03
 -4.7925404e-01
  1.3963575e+00
  9.6725456e-02
 -6.3340771e-01
 -5.4064113e-01
 -1.8501762e+00
 -4.7337159e-04
 -2.4681394e+00
 -1.3831776e-01
 -1.0976391e-01
  2.4157622e-01
  4.1630468e-03
  2.2334914e-01
  2.4295455e-01
  3.9278681e+00
 -4.7089183e-04
 -2.0296493e+00
 -9.1096252e-02
  1.8129004e+00
  1.2102444e+00
 -4.8583168e-01
 -3.7946868e-01
 -8.0290008e-01
  2.1575251e+00
  3.4503445e-01
  3.0830824e+00
  2.8399737e+00
  8.1798863e-01
 -8.7878424e-01
 -2.4585612e-02
 -1.4850426e-04
 -1.1636689e+00
  9.3124479e-01
 -4.1959500e-03
  1.2984513e-01
  1.5537117e+00
  6.7624366e-01
  5.8071601e-01
  1.2948175e-01
  3.6253482e-02
  1.1422211e+00
  5.0042742e-01
  1.5478651e-03
 -2.3662441e+00
  5.6380624e-01
 -1.0814316e+00
  5.9617472e-01
 -2.7232790e-02
 -5.7080030e-01
 -1.5011664e-01
  1.4647268e+00
 -1.5914436e-01
 -1.7242368e+00
  2.4720037e-02
  2.4720037e-02
  2.4720037e-02
  2.4720037e-02
  2.4720037e-02
  1.2203109e-01
  1.2203109e-01
  1.2203109e-01
  1.2203109e-01
  1.2203109e-01
  3.6700478e-01
  3.6700478e-01
  3.6700478e-01
  3.6700478e-01
  3.6700478e-01
  9.3993224e-02
  9.3993224e-02
  9.3993224e-02
  9.3993224e-02
  9.3993224e-02
  2.0272303e-02
  2.0272303e-02
  2.0272303e-02
  2.0272303e-02
  2.0272303e-02
  8.9135182e-01
  8.9135182e-01
  8.9135182e-01
  8.9135182e-01
  8.9135182e-01
