nep4 3 Sc C F 
cutoff 6 4 63 26
n_max 4 4
basis_size 8 8
l_max 4 2 0
ANN 50 0
  3.1616524e-01
 -1.2136182e+00
 -4.1351566e-01
 -1.5485321e+00
 -4.2569488e-02
  5.7135910e-01
 -1.2182805e-03
  9.6333212e-01
  4.5580783e-01
  1.2762597e-04
  4.4415288e-02
  1.1345630e+00
  6.4013600e-01
  2.0776485e-01
  1.4790785e-01
 -5.0209725e-05
 -9.3674457e-01
  1.6786954e-01
 -8.4326130e-05
 -1.9371396e+00
  1.7275464e-02
  4.4134828e-01
  2.9857891e-02
  4.0452796e-05
 -1.9742797e-04
 -1.4829340e-05
  1.5773863e-02
 -5.3771101e-03
 -1.1766029e-01
  2.1622529e-04
 -1.9512192e-05
  7.1257891e-05
  8.1298051e-05
  7.9157275e-05
 -7.2091483e-05
  3.4010143e-04
  4.2237985e-05
  1.2305150e-05
  6.6615874e-05
 -2.0024077e-05
  3.8049882e-05
 -2.8743332e-05
  2.1913063e-05
  8.7263383e-05
 -8.7018801e-05
  1.3468090e-05
 -7.1168310e-05
  5.1200779e-05
  4.8786929e-05
  7.8924480e-05
 -1.0199636e-04
 -6.7464316e-05
  3.5051096e-05
  7.2760979e-04
  8.0849873e-05
  3.5740450e-05
  8.1394151e-05
  4.9489950e-05
 -1.1257474e-04
 -2.2132503e-05
 -2.3042123e-05
 -7.3981192e-03
 -1.9106921e+00
 -3.7956848e-05
 -2.0853963e-02
  1.5986592e-05
 -5.8250139e-06
  1.1000647e-04
  2.0146891e-04
  2.9874549e-04
  4.4681114e-05
 -1.3396706e-04
 -2.9613121e-04
 -2.6077574e-02
 -1.8239442e-04
 -1.2070512e-04
  2.8855675e-05
 -6.1306346e-05
  3.8358281e-05
  7.9843830e-06
 -6.1942199e-05
 -4.9151102e-05
 -2.7042306e-05
  1.9326246e-05
 -7.1770875e-05
 -7.0860588e-05
 -8.9085943e-06
  1.3186852e-04
 -5.5156994e-05
 -1.1240890e-05
  1.4567500e-01
  6.0657656e-01
 -2.4582405e-01
  6.0120749e-01
 -1.1733327e-01
 -2.7623322e-04
  3.8917542e-06
 -2.8410580e-03
  3.3849101e-05
  3.1023761e-04
  1.3132850e+00
 -2.1356777e-03
  9.1351545e-01
 -2.9730387e-03
 -5.2902323e-01
  2.0344080e-05
 -2.8378680e-02
 -1.2297856e-04
  5.5921882e-05
  2.8934655e-01
 -2.7601531e-04
 -5.8670316e-06
 -6.1570943e-05
  1.2798085e-06
  8.2837731e-05
  2.6114256e-04
 -4.8078709e-05
  1.7244852e-04
 -2.5067260e-04
  1.3998013e-04
  1.3019285e-01
  7.8317076e-01
  7.4798413e-02
 -2.7148709e-01
  6.3142812e-01
 -1.2793642e+00
  3.3696245e-03
 -1.2378964e-01
 -9.8505354e-01
 -1.4264630e-01
 -5.7997230e-02
 -3.9061004e-01
  3.4152031e-01
 -1.3224769e-01
 -6.5437496e-02
 -7.8659773e-02
  1.9796991e-03
 -3.3040538e-01
 -1.7566299e-01
  1.4203320e-01
 -3.1761944e-01
 -7.3690407e-02
 -3.4359711e-01
  6.0938840e-04
  1.0801928e+00
  1.8618442e-03
 -1.2362607e-05
  1.4939611e-02
  2.8242990e-02
 -3.5600474e-03
 -6.0861641e-01
 -1.4216578e-04
  5.5790716e-01
  2.5864804e-01
 -2.0113735e+00
  8.4948260e-05
 -3.9993436e-05
  2.3063138e-05
 -5.4460816e-06
  2.9716279e-05
 -9.4098255e-02
  5.5236113e-01
  5.3465164e-01
  1.4037167e-01
 -1.2715288e-01
 -4.0201933e-04
  6.9467574e-01
  3.9010212e-01
  3.9795545e-05
 -2.4392429e-01
  2.0293481e-05
  9.8391570e-02
 -3.4914588e-04
 -1.4791731e-06
 -6.4206622e-05
 -3.2548269e-05
 -4.5414981e-02
 -8.9337547e-05
  5.0645781e-06
 -1.4733762e-05
  8.8248933e-05
 -4.7138652e-05
 -1.6406909e-04
 -2.5103299e-04
  2.0107656e-05
 -5.4073833e-05
 -1.9639234e-05
 -5.7013134e-05
 -2.7888405e-05
 -2.5953665e-05
 -1.9125038e-04
  6.9055735e-05
 -4.0431081e-05
 -1.0627173e-04
 -6.7790752e-06
  1.2924161e-05
  7.1409322e-06
 -3.2820491e-05
 -6.0862745e-05
  5.9894872e-05
  1.8515534e-04
  2.6373971e-05
  4.6716938e-05
 -1.3878021e-05
 -3.9897128e-05
  1.1207320e-04
 -2.9671686e-05
  8.9108922e-05
  2.1489734e-05
  3.2066288e-05
  3.4599620e-05
  3.0879099e-05
  3.6465732e-04
  1.3093108e-05
  6.1908526e-05
  9.4932540e-05
  2.1223505e-05
  1.3327905e-05
  1.8534854e-04
  5.0119546e-05
  4.2337859e-05
  2.2100581e-05
 -1.0481564e-04
 -3.5813075e-05
 -3.8484435e-05
  5.9589416e-05
  1.9647776e-05
 -9.1336660e-05
  4.7078778e-05
 -1.8206143e-05
 -1.9489058e-05
 -1.4780741e-05
  5.9613481e-05
 -3.4043711e-05
 -1.0147111e-04
 -3.5039320e-05
 -6.1198160e-05
 -1.3054910e-05
 -1.0049664e-05
  4.2264877e-05
 -3.3141652e-05
  5.2119989e+00
 -1.0100874e+00
  1.2604089e+00
  4.3271646e+00
 -1.3022262e-04
  5.8985443e-06
  4.8287169e-04
 -1.0080665e-04
 -2.8713635e-01
 -3.0260519e-04
  2.2286727e-04
 -8.8814288e-01
 -5.5413991e-01
  8.4184134e-01
  2.0102061e-05
 -3.9128643e-01
  6.2482879e-02
  1.9552226e-05
  4.7524145e-01
 -3.6999909e-04
 -3.3347107e-02
 -2.6130243e-05
  2.2289257e-04
  2.5841755e-05
  1.0285297e-05
 -1.4537379e-05
 -4.4495356e-01
  5.0653278e-05
  2.6154656e-05
  6.7644805e-01
  1.1671532e+00
 -1.7054487e+00
  1.1998929e+00
 -2.9027298e-01
  4.1099336e-02
 -2.0635957e-03
 -6.9020331e-05
  4.1391034e-04
  1.0628557e-01
 -1.1908806e-05
  6.1471862e-01
  3.5006496e-01
 -2.5863779e-01
 -3.6854416e-01
 -4.6880567e-01
  2.3281443e-01
 -1.0373114e-04
 -3.3625163e-04
 -1.5075837e-01
  6.7213676e-03
 -3.5078030e-02
 -6.2979991e-04
  4.0772684e-06
  9.3038045e-02
 -5.6406252e-06
  4.5661721e-02
  2.0677541e-01
 -1.2385549e-06
 -7.2360126e-06
 -8.5781969e-02
 -1.4130784e+00
  2.1094644e-01
  8.0111402e-01
 -2.2137172e+00
  1.4787750e-01
 -9.3602692e-05
  7.2399271e-01
 -2.0132111e-06
  3.1615384e-02
  1.3433974e+00
 -5.6841397e-01
  8.1784868e-01
 -1.5932819e-01
 -1.9624326e-02
  1.7368898e-01
  6.2109798e-01
  8.8320130e-01
  5.7590958e-05
  8.4343153e-01
  2.9298037e-02
  2.2265013e-01
  7.7350138e-05
 -1.4965343e-05
  8.9351088e-02
 -2.9482281e-01
  1.9201170e-05
  1.8363815e-05
  2.9990602e-01
 -1.3729677e-05
 -1.3816816e-05
  4.1823014e-06
  3.4191864e-06
  8.7791726e-05
 -7.6596581e-05
 -8.6644177e-06
  9.8996652e-06
 -6.3015505e-05
  2.9680159e-05
 -2.5514822e-05
 -4.2270374e-05
 -1.4839640e-07
  4.9004051e-05
 -5.0556362e-05
 -3.8301259e-05
  3.6030091e-05
  1.0312902e-04
  1.2360958e-04
 -4.4110966e-06
  4.0134870e-05
  4.1280939e-05
  1.7779545e-04
  1.5966627e-05
 -3.9065773e-05
 -5.4063359e-05
  1.0901596e-05
 -1.5078999e-05
  7.2195576e-06
 -4.9098453e-05
  4.4427608e-05
 -8.4923122e-05
 -3.2196110e-04
 -2.3617307e-05
  5.9935251e-06
  6.7852685e-05
  1.0340565e-04
 -1.5237837e-04
 -3.2727661e-05
  3.5333171e-05
  9.0240334e-05
  1.4217655e-05
 -4.3602715e-05
 -5.7217467e-04
 -3.5255875e-05
  1.4635851e-04
  8.7404469e-06
  2.8304861e-05
  2.5578805e-05
  2.1978474e-05
  2.2281230e-05
 -4.8814338e-05
 -2.4893478e-04
 -1.0292910e-04
  5.0393875e-05
  1.4291759e-04
 -3.3536700e-05
  3.6045913e-05
  1.0504248e-05
 -9.5409086e-05
 -5.6524954e-05
  6.8468553e-01
 -2.1425471e-01
 -1.6090831e+00
  1.4210725e-01
 -6.3984409e-02
  2.6355148e-04
 -7.2101317e-04
  2.5058802e-05
  4.2015330e-05
  1.2559339e-05
 -2.9766968e-01
  1.0360898e-02
 -2.9990828e-04
 -1.5790775e-01
 -4.6813497e-03
  3.7138318e-03
 -5.9225517e-06
 -4.7843307e-03
  1.0700995e-04
 -8.0167712e-04
  3.4501503e-04
  1.4126717e-04
 -2.2290473e-05
 -7.2851064e-05
  5.6948697e-06
 -7.2303308e-05
  1.5701045e-04
  1.7937599e-04
 -3.7299884e-05
 -4.4737055e-05
  1.0214643e-04
 -7.3182484e-05
 -3.1271760e-05
 -1.1465939e-04
 -6.8496806e-06
  6.3587818e-06
  2.8491026e-04
  5.6981629e-05
  2.2273491e-05
 -2.9538662e-06
  8.1144841e-05
  1.1455988e-05
  2.1057636e-05
  1.5233939e-04
  3.1969819e-05
  1.1632411e-04
  6.6177949e-05
 -5.9844486e-05
  1.1648324e-04
  1.2523688e-04
 -1.3618971e-05
 -5.8444198e-06
 -3.7702866e-05
 -1.1037140e-06
  3.7494614e-05
 -3.4225563e-05
 -1.9095920e-05
 -1.3912079e-07
 -4.2595238e-05
 -8.6252030e-06
  3.7862355e-05
  1.7822960e-05
  5.2518735e-05
  7.6901844e-05
  4.1393178e-05
  4.3908935e-06
  1.9421896e-05
  5.4468259e-05
  1.6196506e-06
  8.5498636e-05
  3.2355019e-05
  1.6178561e-05
 -3.7639202e-05
 -1.4955359e-05
  6.0303213e-05
  1.5489466e-05
  1.2597513e-06
 -5.1914703e-05
 -9.9151323e-05
  5.6795063e-05
  3.2030395e-05
 -3.9018807e-04
  1.9339759e-05
  4.7883863e-05
 -4.7932353e-05
 -9.0582159e-07
  3.7055463e-06
  5.0750765e-05
 -1.0061221e-05
  5.1240917e-05
 -5.7657994e-03
  1.7921698e+00
 -1.9955401e+00
  2.6465709e+00
 -1.8681967e-01
 -1.4691466e-01
 -3.1587831e-06
 -1.6639702e-01
 -2.9320952e-01
 -1.4142514e-03
  5.4342247e-04
 -2.6601728e-02
 -4.8394479e-02
  8.5094236e-03
 -4.0322256e-01
  1.9461154e-04
 -7.0841795e-01
 -6.3473396e-03
  2.9197119e-05
 -8.4121084e-01
  1.4624818e-07
 -1.7166297e+00
  1.8727809e-05
 -4.3866949e-04
 -2.4491954e-01
  2.6954494e-02
 -6.6961707e-05
  2.9080337e-01
 -5.2180748e-02
 -1.3484581e-01
  2.8434102e-04
 -8.9048761e-01
 -1.9664286e-01
  2.9485515e-01
  1.3759490e+00
 -4.5197252e-02
 -1.1292441e-01
 -1.1104516e-03
 -5.4627275e-01
 -2.5351869e-02
  1.2520278e-01
 -2.9045474e-05
 -1.7076585e-01
 -1.3085213e-01
  4.5262763e-01
 -4.3441862e-02
  1.9687837e-02
  8.0871658e-04
 -5.4134184e-01
  1.5743570e-01
  6.4657651e-02
 -1.7681700e-03
 -9.7522169e-01
  5.3881770e-01
 -3.4101650e-02
  3.0617392e-02
 -4.5633718e-02
 -2.5463030e-01
 -3.4206714e-02
 -1.5351787e-04
  1.6332750e+00
 -1.8034562e+00
  8.2534558e-01
 -3.1329384e-01
  6.1984974e-01
  1.4785606e-01
 -6.0059334e-04
  7.8220898e-01
  3.6764614e-02
  3.2735502e-04
 -4.2458469e-01
  6.4681363e-01
  5.5228893e-02
 -9.0372735e-01
 -1.2705648e+00
 -8.0292659e-05
  7.9677677e-01
  6.0974341e-02
  8.7712437e-01
  1.2752931e+00
  9.5137861e-03
  3.4593374e-01
  3.2312989e-01
 -1.9421974e-04
  1.7754053e-05
 -6.9304704e-05
  4.3772790e-04
  1.3767640e-05
 -5.7107884e-01
  1.0398454e-04
 -2.6143502e-05
  3.1947857e-06
 -9.6273419e-05
 -4.6064165e-06
 -7.3240713e-05
 -4.8236787e-05
 -1.8692206e-05
 -1.3483390e-06
  1.5564806e-04
  1.5458951e-04
  1.6865990e-05
  4.1676813e-05
  5.3525560e-05
  3.2497741e-05
 -6.9897596e-06
  7.4635100e-06
 -4.2766489e-05
 -2.8284203e-05
 -3.8098096e-05
 -4.1913041e-05
  2.4067685e-04
  8.1631943e-06
 -7.7073100e-06
  1.6427928e-05
 -1.3431582e-04
  3.2091074e-04
 -2.3953411e-05
 -3.8415241e-05
  6.9323411e-05
  4.1818272e-05
  5.9531327e-02
 -5.9462446e-01
  3.3810747e-01
 -3.7096497e-02
  1.5783724e-01
  9.5977986e-01
 -1.0936407e-04
  3.0172271e-01
  7.1388638e-01
  1.3828477e-01
  1.0692681e-01
  6.6975862e-02
 -3.3879945e-01
  1.1782923e-02
 -7.4790330e-03
  1.1497469e-01
  5.2562761e-03
  6.6388272e-02
  2.7293800e-03
  1.2410285e-01
  3.3589259e-01
  4.0340472e-02
  1.4813630e-01
 -1.4831832e-03
  2.5942931e-01
 -5.2182301e-04
 -1.6745818e-01
 -1.4253028e-02
  7.7342098e-05
 -4.0562574e-02
  4.1116647e-05
  5.8231803e-05
 -2.3972678e-05
  1.0213355e-04
 -6.9288922e-06
 -2.6909836e-05
  1.9837189e-05
  4.4009692e-05
 -8.6854079e-06
 -5.9108475e-05
 -2.1776995e-04
 -7.9760639e-06
 -2.5721652e-05
  2.2564567e-05
 -3.1001549e-04
  7.4196905e-05
  7.3007250e-05
  1.8450914e-05
 -5.9360018e-06
 -6.4807085e-05
  8.0724109e-05
 -6.1183877e-05
 -6.5364933e-05
  1.4318576e-05
 -1.1130531e-04
 -5.0413197e-05
 -9.7196840e-05
 -4.6493056e-05
 -1.3903428e-05
 -1.2971349e-05
  1.4836603e-05
  2.0280540e-05
  5.2149022e-05
 -6.2650793e-06
 -3.5520457e-05
  7.4126554e-05
 -1.4261321e-04
  1.1197197e-04
  1.8454208e-04
 -5.6422454e-05
  6.5265762e-05
  6.9174530e-05
 -2.5388734e-05
  5.2160949e-06
 -5.4877280e-05
  3.9025501e-05
 -9.4058538e-05
  3.7507023e-05
  2.1115580e-05
 -3.1217398e-05
  3.6067471e-05
 -3.2085711e-06
 -2.2165037e-05
  3.5674104e-05
  1.4717567e-04
 -3.1926407e-05
 -4.4827771e-05
  8.2397739e-05
  1.2350712e-05
 -3.9836650e-05
  5.3417054e-05
  9.0256763e-06
 -5.9339185e-05
  3.2832721e-04
 -1.2102064e-04
  3.9926061e-05
  3.8020207e-05
 -6.5730387e-06
  4.3692130e-06
 -8.1870967e-05
  1.2020198e-05
 -2.3633878e-05
  9.9321305e-06
  7.4417519e-05
 -1.1007982e-06
 -3.0920812e-05
  5.8559966e-05
  5.1266277e-05
 -1.9315659e-04
  1.0954752e-04
 -8.3009782e-06
 -3.5385024e-06
  9.4070547e-06
 -4.4395067e-05
  4.0051798e-04
 -4.9694743e-05
  1.5345507e-06
 -9.8257347e-05
  4.0499704e-05
  5.8710034e-06
  5.8076203e-05
  1.4485428e-05
  5.5530039e-05
 -2.7776699e-05
 -7.4981195e-05
  2.7787903e-05
  4.7273203e-05
  4.8444763e-05
 -1.4525013e-05
 -4.5183693e-05
 -1.9198546e-06
  3.0872630e-05
 -7.7302402e-06
  6.5776643e-05
 -1.1915507e-05
 -3.1581363e-05
  1.1488795e-05
 -2.3710287e-05
  7.0793612e-05
 -3.3311117e-05
  2.1753667e-05
 -2.7462131e-05
  1.2693154e-05
 -4.9638562e-05
 -1.0105099e-04
  3.3751887e-05
 -2.1562733e-05
  3.5182264e-05
 -9.4694267e-05
  3.6694426e-05
  1.0986585e-04
 -1.2930173e-05
 -4.8285030e-02
 -3.0333291e-05
  8.7416258e-05
  2.9997485e-05
 -1.8134885e-04
  3.3179032e-05
 -1.4540540e-05
  4.6478392e-05
  2.7216536e-05
 -4.7357506e-05
 -4.9906980e-06
 -1.7477016e-05
  1.4719086e-04
  5.4536631e-06
 -6.3794279e-05
  5.5424502e-05
 -1.2823085e-05
 -9.3532771e-07
  7.5104595e-05
  5.4766639e-05
 -4.2706739e-05
 -4.4730978e-06
 -3.6203041e-05
  2.4581945e-04
 -9.0737536e-05
 -1.7160335e-05
  8.9374204e-05
  3.5019235e-05
 -4.5945002e-05
 -5.0789557e-05
 -1.0590018e-06
 -1.6413923e-04
 -6.4948850e-05
  5.6709971e-05
  6.0682840e-05
  3.5897279e-05
 -9.0248150e-06
 -2.1964463e-05
 -3.2723037e-05
  9.2110735e-05
  5.3473381e-05
 -1.3879251e-06
 -6.6664620e-07
  4.3973007e-05
 -1.1738369e-04
  1.2864926e-02
 -9.0770664e-05
  2.9087843e-05
 -2.7205006e-06
 -1.7275766e-05
  3.5969289e-05
  6.5741688e-06
  1.9418647e-05
  1.1378384e-04
  2.1669195e-05
 -1.2348293e-04
  1.1070470e-04
  4.1840329e-05
  4.9940452e-05
 -2.0249132e-05
 -2.6149992e-04
  5.8616002e-05
  2.2179967e-05
 -1.5489823e-04
  7.8157636e-06
  1.1543425e-04
 -6.5122425e-05
  3.1936015e-05
 -5.8332218e-05
 -1.9829451e-05
 -3.3466898e-05
 -9.1441216e-05
  7.5131255e-05
 -2.8562616e-05
  2.4049561e-06
  7.7372926e-05
 -2.0525472e-06
  4.3871794e-05
 -1.9045819e-05
 -5.3366242e-05
 -8.8687184e-06
  3.7387475e-05
 -2.7051101e-05
 -6.1247054e-05
  5.1366209e-05
  4.3815697e-05
  9.5879121e-05
 -8.6851607e-05
  2.3095338e+00
 -1.9525166e+00
  1.3849019e+00
 -1.8495237e+00
  1.5631872e+00
  5.8244884e-02
 -3.5103727e-02
 -1.3606385e+00
  4.2276671e-03
  1.0228658e-01
 -1.1926816e-01
 -8.3868513e-03
 -1.5615971e-01
 -9.9809164e-01
  1.4367745e+00
  1.1712865e+00
 -1.6581662e+00
 -7.8303611e-01
 -2.2317702e-01
  1.2076294e+00
 -1.5534440e+00
 -8.3209568e-01
 -2.2307622e-05
 -2.0905885e-01
  7.6321769e-05
  1.3614376e-01
  1.8063053e-01
  7.3510317e-05
  1.3677844e-01
  3.1665906e-01
  4.2311890e-06
 -1.0516320e-01
  7.6595289e-01
  4.8502709e-05
 -2.3551720e-06
 -3.5488407e-05
 -7.2127325e-05
 -4.2260344e-05
 -2.5496927e-05
 -4.6451070e-05
 -2.9138073e-05
 -7.5249089e-05
 -2.2807276e-04
 -3.5684960e-04
 -1.7960621e-04
 -2.1355296e-05
  9.1466682e-05
  5.4413435e-05
 -3.2304531e-05
 -1.0603370e-05
  2.1268603e-04
 -6.2275532e-05
 -9.6955628e-04
 -1.4819318e-05
  9.1310685e-05
 -1.4597746e-05
  7.9196558e-05
 -1.2095589e-06
 -4.0617648e-05
 -3.5027497e-05
  8.0084328e-06
 -6.0704253e-05
 -5.7108344e-05
  1.0875536e-05
  2.0933956e-05
 -1.6957258e-04
  2.1296693e-05
 -1.3232545e-05
  3.4568500e-05
  2.9347766e-05
 -4.7498357e-05
  5.2149885e-06
 -1.3671226e-04
  9.5483018e-05
  1.1808529e-04
  1.0636644e-05
 -4.0384508e-05
  1.9881763e-05
 -4.1132051e-07
  6.7940098e-05
 -1.6204640e-04
  8.3711173e-05
  3.4174562e-07
  8.0606042e-05
 -7.2519761e-05
 -5.5498131e-05
 -9.1596208e-05
 -2.3052320e-05
 -3.3414290e-05
 -2.1710355e-05
  8.5124038e-06
 -1.8223812e-01
 -1.1233857e+00
 -4.8914292e-01
  5.7514429e-01
 -6.3447122e-05
  4.6341383e-04
 -1.3858742e-02
 -7.9724014e-06
 -2.5150601e-02
  5.8046495e-05
  2.7153903e-04
 -2.2008972e-01
  1.0391784e-01
  2.4581225e-01
 -5.0348222e-02
 -7.2028615e-02
  1.0564828e-01
 -2.7997054e-05
  3.8697729e-01
 -1.0336543e-02
 -1.3809173e-03
  1.9216215e-05
  1.4462178e-05
  4.3802891e-07
 -1.6529531e-05
 -3.7928307e-04
 -1.1978740e-01
 -3.2876495e-05
 -2.1444161e-04
 -4.0827941e-05
  1.2510801e-04
  5.5029459e-04
  4.3219026e-07
  5.5644487e-05
 -1.1462346e-04
  4.4620294e-05
 -5.2753448e-06
 -1.7820170e-05
 -4.8363891e-05
  4.7195350e-05
  2.2820302e-04
  2.6443369e-05
  1.3948891e-05
  2.6662115e-05
  3.1408629e-06
  3.0649348e-06
 -4.8570062e-05
  3.4452210e-06
  1.6058415e-04
 -5.0566083e-05
  3.1463911e-05
 -2.5134816e-05
 -8.2291510e-05
  3.7227642e-06
 -7.9438851e-06
 -3.0027204e-05
 -9.1394817e-05
  3.9686769e-05
 -1.2398706e-04
  2.1684986e-04
  3.4588295e-05
  7.2527066e-05
  6.4151340e-05
 -4.9965918e-05
 -2.0716575e-04
 -1.5996270e-04
 -5.3372823e-05
  1.3134407e-05
  2.3592779e-06
  6.2088038e-05
  1.4604656e-04
  1.3801997e-06
 -1.2514010e-05
  1.1361632e-05
 -8.5958811e-05
  2.7136013e-05
  1.1175178e-05
 -4.4148794e-05
  2.4738147e-05
 -2.1708878e-05
  4.4049251e-05
 -4.6034213e-04
  3.0768057e-05
  2.8031716e-05
  1.0920431e-05
  1.9523395e-06
 -2.1494548e-04
  2.9936416e-05
 -4.3776890e-05
 -1.5915434e-04
 -4.4871098e-01
  2.2013156e-01
 -5.5817392e-04
  2.9716119e-05
  5.2462413e-04
 -8.9123801e-05
  5.6237965e-03
  5.5182030e-05
  1.0062577e-05
  2.2066071e-05
 -1.4329751e-05
  3.2523599e-01
  1.4438489e-02
 -2.5176164e-04
 -6.8009627e-05
  1.3682268e-04
  2.6046931e-05
 -1.4385914e-04
 -3.2658958e-05
 -6.4200676e-06
  2.6277562e-06
 -1.2440121e-05
 -7.1671187e-05
  1.7798691e-05
 -2.1394078e-06
  1.9354258e-05
 -1.5752776e-04
  7.0530186e-05
  1.4919824e-04
  6.6514831e-06
  3.0855492e-05
  2.1424108e-05
  6.4220629e-05
  5.1575982e-05
 -4.0958537e-05
 -6.7261290e-06
 -2.9167932e-05
 -6.3038809e-05
  6.7750858e-05
 -4.9672885e-06
 -8.1307435e-06
 -7.3816198e-05
  8.8096922e-06
 -1.3460504e-04
 -1.1675759e-04
  2.8583947e-05
  1.1090775e-04
  1.5496496e-04
 -1.9568171e-05
  4.2675299e-05
 -9.3801289e-05
  1.0418816e-04
 -2.0855950e-04
 -4.0681341e-05
 -1.3259614e-05
 -5.5047960e-05
  2.3764660e-04
  5.4406064e-05
 -6.6737630e-05
 -1.5855976e-04
  2.7672399e-04
  1.9929816e-04
  6.4232727e-06
 -1.6317572e-04
 -1.7097716e-05
 -5.3441305e-05
 -6.1153682e-05
  4.9189515e-05
  3.5339967e-06
  6.9907168e-05
 -2.8899018e-05
  7.2991119e-05
  2.9309223e-05
 -2.3150852e-07
  5.0648039e-05
  1.8207957e-05
 -6.9444024e-05
  8.7134649e-05
  6.0275423e-05
 -5.1165152e-06
  3.6469090e-05
 -1.8206758e-05
  3.0463521e-04
 -2.6588679e-05
 -4.7037668e-07
  8.6761451e-05
 -1.0436552e-06
  2.7556276e-05
 -2.9423431e-04
 -6.2863917e-05
 -5.4939384e-05
 -1.0624526e-04
  4.0612980e-05
 -1.0297698e-05
 -3.4089724e-05
 -1.5048832e-05
  4.4296653e-06
 -9.3154058e-06
 -1.2063077e-05
 -1.1950531e-04
 -9.0696285e-06
  1.8801255e-04
  6.1445826e-05
 -4.1110103e-05
  8.9077785e-06
  1.2798562e-04
  7.8419747e-05
  3.3841890e-05
  2.2765924e-05
 -6.6518973e-05
 -2.4340319e-05
 -5.3689259e-08
  5.0387633e-05
 -4.1544870e-05
  5.7060621e-05
  1.2228262e-05
  1.0337283e-04
  8.7636276e-05
 -6.9236987e-05
 -3.1961504e-01
 -1.2978031e-01
 -9.8377204e-01
 -1.5936966e-01
 -1.6929126e-01
  5.7743717e-02
 -1.9218664e-05
  6.2741783e-05
  2.7843873e-04
  7.6578588e-05
  2.5461713e-04
  6.7419402e-02
 -1.4943740e-02
 -1.0175947e-01
 -1.1162271e-03
  2.0723997e-02
  5.9909099e-01
 -1.4915116e-04
 -8.1161073e-05
 -9.8942183e-03
 -1.2954927e-05
 -1.4828331e-05
  4.6090663e-05
 -4.9300950e-05
 -5.9486119e-05
  1.1612308e-04
 -2.2574883e-05
  1.5752098e-01
  5.8150326e-06
  1.0634019e-04
  8.9990433e-05
 -1.3286921e-05
  7.8664096e-05
  6.9438422e-05
 -1.3169554e-05
 -2.0145877e-05
 -2.5842381e-05
  4.2059411e-05
 -1.9564592e-05
  1.4224744e-05
  1.2820147e-04
  3.4331612e-04
  3.3057979e-05
 -9.4500974e-06
  5.9502487e-05
  3.5313367e-06
 -8.2418053e-05
 -1.4084476e-04
  5.1809238e-06
 -6.8790941e-05
  6.8877256e-07
 -1.0040931e-04
 -5.5958422e-05
  3.0533207e-05
  5.4445482e-05
 -6.1465755e-05
  3.0833318e-05
 -1.4435043e-04
 -6.1703788e-05
 -3.1650783e-05
 -2.7743183e-05
 -5.1408064e-05
  1.0773633e-04
 -4.1652547e-05
 -1.0987005e-04
  2.0785179e-05
  4.5429068e-05
 -6.9096088e-05
 -2.6448167e-06
  1.9947605e-05
 -2.1065511e-05
  5.1528386e-06
  4.2183688e-05
  2.8865850e-05
 -1.3136107e-05
 -1.3398264e-05
 -3.8174658e-06
 -6.1171166e-05
 -6.2784748e-05
  2.4564481e-05
  9.0916128e-06
  3.5916772e-05
  4.0016810e-05
  8.2364524e-05
 -5.1085601e-05
 -3.0199612e-06
  7.5478538e-06
  1.9636875e-05
  3.0136416e-05
  8.4699195e-06
 -6.1806386e-06
  1.8149738e-04
 -2.1943448e-05
 -1.6918297e-05
  3.5752633e-05
 -4.1596610e-05
 -1.2268957e-05
 -3.2051430e-05
 -9.8276621e-05
 -7.4121990e-06
 -1.5901373e-05
  4.3033280e-05
 -3.1553566e-06
 -1.0515906e-04
 -2.5626821e-05
 -9.9959252e-05
 -4.7351092e-05
 -9.7129405e-06
 -3.2817316e-05
 -2.9494193e-01
 -6.1018654e-05
  6.9272769e-06
  6.4670545e-05
 -3.6379482e-05
 -4.3540416e-04
  7.3080591e-06
 -1.1907917e-06
 -3.4583853e-05
  6.8165420e-05
  4.5074426e-05
 -4.9771079e-01
 -2.7518630e+00
 -2.8812494e-02
  1.3182017e-02
  6.9292402e-01
  2.7149854e-05
 -2.0676577e-01
 -8.3330278e-06
 -8.6350410e-05
 -2.2254622e-04
  1.4130549e-01
  3.1187473e-02
 -1.8457027e-01
 -4.9458906e-01
  7.1520335e-03
  2.2991924e-04
 -3.5555322e-02
 -4.2018667e-02
 -8.0620157e-05
 -4.9158401e-04
  4.3811317e-05
 -7.9253754e-05
 -1.5264408e-01
  2.7981700e-05
 -3.2512841e-04
  3.8933962e-05
 -1.6264892e-05
 -3.9091410e-05
 -1.7360087e-02
 -1.0849464e-04
 -8.9037821e-06
  3.0139159e-05
 -3.7625523e-05
 -1.9964904e-05
  1.4193324e-04
  5.4741227e-05
 -5.6963258e-05
 -5.3353957e-05
 -8.9448549e-05
  3.5799585e-05
 -8.2243183e-05
  4.5592933e-05
  6.0522627e-05
  1.9729716e-05
 -3.2991578e-05
 -3.3112301e-05
 -4.3321903e-05
  8.8333763e-05
  6.8925568e-05
 -9.6416779e-06
  1.1951124e-04
 -7.3940064e-05
  1.9749592e-05
  1.0383227e-05
  4.8155682e-05
 -5.8070051e-05
 -6.9744783e-06
 -4.0649862e-05
  1.9589244e-05
  3.0633113e-05
 -3.1297063e-04
  5.0265175e-01
 -1.2189165e-03
  2.7014874e-04
  4.1979007e-04
 -3.6096725e-01
  1.5813104e-04
 -3.8717574e-01
 -1.7045681e-01
 -7.6524585e-02
 -6.6290490e-02
  2.9997131e-01
 -6.6925786e-02
  1.1554351e-01
  1.9397112e-04
 -6.9609985e-02
  1.4816619e-01
 -4.1746162e-02
  1.3688864e-05
 -2.8912644e-03
 -1.5887278e-03
 -7.9657923e-04
 -1.2898479e-01
  1.4753347e-05
 -9.8325218e-06
  1.5638911e-05
  1.6588379e-05
  1.4130586e-04
 -9.9808829e-05
  4.1855747e-06
  2.6298255e-06
 -4.6945110e-04
 -1.4774427e-05
  2.7915656e-05
 -2.5791989e-05
 -3.2633998e-05
  1.3097558e-03
  5.1877600e-05
 -2.2665234e-05
  3.4582336e-05
  1.0249972e-05
  1.1460815e-04
 -1.2092247e-04
 -2.3457971e-04
  5.9426122e-05
 -9.6885269e-06
 -2.0359214e-04
 -7.1401264e-05
 -7.6969791e-06
 -7.0523324e-06
  5.0981482e-05
 -1.0830307e-05
  7.5730684e-05
  1.4674191e-05
 -1.8902021e-04
  2.6384438e-05
  9.2291528e-05
  6.7189190e-05
  1.2766041e-05
 -2.0396794e-05
  1.7722894e-01
  3.0641150e-02
 -1.8092139e+00
  5.0968651e-02
 -7.0596522e-01
  1.4900118e-04
 -6.7619928e-03
  2.2570170e-02
 -8.7700944e-05
  2.8524050e-02
  2.9906842e-03
  5.0882161e-05
 -9.7689718e-02
 -1.3989407e-01
 -9.3761571e-02
  2.3766410e-01
  2.3915895e-04
 -6.3936180e-04
 -2.3108346e-06
 -6.8776600e-02
  2.3479642e-02
 -7.3946730e-06
  3.0503697e-06
 -3.8781029e-05
 -9.2144774e-06
  5.8582042e-05
  5.5172655e-05
  5.3580874e-03
  3.4249327e-04
  1.6994964e-05
  3.4312736e-05
 -5.2481562e-05
 -1.2610189e-04
  7.9631627e-06
  1.7593223e-01
  2.1791991e-04
  2.7694918e-05
  1.7959324e-05
 -4.6449633e-05
  2.8060846e-05
 -2.3092260e-05
  7.5677866e-03
 -6.7369067e-05
 -7.6544529e-05
  4.9268743e-05
  4.1304989e-05
  3.2469994e-05
 -1.8040031e-06
 -4.9094040e-05
 -9.8981727e-05
  2.3664982e-04
 -9.1928094e-05
 -2.6025224e-05
  6.7270623e-05
 -2.2563465e-04
  8.6160617e-05
  5.9944698e-05
 -8.8898751e-06
  1.8173502e-06
 -9.6425756e-05
 -1.1308514e-04
 -3.6658402e-04
 -5.6799396e-04
 -1.7001119e-04
 -2.7989916e-05
  1.1604287e-05
  2.0758243e-05
  1.8962096e-04
  2.2385146e-05
 -2.8161731e-04
  3.3716649e-05
  7.7350691e-02
 -1.7854860e-05
 -9.6619242e-06
 -1.5352755e-04
 -3.8949471e-05
  2.6777318e-05
  5.8382506e-05
 -4.3604483e-05
  1.1293626e-04
 -4.2708845e-05
  3.5814958e-06
 -5.1686529e-05
 -5.9451941e-05
  4.2636771e-06
  9.9320678e-06
 -3.2688564e-05
 -4.2426705e-05
  3.0890774e-06
 -3.8662083e-06
  4.0681680e-05
 -1.3002823e-04
 -2.2742273e-04
  3.3052293e-05
 -5.2837226e-05
 -1.2254641e-04
  2.1994983e-05
 -2.0160678e-05
 -3.3750330e-05
 -7.2997900e-06
 -1.2012732e-05
  3.9509734e-05
  3.8831313e-05
 -3.9722341e-05
 -2.1362363e-05
 -1.6560494e-04
  7.7886136e-07
  6.1767962e-05
 -1.4113591e-04
 -1.3785638e-04
 -3.7893329e-05
  8.9814457e-06
 -1.3254087e-04
  1.7311542e-04
  2.8436603e-05
  4.4608728e-06
  1.0499140e-04
  3.6731031e-05
 -1.9069754e-05
 -1.7398281e-04
 -1.6908280e+00
  7.5040065e-05
 -1.2864957e+00
  4.6997216e-01
  2.9473844e-01
  2.8774433e+00
  9.1053276e-05
 -3.2479727e-06
  3.3193598e+00
  8.5803115e-01
  5.8034891e-01
 -1.9464183e-04
  1.7523533e-04
 -9.1941339e-01
  4.9571452e-05
 -2.0974581e-05
 -7.1822697e-01
 -5.8258686e-02
 -4.8916661e-03
  5.7035882e-05
  1.2146357e-05
 -1.2281800e-04
 -1.4456070e-04
  2.2489759e-05
 -1.1740372e-04
 -1.9740393e-04
 -2.7666947e-05
 -2.6991385e-05
  2.6376072e-01
 -8.6599684e-06
  2.1803479e-04
 -7.3511845e-01
  3.8672621e-05
  2.3357763e-05
  1.1758418e-04
 -1.7720443e-04
 -7.9832120e-07
  1.8811383e-04
 -4.9727893e-01
 -9.3017094e-05
 -9.9356272e-05
  4.5039025e-05
 -1.3836319e+00
  9.8778655e-06
  1.3654284e-01
  2.1953452e-04
 -5.7661551e-01
 -1.2699590e-04
  1.9823473e-04
  3.9937506e-05
  6.4650518e-01
  5.6656381e-06
  2.5276968e-01
 -2.8205693e-01
 -1.1785489e+00
  1.2878857e+00
 -1.7623037e-04
  1.6411635e-04
 -1.3051696e+00
  8.6741471e-01
  5.5204940e-01
  1.2349364e-04
 -1.1642273e-04
  4.3861562e-01
 -1.9843277e-02
  7.8316571e-06
 -7.2036654e-01
 -1.6341937e+00
  4.5158485e-01
  6.0050447e-06
  1.0774781e+00
  1.1967219e-04
  3.9492741e-05
  1.0045906e-04
  2.7493190e-05
 -6.2336667e-06
  4.4218705e-05
  1.8436057e-04
  1.3744715e+00
  1.4929785e-01
 -6.2581807e-05
 -6.2495393e-01
 -1.2313119e-04
  8.6884276e-05
  3.3837864e-01
  1.5605030e-04
  1.0980190e-04
  2.5795659e-04
  6.0295087e-01
  8.0368802e-05
 -6.1568659e-05
 -2.1194511e-03
 -5.4370332e-01
  1.0011839e-04
 -6.3754475e-01
 -6.9521324e-05
  7.2745544e-01
 -9.8461223e-06
  1.9720669e-01
 -1.6985928e-04
  3.0902102e-05
 -1.7718867e-05
  2.9834460e-05
 -1.7859193e-05
  5.6882662e-05
 -8.5465916e-05
  7.8355421e-05
 -4.8710001e-05
  1.3546605e-04
  2.6840216e-06
 -8.4761787e-06
  1.3728885e-04
  1.7294953e-04
  2.3748651e-05
  4.3787462e-05
 -8.9865076e-05
 -5.5227233e-06
  2.8597444e-06
  1.8931652e-05
 -3.4942123e-06
  1.9087811e-04
  1.6261837e-04
 -7.3792304e-05
  2.4127094e-05
  1.2057331e-05
  1.3280494e-04
 -6.5362678e-05
  1.1745705e-04
 -1.6193316e-04
  5.1393199e-05
 -6.9562495e-02
 -2.2473514e+00
  1.6399055e+00
 -4.9124509e-02
 -7.1545726e-01
  2.2168702e-01
 -8.8929010e-05
  3.4728787e-06
 -9.7782866e-09
 -2.1778494e-04
 -5.2538332e-02
 -1.4428687e-01
 -4.5757210e-03
 -4.0214053e-01
  1.1219389e-05
 -6.7146540e-02
 -2.3001316e-03
 -1.2684847e-01
  3.7506014e-02
 -4.0138330e-02
 -7.6580524e-02
  1.7002819e-04
 -5.3273884e-06
 -3.5716966e-02
 -6.1393730e-05
 -9.1003708e-04
 -4.9550108e-06
  8.4218057e-03
 -2.1871535e-02
 -9.0437829e-02
 -6.8121679e-02
 -9.2368424e-03
 -7.3311365e-01
  1.6920771e-01
  1.6808848e-01
  1.1686456e-01
 -1.1983108e-04
 -3.4007919e-06
 -7.2965748e-05
  1.3602285e-05
  1.7232038e-01
  1.1925482e-05
  7.2936291e-01
 -1.5914589e-01
 -5.5874338e-05
  2.7272893e-02
 -2.2726675e-04
  9.9610610e-05
 -1.7032487e-04
 -5.3273667e-05
  1.8441619e-02
  1.1637367e-01
 -9.3073674e-02
 -1.3017044e-03
  7.3005038e-05
 -1.2885315e-03
  3.9816805e-06
 -8.7506980e-01
 -1.1456837e-01
 -6.7272007e-02
 -5.1199971e-05
  5.8914640e-07
  1.6365196e-04
 -3.1884258e-05
 -1.3407112e-05
 -1.4847815e-05
 -2.4253680e-04
 -3.9757808e-05
  5.3107593e-05
 -6.2737876e-05
 -1.0043312e-06
  5.1229458e-06
 -7.6761913e-05
 -1.0216247e-05
 -2.4402611e-05
  3.8686678e-05
  3.9019720e-05
  9.5519263e-06
 -3.4495810e-05
 -3.7958132e-05
 -6.3200780e-05
 -9.1519862e-05
  2.8986897e-05
  1.0495754e-04
  5.8121013e-06
 -9.1952839e-05
 -7.2385269e-06
  5.0737600e-07
  2.7153940e-06
  7.5102274e-05
 -1.9447092e+00
 -6.0473686e-01
  1.8742841e+00
  3.0852783e+00
  4.4710293e+00
 -8.4382140e-05
 -6.4104215e-06
  2.2118258e-04
 -1.6243413e-01
  9.3581380e-05
 -2.3937880e-01
  1.3810965e-04
 -2.6001409e-01
 -2.9528069e-01
  3.5647407e-01
  1.9711512e-01
  1.0593528e-02
  5.1294255e-01
 -1.3345249e-01
 -2.7262247e-05
  8.5894845e-02
 -1.0177620e-05
  7.2698724e-01
  4.4660395e-01
  6.9119720e-05
  7.3656629e-05
 -1.8545707e-05
  2.8175902e-01
 -4.1289203e-02
 -1.6202473e-05
  1.1323525e-05
  2.6130836e-05
 -9.0879385e-06
 -1.0967205e-04
  1.6889979e-05
 -4.5698557e-06
 -3.5677294e-05
  1.1055456e-04
 -5.6284425e-05
  4.2066158e-06
  2.8871287e-05
 -1.5726537e-05
  5.9987928e-05
  1.7739562e-04
  1.9805085e-04
 -3.1629879e-05
 -1.2838467e-04
  1.7488861e-05
  4.3542612e-05
  3.0744926e-04
 -3.2758981e-05
  4.5031829e-05
 -1.8553599e-04
  1.2329890e-04
  3.3448239e-05
  1.9781857e-05
 -5.6712990e-05
 -4.5622197e-05
 -4.9493745e-05
  3.9969182e-05
  5.2013367e-01
 -2.2841500e-02
 -7.0404058e-05
 -5.6417424e-02
  5.6001055e-04
  6.9327689e-05
 -6.8018955e-05
  3.3051841e-05
  1.0497904e-05
 -1.3610307e-05
  2.0429506e-03
 -2.2378023e-05
 -2.2548620e-01
  1.1011263e-03
  7.4891645e-06
  1.1884253e-04
 -1.6718941e-04
 -6.1654566e-05
  7.9389465e-05
 -1.1051321e-04
 -9.4164017e-07
 -2.8832845e-05
  3.1282907e-04
 -6.4336073e-06
  1.5683272e-05
 -1.9272639e-04
  1.2203847e-04
  3.3099907e-03
  9.4415351e-05
 -3.7838411e-06
  4.8844377e-05
  1.6207375e-04
 -5.4159817e-05
  9.6463802e-05
 -2.9782597e-05
 -4.2430718e-05
  3.2128683e-05
 -2.1611078e-04
 -8.2404309e-05
 -1.8828603e-05
 -5.0937786e-05
 -7.0606271e-05
  5.1418061e-05
  2.5908525e-05
  2.2536424e-05
  3.4797664e-05
  2.1903919e-05
  9.5090800e-05
  5.0427465e-05
 -7.6130811e-05
 -2.6417691e-05
  1.2125341e+00
 -6.0827544e-05
 -1.0482424e-05
 -2.1498587e-05
 -1.6448065e-04
  9.1439564e-05
  5.0572053e-05
 -6.6843910e-05
 -3.4105565e-04
 -8.6098164e-02
  5.6844263e-05
 -9.3588997e-06
  1.4364906e-04
 -8.4805265e-03
 -2.3096920e-05
 -2.4748007e-07
 -1.9803483e-05
 -1.0501060e-04
  6.0646307e-06
 -7.4009493e-04
 -1.0987796e-05
  3.5585141e-01
 -2.2479722e-04
 -4.8465379e-05
  6.5454209e-05
  7.5543736e-05
  6.6116468e-06
 -8.4589956e-05
  7.8712161e-05
  5.4823489e-05
  1.5731875e-05
  1.1210953e-05
  5.5926223e-05
 -7.4694262e-06
  2.2628807e-04
 -9.2839866e-05
 -8.2133117e-04
 -5.7807803e-05
  9.4029474e-06
  9.1300550e-05
  4.7932558e-06
  1.0730050e-07
  4.0667212e-05
  8.6786160e-05
 -2.6467862e-04
 -2.0441128e-05
  5.9428785e-05
 -3.0941552e-05
  2.0199715e-05
 -2.7900529e-05
 -5.0849234e-05
  1.4728996e-05
 -1.5820761e-04
 -1.6122691e-05
  8.0045211e-05
  3.3653301e-05
 -4.4382637e-07
  2.8092070e-05
  3.4381101e-05
 -1.0298598e-04
  7.7410305e-06
  2.4477119e-06
  3.9103685e-05
  7.7340876e-05
  2.0659725e-05
 -2.3909075e-04
  2.8163489e-05
  7.7183387e-05
 -3.7360085e-05
  4.9545630e-05
 -1.0596558e-04
 -2.3756040e-07
 -1.6268214e-05
  2.8135893e-05
  6.8030982e-05
  1.7731245e-05
 -1.2247409e-05
  1.1988301e-04
 -1.1820268e-04
 -1.8377743e-06
 -1.1329238e-05
 -1.3668861e-04
  2.1255612e-06
 -3.2792581e-05
  3.4264616e-05
  7.9357496e-06
  5.3808893e-05
  3.4448167e-05
  1.4741043e-05
  1.2145339e-04
 -1.5343452e-05
 -7.5948898e-05
  5.6564945e-06
  2.3738150e-05
  1.2094462e-05
 -1.5120058e-04
  6.5897228e-05
  1.2509634e-05
  2.4524075e-05
 -2.2780924e-04
 -1.2643909e-04
  7.2440991e-05
  2.2241113e-05
 -6.2455038e-05
  1.8580542e-04
  1.8683480e-05
 -5.6827510e-05
 -1.0736984e-04
 -1.1483912e-04
  5.3957177e-05
 -4.4270131e-05
  2.3171870e-05
  1.1734615e-04
 -5.5967132e-05
 -4.1312705e-05
  2.2031297e-06
 -2.0342941e-05
 -3.1019419e-05
 -2.9033563e-05
  7.4026932e-05
 -3.2174081e-05
 -7.4084965e-05
  6.8984991e-05
  1.5957294e-06
 -7.1027731e-05
  2.8534493e-04
  8.3247971e-05
  1.3437000e-04
  6.0464213e-06
 -1.6022932e-05
 -2.2556522e-05
  4.0332547e-05
  5.4366606e-06
 -8.6660570e-05
 -1.0104734e-04
 -1.0709470e-04
  2.6338857e-05
  9.4735435e-05
  1.1215747e-04
 -1.1517705e-04
 -5.0024322e-05
  1.0166973e-06
  1.6226606e-04
 -9.0346817e-05
 -3.4258611e-04
 -1.3645507e-04
  1.8356748e-04
 -5.1562365e-05
 -6.7016132e-05
  5.5443397e-06
  1.9074303e-06
 -8.9923924e-05
  3.3787030e-06
  9.6254065e-05
 -3.0861487e-05
  7.4731106e-05
 -3.5870464e-05
 -8.5746797e-06
 -4.6566889e-05
  4.4746550e-05
 -2.7980097e-06
 -2.3577106e-05
 -1.6425096e-05
  2.9809507e-05
  2.5231717e-04
  3.0370655e-05
 -8.8861882e-05
  1.2662016e-05
 -2.7851793e-05
  1.0667232e-05
 -2.8919081e-05
 -6.1827493e-05
  1.9547784e-05
 -5.7752244e-05
 -1.6514996e-05
 -6.8809451e-05
  1.9033059e-05
 -3.0507313e-06
 -5.2650172e-05
 -1.1079430e-05
  1.9964873e-04
 -5.9630322e-05
  1.0091776e-04
  3.6957281e-04
  1.1559529e-05
  2.3863156e-05
  8.2455597e-05
 -2.0591212e-04
  5.4618198e-07
  5.7845652e-01
  2.2196934e+00
  1.0670272e+00
 -4.5779929e+00
 -1.0847257e+00
  7.0396996e-01
 -8.7428107e-06
 -1.9510691e+00
  2.5629532e-01
 -4.6173725e-02
  1.0794175e+00
 -2.7684900e-01
 -1.4847264e+00
 -1.3027693e-01
 -1.1697733e-01
  3.8189843e-01
 -9.1221958e-01
  1.0473805e-01
  9.6392363e-01
 -2.9085878e-01
  2.8468296e-02
 -1.0582364e+00
  1.2027646e-01
 -1.2726998e+00
 -2.0984507e-01
  7.5214237e-02
 -7.1390053e-07
  1.3619781e-01
 -1.0529774e-02
 -2.5459683e-01
  4.9896975e-04
 -9.9400431e-06
  2.0144169e-05
  1.7723815e-04
  9.0300367e-05
 -2.8602837e-05
  1.7389780e-04
 -6.7670582e-05
  4.1684056e-05
  6.3444954e-06
  1.1040624e-05
 -6.4645697e-06
 -9.5669657e-06
 -9.4369818e-05
  3.0519342e-04
  1.2634948e-05
  4.3835953e-05
  3.8584443e-05
  9.2834249e-05
  8.4889594e-05
  1.7011870e-04
  2.0734755e-05
  4.0337243e-05
 -4.0647730e-05
  2.4805071e-05
 -2.0385914e-05
  4.5910234e-05
 -7.0231959e-05
 -1.5908052e-04
  3.9660699e-05
 -1.0888243e+00
 -2.1575278e-01
  3.0911856e-03
  1.5536970e-01
  9.0603071e-01
  7.8787170e-06
 -1.4825755e-05
 -6.9224529e-06
  8.1164035e-05
  4.9281080e-05
 -2.4295849e-01
 -2.7813403e-05
 -6.8832347e-03
 -4.7900406e-01
  3.6442743e-05
  4.4619411e-04
 -4.7515598e-04
 -3.9350994e-05
 -9.6164404e-06
 -1.4943240e-04
 -5.1872206e-01
  3.0556002e-05
  1.4715955e-05
 -3.4035587e-05
 -5.1838313e-05
  3.3982229e-04
  1.2435828e-05
 -3.3410788e-02
  6.8009726e-06
  2.9140241e-05
  3.3012722e-05
 -4.1881005e-05
 -6.3350868e-05
  3.3424708e-06
 -5.8366281e-06
 -4.4003351e-05
 -2.6976201e-04
 -1.9152137e-04
 -3.7289690e-05
  9.6383455e-06
 -4.4506742e-05
  4.0697771e-05
 -1.4820260e-05
  2.0653695e-05
  5.7181624e-05
 -1.1339598e-04
 -4.1046783e-06
 -1.1642171e-04
  1.3098253e-04
 -3.1044059e-05
 -9.5266323e-06
 -6.5570312e-05
 -9.8820547e-06
 -6.9604699e-05
  5.2900141e-05
 -3.4449677e-05
 -2.6942487e-05
  4.5293877e-05
  1.5280831e-06
  5.3080548e-05
 -1.9955746e-04
 -1.1661740e-04
  8.0746722e-06
 -5.2037478e-05
  9.8465034e-07
 -1.4810078e-05
  1.0841739e-05
  5.7323396e-06
  1.1467871e-04
  3.5554407e-05
 -1.5368302e-04
 -6.5452921e-05
  1.2608262e-05
 -2.4989427e-05
  1.3334831e-04
  9.0703143e-06
 -9.4604447e-06
 -4.9026345e-05
  5.0020467e-06
 -2.2740052e-05
  3.0528459e-05
 -6.1880942e-06
 -2.8413906e-05
  9.1248214e-05
  1.9912553e-04
  1.1173543e-04
 -3.8771392e-05
 -2.4693310e-05
  5.2887499e-05
 -5.5722980e-05
 -2.2486573e-01
 -2.1379545e-05
 -9.2908132e-01
 -1.2318103e-04
  3.7214449e-01
  6.3003331e-06
  2.4010467e-05
 -4.5811071e-06
  3.2933709e-05
  5.2234816e-05
  1.7368220e-04
  3.2754545e-04
  2.7942434e-01
  4.1534280e-05
  5.7530506e-06
 -7.3214753e-05
 -9.1714166e-05
  1.4736644e-05
  6.5029925e-03
 -4.2753918e-06
  4.1882569e-05
  1.0157827e-05
 -6.9904519e-05
 -2.3567702e-05
 -3.4132411e-04
 -7.7499562e-06
 -8.3896150e-05
  6.6131484e-05
 -5.8408681e-05
  2.1487889e-01
 -1.8727303e-02
 -4.5110652e-01
  2.8801571e-05
 -3.5467183e-03
  8.1913227e-01
  1.3756944e-04
 -2.1076949e-05
  6.1818660e-05
  7.6672749e-04
 -5.8594134e-05
 -5.4217666e-01
  2.3711806e-05
  4.6508259e-01
  1.9610874e-05
  8.3061073e-05
  2.3267810e-01
 -1.0154842e-04
 -8.8854766e-05
 -2.9692588e-05
 -1.4558312e-04
 -1.0856286e+00
  2.3407620e-05
  1.6596848e-03
 -7.7157878e-05
 -1.0050317e-04
 -1.4171287e-05
  7.3042182e-05
  6.0824519e-01
  4.7951708e-05
  3.6781374e-05
 -2.3604247e-01
  4.3062682e-05
 -3.8585531e-05
  1.8845767e-06
 -6.4621149e-03
 -6.3281368e-06
  2.1707923e-04
 -1.5624268e-05
  3.9198865e-05
  1.1216454e-05
 -3.2895556e-04
  5.3004620e-05
  3.7701987e-03
  7.8820245e-05
  1.0214343e-05
 -3.2508735e-06
  1.1164145e-04
  5.4571970e-05
 -7.8579636e-05
  6.4565720e-05
  4.7133570e-05
 -3.3330340e-05
 -5.6337996e-04
  1.1686127e-04
 -6.8786605e-05
 -1.5270208e-04
  1.2458045e-06
 -3.0836342e-03
 -3.4280780e-05
  2.8961018e-04
  8.1036065e-05
  3.3644388e-05
  4.5479148e-05
 -9.6220720e-05
  6.8088752e-06
  9.1504808e-05
  6.6443067e-06
 -9.7374032e-06
  4.3512242e-05
  6.6758471e-06
  5.4391334e-05
 -2.9742427e-05
  3.6489393e-05
 -1.9587210e-06
  1.6867604e-06
 -2.7324286e-05
 -1.2664697e-05
  5.9946866e-05
 -7.7567434e-05
  1.8707422e-05
 -3.5976755e-05
 -4.8806854e-05
 -4.2263244e-05
 -1.9024506e-05
 -1.3623412e-05
 -5.4380365e-05
  6.6411230e-05
 -4.2860509e-05
 -2.1275964e-05
 -5.0402123e-05
  6.8685859e-01
 -6.8052649e-01
  4.6030024e-01
  2.6853609e-01
 -5.6487608e-01
 -1.3446170e-05
  6.1207555e-07
 -3.0767704e-05
 -6.1138519e-05
  8.5108084e-05
 -4.6547809e-01
 -3.2697167e-06
  1.1466566e+00
 -4.0064883e-01
 -3.1522766e-02
 -1.5269134e+00
  2.1129004e-05
 -5.5446817e-05
  1.7301083e-04
 -3.4987755e-04
 -1.5040753e+00
 -6.6983821e-06
 -8.9742579e-02
 -6.0164839e-06
  6.3127495e-06
  2.4180782e-01
  1.3391358e-04
 -3.7682869e-02
 -7.4954511e-04
 -1.0317662e-04
  6.9081932e-01
  1.9466898e-01
 -5.4438841e-01
  5.0739521e-01
 -3.7657958e-02
 -1.9196239e-04
 -4.4202643e-06
 -2.2209235e-05
 -1.0788389e-05
  8.7895722e-05
 -5.4078513e-01
  9.7613018e-03
  2.2170830e-01
 -1.0424861e-01
 -8.3886218e-05
 -8.1381835e-03
  1.8502973e-04
 -9.6085234e-05
 -7.9027188e-05
  1.0747494e-03
 -1.1757658e-01
 -1.6939688e-05
 -4.3708328e-02
  2.0732544e-03
  2.2119446e-05
  1.0459779e-01
  2.4410865e-06
 -4.9663967e-01
 -1.3140184e-04
  9.8909295e-05
 -3.0751879e-05
  3.4268083e-05
 -1.0401602e-04
  1.2019232e-04
  1.9960455e-04
 -6.4928099e-06
 -1.0303655e-04
 -1.7220027e-05
  1.3237451e-04
  9.6936637e-06
 -2.0883848e-04
 -4.3685137e-05
  2.1757591e-04
  1.9618123e-05
 -1.6327285e-05
  3.8925431e-05
  2.7390384e-05
  1.3667375e-05
  7.5204953e-05
 -6.2122954e-06
  2.0973901e-05
  1.0646140e-04
  1.5284522e-05
  1.8822761e-06
 -1.0178223e-04
  4.2729589e-05
 -4.2924774e-05
  1.0642227e-05
 -7.0187765e-05
 -5.1851555e-05
  4.3027362e-01
 -1.6838118e-01
  9.2804544e-02
 -1.8137126e-03
 -1.5313789e-01
  3.1589740e-03
 -2.7482723e-05
 -1.8568397e-05
  1.4178382e-04
 -6.9297901e-05
 -2.0345123e-01
 -1.3739731e-04
 -3.3108699e-01
 -7.4287295e-01
 -3.5594217e-05
 -3.0798265e-03
  1.3078397e-05
 -2.5735336e-04
 -1.5266325e-04
 -7.3423274e-05
  2.2845634e-05
  1.8676154e-04
 -3.3413180e-05
 -5.7010825e-06
 -1.1764731e-05
  2.1922801e-04
 -3.4003033e-06
  7.2207667e-02
  2.6078451e-05
 -1.9067861e-04
 -3.5804213e-05
 -1.5814781e-05
  9.8896169e-05
 -1.0395388e-04
 -4.6122518e-06
 -1.4447392e-04
 -2.7031035e-06
 -4.5835954e-05
  1.5419017e-05
  3.3244687e-05
  8.9853485e-05
  8.5475484e-05
  6.0565643e-02
  1.5321177e-05
 -4.4964756e-05
  6.6390625e-05
  3.2296695e-05
  2.7591261e-06
  5.3777996e-05
  9.0881054e-05
 -5.0873812e-05
  1.4152081e-04
  3.4765981e-05
 -1.3829866e-05
 -1.1577210e-04
 -9.7546043e-05
 -2.2801101e-05
 -3.9398332e-05
 -5.8883485e-05
 -4.4119824e-05
  9.0755032e-07
  9.8009543e-05
 -1.0666621e-05
 -2.4397421e-05
 -3.6879774e-04
 -6.3681682e-06
 -5.2759310e-06
 -2.2161606e-05
 -2.7767025e-04
 -4.6653546e-05
  2.1954202e-04
  8.5843931e-06
  3.9527426e-05
  2.7514792e-05
 -2.5377425e-05
 -8.7870896e-05
  1.6833652e-05
 -8.5644861e-05
 -1.8447325e-05
 -3.4880661e-05
 -1.7028618e-05
 -6.2568441e-05
 -3.4866684e-05
 -4.9397458e-06
 -6.3178406e-05
  7.6643002e-05
  1.7137383e-05
 -2.3361628e-05
  4.3628221e-05
 -4.7341800e-05
  6.3698368e-05
  1.8480165e-04
  1.1573647e-04
 -6.7564077e-05
  1.4703939e-04
 -6.8287125e-05
 -1.0284595e-06
 -5.7669004e-05
  1.3828551e-05
 -1.8590896e-05
  6.5674103e-06
 -5.1976353e-05
 -9.8285400e-06
  6.4306783e-05
  1.9902503e-05
 -1.4691422e-04
 -1.0404301e-06
  1.8683813e-05
 -4.3957793e-05
 -3.5963963e-05
  6.2631967e-05
  5.4755950e-05
 -4.3734628e-05
  8.7166678e-05
  4.4062544e-05
 -2.3704153e-05
 -7.0124981e-05
 -4.5416000e-05
 -1.1197844e-04
 -5.5510682e-05
 -1.9569077e-05
 -5.6928218e-07
  1.1179963e-05
 -6.3866155e-06
 -8.1765647e-05
 -7.3867200e-06
 -6.0735161e-05
  8.7751781e-05
  3.6220143e-05
  1.6255901e-05
 -3.2257623e-05
 -5.0209404e-05
  2.1538667e-04
  1.3270426e-04
  1.8660114e-05
  7.5376852e-06
  1.1615382e-04
  1.3407104e-04
 -2.6361311e-05
 -5.8290345e-05
  2.2584181e-06
 -5.0501651e-05
 -6.8854548e-05
 -1.0948063e-04
 -1.1228918e-04
 -5.1950879e-06
 -2.4926487e-05
 -2.6748628e-05
  1.1790003e-05
 -5.0329894e-05
 -3.9914263e-05
  9.3629962e-05
 -1.0372274e-05
  6.9110597e-06
 -1.8451306e-05
 -1.6132575e-05
  3.9362600e-05
  1.1750845e-04
  4.9248392e-06
 -5.1158167e-05
 -1.2723859e-04
 -1.5239212e-05
 -1.0382642e-04
  2.3585922e-06
 -4.2730306e-05
  3.1932132e-07
 -1.1385963e-05
  4.7723261e-05
  8.1595259e-05
  2.0366746e-05
 -2.2786047e-05
 -2.0736088e-05
 -3.2977197e-05
 -2.0198475e-05
 -6.4126830e-06
  1.2348127e-05
 -2.3491859e-06
 -6.2594896e-05
 -4.0676361e-05
 -1.5683089e-04
 -3.8918271e-03
  1.2747978e-04
 -2.0457574e-05
  7.7608065e-04
 -3.1131959e-02
 -1.3257189e-04
 -6.8355831e-07
 -8.3063438e-05
 -7.2637899e-06
  2.7065751e-05
 -5.2300742e-04
 -4.8464003e-06
  2.9481721e-01
  5.3633492e-05
  9.1086018e-05
  7.2650859e-05
  5.1438678e-06
 -1.4065146e-04
 -3.9370949e-05
  4.8931488e-05
 -1.6768764e-04
  7.9819220e-06
 -5.5007940e-06
 -3.6657036e-06
 -7.6607961e-05
 -1.2420962e-05
 -2.3763469e-05
 -2.7961363e-04
  1.7398932e-06
 -1.3202576e-07
 -1.8295838e-04
 -2.7742133e-05
 -5.6055793e-05
 -1.9148241e-05
  1.1044750e-04
 -2.0690881e-05
  3.1196891e-05
 -7.3498719e-05
 -1.2602114e-04
  1.2076703e-04
 -1.5826405e-05
  1.8853819e-04
 -1.6694875e-06
  3.0372075e-05
 -4.8040267e-05
 -1.0272270e-04
  5.9097551e-05
 -2.0220288e-05
  2.8377211e-05
 -9.9900244e-05
  1.0598012e-04
 -8.2037404e-06
 -1.0732978e-06
 -9.4336729e-06
  9.8124961e-05
 -5.2566131e-05
 -2.0083805e-04
  1.0106624e-04
  1.5266643e-05
 -2.3835179e-05
 -8.4913576e-01
  5.4129646e-03
 -1.2440885e+00
  1.8821305e-02
 -1.3593468e-02
 -1.8499264e-05
  2.9711093e-05
 -1.9945855e-05
  6.2124062e-05
  6.2169900e-05
 -8.1192004e-04
  5.3070739e-06
  1.9321994e-01
 -2.9082137e-01
 -2.6284414e-04
 -1.2827339e-05
  2.0092564e-04
  3.3315067e-05
 -4.7191093e-05
  2.8521428e-05
 -9.2587888e-01
 -8.2782790e-06
 -4.5288086e-01
  1.4227098e-05
 -4.7148892e-06
 -1.0454872e-05
  3.7691068e-06
 -3.4057951e-01
 -1.6861957e-06
  9.6150143e-05
 -1.6791318e-04
  8.8994857e-05
 -1.4451687e-05
 -8.6951313e-06
 -6.5276043e-05
 -4.8657173e-05
  2.4541803e-06
 -1.8722021e-04
 -2.2340739e-05
  2.0077359e-05
 -2.1661001e-05
  6.5501736e-05
 -7.5770804e-05
 -3.5507436e-04
 -1.6784332e-05
  1.5921044e-04
  5.1015082e-05
  1.3808813e-05
  6.1570863e-05
  4.9945109e-05
 -8.3051964e-06
 -3.2798263e-05
  3.5277160e-05
 -5.5939904e-06
 -1.0598607e-04
  2.8821996e-05
 -4.5546449e-06
  1.7878099e-05
 -4.7017038e-05
 -1.8932264e-05
 -7.7018449e-03
 -1.3167733e-02
 -4.0981570e-01
 -1.8467699e-04
  1.6474719e-01
  9.4479412e-02
 -9.6083211e-05
 -2.2733211e-05
 -3.7692014e-05
 -5.3069652e-05
 -1.3915244e+00
  1.2610136e-05
  1.5513560e-02
 -9.1938454e-01
 -5.7605833e-02
 -1.1159909e-02
  8.7761597e-05
  8.1284627e-05
  1.8764773e-06
 -7.7275959e-05
  1.4583285e-01
  2.4059989e-05
  1.1744088e-04
 -3.7638866e-04
 -2.7104794e-05
  3.2117750e-05
  1.2378171e-04
  1.3583767e-01
 -8.5369371e-05
  2.1094484e-06
 -8.9344436e-01
 -4.1921705e-02
 -5.7887304e-05
 -3.7996307e-01
  1.2687131e+00
 -8.0393875e-06
  3.2071028e-05
 -4.2895554e-04
 -3.7038426e-05
 -3.3677430e-04
  7.1142770e-02
 -9.4419660e-04
  3.9148685e-01
  3.1689059e-02
 -4.4917950e-05
  2.5995669e-03
 -6.6879382e-03
 -3.0040019e-03
  2.0777520e-03
 -3.7226058e-04
  7.6534995e-03
  2.2683860e-05
  8.7867245e-02
 -2.4063696e-01
 -5.3917658e-05
 -7.7775292e-02
  7.9471058e-05
 -1.3782911e-02
  8.5293304e-04
 -1.1946744e-03
  3.3284552e-05
 -2.6718417e-06
  1.7107228e-05
 -6.5487434e-06
  1.1711900e-04
 -4.4885932e-05
 -8.6678621e-05
  2.3258731e-06
  9.7347447e-07
  7.9531474e-06
 -2.1732174e-05
  2.7545806e-04
  1.5582357e-04
  3.1782978e-04
 -1.3231950e-04
  1.6568083e-05
 -2.9402598e-05
  7.5284886e-05
  4.2142063e-05
 -1.9295147e-05
  1.1758125e-04
  9.5291171e-06
 -1.3757370e-04
 -1.6872027e-05
 -1.6348968e-04
 -3.1680975e-05
 -1.1472925e-04
  2.2916087e-05
 -5.2413219e-05
 -4.0776202e-05
  5.3196269e-01
 -1.1827733e-04
  1.2990015e-02
  5.9427276e-02
  8.2802638e-02
  4.6205500e-05
  1.6312955e-05
 -4.5019126e-05
 -2.1588205e-05
  6.1423794e-05
 -5.0721228e-02
 -3.3385528e-05
  3.1901293e-02
 -3.2752961e-02
 -4.9901597e-02
 -7.4852608e-02
 -9.7178257e-05
 -7.0500071e-03
 -9.5753050e-05
 -1.2847525e-05
 -9.0235388e-01
 -7.9598994e-06
 -1.3352383e-05
 -1.6772233e-06
  2.6175165e-05
  1.2125071e-01
 -4.5731904e-06
 -6.2953824e-01
 -4.1351563e-05
  5.3020754e-05
  6.9637921e-05
 -6.3851869e-05
 -1.2860441e-05
  1.6528085e-05
 -7.6477583e-05
 -8.3299463e-05
  2.4771898e-05
 -1.7204067e-06
 -7.8445637e-06
 -1.6859893e-05
  5.8444773e-05
 -5.1306019e-05
  5.5047491e-05
 -3.0498353e-05
  5.7176171e-06
  1.4797886e-04
 -8.6888555e-05
  2.2319538e-05
  4.3279929e-06
  1.3296749e-05
 -8.5589145e-06
  2.4693029e-06
  6.9812836e-06
 -1.1746555e-05
  5.0718565e-05
 -3.1782296e-05
  9.4020106e-05
 -4.8460347e-06
 -3.0360283e-05
 -2.3751998e-05
  6.7763416e-05
 -4.7821850e-05
 -1.5234852e-05
 -1.4845138e-05
 -3.6440383e-06
 -7.2236588e-05
 -1.9591214e-04
  6.5122040e-05
 -4.6739628e-05
  5.0962073e-05
  6.7810874e-06
  3.5258672e-05
  5.3288932e-05
 -1.6567317e-05
 -4.6905494e-05
 -4.9836103e-06
 -1.0591094e-04
 -5.3029005e-05
 -4.6529109e-05
  2.2103814e-05
 -9.0540365e-05
 -5.1001011e-06
 -3.3469918e-05
  5.8162444e-05
  2.8027332e-04
  1.9076671e-05
 -6.7579867e-07
  6.0826974e-06
 -6.2962739e-05
  1.4272744e-04
  1.1526023e-02
 -3.2945420e-04
 -1.2508154e-04
 -2.1791160e-04
  2.7659881e-01
  3.5412053e-05
  6.8854006e-06
 -3.5228734e-04
  1.7468027e-04
  2.3607254e-05
  2.0240948e-05
 -1.3105501e-03
 -1.7612161e-05
  6.2447405e-05
  3.4777298e-05
 -6.8926159e-04
 -6.6940388e-06
  1.1801303e-04
  3.8258266e-04
  1.1673714e-04
 -1.2883699e-05
  2.6415986e-05
  1.6893240e-04
  2.0251524e-05
 -2.0944304e-05
 -9.5237934e-05
 -3.8495629e-05
  4.3255067e-04
 -5.5907418e-05
 -9.1392203e-06
 -3.6493827e-02
 -3.9456323e-01
 -2.6501521e-01
 -6.9455266e-01
  1.0357937e+00
  9.6575069e-01
  2.5221927e-04
  4.0682942e-05
 -8.8562185e-01
 -3.2819033e-01
  1.3815288e-01
 -6.2554073e-01
 -1.3138108e-01
 -2.7132999e-02
 -1.5737861e-01
 -1.7748795e-02
 -5.5642080e-01
  8.4524667e-01
  5.0898522e-01
 -2.2108074e-01
  1.7238344e+00
 -4.1502612e-03
  1.8117960e-01
 -1.0907128e+00
 -1.1914165e-01
 -1.0127934e-02
  6.8047703e-03
  4.4857550e-02
 -4.4141844e-04
 -1.2286201e-03
 -2.1492553e-05
 -3.0281021e-06
  4.9079899e-05
  2.4685825e-05
 -6.3253050e-05
  3.1842207e-04
  1.3424471e-05
  2.2567323e-05
 -6.9802016e-05
  5.1762065e-05
  1.5246270e-04
 -3.8521172e-05
  5.5385382e-05
  8.8509492e-05
  1.6247924e-06
 -8.4610497e-07
  3.3546032e-05
 -6.2355000e-05
 -8.5464080e-06
 -1.7551721e-04
 -1.1728380e-05
 -1.7057901e-04
  3.5346198e-05
 -2.0271503e-04
 -6.7116649e-05
 -1.8955418e-04
 -2.1169053e-05
 -1.0544400e-04
  7.8066558e-05
  1.8730060e-04
  4.2742624e-05
 -1.0636181e-04
 -3.0536266e-05
 -7.9419415e-06
  1.2358298e-04
 -9.2761511e-05
  6.4285364e-06
 -8.5085944e-08
 -3.5904723e-05
 -1.7865291e-06
  5.5952114e-05
 -2.2787543e-04
  3.1166161e-05
  3.0494943e-05
 -4.4510562e-05
  2.5579047e-05
 -2.9719327e-05
  3.5984755e-05
 -5.3846265e-06
 -1.4357289e-05
 -7.6469965e-05
 -1.9267544e+00
  4.2111704e-05
  1.3187407e-04
  7.7505778e-05
 -1.0685128e-04
 -6.1436862e-05
 -2.9202864e-05
 -8.1862549e-05
  2.9002447e-05
  1.5111706e-04
  4.5389252e-06
  2.0151499e-05
  8.9269939e-05
  3.6643483e-05
  3.3230123e-07
  2.8629356e-06
  3.1448778e-04
 -4.2593336e-05
 -7.0377675e-05
  8.7080341e-05
 -4.1072937e-05
 -1.7580298e-05
 -1.1985428e-06
  5.1049687e-05
  7.6042174e-06
 -1.0074821e-04
 -2.0858027e-04
  6.1496656e-05
  5.4184504e-05
  2.5535375e-05
  7.6253047e-05
 -8.4451101e-05
 -3.8397058e-05
  1.2687632e-04
 -3.0219748e-05
 -5.1018058e-05
 -2.8663240e-05
 -2.6281891e-06
  2.3923396e-05
 -8.9476205e-02
 -3.4689856e-01
 -1.3204919e-01
 -1.6046641e+00
 -6.5312803e-02
  2.4272029e-03
  2.6979278e-05
  1.1202525e-05
  2.6684842e-04
 -2.1142891e-04
  1.3245683e-03
 -4.8965152e-04
 -6.6216362e-01
 -3.4000176e-01
 -7.7332295e-02
 -4.2527390e-01
 -5.0298925e-03
  1.9258657e-04
  2.0971140e-05
  5.6284771e-06
  2.3598105e-01
 -3.9912502e-05
  3.1310404e-04
 -1.0130967e-03
 -1.1508125e-04
 -7.2248964e-05
  2.8283717e-05
 -5.6286868e-02
 -2.0186001e-04
 -1.9640694e-04
 -7.2897762e-01
  2.6854578e-01
  5.4889411e-01
  3.3380726e-01
 -1.2218344e-03
 -8.9963399e-02
  1.9114848e-05
 -3.2110940e-05
  6.5081651e-05
 -1.6809272e-05
 -9.3142889e-02
  7.8943296e-04
 -7.9513505e-02
 -5.4054059e-02
  6.4827967e-05
  7.5677561e-04
  3.7557299e-03
  8.2160212e-02
 -4.9555210e-06
  1.6215701e-01
  8.4281906e-02
 -3.8767666e-05
 -1.6890462e-01
  1.4031568e-01
  5.0975945e-05
  1.1556678e-01
  5.5678167e-05
 -7.8842305e-02
  1.6378764e-05
  7.0959715e-05
  2.8380740e-01
 -2.1837666e+00
 -1.2240226e+00
 -3.8071680e-01
  7.3365051e-01
  1.6039368e+00
  3.2023829e-04
  7.0339593e-05
 -1.3716513e-02
 -2.0411567e-01
 -4.0821588e-01
  2.8293926e-04
  1.0192964e+00
  5.3991873e-02
 -1.7415436e-01
 -2.9373834e-01
 -1.1566040e-02
  4.0141646e-02
 -3.7933597e-01
 -4.0055948e-01
 -4.2373377e-01
  1.8115574e-01
 -3.3677727e-01
 -9.9277064e-02
 -2.8404590e-01
 -4.6950262e-02
  5.4684360e-02
 -3.0915919e-01
 -9.8582525e-03
 -2.1873927e-01
 -3.6843835e-06
  7.7622235e-01
 -1.2200437e+00
  1.4118679e-04
  1.9308329e+00
  1.5896106e-04
  2.3555951e-02
 -1.0186477e-04
 -3.8413949e-05
 -6.4544955e-05
 -6.3933468e-05
  2.8606764e-05
  1.2050990e-04
  1.2386348e-06
 -6.2846363e-01
 -1.4847565e-04
 -1.7870846e+00
  7.4129071e-05
  2.4020803e-06
 -7.9195029e-01
 -6.7149493e-05
 -2.5457679e-05
  3.3633136e-05
  1.0300714e+00
 -1.4881693e-01
 -4.4392591e-04
  7.3154283e-01
  5.5855016e-05
 -4.5386962e-05
  8.3935311e-06
  1.0084170e-05
 -1.7736924e-05
  1.7166277e-04
 -1.7721808e-05
 -1.7858208e+00
  8.6876944e-06
  3.1501788e-01
 -3.3055004e-02
  1.3448521e-06
  9.2812854e-01
  8.1719809e-05
 -6.8706860e-05
  4.3511382e-06
  1.3821744e+00
  1.0019062e-05
  7.5258838e-05
  3.6298654e-05
  1.0950042e-05
 -3.2631731e-01
 -3.5122222e-01
 -1.3183576e-05
 -1.1559316e+00
 -1.3759432e+00
 -1.9644734e-05
  6.3676280e-01
 -4.5056986e-05
 -5.5742449e-01
 -2.4355430e-02
  3.0515575e-01
 -1.0683836e-04
  8.0921360e-05
 -4.4043463e-05
 -1.9088920e-05
  1.6895809e-05
 -2.5665777e+00
  3.8331139e-04
 -7.3634684e-01
 -1.4537578e-05
  6.1286271e-02
 -1.2216734e-01
 -5.5290264e-01
  3.7348759e-01
  4.2168413e-05
 -6.7386723e-01
  8.9774197e-01
  2.2026987e-04
 -4.3978083e-01
  1.4466702e-06
 -2.2952050e-05
 -5.2457381e-05
  2.2144963e-05
  1.7301814e-05
  3.1481335e-01
  4.0969502e-05
  4.3132046e-01
 -2.2132065e-06
 -4.4639894e-01
 -7.1897751e-01
 -2.6288303e-02
 -5.4971838e-01
 -3.0965159e-05
  6.3389467e-05
 -3.6058840e-01
 -1.5608945e+00
 -1.5080249e-05
  1.8179440e-04
  2.2069400e-05
 -6.1670548e-01
  8.2629365e-01
 -2.6074998e+00
  2.8288765e-05
  9.1598966e-05
 -2.1896562e-05
 -1.3322633e-04
 -2.1323223e-05
 -4.7285943e-05
  1.0267872e-04
  4.8407001e-06
 -9.0206871e-05
  5.3654949e-05
  4.8335820e-05
  2.5065657e-01
 -1.9482338e-04
  6.3104322e-05
 -3.5209745e-05
  2.4708761e-06
  1.0427905e-01
 -7.6521701e-06
 -3.7756698e-05
  5.6008794e-08
 -4.4963039e-05
 -5.0868544e-05
 -2.5654024e-05
 -4.6224709e-06
 -2.0723792e-06
  2.3441367e-04
  6.4809348e-05
  1.4712453e-05
 -2.6326132e-05
 -9.0662382e-07
 -2.6570091e-05
  8.9348381e-05
 -4.8596287e-04
 -2.0289946e-04
  3.8524866e-02
 -1.9221364e-04
  1.2209380e-01
  2.2504655e-05
  1.1073112e-04
 -2.3187635e-05
  3.2524724e-05
  1.1398370e-02
 -3.0594249e-05
  3.1515653e-03
  5.7678615e-05
  6.6254157e-05
  7.9191037e-02
  2.7322454e-05
 -2.5970722e-04
 -5.2134433e-06
  5.1401803e-05
  4.9385788e-05
 -1.0309072e-05
  2.4530469e-05
  7.1656003e-05
  1.1479445e-05
 -2.7460675e-04
 -1.0487620e-04
 -4.1877971e-05
 -2.0353230e-06
 -1.8999752e-01
 -1.6340045e-02
 -3.9378661e-05
  1.5941876e-01
  3.9579943e-01
  1.2751763e-01
 -9.9864472e-03
  1.9722318e-05
 -6.8802990e-05
 -7.0477836e-05
 -2.6814971e-04
 -1.0416378e-01
  3.0541962e-02
 -1.6813515e-01
 -3.7822705e-02
  5.3158838e-05
 -2.4350722e-01
 -1.6002672e-05
  2.7864324e-02
  2.1644366e-05
  2.7129379e-05
 -2.5401188e-05
  8.2819046e-05
  4.5516189e-02
 -4.0936047e-05
 -7.4480355e-05
  1.5870481e-05
  1.6325551e-04
  9.0268500e-02
  2.6063361e-05
 -6.3939515e-05
  1.3568484e-04
  1.1426138e-04
 -4.3571016e-04
 -3.9396256e-02
 -1.1813337e-04
  4.7278563e-06
 -9.0934394e-05
  3.6610255e-04
 -4.1200958e-02
  2.4228790e-04
 -1.9870217e-01
 -9.7744567e-05
  1.6187679e-04
 -7.2620601e-06
  2.2090762e-05
 -7.6691113e-02
  1.8289268e-04
 -2.6222868e-04
  7.2120318e-05
 -1.3792768e-04
 -1.0792346e-04
  1.3553954e-05
 -3.0235651e-06
 -1.5134832e-05
 -1.2201745e-04
 -1.7930099e-04
 -1.9582465e-05
 -2.3389617e-05
  4.7178288e-05
 -2.0284533e-05
  8.9480542e-05
  1.7600878e-05
 -4.4872955e-05
  7.8289951e-05
  6.8299392e-05
  1.8466431e-04
  1.0769479e-05
 -2.1203134e-04
 -1.1527959e-05
  1.2506747e-04
  6.0109236e-05
 -2.2560807e-05
  1.7728529e-05
  2.1527294e-05
 -5.0950490e-05
 -1.0387385e-05
 -6.7174398e-05
  2.7199360e-04
 -1.4338430e-05
 -3.6942100e-05
 -4.8104474e-05
 -1.1405882e-04
  4.3903874e-05
  1.4175878e-05
 -6.2031773e-05
  2.6181784e-05
 -1.3391198e-04
 -2.9013161e-06
  2.7463859e-05
  9.0362060e-05
 -6.2816885e-05
  1.4766646e-04
  5.9837734e-05
 -3.3004941e-05
 -3.6962803e-05
  1.2386887e-05
  3.4963108e-05
  1.3912336e-05
  9.3617993e-05
 -3.5424286e-04
 -2.2268747e-05
  2.7472184e-05
  3.7581647e-06
 -1.9201514e-04
 -7.2150382e-05
 -4.9804953e-01
 -2.0133735e-05
  3.4473400e-05
 -1.3390843e-04
  2.2283537e-04
 -6.2621271e-05
  1.6335907e-04
  1.3391385e-04
  9.1356594e-07
 -1.0541247e-04
  3.4457204e-04
 -4.3866872e-05
  2.5260933e-05
 -1.1707527e-04
 -1.7609516e+00
 -5.9274161e-01
  3.6126813e-01
  2.1700850e-03
 -2.0980008e-01
  1.5644811e-01
 -1.7792710e+00
 -4.8868603e-04
 -1.1253591e+00
  5.8476802e-05
  5.7122022e-01
 -6.2844612e-02
 -7.6134485e-01
 -1.6057372e-01
  1.8127693e-02
 -1.8015235e-05
 -1.0431048e-01
 -7.0582032e-01
 -1.3727273e-01
 -2.6864603e-01
 -7.5788994e-06
 -5.3654516e-01
 -9.2308940e-03
 -2.3924954e+00
 -6.7943503e-05
 -9.9252364e-05
  6.6843934e-02
  4.8692283e-04
 -5.4109329e-01
 -1.7949539e-01
  5.4458556e-05
 -1.3790593e-05
 -3.1329066e-05
  5.1551571e-05
 -1.7059456e-05
 -6.3314357e-05
 -1.8521170e-05
  1.6714867e-04
 -4.3171163e-05
 -7.5608674e-05
 -1.3281217e-05
 -2.2626895e-05
  3.0518495e-05
  8.8769411e-05
 -7.4031756e-05
  4.7293048e-05
 -7.6963406e-06
 -3.4469969e-05
 -9.1440361e-06
 -3.6060752e-05
  1.0794877e-04
  5.9211081e-05
 -2.8556791e-05
  7.9495469e-05
  8.4500512e-05
 -9.1705297e-05
 -1.7990587e-05
 -1.7675663e-04
 -9.3733528e-05
 -2.9682609e-05
  1.6728431e-05
 -1.0321139e-04
 -8.9255147e-05
  2.2654458e-05
  7.1400477e-06
 -2.6756430e-05
 -1.6834025e-05
  2.7377226e-05
  4.0183288e-05
 -3.9608971e-05
 -3.5609715e-05
 -6.6581890e-02
 -1.6692690e-04
  1.2057408e-04
  6.8657399e-05
  6.4770384e-06
 -2.6151321e-05
  2.8725844e-05
  1.0529169e-04
 -1.3445622e-05
  1.5688625e-05
  1.3834128e-05
  1.1057019e-05
  1.7918768e-06
  5.5985802e-05
  7.0206595e-05
 -7.3177762e-06
  1.8682244e-05
  1.0947829e-04
  5.1760551e-05
 -6.0485154e-01
  1.3472301e+00
  1.9321340e+00
  1.6440624e+00
  1.9709914e+00
 -7.5063145e-01
 -1.3569021e+00
 -7.3225731e-01
  6.2356792e-02
  1.4229138e-01
  1.7074864e-01
  9.0322949e-02
 -1.6204861e-01
 -4.7409749e-01
  1.3493726e-01
  8.3222739e-02
 -1.6486503e-01
 -7.6360280e-05
 -1.7987631e-04
  3.1231844e-01
 -6.3121719e-05
 -1.5912063e-01
 -1.2105884e-05
 -1.8144169e-01
 -2.1645375e-05
 -6.6791887e-05
 -1.0398851e-01
  1.4413761e-05
 -1.2255894e-01
 -1.7012878e-03
  2.2033184e-05
 -2.5563204e-05
 -7.0686809e-05
  2.9664288e-05
 -3.3443281e-05
  1.1019850e-05
  6.4516447e-05
 -4.8799455e-05
  5.8253577e-06
  2.6589752e-05
  1.7893910e-05
 -2.0135260e-04
  4.5676526e-05
 -2.0195524e-05
  1.9405885e-05
 -5.2784071e-05
  1.6151376e-05
 -7.2505250e-06
 -1.2936928e-05
 -1.9919120e-05
 -3.2610300e-05
  3.6558940e-05
  2.9349556e-05
 -6.2551640e-05
 -1.8914487e-05
 -4.9913720e-05
  2.5580530e-06
 -8.3669664e-05
 -3.8084345e-05
 -6.4825348e-05
  5.2741594e-03
 -3.9810365e-01
  6.9923764e-01
  1.4787652e-01
  8.7458658e-01
  3.2141215e-01
 -1.1945658e-02
  1.1136447e-01
 -2.6909843e-02
 -5.9201539e-01
 -7.4303295e-03
 -1.1760659e-01
  1.4107219e-03
 -7.9169556e-02
  3.6713213e-03
 -7.2003886e-02
  1.3307443e-01
 -2.6495345e-02
  2.2956121e-03
 -1.3249230e-01
  3.8990390e-02
  2.0791432e-03
 -8.6059063e-06
  7.9686902e-02
 -4.2651402e-05
 -2.4594974e-02
  7.1924612e-02
  1.3047714e-02
  3.3842459e-01
 -1.1057195e-02
  6.0685859e-05
 -2.0163254e-05
  8.4872248e-05
 -2.7626604e-05
  1.0979304e-04
 -5.2870287e-06
  1.3736336e-04
  1.5346329e-04
  2.2390890e-05
 -1.1849501e-05
 -4.4045369e-06
  9.7142538e-06
  1.3073998e-04
 -7.6771124e-05
  6.0609149e-05
  8.0736369e-05
 -7.4301613e-05
  5.5271379e-05
  5.6884028e-06
 -2.0130732e-05
  1.5929936e-05
  6.3020103e-05
 -1.5395723e-05
 -1.1345968e-04
  1.5479302e-05
  1.7540401e-04
  6.6890054e-05
  7.0885711e-05
 -1.2276601e-04
  6.3893523e-05
 -4.8037520e-05
 -1.7609648e-04
 -4.0231698e-05
  4.0580129e-04
 -3.0675299e-05
 -2.6062573e-04
  1.1330132e-05
  6.8942842e-05
 -2.9765024e-05
 -2.3106804e-04
  2.0590629e-05
 -3.4485740e-05
 -1.1384444e-04
 -6.2770991e-06
  2.1057658e-05
 -4.9839691e-05
  1.4606083e-05
  7.3037486e-06
  1.7332721e-05
 -4.3921329e-05
 -1.4991330e-05
 -5.5488777e-05
  6.4521660e-06
  4.6676498e-05
 -5.8192272e-06
 -3.2446977e-05
 -2.4045044e-05
  7.7698147e-05
  6.6087785e-05
 -2.0933445e-04
  1.1361488e-04
  8.2481845e-04
  5.2105464e-05
 -4.2862602e-02
  8.2822722e-01
  5.4593431e-05
  8.1671681e-03
  1.3662985e-05
  2.4009420e-04
  3.5385987e-05
  1.4498287e-04
 -1.5997912e-01
  1.9815852e-06
  1.1005628e-01
  2.1271655e-05
  3.0550898e-05
 -1.2517618e-02
 -1.7849550e-05
 -1.9693766e-04
  1.2745561e-04
  2.7944793e-06
  5.9066468e-07
  3.2882057e-05
 -2.2243043e-04
  4.1210638e-05
  9.6641699e-05
 -5.9990123e-02
 -5.3915981e-04
  2.8287401e-05
  4.5107140e-06
  6.9256319e-05
 -9.0909336e-05
  6.9133574e-05
 -2.2396799e-03
  4.5708348e-05
  4.6804304e-05
  8.0634061e-05
  5.3010253e-06
 -7.8609191e-05
 -1.4587473e-08
  4.1163071e-06
 -3.0882584e-03
 -1.3726397e-04
  8.8883724e-05
  1.9723516e+00
 -2.0122712e-05
  2.5690731e-04
 -7.2140254e-05
  1.6472661e-05
 -1.2827401e-06
  3.1546024e-05
 -6.1278181e-05
  2.5606718e-05
  1.4091141e-06
  1.1113421e-04
 -3.6117619e-06
  8.5102338e-06
  1.5461619e-04
  2.3622590e-05
 -6.9746842e-05
 -3.5374460e-06
 -7.4173367e-06
 -8.2837259e-06
  5.3741438e-05
 -1.7864033e-04
  7.6475426e-06
  5.8963113e-05
 -3.5001380e-05
 -1.3555854e-04
 -5.0116341e-06
 -4.4636225e-05
  2.5710006e-05
 -3.5214784e-06
  9.6075535e-05
 -1.9677302e-05
  1.2154776e-05
  3.8093687e-05
  9.9277830e-05
 -1.5329992e-04
  2.9476156e-05
 -5.7020375e-06
 -1.3209088e-04
 -3.0772484e-05
 -2.5372933e-06
 -6.2848507e-05
  6.9037080e-05
 -5.0826842e-05
 -2.6229282e-06
 -3.3067947e-05
  1.8503530e-04
  7.6354343e-05
 -2.0775202e-01
 -1.1535277e-05
  6.0957980e-01
  4.0909785e-01
 -4.5595716e-05
 -3.8684356e-01
  3.0576607e-06
 -1.3343842e-01
 -3.4178435e-03
 -4.9258109e-02
 -1.7674668e-02
 -1.8266392e-04
 -3.1340603e-02
 -8.2558683e-05
  6.2958148e-05
 -4.4050545e-02
 -6.3731852e-05
  1.0691681e-05
 -1.4667869e-04
  2.6080838e-06
  4.0367860e-02
  3.2724824e-05
  2.3644594e-02
 -3.4185682e-04
  1.9483874e-05
 -2.0425443e-01
  1.0888837e-03
  6.6026585e-04
 -1.1412721e-03
  3.1411906e-05
 -1.3212620e-04
 -6.7939756e-05
 -2.7643291e-06
 -6.1662475e-05
 -8.3739062e-05
 -9.9144519e-05
  3.8889870e-05
 -2.6623149e-05
  1.3369713e-05
  3.6133537e-05
  8.6875468e-02
  4.9031063e-05
 -6.4668973e-05
  6.0544417e-06
 -5.7640013e-05
 -3.1570764e-03
  1.6576190e-05
 -2.7637972e-05
  6.7499808e-05
 -6.5210870e-06
 -4.1411920e-05
  2.5190740e-05
  7.3794872e-05
  1.4813523e-05
  3.1335574e-05
  4.5528290e-05
  5.7621797e-05
 -1.9703984e-04
 -5.3899865e-05
  3.6149293e-05
  4.8407877e-05
  1.4198607e-05
 -1.1105993e-04
 -1.8178641e-04
  2.3279024e-05
  1.0514200e-04
 -1.0622929e-04
  5.6741002e-05
  2.3542967e-05
 -4.2087639e-05
  1.0466167e-01
 -8.1645383e-05
  1.7112543e-05
 -1.1454728e-04
 -3.9546288e-05
  7.7814222e-03
 -6.4913102e-06
 -4.6641057e-05
  1.0225046e-04
  6.4764049e-06
 -2.6306207e-04
 -1.8243289e-05
  2.8906461e-05
  8.9255285e-05
 -3.7200745e-05
 -2.0882589e-04
 -2.5678502e-05
 -2.7305659e-05
 -8.0146034e-05
 -4.1488362e-05
  3.8932161e-05
 -1.0776529e-05
 -5.4373970e-05
 -3.7477133e-01
  5.5532004e-05
 -3.5040899e-05
 -2.0866513e-05
 -1.0506433e-04
 -2.6070315e-04
 -9.8316668e-06
  7.4691423e-05
  2.3075312e-05
  3.9040624e-06
 -5.9754489e-05
  3.5085322e-05
  2.6705866e-05
 -3.8250546e-05
 -2.6987444e-05
  6.4038213e-05
 -3.1630469e-05
  2.4651528e-05
 -8.9851361e-05
  2.9085239e-05
  1.3294918e-04
  1.0286332e-04
 -1.9854473e-04
 -5.4516273e-05
 -1.2854292e-04
  2.1002817e-04
 -3.4266216e-04
  1.5605228e-04
 -1.3497246e-04
  4.0712068e-05
  2.3450626e-05
 -1.5148552e-05
  4.0153682e-05
  7.7445256e-06
  3.0663933e-04
  4.6781450e-05
 -6.6850524e-05
  1.7565339e-05
  3.3856621e-05
 -1.4446968e-04
 -1.7029836e-04
 -5.4927586e-06
  2.3455328e-05
 -2.1855938e-04
 -3.0693176e-05
 -5.0614675e-05
 -5.4398410e-05
 -3.5067782e-04
  3.4273726e-06
 -2.2652224e-05
  4.9949113e-06
 -4.0826180e-05
 -1.9360512e-05
  1.7833390e-05
 -3.6846206e-05
 -1.0096715e-05
  3.5813369e-04
 -2.5102498e-03
 -6.4364725e-01
  3.2657531e-01
  4.5787152e-03
 -8.0443475e-05
 -1.7356558e-01
  6.8581554e-05
  4.0809879e-05
 -5.9350573e-06
 -1.3420255e-03
 -3.0057162e-01
  2.2526525e-01
 -3.5894607e-04
 -4.7469966e-05
  6.0502131e-05
 -2.1458969e-05
 -1.0838236e-05
 -8.7991530e-06
 -4.0660168e-05
 -5.8431619e-05
 -3.8118906e-05
 -3.5620626e-06
  3.6336452e-04
  7.0595520e-06
 -5.6865694e-05
  2.0320956e-02
  1.3492147e-05
 -7.8940291e-05
 -7.3500829e-05
 -3.1603868e-05
 -1.6335469e-05
 -7.9543737e-05
  2.9119958e-05
  1.3550841e-06
  3.0028539e-05
  5.1900763e-05
 -7.3952746e-05
  1.9801446e-05
  2.7892096e-05
  4.3697319e-06
  3.6463105e-05
 -5.1527244e-05
  1.8016619e-04
 -1.4684620e-04
 -2.3210096e-05
 -3.5340227e-06
  4.7254369e-05
 -2.1198270e-05
 -3.1595173e-05
  1.6028645e-04
  1.3293774e-04
 -8.8946552e-05
 -3.4303881e-05
 -4.0054361e-05
  1.4726291e-05
  1.0544369e-04
  1.6348559e-04
 -5.5660017e-05
 -2.7062428e-05
  1.7426780e-07
  9.8712379e-05
 -1.3234963e-04
  7.0088950e-06
 -1.6013868e-05
  5.3465967e-05
  1.7020655e-04
  4.3979444e-06
  1.2730077e-04
 -3.2273074e-05
 -2.7770357e-05
 -1.7933527e-05
 -7.3951291e-05
 -1.1632485e-04
 -1.5019396e-05
 -1.4216189e-04
  4.1166466e-05
 -3.6181991e-05
  1.3629941e-04
  1.3172584e-05
 -1.9993993e-05
  9.9608922e-05
  5.3266955e-05
  1.5658620e-04
 -5.2806041e-05
 -1.6884784e-05
  7.9959624e-05
 -7.0348037e-06
  1.1368435e-06
  4.3414439e-05
 -6.2012327e-01
  7.4681562e-01
  2.3775662e-01
 -9.8534524e-02
  1.0041013e-01
 -2.7604952e-01
  1.3447498e-01
 -2.6921278e-01
  1.0655060e-01
  2.3831287e-01
  3.0559653e-01
  8.5025299e-01
 -9.3962647e-02
  2.0978314e-01
 -1.6042978e-03
  1.1336291e-04
  5.6226190e-02
  1.3954614e+00
  1.5244313e-02
  1.1346551e-01
 -5.9333402e-03
  1.7697641e-01
 -1.2344602e-01
 -4.1851033e-03
 -2.3260682e-05
  1.6034512e-01
  7.3462605e-02
  1.8784730e-01
  5.8091623e-01
  3.4166940e-02
  3.6139885e-05
 -1.4867197e-05
  5.3378695e-05
  8.2286540e-03
 -7.1924856e-06
 -3.7964319e-06
 -1.8714428e-04
  1.6295727e-06
 -3.6979745e-05
 -2.6624405e-06
 -1.5693119e-04
 -1.5088065e-01
 -2.6181884e-05
 -2.4917257e-01
 -1.5682929e-04
  1.1798273e-04
 -4.0572218e-06
 -2.9680673e-06
  5.8311980e-06
  9.4365045e-05
  1.0970368e-04
  1.6476781e-04
  1.2328077e-04
  3.6496282e-04
  6.0987200e-05
 -1.7452736e-05
  1.2802286e-03
  1.1586217e-04
  2.2213085e-06
 -3.7954604e-05
  3.7179005e-05
  2.6070133e-05
 -1.0677625e-04
  8.0944454e-05
  4.1324693e-05
  1.0057868e-04
 -1.4467785e-04
  8.1617486e-07
 -4.3505799e-05
 -5.4121450e-05
  4.0581336e+00
 -8.4086314e-06
 -2.0886042e-05
 -2.8819881e-05
 -1.0916121e-05
 -5.1758889e-05
  5.2503936e-05
  1.6811122e-05
  2.5671789e-05
  5.4799930e-05
 -2.7256323e-05
 -2.8628783e-05
  2.6980726e-05
  7.7315444e-06
  7.4597578e-05
  1.4808336e-04
 -4.0348688e-05
  2.1940068e-05
  3.2380540e-05
 -7.8766709e-05
  6.7242408e-01
 -4.1518441e-01
 -1.4208972e+00
 -5.8818698e-01
 -1.7073071e+00
  2.5821045e-01
  5.9123635e-01
  2.5111535e-01
  5.5905151e-01
 -2.3684226e-01
 -3.8305423e-01
 -1.7050179e-02
  1.9981444e-01
 -1.5405307e-02
  7.9623096e-05
  1.5116472e-06
 -2.6764479e-01
 -2.2158560e-05
  3.2137564e-04
 -1.4069941e-04
  8.4654521e-06
  1.5954249e-01
  7.1778908e-05
  2.3246702e-02
  1.1311356e-05
 -5.1230077e-06
 -2.4697962e-01
  3.5230704e-02
  2.0177300e-01
  6.0970365e-06
 -1.2840350e-01
  9.9153244e-01
 -2.3830504e+00
 -4.8542500e+00
 -1.5746872e+00
  4.8281905e-01
  2.5082188e+00
  2.6580879e-01
 -2.5272783e-04
 -7.3729360e-01
  1.0547471e-01
  8.3025098e-01
  6.2366837e-01
 -3.6633711e-02
 -6.1617160e-01
 -1.6348854e-01
  1.5053482e+00
 -2.1299725e-02
 -1.2395508e-04
 -1.0826821e-01
 -4.6908131e-05
  4.4723973e-02
  6.9567632e-06
  4.9196398e-03
 -3.4785924e-05
  8.2559371e-03
  3.2211688e-01
 -9.8277263e-02
  4.8851386e-02
  2.2824997e-01
  2.6102214e-05
  1.6461441e-04
  4.8814087e-05
 -2.1098796e-04
  3.6330090e-05
 -1.0024335e-04
  9.7578537e-05
 -1.6393907e-04
 -7.8761259e-05
  2.8437809e-05
 -3.0039973e-05
  1.3510974e-01
 -5.2654173e-05
 -1.9363202e-05
  1.2389597e-04
  6.7705187e-05
  1.2129188e-01
  4.8949161e-05
 -3.9310329e-05
  3.0358793e-05
 -4.0879324e-05
 -2.1942868e-05
  9.6714812e-06
  2.5326974e-05
 -1.0116709e-04
  1.3027940e-04
 -1.4890838e-04
 -3.0696401e-04
  3.4487981e-05
 -1.6395283e-06
  1.4640491e-04
 -3.7614383e-02
 -2.6114690e+00
 -3.5353973e+00
 -6.0396600e-01
  2.7077770e-01
  3.4088273e-02
  3.4619722e-04
 -6.5736973e-01
 -3.8080354e-05
 -5.5627348e-03
 -7.9690641e-01
  8.5650814e-01
 -1.7503551e-01
 -8.5963935e-01
  6.0069917e-05
  7.6625085e-01
 -8.5209414e-02
  9.9470482e-05
  3.4339607e-06
  7.7286968e-05
  1.1639643e+00
 -3.8213606e-05
  1.4924520e-03
  4.3248143e-05
 -7.3181454e-06
  1.9751059e-01
  3.4909365e-01
  1.0811300e-04
 -6.2493896e-06
 -1.7417491e-03
  5.6355757e-01
 -2.0943606e+00
  1.8098357e+00
 -1.5330409e-01
  4.2238501e-01
 -4.1512781e-01
 -3.8089936e-05
  1.6142934e-04
  3.1322976e-05
 -5.2043368e-05
  8.2020372e-01
  1.5154241e-05
 -5.8133151e-02
 -1.4972594e-01
  9.9268090e-04
  4.1815177e-01
  5.0983101e-01
 -1.5055588e-05
  3.0941141e-04
  7.8782041e-06
  5.2914575e-02
  1.7235659e-04
  8.5813510e-05
 -2.8614703e-04
  1.9245508e-05
 -1.1828441e-01
 -8.8124014e-03
 -3.4122274e-04
 -3.1866546e-06
 -2.5358609e-05
 -4.3511398e-05
  1.8827899e-04
 -7.9831028e-05
 -7.3102972e-05
 -4.4602257e-05
  6.1765124e-05
  7.3447832e-06
 -6.6233447e-06
  1.8271810e-05
 -3.8919345e-05
  8.1388189e-06
 -8.7564702e-05
  4.5786601e-05
 -6.4344233e-05
  9.0597803e-07
 -1.5455541e-04
  5.8859547e-05
  5.4318247e-05
  3.0791714e-05
  4.8153651e-01
  3.5877878e-05
 -6.0170954e-05
  9.2071445e-05
  9.6343050e-05
  9.0942391e-05
 -7.9214318e-05
 -3.4093217e-05
 -1.8071206e-06
  2.6668160e-06
 -6.6635970e-05
  1.6533415e-06
  2.9011999e-05
  1.2505979e-05
 -7.8034522e-05
  9.3487706e-06
 -1.3378005e-04
  1.1602265e-04
  5.4649303e-05
  4.4725759e-05
 -2.9632451e-05
  5.5255776e-05
 -5.1757299e-05
  3.6996717e-05
 -4.0629442e-05
 -3.1403848e-05
 -9.4913092e-05
  1.1939381e-04
 -4.9098686e-05
 -1.0687018e-05
 -6.5279484e-05
 -2.6256571e-06
  5.6746239e-06
 -4.7387450e-05
  9.9734578e-05
  3.8349321e-05
 -1.6633176e-05
  9.2937744e-06
  1.9780804e-05
  8.4590029e-05
 -2.7323094e-01
  1.0693589e-01
 -1.5707882e-04
 -6.4804544e-06
 -8.8933669e-02
  3.6081616e-05
  1.1164833e-01
 -1.8813375e-04
  5.3798538e-03
  1.0495420e-05
  1.0076150e-02
 -2.8296742e-01
  2.6789106e-05
  1.1922584e-01
 -9.1156016e-06
 -1.5229782e-05
  4.3022519e-01
  3.2981453e-04
 -2.6012622e-04
  9.7747936e-05
  6.5652865e-05
 -1.0028041e-06
 -8.8306377e-05
 -4.2426068e-04
  4.8192898e-05
  1.6713006e-04
 -2.7954595e-03
 -3.1549766e-04
 -1.1399999e-05
  7.0931470e-05
  1.4610484e-04
 -2.5776721e-04
 -7.2251581e-02
  6.4532585e-02
  2.6833226e-03
 -1.0958147e-04
 -1.2494217e-02
  7.4914162e-05
 -2.3850068e-04
 -2.7415418e-04
 -4.7563383e-04
 -8.8757166e-04
 -2.1400328e-01
 -1.6789698e-03
  4.0721749e-05
  8.6834931e-05
 -9.9582188e-03
  1.1466099e-05
  1.2839591e-04
 -8.9022586e-05
 -8.0597047e-06
  8.7992521e-05
  2.1157770e-05
 -8.5406667e-05
  3.9026600e-06
 -1.2772172e-04
  2.1266667e-04
  2.2408820e-04
  3.0101928e-05
 -3.1372605e-05
  3.3534786e-06
  4.6364086e-05
 -7.8553494e-05
 -2.3296233e-02
  8.2234932e-05
 -9.6866261e-06
 -1.3861283e-04
  5.7957359e-06
 -1.4135478e-05
 -7.7672070e-05
 -7.7985045e-05
 -6.7784108e-06
  6.8324924e-05
  6.1571584e-05
 -1.4084070e-05
 -5.0116458e-05
  2.8081015e-02
 -6.1727871e-05
 -1.0072080e-04
  1.2734559e-05
 -9.0306603e-05
 -2.5464319e-06
 -2.0264046e-05
  4.2326712e-05
  3.1020740e-05
  7.5071412e-06
 -3.9463859e-05
  6.8910418e-07
  3.6173613e-05
 -1.9900035e-04
  2.8473669e-05
  1.7567110e-05
  2.0575345e-01
 -6.9412702e-01
 -2.3541595e-01
 -5.4178909e-06
  2.8703442e-01
  1.2606189e-05
  1.6897010e-04
 -1.1888787e-05
 -7.2855164e-06
  8.0336183e-01
  8.7242748e-05
  6.1198400e-05
  8.7784676e-05
  1.2650832e-05
  5.1454997e-01
 -3.9927068e-05
 -1.1870291e-04
  5.8963633e-05
 -3.4799239e-05
 -1.0203297e-04
 -2.2114954e-04
 -6.2888007e-06
  9.9814686e-05
  2.4651428e-04
  1.1221135e-04
 -3.1879978e-04
 -8.7841392e-05
  7.2682080e-05
 -2.3872224e-05
  4.1715582e-05
  2.8495891e-05
 -1.1481223e-04
 -1.0383182e-04
  1.0106773e-04
  1.2226269e-04
  4.3622831e-06
  7.6299795e-05
  7.0399532e-05
 -4.2551270e-05
  2.9733728e-05
 -4.5343470e-05
 -3.0235842e-05
 -2.3095474e-05
 -6.6410787e-05
 -1.4579703e-05
 -2.5585477e-06
 -5.7322912e-05
 -1.3119783e-04
 -1.0218569e-05
  4.4483068e-06
  3.2418615e-05
  5.1007130e-05
 -1.1566425e-04
 -1.6654220e-05
 -1.9610370e-05
  3.4868058e-06
  1.3322626e-04
  2.3508480e-06
  3.1339926e-01
 -1.2031900e-01
  1.0929846e+00
  1.9559123e-01
  9.9423224e-01
  1.1108975e+00
 -1.0883261e-01
  3.8408563e-02
 -6.1839797e-02
 -1.9351263e-01
 -6.1688736e-02
  1.2449114e+00
 -1.2459372e-02
 -1.4425942e-01
  5.0827935e-02
  5.8555248e-04
 -2.9305581e-03
 -3.3515827e-03
 -3.9896938e-01
 -4.5328457e-06
  1.3617416e-04
  5.3499449e-02
  4.6209847e-05
  7.1192227e-07
  3.3273333e-05
 -2.3260451e-04
 -9.8893963e-02
 -2.1651471e-01
 -2.4609613e-05
 -1.2453010e-02
 -1.1973918e-05
  2.7493757e-04
  1.3630550e-01
 -1.7076717e-03
 -1.6762130e-03
  3.1875035e-05
  9.9447705e-02
  4.6740923e-05
 -2.5650268e-04
  1.3298634e-04
  5.3935556e-04
 -6.5024227e-02
  1.4884838e-01
  2.7282865e-06
 -1.4387685e-05
  1.4155052e-04
  1.9833907e-03
  5.3205327e-05
  1.6898301e-06
  1.6170210e-05
 -2.6712148e-04
  1.2180039e-04
 -2.4174607e-05
 -2.3078505e-06
 -2.9698991e-05
  9.1756170e-05
 -5.3174056e-02
 -2.8797915e-05
 -9.6095217e-05
 -7.3345341e-06
  2.6552510e-05
 -1.5572943e-04
  5.5486511e-05
 -1.4290157e-06
 -2.3519811e-05
  2.8075281e-06
 -1.5182893e+00
 -7.4639265e-06
 -4.2628631e-05
 -2.6058715e-05
  4.3946973e-05
 -5.8182632e-05
 -8.6828113e-05
 -5.7763327e-06
  3.7587015e-05
  1.7908700e-04
  1.4602063e-04
  6.4245738e-05
  1.7549588e-04
  3.7846901e-05
 -1.2692532e-05
  1.0194884e-05
 -7.7459672e-06
  4.1807572e-05
 -3.5697009e-05
  2.4294231e-05
  3.2539723e-05
 -5.9881408e-05
  2.0190813e-05
 -1.4575904e-05
  6.9639020e-05
 -1.4135424e-05
 -2.0353042e-05
  8.2526218e-05
 -4.0173974e-05
  9.4175575e-06
 -3.2293687e-05
  3.2410193e-05
 -1.1724620e-04
  1.2471556e-04
  9.7942328e-05
 -6.9830574e-05
  8.1680540e-05
 -7.2480681e-05
 -4.0629508e-05
 -4.8869326e-05
 -1.7569444e-04
 -8.8273146e-06
 -2.6234620e-05
 -1.7315049e-05
 -8.4098674e-06
  1.7171237e-06
  5.5345076e-06
  1.2602844e-05
  1.5255022e-05
  4.6581928e-05
 -1.9744446e-07
  5.4553489e-05
 -3.7082402e-05
  3.9662562e-05
  4.7623345e-01
  3.0043176e-01
 -2.9858522e+00
 -1.1621222e+00
 -3.3026159e-01
  2.3355564e-01
  8.2736373e-01
  1.4789771e-01
  2.8520668e-01
 -7.4229771e-01
 -5.4628130e-05
  4.8666137e-01
  3.1609133e-01
 -1.4296287e-01
  3.0225885e-04
 -1.7477602e-01
  3.5405323e-01
 -8.6446309e-01
 -6.3457097e-05
 -4.3933299e-01
 -2.9922143e-05
  7.1249116e-05
 -2.8962255e-05
  1.0319696e-04
  1.0463616e-04
  5.4830092e-05
  6.3507900e-02
 -2.1534677e-05
  3.8412414e-04
  1.6127835e-05
 -3.2255419e-05
  4.7574539e-04
 -3.9323328e-05
 -1.0821481e-04
  3.5772235e-05
  6.2133760e-05
  1.0959399e-04
 -1.6328371e-05
  9.8466488e-05
  4.1224146e-05
  1.2271939e-04
  2.1029327e-03
 -3.1528765e-05
  2.1329549e-01
  5.2089970e-05
 -1.2046262e-04
  2.1597956e-01
  1.0443748e-06
 -4.6616344e-07
  4.8517149e-06
 -1.1269836e-04
 -1.2514060e-05
 -8.8790126e-05
 -7.0429783e-06
 -1.7221067e-04
  1.8033053e-05
 -9.0561000e-05
  3.4820579e-05
 -8.4142986e-05
 -1.6485836e-04
 -2.7201246e-05
  8.2801664e-03
 -3.1587914e-01
 -2.4908188e-01
  4.8323435e-01
 -8.1206868e-05
  2.5032976e-01
  4.0478872e-06
  8.6366097e-05
  9.4530014e-06
  1.3310656e-01
 -1.7983444e-01
 -3.6000235e-03
 -9.5608420e-06
  1.3988516e-03
 -8.0924816e-05
  5.7135675e-02
  4.6680136e-05
  2.9023988e-05
  1.7270663e-04
 -4.1750802e-05
 -2.1825430e-04
 -8.4995045e-06
 -1.4980420e-04
  2.5409259e-05
  1.3681181e-04
  1.1660410e-04
 -7.2623407e-06
  3.7030051e-05
 -2.5971780e-05
 -4.8068483e-05
 -1.1188148e-04
 -2.1354250e-04
  3.5156674e-05
 -1.6733195e-05
  5.7943213e-05
 -6.6198343e-05
 -6.0702805e-05
  4.6137717e-05
  6.1835592e-05
  1.0994690e-05
  6.8817849e-06
  2.1992611e-05
 -6.1209553e-06
  8.9369139e-05
 -5.5775781e-05
  2.3876727e-04
 -2.2721686e-05
 -3.2576794e-05
  2.3683673e-05
  3.9768216e-05
 -1.8541888e-05
 -1.1482495e-06
  2.7790043e-06
 -9.6068034e-05
  1.0097090e-05
 -8.4806015e-05
 -4.4064371e-05
 -2.4730105e-05
  4.4744582e-05
  3.8957536e-05
  2.3095317e-05
  1.0085602e-05
  2.0450640e-05
  3.2471758e-05
 -3.3133387e-05
  6.6240187e-05
 -6.1759765e-06
  3.6029476e-05
 -1.8250283e-04
  1.7021866e-05
  3.4983605e-05
  1.3874520e-05
 -4.9985061e-05
  6.1425060e-05
 -4.0207120e-05
 -7.5684613e-05
  9.7865799e-05
  3.3268338e-05
  4.1566891e-05
  2.7444416e-05
  2.3740073e-05
 -5.5842225e-05
 -2.2696742e-05
 -5.4800098e-06
 -7.4453841e-05
 -6.2470404e-05
 -5.1991428e-05
  3.4608879e-06
  4.4314405e-05
 -1.2635681e-05
 -2.3507890e-05
 -9.4114745e-05
  8.2050581e-05
 -2.5109020e-06
  8.0650549e-05
 -2.2164279e-06
 -5.1404731e-05
  9.2074333e-06
  9.0803433e-06
  4.8393169e-05
 -2.8067630e-05
 -2.1722773e-05
  3.9159429e-05
 -6.2361498e-05
 -1.4827007e-05
 -1.3111287e-05
  4.0418136e-06
 -7.7113596e-05
 -2.0059091e-05
 -1.7530603e-05
  3.2428397e-05
 -3.1792818e-04
  4.8761802e-05
  4.1045350e-05
 -9.4573676e-07
  1.4670961e-05
 -3.3613713e-05
  5.1219551e-05
 -7.6264992e-06
 -1.3260761e-05
 -2.3852012e-04
  1.0307174e+00
  1.0720169e-04
 -6.1780636e-05
 -1.3621498e-04
 -1.1370977e+00
  5.0760522e-05
  6.5059518e-05
 -1.3444721e-03
 -2.2380478e-05
 -4.3033478e-01
 -6.0312846e-06
 -1.2160138e-04
 -3.6238185e-01
  4.5796045e-05
 -6.6526723e-06
 -1.8609693e-05
  1.5103475e-04
 -9.0389025e-05
 -8.9034002e-05
 -2.7205797e-05
  3.7513614e-01
  4.6993573e-05
  3.3089076e-04
  1.0313689e+00
  2.9600433e-05
  5.5561803e-05
  4.7070336e-01
 -9.1024971e-01
 -1.6021528e-04
 -8.2722878e-01
  3.4780760e+00
  3.3305318e-05
 -2.9952425e-05
 -4.0727424e-05
 -6.4249623e-05
 -1.7911007e-05
  5.5703036e-03
  7.9817059e-05
  7.3338039e-02
 -6.7061949e-01
  1.3306933e-04
 -3.6984689e-05
 -2.7464497e-01
  7.0640985e-05
  1.8023286e-02
 -1.7688448e-04
 -8.3294144e-06
 -6.2148414e-05
  1.3230696e-01
  2.4240117e-01
 -1.4281520e+00
  2.0704438e-01
  1.1622377e-04
 -2.2464684e-01
 -7.5116754e-01
 -3.7170999e-02
 -2.6856385e-05
  1.4648411e+00
  1.8035607e-05
 -1.4179419e+00
  4.0618739e-05
  3.2412490e-07
  4.2624173e-01
 -1.3732845e-01
  1.1350863e-04
 -5.1940483e-01
 -8.4280297e-02
  1.4830880e-01
  6.9666520e-02
  1.3650961e-05
 -3.1913128e-01
  5.1706138e-05
  2.4145256e-05
  8.6961526e-01
 -2.4921268e-01
  4.9524317e-03
 -7.5350386e-01
 -7.2060430e-01
  1.5162884e-01
 -3.0806664e-01
 -3.3337370e-01
 -5.7719091e-05
 -4.7583682e-05
  3.6600706e-01
 -2.5644466e-01
 -8.2624429e-05
  2.1417476e-01
 -4.3919557e-04
 -7.9500151e-01
  3.8725698e-01
 -1.9329134e-02
  6.9246365e-05
 -1.1611698e+00
  2.5048268e-01
  3.7526587e-01
  7.2321302e-05
  5.4709241e-02
 -1.4705211e-05
  5.5314431e+00
  7.3479980e-01
  2.4985670e-01
  3.2579937e+00
  1.1934080e+00
 -6.3711244e-01
  5.9694052e-01
 -7.5750160e-01
 -3.1560630e-02
  6.9729403e-02
  7.3434826e-04
 -1.5808018e-02
 -3.4672296e-01
  7.0774752e-01
  1.4150232e-05
 -6.6072462e-05
 -2.4903782e-05
 -1.0067214e-04
  4.3425654e-05
 -1.0426105e-02
  6.6355127e-01
  7.1612161e-01
 -1.8263170e-01
  1.1224540e-04
  2.5065562e-01
 -3.6730087e-01
 -2.1145082e-05
 -6.9547928e-06
  9.3530357e-01
  3.4631546e-05
 -2.9255334e-01
 -4.3380424e-01
  8.5452586e-01
  2.6994607e-01
 -1.4825978e+00
 -2.2825690e-02
  7.9878811e-03
  4.2707086e-01
 -1.4362930e+00
 -2.1469567e+00
  2.8450196e+00
  1.2827328e-04
  7.3490039e-02
  9.3717086e-01
 -2.0397165e-05
  1.5257062e-04
  1.9867513e+00
  7.2254143e-06
 -1.1353723e+00
 -4.6735140e-03
  7.5739447e-04
 -8.2254481e-01
 -1.4331843e-01
 -1.4642059e-04
 -3.1292561e-01
 -1.5097193e+00
  9.0076905e-01
 -3.5399582e-02
  3.0955846e+00
 -3.6149383e-01
 -2.6153910e-01
 -8.4436727e-01
 -1.4082668e-03
  4.3103424e-01
  1.0637132e+00
 -3.8518019e+00
  4.7730256e-02
  4.9980946e+00
  1.7344236e-04
 -1.4027478e+00
 -1.0506924e-01
 -1.1886670e-01
  2.1237914e-01
  1.8370233e+00
  5.3573281e-01
 -1.1391781e-01
 -1.4588043e-01
 -4.1942853e-02
  1.1495327e+00
 -6.8701684e-02
 -3.3321754e-05
 -5.2836084e-01
 -2.2740139e-01
  2.4273660e+00
  7.3780864e-01
  2.1020980e-01
  1.0694937e+00
 -1.9096513e-01
  9.7724366e-01
  2.0049492e-01
 -2.3275006e-05
 -9.3793112e-01
  8.1907880e-01
  8.6540878e-01
 -7.6101732e-01
 -6.2756146e-05
  3.1071359e-05
  8.7823631e-05
  1.3647317e-04
  4.3803695e-05
  3.8649504e+00
 -1.7498343e+00
  9.0673637e-01
  7.4457997e-01
 -3.6414984e-01
 -2.4485583e+00
  1.4311947e-02
 -1.5128955e-03
 -3.5227824e-04
 -2.1999676e+00
  1.2429241e+00
  4.7976375e-01
  2.2770524e+00
 -2.8974442e-02
 -1.6934252e+00
  5.3770190e-01
 -1.1850589e-04
  3.4309623e-01
 -1.3000698e+00
  6.8332136e-01
  3.7921584e-01
 -1.3070235e-01
 -1.1007038e-01
  2.5869507e-01
  3.9273393e-01
 -5.2052419e-06
  3.0700889e-04
  2.3791225e+00
 -7.6660198e-01
 -4.8003769e-01
  9.1065787e-02
 -7.8686404e-01
 -2.0456240e+00
 -2.8287317e-04
  3.9210599e-06
  1.7441109e-02
  3.0671230e-01
 -1.2472145e-01
  2.2292683e+00
  1.0950603e-01
 -1.5809341e-01
 -2.3365817e-04
  1.6737820e-01
  3.9391787e-05
 -1.4630817e+00
 -1.9951464e+00
 -6.3032651e-01
  1.8909858e+00
  5.2629513e-01
 -9.5263654e-01
  2.4451777e-01
  4.4494015e-01
  6.1999331e-03
  4.0908471e-02
 -2.3116489e-01
  2.1415999e+00
  4.5200884e-01
  5.0745726e-01
 -1.0659095e+00
 -1.5915987e+00
 -3.1034315e-01
 -7.0330855e-03
  3.1887555e-01
  5.4947958e+00
 -6.2130743e-01
 -2.2764268e+00
  8.1065334e-02
 -8.4017026e-01
  3.4239898e+00
 -1.6128222e+00
  1.8262284e+00
 -1.5857900e+00
  3.3420421e-02
  2.5488334e-05
  1.3594773e-01
 -2.7928203e-05
 -5.0140009e-04
  1.0551160e-04
 -2.1525292e+00
  1.2840249e-01
 -3.0587208e-02
 -2.4257554e-04
  1.6090375e-05
 -6.9608122e-01
  1.2952186e+00
 -2.4607458e-05
 -1.8342975e-05
  9.2644051e-02
 -1.6093034e+00
 -2.6757474e+00
  1.6194134e+00
 -3.6629442e-02
 -1.5577938e-01
 -1.6832514e+00
 -1.4674623e-01
  1.5770496e-01
 -5.1518762e-01
  2.7729130e+00
 -3.9967462e-01
  7.8842312e-01
  5.5468034e-02
  1.7786099e+00
 -2.5765517e-01
 -1.2113978e-04
 -2.0333481e-01
 -3.2072911e-01
 -1.4257129e-01
  1.6321088e+00
  7.3758358e-01
 -1.0848454e-01
 -1.1731324e-01
  3.8534258e-02
  6.8406935e-04
  3.3187356e-03
 -9.3318957e-01
 -8.0626464e-01
 -4.2186305e-01
  1.2771144e+00
 -4.1646022e-01
 -2.9439454e-03
  2.6564538e+00
  3.6711682e-02
  5.2676899e-03
  3.0755816e+00
  8.1253445e-01
  1.7163335e+00
  2.1930685e+00
 -9.0477169e-02
  1.4106183e+00
  1.2877780e+00
 -2.8681313e-04
 -2.2656770e-02
 -2.1605678e+00
  3.8500268e+00
 -9.6692717e-01
  1.6288186e+00
 -1.0739784e+00
  1.0912268e+00
 -2.6630351e-01
  1.4627931e-01
  6.8048513e-01
 -2.0524583e+00
  6.5955162e-01
 -2.2232118e+00
  7.9793787e-01
  1.0609035e+00
 -6.6978371e-01
  7.1243089e-01
  8.0120021e-01
 -4.8977160e-01
  1.9561539e+00
 -2.4801071e+00
  2.0117795e+00
 -9.6745297e-02
  1.0798974e-03
  2.1676855e-05
 -2.0476167e+00
  9.1682100e-01
  3.7827189e+00
 -2.4567466e+00
  3.9895472e-01
 -7.8530215e-02
  5.3559524e-01
 -4.7850866e-05
  6.2273401e-01
  5.1344533e+00
 -2.1635032e+00
 -1.4858309e+00
  1.8831383e+00
  3.6919784e-02
 -4.3969184e-01
 -1.8893884e+00
  2.5998487e+00
  7.9871935e-01
  1.2363299e+00
  3.0642807e+00
  8.7534028e-01
 -4.1486040e-01
  4.2863655e+00
  1.3328234e+00
 -1.4898019e+00
  7.3291570e-01
  1.7792108e+00
 -2.5184340e+00
  2.0520856e+00
  4.4854116e-01
 -1.5888264e+00
  1.3835113e-02
  4.3027973e-01
  2.0165350e-01
  7.6187712e-01
  8.6631072e-01
 -2.3205073e+00
 -3.0591428e-01
 -2.3488684e+00
  3.6500514e-01
  3.4217671e-01
  2.9346068e+00
 -1.1795744e+00
  1.5938196e+00
  6.8372853e-02
  2.0525973e-01
 -1.2005365e+00
 -1.9212604e-01
 -1.3530698e+00
  1.4691306e+00
 -6.8843693e-02
 -1.5949593e-01
  3.2781938e-01
  1.2694805e+00
 -1.1999685e+00
 -1.1173589e-01
  1.7291954e+00
  2.4890354e-01
  1.1192904e+00
  2.0206709e+00
 -6.1594242e-01
 -8.0498004e-01
  5.5656451e-01
 -1.0286220e+00
  1.3341995e-01
  2.3842516e+00
 -9.2703944e-01
  1.7086957e+00
  2.8036008e+00
  1.5712426e+00
 -1.1014204e+00
 -7.5107503e-01
 -3.6806485e-01
  2.1453440e+00
 -1.1314484e-01
 -1.9870293e+00
 -1.1689185e+00
  9.0769863e-01
 -2.1178309e-04
 -4.0870629e-05
  1.1805691e-01
 -5.3034770e-01
  3.4168424e-05
  7.1910638e-01
 -1.1669322e+00
  5.5618752e-06
  5.3863596e-06
  6.6653103e-02
 -1.2019321e+00
 -1.1486009e+00
 -1.7154665e-01
  3.4960944e-05
  2.0860553e+00
  9.4882607e-02
  8.4277090e-05
 -3.4094200e-01
 -9.1199744e-01
  4.1274596e-03
 -1.1784094e-01
  2.1229000e+00
  1.3511492e+00
  1.5247684e+00
 -1.2085354e+00
 -6.4301306e-01
 -1.5828066e+00
  2.4734184e-04
 -1.4122686e+00
  5.6742828e-02
 -9.2915243e-01
  1.8150911e-01
 -6.0892159e-01
 -1.0676173e+00
  3.6036642e-04
 -4.5658908e-05
  2.0041964e+00
 -1.8887930e+00
 -4.1299086e-02
 -3.4157722e+00
  1.1302011e-01
 -4.1902602e-01
  6.0173947e-01
  4.4111657e-01
 -1.8500190e+00
  1.4108382e+00
  4.2209378e-01
 -1.1453283e+00
 -3.2337742e+00
  2.4117994e+00
  2.1711385e+00
 -1.9938908e+00
  5.0565314e-01
 -3.3614416e-02
  3.4292814e-01
 -1.1928492e+00
 -1.4885724e+00
  7.3892814e-01
  4.2481205e-01
  1.6806778e+00
 -1.4730989e+00
  8.6858384e-02
 -6.2793034e-01
  6.9410391e-02
 -1.4248490e+00
 -1.1342888e-01
 -2.5315428e-01
 -3.3781216e-02
  1.0850360e+00
  5.8230317e-01
  1.8190609e-01
 -4.8145631e-01
 -5.8807856e-01
 -2.4111347e+00
 -8.7196636e-01
 -1.6175465e-01
 -5.9002030e-01
 -9.9531460e-01
 -3.6508095e-01
 -9.9430770e-01
 -1.7865272e-01
  6.9585898e-05
  4.5277122e-01
  2.3820372e-01
 -3.6148500e-01
 -1.5070161e-05
 -5.9725880e-05
 -1.1355639e+00
  5.2976043e-07
 -2.1623004e-05
 -1.2808783e-01
 -5.7788247e-01
  1.4223320e+00
  3.1265728e+00
  9.1034384e-04
  3.1802976e-01
  6.2266684e-01
 -4.0066592e-02
 -7.6897180e-01
  7.7257180e-01
  1.8576818e+00
  3.0677438e-01
  1.3314095e-01
 -1.8457161e-01
  1.7401814e+00
  2.1136098e-01
 -2.8353670e-01
 -2.4851288e-05
 -8.9920998e-01
  4.6401221e-01
 -8.4460199e-01
  6.5409958e-01
  8.9576501e-01
  2.8636205e-01
 -1.7174879e-02
 -3.3469900e-01
 -2.4518926e-01
  8.4940761e-01
 -5.8205163e-01
  1.0696665e+00
  8.2071692e-01
 -1.1911950e-01
 -1.2334425e+00
 -1.6779292e-02
 -1.6381296e+00
 -2.8242450e-02
 -1.0566729e+00
 -5.9783524e-01
 -7.7177078e-01
  1.4879953e+00
  9.7130454e-05
  7.3320560e-05
 -7.6664662e-01
 -2.8681485e-02
 -1.2528742e-04
  2.9316255e-01
 -5.0979084e-01
 -1.7572712e+00
  1.1491735e+00
  1.9051766e-03
  1.1157660e-02
  4.8802407e-03
 -7.6776463e-01
 -8.1001811e-02
 -1.4624357e+00
  1.5021385e-01
 -1.3488429e+00
  9.0835854e-02
 -3.8563167e-03
 -9.1170527e-02
 -1.0414349e-01
 -9.1474843e-01
  4.0355175e-05
  1.4752543e-01
  1.7068122e-01
 -6.4956516e-01
  1.2883344e+00
  6.9943035e-01
  9.8075306e-01
  3.4963256e-01
 -3.1156245e-01
  1.0543556e-01
  1.4781474e-05
  3.1092956e+00
 -8.6682126e-02
 -8.0380812e-03
 -7.6714874e-05
 -1.8222383e-04
  6.2281460e-01
 -7.3318233e-06
 -6.8296460e-05
  1.0151847e-01
 -6.3049954e-01
 -2.0440064e-01
  1.1361427e+00
  1.5443283e+00
  2.9056501e-01
  3.5622408e+00
 -1.3758802e-01
  2.2234244e+00
  1.6516147e+00
  1.4143926e+00
  1.8720915e+00
 -1.3238217e+00
 -1.2977032e-05
 -5.4220058e-02
  4.2262933e-01
  3.0256128e-01
 -4.1422606e-01
 -6.1987054e-01
  1.2884542e+00
  2.9075357e-01
  3.7381400e-03
  4.9022719e-01
  3.5289994e-01
  4.9639758e-01
  2.2804517e-02
  2.0533676e+00
 -2.7321279e-01
 -1.7914921e-02
 -8.6115636e-02
  1.0768205e+00
  9.3554277e-03
 -1.6467614e-01
  1.5531352e-01
 -3.6596656e-01
 -4.4259919e-05
  1.6076345e-04
 -2.8613064e-01
 -1.8591386e-01
  5.2962250e-01
  5.1266563e-01
  2.2097390e-04
  6.9287813e-01
 -4.1588810e-05
  1.3801682e+00
 -4.4062737e-01
  1.0833099e+00
  5.1147902e-01
  9.3140930e-01
 -8.9671530e-02
  1.9351918e-01
  1.5240877e+00
  3.4526277e-01
  4.2989478e-02
 -1.1411643e-01
  8.9314425e-01
 -2.6185798e-02
  1.8921700e-01
 -1.9975796e-01
 -3.4484261e-04
  1.4088251e-01
 -8.7894738e-02
  6.4762890e-01
 -3.3160317e-01
  3.6335719e-01
 -1.7715118e+00
 -2.5038233e+00
  5.9977662e-02
 -1.9050552e+00
  2.2021992e+00
  3.3239627e-01
 -1.7149937e-01
 -4.6503927e-05
  3.1389176e-05
 -1.2144808e-04
 -4.6415317e-01
  2.4558578e-04
 -1.4694661e-05
 -2.8391838e-01
  1.7202714e-05
 -3.3525710e-05
  1.2926145e+00
  1.7676137e-01
  1.9985764e+00
 -2.8295800e-01
 -9.5185304e-01
  2.3398108e+00
  1.1088978e-01
 -2.1651260e-06
 -1.9405407e-03
  1.0720351e+00
 -3.1052095e-01
  1.4507564e+00
 -3.8205128e-02
  7.2298048e-05
 -7.6123697e-01
 -2.1325738e+00
  6.0577863e-01
 -6.7716949e-03
  1.7448493e+00
  2.1158838e-05
 -1.4444044e+00
  6.5944028e-01
 -4.6993755e-02
  1.4747410e+00
 -6.4771610e-01
 -1.1639587e-04
  5.9939863e-04
 -2.6246680e-02
 -6.3999307e-01
  4.7934222e-01
 -1.7698386e-01
  9.7496134e-01
  6.6765350e-01
 -5.1925280e-03
  1.4709133e-03
 -4.9631614e-02
  1.8603911e+00
 -5.8364809e-01
 -3.7915599e-01
  6.0607892e-01
 -5.3008485e-01
  1.0799907e+00
 -1.2806913e+00
  7.5407213e-01
  1.1816027e-02
  2.7156556e+00
 -5.0046358e-02
  3.5246229e-01
 -6.3166344e-01
 -9.5635593e-01
  1.4449340e+00
 -1.1951886e+00
 -8.9398876e-02
  4.5830059e-01
  3.1932781e+00
  4.2407331e-01
 -2.0410894e-01
 -8.5919380e-02
 -6.6997892e-01
  7.7673829e-01
 -3.3713943e-01
  3.5642272e-01
  3.4287500e-01
 -1.8819435e-01
 -5.9971195e-01
 -6.7949939e-01
  2.8657180e-01
 -6.6296864e-01
  1.3063971e+00
  5.8237892e-02
 -2.0974031e-01
 -1.3746210e-05
 -1.9380786e-04
 -1.7123330e+00
 -4.7817594e-01
 -5.7209724e-01
 -2.9858811e-05
 -4.4888275e-05
 -2.0559263e+00
 -9.6046650e-05
 -1.5192712e-04
 -4.1865221e-01
  5.9425239e-02
 -4.6635991e-01
  2.3282554e+00
 -7.9380989e-01
  1.0633877e-01
 -4.4115932e-05
 -1.5254238e+00
  3.8317341e-02
 -6.3275194e-01
  3.1497797e-01
  1.6525231e-01
 -1.1962780e+00
 -8.4207827e-01
 -6.7792720e-01
 -6.7752516e-01
 -9.9245131e-02
 -2.8843024e-01
  5.7815307e-01
 -7.7492958e-01
  4.1347742e-01
 -1.5660433e+00
  3.2609165e-01
  4.5867078e-04
 -1.3211198e-01
 -2.3997462e-04
  6.7640829e-01
  8.1858575e-02
  1.8656247e+00
 -1.3230839e+00
  1.7925197e+00
  2.6683056e-01
  9.7009939e-01
  5.9443053e-02
 -1.2492944e+00
 -4.5306811e-01
  2.4959826e-01
 -7.6424074e-01
  7.4915159e-01
  2.4089558e-01
  2.7113607e-02
 -7.4529344e-05
  5.7485640e-01
 -8.6072254e-01
  5.2321947e-01
  4.9362543e-01
 -2.3032831e-01
  1.0908349e+00
 -3.2216603e-01
 -9.6709490e-02
 -2.0419204e+00
 -2.6580760e+00
 -1.2550794e-03
 -2.4247430e-01
 -3.9785209e-01
 -5.0640844e-02
  1.2220571e+00
 -8.9342278e-01
  3.5654861e-02
 -1.7698830e+00
 -4.1843829e-01
 -4.0040357e-04
  2.0187271e-01
  5.3767306e-01
 -2.8429544e-01
  3.1723550e-01
  5.7817435e-01
 -9.6871930e-01
 -7.1140216e-03
 -1.8249105e-01
 -7.4563093e-02
 -1.3308727e+00
  1.3121820e-05
 -1.8544326e-04
  4.3521500e-01
 -2.2928676e-04
  1.5457913e-06
 -1.6511761e-04
  1.3387906e-04
 -4.7519930e-05
  1.2676514e-04
  6.9212949e-01
 -3.1294337e-01
  4.6121401e-01
 -2.3630662e-01
 -1.4211948e-03
  1.5266019e-01
  1.0756721e-01
 -2.9188715e-04
  1.3073333e-02
 -3.0184887e-05
 -4.0174788e-01
  1.4222991e+00
  9.5712133e-02
 -5.5014443e-01
 -7.8010201e-01
 -1.8490517e+00
 -1.8696252e-05
 -6.1876065e-01
 -6.9391996e-02
 -1.3996477e-01
  1.9200572e-01
  2.3516876e-04
  7.2669594e-05
  1.6248293e-01
  2.0486870e+00
  8.5109086e-06
 -4.6162662e-01
 -1.8542910e-03
  1.5258501e+00
  1.2044673e+00
 -4.8720080e-01
 -4.3062770e-01
 -4.2770192e-01
  2.0997088e+00
  2.5250295e-01
  2.1840966e+00
  5.5532634e-01
  8.0433130e-01
 -8.3071345e-01
  6.9821286e-03
 -8.6356726e-05
 -9.6231663e-01
  8.7819350e-01
  9.0584508e-05
 -1.1553322e+00
  1.3303609e-01
  4.7906694e-01
  5.1411992e-01
  1.6631594e-01
 -2.3823464e-03
  1.0713646e+00
  6.8198258e-01
 -3.7858711e-04
 -2.2622159e+00
  2.8269663e-01
 -1.0811685e+00
  4.7462904e-01
 -5.0400026e-02
 -3.6981115e-01
 -1.9439989e-01
  1.3067760e+00
 -1.0359795e-01
 -1.5275322e+00
  2.4720037e-02
  2.4720037e-02
  2.4720037e-02
  2.4720037e-02
  2.4720037e-02
  1.2203109e-01
  1.2203109e-01
  1.2203109e-01
  1.2203109e-01
  1.2203109e-01
  3.6700478e-01
  3.6700478e-01
  3.6700478e-01
  3.6700478e-01
  3.6700478e-01
  9.3993224e-02
  9.3993224e-02
  9.3993224e-02
  9.3993224e-02
  9.3993224e-02
  2.0272303e-02
  2.0272303e-02
  2.0272303e-02
  2.0272303e-02
  2.0272303e-02
  8.9135182e-01
  8.9135182e-01
  8.9135182e-01
  8.9135182e-01
  8.9135182e-01
