nep4_zbl 3 Ca Si O 
zbl 0.8 1.6
cutoff 7 5 210 81
n_max 6 6
basis_size 8 8
l_max 4 2 0
ANN 50 0
  2.8324348e-01
  5.4356348e-02
 -8.9066190e-01
 -3.3355240e-02
 -1.3098107e-01
 -3.4055612e-03
  2.8402427e-01
 -2.5483280e-01
 -1.5239824e-01
  4.5392647e-02
  1.2989637e-01
  3.7629295e-02
  2.2196764e-01
 -6.0858078e-02
  1.3831107e-01
 -5.6351259e-02
 -1.3327198e-01
 -2.4043284e-01
  9.1895998e-02
 -1.6273288e-01
  1.8482590e-02
 -1.4199093e-01
 -1.3886717e-01
  1.0404436e-01
 -2.4448793e-01
 -1.2549721e-01
  1.0243441e-01
  1.5764332e-01
  1.2470444e-01
  2.2344120e-01
 -1.7572169e-01
  1.6024795e-01
  1.6488664e-01
 -1.8771734e-02
  1.5802161e+00
  9.9748611e-02
  6.9072569e-04
  6.8213858e-02
 -1.8597926e-01
 -4.1898392e-02
  8.8924058e-03
 -2.4831302e-01
  8.5768509e-01
  4.6859198e-04
 -1.2426021e+00
 -4.0944666e-01
  4.1137701e-01
 -7.7367342e-01
 -7.1073331e-02
  2.4537861e-02
  1.4958408e-01
 -1.8367784e-01
  2.1101943e-01
  7.6203421e-02
 -2.3573668e-01
  6.2659979e-01
  5.8645692e-02
  3.4093624e-01
 -2.8337486e-02
  2.1746719e-01
 -6.1968569e-02
  2.9636577e-02
  3.5984537e-01
 -3.5057060e-02
  4.3910849e-01
  1.4728572e-03
  2.5921154e-01
 -7.0565112e-02
  2.1557785e-03
  3.4661096e-01
  3.9270017e-01
  2.6654050e-01
  1.0961397e-01
 -4.1130230e-02
 -5.1058467e-02
  1.3828266e-01
  2.8031877e-01
  1.3462803e-02
 -8.0342613e-02
 -1.1939166e-01
  2.4144867e-02
  2.2776678e-02
 -3.4176406e-01
 -1.2715426e-01
 -2.3453392e-01
  3.9998092e-02
 -3.7042066e-02
 -1.8791245e-01
 -1.2783565e-01
 -1.3782443e-01
  1.1947579e-01
 -2.9057967e-03
  4.8274004e-01
  3.6833908e-02
  1.7386118e-01
 -2.1842420e-02
  1.2149616e-01
 -1.0801202e-02
 -1.5102842e-01
  2.1167822e-01
 -1.1598516e-01
 -8.9211121e-02
  1.4984916e-01
 -1.2680901e-02
  1.9657783e-02
 -1.3706061e-01
  1.3835688e-01
 -4.3880023e-02
  1.4970544e-01
  1.3284372e-01
 -1.6936018e-01
 -3.7518218e-02
 -1.9138086e-01
  1.5866028e-01
 -1.0541004e-01
  1.7717591e-01
  1.0647803e-01
 -1.3675322e-01
 -1.4218980e-02
 -3.8410526e-02
  1.9140656e-01
 -6.6892959e-02
 -2.3357782e-01
 -1.1892507e-01
  1.6256122e-01
 -1.7238857e-01
 -1.4360580e-01
  3.0967835e-01
  5.4604453e-01
  1.1101192e-01
 -3.1805685e-01
 -2.6540121e-01
 -4.3579862e-01
  1.1676423e-01
 -8.0661833e-02
 -1.8036784e-01
 -4.2346168e-02
  1.1543389e-02
 -4.7965458e-01
  1.6427350e-01
 -6.8747735e-01
 -3.0956072e-01
 -1.8631375e-01
 -2.1785596e-01
 -1.9867794e-01
 -3.9188284e-01
 -3.6377782e-01
 -6.7210317e-01
 -1.2008632e-01
 -1.0605165e-01
 -1.2867236e-01
 -5.9966752e-03
 -5.8256570e-02
 -3.7551335e-01
 -3.5045745e-03
 -2.0438571e-01
 -1.9144315e-01
 -2.8472098e-02
 -2.9181844e-01
 -3.4018302e-01
 -8.6988628e-02
 -5.2826270e-02
  1.7375728e-01
 -1.3169208e-01
  3.4494277e-02
  9.8654907e-03
 -6.9006816e-02
 -5.4342542e-02
 -9.8505899e-02
  4.4316415e-02
 -3.7851866e-02
  2.4017400e-01
 -1.4161840e-01
 -1.8723355e-01
  5.4667797e-02
  6.6823676e-02
  1.6568808e-02
  1.8586220e-02
  3.2012120e-03
  1.1901978e-01
  1.6817997e-01
 -6.7502975e-02
  1.4819825e-01
 -1.2012823e+00
 -1.6570754e-01
  1.0164465e-01
  3.8447219e-01
 -4.3148417e-02
 -9.0517448e-03
 -1.1355706e-01
 -1.0786653e-02
 -5.5724471e-03
 -7.0247345e-02
 -1.1261414e-01
 -4.0823471e-02
 -4.2059109e-02
  4.6506339e-01
 -6.9339126e-02
  1.0253325e-01
  1.1404113e-01
  2.5966322e-01
  1.4898387e-01
 -2.3967490e-01
 -6.2079791e-02
 -6.2906586e-02
  4.4609953e-02
  5.9713036e-02
 -2.7373561e-01
 -1.3320619e-01
 -1.4985389e-01
 -3.9754517e-02
 -8.6829336e-03
  2.1616866e-01
 -1.8888180e-01
 -1.1551100e-01
  1.4753340e-01
 -2.3069970e-02
 -2.9939821e-01
  2.3067774e-01
  3.8242027e-02
  2.8335355e-02
  2.2505835e-01
  8.6377904e-02
 -3.4922695e-01
 -2.8471205e-01
 -2.2297148e-02
  1.0246497e-01
  7.6689802e-02
 -1.3893493e-01
 -2.1625936e-01
  1.8366227e-01
 -1.3870136e-01
 -5.3865217e-02
  1.4505421e-01
  6.6358738e-02
 -1.8914787e-01
  1.1624768e-01
 -1.4633663e-01
  9.9737071e-02
 -1.0931965e-02
 -9.6632713e-01
  9.0815671e-02
 -2.6058692e-01
 -1.6750889e-01
 -2.0847531e-02
 -2.3526914e-02
  1.5126875e-01
  1.1970561e-01
  1.3282564e-01
  1.5719986e-01
 -1.1137102e-01
  1.2313084e-01
 -1.7656031e-01
 -2.2281225e-01
 -9.0388417e-02
  1.4343069e-02
 -4.2712295e-01
 -1.8703875e-01
 -9.5451176e-02
 -1.7254135e-01
  1.2629882e-01
  3.0261379e-01
 -1.9430904e-02
 -9.0071447e-03
 -4.5738872e-02
 -2.5447157e-01
  1.2788464e-02
  1.0826917e-01
  1.1340504e-01
  7.9344012e-02
 -1.8247296e-01
  6.6291794e-02
  3.6700222e-01
  7.6802075e-02
  8.5718721e-02
 -1.2256452e-01
 -7.2597922e-03
  1.7942877e-01
  1.5628144e-01
  1.4263029e-01
 -2.6340147e-02
  2.8772658e-02
  2.1462105e-01
  1.4474060e-01
 -4.6204813e-02
  4.5091975e-01
 -2.6031098e-01
  2.3020042e-01
 -1.3649596e-01
 -1.1035005e-01
  1.0444331e-01
  1.4105764e-01
 -2.3238141e-02
  5.3992983e-02
  1.5077608e+00
 -2.7462405e-01
  7.8993991e-02
  8.1589532e-01
 -4.6472770e-01
 -3.9941829e-01
  1.7370690e-03
  7.2557107e-02
 -5.9565449e-01
  9.1112494e-02
 -4.8990348e-01
 -2.8430763e-01
 -9.3461132e-01
 -2.7238679e-01
  2.8712976e-01
 -6.1755019e-01
  1.9749697e-02
 -3.6694360e-01
  1.4434896e-01
 -2.7988955e-01
 -1.3082719e-01
  1.1909974e-01
 -2.2393644e+00
 -1.6643380e-01
 -5.2537560e-01
 -3.1046578e-01
 -1.0277676e-02
 -1.0267763e+00
 -4.7136173e-01
 -6.0669369e-01
 -2.0042168e-01
 -1.0206124e-01
 -4.1189477e-01
  9.5683694e-02
  4.8515409e-02
 -4.2629996e-01
  7.4027285e-02
 -4.8582651e-02
 -5.2882094e-02
 -3.4432277e-02
  2.8970459e-01
  1.7398702e-01
 -8.6892933e-01
  4.2030340e-01
  1.2047383e+00
 -6.9306403e-01
  2.3133023e-01
  9.4457871e-01
  2.9764426e-01
 -2.3507068e-02
  3.0245572e-01
  2.7570337e-02
  5.1335663e-01
 -9.3618935e-01
  4.9003670e-01
  1.4453931e-03
 -2.3790538e-01
  4.6835724e-01
 -4.3771468e-02
  5.4381979e-01
  1.0490456e-02
  8.0650908e-01
  3.8877976e-01
 -6.2356091e-01
  1.4507860e-01
  3.9910454e-01
  2.7067640e-01
  3.0940479e-02
  1.1546547e+00
  4.9190566e-01
 -3.2989210e-01
  1.2595882e-01
 -2.6997650e-02
  6.8003051e-02
 -5.3406525e-02
 -2.9724383e-01
 -3.4161057e-02
  1.1094721e-01
  1.2112381e-01
  1.2329718e-01
 -3.0269280e-01
  3.3077729e-01
 -9.7777709e-02
 -2.1199244e-01
  5.5141526e-01
  1.5263540e-01
 -4.2671673e-02
  4.0011185e-01
 -4.1550163e-02
  8.0547124e-01
  1.4661971e-01
  8.3722368e-02
 -1.1992755e-01
  9.1844402e-02
 -5.5462737e-02
  1.4708607e-01
 -2.3830208e-01
  2.4898146e-01
 -4.2088468e-02
 -1.7468105e-01
  1.6461164e-01
 -1.7757671e-01
  1.7646523e-01
 -5.6438823e-03
 -3.5395145e-01
  1.2939739e-02
  2.1414036e-01
  7.2190538e-02
 -2.9587099e-01
 -1.0361084e-01
 -3.0899319e-01
 -8.9861371e-02
  1.2567298e-01
  7.7360548e-02
 -1.9173479e-01
  2.7658609e-03
 -1.4043628e-01
 -2.3027554e-01
 -2.7928550e-02
 -1.6082126e-01
  7.0167929e-02
 -1.4689848e-01
 -3.8467947e-02
 -4.8592582e-01
  1.4421770e-01
 -1.8485863e-02
  3.9537412e-01
 -2.7201873e-01
  7.9672420e-03
  5.3452832e-01
 -1.3875045e+00
  4.8955414e-01
  3.6653344e-02
 -1.7756546e-01
 -5.4744440e-01
 -5.6243479e-02
 -5.5364448e-01
 -1.5608692e-01
  2.6733717e-01
 -1.1429954e-01
  4.8612329e-01
 -6.0907418e-01
 -1.2232269e-01
 -3.1273675e-01
 -4.7634866e-02
  2.1272597e-01
 -1.6180463e-01
 -3.8163003e-01
 -3.7645090e-01
 -6.3040471e-01
 -2.2280562e-01
  1.2192829e-01
 -2.5707749e-01
 -6.6325730e-01
  3.7079588e-01
 -1.7026022e-01
  1.9815810e-01
  1.8240575e-01
  1.4394457e-02
  4.9156716e-01
 -4.1156664e-02
  1.4918619e-01
  1.7644978e-01
  1.6570412e-01
  4.2856786e-02
  6.1153624e-02
 -4.1916590e-02
  9.1827236e-02
 -2.0092151e-01
 -3.1891312e-02
  4.1086206e-01
  2.8165858e-02
 -3.8195834e-02
  1.6671138e-01
 -1.5731430e-01
 -4.0086797e-01
 -5.6867316e-02
 -2.7145079e-01
 -2.2035497e-01
  2.0213235e-02
 -3.3464679e-01
 -3.3413270e-01
  2.0133546e-02
 -1.3266976e-01
 -6.8369716e-02
 -2.8122041e-01
  2.9222598e-02
 -5.6672066e-02
 -1.1279228e-01
  2.4538198e-01
 -1.5002446e-02
  5.5815332e-02
 -1.9639462e-01
 -1.4828718e-01
 -2.5171947e-01
 -1.0652776e-01
  5.8615569e-02
  5.7081930e-02
 -1.2524216e-01
  4.3993752e-02
  4.2753249e-02
  6.4931616e-02
  2.0012001e-02
  1.0767040e-01
 -8.9612477e-02
 -9.3742728e-02
  2.4554926e-01
 -1.2026250e-01
  1.0671517e-01
 -1.4933625e-01
  2.1982127e-01
 -9.0227433e-02
  6.6919786e-01
 -5.0435090e-01
 -6.7549396e-01
 -2.7750713e-01
 -7.0110029e-01
 -1.5416610e-01
 -4.8694592e-02
  6.5821522e-01
 -4.9269056e-01
 -6.4097369e-01
  1.4592281e-02
  7.5100668e-02
  2.1755880e-02
  2.8250775e-01
  5.0302915e-02
  5.7305306e-01
  9.7597115e-02
  8.1118989e-01
  2.9515937e-01
 -1.8808259e-01
 -3.9945296e-03
  1.0451227e-01
  1.1630734e+00
  1.6293865e-01
  2.8590010e-02
  4.8857281e-01
 -4.2170101e-01
 -4.5846862e-01
 -1.0938166e-01
  7.7397168e-02
 -1.8803388e-01
 -2.1159434e-01
  3.9712739e-01
  3.4179184e-01
  1.2568447e-01
 -2.9844126e-01
 -5.7380207e-02
  4.1355002e-01
  1.3189049e-01
 -3.0834045e-02
 -6.0571477e-02
  3.3782619e-01
  3.8800366e-02
 -2.3463899e-01
  2.4956582e-01
 -5.5923533e-01
 -1.7377053e-01
  1.5602247e-01
  2.1620819e-01
  3.0761832e-01
  5.2236915e-01
 -1.3439409e-01
  2.2945413e-02
 -2.2102346e-01
  9.0985922e-03
  3.2600496e-02
 -9.7730100e-01
 -6.4930275e-02
 -6.3716643e-02
  1.8705729e-02
  4.7099449e-02
 -2.0105889e-01
  2.1715768e-02
 -1.5256810e-01
  2.8681532e-01
 -2.1489771e-02
  8.8416580e-03
  1.7068832e-01
  1.7331699e-02
  1.5665878e-01
  1.1972882e-01
  2.9485311e-02
  4.4831026e-02
 -8.6935386e-02
 -1.2029116e-01
  2.5107384e-01
 -2.4742378e-02
 -2.6202467e-01
 -1.5182965e-02
  1.3857771e-01
  2.4393956e-01
  1.0450052e-01
  3.9373148e-02
  1.3062753e-01
  3.0939236e-01
  2.6683429e-01
 -2.6221517e-01
 -3.2272333e-01
 -1.5885270e-01
 -1.3623060e-01
  8.7502994e-02
  5.8076993e-02
  1.2477792e-01
 -1.3649720e-01
 -7.6450661e-02
 -2.2196954e-01
  1.2236693e-01
  1.8503909e-01
  6.6199951e-02
  8.2319751e-02
  1.7662661e-01
  3.2070599e-02
  1.2780046e-01
 -8.0640428e-02
  1.7707912e-02
  5.3170629e-02
  2.7508045e-02
  5.3650569e-02
  2.6755488e-01
  1.6232009e-01
 -5.8555707e-02
 -5.2216209e-02
 -1.9959693e-01
  1.3802111e-01
 -1.0999466e-01
 -1.3956104e-01
  3.0416763e-01
  3.1993455e-01
 -2.7529582e-01
  3.1899624e-02
  8.3961464e-02
  8.9001179e-02
 -5.0340551e-01
 -2.2988112e-01
  3.7668604e-01
 -4.2491639e-03
 -4.6120230e-02
  1.1640289e-01
 -1.1553863e-01
  4.8567705e-02
 -1.5300515e-02
  9.4708443e-02
  1.4932643e-01
 -2.5598297e-01
  1.1299625e-01
 -7.9902053e-02
 -7.4589871e-02
 -1.0606787e-01
  1.1700397e-01
 -3.3275440e-01
 -1.7458193e-01
  5.8541600e-02
 -1.4921346e-01
  2.3359671e-02
  7.7903897e-02
 -3.1426436e-01
  1.0352820e-01
  1.8829174e-01
 -1.2461434e-01
  2.5033125e-01
  7.8225613e-02
 -3.1027690e-02
  9.3496233e-02
 -1.2684974e-01
  1.0329419e-01
  1.2192228e-01
 -1.3273224e+00
 -1.7453045e-01
  1.6840701e-01
 -4.3403655e-02
  2.9154686e-05
 -3.5466510e-03
 -5.0374586e-02
  2.7925336e-01
 -2.8902504e-01
 -8.8585325e-02
 -1.3475941e-01
  1.2882869e-01
  2.3161232e-01
  3.9921895e-01
 -3.8701311e-01
  4.1842723e-01
  1.7321606e-01
 -2.2229819e-01
 -1.4247538e-01
  8.2850352e-02
  1.4652565e+00
 -1.0264868e-01
  7.0173547e-02
 -1.9981362e-01
  4.3623132e-01
 -2.3630750e-01
 -2.1322371e-01
 -2.4430761e-01
 -1.6266893e-01
  1.4974980e-02
  3.9930012e-02
 -6.4890154e-02
 -2.0830508e-01
 -1.1063593e-02
 -1.3059369e-01
 -3.0495265e-01
 -2.0311686e-01
 -2.1350765e-01
 -3.7534107e-02
 -1.6771433e-01
 -2.0622316e-01
 -9.5831268e-02
 -2.1789829e-01
  2.5978252e-01
 -2.8592563e-01
  1.5796961e-01
 -2.0161249e-02
  9.7248577e-02
 -8.4268652e-02
  3.9345663e-02
 -7.7273554e-01
  7.5407006e-02
  2.7106501e-02
  1.7860948e-01
 -8.2851291e-02
  8.5457109e-02
  5.9919566e-02
  1.1802275e-01
 -5.7681076e-02
 -1.4771563e-01
  1.8621291e-01
 -1.0459712e-01
  2.6517081e-01
  7.8349486e-02
 -1.0480397e-01
  4.8672382e-02
  5.3871362e-03
 -5.1362533e-02
 -7.0695370e-02
 -3.6936633e-02
  9.9804886e-02
  2.3166026e-01
 -1.0278362e-01
  2.4140102e-01
  6.7154527e-02
 -1.1810184e-01
  4.1852722e-01
  1.5678840e-02
 -1.3663648e-01
  1.4980596e-01
 -6.0483161e-02
  5.1159810e-02
  1.2531315e-01
  3.0143760e-02
 -1.9948846e-03
 -1.3467036e-01
  1.3155130e-01
  1.3929380e-01
  1.2749016e-01
 -1.2668546e-01
 -1.6557308e-01
 -9.3609996e-02
 -8.3072893e-02
 -8.4431760e-02
 -2.6131558e-01
 -6.8010695e-02
  2.5433168e-01
 -1.2968168e-01
  3.6318213e-01
 -3.5529986e-01
 -4.6752656e-01
  2.4626853e-01
  2.5056228e-01
 -1.0447508e-01
  5.4236019e-01
 -1.6353233e-01
  1.9523941e-02
  2.8985903e-02
 -3.8810179e-02
  3.0719927e-01
 -1.1265565e-01
  6.2029336e-02
  1.0124408e-01
  3.3319186e-02
 -5.6009438e-02
  1.7151724e-01
  3.1776711e-02
 -4.3379962e-02
  8.7778650e-02
 -3.7650371e-01
 -5.0523591e-01
  5.3802595e-02
 -2.8195244e-01
  8.7773360e-02
  1.5624431e-01
  2.0461934e-02
  1.8981226e-01
  3.9383388e-01
  1.6157600e-01
  1.8220982e-01
  6.8518952e-02
 -4.6506010e-02
 -3.2948785e-02
  2.7543390e-01
  5.5040056e-01
 -5.8030698e-02
  5.3131676e-01
  4.6712729e-01
 -2.3122814e-04
  7.9331583e-01
 -9.9172658e-01
 -1.7837268e-01
  6.7306930e-01
 -5.3124871e-02
 -2.7662836e-02
 -2.2571970e-02
 -8.0836713e-03
  2.2780353e-02
  4.2475256e-01
 -3.1826377e-01
 -3.2488003e-01
 -7.7895832e-01
 -3.0855307e-01
 -7.3717797e-01
 -5.6191396e-02
 -7.3186658e-02
 -4.9357760e-01
 -2.5645080e-01
 -4.0051123e-01
 -1.0932315e-01
 -6.2764603e-01
 -2.2296719e-01
 -1.7258907e-02
 -5.9238809e-01
 -8.1493664e-01
 -5.7427712e-02
 -7.1200957e-03
 -8.2308896e-02
 -5.1362630e-02
 -7.4674487e-02
 -5.2028018e-01
 -1.4033764e-02
 -5.7791099e-02
 -1.9380605e-01
 -6.1652172e-02
 -2.5380740e-01
  5.5545505e-02
 -6.1064210e-02
 -2.2015662e-01
 -1.8125787e-01
  1.0428485e+00
 -5.1259238e-01
  1.4609995e-01
 -1.3487890e-01
 -2.1162510e-01
 -2.5270540e-01
  2.5985867e-02
  2.2038735e-01
  2.0570318e-01
 -1.2581644e-02
  1.9303685e-01
 -1.3892374e+00
  1.3258849e-01
  4.8047900e-01
 -2.0954138e-02
  5.5120516e-01
  2.0624552e-02
 -2.3853891e-02
  4.8552459e-01
  3.2757062e-01
  5.6471062e-01
  2.4361229e-01
  2.1484198e-01
  2.0896459e-01
 -2.5534812e-01
  2.6513740e-01
  5.8651984e-01
  1.7647621e-01
  4.8852038e-01
  7.8697279e-02
  4.2643994e-02
  1.6392131e-01
  9.4096556e-02
 -1.9698296e-01
 -3.4188849e-01
  1.1661542e-01
 -1.8515844e-02
 -3.1717035e-03
 -2.9761714e-01
 -4.0479112e-01
  8.3200894e-02
 -6.8541461e-01
  5.8590150e-01
 -4.0809322e-02
 -1.5913448e+00
 -1.5643487e+00
 -8.0042446e-01
 -3.9626550e-02
 -4.1655940e-01
  3.6875448e-01
 -4.8350129e-02
 -1.4345405e-01
  8.9594781e-01
  1.8440092e-02
  2.6798078e-01
 -2.2448631e-01
  2.4689770e-01
 -2.2604087e-02
 -7.2591789e-02
  7.2087431e-01
 -3.1021622e-01
  3.0832016e-01
 -3.2103917e-01
 -2.0803211e-02
  3.6491279e-02
  2.5999522e-01
  1.0167985e-01
 -6.3392930e-02
  2.9462907e-01
 -2.3791571e-01
  2.6264926e-02
  1.4454934e-01
 -5.2087627e-02
 -2.6994529e-01
  2.7465758e-01
  1.0034781e-01
 -1.0639290e-01
  1.5026763e-01
 -6.5696076e-02
  1.9131344e-03
  1.4488614e-01
 -4.9043983e-01
 -8.7834843e-02
 -2.0920601e-01
 -9.5604606e-02
 -1.9252010e-01
  3.5704225e-01
 -7.4880593e-02
 -2.4819623e-01
  1.3646917e-01
  7.9475150e-02
 -4.3846601e-01
  1.3179079e-01
 -2.5764155e-01
  3.9078146e-02
  8.2718037e-02
 -3.4788683e-02
  2.2304910e-01
  1.9229202e-01
 -1.3634644e-01
  5.7725150e-02
  2.0670609e-01
  1.0068046e-01
 -3.5302229e-02
  1.3917045e-01
 -3.6465559e-02
  1.7020558e-01
 -1.2945892e-01
 -2.6654233e-03
 -3.7485890e-02
 -3.5588767e-02
  7.1947858e-02
 -1.0462491e-01
 -8.5204676e-02
 -2.2612594e-01
  4.8036780e-02
 -6.1592245e-03
  3.5353419e-01
 -9.2617832e-02
 -1.4655995e-01
 -8.3609357e-02
 -2.7718375e-02
  3.1159055e-01
  8.7018646e-02
  4.4492774e+00
 -3.3489549e-01
  1.0221522e-01
  2.4351236e-01
  6.0608417e-01
  4.7955090e-01
 -2.7100354e-01
  3.1267613e-01
 -4.7171724e-01
 -2.3593549e-02
 -6.1444044e-01
 -7.0176655e-01
 -1.3667990e-01
 -5.0117004e-01
  5.1296520e-01
 -3.6545700e-01
 -2.2429174e-01
 -9.9560544e-02
 -1.8568043e-01
  3.7154049e-01
 -1.6338727e-01
  5.4111779e-01
 -5.3693950e-01
  2.8799081e-02
  1.7257780e-02
  3.0337891e-01
  1.6373880e-01
  2.8741249e-01
  1.4967449e+00
 -7.1452868e-01
 -1.0673166e-01
 -6.2637568e-02
 -1.0675013e-01
 -4.5885926e-01
 -3.8913213e-02
  2.9773864e-01
 -6.6428922e-02
  9.3686230e-02
 -1.9280915e-01
 -5.3803034e-02
  1.9403006e-01
  2.5630522e-01
 -1.2572302e-01
 -3.4900153e-01
  1.6692548e-01
 -3.1436491e-01
 -5.6814736e-01
 -6.5737581e-01
 -2.5014162e-01
  6.0096455e-01
 -1.9104132e-01
  1.8918210e-01
 -6.9239683e-02
 -1.0829506e-01
  7.7087873e-01
  1.7590958e-01
  2.5933463e-02
  1.1516986e-01
  2.1027938e-01
  5.3175025e-02
  2.5555807e-01
  1.4130400e-01
  1.4995003e-01
  1.0526270e-01
  1.3736778e-01
  1.8970102e-02
  1.7973220e-01
  3.2773241e-01
  6.6592383e-01
  2.3073752e-01
 -4.5425585e-01
  7.4108131e-02
 -1.3081895e-02
 -1.6430414e-01
  8.8929355e-02
 -2.2907403e-01
  2.9871106e-01
 -1.0510517e-01
 -5.0301213e-02
  2.4740109e-02
  2.2275802e-01
  2.3446573e-01
 -1.3196054e-01
 -8.3423853e-01
  5.2354738e-02
  7.9611069e-01
 -2.9892656e-01
 -1.5457600e-01
  7.1630847e-01
 -2.2642922e-01
  5.8665395e-01
 -4.5397937e-01
  2.9787821e-01
 -1.0748695e-01
 -2.2717711e-01
  6.6753829e-01
 -2.8310919e-01
 -2.5217056e-02
 -1.8404970e-01
  1.6561128e-01
 -6.0525849e-02
 -5.0403845e-01
 -1.2425025e-01
 -9.5099425e-01
 -5.9596723e-01
 -5.5012959e-03
 -6.1851043e-01
 -2.3566337e-01
 -7.0187700e-01
 -1.0038681e+00
  2.0927136e-01
 -7.4889821e-01
  2.1480545e-02
 -4.6312505e-01
  6.9829278e-02
 -1.9957438e-01
 -1.4328273e-01
 -6.8197423e-01
 -8.6865348e-01
 -7.8861609e-02
  1.5960237e-01
  3.2141540e-02
  1.5889215e-01
 -2.7556619e-01
 -2.8686166e-01
  7.0157267e-02
 -1.1390830e+00
 -1.1958241e-02
 -5.8552974e-01
 -5.1252657e-01
  2.4031155e+00
  5.9333676e-01
  7.1095186e-01
  1.8789585e-01
  3.2171476e-01
 -3.2197917e-01
  1.3634821e-02
  3.6625090e-01
  1.0684285e-01
 -5.1014539e-02
  4.4662857e-01
 -1.3537718e-01
 -5.1179202e-03
 -2.8074694e-01
 -1.8758565e-01
 -4.2838687e-01
 -2.3667803e-01
  1.8953839e-02
  2.3300228e-01
 -3.5190098e-02
 -1.1829215e-01
 -4.7109216e-02
 -6.5377854e-02
 -4.1417664e-01
 -7.9506906e-03
  2.0052280e-01
  5.0289012e-03
  1.7595784e-01
  5.3179469e-02
 -2.8527808e-01
 -3.7017310e-01
 -4.0740978e-02
  2.5914492e-02
 -5.8018669e-02
 -9.6854195e-02
  2.7446693e-02
  1.4754166e-01
  2.4450936e-03
  6.9531226e-01
 -1.3422048e-01
  1.1284297e+00
  7.2114015e-01
 -1.1496823e+00
 -6.5604663e-01
 -1.8689953e+00
 -6.5716392e-01
 -4.3641698e-02
 -3.3343241e-02
  1.3364421e-01
 -1.0500373e+00
  9.0579468e-01
  2.6760072e-02
 -3.5193626e-02
  2.6000381e-02
  4.1420825e-02
  2.2270094e-01
 -5.1842064e-01
  4.9111053e-01
  4.4857919e-01
 -3.5275765e-02
  1.9948828e-01
  3.1107837e-01
  5.7608557e-01
 -1.0369572e-01
  1.2203979e+00
  5.4173869e-01
  3.1373245e-01
  5.5867735e-02
  1.0462706e+00
  1.5651926e-01
 -8.7952256e-02
  6.4941293e-01
  4.3336129e-01
  9.8309703e-03
  4.9248137e-02
  1.8375557e-02
  1.5845673e-01
  3.4473264e-01
  3.0441716e-01
 -2.4875206e-01
 -1.4393644e-01
 -7.6519124e-02
 -6.9621824e-02
 -7.5975075e-02
  9.8839976e-02
  1.7993875e-03
 -2.1643512e-01
 -1.2261987e-01
 -1.0961261e-01
 -5.3779231e-03
 -2.0916493e-01
 -7.2597794e-02
  5.3661674e-02
 -5.2999616e-01
  1.6078028e-01
 -2.4380286e-01
  3.6483496e-02
  1.8103306e-01
  1.2276524e-01
 -6.9209650e-02
  2.5953105e-02
  9.6668273e-02
  5.7816420e-02
  1.7206408e-01
  1.5749812e-01
 -2.4670117e-02
 -4.3578577e-01
 -1.6685963e-01
  4.5472607e-02
  4.9326245e-02
 -2.5484484e-01
  1.3317986e-01
 -7.3369496e-02
 -6.9214240e-02
  1.2738276e-01
 -1.5277362e-01
  2.6550025e-01
 -4.0367085e-01
  1.3185492e-01
  2.0287135e-01
  1.4719102e-01
 -1.2535805e-01
 -3.2967344e-01
  6.7894928e-02
 -2.7283046e-01
 -1.8699448e-01
 -5.6467514e-02
  2.3094839e-01
  8.3942956e-01
 -9.8474666e-02
  2.3575868e-01
  9.1214329e-02
  3.1396423e-02
  6.0774673e-02
 -1.0231936e-01
  3.6396015e-01
 -1.3935943e-01
 -1.0461307e-01
 -1.7265387e-01
  4.7633763e-02
 -1.1009904e-01
 -7.2192729e-02
 -2.3494281e-01
 -5.8621302e-02
 -1.5119994e-01
 -1.9993858e-01
 -1.3904040e-01
 -5.8341604e-02
  2.5448877e-01
  8.7240197e-02
  5.1495250e-02
  8.9710243e-02
 -2.7610391e-01
 -1.2125360e-01
  1.7943656e-02
 -9.0080135e-02
  9.5958978e-02
 -1.1813388e-01
  1.7193483e-01
 -4.2995390e-02
  1.1102088e-01
 -6.6631049e-02
  7.8506932e-02
  2.0046107e-01
  8.5641652e-02
  1.7066880e-01
  9.3270607e-02
 -1.8458673e-01
 -3.4608420e-02
  3.9338544e-02
  4.6754989e-01
 -2.0185265e-01
 -1.3901585e-01
  3.2637241e-01
 -4.4195704e-02
 -2.7867746e-01
  3.2707445e-02
  1.8529530e-01
 -1.9213231e-01
 -1.4841971e-01
 -2.0761400e-01
  4.8791510e-01
 -1.6913466e-01
 -1.8977715e-01
  1.6853777e-01
  5.5926275e-02
  2.8151497e-01
 -1.2465902e-01
 -1.7044921e-01
 -1.6719915e-03
  1.7127100e-01
 -9.7260281e-02
 -2.1635689e-01
  2.1290537e-03
  1.0704030e-01
  9.1995575e-02
  1.9366231e-02
 -6.3788801e-02
  1.2534928e-01
 -1.2019038e-01
 -1.3733318e-01
 -5.0961941e-01
 -8.6896852e-02
 -1.1797175e-01
 -1.4049631e-01
  4.4495609e-02
  4.8200780e-01
 -1.8561630e+00
  1.8880043e+00
  5.0149035e-01
  1.1666145e+00
 -1.7494652e+00
  3.6191168e-01
  1.3353249e+00
 -4.7451329e-01
  4.8249310e-01
  2.0152387e-01
  8.2483917e-01
 -7.0130455e-01
  5.9582275e-01
  1.3798566e+00
  4.5548074e-02
  4.3024287e-01
  4.0410152e-01
  1.0197210e-01
 -1.7131635e+00
  1.3377595e+00
  5.7644922e-01
  2.0537530e-01
  2.4829160e-01
  6.1626154e-01
  2.9938945e-01
 -1.7513635e+00
  1.2600437e+00
  6.7535591e-01
  2.4699648e-01
 -2.0989811e-01
  9.0813480e-02
  5.8670080e-01
 -1.6848217e+00
  9.8061854e-01
 -1.1257419e-02
  1.6723689e-01
 -2.0563772e-01
  4.6304163e-02
  7.3669396e-02
  1.6434707e-01
 -2.3341119e-01
 -3.4444654e-01
  1.1848509e-01
 -2.5955704e-01
  3.0838016e-01
 -3.4017238e-01
  7.6952535e-01
  2.1950993e-01
  1.6223533e+00
 -1.1121252e-01
 -4.6964857e-01
  2.0579868e-03
  1.9101180e-02
 -9.4420262e-02
 -6.1287671e-02
 -2.9991469e-01
 -1.6747192e-01
  6.3868016e-02
 -2.4356529e-01
  1.2309431e-01
  8.9069955e-02
 -1.1327700e-01
 -1.5801188e+00
 -7.5447083e-02
 -4.9864154e-02
 -5.1629031e-03
 -2.1390340e-01
 -4.7854058e-02
 -1.9049749e-01
  6.1295338e-02
 -1.0004649e-01
  1.0852980e-01
 -6.6958435e-02
  1.4506389e-01
  5.9940472e-02
  1.7283523e-02
 -2.4710698e-02
 -2.0742282e-01
 -1.5450682e-01
  5.1338878e-02
  1.4138055e-01
 -3.7660215e-02
 -6.5065391e-02
 -5.5328846e-01
  1.5433198e-01
 -8.1475931e-01
 -2.2150297e-01
  1.6065089e-01
  1.9192331e-01
 -2.9275268e-01
 -2.5225112e-01
  9.3314864e-02
  1.7566750e-02
 -7.4146070e-02
 -9.4560996e-02
 -4.3494765e-02
 -4.0634722e-02
 -8.9978641e-03
  8.6611964e-02
  2.0836133e-01
  2.9861304e-01
  9.7097057e-01
  7.3455787e-01
 -4.0885039e-02
  1.0606246e-01
  1.1851940e-01
  2.6785901e-01
  3.0759197e-01
 -5.1379303e-04
  3.0341974e-01
 -4.5946766e-02
  2.5366232e-01
  3.4440559e-01
 -7.8528285e-02
  1.3266596e-01
  2.0566550e-01
  5.5113244e-01
 -2.6324209e-02
 -1.1722900e-01
  1.4669801e-01
 -1.9221488e-02
 -1.1824273e-01
  1.5852651e-01
 -1.5523036e-01
 -6.2598050e-02
 -3.2429513e-01
 -7.7899712e-01
  1.5883355e-01
  1.2623984e-01
 -6.5890825e-01
 -6.6169870e-01
 -1.1384770e+00
  4.6206987e-01
 -1.8281041e-01
  5.6712443e-01
  9.3627743e-02
 -3.8593075e-01
  9.0646297e-01
  2.6119670e-01
  6.2512048e-02
  2.0600265e-01
  1.2588815e-01
  2.3744591e-01
  1.0317867e-01
  5.4581368e-01
  5.0867558e-01
  1.4901005e-02
  1.0311931e-01
  2.9434480e-02
  5.2489507e-01
  3.3334571e-01
  5.3460068e-01
  6.1923379e-01
  9.5231151e-03
 -1.5792689e-01
  2.3090392e-02
 -6.1135184e-02
 -2.9618070e-01
  3.0111516e-01
  6.6321748e-01
  1.4264965e-01
  7.5126089e-02
  2.5472590e-01
  2.1189399e-01
  5.1401317e-01
  5.6544268e-01
 -1.7204891e-01
 -5.5880551e+00
  1.5287702e+00
 -1.2578045e+00
 -8.8390183e-01
 -3.6259860e-01
  1.9193555e+00
  4.7684902e-01
 -5.5011076e-01
 -4.5006499e-01
 -2.3105593e-01
 -7.9258388e-01
 -5.5081493e-01
  1.1115899e+00
 -6.7180572e-03
 -4.6471807e-01
  1.5539917e-01
  7.5369745e-02
 -3.1849125e-01
  1.8347931e-01
  2.0855391e+00
 -1.5758112e-01
  4.5365003e-01
  4.2399798e-02
  1.1222593e-01
 -3.3249983e-01
 -7.0235200e-02
  1.6112472e+00
 -1.9875884e-01
  2.7760398e-01
  5.3214926e-02
  3.6763602e-01
 -1.8267226e-01
 -1.0637725e-01
  5.6943887e-01
 -2.9733670e-01
  2.3136112e-01
 -9.2106104e-02
  2.8663892e-02
  1.5825842e-01
 -3.3455020e-01
  1.1032039e+00
  2.6782580e-02
 -1.0745697e-02
  5.5233830e-01
  9.5774315e-02
  2.5318393e-01
 -5.6227960e-02
 -6.1519742e-01
  1.7528997e-01
 -2.7606180e-01
 -7.6629579e-02
 -5.2182555e-02
 -1.5135489e-01
  7.5526081e-02
 -2.4888368e-02
 -4.3100424e-02
 -5.9172619e-02
 -2.8534737e-01
 -1.5495346e-01
 -3.9919142e-02
 -7.3338069e-02
  7.1778521e-03
  1.5750690e-01
  9.9710859e-03
 -1.1850987e-01
 -2.1816468e-01
  1.5616469e-01
 -1.2934397e-01
  1.3101710e-01
 -7.7059644e-01
 -2.7797094e-02
  2.4758939e-02
 -8.6050984e-03
 -2.8278932e-01
 -7.7449973e-04
  1.8756075e-01
  1.5498110e-03
 -1.4025028e-01
  1.3201861e-01
  3.1102400e-02
  8.9110509e-02
  3.5601258e-03
  2.2325557e-01
  1.2075510e-01
 -1.1745280e-01
  3.8190648e-02
 -3.1629983e-02
 -1.8043876e-01
  2.9977354e-01
  5.5578898e-04
 -1.6670023e-01
 -1.1723267e-01
 -2.6617804e-01
  2.8535802e-02
  9.1075078e-02
  7.6851547e-01
 -2.5050151e-01
  3.0962172e-01
  3.5290577e-02
  1.6140837e-02
  1.5350600e-01
  1.8099661e-01
 -9.4354242e-02
 -1.1846017e-01
 -1.1972469e-02
 -1.0873318e-01
  4.2344484e-01
 -2.8709995e-03
  1.0819324e-01
  9.4361037e-02
  3.2216886e-01
  4.2813796e-01
  5.4779449e-03
  3.3376548e-01
 -1.7261767e-01
  1.3506663e-01
  1.1379380e-02
 -8.2872897e-02
 -8.4967881e-02
 -1.4007616e-01
 -2.5647432e-01
 -1.2421176e-01
  8.5185654e-02
  6.7581078e-03
  2.2960360e-01
 -7.0527919e-02
  2.2975560e-01
 -6.0386308e-02
  1.1648088e-02
 -1.8713786e-01
  2.4338837e-03
 -3.5190761e-02
 -3.3846088e-02
  8.4567860e-02
 -9.9694408e-02
  1.6677545e-01
  7.9079911e-02
 -1.0570595e-01
 -5.0607469e-02
 -5.0384711e-02
 -1.8327865e-01
 -2.5777006e-01
 -1.9573571e-01
 -1.5853222e-01
 -3.2054972e-02
  5.0548520e-02
  2.9391861e-01
  1.7304827e-01
  2.8405896e-01
 -5.4708503e-02
 -3.0628502e-02
 -1.5422885e-01
 -1.6232771e-01
  2.3044749e-01
 -5.4384049e-02
 -4.7591347e-02
  8.3712563e-02
  1.1599768e+00
  9.5814303e-02
  2.1501455e-02
  1.8460268e-01
 -2.2686316e-02
  5.2742809e-03
 -9.0453736e-02
  2.4220119e-01
 -3.5042584e-01
 -1.4483559e-01
  8.2916692e-02
 -2.4494447e-01
 -4.5047721e-01
 -7.4838293e-01
  1.6806839e+00
  5.6240833e-01
 -5.6949761e-02
  5.7117659e-01
  3.0751890e-01
 -7.1679646e-01
 -3.3493650e-01
 -9.7933644e-01
  1.6621418e-01
 -2.8521571e-01
 -6.2082028e-01
  5.4393208e-01
 -1.4506516e+00
 -1.7609474e-01
 -1.1471670e+00
  2.2439180e-01
 -1.6385981e+00
 -4.4349504e-01
  8.8624179e-01
 -1.0241363e+00
  1.5537456e-01
 -5.2386189e-01
 -3.1675938e-01
 -8.2714289e-01
  8.3964318e-01
  8.0404824e-01
 -9.1098899e-01
 -8.6513832e-02
 -3.0346009e-01
 -6.1209625e-01
 -1.1846544e+00
  8.1985638e-02
 -6.2876336e-02
  4.1483116e-01
  2.7793637e-01
  1.8184875e-01
  7.2417565e-02
 -3.1631127e-01
  2.3810078e-01
  2.2960551e-01
  1.7335315e-01
 -7.4674137e-02
 -1.1104617e+00
  1.0018632e+00
  8.8858742e-01
 -2.2363821e-01
  6.8075955e-01
  2.0609170e-01
 -2.5159812e-01
 -2.3831077e-01
  9.0525210e-02
  6.9810998e-01
  1.1990575e-01
  1.2406161e+00
  5.6484079e-01
  2.6574880e-01
  6.1344409e-01
 -1.1288429e-01
 -6.3602823e-01
  2.6602498e-01
 -5.8180887e-01
  3.2810247e-01
  1.8084164e-01
  2.6963755e-01
  2.1166287e-01
 -1.3164066e-01
  8.6114600e-02
 -2.4666500e-01
  4.5656747e-01
  3.3863422e-02
  2.0614299e-01
 -9.1183029e-02
 -6.1675721e-01
 -5.2463278e-02
  2.9431343e-01
  5.6721915e-02
  1.1915177e-01
  1.1267506e-01
 -1.7280892e-02
 -2.5106770e-01
 -2.5512907e-01
  3.8400736e-02
  2.2999963e-01
 -1.4200319e-01
 -7.5741664e-02
  3.8353261e-02
 -3.9961100e-02
  6.5800607e-02
 -7.0879288e-02
  1.6534686e-01
  3.0782759e-01
 -1.0458297e-02
  1.2841489e-02
 -6.1423101e-02
  3.5093039e-01
 -2.0050241e-01
 -1.0323305e-01
 -1.8529429e-01
 -7.4103482e-02
  1.1063692e-02
  1.0331242e-01
  1.4365644e-02
 -2.5222489e-01
 -3.0429369e-02
 -7.7730753e-02
  2.3049490e-01
  3.5775656e-01
  1.8917389e-01
 -2.0457092e-01
  8.4636353e-02
  2.2601894e-01
  5.8662832e-02
 -2.1037711e-01
 -9.5283568e-02
  9.2225559e-03
  3.1432144e-02
 -1.3451681e-01
  1.4294928e-01
 -5.2008964e-02
 -6.7254484e-02
  2.3773216e-01
 -1.2487863e-01
  2.8923143e-02
 -2.6933426e-01
 -1.3062392e+00
 -3.7436521e-01
 -4.1957659e-01
 -2.1469954e-01
  2.5387803e-01
 -1.5361065e+00
 -8.5533962e-02
  8.1862074e-01
 -2.5099120e-01
  1.0426637e+00
  7.5864971e-01
 -1.7709142e+00
  1.0349476e+00
 -7.4752253e-01
  7.5027400e-01
  7.6646757e-01
  7.6084876e-01
  8.0277406e-02
 -6.8684888e-01
  8.1842107e-01
  2.1434424e-02
  8.1727684e-01
  1.1178962e+00
  5.1243174e-01
  1.3713941e-01
 -8.1026942e-01
  5.8292431e-01
  1.5000044e-02
  8.9218175e-01
  6.0462409e-01
  2.3703153e-01
  8.3704430e-01
 -6.3962615e-01
  2.4043112e-01
  9.2420757e-02
 -2.3897423e-01
 -8.0591992e-02
 -2.0153906e-02
  4.2672578e-01
 -1.5835565e-01
  1.1248339e+00
 -3.9907691e+00
  1.5631500e+00
 -4.3097072e+00
  8.1121279e-03
 -9.5318955e-01
  3.0220861e+00
  8.9509362e-01
 -2.0073144e-01
  6.1253132e-03
 -4.7576389e-01
 -3.3217064e-01
  1.1059897e-01
  1.5761808e+00
 -6.8101339e-02
 -8.9776886e-01
 -1.7927510e-01
 -6.3974231e-02
 -3.1882280e-01
 -1.8134946e-01
  5.1935422e-01
 -4.0111476e-01
 -2.8524014e-01
  1.5833154e-01
  5.0770409e-02
 -5.2657914e-01
  2.2771974e-01
  2.2805437e-02
 -4.2423728e-01
  3.4142166e-01
  2.7119377e-01
  5.3742301e-01
 -1.8168262e-01
  1.9138509e-01
 -7.5999781e-02
 -5.4869038e-01
 -2.3317383e-01
  2.1936990e-01
 -2.8656113e-01
 -1.1337215e-01
 -3.7708598e-01
 -2.7527446e-01
 -4.1775279e-02
 -1.5274109e-02
  1.2477518e-02
 -1.1639214e-01
  1.0487048e-01
 -7.9750603e-01
  2.1895678e-01
  6.4084744e-01
 -1.4937961e-01
 -1.1028826e-01
  3.0682398e-02
 -3.3063942e-01
  1.0757517e-01
  1.9657984e-01
 -2.9790859e+00
  2.5275716e-01
 -2.2943990e-01
 -1.1449705e-01
 -1.7514873e-01
 -1.0055418e-01
 -2.5457194e-01
 -2.3973162e-01
  7.5824611e-02
 -1.5017371e-01
  2.2348011e-01
 -3.5993400e-01
 -1.2644716e-01
  5.4688673e-02
 -1.6307582e-01
  3.2722539e-01
  1.1570150e-01
  1.1006876e-01
 -2.9261914e-01
  3.9148919e-02
 -4.6083308e-03
 -1.0300966e-01
 -1.9057798e-01
 -3.7155688e-02
  8.6548021e-03
 -1.8308951e-01
 -2.3647100e-01
 -1.8482506e-01
 -3.7113455e-01
  4.6338928e-01
  3.6466711e-03
  3.6383498e-01
 -2.4905869e-01
  2.7491021e-01
 -1.0748843e+00
 -2.5606167e-01
  1.2319735e-01
  1.8974680e-01
 -4.1119310e-01
  7.0613064e-02
  8.9452080e-02
 -5.1515388e-01
 -1.1192642e-01
  8.2836799e-02
  4.1205510e-02
  2.0002113e-01
  4.1498128e-01
  1.9796096e-01
 -3.4952551e-01
 -1.0296513e-01
 -7.9015367e-02
  1.0810207e-01
  1.3981736e-01
 -8.1621096e-02
 -3.1714663e-01
  8.5403776e-01
  2.1116671e-01
 -5.3019442e-02
  1.3004234e-01
  5.2741591e-02
 -1.4289002e-01
 -7.9776824e-02
  8.3885625e-02
  5.4856475e-02
 -8.5436158e-02
 -3.5775959e-02
  4.0713646e-02
  4.0320835e-01
 -1.8210769e-01
  5.5956399e-01
  1.3850372e-01
  1.1901779e-02
  1.4351657e-01
 -9.0430982e-02
 -3.0564907e-01
  2.1148108e-01
 -3.0223635e-01
 -6.6974811e-02
  3.2474419e-01
  1.5000993e-01
 -6.7002073e-02
  1.6807844e-01
  9.3509123e-02
 -3.5072498e-02
 -1.5956050e-02
 -3.0442926e-01
  1.9454285e+00
  2.6045102e-01
  4.5713958e-01
 -1.5614234e-01
 -1.0364314e-01
  4.3042755e-01
 -6.4402103e-02
  4.1192207e-01
  2.1004817e-01
  1.1262483e-01
  1.4005873e-02
 -5.0831833e-03
  4.1273296e-01
  4.7731479e-03
  1.6759466e-01
  1.8165922e-01
  3.8165364e-02
  1.9691655e-01
  6.9128640e-02
  6.9735087e-02
  7.0592840e-03
 -6.4787485e-02
 -1.0326166e-01
 -2.7138121e-02
  6.0144629e-02
 -2.1203555e-02
 -2.6975822e-01
  1.0560016e-01
  2.3830390e-01
 -1.2699172e-01
 -1.7090240e-01
  5.4977655e-01
 -3.0339757e-01
  2.0049658e-01
  8.7237626e-02
  1.1143408e-04
 -7.0755899e-02
 -6.1542314e-01
  1.9738120e-01
  1.5540823e-01
  1.9003271e-01
 -1.2286822e-01
  2.0363621e-01
 -1.0156436e-01
  3.3755365e-01
 -1.2292100e-01
 -1.4015071e-02
  7.3860914e-02
  3.0124674e-02
  1.4409770e-01
  5.3125226e-01
 -1.2809679e-01
  3.5475162e-01
  5.1940560e-01
 -9.5759563e-02
  1.8170695e-01
  2.5624767e-01
  7.3267698e-02
  3.0589783e-01
  6.2423748e-01
  5.6725061e-01
 -5.0535254e-02
 -8.9269638e-02
 -3.1662989e-02
 -2.1695839e-02
 -3.1462350e-01
 -5.3933573e+00
  2.5269767e-02
 -3.0450055e-01
 -2.9509789e-01
 -6.4148283e-01
 -1.8674381e-01
 -9.5088355e-02
 -1.5263593e+00
 -5.2523017e-01
  2.8709731e-01
 -4.4370377e-01
 -1.1735875e-02
 -1.3559221e-01
 -1.2811587e-02
  5.5025274e-01
 -7.8972392e-03
 -1.8534841e-01
 -1.9792971e-01
 -4.9715319e-01
 -1.8137408e-02
  6.8459883e-02
  1.0338440e-01
 -3.2749522e-01
 -3.0295300e-01
 -5.8345769e-02
 -2.9787147e-01
  1.4560942e-01
  4.1747179e-02
  3.9707477e+00
 -2.1569745e-01
 -1.3906710e-01
  6.0642147e-01
  7.4066065e-02
 -1.1977419e-01
  2.4791530e-01
  6.1222933e-02
  1.5995137e-01
 -8.9496143e-02
 -4.1895241e-02
  2.0738912e-01
 -2.6339307e-01
  2.2245055e-01
 -6.8092659e-02
 -4.2863809e-02
  2.2881633e-01
  9.7094111e-02
  1.1480680e-01
  4.2900398e-01
 -5.4782873e-01
  1.9974214e-01
 -8.5536100e-02
 -3.1454965e-01
 -1.4434314e-03
  8.1113197e-02
 -2.8524450e-03
  1.0217242e-01
 -3.2580206e-01
  1.3730812e-01
  2.5837278e-02
  2.9471880e-01
  1.3556997e-01
  1.6876651e-02
  5.3925230e-03
 -2.0244734e-01
  3.7346818e-02
  1.7876415e-01
  2.2439498e-01
  8.8146210e-02
  7.7441998e-02
  2.3292574e-01
 -6.5741181e-01
 -1.6234924e-01
  7.9268724e-02
  1.0139367e-01
 -3.6765128e-02
 -2.4774416e-01
 -6.2313117e-02
 -1.0372332e-01
  1.8117967e-01
  5.6818414e-02
 -1.2842406e-01
  2.0072320e-01
  1.1686611e-01
  1.2907006e-01
  2.0279741e-01
  7.2311901e-02
 -2.8981110e-02
  1.1245988e-01
  3.8254127e-01
  8.4635094e-02
  8.6761720e-02
 -2.0644680e-01
 -3.3502865e-01
 -2.4407487e-02
 -1.1309388e+00
  1.9489247e-01
 -1.3686687e-01
  6.4574975e-01
 -6.3563772e-02
 -5.1512289e-01
 -2.3150393e-01
  1.0168540e-01
  1.3006305e+00
 -2.6340839e-01
 -1.6484085e-01
  3.7120365e-02
 -2.0198330e-01
  1.4026752e-01
  1.8818170e+00
 -3.8433945e-01
 -3.1598570e+00
  8.3242200e-02
  1.0239431e-01
  6.6011900e-01
 -8.3047283e-01
 -1.4401971e-01
 -1.7983723e-01
  1.8052015e-01
  6.6022062e-01
  1.1330855e-01
  6.3068414e-01
  7.8002512e-02
  1.5070018e-01
 -1.8795663e-02
  2.4209760e-02
  1.3873975e-01
 -9.0085369e-01
 -1.1534240e+00
  1.3711420e-01
  1.0454574e+00
  4.8522556e-01
  1.5690674e-01
  3.8406825e-01
  1.6943386e-01
 -7.5864291e-01
  1.1806298e+00
  3.4485033e-01
 -2.0903446e-01
  6.7000008e-01
 -3.7185784e-02
 -6.6063255e-01
 -2.1129201e-01
  1.1122581e-01
  2.1624920e-01
 -1.0356723e+00
  1.1621729e+00
 -2.8599441e-01
 -8.0954766e-01
 -1.2837161e-01
  1.6080574e+00
  1.2952068e-01
  1.7852429e-01
  1.3445236e-01
 -5.3014910e-01
  1.0176522e-01
  3.9265439e-01
 -1.7152883e+00
  1.2208482e+00
 -6.5793473e-01
  1.8850188e-01
 -8.3362627e-01
  6.1661172e-01
 -1.5982683e+00
 -1.0990807e+00
  3.0461388e+00
  5.1848833e-02
 -2.1997349e-01
  5.5455990e-02
  3.2935565e+00
 -4.9132127e-01
  4.7371250e-01
  1.3301837e+00
 -2.8994541e+00
 -1.7871684e-01
  3.5551283e-01
  1.4963777e-01
 -2.6152494e+00
  1.3615264e+00
  1.3472240e-01
  2.3444664e+00
 -1.9014214e+00
 -5.6156981e-01
  4.2403948e-01
  1.0214136e+00
  9.3203771e-01
 -6.2996668e-01
  6.5358895e-01
 -2.8935605e-01
  8.7297076e-01
  3.1253126e+00
  3.5194199e+00
  7.5565958e+00
  1.7841864e+00
 -4.6142349e+00
  1.4881253e-03
  8.2286221e-01
  7.3609179e-01
  2.8971217e+00
  6.3884014e-01
  3.3054943e+00
 -2.0048545e-01
 -6.1289992e-02
  6.7648433e-02
 -7.9433852e-01
  1.4522474e+00
  1.8497046e+00
 -1.2987634e+00
 -2.6528893e-02
 -4.2240340e-01
  6.4013869e-01
 -8.3956915e-01
 -1.8219922e-01
  1.5518659e+00
 -9.1710705e-01
  7.8062588e-01
 -1.7915331e+00
  4.6109386e-02
  7.9258956e-02
  7.7942270e-01
  9.9808872e-01
 -3.1988354e+00
 -1.0736390e+00
 -2.3995928e-01
  8.7941307e-01
  3.8053989e-01
 -3.5881734e-01
  1.9050331e-01
 -1.9076093e-01
  3.6120254e-01
 -7.0924520e-01
 -3.9122617e-03
  8.7414992e-01
  1.9608726e-01
  3.0174163e-01
  2.7147624e-01
 -6.7913473e-01
  2.5475526e-01
  2.7238032e-01
 -4.9007961e-01
 -2.1127388e-02
 -3.3034477e-01
 -2.2301736e-01
 -4.0386918e-01
  6.0304457e-01
  1.7767124e-01
 -3.0931488e-01
  2.6974156e-02
 -3.0738392e-01
 -2.0672637e-01
  3.3117062e-01
  1.9965731e-02
  7.0581502e-01
  2.0701528e-01
 -8.8296540e-02
 -5.2453358e-02
 -5.7453293e-02
  6.4748693e-01
  2.8675294e-01
 -2.5190670e-02
  3.2637119e-01
  2.6828995e-01
 -3.8855323e-01
 -2.4302701e-02
  3.4477312e-02
 -1.6478648e-02
  6.3026853e-02
  9.1347598e-02
 -3.1086655e-02
  6.0755104e-02
  1.2044262e-01
 -2.5421879e-01
 -9.6690673e-01
  3.8087528e-02
  7.4067545e-01
 -2.4194860e-01
  8.1107631e-02
  9.8775133e-02
 -3.1665432e-01
  7.8802325e-02
 -7.2345555e-02
  1.8261883e-01
  2.4714015e-01
 -9.2971429e-02
 -1.4167479e-01
 -1.9898534e-01
  5.1650172e-01
 -1.7743218e-01
  4.2689815e-01
  2.7872640e-01
  2.1417761e-02
  1.0834520e-01
  5.6738250e-02
  7.8781955e-02
  1.9857047e-01
 -1.6840494e-01
 -4.8543873e-01
 -9.2041092e-03
 -1.1003283e-01
  4.2763945e-02
 -4.5820072e-02
  2.1648219e-01
 -1.6161682e-01
 -1.7247398e-01
 -6.3148052e-02
  4.4515874e-02
 -2.6587550e-02
 -1.3050020e-01
  5.1749480e-01
  3.8633905e-02
  9.8786578e-02
 -2.2962484e-01
 -1.0745363e-01
 -1.2091117e-01
 -1.6429348e-01
 -9.4744825e-01
 -6.8916965e-01
  5.3754294e-01
  4.3581444e-01
 -8.1868790e-02
 -3.3716422e-01
 -3.9182070e-01
  3.6495247e-01
 -4.9107629e-01
  1.8683520e-01
  2.4859999e-01
  6.6626862e-02
 -4.1784170e-01
 -1.0851188e+00
 -8.4436294e-03
 -2.1900328e-02
 -4.3649703e-01
  1.9696864e-01
 -4.4298768e-01
 -5.6926233e-01
 -3.7005898e-01
 -6.9362813e-01
 -8.4865767e-01
  1.2753477e+00
  4.9699515e-02
 -6.3985163e-01
 -1.1501038e+00
 -3.0439410e-01
 -6.0426360e-01
  6.2056702e-01
  1.0724540e-01
 -6.8954736e-02
 -6.1227810e-01
 -6.5752923e-01
  1.1035467e+00
 -3.6977038e-01
  3.7115249e-01
  2.1268725e-01
  2.5760162e-01
  1.2435812e-01
 -2.7578093e-02
 -2.2350678e+00
 -1.7118521e+00
  1.6489844e+00
 -1.8378865e+00
  2.9787028e-01
 -9.4522065e-01
 -1.5702717e+00
  1.6196318e-01
  2.3183091e-01
  9.2315906e-01
 -2.4307774e-01
 -3.4580198e-01
 -7.4989364e-02
 -1.7894465e-01
 -5.5938471e-02
 -4.9773040e-01
 -3.3521286e-01
 -1.0096394e+00
 -3.9578664e-01
  5.0463051e-01
  8.2455248e-01
 -2.4629416e-01
 -6.1235048e-02
 -2.6698893e-01
 -2.1013761e+00
 -2.6832488e-01
 -1.5388355e+00
  1.3909789e+00
  2.5603241e-01
  7.1890330e-01
  8.1907147e-01
 -1.0363386e+00
  3.2474205e-01
 -1.4794499e+00
  4.4261923e-01
 -1.9253951e-01
  2.6681703e-01
  4.2569742e-02
  1.2553261e-01
 -2.0273013e-02
  1.8150403e-01
 -4.8300847e-01
  4.2959300e-01
  1.2847368e+00
  6.2565699e-02
  3.9534897e-01
  1.9542758e+00
  5.9843695e-01
  1.6856158e-01
 -3.7525889e-01
 -1.2818477e+00
  1.4175484e+00
 -2.8634980e-01
  1.4957999e-01
 -7.6671791e-01
 -2.5065163e-01
 -1.1009902e+00
  2.8222382e-01
  8.6586416e-01
  9.1364115e-01
  4.7612846e-01
 -7.0725018e-01
  2.6270559e-01
 -9.1744298e-01
  5.9983623e-01
  1.7785007e-01
  1.0026805e+00
  7.4594311e-02
 -5.5176312e-01
  6.4453349e-04
 -7.3064649e-01
 -1.8088470e-01
 -2.8037360e-01
  2.1534882e-01
  2.2360057e-01
  1.0716685e+00
  1.0385256e+00
  3.0527082e-01
 -5.7957911e-01
  5.4403543e-01
  1.3745567e-01
  1.1050972e-01
  5.6066477e-01
  2.3807566e-01
  3.6325586e-01
  4.8198467e-01
  9.2868036e-01
  6.4307189e-01
 -7.8372240e-02
 -8.6404276e-01
 -1.0589972e+00
  1.1205205e-01
 -4.9445394e-01
 -5.5853534e-02
 -2.6616305e-01
 -5.7858173e-02
 -5.5602498e-02
 -4.2634726e-01
  2.8130299e-01
 -6.6980904e-01
 -8.3676201e-01
 -6.1239278e-01
 -4.2089903e-01
 -2.4380039e-01
  3.5507402e-01
  2.2872461e-02
  9.9561626e-01
 -9.8032874e-01
 -4.1680470e-01
 -5.0271094e-01
 -4.3966794e-01
  3.8634840e-01
 -2.6108098e-01
  1.3608426e-01
  1.1919278e+00
 -7.9793882e-01
 -6.6053212e-01
 -9.2492133e-02
  2.1435657e-01
  1.6831754e-01
  7.9191718e-03
 -1.8355273e-01
 -2.2816117e-01
 -1.0656226e-01
  4.5612436e-02
 -3.1693804e-01
  4.0510807e-02
 -9.6161574e-02
 -1.6390605e-01
  2.6375633e-01
  1.9489574e-01
 -1.7864491e-01
  4.4846520e-02
  1.4383933e-01
 -3.4083006e-01
 -3.3807088e-02
  4.2187095e-02
  4.9029477e-02
  3.0571653e-02
 -1.5889503e-01
  9.4758302e-02
 -3.2316867e-01
  1.7887564e-01
 -4.2152908e-02
 -2.2368355e-01
  1.5061669e-01
 -1.0208272e-01
 -2.1977128e-01
 -2.0378308e-01
 -3.5298866e-01
  2.1512765e-01
  1.1529097e-01
  1.6015494e-01
  2.8778613e-02
 -9.6374840e-02
 -9.2041439e-01
 -2.0439771e-01
 -1.4743292e-01
 -1.7266067e-04
 -4.9022797e-02
  1.0093051e+00
  8.6602971e-02
 -3.0867610e-02
  1.0220985e-01
  4.1268639e-02
  1.9634510e-03
 -1.2934801e-01
  2.6151434e-01
  4.7539106e-01
 -3.3233680e-02
  1.1496655e+00
  4.3605870e-01
  9.4685113e-01
  1.3022337e+00
  2.1575055e-01
 -1.3492562e-01
  3.7198278e-01
 -9.8287380e-01
 -3.5205892e-01
 -9.7833717e-01
 -2.6857248e-01
  2.6356032e-01
  8.2780111e-01
  7.4715054e-01
 -7.3897177e-01
 -2.3736127e-02
 -1.1953183e+00
 -2.0709303e-01
  7.0077419e-01
  8.8757145e-01
  7.2533327e-01
  7.0190355e-02
 -7.3033667e-01
 -8.5174239e-01
 -5.5056667e-01
  2.3717834e-01
 -1.5320350e-01
  2.8714591e-01
  4.9570715e-01
 -2.7835962e-01
 -3.4659207e-01
  2.1189053e-01
  4.2414844e-02
 -3.2967380e-01
  1.0531666e-02
  1.4125711e-01
 -1.1926711e-01
 -1.2726164e-01
 -2.0214778e-01
 -3.9134672e-01
  4.6120014e-02
 -3.2225508e-02
  4.6772158e-01
 -1.6276336e-01
 -3.4145406e-03
  3.1279379e-01
  1.4189183e-02
 -9.5237128e-02
 -4.4300135e-02
  2.0253339e-01
 -3.8443118e-01
 -4.8466634e-02
 -3.2307029e-01
 -3.7322149e-02
  4.6048239e-01
  6.2908375e-01
  5.0085241e-01
  4.1375704e-02
 -2.8949645e-01
  9.7578518e-02
 -2.0466863e-01
 -5.4713260e-02
  2.0564577e-01
 -4.5802202e-02
 -8.9215510e-02
 -6.3759200e-02
 -2.3442544e-01
  5.7986569e-01
  3.2074368e-01
  8.0440450e-01
  1.5229316e-01
  2.5978246e-01
  4.1225713e-02
  2.6582354e-01
  1.1227887e-01
 -2.1130764e-03
  4.7896396e-02
  1.3649102e-02
 -3.4756598e-01
 -3.7610166e-02
  9.2175836e-03
 -4.7988498e-01
  3.0002901e-01
  2.6069719e-01
  8.2080662e-02
 -3.7445867e-01
  1.7548658e-02
 -4.3243546e-02
 -3.8179770e-01
  1.2143314e-01
  8.7334090e-01
 -1.8405223e-02
  2.7879942e-02
 -1.5728508e-01
 -2.1034451e-01
  3.9225984e-02
  1.8483597e-01
 -8.4150881e-02
 -3.0031168e-01
  1.1396600e-01
 -2.0172505e-01
  9.7049139e-03
 -9.5915049e-02
  7.0278078e-02
  1.6880214e-01
  1.2634435e-01
  2.0433557e-01
 -1.0706104e-01
 -5.1624671e-02
 -2.8814876e-01
 -1.0667876e-01
  1.0891685e-01
  1.5603982e-01
 -3.8239700e-01
  9.4349548e-02
  5.4008424e-01
 -6.1703958e-02
 -1.4864595e-01
  2.5723419e-01
 -5.4196917e-02
  1.1155529e-01
 -6.2527031e-02
  9.2286682e-01
  1.0386929e-01
 -1.2485566e+00
  1.7313076e+00
 -1.6003479e-01
 -8.7318814e-01
 -1.9071309e-01
  1.8865985e+00
  1.3163038e+00
 -1.0993371e+00
  2.1816268e+00
  1.3211945e+00
  1.8783060e-01
 -4.7476149e-01
 -3.4449840e+00
 -4.9411936e+00
 -2.0720086e+00
  2.5892282e+00
  9.1608858e-01
  1.3229164e+00
 -6.8975270e-01
 -4.6893859e+00
 -4.0131888e+00
 -1.5279098e+00
  1.7528833e+00
  4.9838290e-02
  3.1192110e+00
  2.9978168e-01
 -5.2339864e+00
 -1.6999563e+00
 -7.2596127e-01
  1.1078373e+00
  2.6740927e-01
  1.9588383e+00
 -4.7308287e-01
 -3.0789280e+00
 -3.9246948e+00
  7.1380782e-01
  7.0217568e-01
 -3.9111802e-01
  4.1217260e-02
 -2.3182949e-01
 -1.4771088e+00
  1.8061279e+00
  1.5536992e-01
 -2.5420853e-01
  3.3160698e-01
 -2.7647588e-01
  1.6656290e-01
 -2.3651570e-01
 -3.4007549e-01
 -1.2256760e-03
  6.2747039e-02
 -1.2990730e-01
 -1.2880526e-02
 -3.6351863e-01
  6.0703330e-02
  1.5790756e-01
  2.1276864e-01
 -1.5645349e-01
  8.7746024e-02
 -6.1595488e-02
 -2.3289281e-01
 -4.0180677e-01
 -3.5139483e-01
 -2.0933505e-02
  7.2028153e-02
  3.7803892e-02
  1.8485649e-01
 -1.5977462e-01
 -9.1473532e-01
  1.4455141e-01
  1.6356337e-01
  2.2808231e-01
  1.3892113e-01
  3.1209379e-01
  8.2810357e-02
  2.2862175e-01
  8.8752851e-02
  4.1945454e-02
 -1.0213953e-01
  1.6910243e-01
 -1.1543416e-01
 -1.8651890e-02
 -8.9367256e-02
  4.9838122e-02
  3.6852069e-02
  8.0170138e-03
  2.2471339e-02
 -1.4018451e-01
  1.3361514e-01
  4.2886924e-02
  4.8309988e-01
  1.0600481e-01
  2.7173659e-01
 -1.9630957e-01
 -4.9135040e-02
 -2.6658219e-01
  3.3537588e-01
 -4.8237380e-02
  6.6206396e-02
  1.5715119e-01
 -1.9512478e-01
  2.8715506e-01
  4.7585953e-02
  1.8983045e-01
  2.4897732e-01
  1.3958977e-01
 -7.7167705e-02
 -3.1655344e-01
  2.5718894e-03
  4.9300498e-01
 -9.2507631e-02
 -3.9744598e-01
 -2.0298886e-01
 -1.5803576e-01
 -1.3258113e-02
 -5.8005828e-01
  1.6173701e-01
 -2.6158684e-01
  1.0267814e-01
  3.0640088e-02
 -1.7895790e-02
 -1.8579550e-01
  1.9995074e-01
  8.0454752e-02
  1.1186487e-02
  8.7077282e-02
  2.4979992e+00
  9.2614430e-01
 -1.2036493e-01
  1.7845863e+00
  4.7294521e-01
 -3.9457306e-01
  5.0235081e-01
 -5.1671278e-01
 -2.2120884e-01
  6.1530757e-01
 -4.4689946e-02
  1.0174638e-01
 -6.2026351e-04
  2.2650705e-01
 -3.8459867e-01
 -2.4517325e-01
  2.6144990e-01
  1.9563481e-01
  3.2976872e-01
 -6.2642908e-01
 -1.2908830e-01
 -1.1480827e+00
 -3.1935033e-01
  8.7370777e-01
 -1.4262983e+00
  2.1311125e-01
 -1.5273186e+00
  5.6352681e-01
 -4.2592132e-01
 -7.0479974e-02
  3.4367362e-01
  5.8011162e-01
 -1.6297691e-01
  3.7416440e-01
  7.8095794e-02
 -1.5901165e-01
 -1.4361537e-01
  2.1252640e-01
 -5.3127237e-02
 -1.8287336e-02
  1.2939221e-01
  3.6768866e-01
 -1.4200824e-01
 -8.9415509e-01
 -1.6718801e+00
  2.2229245e+00
  1.7637757e+00
 -2.5464296e+00
 -3.0505280e+00
 -1.0467756e+00
  1.3865067e-01
  1.2293247e+00
  5.0518793e-01
  3.7217355e-01
 -8.6982268e-01
 -5.4625446e-01
 -1.1416618e+00
  1.2852536e+00
  2.4724752e-01
 -4.0468659e-02
  8.4501898e-01
 -1.5757278e+00
 -3.7744653e-01
 -1.6932143e+00
  1.2080408e-01
  1.8489357e+00
 -3.2063338e-01
  1.0335737e+00
 -1.1670843e+00
 -2.0211780e-01
 -1.8907647e+00
  6.3576669e-01
  9.6577400e-01
 -5.9317533e-02
  1.2515720e+00
 -7.3374218e-01
 -1.7191832e+00
 -6.4154901e-02
 -2.3305377e-01
 -2.9938170e-01
 -1.2403096e-01
  1.3836512e-01
 -3.5960432e-02
  1.3664827e+00
 -7.5923008e-01
 -1.0684060e+00
 -1.3223149e+00
  1.8950920e+00
  1.5346394e+00
 -1.2719945e+00
 -2.0075819e+00
 -7.1512824e-01
  9.3399972e-01
 -1.4179651e+00
 -9.9164116e-01
 -4.7191106e-02
 -8.6394697e-01
  1.1266765e-02
 -7.8564870e-01
  7.4312270e-01
  1.4649514e+00
  4.6363693e-01
 -7.9325877e-02
 -4.9448218e-02
  8.7384087e-01
 -8.6777323e-01
  1.9296809e-01
  1.4401222e+00
 -9.5769787e-01
  1.8736070e-01
 -4.8799163e-01
 -3.5025302e-01
 -1.9072890e-02
  2.5561469e-02
  5.6539243e-01
 -1.8341638e+00
 -2.9830122e-02
  1.0041598e+00
 -7.5338119e-01
  6.0758967e-02
 -3.5215570e-03
  8.8334806e-02
 -3.4752339e-01
  3.4056701e-02
  3.2021889e-01
  9.6969688e-01
 -1.2018498e+00
 -8.9665264e-01
  8.6146760e-01
  5.1248544e-01
  1.9336443e-01
  4.3283275e-01
 -1.3468117e+00
  1.3727064e-01
 -3.4421250e-02
 -1.7368501e-01
  1.6456824e-02
 -2.8103435e-01
 -8.2794994e-01
  1.0107251e+00
  4.1636032e-01
  3.8072672e-01
 -2.6665956e-01
  6.0393739e-01
 -7.1596879e-01
  4.1261190e-01
 -2.2385244e-01
  1.1271554e-01
 -8.1887317e-01
 -1.9844490e-01
  1.1687850e+00
 -7.4130064e-01
  7.6680869e-02
 -5.0977111e-01
  4.9318328e-01
 -8.0299538e-01
 -2.4128917e-01
  1.1679906e-01
 -1.0668093e+00
 -8.2567000e-01
 -7.9448235e-01
 -2.2186756e-01
  5.9525084e-01
  6.7679010e-02
 -4.1988257e-02
  1.7327772e-01
 -1.6376980e-01
 -3.7054667e-01
 -8.3219463e-01
 -2.1516829e+00
 -1.2853483e+00
  5.5074590e-01
  4.1661987e-01
 -1.1449790e+00
  1.0875175e+00
  4.1774589e-01
 -4.5937088e-01
 -6.0540813e-01
  1.5733118e-01
 -3.9988226e-01
 -2.7614182e-01
  1.9497257e-02
  3.4170920e-01
 -1.9046630e-01
 -7.1219450e-01
 -1.2982498e-01
 -4.7397411e-01
  2.3590475e-01
 -6.5132827e-01
  3.2677189e-01
 -2.0884882e-01
  1.7739998e-01
 -1.6557546e+00
 -2.9492912e-01
  8.2054868e-02
 -2.6528591e-01
  5.8692765e-01
 -1.6558403e-01
 -9.0483028e-01
 -3.9791062e-01
 -2.6332624e-02
 -6.0000980e-01
 -4.4075900e-01
  5.4348078e-02
 -7.9593733e-02
 -7.4287277e-01
  7.2041973e-02
  9.1414280e-02
 -1.6882429e-02
 -4.3584165e-01
 -1.0135344e-01
  1.5298499e-01
  4.8024144e-02
  3.2325318e-01
 -1.5948561e-01
 -1.7765969e-01
 -1.8565090e-01
  1.1698395e-01
 -7.4583165e-02
 -1.2581095e-02
  1.8914014e-02
 -1.1300003e-02
  1.5570687e-01
 -1.2600052e-01
 -9.6602447e-02
 -9.2870027e-02
 -2.3450185e-01
  5.5126183e-02
 -1.0636894e-01
  2.4667940e-01
 -5.4572694e-02
  1.1813820e-02
  1.6135184e-01
  1.2349230e-01
 -6.2641345e-02
 -2.7363461e-01
  1.3029670e+00
  8.2211651e-02
 -1.4357182e-01
  2.6147422e-01
  3.2260612e-01
 -1.4246063e-01
 -8.7086007e-02
  1.9031541e-01
  2.4371464e-02
 -2.1727945e-01
 -6.1172485e-02
 -1.4334168e-01
  2.4669012e-01
 -1.7264546e-01
 -3.0334896e-01
 -8.0245651e-02
 -1.8080215e+00
 -1.7238225e-01
  8.5525697e-01
 -1.9622966e+00
 -1.9785997e+00
  1.0268269e-01
  1.3057823e+00
 -1.0278571e+00
  1.8905151e-01
  4.2104167e-01
 -7.2190386e-01
 -7.6500815e-01
  1.8976297e-02
 -1.7108786e+00
 -3.2344303e-01
  2.1592087e-01
  3.7132758e-01
 -7.6203430e-01
 -1.7177037e+00
  7.7588427e-01
 -8.0566299e-01
 -6.0420048e-01
 -4.4062832e-01
 -5.9322186e-02
  7.5022274e-01
 -1.6263592e+00
 -7.2055185e-01
 -1.6654540e+00
 -1.4996784e+00
 -6.8901181e-01
  9.8736599e-02
  7.2891897e-01
 -8.5979903e-01
  3.4572232e-01
 -1.0177425e+00
 -2.6171681e-01
 -1.0205653e+00
 -6.4751379e-02
  1.5554053e-01
 -2.4598981e-01
 -9.6016815e-03
 -1.1854115e+00
  3.2443836e+00
 -2.1244411e+00
 -3.1495817e+00
 -8.7099081e-01
 -5.9578347e+00
 -3.1124249e+00
  4.4160404e+00
 -4.6397957e-01
  2.8403682e-01
 -3.7220578e+00
 -2.8501236e+00
  2.9340696e-01
 -2.6075823e+00
 -1.6880581e-01
 -9.5382309e-01
  5.1029205e-01
 -1.7172308e+00
  7.1491235e-01
  4.3511224e-01
  2.2153025e+00
 -6.8016037e-02
 -1.0114584e+00
 -1.2679291e+00
 -9.9201769e-02
  1.2047778e+00
  1.9664007e-01
  1.0783941e+00
 -4.4851133e-01
  1.0383465e+00
 -5.2692658e-01
 -4.0944490e-01
 -5.8933169e-01
 -8.5464197e-01
  3.0006049e+00
  1.0518527e+00
  9.5289558e-02
  1.8652024e-02
 -9.2978942e-01
 -5.1001930e-01
  1.6391842e-01
 -4.4953984e-01
 -2.0375812e-01
 -2.9057571e-01
 -2.2738108e-01
  1.2698944e-01
 -5.6101806e-03
 -1.0941623e-01
  2.2858301e-01
 -7.1614586e-02
 -2.6388830e-01
  1.7049259e-01
 -1.4674742e+00
 -9.3457207e-02
 -1.9251767e-01
 -1.7715842e-02
 -2.6712462e-01
 -1.7051221e-01
  3.9608541e-01
 -4.3949389e-01
  2.5112363e-02
 -3.2748213e-01
 -9.0001643e-02
  7.5342096e-02
  1.9481885e-01
  6.5346442e-02
 -2.5045279e-01
 -1.5634054e-01
  1.3693391e-01
 -8.3274698e-01
  2.4229772e-02
 -1.3751620e-02
 -5.4385328e-01
 -1.0502265e-01
  2.8827012e-01
  1.7506890e-01
 -1.2520787e-01
 -2.5521740e-01
  1.0964525e-01
 -3.7348154e-01
 -4.9788661e-02
 -2.1348159e-01
  3.4211230e-01
  2.2730777e-01
  3.1413138e-02
  2.3556182e-01
  3.3843914e-01
  5.0075639e-02
 -1.1188289e+00
 -3.9519963e-01
  1.1551243e+00
 -8.4767535e-02
  3.5115060e-01
 -2.0194337e-01
  3.2062337e-01
 -3.1304389e-02
 -2.4036886e-01
 -1.3135828e-01
  1.0216920e+00
  3.9110303e-01
  4.6954975e-01
 -5.2321821e-01
 -3.8383892e-01
 -1.2397853e-01
 -1.1648626e-01
  1.9542009e-01
  2.8417408e-01
 -1.6768077e-02
  8.4052056e-02
  6.7631954e-01
 -3.9475322e-02
 -8.1114769e-01
  9.3835366e-01
  1.7383221e-01
  1.2887637e-01
 -8.0691308e-01
 -5.3197259e-01
  2.8436092e-01
 -5.6736052e-01
 -5.5723536e-01
 -1.9128363e-01
  7.9350904e-02
  3.6063945e-01
 -1.2246824e-01
 -2.9241779e-01
 -2.5685444e-01
 -3.1609914e-01
 -4.7048647e-02
  4.2001203e-02
  6.6887671e-03
 -1.6362989e-02
  4.4015461e-01
  1.1088212e+00
  2.1237900e-02
  3.8751903e-01
  2.6767585e-01
 -4.6995413e-02
 -7.6784007e-03
  1.7192490e-01
  5.2015511e-03
 -7.2605506e-02
  1.4996174e-01
 -1.0691514e+00
 -1.0022762e-01
 -8.6214505e-02
  1.2392495e-02
 -1.8370618e-01
 -1.3109596e-01
  5.2026361e-02
  2.0590132e-02
 -4.0127270e-02
  1.3510753e-01
  2.1471335e-01
 -6.8405914e-01
 -3.5111761e-01
 -1.9243379e-01
 -2.6167211e-01
  1.2367647e-01
 -1.7315835e-01
  1.9933164e-01
 -1.5216118e-01
 -4.4299524e-02
 -8.2388841e-02
  4.2990722e-02
 -4.1558746e-01
 -1.9329415e-01
  2.4565637e-01
 -6.8498603e-03
  9.7341612e-02
 -1.1323629e-01
 -8.6490333e-01
 -1.1881502e+00
 -2.7614316e-01
 -1.4578143e-01
  2.9565575e-02
 -1.4776498e+00
 -3.4839281e-01
  8.4590986e-02
  1.0158308e+00
  2.8067818e-01
 -9.1000706e-02
  1.0335069e-01
  2.6850769e-01
 -3.2450980e-01
 -9.8416418e-01
  7.1597725e-01
 -2.3555358e-01
 -2.1194902e-01
  1.0829343e-01
 -5.4502791e-01
 -2.8684959e-01
 -4.0927958e-01
  2.8416964e-01
  1.8821102e-01
  2.0754878e-01
 -3.6075029e-01
 -3.7975153e-01
 -4.9223762e-02
 -3.6873709e-02
  1.2961167e+00
 -4.2157322e-01
  1.8789572e-01
  8.0404371e-02
 -1.4374520e-01
 -1.1011630e-01
  1.2744240e-01
 -1.3589230e-01
  2.8403473e-01
 -1.3826036e-01
  2.2734918e-02
  2.5041571e-01
  9.2932411e-02
  6.4901906e-01
  1.4268574e-01
 -3.2882065e-01
 -8.1764460e-02
  1.9617860e-01
  1.6296270e+00
  1.2813926e-01
 -1.8072711e-02
  1.8750465e-01
  9.1258071e-02
  1.2365240e-01
 -9.7814955e-02
  3.2285824e-01
 -4.6603348e-02
  5.5945665e-01
 -7.9161651e-02
 -4.0661144e-01
 -1.7778680e-01
 -3.8454357e-01
  2.7874866e-01
 -2.7645500e-02
 -1.2573038e-01
  6.8018630e-02
  1.5823501e-01
 -1.4819896e-01
 -9.5197693e-02
  3.7887937e-01
  7.0968792e-02
 -3.1192976e-01
  1.5721855e-01
 -1.4945353e+00
 -2.1053945e-01
 -1.4334036e-01
  1.4491986e-01
  1.5273753e-01
 -2.0985295e-01
 -1.1226621e-01
 -4.4613271e-03
 -1.6922960e-01
  2.9265723e-01
 -1.8447004e-01
  3.5141689e-01
 -1.4011487e-01
  6.4114749e-01
 -1.4796776e-01
  6.0893212e-02
  3.6827981e-02
 -8.8187146e-01
 -1.4176206e-01
 -2.0037931e-01
  1.5805423e-01
 -1.9933383e-01
  5.6153079e-03
 -2.9224267e-03
  3.5420021e-01
 -2.9377017e-02
  2.6880911e-02
 -1.4433833e-02
 -1.3575742e-01
 -1.1862277e-01
  9.4415799e-02
 -2.0447944e-01
  3.2037723e-01
 -2.9961057e-02
 -8.0414075e-01
 -1.4125154e+00
  1.7672868e-01
 -2.2384359e-01
 -1.4952356e-01
  2.3741661e-02
  3.5616510e+00
  2.9802199e-02
 -1.6755395e-01
 -3.9425775e-01
  1.8620993e-01
 -8.0128647e-02
 -6.3834369e-02
  1.2119795e-01
  2.3077038e-01
 -1.2687925e-01
 -9.5154412e-02
 -2.8046396e-02
  2.9196492e-01
  1.8317854e-01
  5.9028078e-02
  1.6253707e-01
 -2.5577074e-01
 -7.8993998e-02
 -1.4091874e-02
 -2.8904518e-01
  4.1668805e-01
  3.5124448e-01
  2.2743778e-02
  2.3714109e-01
  6.9519818e-02
  1.8996421e-01
 -1.3788312e-02
  1.0039614e-01
 -6.4063005e-02
  1.2747528e-01
  3.2437471e-01
 -3.5641477e-01
 -1.0584300e-01
 -1.0340077e-01
  2.4570805e-01
 -3.4154784e-02
  1.5535651e-01
  7.7877180e-03
 -6.2876955e-02
 -2.5765246e-01
 -1.3496713e-01
  1.4860386e-01
  1.0543760e-01
  2.4675528e-02
 -1.9116167e-02
  2.4060337e-01
  2.1679147e-01
  1.8006586e-01
 -2.6909744e-02
 -4.9057793e-02
 -2.4254014e-01
 -8.6751245e-02
 -1.9239008e-01
  1.4542125e-01
 -1.8533790e-01
  3.3043212e-01
 -4.5736778e-01
  2.3303385e-01
 -2.6843899e-01
 -2.2299936e-01
  5.5339789e-01
 -3.3364933e-02
 -6.0010541e-02
  2.1276844e-01
  5.0684690e-01
 -1.0982604e-01
  4.1091334e-02
 -2.9941651e-01
  4.4136040e-02
  1.0189211e-01
 -1.5142176e-02
 -1.5100100e-03
 -3.6031846e-02
 -2.6979887e-01
  7.5061880e-03
  1.3911723e-01
  8.3063312e-02
 -4.2374220e-01
 -1.3523971e-01
 -3.1336480e-01
 -2.1322286e-01
 -2.4241984e-02
  3.1676638e-01
  1.6021807e-01
 -5.5618893e-02
 -2.2955838e-01
  5.3374016e-01
  3.8422245e-01
 -1.2543870e-02
  8.7246954e-02
  3.4273909e-03
  6.5841264e-01
  1.5311293e-01
 -1.6605486e-01
 -1.2013860e-01
  6.4094730e-02
 -2.6848757e-01
 -2.8981337e-01
 -2.9307836e-01
 -4.9852315e-01
  5.8012408e-01
  1.3801719e+00
 -1.1972125e+00
  6.2970763e-01
  2.8353140e-02
  1.2932229e-01
 -7.2479445e-01
  1.0944159e-01
  1.5281953e-01
  1.3478002e-01
 -4.2100623e-01
  5.1291965e-02
  8.1429996e-02
 -1.6700952e-01
  6.7969590e-01
  1.1758183e+00
  7.7596915e-01
 -4.9378863e-01
  7.8153765e-01
  4.5963493e-01
 -3.3509132e-01
  6.5384150e-01
  5.3997493e-01
 -3.5555476e-01
 -6.2379658e-01
  3.1980461e-01
  6.1957574e-01
 -1.2547286e+00
  1.4096819e+00
  4.7738704e-01
  4.4332650e-01
  9.5062476e-01
 -4.0665425e-02
 -1.2843807e-01
  3.2975476e-02
  9.4133422e-02
  3.5037387e-02
  3.8977712e-01
  3.4808579e-01
  9.1869199e-01
  1.1152116e-01
 -9.8959375e-03
  3.0227986e-01
 -1.1022029e-01
 -1.4251685e-01
 -3.0629143e-01
  1.9877382e-01
 -3.6672194e-02
 -3.6397392e-01
 -3.4355901e-02
  2.1841019e-01
  3.9928526e-01
  1.8490945e-01
 -1.7430671e-01
 -6.4446055e-04
 -2.0075558e-01
  1.0421287e-01
  1.0438609e-01
  6.8984576e-02
  2.1594523e-01
  3.9445478e-02
  7.4791543e-02
 -3.0668171e-03
 -5.0986793e-02
  3.0344936e-01
  1.9092478e-01
 -2.9345555e-02
 -2.3841849e-01
 -1.6399395e-01
  1.4961873e-01
  3.8735997e-02
  6.0043190e-02
  3.2853403e-03
 -3.0410606e-01
 -3.2065469e-01
 -1.3584179e-01
 -1.6059570e-01
  2.1398562e-01
  7.9555856e-03
 -7.3191598e-02
  2.3883703e-01
 -1.2146783e+00
  7.3790503e-01
  7.3593533e-01
 -1.3628103e+00
 -1.8773000e-01
  1.9024824e+00
 -6.2580562e-01
  2.6611972e-01
  5.0275755e-01
  7.3722082e-01
 -1.3723081e-01
 -1.9341083e-01
  5.1573245e-03
  3.5922676e-01
 -2.7393091e-01
  5.5002034e-01
 -3.5428321e-01
 -4.9024037e-01
 -1.0738153e+00
  5.2487481e-01
  4.2623934e-01
  7.7820146e-01
  1.8731265e-01
 -1.0704976e+00
  5.3127176e-01
 -3.4730312e-01
  8.7005520e-01
 -7.6532137e-01
 -2.5688231e-01
 -1.2902391e-01
  1.1454664e+00
 -2.9462147e-01
 -4.5992148e-01
  2.3048210e-01
 -6.2530947e-01
 -5.6597390e-03
  1.9089801e-02
 -1.7035533e-01
 -2.3000677e-01
  1.7556097e-01
  2.4894981e-02
 -5.7332850e-01
  6.3582875e-02
  3.8702346e-02
 -4.6930227e-01
  1.6344461e-01
 -1.9068269e-01
  2.1342517e-01
 -2.2529970e-01
 -1.5905008e-01
 -6.8138026e-02
  5.2323248e-02
 -8.1759721e-02
  1.3449323e-01
  5.5097473e-01
  1.4593126e-01
 -1.7470828e-01
 -1.5704243e-01
  6.5808430e-02
 -1.5354878e-01
  1.9094732e-01
 -1.8906768e-01
 -3.6553106e-01
  3.4591478e-01
 -6.1979849e-04
 -2.4037308e-01
  3.1146541e-01
 -1.3536859e-01
 -2.4584961e-01
  1.6364928e-01
 -1.5498680e-01
  4.1645005e-02
 -1.6837147e-01
 -2.4350338e-01
 -1.8195418e-01
  8.2858872e-01
 -6.4492911e-02
 -6.1003007e-02
  1.1466807e-01
  1.8728858e-01
  3.2539749e-01
  4.8374955e-02
  9.3764655e-02
  1.0764775e-01
 -2.4504175e+00
  3.9055369e+00
  4.8735461e-01
 -2.1388550e+00
 -1.8065009e-01
 -9.9198413e-01
  3.3241112e+00
 -3.0490500e-01
  2.4382569e-01
  5.9882486e-01
  4.4427589e-01
 -2.8900290e-01
  1.6980353e-01
 -1.0018101e+00
 -7.8121290e-02
 -1.5685728e-01
  5.6010431e-01
 -1.4303219e+00
 -5.3924769e-01
 -1.5550847e-01
  7.1293092e-01
 -5.8944412e-02
  1.3708498e-01
 -1.7059116e-01
  1.2801071e+00
 -2.4500068e-01
  2.1236947e+00
  7.6655614e-01
 -4.3098789e-01
 -1.8056380e-02
 -1.3478819e+00
  1.9220933e+00
 -1.5827456e-01
  1.5743129e+00
  7.4806428e-01
 -3.0197410e-02
  7.2340183e-03
  1.2873024e-01
 -1.9020572e-02
 -8.8022105e-02
  9.6575961e-02
 -1.7311724e-01
  1.6386582e+00
  7.6801842e-01
  1.1190467e+00
  1.9825583e+00
 -4.7847781e-01
  1.8313527e+00
  1.2518446e+00
 -9.3612778e-01
  7.6213223e-01
 -1.6658176e-02
  1.1391437e+00
 -6.1947054e-01
  6.3487273e-01
  1.1082525e+00
 -2.5637624e+00
 -6.9932503e-01
 -2.7348295e-01
  4.0761294e+00
 -1.3458585e+00
 -1.2116212e+00
  3.3485062e+00
 -1.7889715e+00
 -9.5185351e-01
 -2.1958037e-01
  3.3440049e+00
 -2.0513165e+00
 -1.2226751e+00
  5.0108924e+00
 -1.1759119e+00
 -9.0459841e-01
 -3.8474864e-01
  2.6868804e+00
 -1.1620387e+00
 -1.5199656e+00
  2.2403159e+00
 -8.0481899e-01
 -1.0730786e+00
 -9.9149592e-02
 -1.0053253e-01
  1.8479162e-01
  9.2199963e-01
 -1.2051450e+00
 -8.1574529e-01
 -5.3371423e-01
  6.2512368e-02
 -1.6650280e-02
 -6.2539542e-01
  4.1530546e-02
  3.5227578e+00
  3.3175427e-01
  2.5007153e-01
 -5.4157549e-01
 -3.8398266e-01
 -1.3070065e-01
  3.7613618e-01
  2.9723406e-01
  1.0387462e+00
  1.8484397e-01
  2.9558411e-01
  6.3011712e-01
  3.7403010e-02
  1.0515616e+00
  1.5531887e-01
  1.3982935e-01
 -1.0403127e-01
  1.1322036e+00
 -7.1669781e-01
  4.5287898e-01
  1.8327592e-01
 -1.3918062e-02
  4.5840582e-01
  4.2795286e-01
  2.2574532e+00
 -1.0535061e+00
  2.1686828e-01
 -1.5197019e-01
  4.2374957e-02
 -3.3327004e-01
 -6.1737341e-01
 -1.0439124e-01
 -2.5960541e-01
 -4.9989317e-02
 -4.0612381e-02
  1.7379829e-01
  1.3531474e+00
  7.9669803e-01
 -1.0582431e-01
  7.2458036e-02
 -1.1926674e+00
  7.4992351e-02
  1.4124064e+00
  1.2846047e-01
 -3.9779440e-02
  5.3023374e-01
  1.7517723e-01
  2.2375304e-01
  3.9939828e-02
  7.2709775e-01
 -1.4386461e-02
 -3.0060402e-01
 -9.8452640e-01
 -6.8375409e-01
  4.5216662e-01
 -4.9990451e-01
  4.1606191e-01
  2.8193244e-01
  1.2591232e+00
  4.0834259e-02
  2.6066539e+00
  4.8512849e-01
 -1.2442269e-02
  8.8685292e-01
 -1.6228031e-01
  8.1476909e-01
  4.6687067e-01
  1.5296030e+00
 -2.2284293e-01
  7.5883412e-01
  1.2718642e-01
  4.6118166e-02
 -1.3529497e-01
 -2.1544738e-02
 -9.7798020e-02
  2.3380089e-01
 -1.1421947e-01
  9.9789701e-02
 -1.8014098e-02
  4.7080448e-01
 -1.2298156e+00
  3.1265807e-01
 -5.6707531e-01
 -3.6032119e-01
 -8.0159688e-01
 -1.2142372e-01
  3.8416424e-01
 -4.6079433e-01
 -3.5226569e-01
  2.1560082e-01
 -3.0453563e-01
  1.9044265e-01
  6.3487792e-01
  9.2060052e-02
  5.8860588e-01
  2.8332984e-01
  1.8395574e-01
  6.3361126e-01
 -2.0784685e-01
 -2.6523616e+00
  1.3494794e-01
 -2.6183367e-02
  7.1906149e-01
  4.5538315e-01
 -2.0592222e-01
 -3.2176924e-01
 -7.4608214e-02
 -5.2348751e-01
 -1.2206196e-02
  9.3929946e-01
  6.3152723e-02
  2.7832130e-01
 -4.7331680e-02
 -2.8045189e-01
 -6.3086927e-02
 -1.9130714e-01
  1.6336842e-01
  1.0848226e-01
  4.3358812e-03
 -1.1508574e-01
 -5.8300366e+00
 -5.0384569e-01
 -1.9699919e-01
  9.5407002e-02
 -5.2221757e-01
  1.0406906e-01
  1.5318823e-01
  5.2605581e-01
 -1.8593339e-02
 -3.8322955e-02
  9.0296634e-02
  2.5489071e-02
 -2.3468602e-01
  3.4215715e-02
  1.7753102e-01
 -2.4472131e-01
 -3.7261378e-03
  2.2746819e-01
  1.9821214e-02
  3.5038441e-01
  2.4405517e-01
  1.7288458e-02
  2.1232086e-01
  4.6206823e-01
  6.8251526e-01
 -1.2162298e-01
 -4.8128077e-01
  3.6168265e-01
  6.7545056e-01
  4.9178872e-01
 -2.9108039e-01
  1.4879613e-01
  8.3919786e-02
  9.3242735e-02
  1.1033248e-01
 -2.9212132e-01
 -7.1300507e-01
  3.1518613e-03
  1.0202656e-01
 -1.0065741e-01
 -2.9046178e-02
 -3.0406971e-02
 -2.2194961e-01
 -8.7791562e-01
  8.7559290e-02
 -2.6997226e-01
  8.1997178e-02
  6.1570391e-02
 -1.1154786e-01
 -1.6497138e-01
 -1.4165744e-01
 -1.2895510e+00
  1.3859920e-01
  5.4350350e-02
  3.2500662e-02
  1.0848522e-01
  6.1811116e-02
 -1.1845485e-01
  1.4697932e-01
 -6.2066559e-02
  1.5127592e-01
 -3.3762593e-02
  6.8577349e-02
  2.7832539e+00
  9.8586589e-02
  3.8700160e-01
 -7.5571351e-02
 -1.8270479e-01
  1.5731341e-01
  1.5784150e-01
  2.5694168e-01
  2.2590330e+00
  1.8544514e-01
  8.6596072e-01
 -8.8558756e-02
  4.4262192e-01
  9.8327406e-02
 -3.4321415e-01
  1.6331972e-01
  2.1217163e-01
  3.0030370e-01
 -1.5150413e-01
  6.7785203e-02
 -2.4800041e-01
 -1.7668699e-01
 -7.1924901e-01
  4.5560661e-01
  1.1457340e+00
  2.2281054e-01
 -1.7444733e+00
  2.0643559e-01
  3.0840224e-01
 -4.4402075e-01
  5.8823538e-01
  1.9708963e-01
 -4.1804269e-01
 -2.0222613e-01
 -4.9515387e-01
  5.3353655e-01
 -4.0370396e-01
 -7.0615113e-02
 -2.4410100e-01
 -4.6783599e-01
 -4.4313923e-02
 -3.2788780e-01
 -8.0313635e-01
  2.5646558e-01
  1.4486334e+00
 -3.4537032e-02
 -4.1786250e-01
 -1.1367647e-01
  9.4324541e-01
 -6.9835389e-01
 -1.9093096e-01
  2.7611342e-01
  3.0518231e-01
 -4.8335278e-01
  3.0743203e-01
  6.8564171e-01
 -1.2277322e-01
  4.1090590e-03
  8.7586343e-02
  2.0708784e-01
 -1.7850631e-01
  1.0886491e-01
  1.8180022e-01
 -4.6713075e-01
  1.0970633e+00
 -2.0425127e-01
 -6.4870077e-01
  1.0634506e-01
 -4.3639243e-01
 -2.1981113e-01
  1.5408927e-02
 -7.8060463e-02
 -8.9977413e-02
  5.7618731e-01
  9.9893242e-01
 -4.3887277e+00
  2.0328192e-01
 -2.2800894e-01
 -9.6147013e-01
 -4.5082641e-01
 -1.7899993e-01
  1.8269825e-01
 -6.5565300e-01
 -7.7499008e-01
  3.1871817e-01
  1.1712236e-01
 -6.8062258e-01
 -1.2246131e+00
  1.0000686e-01
  2.1889733e-01
 -1.0065361e+00
 -2.9395026e-01
 -6.3724801e-02
 -1.0520531e-01
  8.5185939e-01
 -2.3867659e-01
  5.7547402e-01
 -1.5900196e-01
  7.6309708e-03
 -3.2839796e-01
 -2.8628626e-01
 -2.0470984e-01
  6.3916095e-02
  2.6910734e-01
  5.0307894e-01
  2.0994706e-01
 -2.5224635e-01
 -4.6551034e-01
  2.1425465e-01
  3.3568902e-04
  4.5757387e-02
  4.9836241e-02
 -1.3162951e-01
  2.0528600e-01
 -3.5731599e-01
  1.0266839e-02
 -7.6254211e-02
  3.0279014e-01
  2.2415538e-01
 -2.0001210e-01
  3.8109523e-01
 -5.6093730e-02
 -3.1262529e-01
  2.5172347e-01
  3.1582651e-01
 -6.6518165e-02
 -5.1277116e-02
  3.1920159e-01
 -4.0232345e-02
  4.1964412e-02
  1.9341113e-01
  1.1995657e-02
  1.6247031e-01
 -1.4075863e-02
  1.7813449e-01
  4.2202187e-01
  1.4886191e-01
  3.7164661e-01
  1.0420139e-01
  7.8186736e-02
  3.3553219e-01
 -2.0447823e-01
  6.3322899e-03
 -2.9164150e-01
  1.3422684e-01
 -4.6212863e-02
  2.4315187e-01
  7.8585865e-03
  1.7337136e-01
 -3.8998201e-01
 -1.9055051e-01
 -6.2340617e-02
  6.0650104e-01
  1.9349015e-01
  2.4837695e-01
  8.2366802e-02
  3.7467384e-01
 -7.7351108e-02
  1.4844176e-01
 -1.6673899e-01
 -1.7878918e-01
 -3.0545384e-01
 -6.5937705e-02
 -2.0728180e-01
 -1.1680228e-01
  3.8490083e-02
 -5.0947881e-01
 -2.0804721e-01
 -2.5971189e-01
 -2.3024632e-01
 -2.1838687e-01
 -1.8078606e-01
 -1.0065654e-01
  1.2643060e-01
 -7.8500766e-01
  1.3098156e-01
 -3.1274572e-01
  1.5740502e+00
  7.1448380e-01
  2.5869331e-01
  4.1439507e-02
  2.2761793e-01
 -3.0133796e-01
 -1.8445887e-01
  2.5711474e-01
 -1.8425131e-01
  4.1823393e-01
  5.2549813e-02
  6.0261041e-02
  2.0214505e-01
  1.2400613e-02
 -6.1337501e-01
  3.3990651e-01
 -5.6073304e-02
 -1.3929601e-01
 -8.7850136e-01
  1.9336492e-02
  1.1777801e-01
  5.1119789e-02
 -5.3718257e-01
 -8.5429303e-02
  3.6452681e-02
 -1.6908932e-01
 -2.9193118e-01
 -5.2724808e-01
  1.8636951e-01
 -7.0542574e-01
  5.0564653e-01
 -2.1837920e-01
 -5.1409614e-01
  4.2723531e-01
  4.1769096e-01
  6.4930789e-02
 -1.0371565e+00
  5.8596903e-01
 -4.9597079e-01
 -3.3116212e-01
  3.3080447e-01
  4.2933527e-01
 -9.8863947e-01
 -2.6474941e-01
  4.8056215e-02
  5.3851736e-01
 -2.4312919e-01
 -5.9429981e-02
 -3.3722627e-01
 -2.8444269e-01
  2.6205307e-01
  1.1132798e-01
 -1.7304224e-01
  4.3743837e-01
  4.9260786e-01
  2.6896235e-01
 -7.9993498e-01
  9.5784050e-01
  2.9252294e-01
 -7.5832933e-02
 -7.6464713e-02
 -4.5012096e-01
 -8.3273172e-02
  5.8879633e-02
  2.7633339e-01
  3.4340772e-01
  1.6777052e-01
  4.4140625e-01
 -7.2239530e-01
 -3.3450422e-01
  1.0839989e-01
 -3.7070259e-02
  5.2148706e-01
  2.2509842e-01
  2.4527313e-01
 -2.0052525e-01
 -6.0830194e-01
 -2.3677175e-01
  1.2598236e-01
  3.5442472e-01
  7.2718573e-01
 -4.5952579e-01
 -2.8164053e-01
  3.1900263e-01
  8.1805743e-02
 -5.6966454e-01
 -1.9526273e-01
 -1.1565092e+00
  3.8424549e-01
  1.4377713e-01
 -1.4889798e-01
  1.9291455e-01
 -1.0553930e-01
 -1.6609506e-01
  1.4049840e-01
  3.4241280e-01
  8.7911648e-01
  9.0965724e-01
 -1.5077850e+00
 -1.3306363e+00
 -1.0874313e+00
  1.3186898e+00
 -6.9961220e-01
  1.9373639e-01
  2.3722906e+00
 -5.6469649e-01
  6.1432701e-01
 -8.3562469e-01
 -1.5227759e-01
  4.9447334e-01
  1.4313368e-01
  2.7286775e+00
 -6.7818123e-01
  2.8347921e-01
 -4.5966208e-01
 -3.5012341e-01
  1.2285981e+00
  1.0161219e+00
  9.3159020e-01
 -1.3632884e+00
 -2.7101246e-01
  5.0565034e-01
  6.1888385e-01
 -1.9353608e+00
  4.1429263e-01
  8.4031200e-01
 -7.0447618e-01
 -5.9994906e-01
  2.7297422e-01
  1.0798082e+00
 -1.0326972e+00
 -1.8351294e-01
 -5.6831163e-01
  2.2115722e-01
 -7.6019377e-02
  4.0521573e-02
  6.6716641e-02
 -8.8791251e-01
 -1.5633284e-01
 -1.6901597e-01
 -8.7092912e-01
 -1.8286166e-01
 -1.2442500e-01
 -2.1402639e-01
 -1.6315806e-01
  8.3092548e-02
  1.5816501e-01
 -6.3585055e-01
 -1.6320364e-01
 -2.1738018e-01
 -2.2252625e-01
 -8.3544858e-02
  9.5672801e-02
  2.7175751e-01
 -1.1921236e-01
  7.6475948e-02
 -6.8173178e-02
  1.9591355e-01
 -3.5296477e-02
  4.0016642e-01
 -3.2973123e-01
 -2.7818230e-01
 -5.9026623e-01
 -7.6552324e-02
 -1.7564419e-01
 -1.1068685e-01
 -2.8552669e-01
  4.1847046e-02
  2.5215927e-01
 -1.6043406e-02
 -2.2656940e-01
 -4.3033627e-01
  8.1831887e-02
 -4.8425221e-01
  1.1816349e-01
 -1.4827856e-01
  2.4612588e-01
 -3.0804960e-02
 -2.1413179e-01
  1.3546033e-01
  3.8641754e-01
 -2.9424520e-02
 -3.3406621e-01
  3.2588515e-01
 -7.6763764e-02
 -1.9651818e+00
 -6.4628653e-02
 -2.8995368e-01
 -1.1647732e-01
 -1.5303237e-02
  4.5280766e-02
  1.4440848e-01
  6.4396191e-01
  1.3309908e-01
 -3.2958355e-02
 -2.3380110e-01
 -3.3296570e-01
 -1.2218794e-01
  8.2026213e-02
 -1.5464278e-01
  4.1425923e-01
 -2.4595411e-01
  5.0377446e-01
 -1.1528543e-01
  4.8905408e-01
  4.1707659e-01
  2.4856369e-01
 -2.6717708e-01
 -4.5424643e-01
 -2.3721020e-01
  1.7181385e-01
 -3.1214938e-01
 -3.5072002e-01
 -1.4476533e-01
  9.1906339e-01
 -8.9504343e-01
 -9.8841496e-02
  1.3250231e+00
  1.1713207e-01
  1.2113467e-01
  3.4810077e-02
  1.7324159e-01
 -1.8051207e+00
 -2.5804600e-01
 -7.1847576e-01
 -1.1518862e+00
 -2.0144744e+00
 -5.1955724e-01
  4.3740463e-01
 -1.4542761e-01
 -1.2217728e+00
  6.2569267e-01
 -1.6539259e-01
  9.7615838e-01
  2.4755678e-01
 -7.4493891e-01
  2.2159922e-01
  1.0634175e-02
  3.0301860e-01
 -4.1490743e-01
 -6.4887631e-01
 -3.6821717e-01
  7.8696603e-01
  8.5320425e-01
 -8.5394166e-02
 -5.6968760e-01
 -2.0860991e-01
  8.4591693e-01
 -1.3573821e+00
 -7.3867047e-01
 -4.9803013e-01
  8.9755980e-03
  1.9321992e-01
  1.2976687e-01
 -4.2417210e-01
  1.3003078e-01
  1.9933265e+00
  1.2047480e+00
  6.0136855e-01
  1.5199529e+00
  1.3516102e+00
 -6.2073982e-01
  1.4214001e+00
 -6.1402208e-01
 -6.5673107e-01
  8.6312828e-04
  8.4293358e-02
 -5.7587594e-01
 -4.6757719e-01
  1.0548377e-01
 -9.0296918e-01
 -6.6800141e-01
  3.2408979e+00
 -8.6591959e-01
 -2.6675445e-01
  1.5322185e+00
 -6.2260586e-01
  2.4383676e+00
 -6.0831904e-01
  4.8600785e-02
 -1.7112606e+00
 -6.2699676e-01
 -1.1535946e-01
  2.3918569e+00
 -1.4849710e-01
  4.1366386e-01
  6.8944198e-01
  2.2184770e+00
  2.6432774e+00
 -1.0072781e+00
 -1.0240542e+00
 -3.4694534e-02
 -3.3592348e+00
  3.1493247e+00
 -6.2688813e-02
 -1.6072106e+00
  9.6803457e-02
  8.0181462e-01
 -5.3904909e-01
  2.3607075e-01
  1.4491502e-02
 -2.7727666e-01
  1.1009525e+00
  2.7066815e-01
 -1.3335820e+00
  2.3354004e-01
 -7.3222440e-01
 -2.2255483e+00
 -6.7968649e-01
  3.4511647e-01
  1.0754778e+00
 -6.0544837e-01
 -4.0445471e-01
 -7.5622243e-01
  8.4762472e-01
  3.4046367e-01
  2.4409860e-01
  1.0717908e+00
  1.0382435e+00
 -1.3874578e+00
 -3.0251852e-01
  7.7710390e-01
  5.6652679e+00
 -3.3354719e+00
 -5.6666293e+00
 -2.3583543e+00
 -5.7742443e+00
 -3.4806147e+00
  1.7700142e-01
 -2.0651720e+00
 -8.4385318e-01
  9.3937039e-01
  4.8389852e-01
 -6.2431896e-01
 -5.9995644e-02
  1.6642127e+00
  3.2127044e+00
  2.2072466e-01
  1.8634272e+00
 -6.6985267e-01
 -3.7336364e+00
  9.9705964e-01
  1.3084843e+00
  1.5352269e+00
 -1.2678517e+00
  1.3808348e+00
 -6.3864040e-01
 -3.2808025e+00
  1.1475297e+00
  1.0746524e+00
  1.4343637e+00
  1.0289585e-01
  2.8485807e-02
 -2.5592160e-01
 -3.5443940e+00
  7.9533952e-01
  7.1000361e-01
 -8.9069170e-01
  9.7952354e-01
 -8.7557304e-01
  4.4851935e-01
  8.9317685e-01
 -1.1992481e-01
  1.1225507e-01
 -3.9437442e+00
 -2.8163903e+00
 -1.5569336e+00
 -1.8621843e-01
  2.3124757e+00
  1.1497954e+00
 -5.5826020e-01
  4.2300529e+00
  3.0939224e-01
 -1.1823841e+00
 -4.5997858e-01
 -1.8368860e-01
 -4.5449206e-01
  5.0033677e-01
  3.9075608e+00
  1.0598844e+00
 -4.1490078e-01
  9.2598063e-01
 -1.8935645e+00
  6.2862837e-01
 -1.6378667e+00
  1.0855615e+00
  1.8947659e+00
  1.8344078e+00
  1.1723562e+00
 -1.8418061e+00
  2.6101908e-01
 -1.8482663e-01
  4.9592394e-01
  1.1497699e+00
  1.4915770e+00
  4.8380134e-01
 -8.8990033e-01
  5.1752996e-01
  1.1675329e+00
  7.3954493e-01
  9.5041677e-02
 -1.0703953e-01
 -4.5080474e-01
 -4.5435324e-01
 -2.4437419e-01
  2.5225589e-01
 -2.0399623e+00
  2.7995628e-01
 -1.9060262e-01
 -2.0950797e+00
 -2.4486408e-02
 -1.6467106e+00
  1.6920266e+00
 -8.9484444e-03
  1.1252646e+00
 -6.8948495e-01
 -8.1896538e-01
  1.0427616e+00
 -5.5407935e-01
  2.1563919e-01
  9.1673714e-01
  9.2875231e-03
  5.3138304e-01
  1.3565872e+00
 -7.1835378e-03
  1.4441825e+00
  9.6823597e-01
  2.6553774e-01
 -1.5874518e-02
 -9.3826073e-01
  8.0100465e-01
  1.4494844e-01
 -8.9824565e-02
  1.3770435e+00
  1.1516744e-01
  4.5462033e-01
 -2.2365758e-01
  3.8248655e-01
  1.5448672e+00
  3.3438164e-01
  9.2626506e-01
 -6.1520439e-01
  1.0594999e+00
 -2.0453206e-01
 -2.6747361e-01
  2.4707402e-01
 -2.1196836e-01
 -4.6561339e-01
 -1.4074153e-01
  8.5624635e-01
 -6.2030280e-01
  2.0460067e+00
 -1.5389222e-01
 -9.8270899e-01
 -1.2169050e+00
  4.4615701e-01
  1.5595956e+00
 -1.8165690e+00
 -3.0016148e-01
  3.6779776e-01
 -7.0838314e-01
  2.0297000e+00
  1.5076298e+00
 -7.7056807e-01
 -6.2295908e-01
  1.6125645e-01
 -2.7429030e+00
 -5.4076936e-02
 -1.2956266e+00
  7.4077320e-01
 -4.9142173e-01
 -5.0679499e-01
  2.9805568e-01
 -3.5368810e+00
 -7.4439073e-01
  2.1607265e-01
  1.2890716e-01
 -5.5117404e-01
 -5.7501829e-01
  1.1295953e-01
 -1.5723405e+00
  4.3044379e-01
 -3.8645780e-01
 -1.1259280e-01
  7.6464199e-02
 -2.8796172e-01
 -2.4731284e-01
  1.2833297e+00
  4.6287686e-02
  3.1565398e-02
 -4.2107105e-01
 -2.7700314e-01
  6.9676280e-01
 -9.1828835e-01
  6.3269854e-02
 -3.6285651e-01
  6.1826599e-01
  8.5586417e-01
 -6.0980856e-01
 -7.1357524e-01
  4.8462074e-02
 -1.3273742e+00
  3.4521297e-01
 -8.6541796e-01
  6.1660236e-01
 -1.0538694e-01
 -8.2693905e-01
  6.5658289e-01
 -8.9559436e-02
  1.3828917e+00
  1.4680713e-01
 -1.2592944e+00
  1.3009712e-01
 -1.3541190e-01
  1.4241056e-01
 -4.2112377e-01
  2.8327075e-01
 -2.5292054e-01
 -4.3968386e-03
 -4.2976740e-01
 -5.7625067e-01
  3.6538097e-01
 -6.1443096e-01
  2.1364494e-01
 -2.2175886e-01
 -1.1597545e-01
  1.4587778e-01
  1.6290657e-04
 -9.2291646e-02
  4.4026351e-01
 -3.4909680e-01
 -4.1089964e-01
 -5.8952677e-01
  5.6436813e-01
  1.1568178e+00
 -4.3551676e-02
  1.2889905e+00
  3.1999624e-01
 -2.8718561e-01
  1.3802457e+00
  5.6944847e-01
 -3.0441666e-01
 -5.3553653e-01
 -8.1744355e-01
 -2.3259088e-01
 -6.5710539e-01
 -2.6731032e-01
  7.2808498e-01
  2.1838465e-01
 -1.1076203e-01
  3.3873236e-01
  6.6853426e-02
 -3.6610648e-01
  1.2917880e+00
 -2.9784091e-02
 -1.1543878e+00
 -4.1355294e-01
 -9.8687863e-01
 -1.9926049e-01
 -9.3857870e-02
 -5.7226282e-01
  4.1297698e-01
  2.5811363e-02
 -6.9413543e-01
  6.6668844e-01
  9.4387436e-01
 -2.6136678e-01
 -1.3031255e-02
 -3.1686416e-01
  2.1375783e-01
  7.1755357e-02
  4.3137616e-01
  1.5529896e-01
  4.0743139e-01
  7.0238051e+00
 -1.1305463e+00
 -1.0582845e+00
 -2.3300083e+00
 -3.2686882e+00
 -1.8208110e+00
  2.8009622e+00
 -2.5853281e+00
 -1.6668203e+00
  1.7667555e+00
  2.9824582e-01
 -2.4292729e+00
 -1.5275626e+00
  8.7876844e-01
 -1.2858261e+00
 -1.4243973e+00
  1.8357058e+00
 -1.9600703e+00
 -2.1408703e+00
 -8.9371908e-01
  2.6874542e-01
 -4.8889020e-01
 -1.8809216e-01
  1.1660147e+00
 -2.5667713e+00
 -9.5476955e-01
 -2.0936325e+00
 -1.4315239e+00
  8.6056459e-01
  6.1006540e-01
 -7.3487252e-01
 -3.2872051e-01
 -1.5558921e+00
 -2.2010696e+00
 -1.6678395e+00
  1.1934478e+00
 -6.1043270e-02
  1.0269003e+00
  1.0971525e-01
 -2.5017598e-01
 -5.1549667e-01
  1.3245525e+00
  4.7972846e+00
 -6.9324827e-01
 -1.2747921e-01
 -2.7763181e+00
 -2.1989625e+00
 -1.4352351e+00
  3.9145892e+00
 -3.2463326e+00
 -2.6307631e-01
 -5.1425445e-01
 -1.0910894e+00
  6.2561810e-01
 -1.0693591e+00
  3.0252817e-01
 -2.4843652e+00
 -4.6092361e-01
 -2.0013304e+00
 -1.6368142e+00
 -2.7702749e-02
 -1.6923062e+00
 -9.4252664e-01
 -7.2335780e-01
 -1.1883390e+00
 -1.7373877e+00
 -1.6366634e+00
 -4.9941975e-01
 -1.4766292e-01
 -2.1091814e+00
 -5.0164407e-01
 -4.3043560e-01
 -4.3381843e-01
 -1.4233611e+00
 -5.5800118e-02
  4.2121837e-01
 -1.8592485e+00
  1.3077182e+00
 -4.2737916e-01
  3.1489015e-01
  9.2943497e-02
  3.3210135e-01
  2.8621840e-01
  5.6934386e-01
 -2.0496401e-01
 -2.6447350e-01
  1.9094257e-01
 -1.8839578e-01
  1.3637437e-01
  4.0824670e-01
  1.4782424e-01
 -2.9039007e-01
  6.5654375e-02
  4.2375737e-01
  1.3309795e-01
 -5.5650000e-02
  7.9318620e-02
  3.1417730e-01
 -1.2719819e-01
 -2.5226405e-01
  1.4969894e-01
  2.5419441e-01
 -2.0086153e-01
  3.3397418e-02
 -9.2318341e-02
 -2.9837459e-01
 -1.5167278e-01
 -3.2980919e-01
  3.1733567e-01
 -3.9219841e-01
  2.2872582e-02
  1.3902268e-01
 -1.9075273e-01
  3.2136500e-01
 -4.3288854e-01
  5.7434332e-01
 -1.7672907e-01
  9.3000568e-02
  1.2803848e-01
 -7.5727009e-04
  1.5364470e+00
 -2.6601523e-01
  7.7521853e-02
  1.0044311e-01
  7.0699230e-02
 -3.9103943e-01
  3.3126872e-02
 -9.6771792e-02
  6.3824219e-01
 -7.5816875e-04
 -1.6717568e-01
 -3.7982103e-01
  2.8916556e-01
  2.9210147e-01
  2.5418552e-02
  1.3645969e-01
 -3.1534329e-02
  5.4013234e-02
 -5.0471425e-01
  8.7477691e-02
 -4.4796365e-01
 -2.0421483e-01
  8.7082870e-02
  1.8933190e-01
 -2.1292168e-01
  5.8685966e-02
 -7.0090033e-02
 -1.1270942e-01
  1.1474510e-01
  1.4911835e-01
  1.0164153e-01
  6.8382293e-01
 -3.7330672e-01
 -2.8152110e-02
 -9.8642051e-02
  4.2721516e-01
  3.1784570e-03
 -5.5141670e-01
 -1.9627842e-01
 -1.6923003e-01
 -5.2407071e-02
  2.0646608e-01
 -1.0714217e-01
 -1.7141020e-01
 -3.9896895e-03
 -1.2382674e-01
 -7.2351553e-02
  2.8948507e-01
 -1.0335457e-01
 -5.6631227e+00
  2.6644790e+00
 -6.3337594e-01
 -2.8496439e+00
 -2.9652315e-01
 -8.6718327e-01
 -3.6289167e-01
 -2.5304988e-01
  6.7058277e-01
  1.0838342e+00
 -3.3078519e-01
  1.6342241e-01
  8.2612348e-01
  4.5620069e-01
  1.3106004e+00
 -1.8350394e-01
  2.2139558e-01
 -2.6693645e-01
 -4.4794345e-01
  4.6188357e-01
  1.7180828e+00
 -5.9784353e-01
 -1.0384177e+00
  1.2420208e+00
  8.6467391e-01
  1.0052508e-01
  4.5586687e-01
  5.3386712e-01
  6.8712020e-01
  4.7116399e-01
  9.5773923e-01
  2.8228548e-01
 -1.5222377e-01
  1.2726183e-01
 -4.0511853e-01
  3.4821588e-01
 -4.8155951e-01
 -1.2822397e-01
 -5.2299374e-01
 -2.7737504e-01
 -6.8422697e-02
  5.2280545e-01
 -1.8400578e+00
 -3.3157313e-01
 -1.7379175e+00
 -3.4988403e+00
 -8.4468055e-01
  3.8739665e+00
 -2.7473004e+00
  2.3426871e+00
 -8.7020405e-02
 -6.9699848e-01
  4.0076154e-01
 -6.9779539e-01
  1.2343928e+00
  2.2694825e-01
  3.7653759e-01
  1.1970646e+00
 -1.1075326e+00
 -4.4051236e-01
  5.9496301e-01
 -1.0440114e+00
  1.8180178e+00
 -8.7351012e-01
  2.6726529e-01
 -1.4717399e+00
 -7.0954734e-01
 -1.0107985e+00
 -2.3066030e+00
 -2.0220922e-01
 -2.3010427e-01
  1.5206714e+00
 -1.9324805e+00
 -1.5198989e+00
  1.4604632e+00
 -1.1219169e-01
 -5.3723037e-01
 -7.6184548e-02
 -6.1739057e-01
  2.3538766e-02
  1.1648390e-01
  6.8854868e-02
  2.0942266e-01
 -1.4922477e-01
  2.2323199e-01
  2.4976721e-01
  7.2175443e-02
 -1.0540975e-01
  2.4271680e-01
  1.3643739e-01
 -2.9202783e-01
 -1.1659618e-01
  3.3918774e-01
 -3.6449677e-01
  1.3290073e-01
 -7.4167079e-03
 -2.7587969e-02
  1.0288859e-01
  2.4074422e-01
 -6.6229202e-02
 -4.6156418e-01
 -1.4493319e-01
 -1.9971761e-01
 -1.0618278e-01
  5.0690055e-01
  2.5449330e-01
 -1.7264542e-01
 -5.4116204e-02
 -5.3158455e-02
  3.3614418e-01
 -3.9677542e-01
  3.0967817e-01
 -2.6133457e-01
  1.3806053e-01
 -1.2275275e-01
  5.6923664e-01
 -9.5163034e-03
  2.2479152e-02
  1.9668274e-01
  1.4956369e-01
  2.8286433e-01
  8.5648604e-02
  2.3653041e-01
 -1.1992918e-01
  7.8566685e-02
  3.4248196e-02
  3.1552044e-01
  1.0300437e-02
 -4.2911991e-01
  5.2917027e-01
  1.0746572e+00
  5.1281238e-01
 -9.0348309e-01
 -2.0409698e-02
  5.1513728e-02
 -6.6911656e-01
 -2.0403054e+00
 -2.0198390e+00
 -1.2284164e-01
 -3.1195539e-01
  1.3660754e+00
 -9.3606704e-01
  3.4453169e-01
 -1.4607781e-01
 -1.3099198e+00
 -6.8528402e-01
  3.5526153e-01
  8.0120206e-01
 -2.5223246e+00
  1.6707094e-01
 -1.3724744e+00
 -1.4614024e+00
 -1.7391816e+00
  6.6516966e-01
  8.9820635e-01
 -6.4721066e-01
  2.9679595e-02
 -6.1635256e-01
 -1.1780144e+00
 -4.5786074e-01
  2.4180114e-01
 -2.2716594e-01
  6.2224507e-01
 -2.8713790e-01
 -4.6737191e-01
  3.8915095e-01
 -4.1019097e-02
  8.1251311e-01
 -3.5737437e-01
 -2.0466089e+00
  5.2443524e-03
 -4.3520093e-01
  2.2250330e-01
  3.4153005e-01
 -4.5087686e-01
 -1.4783498e+00
 -7.5698406e-01
  6.5874559e-01
  5.7077402e-01
  2.3434491e-01
  1.0703329e+00
  9.5651728e-01
 -2.1835111e-01
 -2.5409254e-01
 -2.9688928e-01
 -3.1849721e-01
  6.2104976e-01
 -5.3950790e-02
 -7.7719951e-01
 -5.3196168e-01
  2.5315332e-01
  3.9706197e-01
 -1.2600248e+00
 -5.7437468e-02
 -2.6791126e-01
  6.8115965e-02
 -5.2651232e-01
  1.0715320e-02
  1.0003676e-01
 -1.8201794e-02
 -9.5800437e-02
  1.3919251e-02
 -1.5778545e-01
 -1.2484232e-01
 -1.3655600e-01
 -2.2050363e-01
 -3.6360556e-01
  1.3254261e-01
  2.6479471e-01
  1.5796101e+00
 -2.8633513e+00
  7.6410908e-01
 -1.9939121e+00
 -7.2321177e-01
  2.4778318e+00
  2.1572571e+00
  1.7500928e-01
 -5.5866337e-01
  3.3721444e-01
 -6.6162246e-01
 -3.0083540e-01
  2.7934849e-01
 -3.8183096e-01
  2.1071924e-01
 -7.2677624e-01
  1.0415570e+00
 -2.0268514e+00
 -1.8091824e+00
  6.6318476e-01
 -1.3801978e+00
 -1.0331805e+00
 -1.3910823e-01
  2.6428622e-01
 -1.0210588e+00
 -1.6499162e+00
 -9.2419791e-01
 -1.2574273e+00
 -4.4326845e-01
 -9.1252804e-01
  1.4405183e-01
 -1.1111273e-01
 -2.6650158e-01
 -5.7190543e-01
 -9.6961582e-01
 -7.2951931e-01
  4.7894886e-01
 -1.3461515e-01
  3.3340058e-01
  2.3854426e-01
  1.6648708e-01
  1.0787228e-01
 -8.3120453e-01
 -4.2210605e-02
  1.0281511e-01
 -2.2248875e-01
 -1.4455640e-01
  6.4212815e-03
  4.9247786e-01
  7.8944993e-01
  3.4911472e-01
 -2.7986836e-01
  2.8089279e-01
  3.6354420e-01
  2.5149369e-01
  3.5175359e-01
 -1.0912569e-01
 -4.6734479e-01
 -3.9839101e-01
  6.3531810e-01
 -1.8114731e-01
 -9.4523638e-02
  6.5979086e-02
 -2.8588152e-01
 -9.6023768e-01
 -4.0841410e-01
  1.4627534e-01
 -1.7596506e-01
  8.6047210e-02
 -4.1347390e-01
 -1.1343148e+00
  1.5483582e-01
 -1.8160775e-02
  4.7345895e-01
  1.1731934e-01
  4.2406779e-02
 -5.8984656e-02
 -1.4547609e-01
 -2.9185423e-01
  2.8854349e-01
  2.2463231e-01
 -4.7455825e-02
 -3.4999919e-01
  4.6840340e-02
  1.2337960e-01
 -6.1775327e-02
 -2.3277061e-02
 -4.9293476e-01
 -4.9175084e-01
 -8.1054091e-02
 -2.5945915e-02
  1.3421462e-01
  3.0750934e-02
  1.8682824e-01
 -1.5226787e-01
  1.9550669e-01
  1.7468441e-01
  5.6130346e-02
  1.5629430e-01
  4.3249361e-02
  3.1570485e-01
 -1.0464098e-01
 -3.9539614e-01
 -9.6917093e-02
  1.4789639e-01
  3.5156824e-02
 -1.8471809e-01
 -2.7765191e-01
 -1.4736785e-01
 -2.3423178e-01
 -2.9565662e-02
  2.0806879e-01
  1.9291732e-01
 -5.5212021e-01
 -5.6822568e-02
 -2.7191439e-01
  1.1087763e-01
 -2.0324373e-01
 -6.1347824e-01
 -3.9135453e-01
 -2.0033073e-02
  3.0996490e-01
 -4.4032481e-02
 -2.1332909e-01
 -1.2448950e-01
  3.0519575e-01
  2.3054342e+00
 -7.2618383e-01
 -1.4973434e+00
  4.7983128e-01
 -3.0821368e-01
 -2.0674431e+00
 -1.0975708e+00
 -1.4012101e+00
 -6.0135353e-01
  8.6555123e-01
 -9.7727346e-01
 -5.3383178e-01
  3.3979562e-01
 -5.4733086e-01
 -1.4568287e+00
 -6.3916677e-01
  1.3815780e-01
 -2.1651746e-01
 -1.3714607e+00
  4.2412147e-02
 -3.1186676e-01
 -3.2643242e+00
  4.4547573e-02
 -1.5759596e-01
 -4.7937727e-01
 -1.3275814e+00
 -4.0495127e-01
 -6.3982081e-01
 -1.0015473e+00
 -1.0402912e-01
 -1.4217646e-01
 -7.1217692e-01
 -4.7751096e-01
  2.9134291e-01
 -2.6960972e-01
 -1.9890492e-01
  1.1655647e-01
 -3.0813912e-01
 -1.2080311e-03
  2.2033697e-01
 -2.5704467e-01
 -7.8253690e-03
  2.7238935e-01
 -3.4703484e-01
 -1.8915021e-01
  4.1149110e-02
  9.1345057e-02
  2.6256513e-02
  3.9386618e-01
 -2.2258058e-01
 -8.8178980e-01
  2.3091385e-02
 -1.5349451e-01
  1.9655511e-02
  2.0423771e-01
 -9.9692874e-02
 -2.7984148e-02
  9.7357415e-02
  5.2068032e-02
  3.8198167e-01
 -3.0753824e-01
 -3.8506549e-02
 -1.1841923e-01
 -5.6623448e-02
 -7.8379456e-03
 -5.9369646e-02
  4.1297697e-02
  3.4785998e-01
 -1.8682902e-01
  3.9499152e-02
 -6.7595012e-02
  3.6286857e-02
 -1.0906516e-01
  2.6022714e-01
 -8.2207493e-02
  6.2252052e-02
  6.8866752e-02
 -7.2716244e-02
 -1.1540755e-01
 -2.1865022e-01
  8.0977462e-02
  9.4727531e-02
  2.2565407e-01
 -2.2082243e-02
  7.6497078e-02
  4.0394992e-02
 -3.3805889e-01
  1.3029847e-01
  1.1833773e-01
 -4.5793070e-03
  3.9787602e-01
 -2.9374039e-01
  3.2632279e-01
  4.0063720e-02
 -8.4820732e-02
 -1.6807456e-01
 -5.4582752e-02
  2.4651693e-01
  1.9750988e-02
  1.7057931e-01
  1.5265472e-01
 -9.8609440e-02
  1.8189698e-02
 -6.1439133e-01
 -3.6175230e-01
  1.4107056e-01
  4.7745812e-01
  1.4040682e-01
  2.5698054e-01
 -1.1477524e-01
 -2.2547971e-01
  1.9760077e-01
 -3.8842368e-01
 -1.5041655e-01
 -8.4260195e-02
  5.9712255e-01
 -1.4208269e-01
  1.6163540e-01
 -1.6726185e-01
  7.0571631e-01
 -8.1832416e-02
  1.1240436e-01
 -1.7963131e-01
  3.8367331e-01
  5.7612818e-02
 -2.7064845e-01
 -1.3998550e+00
 -1.2351649e+00
  3.8810358e+00
  2.7838404e+00
 -1.3628459e+00
  5.4663289e-01
 -1.2750546e+00
 -2.1567502e+00
 -8.4854209e-01
 -1.0902022e-01
  1.0180095e+00
 -1.7199619e+00
  5.5089766e-01
  1.4816171e+00
  2.1746425e-01
  5.5716223e-01
 -3.3855054e-01
  4.5103264e-01
 -2.2803824e-01
 -5.3155071e-01
  2.2358034e+00
 -1.3743197e+00
 -1.4196236e+00
  7.7507365e-01
  4.3955755e-01
 -5.2984035e-01
  1.4576405e-02
  5.9826702e-01
 -2.8863505e-01
  4.7157642e-02
  8.0806643e-01
  4.4888923e-01
 -1.3941756e+00
 -1.5806134e-01
  1.0518609e+00
 -3.6827227e-01
  5.1995689e-01
 -4.8462844e-01
 -7.5417352e-01
  5.2422557e-02
 -7.6697968e-02
 -2.5013453e-01
  1.3951490e+00
  1.1821055e+00
  1.1119596e+00
  2.8942871e-01
  1.1560943e-01
 -1.3788711e+00
  8.2512188e-01
 -1.5914550e+00
  4.6658716e-01
 -3.9184442e-01
  1.0910233e-01
 -3.3819002e-01
 -1.9323356e-01
  9.4204193e-01
 -6.8018478e-01
  5.1624954e-01
 -6.7688549e-01
 -1.4560515e-01
  3.2527655e-02
  6.0248446e-01
  7.3174793e-01
  1.2611638e+00
  8.8390952e-01
  5.8970619e-02
  1.2437560e-01
  4.9272382e-01
  2.6929581e-01
  3.1065819e-01
  6.7486000e-01
  2.3597691e+00
  1.0432708e-01
 -3.4121111e-01
  3.4844123e-02
 -3.6766154e-01
 -1.8849197e-01
  1.4405718e-01
 -4.2327902e-01
  3.1719357e-01
 -8.2084693e-02
 -4.7910279e-01
  1.8411216e-01
 -4.0372112e-01
  1.6131251e-01
  2.1220358e-02
 -1.0710132e-01
  6.2244307e-02
  5.9546277e-02
  8.8312976e-02
 -9.1404349e-02
 -1.1978514e-01
  1.8943316e-01
 -1.2545520e-01
  4.7557719e-02
 -1.2318795e-01
 -3.2943907e-01
  1.3140461e+00
  9.3966015e-02
 -2.1908740e-03
  7.6086275e-02
 -9.0280242e-02
  1.1833636e-01
  2.7885246e-01
  1.2541747e-01
 -1.6890464e-02
 -2.1044146e-01
  1.8855505e-02
  1.1549801e-01
  1.2122712e-01
 -1.6415507e-01
  2.8268796e-01
 -1.4526150e-01
 -2.4170330e-01
 -1.4345068e-02
 -2.7825674e-01
  6.5010779e-02
 -1.3729720e-01
  1.6090795e-01
  5.6499112e-01
 -1.4378485e-01
  1.5302217e-01
 -1.3872528e-01
  7.6546140e-02
 -4.6348479e-02
 -3.3118144e-01
  4.4773277e-02
  4.7476016e-02
 -1.1382631e-01
  5.2529275e-01
  6.3528992e-02
  1.2770158e-01
  1.8732399e-01
  2.4776459e-01
  1.9835092e-01
 -4.7859725e-01
 -2.8336701e-01
 -1.3976252e-01
 -1.3508239e-01
 -2.1316627e-01
 -3.3874550e-01
 -5.0832248e-01
  2.7950802e-01
 -1.4107602e-02
  7.6915935e-02
 -8.9752212e-02
  3.0544561e-01
 -2.2980341e-01
 -2.2673251e-02
 -2.3587641e-01
 -2.0014603e-01
 -3.7367743e-01
 -2.3382862e-01
 -3.6708746e-02
 -2.9542373e-02
 -1.1079470e-01
 -1.0015314e-01
  2.9300082e-01
  9.4130896e-02
  1.0402180e-01
  7.0662215e-02
  8.7425053e-02
  5.7262522e-03
 -4.5862734e-02
 -4.5913491e-01
 -1.5049013e-01
  1.1091202e-01
  2.0038117e-01
  3.4668186e-01
 -2.1555285e-01
  2.0162556e-01
 -1.1562934e-01
 -1.2770112e-01
  2.9923725e-01
  1.5421210e-01
  1.5517581e-01
 -4.0927488e-01
  2.2696604e-01
 -5.4687995e-02
 -4.2769197e-01
 -3.6262691e-03
  3.5258492e-03
  8.2579784e-02
  4.6926185e-02
 -1.5733501e-01
  2.8993809e-01
 -9.2794843e-02
 -1.1162186e-01
  1.4477807e-01
  3.1842560e-01
 -2.2027114e-01
 -4.6734601e-02
  6.9202669e-03
 -3.5527158e-01
  3.7306841e-03
  3.4630230e-01
 -2.5827563e-01
 -2.0114163e-01
  1.4544381e-01
 -1.5601736e-01
 -3.3069867e-01
 -6.1398543e-02
 -1.4369005e-01
  2.5789097e-01
 -3.4238544e-01
  5.0428694e-01
  7.3846117e-02
  9.1898352e-02
  3.3944714e-01
  3.4605056e-01
 -1.3462483e+00
  1.5163627e+00
 -1.2417359e-01
  1.9546058e+00
  8.2815903e-01
  2.6572754e+00
 -2.7922132e+00
 -4.5205629e-01
 -7.3586181e-02
 -1.1100401e+00
 -9.6498370e-02
 -6.8087947e-01
  1.8994662e-01
  2.4572220e+00
  1.5081897e+00
  1.8327568e-01
  5.1297963e-01
 -1.6560078e+00
  1.2186933e+00
 -1.1326454e+00
  1.5403994e+00
  4.1659924e-01
 -3.4863544e-01
  8.8435650e-01
 -7.6736915e-01
 -7.3460150e-01
 -9.5620769e-01
  1.5373492e+00
  5.8348370e-01
  3.3732887e-02
  5.3245968e-01
 -5.2019984e-01
 -5.1925603e-02
 -5.3578812e-01
  1.1917964e+00
  4.5874512e-01
 -2.7009401e-01
 -2.3469394e-01
  3.8573277e-01
 -4.4197509e-01
  4.6291631e-01
 -1.9407544e-01
 -1.2939216e-01
 -5.9467107e-02
  5.0270742e-01
 -1.4497988e+00
  8.9339197e-01
 -6.7600675e-02
  3.2092635e-02
 -4.6793079e-01
 -1.3079205e-01
  5.0637089e-02
  2.5351024e-01
  3.3054262e-01
  2.3992333e-01
  2.8313842e-01
 -5.1457226e-01
 -2.8534907e-01
  2.3314743e-01
 -6.0838199e-01
  1.7593529e-02
  3.9010394e-01
 -2.3622076e-01
 -6.2141541e-02
 -1.4576007e-01
  2.5591450e-03
 -1.8799812e-01
  2.0793971e-02
  1.3046996e-01
  1.0537738e-01
 -8.2407969e-01
  1.0669881e-02
 -6.1874145e-01
  3.2557911e-01
 -1.9530910e-01
 -4.6302095e-01
 -2.1340685e-01
  1.2520659e-01
  7.3111303e-02
 -1.9159536e-01
  1.3619980e-02
 -1.2439805e-01
  3.4490004e-02
  1.2789937e-02
  1.0859503e+00
  6.8248320e-01
  1.9820164e+00
  1.3110541e+00
 -2.7245989e+00
  1.9506263e+00
 -9.3931115e-01
  2.0357647e+00
  1.2593586e+00
  2.3795509e-01
 -1.3558469e+00
 -1.4483429e+00
 -2.0897652e-01
 -9.1868097e-01
 -1.5126524e+00
  1.2096914e+00
 -1.8369611e-02
 -2.9382879e-01
 -1.4477972e+00
 -5.6467272e-02
 -3.8627872e-01
  3.1102446e-01
  1.6097734e+00
  4.6232888e-01
 -1.8286774e-01
 -2.6881449e+00
  9.3697381e-01
  2.8239983e-01
 -1.2578586e+00
  1.9169153e+00
  8.2765087e-02
 -4.5202547e-01
 -9.8117113e-01
  7.2014803e-01
  1.3903533e-01
 -9.5785302e-01
  3.2193434e-01
 -4.0584275e-01
  1.5527102e-01
  8.4387070e-01
  5.3714801e-02
  4.9831763e-01
  6.3164043e-01
  5.2287036e-01
 -1.1810222e-01
 -1.0081917e+00
 -5.4188299e-01
 -1.0620832e+00
  5.7749194e-01
  9.7073412e-01
  2.1038912e-01
  1.1438193e+00
  6.6568369e-01
  1.1360551e+00
  2.2534800e-01
 -5.8359843e-02
  1.7004207e+00
 -5.7623953e-02
  6.9342124e-01
  7.7543813e-01
 -8.8599779e-02
  3.4663409e-01
  7.1459329e-01
  5.4447949e-01
  6.7409016e-02
  3.3386326e-01
  5.6547332e-01
  1.7581689e-01
 -1.6367596e-01
  6.2466687e-01
 -6.0612279e-01
  3.6261931e-01
  1.1580614e-01
  3.3135214e-01
  1.5941459e-01
  5.3260690e-01
  6.5407552e-02
  2.2184660e-01
  1.2710372e-02
 -5.6494790e-01
 -1.7514110e-01
  2.4014013e-01
  1.3956094e-01
 -2.5733131e-01
  3.4200451e-01
  8.8045490e-01
 -1.0073570e+00
  4.6286419e-02
  1.1224986e+00
  5.2013493e-01
 -1.0063075e+00
 -1.5045208e-01
  2.4469156e+00
 -1.4542799e+00
 -1.1205469e+00
 -7.4754447e-01
 -6.8585664e-01
 -8.8242042e-01
 -3.4882030e-01
  1.5240469e+00
 -1.8417509e+00
 -1.3310232e+00
 -1.7008789e+00
  2.7704233e-01
 -2.5654569e-01
 -7.9890019e-01
  2.6815577e+00
 -2.5445910e+00
 -1.4130694e+00
  1.2748462e+00
 -2.1221180e-01
 -1.2487903e+00
  1.3579810e-01
  2.3617220e+00
 -2.4628890e+00
 -1.0053028e+00
 -1.7473425e+00
  7.1561968e-01
 -2.0573924e-01
 -1.1284142e+00
 -4.6144885e-01
 -9.5290023e-01
 -1.0153973e-03
  8.8045806e-01
 -2.0837574e+00
  4.9934274e-01
 -3.4480941e+00
  3.8522351e+00
  2.7120702e+00
  1.3465428e+00
  4.4528222e+00
  1.3270113e+00
 -1.7638223e+00
  7.2355561e-02
  1.9703770e+00
 -6.7866170e-01
 -1.1197498e+00
  3.1025403e+00
  9.5512021e-01
 -1.5106541e+00
 -1.8472637e+00
  1.0102216e-01
 -2.1775653e+00
 -1.3493332e-01
  3.6023476e+00
  3.1133671e+00
  1.8850420e-01
 -7.2879106e-01
  1.1345558e-01
 -2.0122640e+00
 -5.2345812e-02
  3.2034609e+00
  1.6387173e+00
  3.1869197e+00
 -2.0647351e-01
 -4.3932372e-01
 -1.8393259e+00
  2.1498642e+00
  1.4883139e+00
  1.1280505e-01
  1.6882150e+00
  6.7414440e-02
 -9.2196292e-01
 -2.5698954e-01
  1.6393980e-01
  1.7213647e-01
  2.4926239e-01
 -2.6235361e-02
  9.1270708e-02
 -2.1771272e-01
  1.4164910e-01
 -7.1014947e-01
  3.6812541e-03
 -1.0159941e-02
  4.8628870e-01
  3.3241341e-01
 -1.5868297e-01
  8.0717409e-01
 -9.9371202e-02
 -2.6311314e-01
  6.3070208e-02
 -3.4532955e-01
  5.2734394e-02
 -3.6310218e-02
 -9.6328773e-02
  8.8479765e-02
  5.8817077e-02
  8.5417092e-02
  1.9828808e-01
 -1.6909808e-01
  5.8263844e-01
 -3.4461421e-01
  1.2775394e-01
 -3.9187338e-02
  3.9589509e-02
  3.0497232e-01
 -3.1918150e-01
  4.9277686e-02
  1.1169523e-01
 -1.1476032e-01
 -1.5093865e-01
 -1.4163205e-01
 -3.4908560e-01
  1.8614179e-02
  3.0328840e-01
 -1.4452227e-04
 -2.7094397e-01
  3.1577051e-01
 -1.1583097e-01
 -2.9485387e-01
  5.6355095e-01
  5.3851140e-01
  1.2387056e+00
  1.3496488e-01
 -6.1141521e-02
 -3.4107346e-02
  3.0371827e-01
  1.2075256e+00
 -1.9119973e-01
 -7.7725250e-01
 -4.1492319e-01
  1.2417993e-01
  2.6482388e-01
  7.0911273e-02
  2.4908634e-01
 -2.0153244e-01
  3.7762722e-01
 -3.4682095e-01
  8.1962675e-01
  5.0725627e-01
  3.5322555e-03
 -3.4034079e-01
 -4.0922377e-01
 -1.1183726e-01
 -6.0055286e-01
 -3.0375920e-02
  1.0818079e-01
 -5.7873737e-02
 -1.1596777e-02
  5.3053808e-01
  3.1366396e-01
 -4.4108304e-01
 -3.3576619e-02
 -6.8342721e-01
 -1.5557326e-01
 -9.0004854e-02
 -1.8261476e-01
 -8.7679699e-02
 -1.4521603e-01
  2.9941380e-01
  1.4293122e-01
  1.9747211e-01
 -2.5811505e-01
 -3.0015867e-02
 -2.0794865e-02
  4.2769578e-01
 -2.8888574e-01
 -5.5686709e-02
  1.0786702e-01
  3.8171478e-02
  8.7692745e-02
  1.0708146e-01
  3.1792622e-02
 -3.3133317e-02
 -1.8321629e-01
 -1.5907012e-02
  1.5894307e-01
 -2.4676749e-01
 -3.3809534e-01
 -7.4001841e-02
  6.7129120e-02
  6.4178847e-02
 -6.2287292e-03
 -1.6395953e-01
 -3.4317639e-01
 -2.2229653e-02
  2.3314892e-01
 -1.2779777e-01
  2.0209901e-01
  7.4825406e-02
 -9.7214125e-02
 -9.5644303e-02
 -1.9929163e-01
  2.5333794e-02
 -3.6498234e-01
 -1.6611084e-01
 -2.2104023e-02
  1.8993950e-02
  1.1665577e-01
 -3.5737079e-01
 -1.5844338e-01
 -1.1363165e+00
 -5.0288918e-03
  1.1451209e-01
 -3.0914717e+00
 -9.0349191e-01
  1.2112532e+00
 -5.7101852e-01
  1.4092042e+00
 -6.2921107e-01
  4.5603156e-01
  4.5690092e-01
  5.2971774e-01
 -2.6038784e-01
 -3.8497412e-01
 -3.2277367e-01
 -7.3295003e-01
 -6.4404339e-01
 -5.0447202e-01
 -8.6505252e-01
 -4.8013034e-01
  5.7671523e-01
 -6.4893502e-01
 -1.0011190e+00
 -9.3191254e-01
 -2.1595982e-01
 -1.8705806e+00
  1.3976119e-01
  1.6123953e-01
 -2.7556542e-01
 -6.9235277e-01
 -3.6870104e-01
 -3.9251226e-01
  8.9658834e-02
  5.8346707e-01
  1.3600031e-01
  9.6848421e-02
 -7.5371104e-01
  1.9165060e-01
  2.9462809e-02
  1.7163306e-01
 -5.4478383e-01
 -2.1157740e-01
  4.3713573e-01
 -9.6118167e-02
  3.6493620e-01
 -8.6905348e-01
  1.8288460e+00
  2.6856334e+00
  2.2155387e+00
 -1.1634173e+00
  1.4308615e+00
 -3.9924927e+00
 -4.4994542e-01
  4.4323501e-01
  5.5447048e-01
  1.4721633e+00
  1.4834876e+00
 -5.1956886e-01
  1.3166711e+00
 -2.9319650e-01
  7.9648936e-01
  1.2612263e+00
  1.5336165e+00
  3.1219032e-01
 -6.2327909e-01
  3.7640433e+00
  7.0866907e-01
  1.1759866e+00
 -5.3469723e-01
  8.6085337e-01
  1.4381484e+00
 -8.9115554e-01
  1.7417495e+00
 -4.0946603e-01
  2.1281345e+00
 -6.3603026e-01
 -9.0574640e-01
 -2.7905384e-01
  7.6332635e-01
  1.9379339e+00
  9.7306706e-02
  3.6207326e-02
 -1.0487325e+00
  1.5523376e-01
  7.1604043e-02
 -1.1189704e-01
 -8.1148088e-01
  5.2195042e-01
 -4.4046319e-01
 -2.7319450e+00
  1.6317998e-01
 -1.6120084e-01
 -1.0367902e-01
  3.3624566e-01
  1.6573639e+00
  2.2953676e-01
  9.9591321e-01
 -7.1669444e-02
  1.3385451e+00
  1.8210557e-01
 -4.9114612e-01
  2.6195264e+00
 -4.9663961e-01
  2.5333720e-01
  2.9472548e-01
 -5.9215352e-02
 -6.7768848e-01
 -7.2333980e-01
  1.5416828e+00
  7.4003327e-01
  5.2319163e-01
 -4.1119286e-01
  5.6664985e-01
  4.1998457e-02
  2.5578907e-01
  1.6935409e+00
 -3.8512367e-01
 -4.4028330e-01
 -1.1920225e-01
 -1.5981045e+00
 -1.0537994e+00
  5.5475563e-02
 -2.7257538e-01
 -7.6777077e-01
  1.1158084e-01
 -5.1608938e-01
 -3.1084526e-01
  1.7423416e-03
  3.8848750e-02
  1.0197955e+00
  4.5467198e-01
 -3.7819165e-01
  7.7229165e-02
  7.6139545e-01
  2.5599632e-01
 -2.5420010e-01
 -6.3931036e-01
  4.6236670e-01
  7.9663970e-02
  4.6478406e-02
  2.5604784e-01
 -1.2837359e-01
  2.5993422e-01
  5.5044562e-01
  1.3005157e+00
 -3.7098715e-01
 -1.6920029e-01
  8.4996909e-01
  8.4435290e-01
  6.9967747e-01
 -1.7184025e-01
  1.1954916e+00
  1.7910621e-01
 -9.8217261e-01
 -1.2777820e-01
  4.4172801e-02
 -5.4616469e-01
  1.7477106e-03
  7.2223836e-01
 -1.4672214e-01
 -8.7401134e-01
  1.6959542e-01
  5.1643986e-01
 -4.7232765e-01
  7.0227221e-02
 -2.1053734e-01
  1.8056338e-01
  9.7121812e-02
 -6.9805282e-01
 -3.3268441e-02
 -4.0107948e-01
 -1.3045613e+00
 -1.1686645e+00
  3.3780613e+00
  7.5611895e-01
 -1.5695767e+00
  1.7439133e+00
  1.8781104e+00
 -4.0239677e-01
 -8.3156300e-01
 -4.9659061e-01
  1.0760888e+00
 -1.0464613e+00
  4.1790932e-01
 -5.5144811e-01
 -1.4522471e+00
 -3.3782277e-01
  1.2594577e+00
  9.0933686e-01
  2.6752594e-01
  3.2010645e-01
  5.8258218e-01
 -9.5252633e-02
 -8.4392869e-01
  1.8845578e+00
  2.3392816e+00
  1.5079266e-01
  8.8771872e-02
  1.8819137e+00
 -2.0128753e-02
 -1.0748442e+00
 -8.0275960e-02
  1.9055115e+00
 -3.8751864e-01
  7.2288132e-01
  5.0282097e-01
 -3.9045861e-01
 -2.7785718e-01
 -3.1317156e-02
 -8.3386892e-01
  1.1362989e-01
 -3.0440271e-01
  5.0476450e-01
  3.6482893e-02
  6.0171372e-01
 -9.4663823e-01
 -9.2254019e-01
  1.9076052e+00
 -1.4181542e+00
 -3.6947089e-01
 -3.3737698e-01
  7.8189784e-01
 -1.0881286e+00
 -2.7378907e-02
  4.9073270e-01
 -7.9059847e-02
 -1.3018836e-01
 -1.4172342e+00
  1.0663903e+00
 -1.8497469e+00
 -3.2433879e-01
 -1.5315456e+00
  4.6894455e-01
 -7.6930720e-01
 -2.6280999e+00
  1.0452081e+00
 -4.3765914e-01
 -3.4743014e-01
 -1.2692668e+00
  7.8079599e-01
 -1.0024229e-01
 -1.0011584e+00
  8.5254836e-01
 -8.5433471e-01
 -5.0966889e-01
 -2.0184418e-02
  3.4616336e-02
 -8.0969021e-02
 -1.2097875e-01
 -1.6336113e-01
 -3.0382296e-01
 -1.8248443e-01
 -2.4770857e-01
  3.2454109e-01
 -1.7608245e-01
  5.2296889e-01
  2.3864872e+00
  3.1320819e-01
  5.5565012e-01
  3.7258205e-01
 -2.9492862e+00
  1.1471727e-01
 -1.7295974e+00
  1.0931767e+00
 -1.4368381e-01
  1.8168656e+00
  6.0493296e-01
 -5.0108737e-01
 -1.1668047e+00
  7.8319150e-01
  6.0707200e-01
 -1.0079088e+00
  3.6508891e-01
  1.5013862e+00
  5.1358885e-01
  1.4583212e+00
 -2.3868406e-01
  2.1000381e+00
 -2.1353166e-01
  7.0731699e-02
  2.2070200e+00
  1.1966857e-01
 -8.0037582e-01
 -2.4975207e-01
  1.5061711e-01
  4.5800346e-01
  1.0728071e+00
  2.3212669e+00
 -1.2080857e-01
  3.6904752e-01
  2.0419621e-01
 -2.4127109e-01
 -1.3444796e-03
 -4.6091446e-01
 -1.1819707e+00
 -1.2849207e-01
 -5.7856512e-01
  4.6494812e-02
 -6.8459094e-02
 -1.3425414e-01
 -1.9158673e-01
 -3.7695557e-02
  2.0001554e-01
  1.9068335e-01
  5.7508852e-03
 -7.8296848e-02
 -4.0752557e-01
  2.4402514e-01
  1.0951196e-01
 -4.2647731e-01
 -3.5718092e-01
 -1.3403560e-01
 -3.2903068e-02
  1.3193107e-01
 -3.9427596e-01
 -2.4956605e-01
 -3.0563501e-01
  3.2880399e-01
 -4.0476665e-02
  2.4719581e-01
  1.1174384e-01
 -3.2663029e-01
 -5.2098211e-02
  1.4379717e-01
  1.4042872e-03
  1.1912680e-01
 -1.1674345e-01
 -1.2495311e-01
 -4.0434606e-02
 -5.6526646e-02
  9.0850711e-02
  2.5573808e-01
  1.8177953e-01
 -2.1621214e-01
  5.4738039e-01
  1.1854480e-02
 -1.3358440e-01
  3.0164486e-01
  1.3642469e-02
 -2.9422920e-02
 -4.0924323e-01
  2.1944048e-01
  5.0705248e-01
 -9.1677845e-02
 -1.1264521e-01
 -8.4579819e-01
  4.0023157e-01
  4.7786321e-02
  1.8342260e-02
  4.0009925e-01
  2.6055068e-01
 -1.0575553e+00
 -5.6455815e-01
 -5.4100681e-02
  9.1975465e-02
 -6.9829293e-02
  6.8280536e-01
  4.7343975e-01
  2.0756480e-01
  1.1929473e-01
 -2.4011464e-01
 -1.2013626e-02
  4.6521062e-01
  3.4357658e-01
  3.5136387e-02
  4.4219431e-01
  3.1595519e-01
 -2.9583080e-03
  1.9090776e-01
  3.2876346e-01
  3.8671038e-01
 -4.6210071e-01
 -3.2886726e-01
  2.2004920e-01
  5.0869353e-02
  3.3776689e-01
 -1.1623979e-01
