nep4 3 Sc C Cl 
cutoff 6 4 60 23
n_max 4 4
basis_size 8 8
l_max 4 2 0
ANN 50 0
  2.1128073e-05
 -4.7076916e-05
 -7.5573599e-01
 -4.7490202e-04
 -4.4210610e-05
 -5.6645116e-05
 -4.2195088e-06
 -2.7904601e-04
 -2.4688468e-04
 -4.9807242e-04
  1.3554709e-04
  5.0505163e-04
 -1.9936626e-04
  2.7085902e-04
  8.6524364e-05
  1.1289649e-04
  5.1356829e-04
  1.9640452e-04
 -2.2882226e-04
  3.4233675e-04
  1.8699170e-04
  2.2653684e-04
 -2.2694925e-04
  4.4065423e-04
  7.0815184e-04
 -1.0201205e-03
  1.9913253e-04
  9.9586257e-05
  9.0909234e-05
  2.8902333e-04
 -7.7549368e-05
  1.1427607e-03
 -1.9000896e-05
 -1.8904181e-04
  4.2346783e-04
 -1.7584943e-04
 -9.4347552e-06
 -2.3923087e-04
 -1.2633906e-04
 -1.6687615e-04
 -2.2101721e-04
 -3.6061445e-04
  3.3919921e-05
 -3.3387431e-04
 -4.2018213e-04
 -3.0216374e-04
  2.9584955e-04
 -3.9778152e-04
 -1.8014487e-04
  1.2066324e-03
  1.4212064e-03
  9.4884250e-05
  2.3495566e-04
 -1.6853554e-04
  3.2295380e-04
 -2.4347880e-04
  1.5121090e-04
  4.6415374e-04
  1.7608244e-04
  7.0850237e-04
 -9.4087259e-04
 -2.3973679e-04
 -3.2729098e-05
 -1.3317048e-04
  2.9294228e-04
 -5.0719472e-04
  3.0572448e-04
  1.6285414e-04
  1.0455808e-04
  2.5471512e-05
 -2.2657211e-04
 -2.5423238e-04
  1.6881479e-04
 -2.0705673e-04
  6.9231530e-05
  3.8203801e-04
 -7.8208529e-04
  4.6981973e-04
  2.9909032e-04
  7.6093063e-05
  1.4541250e-04
  1.2779774e-03
 -7.1069901e-04
 -2.3197383e-04
 -1.9869066e-04
 -3.5133152e-04
 -9.0237521e-04
 -1.1487929e-04
 -3.7343780e-04
  1.6829479e-04
 -5.6625402e-05
 -3.0924397e-04
  4.4094439e-04
 -8.5442676e-05
 -4.1248341e-04
  7.4962631e-04
 -1.5251417e-04
 -8.0161699e-05
  2.8354875e-04
  4.1051093e-04
  4.2165763e-04
 -1.7894279e-04
  9.2962990e-05
  1.4913458e-04
  8.7285865e-05
  9.9830597e-04
 -1.0735157e-05
 -2.1104732e-05
  3.9991003e-04
  1.2701555e-04
 -2.7156991e-04
 -3.9911031e-04
 -1.2964192e-04
 -2.3321465e-04
 -1.2017940e-04
 -1.8353392e-04
  5.6804687e-04
  3.0352725e-04
 -3.7695959e-04
  8.0396730e-04
 -5.1598845e-04
 -2.0651291e-04
 -2.2734913e-04
 -5.2302577e-05
  3.6237913e-04
  8.7182234e-05
 -5.1118652e-05
 -4.0364621e-04
  2.2492842e-04
 -3.2040430e-04
 -8.8026871e-05
  2.1821662e-04
 -7.6975943e-05
  2.3398956e-04
 -8.8864130e-05
  3.3985317e-04
 -7.9137232e-04
 -1.0718383e-04
  8.3452724e-05
  3.2646392e-05
  6.3139421e-04
 -4.3739114e-04
 -1.8816377e-04
  4.1364143e-05
 -6.5337878e-04
 -7.4008123e-05
  9.7499753e-05
 -2.6324403e-04
  3.9763993e-04
 -1.1839979e-04
 -4.4946441e-01
 -3.7102207e-05
 -7.1284704e-02
 -5.2735104e-05
  3.0718742e-02
 -1.5127847e-04
 -1.5765995e-04
  1.1121599e-01
 -2.0751099e-03
  4.1135706e-04
  9.5839781e-04
 -3.4131047e-03
  2.8643606e-04
 -3.4920167e-02
  1.4088280e-01
  9.7806088e-04
  2.6018661e-04
 -5.5825144e-02
  1.4382793e-01
  8.9802059e-05
  4.2597592e-04
  6.6491557e-05
  9.8530632e-05
  2.1033366e-04
  8.2507485e-04
 -6.1494728e-05
  7.7795889e-04
  2.3507359e-04
 -1.0971186e-03
 -2.1954133e-04
 -2.1747098e-04
 -3.0567902e-04
  6.0924265e-04
 -2.0277622e-04
  1.5974004e-04
 -2.4942163e-04
 -3.7783250e-04
  6.2086969e-04
  1.7622970e-04
  1.1161911e-04
 -5.4251298e-04
  4.1141224e-04
  7.3353971e-05
  2.4154274e-04
  2.5487380e-04
 -1.2845945e-03
 -6.7198632e-04
 -1.3195416e-04
 -3.5264184e-05
 -5.7594731e-05
 -1.5865332e-04
  1.2990898e-04
  2.8637482e-04
 -6.6758640e-04
  1.0780733e-04
  1.1857860e-03
  8.4470195e-04
  2.3415672e-04
 -3.3620172e-04
 -4.2436007e-04
 -1.1458608e-03
  9.3408387e-05
 -1.9338223e-03
 -1.8093690e-04
  7.0467926e-05
  1.2662128e-03
 -4.1042280e-04
  2.5533251e-05
 -1.2816268e-04
  3.4518631e-05
 -2.1859199e-05
 -6.6616907e-05
 -2.6334886e-04
 -1.6796008e-04
  1.4546621e-04
  7.8211968e-05
  4.6323732e-04
 -8.9119688e-02
  3.0841137e-04
 -8.5801774e-05
  3.6236219e-04
  3.9545459e-05
  1.6741514e-04
  9.4585230e-05
 -3.0629631e-04
 -2.0858020e-04
  5.7201974e-05
  5.7418383e-05
  7.1583432e-05
 -1.4044539e-03
  7.1240275e-04
 -9.2272973e-04
  3.4336263e-04
  2.4700689e-04
 -1.6137121e-04
  2.9370634e-04
  1.7304006e-05
 -1.3512508e-04
 -7.3547231e-04
  1.0344377e-03
  8.6204364e-04
  2.2799624e-04
 -7.9106459e-05
 -3.7087357e-05
 -1.6584052e-04
 -4.2777086e-04
  2.2209727e-04
 -3.2006294e-04
  3.7818990e-04
  2.0227706e-04
  6.8386254e-04
 -6.7270873e-04
 -5.6892124e-05
  2.9613802e-05
  2.9249769e-04
  1.7040622e-04
  8.2651537e-04
  5.8640544e-05
 -1.8093806e-05
 -9.4885851e-05
 -1.5103887e-01
  2.2798654e-01
 -7.9376835e-01
 -4.5329925e-01
  9.4958413e-01
 -5.9083242e-05
 -1.3203148e-04
 -2.3223355e+00
 -2.2398646e-05
 -3.7711556e-04
 -1.2351954e-05
 -1.4012975e-04
  3.4056495e-05
 -4.5051195e-02
 -1.8391555e-02
  3.8197910e-04
 -1.4036295e-05
 -1.8476254e-04
  2.8952208e-01
 -3.2487253e-05
  6.3052241e-05
  7.3768570e-05
  4.8936595e-04
  3.2966191e-04
  2.2182868e-04
  1.2686277e-04
 -3.4835539e-04
 -6.6998252e-04
  2.3925872e-05
  9.4701674e-05
  2.8781124e-04
  3.4710226e-04
 -2.3224148e-04
  4.3165815e-04
  7.2684791e-04
 -1.1713211e-04
  2.7680580e-05
 -1.0749728e-04
 -2.6901538e-04
 -5.5437273e-04
  2.0492672e-04
 -3.7795136e-04
  3.9887184e-04
 -1.2330321e-05
 -1.3953139e-04
  7.0923683e-04
 -7.5700798e-04
 -1.3644251e-04
  4.3070936e-04
  1.0829718e-04
  3.5367205e-04
  9.6909486e-04
  4.4775181e-04
 -5.3324075e-05
  1.2490386e-04
  5.0993386e-04
  6.1209685e-06
  2.4542242e-04
  3.1599321e-04
 -2.2544153e-04
  7.8648402e-05
 -1.1056948e-04
  2.9629338e-04
 -2.4002111e-05
  1.6310079e-04
 -1.6529208e-04
  1.6155235e-04
 -7.2469935e-04
  6.6482939e-04
 -4.5831289e-04
 -5.8656425e-04
  5.0811021e-05
 -3.1095993e-04
  2.8437981e-04
 -2.5667358e-04
 -1.9795338e-04
  7.3144765e-04
 -8.1864907e-04
  2.7027348e-04
 -3.8985029e-04
  4.5659595e-05
  1.2685795e-04
 -1.0686771e-04
  1.5811848e-04
 -1.9049279e-04
  4.7270709e-04
 -5.7344365e-05
 -2.1565639e-04
 -4.3574773e-04
 -1.0504490e-03
 -6.7632238e-04
  1.2973620e-04
  3.4023356e-04
 -2.0039911e-04
 -2.2012163e-04
 -6.3470280e-04
 -1.3022755e-04
 -3.7846572e-04
 -9.6077670e-04
 -2.5092141e-04
 -9.5154630e-04
  8.9664175e-04
 -2.2175568e-04
  9.9600223e-04
  5.9289778e-05
 -1.4246555e-04
 -1.6100323e-04
  1.2192451e-03
  4.5141645e-04
  8.6092157e-04
  5.3734897e-04
 -2.8063860e-04
  3.2034490e-04
 -2.0217786e-04
 -1.0020016e-04
  7.3107827e-04
  6.4514973e-04
 -3.6426954e-04
 -7.7777915e-04
 -9.2480052e-04
  2.2859490e+00
 -2.2937404e-01
  4.3048850e-01
 -2.2057415e-04
 -4.2174086e-03
 -3.1531526e-04
 -8.0097403e-04
  1.2004992e-01
  1.7759366e-03
 -9.5662143e-04
  2.5984567e-01
 -5.0333399e-02
 -9.2996488e-05
  2.5306848e-01
  1.7220056e-01
 -3.4292755e-01
 -5.0713199e-01
  1.9057706e-01
  1.5878900e-03
 -5.1529153e-04
 -7.5143747e-05
  6.2285464e-05
 -1.5384304e-04
  3.9291310e-01
  5.4696862e-05
  1.2304273e-04
  2.3256245e-04
 -3.8181490e-04
  2.4398146e-03
  5.3636555e-04
  7.4092408e-05
 -2.2221076e-01
  1.8226871e+00
 -8.0089366e-01
 -2.1094307e-01
  9.4969990e-05
 -1.4112125e-03
  1.0701353e-01
  1.7723267e-04
 -9.2633010e-05
 -3.4817521e-04
 -6.3987315e-01
 -1.7608519e-03
  2.6706332e-01
  6.9050782e-04
 -6.1987359e-02
 -1.0145996e+00
  4.8924559e-01
 -4.2575868e-04
 -5.7103683e-04
  8.5419022e-05
 -2.3811784e-02
 -4.3972606e-05
  5.0421036e-04
  2.5152633e-04
 -4.8766389e-05
 -8.7155575e-05
  7.3044423e-05
 -3.0311647e-05
 -1.3437633e-04
  5.7009090e-04
 -2.8388845e-04
  2.1336761e-03
 -9.6700556e-04
 -1.1739801e+00
 -4.0291014e-04
 -2.7784950e-04
 -1.9414049e-04
  1.0697425e-03
 -3.3300108e-04
 -2.2666084e-04
 -1.2078682e-04
  1.7224118e-04
  1.2989885e-03
  6.3164328e-04
 -7.0302823e-04
  6.9662992e-06
  3.4539767e-02
  1.8131157e-03
 -4.9832661e-04
 -4.9852906e-04
 -1.3064283e-04
 -4.0585903e-04
  3.8371072e-05
 -1.3467661e-03
  8.2259724e-04
  7.5877702e-05
 -2.8261225e-04
 -8.9730536e-05
  8.9397050e-05
  1.1192411e-01
  6.5367997e-01
  3.2149354e-01
 -4.3216938e-01
  1.8049010e+00
 -4.5304227e-05
  2.6311513e-04
 -1.6453232e-01
  1.3083217e-03
 -1.4879025e-03
 -1.8633083e-01
  4.2570333e-04
 -9.3916555e-05
 -3.4498474e-01
 -3.3929927e-04
  5.7217605e-02
  1.7876859e-04
  7.1481299e-01
 -7.7990085e-01
 -8.9617126e-05
 -1.0287774e-03
 -2.5426290e-05
 -5.6943973e-05
  3.0692352e-04
  3.1671927e-05
 -8.6119905e-04
 -1.4952370e-07
 -1.5457200e-04
  2.5363322e-04
 -2.5153611e-04
 -5.9431355e-04
  2.5903815e-04
 -6.5917906e-04
 -1.2467358e-04
 -1.6360389e-04
 -1.3785569e-04
 -4.1587820e-04
 -2.4427308e-04
 -8.5595169e-04
 -2.0615522e-05
 -1.7791855e-04
  6.3582166e-04
  1.0989602e-05
  5.3280807e-04
 -5.1323754e-05
 -7.2878611e-04
  1.3341113e-04
  1.0337408e-04
  3.5638073e-05
 -1.6151584e-04
 -1.6788472e-04
  7.5076148e-04
  5.8431074e-04
 -1.6049651e-04
 -9.9596880e-05
  5.5928755e-05
 -9.5943554e-04
  1.5300346e-04
 -1.2363271e-04
  1.0146874e-03
 -4.7367177e-04
  1.4422380e-04
 -1.6367673e-04
  4.6505875e-04
 -2.2292086e-05
  1.5510141e-04
 -1.9869163e-04
  5.3281599e-04
 -3.2939797e-04
 -5.1442842e-04
  2.5524714e-04
  1.6348687e-04
 -2.1185408e-06
  4.1482272e-04
 -6.9887996e-05
  3.6630838e-04
 -9.5215088e-05
  7.1948474e-05
 -3.2112063e-04
  1.2459680e-03
 -3.0029664e-04
  3.6394398e-04
  1.0290792e-04
 -5.6599086e-04
  9.2983211e-04
  2.3326409e-04
 -7.5137374e-05
 -5.3254837e-05
 -3.6496736e-04
  1.5682583e-04
 -6.5965724e-01
  1.1579292e-01
 -4.8731533e-01
 -1.2461853e-01
  1.0224403e+00
 -2.5296368e-04
 -4.6594772e-02
  1.6804738e-02
 -1.3890634e-01
  8.4804215e-02
  4.2555917e-02
  2.8356692e-02
 -7.9362743e-02
  4.9603784e-01
  2.4866221e-02
 -6.3527294e-02
 -1.3415968e-01
 -3.5323736e-01
 -3.7600097e-01
  4.3843448e-02
  1.4231094e-03
  2.5641826e-01
  3.4451630e-04
 -1.6154159e-03
  2.9421141e-03
 -4.3213828e-03
 -4.9820030e-04
  6.1536755e-04
 -4.3395007e-04
  6.9433864e-04
  1.3707476e+00
  1.7830255e+00
 -1.4392003e+00
  9.0768212e-01
  6.3542473e-01
 -7.7831668e-01
  1.2990021e+00
 -7.9553086e-01
 -1.2863426e+00
  6.3747996e-01
 -1.5012406e-01
 -5.6464441e-02
  8.5130624e-02
  1.7606889e-01
  2.1473171e-01
 -2.0226258e-01
 -5.3489327e-02
  9.9669451e-01
 -5.8634830e-01
  3.7949672e-01
  2.9131883e-01
  1.9213972e+00
 -1.2979243e-04
 -4.0755755e-01
  2.4521726e-01
  4.2830121e-02
 -2.3448566e-02
 -1.0009577e-01
 -5.6114659e-02
  4.0661015e-02
  3.8618955e-01
  2.5761709e-01
  6.4854309e-02
 -2.2231712e-04
 -1.0229471e-02
  4.1662477e-04
  1.0038476e-04
 -3.2978065e-02
  4.6285535e-03
 -1.3544224e-04
 -5.4235733e-04
  1.9242892e-04
 -1.1263747e-03
  1.0188752e-02
  2.6119669e-04
 -1.3676553e-04
 -2.7479854e-04
  7.9827137e-02
  5.3554936e-04
  4.6359000e-05
  4.6201871e-04
 -2.1350070e-05
 -3.1209670e-04
 -1.4423694e-04
  4.9538305e-04
  3.5279812e-04
 -2.4693427e-04
  1.4683780e-04
  1.4920325e-04
  3.7364618e-04
  7.1353745e-05
 -6.2391868e-05
  3.5564101e-04
 -2.9665144e-04
  9.7807228e-05
  5.3340790e-04
 -1.6438311e-04
  3.3973777e-04
 -4.4144667e-04
 -1.8864273e-04
 -1.6980247e-04
  2.1576121e-01
 -2.0355510e-05
 -7.1648031e-04
  2.0827856e-04
  1.8929975e-03
  2.8033002e-04
  2.0879983e-04
 -9.9592772e-04
  8.9487701e-05
  9.9813542e-04
 -3.4704495e-05
 -2.3099603e-04
  2.3076549e-04
 -1.5747407e-04
  1.5290579e-03
  4.2892667e-04
  1.0305282e-04
  3.4944422e-04
 -5.1350310e-04
 -2.1319590e-04
 -6.5554783e-04
  2.0985526e-05
  3.0159738e-04
 -1.7181761e-04
  1.9728779e-03
 -3.3936076e-04
  8.4216750e-05
 -4.5342374e-04
  6.8316993e-05
 -3.9811512e-05
 -3.1917507e-04
  2.6089328e-04
  3.4581230e-04
  4.7833406e-04
 -1.0503692e-04
  1.9168152e-04
  1.7839536e-04
  9.9457444e-05
 -7.8982906e-04
  4.2007005e-04
  1.7759802e-04
  5.3700793e-04
  3.6669284e-04
  1.6068218e-04
  1.5931680e-04
 -2.2666228e-04
  3.0408730e-04
 -3.3514143e-04
  1.3768554e-04
 -2.5765720e-01
  3.0001830e-02
 -4.4528151e-01
 -1.6027641e-03
  1.5334673e-02
 -1.0231751e-03
 -1.6353120e-05
  2.1060412e-05
 -5.1291571e-03
  2.9538972e-03
 -5.5708247e-04
  4.8289928e-03
  2.1046142e-05
 -1.6876709e-01
 -2.2876519e-04
  1.4573336e-04
 -3.1491524e-01
  4.8687729e-01
  7.6863510e-03
  3.2002380e-04
 -9.1301772e-05
 -6.6389322e-05
  1.2068382e-03
 -8.0019636e-05
  1.2094449e-04
 -6.1725732e-05
 -5.3087712e-07
 -9.8974979e-04
 -6.3408550e-04
  5.0681754e-04
 -5.0586544e-04
 -9.0005640e-05
 -5.1188929e-04
 -7.9851679e-04
  2.1208232e-04
 -4.8196767e-04
  8.6214149e-04
  3.4216672e-04
  4.9763784e-04
  9.8874742e-05
  1.8343868e-04
  1.0132389e-04
  4.7826624e-04
 -1.5679458e-05
  1.3811704e-04
 -3.4653951e-04
  5.8453606e-06
  3.5225946e-04
 -5.6752010e-04
 -1.1250791e-04
  2.4407309e-04
  8.5045242e-05
  1.1115467e-04
 -6.0382936e-05
 -2.6370795e-04
  3.5540215e-04
 -3.6635305e-04
 -1.1883611e-04
 -3.2514249e-04
 -4.0212303e-04
  4.0902525e-01
 -3.4249800e-01
  4.7471389e-01
 -3.6697865e-01
 -1.3517699e-01
 -1.9590528e-04
  3.9945447e-04
  2.7439335e-01
  2.6222152e-01
 -1.3550523e-01
  1.2820392e-03
 -3.6478456e-02
  1.4335687e-02
  1.1888068e-01
 -5.0195289e-01
 -7.2232105e-02
  6.4316946e-03
  1.9542795e-01
  8.6366788e-02
 -7.7005044e-02
  1.3336792e-04
 -3.7968251e-01
 -1.2074506e-04
  4.0983103e-04
 -1.0279009e-01
 -3.2939742e-04
  5.4578668e-05
  8.3746731e-05
  5.1093386e-05
 -3.9084669e-04
  4.4683833e-04
 -9.1539498e-04
  4.3263278e-04
 -9.7998927e-05
 -1.5940481e-04
 -1.0132794e-04
  1.1097464e-04
 -2.1317907e-04
 -3.7023933e-06
 -1.6664237e-03
  3.6944676e-04
 -7.8043126e-04
  1.9835908e-04
 -4.5892550e-04
 -1.4667795e-04
 -4.0032822e-04
  2.9121203e-04
  1.8113355e-04
  3.0627268e-04
  4.4349849e-04
 -3.3924379e-04
  2.9173642e-04
 -3.9460219e-04
 -4.5311739e-04
  1.7373590e-04
  2.2187813e-04
  1.1001847e-04
  4.6664150e-06
 -7.8948354e-04
 -6.9789460e-04
  6.4731709e-04
  7.5274118e-04
 -6.2813732e-04
  9.3793514e-04
 -2.8068040e-04
 -1.6825060e-04
 -7.6780176e-05
  2.2631140e-05
  2.8800487e-04
  3.0357961e-04
  5.5395364e-04
 -6.9525331e-04
 -3.3777943e-04
  6.1918843e-05
  1.9576341e-04
  2.6215031e-04
 -3.5250693e-04
  6.2519795e-04
  2.9723594e-04
 -1.4584395e-03
 -2.4493411e-04
 -7.6043251e-04
 -1.2030579e-04
 -4.2761359e-04
  2.6990555e-04
 -1.3760221e-04
  5.6683662e-04
  2.3041230e-04
  6.0522667e-04
 -2.0151312e-04
  1.8488833e-01
  1.8906205e+00
  3.6138785e-01
 -5.4590464e-01
  6.5963274e-01
 -2.5840884e-01
  7.0156151e-01
 -1.1584058e-01
  2.7707715e-02
 -7.1626008e-01
 -5.4519892e-01
  9.3075885e-03
  1.7451514e-01
 -3.6604904e-02
  1.5626727e-01
 -4.1953915e-01
 -1.5709786e-01
  4.3568203e-01
 -6.9845021e-01
 -4.6143642e-01
 -1.8545021e-01
 -9.0940934e-01
 -2.7366940e-04
  1.4388142e-03
 -9.1696300e-02
  1.2311067e-02
  2.3825364e-03
 -2.0011367e-01
  8.0887929e-02
 -6.2765822e-02
  1.8125717e-04
  2.0776059e-05
  1.0469371e+00
  1.0758026e-04
  7.6434843e-04
  1.5995242e-03
  1.4707100e-04
  2.1621227e-05
  7.7418104e-04
 -6.9854781e-05
 -1.8338270e-03
  1.2102100e-04
 -5.8175188e-05
 -7.4861542e-04
  7.8629078e-08
 -7.4690068e-04
 -1.6502646e-04
  5.0047081e-04
  4.3335013e-04
  6.0928264e-04
  1.5800098e-04
 -5.8255711e-04
  2.0761539e-04
 -9.4927731e-05
  1.1079750e-04
 -2.2289556e-04
 -3.8100980e-04
  1.7199207e-04
  3.1134760e-04
  2.8671310e-04
  5.3072313e-04
  8.1323396e-04
 -5.2096881e-04
 -3.3193233e-04
  1.2210331e-05
 -2.8863910e-04
  2.5860751e-05
  9.2473492e-05
  1.8022023e-04
 -1.2844964e-04
 -5.5207824e-04
  6.9297901e-05
  4.2430111e-05
 -5.3607826e-05
 -1.7268059e-04
  2.9171117e-05
  3.7357138e-05
  1.2819686e-04
  2.2176382e-04
 -3.8802266e-04
 -7.7436460e-05
 -3.4338614e-04
  1.5968091e-05
  8.4879069e-04
  2.1553347e-05
  8.3485167e-05
 -1.3990761e-03
 -2.6311527e-06
  5.1352888e-04
  3.7544809e-04
  4.8210073e-01
  1.5593377e-04
  1.3995606e-01
 -4.1295684e-06
 -3.2640007e-01
  1.1706776e-05
 -9.3324849e-04
 -1.5776558e+00
  3.4393682e-04
 -1.5033336e-03
 -2.7714897e-05
 -1.3301361e-04
 -7.6914689e-04
  1.5093943e-02
 -4.9039308e-04
  5.5365588e-05
  1.1767080e-04
  3.5786211e-01
  2.2103864e-01
 -3.7849632e-06
 -1.2242188e-03
 -1.4075362e-05
 -1.4876280e-04
 -3.0548321e-04
  4.8059461e-04
  9.1587557e-05
  4.1102656e-04
 -3.2645417e-05
 -2.7304876e-04
  4.4262619e-05
  1.7344786e-04
 -3.2628598e-04
 -1.8300151e-04
  1.4728142e-04
  3.0375298e-04
 -4.9084262e-04
  8.0179605e-05
 -4.4740574e-04
  1.0591983e-03
  5.6590970e-06
  2.5574001e-04
  9.5364478e-05
  8.9703070e-04
 -7.6742045e-04
 -5.5977877e-04
 -2.3989052e-04
 -5.7067304e-05
 -7.7464072e-05
  2.6357902e-04
 -1.9701578e-04
  2.6066176e-04
  6.6439534e-05
 -1.4752250e-05
  2.8584455e-04
  3.9225534e-04
  7.8352529e-04
 -5.1282608e-05
 -2.0480069e-04
 -8.0153150e-05
  4.3672969e-04
 -4.3280434e-04
  5.9891248e-05
 -2.7522809e-04
 -9.1185299e-05
  1.6948766e-04
  1.0146709e-04
 -1.1629936e-04
 -2.5245722e-04
 -1.6543095e-04
 -8.1806545e-05
  1.7417192e-04
  1.9314332e-04
 -1.8254729e-04
  1.8524019e-04
  4.1940558e-04
  2.5085316e-04
 -4.5048590e-05
 -1.5720962e-04
 -9.2034030e-04
  3.2258619e-04
 -6.9468975e-04
  2.6459951e-04
 -9.2539070e-05
  1.0997574e-04
  1.2949163e-04
  1.3813221e-05
  4.2964646e-04
  2.6856409e-04
 -1.1970642e-04
  3.4541474e-04
 -1.0750644e-01
  4.2544217e-03
 -4.3594071e-01
 -1.8260242e-04
  6.8093337e-02
 -5.5305070e-05
  2.7814411e-04
  2.0551730e-02
 -6.9675379e-02
  2.3795294e-03
  8.7475550e-04
  3.5042278e-04
 -2.3653469e-04
 -1.4652569e-02
 -2.5736508e-01
  5.2928630e-05
  3.1000178e-04
 -3.1312963e-01
 -5.1627569e-03
 -3.4713337e-01
  4.3464483e-05
  4.1956172e-04
 -5.8739988e-05
 -1.5725743e-03
  1.1634281e-03
 -3.4779363e-04
 -2.6526407e-04
 -1.8951253e-04
  4.3661619e-04
  1.1596931e-04
 -2.2606633e-04
  1.2409409e-04
 -1.6894893e-04
 -1.8616472e-04
  3.5926522e-04
 -2.9379493e-04
  3.1356080e-04
 -1.5523199e-04
  1.3368714e-04
  1.4883763e-04
  1.3316030e-04
  2.6464189e-04
  1.5569465e-04
 -2.0258625e-04
  4.5850483e-04
 -2.7382121e-04
  4.4402297e-04
  1.7976103e-04
  3.9443510e-04
 -1.0104185e-03
 -3.0102604e-04
 -4.2507690e-04
 -1.6650081e-01
 -3.7121112e-04
 -1.3492240e-04
 -4.4650056e-05
  6.9776532e-04
  2.4832584e-04
 -7.7337168e-02
 -4.9276173e-04
 -2.6452143e-04
 -1.0872027e-03
 -1.5773955e-01
 -1.3279059e-04
 -7.3286130e-05
  5.7510589e-04
  3.7712688e-04
 -1.9788479e-04
 -4.6067595e-04
 -7.3213931e-05
 -2.8512525e-04
  2.8186387e-04
 -6.5068470e-04
 -3.5194509e-05
  1.8747845e-04
 -4.9201597e-04
  1.0570840e-04
 -5.6666712e-04
 -4.3307975e-04
  1.3940218e-04
 -4.9402367e-04
 -1.5295217e-04
 -5.2736182e-04
  3.3997899e-04
  6.6233682e-05
  7.7703956e-04
  3.0704163e-05
  1.1659596e-04
  1.0275318e-04
 -2.6564533e-04
 -1.6841190e-01
 -3.3269066e-04
 -4.6594483e-01
  8.1161517e-05
  7.8384858e-03
  1.0647722e-04
  3.1646309e-04
  3.5662696e-02
 -8.5602514e-03
  3.1693748e-04
 -2.2039114e-04
 -1.1229511e-04
  5.9827924e-04
 -1.9405738e-02
 -3.6025033e-04
  5.5002689e-04
  2.7162815e-04
 -7.2032206e-02
  2.3555835e-05
  2.8990832e-04
  7.0728020e-05
 -6.1754734e-05
  2.0404963e-04
  2.2943525e-04
  7.6151562e-05
 -1.0163414e-03
 -2.3361488e-04
 -1.6393664e-04
 -1.4478347e-03
 -3.8823966e-04
 -5.2201329e-04
 -1.7114669e-01
 -4.4749388e-05
  9.4465015e-04
 -4.0077843e-02
 -1.9553094e-04
 -2.3017229e-04
  3.5857270e-04
 -6.7209109e-04
  1.1147704e-06
 -4.9576251e-04
  5.8543985e-04
 -2.7679373e-04
  7.5191178e-04
 -3.8292175e-04
 -1.2578329e-04
 -6.3223462e-04
  3.4610042e-04
  1.0728504e-04
  2.5833593e-04
  2.2352855e-04
 -3.1545138e-04
  1.0065584e-04
  1.8921893e-04
 -7.5033610e-04
  6.3274601e-05
  5.1344163e-04
 -3.1509920e-04
  1.0141189e-03
  4.2926953e-05
  1.2305709e-01
  8.1759024e-01
  5.3472243e-02
 -7.9098918e-02
  7.7484870e-01
 -4.2414208e-04
 -1.4274233e-04
 -1.8478622e-01
  3.9205518e-02
 -8.8025385e-04
 -5.2184361e-04
 -2.1263810e-01
  1.9018842e-02
 -1.8412332e-04
  3.2957330e-01
  5.0291768e-04
 -1.4009877e-01
  3.0652803e-01
 -4.4036407e-02
  7.8802368e-05
 -2.4259539e-04
 -2.0914242e-02
  2.6665779e-04
 -5.5794251e-05
 -3.3843238e-04
  1.8903116e-05
 -1.6719821e-05
 -1.5747851e-04
  6.3303119e-04
 -1.6294350e-04
 -3.0891606e-05
  1.4066671e-04
  3.8293532e-01
 -6.2827201e-04
 -9.7044162e-02
  2.0402117e-04
  5.8222318e-04
 -2.4983469e-02
  1.0991130e-03
 -5.9971487e-04
  1.3638522e-04
  2.3929263e-04
  2.7680153e-04
  2.7277021e-04
 -2.6459480e-04
 -7.7660388e-04
 -4.2805318e-02
  3.4938183e-01
  7.7956397e-04
 -5.4659071e-05
  6.6840308e-05
 -9.0459047e-04
 -1.5080847e-05
 -2.5058765e-04
  2.2305650e-04
 -1.9695256e-04
  3.9047393e-04
  2.0062795e-04
  8.0599479e-04
  3.8956446e-06
  1.4180761e-04
 -4.1948420e-05
  1.7267387e-04
  6.5809785e-04
 -1.6654005e-03
  1.0459303e-03
  9.3369384e-04
  3.4776051e-04
  2.0678398e-04
 -8.9902205e-05
 -1.7613919e-04
  1.9124258e-04
 -8.0030994e-05
 -7.7193469e-04
 -1.6055803e-04
 -3.3035092e-05
  1.9822376e-04
  3.8882581e-04
 -3.6969570e-05
  2.2439379e-04
  4.4511360e-04
  4.6910769e-05
  5.9917289e-05
 -1.1488998e-07
 -2.6521346e-04
  2.8444349e-04
 -2.6717785e-04
  2.8536905e-04
 -5.9073936e-04
  4.2641142e-04
 -1.1684816e+00
  1.3104653e+00
 -2.0997393e+00
  6.8628204e-01
  6.7062709e-03
 -2.2693504e-02
  8.1207410e-02
 -1.6099349e-01
 -7.2721058e-01
  2.6610570e-02
 -7.1601069e-01
 -4.6628643e-02
 -2.3590468e-04
 -3.4445685e-01
 -4.1332564e-01
 -9.1696870e-01
  1.1573245e-01
  1.5511488e+00
 -3.6104220e-01
  8.1116185e-02
  1.0268046e-05
  2.4073200e-04
 -5.5879766e-05
 -1.5860800e-04
 -2.7050890e-04
 -6.8849848e-05
 -4.1041286e-03
 -2.2124610e-04
  1.0656497e-04
 -5.5105041e-04
 -1.1859930e-03
  3.2294247e-07
 -5.3530952e-05
  1.8794705e-04
 -8.5137093e-05
 -1.0584205e-04
 -6.4632861e-04
  4.3347618e-04
 -2.7379199e-04
  4.7495912e-04
 -3.2116240e-04
  4.4842076e-04
  4.0125355e-04
 -4.4918444e-04
 -2.3162270e-04
 -6.3871325e-04
 -1.2758009e-04
 -7.5606059e-04
 -6.1697536e-04
  2.5787391e-04
 -9.3058508e-05
 -9.0515117e-05
 -8.1128208e-05
 -2.1663165e-05
 -5.8222370e-04
 -1.4361956e-04
 -4.1441803e-04
  4.2786388e-04
  7.9214362e-05
 -1.5694957e-04
 -2.8567258e-01
 -6.6158758e-04
 -6.0840482e-01
  2.7640027e-04
  2.2136396e-01
  3.5356887e-04
  4.8034504e-04
  7.1709819e-02
 -5.7275172e-02
  5.9016435e-03
 -2.7239331e-04
  5.2613945e-04
  5.1944552e-04
 -4.8149522e-02
 -1.3844399e-03
  3.2105169e-04
  7.1416429e-04
 -3.2277623e-01
 -4.7421972e-03
  1.8528458e-03
  1.0740521e-04
  1.1912982e-03
 -5.1118706e-05
 -1.7334170e-04
  2.4113791e-04
 -9.6585025e-04
 -2.5653697e-04
  1.1907538e-04
 -2.9730710e-04
 -1.0766546e-04
  3.3337972e-01
 -1.7780396e-04
  2.2296680e-03
  2.0145993e-04
 -1.4063271e-04
 -2.0952072e-04
 -5.7322305e-04
 -3.8537322e-04
 -2.4099771e-05
 -1.0104135e-04
  2.2043544e-04
 -1.8642574e-04
 -1.7031912e-04
 -2.1748726e-04
  2.7500650e-05
 -1.8316451e-04
  9.9298974e-05
  1.0560240e-04
  7.8407122e-04
  4.4331091e-04
  2.6073854e-05
  1.3788883e-04
  6.3411612e-04
  2.9668372e-04
 -2.3024436e-04
  5.0864945e-04
 -2.5247666e-04
 -7.6635036e-04
 -1.6411243e-05
 -2.8171836e-04
 -6.3814586e-03
  2.9226705e-05
 -4.7259673e-02
 -3.7586264e-04
  4.7882885e-04
 -6.8458117e-04
  6.7068304e-06
  1.8589990e-01
 -6.6412083e-04
  1.0068846e-03
  9.5137817e-05
 -3.3072903e-04
  2.6119972e-04
 -3.4010259e-04
 -2.7406513e-04
  1.9847151e-04
 -1.7177869e-04
 -9.9670306e-02
 -8.8661589e-05
 -3.4552259e-06
  1.1724485e-04
  1.0490380e-04
  1.4818305e-03
  2.4693628e-04
  8.0963007e-05
 -8.2942279e-04
  7.5727963e-05
 -5.2393808e-08
 -2.7431580e-04
 -3.1590508e-04
  1.2350567e-04
 -3.5860861e-04
 -1.4883585e-04
 -6.1004231e-04
 -7.5667755e-05
  2.1120858e-04
  7.4131653e-04
 -4.8496376e-04
  1.2769582e-04
 -3.4223267e-04
 -3.2891359e-05
 -7.5434298e-05
  4.7054171e-05
  1.5931363e-04
  2.8546105e-04
  1.1868920e-04
 -1.6703478e-04
 -2.1959444e-04
 -1.5816442e-04
  4.9079161e-05
  1.3028439e-04
  2.0979984e-04
  5.8249081e-04
  2.5695338e-04
  4.0432959e-04
  8.2952762e-04
  4.5029436e-05
  4.0396221e-04
  4.7605532e-05
 -1.7250024e-04
 -8.1875920e-01
 -2.8632903e+00
 -3.2662678e-01
 -1.0467404e+00
 -4.8729986e-01
 -9.0902895e-01
  1.3287758e+00
  3.4402645e-01
 -1.7918924e-04
  5.9405551e-04
  1.1974121e-01
  8.5836041e-01
 -2.3946893e-01
  4.4181582e-01
 -8.1815094e-01
 -7.3830700e-01
  1.3877870e+00
 -1.1555220e+00
 -8.8902650e-04
  1.2617537e+00
 -5.2021955e-05
  8.4290609e-02
 -3.1869629e-04
  1.1474422e-04
  8.5942436e-04
 -1.4559585e-03
  1.3251074e-04
  9.9796198e-05
 -1.2374578e-04
  4.8958923e-04
  1.0738459e+00
 -6.5060005e-05
  1.0587967e-04
  3.0132707e-05
  8.8983396e-04
 -1.5132692e-04
 -1.7356254e-04
  6.0002363e-05
 -3.5582241e-04
  1.1000788e-01
  4.9487059e-04
 -1.2518322e-03
 -8.9852343e-05
  2.4228208e+00
  3.6967301e-01
 -8.7917423e-01
 -1.2033443e-02
  1.0029242e+00
 -2.3628743e-01
 -4.7447300e-01
  1.3453974e+00
  4.6489746e-04
  1.9815293e-04
  4.6271391e-04
 -2.6089228e-05
 -4.6050682e-05
  3.7376326e-01
  3.2336076e-04
  2.1946772e-04
 -5.3527391e-01
  7.7654309e-05
  6.7404195e-05
 -4.4626448e-02
  2.0497460e-04
 -4.8061562e-04
 -4.1356435e-04
 -1.0833594e-05
 -5.6839184e-05
 -5.3385712e-02
  5.7133642e-05
 -2.7808127e-01
  5.1212008e-04
  9.0100933e-05
 -6.3784391e-01
  2.1844140e-04
 -1.6788213e-01
 -7.0157810e-05
  1.2199002e-04
 -4.1776669e-04
 -4.7351420e-01
 -2.9921496e-01
 -4.5571395e-04
  6.8396010e-04
  7.1646587e-05
 -5.6083895e-02
  3.7108997e-01
 -6.0735936e-05
  1.1536644e-01
  3.5501650e-04
  4.4672704e-01
  1.6793069e-04
 -1.8733399e-04
  8.3577776e-05
 -5.6480682e-01
 -4.2453298e-01
 -3.3312345e-01
 -4.9590477e-01
 -7.7296289e-05
  3.1122647e-04
  1.1240299e+00
  2.3960824e+00
 -3.4255674e-01
 -1.1486605e-02
 -6.4598327e-03
  4.4172508e-01
 -3.5551892e-04
 -9.2860013e-01
 -4.7420358e-04
 -1.0285497e-04
 -2.2203383e+00
 -7.3829792e-02
 -1.0110606e-01
 -3.5723054e-01
 -3.2912602e-04
  2.8833954e-04
  4.9161658e-01
  4.1793328e-02
  1.3914883e-01
  3.7207112e-01
 -1.0817247e-01
 -8.2097530e-01
 -2.8167364e-01
  4.5107576e-05
  9.6173161e-01
  1.3960752e-01
  6.9795418e-01
 -1.1745486e-01
  2.5412259e-01
  5.1390723e-04
  8.3331883e-01
  3.2067685e-05
 -1.6864539e-04
  2.8238601e-05
 -1.6419907e-04
 -6.7092042e-05
  1.1695945e-04
  9.3337410e-05
 -1.5559990e-04
 -2.6719586e-04
 -1.4043180e-04
  3.9207199e-04
 -5.9910677e-04
 -8.4396532e-05
 -3.9881657e-04
  1.5531655e-04
 -2.9525999e-04
  4.4993038e-04
 -5.4950191e-04
 -1.5132307e-04
 -7.5181789e-04
  6.8565103e-05
  2.5945104e-04
  4.6501908e-04
  1.0155006e-04
 -1.0796707e-04
 -8.8360050e-04
 -1.3919103e-04
 -1.1812064e-04
  1.0924207e-04
 -3.8898428e-04
 -1.7022021e-05
 -1.1487672e-05
  1.1893231e-03
  4.9626693e-04
 -1.9339158e-04
 -1.1379987e-04
  2.5592104e-04
 -1.6163927e-04
  8.4725565e-05
  1.8347820e-04
 -7.5148407e-04
 -5.2182026e-05
 -1.2806439e-04
  3.0493102e-04
  1.5674790e-04
 -5.7246070e-05
  5.6231171e-01
  9.5541902e-05
 -9.2432536e-05
  1.7993769e-03
  2.8027380e-05
  3.4240940e-05
 -1.6551225e-04
 -2.4881959e-04
 -1.8981010e-04
 -9.1006084e-05
  4.2691015e-04
 -4.9554295e-04
 -2.7390633e-04
 -4.0929882e-07
 -2.6493835e-01
 -3.0017045e-01
  3.7603760e-01
 -9.4217714e-05
  1.5273079e+00
 -3.8728140e-02
  5.8249956e-01
 -1.2734286e-02
 -1.1108358e-02
 -1.5314087e-01
 -3.0105712e-02
  3.0962121e-02
  1.6616775e-01
 -2.4887845e-01
 -9.1812509e-04
  4.5706458e-02
  3.4449000e-03
 -1.0455715e-01
  3.3051863e-01
  9.5822744e-02
 -1.0047954e-03
  1.8126948e-01
 -2.5377524e-01
 -8.3620779e-02
 -4.6671411e-01
  5.7911750e-02
  5.9007546e-03
 -2.0284460e-04
 -9.1779158e-02
  7.7922963e-02
  3.8033823e-04
  1.0334567e-04
  2.7689664e-04
 -1.5020490e-04
 -4.9113578e-06
 -2.2226297e-04
 -1.5439921e-04
 -1.4785076e-04
  5.0298317e-04
 -3.1894082e-04
  8.9516208e-05
  2.8052402e-04
  4.5333916e-04
 -8.1621105e-04
  2.7049074e-04
  1.7290338e-04
  6.1424085e-05
 -3.4262048e-04
  1.8432703e-04
  3.4840580e-04
  2.1432502e-04
  1.0685456e-04
  9.9061675e-05
  5.4331066e-04
 -2.6530543e-04
 -9.4024268e-05
  1.1533946e-03
 -3.7327007e-04
  2.1693850e-04
 -1.8927892e-04
 -5.8908283e-04
 -9.4258139e-04
  1.8599705e-04
  2.3997349e-05
 -2.2509230e-04
 -4.5804027e-04
 -1.4165990e-04
  6.8690686e-05
  1.0813077e-03
  2.5980605e-04
  5.4791151e-04
 -7.7027106e-04
  3.5649652e-04
 -4.6632541e-04
 -3.5171746e-04
 -9.8326222e-05
  1.2721063e-04
 -1.1987792e-04
  1.6802629e-04
 -8.7237748e-04
 -4.5680914e-05
  2.2041672e-04
 -9.0129135e-05
  4.8018282e-04
  6.7283469e-04
  5.2887661e-04
 -1.4222978e-04
  1.1091733e-04
  1.7771150e-04
 -1.6812712e-04
  8.1381877e-05
 -5.8440743e-05
  3.1430372e-05
  4.1835249e-04
 -2.5633084e-05
 -3.4280244e-04
 -7.2923547e-05
  2.8215733e-04
 -6.4686043e-05
 -2.2419747e-04
 -3.0889007e-04
  5.5440189e-05
  2.1658467e-05
 -2.7588048e-04
 -3.2041469e-05
  2.4553569e-04
 -5.1162278e-05
  4.2922914e-04
 -4.7918924e-04
  5.7157932e-04
  7.7896584e-05
  1.8245952e-04
  6.2428386e-05
  8.0692535e-06
  1.1395764e-04
  1.0242790e-04
 -1.7630222e-04
 -6.5105525e-07
  1.6369591e-04
 -2.9579303e-04
 -9.5223819e-05
 -3.8644389e-04
 -1.5672696e-04
  2.1599535e-05
  4.8934791e-05
 -1.3747116e-04
  8.7453099e-04
  4.9323175e-04
 -9.2554954e-05
  3.4047995e-04
  1.0268395e-04
  1.0764037e-04
 -1.2933158e-03
 -4.4966987e-04
 -1.1844299e-04
  3.5832658e-05
 -5.6020910e-04
  2.5263432e-04
  2.6949456e-05
  3.5458821e-04
  1.4658483e-04
 -2.2536566e-05
 -3.7518541e-05
  1.3444727e-04
  2.3886765e-05
 -7.8459014e-04
 -1.7066563e-03
 -4.5900076e-04
 -5.2928465e-04
  1.4585753e-04
  7.3258190e-05
 -3.2890303e-04
  1.9257405e-04
 -2.5407661e-04
 -2.0106992e-04
  5.3124037e-04
  4.3349570e-04
  1.5854224e-04
  7.5180105e-05
 -2.1859778e-04
 -1.5447564e-04
 -6.1048975e-04
 -1.0202562e-04
  3.4623724e-04
  3.7644678e-04
 -1.2233808e-04
 -2.2645765e-04
  2.5444434e-04
  3.8611560e-04
 -1.2668152e-04
 -9.0566842e-04
  2.2302540e-05
  8.6383945e-05
 -2.8419483e-04
 -8.5170504e-05
  7.6185272e-05
 -9.5048621e-05
  1.4032944e-04
  4.3455206e-04
 -1.9780859e-04
 -5.6098662e-03
 -3.3830413e-01
  1.7025998e-01
 -3.4366269e-04
  1.0691923e-01
 -3.1839270e-04
  1.8204147e-01
 -3.2754181e-04
  5.5470085e-04
 -8.1480909e-03
 -3.8784124e-02
  7.0879012e-02
  9.9731293e-03
  3.0767187e-04
  2.7599989e-04
  2.1632530e-02
  1.5813337e-01
 -8.2716998e-03
  1.3607652e-01
  8.5858507e-03
  2.0236011e-04
  3.2433223e-02
 -9.1938628e-04
  9.1462760e-05
 -2.2148344e-01
  1.7614164e-04
  3.9354428e-03
 -1.4142171e-03
 -2.1680427e-04
  1.3867846e-04
 -3.9413254e-04
  2.6695561e-04
 -2.3084684e-04
 -2.8442329e-04
  5.1441416e-04
 -3.0520740e-05
 -1.5868887e-04
  5.2586145e-04
 -5.6999404e-04
 -2.6291935e-04
  2.6018237e-04
  4.4382647e-05
 -4.7185538e-05
 -1.3714263e-04
 -2.8374821e-05
 -4.0803559e-04
 -1.6444837e-04
  2.3685314e-04
  2.1748981e-04
 -1.4497733e-04
  1.4499834e-04
 -3.7822386e-04
 -4.2739139e-05
 -2.6639845e-04
  7.8502932e-04
  2.7170539e-04
  2.8781335e-05
 -2.0083140e-04
 -1.6416704e-04
  9.4271259e-04
 -2.9449275e-05
 -8.9081423e-03
  9.3776622e-04
  5.0314551e-04
  1.6443266e-03
 -3.4453734e-04
  5.9460301e-04
 -8.2118364e-05
 -1.0203179e-04
  1.7772915e-04
  1.1367343e-04
  2.3109132e-01
 -4.3584092e-04
 -7.7865232e-05
 -3.0370767e-04
  7.9301914e-05
  3.1876337e-04
 -1.6742988e-04
  1.0948997e-04
 -1.6781288e-04
 -3.7831449e-04
  1.0465062e-03
 -1.0361313e-03
 -1.5692790e-04
 -3.4279612e-05
  5.2697049e-04
  4.4584942e-01
  1.5081710e-04
  1.5938253e-04
 -2.4290357e-04
 -2.8121221e-04
 -3.2898670e-04
  3.2826127e-05
  1.5109502e-04
 -4.8254977e-04
 -2.7941294e-05
 -1.1575748e-04
  2.8917164e-04
 -7.2335293e-05
  2.2167352e-04
  7.1524346e-04
 -4.3273112e-06
  3.2501080e-04
  1.4703433e-04
  1.6681907e-04
  3.1842003e-04
 -4.7532236e-04
  1.0251316e-04
 -2.1836130e-04
  4.4787801e-05
 -4.8819478e-04
 -7.5956108e-04
 -1.4405200e-04
  9.0423266e-05
  1.6360009e-05
 -9.3598275e-05
  4.1566833e-04
  3.9567667e-04
 -3.6495324e-04
 -2.1659987e-04
  2.5998765e-01
  9.7847813e-01
 -5.0187808e-01
  7.0683361e-04
 -3.1966403e-01
  4.4951430e-03
 -1.6274580e-01
  4.3835441e-04
 -2.8707266e-01
  9.1313936e-02
  2.1530329e-01
 -1.3024113e-01
 -4.9300492e-01
  5.0827287e-02
  5.0314587e-01
 -8.3063155e-02
  1.7465091e-01
  5.2815387e-03
 -1.6503714e-01
 -5.8368910e-02
 -6.4551336e-05
 -6.4606904e-03
  7.0950584e-03
 -5.9797239e-05
  2.7033451e-01
  1.5290474e-04
 -3.0683473e-04
  3.4836159e-04
  3.3036557e-03
  6.4249709e-04
  3.3696037e-04
 -9.6272306e-05
 -2.0045285e-04
 -6.7637615e-05
 -7.3992123e-04
 -4.4537621e-04
 -3.2916473e-04
 -7.3915704e-05
 -2.8805225e-04
  1.3343549e-04
  1.1343720e-04
  3.4165183e-05
 -1.8186640e-04
  2.2955619e-05
 -1.1287160e-04
  1.0794166e-04
  3.3076917e-04
  2.5999692e-05
 -2.0858411e-04
  5.7704019e-04
 -7.6774086e-05
  4.2522184e-04
 -1.0421647e-04
 -5.9225335e-04
  4.8539773e-04
 -2.9877084e-04
 -9.3772964e-05
 -7.1495108e-04
  3.1878651e-04
  1.2408240e-03
  2.3169146e-04
 -4.0253793e-04
 -1.1960463e-04
  3.9584137e-04
  9.1112306e-05
 -1.9883613e-05
  6.9206773e-04
 -5.4040365e-04
 -2.8061453e-04
 -2.6878595e-04
  1.0686921e-03
 -3.4213983e-05
 -8.2185543e-05
 -7.6102966e-05
 -7.5106887e-04
 -2.5191114e-04
 -2.3267165e-04
  2.3081604e-05
  2.3632090e-05
  2.3195652e-04
  7.5049821e-04
  8.0897677e-04
 -1.3076951e-05
  2.3739220e-04
 -1.0191829e-04
 -1.9105092e-04
 -2.4717333e-04
  6.9453483e-05
  7.7658551e-05
  5.0082108e-05
 -7.3322267e-06
  7.6018761e-05
  1.0761972e-04
  1.1120215e-03
 -3.0261544e-06
  6.4675295e-04
  5.0609413e-04
  3.7639489e-04
  1.4429691e-04
  2.6206241e-04
 -6.8994204e-04
 -5.9355202e-04
  3.7937882e-04
 -3.4029155e-05
 -8.4313552e-04
 -9.2389026e-05
  9.4009280e-05
 -7.4851752e-04
  1.8464820e-04
 -1.7841987e-04
 -2.0270822e-05
 -1.8847910e-04
  9.9151912e-06
 -6.9166075e-05
  6.4910375e-05
 -2.0034202e-04
 -1.8160783e-04
 -2.5921576e-05
  5.3865771e-04
 -2.5452976e-04
 -3.2351102e-04
 -7.6370401e-04
 -5.9742865e-04
  4.6676639e-04
 -3.4477602e-04
  1.8055380e-04
  4.8988516e-04
 -1.0941872e-04
 -7.8058307e-05
  3.4005186e-04
  1.1771143e-04
  4.2049462e-04
 -7.6623204e-05
 -1.9249371e-04
  2.1387725e-05
  3.8983396e-04
  5.5533459e-05
  3.5937075e-04
 -3.7165431e-05
  1.1654651e-04
  5.3818087e-04
  1.2231048e-05
 -6.7694247e-04
 -3.0195300e-04
  1.0137268e-04
 -2.4196172e-04
  5.8164418e-04
 -6.2350818e-04
  3.6490022e-05
 -2.6692167e-05
  8.5970514e-02
  3.0814987e-01
 -3.0843940e-01
 -3.6222078e-05
 -3.1422359e-01
  9.8784128e-03
 -6.6915447e-01
  1.6623301e-02
  4.0745642e-04
  1.9251797e-01
  8.7133035e-02
 -6.9717683e-02
 -9.4095424e-02
  1.2937091e-01
  3.1330030e-02
 -2.0289847e-01
 -8.8095356e-04
  1.5491927e-01
 -2.9322574e-01
 -9.7933188e-02
  7.7247451e-04
 -1.0749359e-01
  2.0505601e-01
 -3.6368965e-05
  3.1639963e-01
 -5.6784313e-02
 -2.4746689e-03
  4.3743369e-03
  1.1453606e-01
 -8.4259555e-02
 -1.3463230e+00
 -2.5490138e-01
  5.0110217e-02
 -6.6010386e-04
  1.1603168e-02
  1.0135701e-04
  2.4860266e-01
  1.1329302e-04
 -2.4327626e-04
 -9.4600670e-02
 -2.3526458e-01
 -1.1912666e-01
 -8.1916139e-02
 -3.8943639e-01
 -1.1995906e+00
 -3.9683181e-01
 -2.5595719e-01
 -1.7764429e-02
  1.6784455e-01
  1.8704678e-01
 -1.6643966e-04
  3.9029428e-01
 -6.5817595e-02
  1.0714173e-04
 -2.0532106e-01
  1.1969664e-02
 -6.3288860e-02
 -4.3951144e-04
 -7.6547958e-02
  8.5692972e-02
 -5.9251510e-05
 -3.7660028e-04
  5.8176758e-04
  2.1613546e-04
  8.0957037e-04
  3.7605144e-04
 -1.4425340e-03
  4.7253139e-04
  2.7715929e-05
  1.2141405e-04
  7.2271410e-05
  5.9741848e-05
  1.7764591e-04
 -4.0093987e-04
  1.1092069e-04
  8.6799635e-05
 -1.0317620e-03
  5.3197142e-05
 -1.8766233e-04
 -1.1789556e-04
 -1.6202497e-04
  2.8491009e-04
  1.6369399e-04
  1.4237850e-03
 -6.3465261e-05
 -3.7623636e-04
  5.2053493e-04
  2.5565975e-04
  9.9121546e-04
  2.3056770e-04
 -5.4902150e-05
  2.8828836e-05
  2.0638810e-04
  1.9993395e-05
  6.3613974e-05
  2.0477876e-04
  2.1133517e-04
 -6.3294428e-04
  1.6249091e-04
  3.2017785e-04
  3.0577605e-06
 -3.8077080e-04
 -5.7702960e-04
 -5.8099080e-04
 -7.2006712e-04
 -3.0024074e-05
 -6.6830945e-04
  2.0600507e-06
  1.3221205e-04
  4.1227057e-04
 -8.1994780e-04
  9.1696344e-04
  9.7309021e-05
  4.4314773e-05
 -5.5021668e-05
  8.4620347e-05
 -7.2878716e-04
 -5.0721461e-05
 -1.5025910e-04
 -7.4286523e-05
  4.8446510e-04
 -8.0759011e-05
  5.2641187e-04
 -3.0773101e-04
 -5.3815864e-05
 -1.7105915e-05
 -1.6232976e-04
 -1.8558858e-04
 -1.4940962e-01
  2.3499806e-04
  1.0246495e-04
 -1.6717160e-04
  1.2700602e-04
 -5.5787101e-04
 -3.3738968e-05
 -2.5945719e-04
 -1.9849153e-04
 -1.1049477e-04
  1.5452178e-04
  5.4045133e-05
  2.7954605e-04
  8.6119893e-04
 -1.1812140e-03
 -3.4303995e-04
  1.0510293e-04
 -1.5274847e-04
 -3.3086241e-04
 -4.1596510e-04
 -1.7736389e-04
 -2.1581180e-04
  4.0831085e-04
 -4.2829875e-04
 -2.8410362e-04
  1.0307436e-03
  6.5676734e-04
 -3.2462904e-04
  2.9169958e-05
  7.0608675e-04
  1.3149063e-04
  3.2162486e-04
 -2.4050783e-04
 -4.1522356e-04
  1.2897183e-04
  1.0842745e-04
  2.0392620e-04
  1.8515484e-04
  4.1007272e-05
  6.5638765e-04
 -5.5968708e-06
  3.8528827e-04
 -7.3719049e-05
 -2.4361718e-04
  1.0790058e-04
 -6.4602376e-05
  2.2982246e-04
 -6.0125539e-04
 -2.0153285e-04
 -2.7197957e-05
  4.2929922e-04
  1.8299851e-04
  1.1603427e-03
 -7.7164019e-05
 -1.8259438e-04
  4.4193908e-04
  4.2911858e-04
 -1.5486852e-04
 -3.1785737e-04
 -2.4471472e-05
  2.1961077e-04
 -3.4321896e-05
  9.4452820e-04
  2.2931762e-04
  2.0032359e-04
  2.2104096e-04
 -3.5100427e-04
 -1.4145195e-04
  2.3865896e-04
  8.5640536e-04
 -2.9778035e-04
 -7.8946061e-05
 -2.4406831e-03
 -1.0461012e-03
  2.3562433e-04
 -1.7823637e-04
 -1.5204574e-04
  1.2650507e-04
 -1.7315250e-04
  4.0290764e-05
  3.5109927e-04
  2.9627566e-04
  2.3392850e-04
 -9.4980875e-05
 -1.6849765e-04
  1.0493514e-04
  3.3355446e-04
  8.0200873e-05
 -2.5638926e-04
 -1.1189786e-03
 -4.4806558e-04
 -1.7951729e-04
 -3.4233386e-04
  3.6040225e-04
 -3.5059726e-04
  1.4633314e-04
  5.6031582e-05
 -1.0339024e-04
  1.8568644e-04
  2.9365632e-05
 -4.7025282e-04
 -2.2234968e-05
 -3.3440876e-05
 -2.0477264e-04
  3.3465947e-04
 -7.5011892e-04
 -1.1485510e-04
 -1.9762514e-04
 -1.6902707e-04
  1.4042955e-04
 -4.3954875e-04
 -1.3401161e-03
  3.9894358e-04
  1.2873697e-04
 -2.3858591e-04
 -5.6795392e-04
 -7.6469667e-05
 -2.4175618e-04
  5.8627594e-04
  1.0534521e-04
 -2.7187937e-04
 -6.0968421e-04
 -1.1206182e-04
 -5.5323786e-04
 -1.7648301e-04
 -3.0435538e-05
 -9.6230430e-04
 -6.2736816e-04
 -1.7726138e-03
  2.5597366e-04
  2.3629397e-04
 -2.5295652e-04
  2.3520327e-06
  1.7651587e-04
 -2.8283981e-04
  2.6611931e-06
 -3.4397407e-04
  8.2511286e-07
 -3.5759227e-04
 -1.0690845e-04
 -2.9943732e-04
  6.0599865e-05
 -8.9767964e-05
  1.3650622e-04
  1.3482111e-04
 -1.9235072e-04
  6.1131956e-04
  5.4474956e-05
  3.8004778e-06
  9.3769202e-05
  1.1840731e-04
 -6.3958595e-04
  5.1260222e-04
 -4.0975683e-05
  5.5943714e-05
  5.2553986e-04
  1.5456826e-04
 -3.7614132e-05
  1.1477940e-04
  4.5968132e-04
  2.0938418e-04
 -3.0855703e-05
 -4.3257882e-04
  6.2405168e-05
  1.5198116e-04
 -2.6649135e-04
  1.5189121e-06
 -2.7224558e-04
 -3.0941330e-04
  3.3854973e-04
  2.6005639e-05
 -4.7738540e-06
 -2.8946658e-04
  7.7395707e-05
 -3.3975314e-04
  2.6902908e-05
  1.6899031e-04
  2.6529681e-04
 -4.1107042e-04
 -4.6069920e-04
  2.5062717e-04
  6.7320070e-05
  8.9534128e-04
  6.5786357e-04
  2.2502268e-04
  1.0654314e-04
  4.9960124e-04
  1.6803009e-04
 -1.5100121e-04
 -5.1185401e-05
  2.1987189e-04
  8.7824264e-05
  1.2167441e-03
  4.1604767e-04
 -3.7182102e-04
 -3.2879077e-04
 -2.4939774e-04
 -3.5368913e-04
 -8.3174062e-04
 -1.8840967e-05
 -6.0358580e-04
  3.2147105e-04
  6.6252208e-01
  5.3666741e-01
 -3.6759841e-01
  6.0926586e-02
 -1.2035641e-03
  5.0649408e-04
 -1.6166187e-03
  5.2297913e-04
 -4.1711648e-04
  1.9096944e-04
  1.3709728e-01
 -4.8174152e-01
 -1.7184872e-02
  4.8506979e-04
 -5.9757737e-04
 -1.1136109e-04
  1.8600175e-01
  4.5734973e-04
 -8.2433136e-05
  1.7769731e+00
  2.0462884e-04
  2.0651452e-03
 -1.2961829e-04
 -1.1154392e-04
  1.2323917e-01
 -1.9180254e-04
 -2.1846353e-03
  4.7679673e-04
  2.8883354e-05
  2.7032249e-04
 -8.6579985e-06
  4.8811783e-04
  3.7782392e-04
  8.1348800e-05
 -2.1774938e-05
  2.1515328e-04
 -8.6927746e-04
 -2.7953973e-04
 -7.0624670e-04
 -5.5419799e-04
  1.3874784e-03
 -5.7364092e-04
 -6.9993670e-04
  4.7743411e-04
  3.7969119e-04
  3.0417401e-05
 -1.9749546e-04
  2.5503486e-04
 -3.0142994e-04
 -9.8772871e-05
  5.0565804e-04
 -2.9397354e-04
  3.8451341e-05
 -2.2309342e-04
 -1.2697277e-04
  1.4125496e-04
  6.2589999e-04
 -1.2747022e-04
  1.3767084e-03
 -3.9430399e-04
  3.6020036e+00
  4.4554871e-01
 -1.1449780e-01
 -2.8074834e-02
 -1.4396987e+00
  1.5800243e-03
 -6.4698863e-01
 -5.2099340e-02
 -3.1476405e-02
 -2.3580246e-02
 -4.2404473e-01
 -3.0235365e-01
 -3.5467395e-01
 -7.4499249e-02
  5.6628276e-02
 -1.4611632e+00
 -9.2179573e-01
  5.2433753e-01
 -2.9305369e-02
  7.9036564e-01
  3.4122782e-05
 -1.8018050e+00
  1.6378291e-01
  1.5724311e+00
 -9.6884102e-01
 -1.9797846e-03
 -5.2194364e-02
  2.2074260e-04
  6.3115232e-02
 -3.0250021e-04
  3.4182720e-04
 -5.4688769e-04
  6.6964269e-05
 -2.9086546e-04
  1.0236105e-04
  1.5545711e-05
  3.0004990e-04
  5.1838717e-05
  2.3431676e-04
 -1.6475360e-04
  6.6354078e-05
  2.9141037e-04
 -1.1216735e-04
  3.3076623e-05
  2.8336304e-05
 -2.6134946e-04
  1.6184371e-03
  3.7927044e-04
 -1.2552984e-04
  1.6062590e-04
  2.0146153e-04
  3.0366032e-04
  4.3283144e-04
  2.1142143e-04
  4.8154540e-04
  3.4160048e-04
  1.4915684e-04
 -2.0139650e-04
  2.3163379e-04
  1.1225209e-04
 -1.4535780e-04
  1.0033743e-04
  5.7442707e-04
  7.7865880e-05
 -3.4514091e-05
 -6.6602108e-04
  2.2033782e-04
 -3.6514026e-05
 -3.6426023e-05
  4.4025053e-04
  5.5667589e-04
 -6.5628890e-05
  6.4916117e-04
  1.3646533e-04
  1.8995252e-04
 -1.6744473e-04
 -9.4244002e-05
 -4.1319037e-04
 -3.0806541e-04
  2.8086477e-04
 -5.7839707e-04
  1.0430077e-03
  1.3217826e-03
 -9.6083491e-04
 -1.2981096e-04
  1.9651523e-04
  1.5249715e-05
 -1.4004068e-04
  4.9013575e-05
 -2.7203272e-04
  8.0131798e-04
  3.5431265e-04
 -5.7722831e-05
  2.5851768e-04
 -1.5759155e-04
  5.0092896e-04
  1.8674673e-05
 -3.6941553e-04
  1.5382005e-03
  2.9815515e-04
 -5.7072507e-04
  2.5898605e-04
  1.1799578e-04
 -2.8186604e-01
  2.0146307e-04
 -3.1731604e-04
 -5.8430724e-04
 -6.6580709e-05
  4.4338343e-05
  2.3548603e-04
  2.0266468e-04
 -6.9982241e-05
 -3.5608589e-04
  6.8549893e-04
 -5.7054200e-04
 -4.9330370e-04
 -2.3749990e-05
 -4.6242731e-05
 -3.0873157e-04
 -3.0781285e-04
 -9.7106138e-05
  2.4074840e-03
 -5.1002583e-04
  1.1927079e-04
 -8.7016808e-05
 -4.4324814e-04
 -7.7122770e-04
  6.8755337e-04
  1.4964580e-04
  1.7281999e-04
 -6.8078289e-06
 -6.7106355e-04
  6.7672430e-05
 -9.4972298e-02
  3.6585817e-04
  3.6690163e-04
  1.1042396e-04
 -5.4048083e-04
 -4.1070601e-04
  2.3529353e-04
 -5.3733165e-05
 -8.3621411e-04
 -9.5150563e-06
 -2.8178949e-05
  9.2866590e-05
  1.7570217e-05
  5.4555415e-04
  1.1801675e-04
  5.4129853e-04
 -2.7685837e-05
  2.0748863e-04
  2.0152009e-04
 -1.0484455e-04
 -4.1636222e-04
  1.2088747e-04
 -5.4605262e-05
  1.5165382e-05
  1.1160236e-03
  3.2595548e-04
  5.4208928e-04
  7.4125570e-04
  5.6470995e-05
  1.6415314e-04
  2.1545708e-04
  1.8735013e-04
  5.7693984e-04
  5.7653600e-04
  8.3896203e-04
  2.7096170e-04
 -5.0712035e-05
  1.4388410e-04
 -2.9812767e-05
  7.0222764e-04
 -5.8898411e-04
  5.6404108e-04
 -4.3439020e-05
  2.5731389e-04
 -1.2888265e-04
 -9.6435979e-04
  9.3425573e-05
  9.2643587e-04
  2.1755775e-05
  7.3929252e-05
 -2.8449079e-04
 -7.0399133e-04
  2.0054040e-05
  2.7888411e-04
 -1.0071633e-04
  4.8656476e-04
 -6.8109430e-04
  3.6167513e-04
  4.6043999e-05
 -6.7974077e-05
  2.9356405e-04
  5.6148943e-04
  1.4354127e-03
 -3.3266144e-04
 -3.6567211e-04
  3.1312261e-04
  2.4364868e-05
 -6.4725819e-04
  4.3635379e-04
  1.2876829e-03
 -1.4738011e-04
  3.7252472e-04
  8.3007551e-05
  8.6064072e-05
  1.9486315e-04
  1.4144216e-04
  8.7033235e-04
  3.1470230e-05
 -8.8340777e-04
  2.6823976e-04
 -9.9932244e-05
 -3.9864550e-04
  2.9116246e-04
  2.6847198e-04
 -5.5843040e-05
 -1.0378180e-04
 -9.1045149e-05
 -1.3504154e-03
  2.4765730e-04
 -3.6085465e-05
 -4.5490245e-04
  4.0520466e-04
  3.2676285e-04
  4.6143428e-05
  2.2921136e-04
 -5.1735656e-04
  3.5227492e-04
  3.3757999e-04
 -3.5152666e-04
  2.5589654e-04
  5.8754635e-05
 -4.0002601e-04
  4.1534792e-04
  2.5684459e-04
  1.9099109e-04
  1.0560198e-03
 -8.5347865e-06
  2.9721648e-02
 -1.0057383e+00
  6.9787019e-01
 -3.8712144e-01
  3.9171744e-03
 -1.0682346e-03
  6.0035799e-02
 -1.1546084e-03
 -7.8169326e-04
 -1.8417302e-01
 -1.9672784e-01
  2.4666356e-01
  3.2190796e-02
 -1.9049776e-01
 -3.8350344e-02
  1.7002186e-04
 -8.6783641e-04
 -7.3662854e-04
  1.4236280e-02
  2.9565743e-03
  1.0459095e-04
 -2.7712306e-02
 -2.8780429e-04
 -1.5061726e-04
 -1.3410160e-01
  6.8718370e-04
 -6.0019294e-05
 -4.7377782e-04
 -2.2281494e-03
 -3.8709422e-04
  6.2654057e-05
  1.9377322e-04
 -2.6667278e-04
  1.5992185e-04
  4.2491341e-05
  4.9384590e-04
 -1.0360720e-03
 -3.1849474e-04
  1.2330865e-04
  2.0102403e-04
 -4.8819405e-04
  2.9241291e-04
  1.4890367e-03
 -3.1398796e-04
  6.4697186e-04
  4.5673576e-05
  1.6528850e-04
 -1.3775115e-04
 -7.1409356e-04
 -6.1028224e-04
 -1.8853527e-04
  1.3517604e-04
 -5.0943380e-04
 -2.3612133e-04
  7.6636083e-05
  8.6806709e-04
  1.5808071e-04
 -4.7842771e-04
  1.0151800e-04
  2.9088077e-04
 -2.7158024e-04
 -2.7495864e-04
  4.9518369e-04
 -9.9115998e-05
 -5.6625238e-05
 -1.9397614e-05
  2.7361116e-04
 -9.1544952e-04
 -4.3446684e-04
  6.9040112e-04
 -4.0118705e-04
  3.1413767e-04
  1.0839035e-04
 -3.8236444e-04
 -3.6738174e-06
  1.1222603e-04
 -4.6286196e-04
 -4.0178405e-04
  1.1423579e-03
  7.7867233e-05
  1.1079927e-04
  3.2553016e-04
 -2.6720710e-04
 -7.8744204e-05
  8.8746659e-05
 -1.8460772e-05
  2.3905763e-05
  1.0196636e-04
 -6.5141160e-04
  2.5936606e-04
  5.5711914e-04
  1.9146971e-04
 -1.4568072e-04
 -5.0444790e-04
  1.2982095e-04
 -3.9106300e-05
 -7.0513575e-04
  1.2964635e-04
 -2.8280654e-05
  1.3165911e-04
 -3.9444590e-04
  5.2546093e-04
 -3.0842368e-04
  9.3826202e-05
 -4.9480423e-04
  6.1970210e-04
 -2.4318528e-04
  3.1663894e-04
 -7.8147551e-04
  2.1283372e-04
  3.0219750e-04
 -4.2157731e-04
 -1.4414865e-04
  4.4463424e-04
  4.5118133e-05
  2.3087255e-04
 -3.0569502e-04
  8.7158296e-05
 -1.4515776e-04
  1.6532047e-04
 -2.7871569e-05
 -5.4156780e-04
 -2.5215046e-04
 -7.8904486e-06
 -3.9976259e-04
 -4.3667187e-05
  2.4667921e-04
  2.5432176e-04
 -8.9315627e-06
  2.0021036e-04
  4.9249607e-04
 -1.0832040e-04
 -1.2001095e-04
  5.3437025e-04
  1.8954433e-04
  2.6170051e-04
 -1.2149568e-04
 -2.1416676e-04
  3.1152577e-04
 -1.0325628e-03
  1.0122641e-03
 -1.6376920e-04
  7.5617201e-05
  5.9312286e-05
  2.2456514e-04
  5.8922626e-04
  8.7083012e-05
  2.0728116e-04
  2.4375948e-04
 -8.5671614e-05
  1.7579827e-01
  4.2978057e-01
 -5.7354176e-01
  8.5738538e-05
 -2.1783213e-01
  6.2033139e-02
 -5.4272151e-01
  1.5089652e-04
  6.7600548e-02
  2.6279145e-01
  4.6046144e-01
 -6.8179272e-02
 -2.4074923e-01
  2.4603613e-01
  6.6287820e-03
 -1.6713516e-01
  1.4686155e-01
  6.5680675e-02
 -3.9931661e-01
 -9.5905967e-02
  1.8511288e-04
 -2.3827314e-01
  2.2529632e-01
  8.1130899e-02
  5.2727216e-01
 -4.6375087e-03
 -3.0498782e-03
  8.5965527e-04
  1.5722327e-02
 -5.4166421e-02
  7.0262265e-01
  7.1173483e-01
 -1.1113753e+00
  2.5348103e-01
 -8.2689669e-04
  9.1124541e-04
 -8.2842506e-02
  1.1530016e-03
  1.1429418e-02
  1.7973642e-01
  2.7495149e-01
 -4.4019079e-01
 -4.8305724e-02
  2.7392630e-02
 -1.5186855e-01
  3.2143650e-04
  2.8930563e-02
  6.3254515e-04
 -5.0103930e-03
 -1.5396437e-04
  1.1281457e-03
  4.6415180e-02
  3.0473717e-03
  1.7722184e-04
  3.5673866e-01
  5.4391076e-06
 -4.6626310e-04
  1.1973115e-04
  4.7738256e-04
  1.5884820e-04
  1.2673092e-01
  2.9327771e-01
 -2.0805338e-01
 -1.1157489e-05
 -3.2148197e-01
  8.5105300e-03
 -4.2603713e-01
  3.2123197e-03
  4.7625739e-02
  1.1600881e-01
  5.7900537e-02
 -1.0346051e-01
 -1.0325981e-01
  7.5333290e-02
 -8.5689948e-04
 -1.8202674e-01
  5.8092354e-03
  7.7708937e-02
 -2.0446749e-01
 -7.6001339e-02
  3.0320268e-03
 -1.1496150e-01
  1.5730585e-01
 -1.4081944e-04
  3.5710421e-01
 -1.3910481e-03
 -3.2961145e-03
 -2.7667175e-04
  3.7483934e-02
 -5.2261455e-03
 -2.1439664e-04
 -4.2487014e-04
 -9.6844260e-06
  2.5067115e-04
  2.8687908e-04
  1.2262867e-04
 -4.5281957e-04
 -2.4052009e-05
 -4.9270084e-04
  2.3577404e-04
 -4.7751932e-04
  1.4595823e-04
  2.2840202e-04
  2.9507126e-05
 -9.0190442e-05
 -1.0741999e-03
  5.4771175e-05
 -3.4304289e-04
  1.2890737e-04
  2.3567180e-04
 -7.1273185e-04
 -6.8635860e-04
  7.2917045e-04
  4.6051771e-04
  1.2575944e-05
 -2.7052991e-04
 -8.8380417e-05
  2.5250507e-04
  9.0891073e-05
  5.2966113e-04
  3.2264413e-04
  5.8623677e-04
 -5.0984017e-05
 -1.9529386e-04
 -1.7825534e-04
 -3.8992759e-05
 -1.1932140e-03
  3.3978718e-05
  8.4363308e-04
  2.4182399e-04
 -2.8938847e-04
 -6.9297326e-04
 -9.4929725e-05
 -2.6660197e-04
 -5.4354288e-05
 -3.7802802e-04
  4.4044462e-04
 -3.5036780e-04
  8.2937921e-05
 -1.1004487e-04
 -1.0783230e-04
  2.6123790e-04
 -4.5992620e-05
 -3.9261105e-04
  8.1804101e-05
  3.0752312e-04
 -3.7451638e-04
  9.1627799e-04
 -2.5293711e-04
 -8.9765286e-05
  1.0610496e-04
 -2.8589161e-04
 -3.4684472e-04
  7.7230291e-04
  9.9741283e-06
  2.2004017e-04
  3.7130096e-04
 -4.8666032e-05
 -8.1266398e-03
 -9.4184972e-05
 -3.2096144e-04
  1.3826639e-02
 -4.1754345e-05
  2.9785751e-05
 -1.2160536e-04
 -2.3993714e-05
 -1.3425665e-04
 -5.9527619e-04
  1.8122232e-04
  1.0640557e-03
 -2.5658886e-04
 -2.6100862e-04
 -3.9590453e-04
  2.1678131e-04
 -6.4209179e-04
 -1.7141287e-04
  2.1697262e-04
 -5.8832648e-04
  3.5240653e-04
  9.0528623e-04
  1.6950213e-04
  1.0274423e-04
 -8.4172311e-04
  1.2172820e-05
 -2.3411430e-07
  7.6636272e-05
 -1.1930624e-04
 -7.6093173e-05
 -1.1642872e-04
 -6.4109139e-05
  2.4201629e-04
 -3.8413502e-05
  1.7878558e-05
  3.2487773e-05
 -2.5710277e-04
 -3.6546294e-04
  3.4827690e-04
  5.5773283e-04
  3.9108912e-04
  1.1800796e-03
 -5.1102997e-04
  1.5152359e-04
 -1.1958170e-04
  3.2114611e-05
 -2.8018683e-06
  1.9018458e-04
  6.2534097e-04
 -1.4896672e-04
  5.0479505e-04
  3.7584521e-04
  3.3434946e-04
  1.3928990e-04
  3.6285228e-01
 -6.8696670e-04
  3.2573822e-04
 -6.7547233e-05
  2.7713881e-04
 -9.2947972e-04
  9.2925614e-04
 -1.2354452e-05
 -1.0465687e-04
 -3.6503287e-04
 -7.8964280e-03
  4.0933912e-04
  1.0481924e-04
 -5.3132284e-05
 -4.6960960e-04
 -5.9818361e-02
  4.6353495e-01
 -6.3779844e-05
  6.7912959e-05
 -3.7071801e-04
  1.8143606e-04
 -4.7967085e-05
 -1.4228756e-04
 -8.3177933e-04
  1.2073797e-04
  4.4154809e-04
  3.5718542e-01
  4.2291815e-04
 -3.1044248e-02
 -6.2337429e-05
  4.3973408e-04
 -8.3063867e-05
 -2.3303814e-04
  1.0762730e-04
  2.0005579e-04
 -1.0650789e-04
 -8.0428006e-05
  3.5283412e-04
  5.0984843e-05
  1.6500411e-04
 -4.1644971e-04
 -7.2718295e-04
  6.3001013e-01
 -1.9269317e-02
  2.1517290e-04
  2.6327412e-04
 -2.5502811e-04
  6.3743450e-05
 -2.2937822e-05
 -1.9508992e-01
 -1.5907391e+00
  4.0545881e-05
  3.7401624e-04
 -9.9473444e-05
  7.6426339e-05
 -5.7355854e-05
 -6.9623625e-01
  7.0689290e-05
 -2.6639217e-01
  2.3688370e-04
  7.5871968e-01
 -7.1298615e-05
 -3.2510489e-04
  5.9322003e-05
 -1.7164178e-01
  1.5604649e+00
 -1.1982597e+00
  9.6197069e-02
  1.8760805e-04
 -1.5224911e-05
 -7.0818238e-02
 -6.6624219e-05
 -6.3045538e-04
  1.3227058e-04
 -1.4696008e-04
 -3.2874619e-04
  5.1492757e-01
 -1.2957661e-04
  1.3300480e+00
  3.8027408e-04
 -1.5541974e-04
 -5.5492815e-04
  3.2115394e-01
  2.0108123e-04
  2.8615378e-04
  5.8313785e-04
 -6.5944737e-01
 -1.4712136e-04
 -2.1136597e-01
 -3.2545417e-04
  2.3624851e-04
  1.1274210e+00
  7.7634794e-01
  1.1929281e+00
  4.7526155e-02
 -1.3650827e-04
  2.1381416e-04
  1.3335714e-01
 -3.2822689e-01
 -3.7266742e-04
 -1.3385416e-03
  3.8925538e-04
  1.5752781e-03
 -2.0947034e-05
  5.2405815e-03
 -4.7785239e-04
  3.4320539e-05
 -2.0041354e-03
 -1.5919954e-04
 -1.4613492e-04
  6.1561950e-05
  1.8175720e-04
 -6.7029090e-04
 -3.4926776e-04
 -1.4127496e-02
 -1.8533143e-04
  3.9287659e-04
 -2.3782394e-04
 -3.4942396e-04
 -1.1852606e-04
  4.8843969e-05
 -2.4042958e-04
  3.9376391e-04
 -2.3859448e-05
 -4.7605852e-05
 -2.3819286e-05
  4.4240375e-04
  8.8507438e-04
  3.4209648e-01
  3.6883751e-01
 -5.6811895e-02
  9.3281710e-01
 -8.7703380e-04
  1.5078175e-04
  3.3052829e-01
  2.2733360e-04
  9.5597422e-04
  3.6031615e-03
 -1.6981476e-05
  3.8354853e-04
  1.9006960e-02
  1.8623292e-01
  4.3757027e-04
  2.9600936e-04
 -5.9566081e-01
 -9.5354102e-05
 -8.3556414e-01
  8.3394807e-05
 -1.5228163e-04
 -5.8474489e-03
  1.0382754e-04
 -5.2008301e-05
  1.2001005e-04
  1.9845083e-04
  1.6431483e-03
  1.7844098e-02
 -6.2786543e-04
 -5.2789310e-05
 -7.6716430e-02
 -5.0053430e-01
  1.1873199e-04
 -4.4949137e-02
 -2.6438662e-04
  3.5204951e-04
 -7.0924032e-04
 -6.0520973e-04
  3.3569460e-05
 -6.1264997e-03
 -2.6912859e-04
 -4.6030074e-04
 -2.5999927e-04
 -5.4651696e-02
 -4.2677682e-05
  1.1412681e-05
  8.9963478e-01
  7.5287046e-04
 -1.6583368e-05
 -5.7736546e-04
 -6.3292892e-04
  8.6644071e-04
 -5.6662277e-04
  3.3162386e-04
 -1.0568897e-05
  3.5505151e-04
 -2.7243543e-04
 -1.0700269e-04
 -2.3198394e-04
  2.0754345e-04
  1.7748773e-02
 -3.5464163e-05
  9.8338106e-04
  2.8637080e-05
 -1.7208618e-03
  8.1771417e-03
  4.0944298e-05
  2.9022219e-03
  2.9978901e-04
  8.7229686e-04
 -8.6464555e-05
  3.8743234e-04
 -4.6872487e-04
 -2.5210868e-05
 -7.5806529e-05
 -1.8090583e-04
 -5.4622489e-01
 -4.8049778e-04
 -2.9945530e-05
  3.9582333e-04
  2.3305214e-04
 -5.6415366e-04
 -1.0659089e-04
  3.9959859e-04
 -9.7550517e-05
 -2.1423923e-06
  7.2429160e-04
  5.0236331e-04
 -4.2494960e-04
 -3.8854562e-04
 -1.5927614e-01
  8.3546989e-02
 -3.8086906e-01
 -1.2044301e-04
  1.8381599e-02
 -1.3320224e-04
 -7.3385513e-01
 -4.1469847e-04
 -6.0858409e-04
 -9.6808076e-02
  4.0397991e-04
 -2.1861082e-02
  6.4809392e-05
  1.7629565e-04
 -1.9210458e-03
 -1.9261935e-03
  2.6910814e-02
  3.1984685e-04
 -5.6142366e-01
 -5.5759621e-04
 -8.2277274e-04
  1.5556747e-04
 -1.6932233e-04
 -4.6879170e-05
  1.6692524e-05
  4.3979747e-04
 -1.6276570e-04
 -6.8725960e-05
  2.7623295e-04
  1.7934635e-03
 -8.4663341e-03
 -4.3846911e-04
 -2.1405837e-03
 -2.9079820e-04
  4.2568881e-04
 -9.4369554e-04
  1.8118010e-04
 -6.0832442e-04
  3.1739453e-04
  1.7340311e-04
 -6.3535590e-06
 -6.9291383e-04
 -1.2356413e-03
 -7.9084566e-04
  1.8106007e-04
 -5.6469702e-04
  3.5023054e-01
  3.0897430e-04
 -6.0144602e-04
 -4.7275607e-04
 -3.9089686e-04
 -5.1501900e-04
  3.7219224e-04
 -3.7705794e-04
 -5.1376771e-04
  6.0452678e-04
 -6.4948261e-05
 -2.8706677e-04
  8.6392298e-05
  3.0875177e-04
  2.4886089e-04
 -2.3273939e-04
 -2.9305232e-04
 -6.3260325e-04
 -4.0158171e-05
  1.1668474e-05
 -7.3368603e-04
  3.1619251e-04
 -1.6424034e-04
  8.4336694e-05
  5.3695118e-04
  6.0376723e-04
 -2.2225434e-04
  6.1895400e-05
  6.2891340e-04
  4.8750524e-05
 -1.6105940e-04
 -1.0648787e-04
 -8.2744140e-05
  1.2278427e-04
  2.0607856e-04
  7.0868977e-05
 -1.2523474e-01
 -2.8549918e-04
  2.1670434e-04
 -3.0319137e-04
  4.3438294e-04
 -8.5043535e-02
 -1.0734312e-03
  6.1536091e-04
 -1.3582380e-01
 -9.2408882e-04
 -5.8930282e-02
 -2.0796634e-04
  1.2125256e+00
 -3.9340294e-04
  5.2494031e-01
 -5.5749930e-02
 -1.7575352e-01
 -1.5060435e-01
 -1.9237046e-01
 -5.6721047e-02
 -8.9013262e-04
  1.0601826e-03
 -1.5998600e-02
 -7.1375802e-02
 -1.5537113e-01
  5.2310986e-04
 -3.8064536e-01
 -1.3485122e-04
 -1.2240392e-03
 -1.5771424e-02
  5.7205405e-05
 -9.8611391e-04
  5.1797973e-04
  4.7958782e-04
  1.2043748e-05
 -9.8207698e-04
 -2.4663776e-04
  8.7629342e-03
 -1.5514356e-01
  1.1745566e-01
 -1.7644234e-01
 -3.2304585e-04
  1.0343258e-01
 -2.5359800e-04
  6.8929307e-02
 -2.5595454e-02
  1.3176369e-04
 -1.7160484e-01
 -1.0559566e-01
 -9.9735949e-03
 -1.8567242e-02
  1.6466989e-04
 -1.5788540e-01
 -1.8466533e-03
  1.5936763e-04
  1.7205425e-04
 -1.4047371e-01
 -2.4519616e-04
 -1.8313106e-03
  4.3383823e-04
 -4.0904304e-04
 -5.5297639e-04
  1.9548522e-04
  5.9356051e-04
  2.0559233e-04
  2.0285077e-05
  8.8360555e-02
  4.0830644e-03
 -8.6153334e-04
 -1.1013879e-04
 -6.2702909e-02
 -3.8083072e-04
  1.9968093e-04
  3.4271636e-06
  1.1583571e-04
  6.8367302e-04
  3.9743719e-04
  3.6209167e-05
  4.4137218e-05
  5.7416823e-05
 -1.3907273e-04
 -1.8638369e-06
 -1.6153632e-05
 -2.2225086e-04
 -1.4670336e-01
 -6.3355044e-05
 -4.4372404e-04
  1.9197645e-04
 -1.1297570e-03
  1.9637692e-04
 -1.2072487e-03
 -2.6447035e-04
 -1.1170837e-04
 -1.3800291e-04
 -2.4267689e-04
 -4.6639913e-03
  5.4895190e-05
  9.7386837e-05
  7.6312973e-04
  1.3825033e-04
  4.9141695e-04
  4.7767389e-04
 -2.5322038e-04
  1.0015615e-04
  8.8026710e-02
 -5.1766110e-06
  1.4662265e-04
  2.6430034e-05
  1.5523488e-04
  6.4445753e-04
  1.0441056e-04
 -3.6443726e-05
  2.0491576e-05
  1.4603701e-04
  2.6021072e-01
 -3.6838759e-05
 -4.9241586e-04
  5.6650279e-05
  4.3979424e-04
  1.6487266e-04
  6.8234520e-05
  6.6652035e-05
 -4.9796890e-05
 -2.0564915e-04
 -4.0897292e-05
  2.2813192e-04
  3.1172897e-04
  2.2456376e-04
  1.3349000e-03
  6.6762906e-04
 -1.0707857e-04
  1.5270285e-03
 -6.7940936e-04
 -2.2439870e-04
 -3.9905313e-04
 -1.1193781e-04
  2.2447691e-04
  1.7173523e-04
  2.3856928e-04
  8.2634469e-05
 -3.4451170e-04
 -2.3590692e-05
  1.7794725e-04
 -3.3540514e-04
 -6.1976127e-02
  6.6570901e-05
  8.3345402e-04
  6.1597297e-04
 -3.1329528e-05
  2.1431221e-04
  2.3143597e-04
 -1.9700742e-04
  1.2106603e-04
 -6.5596827e-04
  2.7536522e-04
 -1.4261615e-04
  1.8005839e-04
 -1.6991553e-04
  6.4153376e-04
  2.3441044e-05
 -1.2362152e-04
 -4.8292313e-05
 -1.7992035e-04
 -2.9004112e-04
 -3.7591995e-04
 -1.8101240e-05
  2.9409371e-04
 -1.8369089e-04
 -1.7212056e-04
  2.4992754e-04
  1.1376468e-04
  1.2707396e-04
  1.7964418e-04
 -1.6599573e-04
  3.3445479e-04
 -5.6549977e-04
  1.2919915e-04
 -3.4238098e-04
 -3.2454266e-06
  4.1546515e-04
 -2.6243697e-05
  1.6508182e-04
 -4.7681613e-05
  3.4221805e-05
  1.0916828e-04
  9.6423988e-05
 -1.7210889e-04
 -6.4523778e-07
  2.3747269e-04
 -3.1234266e-04
  1.9714994e-04
 -2.6286909e-04
 -2.7262763e-04
 -9.2169801e-05
 -8.6411404e-05
 -1.7695864e-04
 -1.6290463e-04
  2.5837819e-05
  1.2242589e-04
  2.3558805e-05
  7.0721033e-04
 -3.0563882e-05
 -3.1846776e-04
  3.4997891e-05
 -7.9710118e-02
  8.7409635e-04
  4.0597859e-04
  1.7581183e-04
  3.0170564e-04
  3.6706457e-05
 -1.1309722e-04
 -1.2182266e-04
 -1.4158833e-04
 -6.9431306e-05
 -3.5174311e-05
 -2.9355905e-04
  2.4035905e-04
 -1.2500920e-04
 -1.3910131e-04
 -1.1977750e-01
 -3.7042930e-05
 -3.0321857e-05
  1.8326250e-04
 -3.1000588e-04
 -2.2055116e-04
 -3.8284295e-05
 -2.1954940e-04
  1.1240968e-04
 -9.7799952e-05
 -7.1652423e-05
 -1.3642470e-04
  4.5934670e-05
  1.2916063e-04
  9.2576476e-05
  7.1981543e-05
 -3.6687019e-05
  3.1669385e-04
  2.3300847e-04
 -6.8726404e-05
  3.8517668e-05
 -4.6610818e-04
 -1.0326575e-04
  8.2948645e-06
  1.7071294e-05
 -3.4571564e-04
 -1.9653016e-04
  8.8136432e-05
  2.7834843e-05
  1.1293885e-01
 -1.1317881e+00
 -1.9898870e+00
 -1.0741041e+00
 -1.1534861e-03
 -7.8588799e-02
 -3.0192168e+00
 -2.7289067e-04
 -1.1903376e-01
 -1.0530369e-03
  2.0149165e-04
 -7.1178250e-02
  3.2648668e-04
 -3.1966740e-01
 -5.7344618e-03
  2.7287120e-04
 -1.7394699e+00
  5.3383730e-02
 -6.1571991e-01
 -8.1622355e-02
 -2.8252823e-04
  3.4195912e-01
  2.4220946e-05
  7.0067262e-04
 -1.6827244e-04
  5.3279556e-04
  5.5044882e-05
 -8.4190891e-04
  2.2027962e-05
  4.5047205e-02
 -1.2630453e+00
 -1.7553546e-02
  2.4665052e-01
 -6.2060071e-04
  6.9801515e-01
 -1.3841386e-04
  1.5270501e+00
 -2.3250116e-02
 -2.0454397e-02
 -1.5489085e-01
 -1.3966589e-01
  1.2015736e-01
 -3.8685113e-02
  1.9698108e+00
 -2.0197502e-03
 -6.6284940e-04
  1.0985541e-01
 -3.4062954e-04
 -7.5180250e-01
  9.9147052e-05
 -5.9207360e-04
  7.6737488e-04
 -3.1668522e-05
 -1.0495970e-04
 -7.0377660e-05
  1.0982800e-05
 -2.1819535e-03
 -1.4467150e-03
  3.0833453e-05
  2.2243566e-04
  3.2216412e-04
  4.2620554e-04
 -3.4016452e-04
  2.9541834e-04
 -3.8567558e-04
 -1.9147480e-04
 -1.9258936e-04
 -1.3035003e-04
  8.7613902e-05
  5.6926376e-04
  5.2463165e-05
  5.5679708e-04
  9.9236371e-05
 -7.9689649e-05
  8.6001732e-05
 -1.2500370e-04
  3.7111880e-04
  2.1636908e-04
 -4.2552061e-04
  5.9912575e-04
  1.4553356e-04
  1.5925651e-04
 -1.1660687e-04
  2.8596524e-04
  2.3752276e-04
  3.5492613e-04
  1.9818477e-04
  1.7412339e-04
 -3.3130287e-05
  3.9421290e-04
 -5.0731521e-04
 -6.7928567e-04
 -5.9585151e-04
 -2.4957192e-04
  1.2630485e-03
 -1.2602139e-03
  9.2246733e-04
  4.1866343e-04
  3.8774315e-06
 -7.2838040e-04
 -3.3138591e-04
 -8.5143525e-05
  7.1488303e-06
 -7.4614806e-04
 -1.4092233e-04
 -5.8534305e-04
 -1.0854791e-04
  2.7424059e-04
  3.4113158e-04
 -5.3730299e-04
  1.4661337e-04
  2.9088740e-05
  3.5462744e-04
 -2.1341631e-04
  2.2127086e-04
  2.8281967e-04
 -2.5474880e-04
  4.7107711e-05
  3.7004848e-04
  1.3807593e-06
 -4.5436094e-04
 -6.3579711e-05
 -1.4175418e-04
 -5.1631643e-05
  1.1758388e-03
  1.9312295e-04
  1.5743054e-04
 -2.4626160e-04
  4.2260377e-04
 -3.0682396e-04
 -9.8731078e-04
 -7.8410393e-04
  4.4326260e-04
  1.9240027e-04
  7.7863833e-06
  1.9242294e-05
 -1.9849500e-01
 -3.6680980e-05
 -5.9492153e-04
  3.5305562e-05
  2.1948684e-04
 -2.8902554e-04
  8.4189101e-05
 -3.1308984e-04
 -8.8881468e-05
 -9.0650246e-05
 -2.5939691e-04
 -2.0604950e-04
  1.0499934e-04
 -4.5233549e-04
 -5.6101748e-05
 -4.5257959e-05
  4.2529704e-04
  4.0295671e-04
  2.9644309e-04
 -7.5278767e-06
 -1.7016911e-05
 -1.7829552e-05
  3.1934929e-04
 -3.2159258e-04
 -3.4261306e-04
  4.1187074e-04
  5.6500541e-04
  1.0157061e-04
  3.3622677e-05
 -1.1289241e-04
 -8.5712702e-04
 -1.0934137e-04
  9.3054486e-04
 -5.3571601e-04
  1.4569929e-04
  3.9210144e-04
 -1.2705569e-01
  4.7487480e-04
 -4.9590120e-01
 -8.0322898e-05
  5.0244646e-05
 -9.2367416e-05
 -1.7856485e-04
 -4.5418905e-04
 -1.7666116e-07
  1.6983092e-04
 -2.4832369e-04
  3.4503810e-04
 -9.2264418e-05
  1.2966471e-04
 -3.5183719e-05
 -5.3030824e-05
 -8.9628127e-05
 -6.9677510e-05
  2.7498602e-06
  1.1479065e-04
  1.0277806e-04
 -1.4181018e-01
 -1.4252118e-04
  3.1940837e-04
  3.8800081e-05
  2.0630746e-04
 -4.8327996e-04
 -6.9333779e-05
 -2.6643454e-04
 -1.1286434e-04
  1.7073876e-04
  5.9744471e-04
 -1.2733461e-04
  3.5710380e-04
 -5.4943713e-04
  6.7927467e-05
 -2.6177111e-04
  1.8110868e-04
  1.1951575e-04
  6.4414222e-04
  2.4417398e-04
  1.9496739e-04
  1.0042439e-04
 -1.3265145e-04
 -4.1515197e-04
  2.1832187e-04
 -5.3601974e-04
 -1.4001105e-04
 -6.1734609e-04
 -1.9028379e-05
  9.3951581e-05
 -3.0584083e-04
 -8.9846828e-05
 -5.1463999e-06
 -2.8225555e-04
  7.7802368e-05
 -8.7426721e-05
 -3.9529348e-07
 -8.3196755e-05
  3.6206573e-05
 -1.0459070e-04
 -3.4938130e-05
  1.6320021e-04
 -2.0162595e-05
 -2.4897640e-04
  4.1949941e-05
  3.3890807e-05
 -5.2440853e-04
  6.0998609e-05
  2.1046877e-04
 -5.3251779e-04
 -3.4035500e-05
  3.2111751e-05
 -4.3877555e-04
  3.4302002e-04
  8.2304432e-05
 -2.6697884e-04
  2.5422618e-05
 -5.1941565e-04
 -5.9728307e-04
  3.7282397e-04
  3.1983458e-05
 -5.0719595e-04
 -3.7280389e-04
  4.4297823e-04
 -2.3986049e-05
  4.3741186e-04
 -5.0696690e-05
 -5.5215921e-04
  1.6478967e-04
  2.5944854e-04
 -2.0188211e-04
  5.9295795e-05
 -3.0881091e-04
 -7.4016534e-05
 -7.8975725e-05
  3.2990705e-04
  3.8815133e-04
  1.8322690e-01
  1.6460752e-02
  2.7238289e-02
 -1.8311341e-04
 -1.3185650e-01
 -2.5684331e-04
 -9.0230638e-03
  3.3339983e-04
 -7.8013793e-05
  1.2401402e-01
  9.9771877e-04
  1.8860761e-03
 -1.1031192e-04
  2.9276938e-03
  3.0537578e-03
  3.0822068e-04
  3.7235123e-01
  7.2198821e-04
  3.5279710e-02
  4.9703330e-04
  9.1656666e-06
 -3.2037357e-04
 -3.2583234e-04
 -1.4311167e-04
  2.1671298e-05
 -1.2066253e-03
  8.7584025e-04
  3.2866831e-04
 -2.7675831e-04
 -1.0624779e-03
 -2.0293481e+00
  1.8988599e+00
  1.3196936e+00
  4.8746518e-04
  1.3539766e+00
  3.2450685e-01
  2.4564781e+00
  9.4443065e-04
  1.0784043e+00
 -1.9879113e-01
 -4.3816924e-01
 -3.0432668e-01
 -4.2717911e-02
  4.9806127e-01
  1.0206416e-01
 -7.1689218e-02
  7.1122050e-01
  5.7663128e-02
  2.3988725e-01
 -2.3115320e-04
 -1.4674522e-03
  5.2322489e-01
  2.2268099e-04
  2.0382466e-04
 -2.1961612e-04
  5.3273182e-04
 -7.2743918e-04
 -1.1701187e-04
  1.3099246e-01
  1.5523903e-05
  1.3668256e-02
 -3.2510795e-04
 -1.6292362e-04
  1.7784856e-04
 -9.1122807e-04
  1.0516868e-05
  1.1817865e-04
  1.1799319e-04
 -5.4184074e-04
 -5.1625426e-05
  4.1663263e-04
 -2.6404083e-04
  9.8247270e-05
  9.0729422e-04
 -4.2177067e-04
 -5.0250146e-05
  3.2727414e-01
 -2.1677546e-04
  4.6928995e-04
 -8.4606454e-06
  2.5189019e-04
 -1.9477302e-04
 -5.2740892e-05
  2.6025594e-04
 -8.3510808e-05
  2.2129634e-04
  4.4088563e-04
  3.7391993e-04
 -1.6030666e-04
  1.3178209e-04
 -4.6986925e-06
  3.8317509e-04
  3.5611106e-04
  3.8612573e-04
  1.0532455e-05
 -3.4005969e-04
 -9.4106974e-05
  1.2301374e-04
 -3.4898869e-04
  2.9425320e-04
 -4.7282103e-04
 -1.2881347e-04
  8.5981686e-05
  3.1100735e-05
  8.3939733e-05
  3.1733827e-05
  5.1625189e-04
 -6.7872292e-04
 -1.7801244e-04
  1.4784514e-04
  1.0543752e-03
  1.3965677e-04
 -5.8016786e-04
 -3.3498902e-04
  5.1636860e-04
 -3.9983166e-05
  4.7208177e-05
 -1.4666613e-04
 -2.4640311e-05
  1.3005432e-04
 -3.7084505e-05
  5.0859976e-01
 -7.6161166e-05
  1.4094547e-04
 -3.3788887e-04
 -2.8906763e-04
  1.3495512e-01
  1.2775433e-04
  3.4406219e-06
  1.5188902e-04
 -6.0710430e-05
 -1.0936373e-04
  5.1312676e-05
  4.4457665e-05
  1.3672940e-04
  3.0416169e-04
 -8.1596110e-05
 -3.4137009e-04
  1.0598977e-05
 -3.7835998e-04
 -2.7904706e-04
 -2.7479971e-04
 -5.9727878e-05
  6.6150713e-04
 -3.5232047e-04
 -1.3975614e-04
  6.1820581e-04
  4.6037798e-04
 -2.8759928e-04
  6.1090010e-05
  3.9955546e-04
  2.5998277e-04
  4.6095462e-05
  7.9115841e-04
  2.4883085e-04
  1.9396542e-05
 -5.5218495e-02
 -1.1404037e-04
 -3.2335895e-04
  3.0180985e-05
 -5.7095531e-05
  1.1549079e-04
  2.1581529e-04
 -2.3885453e-04
 -3.7980186e-05
 -1.3850957e-01
  7.1668452e-05
 -2.5820415e-04
 -1.3641418e-04
  6.5761106e-04
  1.3768674e-04
  2.3675984e-04
  2.6289272e-05
 -6.2270201e-04
 -3.5205760e-04
  9.7945507e-05
 -1.5617583e-04
  7.0952578e-04
 -4.5769353e-05
  1.0923374e-04
  5.2524381e-05
  1.0654070e-04
 -4.1809719e-05
  2.1495695e-04
 -1.5821047e-04
 -4.6193443e-04
  3.0828069e-04
 -1.1031165e-04
 -3.6951466e-04
 -1.3963656e-04
  1.8488555e-04
  1.8053131e-04
 -2.6597580e-04
  1.4596659e-04
 -1.8264223e-05
  7.4824755e-05
 -1.4661549e-04
 -1.2751220e-04
 -6.4257835e-04
 -2.1354725e-04
  1.4996882e-04
  4.1551038e-04
  1.9308882e-04
 -1.4073362e-04
  2.7150003e-04
 -7.1239730e-05
  8.4083236e-05
 -2.2030287e-04
  2.7027310e-05
 -5.5867913e-05
 -4.6956068e-04
 -1.0855585e-04
  2.6121436e-04
  2.0842221e-04
 -1.3472565e-04
  2.0249386e-04
  1.5903980e-04
  1.2525618e-04
  1.6855940e-04
 -1.2923143e-04
 -3.2858507e-04
 -4.0681280e-05
 -2.9306769e-04
  1.8141078e-04
 -5.5733486e-05
 -1.4667644e-05
  3.8961525e-04
  5.4812223e-05
 -7.3580386e-04
  9.3358591e-05
  3.4809003e-05
  1.5306874e-04
 -6.1458508e-05
  2.8601376e-04
 -1.5978265e-04
  6.4718031e-04
  4.4235415e-04
 -1.8890714e-04
 -1.5100275e-04
 -2.4108856e-04
 -1.7571161e-04
 -3.1487612e-04
  1.3565215e-04
  1.3807084e-03
 -3.0484097e-04
  2.2099080e-04
 -2.7870122e-04
  1.0440727e-03
  6.0679379e-04
 -9.7799180e-05
 -5.2525493e-04
 -6.3909181e-05
  5.5431365e-04
  3.7790576e-04
 -5.0440878e-05
  3.0013756e-04
  1.6286886e-06
 -3.3415674e-04
 -2.1016336e-04
  6.3161389e-04
  5.6598586e-04
 -1.9204146e-05
 -3.2413032e-04
 -1.9145770e-04
 -1.4181307e-04
  1.1468531e-05
  9.6363314e-05
 -4.2993869e-04
 -5.5451517e-04
 -3.1309060e-04
  3.8674351e-02
  1.0118823e-03
 -2.2113911e-04
  3.1429715e-04
 -1.5377508e-04
  4.1201907e-05
 -1.6980102e-04
  1.9344795e-04
 -4.3743200e-04
  2.5227485e-04
  4.0079225e-04
  1.4204673e-04
  9.1471768e-05
  9.9758239e-05
  3.2744074e-04
  3.0415689e-04
 -3.2335475e-01
  3.5312257e-04
 -5.0595892e-05
 -8.2253981e-05
  6.9871411e-04
  2.1376538e-01
 -4.8172737e-05
  8.5251522e-05
 -4.8705104e-05
 -3.4126607e-04
  1.1639009e-05
  5.5053364e-04
  2.0418980e-04
 -4.9762795e-05
  1.5608720e-01
  4.8975873e-01
  3.9849696e-01
  4.9746323e-02
 -1.9984705e-02
  7.1592003e-02
 -8.6114975e-04
  4.6949431e-02
  1.8118836e-04
  1.5658273e-01
  9.7044393e-02
  1.5203138e-03
  2.5272006e-01
  3.2954821e-01
  1.2755049e-02
  5.0306600e-02
  3.2190880e-01
  2.7574904e-04
  3.7844237e-02
  7.6250144e-04
  4.7492035e-04
 -1.7210130e-04
  3.0226682e-04
  6.6057738e-04
  1.0048980e-04
 -3.3566143e-05
  3.6394587e-04
  7.4621268e-02
  5.7509245e-04
 -4.7295853e-02
 -2.1627283e-04
  3.5946650e-04
  6.8769623e-05
  3.9628827e-05
  3.7009329e-06
 -6.9346504e-05
 -6.0333143e-04
 -1.2543226e-04
 -2.1350583e-04
 -4.9335673e-04
  6.5944676e-04
  8.8491775e-05
  7.5710035e-04
 -3.9223647e-05
 -1.6677662e-04
  6.4208478e-05
  6.3204287e-05
  4.6511219e-04
  8.8800960e-05
  3.0573132e-04
  3.9692168e-05
  3.3234441e-04
  7.5386959e-04
 -4.0435766e-06
  2.8136315e-06
  2.2200248e-04
 -3.1490708e-06
  8.0550619e-04
  4.6156554e-05
  1.2958146e-04
 -7.7443270e-05
 -6.9850904e-04
 -6.9815251e-05
 -6.4094318e-04
 -4.8989471e-04
  7.2955248e-07
 -3.0465567e-04
 -6.2261356e-06
 -1.0180700e-04
  5.8871796e-05
  4.0279326e-04
  2.1533810e-05
 -2.2734719e-04
 -6.9667675e-07
 -2.0480527e-04
  1.3604325e-04
  1.8858546e-04
  3.3923084e-04
 -3.1560776e-04
 -1.0442995e-04
  5.3167987e-06
  1.2496766e-04
  1.2791232e-04
 -3.7369772e-04
  4.1147400e-04
  1.7795854e-04
  6.3639134e-04
  6.9104100e-04
  6.9961540e-04
 -3.4118467e-04
  1.2173438e-03
  4.6781162e-05
  5.8245205e-05
 -1.3861169e-05
 -5.5779719e-07
 -5.7679663e-05
  2.2531302e-05
 -4.4512024e-05
  7.4949686e-04
 -1.4790030e-04
  1.0806655e-04
  5.3890579e-04
 -4.0177485e-05
  1.4511409e-04
 -1.1014362e-07
  2.6692112e-04
  1.1272731e-04
 -9.7169293e-05
  1.1643380e-04
 -7.5239681e-05
 -9.3487331e-05
  9.1844791e-05
  8.5230495e-05
 -2.9321626e-04
  1.2803335e-05
 -4.5022720e-05
  2.3832827e-04
  1.2406452e-04
  1.2018777e-04
  1.9303606e-04
 -2.1324874e-01
 -3.6057413e-02
 -2.4132492e-01
 -3.7601145e-04
  2.9421273e-01
 -3.2564122e-02
  3.6831539e-02
 -2.5146786e-02
 -1.8137056e-04
 -1.8275034e-01
 -1.2840369e-01
 -3.2087055e-03
 -1.1909251e-03
 -1.5241228e-04
 -8.1792381e-03
 -5.6048926e-02
  3.1626597e-02
  8.0073900e-05
 -6.4833775e-02
 -1.4724173e-02
 -4.3087213e-05
 -1.9836027e-04
  2.0481824e-04
 -1.2192958e-04
  1.1394993e-04
  1.1125008e-04
 -2.7918234e-04
 -2.5446462e-02
 -8.4723477e-05
  2.6802564e-02
  4.3981785e-05
  1.0487865e-04
 -1.5189049e-04
 -4.7722206e-05
 -2.2333427e-06
  1.4682558e-04
  3.3594843e-04
  3.3993699e-04
  3.8061425e-04
 -3.3892656e-04
 -4.9718914e-05
  1.4619589e-04
  2.7557786e-04
 -7.5728603e-05
  1.7825377e-04
 -6.5597548e-04
 -5.6999874e-05
 -7.6004158e-05
 -1.5458876e-04
  3.6753400e-04
 -2.5935881e-04
 -8.9432877e-05
 -8.2358421e-04
 -1.0811189e-04
  1.2801684e-04
  4.4055519e-04
 -1.6936081e-04
  2.7841670e-04
 -2.6944416e-04
 -2.8788776e-04
 -1.2084714e-01
 -8.7398246e-02
 -3.8450313e-01
 -1.7586815e-01
  1.6832067e-01
 -5.6866199e-01
  4.1269955e-01
 -4.3832579e-01
 -4.0940902e-01
 -9.0499169e-01
 -5.6320387e-01
 -1.0488224e-02
 -9.7782862e-01
 -2.8500614e-01
 -7.4898936e-02
 -5.1970959e-01
  8.7013781e-02
  1.2128836e-04
 -1.8347120e-01
 -2.6771262e-01
 -3.1249505e-01
 -1.2088847e-01
 -1.4698895e-04
 -1.4992710e-02
  2.9999143e-04
  3.9887279e-02
 -7.4540690e-02
 -5.6795758e-01
 -2.0915162e-02
  4.7619554e-01
  1.0339414e-04
 -9.8075754e-05
 -4.4038694e-04
  3.6620226e-04
  4.2906177e-06
 -6.2473096e-05
 -1.1042964e-04
 -3.9388990e-04
  3.0481972e-04
  3.6247890e-05
 -4.6673071e-04
  2.6988800e-04
  1.4758052e-04
  4.7554462e-05
  3.8698756e-05
  9.7534670e-05
  1.2656827e-04
 -5.1358078e-05
 -1.0920094e-04
  4.1164039e-04
  5.5682161e-05
  3.0497249e-04
  4.0105279e-04
 -1.1504828e-04
 -5.3457328e-04
  3.7579445e-04
 -2.0790359e-04
  1.7059626e-04
  9.7077806e-05
  2.2837952e-04
 -9.3034760e-05
 -5.8524398e-04
 -4.1257069e-04
 -2.5077327e-04
 -2.6331274e-04
 -5.0014182e-04
 -5.0335308e-05
 -6.7622575e-04
 -1.6973763e-04
  2.9811637e-05
  3.1522861e-05
 -1.1106570e-04
  9.1987804e-06
 -2.8199056e-04
  2.0195331e-04
 -2.5198128e-04
  1.4872964e-04
 -3.9926794e-04
 -5.6943849e-05
 -2.2661920e-04
 -2.6114346e-04
  1.6879256e-05
  1.8514349e-04
  3.1472358e-04
 -4.3179805e-04
  1.5867699e-04
  7.1536936e-04
 -5.8355241e-04
 -2.7131446e-04
 -2.9487532e-04
  1.4851075e-04
 -4.2935373e-04
  9.8489254e-05
  3.3526661e-04
  4.4596975e-04
 -7.2089344e-05
  2.0222508e-04
 -1.1359983e-06
 -1.0904423e-04
 -7.2877177e-05
 -2.3329773e-04
 -6.2114384e-05
 -3.3783646e-05
  1.4690717e-04
  7.9121943e-05
  1.5074137e-01
 -9.2163173e-05
  1.8681509e-04
  1.6316697e-04
 -2.6942254e-05
 -3.1986949e-04
 -2.4189001e-04
 -4.4791718e-04
 -1.0301861e-04
  5.8822508e-04
 -4.6800941e-04
  8.1869752e-05
  1.1679633e-04
 -4.0218332e-05
  3.2501388e-04
  2.6770867e-04
 -1.5178000e-04
  5.2396692e-05
  1.4681468e-04
  4.3881279e-01
  3.7491696e-05
  1.4200264e-04
 -1.1086766e-04
 -2.0059399e-04
 -1.7541148e-04
  2.6553014e-04
 -4.7702288e-05
 -2.3103296e-04
  6.3579013e-05
 -3.9060679e-04
 -4.9188468e-05
 -4.3315470e-02
  5.0064769e-05
  2.6484850e-05
 -1.5342881e-05
 -2.5059932e-04
 -1.3982426e-04
  3.5592337e-04
 -4.1431081e-04
  2.1501727e-04
 -7.3234012e-05
 -2.0064866e-04
  6.6208901e-05
  1.0598326e-04
 -4.4493554e-05
 -2.8173264e-02
 -1.7238491e-04
 -1.7654358e+00
 -2.4096034e-01
  1.3191608e-01
 -3.3519551e-02
 -1.2123474e+00
 -7.2539032e-02
 -2.5447750e-01
 -6.0527895e-02
 -1.0153423e-03
 -8.0190133e-04
 -1.4322967e-04
 -8.4306590e-02
 -1.3567934e-02
  6.8367337e-04
  6.9974484e-03
 -8.6406180e-06
 -1.1681877e+00
  3.5764770e-05
  2.4496415e-04
  5.4389582e-04
 -2.1649592e-04
 -7.5143960e-04
 -1.9648696e-04
  7.3799264e-04
 -4.8202113e-04
 -1.6745221e-03
  8.2677732e-05
  2.7822480e-02
 -4.4628372e-04
 -4.7469244e-04
 -2.1616870e-04
 -7.1398252e-05
 -1.2080608e-04
 -1.8866366e-04
 -5.1720859e-04
  1.1691744e-04
  1.9801316e-04
  1.1933348e-04
  1.6444633e-04
  1.5121205e-04
  6.8463691e-05
 -2.5593863e-05
 -5.3612854e-05
 -6.8664682e-05
  1.2396460e-05
 -3.1722509e-04
  6.4167345e-04
  1.2179749e-04
  2.8446672e-04
  1.3341007e-04
  3.1320713e-04
  3.5952876e-04
  2.0489574e-04
 -4.3489187e-04
 -2.8460630e-04
  1.1876574e-04
  3.4835996e-04
  2.2919886e-04
  9.8117715e-05
 -4.6963232e-05
  5.0820038e-04
 -3.9299921e-05
  3.7431403e-04
 -6.3071179e-04
  1.3922760e-04
  1.4550553e-04
 -1.5057503e-04
  3.6180709e-04
  2.2418334e-04
  7.5316864e-05
  7.3875308e-05
  1.8466599e-04
  7.8266638e-04
  3.2253098e-05
 -1.0180162e-05
  9.8508994e-05
  3.3534941e-04
  3.0205710e-04
 -7.0660003e-04
 -6.3867272e-05
  1.3424446e-04
 -2.9182833e-05
 -3.4071665e-04
 -2.4563013e-04
 -2.1463873e-04
 -4.0566226e-04
  8.1776430e-05
  3.2999300e-04
 -7.7630371e-05
 -6.8795525e-05
 -7.8941026e-04
  3.8522700e-04
  2.1138629e-05
 -2.1922839e-05
 -2.2080101e-04
 -3.2678792e-05
  4.3103289e-05
 -2.1026877e-05
 -3.9035827e-04
 -4.9226906e-04
 -4.2058447e-05
 -7.2376500e-04
 -5.4202123e-05
  2.3730620e-04
 -7.7004500e-02
 -1.2156242e-04
 -3.2947923e-04
  3.5850506e-04
  6.1272665e-05
  2.2884444e-06
 -1.9697569e-05
  1.7397932e-04
  8.7484375e-05
 -1.4458424e-04
  4.2313710e-04
 -9.8741613e-05
 -2.9925664e-04
  3.0758244e-04
  1.5843681e-04
  2.2570975e-04
  2.7559896e-04
 -8.2024471e-06
  2.5995470e-05
 -1.8175252e-04
  2.6242432e-04
 -1.7226317e-04
 -5.8281341e-05
  1.8986830e-04
  6.6919794e-04
 -1.2915261e-04
 -1.5486930e-04
 -4.4643294e-04
 -9.8182236e-06
  3.2567891e-04
 -1.0838671e-04
  4.8477639e-04
 -2.1823452e-04
 -1.5177425e-04
  2.7319082e-04
 -1.8607700e-04
 -6.4792676e-04
  2.8233064e-04
 -6.8482873e-04
 -3.7055821e-04
 -7.8043908e-05
 -3.9396566e-04
 -6.1120685e-05
  3.8756956e-05
 -1.0002982e-04
 -6.3955200e-01
  5.0573874e-01
  1.8693552e-04
 -1.7067884e-01
  2.8532927e-04
 -4.6583216e-04
  4.5116749e-01
  3.0013017e-04
 -6.6894492e-05
  8.2050800e-01
  1.1451317e-04
 -2.1275283e-04
  2.0068392e-05
  8.3486921e-05
 -1.2556162e+00
  1.3484444e-01
  8.6881581e-04
  7.4680938e-05
  6.6378891e-01
 -5.5517157e-04
 -5.7209167e-05
 -3.6459637e-04
  1.4665845e-06
 -2.9394036e-04
  1.6560163e-02
  5.9079623e-01
  3.6378824e-05
 -2.3417515e-04
 -3.0833742e-04
 -2.0064310e-04
  6.5879186e-04
  7.1159546e-04
 -1.9361261e-05
  3.5439435e-01
  7.3747669e-04
  3.0700024e-04
  5.8914200e-05
  1.3601339e-02
 -7.6937598e-05
 -1.9150916e-01
 -4.2876339e-04
 -2.0902084e-04
  3.0389088e-04
  7.0818438e-05
 -1.6049717e-01
  5.2921583e-05
  8.6022410e-05
  1.5944657e-05
 -2.8314432e-06
 -2.4545397e-01
  5.2933335e-01
 -3.7507811e-01
  2.2408463e-01
 -4.3557796e-01
 -2.4047330e-01
 -1.2977438e-03
 -6.1720300e-01
 -4.9590895e-01
 -1.6937195e-01
  2.7786702e-01
  1.8324895e-01
  6.0880379e-06
  1.2703827e-01
 -1.8322040e-04
 -5.7394677e-01
 -4.9018270e-01
  6.1873761e-05
  1.5548979e-04
 -2.6821944e-01
  1.6386205e-01
 -6.9206391e-05
  1.0562103e-04
 -8.6915232e-02
  4.2985561e-01
 -8.2051080e-01
  3.3033085e-01
  2.5732859e-04
  8.1170036e-04
  1.0587130e-01
  7.2779680e-05
  2.3095090e-06
 -6.1780331e-05
  2.7704084e-01
  6.5056098e-01
 -2.3800494e-02
 -9.6714786e-05
 -3.1395641e-06
 -6.0019904e-01
 -5.1813660e-04
 -1.4265490e+00
 -1.0756602e-04
  1.4426437e-04
  1.8392612e-04
 -5.5332344e-02
 -5.5886382e-01
 -5.8014208e-04
 -8.7785440e-05
  3.2282373e-05
 -3.5842005e-04
  3.9716976e+00
  2.9372675e+00
 -1.6609199e+00
  2.3621483e+00
 -2.1480761e+00
  2.3781762e+00
 -6.2903881e-01
 -5.4042691e-01
  2.7627697e-05
 -1.1365376e+00
  6.2333807e-02
  1.8969650e-03
  2.9363323e-04
 -6.7898953e-01
  9.8002344e-01
  1.0205421e-02
 -7.1832123e-03
  4.4638434e-04
  1.0645983e-04
  6.4398438e-01
 -1.1439584e-01
 -4.3469107e-01
  1.3093442e+00
 -4.7660527e-01
 -7.3625410e-01
 -2.2369982e-01
 -5.1666636e-02
 -2.8826894e-02
 -1.3814000e+00
  8.9227605e-01
  1.5008394e-02
  5.3152198e-01
  2.6728590e+00
  2.4790862e+00
  2.2058243e-01
 -2.3907827e-01
  3.0594559e+00
 -1.5254815e-01
  1.6139334e+00
 -6.3894790e-01
 -1.4565978e+00
 -3.8193110e-01
 -2.4548939e-01
 -8.5285157e-01
  6.2409010e-05
  1.9121070e-01
  1.9089949e+00
  8.6148008e-05
  2.0849917e-02
  1.2584721e+00
 -3.8858166e-01
 -1.8287700e+00
  1.0241461e+00
 -1.5249534e-02
 -2.8055239e-01
  6.6359356e-02
  1.5351678e-01
  1.1032454e-01
  1.9005690e+00
  6.4907163e-01
  2.8143795e+00
  4.3280009e-02
 -1.8854873e-01
  6.6356045e-01
  1.1198010e-01
  5.9633875e-01
  6.8232030e-02
 -6.1708802e-01
  3.5159552e-01
  3.1669772e+00
 -9.6361667e-02
  9.6175963e-01
  2.6082327e+00
  1.2215067e+00
  2.4906507e+00
 -5.0547551e-03
 -1.4809806e+00
 -4.1083220e-01
  1.3125712e+00
 -2.6909022e-02
 -7.1394348e-01
  9.9513245e-01
  3.9236159e+00
 -5.9465017e+00
 -1.0798388e+00
  1.8392099e-01
 -5.1150841e-01
 -2.3917153e-02
  1.8079852e-01
 -7.3713553e-01
  4.5104745e-01
  8.6303994e-02
  1.8995760e-04
  3.5647857e-03
 -2.8848216e-02
 -5.0074057e-05
  9.7315344e-05
  2.6422951e-04
 -1.0022536e-04
 -3.3788505e-04
  2.9420795e+00
 -1.5280885e-01
 -2.3260868e+00
  8.0302429e-01
 -1.9211961e-01
 -3.8870233e-01
  1.1811179e-05
 -5.7394240e-02
 -1.6231823e-01
  1.2740549e+00
  2.9486312e-02
 -1.5682138e+00
 -6.5663540e-01
 -6.1818367e-01
 -4.8923534e-01
  7.8172934e-01
 -3.9064455e-01
  3.9627172e-02
 -2.6865408e-01
 -4.1542616e+00
 -7.2461599e-01
 -1.2101209e+00
  1.6872418e-01
 -5.6537683e-04
  3.4121993e-01
 -9.0841422e-05
 -1.8247310e-03
  1.3699208e+00
 -8.3850402e-01
  1.2800206e-01
  1.7222748e+00
 -4.3303883e-01
 -1.4767104e-01
  2.1178342e-01
 -3.6269495e-01
  7.8186654e-03
  9.9513733e-01
  1.5516232e-01
  1.8973535e-01
 -2.2591753e-01
 -1.0312631e+00
 -1.2509925e+00
  3.3210605e-02
  5.2087830e-04
 -1.0365763e-04
  9.6519238e-01
  1.8662998e-01
 -4.4468263e-01
 -4.2726648e-01
 -3.6697471e-01
 -1.0634874e-04
  1.6554867e+00
 -5.8672029e-01
 -2.7492340e-03
 -3.1195948e-01
  1.6869222e-01
  8.6080708e-02
  1.4857005e+00
 -6.3557881e-01
 -1.8703818e-01
  7.6183581e-01
  2.3703300e-05
  7.4747986e-01
 -6.7123133e-01
  2.8205798e+00
 -4.3076936e-02
 -2.4855405e-01
 -1.9486120e-01
 -1.7489417e-01
  6.2495586e-03
 -2.4067132e+00
 -8.9473436e-03
  5.0507474e-01
  4.2007396e-01
 -4.5145246e-01
  8.8345847e-04
 -1.5844876e-03
 -8.6297392e-04
 -1.0164260e-04
 -1.2943998e-04
  7.9188845e-04
  1.6406473e+00
 -1.2078382e+00
  2.2659523e+00
 -1.7509694e+00
  8.9639708e-02
  2.2859704e-01
  4.4311199e-01
 -1.5684797e+00
 -2.8398191e-03
 -2.4747612e+00
  4.0186810e+00
  6.6088128e-01
  7.0060450e-01
  4.7159898e-01
 -7.5827152e-02
  3.7826517e-01
 -1.3686742e+00
 -2.7680957e+00
 -4.5397109e-01
  2.5409112e+00
 -2.1002793e-01
 -9.6687019e-01
 -3.1682927e-02
  1.2967786e-04
  6.9142061e-01
 -1.9334354e-04
 -1.1887363e-03
  8.3890766e-01
  3.0205429e-01
 -1.6414070e+00
 -1.0772992e+00
  3.9319611e-01
  2.1124616e-02
  1.3164421e-02
 -1.2401735e+00
 -5.8841920e-01
 -1.8108806e-01
 -2.4411228e+00
 -7.7596807e-01
 -5.2532443e-04
 -3.8746089e-01
 -4.3971741e-01
 -1.4624088e-01
 -9.6741904e-05
 -3.2894886e-01
 -1.5144829e+00
 -2.6410845e-01
  1.9784046e+00
 -7.4888855e-01
 -2.5238337e-02
 -4.7270565e-05
  1.7603147e+00
 -6.1563563e-01
 -4.5087142e-04
 -4.9066945e-04
 -2.2189395e+00
  4.9190021e-01
  6.5115881e-01
  4.3239576e-01
  5.3736460e-01
  3.6936846e-02
 -5.9230942e-01
 -8.6756408e-01
 -1.3640604e+00
  4.1839827e-02
 -1.0814738e+00
  1.1432394e-01
  1.9846357e-04
 -2.9338500e-04
 -4.1833960e-02
 -1.2134950e+00
  1.9105360e-01
  3.7615144e-01
  8.2188446e-05
 -7.6808943e-04
 -5.7977599e-05
  6.1735942e-04
  5.9451006e-05
  3.3206434e-04
 -3.1370964e-04
  1.7767146e-05
 -1.4856295e-01
  6.1060089e-01
  6.1684787e-01
  1.4056703e-05
 -2.1477936e-04
 -6.1504776e-04
 -2.2561607e-01
 -1.8066396e-01
 -8.4230973e-04
  1.9820081e+00
 -4.9440760e-02
 -5.9794122e-01
  5.2332329e-05
 -1.3056952e-04
  5.6270284e-05
 -1.0218398e-04
 -3.0797148e-01
  1.6898774e-04
  2.4002867e+00
 -1.6453685e+00
  1.6999333e+00
  2.2305329e-01
 -6.9144946e-05
 -3.1552929e-05
 -5.6124997e-01
  5.4174947e-04
  3.1970328e-04
 -5.8103329e-01
  8.4271132e-06
  7.7432758e-01
 -2.2497113e-04
 -4.5538553e-05
 -3.7846174e-03
  8.1672776e-04
 -3.3014029e-01
 -1.4462984e-04
 -1.0575584e-01
  2.2902359e-01
  3.4095609e-01
 -3.1876934e-04
 -6.5693064e-07
 -1.6183782e-05
 -1.1014070e-04
 -1.4439318e-02
 -4.2397368e-01
  4.0145068e+00
  2.8849483e-01
  1.0578267e-01
  5.1899289e-04
  1.9580759e-04
 -6.0032279e-04
 -5.5845433e-01
 -2.3714497e-03
  5.0162023e-04
  3.5614221e+00
 -9.1848570e-01
  1.9415182e-03
  9.5757671e-02
 -1.0136809e-04
  2.3912810e-04
  1.7946379e+00
 -1.2345989e-01
 -6.8629515e-06
  1.2378662e+00
 -1.5444529e+00
 -4.4334304e-01
 -1.8389356e+00
  9.7319883e-01
 -2.2932552e-01
  5.4885972e-02
  1.8032624e-03
  7.9597139e-01
  4.4114262e-04
 -1.5943871e-05
 -2.7448809e-04
  1.2052976e-01
  1.8341451e-04
 -5.2043481e-05
  6.1236002e-04
 -2.1287357e-04
 -5.0772016e-04
  6.5072399e-04
 -1.5284293e-03
 -5.0435978e-01
 -5.1293910e-01
  2.7784380e-01
  3.1753154e-03
 -2.2383599e+00
  9.5428461e-03
  6.7301765e-03
  1.9885858e+00
 -2.6737195e-01
  7.4184383e-04
  2.4164557e+00
 -3.8662855e-02
 -2.9865670e-01
  5.1424306e-02
  4.7128031e-04
 -1.5820617e-02
  1.0937232e-04
  3.2546736e-02
 -1.2707384e-01
  5.9879547e-01
 -1.2385266e-05
  9.3898755e-03
  4.3802515e-02
 -1.1820715e-04
 -2.7630314e-01
  4.1185075e-01
  2.2749549e-04
  1.2846173e-04
 -1.9777095e-01
 -7.3302209e-01
 -5.8981138e-01
 -2.9441629e-02
  2.6781050e-05
  5.5952185e-01
  1.6766869e+00
  5.5062183e-04
 -5.7581555e-02
  1.6190797e+00
 -6.2886673e-01
  6.9387239e-01
  1.0423092e+00
 -7.9681456e-01
 -1.6669341e+00
  1.2953085e-05
  4.0102190e-01
  1.2382337e-04
  1.1302171e+00
  7.9578742e-02
 -1.3483435e-02
  8.0625236e-02
 -4.0902480e-02
 -4.7728661e-01
  8.4786326e-01
  5.3170708e-04
  8.7565684e-04
  8.3557701e-01
 -7.8689249e-05
 -2.3726395e-01
  1.4914653e+00
  8.0370718e-01
  3.3820033e-01
  4.0365618e-01
  1.9116169e-01
 -3.8306892e-01
  1.1590352e+00
  5.0840873e-01
  5.3613263e-01
  2.6253298e-01
  7.2958815e-01
 -5.1230240e-01
  4.7674612e-04
  4.9652264e-01
  4.7222853e-02
 -3.1286892e-01
 -5.8114885e-05
  2.2510726e-06
  5.0612225e-04
 -3.9601905e-04
  4.2928747e-04
 -3.5075390e+00
 -1.3043121e+00
 -8.3271928e-02
 -5.1414007e-01
  4.8755729e-01
  4.6292961e-01
  7.5820112e-01
  5.0706869e-01
  1.0700557e+00
 -1.4031087e+00
  2.7976961e+00
  9.9503464e-01
  7.2216421e-01
  3.8919095e-02
 -2.8525578e-04
  7.7655154e-01
  6.3356588e-04
  1.0072258e+00
  1.5937832e-01
  1.1107478e-01
 -5.2785027e-01
  4.4932356e-01
  1.1820983e-04
  3.5097519e-01
  4.2776588e-01
  2.1460353e-01
  1.1713143e-01
  3.2396820e-01
 -1.7256477e+00
  3.4046941e-02
 -1.0257789e+00
  3.9103416e-01
  1.7997579e-04
 -1.0278242e+00
  1.1574654e-01
  1.4815825e+00
  2.1971966e-04
 -1.1017807e+00
  1.3410974e-01
 -3.1095609e-01
  5.3600402e-04
  2.2728197e-01
 -7.5852804e-02
  1.9412009e-02
  7.8773385e-01
  1.3795624e+00
 -5.4552704e-01
  2.8696251e-01
  2.5633910e-01
 -4.5414377e-02
  3.4633592e-02
  4.4496742e-01
  2.5617421e-01
 -7.9758734e-02
 -5.8928151e-02
  2.7441469e-01
  1.9419457e-01
  2.1898484e-01
  7.4462536e-05
  8.7362923e-02
 -1.6983083e-01
  1.8629251e-04
  2.6406279e-01
 -6.7085755e-01
  4.1626331e-01
 -9.5538139e-01
 -3.7052512e-01
  6.0481101e-01
 -1.7004938e-01
 -1.5648336e+00
  2.9983270e-05
 -3.3498186e-01
 -4.2548339e-04
  1.5371568e+00
 -9.4474840e-04
 -1.8573564e-01
  7.6433891e-05
 -3.7129520e-04
 -3.4228367e-01
 -1.8224551e-04
 -1.8149171e-04
 -3.5532632e-01
  1.4337307e-01
  1.9288059e+00
 -1.3552084e+00
  2.7039018e-01
  4.5941979e-01
 -1.8065549e+00
  1.8087289e+00
 -8.4314972e-01
 -3.5777493e+00
  5.1693678e-01
  2.6221484e-01
 -1.3621515e+00
  3.3952508e-02
  4.8761802e-05
 -6.7847234e-01
  2.2765331e-04
  1.3293512e-01
 -9.8756105e-01
  1.0449628e+00
 -1.1651186e+00
 -5.7548749e-01
  2.9192919e-01
 -6.8140261e-02
 -5.2935606e-01
 -3.4863230e-02
 -1.2659315e+00
  1.5391329e-03
  1.4617716e-01
  3.5504338e-01
 -5.4314768e-01
  6.4111300e-02
 -5.4392099e-01
 -2.5395113e-01
  7.5074852e-02
  3.9660400e-01
  3.7985346e-01
 -5.1102495e-01
 -1.0779321e+00
 -1.0355095e-01
  1.5069619e-01
 -2.4277027e-01
 -5.2438313e-01
 -3.5013195e-02
 -1.2256250e+00
  8.2134712e-01
  9.8464942e-01
  2.9523930e-02
 -2.4393365e-01
  1.3944696e-01
  4.2271379e-01
 -1.2949164e+00
  6.1069484e-05
  1.0362609e-01
  6.3988847e-01
  4.1920888e-01
  4.3888536e-01
  4.3995392e-02
  4.0257406e-01
 -4.8982438e-01
 -1.1435477e-01
 -2.6219108e-04
 -7.0748913e-01
  1.4678763e+00
 -1.0842966e-01
  8.7593174e-01
  6.1383665e-01
  1.8770528e-01
  1.5723816e-01
 -5.7183355e-01
 -4.3201074e-01
  5.8752954e-02
  9.0631057e-04
  5.2028251e-01
  4.2774274e-05
  4.5726309e-04
  2.5680414e-05
 -1.0035394e-04
 -1.6545850e-01
 -3.0012859e-04
  4.8581779e-04
 -8.4053212e-01
 -2.8056700e+00
  3.2774648e-01
 -1.2765093e-01
  1.5785084e-04
  1.5514851e-01
  1.5555005e-01
 -2.8579894e-01
  1.1092780e+00
 -1.2769678e+00
  2.2354771e-01
 -1.4476246e-03
 -1.0402503e-01
  2.5058010e-01
 -2.2006230e-04
 -6.2676233e-01
 -6.5916002e-02
  1.0311639e-01
  9.6317285e-01
  2.8370340e+00
  4.2198575e-03
  3.7713516e-01
 -1.4983008e-02
  2.5645951e-03
  1.4131260e-04
 -4.6700350e-04
  2.4696218e-03
 -1.0709758e-02
  1.5017741e+00
  1.1057220e+00
 -6.1670536e-01
  7.0212787e-01
  1.0967976e-01
  1.3712254e-02
 -2.0381573e-01
 -2.5846487e-01
 -1.1572194e+00
 -6.6903454e-01
 -4.5625910e-01
 -5.3135552e-02
 -1.7200249e-01
  3.3383902e-05
 -7.5085598e-01
 -1.1082638e-04
  3.1205007e-01
 -2.0130653e+00
 -7.8467065e-01
  2.8895625e-01
 -2.2278729e-01
  4.9542472e-01
  4.5610979e-01
  1.6182403e-01
 -7.8961924e-02
 -3.6041388e-01
 -4.4579830e-02
 -7.0818327e-02
  5.1909242e-02
 -8.8938183e-01
  9.6301213e-05
 -4.1577145e-03
  3.9823040e-01
 -3.3119434e-01
  8.9122230e-01
 -1.3899372e+00
 -1.0430255e+00
  1.7957185e-01
  2.5724391e-02
 -2.2907104e-01
 -3.6191788e-01
 -6.9264877e-01
  4.9855042e-04
 -2.0111263e-02
  3.6372404e-04
  2.1106801e+00
  1.6970811e-05
 -1.4596668e-01
 -3.8889603e-04
  2.5175166e-04
 -2.8634982e+00
 -3.6006554e-06
 -2.6255304e-05
  3.7761865e+00
  8.4513170e-01
 -2.0833580e-01
  1.5661732e+00
 -3.4567115e-01
 -1.7206503e-01
  2.4566522e+00
 -8.3719951e-04
  7.6572275e-01
  5.5357790e-01
  6.6879022e-01
  1.7596496e+00
 -4.7594455e-01
  2.3254979e-04
 -2.0527108e-04
 -1.7424812e+00
  1.3895261e-02
  2.0092183e-01
 -2.2489887e-01
  5.8774960e-01
 -6.4130396e-02
 -2.4122712e-01
 -2.9642773e-01
 -8.4452480e-02
  2.3626623e-01
 -7.1570806e-02
 -7.6455724e-01
 -9.5316291e-01
  1.3705693e+00
 -1.1894312e+00
  1.0790970e+00
 -1.7700659e-01
 -5.2473898e-04
 -1.3648599e-01
  2.4978806e-01
  2.0743902e-01
 -1.9810170e-02
  9.2064822e-01
 -3.4415681e-02
 -1.5527408e-01
 -1.7356774e-01
 -6.9611095e-02
 -6.4817751e-03
 -8.0534838e-02
 -2.6800251e-01
  2.0554350e-01
 -3.6851697e-02
  3.9608636e-01
  3.1433031e-01
 -1.5112308e-01
 -1.9603500e-05
 -7.2542334e-01
  5.0308363e-04
 -2.6288259e-01
  3.8144419e-01
 -1.2162482e-01
  8.9224897e-02
  2.8222978e-01
 -1.4847564e-04
 -1.2279104e-01
 -3.8559541e-01
 -2.2297949e-04
  6.7775317e-02
  1.1775041e+00
  3.2204911e-01
  4.2690691e-01
  8.4115583e-01
 -8.0138177e-01
  6.2966108e-01
  8.1556576e-01
  4.7511216e-02
 -3.4431476e-02
 -9.3606177e-05
 -1.4111918e+00
 -2.0987289e-04
  8.6488783e-02
  4.9991988e-05
  4.6265119e-05
  4.4423889e-04
  1.3208729e-01
 -1.3359287e-05
 -1.0818738e+00
  1.1610461e+00
  4.2306823e-01
 -1.7795469e+00
 -1.4716308e+00
 -4.2051604e-01
  1.8497881e-01
  1.4332705e+00
 -1.3944702e-01
 -7.3397356e-01
 -5.1087368e-01
  1.1151903e+00
 -8.9215577e-01
 -7.5331801e-01
 -7.1505964e-01
  1.0615309e-01
  1.3538592e-02
 -1.1825553e-01
  1.9019450e+00
  7.8060016e-02
 -1.8374497e-01
 -5.4265189e-01
 -2.8536187e-02
  4.4650736e-04
  9.1859028e-03
  7.1505345e-02
 -5.0541224e-05
 -3.3047047e-01
 -7.0983422e-01
 -1.6337560e+00
  1.5698243e+00
 -9.1702271e-01
 -6.2264162e-01
  1.5077554e-01
  2.1376747e-01
 -5.9276158e-01
  9.2702901e-01
  1.0941794e-01
  1.8773846e-01
  9.4664019e-01
 -3.0643265e-03
  1.1283018e-02
 -6.1946027e-02
  1.3590010e-03
  3.5426510e-05
  3.0522808e-01
 -1.1952433e-01
 -5.6298759e-02
  8.6723477e-01
 -3.7514880e-02
 -4.5599607e-01
  1.3913649e+00
  5.5490428e-01
 -2.7285693e-03
  3.7616450e-02
  4.8985732e-01
  5.4081708e-01
  5.7350701e-01
 -6.7247438e-01
 -2.9130961e-04
 -7.1716934e-01
  1.6043144e-01
 -4.5646765e-04
  2.7487645e-02
  2.7487645e-02
  2.7487645e-02
  2.7487645e-02
  2.7487645e-02
  2.5527325e-01
  2.5527325e-01
  2.5527325e-01
  2.5527325e-01
  2.5527325e-01
  4.3708706e-01
  4.3708706e-01
  4.3708706e-01
  4.3708706e-01
  4.3708706e-01
  1.7291513e-01
  1.7291513e-01
  1.7291513e-01
  1.7291513e-01
  1.7291513e-01
  2.0452596e-02
  2.0452596e-02
  2.0452596e-02
  2.0452596e-02
  2.0452596e-02
  1.1565264e+00
  1.1565264e+00
  1.1565264e+00
  1.1565264e+00
  1.1565264e+00
