nep4_zbl 3 Ca Si O 
zbl 0.8 1.6
cutoff 7 4 219 47
n_max 8 8
basis_size 12 12
l_max 4 2 0
ANN 50 0
  6.1946943e-02
 -1.0280734e-01
  1.1528073e-02
  3.5477924e-01
  1.6900685e-02
 -1.2508212e-01
  1.3934418e-02
 -5.7229353e-03
  9.2807487e-02
  3.7354493e-01
 -3.9146367e-02
 -1.2762372e-01
 -1.0763297e-01
 -3.3075307e-02
  3.9252775e+00
 -4.5665827e-02
 -1.7021143e-01
 -1.1460485e-01
  6.5710299e-02
  2.3603709e-01
 -1.4868206e-02
 -2.9037816e-02
  9.7387414e-03
 -2.9397149e-02
 -1.3776565e-02
  1.4317058e-03
  4.5075636e-02
  4.1746898e-03
 -1.5296067e-02
  8.9234047e-02
 -9.7532365e-03
  3.9948318e-02
  2.2495618e-02
  6.6965647e-02
 -4.3112926e-02
 -1.6275745e-02
  1.3414614e-02
  6.5127574e-02
 -3.4322754e-02
 -2.6310230e-02
 -2.3142152e-02
  1.5634300e-01
 -5.5842083e-02
 -1.3717026e-01
  2.9050902e-04
  1.7118543e-02
 -6.5183021e-02
  1.5761502e-02
 -1.0917948e-01
  1.1221804e-01
  9.2796922e-02
  8.5031800e-03
  1.2286743e-02
 -7.2373040e-03
 -1.0369270e+00
  2.3943140e-01
 -4.1579854e-01
 -3.8162127e-01
  3.1702590e-01
  5.0855255e-01
 -1.0707615e-02
 -8.3042538e-01
 -2.2137503e-01
 -4.0315279e-01
 -4.8339840e-02
  1.7387050e-01
 -3.3888528e-01
 -3.0106172e-01
 -3.4338862e-01
 -3.5714213e-02
 -4.9691904e-01
 -2.0104945e-03
 -5.4893714e-01
 -1.9278248e-01
  5.0981101e-02
 -3.5865951e-01
 -3.6289725e-01
 -3.9356834e-01
  1.1084812e-02
 -5.4239357e-01
  7.1129942e-01
 -9.5010853e-01
 -2.9544425e-01
  1.7364372e-01
  3.3523117e-03
 -1.3972794e-01
 -3.1526214e-01
 -4.9277425e-02
  8.5237539e-01
  4.6797898e-01
 -9.3388418e-03
 -4.1140273e-01
  2.3886059e-01
 -2.2193629e-03
  1.1030412e-02
 -1.4346231e+00
  9.7924680e-02
 -9.7023658e-02
  1.4114447e+00
 -5.3548473e-03
  2.5144389e-01
 -6.5556906e-02
  3.8416114e-02
 -1.6955402e-01
  5.3404383e-02
  3.3360653e-02
 -2.1873808e-01
  3.4659370e-03
 -6.3524656e-02
  8.3522648e-03
  1.3038088e-01
  4.7800031e-02
  1.2348705e-01
 -6.1955392e-02
 -5.0758773e-01
  9.5834476e-01
  3.7207250e-02
  5.4822173e-02
  1.2589692e-01
  3.0859374e-02
  1.4023255e+00
  1.9937548e-01
 -3.6655141e-03
  1.1032532e-01
 -9.5431978e-01
 -2.5105199e-01
  8.4596187e-02
  5.3234231e-01
  2.0406883e-02
  6.0761146e-02
  1.7540544e+00
  1.6445675e-01
 -1.5383680e-01
  8.7131448e-02
 -2.2219241e-01
  1.7045563e-02
  1.3262261e-01
 -4.0650506e-02
  1.1067063e-01
 -1.4901392e-02
 -1.7942683e-01
  1.4939508e-02
  3.3416590e-01
  1.9734653e-02
 -3.8267195e-02
  8.6048290e-02
 -4.2495182e-01
  2.9994475e-02
 -7.3824003e-02
  2.6231733e-01
 -2.4452955e-01
 -1.8032204e-02
  6.1147147e-01
 -2.2464685e-02
 -1.6482800e-03
  7.6402456e-02
 -6.7803986e-02
  3.2144163e-02
 -9.8543905e-02
 -2.9137671e-02
  1.6077797e-01
  2.1917355e-01
 -7.5534970e-02
 -1.4408871e-02
 -4.6916924e-02
  9.8109074e-02
  4.9440123e-02
  7.6736487e-02
  1.7986409e-02
 -2.0707037e-02
 -1.1947410e-01
  1.7038564e-01
  1.0974687e-01
  3.5406005e-02
 -1.5329708e+00
  1.6399931e-02
  6.6055730e-02
 -2.0633178e-02
 -2.9416501e-03
  5.3211719e-02
 -1.3495885e+00
 -1.3211140e-03
 -6.8285838e-02
  7.8474216e-02
  1.3792410e-01
  1.2279830e-01
  6.2941797e-02
 -6.9694079e-02
 -2.5085406e-04
  1.0214493e-01
 -1.9022226e-02
  5.6542218e-02
 -4.0772236e-03
 -4.9480665e-03
  6.2871594e-03
  9.5375730e-03
 -6.0932603e-02
 -2.6922459e-02
 -2.5869543e-02
 -7.4686684e-02
  2.8543092e-02
 -2.6774703e-02
 -2.3039276e-04
 -8.2070082e-03
  1.1393881e-01
  3.0311445e-02
  1.5069865e-01
  4.6427943e-02
 -1.3163827e-01
 -2.6941849e-02
 -9.2594754e-03
 -6.2640407e-03
 -5.3969096e-02
  6.1629407e-02
  2.4823658e-03
 -8.6220447e-03
  1.5735705e-01
  1.7827466e-01
  2.6513743e-01
 -4.3691486e-01
 -5.2615382e-02
 -2.0668505e-01
 -1.9460422e-01
  8.3147110e-03
  1.4841089e-01
  5.4950588e-03
 -1.9000560e-02
 -2.6083678e-02
  1.1044792e-01
 -5.7874169e-02
 -1.2807250e-03
 -2.0234359e-02
  7.6160342e-03
  7.0993322e-01
 -7.9968356e-02
  1.3180947e-01
 -3.2519469e-01
 -3.7215922e-02
  2.7252331e-02
  1.2364174e-02
 -6.7263328e-02
  5.0602858e-03
  2.9077832e-02
  1.3990980e-01
  2.5344128e-03
 -6.3930079e-02
 -1.2416250e-04
  4.6593295e-03
  7.6246500e-02
  4.8711058e-02
 -4.2069998e-02
  3.4698471e-01
 -1.3793442e-02
  1.0098356e-01
  2.1188882e-01
 -6.9290966e-02
 -5.2622057e-02
  3.0677009e-01
 -1.0781497e-02
 -1.2061606e-02
  3.3699315e-02
  8.0089733e-02
 -1.8558223e-02
 -7.0968367e-02
  6.7155007e-03
  2.2471003e-02
  3.7953779e-02
 -1.1666748e-01
  4.2392865e-02
  1.0913983e-02
 -6.4396113e-02
  1.7279556e+00
  1.1774930e-01
  4.1235059e-02
 -4.4511765e-02
 -2.8465089e-01
  1.2105279e-01
 -2.6607143e-02
  2.2817899e-02
  7.9395398e-02
  2.5601787e-02
  3.0938691e-02
 -8.1427552e-02
 -1.0261989e-02
  2.5143415e-02
  7.6509327e-02
  4.7219895e-02
  2.6296228e-02
 -1.0929145e-02
 -7.4595958e-02
  6.3475566e-03
 -2.1204308e-02
 -3.5359725e-02
 -1.0838602e-01
  4.9024422e-02
 -1.4324746e-02
 -2.1808540e-02
 -4.4975247e-02
 -1.1626663e-02
 -1.1945081e-01
  1.7254558e-01
  5.9139062e-02
  4.1705009e-02
 -1.2873862e-02
 -1.2461046e-01
  9.4360234e-03
  1.9910905e-01
  6.3165493e-02
  1.1868075e-02
  3.5402733e-03
 -3.0631384e-02
 -2.1279573e-02
 -1.6260254e-01
 -3.0966084e-02
 -8.5819941e-03
 -4.2654056e-02
 -5.3111311e-02
  5.7585645e-02
 -1.6908552e-02
 -8.0576703e-02
  6.0224652e-02
  1.0350765e-01
  7.0285253e-02
 -8.3160847e-03
 -2.0627066e-02
 -4.2478296e-01
  3.4909749e-01
 -4.3817665e-02
  1.6262392e+00
  3.0377230e-01
  5.3300083e-01
  3.2228208e-01
  1.2133934e+00
 -1.8343811e-01
  1.1262569e-01
 -3.1620175e-02
  4.3190200e-02
  1.6985944e-01
 -3.9879061e-02
  7.2721494e-03
  4.3556106e-01
  9.9134117e-02
 -4.0427086e-01
 -4.2800482e-02
  2.8247109e-01
  1.2312365e-01
 -2.4633359e-02
  6.4236753e-02
  1.2503548e-01
  1.3116388e-01
 -2.4113004e-01
 -7.1829748e-03
 -4.6631279e-03
 -7.0060439e-02
 -6.1285719e-03
  6.9278651e-01
 -6.2338789e-03
  3.2252751e-02
  5.6306083e-02
  1.0838816e-01
 -2.7278690e-02
 -4.4301730e-02
  5.6386827e-03
 -5.4318323e-03
 -3.4011661e-03
 -2.4384700e-01
  1.9923072e-02
  4.0174972e-02
  2.1926219e-02
 -2.0321487e-02
 -7.8012466e-02
  1.1981650e-02
 -3.1715024e-02
 -2.7900511e-02
 -8.0030821e-03
  7.6561845e-03
  2.2765186e-02
  3.6127523e-03
 -3.1401467e-01
  9.2920877e-02
  1.2579042e-02
 -4.9951857e-01
 -2.3523115e-01
 -8.2690969e-02
 -1.5610217e-01
 -3.9871737e-01
 -1.7761840e-01
  2.2077437e-01
 -1.9468775e-02
 -1.5884655e-02
  1.4267994e-01
  2.7363738e-01
 -2.0679369e+00
  5.4809755e-01
 -1.7332584e-01
 -5.4045248e-01
  2.1201380e-02
 -1.1868415e-02
  5.3793479e-02
  2.9134953e-02
  7.7633548e-01
  4.4967424e-02
 -3.3029862e-02
  3.3181345e-01
  1.1904440e-01
 -2.1760916e-02
  5.7852294e-02
 -2.4728481e-01
 -8.4541768e-01
  6.0271893e-02
 -1.6712137e-01
 -1.2169655e-02
  5.4868323e-01
  1.5761296e-01
 -1.1193605e-01
  3.2267466e-02
 -1.2001937e-01
  5.8212351e-02
  4.8900634e-02
  9.0637930e-02
  8.6792767e-02
 -7.8343689e-02
  1.0450134e-01
  4.6569798e-03
 -6.4340785e-02
 -5.5996460e-01
  1.6033197e-02
 -6.9708623e-02
  5.1902991e-02
 -1.9689365e-01
 -6.1299998e-02
  3.5355259e-02
 -5.2810377e-01
  2.3924239e-01
  5.7526261e-02
  3.0580842e-01
  7.7969980e-01
  2.4133018e-01
  2.2298120e-01
  5.1813263e-02
 -3.1970888e-02
  3.9218932e-02
  4.4807032e-02
 -1.1471254e-01
 -5.6694608e-02
  8.3029941e-03
 -7.0046552e-02
 -8.8729896e-02
  1.0878044e-02
  3.7128508e-02
 -3.1848252e-02
 -4.3518311e-01
 -2.0407634e-02
 -8.3228229e-03
 -2.7055962e-02
 -3.6048084e-02
 -3.2274425e-02
 -1.1820839e-01
  4.2915195e-02
 -4.3379992e-02
 -1.8491569e-01
  3.1365063e-02
 -2.1989217e-01
 -2.9852408e-01
 -1.6217798e-01
 -6.5701436e-03
 -2.3958229e-01
  1.2758970e-01
  2.0699954e-02
 -1.5751384e-01
  1.3175586e-01
  9.3173599e-03
 -7.7210762e-02
 -1.3520996e-01
  3.6015972e-02
  1.4507490e-01
 -1.1490440e-01
 -2.5941277e-01
  1.0968807e-02
 -1.5326890e-01
  1.7017240e-02
 -3.2349493e-02
 -2.1312590e-01
  4.9593979e-03
 -9.1824323e-02
  8.0285974e-02
  1.4920457e-01
  2.0350406e-01
  2.5749834e-02
 -1.5440290e-02
  2.4819355e-02
 -4.3440327e-02
 -2.5511758e-02
  1.9601120e-02
 -3.6703417e-01
 -3.4925312e-02
 -1.7176445e-01
  5.7799198e-02
  1.4643225e-01
  1.2355569e-01
 -5.5910811e-02
  5.8353607e-02
  3.8277298e-02
  5.6519870e-02
 -2.2141619e-02
  2.1325336e-01
 -1.5654132e-01
 -5.3258430e-02
 -1.0134495e-03
 -2.1301243e-02
 -5.2228604e-02
 -2.0346846e-02
  1.2111592e-01
  6.3688792e-02
  4.1254569e-02
  2.8477009e-02
  1.3483502e-01
  1.1148241e-01
  3.1196784e-02
 -1.8700698e-02
 -1.3018625e-02
 -9.2925496e-02
 -5.1840294e-02
 -6.0424586e-03
 -1.2697040e-03
  3.6861375e-02
 -3.3951528e-02
 -3.0085083e-02
  8.4118424e-03
  2.1495685e-02
  1.2924228e-02
  1.8510865e-01
  3.0634135e-02
  6.2490802e-02
  5.5534486e-03
 -6.2005728e-02
 -2.2514680e-02
 -5.8557079e-03
 -1.0052389e-02
  6.4587980e-03
 -2.8250227e-02
 -3.8374331e-02
  1.4980230e-02
  6.0637924e-03
  2.8545032e-03
 -1.1871307e-01
 -7.1453247e-03
 -4.0683895e-02
  1.6074492e-02
 -6.1020620e-02
  2.1488168e+00
  1.0235158e-01
  6.0261387e-02
 -6.5747187e-02
 -4.6532549e-02
 -3.4023020e-02
  5.4984689e-02
 -6.0036853e-02
  3.1983545e-01
  2.0689090e-01
 -5.4898322e-01
  7.8810081e-03
  5.1021427e-03
  2.7833020e-02
  1.2186479e-01
 -7.0238248e-02
  1.9709280e-02
  2.1988560e-02
  3.9399732e-03
 -1.2386258e-02
 -4.3099351e-02
 -1.3835747e-02
  5.2457530e-02
  9.9862076e-02
  2.0508434e-01
  3.5439916e-02
 -1.6656125e-02
  6.2130257e-02
 -6.6454723e-02
  8.2970425e-02
 -6.6230859e-04
  1.4997947e-01
 -1.2204778e-01
 -5.0170492e-02
 -7.6388329e-02
  8.6431816e-02
 -7.2753400e-02
  2.6504507e+00
 -6.2117625e-02
  1.3266949e-03
 -2.5227170e-02
  1.7657593e-01
  4.8695587e-02
 -2.6336266e-02
 -2.5227642e+00
  3.9305463e-01
  1.1113559e+00
  8.1062126e-01
 -3.8837582e-01
 -3.0894950e-02
 -1.6559238e+00
 -2.1533272e+00
  7.0066182e-03
  5.1789439e-01
 -5.3494751e-01
  1.3505839e-01
 -1.0760049e-01
 -4.8565748e-01
  3.3709090e-02
 -5.0996286e-01
 -1.4459969e-01
  1.0526685e+00
  1.0702128e-02
 -2.7919093e-01
  1.4580306e-02
 -7.1246147e-02
  4.1440539e-02
 -1.3967299e-02
 -1.2153842e-01
 -1.6795255e+00
  2.1865031e-01
 -1.1073049e-02
 -8.0785561e-01
  2.3921640e-01
 -2.1220036e-02
 -2.4571803e-01
 -2.1081476e-01
 -2.6430359e-02
  6.0611106e-02
  2.1886961e-01
 -9.6198032e-03
  5.6989435e-02
  2.3623933e-01
  3.9073821e-02
  1.1694947e-01
  3.3260446e-02
  2.4331121e-02
 -4.8496976e-02
 -1.1444193e+00
 -6.6072322e-02
  5.6720853e-02
 -6.8844475e-02
 -5.8603995e-02
 -2.0282120e-02
 -2.7816029e-02
  6.0122389e-02
 -5.5212639e-02
  8.8072531e-02
 -1.3178349e-01
  3.2479312e-02
 -7.8869186e-02
 -4.0710043e-02
  1.9434363e-01
  3.0317483e-02
  4.0966454e-01
  1.1833092e-01
  1.2238297e-02
 -4.6395376e-02
 -5.5931553e-02
  6.2670670e-03
 -3.8369268e-02
 -5.6659479e-02
  4.7984686e-02
 -2.5250018e-01
 -3.7576329e-02
 -1.1436665e-01
 -7.1489491e-02
 -1.6555116e-01
 -9.4644178e-04
 -7.7288210e-02
  4.1365871e-01
 -1.2963703e-01
 -2.5345005e-02
 -7.4785233e-02
 -4.4862293e-02
  6.3834026e-02
 -1.5153116e-01
  1.4470166e-02
 -1.3187897e-01
 -1.7761739e-02
  3.9627440e-02
  2.7118204e-02
  2.5525367e-02
  2.5298749e-03
 -1.0989013e-01
  1.4586594e-02
  3.2403294e-02
  2.3018679e-02
  6.9036208e-02
  1.7011689e-02
 -6.2010508e-02
 -2.9874697e-01
 -4.9223694e-01
  2.5621271e-02
  3.8011353e-02
 -4.6180937e-02
 -4.9874619e-02
 -1.2702815e-02
 -5.7266210e-03
  2.5204966e-02
  1.2429364e-02
 -3.6324911e-02
 -1.2894063e+00
  1.4042002e+00
 -7.2157092e-02
 -1.6798536e+00
 -1.0902135e+00
  1.0861391e+00
 -1.2584610e+00
 -3.9046013e-01
  2.3468955e-01
  3.9014056e-01
  5.9450120e-02
  5.0366896e-01
 -2.3447621e-01
  1.2062378e-01
  5.9984028e-01
  2.0277010e-02
  1.4592481e-01
  5.7556021e-01
 -2.8541561e-02
  2.8849140e-02
 -4.1821834e-02
  1.2466027e-02
  3.8963865e-02
 -2.3254459e-01
 -2.6382783e-02
 -1.5914425e-01
  9.2456502e-01
  2.4648683e-02
  3.3056967e-02
  3.9935687e-01
 -7.3722303e-02
  3.0625654e-02
 -1.0164673e-02
  7.7980491e-03
 -8.0856711e-02
 -4.0584642e-02
  8.6010853e-03
  5.5097766e-02
  1.5464340e-02
  1.2040332e-02
  6.3488133e-02
  3.0733183e-01
 -6.5383151e-02
 -7.6976987e-03
  1.6861725e-01
  3.8894314e-02
  1.4169915e-01
 -7.5723827e-02
  1.8690532e-02
 -1.0290567e-03
 -8.7490901e-02
 -2.9444277e-01
 -1.9445104e-03
 -1.4082170e-02
 -6.7054965e-02
  1.1698764e-03
  3.7076946e-02
 -2.0269115e-02
 -2.3376692e-02
 -1.5302937e-02
 -2.7870050e-02
 -6.1767582e-02
  6.0695972e-02
  2.7133454e-02
 -8.6302318e-02
 -1.3455821e-02
 -6.0076207e-02
 -2.6400186e-02
  2.3241516e-03
  4.6014977e-03
 -4.7467533e-02
  2.3253685e-01
 -2.0983038e-03
  1.8259501e-02
 -1.5369292e-01
  5.9043085e-03
 -7.3414057e-02
 -5.3212024e-02
  1.1657013e-02
  4.1549394e-04
 -7.8809960e-03
 -9.9266864e-02
 -2.8297586e-02
 -7.3099835e-03
 -8.2930729e-02
  7.3950733e-03
  7.6155677e-03
  5.1140165e-01
 -5.3320218e-02
  1.0491322e-03
 -1.2824403e-02
 -6.0584755e-03
 -2.4676343e-02
 -7.6699577e-02
  5.1117897e-02
 -3.5679287e-03
 -1.0674774e-01
 -1.6380559e-03
  1.2047751e-02
  2.2787334e-02
  2.4174627e-02
  1.1528929e-02
  3.3800308e-02
  3.6843974e-02
 -3.2239821e-02
  2.3670381e-02
  7.8022286e-02
  2.2025777e-02
 -8.7635404e-01
  1.7331053e+00
 -1.1119704e+00
 -3.1861801e+00
 -1.3953799e+00
  4.9944431e-01
  1.6111476e+00
  9.6015885e-02
 -3.4937646e+00
  9.1965027e-02
 -1.9214312e-02
 -1.3968281e-02
 -5.6779712e-02
  3.7676974e-03
  1.8830650e-01
  4.6368331e-02
 -1.8378474e-01
  1.0705775e+00
  1.2372860e-02
 -4.8478553e-01
  3.3184871e-01
  1.7033923e-01
 -2.8012836e-02
 -1.7888013e-02
 -1.7845722e-02
 -7.2025996e-01
  3.4266564e-01
 -2.5052689e-03
 -2.7092416e+00
  4.2443451e-01
 -4.5246965e-01
 -2.8936574e-01
 -4.0541196e-01
 -1.7208562e+00
 -1.0245929e-01
  1.1327385e+00
  3.0007284e-02
 -2.2000537e+00
  1.1160999e-02
  1.5946047e-01
  5.2116429e-03
 -1.0366401e-01
  5.2560546e-02
  3.8120680e-02
 -1.0922955e-01
 -9.8072879e-02
  3.6735024e-02
 -1.9388458e-02
  8.2797661e-02
  9.1984712e-02
  4.6793222e-02
  7.0495777e-02
  2.0081058e-02
 -4.0315311e-02
 -1.5165201e-01
 -2.7432195e-03
 -5.3986225e-02
  3.5279356e-02
  4.7493838e-02
  2.1185589e-01
 -1.6929440e-02
  8.8316677e-03
 -6.4727701e-02
  1.7128506e-01
 -7.7008881e-02
 -8.5128796e-01
 -1.0136756e-02
 -1.8031427e-01
  4.0726024e-01
 -6.6150084e-02
 -4.2072474e-04
  6.0358468e-02
  1.2679419e-02
 -7.8694904e-01
 -7.2495635e-03
  7.7684927e-03
  1.0862061e-01
 -5.9119403e-02
 -1.7353239e-02
 -1.2954803e-02
  4.4877101e-02
  4.2492256e-02
 -4.8110850e-02
 -3.3555958e-01
 -1.0148355e-01
 -2.5982184e-02
 -8.3026446e-02
  1.0211872e-01
 -1.3240647e-02
  2.6894128e-02
  1.3080141e-01
  8.7477239e-03
 -1.8943081e-02
  4.9314089e-02
  4.1899003e-02
 -6.4346902e-02
 -1.5892677e-02
  3.0504227e-02
  2.0731857e-02
  7.7921976e-03
 -4.4531128e-03
 -2.0585211e-02
  1.0752066e-02
 -4.7418110e-02
 -3.8942903e-02
  6.6592030e-02
 -2.3798142e-02
  1.7595038e-02
  2.0839304e-03
 -2.8828558e-02
 -4.4156808e-02
 -1.7149213e-01
 -1.1463743e-01
 -2.7351182e-02
 -3.2094225e-02
 -8.3365053e-01
 -6.6846713e-02
  6.5082029e-02
 -4.7041412e-02
 -2.1337548e-03
 -4.8694652e-04
 -1.9570554e-03
  8.7658845e-02
 -2.3280927e-03
  3.8817495e-02
 -1.2542453e-01
  1.0999551e-01
  3.1399750e-03
 -2.2550860e-02
  2.5469847e-02
  3.8103485e-03
  1.0655636e-01
 -3.4171124e-03
  5.6821845e-02
 -1.1144240e-01
  6.1200600e-02
  3.9442540e-03
  2.5537459e-02
  6.7682736e-02
  2.5200140e-02
  2.5994234e-02
  5.4783918e-02
  3.6347993e-02
 -3.5092058e-03
  4.5274194e-02
 -4.3184113e-02
  2.7993519e-02
  7.3939539e-02
  2.0092659e-02
 -7.8636035e-02
  4.8062429e-03
 -3.9216923e-03
  2.0899355e-02
  3.3994772e-02
  2.1387365e-02
 -9.5029488e-02
 -4.1089702e-02
  3.2862734e-02
  6.3138217e-02
 -3.1103943e-02
  2.7034193e-02
 -2.7166691e-02
  1.0209566e-01
 -1.0472990e-01
 -1.1856393e-01
 -7.7329755e-02
 -4.7619510e-02
 -2.9617509e-02
  7.4742213e-02
  7.8588061e-02
 -4.0635881e-01
 -1.7957479e-01
 -3.9901797e-02
 -5.6879353e-02
 -1.9010995e-04
 -1.2019202e-01
  3.7261054e-02
  1.1332911e-01
 -1.7760292e-01
 -8.1194177e-02
 -1.2207052e-02
  1.5929922e-02
  7.8836858e-02
 -1.4518023e-02
  8.9889899e-02
  8.2619816e-02
  5.5783316e-02
  8.2345232e-03
  1.7884021e-01
  9.7967777e-03
  3.6300808e-02
 -1.0953223e-03
 -7.6308348e-03
 -1.1153760e-01
  1.5621035e-01
  1.3651522e-02
  5.7405997e-02
 -3.9641216e-02
 -3.1120595e-02
  5.3700384e-02
  9.0508638e-03
 -5.1732823e-02
  1.5463874e-02
  1.2769769e-01
 -5.0409332e-02
  4.0909424e-02
 -1.0518494e-01
 -1.0304338e-01
 -5.3087376e-02
  8.7605394e-02
 -3.2900233e-02
 -2.7898399e-02
 -7.3217407e-02
  1.7878165e-02
  2.8173456e-03
  1.2302371e-01
 -2.9851086e+00
  4.7501236e-01
  1.3231151e+00
 -6.6274458e-01
 -6.7912126e-03
 -1.4046512e+00
 -5.2092880e-01
 -5.6138575e-01
 -1.8106480e-01
 -3.2698137e-01
 -8.1309445e-02
 -7.6659495e-01
 -1.9293302e-01
 -2.0142293e-02
  8.9808472e-02
 -7.0727775e-03
  5.5324979e-02
  7.8799975e-01
 -1.6123481e-02
  1.4811798e-02
 -6.0338907e-02
 -1.9051617e-02
 -4.2365987e-02
 -8.0194853e-02
 -6.9580741e-02
 -4.3112072e-01
  3.5489446e-01
 -6.2126856e-02
 -8.2292007e-03
 -3.9358940e-02
 -6.1762627e-02
  4.4901002e-02
  1.4436090e+00
  9.9817403e-02
  1.0941521e-02
  3.2301698e-02
  5.8238439e-02
 -9.5736682e-02
  9.5006049e-02
 -1.9059393e-01
 -1.8443888e-02
 -8.1932202e-02
 -4.1885328e-02
 -5.5538188e-03
  6.7529543e-03
 -6.2527664e-02
  2.5475144e-02
 -3.1924162e-02
 -3.3541754e-01
 -7.5957954e-02
  1.4059853e-02
 -5.6068669e-04
  2.8410999e-02
 -2.7764963e-02
  6.1218951e-02
 -4.5210682e-02
  3.4216207e-02
 -3.8790267e-03
 -3.8586091e-02
 -4.9258135e-02
  2.2868961e-02
  9.6577136e-03
 -1.3345641e-01
  5.1587172e-02
  1.1419582e-01
 -3.1654265e-02
 -1.9354081e-01
 -4.1968204e-02
  7.5977012e-03
 -3.6344595e-02
 -1.3991050e-01
  1.1340771e-01
  2.3499208e-03
 -1.8325668e-02
 -2.0627158e-02
  7.6478921e-02
 -2.7606443e-02
  2.3228280e-02
  9.9851064e-02
 -3.2452412e-02
  5.1125813e-02
  2.6715962e-02
  9.9617532e-03
  1.0795610e-01
 -7.5564072e-02
  4.6499155e-02
 -1.8659870e-01
 -1.9311447e-02
  1.1148034e-03
 -1.4912759e-01
 -1.3787878e-02
  5.3156789e-02
 -3.8889490e-02
 -6.4084858e-02
 -3.3952218e-02
 -4.4766936e-02
 -1.5493670e-01
  1.3933286e-02
  8.2015194e-02
 -3.9490145e-02
  1.5711631e-01
  1.5436536e-01
  1.1104451e-02
  3.4087943e-03
  1.1676832e-01
  1.2192004e-03
 -5.0545249e-02
 -1.9630662e-03
  2.6622098e-02
  2.1561030e-02
  4.1999463e-02
 -1.2599121e-01
  6.6318166e-01
 -3.1551577e-02
 -5.7855767e-01
  9.9083640e-02
 -6.7005970e-02
  3.1733528e-02
  1.0316571e-01
 -2.0306418e-02
 -4.3323878e-02
 -9.7254336e-02
  5.4015429e-03
  8.8336863e-02
  2.7116818e-02
  2.2588737e+00
  1.8428659e-01
 -3.8647477e-02
  1.5421353e-03
  1.3661785e-03
  6.4383023e-03
 -6.7845695e-02
 -1.0233031e-01
 -1.1185835e-01
 -7.7781481e-01
  1.6138721e-02
  3.5362743e-02
  1.6106188e-02
 -3.5055627e-03
  3.4944348e-02
 -3.3760172e-01
  9.3193287e-03
  1.8883141e-02
 -2.9640140e-03
 -9.2093404e-03
 -3.9914215e-01
  2.6015388e-02
 -1.3570648e-01
 -2.3230832e-02
 -6.6628188e-02
  8.5307851e-02
 -2.0885617e-02
 -2.7579991e-02
 -3.6880097e-03
  3.2808460e-04
 -3.5396961e-03
  2.6352899e-02
 -6.1975066e-02
 -2.6727049e-03
 -1.3494956e-01
  1.3630866e-02
 -2.6729572e-01
 -8.1981719e-01
  2.4890769e-01
  8.3162826e-01
  5.7278907e-01
 -1.7478745e-02
  1.0436909e+00
 -5.1565266e-01
 -1.5438068e+00
  1.3236658e-01
 -3.5406500e-02
  4.1588597e-02
  3.0375600e-01
 -1.6941415e-02
 -6.0976607e-01
  2.1946126e-01
  3.7082680e-02
 -6.8965244e-01
  3.2435933e-01
  3.5432808e-02
 -7.5328463e-01
  8.0796981e-01
 -3.6296931e-01
 -1.7480633e-01
 -1.5961243e-01
  7.8497380e-02
 -1.4377025e+00
 -1.7467263e-01
 -1.7070240e-01
 -1.2537731e-01
  4.1824201e-01
 -5.2396078e-02
 -3.1874114e-01
 -7.5128004e-03
 -1.1199970e-02
 -1.2700026e+00
  2.9513001e-02
 -2.8400050e-02
 -1.2451582e-01
  3.4416202e-01
 -4.0873806e-03
 -8.4738068e-02
  6.9646679e-02
  3.8334589e-02
  1.2626263e-01
  2.0720406e-01
  5.9202816e-02
  1.2378806e-02
 -1.5634811e-01
  1.1552039e-01
  5.2034713e-02
  2.1872923e-02
  4.1743685e-04
 -1.2945217e-01
 -3.0951655e-02
 -2.5485596e-01
 -7.2967634e-02
 -2.1414348e-01
  1.3375470e-01
  1.9267865e-02
  1.2265682e-01
  1.5708273e-02
  1.0905448e-02
 -3.9742466e-02
  9.2295150e-04
  3.1395547e-02
 -2.5521636e-02
 -4.7001743e-01
 -3.6052283e-02
  2.9149157e-01
 -6.9649763e-02
 -2.3720694e-01
 -5.3746905e-02
 -2.8832767e-02
 -1.6932581e-01
 -7.6538786e-02
 -2.4735279e-02
 -3.8580135e-02
  1.0521688e-01
 -1.1699901e-01
  4.5302357e-03
  7.8424830e-03
 -1.0165540e-01
 -6.4165071e-02
  2.8909644e-01
 -8.2139755e-03
 -6.6606253e-02
 -1.8281236e-02
  7.2556943e-02
 -9.7410835e-02
  1.3236384e-01
 -4.5515918e-03
 -8.8859461e-03
 -1.9338394e-02
  3.5530463e-02
  7.1348265e-02
 -2.7360704e-02
  1.6812786e-02
 -2.9751450e-01
 -1.9328211e-02
 -6.7150351e-03
  1.0131730e+00
  2.7101166e-03
 -1.2293901e-02
  5.1661432e-02
  4.7886882e-02
 -4.8311006e-02
 -1.5187488e-01
  4.1058447e-02
 -2.6314463e-02
  2.9611394e-02
 -2.1726375e-02
  8.8518316e-01
 -1.1337388e-01
  8.3691981e-03
 -3.3800408e-01
 -1.1378021e-02
 -4.3022543e-02
 -2.1563550e-03
  3.0912302e-02
  3.8753808e-02
 -8.7924339e-03
  5.4501846e-02
 -3.9263382e-03
  1.3181318e-03
 -2.7120087e-02
 -4.1904062e-02
 -2.2524633e-02
 -6.8960927e-02
  6.4063624e-02
  4.8891716e-02
  1.9339716e-01
 -4.4575580e-03
 -4.5159414e-02
  3.6159057e-02
 -6.3342571e-02
 -3.6342666e-02
  4.8062786e-02
  6.0432805e-05
  2.1016172e-01
 -6.6756576e-02
 -1.5967627e-03
  2.1202033e-02
 -1.8764151e-02
 -9.5744198e-03
 -1.7264619e-01
 -2.6159528e-01
  3.9586970e-03
 -1.6634122e-01
 -1.1461035e-01
  1.6701462e-02
  5.0629318e-02
 -5.5257987e-02
 -7.0750648e-03
  1.0024090e-01
  2.4097802e-02
 -1.9521849e-02
 -4.7318503e-02
  7.9629548e-02
 -1.6717967e-02
 -1.5750927e-01
 -5.8923323e-02
  9.9129274e-02
  3.6348112e-02
 -7.0311666e-02
 -1.5289834e-02
 -2.1820430e-01
  2.6524171e-02
  2.9640356e-02
  2.2537803e-02
 -3.3523414e-02
 -1.6476052e-02
  5.6789029e-02
  6.9950566e-02
 -1.0247529e-02
 -7.9014614e-02
 -2.6042636e-03
 -4.1135732e-02
  4.2391732e-02
 -4.4648536e-03
 -1.1552521e-01
 -7.8276157e-02
  4.2635430e-02
 -4.0156133e-02
 -4.1571576e-02
  1.1817307e-02
  3.9092019e-02
 -2.3994300e-01
 -1.7777499e-02
  1.7702349e-02
 -4.2659946e-02
 -2.1684097e-01
 -1.1983087e-01
 -6.5956593e-02
  1.9215867e-02
  8.9170327e-03
 -1.5342535e-02
  5.7274397e-03
 -1.4462118e-01
 -1.2378320e-01
 -4.8880331e-02
 -9.9742636e-02
 -2.7715789e-02
 -4.8962692e-03
  5.7056878e-02
  4.1649672e-03
  8.2041964e-02
 -7.6125390e-03
 -4.9444292e-02
  6.6143461e-02
  8.9619346e-02
  1.2157265e-02
  1.9920319e-03
  2.1855004e-02
  2.0397974e-02
  8.4803754e-04
 -8.6445943e-02
 -5.5994391e-01
  7.6037152e-03
 -1.2836044e-01
  1.3541625e-01
 -5.9635907e-01
  3.6286166e-01
  3.1373674e-01
 -2.7170943e-02
 -1.6538831e+00
 -5.9775859e-01
 -1.6836749e-01
 -1.1890476e+00
 -4.8130155e-01
 -2.6479039e-01
 -2.5320009e-03
  2.2163879e-02
 -2.3186963e-02
 -7.2043017e-02
 -9.4712734e-02
 -6.1716491e-01
  4.9898725e-02
 -2.6724527e-02
 -2.3541367e-02
 -3.4185164e-02
 -1.8652674e-02
  1.2399366e-01
  1.4377750e-02
 -6.3888586e-01
 -7.9571038e-02
  1.5577486e-03
  3.7944086e-02
 -8.5290641e-01
 -2.4639810e-02
 -6.8532961e-04
 -2.2156805e-01
  3.5644126e-01
  8.6269684e-02
 -6.6588312e-02
  5.2300408e-02
 -5.0840501e-02
  3.0442572e-03
 -1.0721854e+00
  4.1195460e-02
  1.8919285e-02
 -1.6637699e-01
  5.2815925e-02
 -4.2999301e-02
  3.2828022e-02
 -1.6810676e-02
 -1.0930240e-02
 -1.2763712e-01
 -2.4755995e-01
  4.3440182e-02
  7.5147618e-03
 -1.9324268e-01
 -1.0044866e+00
 -7.5766742e-02
  9.9622846e-02
 -4.8246689e-02
 -7.8994143e-01
 -6.4891311e-03
  2.0539184e+00
 -1.6247482e+00
  1.4666826e-01
 -1.6086528e-01
  5.2037889e-01
  6.2281031e-02
  9.4712508e-01
  5.3570414e-01
  1.1008126e-01
  1.5352878e-01
 -9.8720886e-02
  1.8094946e-01
  4.1319114e-01
 -1.4096205e-01
  2.0686323e-02
  1.4151198e-01
  3.2927302e-01
 -1.6810581e-01
 -4.1236520e-02
  2.2456846e-01
  8.9186110e-02
  2.7813327e-01
  2.2483462e-01
  2.5104734e-01
  7.0600584e-02
  6.8951744e-01
  4.9784954e-04
  4.9777213e-01
  4.2120507e-01
 -4.7599994e-02
 -2.4178691e-02
  8.4544033e-01
  1.4304852e-01
  3.6916822e-02
  1.1244594e+00
 -1.4494206e-01
 -1.5794512e-02
  5.3881520e-01
  1.0025336e-02
  1.5058763e-02
  4.2983601e-03
 -1.9989062e-02
 -3.3042382e-03
  8.3163055e-03
 -1.1245421e-01
 -8.6518368e-03
  5.9867240e-02
 -4.1011354e-04
 -2.7986944e-01
 -8.4431246e-03
  4.5600665e-01
 -3.9015326e-01
 -3.9803959e-02
 -4.6124071e-01
 -3.4082342e-02
 -1.1156592e-01
 -1.3162286e-02
  1.1387288e-02
 -2.6910003e-02
  7.1279615e-02
  1.1895528e-01
 -1.0215564e-01
 -1.9461233e-03
  3.9328698e-02
  3.0334553e-02
  5.7514697e-01
  4.6579480e-02
  2.0000718e-03
  6.7033552e-02
  4.6400540e-02
  5.8413032e-02
  5.9576654e-03
  8.6102979e-03
 -7.8505993e-02
 -6.3311607e-02
 -7.1056518e-03
  6.2208779e-02
  1.0717182e-01
  7.9197846e-02
 -3.2784730e-02
  2.9378233e-02
  1.0674542e-01
 -1.4286009e-02
  2.1711406e-03
 -4.8448011e-01
  7.0577547e-02
  1.6352406e-02
 -3.9025851e-02
  7.5348932e-01
 -4.3491159e-02
  2.2999629e-02
  7.9749927e-02
 -4.9149143e-03
 -3.8753018e-02
  9.6113898e-02
  3.2498173e-02
  5.3754687e-02
  2.6582651e-02
 -3.0892335e-02
 -3.7996946e-03
  2.5050841e-02
  4.4704080e-01
 -1.9499393e-01
 -1.6433462e-04
  1.0304852e+00
  1.7848596e-02
  1.0163981e-01
 -1.7543176e-01
 -3.1070508e-02
 -4.8255287e-02
 -2.1029424e-02
 -4.6346053e-02
  2.2840485e-02
 -5.3585018e-04
  5.3979773e-03
 -1.5091294e-01
 -8.1375185e-03
 -2.2971552e-02
 -3.3590008e-02
 -1.5276005e+00
 -5.3788763e-03
  3.9608717e-02
 -9.9559925e-02
 -1.2140156e-01
 -1.6324033e-01
 -9.1851734e-02
  9.4757630e-03
 -1.8673076e-01
 -7.0737630e-02
  4.2519968e-02
  2.9621853e-03
 -8.1785740e-03
  3.9729558e-02
 -7.7140690e-03
  2.9474534e-02
  6.0517345e-02
 -6.0776152e-02
  3.4016043e-02
 -1.1791905e-02
  8.4406018e-02
 -2.8355695e-02
  1.4876951e-02
  6.9673300e-01
  3.1778079e-03
  1.2682406e-02
  9.3467608e-02
  1.1030458e-02
  6.1379883e-02
  3.2137103e-02
  6.3963525e-02
  1.8798709e-02
 -5.6270439e-02
  6.9749705e-02
  1.9420093e-02
  2.0786969e-02
  2.3097770e-02
 -5.2608959e-03
 -9.1418587e-03
 -8.5962492e-01
  7.0588255e-01
 -1.1704951e-01
 -7.3592402e-02
 -3.9735787e-02
 -1.9368082e-02
  6.9564311e-03
  1.9892534e-02
  7.7641383e-02
 -2.3902152e-02
 -1.8734995e-01
 -7.2187178e-02
 -1.0007954e-01
 -3.9951382e-03
  1.0626891e-02
 -3.9034810e-02
  1.8871429e-03
  6.1225977e-02
  6.8612210e-02
 -1.7824631e-02
  2.2807512e-02
  6.9095865e-02
  3.9061140e-02
  8.5663363e-02
 -8.5635195e-03
  1.0215261e-01
 -3.2980036e-02
  2.5535604e-02
 -1.7793059e-02
 -5.6120194e-02
  4.0159263e-02
 -4.1424002e-02
 -3.8155526e-01
  1.5952023e-03
  4.5815744e-02
  5.6255046e-02
  9.5967930e-03
  3.1591292e-02
 -1.4745695e-02
  1.1107012e-01
  2.9718980e-02
  3.3382915e-02
  5.4454696e-03
  6.3399933e-03
  1.0802604e-01
 -8.4776215e-02
 -4.4935808e-02
  2.0716953e-01
  6.7835040e-02
  3.3821452e-02
 -2.9756933e-02
  3.0821541e-02
 -3.3445787e-02
 -7.9263456e-02
 -5.4928315e-01
  8.9954704e-02
  2.5847692e-02
 -1.9229306e-02
  1.0827646e-02
  1.4327710e+00
 -8.4517293e-02
  1.1490703e-01
 -2.7073154e-01
 -6.8788029e-02
 -3.1510737e-02
 -1.7452715e-01
  4.4765547e-03
 -3.4029316e-02
 -8.6184470e-03
  1.5303313e-02
  4.3282922e-02
 -1.0740396e-02
  5.2426897e-02
 -3.3200223e-02
 -3.3402737e-02
 -1.8347627e-02
  1.5651211e-02
  3.8242899e-02
  9.4098561e-03
 -2.9780360e-02
  1.3629506e-02
 -1.2843581e-01
  4.2579097e-01
  9.0304039e-02
 -6.7080222e-02
  3.4351703e-02
 -5.1053476e-02
  1.0601468e-01
  2.3559988e-02
  4.9874824e-03
  1.3856367e+00
  6.7524888e-02
 -3.2408357e-02
  2.5512280e-02
  1.1022671e-01
  9.2292704e-02
  3.3519167e-02
  8.7218948e-02
  7.3435031e-02
 -3.6202869e-01
 -2.8726839e-02
  1.7064130e-01
 -2.7046606e-02
  7.1929403e-02
  3.1170836e-02
  8.1468970e-02
  1.3856296e-01
  1.1043380e-03
 -8.6694837e-02
  2.2653077e-02
  2.7483543e-02
  5.4854024e-03
  3.5548132e-02
  8.1163675e-02
  4.2874841e-03
  9.1241748e-04
 -2.8376776e-04
 -8.6030178e-02
 -2.3653943e-02
 -3.1158699e-02
 -6.3681919e-03
 -7.7089556e-02
  3.7634689e-02
  8.8619851e-03
 -3.3781998e-02
 -4.7129862e-02
  2.7254526e-02
  2.0590124e-01
 -2.8994942e-02
 -7.2319448e-02
 -6.6767789e-02
  2.7801644e-02
 -4.3792494e-02
 -1.6660966e-02
 -1.1461791e-01
  7.5919001e-04
  4.4473547e-02
  3.2382291e-03
 -5.2131403e-02
  1.9463105e-02
 -2.1986486e-02
 -2.7968444e-02
 -1.1548351e-01
 -6.8860814e-02
 -2.8093971e-02
 -3.6350500e-03
 -2.2795622e-03
  4.2361993e-02
 -4.3665137e-04
 -4.0797917e-03
  1.5410438e-02
  1.4182127e-02
 -1.3212461e-02
 -3.0245518e-02
 -9.5846094e-02
  2.4259161e-02
  2.3474714e-02
 -4.8328497e-02
  6.8887487e-02
 -1.0938286e-03
 -1.1146198e-02
  9.2478149e-02
  2.7940879e-04
 -4.1208323e-02
  8.2300510e-03
  1.3069988e-02
 -1.6018335e-02
 -3.3892944e-01
  1.9921434e-01
 -5.5844665e-02
 -1.0018464e-02
  4.5895122e-02
  7.4398145e-02
  9.4482182e-03
  4.5970839e-02
  1.6376471e-02
 -8.4895569e-01
  1.6783990e-02
  3.4052778e-02
  1.0110942e-01
  3.0297903e-02
  1.0010774e-01
 -1.1723885e-01
  1.2631190e-01
 -1.5272669e-01
  3.6856484e-02
  4.6057586e-02
  3.1164482e-03
  3.0643255e-02
  1.6912712e-02
 -4.0204063e-02
  1.9826300e-01
  2.2529980e-02
  1.0005070e-02
  4.7079936e-02
  2.7023528e-02
  2.2853816e-02
 -3.4548268e-02
 -9.3686156e-02
 -5.7393506e-02
  1.9935332e-02
  2.1802759e-01
 -4.8462652e-02
 -2.1393361e+00
  3.5733446e-02
 -4.7734804e-02
 -1.2409317e-01
 -1.6992370e-02
  5.1904477e-02
 -3.7282411e-02
  5.4829936e-03
 -6.5201041e-03
 -7.2591692e-02
 -1.1339262e-01
  4.4811260e-02
  1.1101427e-01
  9.7008711e-01
 -4.9924275e-01
  1.5646282e-01
 -1.6376388e-01
 -1.7237158e-02
 -1.1890197e+00
 -6.9004886e-02
 -5.5726939e-01
 -1.0542911e-01
 -2.9120234e-01
 -3.8408801e-02
  1.0655636e-01
  4.4893436e-02
 -7.0480537e-01
 -4.8709396e-02
  4.3957341e-02
  1.2857050e-03
 -1.1727089e-01
 -1.1955078e-02
 -1.8475065e-01
 -2.0556894e-01
 -1.9627324e-01
 -2.2146207e-01
 -3.4191480e-01
  3.7688404e-02
 -3.2373601e-01
  1.9948629e-01
 -1.3262430e-03
 -1.2597258e-01
 -3.2302910e-03
  5.0680492e-02
  3.7695862e-02
 -1.6671629e-03
  1.7834735e-01
 -2.2707467e-01
  1.9124756e-02
  4.1146148e-02
  9.8508038e-03
 -6.0957734e-02
  1.3751524e-03
  3.3691980e-02
  2.0240539e-01
  6.2412601e-02
  1.4641674e-02
  3.1318881e-02
 -1.4281009e-02
 -4.5198735e-02
 -1.0624874e-01
  1.5775028e-01
  3.5054863e-03
  3.7314311e-02
 -1.1445063e+00
  2.4193814e+00
 -1.5457791e-02
 -7.3784667e-01
  7.8429019e-01
  5.7820362e-01
  1.1420541e+00
 -9.7270805e-04
 -9.5475113e-01
 -5.2024853e-01
  1.0553537e-01
 -3.9565779e-02
 -3.6302310e-01
 -8.3024772e-03
 -7.2008729e-02
 -1.8611898e-01
 -4.2473701e-01
  9.7892714e-01
 -5.9594963e-02
 -4.7598449e-03
 -9.4054490e-02
  2.9779458e-02
 -1.3880672e-01
  2.1755261e-02
 -6.8467073e-02
  1.8221203e-02
  3.6606228e-01
 -1.2252748e-02
  4.2806199e-01
  6.2399626e-02
 -1.1720197e-01
 -2.6989300e-02
 -4.6591324e-01
 -2.0945014e-01
  9.4705349e-01
  1.1534998e+00
  1.5212391e-01
 -5.5577916e-01
 -1.0236927e-01
 -7.4408144e-02
  1.1288961e+00
 -1.1509287e-01
 -1.6584976e-02
  8.2366072e-02
 -2.3574054e-01
 -1.0342363e-01
  4.4524189e-04
  2.4916360e-02
  1.7738755e-01
  4.5767430e-02
  7.0270002e-02
 -3.6301859e-02
 -1.2131815e-01
  2.9671030e-02
 -2.9003426e-01
 -6.2669814e-02
  3.0440418e-02
 -7.9208456e-02
  1.1750895e-01
  1.0942636e-01
 -6.1970249e-02
 -8.9152895e-02
  7.0551299e-03
  1.0733649e-03
 -2.5738977e-02
  7.6798652e-04
 -7.9741366e-02
  6.9596162e-03
 -5.4847505e-03
  7.3861564e-03
 -8.5438922e-02
 -1.1458595e-02
 -7.6429066e-03
 -2.0062448e-01
  3.7635952e-02
 -7.2665580e-02
  3.3356179e-03
 -1.0691141e-01
  8.2021570e-03
 -3.6190547e-02
 -2.2142906e-02
 -1.1407981e-01
 -3.6741756e-03
  4.3163512e-02
  1.0249735e-02
  3.6669601e-02
 -2.8202239e-02
  6.2700205e-02
 -3.8107042e-03
 -1.0586573e+00
  3.6492059e-03
 -3.2427665e-02
  1.4398497e-01
 -1.8082561e-02
  5.9868343e-02
  3.3307865e-03
  3.8410681e-01
  1.5340064e-03
 -4.1579047e-01
 -1.5651234e+00
 -3.6409639e-02
 -9.1967778e-03
 -7.9035091e-01
  1.5007132e-02
  8.0421224e-02
  8.1219459e-01
 -1.5949408e-02
  2.3904270e-02
 -1.4898965e-02
  5.1952824e-03
 -3.9164741e-02
  3.3761606e-01
  1.2048407e-02
  5.7042688e-01
  6.2237054e-02
 -2.2603829e-01
 -1.5592081e-03
 -5.2596405e-03
  2.0649504e-02
  1.3642940e-01
  4.4961938e-01
 -3.6906297e-03
 -9.3271518e-03
  3.6397044e-02
 -2.7119525e-02
 -2.7183749e-02
  3.1890456e-02
  5.7066038e-02
  1.5687275e-01
 -3.5434216e-02
 -1.9498937e-02
  7.3745467e-02
  2.5306832e-02
  3.3935595e-02
  9.8245397e-02
 -1.0071345e-01
 -4.1818187e-02
  8.8715732e-02
  1.6372703e-02
 -3.2227945e-02
 -2.1303030e-02
 -8.9353926e-02
 -9.2339717e-02
  1.3690937e-02
  1.5050398e-02
 -1.7726373e-02
  6.5245345e-02
 -1.0422236e-01
  1.1625041e-03
  3.7570778e-02
 -2.8334053e-02
 -1.6581820e-02
 -1.0410137e-02
 -3.4281619e-02
 -5.7735718e-03
  4.2228207e-02
 -9.8762233e-03
 -2.4598542e-01
 -6.9509544e-03
  3.4250818e-02
 -3.2271642e-02
 -3.1763965e-01
 -6.3331529e-02
  2.3800610e-02
 -2.4754477e-01
 -1.8285880e+00
 -2.8230733e-01
 -2.6784864e-01
  3.1874526e-01
  2.6088423e-01
  6.1722469e-02
 -1.2089591e-01
  5.2681798e-01
 -1.9843544e-01
  3.9161582e-02
  6.7691289e-02
 -2.5357372e-01
  6.7439786e-04
  8.3388090e-01
 -4.3405034e-02
 -5.4442398e-02
 -1.6691441e-03
  4.3085255e-02
  1.3364150e-01
  5.9168204e-03
  9.8937839e-02
  4.1285440e-04
  4.1879347e-01
 -1.4228367e-03
 -2.6604109e-02
 -3.1161126e-01
 -1.3290150e-01
  2.6924539e-02
  1.0482178e-01
  2.8501600e-02
 -2.8347583e-02
  4.3751445e-02
 -9.9284006e-03
 -2.6730138e-03
  8.6658210e-02
  1.0768009e-02
  5.2233178e-02
 -2.6186017e-02
 -1.4942043e-01
  9.9089235e-02
 -2.5162116e-02
 -2.7641010e-01
 -3.1669840e-02
  7.9998011e-03
  6.8663852e-03
 -1.9295469e-01
 -4.0435523e-02
  3.0805890e-02
  1.4139160e-02
 -5.7294980e-02
 -6.0768561e-03
  3.9404142e-01
  8.9716636e-02
  7.2418250e-02
 -5.7812887e-01
 -3.5232473e-02
 -6.9347478e-02
  2.9688567e-01
 -1.2377968e-02
 -1.2425045e+00
 -8.9017851e-03
 -5.3691596e-02
  9.7840399e-02
  2.8156145e-03
  3.7636843e-02
  2.1299146e-02
  3.2705264e-03
  6.9730142e-03
 -8.9774556e-02
 -4.5519631e-02
  2.8491363e-01
 -4.4609060e+00
 -3.4566879e-02
 -1.0932290e-01
  1.0504387e-01
 -4.9904171e-02
  1.3381490e-02
  7.2563805e-02
  8.5747607e-02
  4.7901005e-02
 -4.5866191e-02
  5.1043574e-02
 -2.7295947e-02
  8.3504170e-02
  6.5052286e-02
  5.6157999e-02
 -3.7868902e-01
 -5.5692784e-02
  4.5827121e-02
  3.1930137e-02
  2.0967213e-02
 -4.6907745e-02
  2.4235126e-02
 -2.0468559e-02
  9.8980941e-02
 -2.1572588e-02
 -3.8231257e-02
  5.1445168e-02
  3.4888105e-03
 -2.0377908e-03
  6.8642281e-02
 -8.8348977e-02
 -1.2652448e-01
 -6.3446745e-02
  7.3684230e-02
 -4.6493925e-02
  4.6106488e-02
 -2.4403196e-02
  5.5153143e-01
  2.1904269e-02
 -9.7996607e-02
  3.9665643e-03
 -2.9854290e-02
  4.4398770e-02
  5.5391295e-03
 -2.4692048e-04
  9.8785162e-02
 -1.0847369e-01
  2.5880201e-02
 -6.9118530e-04
 -2.1810450e-03
  4.1367788e-02
  1.3451746e-01
 -6.0559642e-02
 -4.5435678e-02
 -4.3982479e-01
 -6.7930864e-03
  8.6431444e-02
  5.1046025e-02
  1.4587450e-01
  7.4090093e-02
 -1.2181233e-01
 -2.9891921e-02
  3.9330840e-02
  7.8559909e-03
 -6.5494180e-03
 -4.0961914e-02
  1.2353272e-02
 -6.5685790e-03
 -3.5952400e-02
  7.6681495e-02
  5.0457506e-03
  3.5604265e-02
  2.4838899e-01
 -1.6714986e-01
  6.3360082e-03
  5.0118589e-03
  2.2170613e-02
 -1.5365057e-01
  1.7901629e-02
 -5.2952766e-02
 -7.7632643e-02
 -8.4267789e-03
  3.8936231e-02
 -3.6431730e-02
  8.7386649e-03
  4.1290969e-02
  3.4548819e-01
  5.6288522e-02
 -1.1266788e-02
 -4.2519048e-02
  2.0027949e-02
 -9.8886788e-02
 -3.7269375e-01
 -4.1513413e-01
 -6.8301447e-03
  1.0498894e+00
 -3.4096015e-03
 -1.4600937e-02
  2.9641027e-03
  1.6721891e-02
 -2.8595906e-02
  8.3017852e-03
  2.4897994e-03
  3.5388641e-02
 -5.1839393e-02
  7.6725081e-02
 -2.5666216e-02
 -7.2467804e-02
  4.9872760e-02
 -8.6489774e-02
 -1.1564062e-01
 -4.8278896e-03
  6.8731969e-03
  2.4572322e-02
 -6.4025290e-02
  1.7984714e-01
 -1.4557353e-02
  3.3915754e-02
  1.1189076e-01
  1.2193658e-02
  3.9541475e-02
 -2.3436785e-02
 -2.5984960e-02
 -2.0232454e-02
 -4.5392077e-02
  3.8153253e-02
  2.2476021e-02
  7.4429430e-02
 -1.1443850e-01
  1.2378091e-02
  5.0590503e-01
  1.5663864e-01
  5.6982394e-02
  7.7216759e-02
 -4.4459097e-02
  5.6889672e-02
  5.5790725e-03
  2.4580525e-02
 -5.3828042e-02
 -5.4832483e-03
  7.3910549e-02
  2.0653248e-02
  7.4268341e-02
  7.1677734e-04
 -4.2738955e-02
  2.2416112e-03
  6.5318115e-02
  1.5808629e-02
  4.6682946e-02
  3.4699540e-04
  3.4092754e-02
  6.3567475e-04
  3.8927296e-01
 -3.9360229e-02
 -1.8938120e-01
 -4.7736514e-02
 -3.7216574e-02
 -9.1646485e-02
 -2.9537019e-03
  1.5115169e-01
  1.4005969e-01
 -1.9028094e-01
  4.5417952e-03
  5.0748408e-02
  3.9876062e-02
  2.0961152e-02
 -2.5460348e-02
 -1.4920009e-03
  1.1360081e-01
 -2.3346497e-02
  2.7669441e-02
  1.3479064e-01
 -1.2871481e-02
 -3.4623130e-04
 -5.0752446e-02
  9.2419162e-02
  8.2495153e-02
 -5.4466635e-02
 -2.6881330e-02
 -2.6615951e-03
  2.1800660e-02
  2.5393164e-02
  4.0978547e-02
 -9.4808679e-04
  5.1503349e-03
 -5.8024269e-02
 -1.7709466e-02
  1.0864285e-01
  2.2391011e-01
  2.7274275e-02
 -9.5930365e-05
 -1.4692359e-02
 -1.5269968e-02
  8.2568765e-02
 -2.6628584e-02
  5.3488448e-02
 -3.3583574e+00
 -3.9923120e-01
 -1.1758734e+00
  1.9852549e+00
  2.9182320e+00
 -5.9310538e-01
  2.5110421e-01
  2.7951831e-02
 -6.3069111e-01
 -9.7165797e-03
  2.5281634e-02
 -6.2182419e-02
 -4.2077008e-01
 -3.3427536e-01
 -1.0826242e-01
 -5.9670224e-03
  8.2650948e-01
  3.8693115e-01
  9.1621103e-03
 -1.0478853e-01
 -1.5196932e-03
 -2.9843269e-02
 -1.5931039e-01
 -2.0139775e-01
  1.8280867e-02
  3.2532259e-03
 -4.7492292e-02
 -1.6873740e-01
  1.7506719e-01
  8.7598585e-02
 -2.7630119e-02
 -3.0418852e-01
 -9.8835677e-02
  1.7842442e-02
 -5.0183270e-02
 -5.9942079e-01
  1.3152429e-01
 -2.4027304e-01
  4.5352947e-02
  6.0569290e-02
  1.2385863e-01
  5.4366863e-01
  2.0358264e-01
  2.1290070e-01
 -3.0589718e-01
 -5.5604462e-02
  8.4749013e-02
 -3.2349713e-02
  8.3458900e-02
  5.2431248e-02
  3.7829697e-02
  9.1709442e-02
  2.4666409e-03
  6.5231867e-02
  1.3714874e-02
 -4.9761552e-02
  8.5900053e-03
 -1.4836058e-01
  1.2756369e-01
 -1.8281929e-01
 -2.4401981e-01
  4.6092916e-02
  6.7604622e-03
  1.7967980e-01
 -7.8575410e-02
 -2.5488297e-02
  2.6968341e-02
  1.9919419e-01
 -3.1422034e-03
 -3.4751499e-03
 -2.9204613e-02
  3.0391002e-01
 -2.3504802e-04
  2.1883638e-01
  1.3136898e-02
  1.1172628e-02
  6.9146240e-03
 -2.0625534e-02
 -1.5089754e-02
  1.2400559e-01
  1.0031825e-02
  6.1745024e-01
  2.5156817e-01
 -1.0895931e-01
  2.7985726e-02
  7.9375465e-04
  5.0163916e-03
  2.2789856e-02
  6.8213232e-02
 -5.6640133e-03
  7.5127870e-02
  1.6978084e-01
 -1.2875089e-01
  4.8778649e-02
 -1.6190780e-02
  2.9655913e-02
 -3.8675159e-02
 -9.4118334e-02
  1.9142398e-01
  1.0770485e-01
 -3.2990936e-03
  2.6556034e-02
 -1.0808419e-01
 -1.6268672e-01
  6.7279235e-02
 -4.8681330e-02
  1.2645991e-01
  2.0641364e-01
  2.8775124e-02
 -3.4829721e-01
  1.2132721e+00
  1.1958508e+00
 -2.5459364e-01
 -8.3268426e-02
 -1.1089069e-01
  1.2919655e-01
 -1.8127270e-01
 -1.2282192e-01
  3.5114016e-02
 -2.1694671e-02
 -2.8738817e-02
 -3.1515941e-02
 -2.9887882e-01
  2.6452312e-02
  1.8939780e-01
 -2.5767827e-01
 -1.0344988e-01
 -1.5438144e-01
  7.5286202e-02
  7.0931941e-02
  5.2428111e-02
  1.2984370e-01
  4.5863520e-03
  4.9689386e-02
 -1.0830005e-01
 -3.5848062e-02
  1.1553843e-02
 -4.1220304e-01
  7.8179695e-02
 -2.1161908e-02
  1.6053906e-01
 -1.8018968e-02
  2.0171025e-01
  3.3481757e-04
  1.4388180e-02
  2.5783043e-02
  1.9394381e-02
  1.7667900e-01
 -5.0700292e-02
  1.8330229e-02
 -1.2808135e-02
  5.0876312e+00
 -3.1727159e-01
  1.6511627e-02
  4.3520439e-02
  1.0406012e-02
  5.4102480e-02
 -2.0099418e-02
  3.0272487e-03
  3.0710587e-02
  7.7325903e-02
  9.7358087e-03
  1.3441672e-02
  2.4521023e-02
 -2.8831683e-02
 -3.9278533e-02
 -2.2331439e-02
  1.2410575e-01
 -9.0090428e-03
  1.7371196e-02
 -8.4996078e-04
 -1.4818367e-01
 -7.2271493e-03
  1.8457901e-02
  7.7328496e-03
  5.9107128e-03
 -2.9203890e-02
 -3.6475088e-02
 -4.3524504e-02
 -1.3789654e-02
  3.9152537e-02
  1.2564945e-02
 -8.1964985e-02
  3.1451587e-02
 -2.2848343e-02
  1.7384727e-02
 -6.6348761e-02
  1.0897705e-03
  2.2003347e-02
  5.9784625e-02
  4.2164501e-02
  1.5455851e-01
 -1.8301370e-02
  3.9383592e-03
 -2.1495963e-02
 -2.5735524e-01
  3.5971677e-01
 -1.1955960e+00
 -6.4250128e-03
  1.9078743e-02
  6.1883703e-02
  3.4405287e-02
 -3.0340689e-01
  7.2648898e-02
  3.6245320e-02
  2.4948349e-02
  1.2485775e-01
 -1.1472445e-02
  5.3808227e-02
 -3.1107684e-04
 -3.0334996e-02
  2.7165392e-03
 -2.2663698e-02
  2.6819820e-02
 -1.5728237e-02
 -1.2031236e-02
 -4.0227282e-01
 -1.5533452e-03
 -5.1945108e-01
 -1.7833337e+00
 -7.8547508e-01
  9.0956718e-01
  3.1358257e-01
  4.3539160e-01
 -2.0703942e-02
  6.1839664e-01
 -2.4111231e-01
  2.8839913e-01
  1.0852827e-01
 -8.7401301e-02
  2.5710893e-01
  3.5413649e-02
 -4.0088668e-01
  4.9016394e-02
 -3.2758463e-02
  8.6332913e-03
 -1.2002391e-01
  3.4604985e-02
 -2.6027884e-02
 -5.1781774e-04
 -1.3216533e-01
 -1.8391345e-01
  4.6307909e-01
 -1.2844507e-01
 -3.3861122e-03
  2.3042046e-01
  7.5295992e-02
 -2.2133487e-01
 -3.5563901e-03
  4.2802533e-03
 -8.3801532e-03
  6.7655660e-02
  8.4127232e-02
 -3.8349116e-01
 -6.5542655e-03
 -4.2562332e-02
 -7.6714228e-03
  2.5809370e-02
 -3.8275734e-02
 -6.8476517e-03
 -3.3047941e-02
 -3.3615730e-03
 -1.6676724e-02
 -1.5438612e-01
 -1.3814161e-02
  1.1551438e-01
 -5.8311284e-02
  1.3246441e-02
 -1.1287536e-01
  1.6762140e-01
  2.4467577e-01
 -8.8900942e-03
 -1.0631410e+00
 -2.0828204e-01
  6.5309770e-02
  1.0645749e-01
 -3.7821047e-02
 -1.1565223e-01
  4.0731791e-02
  4.9531519e-02
  5.5736624e-02
 -3.4320110e-03
 -3.3176184e-02
 -2.5586598e-02
  6.0621284e-02
  2.4437455e-02
  1.2623394e-01
 -1.0634763e-01
  1.9817725e-02
  3.4938354e-02
  3.0062830e-02
 -8.9757904e-02
 -1.1718840e-01
  7.0556730e-02
  5.9938766e-03
 -6.2682919e-02
  4.0465631e-02
 -5.0543710e-03
  7.0018098e-02
 -6.2623136e-02
 -1.0498839e-02
 -2.2543059e-01
  1.3484466e-01
 -4.2914364e-02
 -2.2901304e+00
  2.7333168e-02
 -2.2867903e-02
 -1.6187595e-01
  5.9728131e-02
  4.8098572e-02
  3.7149493e-02
 -3.7923343e-02
 -4.4352233e-02
  3.0484317e-02
  2.1215787e-02
 -8.2638338e-02
  1.9055648e-01
  8.5544297e-03
  1.5646994e-02
 -1.2102143e-01
 -7.0036470e-04
  1.2897780e-02
  5.2395713e-02
  5.7822410e-02
  2.7245363e-02
 -7.8589581e-02
 -2.2686644e-01
 -5.1392965e-02
  1.2687621e-01
  9.7887866e-02
  1.4942490e-01
 -3.7083298e-01
 -5.5555221e-02
 -5.7493090e-03
 -6.2727824e-02
  2.5916100e-01
 -5.6574225e-01
 -8.7248333e-02
 -3.2972762e-01
 -5.8283228e-01
  2.6739605e-02
  4.1444615e-01
 -4.1910622e-01
 -3.3485195e-01
 -3.2122505e-01
 -1.0017172e-01
  3.1053580e-02
 -3.1531715e-01
 -4.5872721e-01
 -6.2284458e-02
  1.0163094e-01
 -2.7883878e-01
 -3.5353598e-01
  3.7585747e-01
 -1.9106191e-01
 -3.3800986e-01
 -2.0325848e-01
 -3.8558185e-02
 -2.2134648e-01
  1.8328582e-01
 -1.9089410e-02
 -3.1559321e-01
 -9.5035426e-02
 -2.6847825e-03
 -4.5156315e-02
 -7.7252254e-02
 -1.6068606e-02
  1.0658015e-02
 -5.1273930e-01
  3.8477600e-02
  5.9797939e-02
  5.7473347e-02
  5.9050396e-02
 -1.2270730e-01
 -2.5227261e-01
 -3.1916998e-02
  8.3560674e-03
 -6.8280220e-02
  6.7397910e-01
  7.0365578e-02
  2.7222630e-01
  2.9052615e-03
 -3.4752410e-02
  2.3306921e-01
 -1.5799971e-01
  9.6996769e-02
 -1.3723426e-02
  1.7504182e-01
 -1.9414568e-02
 -5.3669095e-02
 -6.8973983e-03
  1.0421683e+00
  3.7156670e+00
  2.0597286e+00
 -6.6734649e-02
  7.9728499e-02
  3.9250519e-02
  7.5892285e-02
  4.6807200e-02
 -4.8879170e-01
  5.0931770e-01
 -1.0725131e-01
 -1.3072339e-01
  7.5130761e-02
 -1.0341959e+00
  9.9171627e-01
 -2.0751054e+00
  2.3812281e-03
  4.3732765e-01
 -3.8314022e-02
  7.4040823e-02
  5.1834166e-02
 -5.4844264e-02
  4.8777875e-01
  4.1245244e-02
 -6.2325102e-01
  8.7192819e-02
  6.6283327e-01
  2.3866320e-02
 -9.1437604e-03
  1.1200748e-02
 -1.4609261e+00
  4.5239112e-01
 -4.2948392e-01
  4.0791720e-02
  5.5150796e-02
  7.5860634e-02
 -1.1315757e-02
  1.2376616e-01
 -1.3476316e+00
  6.6315204e-01
 -3.4988355e-02
  2.6421529e-01
  1.0297867e-01
  5.8927637e-01
  2.7964348e-01
 -6.2824982e-01
  3.7854910e-01
  2.2130130e-01
 -3.3286524e-01
 -2.1076491e-01
 -4.5659742e-01
 -1.4150980e-01
 -4.9872288e-01
 -5.6445077e-02
  7.9973176e-02
  9.1930576e-02
 -2.0676848e-01
 -4.9523085e-02
 -1.9642867e-01
 -8.7728530e-01
 -1.9451225e-01
 -7.3978163e-02
 -1.2544893e-01
 -4.1804951e-01
  4.9328536e-01
  1.2412091e-01
  3.6220436e-03
  2.8771883e-02
  2.3811627e-03
  9.8121061e-04
 -1.6123718e-01
 -6.1404812e-01
 -3.9568055e-01
 -2.6808697e-01
 -1.2870547e-01
  9.5877516e-01
  3.0733001e-01
  1.2654839e-01
  1.8140380e-03
 -1.0494816e-02
 -5.2785045e-01
  3.6601022e-01
  2.0981586e-01
 -1.6381402e-02
 -5.4431403e-01
 -1.1637945e-01
 -7.2830808e-01
 -3.1053070e-03
 -6.6699706e-02
  2.6115407e-03
 -7.4710526e-02
 -4.1036293e-02
 -8.7780366e-03
  9.2602819e-02
 -1.8598771e+00
 -1.4683984e-03
  1.1558463e-01
  2.9885251e-02
  4.1478977e-02
  1.5587584e-03
 -4.6259675e-02
 -5.4557003e-02
  8.8031450e-03
  2.1657631e-02
 -4.0334690e-02
 -1.0178483e-01
 -2.4318805e-02
  1.8502229e-01
 -2.8048566e-02
  1.0206556e-02
  5.7001580e-02
  1.1455664e-01
 -3.4382675e-02
  2.4474796e-02
 -1.9318907e-02
 -3.6049809e-02
 -4.1886777e-02
  4.0106576e-02
  1.0321199e-01
 -3.8496032e-02
  5.6517948e-03
 -7.3413793e-03
 -3.9429940e-02
  2.7517090e-02
  7.6733399e-03
 -2.6629295e-02
 -5.7127647e-02
 -1.8386297e-02
  4.3466322e-02
  8.7543309e-02
 -7.7086918e-02
  3.1470377e-02
 -6.8257652e-02
  3.5428878e-02
 -7.4509541e-03
  1.7606853e-02
 -8.0907346e-05
 -1.2657580e-02
 -6.5122277e-02
  5.1613361e-02
 -9.2115825e-01
 -1.9499103e-02
 -1.9582130e-03
 -6.4584003e-03
 -3.5774812e-01
 -5.0140727e-02
  9.7385664e-03
 -3.6638957e-01
 -2.4821678e-02
  4.0983217e-04
  5.1681824e-02
  8.3417118e-02
 -1.1881082e-02
 -4.8070416e-02
  1.7546709e-01
  4.7010169e-03
 -2.7428214e-02
  1.6285095e-02
  8.3541565e-02
 -4.9799271e-02
 -1.4176518e-01
  8.1895934e-03
 -3.6564987e-02
  2.2840636e-02
 -2.1633886e-02
 -5.6653102e-03
  7.5839892e-02
 -3.4640428e-02
  4.9427047e-01
 -1.2019086e-02
  2.3291297e-03
  2.9011609e-02
  6.1473497e-03
  1.2713674e-02
  1.2751294e-02
  1.9608794e-02
  8.4194034e-02
  5.5436831e-02
  9.4954493e-03
  3.0032115e-02
 -4.2055533e-03
  9.7602280e-03
 -9.1438048e-02
 -4.5135920e-03
 -5.9857979e-02
 -1.3940897e+00
 -2.8934535e-02
  9.8477080e-02
  7.7347916e-01
  2.6029372e-01
 -7.8388289e-02
  5.6399688e-02
  1.3127185e-02
  2.0204814e-02
  5.2159410e-02
  5.9042138e-01
 -2.8062023e-02
  2.7651748e-01
  2.3562219e-02
 -2.6332116e-02
 -5.7393473e-02
 -2.9298115e-01
 -3.1976986e-01
 -8.4490776e-02
 -3.2651439e-02
 -2.7424452e-01
  1.5667947e-01
  1.0523302e-02
 -8.3540887e-02
  4.1794432e-03
 -4.3898273e-02
 -2.9258875e-02
 -4.0659279e-02
  6.9644116e-03
 -9.7144902e-02
 -1.2328611e-02
  5.2414067e-02
 -9.6169757e-03
 -5.3709067e-02
  5.4881680e-03
 -2.6286891e+00
  1.6305555e-01
  2.1099953e-01
 -9.7615626e-03
  1.1648855e-01
 -1.4059457e-01
 -2.9765196e-02
 -4.1577034e-02
  7.0167966e-02
  3.6724560e-02
  7.1681924e-02
 -2.4005948e-02
 -6.2426429e-02
 -3.4278683e-02
 -2.8120127e-02
  2.8668579e-02
 -1.1203228e-02
 -9.3985550e-02
 -2.4610038e-01
  1.3308214e-01
  4.4254057e-02
  3.9182186e-02
  3.9941534e-02
  4.1854464e-02
 -2.9231375e-02
 -1.4513525e-02
  9.1215827e-02
  3.5212196e-03
  2.6837739e-03
  4.9460698e-03
  7.5477466e-02
  2.5585840e-02
 -6.3639350e-02
 -2.7300067e-02
  3.2219905e-02
  5.2457727e-02
  3.4998041e-02
  3.6861616e-01
 -2.3516823e-02
  3.1189201e-02
  3.1388864e-02
 -1.1734939e-01
 -4.6000451e-02
 -2.9770123e-02
 -5.5826519e-02
  2.9276136e-01
  4.9601566e-02
 -3.3871699e-02
  1.1020803e-01
 -1.8685405e-01
  4.8463993e-02
  5.0697222e-02
 -2.1041539e-02
 -5.4803271e-02
 -2.7153699e-03
  6.3582107e-02
  2.0964164e-02
 -3.1122897e-02
  2.5512312e-02
  3.7198462e-02
  1.9559255e-03
  2.8910132e-02
 -3.4973301e-02
 -5.5130027e-02
  2.2910172e-02
  4.2847212e-02
 -3.5282303e-02
  6.5369904e-03
 -1.9128479e-02
  1.3759190e-01
 -3.6808927e-02
  7.3679155e-03
  5.1093824e-02
 -5.3348865e-02
 -1.7496638e-02
 -8.1379049e-02
 -2.1694404e-01
  9.7345226e-03
  4.9622681e-02
 -1.0325738e+00
  9.5667932e-03
  1.7162766e-02
 -1.9253807e-02
 -2.0975372e-02
 -3.5719272e-02
 -1.1127984e-01
 -4.4936273e-02
 -1.6175301e-04
 -1.3807697e-02
 -3.0055540e-02
 -1.7217051e-02
 -7.4691683e-02
  1.1880031e-02
  1.1849007e-02
  4.2171907e-03
  4.8585258e-02
  6.1388325e-02
 -3.8242985e-02
  6.4709865e-02
  7.2354324e-02
  1.7328541e-03
  5.7727817e-02
  3.4570567e-02
  1.0946192e-02
  3.5057396e-02
  2.2789367e-02
  9.0599786e-03
 -3.3382569e-03
 -7.2254362e-03
  9.5363528e-02
 -4.8284806e-04
 -4.3990459e-02
 -1.0087925e-02
 -4.3153904e-02
 -1.0319466e-02
  1.9736486e-02
  8.6829297e-02
 -2.7623517e-02
  6.6524940e-03
  1.5913377e-02
  3.6181158e-03
  2.4793835e-02
 -9.5910178e-03
  8.7895907e-02
  3.6015056e-02
 -2.4590774e-02
 -2.0192589e-01
 -1.0952602e-02
 -2.9992798e-02
 -6.8265036e-02
 -4.5751814e-02
  4.0993923e-03
  3.2701209e-02
 -4.2515554e-02
 -3.8491623e-04
  4.2922061e-02
  9.2904270e-04
 -4.9660856e-01
 -5.5750661e-02
  1.3905272e-01
  2.1321723e-01
  2.6801431e-01
  5.3291032e-03
  5.1707143e-01
 -3.3297711e-03
 -2.7735350e-01
  5.0414827e-02
  2.3148437e-01
  1.5755922e-01
 -1.9276718e-02
  5.1728711e-03
  1.0692466e-01
  1.3424096e-01
 -2.8958125e-02
 -3.2113820e-02
  2.7280161e-02
  1.7595550e+00
 -1.6465995e-02
  1.9444540e-03
  5.0411966e-02
  8.6921118e-03
 -1.0490061e-01
 -2.6334545e-02
 -1.2417969e-02
  2.3461115e-02
 -1.8512126e-02
 -4.9270868e-02
  1.1724588e-02
 -1.1889245e-01
 -2.2183137e-02
 -5.7265300e-02
 -9.7484939e-02
  1.2560305e-01
  1.5532893e-02
 -7.5646587e-02
 -1.0748646e+00
  4.5529433e-02
 -7.2718859e-02
  1.5440819e-01
  1.3869002e-02
 -2.0609602e-02
  3.0194280e-01
  9.1962991e-03
 -4.5665782e-02
  1.2530094e-01
  3.4286603e-02
  2.6205862e-03
 -2.9773660e-02
 -2.4798741e+00
 -3.8695347e-02
 -2.1310413e-02
  3.1469483e-02
 -1.8759373e-01
 -5.2617497e+00
 -1.6532917e-02
 -6.5937221e-02
 -2.5552925e-02
  8.2769305e-02
 -2.1183649e-02
 -5.1182166e-02
 -1.0396206e-02
 -7.5579606e-02
 -3.9256193e-02
  1.1656754e-01
  6.9061578e-03
 -2.9554779e-02
  7.3670179e-02
 -7.2145693e-02
  5.5996887e-02
  5.3428657e-02
  8.5094559e-04
  2.0012924e-02
  5.2480233e-01
 -4.9863558e-02
 -1.7998578e-02
  1.8337201e-02
 -1.0169570e+00
 -7.6728128e-02
 -3.7667871e-02
 -1.0602516e-02
 -3.7607107e-02
  9.7211051e-01
 -9.6258864e-02
  9.0184547e-03
 -7.8324750e-02
 -3.5390947e-02
 -8.3797976e-02
  2.1299319e-03
  1.0028738e-01
  7.0495869e-04
  1.5701072e-02
 -1.9977692e-01
 -1.1490461e-01
 -3.2416392e-02
 -2.5018115e-02
 -1.8346079e-02
  1.1476574e-02
  2.4831666e-02
 -1.8468989e-02
 -6.4659161e-03
 -3.2702230e-02
  7.3984782e-03
  2.4223322e-02
 -6.8871997e-02
  1.2430137e-01
  3.5524347e-01
 -1.2215117e-01
 -4.7519317e-01
 -8.2232337e-03
 -5.3216354e-03
  9.5520429e-02
  8.6750472e-01
  4.4025776e-01
  6.3099730e-01
 -1.1084913e-01
  4.8315073e-03
 -4.8742950e-02
 -3.3701763e-02
  1.2221777e-01
 -4.6020922e-01
 -2.1813186e-01
  9.3259528e-02
  1.4289567e-01
 -6.1475083e-02
 -7.7487394e-02
 -1.1516899e-01
  8.3240621e-02
 -2.8062159e-01
  1.9268281e-04
 -5.1046032e-01
  1.4543776e-02
  1.5168527e-01
  5.3098585e-02
 -5.3116620e-02
 -2.0921201e-02
  2.5465518e-02
 -1.0181911e-01
 -1.2125713e-01
  9.7102977e-02
 -4.7989763e-02
  5.8228794e-02
  6.3307688e-02
 -1.3152999e-02
 -2.1226060e-01
  2.6683766e-02
 -1.2796710e-02
 -2.5945643e-01
 -6.8645072e-01
 -9.0482444e-01
 -1.2113392e-01
  3.3240840e-02
 -1.3474971e-01
 -7.8529222e-03
  2.8998157e-02
 -7.8453980e-02
 -4.2691946e-02
  2.4416884e-02
  6.1374545e-02
  3.9752241e-02
  2.0861748e-01
 -3.0186733e-02
  1.8520127e-01
  9.6678259e-03
 -1.7863046e-02
 -3.3245033e-01
  4.6632719e-01
 -4.2723678e-02
 -5.7006937e-02
 -7.4622922e-02
 -1.3145950e-02
 -1.0452855e-01
  3.0063041e-02
 -3.8961019e-02
 -7.9397589e-02
 -1.8579556e-02
 -1.8203769e-02
  4.8874491e-03
 -1.5969251e-01
  2.7185781e-02
  2.0689854e-02
 -1.5657200e-02
  3.3375781e-03
 -9.3427077e-03
 -4.3623922e-03
 -5.2735969e-02
 -3.7972141e-02
  2.6499448e-02
  4.4004507e-02
  7.6091938e-02
  1.3190155e-02
 -1.1564990e-01
  6.4949763e-01
  2.9049106e-03
 -1.0092472e-02
  6.0205322e-02
  1.0715879e-01
  2.4276394e-02
 -1.1286237e-03
  2.9126758e-02
  8.0789395e-02
 -4.1988394e-03
  1.4271607e-01
  1.8266520e-02
 -2.3689942e-02
  1.2151398e-01
  1.4212996e-02
 -1.5645370e-02
 -1.2082411e-01
  2.1150816e-02
  1.7983830e-03
 -2.9000552e-02
 -3.6919929e-02
 -1.3068043e-01
 -1.0410577e-01
 -1.2966084e-01
 -2.3059184e-02
 -1.0859232e-01
 -2.8466305e-02
 -9.7300401e-03
 -3.4490369e-02
  4.5019060e-02
 -3.1197871e-04
 -1.9567229e-02
  1.0272992e-01
  1.4744902e-01
  5.1671998e-03
  4.1691151e-02
  1.4643310e-02
  1.0731676e-01
  1.2032042e-01
  4.1036725e-02
  7.8487266e-03
  7.3922133e-01
  2.0146608e-02
 -1.2106927e-01
  2.7397144e-04
  4.7167994e-02
  3.7100974e-02
  3.6407445e-02
  1.1691895e-01
 -4.5725301e-02
  2.2807417e-02
  2.5948374e-02
  1.1180472e-01
  7.6125592e-02
  7.4052095e-02
  6.8608716e-02
  7.9704016e-02
 -2.0235792e-02
  3.9083879e-02
  1.6265748e-02
  8.4904023e-02
 -1.7740179e-02
  4.3712899e-02
  6.2460443e-03
  7.7117197e-02
  4.1715469e-02
 -3.6280755e-02
 -2.1046074e-01
  9.3021013e-02
  3.7418280e-02
 -4.6033890e-04
 -7.3996030e-02
 -8.3172180e-02
 -1.3047668e-02
 -3.2219000e-02
 -1.1810902e-01
  2.6482359e-02
  2.9465895e-02
 -9.6554852e-01
  6.0144305e-01
  6.1773765e-01
 -1.2195056e-02
  2.4153848e-01
  2.6755671e-03
 -2.5059861e-01
 -3.5976991e-02
  1.7999330e-01
  2.1685375e-02
 -1.1845077e-01
 -6.8160839e-02
  5.5128347e-02
 -1.8727863e-02
 -1.1497797e-01
 -5.6343798e-02
  1.4160760e-01
  1.2223122e-01
  1.1165602e-01
 -7.8788333e-02
 -2.7985672e-02
  6.0243379e-02
  3.7497017e-01
 -6.5605950e-01
 -5.8419057e-03
  2.7821979e-02
  5.5833086e-02
  1.6677617e-01
  2.7291650e-01
  3.1255722e-02
 -9.3207794e-01
 -2.9667763e-02
 -4.0012446e-01
 -1.8281928e-01
 -4.2784609e-02
 -2.3919885e-01
  1.7826632e-01
 -4.2222813e-03
 -2.0277077e-02
 -7.7820234e-02
  3.9321879e-01
  1.8836139e-02
  4.0826036e-04
 -9.5336735e-02
  3.2428082e-02
 -5.8777649e-03
 -8.9487052e-03
  9.7331800e-02
  8.1392871e-03
 -5.9113535e-03
  3.3971908e+00
 -1.3283503e-01
 -3.1961620e-01
  6.3283525e-02
 -1.5864165e+00
  1.6646031e-01
  2.1110310e-01
  2.9069440e-02
  4.8217520e-02
  1.3384518e-01
  1.1615620e-03
  6.7437135e-02
  1.5625561e-02
  1.5467392e-02
 -2.3002919e-02
  4.1407034e-02
 -3.0324783e-04
  1.4316028e-02
 -6.2799551e-02
 -1.0678116e-02
 -1.0478689e-01
 -6.0783070e-02
 -2.8792554e-01
 -1.7147793e-02
  1.7909758e-01
  1.4031439e-01
 -1.3809091e-01
  9.7598592e-03
 -3.6184464e-02
  1.8213560e-01
  4.7601324e-01
  2.2888145e-01
 -2.8288649e-02
  9.5634319e-02
 -5.0750278e-02
  2.1100898e-01
  5.5473721e-01
 -1.7688662e-01
  1.6524518e-01
  2.0340487e-02
 -3.4835566e-02
  6.5682866e-03
  2.6778150e-03
  1.1882408e-01
  7.1991354e-02
  2.0480692e-01
 -7.7716865e-02
 -6.2674783e-02
  1.3827947e-01
  1.1751025e-01
  8.3389692e-04
  1.1225059e-01
  3.5416329e-04
 -3.1166642e-03
 -1.7491322e-02
 -3.5271499e-02
 -4.2858042e-02
 -2.4804188e-02
  4.3830168e-02
  1.1719393e-02
  3.2270089e-02
  1.7893227e-02
  1.4950748e-02
 -1.0472419e-01
 -3.7092639e-03
  1.6240681e-02
 -1.5708217e-02
 -1.6367245e-02
  7.0532814e-02
  1.8274074e-03
  4.5662560e-02
  2.9530648e-02
 -1.8236872e-02
  8.5599251e-02
 -2.2923157e-03
 -7.1849972e-02
  8.7105043e-02
 -2.2156432e-01
 -2.4238871e-02
  2.2815539e-02
  9.9395560e-03
 -6.0711276e-02
  8.8572294e-02
  5.6807544e-02
 -4.6346311e-02
  2.6737258e-02
  2.5343366e-02
 -2.2183543e-02
  3.9001462e-01
  1.0189381e-01
 -1.8448127e-02
 -2.2338545e-02
  2.2406403e-02
  5.0776256e-03
  2.0400563e-02
  3.3121153e-03
  9.6658997e-02
 -9.6209934e-03
  2.4264304e-02
  1.2260204e-01
  2.0609220e-02
 -1.0277276e-02
 -3.5767287e-02
  6.0644895e-02
  2.8833522e-02
  1.9871905e-02
 -1.3355753e-02
 -6.3455636e-03
 -7.8442365e-02
  5.2539248e-02
  1.4254323e-01
 -6.7732386e-02
 -1.3297402e+00
 -6.3379747e-01
 -1.6332678e-01
 -9.3335375e-02
  6.8337363e-01
 -2.7579707e-01
 -2.6537109e-02
  4.9789932e-02
  2.1666743e-02
 -3.5725404e-02
 -5.6674056e-02
  2.2326211e-02
 -5.9898379e-03
  1.2283664e-01
  1.7508434e-02
 -1.1228153e-01
 -1.3987711e-02
  9.1633901e-02
  4.4427767e-02
  4.6896294e-02
  7.4259073e-02
 -9.6137337e-02
  7.0225462e-02
 -6.1724033e-02
  5.9732467e-01
 -1.3328043e-01
 -2.6234783e-02
  4.6871878e-02
  5.2679427e-02
 -1.6228189e-03
 -4.3290067e-02
 -1.8828510e-01
 -2.8567227e-02
 -1.5333287e-02
 -1.3433100e-01
 -6.2586725e-01
 -4.2202550e-01
 -2.5186209e-02
 -6.7940235e-01
 -3.4293997e-01
 -3.2849722e-02
 -2.8202295e-02
  8.2199715e-02
 -8.2152861e-01
 -4.9355451e-02
 -9.2749754e-03
  1.7938869e-02
  5.3290240e-02
 -2.2172935e-02
 -9.9949457e-02
  4.2380448e-02
  2.7220018e-02
  1.3359562e-02
  6.5693021e-02
 -4.2609747e-02
  4.0100273e-02
 -2.2411624e-02
  8.9012645e-02
 -1.2469237e-03
 -6.3033247e-01
 -2.9890319e-02
  1.3927983e-03
  1.4813301e-02
  5.6831171e-03
 -6.0941963e-03
 -6.2821984e-02
 -1.1448974e-02
 -8.0555081e-03
  1.1478827e-01
 -1.6149677e-01
 -5.9180211e-02
 -3.7636090e-02
  7.9585202e-03
  8.7496117e-03
  2.5575545e-03
 -4.4028733e-02
  2.1417186e-02
 -4.5412965e-03
  9.0342529e-02
  3.0246060e-03
 -1.5963827e-01
 -1.3799813e-01
  6.0047984e-02
 -3.2536965e-02
 -9.3577644e-03
 -2.3976922e-02
 -4.0775713e-02
  1.4867110e+00
  3.2774368e-03
  2.5488254e-01
  9.6525736e-03
  7.4468479e-02
 -1.6234644e-02
 -3.1236773e-02
  3.5881824e-03
  1.6533306e-02
 -6.2581606e-02
  7.9672478e-02
  1.7476847e-02
 -1.7442949e-02
 -2.0646911e-02
 -1.5932989e-01
 -1.0834245e-01
 -5.2281782e-02
 -1.2569664e-02
 -1.2685519e-02
 -7.4197419e-02
  3.2343794e-02
  4.6066113e-02
  2.1646619e-03
  6.8122983e-02
 -3.1576384e-02
  1.2128359e-02
  1.2935373e-02
  5.4129136e-01
  3.6949996e-02
 -1.3806072e-01
  6.5551482e-02
 -6.6009862e-03
 -2.8955262e-02
 -1.2409040e-01
 -5.4066174e-02
  8.4121093e-02
 -8.9651734e-02
 -6.7655414e-02
 -4.4455766e-03
 -9.0192050e-02
  5.4727420e-02
  1.1457284e-02
 -5.0479516e-02
 -3.8560975e-02
 -1.0523586e-01
 -2.3820559e-02
 -1.0497072e-01
 -7.1573901e-01
 -7.3265083e-02
  7.4408102e-01
  2.2082040e-02
  6.8128675e-01
 -4.1678991e-02
 -2.1126297e-01
 -3.1074958e-02
 -1.5164101e-02
 -2.2854278e-02
  5.6834441e-02
  3.8426969e-02
  4.9518640e-03
 -4.1881189e-02
 -6.8667218e-02
  3.2031782e-02
 -4.6927199e-02
  1.3442197e-02
  8.7461416e-03
 -2.2411047e-02
  3.9758044e-03
  3.4083314e-02
  2.3222053e-02
  5.5277906e-02
  7.8765839e-02
 -1.1883561e-01
  8.5512973e-02
 -5.8169835e-03
 -5.1854912e-02
  1.5622513e-01
  1.1701452e-03
  7.4925311e-02
 -1.4542718e-01
 -2.6628373e-02
 -6.0902759e-02
  3.3557653e-02
 -4.4667657e-02
  1.3929579e-02
  1.9901238e-02
 -1.0029154e-01
  3.6655001e-02
  4.6922982e-02
 -2.4013761e-02
  4.2331278e-02
 -5.3166810e-02
 -3.0920869e-03
 -2.7522359e-02
 -4.9221432e-03
  2.3609990e-02
 -6.3519073e-03
  4.5831345e-02
  1.2167064e-03
  7.7890768e-03
  1.2868006e-02
  1.6065696e-02
  2.0267749e-02
 -2.3351416e-02
 -1.9485053e-02
 -2.3936141e-02
 -4.3843642e-02
  1.0095587e-01
  3.6768571e-02
  2.1526071e-01
  5.8543313e-02
  2.9375800e-01
 -3.9429411e-02
  1.4840419e-02
 -8.6397350e-02
  1.6059630e-02
  3.9963156e-02
 -8.0922268e-02
 -4.8194632e-02
 -8.3406586e-03
 -7.0279382e-02
 -3.3674091e-03
 -6.8321280e-02
 -1.1798081e-01
  2.3525598e-02
  1.1728861e-01
 -4.7720045e-02
 -8.7327445e-03
 -3.9102457e-02
  6.8836844e-01
 -7.4910700e-02
 -2.7447775e-02
 -1.3842854e-01
  2.9153237e-02
  1.7350449e-01
  1.0322079e-02
 -5.7298768e-02
  5.8306744e-03
 -1.7774956e-02
 -1.1671864e-01
 -1.1741491e-02
  8.9229289e-03
 -1.5721150e-02
 -1.3310412e-01
  2.2894282e-02
  4.0343188e-02
  3.7486889e-04
  1.1588135e-01
 -2.6313772e-02
 -4.7687748e-03
 -3.9842643e-02
 -1.6107726e-03
  7.3708864e-03
 -7.0759901e-03
 -3.6540762e-02
 -1.3487040e-01
 -3.8397800e-02
  1.7280878e-02
  1.0224009e-01
 -3.9788119e-02
 -9.9766962e-03
  1.5081319e-02
 -3.1720608e-02
  1.5639909e-02
  1.2682813e-01
  1.1060235e-01
 -6.1442643e-01
 -6.2570512e-02
  3.9706986e-02
  6.8434656e-02
 -4.4688284e-02
  3.8788881e-02
  1.7752303e-01
  3.9128907e-02
  6.5197840e-02
 -5.5291383e-03
  3.0262571e-02
 -1.0683110e-02
 -8.0986626e-02
  1.2285344e-01
 -7.1563736e-02
 -9.8936446e-02
  8.0314755e-01
  3.5157686e-01
 -2.2229195e+00
  5.8004741e-02
  1.1877372e+00
  1.5669117e+00
 -6.9746733e-02
  1.2074010e+00
  9.5675528e-01
  1.1632484e+00
  8.2222953e-02
 -7.4084312e-02
 -1.7329536e-01
  8.7807506e-01
  3.1975538e-02
  1.9837536e-01
 -1.4038699e+00
  1.5965688e-01
  7.4524418e-02
 -6.7001022e-02
  2.7215470e-02
  2.6312418e-02
  8.9718603e-02
 -2.6399073e-01
  5.5732988e-03
 -8.0706723e-02
  2.2978359e-01
  5.1282984e-01
 -1.5476888e+00
  1.2691933e-02
  8.9406407e-01
 -5.9015002e-02
  4.5158505e-01
  6.9160670e-01
 -1.7774193e-01
  3.2553127e-01
  5.8888376e-01
  5.1300871e-01
 -4.0278253e-01
 -4.0139511e-02
 -7.9976050e-03
 -1.9823937e-01
  2.1083817e+00
 -4.2011398e-01
  3.9745238e-02
  8.5232243e-02
  3.0676210e-02
  1.4054068e-02
  5.3170864e-02
  6.4418264e-02
 -4.1496838e-03
 -4.6541978e-02
 -6.2879682e-02
 -1.0234038e+00
  1.3941828e+00
 -2.3320140e-01
  8.4372288e-01
  1.3644462e+00
  4.4224916e+00
 -2.7428238e+00
  4.1118720e-01
 -3.8512611e+00
  5.6933738e-02
  3.4167355e-01
 -5.8908719e-01
 -5.5807555e-01
  8.8622046e-01
 -2.8274812e-02
  9.8499769e-01
  1.3107900e-01
  3.4702712e-01
 -1.1205345e+00
 -8.8466042e-01
 -1.1832082e+00
  2.5150931e-01
 -2.5779637e-02
  2.8080302e-01
  2.2252994e+00
  4.8344675e-01
 -3.2810993e-02
 -1.7794414e+00
  8.6399394e-01
 -7.4431551e-01
  5.4529655e-01
 -3.1275845e-01
 -8.5688400e-01
  3.6403677e-01
  6.8087113e-01
  9.8347163e-01
 -2.3422277e+00
  1.1894544e+00
 -2.1772430e+00
 -5.9802532e-03
  2.2968568e-01
 -8.6424941e-01
  1.9802488e-01
  1.1682209e+00
  3.7609243e-01
  4.9673017e-02
  2.6714939e-01
  1.0088186e-01
  1.7798324e-01
 -1.3725010e-02
 -4.0780302e-02
  8.5408218e-02
 -6.2867530e-02
 -4.6710242e-02
  4.8266836e-02
 -4.2375270e-03
 -2.1259573e-01
 -1.0146295e-01
 -3.5652868e-02
 -6.7039885e-02
 -8.0193579e-02
 -5.9178982e-02
 -4.2170471e-01
 -2.7846867e-02
  1.1398152e-02
 -1.5335627e-02
  1.7444140e-03
  2.5039144e-02
 -6.6084690e-02
  9.4579821e-03
  5.7661552e-03
  1.7135400e-01
  5.6569006e-02
 -9.3570784e-02
 -6.9628440e-02
 -5.1262430e-03
  1.7059373e-02
 -4.6699703e-02
  8.4640734e-02
  1.7392221e-03
 -4.8356328e-02
  1.0662737e+00
  9.7533040e-02
 -4.3650765e-02
 -1.1299277e-01
  2.2718461e-01
  9.5113283e-03
  4.7266421e+00
 -1.9120862e+00
  1.2523346e-02
 -3.8760122e-02
 -1.3489251e-01
 -2.1197623e-02
 -7.5627260e-02
 -2.8878273e-02
 -3.4077644e-02
  1.3142855e-02
 -1.3290428e-02
  4.3156814e-02
  1.4553864e-02
  1.3273440e-01
  3.1354949e-01
  2.9418292e-03
  2.1690873e-02
  1.2591369e-01
  3.4227151e-02
  3.4784444e-02
 -6.2098317e-02
  1.5150784e+00
 -2.1988638e-02
  4.1132193e-02
  2.6517135e-01
  1.9574173e-02
 -3.0759616e-02
 -1.1876576e-01
 -1.8615919e-01
  1.9330876e-03
  1.5922917e-02
  1.3201847e-02
  6.3002542e-02
  7.4504927e-02
 -3.5238791e-02
  2.9332992e-03
 -1.2340768e-03
  4.4365291e-02
  8.1896313e-02
 -1.1887874e-01
 -5.5363681e-03
  2.0328535e-02
  8.7664593e-03
  6.8407506e-02
  1.3484255e-02
 -6.0326681e-02
  2.1263182e-01
 -1.5516459e-02
 -6.0539045e-03
  2.5369452e-02
 -1.1738885e-04
 -3.1729259e-02
  8.8755703e-03
 -1.1201267e-01
 -6.5102383e-02
  6.5615818e-02
  7.7509090e-02
  4.0322922e-02
  4.2258386e-02
  3.7310962e-02
 -3.6523377e-03
 -2.3719035e-02
 -4.3042847e-03
 -1.9020403e-02
 -1.5121682e-01
  6.3536167e-02
 -2.9468858e-03
  1.1202575e-02
 -2.2392817e-02
  8.4875815e-02
  1.2144447e-02
 -1.8685417e-02
  1.7391425e-02
 -1.8764945e-02
  2.0604931e-02
 -4.6526898e-02
  1.7012499e-02
 -4.6791319e-02
 -1.0324457e-02
 -7.8472465e-02
 -3.9649300e-02
  2.1626996e-02
 -5.1128939e-02
  1.7380495e-02
 -7.5122803e-03
 -6.1472645e-04
  2.9260428e+00
 -3.3456746e-02
  5.4796068e-03
  3.4479797e-02
 -2.6498370e-02
  3.8771222e-03
  2.2057472e-02
  5.4776347e-03
  4.0313810e-02
 -3.7417669e-02
  1.0667304e-02
  3.0584158e-02
  1.3227193e-01
 -2.0136230e-02
 -2.6625600e-02
 -4.1342232e-02
  2.2800960e-02
  7.7469945e-02
  2.7261984e-02
  1.6282724e-02
  4.7223214e-03
  2.8508839e-03
 -2.3750719e-01
  4.9072172e-02
 -1.7246190e-02
  3.1077169e-02
 -8.2157679e-02
 -1.0737733e-01
  4.0873051e-02
 -3.2917481e-02
  2.5443174e-02
 -3.9318997e-02
 -2.4618419e-02
  1.0707508e-02
  1.0454959e-01
  1.3092984e-02
  7.5726798e-03
  4.4025708e-02
  5.9840941e-01
 -2.2093628e-02
  1.2866580e-02
 -2.8038841e-01
 -2.5286553e-02
  1.7483866e-01
 -2.2236072e-02
  2.4113694e-01
 -2.8899744e-01
 -1.4263591e-01
 -4.2750269e-02
  3.0133519e-01
 -9.5435772e-03
 -9.7761393e-02
  1.6097981e-01
  8.4284637e-03
 -8.7955326e-02
 -5.5071432e-02
 -1.3903874e-02
  5.4385923e-02
  3.3175286e-02
 -4.9472947e-02
  2.4204234e-02
 -3.2074347e-02
 -6.5958336e-02
  1.3548040e-02
 -6.1889399e-02
 -5.4087806e-02
  1.5076803e-02
 -4.7024149e-02
  1.2435934e-01
  4.2344727e-02
  5.3236317e-02
  3.2049254e-01
 -1.6988987e-03
  1.1270683e-02
 -1.1624540e-01
  1.6454399e-02
  1.3860084e+00
 -3.4189943e-04
 -1.3480342e-03
  4.2226247e-02
  1.2862750e-02
  1.8593534e-03
  2.5004966e-03
 -7.8171097e-02
 -7.1989452e-03
 -3.0551922e-01
 -4.5422586e-03
  2.2470097e-03
 -3.6690950e-02
 -1.8010715e-02
 -1.6596697e-02
 -1.6754168e-01
 -2.2297071e-02
 -4.2979952e-02
  2.3599731e-02
 -2.1424559e-03
 -1.0810456e-01
 -1.4568280e-01
 -3.9029613e-01
 -3.5176471e-01
  1.1366750e+00
  1.9398659e+00
  1.9218931e-01
 -6.6252780e-01
 -5.9821808e-01
 -1.6727580e-01
 -3.1264162e-01
  6.0660678e-01
  3.6363974e-01
 -7.2943830e-01
  5.3309226e-01
 -1.0915180e-01
 -3.8020751e-01
 -3.4575894e-02
  8.5304044e-02
  5.1745903e-01
  1.2058541e+00
  5.6571517e-02
 -4.9652919e-02
  4.3205982e-01
  8.3681756e-01
  1.7943579e-01
  1.5066798e-02
 -6.4946868e-02
  1.8107060e-01
  8.0209941e-01
 -1.3689563e-01
  5.7884496e-01
  1.5486747e-01
  3.0981332e-01
 -7.7747625e-01
 -8.7631777e-02
 -4.1131279e-01
  2.4074385e-01
  1.5985942e-02
 -1.3683687e-01
 -5.8810502e-01
 -3.4205917e-01
  4.2122677e-01
 -5.7268488e-01
  4.1331515e-02
 -1.4222124e+00
 -5.3574346e-02
  2.7241871e-01
  6.2244941e-02
  3.7118372e-02
 -7.4011274e-04
 -3.2085072e-02
  2.8655738e-02
 -3.8781196e-02
 -2.2530854e-01
 -1.6804913e-02
  7.9023555e-02
  3.6141798e-02
 -3.1517267e-01
 -7.9894193e-02
  2.3812850e-01
 -1.5131104e-02
  2.8549597e-01
 -2.7974792e-02
  8.5615575e-02
  1.3275585e-01
  9.0458147e-02
 -1.8142022e-01
 -7.3289037e-02
  9.2106029e-02
  1.5320581e-01
  1.2496424e-01
 -5.5716846e-02
  1.5750466e-02
  4.0397674e-01
  4.3059230e-02
 -1.9885190e-02
  7.0698492e-02
  1.2657785e-01
  6.7546630e-01
 -2.2008522e-01
 -2.2360438e-01
  2.4460140e-03
 -1.1815581e-01
  6.4356282e-02
  1.1809544e-01
  2.2922143e-01
 -2.4666065e-01
  1.2009190e-01
  3.1105128e-01
 -4.8622096e-01
  1.5858484e-02
  5.0324150e-03
 -6.5629311e-02
 -6.8884133e-03
 -5.9723347e-02
 -2.0916553e-02
 -1.9418284e-01
  2.8879213e-01
 -6.5019447e-01
  6.6475302e-02
  6.7384437e-02
 -1.3180145e-02
  7.4320078e-02
  1.1992899e-01
  4.7958832e-02
  1.7774634e-01
  5.5340506e-02
 -1.3431194e-01
 -2.4171485e-02
 -4.6872213e-02
  3.3314154e-01
  1.1101928e-01
 -9.5421880e-02
  5.2232072e-02
 -6.2428564e-02
 -1.1871237e-01
 -3.8364250e-02
  2.2559659e-01
 -2.4235113e-01
  4.1060168e-03
  1.8726584e-02
 -6.7524046e-02
 -3.1465441e-03
 -2.8014165e-01
  2.0042831e-02
  1.4242093e-01
 -9.1857940e-02
  1.3615991e-02
 -4.1587576e-02
 -8.7754481e-02
 -9.1197871e-02
  5.6182281e-03
 -5.5568829e-02
  6.3223923e-03
  8.9077726e-02
  4.5007076e-02
 -2.6462445e-02
  1.9222608e-01
 -1.4422092e-02
  4.9088862e-02
  1.0806124e-02
 -2.1505775e+00
 -1.7805582e-02
 -1.8120224e-02
  1.6470790e-02
 -8.4606921e-03
  1.7036643e-02
  7.0122465e-02
  1.8490508e-02
  2.2729648e-02
 -5.2886009e+00
  1.2300516e-01
  5.4516323e-02
 -4.1308768e-02
  2.0860291e-01
 -7.2334401e-02
 -3.6250524e-02
  5.1320214e-02
 -4.2381439e-02
  1.6058652e-02
  3.2347046e-02
 -2.0219892e-01
  2.1230219e-01
 -5.1207322e-01
  3.2785708e-01
 -4.9241584e-02
  3.8551640e-02
 -3.8894597e-02
  4.5004782e-01
  3.0898464e-01
 -1.0362545e-01
  4.7269978e-02
  3.3536297e-01
  1.3603260e-01
  5.7270401e-03
 -3.1533097e-03
 -2.0971195e-01
 -2.4438292e-02
  1.8329699e-01
  1.7229074e-01
  7.0380878e-01
 -2.1942645e-02
  1.3834096e-01
  1.3376325e-01
  2.2686614e-02
 -2.5097125e-03
 -7.3912814e-02
  2.0986604e-02
  1.5822469e-01
  1.4204587e-02
 -9.0428896e-04
 -8.7761596e-02
 -3.4046902e-03
 -1.4328416e-01
  1.5318951e-01
  3.0014720e-02
 -1.1209603e-01
  1.5692882e-01
  3.7570521e-02
 -6.7615002e-02
 -1.1814377e+00
  6.3243002e-02
  5.1763903e-02
  2.4148447e-03
  3.1845912e-02
  7.7095461e-01
  1.5911916e-02
 -1.1210956e-02
 -5.6452220e-03
  9.9410035e-02
 -4.0155713e-02
 -1.7831624e-01
  7.8146331e-02
  3.2524947e-02
  6.9097392e-02
 -2.3786451e-05
  3.5771075e-01
 -2.5781859e-02
 -1.6560884e+00
  2.8583461e-01
 -1.4659511e-01
 -9.2645779e-02
  2.0500734e-01
 -4.3253846e-02
 -5.5978717e-03
  6.8841919e-02
  6.0028959e-02
  6.9614425e-02
 -4.7458105e-02
  3.9995844e-03
  8.2263863e-03
  9.3069496e-03
  2.1185173e-02
 -1.2595622e-02
 -1.6298648e-02
 -9.8853119e-02
  3.8090751e-02
  2.9547857e-03
  1.3712468e-02
  3.4311390e-03
  1.5443658e-03
 -2.7543819e-02
 -4.7500744e-02
 -2.1892898e-03
  6.2208515e-02
  5.1604927e-02
 -5.6375731e-02
  2.4981130e-02
 -2.9268049e-02
  4.7591520e-03
 -4.5693152e-02
  2.6600899e-02
 -1.0141988e-02
  5.4974534e-02
  8.5467525e-02
  1.0729076e-01
  1.3868174e-01
 -9.4739988e-02
 -8.8928121e-01
 -5.1006828e-03
  7.2801113e-02
 -3.1165522e-02
 -8.1300952e-02
  3.0496400e-02
 -3.9293077e-03
  2.0544446e+00
  2.1711318e-03
  6.9155082e-02
 -3.6161162e-02
  1.4168814e-04
 -8.7732345e-01
  3.8495430e-01
 -3.9328173e-01
 -2.8401393e-01
 -1.3513248e-02
  1.2945465e-03
  6.4271867e-01
 -1.6529727e-01
  1.4478224e-02
  2.7257431e-02
  1.6012990e-01
 -4.4646915e-02
 -3.7363453e-03
 -1.0959857e-01
 -3.2681618e-03
  8.0693436e-01
  2.0069018e-02
 -3.7496205e-02
 -3.2487216e-03
  2.8350428e-01
  2.7307072e-01
  4.7505178e-02
 -3.7445335e-03
  1.8044132e-01
  7.9054260e-01
 -1.5277100e-01
 -1.0857627e-01
 -7.4993819e-02
 -2.2510481e-01
  3.9433323e-02
  3.9884951e-02
 -1.1295263e-01
 -3.9094889e-01
  6.0996717e-01
 -8.5758984e-02
  3.3071369e-02
  7.0763312e-02
 -1.4208746e+00
  6.3032391e-03
  9.3151107e-02
  9.9979647e-02
 -1.1578608e-01
 -1.5136768e-01
 -9.2601873e-02
  1.0284370e-01
 -2.3698527e-02
  4.2204663e-02
 -4.0072943e-03
 -3.2278176e-02
 -3.1819362e-02
  5.6128502e-02
 -5.8691453e-02
 -8.1559941e-02
 -3.9055675e-02
  2.9892569e-02
 -2.8141757e-02
  1.0674034e-01
 -5.1130924e-02
  1.5296648e-02
  7.7609770e-02
 -6.1761171e-02
  2.9854447e-02
  7.9720497e-02
 -1.0404170e-01
  2.5108069e-01
  2.7924906e-03
 -1.0398374e-01
  2.1418314e-03
  2.4742037e-02
 -1.7465677e+00
 -5.9920877e-02
 -1.9474244e-01
 -7.9513133e-02
 -3.2426294e-02
  6.8197839e-02
  3.5465311e-03
 -7.0422036e-03
  5.1059127e-02
 -8.5547283e-02
 -2.2619149e-02
  3.5755076e-02
  4.4705439e-02
  9.8852701e-03
  1.6833496e-01
  2.7829405e-02
 -6.1119374e-02
  1.6321355e-02
  2.3543026e-02
 -2.1961842e-02
  1.6015157e-02
  3.5035491e-02
  1.1553641e-01
  6.5046221e-02
  4.9383055e-02
  4.5803875e-02
  1.6796072e-01
  4.9679219e-03
  1.7470745e-02
 -2.1463516e+00
  3.4459040e+00
  4.4619609e-02
 -1.5583473e-02
 -1.4210573e-01
 -3.3207114e-03
  1.3487682e-02
 -3.9702382e-02
  7.4594297e-02
  6.4998873e-02
 -6.7377582e-02
  6.7493692e-02
  8.3951414e-02
  1.6618368e-01
  4.6093740e-02
  1.6211269e-02
  5.6297332e-01
 -1.3178487e-02
  9.7084612e-02
 -1.1438085e-01
  2.4847891e-02
  7.9532980e-04
  3.1247370e-02
 -5.0094974e-01
 -1.6615817e-02
 -8.0292217e-02
  9.6728466e-03
 -4.3361258e-02
  2.1792226e-02
  2.9422298e-02
 -5.4555334e-02
 -1.1063681e-02
 -8.8325761e-02
 -6.9703609e-02
  3.1826138e-02
 -9.7730912e-02
  4.6567107e-03
  9.9554127e-03
  4.4305194e-03
  2.2390299e-02
 -4.1961435e-02
  7.1870871e-02
  4.0828446e-03
  1.1636069e-02
 -3.3751089e-02
 -8.7421834e-02
 -6.6095553e-03
  7.8682594e-02
 -4.3236651e-02
  3.9389551e-02
 -1.3560465e-02
  4.3846242e-02
 -1.2339015e+00
  3.4173720e-02
  7.6442986e-04
 -8.1592590e-02
  4.8214760e-02
 -3.6378965e-01
 -1.3341365e-03
 -9.7539118e-03
  2.2620762e-02
 -6.9017909e-02
  4.2552403e-03
  8.1165507e-03
 -5.2911632e-02
 -2.9669650e-02
 -1.4554411e-01
  2.1929685e-02
 -3.7730291e-02
 -7.7810869e-02
 -4.7135182e-02
 -6.2891045e-03
 -6.2339868e-02
  6.9397822e-02
  6.0941759e-02
  1.3920510e+00
  8.4156893e-02
 -1.8151988e-03
  1.3283676e-01
 -2.2951309e-02
  1.6013711e-03
  8.7303370e-02
  3.9980028e-02
 -3.0601893e-02
 -9.0283509e-03
 -3.5966739e-02
  2.1804245e-02
 -1.3492512e-02
 -1.6883487e-01
 -1.6834980e-02
  3.0650806e-01
  2.1687174e-02
 -8.5244561e-03
  1.9452162e-02
 -1.2353420e-02
  1.0247066e-01
  2.5296597e-02
 -2.8109802e-02
  1.2135237e-01
  4.8035897e-02
 -6.2578246e-02
  6.2959105e-02
  4.9028032e-02
  1.0215571e-02
 -3.0969718e-02
  2.5685833e-04
  9.6242078e-02
  3.1671535e-02
  6.5432326e-03
 -4.0654976e-02
 -3.8115222e-02
  6.7073382e-02
 -1.3578840e-02
 -2.4529594e-01
 -2.6669130e-01
 -9.3941214e-03
 -3.1365152e-02
 -2.3355143e-02
  8.9496398e-01
 -2.5279732e+00
  1.1678070e+00
 -3.5082778e-01
  1.3384002e+00
 -1.3330532e+00
  2.0030749e-01
 -1.1647507e-02
 -1.0868972e-02
  2.6521876e-01
  2.0846547e-01
  8.1467545e-01
 -1.7871823e+00
 -2.8392431e-01
 -4.0810341e-03
  6.8873796e-03
  8.3174348e-02
 -6.4079635e-02
 -5.5927545e-02
 -9.9293232e-01
  5.5635828e-01
 -5.5142948e-03
 -1.0273242e-02
 -4.2370800e-02
  7.0323572e-02
 -4.5261037e-01
  1.7548180e+00
 -1.3761820e+00
  4.9998006e-01
  3.0924958e-01
 -1.4925878e-01
 -7.2795711e-02
 -1.5462539e-01
 -2.4267346e-01
 -5.2691206e-02
  3.5105616e-02
 -1.8627883e-01
 -1.7843947e-01
 -1.1235552e-02
  4.4074585e-03
 -2.8946975e-01
  2.7276351e+00
 -1.5737249e-02
  3.0140892e-01
  5.0708920e-01
 -1.0875894e-03
  4.3657351e-02
 -1.9137211e-03
  5.1415104e-02
 -2.6417354e-02
  9.6051507e-02
 -1.9577421e-02
  2.7906422e-02
  6.5030999e-02
  2.3072967e-01
 -1.4618337e+00
 -2.8420755e-01
 -2.3225152e+00
 -9.4394737e-01
 -1.3193911e+00
  6.2243259e-01
  2.8323314e+00
  2.1589634e+00
 -1.1484730e-02
  3.2753462e-01
  3.2912967e-01
  1.1656014e-01
 -3.4949478e-02
 -7.6186579e-01
 -1.8185136e-01
  1.7688826e-01
  4.7020465e-01
 -1.8046977e-01
  6.3855082e-02
  4.7473592e-01
  4.9084544e-02
  8.9171708e-02
 -8.5297990e-01
 -6.9474173e-01
  2.0945493e-02
  2.1251054e-01
  1.6759177e+00
  5.0842214e-01
  2.6906794e-01
 -3.1124803e-01
 -6.5054190e-01
 -3.1159663e-01
 -1.2733998e+00
 -1.5097955e+00
  1.7061225e-01
  7.1378946e-01
 -1.0074805e+00
  1.2886198e-01
 -1.9461380e-02
  2.7615291e-01
  2.4838314e+00
 -8.2055539e-01
 -3.5533862e+00
 -8.8507539e-01
 -2.3659477e-02
  3.6632720e-02
  4.6390254e-02
  3.3352073e-02
 -2.4724001e-02
 -2.1126358e-02
 -6.0126819e-02
 -2.9875079e-02
  3.5490248e-01
 -5.6401100e-02
 -1.2912570e-01
 -3.1626555e-01
 -6.1298972e-01
 -3.1255555e-01
 -3.1941783e-01
 -8.5965283e-03
 -4.0515520e-02
  1.1763490e-01
  1.3603835e-01
 -4.4788662e-02
  4.1435391e-02
  2.9613572e-01
 -1.0681423e-01
 -4.6330073e-01
 -9.6809380e-02
 -3.3230916e-02
  3.6332186e-02
  1.5211037e-02
  2.8840858e-02
  4.0305734e-01
  2.3202770e-03
 -2.9815909e-02
 -3.8047686e-02
  3.1291220e-01
  4.8324779e-02
  5.5764955e-02
  8.3243763e-03
  4.0779027e-01
  2.1689744e-01
  1.3994073e-03
  4.2528752e-02
  7.1036673e-01
  2.1864894e-01
  4.7268814e-01
  3.0530882e-01
 -2.6385126e-01
 -2.2053401e-01
 -9.4144501e-02
 -9.8854937e-02
 -3.7223560e-01
 -2.0459731e-01
 -9.1563851e-02
 -6.4767315e-03
  3.2796252e-01
  4.3974306e-02
 -6.1961181e-02
 -7.3225745e-03
  4.1035794e-02
 -8.8265792e-02
 -1.1038185e-01
  4.5972958e-02
  6.2560216e-02
  1.0302468e-01
 -2.6217905e-01
  4.1792539e-01
 -1.1846907e-01
 -3.6998469e-01
 -4.1458298e-02
 -2.6508735e-02
 -7.7068038e-02
  7.6933399e-02
 -1.1503072e-02
 -1.4931096e-02
 -4.1937191e-02
 -1.2161165e-02
 -2.9974410e-01
 -6.9727525e-02
 -2.1842337e-01
  4.6073128e-02
 -3.1090528e-02
  7.6594569e-02
  6.2195342e-02
  3.9455853e-02
  1.3661547e-02
 -8.7758740e-03
 -1.1590823e-02
  3.8324878e-02
  1.9515086e-02
 -1.6902842e-03
  1.0093496e-02
 -1.1450208e-02
  4.4539911e-03
  1.7377475e-01
 -4.5269739e-02
  3.1138377e-02
 -3.2063207e-04
 -2.5883958e-01
 -5.8616977e-02
 -1.0879392e-02
  3.2195512e-02
  1.1741913e-01
  1.2088668e-01
 -3.3951677e-02
  2.7558530e-02
  1.4402974e-01
  2.2297303e-01
  5.4563060e-02
 -1.0126194e-03
 -1.8398398e-01
  1.5376622e-02
  3.8905360e-02
 -1.6957748e-01
  5.6036958e-03
  4.3962128e-02
  1.0943732e-01
 -8.6778134e-02
 -7.7342845e-02
  6.3360977e-01
  2.9874948e-01
 -1.9399102e-01
  4.8521861e-01
 -6.1705861e-02
  1.9691071e-01
  2.9126430e-01
 -1.2450595e+00
 -8.8684097e-02
  8.4528148e-02
 -5.7798815e-01
  1.3593874e-02
 -7.2319508e-02
  1.4494500e-02
  4.7770563e-01
 -5.3034960e-03
 -9.3041286e-03
  3.4406845e-02
  1.1101324e-01
 -1.9495126e-02
  1.8164772e-01
 -2.8412608e-02
  1.9277124e-01
  1.0312016e-02
  3.9948484e-01
 -1.7360312e-01
 -1.9127121e-02
 -1.2157824e-01
 -2.6903623e-01
  8.0523603e-02
 -4.5342501e-02
  6.6498637e-02
 -2.8645268e-01
  1.8012937e+00
 -2.4159709e-01
  7.7084087e-02
  1.8645565e-01
  2.6190832e-01
 -1.3541289e-01
  5.8906045e-02
 -1.8409602e-02
  1.5872763e-01
 -1.6114415e+00
  1.1059519e+00
 -2.5596130e-01
 -4.9130367e-03
  2.3643787e-03
  1.2744461e-01
 -4.8168693e-02
  4.2171646e-02
 -9.4611052e-04
  2.9469589e-02
 -1.3155752e-02
 -1.2649850e-02
  3.3778043e-03
 -6.1566949e-02
  5.2425716e-02
 -6.2433583e-01
  1.6647309e-02
  1.4612539e-01
 -3.8929414e-02
 -1.6691361e-01
  8.5743554e-03
  9.2801144e-03
  5.4019753e-02
  2.8468886e-02
  2.8059497e-01
 -2.8098460e-02
  1.1533424e-02
  9.7368442e-02
  8.0717817e-02
 -3.0558139e-02
 -2.5250182e-02
 -1.0220430e-01
 -7.8078292e-02
  6.3898355e-02
 -3.1474240e-02
 -3.5853037e-03
 -9.4585512e-03
  1.0236276e-03
  1.5908359e-01
 -5.6932218e-02
 -1.3959818e-02
  1.3341735e-01
  1.3956807e-02
 -2.1503161e-05
 -1.2780121e-01
  6.9324233e-02
 -5.2828249e-02
 -8.6422056e-02
  1.2508820e+00
  2.5408643e-03
 -4.0575888e-02
  8.1529059e-03
 -1.4948032e-02
  1.1506508e-01
 -6.7096487e-02
  8.9114970e-03
 -4.8001003e-02
 -1.3550761e-02
  1.7629439e-02
 -7.8237206e-03
  3.9857447e-02
 -1.6769763e-02
 -1.4583351e-02
  5.5972144e-02
  9.0710549e-03
  5.2738753e-03
  3.9989087e-01
  3.9209012e-02
  8.8976157e-01
  4.3556851e-01
  3.8047543e+00
 -2.5917482e-01
 -1.0442699e+00
 -6.4604267e-02
 -2.7468879e+00
 -7.7608263e-01
 -1.5345495e+00
 -1.0998413e-01
  7.8437907e-01
  6.6409029e-02
  4.5914054e-01
  7.4644804e-01
  7.2501063e-02
  1.6762500e-01
 -8.4775138e-01
 -5.2415079e-01
  6.0468960e-01
 -9.5671706e-02
 -8.3961225e-01
 -8.3455228e-04
  6.2780064e-01
  2.8627911e-01
  5.9925143e-02
  1.9870420e-01
 -3.9671999e-01
  5.8366823e-01
 -9.5212758e-01
 -1.2552212e+00
 -3.4771597e-01
  1.6574385e+00
 -2.3526230e-01
  1.4669478e+00
 -1.0216864e+00
 -3.3662188e-01
  5.4604733e-01
  3.3304441e-01
 -2.3943529e+00
  3.0644274e-01
  2.5016418e+00
  4.1088948e-01
  4.8308179e-01
  6.0186707e-03
 -4.8732126e-01
  1.4687195e-02
 -4.1218095e-02
 -9.6310921e-02
  2.1490183e-02
  4.6776295e-02
  2.1010704e-01
  1.4904152e-01
 -8.3648209e-03
  3.9586954e-02
  5.5456135e-02
  3.5482205e-03
  2.8195484e-02
  1.9689839e-02
 -5.4970939e-02
 -5.3594233e-03
 -4.1098513e-02
 -9.7054327e-03
 -8.6309277e-03
 -9.1125622e-02
 -7.8613788e-02
  7.0020802e-02
  1.8213671e-02
  1.1209509e-01
 -3.7508188e-03
  1.2488419e-02
  3.3554856e-02
 -4.5046426e-02
  3.2360096e-02
  2.3105370e-02
  7.9482263e-03
 -5.0584329e-03
 -6.0942017e-02
 -9.2105277e-02
 -1.8586934e-02
  3.8489491e-02
  2.5306685e-02
  4.0157624e-03
  3.0607146e-03
 -6.1032488e-03
 -2.6144560e-02
  6.3752480e-02
  3.1730376e-02
  4.7141884e-02
  2.6176358e-03
  2.8906278e-02
  6.1958093e-02
  2.3083163e-02
  2.8867647e-02
 -7.7979040e-01
  3.3952344e-02
 -3.4873802e-02
  1.6748851e-02
 -2.6418172e-02
 -3.2196056e-02
  6.3452832e-02
 -1.9399531e-02
 -5.8786687e-02
  1.5068226e-02
  2.1435540e-02
 -3.6110628e-02
  8.1524663e-02
  8.7776389e-05
  7.5190910e-03
 -2.3835558e-01
  4.6256397e-02
 -1.5111804e-02
 -1.6221769e-01
 -4.3725777e-01
  1.3433196e-01
  1.8007657e-02
  5.1366422e-02
  8.5657842e-02
  7.5657326e-03
  4.1042282e-03
  4.2767629e-02
 -2.7588516e-04
 -8.2075901e-02
  1.3234885e-01
 -5.2032810e-02
 -1.3574681e-02
 -6.5449178e-02
  1.5782487e-01
 -2.7627427e-02
  1.0423307e-01
 -1.2232923e-01
  4.6756722e-02
  1.9525930e-02
 -1.4552063e-01
  2.7254121e-02
 -1.2959203e-01
  4.1027561e-02
  3.8471648e-03
 -1.1518177e-01
 -1.9997434e-01
 -8.3350442e-02
 -9.5664896e-03
 -8.9319227e-03
  2.1705501e-02
  5.3186927e-02
 -2.4922242e-02
  6.3895173e-02
  1.0840701e-01
  3.1651761e-02
  5.1603489e-02
 -3.9139580e-02
 -4.9509898e-02
 -2.8154319e-02
  2.0781404e-01
 -4.3645546e-02
 -4.0354058e-03
 -8.5161239e-02
  7.3444220e-04
 -3.5560321e-02
 -8.4827125e-02
 -5.4434198e-04
  3.7043605e-02
  6.5019637e-02
 -6.1968654e-02
  3.9837964e-02
  1.2304680e-03
  7.3041767e-02
  4.1883558e-02
 -7.8144290e-02
  1.0719956e-01
 -3.2787394e-02
  3.5157412e-02
  6.9748238e-02
 -2.3606602e-02
 -1.4665511e-01
 -3.3622909e-02
 -6.7782409e-02
  2.2088617e-02
  5.2049521e-02
  1.2852848e-03
 -4.5593835e-02
 -1.8324360e-02
 -4.5019973e-02
 -1.7491551e-02
  1.1995504e-02
  4.8144873e-02
  7.3660319e-03
 -5.7419527e-02
  4.0151719e-02
  1.4358816e-02
  1.9255728e-03
 -1.7098770e-02
 -9.5792320e-03
  5.0931990e-02
 -9.1364672e-03
  7.0156582e-04
  5.6658410e-03
 -3.5172891e-02
  2.7346989e-02
 -2.7210068e-02
  2.8244460e-02
  4.3251734e-02
 -4.9393978e-02
 -7.6523609e-02
  1.1550001e-02
  2.4901943e-02
  5.9259716e-02
  4.9518786e-02
 -2.0568050e-01
  2.1058168e-02
 -2.7392024e-02
  2.9264942e-02
 -2.5002244e-03
 -5.7829697e-02
 -2.6818503e-02
  1.2596762e-01
 -1.1809239e-01
 -8.7781370e-01
  2.5830820e-02
  3.6717210e-02
  1.2089225e-02
 -8.1790993e-03
 -6.0150675e-02
 -5.3347522e-01
  2.7891439e-01
  2.6735354e-02
 -3.8931894e-01
 -8.4860504e-02
 -2.6137885e-01
  1.5028330e-02
  1.0240579e-01
  2.4298796e-01
 -3.1837054e-02
  8.3195549e-03
 -1.2195007e-01
 -9.7907372e-02
 -6.3397922e-02
 -4.4462574e-01
  1.3069738e-02
 -1.2643249e-01
 -2.2573967e-01
 -2.8591190e-02
 -5.4295731e-01
 -4.1687623e-01
 -9.9598306e-01
  3.2128964e-02
  9.6790619e-02
 -4.6025623e-02
 -1.4058053e-01
 -3.1390075e-02
 -2.2942049e-02
 -1.6430616e-01
  1.8735701e-02
  9.7242065e-02
 -1.3965251e-02
 -3.9113060e-02
  3.1768285e-02
  6.8200365e-02
 -2.3936804e-01
  3.1716272e-02
 -5.2816801e-02
 -9.1027245e-02
 -1.0625761e-02
  2.4393383e-02
 -4.1893389e-02
 -5.3689224e-01
 -1.3025981e-01
 -3.3476755e-03
 -4.1231681e-02
 -1.9501938e-02
 -9.0920888e-02
 -4.4723768e-02
  6.5140732e-02
  1.2912265e-03
  3.6265612e-02
  8.4203612e-03
  7.7171251e-02
  7.3995069e-02
  1.7870806e-02
 -2.4686595e-02
 -4.6689440e-02
 -7.2888911e-02
  2.5882239e-02
  9.4869226e-02
  3.4611251e-03
  2.1137854e-02
  1.1256340e+00
 -7.7242397e-02
 -4.0079780e-02
 -1.0362090e-02
 -2.6451400e-02
  4.9393397e-02
 -4.7949284e-02
  2.9918578e-02
 -1.0921505e-02
 -3.3082433e-02
 -2.9635886e-02
  4.9541736e-01
 -7.4463092e-02
  1.8064948e-02
 -1.8179784e-02
  6.7940190e-02
  3.2950186e-03
 -3.2245275e-02
  2.5066366e-02
 -1.5404346e-02
  1.9699861e-01
 -9.3096159e-03
 -8.1605375e-02
 -1.7814502e-02
 -2.1030713e-02
 -3.8543534e-03
 -3.3485003e-02
  9.3448192e-02
 -1.2828808e-02
 -3.7658021e-02
 -7.7394679e-02
 -8.1822194e-02
  1.4989465e-01
  2.5923131e-03
  1.7975595e-02
 -4.6107028e-02
  4.3468826e-02
  2.7918404e-02
  8.1564896e-02
  1.9249588e-01
  1.7602758e-01
 -4.3085918e-02
  3.0384695e-02
  2.8347403e-02
 -4.5076475e-02
 -5.8877103e-02
 -5.9838314e-02
  9.3478508e-02
  3.1464975e-02
 -6.1575614e-02
  5.7715833e-02
 -2.9585364e+00
 -4.3054264e-02
 -6.2946901e-02
 -1.9228523e+00
 -6.6097816e-03
  8.7730279e-03
  1.0975791e-02
  1.8004615e-02
  6.7944735e-02
 -1.5454832e-01
 -1.0200068e-02
 -1.5567788e-02
  1.5764821e-02
 -4.1836198e-02
 -1.8982230e-01
 -1.0918107e-01
  1.0298004e-02
 -4.2099159e-02
  2.7901664e-02
  1.8207509e-02
 -5.3010035e-02
 -2.0721838e-02
  1.9220402e-02
  4.7815606e-02
 -9.6782140e-02
 -1.4922832e-03
 -1.9312510e-03
  4.4702165e-02
  3.7766880e-04
 -9.6716285e-02
 -5.9056534e-03
 -2.4076516e-03
  6.5341401e-03
 -4.3481469e-02
  8.7015137e-02
  1.3012657e-02
  5.8212154e-02
 -9.2201512e-03
 -8.0179283e-03
 -4.6319425e-02
  1.6656848e+00
  1.3272820e-02
  1.5759657e-01
 -1.2587442e-01
  2.0731678e-02
  2.0551335e-03
  7.7607734e-03
 -6.3307369e-03
 -4.4148970e-02
 -3.3561457e-03
  1.5016906e-01
 -2.0150997e-02
 -5.4687429e-02
 -6.9838457e-02
 -6.9723830e-02
 -1.2962972e-02
 -4.8756838e-04
  5.7086788e-02
  4.6522133e-02
  3.8594755e-03
 -2.2456346e-02
  1.2360131e-02
  5.7911053e-02
 -6.8580978e-02
  5.8633257e-02
 -8.0559641e-02
  1.8448887e-03
 -1.1105868e-02
 -2.5124453e-02
  8.9580165e-03
  2.6274776e-01
 -6.1664805e-02
 -1.6277140e-03
  2.0162292e-02
 -5.9192192e-02
  1.3845220e-03
  1.9264011e-02
  1.2970260e-02
  3.8935065e-03
  3.7380658e-02
 -9.6995056e-05
  3.3095397e-02
  2.5776232e-02
  5.4033920e-02
 -1.2461917e-01
  4.6383686e-02
 -5.8441140e-02
  5.6285253e-03
 -8.0540150e-02
  7.0225317e-03
  6.5866095e-04
  2.4967568e-02
 -1.8512547e-02
 -2.8615108e-02
 -4.8230566e-02
  1.4351724e-01
  1.2785453e-01
  1.2340169e-01
  2.2563858e-02
  1.0208608e-01
 -1.6330560e-01
 -1.2992496e-02
  3.8501479e-02
 -5.6464076e-03
 -1.9552620e-02
  5.5662841e-02
  7.7235885e-02
  5.3359777e-01
 -2.7932968e-02
 -1.1341545e-02
 -1.3774619e-02
  4.1188650e-02
 -5.1493477e-02
  1.3643487e-01
 -7.6717869e-03
 -1.5826106e-02
 -5.0520478e-03
 -7.1990830e-03
  1.4929663e-01
 -3.1860583e-02
  5.7139695e-02
 -4.2765928e-03
 -3.2242436e-03
  1.9754339e-02
 -4.6139181e-02
  3.0354086e-02
 -7.8115009e-02
  2.1918449e-01
 -2.4506308e-02
  3.7438400e-02
  3.2560103e-02
  5.8548082e-02
 -2.7215149e-02
 -5.9371977e-03
 -8.6755402e-02
 -2.7706549e-02
 -1.2363761e-02
 -7.8602076e-02
  5.8744777e-02
  4.5061238e-02
  2.0460045e-02
  1.6879968e-02
  1.8938859e-01
 -1.8984787e-02
 -1.6209753e-02
  2.2740724e-02
  2.4673918e-02
  4.0089812e-02
  6.4427564e-03
  6.1143730e-02
  6.4083729e-03
  5.0994471e-02
 -3.8848307e-02
 -5.7192575e-02
  4.5130916e-02
  7.1894112e-03
 -2.4566744e-02
  4.2509098e-02
  8.2061877e-03
  5.3319456e-03
  1.1342921e-02
  2.6839561e+00
 -3.6508124e-02
 -2.1379214e-02
 -3.8715857e-01
 -6.8435632e-02
  3.9406493e-02
 -7.2139618e-03
 -5.2498453e-03
 -3.3452727e-02
  3.3836622e-02
  2.7181257e-02
 -5.2549351e-02
 -1.4132817e-01
 -1.5969053e-02
  8.3218822e-03
 -3.7711561e-02
 -2.8631009e-02
 -6.3474774e-02
  1.1711896e-01
  6.1602324e-02
 -6.7071736e-02
  3.9796618e-01
  2.7187226e-02
 -1.5033583e-02
 -3.2251209e-02
  1.9065149e-02
  7.0250109e-02
  5.0134823e-02
  9.8167613e-02
 -1.5167636e-02
 -3.7245892e-02
 -8.1234314e-02
 -5.9348173e-03
 -2.2795093e-03
 -1.4265965e-02
  7.0698991e-02
  2.6663763e-03
 -8.3221113e-03
 -2.4075266e-02
  3.1181937e-03
 -1.9737581e-02
  4.3081161e-01
 -3.5094101e-02
  3.1654118e-03
  2.5311518e-01
  4.2205699e-02
 -9.2385532e-03
  6.9465771e-02
 -7.1503597e-01
 -2.9889664e-01
 -4.6286661e-02
  3.7256710e-02
 -4.6734777e-03
  1.4958420e-01
  1.4698140e-01
  1.1574341e-01
 -2.0782295e-01
  5.4898482e-02
 -4.7914077e-02
 -1.2120780e-01
 -3.0868083e-01
  6.3582331e-02
 -1.6956061e-02
  4.3989714e-02
 -2.2290660e-02
 -3.5905708e-02
  8.8016897e-02
 -1.7088482e-03
  4.9862000e-03
 -3.7673980e-03
  1.6412094e-01
 -1.3229218e-01
 -3.6995668e-02
 -1.1858700e-01
  4.9754400e-02
 -2.0952408e-01
  1.5386361e-01
  3.1582776e-02
 -1.2164932e-01
  1.4287210e-01
  9.1910660e-02
 -4.5601666e-02
 -2.2922882e-03
 -2.3271734e-01
  1.3565850e-02
  8.1783876e-02
  2.2080861e-02
 -5.6326516e-02
 -1.2302629e-01
  2.4127839e-02
 -1.0239191e-02
 -8.0563895e-02
  5.8568634e-02
  1.6057035e-02
  5.5808458e-03
  7.0460379e-02
 -2.9005925e-03
 -8.4432997e-03
 -2.5545126e-01
 -6.7195006e-02
 -7.8407252e-01
 -4.0486518e-02
 -1.4201139e-01
  2.1271192e-01
 -8.6972594e-02
  4.9534153e-02
  1.0122917e-02
 -9.2012286e-03
 -1.3614166e+00
  1.5589076e-02
 -7.6245904e-02
  2.5919227e-02
 -2.7981495e-02
 -1.0109159e-02
 -1.2979467e+00
  4.4084456e-02
  2.3911074e-02
 -4.6446372e-02
 -4.7576135e-01
  3.0794492e-01
 -6.2496334e-01
 -4.0150800e-01
 -2.7586654e-01
  6.5983817e-02
 -5.8000922e-01
  1.5049546e-02
  2.5047401e-02
 -1.9346002e-02
  1.7995714e-01
 -1.3554451e+00
  1.7691153e-01
  1.5109393e-03
 -9.7174913e-01
  3.3937958e-01
 -7.1108121e-01
 -7.0466436e-02
 -3.3622122e+00
  7.0944555e-02
 -6.2706053e-01
  2.8062937e+00
 -1.4280901e-02
 -8.7574877e-02
 -6.7465872e-01
 -1.8598789e-02
  6.7526035e-02
 -2.3301650e-02
 -1.5899757e-01
 -3.5420594e-01
  1.1571004e-02
 -1.3674077e-01
 -1.1069899e+00
  1.3873318e-02
 -4.8323506e-01
 -1.8270510e-01
  6.0676537e-02
  2.5712749e-01
  8.2643831e-01
  4.4548579e-02
 -3.5600710e-01
  3.5331985e-03
  4.7393046e-02
 -5.7633180e-02
  3.6064073e-02
  5.2616787e-01
  2.3587582e+00
  3.0891391e-02
 -1.3089690e-01
  7.1080901e-02
 -1.6820049e-01
  1.0117229e+00
  8.7152112e-01
 -1.1449877e-01
 -8.1548142e-01
 -6.8133986e-01
  5.1484269e-01
 -3.7687391e-02
  7.7504665e-02
  3.3107207e-03
 -2.6209235e+00
 -5.1226979e-01
 -1.0312026e+00
  4.2244980e-01
  3.1630853e-01
 -4.6584320e-01
 -1.1897349e+00
 -3.3913746e-02
  1.9912167e-01
  3.6477171e-02
 -3.7340614e-01
 -2.7394274e-02
  9.3033515e-02
  1.1174803e-01
  7.3520765e-02
  1.6516643e-02
 -3.7787548e-01
  7.5526941e-01
 -2.0081718e+00
 -3.2851806e+00
 -2.9476443e-01
 -3.4450707e+00
  1.1881980e-01
  1.1828708e-01
  2.5092497e+00
 -7.5070523e-02
 -2.9804165e-02
 -1.6267899e-02
 -3.8371009e-01
  1.2986183e-01
  2.0541400e-02
 -5.9218150e-02
 -4.1890574e-01
 -8.6120386e-03
 -1.2161670e-01
  6.9733891e-03
 -2.1600354e-01
 -3.6166236e-02
  1.5159245e+00
  3.7636746e-02
  3.6252323e-01
 -5.0720803e-02
  2.0215484e-01
 -2.2289440e-01
 -1.7413264e-02
  8.4215969e-02
 -1.0069299e-03
  8.9149857e-01
 -4.2899600e-01
 -1.0372753e-01
 -4.0489219e-02
  5.8515424e-01
  8.3022282e-02
  1.3196908e+00
 -1.6213146e-01
  3.7743770e-02
 -8.2687795e-02
 -1.3380757e-01
  5.8270246e-02
 -1.0214578e-01
  1.1497459e-02
  1.2491862e-01
 -1.2638040e-02
  1.6646978e-02
 -9.3233157e-03
 -7.5260854e-01
 -1.3214464e-02
 -2.0581216e-01
  6.9004312e-02
  2.8533395e-02
  2.0749919e-02
 -1.9263891e+00
 -1.7755853e-01
 -2.5149839e-02
  6.9651890e-01
 -4.8091698e+00
 -6.5621608e-01
  6.9645509e-02
  3.3892937e+00
  1.2657253e+00
 -3.2361394e-01
  1.7197164e-02
 -8.8064188e-01
 -7.1846910e-02
 -2.2881000e+00
 -6.5726116e-02
  5.8367038e-01
 -3.0254978e-01
 -1.4670676e-01
 -4.2285004e-01
 -3.3733144e-01
 -8.6365265e-01
  4.6400636e-01
  2.9798570e-01
  1.0211333e+00
  1.0236334e+00
 -2.0868158e+00
 -3.2342095e+00
 -3.8426678e-04
 -1.0466448e+00
  1.8720014e-01
  7.3874101e-02
  5.5835283e-01
 -5.3807372e-01
  2.3111075e-02
 -1.3999638e-01
  2.4742268e-02
 -8.1060869e-01
 -4.6722484e-01
  5.6115374e-02
 -5.4464209e-01
  1.2044284e-02
 -9.7468495e-02
 -2.7823882e-02
  2.8329125e-01
 -5.8250021e-02
 -9.2920497e-02
  1.2960895e-02
  3.3498411e-03
  1.2138927e+00
 -1.7728207e-04
 -1.0757853e-01
 -1.4371609e-02
 -1.1504350e-02
  6.6391313e-01
 -2.5821850e-01
  2.3980284e+00
  5.3071284e-01
  7.4086350e-01
 -8.3858049e-01
  9.7226518e-01
 -1.0782398e-01
 -9.0481210e-01
 -6.9405848e-01
  1.7964828e-03
 -3.8094831e-01
  7.0299393e-01
  1.7460699e+00
 -4.7135945e-02
 -8.3429819e-01
  1.8466695e-01
 -4.5574076e-02
 -5.1090932e-01
 -8.9037135e-02
  3.2706451e-02
 -2.9113650e-01
 -2.0801790e+00
 -5.9036594e-02
 -1.4222749e-01
  4.1627284e-02
  7.1940854e-02
 -2.3212455e-01
 -6.1727679e-01
 -2.5145757e-01
 -3.0060366e-02
  6.0514963e-01
  2.2263435e-01
 -7.8175701e-02
 -2.0367247e-01
  1.4179550e-01
 -1.7522999e+00
  4.0509358e-01
  3.5638921e-02
  4.1540959e-01
  4.9876592e-01
 -1.0714342e-01
 -7.2825000e-02
 -1.3968002e-03
  7.1930104e-01
  5.1620163e-02
 -2.5001446e-02
  2.5244044e-02
 -1.3612406e-02
  1.4125873e-01
  1.9439403e-02
 -5.4968578e-01
 -9.7933382e-02
  2.2034587e-03
  5.1727921e-01
 -1.4598788e-01
 -2.4552573e-02
  5.7899617e-02
  3.1606045e-02
 -6.5551862e-02
 -1.8704584e-02
 -3.4349689e-01
 -8.9092208e-03
  2.6232198e-02
 -1.5958145e-01
  2.4943402e-02
 -4.3452714e-02
 -8.6898496e-03
 -1.3271509e-01
  1.6726013e-03
  2.7693922e-02
 -3.2902509e-02
  1.1383644e-02
  5.6793738e-02
  2.6968649e-02
  2.3259429e-02
 -1.4918583e-02
 -2.3432648e-01
  1.3014522e-02
 -2.6229093e-02
 -1.3713564e-01
 -2.2632057e-02
 -1.1898689e-01
  4.2186789e-03
  4.8878994e-02
 -4.3237731e-01
 -1.4593143e-02
 -1.0976242e-02
  3.9257135e-02
 -1.5703782e-01
  4.8735759e-01
 -5.8147512e-02
 -6.1698191e-02
  6.9888391e-02
  8.7432571e-02
 -3.7739433e-02
  6.6743165e-02
 -6.6609003e-02
 -4.5951284e-02
 -7.5445898e-02
  5.2964378e-02
 -2.5562203e-02
 -3.1770967e-02
  3.3556251e-03
  3.7159431e+00
  5.8749847e-02
 -2.0151416e-02
 -2.5644362e-02
 -1.8675901e-02
  2.6007655e+00
 -2.1136177e+00
  5.7091701e-01
  5.5298215e-01
  6.4066595e-01
  6.5034115e-01
 -5.5904227e-01
 -7.9622126e-01
  1.6222158e-01
 -2.9445320e-01
  4.8104358e-01
  3.3245248e-01
 -6.2569408e+00
 -1.8785402e-01
 -1.8344420e-01
 -7.0234638e-01
 -2.7705050e-01
 -1.9482099e-03
 -1.7465709e-01
 -7.9561555e-01
  1.3588798e-01
 -1.1539896e+01
  4.0754732e-03
 -4.1413240e+00
  1.3135532e+00
 -4.4778538e-01
  7.4461527e-02
 -1.1027811e+00
  3.7433919e-03
 -2.6174713e-02
 -5.6126733e+00
 -5.0963199e-01
 -5.4920770e-02
  4.6603051e-01
 -2.0575790e-02
  1.9048719e-02
 -1.3613566e+00
 -7.7379060e-01
  1.3023690e+00
 -2.0367198e-01
 -1.6216574e+00
 -1.0209854e+00
 -3.6731943e-02
  1.6103058e+00
  2.4259247e-01
  1.4890064e-01
 -1.6275787e-01
 -1.4095892e-01
  1.5933099e+00
  5.6940522e-02
  1.1225479e+00
  3.2207850e-01
 -2.6768762e-01
  9.8698926e-01
  4.8480988e-01
  2.0164549e+00
  1.7663838e+00
  2.9354224e-01
 -1.3768840e+00
 -1.5346581e+00
 -6.3940215e-01
  2.8469229e-01
 -6.9809222e-01
 -1.2766176e+00
 -5.7467461e-02
  1.9264109e+00
  2.9923660e-01
 -2.1178763e+00
 -1.1923337e+00
  2.1975944e+00
  5.3358865e-01
 -1.1420386e+00
  7.7421293e-03
 -3.7654021e+00
 -1.6420188e+00
  1.8689278e+00
 -1.6215779e+00
 -3.0983994e+00
  1.0051675e+00
  7.4814636e-01
  4.4780236e-01
 -8.0220091e-01
  6.4644873e-01
  3.9063409e-01
  1.7111613e+00
 -2.6567886e+00
 -1.5440202e+00
 -2.7243609e+00
 -2.9981250e-01
 -2.5069346e+00
 -4.2470977e-01
 -6.2824839e-01
  1.1553849e+00
 -1.2730544e+00
 -2.2214916e+00
 -5.5336416e-02
 -9.0929177e-03
 -1.7963488e+00
 -1.6691710e-01
 -6.0809225e-01
  3.3206111e-01
  3.5282053e-02
  1.0123301e+00
  2.7845851e-03
 -4.2205009e-01
 -3.2323007e-02
  3.8717130e-01
 -4.1169912e-01
 -3.2361215e-01
  1.6307425e-01
 -3.2012752e-01
  1.4043850e-01
 -1.6220564e-01
  4.0664792e-01
 -1.1336972e-01
 -7.5784929e-02
 -3.2131812e-01
 -2.2923475e-02
 -3.2302298e-02
 -4.9732332e-03
  1.2058148e+00
  2.3991400e-02
 -5.5846907e-03
 -1.1513845e-02
  3.3006203e-01
  1.1731765e-01
  1.7020756e-01
  5.6290958e-02
  1.1378309e-01
 -4.9589357e-01
  2.9651025e-01
 -4.5485321e-02
  2.2377282e-01
  3.3122361e-02
 -1.6638538e-01
  1.5008542e-01
 -2.2538424e-02
  9.2127244e-04
  1.2308394e-02
  1.9455118e-01
 -8.0281282e-03
 -9.9791232e-03
  4.4854620e-01
  1.0603150e-01
  1.3667904e-01
 -2.5832850e-02
  3.2685816e-01
 -7.7870693e-03
 -2.0134142e-02
 -2.3289381e-02
  6.3438393e-02
  3.8996626e-02
  3.3503382e-03
 -1.2718853e-01
 -7.9975724e-02
 -5.8339410e-02
  3.1001645e-01
 -1.1953110e-01
 -5.0389182e-02
  1.0682935e-01
  2.8390451e-03
  1.8175972e-01
  6.0627329e-01
 -5.2317452e-01
 -1.2444650e+00
  6.2977783e-02
 -9.9340463e-01
  1.7768863e-01
  3.8707146e-01
  5.8660018e-01
  2.6694128e-01
  1.4000261e-04
  1.7777717e-01
  3.0100074e-01
  5.0046768e-02
  3.3365151e-01
 -8.4888965e-02
 -1.5447484e+00
  2.0311609e-01
  3.0794305e-01
 -4.8104212e-01
 -3.2296402e-03
 -8.5353822e-01
  1.9546534e+00
 -4.5437554e-01
  2.7669122e-02
 -1.2130861e-01
 -1.1089983e+00
 -5.3483129e-01
  3.5943001e-04
 -8.4095113e-03
  1.4484689e-01
  7.0384926e-01
  1.0338224e+00
 -3.6054468e-01
 -3.2038781e-01
 -1.5888134e-01
 -1.8041117e+00
 -8.8948566e-01
 -6.8416312e-02
  3.1762795e+00
 -1.1700744e-01
 -1.1556748e-01
 -1.2715342e-02
 -6.0486894e-02
  3.4304908e-01
 -5.2798027e-01
 -1.7181489e-01
  2.8200744e-02
  1.1014565e-02
 -5.0569272e-01
  1.2937109e-01
 -2.0390573e-01
  5.9414376e-03
 -6.5077955e-01
 -2.1371379e-04
 -7.0590220e-02
 -5.9750479e-02
 -4.3033667e+00
  2.1059930e-02
 -2.5347698e+00
 -1.0532031e+00
 -1.0738949e-01
  2.5142020e-02
 -1.7212193e+00
  6.1481763e-03
  8.7923612e-03
 -2.7649313e-02
  5.2994579e-01
  1.3710116e-01
 -3.2390479e-02
 -3.1414706e-02
 -5.8235571e-02
 -4.1772347e-02
  6.9829025e-03
  1.0254358e-01
  2.0313300e-01
 -1.7235490e-02
  4.2166203e-02
 -3.5656713e-02
 -5.4452352e-02
  2.7413755e-03
 -5.0190244e-02
  6.2270206e-01
  1.4385401e-02
 -2.3261303e-02
  5.2610599e-02
 -4.0009256e-02
 -1.7898405e-02
 -4.3466878e-03
 -1.2247656e-01
  3.7993796e-03
 -9.0081453e-02
  2.9449930e-02
  2.2782225e-02
 -5.7797872e-02
 -1.8520800e-02
  5.4196692e-03
  7.7806808e-02
 -2.1933971e-02
 -1.2112544e-01
 -3.1604033e-02
  4.7935694e-02
  2.0940550e-01
  9.1364337e-03
  3.3399381e-02
 -3.2288514e-02
  8.0749437e-02
 -7.9506272e-01
 -1.7564449e-02
 -2.7376413e-01
 -1.9527964e-02
 -1.7716087e-01
 -1.0607469e+00
  2.8248048e-01
  4.7820803e-02
  6.6648990e-02
 -2.5028402e-01
  4.1436958e-01
 -1.1341594e-01
  5.1903777e-02
 -8.6041570e-02
  1.3471410e-01
 -6.4407937e-02
 -1.2777013e-01
 -5.3172302e-02
 -8.8381998e-02
 -2.3786543e-01
 -2.9560999e-04
  7.2763222e-03
  1.6636829e-01
 -4.8481040e-02
 -6.1038632e-02
  1.1612095e-02
 -2.3341748e-01
  3.8520190e-01
 -5.6917112e-02
 -1.2771350e-01
  2.1598343e-02
  1.0298000e-02
  5.4019282e-04
 -2.7402727e-02
  1.8095270e-02
 -3.2138910e-02
 -1.2941373e-02
 -8.3906107e-02
 -1.8594801e-01
  4.3635587e-03
  2.6938942e-01
 -1.6849211e-01
  1.4461040e-02
 -1.2932797e-01
 -2.0235462e-01
 -1.4124843e-01
 -5.1724050e-02
  3.1834602e-02
 -3.8217247e-02
  1.7433034e-02
  1.4166619e-02
  3.7498182e-01
 -9.1864048e-03
 -1.0129328e-01
 -1.9574800e-01
  1.1071192e-02
  2.5967379e+00
  4.6490517e+00
 -3.1701701e+00
  2.0923515e-01
 -4.2144718e+00
 -1.2981840e+00
  1.1669343e-01
 -2.2260377e+00
 -1.5824615e+00
  2.5916409e-01
  1.6337653e-01
  1.1363636e-02
  2.1365764e+00
  3.0564275e-01
  1.0505556e-03
  8.8794895e-02
  4.7618306e-01
 -9.4538890e-02
  5.6368257e-03
  2.3963968e-03
  3.3319265e-02
 -2.9259398e+00
 -5.8007773e-02
 -2.8138466e-02
 -4.7165263e-02
  3.8069561e-02
 -3.7980285e-01
  1.5488655e-02
  1.0141349e-02
  4.7086284e-02
  5.7123178e-01
 -5.2381731e-03
 -6.5301168e-01
  5.7169289e-04
  2.4368854e-02
 -1.0006792e-01
 -2.5448644e-01
 -8.3580174e-02
 -4.6312008e-03
  1.6673702e-01
 -5.5442579e-02
 -3.5849046e-02
 -4.9687964e-03
  2.7783680e-01
  9.4866008e-02
 -2.5146049e-02
 -9.5685804e-03
 -2.1868818e-02
  1.1042494e+00
 -4.1836612e-02
 -4.4878259e-02
 -1.8047798e-02
 -3.0256151e-03
  2.0427889e-01
 -5.3395760e-01
 -4.3647841e-01
  1.3850350e+00
 -2.2333252e-01
  5.6178766e-01
 -7.4424911e-01
  1.2068540e+00
 -5.1916558e-01
 -1.5799807e-01
  3.9362547e-01
  1.6914114e-02
  4.2000762e-01
 -3.8365948e-01
  7.9147398e-01
  3.4536371e-01
  5.8786653e-02
  2.6497173e-01
  2.5290940e-02
 -1.7387497e-01
 -8.1743523e-02
 -1.2594242e+00
  5.6527060e-01
 -5.3105044e-01
 -1.3633713e+00
 -1.0117854e+00
 -5.5264717e-01
 -8.2261068e-01
 -1.0272573e-02
  7.1122330e-03
  1.1093644e-02
  2.1138501e-01
 -9.4905198e-02
  3.8921647e-02
 -2.9254079e-01
 -9.2517510e-02
  1.3099651e-01
 -8.3292566e-02
 -1.6736372e-01
  1.3694288e-01
  2.2846478e-01
 -2.9760931e-02
 -1.3106984e-01
 -9.5176846e-03
  1.0080270e-02
 -4.9986776e-02
 -5.0473083e-02
  3.2319401e-03
 -3.8591590e-02
 -9.9312134e-02
