nep4_zbl 3 Ca Si O 
zbl 0.8 1.6
cutoff 7 4 219 47
n_max 8 8
basis_size 12 12
l_max 4 2 0
ANN 50 0
 -2.2193880e-01
 -2.2122112e-01
 -1.9955684e-01
  5.9196502e-01
 -2.1329707e-01
 -9.1620773e-02
  5.8227677e-02
 -1.0964838e+00
  7.3235625e-01
 -1.8911780e-01
  5.7955650e-03
  5.0599139e-02
 -4.8214495e-01
 -5.8956271e-01
  4.4745913e+00
 -4.8971984e-01
 -2.6408644e+00
 -1.5153442e-01
  9.9166244e-01
  1.6032561e+00
  5.8438648e-02
 -6.6388965e-01
  2.5029671e-01
  1.0063080e+00
 -1.2321284e-01
  1.9682696e-01
  1.6202163e-02
 -2.3537654e-01
  1.5168214e+00
  1.8379766e-01
  1.2529962e-01
  5.7995696e-02
  1.5088556e+00
 -6.2918179e-02
  7.6132548e-01
  6.1978954e-01
 -2.7468234e-01
  7.1008265e-02
  6.0635495e-01
  4.1205108e-01
 -3.9598045e-01
 -3.2385349e-01
 -5.2825552e-01
 -5.9703588e-01
 -6.7063713e-01
  3.9173117e-01
  1.7655729e-01
 -6.0520929e-01
 -5.0113696e-01
 -5.2450317e-01
 -1.2838659e-02
 -8.9667393e-03
  8.3569014e-01
 -2.0829072e+00
 -1.3518555e+00
 -1.4188655e-01
  8.2176924e-01
 -3.8539854e-01
  5.6196803e-01
  3.0971894e-02
 -3.2091910e-01
 -6.4242566e-01
 -3.0879703e-01
 -1.0391886e-01
 -7.1842957e-01
 -1.0359707e-01
 -1.7741889e-01
 -1.3484540e+00
  5.7144184e-02
 -2.9397854e-01
 -7.1660864e-01
 -5.4454755e-02
  2.1578409e-01
 -3.5833076e-01
 -1.1040889e-01
  5.2807778e-01
 -1.1990854e+00
 -1.3708334e+00
 -3.2356429e-01
 -6.4848763e-01
  3.3339858e-01
 -6.8289936e-01
  1.5538389e-02
  5.8225673e-01
 -6.6565461e-02
 -2.5257707e-01
 -2.9414380e-01
  1.5617147e-01
  1.0464000e+00
  2.6432249e-01
  3.1839460e-01
 -2.3698470e-01
 -9.4287984e-02
  4.0075898e-01
 -2.7683142e-01
  4.1562587e-01
  1.9364038e-01
  2.3859242e-02
  1.8888465e+00
  6.0013089e-02
  3.0403540e-01
 -9.6620396e-02
 -2.8025076e-01
 -1.5314664e-01
  7.8489834e-01
  6.9248319e-01
 -7.2318435e-01
  3.2184729e-01
 -3.8942409e-01
  1.6670348e-01
  1.1861799e-01
  6.4404614e-02
  3.5084832e-01
 -1.2118398e-01
 -3.4197420e-01
  1.2689794e+00
 -6.0059667e-02
  1.7119291e-01
  4.1938111e-01
  1.8004461e-01
  2.5689620e-01
  1.1314517e-01
  3.9514769e-02
  7.5563180e-01
 -5.4259185e-02
 -4.2368174e-01
 -2.8473479e-01
  3.3292419e-01
 -1.5422095e-01
 -1.6729447e-01
  1.7368751e+00
 -3.6427543e-01
 -2.2777736e-01
 -6.1994040e-01
 -9.4008513e-02
  2.2040577e-01
  8.1234968e-01
 -1.2602279e-01
  3.6345345e-01
 -2.5178337e-01
 -1.1397822e+00
  1.3977908e-01
 -5.7579762e-01
  9.7941190e-02
 -5.0595030e-02
  1.2063978e+00
 -8.9300461e-02
  1.1943685e+00
 -4.8425266e-01
  1.7944309e-01
  2.1177895e-01
  2.3104019e-01
  1.2012160e+00
 -2.0874238e-02
 -6.4779544e-01
  8.5807544e-01
  1.0113955e-01
  3.8243926e-01
 -1.0296661e+00
 -7.1377522e-01
 -3.3110851e-01
  3.9254233e-02
  4.3222021e-02
 -2.5078189e-01
  2.1027420e-02
  8.8519856e-02
 -3.2590735e-01
  7.5039260e-02
 -5.7238102e-01
 -2.6446700e-01
  1.5266243e-01
  1.0606812e-01
  2.2393708e-01
  3.5553834e-01
 -2.2832217e+00
  1.1874707e-01
  7.7967830e-02
  6.0079759e-01
  1.7106980e-01
  8.5267276e-01
 -1.4359022e+00
  4.8448503e-02
 -4.4867519e-01
 -4.9361613e-01
  2.6464385e-01
  8.6314958e-01
 -2.5110719e-01
  2.9768971e-01
 -1.1166210e+00
  3.4751725e-01
  1.8551710e-01
 -1.3690753e-01
  3.0857286e-01
  6.5176331e-02
  4.1205093e-02
 -6.0805347e-02
 -9.7958517e-01
 -1.0796983e-01
  1.4392656e-01
  3.6280403e-01
 -9.8989743e-01
  4.5542306e-01
 -7.0719525e-02
  2.8832145e-02
 -3.3983713e-01
  5.8545315e-01
 -5.7758617e-01
 -2.7259085e-01
  5.8465898e-01
  5.3059924e-02
 -5.8445189e-02
 -7.2581194e-02
 -4.4833782e-01
 -8.4215909e-02
  1.5745704e-01
  7.6850706e-01
 -5.9104872e-01
  1.7910540e-01
 -3.3340743e-01
 -8.5397595e-01
  1.3654754e+00
  2.8574255e-01
 -6.2997967e-01
 -2.4167542e-01
  2.2930411e-01
  1.4510424e-01
  2.1547298e-01
 -3.9372587e-01
  2.3052700e-02
  1.0640916e-01
 -8.1335254e-02
  1.5566324e-01
 -5.2004379e-01
 -3.0151594e-01
 -1.9555207e-01
  4.5513827e-01
 -2.4218300e-01
  3.3765435e-02
 -3.0151108e-01
  5.9884733e-01
  1.1677823e+00
 -4.2870432e-02
  4.7895169e-01
  8.2558078e-01
 -8.1378378e-02
 -1.5403557e-01
  3.9651643e-02
  5.4340471e-02
  2.9088160e-01
 -8.8626899e-02
  1.9603254e-02
  9.7249500e-02
 -1.3961688e-01
 -2.2949994e-01
  8.3795816e-01
 -3.3002150e-01
  3.2513216e-01
  1.3673587e-01
 -3.5438046e-01
  1.3338283e-01
 -1.9411688e-01
 -2.8029177e-01
 -3.7485529e-03
 -7.2239739e-01
 -6.1122161e-01
  1.6600993e-01
 -1.2572353e-01
  2.1754140e-01
  1.3529065e-01
  5.2963233e-01
 -6.9829598e-02
  2.2530775e+00
 -1.2875159e-01
  1.0540665e+00
 -9.1677159e-01
  3.0292732e-01
 -5.2972221e-01
  2.2208676e-01
 -1.4626297e-01
 -4.7279063e-01
 -3.2473272e-01
  2.4209134e-01
  7.7384301e-02
  1.9854425e-01
 -6.5105557e-01
 -1.4474481e-01
 -4.7760308e-01
  4.7575450e-01
 -9.7084969e-01
  1.1738614e-01
  6.9024283e-01
 -6.8944357e-02
  2.0415480e-01
 -4.2641073e-01
  4.6645656e-02
 -4.4817212e-01
  2.4414901e-01
  1.8821051e-02
 -5.3757936e-01
 -1.2728901e-01
  1.6249947e-01
 -1.2272688e+00
  9.7166491e-01
 -1.0667988e-01
  1.7328522e-01
 -1.7811368e-01
  2.3246129e-01
 -3.2286865e-01
  1.4859143e-01
 -2.3014406e-03
  2.3098910e-01
  2.2911499e-01
 -5.2513999e-01
  5.9304035e-01
  3.9754131e-01
 -8.9879178e-02
 -9.8531559e-02
 -4.3001524e-01
  1.0559047e-01
 -7.4014300e-01
 -1.5539590e-01
  8.4924012e-01
 -3.2128039e-01
  1.4704473e-01
  2.2055562e-01
 -3.4679851e-01
  1.5007187e-01
 -4.2849585e-01
  1.7836680e+00
 -5.2897424e-01
  8.5127282e-01
  3.7851676e-01
  9.5982754e-01
  1.5767761e-01
 -3.7243456e-01
 -3.8097203e-01
  1.7107590e-01
  1.7049053e-01
  4.0518705e-02
 -2.1189193e-01
  2.9094312e+00
  2.6423436e-01
 -5.7937831e-01
 -9.5518261e-01
  8.1465322e-01
  2.2620510e-01
  9.4480827e-02
 -1.5971841e-01
 -1.3340318e-02
  1.5537453e-01
  1.1039863e-01
  1.0535790e-01
 -4.5240688e-01
 -9.7863805e-01
  6.1582606e-02
  2.8045189e-01
 -8.7520081e-01
  2.4133746e-01
 -3.2040417e-02
 -2.5936234e-01
 -3.9756095e-01
  6.1229306e-01
  1.0514528e-01
  4.0750399e-01
 -1.2742979e-02
  7.6295458e-02
  7.1926659e-01
 -1.1895744e-01
 -7.5646377e-01
 -1.0921238e-01
  8.3237477e-02
 -3.9563198e-02
  5.7719994e-01
 -7.4978143e-02
 -1.0119396e+00
  1.1255543e+00
 -9.7098321e-02
 -7.7440038e-02
 -3.9081407e-01
  5.4598552e-01
 -3.2300797e-01
 -5.5098009e-01
 -2.7749753e-01
  6.6518411e-02
 -2.1007800e-01
 -1.1768529e+00
 -1.9504871e-02
  6.7337012e-01
  5.8901481e-02
  5.3702708e-02
  5.4929948e-01
  1.6378264e-01
 -2.1318779e+00
  1.0891278e+00
  1.9820721e-01
 -6.7033523e-01
  1.2559153e-01
  3.3144394e-01
  3.8951120e-01
  1.3300993e-02
  1.8335624e+00
  5.2565509e-01
 -4.7165100e-02
 -3.0863857e-01
 -4.4066727e-01
  5.0636971e-01
  3.1793978e-02
 -7.6364779e-01
 -9.1706985e-01
  4.6584839e-01
  8.7153532e-02
  1.0913785e+00
  5.5573237e-01
 -4.6007264e-01
  3.0614430e-01
 -9.8862626e-02
 -4.1674522e-01
  1.9724530e-01
  3.1926438e-01
  2.0390806e+00
 -3.8739258e-01
 -1.4316645e-01
  6.7857742e-01
  1.0571817e+00
 -1.9358799e+00
 -1.1385522e+00
 -3.2192823e-02
 -7.2124541e-01
  4.1749707e-01
  5.5289733e-01
 -2.1355656e-01
  1.6430932e-01
  1.0438520e-01
 -2.5079608e-01
  2.5548151e-01
 -6.1660260e-01
  3.2451355e-01
 -2.0801961e-01
 -2.2288555e-01
 -2.5699185e-02
  3.3708954e-01
 -3.7282723e-01
  6.6022784e-01
 -4.0422568e-01
  1.1339752e-01
  2.7046123e-01
 -7.2642344e-01
 -4.3994498e-01
 -1.2098351e+00
  7.8357273e-01
 -2.6184189e-01
  1.7442949e-02
  5.3544027e-01
  1.1229068e-01
 -4.7063544e-01
  1.6422722e-01
 -4.3823215e-01
  2.6834363e-01
  2.8244561e-01
  5.6787267e+00
 -4.7254402e-02
  2.9012589e-02
  6.5404361e-01
  1.5886553e-01
  7.9389173e-01
  2.1344264e-01
 -1.7129707e-01
 -9.3739368e-03
 -2.1315625e-01
 -3.1764862e-01
  3.1176591e-01
  1.0092471e+00
  2.4236242e-01
  2.5249013e-01
  4.8496962e-01
 -2.0571062e-01
  7.0286781e-01
 -4.3467715e-01
  1.0810105e-01
  1.4371377e-02
  8.9759445e-03
  4.6597868e-01
 -6.6912383e-02
  8.2255378e-02
 -6.0075730e-01
  6.8484789e-01
 -3.0393806e-01
  4.0613267e-01
 -2.3945873e+00
 -1.5808605e-01
  3.1157362e-01
  2.7919608e-01
  2.9765090e-01
  1.1266217e-01
  9.4216667e-02
  4.5860134e-02
  2.8361991e-01
  7.6741916e-01
 -1.2964083e-01
  1.1352947e-01
 -1.2748140e-01
  7.0797734e-02
 -2.3094852e-01
 -4.3698326e-02
  8.6347538e-01
 -5.9426004e-01
  1.0606888e-01
 -1.8141381e-01
 -1.3808706e+00
 -2.5904942e-01
  6.5789014e-01
  2.8290457e-01
 -9.6226176e-03
  1.1298551e-01
 -5.4492623e-01
  3.5484311e-01
  2.9481876e-01
 -6.2557377e-02
 -7.4392068e-01
 -1.0312163e+00
 -3.7090024e-01
 -2.7678436e-01
 -2.8346029e-01
  7.1098901e-02
  8.7688935e-01
 -8.5172999e-01
  8.0633706e-01
 -3.0433610e-01
 -5.2205449e-01
 -8.2421595e-01
 -5.5243754e-01
 -2.8565192e-01
  1.1887616e-01
 -5.4423279e-01
  2.1087544e-01
 -2.9529020e-01
 -7.9535380e-02
 -1.3088146e-01
 -1.7923112e-01
 -1.7397748e-01
 -1.8454418e-01
 -2.6348680e-03
 -7.0650476e-01
  6.5022933e-01
 -2.9263872e-01
  3.5010290e-01
  3.1574076e-01
  1.3041841e+00
 -6.5536928e-01
 -3.2442328e-01
  1.9497825e+00
  1.6932085e-01
  1.7718591e-01
 -3.4787333e-01
 -7.6523416e-02
 -4.0499884e-01
  1.3826272e-01
  1.2147734e-01
 -6.7002960e-03
  5.7648087e-01
 -8.7236637e-01
 -1.3683300e-01
 -4.6120393e-01
 -4.0648329e-01
 -5.5860603e-01
  2.9218623e-02
 -1.5543443e-01
 -1.7499743e-01
  1.1149077e+00
 -1.4858789e+00
 -9.5709920e-01
  6.1703748e-01
  2.0229106e-01
  4.8708570e-01
 -1.3330437e-01
  1.0240585e+00
 -1.4817832e-01
 -1.4442658e-01
 -2.3540193e-01
  2.2072586e-01
  4.9732450e-01
  8.2601315e-01
 -3.9821702e-01
  2.6092994e-01
  1.5778077e-01
  8.2456477e-02
 -7.5239331e-01
  4.9105749e+00
  1.4330402e-01
 -9.3114477e-01
  5.1568019e-01
  4.5331666e-01
  5.0111616e-01
  6.2468207e-01
 -2.9907975e+00
  4.9591401e-01
  3.4509168e+00
  7.5166613e-01
 -3.8349175e-01
  1.4516209e-01
 -1.6717771e+00
 -2.1826680e+00
  5.0749904e-01
  4.8070616e-01
 -4.4582006e-01
  1.2595811e+00
 -9.8723924e-01
 -1.4603372e+00
  7.5399822e-01
 -4.9381331e-01
 -4.5279086e-01
  1.1163172e+00
  3.0315818e-02
 -3.6674699e-01
  4.9061558e-01
 -9.9637163e-01
 -9.8664141e-01
 -2.0262162e-01
 -1.2956615e-01
 -2.0329988e+00
  1.1499002e-01
 -7.9523617e-01
 -1.1563047e+00
  3.8435376e-01
  1.7691050e-01
 -3.0963451e-01
 -1.1913279e-01
 -4.3381366e-01
 -9.6892625e-01
  5.9403455e-01
  1.8710525e-01
  3.4863377e-01
 -6.9063699e-01
 -9.1185361e-01
  7.2105780e-02
 -2.2529654e-01
  5.5696839e-01
  7.8981060e-01
 -1.5937010e+00
  1.5424433e-01
  3.2929409e-02
  1.5885766e-01
 -1.5708910e-01
 -1.7057447e-01
  1.4314364e-01
 -1.9077224e+00
  7.1812409e-01
  3.8292550e-02
  9.8116416e-01
  2.5084662e-01
  9.0616709e-01
 -3.0284575e-01
  7.0068277e-02
 -3.6905867e-01
  3.4155914e-01
  2.3832667e-01
  1.7435275e+00
 -1.4012565e-02
 -4.0314704e-01
 -3.2782233e-01
  2.3661557e-01
 -8.7109692e-03
  3.3902776e-01
  4.5397496e-01
 -1.1282706e-01
 -1.7056285e-01
 -7.2699195e-01
  3.0327731e-01
  4.0517315e-01
 -6.6414517e-01
  1.2294917e+00
 -2.1887073e-02
 -1.6194466e-01
  1.8883407e-01
  1.9428872e-01
 -1.2681603e+00
  1.1591107e-01
 -1.4540400e-01
  7.6561189e-01
 -1.0530633e-01
 -1.1021999e-01
  7.9144734e-01
  4.9251121e-01
 -2.0343985e-01
 -2.5694326e-01
  1.5210193e-01
  1.7314433e-01
 -2.1813993e-01
 -1.4986137e-01
  4.0256888e-01
  2.3400410e-01
 -4.9214995e-01
 -5.3687829e-01
 -7.9894024e-01
  1.7130764e-03
 -5.7035965e-01
 -3.0398288e-01
 -8.4403709e-02
  4.5416924e-01
 -3.6474341e-01
  2.9981121e-02
 -4.8355112e+00
 -1.3216451e+00
  1.6602798e+00
  3.9878264e-01
 -1.8779411e+00
 -1.2740326e+00
  1.5746559e+00
 -1.4788332e+00
 -2.6572794e-01
  9.1609783e-02
 -2.9051292e-01
  1.0593817e-01
  5.5424392e-01
  3.5108337e-01
  7.0938736e-02
  6.8894756e-01
 -3.3278203e-01
  4.6192408e-01
  6.7781460e-01
 -2.0742197e-01
 -2.3050556e-01
 -6.7613125e-01
  1.6382240e-02
 -2.5025675e-01
  5.1846724e-02
  3.8319334e-01
  1.0363034e+00
  7.7706146e-01
  7.3748245e-03
  9.6615535e-01
  6.1696112e-01
  1.6762744e-01
  2.0005178e-02
  6.8500794e-02
 -1.5415533e-01
  3.4576246e-01
 -1.6512024e-01
  4.2584386e-02
 -6.4777231e-01
 -1.5717229e-01
 -5.9137470e-01
 -1.6594315e-01
  2.0909104e-01
  1.7341584e-01
 -4.4941169e-01
  1.4911931e+00
  2.5583211e-01
 -1.9923724e-01
 -4.1550267e-01
 -5.8915239e-02
 -1.6912492e-01
 -2.2608244e-01
 -3.6024630e-01
  6.1900532e-01
 -8.5773081e-02
  1.1479982e-01
 -5.0453369e-02
  2.7493763e-01
 -1.0169437e+00
 -2.6477191e-01
 -1.4682940e-01
  2.7786326e-01
  3.9528690e-02
 -5.9024435e-01
 -2.2417285e-01
  9.9036008e-01
 -2.8176701e-01
  2.5619972e-01
  2.2634566e-02
 -5.7404637e-01
  8.4141150e-02
  8.4697598e-01
  2.4006944e-02
 -2.7270541e-01
  5.6193721e-02
  5.7199009e-02
  1.2907536e-01
 -9.7984284e-01
  7.8881845e-02
 -4.0213600e-02
  3.3512220e-01
 -3.2081146e-02
 -1.3444480e+00
  8.1474505e-02
 -2.4666275e-01
  1.0108823e-01
 -1.5123606e-01
 -4.0711787e-02
  3.7431881e-01
  9.4472641e-01
  6.6167369e-02
  2.2027504e-01
 -9.8962352e-02
  7.2786838e-01
 -5.3048939e-01
  9.9532411e-02
 -1.7636204e-01
 -5.8970356e-01
 -1.8491723e-01
 -1.0723134e-02
 -3.1195043e-02
 -2.0274320e-01
  6.4717695e-02
 -2.8373918e-02
 -1.0254049e-01
  7.5423425e-01
  8.9653754e-01
  1.5833704e+00
  1.7215529e-01
 -1.0071527e+00
  1.7685081e+00
 -1.1074264e+00
 -3.2900279e+00
 -1.7101129e+00
  5.9100044e-01
  1.5825419e+00
  5.2783586e-02
 -3.7157028e+00
  2.5877550e-01
  3.2435241e-01
 -3.8029721e-01
  3.0384811e-02
 -2.8279051e-01
  1.9449393e-01
  3.1528141e-02
 -4.2121038e-01
  1.1120725e+00
 -1.7785440e-01
 -2.1052694e+00
 -1.7438997e-02
 -4.0501308e-01
 -1.5817955e-01
  2.8719118e-01
  3.1969953e-01
  4.5770246e-01
  3.9045528e-01
  1.5837978e-01
 -3.3356485e+00
  7.8954554e-01
  5.3268582e-01
  1.0717379e-01
 -1.7150334e+00
 -3.3972375e+00
 -5.4176241e-01
  1.2333418e+00
  2.3441330e-01
 -2.4598098e+00
  2.6890449e-02
  1.3994145e-01
 -8.2181089e-02
 -5.8201247e-01
 -7.9715634e-03
  6.2463254e-01
 -1.0479262e+00
 -7.2712475e-01
  2.5038570e-01
  1.1801276e-01
  4.3270756e-02
  2.0473517e-01
 -1.9841712e+00
 -2.8993368e-01
 -4.7758350e-01
 -9.8955072e-02
  4.2310232e-01
  3.0712387e-01
  3.3530262e-01
  2.9476407e-01
  4.8769534e-01
  2.8251457e-01
 -2.6568058e-01
  1.4632237e-01
 -4.1479781e-01
  3.6102974e-01
 -2.4971208e-01
 -8.3467680e-01
 -2.1827295e-01
 -7.4845541e-01
  1.4988735e+00
  2.6807305e-01
 -1.4458282e-01
 -1.6677453e-01
  4.0987122e-01
  1.1480628e-01
 -2.6667431e-01
 -3.2226834e-01
 -1.5215373e-01
  9.7883582e-01
  6.0887333e-02
  1.7963663e+00
  4.4324055e-02
  2.4819842e-01
  1.3404734e-01
 -1.9528523e-02
  4.2428827e-01
 -7.9139274e-01
 -3.2358873e-01
  1.7367978e-01
  1.7351684e-01
  1.4064478e+00
 -7.6353312e-01
  3.1373546e-01
 -2.0029317e-01
  7.6831728e-01
 -1.0193230e+00
 -4.0036982e-01
  3.7210616e-01
  9.8476338e-01
 -1.2279521e+00
 -7.0885770e-02
  7.2278917e-02
  2.7825278e-01
  1.0359885e+00
  9.3137398e-02
 -2.6727635e-01
 -3.7167755e-01
 -1.5399271e-01
  4.7455254e-01
  8.5736305e-02
  4.2332819e-01
  3.3285937e-01
 -7.0722073e-01
  1.5753293e-01
  7.2686386e-01
 -3.4573540e-01
 -9.9556774e-01
  6.9485051e-03
 -1.5862733e-01
  2.1251841e-01
  9.2561968e-02
  1.0430919e-01
 -4.6091089e-01
 -1.6997017e-01
  1.8481265e-01
 -5.7408479e-03
 -2.6700029e+00
  2.3119317e-01
 -3.9569670e-01
  3.3605847e-01
  6.3902223e-01
  2.2718868e-01
 -2.0005669e-01
 -4.6007907e-01
  1.5602174e-01
  9.5598148e-03
  1.3489488e-01
  8.2079804e-01
 -6.9117641e-01
  1.1055021e+00
  2.3997131e-01
  5.0907171e-01
  9.4347067e-02
  4.5417741e-01
  1.7634888e-01
 -2.2712867e-01
 -3.1149186e-02
  9.4758101e-02
  8.4555171e-02
 -2.3083593e-01
  3.3322871e-02
 -1.6104855e-01
  2.4010405e-01
  9.8310691e-01
 -4.6761236e-01
 -2.3085991e-01
 -6.4477503e-01
 -8.6731064e-01
 -1.7581470e-01
 -4.5004842e-01
 -3.1393406e-01
  9.6153289e-02
 -5.9119165e-01
 -1.0775097e-01
 -1.4128312e-01
  1.0386404e-01
 -4.2270150e-02
  7.7221668e-01
  1.4760847e-01
 -3.0229852e-01
 -7.2012222e-01
 -9.5140958e-01
  1.9906243e-04
 -1.1338085e+00
 -5.0859022e-01
  1.2848432e+00
 -1.9171347e-01
  2.5349706e-01
 -4.8911631e-01
  1.5039189e-01
 -4.7759017e-01
 -2.2239549e-01
  4.4181299e-01
 -2.0120919e-01
  2.7393702e-01
 -2.6325735e-01
  6.0498846e-01
  8.3964509e-01
  4.5914859e-01
 -2.0792583e-01
 -8.4000814e-01
  3.5591403e-01
 -1.8371245e-01
 -7.8991763e-02
  4.0516260e-01
  2.9322523e-01
 -4.6818327e-02
 -2.2127961e-01
  5.9644114e-02
  1.1348305e+00
  4.2774460e-01
 -1.5539488e-01
 -3.4910110e-01
 -3.7755474e-01
  6.3890201e-01
 -1.2895122e-01
 -7.5150385e-02
 -4.9830500e-02
  8.1378746e-01
 -6.3749427e-01
  1.4719454e+00
  3.2844186e-01
  2.9786611e-01
  4.4932160e+00
  3.6141789e-01
 -8.0180995e-02
 -3.1410739e-01
 -3.2734120e+00
  5.8938110e-01
  1.8411592e+00
 -4.6972463e-01
  3.0503112e-01
 -1.7416012e+00
 -5.8581221e-01
 -1.5226382e+00
 -1.3808190e-02
 -7.3480070e-01
 -3.7103191e-01
 -1.0420672e+00
 -1.6300222e-01
 -1.2025023e+00
  7.6738738e-02
 -9.9637412e-02
 -6.6393733e-01
  1.3787571e+00
 -1.3763936e-01
  1.8209413e-01
  4.6656284e-02
  3.3337155e-01
  7.3361576e-02
 -2.9324719e-01
 -2.9371148e-01
  1.1103268e-03
  3.3001646e-01
 -1.5131284e+00
 -4.7955906e-01
  7.2948836e-02
 -3.1419984e-01
 -6.3121253e-01
  1.4650376e+00
  2.8042910e+00
  8.0778278e-02
 -4.5249453e-01
 -2.6222652e-01
 -2.0036125e+00
  1.0900930e+00
 -5.1580027e-02
 -2.9615018e-01
  1.6210392e-01
  6.3522168e-02
  4.3225211e-01
  4.5070529e-01
 -1.3561486e-01
  6.1720163e-01
 -4.7547409e-01
 -4.2019629e-01
 -1.5740371e-01
  4.8624113e-01
  4.2902615e-02
  3.2510939e-01
 -2.3867184e-01
 -3.7292534e-01
 -4.9640092e-01
  2.1391971e-01
 -3.2536539e-01
 -1.0824035e-01
 -3.0047383e+00
  4.7795717e-02
  7.4288979e-02
  1.5166655e-01
 -7.4456739e-01
  4.1952217e-01
 -2.9332960e-01
 -6.8002868e-01
  1.1128443e-01
  5.7256526e-01
  2.3363113e-01
 -2.0259093e-02
  4.7889593e-01
 -1.4385293e-01
 -2.1041396e-01
  6.9456333e-01
 -2.2946712e-01
 -2.7737519e-01
  2.5179347e-01
  1.7355889e-01
  1.1368937e+00
  3.1699347e-01
  7.3330864e-02
 -3.6826688e-01
  6.0273689e-01
 -3.5341566e-03
  4.4972128e-01
 -8.3208108e-01
 -1.1339972e-01
 -1.7058879e-01
 -4.4578858e-02
  3.2725334e-03
  3.2590784e-02
  3.2194528e-01
  1.2351713e-02
 -3.0806631e-01
 -2.4699540e-01
  1.3240975e-01
 -3.3634618e-01
 -9.5481880e-02
 -1.0936235e-01
 -2.6573740e-02
 -2.5013787e-01
  9.5104831e-01
 -4.1535303e-01
 -2.4763097e-01
  9.0404725e-01
 -5.5446792e-01
 -1.0653447e-01
  1.0457536e-01
 -1.0478837e+00
  2.4984367e-01
 -8.4131867e-01
  6.1973339e-01
 -1.5421541e-01
 -2.3677424e-03
  5.1692647e-01
 -2.4846777e-02
  2.3762283e-01
  4.4719410e-01
 -1.1174608e+00
  1.8336441e-01
  4.4874176e-01
 -1.7299633e-01
  8.8973761e-01
 -2.6797108e-02
  2.2273135e+00
  8.0784869e-01
  1.4700130e-01
 -2.1266328e-01
 -4.0638983e-01
  5.1309055e-01
 -2.9854742e-01
  2.7478451e-01
  2.9478374e-01
 -4.5350882e-01
  2.7081826e-01
  1.2404709e-01
  2.2515075e-02
  4.7021493e-01
  3.1745392e-01
 -8.6085409e-01
 -1.0565066e-01
 -4.8361826e-03
 -7.8506458e-01
  4.0503791e-01
 -3.7403053e-01
  2.4107429e-01
 -8.3969527e-01
 -3.7822184e-01
 -6.7868900e-01
  2.5331602e-01
  2.0902557e-02
 -9.2323959e-01
  5.9269392e-01
  4.3118986e-01
 -3.3287024e-01
  1.9721992e-01
 -5.8204353e-01
  5.8070350e-01
  1.1513101e-01
  3.4379840e-01
 -4.3187771e-02
 -1.1281538e+00
  2.9891676e-01
  1.0819074e+00
  5.4269612e-01
 -5.9964541e-02
  9.2608976e-01
 -3.0597478e-01
 -2.1565306e+00
 -1.0387166e-01
  6.3499026e-02
 -6.6772401e-01
 -5.8708273e-02
  3.5676055e-02
 -1.6601808e-02
 -1.3003059e-01
 -4.2241302e-01
 -1.3369764e+00
  2.9234397e-01
 -1.6275579e-01
 -1.0685363e+00
  1.3838168e+00
 -4.0999475e-01
 -4.5046699e-01
  9.3107499e-02
  1.1264194e-02
 -5.3604131e+00
  7.8183189e-02
 -1.4595118e-01
 -7.1350910e-02
  3.8659841e-01
 -3.2942292e-01
 -1.2937321e-01
 -2.2995283e-01
  1.2103872e-01
 -7.9183763e-01
  8.6290855e-03
  5.0342381e-01
 -1.0954587e+00
  1.0260017e+00
 -1.0839540e+00
 -8.5705578e-01
  1.4207430e-01
 -2.1372038e-01
 -1.8814141e-01
  1.7250404e-01
  6.5993458e-01
  1.9746648e-01
 -1.2263759e+00
  7.6776832e-01
  7.1945004e-02
 -7.6209170e-01
  4.2929754e-01
 -2.9640839e-01
  2.4296074e-01
 -4.9154889e-02
 -1.2486144e+00
 -8.0774802e-01
  2.2942898e+00
  4.0912833e-02
  3.7772173e-01
  1.7668268e-01
 -7.4089473e-01
 -2.3643307e-01
  1.6140762e-01
 -1.0976636e+00
 -3.2458331e-02
 -3.0743947e+00
 -4.9285386e-02
 -1.5882494e-01
 -4.4196209e-01
 -1.3025011e-01
 -1.6275464e-01
 -3.6387926e-01
  2.7920228e-01
 -8.0714869e-01
  3.5633805e-01
  2.1129204e-01
 -1.7938681e-01
 -1.6219160e-01
 -2.6488073e-02
  1.4201733e-01
  2.3580488e-02
  2.5744703e-01
 -6.6285664e-01
 -8.8918668e-01
 -3.0387664e-02
 -2.6161516e-01
  1.0381455e+00
 -3.2142109e-01
  2.2744970e-01
  1.3490595e+00
 -9.8188654e-02
  3.8115695e-01
 -7.7297097e-01
  3.8700122e-01
 -3.4902111e-01
  1.0824257e-01
 -3.7781164e-01
 -1.2877439e-02
  1.8631229e-01
  1.9312932e+00
  1.0004681e-01
 -9.5016651e-02
 -6.5069747e-01
  3.5900277e-01
  5.1158875e-01
  2.2206545e+00
 -9.6526664e-01
  4.2898306e-01
  8.2434148e-01
 -8.5576701e-01
  8.7372464e-01
 -5.4885435e-01
  4.0553567e-01
 -9.4657707e-01
  1.8332562e-01
  1.2568407e-01
 -2.0153622e-01
  1.4649785e-01
  3.7306762e-01
 -6.6481598e-02
  4.2979103e-01
  1.3234559e-01
  5.0931603e-01
 -3.7574252e-01
 -2.0139548e-01
 -2.6729017e-01
 -2.5250578e-01
  2.5968343e-01
  1.4071545e-03
  6.3236975e-03
 -2.2405636e+00
 -4.9094588e-02
  2.6482832e-01
 -4.2848489e-01
  3.1407096e+00
 -1.3388023e+00
  2.6632104e-02
 -5.5101264e-01
 -1.0102486e-01
 -2.9990661e-01
 -8.0452122e-02
  1.6984132e-01
 -2.6450983e-01
  3.1953871e-01
 -2.8288394e-01
  6.8192631e-02
 -7.0828982e-02
  1.0048574e-01
 -2.1277818e-01
 -5.0809726e-02
  3.7388355e-02
  1.4124092e-01
  5.7702601e-02
  3.0942181e-01
  4.5792443e-01
  4.8732111e-01
  3.1744954e-01
  6.0041970e-01
  4.8616018e-02
 -1.6002886e-01
  1.3797346e-01
 -1.3683394e-01
  1.5901707e-02
 -5.0860244e-01
 -1.0870150e+00
 -1.0682243e+00
  3.4503704e-01
  7.1890062e-01
  7.4982435e-01
 -3.0335569e-01
  2.2517686e+00
  1.5704058e+00
 -3.9069876e-01
  3.0686727e-01
 -1.4008996e-01
 -6.3820142e-01
  4.0910542e-01
  1.0587819e-01
  6.4252007e-01
  3.9109889e-01
  5.5952615e-01
 -5.2908695e-01
  3.2323085e-02
  4.9636263e-02
  4.1331768e-02
 -9.1132426e-01
  5.3743345e-01
 -8.7410444e-05
 -4.6085647e-01
  5.1183867e-01
 -2.7346653e-01
 -2.7666938e-01
 -7.1561277e-02
  3.6506865e-02
 -7.8182280e-01
  3.7298584e-01
 -2.5592927e-02
 -1.1995201e-01
  5.2546901e-01
 -1.7451552e-01
  3.2448418e-02
  2.4276000e-01
  1.5766224e+00
  6.1467469e-02
  1.8942598e-01
 -1.6230235e-02
 -5.0397512e-02
 -4.2370588e-01
  8.2054406e-02
  4.1708302e-02
 -9.9242091e-02
 -5.9513223e-01
 -3.5182738e-01
 -1.1399169e-01
 -2.6100370e-01
 -9.4585055e-01
  7.2673336e-02
  9.0016901e-02
  9.7556077e-02
 -6.1985135e-01
  1.2726161e-01
  2.4041823e-01
  3.7269205e-01
 -2.2955291e+00
 -9.2270702e-01
 -5.8486038e-01
 -1.2496856e+00
 -9.6306318e-01
 -4.8920730e-01
  2.0977731e-01
  7.1696860e-01
  6.1961859e-01
 -3.2775909e-01
 -1.1895605e+00
  5.7068789e-01
  1.2572837e-01
  5.9519053e-01
 -4.8403904e-02
 -2.5428915e-01
  2.1279500e+00
  1.3090526e-02
 -1.7085457e-01
 -9.3959711e-02
 -1.2764724e-01
  2.3791103e-01
  4.3096647e-01
 -9.9067837e-01
 -4.7406726e-02
 -3.6093470e-01
 -8.7681219e-02
 -1.8077534e-01
 -1.4178534e-01
 -4.3086588e-01
  2.0945100e-01
 -3.0483899e-01
 -4.0855680e-02
 -7.0669460e-01
 -1.7080185e-01
  6.7425269e-01
 -6.9416171e-01
 -8.7596498e-02
  1.9252418e-01
 -2.5778645e-01
 -1.2495464e+00
  1.2273228e-01
  1.4600962e-01
 -2.4627247e-01
  8.9640158e-01
 -4.7224113e-01
 -3.7663844e-01
 -1.0409616e+00
 -4.5990676e-01
  1.4421935e-01
 -9.1797998e-03
 -6.0817313e-01
 -8.5689530e-02
  2.3213718e+00
 -2.0543044e+00
  1.2073524e-01
 -1.7428574e-01
  6.1681491e-01
  1.0076461e+00
  8.0388117e-01
  7.8279716e-01
  1.1541660e-01
  6.9865346e-02
  2.5236994e-01
  4.4437248e-01
  1.9015999e+00
 -5.4975474e-01
 -2.4716434e-01
 -5.7896709e-01
  7.4325752e-01
 -7.5168788e-01
  5.0083309e-01
 -1.5877161e-02
  1.2156513e+00
  1.2106659e-01
 -6.7529753e-02
  6.9967246e-01
  1.0223228e+00
  1.0246867e+00
  8.7670282e-02
  2.2913653e-01
 -1.6422002e-02
  7.8000173e-02
  2.9074374e-01
  1.2524250e+00
  4.4507614e-01
 -1.4164744e-01
  1.8923668e+00
 -2.1644606e-01
 -1.4663574e-01
  1.6785574e-01
 -1.9544283e-01
  3.9838128e-02
  4.2988960e-02
 -1.2810871e-01
  1.1662676e-01
  1.2938306e-01
 -5.9578426e-02
  2.0742950e-01
 -9.2818737e-02
  8.8325500e-01
 -1.2430637e-01
 -1.2041430e-01
  3.8599285e-01
 -5.4003304e-01
 -2.5064003e-01
 -1.3869497e-01
 -7.3132319e-03
  3.5732949e-01
 -2.2541566e-01
  2.4130459e-01
 -7.0966041e-01
  6.9818184e-02
  8.2818143e-02
  6.3970041e-01
 -2.8643137e-01
 -9.2330527e-01
  2.9637083e-01
  2.9994935e-01
 -1.2131271e-01
 -3.1133395e-01
  4.5602435e-01
  4.2604265e-01
 -6.3655430e-01
 -1.1196442e+00
  4.6145990e-01
  2.3847620e-01
 -2.8847462e-01
  1.5910064e-01
 -1.0979160e+00
 -2.4218075e-01
  1.2865541e+00
  1.7065878e-01
  4.2666242e-01
  2.3453993e-01
  8.8395572e-01
 -3.3530343e-01
 -1.5182761e+00
 -3.1302050e-01
 -1.6348092e-01
  4.5651236e-01
  8.2606655e-01
  6.8207309e-02
  2.3818351e-01
  1.0567854e-01
 -7.6315302e-01
  5.5128175e-01
  7.7113795e-01
 -4.4147989e-01
 -6.4646572e-01
  9.9801853e-02
 -9.6474951e-03
  2.4299665e-01
  2.9122862e-01
  1.5202712e-01
 -1.0803494e+00
 -1.4407843e+00
  8.7777293e-01
 -9.9582112e-01
  2.1400960e-01
 -7.1983367e-01
 -1.8030486e-01
  1.7421706e-01
  2.6388323e-01
  6.3674465e-02
 -1.8047026e-01
 -6.4337355e-01
  1.1811025e-01
 -5.6718260e-01
  1.4863208e-01
 -9.0346748e-01
 -8.2701033e-01
 -1.2111036e+00
 -6.0097210e-02
  2.1226538e-02
  5.3197372e-01
 -1.5502477e-01
 -3.0154279e-01
  2.7189556e-01
 -3.0632118e-02
  3.0706677e-01
 -7.6441973e-01
 -1.0915282e-01
  5.5220199e-01
  2.3980419e-01
 -9.9566597e-01
  9.4527519e-01
 -6.0660404e-01
  2.0836635e-01
  2.9208717e-01
  2.8463668e-01
  3.2228702e-01
 -2.0235671e-01
  3.1081121e-02
  4.5113373e-01
  1.8834643e+00
  3.7015539e-01
  7.5962162e-01
  9.0223059e-02
 -4.9377840e-02
  1.7645464e+00
 -8.7989688e-02
  7.4625418e-02
 -7.6858604e-01
 -3.2346597e-01
 -2.2118898e-01
 -1.0978756e-01
  3.4038383e-01
  3.4925210e-01
  8.2402200e-02
 -7.5070179e-01
 -1.1157761e+00
  3.6328009e-01
 -2.8503922e-01
  2.7105084e-01
 -2.7154598e-01
 -1.2026000e-01
 -9.6675657e-02
  1.3125300e-01
  9.3576431e-01
 -2.2277001e-01
 -1.9799936e-01
 -2.1994524e-01
  1.5940761e-02
 -3.3443987e-01
  1.3594083e+00
 -5.5140238e-02
  3.9340141e-01
  5.4253310e-01
 -8.5577780e-01
 -6.0305834e-01
 -2.2956128e-01
 -1.0839435e-01
 -5.8336353e-01
  5.0122321e-01
  2.3200570e-01
  2.9219821e-01
  2.3600487e-01
  1.6299979e-01
  5.9502137e-01
  3.9335400e-01
 -4.0109342e-01
 -3.9127216e-01
 -6.9848669e-01
 -2.6699650e-01
  9.4910455e-01
 -7.3116165e-01
 -1.9496231e-01
  3.2709321e-01
  1.8651190e-01
  1.1040714e-01
  1.0383207e+00
 -1.2058328e-01
 -5.0277847e-01
 -3.0460387e-01
 -1.3313296e-01
 -2.2667666e-01
  1.5824604e+00
 -4.5229849e-01
  5.6207460e-01
 -4.1860658e-01
 -7.8763276e-01
  7.9291403e-02
  1.7052418e-01
  1.8069750e-01
 -2.4900322e+00
  2.1024389e+00
 -1.9936743e-01
  2.1202482e-02
 -5.6242442e-01
  1.9810377e+00
  5.5444223e-01
 -4.2124804e-02
 -1.5564736e+00
  9.7286803e-01
  5.6619579e-01
 -1.1131598e+00
 -3.7274310e-01
 -2.6188536e+00
  5.3580290e-01
  9.3805730e-01
 -1.0913655e-01
  7.3320806e-01
 -3.0800608e-01
  2.2943351e-01
  2.1809120e-01
  8.9166462e-02
 -4.0744260e-01
 -2.6574066e-01
 -1.1564623e+00
  3.6646074e-01
  5.0688051e-02
  2.9708242e-01
 -4.7510330e-02
  4.9492234e-01
  1.6642958e-01
  1.7708645e+00
 -1.6298969e-01
  5.3717956e-02
  6.3403368e-02
  1.0747029e+00
  1.5814617e+00
 -5.0857711e-01
  8.7084174e-01
  6.9542718e-01
  9.0197283e-01
  2.5045103e-01
  1.0178233e+00
  1.4830525e-01
 -1.6431923e-01
  2.6525088e-02
 -2.4009605e-01
 -1.7335409e-01
  1.7505527e-02
 -2.6789062e-02
 -7.9732800e-01
  2.4208082e-01
  9.0277928e-01
  1.3088207e-01
 -1.4413238e+00
  5.6538534e-01
 -3.7274119e-01
 -8.5628949e-02
 -4.2690020e-02
  6.0918462e-01
  3.7948787e-01
 -1.1694810e-02
 -2.4258204e-01
 -4.5099506e-01
 -4.1553104e-01
  1.7582424e-01
 -1.7617762e-01
  5.8333820e-01
 -1.4374779e-02
 -3.5435334e-01
  3.5338685e-01
 -2.3350757e-01
  2.3730330e-02
  8.8990974e-01
 -4.1027784e-01
 -4.5907307e-01
  3.1808874e-01
  1.6574112e-01
  5.4373246e-01
  2.6090977e-01
  2.3725468e-01
 -1.7467497e-01
 -2.2597933e-01
 -5.5363709e-03
 -2.2824425e-01
  2.7830413e-01
  2.2387290e-02
 -3.9256117e-01
 -1.6399229e-01
 -1.0598083e-01
 -5.8638971e-02
  1.2591080e-01
 -1.0567424e+00
 -1.5966454e-01
 -1.6356245e-01
 -8.9015377e-01
 -2.2013587e-01
  1.3119099e+00
 -1.3225582e-01
  4.2790109e-01
 -1.2676223e-02
 -1.7552319e-01
  2.2788151e-01
  6.2778331e-02
 -7.4584180e-01
  6.5838265e-01
  9.9134356e-01
  2.7356899e-01
 -7.2838831e-01
 -2.3264734e-02
  2.7330250e-01
 -3.9578480e-01
 -6.0383123e-01
 -1.9381578e-01
 -3.0767810e-01
 -3.1551674e-01
 -6.9239557e-01
  6.3230515e-01
 -2.9915562e-02
  4.2898275e-02
  1.3685069e+00
 -6.8945713e-02
 -6.1495984e-01
 -4.2889154e-01
  3.7468201e-01
 -4.8007537e-02
 -5.2567711e-03
  2.2994608e-01
  9.5029938e-01
  7.3189813e-01
  3.8045818e-01
 -1.4621648e-01
  2.9399624e-02
 -1.2505473e-01
 -3.3756655e-01
  1.2979057e-01
 -1.4083384e+00
  8.0866091e-02
  1.2186792e-01
  1.2990874e-01
  2.9418814e-01
 -3.1037253e-01
  4.8360922e-03
 -8.0458719e-01
  7.9771936e-01
  7.3330444e-01
 -3.1736520e-01
  1.8650062e-01
 -1.1066827e-01
 -2.1320357e+00
 -3.9935836e-01
  1.5444796e-01
  1.7154194e+00
  1.9745933e-01
 -2.8546146e-01
  1.7606631e-01
  1.6425492e-01
 -2.7469710e-01
  3.6521974e-01
 -1.0391572e-01
 -6.4381838e-01
  1.0871606e-01
  9.0136081e-01
 -1.1033430e+00
 -2.5619772e-01
  2.5280401e-01
 -1.1850908e-01
 -2.5767997e-01
  5.6379193e-01
 -9.7563130e-01
  4.5961946e-02
 -6.2389594e-01
 -1.6238859e-01
 -2.1871977e-01
  5.5808133e-01
 -3.7721388e-02
 -6.4083792e-02
  5.6039762e-01
  1.2309898e-01
 -5.8938229e-01
 -1.0850927e+00
 -3.5447130e-01
 -6.2754744e-01
  4.1402373e-01
 -3.6232373e-01
  1.0878395e-01
  8.8374490e-01
 -6.4838833e-01
  3.0270877e-01
 -3.2260224e-01
 -3.9573526e-01
  4.8338633e-02
 -2.0141654e-01
 -3.0820060e-01
 -8.5185993e-01
  3.6982927e-02
 -2.1841389e-01
  9.4801992e-02
  2.6723194e-01
  6.2881356e-01
 -8.0534205e-02
  9.4187033e-01
 -9.8431444e-01
 -1.6786255e-01
  4.5886245e-01
  5.1169604e-02
  3.6359242e-01
  1.7556442e-01
  1.0517844e+00
 -3.9877057e-01
  7.3352581e-01
  6.2681705e-01
  3.5907209e-02
 -1.7524686e+00
  3.0597105e+00
  2.2665286e-01
 -7.8756213e-01
  9.2520851e-01
 -7.0164603e-01
  1.1688797e+00
  5.4375476e-01
 -6.6684192e-01
 -1.4727769e+00
 -2.8013811e-01
 -2.8950477e-01
 -9.8078907e-01
 -1.0715680e-01
 -1.2065063e+00
 -1.9818322e-01
 -5.9093195e-01
  1.0720999e+00
 -8.7097079e-01
 -5.4545665e-01
  2.1885781e-01
  2.6910661e-02
 -8.2753664e-01
 -1.3541927e+00
 -1.0054383e+00
  7.3261522e-02
  8.0388021e-01
 -7.5422816e-02
  9.9903762e-01
  6.7598717e-03
 -1.0016592e-01
 -4.0349618e-01
 -2.0037135e-01
  8.1436366e-02
  3.5130528e-01
  1.6742982e+00
 -3.3307603e-01
 -3.0506784e-01
 -2.0997037e-01
 -2.5255916e-01
  9.6843517e-01
 -1.8567966e-01
  1.6683631e-02
  1.9368911e-01
  3.8799211e-01
 -3.9609393e-01
 -1.5650709e-01
 -5.3843999e-01
 -1.6451828e-02
 -1.4839442e-01
 -8.6843846e-03
 -1.7948279e-02
 -1.2343012e+00
 -3.1598014e-01
  4.5732597e-01
  5.4180712e-01
  2.1059581e-03
 -2.0967199e-01
  3.5852946e-02
  1.8992116e-01
 -4.2221984e-01
 -2.1649098e-01
  1.6084324e-01
 -3.5822675e-01
 -9.6327335e-01
 -7.1849199e-03
 -2.9900384e-01
  7.2981554e-01
  2.0598389e-01
 -3.9339530e-01
 -8.3960854e-02
  3.1568128e-01
 -1.4056758e+00
  8.6461231e-02
  3.9549923e-01
  3.4932828e-01
 -1.3410272e-01
 -6.4222313e-02
 -1.7629613e-01
 -1.5594421e-01
 -1.1246858e-01
 -9.0759240e-02
  2.8107741e-01
  1.3260188e+00
  1.2743324e+00
  2.2600484e-01
  5.3934389e-01
  1.1693180e-01
  2.3757598e-01
 -1.9194850e+00
  4.4846568e-02
  5.3451085e-01
  1.6925973e+00
  6.5089214e-01
  9.1657197e-01
  9.4644415e-01
  7.4987245e-01
  1.7768627e-01
  1.4247891e-01
 -1.5599686e+00
  5.5043064e-02
 -6.2248850e-01
 -7.0224947e-01
  3.1703645e-01
  2.1268930e-02
  1.0827856e+00
 -3.5126586e-03
 -5.3992957e-01
  7.2766590e-01
  3.5890732e-02
 -8.3714229e-01
  3.3762202e-01
  4.4317928e-01
  6.5744901e-01
 -4.4181406e-01
 -3.1900924e-01
  4.5448649e-01
  3.4342018e-01
  7.0594408e-02
  7.1612108e-01
  1.2079630e+00
 -3.9208621e-01
 -1.7341455e+00
 -3.3727989e-01
  3.2037458e-01
  2.5894123e-01
 -1.2732077e-01
  1.4027773e-01
 -3.6308187e-01
 -3.5740024e-01
 -4.6106842e-01
 -3.6313956e+00
 -3.5322037e-01
 -1.2195691e-02
 -8.1603312e-01
 -7.5160766e-01
 -1.4615852e-01
  3.2604435e-01
  1.1159663e-01
 -9.6281180e-03
  3.3195674e-02
  1.9277829e-01
  5.0969448e-02
 -8.4604150e-01
 -6.6310786e-02
  1.2523060e+00
  1.5228806e-01
 -1.4161724e+00
  1.2209972e+00
 -2.6273537e-01
 -3.1044316e-01
 -5.0149832e-02
  3.9122656e-01
 -4.3889523e-01
 -9.6283054e-01
  2.6592303e-02
  4.3097880e-02
 -2.8062493e-01
 -6.4694673e-02
 -2.6038823e-01
  1.1374982e-01
 -1.5156706e-01
 -8.8345580e-02
 -2.1572539e-01
 -5.2450788e-01
 -1.8285295e+00
  1.2676636e+00
 -3.3859152e-01
  1.1399931e-01
  2.5700977e-01
  1.7638437e-01
 -6.0762084e-01
 -2.4405380e-01
  3.1161800e-02
  7.0286137e-01
 -2.9432902e-01
 -1.9940002e-01
 -2.7745172e-01
  5.1132089e-01
 -2.8061920e-01
  2.6590389e-01
 -2.8787139e-01
 -4.1013405e-01
  7.9845232e-01
 -1.4512570e+00
 -1.7992397e-01
 -6.4788806e-01
  2.7375391e-01
 -7.7569105e-02
  2.0962051e-01
 -4.5567283e-01
  5.6582427e-01
  5.1757175e-01
  7.4225032e-01
  1.9348454e-02
 -1.0538448e-01
  3.6483642e-01
  3.6804277e-02
 -6.4885640e-01
  5.6712633e-01
  3.7455389e-01
 -3.9871836e-01
 -5.6248796e-01
  9.6884891e-02
 -2.1510761e+00
  1.0694104e-01
 -7.2621226e-02
 -4.6730395e-03
  1.0330144e+00
 -5.6060916e-01
  3.4192464e-01
  5.9503794e-01
 -7.0836800e-01
 -7.1105212e-01
 -1.9308104e-01
  2.3457095e-01
 -1.8121174e-01
  3.1761739e-01
  5.7952054e-02
 -8.7076086e-01
  3.3802530e-01
 -1.0126656e-01
  1.7593933e-02
  4.9206978e-01
 -8.3673561e-01
  1.3510774e-01
  1.1045017e-01
 -6.8067864e-02
  2.0340994e-01
 -7.7346522e-01
 -2.1197768e-01
 -3.7893361e-01
  9.6742153e-02
  2.1764952e-01
 -5.2453946e-02
 -1.7382215e-01
 -4.4853125e+00
 -5.6179464e-01
  7.8557748e-01
  2.8900424e-01
  4.7424883e-01
  3.7352094e-01
  5.6337237e-01
  1.1854194e+00
 -4.5381315e-02
  1.9905207e-01
  8.2005575e-02
 -2.6234433e-02
 -7.1515727e-01
  3.7967581e-01
 -1.1381771e-01
  2.0495854e-02
 -8.4661335e-01
  7.2249568e-01
 -7.3390171e-02
 -1.2782613e+00
  3.5638222e-01
  1.5411371e-01
  5.2574854e-03
  6.3907075e-01
 -3.1754938e-01
 -3.0306748e-01
 -5.1815335e-02
 -1.4700587e-01
  4.0830889e-01
 -2.9493123e-01
  1.3890049e-01
 -3.5519233e-01
 -5.5472221e-02
 -1.5139936e-01
 -3.0714571e-01
 -8.7787938e-01
  1.1176233e+00
  5.5834371e-01
 -5.2690119e-02
  5.3668731e-01
  1.0588311e-01
 -7.7547781e-02
  7.8566331e-01
 -7.4387193e-01
  3.1070719e-02
 -1.8530166e-01
  8.4308892e-01
  8.4458347e-03
 -7.9128027e-02
 -3.1624821e-01
  1.4283777e+00
  1.3484941e-01
 -5.4227394e-01
  3.5363001e-01
 -3.8130566e-01
 -1.8331377e-01
  2.5138584e-01
 -4.1749287e-02
  5.7392800e-01
 -3.8644558e-01
  1.0600867e-01
  8.6946480e-02
  3.2125613e-01
  1.7049168e-01
 -3.1474856e-01
 -1.5786242e-01
 -1.7356938e-01
 -4.4480658e-01
 -9.3249732e-01
 -1.5170945e-01
 -1.0078236e-01
  5.9920414e-03
 -8.4497944e-02
 -3.3938366e-01
 -7.8669727e-01
 -9.8709965e-01
  3.3873537e-01
 -2.0990537e-01
 -5.4213494e-02
  4.3478020e-02
  6.1370498e-01
  1.2997780e+00
  1.7533499e-01
  1.6887548e+00
  4.5137435e-01
  7.0485705e-01
  8.1788343e-01
 -1.2595537e-01
 -4.0370291e-01
 -3.0885339e-01
 -2.1680085e-01
 -5.5130273e-01
 -1.9559030e-01
  3.4379706e-01
 -3.6642051e-01
  1.4725851e+00
 -4.3506384e-01
 -3.8243076e-03
  1.3189919e-01
  1.0919636e-01
 -1.0756788e+00
 -3.2275558e-01
  4.3772119e-01
  4.9153897e-01
  2.1406955e-01
  6.8748705e-02
 -4.6664435e-01
 -1.0226717e-01
  1.2508553e+00
 -1.6437863e-01
 -1.3862623e-01
  4.0168338e+00
 -1.3270911e+00
  8.4960766e-02
 -4.7506645e-01
 -1.3112986e-01
 -8.6813605e-01
  2.7433658e-01
 -1.0592877e+00
  2.2168092e-01
 -3.4597570e-01
 -1.1341878e+00
 -3.6923375e-02
 -2.6223320e-01
  5.5816665e-02
 -1.0756225e-01
 -2.9374527e-02
  2.5092724e-01
  6.6776192e-01
  6.0222971e-01
  5.4309982e-01
  1.0359479e-02
  2.3626314e-01
  5.7060393e-03
 -3.7368283e-01
 -2.0668076e-01
 -1.9666700e-01
  8.2994497e-01
  4.4009572e-01
  2.2351409e-01
  4.3479151e-01
 -8.4177601e-01
  1.1699069e-01
  1.1547970e+00
 -9.8134553e-01
 -8.6629617e-01
  6.8515107e-02
  9.7516917e-02
 -4.0390256e-01
  5.2608544e-01
  1.2670782e-01
 -3.3157885e-01
 -3.5931787e-01
 -9.7181484e-02
  6.0771668e-01
 -1.2984487e-01
  3.4663904e-01
  3.2368428e-01
  2.0600258e-01
 -6.3693836e-02
 -4.5264897e-01
  1.4330342e-01
  1.2373904e+00
  9.2484206e-01
  1.0298876e-01
 -5.6069189e-01
  2.7468756e-02
 -3.5524526e-01
 -3.2855928e-02
  3.4601596e-01
  7.6681578e-01
 -1.3707586e-01
  1.3503987e-01
  2.9458949e-01
 -9.8696095e-01
  3.6333734e-01
  1.9438668e-01
 -7.3173183e-01
 -1.3428706e-01
  1.8675423e-01
 -1.4513977e-01
  2.9493037e-01
 -4.1092962e-01
 -6.3546294e-01
 -6.2133998e-02
 -9.4165033e-01
  4.9963284e-02
  4.5912507e-01
  8.7410814e-01
 -1.6724372e-01
  3.0938315e-01
 -7.4376547e-01
  4.6998078e-01
 -2.5960023e-02
  4.1258776e-01
  8.5192931e-01
 -3.8721778e+00
 -4.3551129e-01
 -1.2406958e+00
  1.9337846e+00
  2.8520987e+00
 -1.7486234e-01
  2.9425552e-01
 -3.6329657e-01
 -3.0809811e-01
  2.5497040e-01
  5.1771909e-01
  3.0406963e-02
 -3.0738774e-01
  2.5983351e-01
  5.6791246e-02
 -1.4221348e-01
  1.0452787e+00
  2.8117099e-01
 -7.8992158e-01
  2.9378373e-02
  6.8507046e-01
 -1.3299446e-03
 -8.2890755e-01
  8.2002595e-02
 -1.7292154e-01
 -3.1801170e-01
 -1.2881868e-01
 -4.2995906e-01
 -2.0864578e-01
  6.3094074e-01
  2.0690468e-01
 -1.8848495e-01
  7.6358266e-02
 -2.6913473e-01
  7.0119634e-02
 -5.6591094e-01
 -2.2628030e-01
 -3.6056527e-01
  4.5122576e-01
  1.6066481e-01
  2.1997247e-02
  5.7598859e-01
 -9.0101510e-01
 -1.0286261e-01
 -1.5337411e-02
 -6.3634783e-01
  1.4336540e-01
 -2.2454691e-01
  1.7684366e-01
  2.1514423e-01
 -1.5446168e-01
  8.1400555e-01
  3.6369938e-01
  9.1519706e-02
  2.4009062e-01
  3.7900493e-01
 -7.3766455e-02
 -8.0947679e-01
  6.3243490e-01
  7.3818125e-02
 -2.3005102e-02
 -4.1963798e-01
 -8.7287414e-01
 -5.7871485e-01
 -1.2266897e-01
  4.0311530e-01
 -2.5723448e-01
  2.7357614e-01
  2.1098682e-01
 -3.3967939e-01
 -2.4502578e-01
 -1.8898845e-01
 -5.8662766e-01
 -1.4827472e-02
  2.9660493e-01
 -1.5111934e-01
 -3.7484616e-02
 -1.2454762e-03
  4.1006330e-01
  5.5188321e-02
 -1.6453928e-01
 -1.8170571e-01
  1.2893245e-01
 -6.2617213e-01
  7.4475214e-02
  9.5261627e-01
  2.1474585e-01
  4.5218024e-01
  1.2630288e-02
 -7.9610234e-01
 -8.3833200e-01
  3.4046224e-01
  7.4075654e-02
  4.6906504e-01
  2.3295920e-01
  2.6708099e-01
  6.7404962e-01
  1.3261421e-01
 -4.5615402e-01
 -5.3521812e-01
 -4.0794587e-01
 -5.4417849e-01
  1.1844119e-01
 -4.9529925e-02
 -3.7319412e+00
  7.5882620e-01
  1.5299118e+00
 -3.2561490e-01
 -6.2425202e-01
 -7.9191101e-01
  2.7903864e+00
  8.6910391e-01
 -9.7279266e-02
 -2.5747910e-01
 -1.0715530e-01
  1.2305191e-01
 -2.5571996e-01
 -2.4949929e-01
  7.3748310e-03
  7.1704733e-01
 -5.1275730e-01
 -3.4473684e-01
 -5.6135303e-01
  5.2548820e-01
  9.4805920e-01
 -4.9707705e-01
  6.6401786e-01
  1.1720384e-02
  9.5316041e-01
  1.3521689e-01
  3.1525712e-02
  1.6999143e-01
 -3.7777916e-01
  1.0590503e+00
 -1.9656402e+00
 -1.2990469e-01
  9.9458808e-01
 -7.0150271e-02
  5.2431220e-01
 -1.1741351e-01
  1.2683102e+00
  4.5123574e-01
  4.4742128e-01
  4.6728620e-01
 -2.2101624e-01
  5.2858597e-01
 -4.9109796e-01
  2.2513139e-01
  6.2639499e-01
  6.7156035e-01
 -7.0597243e-01
  5.6904607e+00
 -6.2546305e-02
  3.5159867e-02
 -1.8738313e-02
  7.7144735e-02
  2.3418726e-02
  2.6261452e-01
  6.9866084e-02
  4.0578738e-01
 -1.8420438e+00
 -3.1561233e-02
 -2.4856201e-01
  1.0152730e+00
  1.5887454e-03
 -2.9395562e-01
  7.8897381e-01
 -4.1243973e-01
 -4.0883198e-01
  3.7700295e-02
  2.0101942e-01
 -4.3063972e-02
 -6.4233592e-04
  1.3017186e+00
 -9.3571454e-01
 -9.7170234e-02
  3.8759443e-01
 -4.1273823e-01
  1.0976540e-01
 -1.5658368e-01
  9.0210691e-02
  7.6760834e-01
  4.7266635e-01
 -6.3656583e-02
 -9.0905823e-02
 -1.2229135e-01
 -4.9029464e-01
 -1.2896924e-01
  7.3459230e-02
  9.8039645e-01
 -8.2571197e-01
  3.3008841e-01
  2.0499918e-01
  1.0352783e-01
 -1.0060623e-01
 -4.5695838e-01
  2.0220314e-01
 -1.2788744e+00
 -1.2431849e+00
  4.2832854e-01
  4.4015646e-02
 -3.7867573e-01
  2.7332422e-01
  3.2875425e-01
 -8.1012988e-01
  1.0385000e+00
  1.2998798e-01
 -2.0412989e-01
 -2.0369540e-01
  1.0773290e-01
  8.3888561e-01
  1.9444627e-01
 -1.2044443e+00
  1.2917221e-01
  9.9388286e-02
 -5.5944592e-02
 -7.0214170e-01
  3.4218067e-01
 -5.0537813e-01
 -2.1116889e+00
 -8.4247041e-01
  9.1791177e-01
 -1.0203379e-01
  2.3015818e-01
 -1.5910136e-02
  6.1849380e-01
 -3.4875569e-01
 -1.3859994e+00
 -1.5266594e-01
 -2.0462194e-01
  3.7242103e-02
 -2.1548443e-01
 -1.8411656e-01
  7.1132559e-01
 -5.0190002e-02
 -4.2544719e-02
  2.9725146e-01
  1.5417449e-01
  6.2236764e-02
 -1.9078451e+00
  2.0845041e-01
 -2.0798807e-01
 -3.2783914e-01
  7.5746173e-01
  1.3104105e-01
 -2.5298113e-01
 -2.4641213e-01
 -6.5751815e-01
 -4.5075947e-01
  3.4051314e-01
 -2.4835041e-01
  3.3901643e-02
 -3.2028645e-01
  1.7616421e-01
  3.3495951e-01
 -1.7164798e-01
 -1.8900846e-01
  4.8875183e-01
 -1.5767521e-01
 -5.0676185e-01
 -4.0766731e-01
  3.1989303e-01
  6.4225405e-01
 -1.8265576e+00
  1.8300959e-01
  7.4201703e-01
 -3.4694201e-01
  9.2088645e-03
  3.7214646e-01
 -1.4048673e+00
 -7.0601416e-01
  5.1682460e-01
 -4.5762196e+00
  5.2752775e-01
 -6.0327607e-01
 -1.0207460e-01
 -9.0987468e-01
 -4.0993039e-03
  2.8844452e-01
  3.0413023e-01
 -1.0288482e-01
 -5.3095901e-01
  1.2819514e-01
 -2.3561500e-02
 -1.2208232e-01
  5.8539724e-01
  1.2013756e+00
 -1.6311755e+00
 -2.2001182e-01
 -1.3171027e+00
  5.2626061e-01
  1.1308459e-01
 -4.3559527e-01
  7.0516104e-01
  1.9443826e-01
 -1.9715187e-01
  1.9460383e-01
  1.2585358e-01
 -2.9028785e-01
  2.2480828e-01
  5.5085009e-01
 -1.3907278e-01
 -1.2941416e-01
 -5.1167530e-01
 -3.4078231e+00
  6.5886736e-01
 -3.9428094e-01
 -6.0017381e-02
  4.3876487e-01
 -3.3792522e-02
 -1.0727642e-01
  8.6957470e-02
 -3.1538412e-01
  7.1863675e-01
 -1.4218622e+00
  2.0408300e-01
  7.3118478e-01
  3.1842664e-01
 -5.2579480e-01
 -5.3014919e-02
 -9.0175867e-02
  3.9949390e-01
  6.1134464e-01
 -1.7015449e+00
 -3.2602996e-01
 -3.9399046e-01
  3.4784806e-01
 -1.0309433e+00
  1.1294547e+00
  8.2802898e-01
 -4.0459540e-02
 -5.9833306e-01
  6.0930496e-01
  6.6026211e-02
 -9.8418576e-01
  5.7232440e-01
  3.2506981e-01
  1.1910482e-01
 -1.0072020e-01
  4.1512626e-01
 -2.1783084e-01
  1.7677069e-01
  1.4280378e+00
  5.8970582e-01
  1.3339441e-01
  4.1792098e-01
  6.3265599e-02
 -1.6427827e-01
 -5.4770511e-01
  5.2306131e-03
  2.6849866e-01
 -1.7748648e-02
 -8.7455255e-01
 -3.1247452e-01
  2.8965569e-01
 -5.9488803e-01
 -1.0911793e-01
 -5.2570266e-01
  1.8897018e-01
  1.4768617e-01
  5.5873173e-01
  1.9760606e-01
 -1.1353778e+00
  7.3470759e-01
 -1.6625629e-01
  4.4032094e-01
 -2.7723157e-01
 -6.4394170e-01
 -3.0281487e-01
  6.0485405e-01
  9.4619262e-01
  1.3418064e-02
  4.4902039e-01
  1.2011302e-01
 -3.1084475e-01
  1.5383846e-01
  7.0895642e-01
  1.0186020e-01
 -2.7787274e-01
 -1.2588941e-01
  1.3179822e+00
  1.8712543e-01
 -9.7286649e-02
  5.7232296e-01
  1.7724787e-01
  4.8147464e-01
 -5.8242619e-01
  2.8466268e+00
 -8.4661657e-01
 -2.0025758e-02
 -4.6197450e-01
  1.2568387e+00
  3.7064838e+00
  2.4140875e+00
  4.4700434e-03
  1.4998457e-01
  8.8727835e-04
  3.3018792e-01
  9.0261362e-02
 -2.7259517e+00
  5.4855520e-01
 -5.8753725e-02
  4.3273982e-01
  6.2227637e-01
 -1.0230705e+00
  1.0985568e+00
 -2.1382353e+00
 -2.9763407e-01
  1.3940026e+00
  5.7575333e-01
 -8.2790327e-01
  4.2475805e-01
 -1.2712023e-01
  4.4156793e-01
  6.1838531e-01
 -2.1312477e-01
 -4.8958853e-01
  9.0326732e-01
 -1.1066617e-02
  6.3701704e-02
  1.3083760e-01
 -1.2679806e+00
  5.7603496e-01
 -3.1363505e-01
 -1.1185573e+00
 -2.9638508e-01
  6.9555014e-01
 -7.4121541e-01
  8.2082137e-02
 -1.4335598e+00
  3.5969177e-01
  1.0506397e-02
  2.2323172e-01
  1.5163034e-02
  4.8909771e-01
  2.3799782e-01
 -2.5897458e-01
  5.9825736e-01
  8.9181930e-02
 -3.2830670e-01
 -3.3682603e-03
 -2.1252368e-01
 -3.0682901e-01
 -4.3741253e-01
  8.2644798e-02
  5.6204505e-02
  5.8253551e-01
 -2.7751938e-01
 -1.0379117e-01
 -1.5661648e-01
 -7.1457404e-01
 -5.7424802e-01
 -6.9014198e-01
  8.3917435e-03
 -3.4481016e-01
  4.0592462e-01
  3.0224839e-01
 -6.0433593e-02
  5.1295172e-02
 -1.6987957e-01
  1.7080620e-02
 -1.7116305e-01
 -4.3917486e-01
 -3.3023113e-01
 -6.4277619e-02
 -1.2047082e-01
  6.5412670e-01
  2.5501958e-01
  1.5791072e-02
 -7.8098699e-02
  1.7279621e-02
 -3.2332513e-01
  3.0408347e-01
  1.1135564e-01
 -6.0038552e-02
 -3.5916495e-01
 -1.3629909e-01
 -5.8810699e-01
 -1.1413904e-01
 -3.0155942e-01
 -4.4086611e-01
 -3.1957597e-01
  5.3566970e-02
  5.7292902e-01
 -6.0571206e-01
 -1.7977091e+00
  5.2696180e-02
 -1.2304570e-01
  9.9372521e-02
  1.2375240e-01
 -5.2506793e-01
 -2.3399162e-01
 -7.3044693e-01
  5.3904855e-01
  1.5026149e-01
 -1.5870906e-01
  5.2215628e-02
 -2.4737047e-01
 -3.9802268e-01
 -1.1747355e+00
 -2.9836211e-01
 -1.2415539e-01
  1.2403776e-01
  5.7514012e-01
  3.8251114e-01
 -5.3892314e-01
  7.4524537e-02
  1.1362280e-01
 -1.3185379e-02
 -1.0376776e-01
 -7.9361051e-01
  2.1693283e-01
  5.0124878e-01
  4.7358045e-01
  8.8762112e-02
  2.9830793e-01
 -1.7979877e-01
 -4.4848102e-01
  6.7118607e-02
 -1.3901876e-01
 -1.0365493e+00
 -4.7017548e-02
 -3.8006786e-01
  1.0712146e-01
  2.1378316e-02
  5.6451702e-01
  7.5007612e-01
  3.7425625e-01
 -6.4834201e-01
 -1.5615918e-01
  2.2680826e-02
 -1.0980842e+00
  3.0742192e-01
  3.7158400e-02
 -3.6472800e-01
  2.0478855e-01
  2.5220215e-01
  1.1733570e+00
 -1.6489902e+00
 -3.5329616e-01
 -9.3741667e-01
 -1.0182309e-01
 -4.9465117e-01
 -1.4340639e+00
  4.2538658e-01
  5.8307469e-01
 -7.5941741e-02
  1.4006569e+00
  1.2722346e-02
 -2.3770097e-03
  1.3248728e-01
  2.4449357e-01
 -9.0112883e-01
  6.6391468e-01
 -6.5712941e-01
 -6.7018509e-01
 -1.0110994e-01
  3.1544328e-01
  1.0014515e-01
  5.3571010e-01
 -5.7798022e-01
  4.9765095e-01
  1.9075476e+00
  4.6155596e-01
  1.0591950e+00
  1.0061208e-01
  1.7457953e-02
 -1.2026261e-01
  1.5590909e-01
  4.4971418e-01
 -2.5069448e-01
  9.9715638e-01
 -3.2883829e-01
  2.6208853e-02
  4.1956022e-01
  7.8709584e-01
 -1.4324169e+00
 -1.4441429e+00
 -4.7866464e-01
  1.1136626e+00
 -6.0759336e-02
 -1.6479009e-01
  5.2414697e-01
  5.7523197e-01
  7.0107806e-01
 -1.4464097e-01
  7.5652850e-01
 -9.2722940e-01
  2.1311189e-01
  1.7713401e-01
 -7.2902101e-01
  5.9361851e-01
 -9.7145092e-01
  5.6158340e-01
  1.0912978e-02
  6.7042254e-02
 -4.5422651e-02
  8.0928558e-01
  3.3408052e-01
  8.6367205e-02
  2.5926408e-01
  3.6254349e-01
  9.1072369e-01
 -3.3374187e-01
 -5.2894885e-03
 -1.2847140e-01
  2.2293900e-01
 -2.9910872e-02
 -5.4273620e-02
 -2.5901574e-01
 -3.1493974e-01
 -2.8083541e+00
 -1.2244274e-01
 -3.4443736e-01
  6.9444990e-01
  8.4252775e-01
 -1.5111859e-01
 -3.2144895e-01
  4.8183730e-01
 -9.7483188e-01
  4.1423339e-01
  1.8325372e-01
  5.1207507e-01
  2.3597062e-01
 -1.3242997e-01
 -4.9573591e-01
  3.0892491e-01
  8.4415209e-03
 -3.7691915e-01
 -1.7883228e-01
  2.1316684e-04
 -8.9845479e-02
  7.5023270e-01
 -2.0279881e-01
 -6.8178121e-03
 -2.3425620e-02
 -3.9615721e-01
  3.1701297e-01
 -5.6131816e-01
  9.0553916e-01
 -1.5759038e+00
  7.6163828e-01
 -1.5017217e-01
 -2.1022169e-02
  1.5648507e-01
  4.3220282e-01
  4.0535536e-01
  3.2495102e-01
  8.4817395e-02
  4.3785220e-01
  2.6832467e-01
  4.9373618e-01
  3.1231105e-02
 -2.8136244e-01
  8.8143714e-02
  1.0759410e-01
  3.4512141e-01
  5.6384552e-01
 -7.7004194e-01
  1.8380901e-01
 -5.6176519e-01
  3.7813178e-01
  2.3355842e-01
 -1.9379321e-01
 -4.1547978e-01
  6.3860737e-02
  1.5103754e-01
  5.6359130e-01
  6.9956511e-01
 -1.8454744e-01
 -6.9769263e-01
  2.8082228e-01
  2.1760969e-01
 -3.1377342e-01
 -4.7837356e-01
  2.3730369e-02
 -4.4953596e-02
 -8.4030598e-01
  9.7260028e-01
 -3.3021510e-01
  1.9075885e-01
 -1.0242146e-01
  1.3891894e-01
  1.0272976e+00
  6.4615256e-01
  4.9701932e-01
  1.9127864e-01
  3.1471133e-01
 -2.7854425e-01
 -2.4733540e-01
 -3.5294042e+00
  3.3741370e-02
  8.7021329e-02
 -1.3021865e-01
 -3.4269834e-01
 -4.6988863e-01
  1.0513636e+00
 -4.3383902e-01
 -1.4935228e-01
 -6.0628731e-02
  6.9141793e-01
  2.0197371e-01
 -2.2192805e+00
 -1.7856346e-02
 -4.0725955e-01
 -7.8151368e-02
  4.9565920e-01
  1.1539124e+00
 -6.0744417e-01
 -9.3957031e-01
 -9.1307208e-02
  2.7985383e-02
  8.9218622e-01
  2.9951355e-01
 -1.0973277e-01
 -1.1503762e-01
 -3.5524007e-02
  7.0650369e-01
  2.3313525e-01
  4.1466162e-01
  8.8279378e-01
 -3.8596091e-01
 -1.0038392e-01
  3.7905198e-01
 -6.1947125e-01
  1.3008748e+00
  2.2101668e-01
 -2.4129654e-01
  1.4707425e-01
  6.4691740e-01
  6.2371498e-01
  6.2620795e-01
 -7.5270754e-01
  1.2588518e+00
  4.5470092e-01
  3.9441547e-01
  1.8068017e-01
  1.0066998e+00
  8.2441401e-01
 -4.5759079e-01
  3.5242099e-01
  1.7131799e-01
  1.7398669e-01
 -2.6624551e-02
  6.1810523e-01
  6.6206527e-01
 -2.1491066e-01
 -1.7390884e+00
 -1.0159937e+00
 -1.4717407e-02
 -2.5703245e-01
  8.5928820e-02
 -2.2351801e-01
 -6.4788753e-01
  7.3497576e-01
 -4.8315984e-01
  6.1639076e-01
  2.5037909e-01
 -5.5128032e-01
 -9.5354930e-02
 -4.8639688e-01
 -3.4481129e-01
 -3.1408525e-01
 -4.9460915e-01
 -2.2427413e-01
  6.1201084e-02
 -1.3853186e-01
  1.7437763e+00
 -1.3918969e-01
  7.0257857e-02
 -6.7636216e-01
  1.0868309e-01
 -6.9092679e-01
  5.4822856e-01
 -3.6320868e-01
  9.0567283e-02
 -1.0438897e-01
 -1.1802614e-01
 -6.3001364e-01
  2.2089030e-01
  2.9788917e-01
 -6.1342895e-01
 -3.2194993e-01
  9.0886968e-01
 -5.5331451e-01
 -3.9517954e-01
 -2.4008033e+00
 -1.1410107e-01
 -7.0270151e-02
  8.5815102e-01
 -1.0992543e-01
 -4.2786598e-02
  4.3665178e-02
  2.1049680e-01
  3.9372789e-03
  6.9731742e-02
  3.3212438e-01
  4.9541998e-01
 -6.5375102e-01
 -2.5105598e+00
  4.8274370e-03
  2.4578346e-01
 -5.5015695e-01
  9.1570026e-01
 -5.3097019e+00
 -1.3331640e-01
 -1.3463940e-02
 -1.2980332e+00
  3.8901913e-01
  1.5064107e-01
 -4.2075324e-01
 -8.7602180e-01
 -3.4638411e-01
 -1.7603463e-01
 -1.9014193e-02
 -2.9814291e-01
  2.2526793e-01
 -3.4592208e-01
 -2.5265899e-01
 -9.5809951e-02
  3.3190858e-01
  6.8383127e-02
 -1.9840029e-01
 -5.7998681e-01
 -7.3480737e-01
  6.5220334e-02
  6.1883211e-01
 -8.4111363e-01
  3.3763674e-01
  5.6759942e-01
 -1.7208368e-01
  2.8008008e-01
  1.1300653e+00
 -7.3094147e-01
  2.4476726e-01
 -1.8881391e-01
 -4.1441699e-03
  7.5859648e-01
  1.8609145e-01
 -3.3904365e-01
  5.9696400e-01
 -1.4826502e-01
 -9.1085774e-01
 -7.5460005e-01
  1.8721566e-01
 -2.6470467e-01
  2.6445411e-02
 -9.2829086e-02
  1.1941215e-01
 -2.3935317e-01
  6.7414992e-02
 -1.2211812e-01
  1.9219446e-01
 -5.4753114e-02
  1.8367787e-01
  8.3888608e-01
  2.8916645e-01
  1.1448343e-01
 -4.0473634e-01
  3.7568137e-02
  1.7377548e-01
 -1.2503703e-01
  8.4548187e-01
  5.8142579e-01
 -4.7720781e-01
 -6.0664022e-01
  1.4883371e-01
 -1.0971339e-02
 -2.2872107e-01
  4.7982311e-01
 -1.2721059e-01
 -2.2449985e-01
 -7.6028004e-02
 -2.2052246e-01
  1.9794257e-02
 -9.4906294e-01
  4.7612828e-01
 -2.1087429e-01
 -6.7614001e-01
 -1.6040579e+00
  2.3465355e-01
 -7.2583246e-01
  4.7164759e-01
 -3.3384988e-01
 -8.1649840e-01
 -1.9589913e-01
  1.6084330e-01
  2.1953844e-01
 -3.7022075e-01
  2.6640731e-01
 -6.7785668e-01
 -2.1031450e-01
  8.9306599e-01
  1.5050647e-02
 -3.5528103e-03
  1.0565116e+00
 -1.7497852e+00
  8.4087074e-02
 -7.3901564e-01
  7.2812396e-01
  3.4047823e-02
  5.0089294e-01
  8.1288248e-02
 -7.8156638e-01
  4.2759189e-01
  1.5934981e-01
 -2.7644178e-01
 -2.0370170e-01
  3.2605231e-01
  9.2306092e-02
 -9.5354833e-02
 -6.5851390e-01
  1.1626387e-01
 -3.5798401e-02
 -5.2821953e-02
  9.6018666e-01
  8.2285297e-01
  1.1212164e+00
 -7.5087026e-02
 -4.7149297e-02
  2.5661446e-02
 -4.0946141e-01
  3.2063764e-01
 -3.2397281e-02
 -3.4213388e-01
 -6.9883816e-02
 -3.7870386e-01
  1.3594261e-01
 -5.9060085e-01
  4.8874477e-01
  1.8870631e+00
 -2.0926186e-01
  1.2498714e-01
 -4.9609751e-01
 -5.5133009e-01
 -2.0552686e-01
  2.6357414e-02
 -6.0666796e-02
 -1.7982632e-01
 -6.9632746e-02
 -1.5519914e-01
 -1.2370823e-01
  6.1426878e-01
 -5.0790894e-01
  4.1392428e-01
  1.4490320e-01
 -6.1430600e-02
  3.5718632e-01
 -4.7083375e-01
 -2.5466217e-02
 -1.0636190e-01
 -6.1662402e-03
  2.9468359e-03
 -9.4124414e-03
 -9.2183076e-02
 -6.2077269e-03
 -9.0122098e-01
 -8.6716764e-02
  2.0349011e-01
 -2.2580619e-01
 -2.1590532e-01
 -3.5818452e-01
 -6.6620767e-01
 -3.0651838e-01
 -3.5534510e-01
 -3.3371058e-01
  6.2956923e-01
  1.2317855e+00
 -8.6788988e-01
  3.1315556e-01
 -1.9017407e-01
  1.9069555e-01
  5.6790221e-01
  1.5938895e+00
  2.5029585e-02
  7.6635823e-02
 -1.0799081e-01
 -7.8827834e-01
 -1.0662920e+00
  4.0526879e-01
  2.0759702e-01
 -8.9169271e-02
  1.6662298e-01
  2.4832375e+00
 -9.0054631e-01
  2.8463823e-01
 -1.3268955e+00
  2.9342756e-01
  5.3926641e-01
  3.5496330e-01
 -3.0693597e-01
  3.5417733e-01
  9.9590063e-02
  1.0481173e+00
 -3.1062511e-01
  5.0790215e-01
  5.7706702e-01
 -2.9648434e-02
 -8.9379978e-01
  4.5586139e-02
  2.7536783e-01
 -3.3300873e-02
  4.9352366e-01
 -8.5918003e-01
  5.2293652e-01
 -2.9519472e-01
  6.6707844e-01
 -2.7197060e-01
  2.2737931e-01
  1.3442918e-02
  2.2614163e-01
 -1.7023027e-01
 -8.7430280e-01
 -6.8068475e-01
  4.7127549e-02
  1.0688396e-01
 -2.6130563e-01
 -1.0960912e+00
  2.5233045e-01
  8.3025759e-01
 -9.1675746e-01
  1.3487536e+00
  6.5664631e-01
  1.0369974e-01
  3.1734046e-01
  7.8777474e-01
 -5.5889714e-01
 -3.8738462e-01
 -6.2441580e-02
 -3.6819886e-02
  4.1227779e-01
  1.7530084e-01
 -1.1488194e-02
 -1.3703099e-01
 -4.9824744e-02
 -6.7992669e-01
  3.7061480e-01
  1.5492727e-01
 -7.8311026e-01
 -6.0435213e-02
 -3.7585974e-01
 -1.2645363e+00
  1.8608676e-01
 -6.4380008e-01
 -1.4865577e-01
  7.3866236e-01
 -1.1330615e-01
  1.2334279e-01
 -4.8375806e-01
  7.2516704e-01
 -1.5352619e+00
  7.3014438e-02
  2.3757614e-01
 -5.7707816e-01
 -7.6918013e-02
 -4.5778641e-01
  1.0352474e-01
  2.5618276e-02
  2.8445432e-01
  1.5754138e-01
 -3.6409613e-01
  6.0930949e-02
  6.3192002e-02
 -1.2109073e+00
  6.9463962e-01
  5.2867737e-02
  3.5150904e-02
  4.6436694e-01
 -8.3918832e-02
 -1.0095153e+00
  3.3857760e+00
  3.0365756e-01
  2.2630922e-01
  1.5348489e-03
 -2.3762019e+00
 -2.8943468e-03
  3.4475291e-01
  2.3496951e-01
  2.2867794e-01
 -8.6375505e-01
 -6.3104928e-02
  9.6881747e-02
  6.0604906e-01
  2.7493659e-01
 -2.7522808e-01
 -1.0285117e-01
 -3.9377210e-01
 -4.7637501e-01
  4.2083579e-01
  1.0029250e+00
 -1.2587606e+00
 -1.3332684e-01
 -1.3201597e+00
  1.8800795e-02
  2.0534270e+00
 -6.2378880e-02
 -2.5674582e-01
  3.1077075e-01
  4.9417198e-01
 -5.3676867e-01
  5.5427724e-01
  3.3494193e-02
 -5.6210060e-02
 -6.1224606e-02
 -2.4616626e-01
  6.0637093e-01
 -6.1352935e-02
 -5.9160399e-01
 -1.6115105e-01
 -3.5748664e-01
 -5.1588970e-01
 -2.0498785e-01
 -1.7312789e-01
  8.6718732e-01
  5.1632589e-01
  8.3211094e-01
  1.3702384e-01
  9.4905637e-02
 -1.0054171e+00
 -1.0824342e+00
  4.7816271e-01
  5.7401186e-01
 -1.2261523e+00
  1.5390694e-01
  1.4762512e-01
 -8.1171924e-03
 -1.6534446e-01
  1.3893737e-01
 -3.4575996e-01
  5.8786196e-01
 -7.1294107e-02
  1.1571605e+00
  3.4331822e-01
  2.9480448e-01
 -6.8801522e-01
 -1.4090975e-01
  5.1893598e-01
 -9.1586679e-02
  2.4191809e-01
 -1.1171173e+00
  1.6323195e-01
 -2.2039908e-01
  1.5823342e-01
  2.9073063e-01
  1.1180180e-01
 -4.3777469e-01
  5.3519881e-01
 -1.7025471e-01
  1.1310130e-01
 -1.4545216e-01
 -3.6375228e-01
  1.3486889e-01
  1.9409443e+00
  4.3479510e-02
  5.5829841e-01
 -9.3044496e-01
  2.4605244e-01
  6.1436015e-01
  4.7698036e-01
  9.6678391e-02
 -3.3790514e-01
  1.6253938e-01
  2.5926754e-01
  2.6501542e-01
  5.1185244e-01
  5.6904119e-01
  1.2031849e-01
  2.6733790e-02
  3.0558256e-02
  3.4274921e-01
  1.6409573e-01
 -1.8682791e-01
 -6.4892542e-01
  4.5873794e-01
 -2.5633743e-01
 -3.9475948e-01
  2.0612477e-01
 -2.9193604e-01
 -3.9187685e-01
 -1.0504090e-01
 -8.0281153e-02
  6.8335824e-02
 -1.3312920e+00
 -8.9855099e-01
 -5.4782665e-01
 -3.9470263e-02
  5.0807762e-01
  1.2744024e-01
 -3.0160064e-01
 -2.1144338e-02
  1.6750485e-01
 -3.2070091e-01
  1.6314912e+00
  3.9982224e-01
 -3.4954559e-02
  7.2613060e-01
  2.2476326e-01
 -7.2188550e-01
  2.9872797e-02
  7.9883701e-01
 -5.1702225e-01
 -2.3092599e-01
 -8.6451568e-02
  1.0845840e+00
  4.6669829e-01
  4.5170581e-01
  4.8138351e+00
 -1.0406973e+00
  9.1605747e-01
 -3.2979926e-01
 -5.3772533e-01
  1.9231740e-01
 -5.3571761e-01
 -2.3680504e-01
 -3.5287216e-01
  5.0238047e-02
 -1.5435548e-01
 -5.8543575e-01
 -1.8572403e-01
  2.4262562e-02
 -1.2319933e+00
  2.8368524e-01
 -5.4142348e-02
  5.6764567e-01
 -7.2385825e-02
 -1.0182320e+00
 -3.3096677e-01
  5.7274748e-02
  3.9751384e-01
 -8.9840925e-01
  1.6386196e-02
 -1.5235597e-01
  9.2692442e-02
 -3.2265358e-02
 -2.3926425e+00
 -1.1900284e-01
  3.4623134e-01
  1.0710517e-01
 -3.9750290e-01
  5.3155643e-01
  5.4501939e-01
 -2.2950995e+00
 -7.8631258e-01
 -9.7601628e-03
 -4.6241570e-02
  6.0171705e-02
  5.2076912e-01
 -8.1152320e-02
  1.1566196e-01
  1.8957530e-01
  2.5876862e-01
  2.4364065e-01
 -3.1030634e-01
  1.3044544e-02
  1.1472660e-01
  1.0675181e-01
  2.1018435e-01
 -1.0990225e-01
  1.2663691e+00
 -2.5800020e-01
  7.7370569e-02
  3.7809659e-02
 -2.6823270e-01
  2.2111323e-01
 -3.8970658e-01
  4.4397542e-01
 -5.5483278e-02
  1.4298459e+00
  5.7817757e-02
  1.6143878e+00
  1.0060800e+00
 -2.8075114e-01
 -5.7695027e-02
 -1.2340257e+00
 -4.8825559e-01
  1.1321359e+00
  5.7923984e-02
  3.7125325e-01
  5.1854398e-02
  1.7431349e-01
  5.3690964e-01
  1.1451575e-01
  3.8990024e-01
 -2.8889480e-01
  7.7166095e-02
  1.0318084e-01
 -4.3135670e-01
 -7.8822166e-01
  7.9212990e-03
  1.6574949e-01
  1.4631611e-01
  1.8885480e-01
  3.7008181e-01
 -2.0554720e-01
  1.7613598e+00
  5.5137300e-01
  8.0500191e-01
  1.2846013e+00
 -5.2960145e-01
  5.3808230e-01
  5.9463859e-01
 -1.7634691e-01
 -3.5802448e-01
 -7.1654016e-01
  1.1870854e-01
  9.6887141e-02
  2.1915726e-01
 -9.1107309e-01
 -3.0134568e-01
 -2.6653963e-01
  9.7128928e-01
 -7.2973359e-01
 -8.4423381e-01
 -2.7849725e-01
 -5.9076715e-02
  3.4390649e-01
 -1.6058574e+00
  1.4726368e-01
  8.2777053e-01
  2.3077311e-01
  4.2889267e-01
  2.2190137e-01
  4.0852851e-01
 -3.9952733e-02
 -2.4383219e-01
 -3.1672105e-02
  1.9220343e+00
 -4.7116980e-01
  3.9115921e-03
 -7.0895344e-01
 -4.2576060e-02
 -9.4877586e-02
  8.7909836e-01
  6.0207522e-01
 -3.6286560e-03
 -2.9698092e-01
  2.0227295e-01
  2.4160834e-01
  1.0800480e+00
 -3.4664229e-01
  7.2417057e-01
  6.7244512e-01
 -6.9905144e-01
 -2.4357459e-01
  1.0700289e+00
  1.3521869e-01
 -5.0877059e-01
 -2.1764833e-01
  8.8521415e-01
  2.2276448e-02
  2.7484277e-02
 -5.3844893e-01
 -7.3969096e-01
 -3.0965410e-02
 -1.4631407e-01
 -1.8667869e-01
  2.1511975e-01
  1.3013071e-01
 -7.6424867e-02
  1.2083787e-01
 -4.9868989e-01
  6.6228282e-01
 -5.0106153e-02
  1.5317774e-01
  2.2234860e-01
  5.9937784e-03
 -1.8603042e-01
  1.0562645e+00
 -4.9638093e-01
  1.1578348e+00
 -7.6754326e-01
  3.0170670e-02
 -1.7843220e-01
  4.7765736e-02
  4.6543914e-01
 -3.4908757e-01
  1.3189252e-01
  2.4233340e-01
  5.0165784e-01
  7.3844945e-01
  5.8683246e-01
  4.5889051e-04
  2.1391845e-01
  9.3055747e-02
 -7.7608139e-03
 -2.7878514e-02
 -1.4820911e-01
 -3.2217702e-01
 -4.8496601e-01
 -7.8729177e-01
 -1.5060577e-01
 -3.1184006e+00
  1.6701418e-01
  7.8928047e-01
  1.3646315e-01
 -1.5390211e-01
  8.3418286e-01
 -7.5051002e-02
 -5.9868108e-02
  8.4567237e-01
 -3.1840950e-01
 -1.2484914e+00
  1.8788834e+00
  2.7488336e-01
  4.5152813e-01
  1.8741834e-01
  6.2474263e-01
  1.0884675e-01
  7.4477829e-02
  4.0615177e-01
  8.7987697e-01
  4.4722307e-01
  1.7486511e-01
  1.2220275e+00
  8.8835388e-01
  1.7801615e+00
  1.1492985e-01
  2.9134491e-01
 -9.1806340e-01
  1.5713787e-01
 -3.9163283e-01
 -1.8529727e-01
  3.2011637e-01
 -2.7545160e-01
 -1.5335472e-01
 -2.3173194e+00
  1.8257651e-02
  2.3179230e-01
  6.5271068e-01
 -7.9966523e-02
  5.0832081e-01
  3.0891427e-01
 -2.8417566e-01
 -5.8365125e-02
  7.5431091e-01
 -1.0220376e+00
 -2.3306823e-01
 -1.1459342e-01
  1.5583239e-01
 -1.3008593e-03
  1.5849675e-01
 -1.6029894e-01
 -1.0608424e-01
 -4.0378258e-01
 -1.4763471e-01
  1.6867603e-01
 -5.2308565e-01
  1.4633372e-01
 -4.1672796e-01
 -8.8157910e-01
 -2.2523858e-01
  4.8382658e-01
  4.1874465e-01
 -2.3685725e+00
  1.2522688e+00
  1.3613186e+00
  1.6523297e+00
 -1.1539555e-01
  1.2987065e+00
  9.4851947e-01
  1.4309638e+00
  6.2701893e-01
  2.1500935e-01
  8.1953131e-02
  6.1591995e-01
  2.2739041e-01
 -1.3035925e-01
 -1.6669941e+00
  7.3243558e-01
  3.5784897e-01
 -5.6908780e-01
  2.0264680e-02
  7.5918335e-01
  1.4698105e+00
 -3.4113716e-02
  4.1302401e-01
  3.0338969e-02
  1.2334824e-01
  5.8665049e-01
 -1.9884182e+00
 -2.2505490e-01
  8.4099913e-01
  4.1524656e-02
  1.9262734e-01
  5.3732336e-01
  1.2344540e-01
  2.4062394e-01
  5.9114867e-01
  1.1250277e+00
 -1.2868653e-01
  3.4922287e-01
  1.7128436e-01
  1.9465148e-02
  3.2007530e+00
 -7.5656974e-01
  1.1737320e-02
  4.2718673e-01
 -3.2985586e-01
  4.8216522e-01
  2.5390753e-01
  3.6617529e-01
 -8.5407603e-01
 -3.1694019e-01
  6.7922310e-03
 -1.0172076e+00
  1.0470281e+00
 -1.8070275e-01
  8.5573220e-01
  7.1493584e-01
  4.1030316e+00
 -2.7310598e+00
  5.0392002e-01
 -3.7120609e+00
  4.6822440e-02
  3.3727649e-01
 -5.9771758e-01
 -1.0570022e-01
  8.3240712e-01
 -7.5022630e-02
  1.1670702e+00
  1.7995648e-01
  3.4743053e-01
 -1.5205621e+00
 -5.5189562e-01
 -1.6607465e+00
  6.3751990e-01
 -4.1690305e-02
  7.5255305e-01
  2.5984354e+00
  8.5549355e-01
 -7.5724149e-01
 -2.1010284e+00
  1.0356030e+00
 -9.1194928e-01
  5.2916425e-01
 -4.7953379e-01
 -1.0412167e+00
  1.4846620e-01
  6.0380936e-01
  1.1762033e+00
 -2.3065517e+00
  1.1534353e+00
 -2.2764950e+00
 -1.8246588e-01
  3.6170932e-03
 -1.1232787e+00
  3.6708236e-02
  1.2627430e+00
  4.3548268e-01
  1.5198390e-01
  5.5698520e-01
  1.9876404e-02
  8.2650959e-01
  3.1335615e-02
 -1.0072364e-01
  9.3277842e-01
 -5.4822272e-01
 -1.8984616e-01
 -1.1611705e-01
 -5.3763311e-02
  2.5335473e-01
 -6.4462848e-02
 -2.9550603e-01
  5.1327628e-01
  1.4129660e-01
  4.5292589e-01
 -7.3526561e-01
 -3.1705940e-01
 -1.4979193e-01
  3.5171458e-01
 -4.6562093e-01
 -1.8325803e-01
  2.0889196e-01
  2.2718734e-01
  1.6604792e-01
 -2.2787884e-01
 -2.6540387e-01
 -1.7255962e-01
  3.9481229e-01
 -5.4333949e-01
  2.0114049e-01
  6.1388195e-01
  5.6816071e-01
  1.0951795e-01
 -7.0037466e-01
  1.0888685e+00
  5.3409058e-01
  2.8658077e-01
  1.2496338e-01
  3.3285975e-01
  2.2447021e-01
  4.9966125e+00
 -3.5533240e+00
  9.7135976e-02
  2.3877029e+00
  7.7776706e-01
 -5.9281635e-01
  5.8414835e-01
  3.8968582e-02
  4.9917719e-01
  5.4978721e-02
  1.3836658e-01
 -2.2691861e-01
 -3.7774473e-01
  2.9027319e-01
  2.1714628e+00
  1.5133092e-01
  1.3737768e+00
  1.3456086e+00
 -3.7435073e-02
 -1.5473370e-01
 -6.6796638e-02
  1.9158014e+00
  8.9149660e-01
 -2.4516231e-01
  4.2883056e-01
  1.8657388e-01
 -3.0626036e-02
 -3.1668043e-01
 -2.1357453e-01
  9.8523897e-01
  1.1282154e+00
  4.3557126e-02
  4.9038351e-01
  1.6848922e-01
 -1.4610733e-01
 -1.0893239e-01
 -7.2221327e-01
  2.3525116e-01
  3.9878035e-01
  6.3601978e-02
  4.6037327e-02
  3.1425840e-01
  4.0009335e-01
  1.0399605e+00
  3.6706188e-01
 -3.6959305e-01
 -6.5173399e-01
 -2.3863226e-01
 -6.8544483e-01
  6.4255810e-01
 -6.3388526e-01
  7.3909059e-02
 -5.1829869e-01
  2.7299714e-01
  4.3778798e-01
  1.4976595e-01
  4.3102595e-01
  1.6212721e-01
  1.9276635e-01
 -1.4771551e-01
  7.4925166e-01
  4.6024448e-01
 -9.1518357e-02
 -1.0056695e+00
  3.4780544e-01
  5.5758268e-01
 -1.5000231e+00
 -5.7033741e-01
 -1.1702093e-01
 -4.0365163e-02
  1.4424137e-02
 -3.4608921e-01
 -4.7549680e-01
 -1.3764022e-01
 -3.4606805e-01
 -2.9405761e-01
  7.5732434e-01
  6.5029175e-03
 -4.5058608e-01
  7.5961344e-02
  1.2006161e+00
  1.0676343e+00
  3.0372265e-01
  8.0274582e-01
 -7.0812279e-01
  4.8765939e-01
  3.4672289e+00
 -2.3686635e-01
  8.7110323e-01
 -5.0995506e-02
 -4.1084826e-01
  3.7439987e-01
  2.5666294e-01
  1.6742069e-01
  3.8986209e-01
 -1.6456507e-01
 -1.9098812e-01
 -2.2673979e-01
  1.3465124e-01
  2.3291768e-01
  2.1816647e-02
  3.0415693e-01
  5.9111631e-01
  5.3658956e-01
  1.7356786e-01
  9.4015069e-02
 -1.3547611e-01
  5.7719696e-01
 -3.9652410e-01
 -2.0936182e-01
 -1.0316361e-01
 -1.4084657e-01
 -2.0831089e-01
 -5.3480363e-01
 -3.5111120e-01
  3.9717865e-01
 -4.2551316e-02
  2.4520935e-01
 -7.5421798e-01
  1.1975027e+00
  1.5862150e-01
 -5.0124368e-03
  3.3292693e-01
 -5.7672948e-01
  1.7842630e+00
  1.8751475e-01
  6.2014663e-01
 -4.8806447e-01
 -9.6399456e-02
  3.1788144e-01
 -6.7253131e-01
  2.1574552e-01
  2.0664063e-01
  2.8741077e-01
 -3.1839568e-02
  2.5949246e-01
  4.8182449e-01
  1.0387076e+00
 -3.3132687e-02
 -7.8440465e-02
  1.2020615e-01
  4.9453700e-01
 -1.9414696e-01
  4.9113929e-01
  1.5008143e-01
 -3.4728050e-01
  1.0758759e-01
  6.4910477e-01
  1.2339148e-01
 -2.2079787e-01
  5.6031489e-01
 -5.4770011e-02
  2.8125450e-01
 -6.5310985e-02
 -2.8564346e-01
 -5.6059414e-01
 -6.0499638e-01
 -9.2088658e-01
 -3.7928331e-01
  1.1711442e-01
  2.5563067e-01
  1.3642175e-01
  5.3765140e+00
 -7.7577084e-02
 -5.3409297e-02
 -6.5660071e-01
 -7.7730453e-01
 -5.9690976e-01
  9.2723525e-01
  8.5925841e-01
  8.5794739e-02
 -6.4235353e-01
 -6.6472822e-01
  3.5009246e-02
 -3.3111820e-01
 -6.4715482e-02
  4.4245094e-01
 -4.9505513e-03
 -3.8151354e-01
 -8.8142145e-01
  6.1898333e-01
 -2.0230800e-02
 -9.9904835e-01
 -1.0369147e-01
 -1.0990661e+00
 -3.5275668e-01
  1.0664070e+00
  1.0221788e+00
  1.8875290e-01
 -6.9517964e-01
 -9.5080596e-01
 -3.9766553e-01
 -3.8710830e-01
  2.8202531e-01
 -6.6883475e-02
  5.7380263e-02
  9.8069614e-01
 -1.9551204e-01
 -2.5577623e-01
 -3.3897951e-01
  1.9249237e-01
  9.4727755e-02
  4.5735410e-01
 -1.9074377e-01
 -7.7828452e-02
 -4.5117104e-01
  3.3082169e-01
  8.3131081e-01
 -1.0793475e-02
 -2.8307575e-03
  3.8993910e-01
  6.0046828e-01
 -1.0084362e-01
  1.1866421e+00
 -3.9343068e-01
  6.9666371e-02
 -5.6794143e-01
  1.1734682e-01
 -2.1317624e-01
  3.5160533e-01
 -7.2367840e-02
  1.6016389e-01
 -3.0196929e-01
 -6.3711935e-01
  2.9163134e-01
 -1.2367000e-01
  9.8113400e-01
 -2.3508632e+00
  3.5265175e-01
  2.4917308e-02
 -4.4615749e-01
 -6.0046095e-01
  6.0397530e-01
  5.1156450e-02
 -5.2790868e-01
  3.0612114e-01
  1.4056665e-01
 -2.4008138e-01
  3.0771139e-01
  5.4503924e-01
  5.0908256e-01
 -2.1347192e-01
  1.6183436e-01
 -1.1749397e-01
  2.9644161e-01
  4.0726084e-01
 -2.7188826e-01
  3.1393763e-01
  4.6142536e-01
 -2.7125257e-01
  7.9350168e-01
  2.9561293e-01
  1.0218561e+00
 -1.0970855e-01
 -8.3552435e-02
  2.6526088e-01
 -3.9956573e-02
  1.7213447e-02
 -2.3536757e-01
  6.4868913e-03
  4.1040432e-01
 -3.9594790e-01
 -1.2846597e-01
  2.4403466e-01
 -2.4532008e-01
 -6.2909198e-01
 -7.1857417e-01
  2.3613492e-01
  4.7598993e-03
 -1.2255575e-01
 -4.9616039e-02
  2.4535319e-02
  8.8316143e-02
  9.2191570e-02
  2.4816927e-02
 -3.4279235e-02
 -3.4183404e-01
  2.6002201e-01
  3.6288607e-01
 -2.1419229e-02
 -3.8209888e-01
  3.8329163e-01
  5.2972645e-02
 -1.4427713e-01
  2.4016078e-01
 -3.2632068e-01
  1.4138272e-01
  5.1986210e-02
  4.6874276e-01
  2.3676920e-01
  3.0338174e-01
 -3.5342848e-01
 -6.1003768e-01
  1.8748963e+00
  1.5951263e+00
 -5.0207400e-01
  3.5510534e-01
  1.5152107e-01
 -1.2728606e-01
  3.1229876e-02
  1.2672813e-01
 -9.1460630e-02
 -1.4952891e-01
  8.0182225e-01
 -3.9884791e-01
  5.1099604e-01
 -1.8289022e-01
  2.2361234e-01
  1.4178939e-01
 -7.9112954e-02
  1.9568850e-01
 -5.5810237e-01
 -1.0625185e+00
  5.9466791e-01
 -1.1478808e-01
  5.8517372e-03
 -4.7340404e-02
  5.5880308e-01
 -4.2198986e-01
 -3.4288818e-01
  5.8245175e-02
 -1.9999394e-01
  3.4804091e-01
 -2.0540169e-01
 -2.4859796e+00
  3.4512225e-01
  9.9110082e-03
 -2.8012952e-01
  6.6993701e-01
  3.1983578e-01
 -1.7145883e+00
 -3.7189132e-01
 -1.5911862e-01
 -5.4604182e+00
 -1.2998696e-01
  3.8434094e-01
  7.2628446e-02
  3.4561183e-04
  4.2653194e-01
  1.9065079e-01
 -6.1919004e-02
  1.3828669e-01
 -1.7230897e-01
 -8.2581297e-02
 -4.9603730e-01
 -6.8788894e-02
  6.6268183e-02
 -1.2311064e-01
  3.3570430e-01
  2.4580239e-01
  3.6997494e-01
  1.1543598e+00
  8.8105243e-01
 -1.0927681e-01
 -2.4435508e-01
 -2.3725300e-01
 -1.0426578e-01
 -1.9915308e-01
 -2.4250443e-01
  4.9148893e-01
  2.3859322e-01
  2.7569562e-01
 -2.4321525e-01
  1.6289448e+00
 -3.4004149e-01
 -2.8855728e-02
 -9.9583663e-02
 -3.8861027e-01
 -9.5674354e-01
  2.5544843e-01
  3.3075666e-01
 -2.1074665e-01
 -4.0014443e-01
  1.3906416e-01
 -1.0920898e+00
  6.3845493e-02
 -3.2949415e-01
  1.6328901e-01
 -1.7365958e-01
 -1.8793293e+00
  1.6455209e-01
  5.5191314e-01
  3.8611740e-01
 -2.5620654e+00
  6.7987132e-01
  3.2062903e-01
 -9.5109421e-01
 -1.4919918e-02
  1.1531460e+00
  1.7996377e-01
 -3.8248736e-01
  1.2168081e-02
 -2.9264104e-01
  1.0638843e+00
 -9.4243443e-01
 -2.9200134e-01
 -6.9060910e-01
  3.2905021e-01
  5.5362892e-01
 -4.1345650e-01
  2.8703249e-01
 -3.4435344e+00
 -1.3756620e-02
 -7.2168661e-03
  3.7730087e-02
  5.4073924e-01
 -1.0138584e-02
 -5.0672531e-02
 -1.8003098e+00
  3.1476516e-02
 -4.8903614e-01
 -3.4771234e-02
 -2.6955014e-01
  1.0992484e+00
 -4.3570068e-01
 -2.4527700e-01
 -5.9518558e-01
 -2.8671086e-02
 -7.8066647e-01
 -7.3166275e-01
  2.1066834e-01
 -1.3631357e-01
  1.2758839e+00
 -6.4118558e-01
 -7.1623065e-02
  1.3677319e-02
  3.8427007e-01
 -2.3527884e-01
  1.3680969e-01
  4.3320203e-01
 -1.0607535e-01
 -1.0160058e+00
  1.2448852e-01
 -4.0808299e-01
  3.4279692e+00
  1.9394918e-01
  7.4756838e-02
  2.6699483e-01
  8.2301044e-01
  4.2970225e-01
 -3.1064850e-01
 -1.2345482e+00
 -1.1857300e+00
  5.6404299e-01
  6.5118778e-01
  2.6973355e-01
  3.1000909e-01
  4.3799174e-01
  1.9688749e+00
 -5.1679927e-01
  8.1714995e-02
  1.0758632e-01
  1.1506656e+00
 -5.3418034e-01
  3.7040716e-01
  6.5816915e-01
 -7.9854988e-02
  2.1595082e-01
  5.6518924e-01
  5.4851770e-01
  6.7333531e-01
  2.2992621e-01
  5.7326436e-01
 -1.2300872e-01
  3.0956188e-01
  3.8028708e-01
 -7.8944486e-01
 -1.4666805e-01
 -8.2556292e-02
 -2.3220396e-02
  4.2943829e-01
 -7.8235936e-01
  4.7719029e-01
  2.3045799e-01
  1.8702330e-01
  3.8517311e-01
  1.8525832e+00
 -3.1312537e-01
 -6.7590155e-02
  7.1174540e-02
  9.4456607e-01
 -7.5815523e-01
  2.9824975e-01
  6.7242227e-02
 -5.1089879e-02
 -5.0129581e-02
  1.6643147e-01
  1.9553405e-01
 -4.4650128e-01
  3.9471567e-01
  1.6696869e-01
  3.8241982e-01
  6.1133611e-01
 -1.7584375e-01
  4.1364968e-01
  2.0578387e-01
 -4.4148886e-01
 -3.9761144e-01
  3.1207788e-03
 -3.0652526e-01
  3.3141387e-01
 -1.4146465e-01
  3.7180731e-01
 -9.2728060e-01
  1.5822798e-01
  2.5686955e-01
  1.1062870e+00
  1.2520946e+00
 -9.4612354e-01
  3.1324562e-01
  8.5956588e-02
  1.7683096e-01
 -2.0823151e-01
 -2.1948117e-01
 -4.7998562e-01
 -2.0741470e-01
  9.6286803e-02
 -1.1671090e-02
  1.0435857e+00
  2.7869526e-01
 -2.9172640e-02
  5.0351995e-01
 -3.4947877e+00
  9.9440850e-02
 -6.4304662e-01
  4.8159960e-01
 -2.8634655e-01
 -2.0702231e-01
 -2.3389943e-02
  3.2606834e-01
  2.4651180e-01
 -3.4974879e-01
 -2.1138139e-01
 -7.5731444e-01
 -5.7918924e-01
  4.5888960e-01
  2.9998821e-01
  4.2345598e-02
  1.6175929e-01
  9.5773649e-01
 -3.1366399e-01
 -2.7785850e-01
  1.6186019e+00
 -3.1293035e-02
 -2.8182226e-01
 -1.1833080e+00
  6.2669349e-01
 -5.5870044e-01
 -3.9004233e-01
  1.5224682e-01
 -5.7874173e-01
 -2.5423260e+00
  3.5212202e+00
 -2.6452294e-01
  3.8401946e-01
  1.2480032e-01
 -5.5071235e-01
  1.2412986e+00
  1.6391462e-01
  3.4074086e-01
  6.2701625e-01
 -2.9302272e-01
  1.5992063e-01
  5.5544794e-01
  5.5201650e-01
  3.8971868e-01
  3.6839408e-01
  8.1930697e-01
  2.5610894e-01
  6.9372010e-01
  1.0169390e-01
 -5.6127574e-02
 -1.1167309e-01
 -9.6202701e-01
  2.3500830e-02
 -4.5719528e+00
  2.3296538e-01
 -4.5169539e+00
  2.7951427e+00
  7.4546468e-01
  2.5685909e-01
  8.8272166e-01
  2.5060654e-01
  7.8699118e-01
 -9.2224017e-02
 -2.2131637e-01
  8.9192963e-01
 -1.1921353e-02
  3.0945025e-02
  3.0869782e-01
  4.5124874e-01
  6.1563438e-01
 -7.3729599e-01
  7.7452607e-02
 -4.9478356e-02
 -8.5946053e-01
 -9.1150713e-01
  4.8769925e-02
 -7.0724225e-01
  6.7647177e-01
  6.3125235e-01
  6.1556125e-01
 -2.4635251e-01
 -1.6860802e+00
  3.4026614e-01
 -5.3622031e-01
  7.5808443e-02
  1.0364775e-01
  8.3103344e-02
 -3.7248664e-02
 -2.4282864e-01
  9.9077755e-01
 -4.3375510e-01
  1.6589807e-01
  4.6727610e-01
 -5.7827603e-02
  4.0378070e-01
 -2.8173652e+00
 -9.2883271e-01
  1.0009578e+00
 -1.3862969e-01
 -1.3724132e-01
 -2.6975611e-02
 -1.0219500e-02
 -5.9425321e+00
 -1.0528355e+00
  9.6417445e-01
  1.3017441e-01
  9.1807461e-01
 -1.8219106e-02
  4.2877877e-01
  2.1363492e-01
  9.6094012e-02
 -4.2705867e-02
  3.6627448e-01
 -5.9820473e-01
 -5.7594097e-01
 -1.0916303e-01
 -2.8803276e-02
 -5.5386555e-01
 -2.8043550e-01
  1.5298280e-02
  1.9927351e+00
 -2.7241815e-02
 -1.9955353e-01
 -2.8429346e-03
  1.2592725e-01
  4.7343083e-02
  2.0447667e-01
  9.9808884e-01
  4.2165285e-01
  3.3208916e-01
  7.1728092e-01
 -8.3954751e-02
 -4.5273322e-01
  1.1918066e-01
  1.5631396e-01
  2.4770252e-01
  1.3406517e-01
  1.1071917e-01
  6.2572159e-02
 -2.0883331e-01
 -3.7019703e-01
 -4.8830384e-01
 -2.8198797e-01
 -1.9039829e-01
  2.4509372e-01
 -6.5139383e-02
  7.3922634e-01
  9.6758676e-01
 -2.4957297e+00
  1.1563053e+00
 -1.0331064e-01
  1.3518004e+00
 -1.9216981e+00
  4.3707308e-01
 -2.6329273e-01
  1.5970573e-01
  6.5146083e-01
  3.1800336e-01
  6.7240489e-01
 -2.3717422e+00
 -2.4639031e-01
 -1.9862647e-01
  1.4093572e-01
 -5.6351054e-01
  5.6604856e-01
 -4.3271253e-01
 -2.1582718e+00
  2.8565470e-02
 -1.3681443e+00
  5.8643049e-01
 -2.1927708e-01
 -6.9577619e-02
 -9.2819548e-01
  2.3397231e+00
 -1.4697689e+00
  3.1681108e-01
 -1.0650401e-01
  3.0543038e-01
 -2.9203230e-01
  3.2728478e-02
  1.0071457e-01
  1.7242393e-01
 -1.6499871e-01
 -9.3387449e-01
  3.0383140e-02
  8.1493551e-01
 -2.5264850e-01
  1.0139567e+00
  3.6600535e+00
  2.9675215e-01
  2.2963704e-01
  4.8537248e-01
  6.4725250e-01
  2.0765318e-01
 -2.0149165e-01
  1.6417301e-01
  3.8206726e-01
  4.6481344e-01
 -2.1256613e-02
  2.3662387e-01
  5.4465121e-01
  2.3832047e-01
 -1.4619999e+00
 -3.2220697e-01
 -2.2838464e+00
 -9.5334494e-01
 -1.3977821e+00
  6.3326472e-01
  2.8166521e+00
  2.1847253e+00
  1.0486985e-02
  8.2845026e-01
  6.3841867e-01
 -4.8992592e-01
  1.4425066e-01
 -1.6013759e+00
  1.6764050e-02
  3.8172704e-01
  6.3725090e-01
 -4.7768882e-01
 -1.6318662e-01
  4.9015766e-01
  2.8784063e-02
  5.5007141e-02
 -9.0473467e-01
 -6.3894475e-01
  4.2152822e-01
  6.2804574e-01
  1.1822476e+00
  8.8977939e-01
 -9.7298421e-02
 -1.8984171e+00
 -2.4158990e+00
  2.2349367e-01
 -1.3920339e+00
 -2.2974708e+00
  5.3148824e-01
  7.0670056e-01
 -8.8312584e-01
 -3.1195502e-03
 -1.9157591e+00
  6.4979479e-02
  2.3988280e+00
 -8.3082920e-01
 -3.8968589e+00
 -1.2763777e+00
  1.3084359e-01
  2.1887116e-01
 -1.3266668e-01
 -1.3932720e-02
  5.5820167e-01
 -2.0519751e-01
  3.2064866e-02
  3.6037886e-01
  7.7212131e-01
  9.6108124e-02
 -1.7131321e+00
 -1.3452477e+00
 -5.2401817e-01
 -8.6164850e-01
 -2.2129636e-01
 -4.3469086e-01
 -3.4926467e-02
  8.2648639e-03
 -1.8750796e-01
  1.0113417e-01
 -4.1854557e-02
 -1.2058104e-01
  3.1459513e-01
 -6.5287727e-01
  6.8998939e-01
 -1.0533786e-01
  3.3909831e-02
  4.9616572e-01
  6.1721679e-02
  2.8443524e-01
  1.7715733e-01
 -5.9660417e-01
 -6.6395044e-01
 -1.4418168e-01
 -7.4217653e-01
 -5.6295481e-02
  1.5872663e+00
 -5.0238127e-01
  7.9783100e-01
 -8.5953474e-01
  4.4267818e-01
 -3.6464342e-01
  4.3799636e-01
  9.5599389e-01
  1.6271704e+00
 -1.3138893e-02
 -4.1164127e-01
 -1.0030599e+00
 -5.2165702e-02
  4.8036677e-01
 -1.0513984e+00
 -3.6157306e-02
 -5.0028325e-03
 -3.2555163e-01
 -3.2121497e-01
 -1.1569593e-02
 -1.8527710e-01
  1.7162891e-02
  4.6311000e-01
 -5.4490499e-02
 -1.9064628e-01
  5.8385164e-02
 -1.2119227e-01
 -9.5326155e-02
 -7.8505385e-01
 -2.5397149e-01
  1.9425273e-01
 -4.6700388e-01
 -1.1008536e-01
 -2.1289504e+00
  2.5862512e-01
  5.0037622e-01
 -2.2582980e-01
  6.4235610e-01
 -9.5426655e-01
 -2.8572077e-01
  6.1885901e-02
 -6.4825612e-01
  4.0433785e-01
 -6.9444442e-01
  2.1453834e-01
  4.8139626e-01
  1.2425354e+00
 -2.8885502e-01
  8.6513329e-01
 -3.6446846e-01
 -1.3616614e-01
  4.1520593e-01
 -8.6551115e-02
  9.7090864e-01
  4.5371306e-01
 -2.2766429e-01
 -4.5241527e-02
  9.8420791e-02
  3.8465622e-01
  3.2139894e-01
 -1.0976388e-01
  1.0920751e-01
  4.7693849e-02
 -5.2356213e-01
  4.3324396e-02
 -2.3615119e-01
 -1.1173720e+00
  2.8320479e-01
  6.4714640e-01
 -4.8918288e-02
 -1.2378230e+00
 -3.5998175e-01
 -5.1335838e-02
  3.4690982e-01
  8.1964359e-02
  1.6869284e-01
  4.3463936e-01
 -4.5270312e-01
 -6.5656886e-02
  2.9991925e-01
 -1.5691076e-01
  5.8312744e-01
  5.2607203e-01
 -3.5409963e-01
  5.1535666e-01
  3.6610458e-02
  1.7831893e-01
  3.9203101e-01
 -1.1504520e+00
  6.6402435e-01
 -1.9550419e-01
  1.0255669e-01
  1.2845878e-01
  6.8744779e-02
 -1.6536528e-01
  4.9079987e-01
 -6.1121976e-01
  2.2123545e-01
  4.6739516e-01
  2.0769335e-01
 -8.5402504e-02
  5.6687599e-01
 -7.0617759e-01
  1.8886705e-01
  3.8974127e-01
  7.7765340e-01
 -1.6427065e-01
  4.1699475e-01
 -2.4810927e-01
 -5.9255385e-01
  3.7444365e-01
  2.4280990e-02
  1.2120275e+00
 -4.4169348e-01
  2.9028797e+00
  6.0107011e-01
 -1.8810095e+00
  2.5809637e-01
 -4.0803891e-01
  1.0604500e-01
 -3.9164606e-01
 -4.5865104e-03
  3.2522501e-03
 -1.2363250e+00
  1.8921832e+00
 -8.8794881e-01
  6.7144257e-01
  3.0892852e-01
 -4.7038071e-02
 -1.7980299e+00
  2.0594637e-01
  1.0310485e-01
 -2.7647462e-01
  1.9516499e-01
  8.4755141e-03
  1.6786967e-01
  2.6428217e-01
 -4.3838081e-01
 -1.5996624e+00
 -7.1846092e-01
 -2.1568274e-01
  1.1759181e-01
  8.3372526e-02
 -4.5935050e-02
  7.1889144e-01
  1.6763546e-02
  6.7220622e-01
 -1.7872356e-01
  1.6790114e-02
 -1.1851475e-01
  2.0504212e-01
 -1.1296329e+00
 -1.0354849e+00
  1.0447357e-01
 -8.7361112e-02
 -5.0923073e-01
 -4.4321544e-02
 -2.6031062e-01
 -3.5016155e-01
 -1.4674811e+00
  3.5561433e-01
 -3.3414047e-02
  5.3502041e-01
 -1.4580598e-01
  1.6918689e+00
 -1.0617476e-01
 -1.1164267e-01
 -1.9454118e-03
  2.7205579e-02
 -3.2429779e-01
  1.6266702e-01
  2.8081391e+00
  6.9588715e-01
  6.4294618e-01
 -5.8949876e-01
  2.9628063e-02
 -9.0779448e-01
 -8.5410878e-02
  1.1391630e-01
 -6.7758709e-02
 -6.2258440e-01
  3.4226391e-01
 -8.7260447e-02
  4.6580961e-01
 -7.0636159e-01
 -6.6875440e-01
  3.9422080e-01
 -1.6554451e-01
  2.2358367e-01
  4.7761816e-01
  1.6002163e-01
  8.3425391e-01
  4.4025809e-01
  3.8333015e+00
 -4.9740136e-01
 -1.0427220e+00
 -1.2692238e-01
 -2.7919567e+00
 -8.0635709e-01
 -1.5243250e+00
 -4.4341895e-01
  1.6599110e+00
  6.5917708e-02
  2.5838220e-01
  7.9203916e-01
 -2.7893351e-03
  7.4078280e-01
 -1.2540569e+00
 -2.4529542e-01
  8.0706239e-02
  1.8112360e-01
 -1.6335061e-01
 -1.4075109e-01
  2.6510262e-01
  9.7846851e-02
  4.6742618e-01
  5.4263699e-01
 -3.1292453e-01
  8.4788513e-01
 -1.1665150e+00
 -9.6791399e-01
 -3.7933728e-01
  1.8942033e+00
 -1.2902817e-01
  1.4284419e+00
 -1.0875572e+00
 -4.1958678e-01
  1.1854309e-01
  8.0547023e-01
 -2.4351685e+00
  9.6711069e-01
  2.5307753e+00
  1.0932245e-01
  5.8079904e-01
 -5.8339812e-02
 -4.7838143e-01
  2.9066110e-01
 -1.6366667e+00
  1.2973417e-01
  4.6397409e-01
 -1.5954478e-01
 -9.9842602e-01
  6.4324424e-02
 -8.4716773e-01
 -5.4670495e-01
 -5.7058048e-01
 -9.1113918e-02
 -1.1903142e-01
  7.7383566e-01
 -2.0034306e-01
  1.1477089e-02
  6.9947994e-01
 -6.4655137e-01
 -6.2379077e-02
  4.2107120e-01
  6.9154900e-01
  1.3414330e+00
 -1.7297156e-01
 -1.4401171e-01
  1.8127829e-02
  2.7059054e-01
  9.7051583e-02
 -6.7752421e-01
  1.5190643e-01
 -3.4723836e-01
 -1.3677179e+00
 -9.3468884e-03
 -1.4375617e-01
 -4.4083752e-02
 -2.9922435e-01
  6.6403949e-01
 -1.6880700e-01
 -1.4697354e-01
 -2.8608403e-01
 -7.5279184e-02
  6.0902208e-01
  3.3757201e-01
  2.1354842e-01
 -1.0281069e-01
 -1.5989056e-01
  2.3932459e-02
  1.4031246e+00
  5.5418688e-01
 -2.5344011e-01
 -7.2345120e-01
 -1.4756554e-03
 -1.9551213e-01
  2.9785639e-01
 -6.2635966e-02
 -2.5130385e-01
  7.6514199e-02
  1.9523159e-01
 -2.0234360e-01
  4.8038620e-01
  2.1414718e-01
  3.3465663e-01
 -2.9086268e-01
  3.0925211e-01
 -3.0348477e-01
 -4.6245702e-02
 -1.1443312e-01
 -3.8561031e-02
 -1.2674156e-02
 -3.9106080e-01
  7.4621543e-02
  1.0347096e+00
 -1.0471194e+00
  7.7285731e-01
  2.2428805e-01
  1.0499281e-01
 -9.7819871e-01
 -2.2326192e-02
  1.8952157e-01
 -2.5256434e-01
  4.5784479e-01
 -1.8933553e-01
 -4.9371311e-01
  1.3869531e-01
 -7.5423336e-01
 -3.6314642e-01
  4.3970561e-01
  1.4836645e-01
  2.6244037e-02
  2.9534566e-01
  5.4809060e-02
  3.2852888e-01
  1.3296130e-03
 -4.0847704e-01
  3.0232187e-02
 -9.1708267e-01
  1.9504327e-02
 -4.9607456e-01
  4.9081790e-01
 -1.9303390e-01
 -1.3793992e-02
  3.0838186e-01
  9.2013203e-02
  5.4540604e-01
 -2.9193649e-01
  4.5578995e-01
 -7.2948867e-01
 -5.2920631e-03
 -1.2490877e-01
  1.6787662e-01
  8.5344625e-01
 -4.6021253e-02
  9.0772480e-01
  5.8539146e-01
  7.1204744e-02
  7.6941061e-03
  1.0957214e-02
  4.6505019e-01
 -1.0020272e-01
  4.3632033e-01
  1.5502584e-01
 -5.1327318e-02
 -4.5929253e-01
  5.9034061e-01
  4.3690887e-01
  4.1997990e-01
  5.3668335e-02
  1.0017471e+00
 -3.1074718e-01
 -9.7401440e-01
  4.2907757e-01
 -7.6778030e-01
  1.0650820e+00
 -4.4254109e-01
 -4.0212938e-01
 -6.6629134e-02
 -1.1865960e-01
 -1.7754756e-01
 -4.5766547e-01
 -1.1024826e-01
 -8.5195839e-01
 -5.3062725e-01
 -6.5547812e-01
  2.8754964e-01
  4.8082098e-01
  2.2380857e-02
  1.9832112e-01
 -1.2253646e+00
 -1.5796064e-01
 -2.9968290e-02
  6.2114078e-01
  1.3404710e-02
 -7.4930114e-01
  4.7047701e-01
  1.1456301e+00
  1.2831676e-01
  4.1117284e-01
  5.4549432e-01
 -3.9732334e-01
 -6.4921722e-02
 -1.0773782e-01
  1.7772847e+00
 -1.3652350e-01
  5.3946900e-01
  3.2731569e-01
  2.5118771e-01
 -4.6870685e-01
  2.1780615e-01
 -4.5019656e-01
  2.1567094e-01
 -6.3828938e-02
  2.2795672e-02
  2.1333776e-01
 -7.9475760e-01
  9.2467695e-02
 -4.2691976e-01
 -1.4638598e-02
 -1.5790763e-01
  5.0251868e-02
 -1.6643767e-01
  3.5828617e-01
 -3.9642474e-01
 -5.8667618e-01
  4.1659415e-01
  2.1283367e-01
 -1.3142334e+00
 -1.4035718e-01
  7.8213386e-02
 -5.5997413e-01
  6.1232533e-02
  1.6153619e-01
 -1.0563819e+00
  7.6736331e-01
 -4.0815848e-01
  1.7113741e-01
 -1.6161677e+00
 -3.4037486e-01
 -1.0639840e+00
 -1.3251971e-01
 -3.0965430e-01
  1.7505021e-01
  3.8331014e-01
 -3.3911422e-01
 -1.1275715e-01
  8.8973768e-02
 -4.9829775e-01
  8.1970197e-01
 -3.2134792e-03
 -5.7926840e-01
  5.8831972e-01
  1.1385152e+00
 -2.3421293e-01
 -5.1470786e-02
  7.1276665e-01
 -6.9403780e-01
 -1.0699733e-01
  1.5234053e-01
  9.3316875e-02
  3.2816407e-01
 -1.9660832e-01
 -3.4067722e-03
 -7.5545621e-01
 -3.2497132e-03
  2.7304585e+00
  3.3168730e-01
  4.3274352e-01
 -1.0225259e-01
 -4.7802123e-01
  2.6178232e-01
  4.7943485e-01
 -2.3850558e-02
 -2.8401092e-01
  3.5308078e-01
  1.4853448e-01
  1.1337008e-01
  8.0119029e-02
 -1.5823734e-01
 -2.8260979e-01
  2.6336345e-01
  5.1904041e-01
  2.0993251e-01
 -2.6716468e-01
  3.4431536e+00
 -9.6408504e-01
  4.7189884e-02
  3.4003145e-01
 -9.3249762e-03
 -1.6233438e-01
 -1.8902719e-01
  2.6626453e-01
 -4.7553620e-01
 -2.5972730e-01
 -3.1629923e-01
  1.7297864e+00
 -2.1253247e+00
 -4.1992322e-01
  2.3494719e-01
  1.5550667e-01
 -7.5239336e-01
 -8.1632033e-02
 -1.5690129e-01
  1.3598274e-01
 -3.7254867e-01
 -1.0114564e-01
 -5.4725218e-01
  1.2264951e-01
  9.9767402e-02
  3.1311238e-01
 -4.7792707e-02
  1.5608556e+00
 -3.0520785e-01
  6.0105461e-01
  5.1313424e-01
  2.4992743e-01
 -4.8088379e-02
 -6.7041650e-02
  1.2499316e+00
  2.4752281e-04
  1.8298933e-01
 -1.7258327e-01
 -4.4279912e-01
  2.5727189e-01
 -4.2585680e-01
  1.5482061e-02
  2.0200533e-01
 -7.4902970e-01
 -5.3587317e-01
 -2.7297890e-01
  4.0594092e-01
  8.1920701e-01
  3.5224853e+00
 -2.4377581e-01
  8.7440616e-01
 -4.5412469e+00
  7.0813352e-01
  5.0105989e-01
 -1.7871945e+00
  4.2597637e-01
 -2.9876062e-01
 -1.8571539e-01
  2.4611437e-01
  5.6987729e-02
  1.0941322e+00
 -5.3906041e-01
  4.0847149e-01
  1.1602525e-01
  1.2177727e-01
 -4.6925500e-02
 -6.3229793e-01
  1.0234290e+00
 -5.1621228e-01
  1.2157156e-01
  1.5144424e-01
 -8.2838184e-01
 -6.6831464e-01
  4.7456648e-02
  4.2438141e-01
 -2.6118373e-02
 -4.6121079e-01
 -9.7646278e-01
  4.2027402e-01
  8.2269393e-02
 -2.6984966e-01
 -3.8130963e-01
 -9.8677343e-01
  2.5128132e-01
 -2.7435151e-01
 -1.7211638e-02
  9.7148246e-01
 -5.2683294e-02
  3.1657279e-02
  4.2023569e-01
  8.4050876e-01
  1.7193779e+00
 -9.3148535e-01
  1.3935795e-01
 -7.0246762e-01
 -4.4249687e-01
 -2.7084952e-02
 -9.0900570e-01
  1.8528634e-01
 -9.8739949e-04
  7.0424449e-01
 -2.7619338e-02
  8.6723372e-02
 -8.1653219e-01
 -2.6507372e-01
  2.5625074e-02
  5.1739641e-02
  6.6529438e-02
 -3.5981920e-02
 -1.7206308e-01
  4.0798523e-02
  1.3002966e-01
  2.3134878e-01
 -4.3611243e-01
  1.2721169e-01
 -2.4584511e-01
  1.9799256e-01
  3.9389178e-01
  4.2915329e-01
  7.9768777e-02
  4.9880813e-03
  1.1632993e-01
 -2.6266438e-01
 -3.0784476e-01
 -1.3428257e-01
 -6.6563892e-01
 -1.0021725e+00
 -8.3638847e-02
 -1.0111302e-01
  3.4186321e-01
  1.0086565e-01
  1.7767374e-01
  5.3702360e-01
 -1.4431019e-01
  2.2869948e-01
  1.2534203e-02
  1.8714888e-01
  1.4425357e-01
 -4.1082266e-01
  2.8543338e-01
  1.3070351e-01
 -2.4590537e-02
 -2.4809846e-01
 -1.7038357e-01
  8.8573985e-02
  5.8205470e-02
 -3.4832653e-01
  2.6054105e-01
 -2.2381434e-01
 -2.5639346e-01
  1.0669494e-01
  2.2281060e+00
 -7.7791199e-02
  6.6796049e-02
 -1.5859595e-02
  1.1729839e-01
  3.8741948e-03
 -4.8201716e-01
  5.3006220e-01
 -6.0628253e-01
 -9.8235615e-02
  3.3762645e-02
  5.4900430e-02
  1.4438760e-02
 -3.9845202e-02
  2.5640467e-01
  3.0000976e-01
 -7.0366621e-01
  7.6842159e-01
 -3.0073047e-01
 -4.6299219e-01
  1.7329696e-01
  2.9006296e-01
 -3.3205262e-01
  5.9040618e-01
 -4.2029616e-01
  6.0218340e-01
 -1.3823768e-01
  4.9382213e-01
  2.9706192e-01
  9.8627783e-02
 -3.7806883e-01
  2.7336279e-02
 -1.2857504e+00
 -6.2471306e-01
 -2.1323630e-01
  1.4485942e-02
 -4.9614564e-01
 -4.8858726e-01
 -3.4573901e-02
 -5.1423173e-02
 -4.4920713e-02
  4.1866478e-01
  3.5651185e-02
 -1.0914334e-01
 -6.7307079e-01
  9.6443439e-01
  2.4581449e-01
 -3.8453776e-01
  3.1534040e-01
 -2.2690120e-01
 -2.9734701e-01
 -3.7864143e-01
  9.0297842e-01
  2.8751573e-01
 -1.2196224e+00
 -3.9349803e-01
  3.6969590e-01
 -9.5264101e-01
  1.9985892e-02
  4.4028372e-01
  1.0112960e+00
  2.7609901e+00
 -8.8174731e-01
  1.1722940e-01
 -1.1764700e+00
  9.3748754e-01
  3.4195036e-01
 -5.8543038e-01
 -1.1382818e-01
  1.2089740e-01
 -2.8694242e-01
 -2.4217907e-02
 -6.2910014e-01
  5.5095494e-01
  4.1830009e-01
 -2.0245461e-01
 -4.3446365e-01
  8.7815225e-01
 -1.5808310e-01
 -2.1184139e-01
  3.9577523e-01
 -3.9949715e-01
  8.3320564e-01
 -1.4608499e-01
 -4.1675591e-01
 -2.0157357e-01
  8.2554233e-01
 -1.1550528e-01
 -2.2636014e-01
  5.1429099e-01
 -4.3044934e-01
 -8.5885626e-01
 -6.3514537e-01
 -4.8926607e-01
  3.1385770e-01
 -5.4906100e-01
  3.9503393e-01
 -5.0517881e-01
 -2.6143879e-01
  8.3211440e-01
 -4.2136317e-01
 -1.3618697e-01
  5.7775307e-01
 -6.5216172e-01
 -2.3267277e-01
 -1.7238393e-01
  2.9576182e-02
  5.2229726e-01
  2.0888200e-01
 -1.4373635e+00
 -7.5467712e-01
  6.1362159e-01
 -7.5173533e-01
 -3.5835764e-01
  4.4057918e-01
  5.3421724e-01
 -2.8088030e-01
  8.3131385e-01
  1.6524456e-01
 -2.0984330e+00
  8.5387632e-02
 -2.4551448e-01
  8.9366668e-01
  5.5511564e-01
  1.1223167e+00
 -3.2746351e-01
 -3.7519413e-01
 -2.2589745e-01
 -2.6338330e-01
  6.2761569e-01
  3.0919519e-01
  2.7380052e-01
  2.2140820e+00
 -1.9878466e-01
 -1.0632561e-01
  2.5864881e-01
  2.2813423e-02
 -4.0205756e-01
  6.7028910e-02
 -2.1712196e-01
  5.5338353e-02
 -9.6258074e-01
  7.3511714e-01
  7.3447561e-01
 -1.4947659e+00
 -3.3022072e-02
  1.5682268e-01
 -1.3316067e-01
 -9.7681843e-03
  5.6779355e-02
 -1.2981544e+00
  1.5136881e-01
  2.5530699e-01
 -7.0857000e-01
  4.7464076e-02
 -3.0107126e-01
  3.6710745e-01
  3.3683151e-01
 -1.6542669e-01
 -9.1558658e-03
  3.6715841e-01
 -9.7814673e-01
 -9.2044908e-01
  1.9895090e-01
  1.3425412e+00
  3.8497865e-01
  1.7016330e-01
  5.9819162e-01
 -5.9613073e-01
 -1.1954900e+00
 -4.9867550e-01
 -1.7625408e-01
  4.5072988e-02
  3.5803494e-01
  2.1098629e-01
 -1.2824383e+00
 -3.3258834e-01
  9.3995214e-01
 -5.5915445e-02
 -2.0313604e-01
  3.1102192e-01
 -8.5639888e-01
 -1.5342565e-01
  4.4005755e-02
  2.0873249e+00
 -5.9144145e-01
 -4.1335508e-01
 -3.9518103e-01
 -7.0569682e-01
  1.0574444e-01
 -1.6390719e+00
  2.2222051e-01
  1.9604245e-01
 -1.0235722e+00
  5.7727069e-01
 -7.1920741e-01
  3.4127233e+00
 -3.4072735e+00
 -7.1615428e-02
 -3.2687807e-01
  3.1560962e+00
  2.5269404e-01
 -4.6209323e-01
 -7.0091766e-01
  6.6060692e-01
  1.5274152e-01
  7.7106290e-02
 -1.8631157e-01
 -1.0191882e-01
  1.4451107e-01
  7.9217097e-03
 -9.7907937e-01
 -1.6951784e-01
 -2.0815510e-01
 -9.9687777e-02
  1.5188353e-01
  2.2225170e-01
  4.0807110e-01
  1.5249381e-02
 -2.5072008e-01
 -2.1109048e-01
  4.2692140e-01
  1.4352266e-01
  1.4458241e-01
  4.5633921e-01
  1.9995661e+00
 -5.2503984e-02
  2.7521225e-02
  1.0211333e-01
 -1.8900244e-02
  8.7207091e-01
  1.3410289e+00
 -8.6891696e-02
 -7.8795141e-01
 -8.4846091e-01
  2.7267680e-01
 -8.7251328e-02
 -3.5815018e-01
 -1.4024857e-01
 -2.6774609e+00
 -4.6290982e-01
 -2.2903612e+00
  2.9768637e-01
  2.2971290e-01
 -4.0363672e-01
 -7.5404072e-01
 -9.6003336e-01
  2.4874219e-01
  2.9020315e-01
 -2.1487367e-01
 -5.6739551e-01
  5.9883039e-02
  3.4185600e-01
  4.8691452e-01
  4.1396700e-02
 -2.8128234e-01
  7.4502355e-01
 -1.9932039e+00
 -3.2903616e+00
 -3.2989940e-01
 -3.4804907e+00
  2.7121460e-02
  4.7616264e-01
  2.7856760e+00
 -1.2379766e-01
  8.9941204e-01
 -3.4720403e-01
  1.8560104e-01
  2.8846088e-01
  4.9810326e-01
 -5.8165386e-02
 -4.9720034e-01
 -4.9300620e-01
 -1.4172114e-01
  3.7869963e-01
 -1.6384174e+00
  4.5676881e-01
  1.5271567e+00
  3.1282845e-01
  4.3235040e-01
 -6.7140527e-02
 -2.3581895e-01
 -4.5551696e-01
 -2.0562631e-01
 -2.2933514e-01
 -4.9751151e-01
  3.9282003e-01
  8.1387699e-02
 -3.4530881e-01
 -4.2474157e-01
  2.0010969e-01
  8.4202385e-01
  1.2805321e+00
  6.0958505e-01
 -2.1773106e-01
  2.1994461e-01
 -9.1595948e-02
  4.5088452e-01
  2.4376456e-01
 -6.5859729e-01
  3.8050272e-02
 -3.2666239e-01
 -5.9200484e-01
 -1.0984418e-01
 -1.3734949e+00
  5.4662943e-01
 -1.5287271e-01
  6.0747743e-01
  1.8279938e-01
 -3.7425950e-01
 -1.8008343e+00
 -1.7772903e-01
 -1.2623921e-01
  6.6725767e-01
 -4.8569298e+00
 -7.2912705e-01
  1.3778058e-01
  3.3111932e+00
  1.2908036e+00
 -6.7305928e-01
  2.4373947e-02
 -5.3261650e-01
 -1.8574661e-01
 -2.4772856e+00
  3.9254460e-01
  1.2960898e+00
 -7.1251714e-01
  5.3188747e-01
 -3.8702175e-01
 -6.3619077e-01
 -1.2014245e+00
  5.3091401e-01
  1.5665951e+00
  9.9053341e-01
  1.5632334e-01
 -2.3776064e+00
 -3.8779337e+00
  4.7371981e-01
 -7.7707052e-01
  4.8083794e-01
 -2.6639080e-01
  1.1265715e+00
 -4.3860802e-01
  7.0354497e-01
 -1.8891266e-01
 -2.2674271e-01
 -8.5848081e-01
 -1.4014510e+00
  1.2423688e+00
  4.7317114e-01
 -3.4080017e-01
  6.6602832e-01
 -1.2904587e-03
  3.8807270e-01
 -2.4555548e-01
  2.2921596e-01
 -5.7116008e-01
 -7.9902786e-01
  1.7137144e+00
 -1.1371398e+00
 -4.1577300e-01
 -7.3126018e-02
 -5.5577767e-01
  2.6273936e-01
 -2.7906778e-01
  2.6356196e+00
  5.9717798e-01
  1.1357830e+00
 -8.6177057e-01
  9.7973686e-01
  1.2279799e-01
 -8.9938980e-01
 -6.4483732e-01
  5.5707973e-01
  8.2544070e-01
  2.2712786e-01
  1.4854653e+00
  3.4388211e-01
 -3.6875489e-01
  9.4855565e-01
 -6.0704511e-01
 -4.5312807e-01
 -1.3062742e+00
 -6.0162640e-01
  2.4777456e-01
 -1.4238540e+00
 -1.2625256e+00
 -9.5720822e-01
 -8.0063147e-03
  8.7214947e-01
 -3.1460968e-01
  4.4405852e-02
 -1.2836745e+00
  5.4990870e-01
  1.2982792e+00
  3.0593893e-01
  2.5413172e-02
 -2.0024878e-01
  8.0983512e-02
 -2.0539865e+00
  5.5364484e-01
  3.0626288e-02
  5.6656545e-01
  1.4587856e-02
 -6.6231805e-01
 -6.3349865e-02
  1.1740297e-01
  1.4141203e+00
 -3.7410697e-01
 -2.9111236e-01
  2.9780436e-01
  2.4209546e-01
  8.0399208e-02
  8.2013911e-01
 -5.6994629e-01
 -1.3971926e-02
 -6.0625708e-01
 -1.5896675e-01
  1.1058336e-01
  3.2075532e-02
  2.2133067e-01
  5.0461572e-01
  8.5365571e-02
  4.1460212e-02
 -8.9978725e-01
  8.9241661e-02
  4.1874051e-01
 -2.0817168e+00
  2.0492437e-01
 -5.8895385e-01
 -1.0191162e+00
 -8.0357069e-01
  1.5305777e+00
 -1.5442178e-01
 -3.3713192e-01
  7.5579023e-01
 -9.9152839e-01
 -2.6716962e-01
  2.8823510e-01
  1.8742457e-01
 -1.7358886e-01
  8.3735503e-02
 -3.2263815e-01
  4.0038756e-01
  1.3549578e-01
 -6.4579147e-01
 -2.2522101e-02
  5.3813827e-01
  1.4603166e-01
 -1.3725471e-01
  1.3722864e-01
 -1.4531192e-01
 -3.9175123e-01
  1.9358438e+00
  8.4397659e-02
 -1.1041298e+00
  1.4977196e-02
  2.8885958e-01
  1.5697728e+00
  9.2785172e-02
 -2.8478172e-01
 -3.2911399e-01
 -6.4488256e-01
 -5.7978857e-01
 -1.8909009e-01
  1.8069198e-02
 -3.6140537e-01
  3.7627864e+00
 -5.1959127e-01
 -1.3854901e-01
 -1.8098448e-01
  6.4814109e-01
  2.6212432e+00
 -2.1917107e+00
  5.8163404e-01
  5.5520731e-01
  6.4152163e-01
  6.6921479e-01
 -7.1061105e-01
 -8.1496972e-01
  1.5671578e-01
 -5.8180159e-01
  5.1001054e-01
  5.0455493e-01
 -5.5118823e+00
 -2.9250052e-02
 -4.8605105e-01
 -1.1815245e+00
 -2.7027091e-01
  5.8934342e-02
 -4.8836917e-01
 -8.3708310e-01
  4.4616181e-01
 -1.3674434e+01
  3.9999896e-01
 -4.1117167e+00
  1.3642919e+00
 -6.3395500e-01
  1.3127223e-01
 -1.0895978e+00
 -1.1116058e+00
 -3.1436101e-01
 -7.5631995e+00
 -5.2697951e-01
 -3.3102605e-01
  5.9867167e-01
 -3.7668398e-01
  3.2976937e-01
 -1.5523884e+00
 -8.1750262e-01
  1.9119462e+00
 -1.1026186e-01
 -2.3618391e+00
 -1.1021942e+00
 -1.7501056e-01
  1.9245198e+00
 -6.3849330e-01
  3.0293128e-01
 -5.5224788e-01
 -3.0722556e-01
 -9.0049267e-01
 -1.2360401e+00
  3.2576723e+00
 -3.2556900e-01
  4.8748624e-02
  1.2086382e+00
  3.3175462e-01
  2.0232494e+00
  1.7447613e+00
  1.9019277e-01
 -1.4038938e+00
 -1.5622257e+00
 -4.7274974e-01
  2.8855920e-01
 -6.5637869e-01
 -2.1332591e+00
 -1.1842884e-01
  2.0793087e+00
  2.3961268e-01
 -1.9070750e+00
 -1.0232329e+00
  2.1647723e+00
  1.0498520e+00
 -1.5608927e+00
 -2.3489705e-01
 -4.2382421e+00
 -2.8350329e+00
  1.9510084e+00
 -1.5746334e+00
 -3.6984575e+00
  1.1401377e+00
  1.2455536e-01
  4.0798205e-01
 -7.7202624e-01
  2.1689274e+00
  3.8008103e-01
  1.7971690e+00
 -3.4677200e+00
 -1.2147056e+00
 -3.9454341e+00
 -4.2886776e-01
 -2.6497586e+00
 -3.9368999e-01
  9.6589744e-02
  1.2527853e+00
 -3.5980835e+00
 -2.3683000e+00
  3.7416033e-02
  5.4629791e-01
 -2.1540136e+00
  3.3083561e-01
 -1.0868454e+00
  1.4992341e+00
 -7.8120545e-02
  1.2263223e+00
 -6.5865016e-01
  2.0909113e-01
 -1.6310370e-01
  4.7657106e-02
  2.1933828e-01
 -1.6934037e+00
  6.7850602e-01
 -1.1992528e-01
  1.8929516e-01
 -1.0328125e+00
  4.2798907e-01
  4.2610210e-01
 -8.3874189e-04
 -1.6039684e-01
  5.7285166e-01
  8.1516400e-02
  2.1023601e-01
  1.2421784e+00
  6.7946136e-01
  9.8939486e-02
  7.1655047e-01
  1.5387902e-01
 -2.8133112e-01
  4.0731263e-01
  1.6774936e-01
  4.5213875e-01
  7.2681648e-01
  2.3708872e-01
  5.3297991e-01
 -1.0465720e+00
 -5.7975638e-01
 -6.6612381e-01
 -5.4529268e-01
 -5.1654482e-01
 -1.3016324e+00
 -3.4544995e-01
  3.7760293e-01
  4.2929601e-02
  1.5291688e-02
  2.2129080e+00
  5.0595838e-01
 -6.0007983e-01
  8.8334218e-02
 -8.7749690e-01
  1.0983698e+00
 -2.8477991e-01
  1.3231732e+00
 -6.5218949e-01
  1.1614441e+00
 -1.6753310e-01
 -7.7582747e-02
 -5.1092708e-01
 -1.9915715e+00
 -1.6574819e-01
 -5.9912167e-02
 -1.0182637e-02
 -3.6256182e-01
  3.0713609e-01
 -2.2671554e+00
  6.5830213e-01
 -4.2259660e-01
 -1.3114958e+00
  2.8459629e-02
 -8.9918053e-01
  1.4063956e-01
  4.1086063e-01
  5.0213665e-01
  1.2941396e-01
 -1.4176412e-01
  7.5007901e-02
 -7.4056610e-02
 -1.5133399e-01
  7.2404221e-02
  1.4972983e-01
 -1.8626121e+00
  4.9464548e-01
 -7.6442075e-01
 -3.1549081e-01
 -8.5386568e-01
 -1.5363379e+00
  2.2684753e+00
 -4.2668283e-01
 -7.0326477e-01
  2.0346344e-02
 -2.0487568e+00
 -1.9666052e-01
  2.8529817e-01
 -5.3035253e-01
  5.2735731e-02
  7.4206394e-01
  6.9558424e-01
 -2.5750843e-01
 -6.0807634e-03
 -1.1560767e-01
 -1.8605713e+00
 -1.1265868e+00
  7.2661722e-01
  3.3306196e+00
 -4.4363286e-02
  3.0490196e-01
 -4.7237083e-02
 -7.6062307e-02
  1.2925761e+00
 -4.8081326e-01
 -3.0165532e-01
  4.0700412e-01
  4.9177971e-02
 -7.5400847e-01
  2.0629123e-01
 -1.4285955e-01
  4.5674946e-02
 -7.6109475e-01
 -4.3894744e-01
 -7.6568151e-01
  5.3873378e-01
 -4.6016874e+00
 -2.1282515e-02
 -3.2733603e+00
 -1.7292469e+00
  6.5709598e-02
  1.8606274e+00
 -2.0571411e+00
 -5.1275223e-01
  1.3091611e+00
  1.4881200e-01
 -1.5462770e-01
 -4.6822974e-01
  8.4216647e-02
 -9.2523202e-02
  1.1220993e+00
 -6.6254713e-02
  6.7413613e-02
  3.3873966e-01
  5.6368880e-02
  1.9386791e-01
 -1.2217134e-01
 -1.0278735e-01
 -1.5638679e-01
  3.7549451e-02
  1.2186676e-01
  2.2218156e+00
 -3.5373494e-01
 -8.4600782e-01
 -4.1104451e-01
 -4.8362657e-02
  3.0365911e-01
 -5.5673186e-02
  2.5779030e+00
 -7.1532422e-01
 -3.0180216e+00
  1.3086373e-01
 -2.6171193e-02
  3.5884699e-01
 -6.6169131e-01
  1.4872240e-01
  1.2180650e-01
 -3.0790544e-01
  7.6840413e-03
 -6.1145973e-01
  3.2509193e-02
  2.7127418e-01
 -3.1497401e-01
 -6.3029982e-02
 -1.8156928e-01
  1.0490016e+00
 -7.2737277e-02
 -2.5872424e-01
 -3.1115675e-01
 -5.1064843e-01
 -1.8935122e-01
 -1.2301409e+00
 -4.9752107e-01
  1.0884428e+00
 -2.9547739e-01
 -3.0364341e-01
 -5.8356303e-01
  4.7432106e-02
  4.4973338e-01
 -4.7557527e-01
  2.7997914e-01
 -1.8955508e-02
 -5.0837189e-01
  1.9164863e-01
  1.0749550e-01
 -5.2428859e-01
 -1.6258404e-01
 -9.5188999e-01
  8.1893241e-01
 -3.0226004e-01
  8.8331133e-01
 -2.4930893e-01
 -2.2710626e-01
  2.6914638e-01
 -1.4597755e-02
  9.7773033e-01
  6.6408104e-01
  6.8667316e-01
 -2.9861522e-01
  3.8414780e-02
 -4.5904398e-02
  4.1922696e-02
 -1.3095480e-01
  6.2597752e-01
 -9.8258154e-03
 -3.7940022e-01
  1.4555556e-01
 -2.1857178e-01
  5.6021363e-01
 -5.2590775e-01
 -2.8014365e-01
  6.5574594e-02
  2.4239649e-01
  1.5459485e-01
 -4.7251362e-01
 -7.9396749e-01
 -4.5988776e-02
  9.4799525e-01
  3.9790112e-01
  5.4112375e-01
 -2.8543398e-01
 -2.1318963e-01
  3.1648598e+00
  4.8286157e+00
 -3.1404059e+00
  1.4988418e+00
 -4.2221036e+00
 -1.1263165e+00
 -1.2690535e+00
 -2.2046487e+00
 -1.5566475e+00
  5.9424803e-02
  1.1263990e-01
  7.4550790e-01
  3.1031160e+00
  1.3810575e-01
  8.7151781e-02
  5.0701177e-01
  1.0963812e-01
  2.5274990e-02
 -1.4652169e-01
 -1.9160805e-02
  7.9370975e-02
 -2.8468099e+00
 -1.7821011e-01
 -6.7675221e-01
 -1.9580026e-01
 -6.3788891e-01
 -1.4715799e-02
 -5.2679622e-01
 -2.4326374e-01
 -3.5030460e-01
  6.5072536e-01
 -1.2802602e-01
 -1.2352005e+00
  2.1109179e-01
  1.5548927e+00
  3.0307949e-02
 -5.5023921e-01
 -4.2120102e-01
  8.5917540e-02
 -3.8445660e-01
 -1.8612173e-01
  1.9474933e-01
  7.3429680e-01
 -3.3643090e-03
  1.7829776e-01
  1.6867701e+00
 -1.1914206e-01
  2.5776684e-01
  2.0738711e+00
 -8.2726210e-02
  2.4854150e-02
  6.0167044e-01
 -3.4441641e-01
 -1.2573093e-01
 -4.3042216e-01
  1.5915041e-01
  1.1652179e+00
 -1.5505025e-01
  1.8319826e-01
 -8.4600949e-01
  1.3683448e+00
 -5.5244952e-01
 -4.2359281e-01
  8.8795596e-01
 -5.1395172e-01
 -4.6867287e-01
 -6.4490294e-01
  6.1122543e-01
 -3.0672353e-02
  1.1650296e-01
  6.4171992e-02
 -5.3355247e-01
 -2.6176360e-01
 -4.8374993e-01
 -6.2581431e-03
  5.4551369e-01
 -5.2294232e-02
 -1.6043228e+00
 -1.2166797e-01
 -4.2302591e-01
 -1.5687032e+00
  4.5775077e-01
  4.1103092e-01
 -2.1610523e-02
  3.0361098e-01
  7.1652770e-02
  7.8483075e-03
 -7.3745221e-01
 -2.0773198e-02
  1.0660659e+00
 -3.6727270e-01
 -2.0479594e-01
  1.0505291e+00
  1.2907322e-01
  6.1007231e-01
 -1.2088126e-01
  4.3044765e-02
  6.9958335e-01
 -2.7768415e-01
  3.3004799e-01
  1.2354814e-01
  1.6165370e-02
 -2.8608099e-01
