nep4 3 Sc C Cl 
cutoff 6 4 60 23
n_max 4 4
basis_size 8 8
l_max 4 2 0
ANN 50 0
  8.5769957e-03
 -2.7882175e-03
 -7.8745294e-01
  9.1254339e-03
  2.9905256e-02
 -1.8214919e-01
  1.1911792e-02
 -3.0779138e-02
  3.1660569e-03
 -3.2102577e-03
  2.4919469e-02
  2.1270748e-02
 -7.4196089e-04
  6.9490517e-03
  1.4603779e-02
 -2.6176511e-03
 -3.4451030e-02
  1.5737390e-02
  3.4283183e-03
  2.2844974e-02
  8.0943527e-03
  6.2827282e-02
 -5.2021682e-02
  2.2051090e-02
 -3.7242901e-03
 -5.9415039e-04
  1.4590737e-02
 -1.1879521e-02
 -4.0742764e-04
 -1.1199469e-02
  1.1168350e-01
 -3.0890906e-02
  3.2825563e-03
  1.8380085e-03
  1.8256073e-03
  5.4460377e-03
  3.4813091e-02
  5.6436029e-03
  7.0229410e-03
  1.3080851e-02
  4.3555223e-03
  1.8159995e-02
  6.0311791e-02
  2.3719517e-03
  1.9501377e-02
 -1.0347619e-02
 -1.4083506e-02
 -5.3576421e-02
 -4.6049929e-03
  1.5858935e-02
  4.0852139e-03
  6.0594184e-03
 -8.4968575e-04
  6.7984066e-03
 -6.9927442e-04
 -1.8583016e-02
  9.2267217e-03
 -1.1612448e-02
  7.0519741e-03
  2.5197487e-02
 -1.5180166e-02
  6.5021082e-03
  3.6234998e-03
  2.3295203e-02
  2.0460494e-02
  2.3335336e-02
  3.8456062e-03
 -3.5830490e-02
  2.0572409e-02
  1.9597711e-02
  7.7879759e-03
  3.7317337e-03
  1.5930561e-02
  4.5059022e-02
 -3.5086982e-02
  7.0778816e-03
  1.0590340e-02
  2.3498954e-02
 -9.9709313e-03
 -8.0731092e-03
 -7.2267358e-03
  2.2144975e-02
  2.4953103e-02
  1.0366908e-02
 -2.3716232e-02
 -2.5929628e-02
 -1.4815589e-03
  1.5340047e-03
  1.9030547e-02
  1.4250512e-02
  7.4168928e-03
  4.0764702e-03
  5.3495169e-03
  8.7015983e-03
  1.4786229e-02
 -3.2407135e-02
  9.5651150e-03
  1.2396688e-03
 -1.6442792e-02
  1.0880646e-03
 -4.4380291e-03
 -1.9290730e-02
 -2.4270680e-02
  8.1701111e-03
 -2.7980050e-02
 -2.6780302e-02
  4.3189202e-02
  2.8041059e-02
  2.7128167e-03
  8.5318536e-03
 -3.8411974e-03
 -1.0072831e-02
  4.2974804e-02
  1.5676059e-02
  2.0854666e-03
  1.8657215e-03
 -9.0766009e-03
 -4.3804264e-03
  3.0924127e-02
 -4.2294823e-02
  9.4951326e-03
 -2.4128798e-02
 -4.4232477e-03
 -9.2202937e-03
 -5.0412812e-03
  2.8417767e-03
 -7.0589185e-03
  1.0019602e-03
 -1.0718983e-03
 -1.0177369e-02
  2.2911511e-02
  1.5134132e-02
 -4.0881722e-03
  5.3118449e-03
 -3.0461606e-02
  2.8595321e-02
 -1.0372463e-02
  1.9058729e-02
 -5.1164210e-02
  4.9864497e-02
  5.9338929e-03
 -8.9322915e-03
  4.5627896e-03
  9.8344767e-01
  8.7553086e-03
 -8.7540096e-04
  2.0383965e-02
  6.7634590e-02
  1.1276902e-02
  2.3583907e-03
 -8.8366824e-01
  5.9945155e-03
  4.3457440e-01
  1.4854434e-02
 -2.4477529e-04
  7.9177171e-03
 -1.8244050e-02
  5.5035312e-02
 -7.2441553e-04
 -9.3884552e-03
  1.1023813e-02
 -6.9290769e-01
 -5.6346343e-04
 -1.5214236e-02
  1.5042815e-01
 -7.7446047e-03
  3.0751968e-02
 -1.4291665e-01
  1.9036734e-01
 -2.1454021e-03
 -3.5566031e-03
  1.6570635e-02
  7.4701551e-03
 -3.1784650e-02
  1.2416862e-02
  7.4904371e-04
  1.3664276e-02
 -1.1666907e-03
  1.6680412e-02
  7.8331707e-03
  6.3867450e-02
  1.8270202e-02
  1.3258942e-02
  3.5006518e-03
 -1.2574587e-02
 -9.1916882e-03
 -3.2107387e-02
  3.1723452e-03
  5.5735991e-03
 -2.1815939e-02
 -6.3420949e-03
 -4.1133888e-02
  2.8799301e-02
 -4.9210470e-03
  1.1145319e-02
  4.1753966e-03
 -2.1898329e-02
 -4.4495272e-03
  2.0329710e-02
  2.2447871e-02
  3.5999246e-02
 -2.4465464e-02
  3.2338366e-01
  1.9823862e-02
 -4.3603047e-03
  1.8898580e-02
 -2.2041809e-03
 -3.1974884e-03
  2.3019886e-02
  9.1036949e-03
 -7.6215551e-03
  3.8646641e-03
 -3.1639636e-02
  3.3140242e-02
 -5.3185597e-03
 -1.2303063e-02
 -1.6264868e-03
 -7.2765222e-04
  9.4841812e-03
 -3.2780317e-04
  2.5698189e-03
 -3.8606275e-03
 -6.2961787e-02
 -1.6571683e-03
  3.4649279e-02
 -1.5452953e-02
  1.7356519e-02
 -7.4653101e-01
 -1.4370358e-02
  1.8290842e-02
 -8.1648910e-03
 -4.7782371e-03
  3.2521389e-02
  3.0375462e-02
  3.5981310e-03
  7.3293462e-02
  1.9827643e-03
  5.3548519e-03
  3.6476948e-03
 -2.2531111e-02
  3.1307474e-01
  1.2451631e-03
  6.4062655e-02
 -1.2862964e-01
 -2.5623029e-02
  9.9440068e-03
 -3.5665050e-02
  7.2889137e-03
  3.0144397e-02
  7.9932651e-03
 -1.0088157e-02
  2.8747212e-02
  2.5107207e-02
  4.3159523e-03
 -1.0821122e-02
  2.5355279e-02
 -1.6881326e-03
  2.6816220e-03
  1.0696212e-02
  2.5296947e-03
  1.4454160e-02
 -8.5252686e-04
 -5.4432717e-03
 -3.1066855e-02
  1.2217009e-02
  5.0686346e-03
  9.5170531e-03
 -1.9378029e-02
 -3.8978043e-03
 -7.5150160e-03
 -2.6779616e-01
  9.0275675e-01
 -8.2611424e-01
 -6.5553433e-01
  1.4077232e+00
 -7.1654976e-03
 -1.7687473e-02
 -2.4804490e+00
  1.1800795e-03
  6.1007261e-02
  9.4120510e-02
 -4.8107881e-02
  9.4036661e-02
 -2.7075117e-03
 -5.6684949e-02
 -2.8824564e-03
 -2.4895386e-03
 -8.6995192e-02
  2.6119578e-01
  2.6764389e-02
  1.1688416e-01
  5.9049636e-02
  2.2085622e-02
 -1.8557014e-02
  9.5459362e-03
  9.4297957e-03
  3.9987937e-03
 -1.0691678e-02
  8.0736345e-03
 -8.3661145e-03
  2.1406172e-02
  6.1099109e-04
 -1.8564496e-02
 -2.3087091e-03
  2.2211496e-02
 -2.2435524e-02
  1.1767912e-02
  2.2585856e-02
  1.3281498e-02
 -2.6443534e-02
 -3.7895020e-02
 -7.7932776e-04
 -1.5621156e-02
 -1.9567279e-02
  5.0150333e-03
  9.6090056e-04
  1.3876463e-02
 -8.1823403e-03
 -1.6586328e-02
 -1.9825599e-03
 -8.9305063e-04
 -5.0173388e-03
 -1.7794898e-02
 -2.6804900e-03
 -2.5972384e-03
  4.3618642e-03
 -6.3394591e-02
  9.9062975e-03
  8.6910063e-03
  1.2359051e-03
 -1.4397863e-01
  2.6522868e-03
  6.8846637e-01
  9.5765234e-04
  1.0963303e-02
 -7.3291142e-03
 -3.7288349e-02
 -2.2226235e-02
 -3.6139782e-03
  2.6047032e-02
  4.3549679e-02
  2.3167271e-02
 -8.5725831e-03
 -4.6410173e-02
  3.0164875e-02
  2.4786724e-02
 -1.8446069e-02
 -5.8698613e-04
 -1.9028811e-03
 -2.4381003e-03
  2.6558990e-02
 -1.2173826e-03
 -4.7616041e-03
 -2.5451450e-02
 -5.6946054e-03
 -2.2768378e-02
  5.3227045e-02
 -4.5074937e-03
 -1.0092151e-02
  1.3278529e-02
  1.9449553e-02
  1.2582063e-04
  3.0068045e-02
  1.8289912e-02
 -3.1783100e-02
 -3.9077606e-02
 -5.8209044e-03
  8.4652461e-04
  1.6468417e-02
 -2.4107467e-02
  5.2031761e-01
  1.2986405e-02
  4.7892511e-02
  1.4718939e-02
  2.6471531e-03
 -1.1560256e-02
  9.3784231e-01
  3.8514780e-03
  9.7251935e-03
  2.4783382e-02
  8.5543105e-03
  9.6436311e-03
 -2.0439040e-02
 -2.8563969e-02
  1.8144910e-03
  3.5963163e-02
 -1.4922821e-02
  1.2214852e-03
 -2.1597315e-02
 -1.9249201e-02
  2.2964742e+00
 -4.6728030e-01
  2.6728874e-01
 -1.0315446e-03
  3.5070512e-02
 -1.4036131e-02
  9.0508396e-03
  6.9264665e-02
 -2.8273847e-02
 -1.0188208e-02
  2.8267163e-01
 -1.1442215e-02
  1.2812760e-02
  1.9595978e-01
  2.0507807e-01
 -2.1987785e-01
 -7.9393047e-01
  1.1180770e-03
 -2.2387268e-01
  2.8224431e-02
 -2.8796117e-03
 -1.5146242e-02
  3.1124564e-02
  6.9050574e-01
  1.1549228e-02
  1.1173985e-02
  2.0431915e-02
 -4.8564544e+00
 -2.8800471e-03
  4.0094946e-03
  2.0710960e-02
 -5.0290138e-01
  1.8236684e+00
 -1.6310687e+00
 -1.8208617e-01
  2.3290072e-02
 -1.3959911e-02
  2.2404507e-01
  4.0913859e-01
 -7.4934680e-04
  2.3457040e-03
 -8.3816284e-01
  4.2140972e-02
  2.0047474e-01
 -7.8918049e-03
 -9.1636209e-03
 -1.3206497e+00
  4.8684797e-01
 -3.7470164e-03
  7.5832739e-02
  1.8440068e-02
 -5.5712736e-01
  4.8577194e-03
  1.2739761e-02
 -8.3183601e-02
 -6.8767995e-02
 -7.2776000e-03
  1.2917007e-02
  1.7770160e-03
 -4.0364098e-02
 -2.0800903e-02
 -4.7733374e-02
  1.0930864e-02
 -5.1715416e-03
 -1.2232908e+00
 -5.4897601e-03
 -2.0492157e-02
  8.4028669e-02
  1.1766861e-01
  1.7874682e-03
  3.8810860e-02
  5.0542569e-03
 -9.9681243e-03
  3.3791043e-02
  6.8984276e-01
 -1.4026468e-02
 -2.1010567e-02
  1.4312185e-01
  7.7894685e-04
  2.6969157e-02
 -1.1817304e-03
 -3.3925108e-03
 -5.2949698e-03
 -7.7271223e-02
 -3.3070590e-02
 -1.9302433e-02
  2.9715853e-02
 -1.0723871e-02
  4.8560435e-03
  2.6949465e-02
 -2.0849670e-01
  1.0190098e+00
  2.2387308e-01
 -8.4893477e-01
  2.0541840e+00
  4.5079119e-03
  2.4476179e-01
 -1.0079836e-01
  1.8193330e-01
 -5.4870348e-02
 -3.9864190e-02
  4.0164709e-01
  1.0613574e-01
 -8.0682379e-01
 -7.2696596e-02
  7.1511865e-03
  1.7112133e-01
  1.3793360e+00
 -1.0017564e+00
  6.1475258e-02
  2.0253584e-02
 -6.3085452e-02
 -2.2039933e-03
 -1.0978003e-03
  3.9299759e-03
  2.6422812e-02
  2.1388050e-02
  1.7387800e-02
  4.6486687e-03
 -1.5627548e-02
 -7.7330242e-03
  1.6664866e-02
 -9.2117246e-03
  1.9485891e-02
  2.1922167e-03
  8.8371499e-04
  1.2195468e-02
  2.4204284e-02
  2.5664356e-02
 -1.9636149e-02
 -3.2003369e-02
  1.1885885e-02
  8.9669265e-02
 -1.9037556e-02
 -3.1893430e-03
 -4.9855080e-02
  8.1525315e-03
  2.6407901e-02
  2.1037456e-02
 -8.1636468e-03
  8.7627601e-03
  2.9993376e-02
 -1.9541459e-02
 -4.4361963e-03
 -3.1053793e-02
  1.4842096e-02
  3.1279509e-05
  3.0324380e-03
  6.0385204e-04
  1.1525222e-02
 -1.1596330e-02
  5.7565447e-02
  1.7123645e-02
  2.0200554e-02
  1.5803173e-02
  9.5039308e-03
  7.6909624e-03
 -1.3101707e-02
 -1.5107529e-02
  3.2008395e-02
  5.0823693e-03
 -6.4446300e-02
  1.3246096e-02
 -1.2646022e-01
  3.2850925e-04
  1.5978328e-03
 -2.9134601e-01
 -1.2007537e-02
 -1.5256117e-01
 -6.4993382e-02
  5.8153504e-01
  5.0140880e-02
  4.2800613e-02
 -2.2857705e-02
 -1.8155625e-02
  2.4851719e-03
 -1.3788437e-03
 -5.6247022e-03
  3.5006134e-03
 -3.4198307e-02
 -5.7698059e-01
  2.0781258e-01
 -4.6052530e-01
 -1.2841235e-01
  1.0665882e+00
 -1.3818621e-02
 -2.5472432e-01
  8.3389515e-03
 -1.3210271e-01
  5.4468911e-02
  2.1767725e-01
  1.2511712e-01
 -1.2219791e-01
  6.5031779e-01
  1.8516886e-01
 -3.7215509e-02
 -1.3609970e-01
 -3.3600166e-01
 -3.9636239e-01
 -4.2531043e-02
 -3.2250516e-03
  1.4611688e-01
  1.7461060e-02
 -1.6870944e-02
  5.8322109e-02
  3.5237297e-02
  2.5174262e-02
 -1.4359771e-02
 -1.4661631e-02
  8.8229012e-03
  1.3709226e+00
  1.6775509e+00
 -1.3730534e+00
  9.6757871e-01
  6.2243927e-01
 -7.6247060e-01
  1.5062500e+00
 -7.9451227e-01
 -1.2877795e+00
  7.2662038e-01
 -1.4029863e-01
 -5.0841395e-02
  6.5423876e-02
  1.9504859e-01
  2.7815399e-01
 -3.8089943e-01
 -4.7546759e-02
  1.0880035e+00
 -6.1386299e-01
  4.6771690e-01
  1.8021193e-01
  2.0210598e+00
  4.3836001e-02
 -5.2754837e-01
  1.0521801e+00
  1.4627115e-01
 -1.5949499e-02
 -5.4937226e-01
 -3.8827106e-02
  2.6818981e-02
  5.9613562e-01
  7.4142122e-01
  4.4903692e-02
 -2.4072595e-02
  3.5642041e-03
 -8.5629486e-03
 -2.0707084e-02
  3.1900115e-02
  8.3203623e-03
  2.5337191e-02
  8.0789058e-03
  2.9308068e-02
 -2.4405625e-03
 -1.6321263e-03
  1.1272256e-01
  5.0380854e-03
 -1.4852635e-02
  2.1989127e-01
  1.5060994e-02
 -2.4310157e-02
 -4.9210177e-04
 -3.7284445e-03
 -2.2049673e-02
 -5.0036241e-03
 -3.8685102e-03
 -4.9545955e-02
 -2.7148496e-02
 -1.1075080e-02
  2.9527055e-02
 -3.3397883e-02
  1.8884618e-02
 -7.2424258e-03
 -9.3781371e-03
  2.5954675e-02
  1.1834144e-02
  1.5033745e-02
  9.2720445e-03
  2.4110200e-02
  1.5184380e-02
  5.8794920e-03
  8.3373021e-03
  2.7707052e-01
  8.6663006e-04
  2.0133774e-03
 -1.7562279e-02
 -2.9655432e-03
 -1.2188450e-02
  6.4967317e-04
 -4.8568659e-03
 -4.4327666e-04
 -3.0510142e-02
 -9.3567902e-03
  7.4761878e-03
  7.0003263e-04
  3.6382303e-02
  8.1958028e-04
 -2.9873883e-03
  6.3661314e-03
 -5.7771769e-03
  1.1821721e-02
  9.3473208e-01
 -4.1934539e-02
 -1.8864531e-02
 -7.9281636e-02
 -9.0174899e-03
  2.1125261e-02
  1.2149681e-02
  1.5412712e-03
 -2.4013286e-02
 -2.4812650e-02
 -6.2486045e-03
  2.1673471e-03
 -5.6890557e-03
 -3.3256153e-03
  3.2736261e-03
  4.5748148e-02
  9.6100837e-04
  8.6608613e-03
  2.9941265e-02
  5.9998981e-03
 -1.0604726e-02
 -2.3953581e-02
 -1.1088649e-02
  3.9910474e-03
 -1.3456429e-02
 -9.9643581e-03
 -4.4572349e-03
 -8.1656976e-03
 -2.9909689e-02
  3.2175925e-02
 -3.3604869e-01
  6.4256674e-01
 -4.3037730e-01
 -6.2696993e-02
  2.6102036e-01
 -8.0920681e-03
  1.2350521e-01
 -3.1923202e-01
 -3.0087205e-02
 -6.4622345e-03
 -9.8130263e-02
  2.6343557e-01
 -3.3217855e-02
 -1.6203269e-01
 -1.8188162e-02
 -3.8631275e-01
 -8.8558996e-01
  7.3304600e-01
  1.8193828e-02
 -5.3219972e-03
  5.0670195e-02
  8.7641291e-03
  5.5868514e-03
  6.0297828e-04
  7.2771283e-03
  2.3428621e-02
 -6.6035040e-02
 -2.4985820e-02
 -1.7838975e-02
 -1.4055100e-03
  8.7341266e-03
  1.5665131e-02
  2.0723473e-02
 -2.5537312e-02
 -1.5364177e-02
 -2.4729999e-02
 -9.9563658e-05
 -7.7475429e-01
  5.5717111e-01
  1.0696636e-02
  7.2804675e-03
 -3.9263899e-03
 -1.3642892e-03
  2.0589530e-02
  8.6095766e-04
 -5.4117227e-03
  9.4890418e-03
  9.3146628e-03
 -1.0937168e-02
 -5.6524160e-03
  2.3301991e-03
 -1.7820450e-02
  4.4425558e-03
  5.1119573e-02
  4.1630384e-02
 -9.5857205e-03
 -8.8089509e-03
  2.3819294e-02
  1.5154960e-02
  1.0157442e-03
  3.3879673e-01
 -4.0550753e-01
  4.5425618e-01
 -5.0733298e-01
 -1.2844677e-01
 -4.8687654e-03
 -6.8298723e-03
  4.2613304e-01
  2.4664965e-01
 -4.3686710e-02
 -1.3906256e-02
 -4.3166462e-02
  2.5319341e-03
 -2.7572855e-03
 -6.2190837e-01
 -8.8177219e-02
  9.2122786e-02
  1.6416635e-01
  8.6097382e-02
 -2.4211778e-01
  1.5630905e-02
 -3.5096210e-01
  1.6024338e-02
  1.1187758e-01
 -7.4065045e-02
 -4.1544542e-02
  1.1189929e-02
  5.0385105e-03
 -1.0817366e-02
 -2.9165808e-03
  2.0551506e-02
 -1.9960038e-02
  3.1213226e-02
 -5.2468264e-03
 -2.6248315e-01
  8.5995154e-04
  7.8069568e-02
 -3.9713294e-03
  1.9517902e-02
  1.1231134e-02
  3.7125971e-02
 -1.4577281e-01
 -2.2490111e-03
 -1.1734747e-02
  3.8451541e-02
  4.8696899e-01
  1.3052968e-02
 -3.9109915e-02
 -2.4895491e-02
  1.8988241e-02
  6.6043012e-02
  6.7376988e-03
  4.1014805e-02
  3.2390889e-02
  6.5314318e-03
  1.7554015e-03
  4.4345399e-03
 -9.7135250e-03
 -3.4807599e-03
  1.9655995e-02
 -3.2153448e-01
  3.3130646e-03
 -5.1918756e-03
 -7.9621188e-03
  5.3133504e-03
 -1.5812440e-02
  1.5651757e-01
  2.3117871e-03
 -1.6887494e-03
  2.9031120e-02
  2.2212083e-03
  8.9492798e-03
 -1.6518584e-02
 -1.1729855e-02
  2.7231419e+00
 -2.3543127e-02
 -2.2194531e-02
  4.1083116e-03
 -2.4052314e-02
  2.1391248e-02
 -2.4481282e-02
  9.6489144e-03
  1.7846139e-02
 -1.3561104e-02
 -1.2240794e-02
  9.0718661e-03
 -6.7217373e-03
  1.7030934e-03
 -8.4407233e-02
  1.4828093e-02
  2.0553297e-01
  1.7058921e+00
  4.1835341e-01
 -5.4099721e-01
  7.0902133e-01
 -1.7599760e-01
  7.3067087e-01
 -6.0887687e-02
 -8.4958142e-03
 -6.4816171e-01
 -4.8011434e-01
 -2.6774808e-04
  1.4830272e-01
 -3.5480458e-02
  1.7606077e-01
 -4.7703254e-01
 -1.5781271e-01
  3.2256922e-01
 -6.7946118e-01
 -4.6747103e-01
 -2.1861722e-01
 -7.5365770e-01
  1.7984640e-02
  1.3314798e-02
 -2.7010557e-01
 -7.4848019e-02
  1.6044725e-02
  2.0698771e-01
  4.2609684e-02
 -2.6882550e-02
 -1.0829941e+00
 -1.7621546e-03
  1.0902019e+00
  2.8488398e-02
  2.0316978e-01
 -2.8451841e-04
  3.1906946e-03
 -7.9537695e-03
 -1.4103862e-02
 -4.4735847e-03
  2.9277958e-02
 -9.1394465e-03
 -2.5659114e-02
  5.9534549e-03
 -4.4952929e-03
  4.0497660e-04
 -5.8007897e-03
  5.4368600e-02
 -3.2865885e-03
 -3.7851173e-02
 -7.6926742e-03
  4.8449417e-03
  5.5018505e-03
  1.3522489e-02
 -2.2058006e-02
 -6.6368622e-03
 -1.1646457e-03
  8.6725829e-03
 -1.2233826e-02
  4.0961201e-03
  7.9711318e-02
 -8.0583952e-03
  1.2876109e-02
 -5.3005934e-02
 -1.4225878e-02
 -1.2691780e-03
  1.8389234e-02
 -1.1636089e-02
  4.6215329e-02
 -5.8631070e-02
 -8.4756929e-03
  4.6205237e-03
  3.0594055e-02
 -2.4931183e-02
 -2.0531267e-02
 -3.1591849e-03
  2.5488299e-03
  3.3880930e-02
  2.6375607e-02
 -2.5976054e-02
  2.0075789e-02
 -1.6874574e-02
  1.6545387e-02
  1.0101255e-02
 -1.2468354e-02
 -4.4858893e-03
 -6.7113124e-02
  4.3961202e-04
 -9.3182055e-03
  1.7974345e-02
  6.1316150e-01
  9.1289535e-02
  3.6207461e-01
 -5.2927554e-01
 -5.5349600e-01
 -6.2119123e-03
  3.8603682e-03
 -2.0937169e+00
  2.0506382e-01
 -1.3046042e-04
  2.2567019e-03
 -6.3775294e-02
  2.3366766e-01
  1.5856693e-02
 -4.6520564e-03
 -5.8822557e-02
 -2.6076612e-01
  5.2832490e-01
  4.7269708e-01
 -1.7702097e-02
  7.2094682e-03
 -1.6331268e-02
  6.8080639e-03
 -5.0257577e-04
  6.3296496e-03
 -2.0137893e-02
 -7.2193602e-03
  1.0839608e-02
  1.0508467e-02
  4.3498613e-02
  1.0273483e-02
  5.4114005e-03
 -1.2163006e-01
 -3.4308948e-03
 -1.5354174e-03
 -3.3631537e-02
 -6.8724519e-03
 -6.6200118e-03
 -2.5258199e-03
 -3.1129085e-02
  1.7676653e-02
 -4.3942672e-04
  1.2048536e-02
 -2.7083978e-02
  2.8124003e-02
 -5.3212321e-03
  1.7717435e-03
 -6.3275024e-02
 -2.8415803e-02
  2.5369265e+00
 -2.4168273e-02
 -1.3477753e-02
  3.3255911e-03
  1.4499420e-02
  1.3623939e-02
  6.9897491e-03
  2.3234723e-02
 -6.2499917e-03
 -1.5053955e-02
 -2.7075814e-02
  1.8776525e-02
 -1.7369175e-02
 -1.4906496e+00
  1.5638703e-02
  2.2321982e-02
 -1.7340239e-02
 -9.1633890e-03
  3.4618046e-02
  2.5287613e-02
  6.7541511e-03
  2.8953256e-02
  1.1106497e-02
  1.1807884e-02
  2.4621734e-02
  3.9072055e-02
  1.0714931e-02
  3.0395186e-03
  2.3019249e-02
 -9.7375233e-03
  1.5845299e-02
  6.5737851e-03
  1.3170233e-02
  2.7002744e-02
 -1.1669980e-02
 -1.2764592e-02
  5.2245781e-03
  1.8440574e-02
  9.8075233e-03
  5.1193242e-03
  1.6074959e-02
 -1.2504289e-01
  1.4974083e-01
 -5.6231165e-01
 -2.3163458e-02
  1.9626161e-02
  6.5938272e-02
  1.7914930e-02
 -2.5474330e-02
 -9.0009406e-02
  4.2120185e-02
 -4.3425314e-02
 -5.5093866e-02
  8.4381719e-04
 -4.6212496e-03
 -4.8399335e-01
 -1.9653708e-02
  1.9119828e-03
 -3.9179799e-01
 -4.3259300e-02
 -4.2541996e-01
  2.8790182e-02
  1.4577287e-01
 -2.2826500e-02
 -7.0232404e-03
 -1.5753761e-02
 -8.5667742e-04
 -4.8241015e-03
  7.2580562e-03
 -2.3057861e-02
  3.1154209e-01
 -9.3608886e-02
  3.0629862e-02
  3.7760301e-03
  1.8163899e-02
 -1.5515038e-03
  2.0933166e-02
 -2.1001246e-02
 -1.5974015e-02
 -5.8988477e-03
  7.8615230e-03
  1.8997537e-02
 -1.4411569e-02
 -2.3964476e-02
 -3.7587082e-01
  1.2545068e+00
 -3.0230710e-02
  2.1109698e-02
 -7.1748463e-03
 -3.5785218e-03
 -1.4642272e-02
  6.5018670e-03
  1.9388871e-02
 -5.6608856e-01
  1.0381220e-02
 -2.5871074e-02
 -4.0570226e-02
 -3.0320076e-02
 -7.0155095e-03
 -9.5094725e-02
  1.4764512e-02
 -1.3812870e-03
  6.4510107e-02
 -5.5753607e-01
 -2.7773153e-02
 -3.9418635e-01
 -6.7837373e-03
 -1.1312346e-02
  6.6052550e-03
 -1.9740164e-02
  3.0028613e-02
  5.7388442e-03
  1.1844619e-01
  9.4052190e-03
 -7.8784980e-02
 -5.0640486e-02
  2.9649088e-02
  1.9183127e-02
 -4.2405447e-01
 -6.7563221e-04
  1.6235529e-02
  3.1220373e-02
  1.7072318e-02
 -3.3380900e-02
  1.6369985e-02
  6.1757346e-03
  2.0700541e-01
 -3.1023663e-02
 -1.6836515e-02
  1.5815714e-03
 -7.3619173e-03
 -3.8621101e-01
 -1.6988443e-01
 -9.3932319e-01
 -2.1078253e-02
  3.7561193e-02
 -9.2547797e-03
 -7.4067665e-03
 -1.9782508e-02
 -1.7815147e-02
  1.5009805e-03
  5.8385368e-02
  1.5781344e-01
 -6.9281263e-03
 -2.2279171e-03
 -1.7244140e-02
 -3.6766792e-03
 -4.0826723e-02
 -8.2679540e-02
  1.3016714e-02
  2.1565670e-02
 -7.0467950e-03
  3.7928671e-02
  1.4367568e-02
  1.1580925e-02
  5.7605482e-03
  2.6065711e-02
  2.7913477e-03
  4.3021500e-04
 -4.6243001e-02
  1.3793775e-02
 -5.9742327e-03
 -9.5290917e-01
  8.9733593e-02
 -1.5340935e-03
 -3.6508101e-01
 -4.2445649e-04
  2.1345936e-02
  9.7858636e-03
  1.6999382e-01
 -2.3912732e-02
 -2.1110184e-02
  1.6946279e-02
 -2.9437209e-03
  8.8369250e-02
 -1.2740775e-02
  1.3812108e-01
 -5.2998301e-02
  2.7545612e-02
 -1.7139915e-02
  2.9668355e-02
  1.5645584e-02
 -4.2056073e-02
  1.1489774e-02
  5.2738346e-02
  1.0738385e-02
 -3.2389637e-02
  2.3941582e-02
 -1.0954981e-02
  4.5919925e-02
 -6.5959319e-02
  2.2144005e-02
  8.7635773e-01
  3.0901553e-02
 -1.9758444e-01
  8.1558067e-01
  2.5415679e-02
  1.4215328e-02
 -1.4140080e-01
 -2.4678349e-03
 -4.5990841e-03
  1.3695528e-03
 -4.0279603e-01
  3.5120775e-03
 -4.0301118e-02
  5.1904082e-01
 -9.4209276e-03
 -2.1011081e-01
  3.0392435e-01
 -2.1419923e-01
 -2.9650484e-03
  1.3385890e-02
 -3.1625760e-01
 -1.7707944e-02
  7.3683417e-01
 -9.6145906e-03
 -1.4504553e-02
  3.0247290e-03
  1.1469505e-01
  1.7315887e-02
 -2.8084021e-02
 -1.8767359e-02
 -1.4733637e-02
  5.1302630e-01
  4.7387755e-03
 -2.6000026e-01
  3.0722441e-03
  4.4890299e-02
  1.7197080e-01
  6.4501581e-03
 -1.1990689e-02
 -5.5890020e-02
  2.3702959e-02
  7.2470154e-03
  8.3440460e-02
  2.3716865e-03
 -1.8289456e-03
 -4.5542933e-02
  6.8893391e-01
  6.8515092e-02
  2.5911197e-02
 -1.4991156e-02
  1.0167688e-02
 -4.5834626e-03
 -1.4930744e-02
 -5.9970170e-03
  2.5101587e-02
  1.4648246e-02
  3.1569280e-02
  2.9740794e-02
 -1.1133502e-04
 -3.7070613e-03
 -1.8755822e-02
  4.1112290e-03
 -2.2889776e-03
 -5.9021963e-03
 -2.7940189e-02
 -5.3682979e-03
 -1.1979509e-03
 -9.1091450e-03
  1.3289237e-02
  8.1692506e-03
  8.2765007e-04
  1.2360369e-02
  6.2220618e-03
 -2.4501946e-02
 -1.5924381e-02
 -9.4387494e-03
  1.4691103e-03
  4.3916374e-02
 -1.2395391e-02
  2.1619927e-02
  1.0109244e-02
  2.1337323e-02
  3.2628149e-02
  1.4643538e+00
 -3.9294185e-04
 -9.3043782e-03
 -1.1420204e-02
 -3.7078153e-02
  9.9622728e-03
 -1.2435306e+00
  1.2689880e+00
 -2.2676797e+00
  7.6817626e-01
 -2.4966861e-03
 -3.1019479e-01
  4.2735912e-02
 -2.1738511e-01
 -7.0981479e-01
  3.7012521e-02
 -6.0754585e-01
 -6.3135892e-02
 -8.7598525e-03
 -2.8532055e-01
 -2.3708338e-01
 -9.5728374e-01
  3.2967749e-01
  2.0300014e+00
 -3.5355169e-01
  2.7784519e-03
 -9.6425284e-03
 -8.7164231e-03
 -8.8732177e-03
  1.6844260e-02
  7.0783440e-03
  1.6084377e-02
 -1.4562105e-02
 -8.9871360e-04
  1.5025320e-02
 -6.3338038e-03
 -1.0633107e+00
  2.7106265e-03
 -5.8680594e-01
 -1.5650345e-02
  3.4487569e-03
  5.4077893e-02
 -4.8326951e-02
  2.3166533e-03
  5.0825775e-03
 -2.9545313e-02
  6.8937384e-02
  2.0010336e-03
  1.3758221e-02
 -1.6781110e-01
  2.0631941e-02
  2.2013078e-02
  1.3707037e-02
  3.1123230e-02
  1.6022633e-01
  1.0386051e-02
  1.9541558e-02
  7.9017384e-03
  7.6986547e-03
 -1.7649459e-02
  2.4288319e-02
 -1.2397614e-02
 -1.5177299e-02
  6.1436365e-03
 -1.1919443e-02
  6.4682583e-03
 -3.7691551e-01
  1.0004361e-03
 -6.5004605e-01
 -2.9545102e-02
  1.6867533e-01
 -1.1404672e-02
  7.3672030e-03
 -3.0186215e-02
  3.2796264e-03
  4.6648808e-02
 -4.2690262e-03
  5.5395798e-03
  7.0330156e-03
 -8.3847959e-03
 -5.2729182e-02
  3.5526489e-03
 -4.7441497e-03
 -2.9063669e-01
  3.8324886e-03
  1.4754511e-02
  7.5767171e-03
  4.2929319e-03
  4.9688462e-03
  5.3997934e-03
 -1.9852858e-02
  7.0162029e-03
  9.4074402e-03
  5.7571763e-01
 -2.9150072e-02
  1.0953446e-02
  4.6792957e-01
 -2.9996091e-01
 -3.6221617e-03
  1.0265123e-01
 -1.5020355e-02
 -3.7146101e-03
  1.3411940e-02
  1.0669775e-02
  9.8962281e-03
 -2.7977373e-02
  2.3795085e-02
  9.3335388e-03
 -8.2652606e-03
  3.4190305e-02
  8.3154673e-03
 -2.2389411e-03
 -1.9875854e-02
  4.5706350e-03
 -4.6721343e-03
 -9.7909244e-03
 -1.3386820e-02
 -1.4167865e-02
 -1.9503428e-02
  4.9090632e-03
  1.6811326e-02
  1.0543572e-03
 -1.8840310e-03
  2.7501943e-02
  2.4419585e-02
 -6.7508030e-03
 -4.1526671e-02
 -1.6837602e-03
 -2.0086298e-02
  6.7456658e-03
  1.8269910e-02
 -1.0388925e-03
  8.8190818e-03
  2.0734966e-01
 -1.0441353e-01
  1.7356070e-03
  6.5555661e-03
  7.9961391e-03
  6.5436022e-04
 -2.6573101e-01
 -4.9633196e-01
 -3.3456270e-02
 -2.4539976e-01
 -4.5755482e-01
 -8.7114293e-03
  7.2052269e-03
  1.4872636e-02
 -1.2505027e-02
  7.4266917e-03
 -2.3727195e-02
 -5.2590813e-03
 -1.0502839e-02
 -3.7040431e-02
  9.5374300e-04
 -2.5404880e-02
  2.2903603e-02
  2.1169644e-02
 -9.6579129e-03
  9.6562030e-03
  4.6476820e-03
  1.5041743e-02
 -7.2465595e-03
  3.3072971e-02
  1.2780969e-03
  3.2612953e-02
 -2.0499308e-02
 -2.1864451e-02
  7.2849565e-03
 -8.0990994e-01
 -1.4813722e-02
  7.5213350e-03
 -2.0526068e-02
  4.9005706e-02
  3.1813059e-03
  8.2758609e-03
  9.2292866e-03
 -8.9218672e-03
  8.3530630e-04
 -1.3428424e-02
 -2.6154432e-02
  4.8011104e-03
  8.3230725e-03
 -4.4661604e-02
 -1.7892219e-02
 -2.1306826e-02
 -5.5222502e-03
 -8.1726718e-01
 -2.9851587e+00
 -3.7603766e-01
 -1.4005135e+00
 -5.2944309e-01
 -1.4659619e+00
  1.3665469e+00
  2.3795001e-01
  5.0026894e-01
  5.5473344e-03
  1.1341275e-01
  9.6992487e-01
 -1.0920960e-01
  5.5179685e-01
 -8.4972179e-01
 -1.5464382e+00
  1.6090623e+00
 -1.2077652e+00
 -2.4027783e-02
  1.3890504e+00
 -5.4558768e-04
  3.1189209e-01
 -2.4783706e-02
 -8.0479071e-02
  3.7982628e-02
  2.0038171e-01
 -7.4194670e-03
 -4.4542290e-02
 -2.2708090e-02
 -3.5234042e-02
  1.0833749e+00
  1.0739496e-02
 -3.3983510e-04
  1.2248417e-02
 -1.1483449e-02
  1.2995276e-01
  1.4143651e-02
  1.2218774e-02
 -1.2607396e-05
  2.2769876e-02
  4.3156841e-01
 -2.5477750e-02
 -1.8325377e-02
  2.8087952e+00
  3.4845167e-01
 -1.0969493e+00
 -2.4192194e-02
  1.0208719e+00
 -3.1727433e-01
 -8.2652205e-01
  1.3653765e+00
 -1.2131051e-02
 -2.5691446e-02
 -1.4355810e-02
  1.6536064e-01
 -5.5875825e-03
  8.0227828e-01
  1.2555026e-03
 -3.3930922e-03
 -6.1633563e-01
 -6.1932922e-04
  9.2566386e-03
 -2.3277818e-01
  1.2971683e-02
  2.1235945e-02
 -9.4976008e-02
  3.5257615e-02
 -1.5407711e-01
 -4.4935673e-01
 -1.3302714e-01
 -3.5753411e-01
 -7.5149104e-02
 -7.8928843e-02
 -6.2849760e-01
 -1.9192090e+00
 -8.9376599e-02
  1.5671704e-02
  2.3908131e-02
  2.7226827e-03
 -3.8997334e-01
 -3.1359541e-01
 -5.8337150e-04
 -6.2558636e-02
  1.6242523e-02
 -6.1960019e-02
  3.4370905e-01
  2.2876912e-04
  1.1076948e-01
 -2.2901222e-02
  3.2335070e-01
 -5.9137815e-03
  7.6016009e-02
  2.0726871e-02
 -5.6100667e-01
 -4.0573657e-01
 -3.2842767e-01
 -4.8814201e-01
  2.4604145e-02
  1.0915896e-01
  1.0233220e+00
  2.3674753e+00
 -2.6276380e-01
 -1.4447687e-02
  2.4953105e-03
  4.9186614e-01
 -9.2736907e-02
 -8.9073592e-01
 -1.3821428e-01
  8.0594225e-03
 -2.1325061e+00
  2.0658108e-03
 -1.0283115e-01
 -2.7227688e-01
  4.2261772e-02
 -9.2118317e-03
  3.6311954e-01
  1.0433599e-01
  1.7953944e-01
  2.0691112e-01
 -1.3701583e-01
 -7.9664510e-01
 -2.5778466e-01
  4.0938184e-02
  9.4778806e-01
  1.4806011e-01
  4.9394047e-01
 -1.0815767e-01
  2.2255190e-01
  1.4250150e-02
  7.4191827e-01
 -1.0519436e-01
 -1.0218654e-02
  9.9252313e-03
 -6.0199499e-02
  4.4424059e-03
  1.8045360e-02
  1.4372069e-01
  5.1585914e-05
 -4.0416203e-02
 -1.9750392e-02
 -4.7058672e-02
 -1.8229397e-01
  2.9583441e-02
 -9.5996849e-02
 -4.1712251e-02
  2.2361888e-02
  2.4395863e-02
  1.7932236e-02
 -7.1170944e-04
  3.3886710e-03
  5.4951757e-03
  8.2641624e-02
 -2.9060660e-02
  2.0516122e-02
 -4.5056567e-02
  2.5204267e-02
  2.6493989e-02
  1.4519344e-02
  5.2727000e-03
 -8.9876316e-03
 -1.5200935e-02
 -8.3979666e-03
  3.2942265e-02
 -4.9360484e-02
 -7.5999171e-02
  5.7239771e-02
  4.7080144e-02
 -5.3301483e-02
 -7.3108985e-03
 -6.4047709e-02
 -1.0341185e-02
  2.0546626e-02
  3.4070555e-02
 -6.7566603e-02
  1.2081457e-02
  3.2699753e-02
  1.5115676e+00
  2.3288243e-02
  1.7083311e-03
 -1.0477830e-02
  1.0028897e-02
  1.7569397e-04
  1.4227928e-03
 -4.0091798e-02
 -5.6064717e-02
  4.0125797e-04
 -8.1532244e-03
  1.5461576e-02
 -8.2541062e-03
  1.6783489e-02
 -1.4898396e-01
 -2.3897491e-01
  1.9945993e-01
 -5.9321318e-03
  1.9078659e+00
 -7.0570325e-03
  1.0928545e-01
 -1.4416114e-03
 -6.3750111e-02
 -6.8224348e-02
  7.8466227e-03
 -4.0361211e-03
  1.0988776e-02
 -1.7884345e-01
 -2.8991154e-03
  3.4218621e-02
 -4.7632866e-03
 -1.1948027e-02
  2.0913409e-02
  1.5976550e-02
  4.0496666e-02
  1.7067159e-02
  6.7402902e-03
 -8.8953353e-02
 -1.7232858e-01
 -1.2364889e-02
  7.5740595e-03
  1.0630422e-02
  1.9055892e-03
 -6.8934169e-04
  1.0384774e-02
  1.1096643e-02
  2.2808950e-02
 -1.9109121e-02
  3.0607414e-02
 -2.4236436e-03
  2.0480309e-01
  2.4383413e-02
  3.7832838e-02
 -4.7377674e-03
 -5.3958386e-02
  8.4808841e-03
  3.6756586e-02
 -2.5646549e-02
 -9.8882578e-03
  3.3197408e-03
 -3.1592999e-02
 -2.0165551e-02
  1.6501065e-02
  4.1078031e-04
 -1.2389791e-02
  1.2046861e-02
 -4.5527532e-03
  6.4800531e-03
 -3.8343374e-02
  1.5742453e-02
  2.6741739e-02
  2.0914055e-02
  8.6062299e-03
  1.3512939e-01
  3.9760387e-04
  1.9940597e-03
 -2.5130622e-02
  8.1260959e-03
  7.2445837e-03
  1.4811020e-02
  3.1551693e-02
  2.8828082e-03
 -1.0016439e-02
  1.0995599e-02
 -4.8944289e-03
 -1.6908450e-02
 -5.5924397e-02
 -3.1395912e-02
  3.9073892e-02
  2.5424451e-02
 -4.9871981e-02
  1.1272283e-03
 -8.5132226e-04
  2.1900138e-02
 -1.4047740e-01
 -5.3042374e-03
  6.8723639e-03
 -1.0931721e-02
  1.2549859e-02
  1.8296398e-02
 -9.2330463e-03
  1.3643661e-02
  2.0412520e-02
  3.2744531e-03
 -3.9703595e-03
  3.4257147e-02
  2.8186204e-02
 -5.4086326e-03
 -1.6894178e-02
 -2.3627745e-02
  3.2603592e-02
  8.3481707e-03
 -2.9675604e-03
 -2.3909913e-04
 -2.6161219e-03
 -1.9204316e-03
 -2.8953213e-02
 -1.4491310e-02
  4.1456418e-03
 -1.2885427e-02
 -5.6499364e-03
  5.8642544e-02
 -4.0325832e-02
  6.6923490e-03
 -9.1348654e-03
  3.5618942e-02
 -1.5965115e-02
 -2.8293492e-02
 -2.8037935e-02
  4.8542343e-02
  2.8804576e-02
  3.0385235e-02
  6.3307411e-03
 -2.0832583e-02
 -5.2121156e-03
 -1.6370415e-03
 -1.3923489e-02
 -2.7593555e-02
  2.5452541e-03
 -1.3211655e-02
 -2.0859430e-02
 -1.0852775e-02
  3.8568929e-02
 -6.6672214e-03
  2.1016649e-03
 -8.0339573e-03
  1.0254507e-02
 -1.4702667e-02
  1.6126387e-03
  1.8162595e-02
  2.8531145e-02
  2.9997982e-03
  4.6055764e-03
  3.0927646e-03
 -1.8448727e-02
 -1.6192073e-02
 -1.1089805e-02
 -1.4977884e-02
  1.0745631e-02
 -5.3967163e-02
 -1.5644943e-02
 -1.2399759e-02
 -2.2430947e-02
  1.1114809e-04
  8.1805959e-03
  2.0507777e-02
 -4.0740918e-02
 -1.5870906e-02
  1.8710559e-02
  1.3172138e-02
 -2.7627580e-02
  1.3863865e-02
 -1.9895121e-02
  4.5505241e-02
  1.1458012e-04
  3.2040975e-03
 -8.4927455e-03
  2.5625655e-01
 -7.6199668e-03
 -3.8310471e-03
  3.1484775e-03
 -7.5218952e-03
 -3.0701715e-02
 -6.1703015e-02
  7.5091027e-02
 -8.6080963e-03
  1.2127147e-02
 -3.4925222e-02
  1.1510222e-02
 -7.9418141e-03
  5.1538111e-03
 -3.5384949e-03
  5.3405468e-03
 -9.9997791e-03
 -1.9682499e-02
 -3.5951653e-01
 -1.0193430e-02
  5.1953912e-01
  3.8255665e-02
 -4.5586587e-04
  2.5761810e-01
 -4.2419569e-03
 -5.7680132e-03
 -1.0070813e-01
 -7.2385207e-02
  1.2810282e-02
 -1.3689347e-01
  1.4976126e-02
  4.2285927e-02
 -4.4503413e-02
  1.9353148e-01
 -1.8037595e-01
  2.6065320e-01
  2.4343152e-02
 -5.9704548e-03
  7.0772976e-02
 -8.8587478e-02
 -6.6224582e-02
 -4.2393008e-01
  1.2437498e-02
 -1.3709242e-02
  1.7359234e-02
  9.9632293e-03
  3.2802828e-02
 -8.5126385e-03
  1.5924964e-03
 -1.9466454e-02
 -1.0920817e-02
 -7.5738989e-02
  4.1680172e-02
  2.1431807e-02
  3.5497829e-02
 -1.6801888e-02
 -1.0046196e-02
 -2.0486386e-03
 -6.8325751e-02
  1.2859209e-02
 -5.7227053e-03
 -4.1022655e-03
 -1.0426921e-01
 -8.9520145e-05
  3.0617127e-02
  7.2687855e-03
  1.9813415e-03
 -2.8099369e-03
 -9.1136349e-03
 -1.2121076e-02
 -1.3058903e-02
 -9.5011229e-03
 -1.1804168e-02
 -1.4418948e-02
 -1.1534338e-02
 -2.6424084e-02
  1.6665085e-04
 -1.0896614e-02
 -2.9995050e-02
  1.1452824e-02
 -2.9927799e-02
 -3.5456095e-03
 -3.1492305e-03
  3.9562386e-02
 -1.3804595e-02
 -2.6287351e-02
 -2.7833492e-02
 -4.5494024e-02
  1.2327863e+00
  1.7736632e-02
 -1.3081149e-02
 -9.9271582e-04
 -8.9616852e-04
  1.2221308e-02
  3.8987065e-03
  7.2962373e-02
  6.2859863e-02
  1.0556002e-02
  6.1100842e-03
 -2.9237136e-02
  1.3556834e-02
 -8.4850125e-02
  6.3369307e-03
  1.0342022e+00
  5.0516510e-03
  4.9029500e-03
  8.9124795e-03
 -1.7523954e-02
 -1.1453414e-03
 -2.4889319e-03
  2.7338775e-02
  1.5083922e-02
  1.1539664e-02
  1.6569098e-02
 -7.5350273e-03
  2.6002168e-03
 -1.6264436e-03
  1.4719890e-02
 -1.0772609e-03
 -5.0209868e-03
  1.9658166e-03
  6.7301542e-03
  8.3999373e-03
 -1.1453114e-02
  2.1223811e-02
 -9.4315866e-03
 -5.1976502e-04
 -1.3511154e-02
 -9.4390474e-03
 -3.2557733e-03
  8.6170982e-04
 -4.9139437e-04
 -1.2796520e-02
 -9.8791253e-03
 -4.5727830e-02
 -7.1999002e-03
  4.4426131e-03
  2.9476404e-01
  1.0987116e+00
 -7.4271995e-01
  6.5280837e-01
 -3.1747982e-01
 -2.6480297e-03
 -6.0723037e-01
  1.9260710e-02
 -3.5309535e-01
  6.1373842e-01
  2.5681812e-01
 -1.2516746e-01
 -7.8689116e-01
 -1.4030183e-02
  5.7490426e-01
 -5.2715186e-02
  2.3271328e-01
 -6.6596855e-05
 -4.3177244e-01
 -2.8493557e-02
  2.4175553e-02
 -1.2474305e-02
  5.5492300e-01
  5.3094125e-01
  6.0070318e-01
 -6.2715717e-02
  1.3643369e-01
 -5.7635088e-03
  1.5861404e-03
 -9.1657996e-02
 -4.0998189e-03
 -7.5883036e-03
 -1.2977358e-02
  1.5702048e-02
  8.2855215e-03
  6.2207511e-04
  1.6694272e-02
  1.9750245e-02
 -2.2384830e-02
  7.8392019e-03
  1.4339456e-03
  7.6466198e-03
  9.0780633e-04
 -4.8822048e-03
 -3.8888569e-03
 -5.5419039e-03
 -9.7602550e-03
 -4.6218380e-02
 -3.4390878e-02
 -4.7823563e-02
  3.2774163e-03
  8.3854655e-03
  1.3809400e-03
 -3.0377004e-02
 -6.7673568e-03
 -2.2586757e-02
  1.7039285e-03
 -8.3251279e-03
 -7.4393861e-03
 -2.6501380e-02
  5.0295880e-03
  8.6910531e-02
 -1.7833954e-02
 -6.0737380e-03
 -2.5184389e-02
  1.0699358e-02
 -1.7519636e-02
 -1.7245289e-02
  1.2219781e-02
 -1.2886544e-01
  3.1708106e-02
 -8.9153815e-03
  1.7151753e-03
 -9.6726175e-03
  1.3366470e-02
 -1.3077629e-02
  2.4087265e-02
  1.9835563e-02
 -4.0177684e-03
 -2.7170723e-02
 -1.3585802e-02
 -1.2550227e-02
  2.1339341e-03
  8.2475431e-03
  2.7419258e-02
 -6.4182729e-02
  2.5466152e-02
  9.9517172e-03
  1.6066780e-02
 -4.5528178e-04
  1.0990679e-02
  5.3950880e-02
 -9.5811030e-03
  1.0161255e-02
 -1.2624315e-02
 -9.2141237e-03
 -3.0328946e-03
  3.4054546e-03
  2.7060220e-02
 -1.7218472e-02
 -2.8108990e-02
 -1.9480044e-02
 -8.5349418e-03
 -7.0435001e-04
 -1.0333817e-02
  3.8186181e-02
  1.4434841e-05
  7.9519050e-03
  1.5361925e-02
 -3.2899391e-02
 -3.5150074e-03
 -8.2525611e-03
  4.5977468e-03
  7.3059689e-04
  7.6488018e-02
  1.1184447e-02
  1.5427150e-02
  1.8758349e-02
 -7.2518722e-03
 -1.8097766e-02
 -4.6631470e-02
  2.1834699e-02
  3.3777535e-02
  1.1142698e-03
  2.8584771e-02
 -1.8295443e-02
  2.1498641e-02
 -2.4601819e-02
 -8.9546489e-03
 -6.3885665e-03
 -8.1068659e-03
 -9.4326816e-02
  2.8472181e-02
 -1.3103881e-02
  1.2407317e-02
 -6.4978194e-03
  7.7225189e-03
 -1.9225175e-03
  2.3135291e-03
  2.6207790e-02
 -1.5138077e-02
  2.9116855e+00
  1.0770151e-02
 -6.8673142e-03
  2.3048932e-02
  1.7501110e-03
  2.2312362e-02
 -1.3107571e-02
  1.9175626e-02
  1.1002224e-02
  3.8886216e-02
  1.9705147e-01
 -2.3803985e-02
 -1.0179525e-03
 -6.3477568e-02
  1.1602707e-03
 -1.2214218e-01
  1.6134910e-02
  4.3393467e-02
  1.0593098e-02
  1.9010992e-03
 -5.2592412e-02
 -5.9413407e-02
  4.9134262e-02
  2.0308695e-03
  7.2147162e-03
 -3.0304153e-02
  2.7634215e-03
 -2.4742654e-02
 -5.1029143e-03
 -8.2425203e-04
 -2.7568080e-02
  1.1187537e-01
  1.5056143e-02
  1.3416104e-01
 -2.9829849e-02
  2.4963047e-02
 -9.0472717e-03
  2.1498265e-02
 -2.6398344e-02
 -1.5791482e+00
 -1.7248376e-01
 -1.4972049e-02
 -7.4002272e-03
 -2.5298078e-02
  8.8348895e-02
  1.4912190e-01
 -3.1078923e-03
  1.2998869e-02
 -2.5897134e-02
 -3.3687797e-01
 -1.2530449e-01
 -3.4452203e-01
 -3.3229363e-01
 -1.5115620e+00
 -1.1592214e+00
 -3.6178511e-01
 -2.0779599e-02
  3.6047590e-01
  4.9631055e-02
  7.7943648e-03
  2.3352645e-01
 -2.8823342e-02
  2.3830481e-02
 -3.3381587e-01
  7.5269073e-02
 -6.3692052e-03
  1.9462900e-02
  2.0983728e-02
  1.2873809e-01
  1.7949697e-02
  5.7281565e-02
 -1.4376724e-02
  2.4180678e-01
 -9.1863371e-02
  3.4034189e-02
  7.0080790e-03
 -8.4920740e-03
  4.2647727e-02
 -9.1698943e-03
  2.7441708e-02
 -2.8618684e-01
  1.2166805e-03
  1.0600518e-02
  6.0137501e-03
  4.8987418e-02
  1.8646922e-02
  1.7768346e-02
 -1.8839778e-02
  5.9898053e-03
  1.3340101e-02
 -1.2120114e-01
  8.3569691e-02
  1.2811270e-03
  7.3427372e-02
  1.7242316e-02
  2.2088243e-02
 -2.4035115e-02
  9.2201857e-03
  1.2448492e-02
  1.4962750e-02
 -5.3123371e-03
 -2.9206828e-03
 -1.7172538e-02
 -3.7767243e-02
 -1.0329677e-02
  1.0597180e-02
  8.0320938e-03
  2.0398518e-02
 -1.2102263e-02
 -1.1744879e-02
  2.1059470e-02
  1.7381731e-02
  2.0507269e-02
 -1.4759695e-02
 -2.5068866e-03
  9.1290176e-03
 -1.3716848e-02
 -3.0954560e-02
  3.4222482e-03
 -1.3796492e-02
 -8.7260809e-03
  2.8112398e-02
 -2.0965500e-02
 -5.8885626e-03
 -8.4758550e-03
  2.1148097e-02
 -1.0297691e-02
  1.7566202e-02
  7.2109818e-02
 -2.9821510e-03
  9.2523712e-01
 -2.0287230e+00
 -2.3659701e-03
  2.0081989e-02
  1.3921603e-03
  2.2563616e-02
 -3.0947374e-02
 -3.5071278e-01
 -6.1602820e-02
 -9.3478141e-03
 -3.6064371e-02
 -1.2379376e-02
  1.4347366e-02
  1.3065232e-02
  1.4497228e-02
  2.0110574e-02
 -2.2190824e-02
  1.3704434e-02
  2.4665117e-02
  2.9392088e-02
 -1.3152463e-02
  2.0542697e-03
 -1.7398091e-02
 -1.0262758e-02
  3.5512107e-03
 -1.9270852e-02
  1.6445812e-02
  1.4533561e+00
  1.7788945e-02
 -2.1726619e-03
 -6.5294787e-02
  1.4814830e-01
 -1.0698545e-03
  5.8068074e-02
  7.8258421e-03
  6.5114028e-03
  8.6756693e-03
  1.8388556e-02
 -7.0402813e-03
 -7.0669860e-01
  5.7327554e-02
  1.9771115e-01
 -2.1497669e-02
  1.8867036e-02
  1.9874224e-02
  3.6557745e-02
 -6.9200583e-03
 -1.0297887e-01
  1.0360453e-02
  5.5543199e-02
  1.3068466e-02
 -4.6914993e-03
  9.4177257e-03
 -4.5282420e-02
  9.8492064e-02
 -6.8969087e-04
  4.8071101e-01
 -3.1588606e-03
  2.6515104e-02
  8.9394476e-04
 -2.6309460e-02
 -1.0463973e-02
 -9.0635885e-03
  3.7072096e-03
  1.1444568e-02
  9.3651796e-03
 -1.4925083e-02
  4.8706505e-02
 -2.6530435e-02
  1.9239604e-03
 -2.7876298e-03
 -1.3240363e-02
  1.9682469e-03
  1.3854505e-02
 -2.5753457e-02
 -2.5839603e-02
 -1.1704685e-02
  2.2928793e-02
  4.0434606e-02
  1.3660309e-02
 -3.3740003e-03
  7.0996722e-03
  7.1981321e-03
  5.9976117e-03
  8.3583117e-02
  1.8605139e-03
 -3.4023479e-02
  4.0524960e-02
  3.2661773e-02
 -3.7851427e-03
 -2.3662660e-03
  1.8264507e-03
 -3.3858155e-03
  2.6414185e-03
  1.3066214e-02
  1.3481763e-02
  1.6482080e-03
 -1.5180395e-02
 -1.6320962e-02
 -5.7117669e-03
 -2.9988603e-03
 -8.1201345e-03
  7.0951376e-03
  9.1804148e-05
 -1.3641628e-02
 -1.9605165e-02
 -1.0808099e-01
  1.3156689e-02
 -1.5419279e-02
 -1.7337551e-03
  3.1845560e-03
  1.1610014e-03
 -3.9981399e-03
 -9.3965176e-03
 -1.8299215e-02
  2.2445409e-02
 -2.8833488e-02
 -8.4002176e-03
 -2.9400744e-02
  2.1158729e-02
  1.0164665e+00
  5.0975047e-02
  6.6263115e-01
  2.6559764e-01
 -3.1916849e-02
  3.6953345e-02
 -6.7058146e-02
  6.0049044e-03
 -1.8569255e-02
 -2.3754174e-02
  1.6568971e-01
  2.3218798e-02
 -8.2183160e-02
 -9.5032211e-03
  1.5743628e-02
 -2.6172033e-02
 -2.1719856e-02
  2.6067588e-02
  1.6237075e-02
  1.2084487e-02
  2.4169507e-02
  6.8814482e-04
 -8.2373165e-02
 -2.3900073e-02
  3.1824473e-02
  1.2667184e-02
 -5.3050802e-03
  1.2110753e-01
  2.2567514e-02
 -1.2988373e-02
  1.2857026e-04
 -1.2124909e-02
 -2.1113178e-02
  2.7805042e-02
  2.0148169e-02
 -3.6932241e-02
  1.3695242e-02
 -1.9330341e-02
  7.2133178e-03
 -1.6313087e-02
 -1.1107134e-02
  5.5160220e-03
  3.5370113e-03
 -6.1219763e-03
 -9.3123745e-03
  1.2078765e-03
 -3.3168491e-02
  2.2327104e-03
 -2.5201777e-02
  4.3176234e-02
 -1.0625099e-02
 -2.7229304e-03
  2.0727204e-02
 -6.4307055e-03
 -1.9718934e-02
  2.3781739e-02
  1.4923328e-02
 -4.7012307e-02
  1.3354040e-02
 -8.2877167e-02
 -2.0429306e-02
  6.7894973e-02
 -3.5656706e-04
  8.7568033e-03
  1.0688494e-02
 -5.1127784e-03
 -1.9802764e-02
 -1.2482557e-03
 -3.4785192e-02
 -2.0263635e-02
  3.0362027e-02
  2.8025638e-02
 -2.2965888e-02
 -3.9482653e-02
  2.5649166e-02
  9.6859690e-03
 -2.4987586e-01
  1.7801018e-02
  7.6554338e-03
  2.4933203e-03
  3.2567520e-02
 -6.1279334e-02
 -7.9051457e-02
 -1.8255649e-02
  1.1109478e-02
 -7.0389789e-03
  3.0182671e-02
  1.8288905e-03
  3.2328367e-02
  8.6638486e-01
  1.0300127e+00
 -8.4789550e-01
  1.2066278e+00
  5.6092464e-03
  3.3026159e-02
 -1.8097368e-01
  2.9230090e-03
 -5.5880404e-01
  4.0357839e-02
  4.8177221e-01
 -3.1962505e-01
 -1.8199557e-01
 -9.6166283e-02
  3.3915740e-01
 -3.2999504e-03
  2.2684298e-01
  1.3698915e-02
 -1.2318502e-02
  1.7947890e+00
  2.1849969e-02
 -7.0651822e-02
  9.6820444e-03
  6.1697155e-02
  2.3518598e-01
 -8.1725344e-02
 -2.0489257e-03
  6.4602094e-03
  7.7548134e-01
 -5.4830168e-03
  2.8091153e-02
 -1.5554088e-02
  2.5254199e-03
 -2.2522038e-02
  5.7674004e-03
 -3.9756227e-02
  4.7958005e-02
 -5.8588097e-03
  8.0302684e-03
  5.3334176e-03
 -9.5140692e-03
  5.6531443e-03
 -1.4969983e-02
  2.8307931e-02
 -3.0791875e-02
 -2.9424677e-02
 -4.1835518e-03
  9.5930472e-03
  2.6553792e-03
 -4.8804779e-02
 -3.0175904e-03
 -1.9124217e-02
  1.9721523e-02
  1.4549243e-02
  1.4008912e-02
  7.7921995e-03
  1.3184815e-02
  1.4286039e-02
 -1.9202875e-02
  4.9746027e-03
  3.7640729e+00
  4.6136832e-01
 -6.4423703e-02
  1.6919866e-01
 -1.4227630e+00
  1.6490304e-01
 -9.5724088e-01
 -1.8429928e-01
 -6.1765593e-02
  1.0292221e-02
 -7.5984317e-01
 -3.9024782e-01
 -8.3912127e-02
 -2.7600512e-02
  1.7516971e-01
 -1.5703305e+00
 -1.1792083e+00
  5.0150055e-01
 -2.9205952e-02
  9.6716106e-01
 -1.6063828e-02
 -1.8255677e+00
  2.5741789e-01
  1.8794434e+00
 -1.6537157e+00
  1.5127243e-02
 -9.1068487e-04
 -6.6980511e-02
 -1.5582617e-02
  1.1431123e-02
 -1.3027427e-02
 -5.0460841e-03
 -1.5578772e-02
  3.9937168e-02
 -8.6374953e-04
  1.6314220e-02
  2.0456577e-03
 -2.0882151e-01
 -3.5987184e-03
  2.7420216e-03
  2.7302735e-02
  3.2019136e-03
 -3.7251938e-02
 -3.2748055e-02
  2.7721904e-02
  3.1662028e-02
 -5.7088208e-01
  5.0094705e-03
 -1.6622633e-02
 -1.2619480e-02
  4.0314519e-03
  3.9998177e-03
 -3.0064130e-02
  1.7331010e-02
 -8.1154574e-03
 -5.0307140e-02
 -2.7118858e-02
  1.9186938e-03
 -7.7049998e-03
  3.9168142e-02
  1.9694205e-02
 -3.7560076e-03
 -1.0017673e-02
  1.1552599e-03
  2.8054705e-02
  3.3633895e-02
 -1.5774737e-03
  9.7078802e-03
  6.1941207e-03
 -5.2772989e-03
  3.9524520e-03
  6.6731563e-03
  1.4712481e-03
  1.4188039e-03
  2.5599465e-02
 -8.2671962e-04
  3.8359584e-03
 -7.8722751e-03
 -1.1001109e-02
  6.3257357e-03
  1.2608513e-01
 -1.5972795e-02
  1.1448928e-02
 -3.3998463e-02
  1.2736607e-02
  1.0690800e-03
 -1.4841647e-03
 -1.1915797e-02
  6.4120343e-04
  4.4798199e-02
 -1.1964424e-02
  1.2937869e-03
  2.1292334e-03
  3.1060788e-01
  1.7296417e-02
  1.7842686e-02
 -1.6255479e-02
 -2.6360281e-02
  2.3810444e-03
 -9.2330314e-03
  1.4588689e-02
 -1.3560314e-02
 -3.4367029e-02
 -2.9501522e-01
 -1.8501077e-02
 -1.5179458e-02
 -1.3765870e-02
  3.1785242e-02
  6.1858068e-03
 -7.4518356e-03
 -2.9628666e-04
 -1.7031146e-03
 -9.9172024e-04
  3.8227765e-03
 -7.9926141e-03
 -1.3639549e-02
 -6.2975627e-03
  2.1675047e-03
 -1.3149102e-02
 -2.9069786e-03
  1.4606750e-01
  2.8933348e-02
 -1.2511490e-01
 -2.7673643e-03
  1.6855252e-01
 -1.2610541e-03
 -1.3592099e-01
  5.8064880e-03
  1.8967345e-01
  7.5623848e-02
 -1.9925721e-03
 -2.6171191e-02
 -2.7460603e-02
 -1.3965425e-01
 -2.5301531e-02
  9.3447668e-03
  7.3812857e-02
  1.2372912e-01
 -8.0345219e-01
 -1.7624268e-02
 -4.1291900e-02
 -2.4554359e-02
  2.0289220e-02
  1.0486973e-01
  3.0116607e-02
  5.8606090e-03
 -6.8633616e-02
  6.5599394e-04
 -1.2766942e-03
  1.7501194e-02
 -9.5560506e-02
 -2.4996055e-02
  3.7142105e-02
 -1.9369910e-02
  8.6386627e-01
 -1.8702574e-03
  2.4204766e-02
 -1.1208219e-01
  1.8097490e-02
  4.3912213e-03
  3.5041526e-03
 -2.6322402e-02
 -2.2718983e-03
  1.4022119e-02
  6.8169616e-02
  1.7145828e-03
  5.1983390e-02
 -6.7322557e-03
 -5.3773625e-03
  2.1632141e-03
 -2.8031457e-03
  7.4991636e-02
 -2.2173952e-02
 -4.3178681e-02
 -8.8328764e-02
  6.6799675e-03
  3.0024191e-03
 -1.6127849e-02
 -6.0611311e-03
  1.2925724e-03
  1.6757911e-02
  3.5023838e-02
 -1.2912244e-03
  4.6527470e-03
 -2.4439213e-03
 -1.6765047e-02
 -5.4134730e-02
  7.5401906e-05
  3.0426471e-03
  7.5523509e-04
  1.8515091e-02
 -7.4392213e-03
  3.7806286e-03
 -6.3728131e-03
  2.3894631e-03
  7.0943828e-03
 -1.6987210e-02
  4.0372405e-03
  5.1847016e-03
 -3.6672875e-02
 -2.2431507e-03
 -1.5951691e-02
  5.7323851e-02
  1.3247889e-02
  1.7495621e-02
 -1.0686153e-02
  1.5271729e-02
 -7.4317274e-03
  2.7395387e-03
  5.2224887e-03
 -4.5433593e-01
 -2.0366358e-03
 -5.0138696e-03
 -2.6760818e-02
  3.9577559e-02
 -2.0904231e-03
  1.9937516e-03
 -1.4785521e-02
  7.3021832e-03
  1.3260764e-02
 -2.7584026e-03
 -1.7929806e-01
  5.3440924e-03
  5.4193521e-03
 -2.9481664e-02
 -1.6045657e-03
 -5.2743167e-02
 -1.5829358e-02
  5.3643882e-03
 -2.3101803e-03
 -3.2519873e-03
  1.7450266e-02
  2.7221322e-02
  1.2361225e-03
 -8.5813915e-03
  1.2365870e-02
 -1.5079996e-04
  4.5987606e-02
 -1.7911505e-02
  3.0922113e-02
  4.4523899e-02
 -2.1798763e+00
  9.5118833e-01
 -4.1138577e-01
 -1.0443558e-01
 -1.9363547e-02
  3.8512892e-01
 -2.0448200e-02
 -3.7638181e-01
 -2.5291681e-01
 -2.6067802e-01
  1.9486983e-01
  1.0304252e-01
 -7.4078918e-02
 -6.3171736e-03
  1.1662326e-02
 -5.1986530e-02
 -3.1471785e-02
  6.1793572e-01
  4.3893787e-03
 -1.1102859e-02
 -1.1475524e-01
 -2.4704376e-02
  1.0429747e-02
 -5.1332587e-01
  2.7352234e-02
 -2.5689127e-03
  9.0782000e-03
 -6.2806732e-03
  7.5346403e-02
  3.6640877e-03
 -4.2437888e-03
  4.0328555e-02
 -5.5830495e-04
 -3.1003514e-02
 -1.8982275e-03
 -9.7304797e-03
 -1.6239259e-02
 -3.5204813e-03
  2.7452440e-03
 -2.0701005e-03
 -5.8935039e-02
 -3.0599223e-03
  1.7276108e-01
 -1.3770342e-02
 -1.0630815e-02
  3.2466354e-03
 -9.5716137e-03
 -7.6040789e-03
  8.3571551e-03
 -1.1767175e-02
  1.3338682e-02
  2.5113801e-02
 -3.1104933e-03
 -9.5283482e-03
 -4.3968731e-03
 -1.7863741e-02
 -6.9148508e-03
  3.8402299e-03
 -1.0772905e-02
 -4.5030978e-02
 -3.4671359e-02
  5.9486199e-02
 -4.8863525e-03
  4.4131154e-01
 -1.6291378e-02
  1.2845747e-01
 -2.1256702e-03
  2.0664303e-02
 -3.4914177e-02
 -3.2630865e-02
 -4.6162526e-03
 -2.5828887e-02
  1.0491782e-01
  2.7268633e-01
  1.5558869e-03
  9.1442495e-04
  1.1080079e-02
 -1.9930564e-03
  9.8578935e-04
 -3.8124882e-03
  9.9014670e-02
 -1.1132551e-02
  1.7749298e-02
 -6.1762154e-02
  1.8100508e-02
  9.1559580e-03
 -1.5428579e-02
 -8.2046678e-03
 -5.5447309e-03
 -1.4274530e-03
 -2.0097783e-02
 -1.9121466e-02
 -5.9050769e-03
  2.8724374e-02
 -1.5311269e-02
 -1.5121326e-02
 -3.1554494e-03
  5.4907496e-03
  2.0718748e-02
  4.2377468e-03
  1.3129297e-02
 -1.5755458e-02
 -2.2080995e-03
 -1.0859344e-02
  6.3928299e-02
 -1.1499568e-02
 -8.9134173e-03
 -4.0202769e-03
  8.1065772e-03
  2.0797966e-02
  1.3086398e-04
  2.4079740e-02
 -4.3121143e-03
  4.9846206e-02
 -4.0034638e-03
  1.5587443e-02
  8.5220737e-03
  6.5865628e-03
 -5.6369025e-03
 -1.9115073e-04
  3.6204697e-03
  5.2663912e-03
 -8.8213244e-03
 -2.7497355e-02
  2.9939697e-03
 -3.1922139e-02
  9.0718314e-02
  2.6458262e-02
  1.2172733e-02
  2.4954461e-02
 -4.3164133e-03
  4.5002390e-02
  3.7801065e-02
  1.5147434e-03
 -2.8567314e-02
 -6.4305509e-03
  1.1479203e-03
  6.1790529e-03
 -2.0497154e-02
 -5.9086275e-03
  2.8645409e-02
  1.1567760e-02
 -7.4730493e-02
  1.3354294e-02
  2.5422666e-02
  8.2034897e-03
  1.1326867e-02
 -6.1358362e-03
  2.1502821e-02
  1.9231799e-01
  2.8244278e-01
 -6.6321915e-01
 -1.7330559e-02
 -1.5898080e-01
  2.0091001e-02
 -7.5727004e-01
  1.2640094e-02
  7.0701361e-02
  1.8268321e-01
  5.2110904e-01
 -5.9899967e-02
 -2.3804885e-01
  1.8415873e-01
  1.9302679e-04
 -9.5480561e-02
  2.0033610e-01
  5.5238791e-03
 -3.5152259e-01
 -4.8352413e-02
 -8.7264422e-03
 -1.2000407e-01
  1.3725953e-01
  1.0854883e-01
  4.4783196e-01
 -7.1667977e-02
 -3.6348552e-03
 -6.3822150e-02
 -1.0311382e-01
 -2.4618137e-01
  8.5828137e-01
  7.1525943e-01
 -1.4391615e+00
  3.5303423e-01
 -9.9422716e-02
  8.5473984e-02
 -1.1903680e-01
  1.7516738e-02
  2.5396612e-01
  2.9432377e-01
  6.6164076e-01
 -3.3705071e-01
 -6.4477257e-02
  1.9084263e-01
 -2.2940083e-01
  2.6505375e-03
 -2.3342159e-02
  3.9874017e-03
 -3.5868350e-02
  1.1821833e-01
 -2.8934786e-03
  1.2698384e-01
  1.4089313e-01
  1.9495894e-01
  6.3038373e-01
 -1.8677890e-02
 -4.6245761e-02
  4.3133471e-02
 -5.4001913e-04
  2.3378804e-02
  1.0201222e-01
  9.0451717e-02
  3.5152567e-04
  8.4498757e-03
 -2.7650727e-02
  2.0068936e-02
 -4.1065663e-01
  2.2084503e-02
  1.2786253e-02
  2.1601303e-01
 -7.3343185e-03
 -3.2820474e-02
 -1.5479415e-02
 -4.5531890e-03
  2.5226567e-02
 -2.3556472e-01
  2.7610540e-02
  5.5256044e-03
 -1.8110579e-01
 -6.9835261e-02
 -1.7144993e-02
 -7.5562157e-02
  4.6017073e-02
 -2.0497097e-02
  9.0749815e-02
 -2.4148621e-02
  2.7543006e-02
 -2.7873719e-02
 -2.0660209e-02
 -7.9910960e-03
 -1.8741701e-02
  1.2094507e-02
 -1.5520091e-02
 -3.1916719e-02
  7.6916181e-03
  2.2363003e-02
 -5.6490093e-03
 -4.7353688e-03
  5.2526821e-03
  2.1636507e-03
 -1.1322352e-02
  1.2651763e-03
  2.6535273e-03
  1.1512140e-02
  3.3527066e-03
  1.1326212e-02
 -1.0137366e-02
  6.2523247e-03
 -9.8577570e-03
 -1.1332390e-02
 -2.7157975e-02
 -1.0013909e-01
 -1.4128656e-02
  5.9434876e-04
  8.2114768e-01
  4.5128316e-03
  2.5880668e-02
  1.8538315e-02
  1.0065917e-02
 -6.2124990e-03
  1.4405702e-02
  1.2985584e-03
  1.4841154e-02
 -1.5282683e-02
 -1.4374499e-02
  4.4218758e-03
  2.8530398e-04
  7.8755282e-03
  1.8037369e-02
  8.2041987e-04
 -7.9506002e-03
  3.1094907e-02
 -1.1283216e-02
 -7.9994816e-03
  1.3519177e-03
  1.1601353e-02
  8.9431356e-04
 -6.4948662e-03
 -2.2694740e-02
  5.7746312e-03
  3.8035244e-01
 -5.6596859e-03
 -4.1944068e-02
 -1.1430620e-02
 -7.3485584e-03
  1.9646278e-03
 -4.6828152e-03
  1.3858639e-02
 -2.5870901e-02
  7.1874983e-03
 -5.9280965e-02
 -1.0664171e-01
  2.6224142e-02
 -1.2404202e-01
  4.6965428e-02
 -1.1180962e-02
  9.3274467e-02
 -1.1661312e-03
 -2.5362203e-01
 -3.5598319e-02
 -4.5839205e-02
  6.0738917e-02
  8.4116461e-04
 -6.8688765e-02
 -1.2715342e-02
  3.6909018e-02
 -1.3580970e-02
 -1.7043917e-02
  7.6025382e-02
 -2.0999725e-03
  4.9251080e-03
 -4.4586463e-04
 -8.9802697e-02
 -4.9386569e-04
 -1.5333894e-01
  7.0543900e-02
  2.1000307e-03
  4.2634644e-02
  5.1840306e-03
  1.3716034e-02
  4.9175300e-02
 -5.5119094e-02
 -4.2809702e-02
  3.6090013e-02
 -3.6533492e+00
 -4.9234992e-03
 -5.6457305e-03
  8.3652129e-03
 -8.2208989e-03
  5.6199551e-02
  1.9115029e-03
  2.4555890e-02
  9.7528696e-03
  2.4374831e-02
  2.4768487e-02
  3.9383476e-03
 -2.3171222e-03
  2.1514041e-02
  5.5764716e-02
 -4.2924255e-02
  1.5708547e-02
 -2.6771391e-02
  1.3266557e-02
 -2.3242591e-03
  3.8563479e-03
 -2.1678712e-02
  1.2395174e-03
 -5.3387373e-03
  3.1262636e-02
  4.4371961e-03
  1.9872377e-02
 -1.0464080e-02
  3.9397582e-01
 -8.3269244e-03
 -3.9785471e-02
 -1.2089735e-01
  9.3859630e-03
  3.2164983e-02
  1.2370458e-01
 -1.1586499e-02
 -1.9348717e-01
 -1.2319803e-02
 -2.7996467e-02
  5.0786290e-02
 -1.6728185e-02
  7.3298699e-01
 -2.0557003e-01
 -3.1530880e-04
  5.7039946e-01
  7.7892565e-03
  7.1332268e-03
  1.8508600e+00
 -1.1460830e-02
  3.8432376e-03
  5.0501572e-03
  2.9730130e-02
 -6.5753870e-03
 -3.4914695e-02
  5.0300395e-01
  5.3804278e-02
 -4.1943695e-03
 -1.5361320e-02
  2.7336720e-02
 -8.0641881e-03
  2.6570854e-01
  2.8191026e-02
 -1.0076921e-02
 -2.7798250e-01
  9.5053695e-02
  1.2006515e-03
  4.1295280e-04
  1.2017227e-02
 -5.8705350e-03
  1.1221621e-01
  1.0547498e+00
  5.6749014e-03
  4.1046035e-03
  1.0719975e-02
  8.1220185e-03
 -4.1607615e-02
 -2.0690198e-01
 -2.0049404e-01
 -5.1094681e-01
 -1.4348720e-01
 -2.0932900e-02
  2.3256524e-02
  1.3014944e-02
  6.7038216e-02
 -5.4059005e-01
  8.9813061e-02
 -2.5757807e-01
 -1.2266019e-01
  7.4593842e-01
 -2.6236316e-03
  1.2902521e-01
  3.4865256e-02
 -1.5917227e-01
  3.7930658e-01
 -1.0791664e+00
  1.9661473e-01
  2.2759715e-02
  2.0119405e-01
 -2.1785291e-01
 -2.7023876e-02
 -1.2535078e-02
 -2.5644568e-01
  1.8089460e-02
 -1.7959070e-01
  4.6787629e-01
  9.9309916e-03
  1.2478193e+00
  2.2908745e-03
  5.6336704e-03
 -2.5864217e-02
  3.2269508e-01
 -2.7292261e-01
  1.3273181e-01
  1.3145144e-02
 -6.4234293e-01
  1.7790364e-02
 -2.1249245e-01
  2.0280939e-02
  9.3093701e-02
  8.0842137e-01
  7.6126385e-01
  5.1827049e-01
  3.5970040e-02
 -6.6121928e-02
 -3.7076247e-01
  2.6195127e-01
 -6.1964434e-01
  4.5547064e-04
 -1.9910824e-02
 -2.8741985e-04
  5.2940130e-02
 -1.5630396e-01
  1.2390362e-01
 -3.5255641e-02
 -1.3458711e-02
 -2.6012084e-02
 -3.5936385e-02
 -2.7598649e-02
  3.2522243e-02
 -1.7790807e-02
  1.8072162e-02
 -1.8700214e-02
 -1.9611065e-01
 -6.0191434e-03
  2.9154379e-02
 -1.5752559e-03
 -8.0925254e-03
  2.4078729e-02
  5.8645308e-03
 -8.2516581e-02
 -1.8724445e-02
  5.3503681e-03
 -4.0132864e-03
 -2.2438021e-02
  1.0185532e-02
 -9.0776822e-03
  5.1864147e-01
  5.7488620e-01
 -2.0044358e-01
  2.5280030e+00
  1.0966022e-01
  6.9865986e-04
  5.5912262e-01
  2.3383874e-02
 -6.4127892e-03
  1.6960023e-01
  2.2812909e-02
 -5.6104392e-02
  2.5985518e-02
  1.0486763e-01
 -5.6917392e-02
  2.5211873e-02
 -5.6304902e-01
 -2.5167352e-01
 -1.1810402e+00
  7.4845226e-03
 -1.4669419e-02
  1.8975831e-03
 -2.2931832e-03
 -8.9699915e-03
  1.6171543e-02
  2.7717885e-02
  1.0519470e-02
  1.3379002e-02
  3.9282285e-02
 -1.0297683e-01
 -1.3277068e-02
 -1.4795500e+00
 -1.7941581e-02
 -4.8450187e-02
  4.4845184e-03
 -2.7291276e-04
  3.0430913e-01
 -1.8497910e-02
  2.4730131e-02
 -1.3594438e-02
 -1.7341854e-02
 -1.9420559e-02
 -5.3631369e-02
  2.7220711e-01
 -3.7879512e-02
  2.6252201e-02
  9.5095593e-01
  9.3634892e-03
 -9.1957953e-03
 -3.8504180e-02
 -8.6440574e-03
  9.0567514e-02
 -1.6057502e-02
  4.7011361e-02
  2.6449077e-02
 -1.1626786e-02
 -2.5596835e-02
  7.6481225e-03
  5.8989332e-04
  3.0392535e-02
 -1.8713744e-02
  7.5306748e-03
  1.2707626e-02
  8.0800029e-03
  1.8334839e-02
  8.8648982e-02
 -3.7801061e-02
  9.2074377e-03
  2.6398397e-03
  1.6158076e-02
  2.9330807e-02
  2.1373032e-01
  5.4410235e-03
  1.0815372e-01
  1.0013690e-01
  3.5150260e-02
 -7.0278561e-01
 -1.0030184e-02
  3.3623062e-02
  5.2502271e-02
 -8.6867556e-02
  3.2919567e-02
 -6.1243805e-03
  1.5260978e-02
  2.6472617e-02
 -2.7389610e-03
  1.2424231e-02
  9.8387934e-03
  7.1439147e-03
 -2.8032232e-02
 -9.7172774e-02
  2.6886785e-01
 -4.3761668e-01
 -7.3962487e-02
 -1.8045256e-01
 -5.1016408e-01
 -1.0085276e+00
 -3.0836931e-03
 -1.6239392e-02
 -6.0032509e-02
 -2.0022138e-03
 -4.2375829e-02
 -2.1874303e-02
  9.1618858e-02
  2.2146838e-02
 -9.3224749e-02
  3.4342293e-02
  1.4407811e-02
 -5.7859784e-01
 -3.8567309e-03
 -6.9879848e-03
 -3.3693328e-02
 -7.5147315e-03
  2.7711686e-02
  2.4071312e-02
  5.3597588e-02
  1.6532299e-03
 -5.7415776e-03
  1.7077151e-01
  1.0222577e-01
  1.7009065e-02
  4.4570637e-01
  3.6821747e-01
  1.0303047e-02
 -8.9599835e-03
  6.1630804e-02
  1.4997169e-01
 -4.0787486e-03
  1.8335572e-02
 -1.9733386e-02
 -3.1665534e-02
 -3.8182355e-02
 -5.4983016e-02
  1.0592473e-01
 -1.7601220e-02
  9.4669638e-03
  5.6735772e-01
 -7.0728832e-01
  4.6427112e-02
 -2.2104517e-02
  2.3669547e-03
 -2.1768006e-02
  2.2188786e-02
  1.2266223e-02
 -1.0051213e-02
  1.0676000e-02
  7.0607071e-03
  1.8924031e-02
 -1.2474693e-03
  5.3735711e-03
  1.0711649e-02
 -1.6548008e-02
 -1.9552236e-02
  3.2570750e-02
  5.2335425e-03
 -3.0683931e-02
  3.4061952e-03
 -6.3298158e-02
  4.6645090e-02
  1.6955243e-02
 -4.4656233e-03
  1.3859615e-02
  1.1393101e-02
 -1.3471645e-02
 -5.0929714e-02
  4.4936419e-02
  1.2667388e-01
 -1.8275037e-02
  9.2301266e-03
  3.0340318e-02
 -1.3263118e-02
  3.5231359e-02
 -1.7495827e-01
 -2.6706422e-02
 -8.1303101e-03
 -1.0255460e-02
 -7.9683335e-03
 -1.5263171e-01
  3.0369524e-02
  7.3709362e-03
  2.2561257e-01
  8.6740364e-04
  1.2121310e-02
  4.4640765e-01
  1.8425604e+00
 -1.7320812e-01
  5.9366345e-01
 -1.0480904e-01
 -3.3280823e-01
 -5.9287730e-03
 -1.8526648e-01
 -1.5419674e-01
 -2.3632670e-02
  1.1042831e-01
 -9.6721100e-03
 -5.7787679e-02
 -1.3684431e-01
  9.4718793e-03
 -3.8669187e-01
  1.8401263e-02
  4.2677039e-01
 -8.8275798e-02
  8.3203567e-03
  7.7671497e-03
 -7.1274474e-02
 -2.1099810e-02
 -1.4564529e-01
  6.8525743e-04
  1.3177684e-01
  7.8929439e-02
 -1.9326564e-02
  4.0095514e-01
 -2.9822299e-01
 -1.5194888e-02
  4.5069549e-02
 -1.2643203e-01
  2.0632458e-01
 -5.5474499e-03
 -3.6443826e-02
 -1.3357586e-01
 -8.0033876e-02
 -3.1671282e-02
 -1.6454706e-01
 -4.6968285e-02
 -2.4100821e-01
 -1.9162837e-01
 -4.3561030e-03
  9.2155840e-03
 -1.5232885e-01
 -5.0493530e-03
 -3.9217945e-02
 -2.7391994e-02
 -3.0797949e-02
 -6.8944506e-02
  1.5770030e-01
  2.1850035e-02
 -6.7008227e-02
 -1.7091457e-02
  1.0654151e-01
  7.3344726e-03
 -4.3617200e-02
  1.1380703e-01
 -6.7818142e-02
 -1.0335229e-01
  2.4759683e-03
 -4.9047224e-02
  4.0173657e-02
 -2.1657478e-02
 -4.0424433e-02
 -2.7083698e-01
 -4.6604116e-02
  5.8970009e-03
 -2.3958294e-03
  2.8857257e-04
 -5.2862093e-02
 -4.9655799e-02
 -1.6314577e-01
 -3.5077170e-04
 -3.8747313e-03
 -5.8513987e-03
  8.3587701e-03
 -1.7947474e-02
  1.4953816e-02
 -4.3829475e-02
 -9.7678266e-03
 -1.0926854e-02
 -3.2387335e-02
  1.2454271e-02
  5.6012059e-03
 -3.3743083e-01
 -1.0065391e-02
  2.6694167e-01
  4.5752263e-01
  3.4625775e-03
 -3.6921601e-03
  1.8951317e-02
  2.7467628e+00
  2.5335055e-02
  1.3667351e-01
  1.8398858e-03
  3.7807287e-03
 -3.4660688e-03
  6.1113559e-02
 -2.0775716e-01
 -1.9979803e-03
  4.3616921e-02
  3.6306563e-01
  2.1924596e-02
  4.4124928e-01
 -1.4312907e-02
  1.5186825e-02
 -7.0599169e-03
  3.5195019e-02
  4.0784022e-03
 -4.2876147e-02
 -1.4528000e-02
  1.0353876e-02
 -2.8158909e-02
 -1.1965901e-03
 -7.8188339e-03
 -1.5425742e-02
  2.7080106e-02
  1.2164221e-03
 -5.6358486e-01
 -2.5752278e-03
  1.6720364e-02
 -3.2824315e-02
  9.2512072e-04
  3.8489960e-03
 -5.4747181e-04
  1.7605703e-02
 -1.9228069e-02
  7.7579827e-03
  1.6958695e-03
  8.2998183e-03
  9.8324753e-03
 -1.8850593e-01
 -1.8371232e-02
  1.2187589e-01
  8.1186630e-03
  1.9496340e-02
  2.4452593e-02
  3.0045746e-02
  6.1334047e-04
  2.7370531e-02
  1.1754691e-02
  6.4441180e-03
  1.5001792e-02
 -3.5982363e-02
 -1.1605123e-02
  2.6239825e-02
 -1.0771307e-02
  4.1363422e-02
  1.4201939e-03
  4.4675274e-03
  1.5929088e-03
 -9.1499491e-03
 -8.2794568e-03
 -6.4285714e-03
  3.1416006e-02
  6.2717469e-03
 -3.7857222e-03
  4.6942947e-03
  3.6806299e-03
 -2.1031016e-01
 -3.3887462e-03
  4.9245544e-03
  1.7011719e-02
 -2.4209347e-02
 -2.1646371e-02
  6.2785475e-03
  1.0952316e-02
  1.0645657e-02
 -1.4133518e-02
  1.0284542e-02
  2.6004941e-03
 -2.5821462e-02
  5.8043189e-02
 -1.3754566e-02
  3.3235274e-02
  1.1869287e-02
  2.2159010e-02
  8.3274990e-02
  2.9978558e-02
 -1.2455785e-01
 -1.1456748e-02
 -2.5094638e-02
  1.4965898e-02
  2.1316400e-02
 -5.0377366e-03
  7.4150600e-02
  4.8210051e-02
  4.7004994e-02
 -2.6190862e-02
  3.7320172e-03
 -1.5899876e-02
 -2.8918967e-01
 -7.4874260e-02
  2.2131706e-02
  3.5831951e-02
 -2.0270802e-03
  2.6317595e-02
 -3.1775046e-02
  2.7072008e-03
 -7.7601415e-03
  1.4620684e-02
  1.4728482e-02
 -4.5001144e-03
  5.7646807e-04
 -1.0980669e-03
 -1.6521305e-02
 -1.7799148e-01
  2.9120881e-02
 -2.1147087e-02
 -5.2506635e-03
 -8.9939646e-03
 -9.7641729e-02
 -3.6456652e-02
 -3.1803284e-02
  7.8228180e-04
  8.5665230e-03
 -3.3150990e-03
 -6.5155914e-03
  1.2409882e-02
 -3.6852032e-02
 -6.0480265e-03
 -4.9968250e-03
  2.2316765e-04
 -5.1068696e-03
 -6.7225187e-03
  2.7082337e-03
  1.1116309e-03
 -8.9531462e-04
  7.3579461e-03
  7.3753982e-03
  2.4333159e-02
  9.4851684e-03
  8.3406856e-03
 -1.1691542e-03
 -2.9314077e-02
  3.9848525e-02
 -1.1393865e+00
 -1.8337620e+00
 -8.0866295e-01
  1.4754066e-02
 -4.1503084e-01
 -3.1090984e+00
 -2.8257778e-01
 -2.1339318e-01
 -2.3448367e-01
 -1.7971097e-03
 -2.8310826e-01
  3.9659888e-02
 -3.5923526e-01
 -2.8892320e-03
  7.8684971e-02
 -1.9318702e+00
  5.2192297e-02
 -1.4227055e+00
 -1.3008319e-01
 -6.8899994e-03
  4.8344657e-01
 -2.1644877e-02
  8.0051465e-04
 -3.3737227e-02
  5.0174423e-02
  1.2809111e-02
 -1.8129326e-02
 -1.4414479e+00
  2.2857241e-02
 -4.3590355e+00
  1.4205682e-02
  5.8037031e-01
 -1.1749999e-01
  1.0732604e+00
 -1.0939523e+00
  2.3686450e+00
 -7.3270604e-02
 -1.2917966e+00
 -2.2552249e-01
 -3.5033789e-01
  4.9685049e-01
 -5.7855703e-02
  2.2527263e+00
  5.0910707e-03
 -1.0703420e-01
  1.3848847e-01
  4.9681190e-02
 -1.3295569e+00
  2.7130049e-02
  7.7055907e-03
  3.4691787e-03
 -6.4367242e-04
 -4.7175311e-03
 -2.5650883e-02
  2.4494346e-02
  3.0223101e-01
 -4.9572784e-02
  6.1785948e-01
  9.2012441e-04
  8.0013676e-03
 -4.5873518e-03
  8.2807727e-02
  3.8467612e-02
 -6.4361818e-02
 -4.5665793e-04
  5.1675411e-03
  2.9654298e-02
  5.5158427e-03
  2.2624839e-02
  5.7304148e-02
  1.3671523e-02
  2.5658902e-02
  1.0433074e-03
 -8.5991165e-03
  1.9416185e-02
 -1.2715049e-01
  2.4871282e-02
  1.2402406e-02
  9.5827192e-02
 -8.1923008e-03
 -4.8236661e-03
 -5.2322154e-03
 -2.1470943e-02
  3.2767074e-03
 -2.4037763e-02
  1.7855365e-02
 -4.2315185e-02
 -3.7393175e-02
 -4.8216902e-02
  7.7954489e-03
 -1.6476659e-02
 -1.2670143e-03
 -1.0027093e-02
 -3.7201685e-03
 -1.0997786e-02
 -5.9647216e-03
  1.0464394e-02
 -2.0763975e-02
 -2.6026143e-02
 -2.9771648e-02
  1.5711742e-02
  3.7752688e-02
 -6.4708316e-03
  1.5711444e-03
 -4.2200899e-03
 -1.3413095e-02
 -1.6123034e-02
  1.0228297e-02
  1.8822087e-02
 -1.3601008e-02
 -1.0282209e-04
 -4.0403530e-03
 -3.9319638e-03
  7.7923061e-03
 -3.5182766e-03
  1.9010261e-02
  1.2040054e-02
 -4.4788729e-02
  7.5375736e-03
 -2.0360107e-02
  1.8602327e-02
 -2.1492813e-02
 -4.0781582e-03
  3.3580847e-03
  6.3732192e-03
  4.6827152e-01
  9.8734843e-03
 -3.7820429e-02
 -6.6313324e-03
 -5.2385996e-03
 -1.5635075e-02
 -1.3443615e-02
 -1.8906832e-01
 -8.6900322e-03
 -5.0983682e-02
 -4.3216079e-01
  2.4251282e-02
 -1.8673496e-01
  2.7753811e-02
 -2.2106113e-02
  3.5519809e-02
  3.4964653e-03
  9.2898831e-03
  1.7968548e-02
 -5.0388300e-04
 -1.2450390e-02
 -3.1855326e-02
  1.0429845e-02
 -1.7391342e-03
  2.7127950e-03
 -4.0072636e-03
  1.4309053e-02
  4.1496776e-02
  1.9479308e-02
  2.1083135e-02
 -8.6525194e-03
  4.4314664e-02
 -6.8320693e-03
  1.7362295e-02
 -4.0176716e-02
 -1.6980441e-02
 -6.7299302e-03
  4.1380964e-02
 -2.4748205e-03
 -8.2162492e-02
  3.4120321e-02
  1.1207088e-02
  2.9769896e-03
  5.4127737e-03
  4.3948308e-02
  7.4087735e-03
 -2.5947100e-01
 -8.4216865e-03
 -7.5068361e-01
  1.8097150e-04
  5.3789848e-03
 -8.3526373e-03
 -1.9155921e-03
  1.8751509e-02
 -9.7236121e-03
 -9.9142455e-04
 -2.1322163e-02
  3.1466294e-02
 -5.0269314e-03
  3.6585886e-02
  8.0052458e-02
 -2.6312234e-02
  5.6467215e-03
  1.6361231e-02
  6.0114451e-04
  1.4408019e-02
 -3.3022888e-02
 -2.1677090e-01
 -2.2895890e-03
  1.3296495e-02
  9.4501432e-03
 -1.1458208e-02
  4.2560548e-03
  8.3250497e-03
  5.3347996e-03
 -7.6123630e-03
  4.5902114e-03
 -1.2535772e-02
  1.2772235e-02
  8.3016716e-03
  2.2268061e-02
  3.3870321e-03
  6.9920644e-03
 -2.9269427e-03
 -7.2876541e-03
  4.1634599e-03
  4.8906769e-04
 -3.0135786e-02
  1.5562974e-02
  2.1227892e-03
 -3.4327772e-02
  1.7811919e-03
  1.5730346e-02
  8.6832782e-03
 -9.7400080e-03
 -6.2851451e-02
 -7.3082931e-02
 -5.8982023e-03
 -4.1732259e-02
 -1.7246200e-02
 -1.3957299e-02
 -7.2675243e-02
 -2.6407123e-02
 -5.9966999e-03
  2.5430431e-03
 -2.9900553e-02
 -5.5242758e-03
  2.4652937e-03
 -1.1023694e-01
  3.8536210e-02
  1.2159842e-02
  2.0618938e-02
  2.0156134e-02
  1.2573728e-02
 -1.1428038e-02
 -8.5369507e-03
 -5.6573731e-01
  3.7738162e-03
 -1.2064381e-02
 -2.4820161e-03
  1.3655807e-02
 -2.0337841e-02
  2.5686852e-03
 -2.5365168e-02
 -5.2451080e-05
 -8.2728924e-04
  3.7219998e-04
  1.4518986e+00
 -1.5442712e-03
 -5.8428836e-03
  5.6918789e-02
  6.5592374e-03
 -3.3864921e-03
  1.3770073e-02
 -2.4592762e-03
  1.7013544e-03
 -1.1273718e-02
  6.7310175e-03
 -9.8265670e-03
 -3.3598151e-03
 -5.7232188e-04
  2.2174800e-02
  1.3101301e-02
 -1.9045221e-02
  2.1542530e-01
 -1.9501129e-03
  9.5312175e-04
  1.2619095e-01
 -1.6654404e-01
  3.1321920e-03
  9.7619684e-04
 -8.4846690e-03
 -1.4564215e-02
  1.1727192e-01
  1.1426033e-02
  1.1153094e-01
 -7.4729213e-04
  3.1265989e-02
 -3.4177362e-03
  1.1110923e-01
  4.2708665e-01
 -7.8912921e-02
  2.8279908e-02
  2.5623303e-02
  6.1348057e-03
  3.0687158e-03
  2.1442883e-02
  1.8870882e-03
 -1.5355860e-02
 -8.3779637e-03
  2.1742731e-02
  9.6099190e-02
 -8.3547467e-03
 -1.4016078e-02
 -2.2444296e+00
  1.9892038e+00
  1.3199263e+00
 -1.4525561e-01
  1.5253372e+00
  9.3841833e-01
  2.3992453e+00
  3.1780470e-02
  6.2583339e-01
 -4.0371245e-01
 -4.4994390e-01
 -2.8718448e-01
 -8.2697935e-02
  5.4880220e-01
  2.0324771e-01
 -3.6433026e-01
  6.6540343e-01
  2.2644401e-01
  3.0054292e-01
  1.2313729e-03
 -9.6244082e-02
  9.2406712e-02
  1.5002933e-02
  2.1139726e-02
 -1.2693168e-03
  6.2843082e-03
 -9.4876386e-02
 -6.8322299e-03
  1.0898726e-01
 -1.0101099e-02
  1.6129784e-02
  1.1003049e-01
  2.6428100e-02
 -8.3343219e-03
  1.2321170e-02
 -6.3080317e-03
 -2.0249259e-02
  4.0735975e-02
 -8.9519325e-04
 -8.1687812e-03
  2.7561368e-02
 -1.3986957e-02
 -4.1556777e-03
 -1.1652223e-02
 -1.0983111e-02
 -6.8730311e-03
  3.7159634e-01
  2.1974348e-02
  3.7875101e-03
  1.6961394e-02
 -9.1064945e-03
  8.9966264e-03
 -8.4941828e-04
 -3.6970116e-02
 -3.1965334e-02
  9.1526899e-03
 -3.8052609e-03
  1.1838293e-02
  1.7097613e-02
 -1.6269457e-02
  3.6416437e-02
  9.3309506e-04
 -7.2828149e-03
  2.6277322e-02
 -9.0193518e-02
  1.8699883e-02
 -4.2912522e-03
  1.3686622e-02
  9.5851300e-04
 -2.2604628e-02
  1.0856719e-02
 -2.2600388e-02
  2.6184937e-02
  1.7860765e-02
  5.2943025e-02
 -7.4483128e-03
 -1.8445373e-02
  2.5512043e-02
 -8.3491787e-02
 -1.0993087e-02
 -5.1791603e-03
 -1.3662534e-02
 -1.3315554e-02
  1.4326751e-02
 -6.2385365e-02
  1.3146084e-02
 -2.2710353e-02
 -8.4659094e-03
 -1.0339624e-02
  2.4513636e-02
 -1.0113659e-02
  5.7153016e-01
  5.6494981e-02
 -2.2257015e-03
  1.4709180e-03
  3.1069916e-02
  5.8075178e-01
  2.6784625e-03
  4.1754926e-03
 -1.1917549e-02
 -4.1603956e-02
 -5.5943854e-04
  1.0753104e-02
  1.3519354e-02
 -3.6567613e-02
  5.8459275e-04
 -4.0388241e-02
  2.9280957e-02
  1.8152885e-02
 -2.2490479e-02
  6.0323854e-03
 -1.5645593e-02
  1.0436645e-02
  2.5111043e-01
  7.9056406e-03
  7.5603151e-03
  2.7134918e-02
 -3.6602411e-02
 -1.1872455e-02
  1.8442517e-02
  1.8199930e-01
 -9.0002939e-02
 -3.8309347e-02
  9.4891842e-03
 -3.1983219e-02
 -1.6756011e-02
 -1.2709051e-01
  1.9589854e-02
 -2.2918275e-02
  3.2112978e-02
  4.0780287e-02
  5.8292982e-04
  9.0284627e-03
  3.4702104e-04
  6.1729825e-03
 -2.9823789e-01
 -2.2725696e-02
  1.9404963e-02
  9.9299155e-02
  3.0707878e-03
 -1.0578277e-02
 -5.2702110e-03
  1.3060016e-02
 -1.6799757e-02
 -2.7884520e-03
 -6.8583095e-04
  2.8174810e-02
 -9.4044218e-03
  7.1743396e-03
 -1.0706187e-02
 -1.6418032e-02
  6.2704057e-02
  2.1381783e-03
 -7.8345528e-03
  3.6977302e-02
 -2.7002195e-02
  2.0912804e-03
  2.2090638e-02
  1.1884935e-02
 -9.8659738e-04
 -1.1805514e-01
 -1.9568751e-02
 -3.0238712e-03
 -1.1349098e-02
 -5.5958699e-03
  2.9323765e-03
  1.1334789e-01
 -1.4207896e-04
 -6.4582392e-03
  4.1600098e-04
 -3.3997051e-02
 -1.7878037e-02
 -2.9472543e-02
  7.5004590e-03
 -6.6612163e-03
  1.0150485e-02
  1.0596074e-01
  7.8075589e-03
 -2.4457939e-03
 -3.4900159e-02
 -1.4765861e-02
  6.1192508e-03
  1.5050560e-02
 -3.6202867e-03
 -1.8400185e-02
  1.5160244e-02
  1.7746229e-02
 -7.9666134e-03
 -2.2821026e-02
  5.2274754e-03
  5.0732838e-03
 -4.1937105e-02
 -1.0878752e-02
 -9.0548731e-03
  1.0190276e-02
 -6.5701669e-03
 -6.4403065e-03
  1.8749923e-02
 -1.5412618e-02
  6.0578727e-04
 -1.4963586e-02
  1.5402514e-03
 -5.2285679e-02
  4.1960351e-02
 -1.8166071e-03
  1.9184351e-03
 -3.5185602e-02
 -1.1280281e-02
 -4.2998575e-02
 -2.5646663e-03
  9.8050982e-03
  2.9398719e-02
 -8.4549645e-03
 -3.8210815e-03
 -8.8936910e-03
 -8.4924353e-03
 -5.0833081e-03
 -3.6886209e-03
 -3.3503517e-03
  1.5567603e-03
  1.4379634e-02
 -8.5882349e-03
 -4.5561500e-02
 -3.1510096e-02
  3.1131047e-03
  2.2782557e-02
 -7.5468235e-02
  5.0459631e-02
 -6.0518239e-02
 -7.5291786e-03
 -7.5083099e-02
  2.4389440e-02
  9.3289632e-03
 -8.7597042e-02
  1.0088670e-02
  8.9691170e-03
 -2.5989572e-02
 -3.7045463e-03
  1.4822919e-02
  5.5024747e-02
 -8.6276986e-02
  3.4886807e-02
  6.1960932e-02
  3.4314040e-03
 -7.4206270e-02
  1.2477840e-02
 -1.1710599e-02
  4.3820692e-03
  4.2350050e-02
  1.0651878e-01
  3.9441433e-02
 -4.2714220e-03
  1.0498707e-03
 -1.5186043e-02
 -1.9818695e-02
 -7.1135182e-03
 -4.1636169e-01
 -2.5341045e-02
  6.3628778e-02
  1.8033180e-02
  3.4220025e-02
  2.6681468e-01
  1.3309061e-02
  7.9871295e-03
  4.3858276e-03
  1.9931467e-02
  1.2245470e-01
  3.5110034e-02
  2.2093834e-02
 -1.8656516e-02
  9.3567576e-03
  6.7204434e-01
  4.3105984e-01
  9.8187268e-02
 -2.1992832e-01
  3.8226980e-01
 -9.4767533e-02
 -7.0293681e-03
  1.6760139e-01
  1.4138351e-01
  1.6334897e-01
 -2.8150326e-02
  4.7375545e-01
  3.5208568e-01
  4.6232782e-02
  5.1599097e-02
  3.6987260e-01
  1.0457154e-02
  2.3016606e-02
  4.8235990e-03
  4.0296298e-02
  5.8368325e-02
  1.1130748e-02
  2.2747347e-02
 -3.8493432e-02
 -1.1636102e-02
  2.4614831e-02
  9.1381315e-03
 -4.2679790e-02
 -2.6778176e-02
 -2.0529792e-02
  2.7577341e-02
  5.3576641e-02
  1.4355712e-02
  1.5826847e-02
 -7.8875475e-02
  2.0767741e-02
 -2.8925015e-02
 -6.4834791e-01
 -5.4123510e-02
 -2.4268433e-02
 -5.4982439e-02
 -1.4028857e-02
 -1.8060427e-02
 -2.4075158e-02
 -2.9452950e-02
  7.4567029e-04
 -1.8890990e-02
 -5.1278342e-03
 -4.7516208e-03
 -3.9430894e-02
 -1.6046576e-02
  1.9240640e-02
 -4.6777852e-02
  3.7974587e-03
  1.1685036e-02
 -3.7540002e-03
  3.2508380e-03
 -2.8459718e-03
 -1.8262321e-03
  3.0194770e-03
  2.0971908e-03
 -5.2448887e-02
  3.2597315e-03
 -3.6418049e-03
 -1.3801645e-02
  5.8076591e-03
 -5.5455952e-03
  2.3394163e-01
 -9.9826930e-03
 -7.3428199e-02
  6.5921335e-03
  3.9338786e-03
  3.8809879e-03
 -6.0634227e-03
 -8.0515733e-03
  3.4353128e-04
 -1.9786010e-02
  1.0750352e-03
 -1.1052366e-03
  2.3125058e-02
  1.8359203e-02
  3.3919343e-03
 -6.0047181e-03
 -2.2266492e-02
  2.9472133e-02
  8.9272577e-03
  2.7765194e-03
  3.3408105e-02
 -3.2055188e-02
  2.3816854e-02
  1.9267718e-01
  9.1578782e-02
  1.2201283e-01
 -6.2607318e-02
 -2.4336204e-02
  1.5881669e-02
  2.3681158e-02
  1.7187428e-03
  2.3657529e-02
  1.9461391e-03
  1.0050845e-02
  9.0704690e-04
  1.7680297e-02
 -9.8793935e-03
  2.3304755e-02
  1.3386521e-01
 -6.6660997e-03
 -1.0338799e-03
  1.0195664e-02
  4.2252321e-02
  1.2474944e-02
  1.9821918e-02
 -4.4866141e-02
 -9.9233277e-03
  1.1728228e-03
 -1.0810395e-02
  6.5702391e-03
  2.6565015e-02
  1.1605281e-02
 -1.1814144e-02
 -2.2645578e-02
 -2.1561234e-01
 -1.7923783e-01
  4.3525088e-01
 -3.3804633e-02
  7.7411391e-02
 -4.7727977e-03
 -7.1341902e-02
 -1.0739757e-01
 -1.3492280e-01
 -1.2262082e-02
 -2.9313495e-02
  2.5506996e-02
 -1.3487860e-02
 -1.1261945e-01
  6.6709422e-02
 -1.6966896e-02
 -2.3376357e-02
 -4.0646050e-02
 -1.0298589e-02
 -3.1996809e-02
  6.4276927e-03
 -5.6880273e-02
  8.9298359e-05
 -7.3578102e-03
 -4.5136314e-02
 -4.2016557e-03
 -4.6328749e-04
  9.0393156e-02
 -1.6800936e-02
  3.9789747e-03
  4.7524478e-03
  3.5419089e-05
  6.8851007e-04
 -3.0943619e-03
  3.4944203e-02
  4.8658304e-02
 -8.9556528e-03
 -9.9878376e-03
 -1.0392644e-02
  2.2339057e-02
 -9.3818065e-03
  3.7117586e-02
  1.7583162e-02
 -1.4445983e-02
  3.8737142e-03
  2.0270092e-02
 -7.0917727e-03
 -1.7911011e-02
  2.7395836e-03
 -1.9305715e-02
  5.6500165e-03
 -1.2785137e-02
  7.9089170e-03
  3.1615437e-03
  4.5431975e-02
 -1.1141979e-02
 -2.4287514e-02
 -2.2238079e-02
  5.0246783e-02
 -3.6559485e-02
 -3.6301896e-01
 -9.1069117e-02
  6.5411717e-02
 -3.1020394e-01
  4.3202659e-01
 -3.7790644e-01
 -4.6371880e-01
 -7.6065093e-01
 -3.8232845e-01
  7.8758253e-03
 -1.1676508e+00
 -2.5155610e-01
 -8.7009929e-02
 -1.4591637e-01
  8.7727837e-02
 -7.9246575e-04
 -1.2476803e-01
 -4.6779972e-02
 -9.3589321e-02
 -1.6250740e-01
 -1.2140131e-02
 -4.7266856e-02
  1.1991024e-02
  1.3270085e-01
 -7.3403247e-02
 -2.5672776e-01
  2.2744710e-02
  3.1728229e-01
  5.9376634e-03
  1.2437056e-02
 -3.8055505e-03
 -2.2956718e-02
 -1.9391024e-02
 -9.1175316e-04
  3.5970588e-03
 -1.8359780e-02
 -3.5742495e-02
 -2.1240996e-02
 -3.4033895e-02
 -1.0377875e-02
 -2.0646263e-02
 -4.6616481e-03
 -1.4587469e-02
 -6.1018816e-03
 -7.2327745e-04
 -1.5221144e-02
 -1.5681660e-02
 -5.3956196e-02
  1.5630960e-03
  9.3792332e-03
 -4.3565743e-03
 -2.3194699e-04
  1.0818074e-02
  8.9963218e-03
  3.0652550e-03
 -1.2866319e-02
  6.8712677e-03
  2.3959875e-03
  3.1906306e-03
  3.7905660e-02
 -1.9905297e-02
  2.6598172e-02
 -3.9712168e-02
  8.0209887e-03
 -5.7560611e-03
 -2.8187227e-03
  2.6265735e-02
 -3.7140768e-02
  1.1054650e-03
  1.6900744e-02
 -4.7306195e-02
 -1.1749380e-02
  2.6246431e-01
  1.8857978e-02
 -1.4815097e-02
 -2.9573261e-03
 -2.0210860e-02
 -3.1070717e-02
 -1.0286798e-02
  3.3271275e-04
  6.5573817e-03
  2.8239258e-02
  2.7680793e-03
 -2.2327704e-03
 -4.4831438e-03
  2.8105628e-02
 -1.1129698e-02
  2.0011079e-02
  2.9487159e-02
  2.6171204e-02
  2.8928598e-02
  1.9752549e-02
  6.3868888e-02
 -4.9350832e-02
  1.4947607e-03
 -6.6291642e-01
  2.8705936e-02
 -7.1304165e-02
 -6.4054295e-02
 -7.3805250e-02
 -2.0706115e-02
 -1.5102870e-02
  9.1353506e-03
  1.5952559e-01
 -1.8634861e-02
 -1.5842885e-02
  5.4463808e-04
  2.3948342e-02
 -3.9446626e-02
 -2.3056271e-02
  1.4247766e-02
  1.4952723e-02
 -2.5683159e-02
  5.0572385e-03
  2.6168203e-02
 -4.0190667e-02
  1.9453049e-02
  4.4047389e-02
 -5.6243964e-02
  1.4310493e-01
 -1.5940513e-02
  1.6559115e-02
  4.4641978e-01
 -7.4309602e-02
  8.3288275e-02
 -7.5982134e-03
  8.3978204e-03
 -7.9847954e-02
 -9.6937284e-02
 -2.4998437e-01
  1.2243465e-01
 -1.2343365e-02
 -2.6660128e-03
 -1.2016418e-01
 -6.3363783e-02
 -8.7817110e-02
  3.6008416e-03
 -9.5300777e-03
  8.8147388e-04
 -4.5266536e-01
 -3.8744665e-03
 -3.0373551e-03
  6.3894824e-03
  7.5611174e-03
  1.4437761e-02
 -2.3238908e-02
  1.6961608e-02
  5.2456253e-05
 -2.7782949e-02
  2.6699572e-03
 -2.0198503e+00
 -2.5927892e-01
 -1.8772885e-01
 -3.1624806e-01
 -1.4188193e+00
 -1.0294298e-01
 -7.0901436e-01
 -1.3598223e-01
 -4.9888083e-01
 -8.9522749e-03
 -1.6906403e-01
 -2.1922886e-01
 -1.1848342e-01
 -2.6043725e-01
  2.7130084e-02
 -2.0090472e-02
 -1.2287918e+00
 -1.9034140e-02
  3.8952047e-03
 -4.0158521e-02
 -8.5939290e-03
 -2.2829834e-02
 -1.6279288e-02
  1.3027299e-02
 -2.8389385e-02
  5.7611158e-03
  1.8271023e-02
  5.6542132e-02
 -4.4170294e-02
 -5.9767235e-03
  3.2588501e-02
  5.3984015e-03
 -4.7121905e-03
 -3.1918281e-04
  5.8046263e-04
 -1.7529154e-02
  2.7575714e-03
  3.6155719e-02
  3.3190418e-02
  6.2839620e-02
  1.7314969e-02
 -1.5145626e-04
  1.8968094e-02
 -7.9021091e-03
 -2.0840898e-02
  6.9574423e-02
  1.1527800e-02
 -4.8343655e-02
  1.1960278e-03
  2.5771115e-02
 -4.0288800e-03
  1.1653352e-02
  6.3578920e-03
 -4.0982175e-03
 -8.9824842e-03
  3.7251871e-02
  1.9700533e-02
 -5.5157659e-03
  1.7194701e-02
  3.0718479e-02
  9.9097821e-04
 -1.4466882e-02
  2.0960770e-03
  1.3449797e-02
 -7.7947569e-03
  2.2502770e-03
 -1.2072966e-02
  1.4709429e-02
  2.2970906e-02
  1.0597996e-02
 -1.2135060e-03
 -2.0739667e-02
 -2.7433245e-03
  1.1493979e-02
  4.3798465e-04
  2.6566865e-02
  1.4456500e-02
  7.6226485e-03
  9.5202652e-04
  2.2482680e-02
  5.1557906e-03
 -4.5025297e-03
  3.1064050e-02
  1.8478807e-02
  4.6183508e-02
 -8.4943548e-03
  7.4412959e-04
  9.6334831e-04
 -3.1514067e-02
  1.2493329e-02
  3.9623361e-03
 -2.2620127e-02
  1.0532480e-02
 -3.3871874e-02
 -1.8857935e-02
 -1.1990814e-02
 -1.5580744e-04
 -9.6752848e-03
 -2.4772232e-02
  3.2000590e-02
  6.8124635e-03
  7.0353441e-02
  3.5354614e-03
 -7.6233419e-03
 -2.1164998e-01
  1.2975654e-02
 -4.0975545e-02
 -1.9987328e-03
  2.0879112e-02
  9.3915649e-03
 -2.1744575e-03
 -1.0093098e-02
  1.7385542e-02
  4.4923213e-01
  5.0408293e-02
 -3.0337138e-02
  3.0372085e-02
 -4.4083074e-02
  1.4277346e-02
  2.5715426e-02
  6.6441037e-03
  2.6824439e-02
  1.3403695e-02
 -1.3964626e-02
  3.1111585e-02
  7.1671963e-02
 -1.8092686e-02
  6.2198000e-04
  1.8886358e-02
 -1.1402695e-02
 -4.2056348e-02
 -8.9427028e-03
  3.7706092e-02
  1.0376168e-02
  7.2884136e-03
 -7.4658230e-02
  2.5405839e-02
 -2.0770606e-02
 -1.1140916e-02
 -7.3849531e-03
 -1.9036550e-02
  3.2248320e-03
  1.2420588e-04
  4.4788521e-02
 -4.6454047e-04
 -1.5818713e-02
  1.5283122e-02
  3.2974280e-02
 -4.1691340e-03
 -6.1333936e-01
  7.2428852e-01
 -1.8477550e-01
 -2.7454144e-01
 -6.4636332e-01
 -2.2774696e-02
  5.7305080e-01
  5.2233700e-02
 -8.3120065e-03
  1.1686981e+00
 -1.7571649e-02
  3.2742377e-04
 -2.2177041e-02
  3.9927863e-02
 -1.2246702e+00
 -2.1142462e-01
 -2.6368520e-03
 -4.1968441e-01
  7.6992023e-01
  1.1535937e-03
  9.5783332e-03
 -9.7181341e-03
  2.1255156e-02
  6.8581331e-01
  2.4789095e-02
  1.0773033e+00
  9.3195063e-01
  4.7819931e-03
  3.6394481e-02
 -2.6912153e-01
  5.2266281e-02
 -1.9358817e-02
 -1.5066658e-02
  6.9052339e-01
 -1.0229360e-02
 -1.3626039e-02
 -2.7842183e-02
  3.1484660e-02
 -1.2433688e-03
 -3.8021722e-01
  2.4127813e-02
  4.3506091e-03
  2.4432469e-02
  1.0415324e+00
 -1.2021989e-02
  2.0406030e-03
  1.0359217e-02
  2.3174806e-02
  6.6770636e-03
 -1.6741243e-01
  5.0711817e-01
 -3.7904230e-01
  2.3602372e-01
 -4.0703976e-01
 -2.5938886e-01
 -2.2119531e-02
 -5.2929401e-01
 -4.4675657e-01
 -2.9891646e-01
  2.6767889e-01
  2.6496080e-01
  1.4019684e-02
  1.5815352e-01
  5.9176650e-02
 -5.2639979e-01
 -4.4678521e-01
  1.7341882e-01
  1.6120274e-02
 -3.0850086e-01
  1.6587695e-01
 -2.0775942e-02
 -3.9661411e-02
 -1.1057041e-01
  4.3393672e-01
 -7.9840958e-01
  4.6400172e-01
 -1.8808332e-01
  1.5078530e-02
  1.3180754e-01
 -1.4806044e-01
  1.5286167e-02
 -3.2158177e-02
  3.0228990e-01
  5.7969218e-01
 -3.0149829e-01
 -4.4358191e-03
  2.0224288e-01
 -4.8121351e-01
 -1.3448406e-02
 -1.0192084e+00
 -3.0990407e-02
  7.5703477e-03
 -2.1297444e-01
 -5.0563818e-01
 -5.3050423e-01
  3.6214138e-03
  6.8028063e-02
 -1.0677189e-01
 -3.9554153e-02
  3.9405298e+00
  3.0073776e+00
 -1.7131058e+00
  2.6490293e+00
 -2.1999042e+00
  2.4011321e+00
 -7.4735326e-01
 -5.4202342e-01
  3.6073589e-01
 -2.4673963e+00
  1.2838881e+00
 -4.1727161e-01
  1.0639982e-02
 -7.4577010e-01
  9.8267931e-01
  6.3563570e-02
 -1.3617482e+00
 -8.4271180e-03
 -1.1874886e-02
  1.1930367e+00
 -2.1616997e-01
 -3.0438605e-01
  1.3525000e+00
 -7.1971703e-01
 -1.3432513e+00
 -7.5888425e-01
 -5.2575213e-01
  2.7153170e-01
 -2.5692930e+00
  8.4248972e-01
 -3.4843522e-01
  6.5612561e-01
  3.1193895e+00
  2.5488801e+00
  6.1765891e-01
 -5.6937522e-01
  3.7915442e+00
 -1.9231801e-01
  2.1210952e+00
 -8.9819765e-01
 -1.5865653e+00
 -6.8762624e-01
 -5.2469683e-01
 -1.6180485e+00
 -7.7993930e-03
  2.8486812e-01
  2.0469131e+00
 -1.4575673e-03
  2.9167481e-02
  1.2974868e+00
 -3.6565623e-01
 -1.8945417e+00
  2.4780617e+00
 -2.7423379e-01
 -3.0726504e-01
  1.8639902e-02
  3.5736033e-01
  4.0286902e-01
  2.0330224e+00
  6.1380666e-01
  3.0940709e+00
  3.7844598e-01
 -2.1372120e-01
  6.7168885e-01
  4.1984763e-02
  9.7818893e-01
  1.6283813e-01
 -6.4875901e-01
  6.6822582e-01
  3.6678951e+00
 -1.0410716e-01
  1.0669754e+00
  2.7847385e+00
  1.3331803e+00
  2.6386626e+00
  1.8016128e-01
 -1.5308059e+00
 -5.0671953e-01
  1.4285064e+00
 -3.4112137e-02
 -7.2341681e-01
  1.2042383e+00
  4.0353427e+00
 -5.9701009e+00
 -1.2738209e+00
  2.5152317e-01
 -7.0544702e-01
  8.4068747e-03
  2.0028785e-01
 -8.8111323e-01
  5.2728224e-01
  4.0648490e-01
  2.4395832e-01
  2.0284461e-02
  8.0457790e-04
  2.9699029e-02
  1.9853786e-02
  1.1648438e-03
 -5.8297489e-02
 -7.1531996e-02
  4.3591361e+00
 -4.1918069e-02
 -2.3877616e+00
  9.7090977e-01
 -6.6227533e-02
 -3.9505559e-01
  4.5713740e-03
 -3.7583862e-02
 -4.1681862e-01
  1.2336408e+00
  2.8206861e-02
 -2.0093343e+00
 -6.8006217e-01
 -9.8144788e-01
 -7.5486994e-01
  8.8010490e-01
 -6.3722920e-01
  2.1570182e-01
 -4.9749693e-01
 -6.2969069e+00
 -6.2330753e-01
 -1.3305084e+00
  3.1060964e-01
  1.7443642e-02
  5.7977277e-01
  1.0252438e-02
 -7.3364310e-02
  7.4506146e-01
 -8.9362252e-01
  7.1854478e-01
  2.0141916e+00
 -4.1826832e-01
 -1.5488444e-01
  4.7992030e-01
 -9.2170693e-02
  2.3002019e-02
  1.1515186e+00
  1.8702224e-01
  5.0297940e-01
 -2.6795915e-01
 -1.0818431e+00
 -1.5995677e+00
  4.9449769e-03
 -3.5044697e-01
 -6.9695483e-03
  8.5078055e-01
  4.1610116e-01
 -5.9974599e-01
 -4.9936828e-01
 -1.0512978e+00
 -9.1874704e-02
  2.1031029e+00
 -7.1173459e-01
  1.0822627e-02
 -3.5991544e-01
  1.8660985e-01
  1.8185243e-02
  1.5328521e+00
 -6.6425753e-01
 -4.8085693e-02
  9.4305706e-01
 -8.9106411e-02
  9.0794861e-01
 -6.6564333e-01
  2.8384886e+00
 -4.6926927e-02
 -2.8083920e-01
 -9.1173905e-01
 -2.2033046e-01
  8.9531308e-03
 -2.5296171e+00
 -1.3815235e-02
  7.6102579e-01
  4.2819324e-01
 -8.4488416e-01
  2.9679948e-01
  2.5744701e-02
 -1.0648843e-01
  3.7848656e-03
 -2.1039804e-03
  7.8982383e-01
  2.4775698e+00
 -1.2049055e+00
  2.6964629e+00
 -2.3641899e+00
  8.1520744e-02
  6.1964750e-02
  9.4812453e-01
 -3.4393163e+00
 -1.2286298e-03
 -2.4819708e+00
  4.3851314e+00
  7.0864862e-01
  7.1680021e-01
  9.6242899e-01
 -1.2621991e-01
  4.4838718e-01
 -1.3716574e+00
 -3.7832055e+00
 -4.4684559e-01
  2.6018801e+00
 -2.3399714e-01
 -1.1369861e+00
 -1.4143817e-02
  2.5127991e-03
  9.6261120e-01
 -4.1119058e-02
  4.0113633e-03
  7.3197567e-01
  3.0436495e-01
 -1.6001129e+00
 -1.2180424e+00
  4.5818901e-01
  9.8205004e-03
 -1.9774307e-03
 -1.1949995e+00
 -7.7674758e-01
 -1.5428534e-01
 -2.5135391e+00
 -1.0276581e+00
 -2.9810455e-01
 -4.5534292e-01
 -6.1284792e-01
 -1.7537840e-01
 -7.3453709e-03
 -4.1304871e-01
 -1.6154215e+00
 -3.7011158e-01
  2.0481818e+00
 -8.5750389e-01
 -2.3877697e-01
 -1.5620768e-02
  1.8609757e+00
 -2.4575268e-01
  9.7965449e-03
  2.8656898e-02
 -2.2345042e+00
  4.9832222e-01
  7.4017215e-01
  3.7876630e-01
  4.2859238e-01
  2.8122501e-02
 -5.5713767e-01
 -1.1072037e+00
 -1.4496067e+00
  1.8600455e-01
 -1.1984587e+00
  1.6597908e+00
  1.5594420e-02
 -7.3874467e-03
 -1.9928563e-01
 -1.8817424e+00
  6.1310035e-01
  4.7335762e-01
 -9.8492585e-02
 -3.9084964e-02
 -1.4510887e-02
  1.4337413e-02
  1.3342997e-02
 -6.4757757e-02
 -1.3232937e-03
  1.5242248e-02
 -2.0837886e+00
  1.4136000e+00
  6.4626437e-01
  1.3852835e-01
 -1.1936671e+00
  1.0359754e-02
 -3.2761300e-01
 -2.6074292e-02
 -3.9808643e-03
  2.0533061e+00
  3.1787646e-03
 -7.8057277e-01
  6.8341404e-01
 -3.3188821e-03
  1.0752913e-02
 -4.3232564e-02
 -4.5971200e-01
  5.5112462e-03
  2.7284420e+00
 -1.7921747e+00
  2.1659763e+00
  5.0201190e-01
  1.7426740e-02
 -4.8127007e-02
 -9.0475672e-01
 -1.0732180e-02
  9.4701879e-02
 -1.1563821e+00
 -9.5859254e-03
  8.0432338e-01
  1.7064476e-01
 -4.7932588e-02
  7.8275343e-03
 -4.3854330e-02
 -2.9914930e-01
  1.3241649e-03
 -1.4787507e-01
  5.1584679e-01
  8.2904708e-01
  5.7747251e-01
  6.1431620e-03
  7.1630456e-02
  1.1866931e+00
  1.1601001e-02
 -6.6370875e-01
  4.4269958e+00
  6.2985164e-01
  1.0123252e-01
 -2.3161561e+00
 -1.8115563e-02
  1.8508116e-02
 -5.8729482e-01
 -1.6746849e+00
 -2.3875169e-02
  3.6290858e+00
 -9.4608259e-01
  3.9310370e-02
  2.3409534e-01
 -1.6145132e+00
  5.1898703e-02
  2.4457800e+00
 -1.5303722e-02
  2.0471522e-01
  1.4219997e+00
 -1.7955816e+00
 -5.0527030e-01
 -1.9110661e+00
  1.3853951e+00
 -2.3436050e-01
  9.2471071e-02
 -2.0799828e-01
  2.0303023e+00
  4.6082481e-04
  9.0190493e-02
  1.1682075e-02
  8.0813386e-02
 -4.0971711e-02
  2.0887244e-03
 -2.1057729e-01
 -5.7811834e-02
 -1.2471720e-03
  3.2502443e-01
 -1.8447680e-02
 -1.2475300e+00
 -4.8056018e-01
  7.1286118e-01
 -3.8208541e-02
 -3.4533041e+00
  6.3279262e-03
 -3.0788347e-01
  2.2560854e+00
 -1.0191691e+00
  6.0615789e-02
  2.7386558e+00
 -4.0501021e-02
 -2.3664145e-01
 -4.1442059e-02
 -1.8518335e-01
  7.0159256e-02
 -7.9190815e-03
  2.0750901e-01
 -2.5478628e-01
  1.4057055e+00
 -1.7199855e-02
  2.1158488e-02
  2.1515416e-03
  3.4452672e-03
 -3.5673004e-01
  4.4847137e-01
 -4.5417553e-01
 -2.2302022e-02
 -1.0382938e-01
 -1.5746528e+00
 -9.0951163e-01
 -2.1289468e-02
  6.5351933e-02
  6.7269075e-01
  1.7223536e+00
 -5.4812208e-02
 -2.9094383e-01
  1.7235839e+00
 -7.7238345e-01
  8.3466697e-01
  1.2055730e+00
 -9.8598635e-01
 -2.0412254e+00
  3.1138949e-02
  1.2257204e+00
  2.7690592e-01
  1.3183730e+00
  1.6677533e-01
 -1.5461816e-01
  1.5219505e-01
 -1.6827261e-01
 -6.3683832e-01
  1.1102469e+00
  4.1200124e-02
  2.5267297e-02
  9.6772927e-01
  3.6420837e-02
 -3.4720480e-01
  2.1787968e+00
  9.2356485e-01
  3.4905735e-01
  3.8827878e-01
  1.8343258e-01
 -4.7120416e-01
  1.1789457e+00
  4.1807637e-01
  2.2830245e-01
  2.6806477e-01
  9.8910421e-01
 -1.0581584e+00
 -2.6249031e-02
  1.7858784e-01
 -5.0868410e-01
 -6.4500809e-01
  2.7246151e-02
 -1.2129736e-02
  7.9875357e-02
 -2.0079201e-01
 -5.0487118e-03
 -3.5239005e+00
 -1.5370951e+00
  9.4384309e-03
 -1.0781262e+00
  5.8293617e-01
  5.1353806e-01
  1.4084257e+00
  1.0567918e+00
  1.4106541e+00
 -1.5790833e+00
  2.7591460e+00
  8.5903656e-01
  8.1813747e-01
 -2.4017990e-02
  3.8177162e-02
  9.0831608e-01
  2.6000622e-01
  1.2615731e+00
 -2.4769618e-01
 -9.7271103e-01
 -4.4926855e-01
  5.0456035e-01
  2.7531931e-02
  5.1790661e-01
  1.5769650e+00
  2.4714318e-01
  8.7367631e-02
  4.3052474e-01
 -1.8235110e+00
  1.0689522e-02
 -9.7551566e-01
  8.0177383e-03
  3.1735089e-02
 -1.0867934e+00
 -1.1073868e-02
  1.6114271e+00
 -3.0491251e-02
 -1.1762221e+00
  1.1389901e-01
 -3.5317394e-01
  1.1049208e-01
  5.4573375e-01
 -2.5291139e-01
  1.5299535e-01
  8.5659617e-01
  1.6611811e+00
  1.6105695e-01
  3.1556731e-01
  4.0750989e-01
 -6.8105131e-02
  6.7149833e-02
  1.6353095e-01
  1.9609424e-01
 -1.4407353e-01
  4.4322893e-01
  2.6857194e-01
  1.7069672e-01
  2.8258815e-01
  1.1285235e-01
  3.5386484e-02
 -2.9864272e-02
  4.2837206e-01
  2.5243384e-01
 -6.1666727e-01
  3.9443809e-01
 -9.9324530e-01
 -3.3652782e-02
  6.0595173e-01
 -6.5296374e-02
 -1.5528508e+00
 -1.3482689e-02
 -1.3161397e-01
 -5.8300436e-02
  1.5518203e+00
  2.6916292e-01
 -1.6984762e-01
 -9.2264665e-03
  3.6151830e-02
 -6.1916340e-02
  1.8360164e-02
 -1.9125158e-03
 -3.0581596e-01
  8.1429921e-02
  1.9441770e+00
 -1.1239274e+00
  2.5303507e-01
  9.0434521e-01
 -1.7605407e+00
  1.8570154e+00
 -1.3147576e+00
 -3.6450820e+00
  5.1733309e-01
  2.6387224e-01
 -1.3505114e+00
  5.6530338e-02
 -6.1564423e-02
 -6.4767158e-01
 -6.7601125e-03
  1.0204812e-01
 -1.0402776e+00
  1.0636462e+00
 -1.1666071e+00
 -5.6898552e-01
  4.9991429e-01
 -9.8949872e-02
 -1.1527635e-01
 -1.3608419e-02
 -1.2648282e+00
  8.6215802e-02
  1.8248279e-01
  2.8362545e-01
 -4.1936171e-01
  4.6323463e-02
 -1.0328426e+00
 -2.3411295e-01
  6.4620271e-02
  4.4850120e-01
  4.1183248e-01
 -5.0707334e-01
 -1.1126046e+00
 -9.4158024e-02
  2.9613358e-01
 -5.4821968e-01
 -2.6211765e-01
 -3.5567502e-03
 -1.3816327e+00
  1.0309013e+00
  9.9159396e-01
  9.1630816e-02
 -1.0728022e-01
  1.9905412e-01
  5.9875685e-01
 -1.3210499e+00
  1.5382503e-02
  1.1067611e-01
  7.0300174e-01
  4.7624931e-01
  4.5632747e-01
  1.3093714e-01
  2.8408402e-01
 -5.3920913e-01
 -6.3934825e-02
  2.6829898e-01
 -8.0229521e-01
  1.5252458e+00
 -1.1832666e-01
  8.8813210e-01
  7.1582407e-01
  1.2047016e-01
  3.2161066e-01
 -5.4611397e-01
 -2.1871923e-01
  9.5392711e-02
 -1.8624928e-02
  5.6067711e-01
 -5.6845299e-03
 -3.1271636e-02
 -3.0731373e-03
  4.2158025e-03
 -3.6831918e-01
 -7.9585584e-03
 -1.0369149e-02
 -8.2219237e-01
 -2.8336413e+00
  1.0776752e-01
 -2.4118820e-01
  1.1327527e-02
  2.0662735e-01
  1.1053000e-01
 -3.1366736e-01
  1.5029070e+00
 -1.3464906e+00
  1.8745294e-01
 -3.3073142e-02
 -2.5453594e-01
  3.3833054e-01
  3.8648190e-03
 -5.8786345e-01
 -8.7417431e-02
  2.4521324e-01
  1.0800992e+00
  3.2428586e+00
 -2.5811733e-03
  6.0121781e-01
 -1.4535786e-01
  5.3210549e-02
 -2.6475109e-02
 -2.5038926e-02
  6.5519004e-03
 -2.1202961e-04
  1.6183707e+00
  1.0977703e+00
 -5.7700658e-01
  7.3225486e-01
  3.2006536e-02
 -3.0979788e-01
 -1.3495180e-01
 -7.9133523e-01
 -1.8194548e+00
 -7.2158247e-01
 -4.4427449e-01
 -2.8487709e-01
 -4.2009047e-01
 -1.4998035e-03
 -6.9823283e-01
 -1.2446216e-01
  6.8909347e-02
 -2.0999918e+00
 -7.7675867e-01
  2.3575315e-01
 -2.3643848e-01
  5.5306506e-01
  5.0857538e-01
  2.2139877e-01
 -1.2585668e-01
 -5.1036972e-01
  1.1667045e-01
 -6.3894615e-02
  5.9632212e-02
 -8.8047093e-01
 -2.5195945e-03
  5.7739182e-03
  4.9855113e-01
 -2.1703781e-01
  1.0593569e+00
 -1.4036057e+00
 -1.1214012e+00
  2.5691399e-01
 -4.2550866e-02
 -1.8091463e-01
 -5.9413779e-01
 -6.7124379e-01
 -2.7367920e-01
  5.3118527e-01
  1.6580092e-02
  2.2426653e+00
  2.6531329e-03
 -1.9544844e-01
 -3.3418590e-03
 -1.6416615e-02
 -2.9186723e+00
  7.2980955e-02
 -4.8163939e-02
  3.9728801e+00
  7.2174329e-01
 -4.9367972e-02
  1.6140335e+00
 -6.0887295e-01
 -2.7204618e-01
  2.8052876e+00
  1.6227622e-03
  8.9787591e-01
  6.4453179e-01
  6.5516520e-01
  1.7632415e+00
 -4.9927479e-01
 -6.9952324e-02
 -1.0064257e-01
 -1.7475599e+00
  1.1271190e-02
  8.8952286e-03
 -3.9366606e-01
  7.2353739e-01
 -2.1619688e-01
 -6.0704237e-01
 -1.1209483e-01
 -2.5408497e-01
  2.4332698e-01
 -1.2909983e-01
 -1.0554485e+00
 -9.9315852e-01
  1.3602059e+00
 -1.1800084e+00
  1.0504428e+00
 -3.0082676e-01
  7.3024631e-04
 -1.2293447e-01
  3.1321040e-01
  3.4658325e-01
  1.1338505e-02
  9.0097231e-01
  2.8524704e-02
 -1.9170469e-01
 -5.2827246e-02
 -1.5182894e-01
  4.9659807e-02
 -1.3178551e-01
 -1.3523895e-01
  1.6393282e-01
 -2.8518641e-01
  4.3361712e-01
  6.3138980e-01
 -7.3458248e-01
 -2.8926766e-02
 -6.2196809e-01
  3.9263409e-01
 -1.2075064e+00
  4.4983649e-01
 -1.9022329e-01
  1.2468968e-01
  2.9764155e-01
 -6.1777357e-02
 -5.3545941e-02
 -3.6701447e-01
 -1.0767699e-03
 -4.8057008e-01
  1.4236405e+00
  3.3377779e-01
  4.2750525e-01
  8.2820427e-01
 -7.6509732e-01
  1.4756634e+00
  8.1906825e-01
 -2.1588855e+00
  4.9818965e-04
  1.6092390e-02
 -1.7800460e+00
 -6.3608490e-02
  2.3699766e-01
  1.3650420e-02
  2.8916925e-02
  5.5569322e-03
  1.3988666e-01
 -8.6969323e-03
 -1.9569596e+00
  1.2249724e+00
  4.7357941e-01
 -2.5575025e+00
 -1.6023338e+00
 -4.8898771e-01
  3.4366332e-02
  3.5628045e+00
  5.9408303e-03
 -5.6869370e-01
 -5.2939069e-01
  1.1187267e+00
 -8.9342254e-01
 -8.4176528e-01
 -1.2673732e+00
 -7.1224226e-03
  2.2372730e-02
 -1.5516213e-01
  2.0400884e+00
  1.4473252e-01
 -3.4849152e-01
 -1.0881357e+00
 -6.2878698e-02
 -3.2276902e-01
 -4.8655742e-03
  2.7516040e-01
  4.0305108e-02
  5.8407173e-02
 -7.5695676e-01
 -1.6605456e+00
  1.6665559e+00
 -8.8003719e-01
 -6.7091537e-01
  2.4953377e-02
  3.5016868e-02
 -9.8223197e-01
  2.1313419e+00
  1.0902223e-01
  1.8988746e-01
  1.0533805e+00
  1.1067230e-02
  8.3559222e-04
 -1.8623297e-01
  1.9642426e-02
  1.5168754e-02
  6.8209171e-01
 -2.5825465e-01
 -4.0431742e-02
  1.2352113e+00
  2.4009849e-01
 -6.2669349e-01
  1.3983269e+00
  1.5370793e+00
  1.7491445e-01
 -3.5850797e-02
  5.2228022e-01
  5.4030067e-01
  5.4595345e-01
 -4.5099086e-01
 -1.4901645e-03
 -8.9431286e-01
  1.4380582e-01
 -1.3473018e-01
  2.7487645e-02
  2.7487645e-02
  2.7487645e-02
  2.7487645e-02
  2.7487645e-02
  2.5527325e-01
  2.5527325e-01
  2.5527325e-01
  2.5527325e-01
  2.5527325e-01
  4.3708706e-01
  4.3708706e-01
  4.3708706e-01
  4.3708706e-01
  4.3708706e-01
  1.7291513e-01
  1.7291513e-01
  1.7291513e-01
  1.7291513e-01
  1.7291513e-01
  2.0452596e-02
  2.0452596e-02
  2.0452596e-02
  2.0452596e-02
  2.0452596e-02
  1.1565264e+00
  1.1565264e+00
  1.1565264e+00
  1.1565264e+00
  1.1565264e+00
