nep4 3 Sc C Cl 
cutoff 6 4 60 23
n_max 4 4
basis_size 8 8
l_max 4 2 0
ANN 50 0
 -8.8086970e-02
  1.8189415e-01
 -7.6343036e-01
 -1.1826385e+00
  7.1907632e-02
 -3.6681518e-01
 -1.0557094e-02
 -3.2111719e-02
 -4.9892211e-01
 -3.4995678e-01
  4.2692202e-01
  1.0432965e-01
 -3.7061748e-01
 -7.2468430e-01
 -1.3672676e-03
 -1.2342586e-01
  8.1996524e-01
 -8.1946540e-01
 -2.6311206e-02
  1.3396319e+00
 -2.5087881e-01
  2.2921747e-01
  3.7703943e-01
 -9.9666022e-02
  7.4077815e-01
 -8.8010252e-01
  6.1384785e-01
 -5.3192860e-01
 -1.1999440e-01
  5.7914627e-01
  4.9242663e-01
 -1.8222405e-01
  8.6499602e-01
 -8.9827724e-02
  2.8921247e-01
 -2.4330428e-01
 -2.9633659e-01
  3.4999847e-01
  5.9026659e-02
  1.6479528e-01
 -2.7994049e-01
  4.9044293e-01
 -3.1996399e-01
  4.3264661e-02
 -7.5049651e-01
 -2.1224920e-02
  5.0903827e-01
  1.6074168e-02
  2.2866473e-02
 -7.7804637e-01
  2.0610754e-01
 -7.1189970e-02
 -3.9827500e-02
 -4.0743914e-02
  3.2044354e-01
 -3.4688121e-01
 -6.7659982e-02
 -1.1061996e-03
  5.3570058e-02
  8.5364819e-02
  7.1043916e-02
 -6.3363278e-01
  8.2887667e-01
  1.5039571e-02
 -3.0092213e-02
 -9.2711520e-01
  2.0305803e-01
 -1.8038049e-01
 -7.1742260e-01
  1.6232981e-01
 -6.1842376e-01
  7.3772267e-02
 -2.1135552e-01
 -1.1133201e-01
  3.4229386e-01
 -2.2046788e-01
  3.3931252e-01
  7.3584974e-02
 -5.7330495e-01
  7.3015660e-02
 -1.8263218e-01
  4.5243630e-01
  3.9330724e-01
 -1.9324791e-01
 -9.1550410e-01
  1.2829734e-01
  8.8474715e-01
 -7.7031851e-01
  3.6380336e-01
 -6.1133254e-01
  3.2384044e-01
 -7.2776413e-01
  9.1302675e-01
 -4.3297035e-01
 -7.7746612e-01
  2.0022102e-01
 -1.1162869e+00
 -9.3938313e-02
  2.2724620e-01
  7.1088248e-01
 -2.8795856e-01
  1.4011106e-01
 -2.8528142e-01
 -3.9600533e-01
  5.4773688e-01
  2.3525465e-01
  2.3674090e-01
  3.0672172e-01
  2.8753388e-01
 -4.5461136e-01
  4.2373648e-01
 -1.4691510e-02
 -2.6735896e-01
  2.1579917e-01
  2.1655163e-01
  7.9666734e-02
 -1.0362308e+00
  5.3516555e-01
  4.2771116e-01
 -4.4305333e-01
  8.3755004e-01
  6.5350896e-01
 -1.2541810e+00
 -1.5580150e-01
 -1.4036219e+00
 -5.1125400e-02
 -3.4313089e-01
 -2.9445502e-01
  4.4299358e-01
 -2.1327849e-01
 -1.6601762e-01
  7.7076711e-02
  4.2803594e-01
 -2.8483064e-03
  2.9888740e-01
 -5.8868992e-01
 -8.9524108e-01
  1.9345894e-01
  3.5117000e-01
 -6.5247342e-02
  6.3818932e-02
  1.1579975e-01
  8.6286120e-02
  2.4886522e+00
 -5.3130072e-01
 -4.3978861e-01
 -1.7364715e-01
  7.2767243e-02
  1.7756040e-01
 -5.2207726e-01
 -2.4212317e+00
 -5.2185762e-01
  8.2864326e-01
  1.2348305e+00
 -6.7178941e-01
  5.4094072e-02
 -4.7821712e-01
 -5.7021487e-01
 -3.8180125e-01
  3.1091252e-01
  1.5028514e-01
 -1.7080307e+00
  8.1701481e-01
 -5.1772803e-01
  2.5195420e-01
 -1.0032154e-01
  5.5700384e-02
 -3.5724588e-02
  4.2531118e-02
  4.0368089e-01
 -2.5908276e-01
 -4.2363635e-01
 -2.5501010e-01
 -1.9483067e-02
  9.8874152e-01
  4.7698668e-01
 -1.4616463e+00
 -3.2555863e-01
 -4.1697502e-01
  9.1891564e-02
  1.1595548e-01
 -9.2163473e-02
 -4.4863147e-01
  1.4339881e-01
 -1.2191273e-01
 -7.4546777e-02
  2.0416570e-01
 -8.6322471e-02
  4.8879671e-01
 -1.3730605e-01
 -6.2426692e-03
  2.9957205e-01
  1.9004782e-01
  7.2765166e-01
 -2.6613435e-02
  5.3936148e-01
 -1.2481958e-01
 -4.5805582e-01
  2.7257290e-01
 -2.5997052e-01
  4.4781688e-01
 -9.2803635e-02
 -4.2593637e-03
 -2.6115632e-02
  2.7481446e-01
 -1.0858022e-01
  3.8971964e-01
 -4.2080814e-01
  3.6620545e-01
  5.8704864e-02
 -7.7924155e-02
 -3.6013159e-01
  3.7622589e-01
  1.4144945e-01
 -3.6740255e-02
 -1.3727273e-01
  1.4176925e-01
 -4.0649942e-01
  3.5528192e-01
  2.1259890e-01
 -5.1669896e-01
  8.7864652e-02
 -6.9195576e-02
 -1.8878947e-01
 -3.0201733e-01
  2.4209997e-01
 -1.1596700e-01
 -7.9523271e-01
 -2.4013589e-01
 -4.9991933e-01
 -3.9125755e-01
  3.8355526e-02
  8.1507331e-01
  1.1939632e+00
 -2.1558267e-01
  5.0759941e-01
  1.3759657e-02
 -5.1783907e-01
 -8.4408596e-02
  2.0477098e-01
  1.2463742e+00
 -2.0586498e-01
  2.3835108e-01
 -6.5803148e-02
 -2.4728642e-01
 -4.5425594e-01
  7.1949728e-02
  2.7790985e-01
 -6.2696725e-01
 -1.9590291e-01
 -6.2932771e-01
 -4.5293815e-02
  4.7447091e-01
 -1.7759033e-01
 -5.1309919e-01
 -5.5631387e-01
 -5.8195215e-01
  7.5972462e-01
 -2.1709478e-01
 -1.0175847e-01
 -1.2771928e-01
  7.2997831e-02
 -1.5877776e-01
  2.8379464e-01
  5.7186937e-01
  2.9265988e-01
 -8.9296854e-01
  9.6477978e-02
 -9.3097135e-02
  2.1296615e-02
 -4.3631715e-01
  1.8913808e+00
 -1.5565224e+00
 -6.8116951e-01
  2.2059946e+00
  1.7877328e-01
 -2.2362299e-01
 -2.6171670e+00
  1.3275261e-01
 -6.4152516e-02
  1.0698602e-01
 -2.0169953e-01
  1.6380259e+00
 -3.4856182e-01
  2.8649098e-01
 -5.1479107e-01
 -1.1501266e+00
 -6.1023164e-01
 -2.2625786e-01
  2.1884772e-01
 -2.1898952e-01
 -6.0081190e-01
  2.0536404e-02
 -2.3057267e-01
 -4.6862110e-01
  5.0623578e-01
  3.4432077e-01
 -2.8514948e-01
  2.6576193e-02
 -1.8570766e-02
  2.6755005e-01
 -3.6186063e-01
 -3.2378674e-01
 -3.8794148e-01
 -4.3411675e-01
 -6.3487468e-03
  1.9235544e-01
 -3.8325664e-01
  3.8366783e-01
  2.3291714e-01
 -2.4266298e-01
 -4.7247410e-02
 -3.8942283e-01
 -2.2872967e-01
  1.0814343e-01
 -2.9855812e-01
  3.4569860e-02
 -4.2459905e-01
 -2.3138788e-02
  6.6511714e-01
  3.6509806e-01
 -5.4343230e-01
  1.8941464e-02
 -5.6657460e-02
  1.4690481e-01
 -4.7391829e-01
  4.0807668e-02
 -8.8155136e-02
 -2.2120191e-01
  4.6254757e-01
 -3.8638666e-01
 -1.6492097e-01
  8.6498237e-01
  2.1857658e-02
 -1.2511615e+00
 -3.7478676e-01
 -3.9267067e-02
 -6.0446598e-02
  1.4771560e-01
 -3.0550548e-01
 -4.3344417e-01
  1.4532158e-02
  5.9044689e-01
  6.6223413e-02
  2.6815318e-02
  3.2190442e-02
 -6.2680721e-01
 -6.9163740e-01
 -8.4685099e-01
 -1.6849339e-01
 -4.7695234e-01
 -1.1168304e-01
 -4.2259166e-01
 -3.4157363e-01
 -1.0817444e+00
  5.3893697e-01
  1.3115122e+00
  2.7116829e-01
  4.0553683e-01
  1.3391262e-01
 -3.2961722e-02
  2.8107086e-01
  3.9391714e-01
  8.5299283e-02
 -6.2338012e-01
  1.2137377e-02
 -1.6091517e-01
 -3.9644331e-02
 -1.5523145e-01
 -3.3995131e-01
  1.8894361e+00
  2.9430240e-02
  3.2663304e-02
 -5.6447190e-01
  1.1011259e-01
  1.3176394e-01
  9.8317885e-01
  3.4851831e-01
  4.4059357e-01
 -6.2443352e-01
  2.4134201e-01
  1.4532332e-01
 -5.2213037e-01
  5.7168210e-01
 -5.7313001e-01
 -4.7749180e-01
  4.9144451e-02
  1.1828637e+00
  4.2988196e-01
  7.3838347e-01
  2.3552113e+00
 -9.6886694e-01
 -5.3325247e-02
 -4.8323866e-02
 -3.3029146e-02
 -8.9943208e-02
 -5.1501980e-03
 -2.0043425e-01
  4.6312463e-02
  2.3361652e+00
 -1.9310740e-01
  4.7986639e-01
  8.1847921e-02
  8.3738096e-02
  3.4902468e-02
 -1.8999669e-01
 -1.3282000e+00
  5.0053740e-01
 -4.1880664e-01
  3.7489917e-02
 -1.2366747e-01
 -1.6786692e-01
  2.3282689e-01
  7.0320737e-01
 -1.7577122e-01
 -8.3663607e-01
 -2.3215860e-01
 -5.0467114e+00
  1.5782902e+00
 -4.4593859e-01
  1.5933983e-01
 -7.3291916e-01
  1.8271878e+00
 -2.0902147e+00
 -2.2495852e-01
 -7.0369405e-01
  3.7639886e-01
 -1.1288893e-01
  5.6570309e-01
 -7.1551710e-01
 -1.0732883e+00
 -1.1843889e+00
  1.1835282e+00
  3.8510820e-01
 -4.9408939e-01
  1.6377630e+00
 -1.6833711e+00
  4.9613747e-01
 -1.4557889e-01
  8.1445611e-01
  3.4212649e-01
 -7.2164434e-01
 -1.6074806e-01
  4.9340245e-01
 -4.5736894e-01
 -3.7248722e-01
 -2.6420286e-01
 -2.9482746e-01
 -2.2607964e-01
 -6.7925429e-01
  2.6537433e-01
 -1.6103771e-01
 -2.7587917e-01
  2.2111598e-01
 -1.2255744e+00
 -2.4188295e-01
  7.8880847e-01
  3.5041147e-01
  3.4068264e-02
  2.4388029e-01
  2.8454968e-01
  3.6430532e-01
 -4.9724683e-01
 -5.7230528e-02
  6.5760803e-01
 -1.5933087e-01
 -7.9573385e-02
  1.7007059e-01
 -7.7157784e-01
 -3.6755136e-01
 -1.3229632e+00
 -1.8903220e-01
 -1.7382039e-01
 -1.7241555e-01
  1.4232847e-01
  1.1373155e+00
 -2.0108797e-02
  3.3119050e-01
 -3.0230731e-02
 -5.2518398e-01
 -6.5746450e-01
  9.9902225e-01
  3.3406448e-01
 -1.3465481e+00
  2.5347707e+00
  8.6743400e-02
  1.8626587e-01
  3.8312703e-02
 -6.4193398e-02
  2.1319003e-01
  5.7415314e-02
  5.3803921e-01
  2.6690710e-01
 -1.9236997e+00
 -1.6456930e-01
  7.9435813e-01
  7.6374561e-01
  4.7272128e-01
 -9.7742724e-01
 -5.1723301e-01
  2.2638929e-01
 -5.0674158e-01
 -2.3691164e-01
 -5.4735744e-01
 -6.4032570e-02
 -3.5004181e-01
 -7.1680468e-01
 -4.5446450e-01
 -6.4068371e-01
 -1.0490175e-01
  7.5575286e-01
  1.5156032e-01
 -7.0135039e-01
 -2.7444102e-02
  1.6221321e-01
  5.9080279e-01
  2.7004790e-01
 -7.5730407e-01
  6.1025077e-01
  6.1053958e-02
 -3.5052747e-01
  9.3527511e-02
  4.4290739e-01
 -9.5576234e-02
  4.1445932e-01
  3.5277641e-01
 -7.4615330e-01
 -9.3715586e-02
 -2.2724365e-01
 -7.0348012e-01
 -2.2711168e-01
 -7.5981957e-01
 -1.7483728e-01
  1.1334040e-01
  1.3503516e-01
  2.9730397e-01
 -2.9341415e-01
  5.5953962e-01
 -1.7755295e-01
 -3.1253463e-01
  5.3724170e-01
 -1.8290050e-01
  6.4344382e-01
 -2.8560923e-02
  4.0184706e-01
  5.6601590e-01
 -6.7558908e-01
 -3.8949984e-01
 -8.4969753e-01
  2.8376383e-01
 -3.9363146e-02
 -8.5185617e-02
 -6.8826884e-01
 -5.6965660e-02
 -8.0600500e-01
 -3.3077326e-01
  3.9664131e-01
  2.5960678e-01
 -2.5269988e-01
  6.9820322e-02
  9.4666696e-01
 -3.4086332e-02
  2.0788641e-01
 -1.8921293e-01
  1.1642957e+00
 -7.3474854e-01
  2.9101413e-01
  5.8712065e-01
  1.3590030e-01
  5.1396556e-02
 -1.6575600e-01
  1.8810753e-02
 -1.4700234e-01
 -4.7636846e-01
  1.0317291e+00
 -7.1696363e-02
 -4.9098331e-01
  1.6714211e-01
  2.5583747e-01
 -3.6648814e-02
 -2.8712219e-01
  3.0410755e-01
  3.9159757e-01
  1.2960478e+00
 -1.0395000e-02
 -1.0770245e-01
  1.0678398e-01
 -6.6832346e-03
  5.5892464e-02
  1.9686633e-01
 -1.1024839e-01
  5.9607518e-01
 -1.8923967e-01
 -4.0018028e-01
 -1.7504333e-01
 -9.1709226e-02
 -3.3227158e-01
  2.7200821e-01
 -5.7255930e-01
  1.7890896e-01
  1.3762281e+00
  1.5932056e+00
 -1.5436616e+00
  9.9515182e-01
  6.2333214e-01
 -4.2692214e-01
  1.5068899e+00
 -7.7198899e-01
 -1.1848463e+00
  6.4560187e-01
 -3.9608371e-02
 -5.4391257e-02
  3.5392012e-02
  2.6802394e-01
  4.5135301e-01
 -5.3721768e-01
 -4.6134576e-02
  1.2387065e+00
 -6.4433068e-01
  4.6245584e-01
  2.5999457e-01
  2.0960171e+00
 -2.1572490e-01
 -6.3308305e-01
  2.0130699e+00
  1.9094662e-01
 -5.4197866e-01
 -5.8900851e-01
  2.0646176e-01
  5.2944709e-02
  1.0323508e+00
  7.6949877e-01
 -1.3776521e-01
  1.4374340e-01
  2.0110379e-01
  2.3308600e-01
  2.1569569e-01
  1.5590829e-01
  4.6733883e-01
 -2.9092842e-01
  5.3230442e-02
 -4.4785053e-01
 -1.0660518e-01
 -3.2487240e-01
  2.8630510e-01
  1.3853163e-01
  4.1954663e-01
  3.2401320e-01
 -9.8754680e-01
  1.2156113e-01
 -1.5741566e-01
 -5.1883674e-01
 -6.4713478e-01
  1.2389987e-01
 -5.8818243e-02
 -3.6548918e-01
 -2.7416248e-02
  3.2672477e-01
  5.4987675e-01
  6.6799007e-02
 -1.3526109e-02
  1.8155858e-01
  2.9102042e-01
 -1.9800609e-01
  1.1091924e-01
 -9.0173334e-02
  5.0835514e-01
  9.1565824e-01
 -1.6958103e-01
  5.1893245e-02
 -3.4970355e-01
  2.6260471e-01
 -6.0875720e-01
  6.0657507e-01
 -1.3040307e-01
 -3.2681784e-01
 -1.1145654e-01
 -2.9386153e-02
 -7.4897975e-02
 -2.4979091e-01
  2.5862637e-01
  3.7230355e-01
  2.4896031e-02
 -6.4393008e-01
 -3.3429691e-01
 -9.7454987e-02
  3.3881400e-02
 -3.8147014e-02
 -4.4223908e-02
 -1.2509251e-01
  1.3158478e+00
 -3.9234892e-01
 -2.7014631e-01
 -9.5252968e-02
  6.1020648e-01
 -6.4109170e-01
  3.5632816e-01
  1.4137456e-01
 -3.8443312e-01
  1.0463955e-01
 -6.9423065e-02
  1.1559041e-01
  3.2085085e-01
  1.5672171e-01
  6.7448884e-01
  4.6364909e-01
  8.2290955e-02
  3.0425689e-01
 -1.0433348e-01
  6.4918160e-02
  3.2430083e-01
  2.0715330e-02
  3.2838695e-02
  4.3145308e-01
 -4.8078470e-02
 -7.5462624e-02
  4.2435366e-01
 -2.5384355e-01
 -6.3741237e-01
  4.2218730e-01
 -3.3277932e-01
  3.3640480e-01
 -1.3105780e+00
 -3.4491354e-01
  6.9010627e-01
 -5.8899343e-02
 -3.0367166e-01
 -1.0397499e-01
  6.4970255e-01
  3.5526520e-01
  1.2189127e-02
  4.8830557e-01
  2.3421465e-01
 -3.1969437e-01
 -7.8067583e-01
  3.4764561e-01
 -8.6071068e-01
  1.1024046e+00
 -4.4446558e-01
  3.5783559e-01
  8.3310723e-01
 -3.9866939e-01
 -7.3618168e-01
  4.3015072e-01
  2.3807791e-01
  2.2585371e-03
  5.3440809e-01
 -3.8014328e-01
 -2.3902130e-01
 -6.5437421e-02
 -4.0227482e-01
 -5.0835922e-02
 -8.6360820e-02
  7.1222246e-01
  6.4754643e-02
 -2.6248750e-01
 -4.1668274e-02
 -1.3884970e+00
  7.5964743e-01
  2.5563243e-01
  1.8988883e-01
  1.5811571e-01
  2.9518155e-02
  5.3217125e-01
 -1.7919995e-01
 -1.8117486e-02
  1.3713400e-01
 -1.1462682e+00
 -2.9126269e-01
 -1.8649346e-03
 -2.8054419e-01
 -2.1689552e-01
 -5.3078532e-01
 -9.0470606e-01
 -8.9989007e-01
  1.3761227e-01
  4.2969170e-01
  3.1843248e-03
 -1.2108473e-01
 -1.4184255e-02
 -5.6938305e-02
  1.1487935e+00
 -3.6418885e-01
 -1.4132476e+00
 -1.2317599e-01
  2.9736963e-01
  1.2840165e-01
 -4.0754266e-02
  1.3453689e-01
 -8.4835753e-02
  3.9463963e-02
 -1.2026620e+00
  5.9383154e-01
  8.9110285e-02
 -9.8291159e-01
  4.8825708e-01
 -2.1951506e-02
  2.3111983e-01
  2.1521357e-01
 -1.2502193e+00
 -1.3455985e-01
  2.1943351e-02
 -1.1189099e-01
 -3.3791251e-02
 -7.1560359e-01
  5.6316328e-01
 -1.3983963e-01
  4.5932868e-01
  3.9216515e-01
 -1.3989164e-01
 -1.3278626e-01
 -2.6664129e-01
 -1.5357292e+00
  8.1486732e-02
 -1.3191184e-01
 -2.5088739e+00
  7.0038193e-01
  3.8489592e-01
 -8.4838784e-01
  9.6604258e-02
 -7.3533392e-01
  1.4223419e-01
 -4.1388232e-01
 -3.7604459e-03
  1.0372324e-01
  5.5894071e-01
 -4.3599692e-01
 -1.1060189e+00
 -2.3271216e-01
  2.7737874e-01
 -7.3533475e-02
  4.2737152e-02
  2.6605664e-02
 -1.9271025e-01
 -8.4795314e-01
 -2.7117770e-02
  4.9404114e-01
  5.0957245e-01
 -8.6467311e-02
 -1.2933674e-02
 -5.6633382e-04
  2.0455655e-02
 -2.9153821e-01
 -1.8641683e-01
  1.6097234e-01
  1.6298227e-02
 -2.2449329e-02
 -1.3795058e+00
 -1.6298276e+00
  3.2098281e-01
 -2.3002307e-01
 -4.4146389e-02
  2.1792746e-01
 -4.2502221e-02
  2.7366447e+00
 -1.0442606e-01
  1.0154228e-01
  1.6112380e-01
  2.7288478e-02
  4.9809524e-01
  3.3775827e-01
 -5.4005903e-01
 -6.6920660e-02
 -2.9971337e-01
 -2.6215604e-01
 -5.1963564e-02
 -8.3696157e-01
 -1.3566366e-01
 -2.1274805e-01
 -3.9150614e-02
  4.3898299e-01
  1.1056314e+00
  9.3125856e-01
 -3.9457977e-01
  9.7455537e-01
  4.5484966e-01
  4.2417201e-01
  1.6576904e-01
 -4.2440480e-01
 -8.1448895e-01
 -1.9036219e-01
  3.2824445e-01
 -8.4256941e-01
 -4.3828059e-03
 -2.0874418e-01
 -6.6111338e-01
 -2.2263594e-01
  8.9146763e-02
 -5.5901647e-01
 -1.0022743e+00
 -1.4018798e-01
 -3.5596073e-01
 -2.5567123e-01
 -2.3792186e-03
 -6.7672008e-03
  4.9567740e-02
 -3.0117279e-01
 -3.0385491e-01
 -1.1599069e-02
  9.3174803e-01
 -4.4007263e+00
  4.6343520e-01
  1.0368662e+00
 -4.1758421e-01
  3.1392875e-01
  5.9706616e-01
  3.1476542e-01
 -9.1427743e-01
  3.7954098e-01
  3.8236308e-01
  1.9030018e-01
  3.8978419e-01
 -8.7175494e-01
  3.4893689e-01
 -4.1547902e-03
  3.5263202e-01
 -3.3979465e-03
  5.7110727e-02
  1.1169033e-01
  5.7041705e-01
  1.4418559e+00
 -2.8866789e-01
  2.7817115e-03
 -3.2845762e-01
 -4.6061599e-01
 -4.5833245e-02
 -5.6855863e-01
  9.2427194e-01
 -3.7860784e-01
  4.0434468e-01
  5.5384964e-01
 -3.1014411e+00
  6.6559118e-01
  3.2847740e-02
  1.2336248e+00
  1.7384705e-01
  6.2539881e-01
  1.6255072e-01
  5.9764445e-01
 -3.9241120e-01
 -4.1183877e-05
  6.1756259e-01
  4.6235588e-01
 -1.3661511e+00
  3.4483206e-01
  1.8398887e-02
  1.2558866e-01
 -2.9841167e-01
  1.7742665e-01
 -7.2821778e-01
  3.2903638e-02
 -5.6380194e-01
 -1.2471835e-01
 -4.9234334e-01
 -6.7433929e-01
  1.5028558e-02
  3.9467096e-01
  6.8151492e-01
 -1.9618900e-01
  1.9785894e-01
  6.4007968e-01
  4.3853724e-01
  1.3072217e+00
 -1.0513173e+00
 -8.2262832e-01
 -1.7489681e-01
 -5.6539172e-01
 -2.6676772e+00
  5.5879718e-01
 -5.1726443e-01
  1.3053706e-02
  3.7318163e-02
  1.6779079e-01
  2.8496843e-02
  5.1038104e-01
 -4.6598655e-01
 -4.2810342e-01
  8.9914405e-01
  3.8936976e-01
 -3.2590330e-01
 -3.0408365e-01
 -3.4795031e-01
  7.4754179e-02
 -2.4920839e-01
  8.5151151e-02
 -1.0099217e-01
  3.8025790e-01
 -3.4441564e-02
 -1.8368554e-01
 -5.7414551e-03
 -1.1028048e-01
 -1.0115343e-01
  3.4387916e-01
  1.2976737e-01
 -3.0642426e-01
 -1.0386948e-02
 -1.0503262e-01
  4.8684168e-01
  3.6961052e-01
 -1.6594768e-01
  2.4600486e-01
 -8.2137722e-01
  3.1435800e-01
  9.5299929e-01
 -3.6621654e-01
 -4.9233916e-01
 -5.8660412e-01
 -2.3086904e-02
 -6.2444198e-01
  3.1308596e+00
  5.3369516e-01
  3.2118145e-01
 -2.1311340e-01
 -8.8897079e-01
  8.9608869e-03
  2.6283884e-01
  6.7671984e-02
 -8.3005643e-01
 -1.9656639e-01
  6.1886817e-01
 -2.3313892e-01
 -2.5992198e-02
 -1.2788273e+00
  8.4703818e-02
  7.8243479e-02
  1.3209095e+00
  2.5780508e-01
  1.5166385e-01
 -4.8881043e-02
  6.6073895e-01
  5.2038527e-01
  3.4821811e-01
 -6.5103030e-01
 -2.4307245e-01
 -6.3321255e-02
  1.1450621e-01
  7.9458818e-02
  1.1945198e-01
  1.1064430e+00
  9.4690256e-02
 -1.7944105e-01
 -1.1215355e+00
 -7.1690455e-02
 -4.6385947e-01
  1.0952159e-01
 -6.1327353e-02
 -4.1491786e-01
  9.9355869e-02
  8.2235411e-02
 -8.8892728e-02
 -8.3341800e-02
 -1.3800220e-01
 -6.5928757e-01
  1.2709936e-01
  1.5384814e-01
  1.5953115e-01
 -4.2457706e-01
 -7.5167693e-02
  3.0756265e-01
 -7.6291865e-01
  8.6566252e-01
  4.7436982e-01
 -1.7156150e-02
  5.6359267e-01
 -1.3202682e+00
  1.8198619e-02
  1.9107795e-01
 -3.9232782e-01
  2.6140180e-01
 -3.8541904e-01
  1.8985115e-01
  2.9292092e-01
 -4.5641348e-01
  8.7869860e-02
  3.3080488e-01
  1.4773495e-02
  2.5688478e-01
 -1.0389562e+00
 -3.2067114e-01
  4.5459700e-01
 -1.3879962e-01
  4.7504824e-01
 -2.6527455e-01
  5.1392891e-02
 -2.9584201e-02
 -2.8304666e-01
  2.8080970e-01
  6.5932482e-01
  2.2128311e-01
  3.8698816e-01
 -4.5241795e-02
  6.4262867e-01
 -1.0015941e+00
 -3.5493261e-01
  1.3626868e+00
  9.4822586e-01
 -4.2221841e-01
 -2.6580310e-01
  1.8733408e-01
 -2.3078543e-01
 -1.0393862e-01
 -1.6173148e-01
 -6.0187018e-01
  1.0299841e+00
 -3.3293012e-01
  6.8936557e-01
  2.0596368e-02
  8.3297260e-02
 -1.9710138e-01
 -2.4058308e-02
  2.9435214e-01
  7.9210323e-01
 -6.5541530e-01
  1.0370332e+00
 -1.1717029e+00
 -8.6723387e-02
  8.2942680e-02
 -3.5918534e-02
 -1.2930039e-01
 -2.0597626e-01
 -1.1801862e-02
  5.7337070e-01
 -6.7241925e-01
 -1.2862939e+00
 -6.0422629e-01
  4.9316245e-01
  8.8214952e-01
 -2.1207058e+00
  9.5489718e-02
  6.0582393e-01
  1.9596697e-01
  1.1722466e+00
 -5.7219788e-02
 -1.6812329e-01
 -1.0216023e-01
  1.2975539e+00
  3.1530115e-01
  2.4651501e-01
  1.2018142e-01
 -4.7430996e-02
 -1.0528342e+00
 -2.9522204e-01
 -1.7597734e+00
 -5.4068387e-01
  1.1580601e-01
 -1.7472580e-01
 -1.4777870e-01
 -2.0760991e-01
 -6.4863838e-02
  5.7622558e-01
  3.7451661e-01
  3.2223213e-01
 -6.7212248e-01
 -3.8424391e-01
 -9.4509798e-01
  2.4427617e+00
  1.7518485e-02
 -4.8275658e-01
 -5.6312867e-02
 -2.9947108e-01
 -4.3384427e-01
  2.2145087e-02
  1.0264051e+00
  8.0117106e-01
 -6.4537543e-01
 -8.6929703e-01
 -4.5439068e-02
 -4.9335328e-01
  4.7474253e-01
 -1.8272191e-02
  1.1950618e-02
 -1.1609238e+00
  1.5850036e+00
 -7.1967375e-01
 -5.7491845e-01
 -2.2320338e-02
  2.9524261e-01
  3.2381517e-01
  1.1310452e-01
 -3.1965118e-02
  8.6901106e-02
  1.1455295e-02
  3.4776220e-01
 -2.7854350e-01
  3.0646900e-02
  8.7373000e-01
  2.5757935e-02
  8.1545699e-01
 -1.0699863e-01
 -2.1642205e-01
 -8.4707916e-01
 -4.5488963e-01
 -4.2343587e-01
  2.1523477e-01
  3.5366297e-01
 -1.0850308e-01
  2.9377475e-01
 -1.7006084e-02
  1.3108435e-01
 -2.6975644e-01
 -2.5907987e-01
  6.1046320e-01
  4.4045404e-01
  5.7151597e-02
  9.9577266e-01
  5.5749482e-01
 -6.3699144e-01
  2.1819426e-01
 -6.5436281e-02
 -4.4892406e-01
 -7.9940742e-01
 -4.5744029e-01
 -1.3159619e-01
 -7.9608403e-02
  1.3962440e-01
  8.9938231e-02
 -2.9144591e-01
  3.9320412e-01
 -2.9408860e-01
 -4.4178361e-01
 -3.4331849e-01
 -6.0738868e-01
  3.5695914e-02
  5.0224209e-01
 -1.4574559e-01
 -1.3992812e-01
 -4.7846910e-01
 -4.7351971e-02
  5.3670520e-01
  8.0453706e-01
 -3.8336205e-01
  5.2442499e-02
  4.4201382e-02
 -2.4601416e-01
 -3.8240853e-01
 -6.1905140e-01
  2.5662154e-01
  4.5660606e-01
  5.0930768e-01
 -7.6676178e-01
  4.0150282e-01
 -1.7930536e-01
 -7.5353220e-02
 -2.9031785e-02
 -2.7155926e-02
  1.6518737e-01
  6.9343156e-01
  2.1473221e-01
  3.0239967e-01
  4.3949795e-01
 -2.2562077e-02
 -9.1477633e-03
 -5.0089139e-01
  1.5052857e-01
 -2.0802106e-01
 -6.4403033e-01
  3.5124677e-01
  3.0633998e-01
  3.0032170e-01
 -4.9430937e-01
 -3.4266746e-01
 -4.1890702e-01
  2.4402225e+00
  2.4584968e-01
  5.2321577e-01
  7.2537780e-02
 -3.6706373e-01
  3.8483682e-01
  4.0042016e-01
 -8.3641790e-02
  2.2325819e-02
  1.8419720e-01
 -1.8075196e-01
  2.8997380e-01
  3.7777814e-01
 -7.7616595e-02
 -8.2394880e-01
  4.0139593e-02
 -1.2944326e-01
  4.4508719e-01
 -9.8078124e-02
  2.9743710e-01
 -3.2458505e-01
 -1.0645635e-01
  2.2454689e+00
  1.2817859e-02
 -2.8599936e-01
 -2.3611170e-01
 -6.3658968e-02
 -3.7738752e-02
 -1.2972817e+00
  1.4491847e+00
 -2.3597989e+00
  7.4393493e-01
 -2.5138634e-01
 -1.6724027e+00
  5.1214349e-01
 -3.4397790e-01
 -1.2718835e+00
 -4.2536687e-02
 -1.0501776e+00
 -7.0953858e-01
  1.7105444e-01
  2.1996580e-01
 -6.9721019e-01
  1.4961360e-02
  3.7145773e-01
  2.7006290e+00
 -1.8373142e-01
 -8.4406652e-02
  5.2241787e-02
  9.5388470e-03
  4.7663033e-02
  6.6182494e-01
  3.8308468e-01
  7.9106919e-02
 -1.8160614e-01
 -2.7740777e-01
 -5.8523130e-01
 -9.9753015e-02
 -1.3751525e+00
 -9.3607175e-01
 -2.1682591e+00
  1.9745849e-01
  8.1249017e-01
 -1.5874200e-01
  9.6418506e-01
 -1.3849015e+00
  2.4572928e-01
 -3.0527882e-02
 -1.7860180e-02
  1.4170414e-01
 -3.9036807e-01
  7.2410709e-01
  5.4044995e-02
  2.9720119e-03
  3.3417195e-01
  2.0228207e-01
  5.8729190e-01
  5.0867093e-01
  3.2097544e-03
  1.2459105e-01
  5.3801292e-01
 -1.6611505e-01
  5.5375695e-01
 -4.0507466e-02
 -1.1635567e+00
  2.6935721e-02
 -2.9567388e-01
 -2.0238459e+00
 -2.0613954e+00
  1.4149855e-01
 -5.0359666e-01
  2.2775930e-01
  3.2857937e-01
 -1.1002802e-01
 -1.7213778e-01
  8.8128611e-02
 -3.9165637e-01
 -2.5917351e-01
  2.4368496e-01
 -5.1812685e-01
 -4.7407216e-01
 -9.1105157e-01
  1.5591703e-01
  3.8967371e-01
  2.9701567e-01
  8.2873754e-02
 -1.7700580e-01
  9.2374188e-01
 -3.0388302e-01
 -1.3354228e-01
  3.3312377e-02
  1.7269121e-01
 -6.7973152e-02
 -1.7217618e-01
  1.2058785e-01
  1.9161441e+00
  1.5295319e-01
 -1.1130270e-01
  2.0072256e-01
 -3.8201349e+00
 -8.1785591e-03
  6.8460792e-01
  2.9272872e-01
 -6.1614793e-02
  2.1360871e-01
  6.9422269e-01
 -2.9601359e-01
  1.0407876e-02
  7.5548136e-01
  4.1877159e-01
 -2.3027574e-01
 -4.0065017e-01
 -9.3161933e-02
  5.3315735e-01
  1.8141189e-01
  2.9777682e-01
  5.4766059e-01
  2.1049616e-01
 -6.9239676e-02
  7.5822659e-03
  1.7022696e-01
  5.7841271e-01
 -1.5277036e-01
  6.1681825e-01
  5.8034677e-02
 -4.8873773e-01
 -4.1390789e-01
 -5.1826560e-03
 -4.1590530e-01
  2.3000574e-01
 -4.8113491e-02
 -1.9159076e-01
 -4.6639705e-01
  3.1249262e-02
  8.9835837e-02
 -7.6351002e-02
 -6.2525548e-02
  2.5135173e-02
  5.0769720e-02
 -7.9095088e-02
 -4.8182023e-01
 -8.0806756e-01
 -2.0476480e+00
  6.1829811e-01
 -6.4612478e-01
 -2.9788387e-01
 -1.5427455e-01
  1.2791499e+00
 -4.7024345e-01
 -7.1957871e-02
  8.0593452e-02
  2.0210357e-01
 -2.6550347e-01
 -3.0041733e-01
  8.2678282e-01
  1.8390110e-01
 -1.1067189e-01
  3.1093127e-01
  1.2143411e-01
  1.1987668e-02
 -4.9259260e-01
 -1.5759197e-01
  5.4310132e-02
  2.4586464e-01
 -2.4821194e-01
  3.6684883e-01
 -2.9357192e-01
  6.6382200e-01
  8.4559157e-02
  1.1175480e-01
 -9.7599596e-01
  1.3122392e-01
 -2.1412714e-01
 -2.7588633e-01
 -8.9486361e-01
 -9.8357016e-01
  1.3889700e-01
  3.0234343e-01
 -2.5458252e-01
  3.3546329e-01
 -4.4977620e-01
 -3.6216468e-01
  1.7348609e+00
 -1.9410574e-01
  6.6303253e-01
  5.3893369e-01
  4.5369831e-01
 -8.4493715e-01
 -8.1815773e-01
 -3.1382160e+00
 -4.4902623e-01
 -1.4772958e+00
 -5.0101888e-01
 -1.7711151e+00
  1.3294528e+00
  2.5161389e-01
  4.1637316e-01
  2.7426615e-01
 -2.3542343e-01
  1.3210379e+00
 -3.6369708e-01
  6.8977094e-01
 -8.3751529e-01
 -1.6416503e+00
  1.7711852e+00
 -2.1998265e+00
 -2.1024513e-01
  1.8288832e+00
 -4.4005129e-01
  1.8479383e+00
  3.0984896e-01
  7.4887276e-02
  3.0381937e-02
 -1.9470084e-01
  1.0874310e-01
  3.7064686e-01
  3.9290497e-01
  1.4036606e-01
  1.1133076e+00
 -4.5597248e-02
 -6.8816209e-01
 -7.2673911e-01
 -6.1089969e-01
  2.0073929e-01
  3.4630377e-02
 -1.0421338e+00
  9.3052959e-01
 -9.5520519e-02
 -2.7448297e-02
 -4.2967179e-01
 -7.2069228e-01
  2.9589293e+00
  1.4284937e-01
 -1.3423077e+00
  2.2851018e-02
  9.4361693e-01
 -4.2876390e-01
 -9.3058586e-01
  1.3590606e+00
  5.7445347e-01
 -2.4498723e-01
 -9.0914600e-02
  5.1988208e-01
  1.9843658e+00
  8.6746514e-01
  1.3609780e+00
 -2.5535873e-01
 -7.0246238e-01
 -2.2938409e+00
 -2.6503855e-01
 -3.5257569e-01
  1.2569797e-01
 -3.9868119e-01
 -3.3535883e-01
  2.1734393e+00
 -3.7519431e-01
 -4.8855710e-01
  3.3827531e-01
 -6.7607141e-01
 -2.9265139e-01
 -1.0532438e+00
 -6.2899899e-01
 -1.7974963e+00
 -2.2125162e-01
 -4.0248027e-01
  4.8499531e-01
 -1.2638642e+00
 -3.3844864e-01
 -3.0945602e-01
 -4.8505500e-02
  1.5938103e-01
 -4.6601135e-02
 -1.0566009e-01
  3.3200875e-01
  5.3022441e-02
 -5.9978686e-02
 -1.1231868e-01
  2.4948007e-01
 -2.1403059e-02
  1.1007145e-01
 -5.7975907e-02
 -5.5353874e-01
 -4.0949264e-01
 -3.2576180e-01
 -4.4607988e-01
 -1.4168222e-01
  3.1275928e-01
  6.9517630e-01
  2.3341138e+00
 -2.7778193e-01
 -3.6661603e-02
  1.2973852e-01
  5.1512748e-01
 -6.4163941e-01
 -9.4928169e-01
 -2.0739555e-01
  6.9836355e-03
 -1.7936428e+00
  2.0046419e-02
 -8.9944877e-02
 -2.7335501e-01
  5.3074036e-02
 -4.5927335e-02
  9.4412781e-02
 -3.6701283e-01
  1.7734815e-01
  1.7952588e-01
 -7.8143857e-02
 -8.9225233e-01
 -2.1499555e-01
  3.7329161e-01
  9.3517959e-01
  1.7165853e-01
  9.6284501e-02
 -5.6435522e-02
  2.0469387e-01
  1.0452066e-01
  7.2000790e-01
 -1.1267993e-01
 -9.9288738e-01
 -1.0223448e+00
 -1.6460328e-01
 -1.1224905e-01
  1.4805828e-01
  6.4475816e-01
  2.7796635e-01
 -5.6293745e-02
 -4.5102826e-01
 -3.8255423e-01
 -1.0102355e+00
  4.2737010e-01
 -7.7524357e-02
  4.3841514e-01
  1.1894818e-01
 -3.8604641e-01
 -5.3037125e-01
  1.6325180e-01
 -1.1440326e-01
 -1.0446966e-01
 -2.3712537e-01
 -2.7879733e-01
  9.3722373e-01
 -4.7929037e-01
  1.2085153e-01
 -1.1627772e-01
 -7.1899694e-01
  2.1282138e-01
  5.4559737e-02
 -1.4836349e-01
 -1.3591160e+00
  3.4536853e-01
 -9.0581819e-02
 -5.6168944e-01
 -4.1029107e-02
  4.2821977e-01
  2.6244596e-01
 -1.6623330e-01
  2.6168543e-01
  8.8297129e-02
 -1.1307640e+00
 -6.9023365e-01
  2.3253474e-01
 -1.1508752e-01
  5.0418872e-01
  2.3245580e+00
 -5.2210890e-02
  2.4135414e-01
 -5.8449715e-01
  2.3359695e-01
  3.7896657e-01
  4.7769931e-01
  2.8883937e-01
  8.9481153e-02
  7.1350992e-02
  1.3388261e-01
 -5.1498377e-01
 -2.4271126e+00
  2.2189952e-01
 -4.8100895e-01
 -3.8152269e-01
 -1.5692571e+00
 -9.0668905e-01
  2.0235789e+00
 -6.1448210e-01
  1.0236034e+00
 -4.8519738e-02
 -1.5245705e-02
 -8.6144805e-02
  3.4458545e-01
 -4.5577556e-01
 -7.9109631e-02
 -1.6014639e-01
 -4.4591506e-03
  1.5090868e-01
  8.8074297e-01
  5.9577256e-01
  1.1073922e-01
 -3.9558864e-01
 -2.3745413e-01
  6.5511954e-01
 -4.8542294e-01
  1.2997492e-01
  2.7372971e+00
  2.4362589e-01
  1.5106998e-01
  1.2508924e-01
 -2.1898523e-01
  4.1316399e-01
 -2.5658078e-02
  1.3536721e-01
 -7.2152084e-03
  4.9785429e-01
  3.9904848e-02
  2.9016429e-01
  3.4746534e-01
  2.8484440e-01
  7.2009467e-02
  4.7143361e-01
 -3.3804199e-01
  1.6821764e-02
  1.8324913e-01
 -3.6807644e-01
  6.5980142e-01
  1.7110345e-01
 -5.4601789e-01
  3.9028764e-01
 -1.0977904e+00
 -9.4242412e-01
  8.1242442e-02
  7.8250933e-01
 -3.4499928e-01
  2.6504475e-01
 -1.4908724e-01
  1.1877296e+00
  1.5578641e-01
  6.4623237e-01
  1.1818495e-01
 -7.0844924e-01
 -1.0448460e-01
 -1.6102660e-02
  9.4023403e-03
  2.8909481e-01
  2.8514676e-03
  3.0301467e-01
 -4.8152797e-02
  2.5190389e-01
  2.6491800e-01
  9.1284644e-03
  2.3328340e-01
 -8.3818042e-04
 -8.1279963e-02
  1.4567153e-01
 -1.0444324e-01
  2.8516862e-01
 -1.3601435e+00
  3.1430826e-01
 -3.6747575e-01
 -4.7214961e-01
 -2.3294194e-01
  1.6304690e+00
 -5.1493967e-01
  1.9673517e-01
  3.4613428e-01
 -7.2093785e-02
 -1.4831036e-01
  3.9776884e-02
 -1.4173780e-01
 -9.4444245e-02
  8.0882713e-02
 -2.5270340e-01
 -1.0480283e-01
 -3.9552718e-01
 -5.5486932e-03
 -5.6431210e-01
  4.5710468e-01
  1.5381349e+00
  1.4640397e-01
  2.9523119e-01
 -8.8930547e-02
  4.4728339e-01
 -5.4794479e-02
 -1.9192964e-02
 -9.2521580e-03
  3.2970306e-01
  1.9291405e-02
 -2.2651459e-01
  1.7806860e-02
 -6.3811749e-01
 -3.3831069e-01
 -2.4562757e-01
 -2.1174090e-01
 -4.8324287e-01
  1.4490131e-01
  3.7161428e-02
 -2.6542616e-01
 -2.0295465e-01
  1.4178649e-01
 -1.4749351e-01
  3.8434598e-01
  6.3591856e-01
 -3.0976930e-01
 -1.0931997e+00
 -2.0922962e-01
 -9.3827599e-01
  4.0137414e-02
 -1.5984820e-02
  1.0581084e+00
  2.8286299e-02
  1.8292935e-01
  1.6481778e-01
 -3.4826688e-02
 -3.6945620e-01
 -1.4632770e-01
 -3.4329794e-02
  1.2929659e-01
  2.8968383e-02
  3.8288015e-01
  8.2909368e-02
 -9.5235699e-01
 -7.2358884e-02
  2.9156819e-01
  4.9581784e-01
  4.1082987e-01
 -6.0449725e-01
  9.7880296e-02
 -2.0194270e-02
 -2.8775144e-01
 -4.9423233e-01
 -3.6314031e-01
 -1.3027097e-01
 -2.9213503e-01
 -1.0634450e+00
  2.5453109e-01
  1.7172854e-01
  3.8101718e-01
  6.6793722e-01
 -1.8623912e-01
  2.1050847e-01
 -1.1141574e-01
 -6.0789973e-01
  1.3255690e-01
 -3.3592409e-01
  2.8347960e-01
  2.9125729e-01
 -2.1153189e-02
  2.5624853e-01
  3.1519201e-02
  7.0304498e-02
  3.3683497e-01
  1.8662089e-01
  1.8874277e-01
  3.5945812e-01
 -6.4784355e-02
  9.0753082e-03
 -6.4858735e-02
  2.5221339e-01
 -2.5985479e-01
 -4.8978055e-01
 -5.9360027e-01
 -4.6108598e-01
 -4.6131718e-03
  7.7046090e-01
  4.1079316e-01
 -2.8191201e-02
 -3.4060884e-01
  1.4162169e-01
 -1.1307137e-01
 -3.4041023e-01
 -4.9249358e-02
  4.2540947e-01
  4.1956040e-01
 -7.9996532e-01
 -2.9230845e-01
 -4.9742988e-01
 -6.8203557e-01
  1.2188426e-01
 -1.9146872e+00
  4.0205041e-01
  2.8612155e-01
  2.2191192e-01
  5.5400211e-01
 -5.9870023e-02
 -5.0992841e-01
  1.6194819e-01
  1.0470073e+00
  1.7053181e-02
 -5.1551227e-02
  2.2869301e-01
  4.0311599e-01
 -3.9540503e-02
 -5.4847486e-02
  8.7155521e-02
  1.2097280e-01
 -1.7077547e-01
 -5.1472205e-01
  4.9851056e-02
 -7.4662559e-02
 -1.7008002e-01
 -6.1269604e-02
 -3.7106942e-02
 -3.6069709e-01
 -3.1020170e-01
  5.2168399e-01
 -1.8364801e-01
 -3.1924734e-01
  1.5690319e-01
 -4.7472477e-01
 -1.3905708e-01
 -4.5657209e-01
 -3.0855930e-01
 -3.1507772e-01
  2.1745527e-01
  7.4723117e-02
 -4.3693684e-02
 -1.0477094e-01
  4.5688611e-02
 -8.7046814e-01
 -1.7640345e-01
 -2.6853618e-01
 -3.6093643e-01
  3.5941085e-01
  2.6322636e-01
 -3.5518306e-01
  1.7343155e-01
 -6.1502680e-03
 -5.1967937e-01
 -2.0057486e-01
  1.3898812e-01
 -5.4394168e-01
  1.5933081e+00
  1.7020492e-01
  1.8888185e-02
 -1.4182355e+00
 -5.5062801e-01
 -4.0959305e-01
  2.2983423e-01
 -2.6450083e-01
 -8.8989693e-01
 -3.3328059e-01
  7.7366330e-02
  1.2930527e-01
 -2.9444942e-01
  5.0649720e-01
  1.6295412e-01
  2.1643703e+00
 -1.0800067e-01
 -5.0735849e-01
 -2.8150627e-01
 -2.3893422e-01
 -1.4875685e-02
  3.2896259e-01
 -1.3388912e-01
  2.2796224e-01
  1.6967805e-01
 -2.9769638e-01
 -5.1232392e-01
  2.3123905e-01
 -2.5337548e+00
  2.8618246e-01
 -7.6101698e-02
  2.1746926e-01
 -1.5732966e-01
  7.6419532e-01
 -1.9438194e-01
  8.9018291e-01
  3.1924823e-01
 -9.8698366e-01
  1.0283450e+00
  1.4352296e-01
 -1.9294860e-02
  2.1622027e-01
  9.0057537e-02
  7.7873909e-01
  2.9088553e-02
  2.6326713e-01
 -6.4413077e-01
  1.7309001e-01
 -1.8366826e-01
  6.3376412e-02
  1.1291382e+00
 -7.9345143e-01
  5.4580438e-01
 -3.1536499e-01
 -3.2008883e-01
 -6.1146063e-01
  9.1648683e-02
 -3.4829634e-01
  2.3732309e+00
  1.9295628e-01
 -1.9635694e-01
 -6.8302548e-01
 -1.0173548e-01
  6.1782092e-01
 -7.9843676e-01
  2.0543651e-01
  1.1119897e+00
 -2.4019217e-01
  1.0957838e+00
 -1.3333741e+00
 -1.5138885e-01
 -1.9014822e-01
  3.9756444e-01
  4.6867311e-01
 -5.2365905e-01
  1.4322317e-01
 -3.5747862e-01
 -5.2133167e-01
 -6.8922281e-01
  2.0114568e-01
  1.9845107e-01
  1.8433104e-01
 -4.8985490e-01
  5.4422635e-01
 -2.0069154e-02
 -9.9135035e-01
  1.0726035e-01
  4.5645165e-01
  5.8871889e-01
  5.1326752e-02
 -1.7493308e-01
  2.2336845e-01
 -6.8615317e-02
 -7.3896557e-02
 -1.1614217e+00
 -8.1911189e-03
 -2.6829734e-01
 -4.0192586e-01
  1.7651781e-02
 -2.4402705e-01
 -2.6841667e-02
  2.8445837e-01
 -2.7150223e-01
  1.0020697e-01
 -7.2095168e-01
  3.4295177e-01
 -7.0691150e-01
  9.3684238e-01
  7.3230863e-02
 -1.6394117e-01
 -1.5157315e-01
 -1.3603634e-01
 -5.1470935e-01
 -5.4245919e-01
  4.3244135e-01
 -4.7471389e-01
  1.8091749e-01
 -1.3158358e+00
 -8.6940408e-01
 -2.6176652e-01
  6.2052506e-01
  2.3171914e-01
  3.7612449e-02
 -6.0702026e-01
  4.2655531e-02
 -1.2834063e-01
 -3.4298461e-02
 -1.2852379e+00
 -1.1629280e-01
 -5.9008169e-01
 -9.0261671e-04
  5.8165967e-02
 -3.1334158e-02
  4.9064136e-01
  6.7193758e-01
  5.5771790e-02
  3.0220550e-01
 -7.0100522e-01
  2.1375642e+00
 -2.4028128e-01
 -2.8867960e-01
  2.1941458e-01
  3.1399450e-01
 -8.9599395e-01
 -2.9980600e-01
  1.4977548e-01
  1.3287061e-01
 -3.4122276e-01
 -5.9588879e-01
 -3.2185566e-02
  1.1781591e+00
  1.1647346e-01
  6.8561316e-01
 -4.5672495e-02
 -3.2619286e-02
  2.2970388e-02
  1.7548642e-01
 -3.5049590e-01
  2.3952359e-01
  5.6248963e-01
 -3.5477707e-01
 -2.2608118e-01
  4.0290166e-02
  6.6752575e-02
 -1.1292729e-01
 -8.4290147e-01
 -6.1302441e-01
  9.3811817e-02
  4.4810649e-02
 -9.9889308e-02
 -6.0385340e-01
 -4.3645465e-01
 -5.6706518e-03
 -1.5825808e-02
 -3.9612625e-02
  1.9173166e-01
 -4.0079108e-01
 -1.8066911e-02
  1.1434054e-01
 -1.1433028e-01
 -1.6796254e-01
  3.9986959e-01
  1.1546046e-01
 -4.1727784e-01
 -2.7883288e-01
 -1.1543877e-01
 -2.4130847e-01
 -6.3790888e-01
  6.0326908e-02
 -1.5984438e-01
  2.9079864e+00
  2.9902164e-02
  2.2289722e-01
 -1.1807553e-01
 -8.8976383e-02
 -1.3445743e-02
 -5.8360016e-01
  2.1214594e-01
 -9.0398893e-02
  5.0722021e-01
  2.0425451e-01
  6.1801052e-01
 -8.3521640e-01
 -6.2492067e-01
 -2.4397260e-01
  2.4851175e-02
  3.2025736e-02
  7.7648830e-01
  3.1120189e-02
 -5.4412115e-01
 -2.7202699e-01
  1.3124362e-01
 -5.5126071e-01
  3.2531610e-01
  5.9633363e-02
 -8.7854452e-02
 -7.3818013e-02
  5.2757680e-01
  3.8006744e-01
 -9.4277877e-01
  1.0059652e-01
  9.3994659e-01
  4.3406334e-02
  1.9557847e-01
 -5.7079667e-01
  5.0252896e-02
 -1.3088277e-01
 -1.5620025e-01
 -3.5535219e-01
 -1.5135820e+00
 -1.9349954e-01
  4.9723852e-01
  6.2571742e-02
 -6.4244695e-02
  2.6466995e-01
 -2.6016399e-01
  3.4969980e-01
 -1.0745092e-01
  1.6910836e-01
 -5.5333948e-01
  2.9899204e-01
 -1.3059598e-01
 -8.6222249e-01
 -1.5596544e+00
 -1.1602492e+00
 -6.1637831e-01
 -3.4163883e-01
  3.0315235e-02
 -5.6331420e-01
 -2.5470385e-01
 -2.2070329e-01
  5.6267148e-01
  1.8615343e-01
  6.7901289e-01
  3.8505504e-01
 -6.2982664e-02
  3.1103566e-01
 -5.9969522e-02
 -2.8216630e-01
  5.1305288e-01
 -3.1122094e-01
 -1.3049030e-01
 -6.5672904e-02
 -2.8651571e-01
 -7.6348139e-03
  3.8045978e-03
  1.1424837e-01
 -1.7111853e-01
  5.6356949e-01
  1.7852451e-01
 -2.0117466e-01
 -1.2558070e-01
  1.0803670e-01
 -1.1926202e-01
 -6.0924792e-01
  1.3614058e-02
 -3.6839697e-01
  2.7028999e-01
  4.6195019e-02
 -2.2389378e-01
 -4.9913190e-02
 -5.0140923e-01
 -2.6033789e-01
  1.3562876e-01
  4.4794074e-01
 -4.7261596e-01
  2.8763097e-02
  6.7471594e-02
 -1.7297079e-01
 -8.9129341e-01
  1.1664859e+00
 -6.2306833e-01
  5.0641239e-02
  2.7025542e-01
  2.5686994e-01
 -5.5048925e-01
  4.3015365e-02
  7.3307097e-02
  5.5323851e-01
  1.2779416e-01
 -6.6426462e-01
  9.2201453e-01
  1.1526795e-01
  2.6511219e-01
  3.6293459e-01
  8.7531887e-02
  9.2265382e-02
 -3.6406562e-01
  5.5635649e-01
 -1.7022493e-01
 -1.2149459e-01
 -3.3013877e-01
  4.5134485e-02
 -4.9980131e-01
  1.6246140e-01
  2.3142885e-01
 -5.4010266e-01
 -1.0479396e-01
  5.0567698e-01
 -1.8671773e-01
  2.1144521e+00
 -3.0782423e+00
 -1.8729633e-01
  1.8542793e+00
  3.9524618e-01
 -4.4725066e-01
 -7.8719902e-01
 -3.1133470e-01
 -5.8312184e-01
 -6.3212955e-01
 -3.2437599e-01
  8.8458985e-02
 -1.1118091e+00
 -4.9736723e-01
  1.7564936e-01
  2.5286764e-01
 -1.6643539e-01
  1.1255867e-02
 -9.6363533e-01
 -3.4129569e-01
  3.8987631e-01
  6.8700099e-01
  5.1653385e-01
  2.4430588e-01
  3.9071206e-02
 -1.3141666e-01
  2.8924789e-02
  2.0169909e+00
  9.2366502e-02
  1.8357636e-01
 -4.2995136e-02
 -2.7754331e-01
 -1.9219575e-02
 -1.5975690e-01
  3.0456431e-02
  3.3830758e-02
 -2.3408610e-01
 -7.3455644e-01
  4.9547780e-02
 -6.8537170e-01
 -1.3656616e-01
  1.6188212e-01
 -7.1169323e-01
 -5.0273448e-01
  6.0641808e-03
 -1.2050852e-01
  2.2109091e-01
 -5.7830614e-01
  1.6040533e+00
  1.6323678e-01
  2.5920057e-01
 -7.8542054e-02
 -8.0258027e-02
 -1.8301660e-01
  4.5243770e-01
 -2.9882199e-01
  4.2263284e-01
  2.5172871e-01
  9.6215522e-01
 -3.0890983e-01
 -1.0554447e+00
 -5.4651782e-02
  9.5370764e-01
 -1.4194481e-01
  5.1985538e-01
 -3.0982379e-02
  2.0951225e-01
  2.0860411e-02
 -4.3181136e-01
  6.7460817e-01
 -1.3174164e-01
  5.1323962e-01
 -2.4962902e-01
  3.3420345e-01
 -1.3054685e-01
  3.2984701e-01
  3.2891887e-01
  3.1095631e-02
 -3.0134916e-01
  7.4996777e-02
  6.4839981e-02
 -2.2222775e-01
 -3.2191926e-01
 -2.4417032e-02
 -5.0604972e-03
  5.4378557e-01
 -1.3345979e-01
 -4.4453326e-01
 -2.1502553e-01
  3.0059052e-01
 -6.8274683e-01
 -2.5105342e-01
  2.0625246e-01
  3.5715264e-01
  7.5655329e-01
 -2.3189757e-02
  6.3114899e-01
 -1.2334264e-01
  1.0094157e+00
  6.1881434e-02
  1.7362162e-01
 -2.7286378e-01
  8.6472824e-02
  8.4670407e-01
 -8.5971676e-02
  3.6308516e-03
  3.9581895e-01
  1.2358471e-01
  7.1405137e-01
  4.6829289e-01
 -1.2638670e+00
  3.0221105e-01
 -5.4709293e-02
  8.0404180e-01
  2.7827892e-01
 -1.5152730e-01
 -1.5342847e-01
  3.3912279e-02
  2.2510976e-01
  4.6874565e-01
  1.2170049e+00
  2.9585938e+00
  9.4386244e-01
  3.3227286e-01
 -8.8793680e-02
  1.7205599e-01
 -3.1939130e-02
 -3.3948448e-01
 -9.8526910e-02
  2.1567304e-01
  5.9660900e-01
  3.8470793e-01
  1.4412005e-01
  1.2552233e-01
 -1.9364442e-01
 -3.2485045e-02
  1.5407990e-01
  6.6477144e-03
 -1.3717480e-01
 -3.1738889e-01
  4.2752826e-01
 -2.7219385e-01
 -7.8050733e-02
 -2.8351745e-01
 -2.2575437e-01
 -2.5988734e-01
  5.3817876e-02
 -2.0961102e-02
  3.2872688e-02
 -2.1846278e-01
 -5.7375121e-01
  1.4072833e+00
 -2.7192518e-02
  1.1705547e-01
  3.7185994e-01
  7.8564328e-01
  4.5596558e-01
 -2.3032394e-01
 -2.8001240e-01
  4.9738493e-02
  5.7195729e-01
  9.7946703e-02
 -1.0555733e-01
 -3.7450135e-01
 -2.5822207e-01
 -3.5176933e-01
  5.3538531e-01
  6.4808863e-01
 -3.4709677e-01
  6.2087715e-01
 -1.6025504e-02
  1.5153307e-01
 -6.6978312e-01
  2.3551573e-01
 -1.5568541e-01
 -3.5067129e-01
  3.4543134e-02
  1.9163686e-01
 -6.3931525e-02
 -1.0051041e-02
  1.1901066e+00
  7.0570773e-01
  3.9539281e-02
 -1.5823899e-01
  3.7337276e-01
  4.8885658e-01
 -3.6936422e-04
 -5.8829641e-01
  1.6756217e-01
 -3.4555152e-02
 -4.2034522e-02
 -3.4423205e-01
 -5.5843216e-01
  2.4250187e-01
 -1.5397540e-01
 -2.9744539e-01
  4.7336459e-01
 -3.7204576e-01
 -4.2197755e-01
 -6.4802343e-01
 -2.8575307e-01
  2.7076179e-01
  5.0839502e-01
  1.1260329e-01
 -9.4431537e-01
 -7.5038576e-01
  5.3444761e-01
 -3.5740551e-01
  2.7742869e-01
  1.2263403e+00
  1.7159071e+00
 -1.2375174e+00
  1.7069958e+00
 -1.8617171e-01
 -4.7587357e-02
  2.1665733e-01
 -1.9464988e-01
 -8.8597208e-01
 -1.8495226e-01
  2.2146723e+00
 -4.8238668e-01
 -1.2505727e+00
 -3.0597925e-01
  2.3614688e+00
  9.1015182e-02
  9.3041885e-01
  1.0663111e+00
 -2.4350980e-01
  1.7500926e+00
 -1.3032253e-03
 -2.0630944e-01
  5.1991141e-01
  3.8014182e-01
  3.1130235e+00
 -3.6229888e-01
 -3.2104805e-02
 -2.4367884e-01
  7.5827044e-01
 -4.0681392e-01
  1.0847959e-01
  3.3648178e-02
  2.1592188e+00
 -8.3774364e-01
 -9.0370551e-02
  1.7200315e-01
 -3.4789777e-01
  5.8508295e-01
 -1.5622051e-01
 -3.6130625e-01
  4.0253524e-02
 -5.6627419e-02
  2.9220983e-01
 -1.2659566e-01
 -4.1990355e-01
 -2.1005785e-01
 -1.0470787e+00
 -1.0551965e-01
 -3.8227540e-01
  1.1428647e-01
 -4.4636732e-01
 -5.7343978e-01
  4.3991455e-01
 -3.2993752e-01
  5.0644648e-01
  5.2964002e-01
  2.2421887e-02
  1.2866782e-01
  4.6716776e-02
 -1.2183890e-01
  3.8102591e+00
  4.7107670e-01
 -4.4304710e-02
  3.5411569e-01
 -1.3573954e+00
  2.9380450e-01
 -1.0182625e+00
 -5.3985673e-01
 -4.5414191e-02
 -2.5862196e-01
 -1.3805696e+00
 -5.6194359e-01
 -2.6379183e-01
  5.5709668e-02
  2.5891191e-01
 -2.1550889e+00
 -1.4091576e+00
  5.9184194e-01
  1.8823965e-01
  9.3014407e-01
  5.9082246e-01
 -3.4131405e+00
  5.7601058e-01
  2.3395433e+00
 -1.8088460e+00
  2.3399055e-01
 -4.8439631e-01
 -1.5233932e-01
 -1.8335769e-01
  4.6597824e-01
  2.2909911e-01
  6.9890939e-02
 -2.5114730e-01
 -2.8955206e-01
  2.4936017e-01
  2.4646947e-02
 -2.3805617e-01
 -6.4266235e-01
 -8.3969213e-02
  6.2878197e-01
 -2.4606360e-01
  7.4142873e-02
 -4.8643333e-01
  1.0181416e+00
 -7.7882344e-01
 -5.4940319e-01
 -5.9627807e-01
 -3.1562033e-01
 -2.8461874e-01
  9.4476193e-02
  4.5606223e-01
 -6.4468902e-01
 -4.0265375e-01
 -9.9618249e-02
 -5.8713857e-02
  4.5395933e-02
 -3.3552039e-01
 -5.5476623e-03
  3.0719927e-01
  1.5148439e-01
  5.1208246e-01
 -3.9859927e-01
 -4.3010098e-01
 -3.0537090e-01
 -1.9729519e-01
  3.2366350e-01
  2.6504524e-02
 -6.4885020e-02
 -2.1492317e-01
 -5.0930065e-01
 -5.5666202e-01
 -8.3802259e-01
  8.2954288e-02
  6.5410323e-02
 -7.5218558e-01
  1.3021775e-01
  1.4885495e-02
  2.6056632e-01
  2.8144658e-01
  2.3675604e+00
 -1.7813832e-01
 -2.2006455e-01
 -1.5992111e-02
 -4.5967400e-01
 -3.2024312e-01
 -3.2618508e-01
  1.8677263e-02
  4.5025989e-02
 -3.2403669e-01
 -1.1187115e-01
  5.4363811e-01
 -3.7394163e-01
  4.1216406e-01
  2.7413505e-01
 -5.7870656e-02
 -3.7067942e-02
 -6.4386097e-03
  1.3143443e-01
 -3.4875062e-01
 -3.5669500e-01
  8.8723218e-01
  6.8434842e-02
  2.1747439e-01
 -1.6990267e-01
  1.4134210e-01
 -7.4359335e-02
 -1.4629693e-01
  3.9222997e-01
  1.6255016e-02
  1.9692346e-01
 -1.2424831e-02
 -2.5178948e-01
 -3.9101335e-01
 -1.2321217e-01
  2.9099017e-01
 -1.9841291e-01
 -5.6790743e-02
 -2.0037766e-01
 -9.6940778e-02
 -4.3531495e-01
  3.1562870e+00
  2.6272591e-03
 -5.4189287e-02
  9.2288442e-02
  1.3914080e-01
  4.4046843e-01
  1.5507280e-02
  9.7550559e-01
  2.4563725e-01
  1.0946742e-02
  5.9336776e-01
  5.1237899e-01
  2.7056772e-01
  1.0172234e-02
 -5.9117049e-01
  2.1480264e-01
  1.3395306e+00
  7.3664993e-01
 -5.2892346e+00
 -6.0327720e-02
 -5.1438206e-01
 -1.9563681e-01
 -5.9705161e-02
  6.9011831e-01
  8.1682414e-01
  5.3031035e-02
 -2.6801530e-01
 -2.5042164e-01
  3.1493130e-01
 -2.2169886e+00
  2.3347527e-01
  9.9094652e-02
 -4.9191173e-02
  8.5582584e-02
  8.6822551e-01
 -2.2731459e-01
  7.7946448e-01
 -4.0811664e-01
 -1.3682672e-02
  1.1751175e-01
  4.5277711e-02
  2.7773601e-01
  2.6505154e-01
  2.7040508e-01
  5.7478711e-02
  3.3003417e-01
  3.4216907e-02
 -4.2773098e-01
  3.8055582e-03
 -4.4860566e-01
  1.1645170e-02
 -1.9124587e-01
 -7.3769152e-02
 -7.8460258e-01
 -1.6278003e-01
  4.1268215e-01
 -1.2357866e+00
  1.7945282e-01
  5.0644654e-01
 -1.5196823e+00
 -4.2063278e-01
  6.6721362e-01
 -3.2932276e-01
 -3.8844967e-01
 -7.6144099e-02
  5.2273482e-01
  2.2643314e-01
 -1.2678866e-02
 -5.9350491e-01
 -2.4200678e-01
 -5.3489131e-01
 -5.3213513e-01
 -3.3718765e-01
  7.1729743e-01
  3.6603877e-01
  2.5616471e-02
 -1.4160146e-01
 -7.2885364e-01
 -3.7876728e-01
 -4.3897727e-01
  3.7284088e-01
 -3.2843864e-01
  4.3557310e-01
 -3.1238639e-01
 -1.3693423e-02
 -2.6700124e-01
  2.5896460e-01
 -4.3891793e-01
 -2.6817279e-02
  1.8196782e-01
 -4.5812175e-01
  2.5734899e-03
 -1.2984030e-01
  2.3865314e-01
 -4.6520811e-02
 -6.5252864e-01
  7.0704378e-02
  6.5161902e-01
 -8.7614202e-01
  3.1848577e-01
 -5.7195371e-01
 -1.1013734e+00
 -2.5129086e-01
 -2.8257492e-01
  6.2636994e-03
  3.4573600e-01
 -1.9372437e-02
 -2.6889738e-01
 -2.0835812e-01
  1.8412144e-01
  1.3044031e+00
 -4.0282536e-01
  3.0332890e-01
 -1.3584308e-01
 -4.2050816e-02
  3.9000526e-01
 -2.4257430e-01
  3.3144864e-01
  1.5645896e-01
  8.9316085e-02
  2.6872325e-01
 -2.5495620e+00
  8.8531601e-01
 -4.8586884e-01
 -2.9699195e-02
  3.0740583e-01
  1.8651150e-01
 -1.3857082e-01
 -4.3003303e-01
  3.8312384e-01
 -6.4741713e-01
  2.9728213e-01
 -5.7017279e-01
  1.7396511e-01
  3.2332051e-01
 -7.2727871e-01
  1.3220426e-01
 -1.1494433e+00
  3.2018528e-03
  6.6932642e-01
 -9.7400963e-01
 -1.0253339e+00
 -3.3937570e-01
 -1.5044054e-02
 -8.9620894e-01
  5.9245121e-01
 -7.5887769e-01
 -3.7299097e-01
  1.4754850e-01
  1.7149571e-01
 -1.6043520e-01
 -1.3833873e-01
 -4.5064762e-01
  4.7583017e-02
  1.9955240e-01
 -7.0176476e-01
 -2.6698558e-02
 -3.9322597e-01
 -1.0650031e-01
 -2.7454564e-01
  5.2560404e-02
 -7.9699017e-02
  1.9830494e-01
  3.2490385e-01
  9.1821331e-01
 -2.3216791e-01
  1.0575330e-01
  2.5829252e-02
  4.7988884e-02
  1.7759797e-01
  2.2784640e-01
  3.2283536e-01
  1.4675763e-01
  8.8938415e-01
  4.2299637e-01
 -9.8412428e-03
 -6.2936246e-01
  4.5690128e-01
 -1.1729731e-02
  2.9417169e-01
 -7.5052887e-02
 -7.9398793e-01
  1.9688249e+00
 -8.5590625e-01
  4.3135694e-01
  5.7684392e-01
  5.7158011e-01
  3.1002733e-01
 -4.6770489e-01
  1.6323273e-01
 -2.2534052e-02
 -2.1108069e-01
 -2.1159928e-01
 -7.3951578e-01
  1.2399858e+00
  3.2877393e-02
 -1.5387112e-02
  2.7830219e-01
 -2.5300407e-01
 -2.0198934e-02
  1.2423111e-01
  2.6976071e-02
 -3.4551809e-05
  1.7844529e-01
 -4.3205363e-01
  1.0531079e-01
 -8.9211226e-02
  2.6801446e-01
  3.8093364e-01
  3.9577836e-01
  9.8388366e-02
  3.8830745e-01
 -1.2937798e-01
  3.3904219e-01
 -2.6355684e-01
  1.3554733e-01
  2.8182279e-02
 -4.3843311e-01
  1.6047081e-01
 -1.0247264e+00
 -2.7087200e-01
  3.0682817e-01
  4.7702053e-01
  4.2718220e-01
  5.4684784e-02
  2.9280886e-01
 -4.2381865e-01
  4.2984906e-01
  2.0289046e-01
  6.3446172e-02
 -5.0251323e-01
 -7.9518311e-02
  2.6382547e-02
 -6.1467174e-03
  3.1768051e-01
  4.3700770e-01
 -4.4108001e-03
 -3.6340836e-01
  2.3347826e-01
 -7.2335541e-02
  1.5547507e-01
 -1.8361546e-01
  4.3432638e-01
 -5.8782786e-01
 -2.4813269e-01
  2.3383727e-02
  4.8393759e-01
  7.9667217e-01
 -2.1606784e-02
 -4.2307884e-01
 -1.3668576e-01
 -3.0384934e-01
 -2.1043530e-01
  6.1947823e-01
 -2.9005325e-01
  1.2091476e-01
  4.9145088e-02
 -5.7701100e-02
  1.0206401e-01
  2.5169814e-01
  1.4925873e-01
 -7.8371346e-01
  9.2241175e-02
  1.0901259e-01
  1.3936676e-01
  3.3505389e-01
 -6.4728117e-01
  1.7931634e-01
  4.9265224e-01
 -1.9080016e-01
  5.6303844e-02
  2.1200643e-01
 -3.8968429e-02
  1.7110777e-01
 -1.9097447e+00
 -1.9943550e-01
 -2.0222642e-01
 -8.7957956e-02
  1.0437591e-01
  8.0869414e-02
  6.8670356e-01
 -1.0717411e-01
 -5.3313851e-02
  3.4877771e-01
 -1.9727209e-01
 -4.8864193e-02
  2.6532426e-01
  1.3936467e-01
  1.7218548e-01
 -1.7986465e-01
 -2.7987579e-01
 -2.9328716e-01
 -3.3155334e-01
 -3.1760249e-01
 -1.6331938e-01
 -4.7539007e-02
 -4.0302885e-01
 -3.5392067e-01
 -4.1337278e-02
  3.2112345e-01
  8.3501297e-01
  7.8691536e-01
 -1.5490773e+00
  3.0962867e-01
 -3.8365841e-01
  4.9290497e-02
  2.4477388e-01
 -2.5664869e-01
  2.2570708e-01
  7.3454088e-01
  1.3663340e+00
 -6.5493429e-01
  1.1381245e-01
  7.5230145e-01
 -3.7441665e-01
  2.1765126e-01
 -1.9891740e-01
  3.6697707e-01
 -3.5921109e-01
  3.4669864e-01
  3.0490369e-02
  7.1270353e-01
 -9.9408776e-02
  4.6762404e-01
  1.1714494e+00
  4.4569710e-01
 -2.6436594e-01
  1.7868316e-01
  5.9933234e-02
 -5.4863691e-02
 -4.8881039e-02
  6.2823147e-01
 -4.5191243e-01
 -1.0207947e-01
  7.8579915e-01
 -2.5930494e-01
 -4.3988267e-01
  9.2887580e-01
 -1.6995926e-01
  1.8667841e-01
  1.1904480e-01
  6.0394716e-01
  1.9634457e-01
  3.8984719e-01
 -6.7931496e-02
 -2.2000659e-01
  1.2424538e-01
 -2.3268621e-02
  7.4072564e-01
 -1.4316209e-01
 -6.2548697e-01
  7.3018962e-01
 -2.4337023e-02
  3.8280375e-02
  1.2319411e-01
 -3.6063659e-01
 -2.6027117e-02
  6.7205691e-01
 -8.5746765e-01
  9.5345616e-02
 -4.5194816e-02
 -1.7208086e-01
  1.5873022e-01
 -3.2932630e-01
 -5.8594972e-01
  3.2906312e-01
 -6.1899149e-01
 -2.5799051e-01
 -4.9657416e-02
 -1.4194497e-01
  4.2147586e-01
  9.4881289e-02
  4.0535249e-02
 -5.5465138e-01
  1.2675019e-01
 -2.6624930e-01
  5.9003019e-01
  2.0907398e-02
 -9.6912257e-02
  1.8933202e-01
  2.1678169e-01
  2.7697626e-01
  3.0341241e-01
 -1.0525877e-01
  1.2633924e+00
  5.2809209e-01
  2.0539168e-01
 -2.3981687e-01
  3.5515755e-01
 -1.3275997e-02
 -4.5051923e-01
 -2.2213309e-01
  6.7405272e-01
  5.9591246e-01
 -1.6122341e-02
 -1.6447839e-01
  7.2669774e-02
  9.5769405e-02
  4.3408215e-01
 -2.3797423e-01
 -3.7920573e-03
 -2.6544434e-01
  5.5269456e-01
  5.1658159e-01
 -1.8433467e-01
  4.9801271e-02
  1.7000444e+00
 -2.9183878e-02
 -2.0345742e-02
 -1.6262832e-01
  3.5713416e-01
 -1.7061770e-01
  4.2828880e-02
 -1.6586252e-01
 -2.9102426e-02
 -1.6092220e-01
  5.6723458e-01
 -1.0563011e-01
  1.8148522e-01
  1.7882228e-01
  6.4151317e-02
  1.8320234e-02
 -1.0751314e-01
  4.7330084e-01
 -2.9134399e-01
  3.9868668e-01
 -2.6062143e-01
  1.6743019e-02
 -8.1670815e-01
  2.6430354e-01
 -1.3903038e-01
 -9.8262018e-01
  3.0179188e-01
  2.3602736e-01
 -4.7704133e-01
 -7.5352806e-01
 -3.7363376e-02
 -4.7768927e-01
  1.1053131e+00
  3.0870277e-02
 -4.3601868e-01
 -1.5622291e-01
  4.2004535e-01
 -6.9598144e-01
 -5.3885537e-01
 -8.5652596e-01
 -2.2344446e-02
 -2.8175628e-01
 -2.6095191e-02
 -1.6253306e-01
  6.9172758e-01
 -1.1686401e+00
 -9.0891171e-01
  2.2502430e-01
 -4.0556130e+00
  1.5242002e-02
 -3.7104845e-02
  3.9270934e-01
  1.4543392e-01
 -3.7633455e-01
  5.4936367e-01
 -3.0850312e-02
  7.4501801e-01
  1.6830774e-01
  4.7469908e-01
 -2.4181198e-01
  2.4582286e-01
  2.9841423e-01
 -1.2802660e-01
 -1.9859639e-01
  3.8089171e-01
  8.4322199e-02
 -3.2082030e-01
  6.0186118e-01
 -2.7354041e-01
 -8.1982184e-03
 -6.6481656e-01
 -2.5904545e-01
  1.1287907e-01
 -1.5925787e-01
 -2.6537740e-01
  8.6827332e-01
  5.6654787e-01
 -8.0654375e-02
  1.4246794e+00
  1.3509557e+00
 -1.4945905e-01
 -1.8380062e-01
 -1.5830307e-01
 -7.2372593e-02
 -3.3262479e+00
 -6.7380100e-01
 -2.1904403e-01
  9.4350660e-01
  3.4223738e-01
  1.8897595e+00
 -7.1287340e-01
  1.8225645e+00
  9.2192912e-01
  2.8865820e-01
 -1.3291885e-01
  2.4488308e+00
 -5.8073997e-01
  3.5123706e-01
  4.8675573e-01
 -3.2679611e-01
 -9.5190845e-02
  2.7789330e-01
  6.5861070e-01
  6.7967790e-01
 -9.6557774e-03
 -5.3821582e-01
 -2.5904555e+00
  8.5612088e-01
  4.5659962e-01
 -9.1824859e-01
 -6.4695947e-02
 -5.5276150e-01
  4.0111703e-01
 -4.3183941e-01
 -9.9896151e-01
 -1.0909044e-01
  3.5905829e-01
  1.8897891e-01
  1.0987402e+00
 -4.1594371e-02
 -5.8151430e-01
 -2.1836340e-01
  2.6840535e-01
  6.4832675e-01
 -2.9795086e-01
 -2.7081636e-01
 -5.2912402e-01
 -1.5031447e-01
  2.0503125e-01
  1.5991320e-01
  1.3956021e-01
  1.2513283e-01
 -2.2009592e-01
  4.8214916e-02
 -4.7390008e-01
  4.9279682e-02
  6.3071364e-01
  2.6465946e-01
  1.4956655e-01
 -4.3054026e-01
 -4.9062468e-02
  2.6089642e-02
 -1.0679735e+00
  1.6680348e-01
  9.0961650e-02
  3.1862423e-01
 -3.9947044e-02
  4.6072262e-03
 -1.6491093e-02
 -4.0141988e-01
 -8.5810393e-02
  1.1820742e-01
  2.9531941e-01
 -1.7022002e-01
  1.1793506e+00
 -1.6587441e-01
 -2.7207017e-01
  8.0330662e-02
  3.0726025e-01
 -1.0531224e+00
  1.2916115e-01
  4.5529582e-02
 -4.4477302e-01
  5.2588064e-02
 -2.1234249e-01
 -8.0627687e-02
  8.6075962e-02
  7.0974761e-01
  7.0539886e-01
  7.2763160e-02
  6.3493275e-03
 -1.2541083e-01
 -2.1691114e-01
  3.1850564e-01
 -6.5315378e-01
 -3.7938225e-01
 -1.2020999e-01
  2.0618458e-01
  1.0443822e-01
 -3.0121651e-01
  3.3459697e-02
 -2.6444629e-01
 -1.6593994e-01
 -5.4687396e-02
 -1.2311893e-01
  1.1334794e-02
 -4.1407117e-01
  2.1760057e-01
 -4.3018521e-03
 -3.6676064e-01
 -2.6590624e-01
 -5.7242889e-02
  1.0012127e-01
  3.1395651e-02
 -2.2086388e-01
 -6.2870675e-01
 -4.0449870e-01
  3.0346820e-01
 -3.9858264e-01
  3.8111687e-01
  2.7622987e-02
  7.7946353e-01
  2.6338484e-02
  7.4838616e-02
  4.5254579e-01
  7.9267663e-01
 -2.6426494e-01
  2.6025779e+00
 -4.5313981e-01
  4.4573534e-01
  5.9490919e-01
  5.0258803e-01
 -1.8119978e-02
 -3.1578951e-02
  1.6724141e-01
  1.7400602e-02
  1.0403819e+00
  4.8388168e-01
  3.7176169e-02
  7.2581893e-01
 -3.0838513e-01
 -1.1138029e-01
 -1.4161992e+00
  2.8106919e-01
 -8.0166674e-01
 -1.9685969e-02
  3.5229203e-01
 -4.8263397e-04
  9.7262394e-01
 -1.1627702e-01
  3.5581598e-01
 -1.5023042e-01
 -1.3203099e-01
 -1.2555155e-01
  1.4532034e-01
 -3.0025759e+00
  9.1948785e-02
 -2.0511895e-01
 -8.5722715e-01
 -4.3696183e-01
 -3.1829447e-01
 -8.6952895e-01
  3.9613622e-01
  4.6260464e-01
  2.7227181e-01
  3.8087657e-01
  4.1164911e-01
  9.0862018e-01
 -6.6029197e-01
 -3.5285953e-01
  1.6759549e+00
 -4.6591273e-01
 -1.1018175e-01
  2.5425214e-01
 -1.7321032e-01
  1.7424353e-03
 -4.1128673e-02
  2.1967837e-01
 -8.7590151e-02
 -5.4184228e-02
  3.8243166e-01
 -2.3168904e-01
  8.4603630e-02
  5.4945618e-01
  6.1216748e-01
 -1.9148958e-01
  1.0554955e+00
  6.2442338e-03
  1.5036684e-01
  1.5448561e-01
 -4.4417173e-01
  1.3193880e-01
 -3.8024403e-02
 -3.3488879e-01
  1.9286998e-01
  7.0059496e-01
 -9.2328221e-02
  9.4471860e-01
  6.0367888e-01
  3.6026651e-01
 -1.2650158e+00
 -3.0325297e-01
 -6.7583346e-01
 -1.0498644e-01
 -4.3885872e-01
 -5.3043603e-03
  2.6576066e-01
 -1.9911027e-02
  3.0954918e-01
 -5.0896242e-02
 -2.0662773e-01
  4.2139003e-01
  5.9024346e-01
 -2.9450394e-02
  2.6449418e-01
  4.8718309e-01
 -1.1035614e+00
  1.7340127e-01
 -7.7157128e-01
 -9.3800086e-01
 -8.7030911e-01
 -8.3360231e-01
 -1.1628350e+00
 -9.6048343e-01
  7.0658280e-03
 -4.9050507e-01
 -6.5548265e-01
  1.7538960e-01
  1.4640121e-01
  4.3072733e-01
  2.1562584e-02
 -2.9548195e-01
 -8.7427533e-01
 -1.0483862e-01
 -1.2880284e-01
  2.3047304e-01
 -4.5829192e-01
 -1.0501865e-01
 -3.3533886e-01
 -6.3041687e-01
 -5.7449496e-01
  2.1429776e-01
  4.1076735e-01
 -4.0551159e-01
  5.1782664e-02
  2.0516999e+00
  1.8695323e+00
  1.2152794e-01
  2.2869404e-01
 -6.3615978e-02
  1.5951255e-02
 -1.7008212e-01
  1.7109451e+00
  7.1893565e-02
  3.2814258e-01
 -8.8842139e-02
  4.3887055e-01
  2.5864321e-01
  2.5271007e-01
 -4.6570539e-01
  8.0932045e-01
 -2.6308393e+00
  2.7730179e-01
  2.1731742e-01
 -5.2090216e-02
 -7.4407294e-02
  1.0938789e-01
  1.9104955e-01
 -5.0766456e-01
 -8.1011608e-02
 -7.1384452e-02
 -2.5965241e-01
 -1.3534230e-01
  1.9941166e-01
 -9.9495262e-02
  7.3464644e-01
 -3.7169257e-01
 -7.6965094e-02
 -6.0715139e-02
 -2.8445101e-01
  5.5579764e-01
  5.6452036e-02
 -1.1494955e-01
  2.1825725e-02
 -7.5789653e-02
  4.7371295e-01
  2.5527677e-01
 -2.8376475e-01
  5.0172901e-01
 -6.3459891e-01
  3.3547199e-01
 -6.7286688e-01
 -1.2388095e-01
  1.7986390e-01
  1.6806987e-01
  1.9131774e-01
 -1.2879233e-01
 -8.7712193e-01
  3.5598311e-01
  3.9982724e-01
 -2.1965158e+00
  9.2495725e-02
  1.8890741e-01
 -2.2091450e-02
  4.3844178e-01
  3.4749743e-02
  5.9715301e-01
  9.8297924e-01
  1.8874819e+00
 -5.9987301e-01
  8.4957945e-01
 -1.3510731e+00
 -6.3600403e-01
  2.1755889e-01
 -4.9215490e-01
 -6.5551895e-01
 -6.1240220e-01
 -7.5906001e-02
  5.1136988e-01
 -2.6180118e-01
 -3.5691154e-01
 -1.9281210e-01
  5.0603694e-01
  2.6634875e-01
  1.5160911e+00
  7.8109819e-01
 -4.4987586e-01
 -6.2353498e-01
 -2.4458672e-01
  3.2021421e-01
 -9.6014582e-02
 -1.9670112e-01
  4.0610692e-01
 -9.0553731e-02
 -8.2273239e-01
  3.6928186e-01
 -4.7208810e-01
  9.4525442e-03
  6.3750422e-01
  6.2588710e-01
  4.6578449e-01
  5.9122808e-02
  7.8428470e-02
 -6.6576678e-01
 -1.2224249e+00
 -1.3899399e-01
  4.6634308e-01
  1.0437168e-01
  3.0707282e-01
 -2.5000576e-02
 -1.6828753e-01
  7.5262636e-02
 -4.2272466e-01
  2.4798234e-01
  2.8914943e-01
 -1.5897283e-01
 -6.9891316e-01
 -1.5597438e-02
  1.2100699e-01
 -4.1919805e-02
  6.7817658e-02
 -7.6849794e-01
 -9.1846295e-02
 -5.2646399e-01
  1.0208166e-01
  1.5658851e-01
  6.5934341e-03
 -3.5878623e-01
  7.2752428e-01
  1.4961103e-01
  4.0651432e-01
 -3.7605298e-01
  6.1742812e-01
 -1.8141085e-02
 -2.4042223e-01
  2.2204978e-02
 -2.1680023e-01
 -2.3434520e-01
  6.5531403e-01
  6.5496929e-02
 -3.8552591e-01
  1.1503545e-01
  2.5301403e-01
  5.3291887e-02
 -8.4546037e-02
  9.5870823e-02
  1.4644781e-02
 -9.8656285e-01
  5.0806749e-01
  1.5499526e-01
  4.1095278e-01
 -3.0271599e-01
  3.8752407e-01
 -3.1404316e-01
 -1.9624384e-01
  2.5963551e-01
  4.6725628e-01
 -6.0878377e-02
 -8.0568992e-02
  3.3134958e-01
  5.1777959e+00
  4.1416980e-02
  1.5065142e+00
  1.1860197e+00
 -3.5586663e-02
  7.4709022e-01
 -7.1516730e-02
 -2.6491988e-01
  1.4390115e-01
 -1.9500808e-01
  6.0155010e-01
 -2.5615081e-01
  4.7184467e-01
 -5.0749216e-02
  3.1573373e-01
  9.0893842e-02
  2.0684654e-01
  1.2361119e-01
  3.1409648e-01
 -8.2571501e-01
  8.6396086e-01
  2.4021100e-03
 -2.5559065e-01
 -2.2432452e-01
 -1.3923259e-01
  6.1130452e-01
 -9.0864941e-02
 -6.1882138e-01
  1.2127220e-01
  1.4997799e-02
 -3.8254908e-01
 -1.0025536e-01
 -1.3464999e-01
 -2.3265835e-03
  1.3418017e-01
  5.3965861e-01
  2.4067374e-02
 -1.0093168e-01
 -3.5084146e-01
  1.5266843e-01
 -5.3728120e-03
  2.5261211e-01
  1.4970586e-01
 -5.8410418e-01
 -3.3996662e-01
  1.8163432e-01
 -5.2632785e-01
  9.8951161e-02
  5.2369875e-01
  6.7661181e-02
 -5.2909100e-01
 -9.4505626e-01
  6.7700297e-02
  3.1667489e-01
  5.6289643e-01
  5.1724744e-01
  1.2316068e-01
 -5.6347346e-01
 -1.8633395e-01
 -2.1516387e-01
  2.7487397e-01
  3.7414312e-01
  4.5720038e-01
  2.1517847e-02
 -5.7760615e-02
  9.3208587e-01
  3.5625497e-01
 -1.2511128e-01
  3.3839476e-01
  5.7719749e-01
  1.6235505e-01
  9.7565390e-02
  1.6627616e-01
 -4.9573340e-02
 -1.6452336e-01
 -2.8893441e-01
  2.8222504e-01
  4.0768716e-02
 -6.1371107e-02
 -3.9311928e-01
  1.5111189e-01
  1.6410075e-02
  4.3287396e-01
 -1.7675908e-01
 -1.9905578e-01
 -3.5314360e+00
 -9.1287354e-04
 -1.2573406e-01
  1.1334369e-01
  1.6632092e-01
 -1.1955273e+00
 -1.1347726e-01
  5.9036225e-01
 -1.6337937e-01
  1.0662660e-01
  4.2997512e-01
 -4.4196185e-01
 -5.1521394e-02
  1.0816183e-01
  1.2113171e-01
 -8.3436929e-02
  2.4822803e-02
 -4.8776987e-01
  2.0497642e-01
 -1.7118683e-01
  1.0055321e-01
  1.2834293e+00
 -1.9217160e-01
 -9.2016309e-02
  4.9068254e-01
 -2.4470012e-01
 -4.6174046e-02
  4.1981612e-04
  1.9086951e-01
 -7.3587447e-01
  1.7821170e-01
 -8.5075259e-02
 -1.1269018e-01
 -3.5843987e-02
 -6.2569894e-02
  2.5132862e-01
 -3.2605699e-01
 -4.8244637e-01
 -1.1557791e+00
  4.5996770e-01
  2.5501847e-01
  2.9320104e-02
  2.0517608e-02
  3.5056600e-01
 -1.4429447e-01
  6.2388361e-02
 -2.5430292e-01
  9.4624469e-03
 -1.9841994e-01
 -2.2970463e-01
 -9.3260251e-02
 -3.8076398e-01
  2.5980115e-01
  5.2801915e-02
 -5.6718922e-01
 -4.3454862e-01
  5.2152026e-01
  6.8766907e-02
 -1.3525674e-01
  2.5205049e-01
 -1.1681404e+00
 -1.7439954e+00
 -3.2877699e-01
  4.5447513e-02
 -5.8283621e-01
 -3.2495506e+00
 -1.9674067e+00
 -1.2148114e-01
 -1.8311325e-01
  1.7454676e-01
 -7.2715175e-01
  2.7365547e-01
 -9.4732858e-02
  4.2632234e-01
 -3.5377484e-02
 -1.9940255e+00
  3.1064892e-02
 -2.5583515e+00
 -2.3168392e-02
  1.2691494e+00
  4.7770151e-01
  8.3122529e-02
 -4.0353220e-03
 -4.3422779e-01
 -7.9784907e-02
 -4.1784373e-01
 -5.5142468e-01
 -1.7960440e+00
  2.4677342e-01
 -4.6944580e+00
 -1.1581691e-01
  8.3481324e-01
 -8.5989481e-01
  1.4635735e+00
 -1.1577847e+00
  3.0969636e+00
 -3.1126210e-01
 -1.7808727e+00
 -1.6923870e+00
 -7.7442932e-01
  5.1135176e-01
  1.0522223e-01
  2.7796938e+00
 -9.9891299e-01
  1.2880963e-01
  2.6183397e-01
  5.1843721e-02
 -1.6501011e+00
  2.6163605e-01
 -1.1037841e-02
 -3.3052689e-01
 -5.3613728e-01
  1.1316184e-01
 -4.6631142e-01
 -6.4519906e-01
  3.2597274e-01
 -4.7310406e-01
  5.0002581e-01
 -2.0608090e-01
  3.7391213e-01
  2.2696902e-01
  1.4053814e-01
 -1.0063624e-01
 -1.8552002e-01
  2.4710402e-01
 -2.7996787e-01
  2.6529676e-01
 -1.9407463e-01
 -1.8282194e-01
  2.0858368e-01
 -1.1664902e-01
 -3.8694270e-02
  3.9977413e-01
  4.8583015e-03
  3.3191521e-02
 -2.4648030e-01
 -6.0843897e-01
  2.6085770e-01
 -1.8267345e-02
  1.0489779e-01
  3.7660265e-01
 -2.0406292e-01
 -6.4797699e-02
  6.4038479e-01
 -7.3890847e-01
 -4.3098760e-01
 -2.5449741e-01
 -9.3131073e-02
  1.5938666e-01
  1.0681568e+00
  9.7340065e-01
  3.4966633e-01
 -3.4761736e-01
  8.3633536e-01
  1.0151969e-01
  1.2174174e-01
  2.6002854e-02
  7.9622483e-03
 -1.0802332e-01
 -3.0016288e-01
 -3.0997273e-01
 -5.8593380e-01
 -2.1353669e-01
 -5.9225065e-01
  5.5660462e-01
 -1.0699298e-01
 -4.4994435e-01
 -4.5488667e-01
 -5.0244391e-01
  1.0052398e-01
 -5.3033316e-01
  9.8517381e-02
  2.5139111e-01
 -5.7175738e-01
  3.7117535e-01
 -1.5533787e-01
  6.1583251e-01
  7.1926254e-01
  9.9490255e-01
  9.0395075e-01
 -9.4141334e-02
  4.3726769e-01
 -1.5290988e-02
  3.2833643e-02
  3.0701879e-02
  1.3028679e+00
  4.0231472e-01
 -1.3042180e-01
 -4.1746661e-01
  5.8526853e-03
  1.5532088e-02
  9.8516935e-01
 -4.3047997e-01
  6.6738641e-01
 -1.4622317e-01
 -4.2770255e-01
  2.4609405e-01
 -5.2487671e-01
  2.3820232e-01
  2.2821145e-01
 -9.4201043e-02
 -7.8646883e-02
 -4.7252241e-01
  2.2409211e-01
  1.1178512e-01
 -1.1134369e+00
 -3.1935132e-01
  2.0408300e-01
  2.4320749e-03
  2.0216867e-02
  4.8925735e-02
 -2.9409048e-01
 -1.8384795e+00
 -1.1563997e+00
  3.2139316e-01
  4.7495846e-02
  2.8870720e-01
  3.4751377e-01
  5.7906801e-01
  4.4342613e-01
 -4.5072678e-02
 -7.7075966e-02
 -2.7187046e-01
  2.2514422e-01
 -1.1543571e+00
 -5.0392658e-01
  4.2475429e-01
 -1.6265875e-01
 -1.2041197e+00
  7.5690675e-01
  6.5561956e-01
 -2.5991374e-01
  4.8054662e-02
 -7.6321691e-01
 -1.3691206e-01
 -4.5885307e-01
 -2.1601142e-01
 -5.3172834e-02
 -1.9825810e-01
 -1.8021582e-01
 -2.7265552e-01
  1.5623578e-02
  6.0434308e-02
  1.3486721e-01
  5.5522166e-02
  1.8725109e-01
 -6.3491754e-02
  2.8975445e-01
  4.8099819e-01
  5.5143625e-01
 -1.9933540e-01
  2.1575846e-01
 -1.3394628e-01
  9.9711478e-02
  1.8204795e-01
 -1.0339680e-01
 -2.6999090e-02
  2.2825694e-02
 -1.1683971e-01
  3.2950963e-03
  6.1472434e-01
  5.9341598e-01
  2.1985210e-01
  6.1831471e-02
  8.4167503e-02
 -9.5951182e-01
  1.9758591e-01
 -8.1217831e-01
 -6.4198881e-01
  8.3411701e-02
 -3.3174196e-01
  3.6366680e-01
  1.2482699e-01
  1.1218618e-01
 -8.8821441e-02
  6.9912231e-01
  2.2097404e-01
 -5.7397723e-01
 -5.1514190e-01
 -8.0388677e-01
 -7.5719751e-02
  3.5807248e-02
  5.2331167e-01
  1.1945836e-01
 -5.2902782e-01
  2.3363275e-02
 -3.4744373e-01
  6.6598713e-02
 -4.6440047e-01
 -2.7418789e-01
 -3.6027914e-01
  2.8687242e-01
  1.4978768e-01
  4.1793320e-01
  5.4613829e-02
 -7.8947145e-01
  4.8833489e-02
 -3.3740455e-01
 -1.2335656e-02
  5.6191361e-01
 -7.3115200e-02
 -1.5557811e+00
 -2.5038898e-01
 -1.6039675e-02
  1.6370046e-01
  2.7737625e-02
  1.7642850e-01
  5.3622806e-01
 -9.8762560e-01
  1.3643260e-01
 -8.5653588e-02
  2.6330149e-01
  2.6404541e+00
  1.8382059e-01
 -4.2111039e-01
 -5.3666550e-01
  2.8381057e+00
 -2.8539258e-01
 -4.7662345e-01
 -2.7829612e-02
  3.2895359e-01
 -5.4223915e-03
  2.8767092e-02
 -3.2267381e-02
  1.7456944e-01
  9.3253374e-02
  2.1477976e+00
  3.3837192e-02
 -8.1577554e-02
  1.4671788e-01
 -8.9956194e-02
 -2.2900115e-01
 -1.2335229e-01
 -4.7575003e-01
 -2.0209090e-01
 -6.7855746e-01
  5.9807944e-01
 -7.8840032e-02
 -4.0559378e-01
 -6.0003352e-01
  3.1250212e-01
  5.2278984e-01
  2.0992862e-01
  2.9261661e-01
  1.5206340e-01
  5.2866459e-01
  2.3868462e-01
 -2.4023777e-01
  8.2941586e-01
 -2.1302845e-01
  3.1040105e-01
 -1.6684833e-01
 -6.1781871e-01
 -1.7965059e-01
  1.4466856e-01
  5.1199353e-01
  3.2096211e-02
  4.1464037e-01
  2.1251244e-03
 -2.2060416e+00
  1.9359221e+00
  1.3216131e+00
 -8.0435985e-01
  1.6190813e+00
  1.3402277e+00
  2.3068690e+00
 -1.6574113e-01
  1.1453691e-01
 -1.7480576e-02
 -6.5043873e-01
 -5.9485787e-01
  4.7771625e-02
  5.2856356e-01
  6.5551624e-02
 -6.7027122e-01
  4.4102460e-01
  2.5667021e-01
  5.3390568e-01
 -1.1697673e+00
 -1.9291039e+00
 -2.0440796e-01
 -1.2799516e-02
 -4.7341132e-01
 -9.7719267e-02
 -7.1943678e-02
 -2.1007033e-01
  5.7993811e-01
 -6.6792995e-02
  2.8093556e-01
 -3.8447705e-01
 -2.8634058e-02
  5.0785601e-01
  4.3905762e-01
  9.6564911e-02
 -1.5445256e-01
 -8.8905849e-02
  2.0501217e-01
  5.2856266e-01
 -1.9493696e-01
 -9.5936038e-02
  4.1442400e-01
 -4.2628802e-02
  3.9809164e-01
  3.7357301e-01
 -2.2427300e-02
 -3.4918031e-01
 -2.5322431e-01
  7.4505150e-01
 -4.6824592e-01
 -1.0747586e-02
  1.9018565e-01
 -1.6798481e-01
  1.0570074e-01
  3.7515673e-01
 -2.1216418e-01
 -4.5208678e-01
  3.2008314e-01
 -7.1523227e-02
 -3.1442004e-01
  5.5882156e-01
  2.1706492e-01
 -4.7581819e-01
  1.5212277e-01
 -1.6503741e-01
 -1.5949780e-02
  8.4318556e-02
  5.6936495e-02
 -1.6572201e-01
  1.6323823e-01
  7.7119929e-01
 -2.9266340e-01
 -3.0543119e-01
 -3.8164333e-01
 -2.7565734e-02
 -3.1606686e-01
  6.6453598e-02
  8.2452667e-01
 -9.9325776e-02
 -6.8493813e-02
  9.6803000e-03
 -2.1073937e-01
 -5.2512759e-01
  2.6788780e-01
  4.3375427e-01
 -5.3729767e-01
  1.9989033e-01
 -4.9070224e-01
 -5.7959527e-02
 -1.2223622e-01
 -5.1328748e-02
  1.0006590e+00
  6.9548285e-01
 -2.4247924e-02
 -2.0268439e-01
 -3.3282751e-01
  8.1046426e-01
  2.0831399e-01
 -3.0388072e-01
  1.5281914e-01
 -1.9890481e-01
  3.4529202e-02
 -6.2461680e-01
  8.0905437e-02
  3.4616455e-02
  1.3169825e-01
  1.0382147e+00
 -8.5106939e-02
 -5.7450116e-01
  2.4318196e-01
 -1.1795905e-02
  2.3019853e-01
 -5.6974107e-01
  6.3080847e-01
 -1.3096513e-01
  1.6611882e+00
 -4.7440901e-02
  2.2333048e-01
 -6.9242704e-01
  8.6531505e-02
  3.7461782e-01
 -3.5140464e-01
 -1.2476088e+00
  2.4055509e-02
 -5.3657490e-01
 -2.9860795e-04
 -4.4538346e-01
  2.5156736e-01
  5.0964154e-02
  6.8954565e-02
  1.3270549e+00
 -5.5213082e-01
  5.8276504e-01
  3.3259258e-01
 -2.3427762e-01
 -8.2680666e-01
  4.7548953e-02
  3.7418565e-01
 -8.2386127e-03
  1.4314494e-01
  8.1572801e-01
 -6.6210032e-01
  1.0416476e+00
  1.2524980e-01
  2.8618419e-01
 -1.7344981e-01
 -2.2188564e-01
  1.1627276e-01
 -2.0148456e-01
  1.2856984e-01
 -2.7965466e-02
 -2.2862528e-01
 -8.2877153e-01
  1.6112359e-01
 -6.2821008e-02
 -3.0874556e-01
 -1.4010705e-01
 -5.1912284e-01
 -8.8689506e-01
 -3.2026041e-01
  3.7377411e-01
 -3.1357673e-01
 -2.7400846e-02
 -2.2372560e-01
  3.1433603e-01
  2.7861470e-01
  1.0664757e+00
  3.7854204e-01
 -7.9712674e-02
 -5.2271253e-01
 -7.0829284e-01
  2.1043883e-01
 -6.8879449e-01
  5.6082636e-01
  3.7322861e-01
 -1.6049628e-01
  4.1641232e-01
 -1.6553982e-01
 -7.4621207e-01
  4.2831153e-01
 -3.7448487e-01
 -1.1213515e-03
 -9.0481848e-02
  1.6674373e-01
  1.3677678e-01
 -2.7970001e-01
  1.2503281e+00
 -1.5339887e-01
  5.1981527e-01
 -3.9164299e-01
  7.2057712e-01
  2.0465276e-01
 -4.6647769e-01
 -5.0100327e-01
  1.5786196e-01
 -2.1420588e-01
  4.9130846e-02
 -2.2509226e-01
 -1.3406262e-01
 -9.1106873e-03
  2.8772205e-01
 -1.5300500e+00
 -1.5117429e-01
  3.6465433e-01
 -8.9611828e-01
  1.0843854e+00
  1.6681162e-01
  1.5053120e-01
  1.8819484e-01
  1.0531240e-01
 -1.8714671e-01
 -2.8025106e-01
 -1.6514359e-01
 -7.1041572e-01
  2.9052565e-01
  1.1736941e-01
  8.6323977e-02
 -1.3604955e-01
  8.4285945e-02
 -2.5947601e-01
  9.0169030e-01
  7.3055103e-02
  2.2891636e-01
 -4.8577386e-01
  2.3570776e-01
 -2.5247219e-01
  2.1253158e-01
  3.9437868e-02
 -3.6148942e-01
  2.3017025e-01
 -6.8188506e-01
 -1.7962454e-01
 -4.6206180e-02
 -3.9574757e-01
  5.5074960e-01
 -9.4081379e-02
 -1.3913237e-01
 -2.1937575e-02
 -6.3375449e-01
 -2.6430991e-01
 -2.7085415e-01
  8.1672400e-02
  1.1844746e+00
 -3.8314053e-01
  4.0562369e-02
  5.6730413e-01
 -4.4481131e-01
 -1.1964750e-02
 -3.2022467e-01
 -1.1216059e-01
  2.3556772e-01
 -3.1299153e-01
  6.3404858e-01
  1.0203247e-02
 -1.2555012e+00
  6.2420432e-02
 -4.8953426e-01
  4.6417364e-01
  4.3063158e-01
  2.5342241e-01
 -2.6198387e-01
 -5.4858172e-01
  3.9182723e-01
  5.7731494e-02
  8.5296094e-02
 -4.3964931e-01
 -5.5505747e-01
 -4.7101340e-01
  4.9373999e-01
 -1.8908148e-01
  7.0934743e-01
  5.6167537e-01
  6.4162070e-01
  4.1105687e-03
 -2.7729806e-01
 -1.3276290e-02
 -5.5936432e-01
  2.7059846e-02
 -9.8684588e-03
  4.8942795e-01
 -2.7991140e-01
  6.2028170e-01
  6.0702920e-01
 -5.4151607e-01
  2.9659811e-01
 -6.6861540e-02
 -1.1037771e-01
  3.3490193e-01
 -5.4696049e-03
  1.1902300e+00
 -3.2179233e-01
  5.0433445e-01
  2.4239625e-01
 -3.0364904e-01
 -5.2071451e-03
 -8.2898754e-05
 -2.4657068e-01
  3.4325039e-01
  4.1238806e-01
 -3.6697963e-01
  2.3621126e-01
 -9.4018799e-01
  8.4431624e-01
 -3.8058335e-01
  3.9143786e-01
 -5.7535267e-01
  4.9997639e-04
  5.5841225e-01
 -6.1125606e-01
  3.6842272e-01
 -1.9201952e-01
  1.0225109e-01
  1.6937883e-01
 -3.5650122e-01
  4.1543370e-01
 -6.6173321e-01
 -4.1271031e-02
  8.6429423e-01
 -1.1234275e-01
 -7.6483876e-02
 -1.5251200e-01
 -5.9818584e-01
  1.8150386e-01
  5.3608596e-02
  1.0591947e-01
 -4.2964286e-01
 -3.2124782e-01
 -1.2144125e-01
  4.9963567e-02
  4.2078358e-01
  2.0377243e-02
  1.1075360e+00
 -8.3408393e-02
 -4.2456660e-01
 -4.6513624e-02
 -3.0343032e-01
 -4.3221191e-01
  7.2718360e-02
  1.1207591e+00
  6.4965767e-01
  3.1437001e-01
 -5.6544286e-01
  3.0883172e-01
  3.3596050e-02
 -3.0085158e-01
 -4.9126419e-01
  8.5106958e-03
  3.5760966e-01
 -1.1945551e-03
  2.0034063e-01
  2.3944965e-02
  3.2384319e-03
 -2.2761227e-01
  2.4620606e-01
 -4.9995801e-01
  8.1728178e-01
 -1.2497053e-01
  5.4564450e-02
  6.3538307e-01
 -1.8489039e-02
  7.5514652e-02
  5.9038013e-01
  1.6279557e-01
  3.3873075e-01
 -3.2607192e-01
  4.4709796e-01
  3.6676353e-01
  7.6068425e-01
  2.0574465e-01
  5.7807201e-01
  9.8249778e-02
  5.7527918e-02
 -6.2196724e-02
 -5.6727654e-01
  8.8497832e-02
 -1.9246520e-01
 -7.1382456e-02
  1.0591625e-01
 -4.1978103e-01
 -6.4207888e-01
 -1.0501698e+00
 -1.7421572e-01
  1.8389805e-01
 -3.0570224e-01
 -1.9232896e-01
  2.2117211e-01
 -9.0379232e-01
  3.1479761e-01
 -1.0988766e-01
 -1.4642058e-01
 -9.7330846e-02
  6.0668749e-01
 -5.5392545e-01
 -3.1419206e-01
  4.8364282e-01
 -7.5773872e-02
  1.8513694e-02
  8.3519287e-02
 -9.5648363e-02
 -7.5630260e-01
  2.2094667e-01
 -3.7025890e-01
 -9.8287426e-02
 -9.1519719e-01
 -3.3082339e-01
 -1.8747950e+00
 -2.9590765e-01
  2.0539135e-01
  2.9807171e-01
 -6.9517535e-01
 -9.1377631e-02
 -1.9774476e-01
 -7.8778282e-02
  2.6485279e-01
  1.2584265e-01
 -3.0381137e-01
 -1.9338099e-02
 -1.8405519e-01
 -4.8236558e-01
 -4.0951791e-01
  3.4374502e-01
  2.0875923e-01
  3.8917980e-01
 -3.5554218e-01
  2.5453898e-01
 -1.5581118e-02
  3.7828010e-01
  4.6587628e-01
  1.6602138e-01
  2.9336241e-01
 -4.5238104e-01
  1.6395782e-01
  1.9683613e-01
 -9.5042242e-03
  3.2976482e-02
  1.6401839e-01
 -1.8929861e-01
 -3.2929707e-01
 -5.4710306e-02
  9.6607184e-01
 -6.5043487e-02
  3.8946128e+00
 -1.5036015e-01
  8.3267015e-01
 -7.2063601e-01
  1.8520650e-01
  3.2560655e-01
  1.0376068e-01
 -1.3163066e-01
  7.7080913e-02
  1.4657761e-01
  1.5822246e+00
 -1.0004778e+00
 -6.7654800e-01
  7.8221065e-01
 -1.5134513e-01
  1.0249057e+00
 -5.7628208e-01
  2.9919699e-03
  3.1328773e-01
 -2.3905613e-01
  9.2828413e-03
 -1.8326623e+00
  2.0776078e-01
  4.3535762e-02
 -1.3651524e-01
  2.2091597e-02
  8.1611294e-01
 -3.1308353e-01
  3.1574473e-02
  1.2366348e-02
  3.7328355e-02
 -3.0299097e-01
 -9.7856082e-02
  2.1962501e-01
  1.4550851e-01
 -8.2020685e-02
  1.9566739e-01
 -7.0488811e-02
  3.5578537e-01
  1.5754183e-01
 -2.1952857e-01
  7.8202620e-02
  3.6953907e-03
  2.2707455e-01
  2.3438731e-01
 -2.4234759e-02
 -7.2031263e-03
 -3.6748442e-01
 -3.3290154e-01
  2.0392056e-01
 -2.7338531e-02
 -6.2986530e-02
 -6.6244256e-01
 -5.1042449e-02
 -2.0486940e-01
 -2.3921855e-01
  1.5943657e-01
 -6.7591563e-02
 -4.8785943e-01
  7.7075326e-01
  1.3359869e-01
 -5.3664249e-01
  6.5178216e-02
 -3.8572642e-01
  9.4177499e-02
 -7.6953411e-01
  1.7999944e-01
  2.3560478e-01
 -1.0324870e+00
 -4.7618306e-01
  1.2835866e-01
 -1.3492175e+00
  4.4082768e-02
 -1.2808884e+00
  4.6291235e-01
 -8.4254570e-02
  5.6678528e-01
 -7.8162603e-02
 -4.8548636e-01
 -2.0600116e-01
  1.8407132e-01
 -7.5177252e-01
  3.0479300e-01
  6.0659397e-01
 -3.9438303e-03
  8.0801696e-02
  4.0848374e-02
 -2.4955921e-02
  3.5209793e-01
  1.1812584e-01
  6.7369513e-02
 -1.7944048e-01
  5.3947300e-01
 -2.4858627e-01
  3.3210844e-01
  1.0860574e-01
  1.9412932e-01
  1.0537191e-02
 -3.9259362e-01
 -1.8271115e-02
 -1.5191031e-01
 -1.2141149e-02
  2.6222840e-01
 -1.2003655e-01
  9.7613439e-02
  6.3999814e-01
 -1.3651891e+00
 -3.8588083e-01
 -6.4162773e-01
  1.5539001e-01
  8.1027561e-01
  5.7093489e-01
 -1.0567100e-01
  2.7973467e-01
  1.8066053e-01
  2.3827006e-01
 -2.5929469e-01
 -1.5747374e-01
  3.3541211e-01
  1.5513480e-01
  4.6665198e-01
 -2.8330612e-01
  3.2001033e-01
  9.5842786e-02
  3.3354872e-01
 -1.9983585e-01
  4.9717617e-01
  1.5049137e-01
  1.2590352e-01
  2.7320102e-01
  4.7343108e-01
  1.9089399e-01
  1.0958320e+00
  5.1572490e-01
  1.1867069e-01
 -8.2743056e-03
 -3.0693388e-01
 -3.1049094e-01
 -2.7968633e-01
  9.1739468e-02
 -4.3250573e-01
 -3.5096905e-01
  3.3350475e-02
 -3.3055204e-01
  1.6920905e-01
  1.2520029e-02
 -2.5888648e-02
 -3.5417411e-01
 -4.6438571e-02
  5.3652757e-01
 -9.8116323e-02
 -1.3987819e+00
 -1.0169108e-02
 -1.1731942e-01
  5.4778612e-01
  4.9218781e-02
  6.1370033e-01
  3.8425255e-01
 -2.6978701e-02
  1.7089920e-01
  2.4266677e-01
 -2.0248370e+00
  4.5106816e-01
 -2.8204715e-01
 -5.7698262e-01
 -2.1077993e+00
  1.3488871e-01
 -1.8135083e+00
 -7.7478141e-01
 -1.0581903e+00
  7.9392827e-01
 -7.5878721e-01
 -3.0291438e-01
 -9.3381858e-01
 -2.3575093e-01
 -4.3445595e-02
 -3.1182835e-01
 -1.2198646e+00
 -5.9085184e-01
  2.8278115e-01
  3.0322382e-01
  4.0686563e-01
 -6.4689596e-03
  2.9019055e-01
  1.1450800e-01
  8.7903762e-01
  4.9729314e-01
  5.5922322e-02
 -2.8615516e-01
  3.1960472e-01
  2.3033190e-01
  4.7632876e-01
 -2.0720825e-01
  5.6418812e-01
 -5.2663869e-01
  1.9760631e-01
  5.6518221e-01
 -7.9805605e-02
  5.6036883e-03
  7.2010018e-02
 -8.0018699e-02
 -5.5399823e-01
  4.3088353e-01
  8.9509211e-02
  7.5476445e-02
  1.3032280e-01
 -3.2821193e-01
  7.4323781e-02
 -4.1888168e-01
  2.7903311e+00
 -4.0919429e-01
  1.7560922e-01
 -4.1503269e-02
  1.1866588e-01
 -2.4195549e-01
  1.8906929e-02
  6.4115506e-01
  1.2167724e-01
 -3.1250871e-03
  1.0079266e+00
  6.7247486e-01
 -2.6073053e-02
  2.2306073e-01
  6.3008213e-01
 -2.5641495e-01
 -4.3814847e-01
 -2.6978227e-01
 -4.3688372e-02
 -1.7278759e+00
 -5.5153072e-01
  1.9885924e-01
  1.8286914e-01
 -3.0244371e-01
 -1.4347674e-01
 -3.5727885e-01
  2.1216415e-01
 -1.7936602e-01
 -2.3138948e-01
  4.8865822e-01
  4.6469837e-01
 -2.8951392e-01
  1.9653000e-01
 -5.5872297e-01
  7.5709546e-01
  1.6634111e-01
 -8.2006030e-02
  1.7043067e-02
 -2.7460566e-01
  5.9363678e-02
 -4.5215851e-01
  3.6681544e-02
  6.8603925e-02
 -2.1821666e-01
  6.3076563e-02
 -9.4873738e-01
 -2.2691539e-01
 -1.3154893e-01
 -2.5531736e-01
  6.7878425e-01
  4.8924679e-01
  6.6295820e-01
 -8.4603578e-01
  6.0708147e-01
  2.3636942e-01
  4.0877685e-01
 -4.1389593e-01
  1.0241839e-01
  5.3350065e-02
  3.7791509e-02
 -1.8778208e-01
  8.0920108e-02
 -1.2596533e-01
  1.0177727e+00
 -1.3685831e-01
  2.0709243e+00
  9.4844170e-02
  6.7231290e-02
  4.1473353e-01
  3.0366743e-01
  2.6691914e-01
  9.2292815e-02
 -7.6974511e-01
  1.4328456e-01
  6.8251461e-02
  6.5815412e-02
  6.0144943e-01
  3.2420647e-01
  4.4791746e-01
 -2.7684599e-01
 -2.5612143e-01
 -1.4328560e-01
  1.7807356e-01
 -1.7645502e-01
  2.4053086e-01
  4.2035052e-01
 -1.0692668e-01
  1.8688457e-01
 -3.6870044e-02
 -6.1133157e-02
 -1.1445010e-01
  2.7361608e-01
 -1.3737161e-01
  4.2389739e-01
  5.2000951e-02
  2.3932309e-01
  3.5451046e-01
  2.7921215e-02
  3.4087047e-01
  1.2359745e-01
 -6.5357763e-01
 -7.4150056e-01
  1.1043597e+00
 -4.4346023e-01
 -5.1503841e-02
 -7.2238982e-01
  1.7555900e-01
  9.2485428e-01
  1.1894439e+00
  2.1465423e+00
  1.6653728e+00
 -6.8487778e-02
 -2.6453254e+00
 -3.4822311e-02
  3.0271596e-01
 -1.1969998e+00
 -2.0671506e-01
 -2.4150674e-01
 -7.7143699e-01
  7.1382213e-01
 -7.1719491e-01
  1.8019828e+00
 -1.6734195e+00
 -3.6687174e-01
  9.7821951e-01
  5.0985005e-02
  1.8083099e+00
  1.3254843e+00
  3.3696720e-01
  8.4692734e-01
 -9.7781301e-01
 -4.6736512e-02
  3.7207329e-01
 -1.8277991e+00
  1.3130944e+00
 -6.8187773e-01
 -1.2356215e+00
  7.2784889e-01
  1.1458296e+00
 -1.0720789e+00
 -5.0987273e-01
 -7.4476890e-02
 -1.2989430e+00
  4.1854715e-01
  1.0417154e+00
  2.8146857e-01
 -5.1967877e-01
  3.2037966e-02
  2.2062153e-01
 -1.6333363e+00
 -4.0926501e-02
  5.5219120e-01
 -1.1823936e+00
  2.2551726e-01
 -3.8580039e-01
 -3.3403987e-01
 -4.1162930e-03
 -4.1369703e-01
 -1.9819510e-01
 -5.0065643e-01
  2.0551914e-01
  1.7697224e-01
 -2.2320914e-01
  1.7811772e-01
 -9.0036884e-02
 -4.4852328e-01
 -4.1132861e-01
  7.0645548e-02
  8.8637173e-02
 -4.0707940e-01
  1.7457247e-01
 -3.7525755e-01
 -5.9737116e-02
 -1.7123154e-01
  4.7987711e-01
 -7.9852009e-01
  5.8439726e-01
 -4.6559924e-01
  1.0938219e-01
  2.9742506e-01
 -1.2822087e-01
 -2.7879599e-02
 -5.2978206e-02
  4.3320420e-01
  9.9928148e-02
 -2.4096005e-01
 -8.0760429e-03
  3.4261918e-01
 -1.2491539e-01
  3.2837316e-02
 -1.1480306e+00
 -2.7830573e-02
  2.5383316e-03
 -3.9999139e-02
 -7.5072634e-01
 -4.7061187e-01
  3.8388919e-02
  1.0234667e-01
 -1.4612515e-01
  1.5303522e-01
  4.8256693e+00
  3.0868506e+00
 -2.4758499e+00
  3.4215968e+00
 -2.2176144e+00
  2.5614502e+00
 -7.6298803e-01
 -5.7928544e-01
  5.7127172e-01
 -2.8680463e+00
  1.9879247e+00
 -9.8950583e-01
  1.8095513e-01
 -1.0544344e+00
  9.9435568e-01
 -3.7761033e-02
 -1.8435363e+00
 -2.8973697e-02
  1.7211999e-01
  1.4949509e+00
  3.8555399e-01
 -1.0585465e-01
  1.5486220e+00
 -1.0008523e+00
 -1.6467466e+00
 -7.7026367e-01
 -1.6363040e+00
  3.3935657e-01
 -3.5327346e+00
  1.0460663e+00
 -7.3756140e-01
  7.5222343e-01
  3.1889369e+00
  2.6015549e+00
  7.6507509e-01
 -6.7873979e-01
  3.7997706e+00
 -1.3252278e-01
  2.6296864e+00
 -1.1439523e+00
 -1.9338820e+00
 -1.7573251e+00
 -7.7454072e-01
 -2.5320916e+00
  5.6152743e-01
  2.0120192e-01
  1.8918309e+00
 -8.2298803e-01
 -6.6632642e-03
  1.2022231e+00
 -7.7660389e-02
 -1.9446796e+00
  3.1648188e+00
 -1.0801018e+00
 -2.8369427e-01
 -2.7145392e-01
  6.6497374e-01
  6.0657758e-01
  2.0843220e+00
  5.2601379e-01
  3.4889600e+00
  7.6235831e-01
 -5.1766002e-01
  7.6486218e-01
 -2.2680201e-01
  1.0285535e+00
  3.3092308e-01
 -6.3107359e-01
  9.5043302e-01
  4.0968475e+00
  2.0383300e-01
  8.9901912e-01
  3.5846634e+00
  1.3594730e+00
  3.2892809e+00
 -1.9954093e-01
 -1.4843637e+00
 -4.9082798e-01
  1.3947822e+00
 -3.2991946e-02
 -6.0156602e-01
  1.4143862e+00
  3.9949150e+00
 -6.0244179e+00
 -1.7008889e+00
  3.4710652e-01
 -8.6878425e-01
 -5.0519723e-02
 -1.3061562e-01
 -1.4858762e+00
  7.1441507e-01
  6.4838952e-01
  6.7873448e-01
  2.8269109e-03
 -7.6706414e-03
 -2.5286296e-02
  6.6874880e-01
  5.2111626e-01
 -6.9799669e-02
 -6.2969208e-01
  6.2070456e+00
  5.3801198e-02
 -2.0158968e+00
  1.1262827e+00
 -1.3968724e-01
 -9.2270070e-01
  9.7675925e-01
  4.2240387e-01
 -6.9611448e-01
  1.1487004e+00
  8.1215128e-02
 -2.3775136e+00
 -7.9020452e-01
 -1.1774629e+00
 -1.3522903e+00
  1.4545339e+00
 -1.1106902e+00
  2.7043688e-01
 -2.2314008e-01
 -7.0101299e+00
  5.8622833e-02
 -1.5238225e+00
  3.9883375e-02
 -5.7914311e-01
  9.5754224e-01
  3.6030570e-01
  3.6284563e-01
  5.5247867e-01
 -1.2669590e+00
  1.4502558e+00
  2.5270810e+00
 -3.7672257e-01
 -6.9438690e-01
  5.8614725e-01
 -6.0310941e-02
  1.4523786e-01
  1.3431215e+00
 -3.8565218e-02
  6.1220914e-01
 -2.2582629e-01
 -1.1228406e+00
 -1.5233748e+00
  4.1334726e-02
 -7.1455890e-01
  4.1776913e-01
  1.3039161e-01
  9.5491074e-02
 -9.9012381e-01
 -1.0424938e+00
 -2.3046963e+00
 -7.2173601e-01
  2.7242501e+00
 -1.6955301e+00
  5.6583107e-01
 -5.3914702e-01
  1.6455875e-01
 -4.3216158e-02
  1.4986577e+00
 -9.4399220e-01
 -2.0899221e-01
  7.3843366e-01
  2.0577988e-01
  8.9145505e-01
 -7.1230149e-01
  2.9841955e+00
 -3.1063067e-02
 -1.8411456e-01
 -1.1714405e+00
 -2.9989856e-01
 -5.7011195e-02
 -3.3066027e+00
 -9.3357295e-02
  1.0902284e+00
 -2.2083192e-01
 -1.0671313e+00
  1.4531220e+00
  2.9831836e-01
 -4.7345105e-01
  2.5716266e-01
  1.4840727e-01
  1.2899634e+00
  3.9437377e+00
 -1.4551250e+00
  2.9089725e+00
 -3.1650691e+00
  1.7510246e-01
 -6.1359221e-01
  2.3032258e+00
 -4.4495568e+00
 -9.3074858e-01
 -2.5243311e+00
  4.7130470e+00
  8.1026876e-01
  7.9897743e-01
  1.4976287e+00
 -6.1066431e-01
  3.1002539e-01
 -1.0448383e+00
 -4.6319232e+00
 -4.2159030e-01
  2.6959081e+00
 -3.5095069e-01
 -1.2336055e+00
 -6.6214103e-01
  1.5374166e-01
  1.1704987e+00
  2.3827763e-01
  4.8159304e-01
  5.3728306e-01
  5.1485157e-01
 -1.6455845e+00
 -1.7451912e+00
  9.3347621e-01
  2.5354499e-01
 -1.8689264e-01
 -6.3826996e-01
 -3.5095927e-01
 -8.5309289e-02
 -2.8676050e+00
 -1.0254738e+00
 -4.5392963e-01
 -3.9869186e-01
 -8.0097157e-01
 -3.0615371e-01
 -9.6392907e-02
 -6.7161882e-01
 -1.7846062e+00
 -4.8635650e-01
  1.9430885e+00
 -9.8694855e-01
 -1.2388901e+00
 -1.3222410e-01
  1.9542645e+00
 -8.6135989e-01
  2.6803544e-01
  1.1034314e-01
 -2.2181470e+00
  5.2754694e-01
  9.9107504e-01
  3.2512882e-01
  6.1803126e-01
  4.8115309e-02
 -2.8932235e-01
 -1.2131302e+00
 -1.5884831e+00
  2.2323038e-01
 -1.2745696e+00
  2.5203173e+00
 -5.2123163e-02
  1.1689310e+00
 -2.1457426e-01
 -2.1370420e+00
  9.0810400e-01
  8.7933683e-01
  8.1734538e-02
 -1.6783556e-01
 -7.1660715e-01
  9.6042597e-01
  1.8670347e-01
 -2.1898942e-01
 -8.0449325e-01
 -6.9184649e-01
 -3.7535172e+00
  3.0440848e+00
  8.0391330e-01
 -5.6221747e-01
 -2.0340898e+00
 -4.6844140e-01
 -1.2631501e+00
 -1.2108828e-02
  9.4598883e-01
  2.0718007e+00
  1.0626073e+00
 -1.0307318e+00
  2.0027390e+00
 -5.0408058e-03
  1.7833754e-01
  5.2478343e-02
 -5.5097055e-01
 -1.6376172e-01
  3.1562321e+00
 -1.8750837e+00
  2.3229179e+00
  2.8790346e-01
 -5.0988311e-01
  2.2460712e-01
 -1.6558183e+00
 -2.5979774e-02
  1.8874912e-02
 -1.2823812e+00
  7.9470943e-04
  1.7013912e+00
  1.3437341e+00
 -1.8809298e-01
  4.1247779e-01
 -3.7740958e-01
 -9.3460009e-02
 -4.9058983e-01
 -2.1338244e-01
  1.1138569e+00
  1.2727715e+00
  1.9652407e+00
  3.5590214e-01
  6.4705752e-02
  7.8365779e-01
  5.6647414e-01
 -6.7638379e-01
  4.5217586e+00
  5.8300298e-01
  3.2840416e-02
 -3.1425576e+00
  5.0854909e-01
  3.8505542e-01
 -6.7716658e-01
 -1.6482966e+00
 -4.3384990e-01
  3.6650732e+00
 -1.0825440e+00
 -1.4369282e-01
  2.0987765e-01
 -1.8194597e+00
  1.5019654e+00
  2.4779041e+00
  6.5845385e-02
 -2.1645717e-01
  1.9477341e+00
 -2.3212297e+00
  1.0261144e-01
 -1.9060979e+00
  1.3533591e+00
 -1.1753682e-01
  1.9634357e-01
 -6.6145158e-01
  2.4329515e+00
 -6.8570361e-03
 -3.5422280e-01
  1.5934964e+00
 -2.8003350e-01
  1.5634955e-01
 -2.0297559e-01
 -2.3282096e-01
 -6.8020426e-02
 -4.5034403e-01
  6.1134756e-01
  1.2611066e-01
 -3.1904216e+00
  1.8847336e-01
  1.8824664e+00
  2.1294703e-01
 -4.3414149e+00
  2.0668124e-01
 -4.6404985e-01
  2.4661829e+00
 -1.0511636e+00
  5.9037739e-01
  3.0546629e+00
 -6.1860133e-02
 -7.9357594e-01
 -2.2197737e-01
 -4.9360535e-01
  4.7460887e-01
 -2.0860992e-02
  1.8475950e-01
 -1.4453655e+00
  2.2185817e+00
  5.9398998e-02
  9.9595368e-02
 -2.1620801e-01
 -1.3673367e-01
  4.6617784e-02
  6.9631922e-01
 -2.7374878e+00
 -2.4259162e-01
 -1.8504363e-02
 -1.7812446e+00
 -9.1068739e-01
 -4.1302275e-02
  3.2694513e-01
  1.3533008e+00
  1.7936852e+00
  3.9841247e-01
 -4.6781960e-01
  1.9802620e+00
 -8.7644017e-01
  1.8631763e+00
  1.0552473e+00
 -1.2903979e+00
 -2.4207416e+00
  2.2532804e-01
  1.7528334e+00
  7.8908211e-01
  1.5051622e+00
  7.3859042e-01
 -5.9539294e-01
  9.9936940e-02
 -8.3139873e-01
 -9.7530174e-01
  1.1451647e+00
 -1.7248386e-01
  2.3162054e-01
  1.0277184e+00
  2.4932452e-01
 -5.0790757e-01
  2.3186796e+00
  1.3218936e+00
  2.7336603e-01
  3.3580315e-01
  1.5190171e-01
 -5.3631902e-01
  1.3257719e+00
  5.7562828e-01
  2.4548294e-01
  2.0393522e-01
  1.0745335e+00
 -1.4452091e+00
 -4.6874216e-01
 -5.5609781e-01
 -9.5339447e-01
 -9.5908016e-01
  5.1902868e-02
 -2.8318033e-01
  5.2505118e-01
  7.2070307e-01
  9.8832048e-02
 -3.4736886e+00
 -1.6842607e+00
  5.0284237e-01
 -2.9243367e+00
  9.5484012e-01
  1.0090401e+00
  1.2675371e+00
  2.8892510e+00
  1.4095348e+00
 -1.5268958e+00
  2.8056161e+00
  8.6392033e-01
  8.6601263e-01
  2.2206600e-01
  7.7763909e-01
  1.0597289e+00
 -1.9013967e-01
  1.7751249e+00
 -7.2746062e-01
 -1.3238839e+00
 -5.2396894e-01
  2.6140726e-01
 -4.3324395e-03
  6.7677915e-01
  1.8152629e+00
 -1.9191630e-01
  9.8860404e-04
  4.0941072e-01
 -1.9746792e+00
 -2.0250250e-01
 -3.0257177e-01
 -7.0582718e-01
 -7.9011667e-01
 -1.4628538e+00
 -9.6404272e-01
  1.7675306e+00
 -7.7787304e-01
 -1.3536408e+00
  1.3974030e-01
 -3.6470845e-01
  3.5781369e-01
  5.7291514e-01
 -2.7633229e-01
  7.6207721e-01
  1.7833966e+00
  1.8852429e+00
  3.2792047e-01
  2.5345838e-01
  4.3872130e-01
 -2.7761335e-02
 -2.8409332e-01
 -1.2277027e-01
  3.6641162e-02
 -1.3223267e-01
  9.4647676e-01
  1.7448749e-01
  1.3985907e-01
  2.1163513e-01
  2.0541734e-01
  2.0543762e-01
 -5.8348631e-03
 -1.6213316e-01
  3.7566740e-02
 -5.0598735e-01
  3.7128136e-01
 -1.0355939e+00
  6.1231494e-02
  3.5483789e-02
  1.9203497e-02
 -1.5698360e+00
 -7.0986080e-01
 -1.1606326e-01
 -8.1688052e-01
  1.6742364e+00
  1.7411628e-01
  4.1580337e-01
 -1.5367256e-02
  2.4061526e-01
 -1.0680192e-01
 -1.1771199e+00
  1.4095637e-01
 -7.8870565e-02
  1.3795957e-01
  1.9797124e+00
 -9.9580306e-01
  1.5470597e-01
  1.3866634e+00
 -1.7443786e+00
  2.3725338e+00
 -1.9452610e+00
 -3.6984167e+00
  5.4387820e-01
  3.0109572e-01
 -1.3045536e+00
 -4.4315521e-02
  2.4684194e-01
 -5.2135366e-01
  1.1792712e-01
  1.3551527e-01
 -1.2769095e+00
  8.3690500e-01
 -1.1785125e+00
 -5.8046311e-01
  1.9572939e-01
  4.6871069e-01
 -1.9511229e-01
 -2.6183355e-01
 -6.0768408e-01
  1.2597430e-01
  2.3699379e-01
  2.6966175e-01
 -2.8342816e-01
 -5.5664754e-03
 -1.2662380e+00
 -1.8122111e-01
 -1.7017849e-01
  4.7280809e-01
  6.2338448e-01
 -4.8026448e-01
 -1.1570759e+00
  1.4149956e-01
  5.3284204e-01
 -9.3452948e-01
 -4.0195256e-02
  4.5584401e-01
 -1.5721093e+00
  1.0753748e+00
  8.9339864e-01
  1.0756630e-01
 -6.0044639e-02
  5.8637822e-01
  6.6661543e-01
 -1.2952926e+00
 -3.8430758e-02
  2.1046594e-01
  7.5146198e-01
  4.9278182e-01
  4.8210013e-01
  1.7846313e-01
 -1.5965623e-01
  1.1681899e-01
  6.2463224e-02
  1.5450733e+00
 -1.3175430e+00
  1.7587953e+00
 -2.0054854e-01
  8.0191267e-01
  1.0966421e+00
  6.5246917e-02
  8.7460496e-02
 -3.0800712e-01
  5.5573553e-01
 -4.1060030e-02
 -9.0305203e-01
  7.3592174e-01
 -7.5076336e-01
 -1.9840384e-01
  8.3659911e-01
 -2.7794838e-01
 -9.7261695e-03
  2.4353758e-01
 -4.3854681e-01
 -9.2333436e-01
 -2.9403603e+00
 -3.8535792e-02
 -5.6913179e-01
 -1.9853370e-01
  8.6185765e-01
 -5.9397385e-02
  7.8797114e-01
  1.8157980e+00
 -1.6277187e+00
  2.7137664e-01
 -2.8845798e-02
 -2.9126737e-01
  3.4094933e-02
 -8.4550631e-01
 -4.4936824e-01
 -7.2525516e-02
  1.3227119e+00
  1.6570659e+00
  3.3835232e+00
 -4.4953298e-02
  1.3945378e+00
  5.6580625e-02
 -2.8458604e-01
  6.8685532e-01
  7.1333840e-02
  4.0195432e-01
 -6.3724279e-02
  1.6877357e+00
  1.0620874e+00
 -4.2241678e-01
  9.3098521e-01
  5.1053011e-01
 -5.7441795e-01
  5.8691423e-02
 -1.5552963e+00
 -2.1320174e+00
 -8.2912219e-01
 -4.0047696e-01
 -7.3454684e-01
  2.5956176e-02
  3.3530039e-01
 -6.4836890e-01
 -9.6499987e-02
 -2.8092164e-01
 -2.2409742e+00
 -8.6875737e-01
  3.2731715e-01
 -8.2566106e-01
  2.2631784e-01
  4.5613086e-01
  2.2092217e-01
 -6.2761295e-01
 -1.2492611e+00
  3.0337965e-01
 -3.0023498e-02
  1.1588762e-01
 -6.8311703e-01
 -1.6525321e-01
 -5.8422130e-01
  5.1033676e-01
 -1.6575977e-01
 -6.3419014e-01
 -1.3279691e+00
 -1.2255020e+00
  2.6049367e-01
  1.6789410e-02
  2.8548134e-02
 -2.5948423e-01
 -6.4706147e-01
 -2.3517478e-01
  8.4114426e-01
  5.3663939e-01
  2.1801608e+00
 -1.1458476e+00
  1.0768266e-01
  4.3985177e-02
  5.5607802e-01
 -3.4550836e+00
  2.2661814e-03
  1.1252220e-01
  4.1809878e+00
  6.8840015e-01
  3.0381897e-02
  1.6972811e+00
 -7.7563131e-01
 -6.9022125e-01
  3.0434291e+00
  7.0175117e-01
  1.4370118e+00
  5.7493734e-01
  6.0082477e-01
  1.8573430e+00
 -4.2497352e-01
 -3.8907114e-01
 -1.2282317e+00
 -1.7543222e+00
 -6.0916044e-02
 -2.6547443e-02
 -1.1795651e+00
  8.1872481e-01
 -6.0430133e-01
 -3.6291984e-01
 -7.7614737e-01
 -1.8688837e-01
  4.1261813e-01
  2.0729342e-01
 -1.6493299e+00
 -1.0971512e+00
  1.5916407e+00
 -1.2187909e+00
  1.0848759e+00
 -1.8494375e-01
 -1.2969990e-01
 -1.0423796e-01
  3.5704491e-01
  6.5636092e-01
  1.5421121e-01
  8.5773098e-01
  7.4779563e-02
 -2.5301066e-01
  1.5909380e-01
  7.2996899e-02
  6.3027650e-02
 -9.9254584e-01
 -1.2712191e-01
  1.6901927e-01
 -7.0965993e-01
  4.3504456e-01
  6.9803995e-01
 -8.0703998e-01
 -1.1281461e-01
 -3.3245698e-01
  1.2920281e-01
 -2.2683682e+00
  3.5210058e-01
 -3.3099943e-01
  8.6412445e-02
  4.2631093e-01
 -2.8864506e-03
  7.0778325e-02
 -3.6144984e-01
 -3.7075037e-01
 -1.8541806e+00
  1.2732553e+00
  3.8670605e-01
  4.1769478e-01
  8.3452106e-01
 -3.6731267e-01
  1.9033891e+00
  8.4197652e-01
 -3.7993395e+00
  2.2796695e-01
 -1.0805499e-01
 -2.2641492e+00
  2.1306567e-01
 -3.3479831e-01
 -1.9253103e-01
  1.1407439e-02
 -2.4050886e-02
  4.0601587e-01
 -1.2265690e-01
 -2.3248060e+00
  1.2984778e+00
  4.1575676e-01
 -2.6731985e+00
 -1.7931018e+00
 -7.1564180e-01
  7.4243820e-01
  3.6947238e+00
  1.1931223e+00
 -4.7055960e-01
 -4.1835263e-01
  1.1559701e+00
 -1.0854859e+00
 -1.0234543e+00
 -4.4892673e+00
 -9.6859910e-02
  8.5273105e-01
  3.8048156e-02
  1.3531141e+00
  9.7173415e-02
 -5.1751286e-01
 -1.5802850e+00
  1.9462506e-01
 -6.5434033e-01
 -3.9161256e-01
 -4.7995004e-01
 -9.4305992e-02
  3.6747938e-01
 -7.6728356e-01
 -1.7245952e+00
  1.6409193e+00
 -6.1266482e-01
 -2.8712898e-01
 -4.6714348e-01
 -1.8443830e+00
 -1.4740683e+00
  3.2598767e+00
  7.5235993e-02
  1.4789857e-01
  1.0999146e+00
 -1.3545738e-01
  9.5264070e-02
 -1.4906959e-01
  7.1192539e-01
  1.7800952e-01
  1.2177184e+00
 -4.0628242e-01
  2.3069517e-01
  1.7514437e+00
  2.1279018e-01
 -3.4461714e-02
  1.3630927e+00
  3.4952517e+00
  4.8170809e-02
 -1.9944949e-02
  6.5297657e-01
  5.1523519e-01
  5.1463228e-01
 -1.4181928e-01
 -6.9366537e-02
 -9.6491498e-01
 -9.9113263e-02
 -5.4842186e-01
  2.7487645e-02
  2.7487645e-02
  2.7487645e-02
  2.7487645e-02
  2.7487645e-02
  2.5527325e-01
  2.5527325e-01
  2.5527325e-01
  2.5527325e-01
  2.5527325e-01
  4.3708706e-01
  4.3708706e-01
  4.3708706e-01
  4.3708706e-01
  4.3708706e-01
  1.7291513e-01
  1.7291513e-01
  1.7291513e-01
  1.7291513e-01
  1.7291513e-01
  2.0452596e-02
  2.0452596e-02
  2.0452596e-02
  2.0452596e-02
  2.0452596e-02
  1.1565264e+00
  1.1565264e+00
  1.1565264e+00
  1.1565264e+00
  1.1565264e+00
